~o
<STREAMINFO> 1 25
<VECSIZE> 25<NULLD><MFCC_E_D_N><DIAGC>
~h "jmodel"
<BEGINHMM>
<NUMSTATES> 3
<STATE> 2
<NUMMIXES> 128
<MIXTURE> 1 5.748964e-03
<MEAN> 25
 -2.584184e+00 3.181633e+00 2.312237e+00 8.755634e+00 4.372325e+00 3.449572e+00 4.062895e+00 3.935718e+00 5.832278e+00 5.253559e+00 5.885276e+00 3.080398e+00 -2.004827e+00 -1.634995e+00 -8.643337e-01 1.076190e+00 1.560943e+00 2.232683e+00 2.154745e+00 2.085158e+00 1.693621e+00 1.269758e+00 1.567652e+00 6.133729e-01 -4.693120e-02
<VARIANCE> 25
 1.006379e+01 1.176054e+01 1.494566e+01 1.867999e+01 2.319138e+01 2.215143e+01 2.189553e+01 2.197729e+01 2.099978e+01 2.253711e+01 2.094585e+01 1.708294e+01 1.788787e+00 2.111546e+00 3.026284e+00 3.209970e+00 3.739575e+00 3.356586e+00 3.318788e+00 3.380327e+00 3.521736e+00 3.727192e+00 3.513679e+00 2.834395e+00 3.121484e-03
<GCONST> 8.846384e+01
<MIXTURE> 2 4.549243e-03
<MEAN> 25
 -4.875671e+00 1.311720e+00 9.943511e-01 9.899809e+00 6.692275e+00 7.424650e+00 7.847087e+00 6.958091e+00 8.373269e+00 6.373019e+00 7.624402e+00 3.074697e+00 -6.200235e-02 4.161923e-02 1.425301e-01 2.258583e-01 2.652900e-01 2.813653e-01 2.954302e-01 3.195550e-01 3.497573e-01 3.089160e-01 1.971766e-01 8.006547e-02 1.228299e-06
<VARIANCE> 25
 6.952293e+00 8.901894e+00 1.065126e+01 1.591096e+01 1.723581e+01 1.556308e+01 1.689898e+01 1.848562e+01 1.658668e+01 1.738619e+01 1.811029e+01 1.434002e+01 1.252503e-01 2.266278e-01 3.364712e-01 4.671271e-01 6.492781e-01 8.148874e-01 9.298788e-01 1.003176e+00 1.051662e+00 1.077774e+00 1.075658e+00 1.013934e+00 1.000000e-06
<GCONST> 5.804302e+01
<MIXTURE> 3 4.549243e-03
<MEAN> 25
 -4.875671e+00 1.311720e+00 9.943511e-01 9.899809e+00 6.692275e+00 7.424650e+00 7.847087e+00 6.958091e+00 8.373269e+00 6.373019e+00 7.624402e+00 3.074697e+00 -6.200235e-02 4.161923e-02 1.425301e-01 2.258583e-01 2.652900e-01 2.813653e-01 2.954302e-01 3.195550e-01 3.497573e-01 3.089160e-01 1.971766e-01 8.006547e-02 1.228299e-06
<VARIANCE> 25
 6.952293e+00 8.901894e+00 1.065126e+01 1.591096e+01 1.723581e+01 1.556308e+01 1.689898e+01 1.848562e+01 1.658668e+01 1.738619e+01 1.811029e+01 1.434002e+01 1.252503e-01 2.266278e-01 3.364712e-01 4.671271e-01 6.492781e-01 8.148874e-01 9.298788e-01 1.003176e+00 1.051662e+00 1.077774e+00 1.075658e+00 1.013934e+00 1.000000e-06
<GCONST> 5.804302e+01
<MIXTURE> 4 1.671429e-02
<MEAN> 25
 3.441588e+00 2.551288e+00 -3.801143e+00 9.389555e-01 4.324630e+00 -2.121131e-01 7.350115e-02 9.839955e-03 1.506796e+00 1.302264e+00 -1.888491e+00 1.041791e-01 -2.772236e+00 1.218158e+00 1.778274e+00 3.092486e+00 9.219660e-01 5.017998e-01 1.518292e+00 1.044313e+00 9.764630e-01 4.319018e-01 1.241631e+00 8.999571e-01 -1.041164e-01
<VARIANCE> 25
 2.117806e+01 2.952924e+01 2.922224e+01 3.982838e+01 4.574721e+01 6.881644e+01 6.535546e+01 5.379616e+01 5.545084e+01 6.222522e+01 4.980746e+01 3.594602e+01 2.348688e+00 5.057731e+00 3.736487e+00 4.945531e+00 5.022362e+00 6.164996e+00 6.105725e+00 5.577247e+00 5.970348e+00 6.437103e+00 6.122375e+00 4.466486e+00 6.089981e-03
<GCONST> 1.055093e+02
<MIXTURE> 5 3.206197e-03
<MEAN> 25
 -3.417124e+00 2.181292e+00 6.104762e-01 9.428815e+00 6.697091e+00 6.316087e+00 7.112480e+00 4.723432e+00 5.495997e+00 3.848135e+00 4.658652e+00 2.606614e+00 -3.246489e-01 7.528989e-01 1.224844e+00 1.032669e+00 3.076725e-01 -1.001753e-01 -8.378793e-02 3.354761e-02 4.580160e-01 6.837502e-01 4.038862e-01 8.803672e-02 -2.771655e-05
<VARIANCE> 25
 1.025059e+01 1.394296e+01 2.348663e+01 2.561708e+01 2.022128e+01 1.942519e+01 2.011361e+01 2.035939e+01 2.141926e+01 2.128350e+01 2.409771e+01 1.636018e+01 1.210090e+00 1.244381e+00 1.357131e+00 1.673520e+00 2.284818e+00 2.376345e+00 2.301544e+00 2.275354e+00 2.315568e+00 2.238201e+00 2.085590e+00 1.873948e+00 1.000000e-06
<GCONST> 7.516648e+01
<MIXTURE> 6 5.475855e-03
<MEAN> 25
 9.702702e+00 -4.178424e-01 -6.691998e+00 -1.104602e+01 -2.117114e+00 6.735279e+00 -5.899994e+00 -5.296920e+00 -3.657475e+00 1.829463e+00 4.644487e+00 -1.252170e+00 4.850871e-01 8.962659e-01 -3.510929e-01 -1.468869e+00 -6.383689e-01 1.314998e+00 1.536770e+00 2.476028e-01 -1.218812e+00 -1.218189e+00 3.231222e-01 1.228796e+00 -8.164290e-03
<VARIANCE> 25
 8.961686e+00 1.707969e+01 2.395579e+01 3.911837e+01 3.678364e+01 3.064828e+01 4.407720e+01 3.807365e+01 4.075629e+01 3.947670e+01 4.210604e+01 2.841947e+01 3.116064e-01 8.573176e-01 9.455768e-01 1.977990e+00 1.605834e+00 2.015919e+00 1.919329e+00 2.051860e+00 2.398890e+00 1.963933e+00 2.246093e+00 1.438114e+00 5.860072e-04
<GCONST> 8.387616e+01
<MIXTURE> 7 5.475855e-03
<MEAN> 25
 9.702702e+00 -4.178424e-01 -6.691998e+00 -1.104602e+01 -2.117114e+00 6.735279e+00 -5.899994e+00 -5.296920e+00 -3.657475e+00 1.829463e+00 4.644487e+00 -1.252170e+00 4.850871e-01 8.962659e-01 -3.510929e-01 -1.468869e+00 -6.383689e-01 1.314998e+00 1.536770e+00 2.476028e-01 -1.218812e+00 -1.218189e+00 3.231222e-01 1.228796e+00 -8.164290e-03
<VARIANCE> 25
 8.961686e+00 1.707969e+01 2.395579e+01 3.911837e+01 3.678364e+01 3.064828e+01 4.407720e+01 3.807365e+01 4.075629e+01 3.947670e+01 4.210604e+01 2.841947e+01 3.116064e-01 8.573176e-01 9.455768e-01 1.977990e+00 1.605834e+00 2.015919e+00 1.919329e+00 2.051860e+00 2.398890e+00 1.963933e+00 2.246093e+00 1.438114e+00 5.860072e-04
<GCONST> 8.387616e+01
<MIXTURE> 8 1.165917e-02
<MEAN> 25
 -4.730320e+00 1.362825e+00 1.292750e+00 9.559900e+00 6.575481e+00 6.255202e+00 6.480119e+00 5.688783e+00 6.659309e+00 5.632592e+00 6.573779e+00 3.153097e+00 -6.298331e-01 -1.425829e+00 -1.071370e+00 -1.731296e+00 -2.311880e-01 -9.456044e-01 -1.777637e-01 -2.896143e-01 -2.530347e-01 -1.740465e-01 -2.133992e-01 8.128357e-02 9.889641e-02
<VARIANCE> 25
 9.340027e+00 9.847264e+00 1.161116e+01 1.605310e+01 1.663492e+01 1.570609e+01 1.812848e+01 1.751129e+01 1.704206e+01 1.737495e+01 1.887413e+01 1.399769e+01 2.757283e+00 2.815402e+00 3.907048e+00 3.761810e+00 3.456009e+00 3.316004e+00 3.128994e+00 3.080770e+00 2.871963e+00 2.655849e+00 2.434866e+00 1.902042e+00 6.681927e-03
<GCONST> 8.628760e+01
<MIXTURE> 9 1.199672e-02
<MEAN> 25
 9.301972e+00 3.394514e+00 -6.209826e+00 -1.067627e+01 -2.213504e+00 4.969028e+00 -2.208699e+00 -2.304520e+00 -5.395236e+00 -1.256763e+00 5.693500e-01 -1.026967e-02 1.441240e+00 -1.286764e-01 -4.914074e-01 -2.704865e+00 -1.646779e+00 8.552980e-01 -9.725450e-01 -2.307204e-01 -1.804379e-01 -5.770750e-01 6.150120e-01 -1.526510e-01 7.334814e-02
<VARIANCE> 25
 1.221777e+01 2.140637e+01 3.355613e+01 5.350280e+01 5.017770e+01 3.229086e+01 4.320274e+01 5.216861e+01 4.207890e+01 4.159667e+01 3.612042e+01 2.692384e+01 2.088169e+00 2.451021e+00 4.573528e+00 4.876304e+00 5.010339e+00 4.096229e+00 4.237775e+00 6.042570e+00 5.039431e+00 4.079893e+00 4.016123e+00 2.804712e+00 2.212812e-03
<GCONST> 9.879805e+01
<MIXTURE> 10 6.596975e-03
<MEAN> 25
 8.210059e-01 7.634367e+00 5.375957e+00 7.148989e+00 1.587359e+00 -2.115164e+00 -5.181956e-01 -1.685375e+00 8.743564e-01 8.599326e-01 8.390179e-01 6.573990e-01 -1.924940e+00 -6.733400e-01 -4.585977e-01 3.028214e+00 2.463276e+00 2.710474e+00 2.373911e+00 2.277892e+00 1.861639e+00 1.545136e+00 2.335875e+00 5.248725e-01 -1.381432e-01
<VARIANCE> 25
 1.954187e+01 2.068566e+01 2.230444e+01 2.906123e+01 3.831321e+01 3.494081e+01 3.514595e+01 3.384125e+01 2.761283e+01 2.904954e+01 2.695905e+01 2.501452e+01 2.234845e+00 3.426175e+00 5.535602e+00 5.169560e+00 5.552354e+00 4.469520e+00 4.699816e+00 4.843578e+00 4.388601e+00 5.021101e+00 4.442219e+00 3.191094e+00 2.696751e-03
<GCONST> 9.745957e+01
<MIXTURE> 11 1.633820e-02
<MEAN> 25
 7.976788e+00 4.397827e+00 3.626249e+00 5.307954e+00 -3.342356e+00 -2.092645e+00 -2.432346e+00 -6.621080e+00 -3.597363e+00 1.470452e-01 -2.644823e+00 -2.224851e+00 -2.728374e-01 5.382597e-01 1.788763e-01 2.838606e-01 5.176242e-01 -6.573789e-02 2.633969e-01 -1.557729e-01 -1.781801e-01 -3.038283e-02 -1.463082e-01 1.581319e-01 -1.715068e-02
<VARIANCE> 25
 1.018330e+01 2.443369e+01 2.034688e+01 3.165734e+01 3.955814e+01 3.985528e+01 4.944893e+01 4.418926e+01 4.417870e+01 3.598045e+01 3.556982e+01 2.968551e+01 9.517952e-01 1.262819e+00 1.720531e+00 2.249612e+00 2.104337e+00 2.200131e+00 2.140846e+00 2.812426e+00 2.183110e+00 1.988438e+00 1.897698e+00 1.614143e+00 9.811044e-04
<GCONST> 8.784317e+01
<MIXTURE> 12 5.904133e-03
<MEAN> 25
 1.076560e+01 3.743735e+00 -4.502602e+00 -1.599388e+01 -8.696410e+00 8.642797e+00 -8.969009e-01 -1.922052e+00 -1.722980e+00 -4.886589e+00 1.774710e+00 7.166889e-01 6.774627e-02 2.937798e-01 7.962041e-02 -3.682872e-01 -3.103059e-01 2.955552e-02 3.055291e-01 4.477949e-01 1.410529e-01 -3.846962e-01 -3.855875e-01 5.392561e-02 -6.303085e-03
<VARIANCE> 25
 8.882922e+00 2.100217e+01 2.335674e+01 3.503046e+01 4.206025e+01 3.095905e+01 4.179796e+01 4.898256e+01 4.406412e+01 3.738961e+01 3.799839e+01 2.892757e+01 2.468068e-01 6.883447e-01 6.860434e-01 1.169912e+00 1.186473e+00 1.053881e+00 1.171063e+00 1.386203e+00 1.240587e+00 1.222250e+00 1.221483e+00 9.564718e-01 5.786435e-04
<GCONST> 7.892069e+01
<MIXTURE> 13 5.904133e-03
<MEAN> 25
 1.076560e+01 3.743735e+00 -4.502602e+00 -1.599388e+01 -8.696410e+00 8.642797e+00 -8.969009e-01 -1.922052e+00 -1.722980e+00 -4.886589e+00 1.774710e+00 7.166889e-01 6.774627e-02 2.937798e-01 7.962041e-02 -3.682872e-01 -3.103059e-01 2.955552e-02 3.055291e-01 4.477949e-01 1.410529e-01 -3.846962e-01 -3.855875e-01 5.392561e-02 -6.303085e-03
<VARIANCE> 25
 8.882922e+00 2.100217e+01 2.335674e+01 3.503046e+01 4.206025e+01 3.095905e+01 4.179796e+01 4.898256e+01 4.406412e+01 3.738961e+01 3.799839e+01 2.892757e+01 2.468068e-01 6.883447e-01 6.860434e-01 1.169912e+00 1.186473e+00 1.053881e+00 1.171063e+00 1.386203e+00 1.240587e+00 1.222250e+00 1.221483e+00 9.564718e-01 5.786435e-04
<GCONST> 7.892069e+01
<MIXTURE> 14 6.488954e-03
<MEAN> 25
 -4.319729e+00 -3.797284e-01 -3.111360e-01 8.913133e+00 7.516590e+00 7.381401e+00 7.832468e+00 7.329075e+00 7.253504e+00 5.227885e+00 6.869109e+00 4.103255e+00 -2.744738e-01 1.935899e-01 3.655592e-01 3.104563e-01 6.735780e-03 6.030799e-02 9.705280e-02 1.772222e-01 2.958573e-01 5.399655e-01 5.066848e-01 7.582425e-02 -9.339713e-03
<VARIANCE> 25
 9.286633e+00 1.386134e+01 1.863297e+01 1.782983e+01 2.089983e+01 1.958391e+01 2.149857e+01 2.062358e+01 2.008109e+01 2.391490e+01 2.137373e+01 1.597864e+01 9.623175e-01 1.640926e+00 1.774246e+00 1.935852e+00 2.246166e+00 2.258820e+00 2.256568e+00 2.241090e+00 2.285456e+00 2.508139e+00 2.196968e+00 1.813106e+00 1.030096e-03
<GCONST> 8.191275e+01
<MIXTURE> 15 2.475190e-03
<MEAN> 25
 -5.424104e+00 -6.444228e-01 -2.011948e-01 7.368020e+00 5.719728e+00 5.701523e+00 6.060597e+00 4.979655e+00 5.164851e+00 4.154551e+00 5.502402e+00 2.539962e+00 -1.212346e-01 -2.916862e-02 7.500418e-02 2.436760e-01 4.894040e-01 7.865168e-01 1.072446e+00 1.182141e+00 1.059321e+00 7.561350e-01 4.197349e-01 1.534032e-01 -8.263445e-05
<VARIANCE> 25
 6.984151e+00 5.606074e+00 9.032881e+00 1.281365e+01 1.407832e+01 1.429724e+01 1.492043e+01 1.489847e+01 1.410044e+01 1.418376e+01 1.510192e+01 1.250873e+01 1.247606e-01 2.061875e-01 3.197811e-01 5.030959e-01 6.995990e-01 7.936963e-01 7.631562e-01 7.916138e-01 9.090421e-01 1.023956e+00 1.071348e+00 1.041232e+00 2.795582e-05
<GCONST> 5.858709e+01
<MIXTURE> 16 2.475190e-03
<MEAN> 25
 -5.424104e+00 -6.444228e-01 -2.011948e-01 7.368020e+00 5.719728e+00 5.701523e+00 6.060597e+00 4.979655e+00 5.164851e+00 4.154551e+00 5.502402e+00 2.539962e+00 -1.212346e-01 -2.916862e-02 7.500418e-02 2.436760e-01 4.894040e-01 7.865168e-01 1.072446e+00 1.182141e+00 1.059321e+00 7.561350e-01 4.197349e-01 1.534032e-01 -8.263445e-05
<VARIANCE> 25
 6.984151e+00 5.606074e+00 9.032881e+00 1.281365e+01 1.407832e+01 1.429724e+01 1.492043e+01 1.489847e+01 1.410044e+01 1.418376e+01 1.510192e+01 1.250873e+01 1.247606e-01 2.061875e-01 3.197811e-01 5.030959e-01 6.995990e-01 7.936963e-01 7.631562e-01 7.916138e-01 9.090421e-01 1.023956e+00 1.071348e+00 1.041232e+00 2.795582e-05
<GCONST> 5.858709e+01
<MIXTURE> 17 9.518314e-03
<MEAN> 25
 3.770632e+00 -7.761412e-01 6.428051e+00 2.403381e+00 -6.005750e+00 -6.398680e+00 -3.139959e+00 -1.415832e-01 -2.674724e+00 -3.277942e+00 6.700905e-02 -1.547219e-02 -7.668579e-01 -1.221614e+00 1.311064e+00 -2.136688e+00 -2.368244e+00 -1.559855e-01 1.857615e-01 7.669649e-01 -2.807478e-01 -1.805484e-01 1.036335e+00 4.024899e-01 8.250026e-02
<VARIANCE> 25
 1.654848e+01 3.167564e+01 3.005977e+01 3.972382e+01 4.501120e+01 4.894746e+01 4.237314e+01 3.431630e+01 3.558077e+01 2.702505e+01 2.813203e+01 2.807643e+01 1.834466e+00 2.707378e+00 4.017543e+00 3.085314e+00 4.104231e+00 5.488300e+00 5.000890e+00 4.725929e+00 4.080190e+00 4.040455e+00 3.066323e+00 2.736964e+00 2.124920e-03
<GCONST> 9.698728e+01
<MIXTURE> 18 1.221018e-02
<MEAN> 25
 3.954168e+00 4.622341e+00 6.747318e+00 4.742472e+00 -4.614962e+00 -8.359966e+00 -1.743255e+00 -1.171567e+00 -3.371455e+00 -2.455298e+00 -8.811415e-01 5.776747e-01 -7.619171e-01 2.161569e+00 -1.998772e-01 2.032756e+00 3.117822e+00 1.484916e+00 8.039532e-01 -2.110845e-01 6.188647e-01 5.193805e-01 -2.900928e-01 -6.147878e-02 -1.239173e-01
<VARIANCE> 25
 1.609135e+01 2.533103e+01 3.288676e+01 2.616954e+01 4.005201e+01 3.366460e+01 3.868071e+01 3.512905e+01 3.920658e+01 3.453828e+01 3.254096e+01 3.097662e+01 2.563421e+00 3.033602e+00 4.736792e+00 4.049831e+00 4.091617e+00 4.672060e+00 4.657790e+00 4.455386e+00 4.489521e+00 4.314572e+00 4.571115e+00 3.628170e+00 4.105490e-03
<GCONST> 9.852767e+01
<MIXTURE> 19 9.912825e-03
<MEAN> 25
 -1.017772e+01 1.830509e+00 3.108876e-01 1.084112e+00 4.002612e+00 1.590811e+00 3.416252e+00 1.141697e+00 2.081115e+00 1.179299e+00 1.111532e+00 2.030565e+00 2.096260e+00 1.756113e+00 2.167618e+00 7.534500e-01 -1.056908e+00 -1.026326e+00 -1.048047e+00 -1.419375e+00 -1.498653e+00 -1.145600e+00 -8.363035e-01 -8.063868e-01 1.404752e-03
<VARIANCE> 25
 5.339979e+01 3.025235e+01 4.836815e+01 5.372271e+01 3.385618e+01 3.285489e+01 3.125266e+01 2.978743e+01 2.859699e+01 2.709992e+01 3.032690e+01 1.978715e+01 2.400271e+00 2.204187e+00 2.187759e+00 2.344922e+00 2.571128e+00 2.246520e+00 2.455541e+00 2.396554e+00 2.103323e+00 2.046660e+00 2.250223e+00 1.775927e+00 2.409325e-03
<GCONST> 9.174113e+01
<MIXTURE> 20 6.308330e-03
<MEAN> 25
 -1.418145e+01 7.416194e+00 8.452314e-01 6.152289e+00 4.843555e+00 1.637090e+00 5.209284e+00 8.536933e-01 9.223132e-01 7.987435e-01 2.568580e+00 -3.024292e-01 -3.285946e+00 -8.668866e-01 -1.565170e+00 3.325815e-01 1.541046e+00 2.063141e+00 1.979244e+00 2.056207e+00 2.144594e+00 2.040245e+00 1.684746e+00 9.453121e-01 4.732136e-02
<VARIANCE> 25
 1.966348e+01 2.345561e+01 3.096064e+01 3.717621e+01 3.084978e+01 2.789033e+01 2.993287e+01 3.147528e+01 2.796411e+01 2.821392e+01 2.515978e+01 2.091775e+01 2.092036e+00 2.182255e+00 1.909938e+00 2.541362e+00 2.702739e+00 2.313095e+00 2.310106e+00 2.320019e+00 2.235433e+00 2.652243e+00 2.241424e+00 1.865659e+00 1.886420e-03
<GCONST> 8.921882e+01
<MIXTURE> 21 7.928652e-03
<MEAN> 25
 4.005882e+00 -4.531059e+00 5.775165e+00 -1.546952e+00 -1.058368e+01 -8.728052e+00 -2.615778e+00 4.175993e+00 -2.071722e+00 -3.410179e+00 2.440027e-01 3.408447e-01 -7.194154e-01 1.341708e+00 2.589612e+00 -4.471967e-02 -1.552066e+00 3.358045e-01 5.889755e-01 -1.498192e+00 -1.958373e+00 3.136154e-01 1.326586e+00 2.465736e-01 -1.278311e-02
<VARIANCE> 25
 8.900938e+00 1.873065e+01 2.966117e+01 2.840939e+01 2.855922e+01 3.319905e+01 4.294960e+01 3.936776e+01 4.293458e+01 3.159950e+01 3.383117e+01 2.323763e+01 3.763435e-01 9.497297e-01 1.854673e+00 1.290644e+00 2.212313e+00 2.187893e+00 3.641841e+00 2.501165e+00 2.161416e+00 2.595606e+00 2.017792e+00 2.285177e+00 4.286738e-04
<GCONST> 8.509572e+01
<MIXTURE> 22 8.827789e-03
<MEAN> 25
 -1.792091e+01 7.154785e+00 -4.131347e+00 7.392482e+00 4.602546e+00 2.761039e+00 8.399819e+00 1.748462e+00 5.379299e+00 3.301012e+00 5.716434e+00 1.185148e+00 -3.095726e-01 -2.075880e-01 -1.255633e-01 -1.492641e-01 -7.208806e-03 1.369678e-01 1.807591e-01 1.779423e-01 2.484757e-01 2.073076e-01 1.726615e-01 1.924446e-01 8.857626e-03
<VARIANCE> 25
 8.116920e+00 1.682541e+01 1.738343e+01 2.517213e+01 2.289636e+01 2.083704e+01 1.943101e+01 1.871084e+01 1.813996e+01 2.086667e+01 1.924184e+01 1.378720e+01 1.090756e+00 1.357369e+00 1.363971e+00 1.572030e+00 1.408815e+00 1.526971e+00 1.508942e+00 1.532825e+00 1.614233e+00 1.544764e+00 1.357418e+00 1.168007e+00 1.745583e-03
<GCONST> 7.830949e+01
<MIXTURE> 23 6.455497e-03
<MEAN> 25
 7.964428e+00 2.458858e+00 3.041340e+00 2.432470e+00 -4.880809e+00 -3.163821e+00 -4.277419e+00 -6.520471e+00 -3.453959e+00 -1.029604e+00 -4.133347e+00 -2.135890e+00 3.424063e-02 1.772717e-01 8.573967e-03 5.515680e-02 1.929566e-03 4.751632e-02 2.037783e-02 -4.736256e-02 9.313698e-03 4.895737e-02 3.037997e-03 3.991989e-02 -4.367888e-03
<VARIANCE> 25
 1.037386e+01 2.229606e+01 2.461592e+01 4.080980e+01 3.806764e+01 5.393045e+01 5.919451e+01 5.500744e+01 4.820605e+01 4.708727e+01 4.843738e+01 4.034605e+01 1.182176e-01 2.943902e-01 3.794747e-01 4.896945e-01 5.984080e-01 7.120566e-01 7.748936e-01 8.786337e-01 8.805822e-01 8.796816e-01 8.198320e-01 7.587966e-01 8.786571e-05
<GCONST> 7.297529e+01
<MIXTURE> 24 6.455497e-03
<MEAN> 25
 7.964428e+00 2.458858e+00 3.041340e+00 2.432470e+00 -4.880809e+00 -3.163821e+00 -4.277419e+00 -6.520471e+00 -3.453959e+00 -1.029604e+00 -4.133347e+00 -2.135890e+00 3.424063e-02 1.772717e-01 8.573967e-03 5.515680e-02 1.929566e-03 4.751632e-02 2.037783e-02 -4.736256e-02 9.313698e-03 4.895737e-02 3.037997e-03 3.991989e-02 -4.367888e-03
<VARIANCE> 25
 1.037386e+01 2.229606e+01 2.461592e+01 4.080980e+01 3.806764e+01 5.393045e+01 5.919451e+01 5.500744e+01 4.820605e+01 4.708727e+01 4.843738e+01 4.034605e+01 1.182176e-01 2.943902e-01 3.794747e-01 4.896945e-01 5.984080e-01 7.120566e-01 7.748936e-01 8.786337e-01 8.805822e-01 8.796816e-01 8.198320e-01 7.587966e-01 8.786571e-05
<GCONST> 7.297529e+01
<MIXTURE> 25 1.118642e-02
<MEAN> 25
 2.951608e-01 3.481918e+00 1.679388e+01 -1.035136e+00 -1.133490e+01 -1.760473e+00 -4.994354e+00 -2.947549e+00 -6.941215e+00 -5.449253e+00 4.104566e+00 -1.645198e+00 -1.351106e-01 4.405250e-01 1.691453e-01 1.516291e-01 2.171291e-01 1.101495e-01 1.935101e-01 -1.690647e-01 -2.487808e-01 7.477669e-02 -7.332958e-02 -1.075782e-01 -1.293649e-02
<VARIANCE> 25
 8.850708e+00 2.223229e+01 2.078645e+01 2.868483e+01 3.161145e+01 4.110595e+01 2.736200e+01 2.999529e+01 2.837582e+01 3.662268e+01 2.095141e+01 2.760836e+01 5.960836e-01 1.445501e+00 1.405464e+00 1.383187e+00 2.276511e+00 2.037787e+00 1.748037e+00 1.630532e+00 1.536222e+00 1.650097e+00 1.348966e+00 1.297875e+00 1.282659e-03
<GCONST> 8.273521e+01
<MIXTURE> 26 7.727676e-03
<MEAN> 25
 2.179692e+00 -6.456968e+00 -1.040768e+01 -7.021909e-01 8.016792e+00 5.498183e+00 4.068655e+00 -2.775320e-01 2.278383e+00 -9.620830e-01 -2.900779e+00 -9.915651e-01 -6.551088e-01 6.289637e-01 3.664533e-01 6.968997e-01 1.749073e-01 2.421211e-01 2.882994e-01 3.352036e-01 2.884878e-01 8.388440e-02 3.873934e-01 4.282958e-01 -5.285783e-02
<VARIANCE> 25
 2.513646e+01 3.402682e+01 2.559564e+01 6.245092e+01 3.894867e+01 4.245056e+01 4.615249e+01 4.405478e+01 3.936706e+01 5.448173e+01 4.012829e+01 4.679265e+01 1.651954e+00 1.959952e+00 1.930700e+00 2.003741e+00 2.321693e+00 2.369010e+00 2.522056e+00 2.739339e+00 2.335177e+00 2.338298e+00 2.164822e+00 2.002382e+00 3.321114e-03
<GCONST> 9.393383e+01
<MIXTURE> 27 7.727676e-03
<MEAN> 25
 2.179692e+00 -6.456968e+00 -1.040768e+01 -7.021909e-01 8.016792e+00 5.498183e+00 4.068655e+00 -2.775320e-01 2.278383e+00 -9.620830e-01 -2.900779e+00 -9.915651e-01 -6.551088e-01 6.289637e-01 3.664533e-01 6.968997e-01 1.749073e-01 2.421211e-01 2.882994e-01 3.352036e-01 2.884878e-01 8.388440e-02 3.873934e-01 4.282958e-01 -5.285783e-02
<VARIANCE> 25
 2.513646e+01 3.402682e+01 2.559564e+01 6.245092e+01 3.894867e+01 4.245056e+01 4.615249e+01 4.405478e+01 3.936706e+01 5.448173e+01 4.012829e+01 4.679265e+01 1.651954e+00 1.959952e+00 1.930700e+00 2.003741e+00 2.321693e+00 2.369010e+00 2.522056e+00 2.739339e+00 2.335177e+00 2.338298e+00 2.164822e+00 2.002382e+00 3.321114e-03
<GCONST> 9.393383e+01
<MIXTURE> 28 5.036674e-03
<MEAN> 25
 -5.451643e+00 1.172903e-02 -1.569330e+00 6.616287e+00 5.232500e+00 3.518181e+00 5.416431e+00 3.130172e+00 3.922906e+00 2.394200e+00 2.638351e+00 3.220446e+00 -1.152358e-01 2.232223e-01 5.287618e-01 7.848936e-01 8.221655e-01 7.029542e-01 5.231987e-01 3.920046e-01 4.448535e-01 4.824229e-01 3.710276e-01 1.896353e-01 -1.242595e-05
<VARIANCE> 25
 1.043377e+01 8.352378e+00 1.216023e+01 1.484366e+01 1.471105e+01 1.773206e+01 1.804039e+01 1.901551e+01 1.718463e+01 1.673153e+01 2.060886e+01 1.500367e+01 2.565389e-01 3.365524e-01 4.068339e-01 4.641571e-01 6.216307e-01 8.470523e-01 1.056479e+00 1.144800e+00 1.102591e+00 1.029909e+00 1.036744e+00 1.066795e+00 1.000000e-06
<GCONST> 6.025222e+01
<MIXTURE> 29 5.036674e-03
<MEAN> 25
 -5.451643e+00 1.172903e-02 -1.569330e+00 6.616287e+00 5.232500e+00 3.518181e+00 5.416431e+00 3.130172e+00 3.922906e+00 2.394200e+00 2.638351e+00 3.220446e+00 -1.152358e-01 2.232223e-01 5.287618e-01 7.848936e-01 8.221655e-01 7.029542e-01 5.231987e-01 3.920046e-01 4.448535e-01 4.824229e-01 3.710276e-01 1.896353e-01 -1.242595e-05
<VARIANCE> 25
 1.043377e+01 8.352378e+00 1.216023e+01 1.484366e+01 1.471105e+01 1.773206e+01 1.804039e+01 1.901551e+01 1.718463e+01 1.673153e+01 2.060886e+01 1.500367e+01 2.565389e-01 3.365524e-01 4.068339e-01 4.641571e-01 6.216307e-01 8.470523e-01 1.056479e+00 1.144800e+00 1.102591e+00 1.029909e+00 1.036744e+00 1.066795e+00 1.000000e-06
<GCONST> 6.025222e+01
<MIXTURE> 30 8.917813e-03
<MEAN> 25
 -4.494856e+00 -1.955844e-01 6.549833e-01 9.089485e+00 7.776258e+00 7.510958e+00 7.584587e+00 6.881296e+00 6.534019e+00 4.897042e+00 7.013437e+00 3.502835e+00 -2.377401e-02 3.039365e-02 5.648663e-02 8.878811e-02 8.156331e-02 4.432442e-02 1.351708e-02 -3.020081e-03 1.724336e-02 5.153413e-02 6.148052e-02 3.488803e-02 -5.556997e-04
<VARIANCE> 25
 6.938110e+00 9.864533e+00 1.039685e+01 1.374210e+01 1.575179e+01 1.641825e+01 1.912591e+01 1.818077e+01 1.628381e+01 1.836780e+01 2.123915e+01 1.436375e+01 9.739164e-02 1.995653e-01 3.250103e-01 4.815429e-01 6.194437e-01 7.241967e-01 7.724708e-01 8.124726e-01 8.762312e-01 9.372468e-01 9.205506e-01 8.626049e-01 5.096844e-05
<GCONST> 6.058838e+01
<MIXTURE> 31 4.136493e-03
<MEAN> 25
 -3.305519e+00 -5.696820e+00 5.929470e-02 4.883550e+00 3.688562e+00 1.688877e+00 5.247336e+00 6.655999e+00 2.734753e+00 1.235502e+00 6.535572e+00 3.158240e+00 2.534151e-01 4.753544e-01 -2.117221e-01 3.090516e-01 1.204570e-01 4.243750e-01 1.912521e-01 1.452333e-02 3.799725e-01 3.825090e-01 1.063975e-01 1.158461e-01 -1.841489e-02
<VARIANCE> 25
 7.156683e+00 1.525872e+01 1.749170e+01 1.799370e+01 2.532564e+01 2.387149e+01 2.363203e+01 2.532400e+01 2.592496e+01 2.804428e+01 2.032648e+01 1.872265e+01 1.908194e-01 4.935584e-01 6.029301e-01 7.673591e-01 9.665516e-01 1.091719e+00 1.221874e+00 1.392100e+00 1.344890e+00 1.315629e+00 1.245206e+00 1.133445e+00 2.565485e-04
<GCONST> 7.182001e+01
<MIXTURE> 32 4.136493e-03
<MEAN> 25
 -3.305519e+00 -5.696820e+00 5.929470e-02 4.883550e+00 3.688562e+00 1.688877e+00 5.247336e+00 6.655999e+00 2.734753e+00 1.235502e+00 6.535572e+00 3.158240e+00 2.534151e-01 4.753544e-01 -2.117221e-01 3.090516e-01 1.204570e-01 4.243750e-01 1.912521e-01 1.452333e-02 3.799725e-01 3.825090e-01 1.063975e-01 1.158461e-01 -1.841489e-02
<VARIANCE> 25
 7.156683e+00 1.525872e+01 1.749170e+01 1.799370e+01 2.532564e+01 2.387149e+01 2.363203e+01 2.532400e+01 2.592496e+01 2.804428e+01 2.032648e+01 1.872265e+01 1.908194e-01 4.935584e-01 6.029301e-01 7.673591e-01 9.665516e-01 1.091719e+00 1.221874e+00 1.392100e+00 1.344890e+00 1.315629e+00 1.245206e+00 1.133445e+00 2.565485e-04
<GCONST> 7.182001e+01
<MIXTURE> 33 1.508826e-02
<MEAN> 25
 6.595619e+00 -4.019991e+00 -2.219634e+00 -2.636275e+00 -1.963575e+00 -5.626334e+00 -7.278810e+00 1.741604e+00 2.317628e+00 -4.616812e-01 -4.714344e+00 -3.007828e+00 6.537481e-01 -1.173419e+00 -2.443470e+00 -1.870059e+00 1.462339e+00 1.420459e+00 -7.544048e-01 6.577887e-01 1.024091e+00 5.597581e-01 -3.067626e-01 -1.334903e+00 3.770185e-02
<VARIANCE> 25
 9.895164e+00 2.115299e+01 2.904009e+01 3.615791e+01 4.066545e+01 4.408357e+01 4.312579e+01 4.673107e+01 4.054646e+01 4.388074e+01 3.495792e+01 2.842066e+01 1.161291e+00 1.944003e+00 2.200521e+00 2.193202e+00 4.214589e+00 3.438956e+00 4.323776e+00 5.627990e+00 3.783858e+00 4.407165e+00 3.382904e+00 2.605748e+00 1.476362e-03
<GCONST> 9.445869e+01
<MIXTURE> 34 1.588179e-02
<MEAN> 25
 8.926711e+00 4.702056e-02 1.345262e-01 1.215002e+00 -2.945212e+00 -1.522907e+00 -6.153873e+00 -4.691749e+00 -1.806942e+00 1.536788e-01 -2.653034e+00 -3.699159e+00 -1.728236e-02 1.346805e+00 1.474827e+00 2.397381e+00 -4.149233e-02 -1.530339e-01 7.907876e-01 -1.642228e+00 -9.015053e-01 2.590758e-01 -5.560211e-01 2.447520e-01 -6.237911e-02
<VARIANCE> 25
 7.674550e+00 3.104959e+01 2.944876e+01 4.993639e+01 4.238595e+01 4.946742e+01 5.501209e+01 5.671839e+01 5.267899e+01 4.326993e+01 4.834957e+01 3.153779e+01 1.263953e+00 1.984008e+00 4.268190e+00 4.051124e+00 5.634764e+00 5.835622e+00 5.513042e+00 6.166005e+00 5.201892e+00 4.982266e+00 5.025639e+00 3.879962e+00 1.153834e-03
<GCONST> 9.971822e+01
<MIXTURE> 35 1.467755e-02
<MEAN> 25
 -2.156368e+00 -5.253280e+00 -9.992173e+00 2.182948e-01 9.715794e+00 7.988632e-01 1.607754e+00 2.539988e+00 1.472157e+00 4.583341e+00 4.650346e-02 1.883740e+00 5.479804e-01 -1.117852e+00 -1.429212e+00 -1.387646e+00 4.083533e-01 -7.986742e-01 -6.816389e-01 -1.320448e-01 -1.599224e-01 1.642136e-01 -6.521662e-01 -4.975717e-01 1.077641e-01
<VARIANCE> 25
 1.959394e+01 2.946021e+01 4.335221e+01 6.242253e+01 4.209180e+01 5.750702e+01 5.104049e+01 4.364040e+01 5.043395e+01 3.853617e+01 3.660363e+01 3.097168e+01 3.466486e+00 3.575625e+00 6.785756e+00 5.560490e+00 5.224028e+00 5.584626e+00 4.926873e+00 4.748855e+00 5.056393e+00 4.519898e+00 4.080312e+00 3.798824e+00 5.300782e-03
<GCONST> 1.036181e+02
<MIXTURE> 36 1.093293e-02
<MEAN> 25
 5.040513e+00 -3.545464e+00 7.085313e+00 2.707955e+00 -1.018789e+01 -8.970453e+00 -6.288573e+00 3.117430e+00 -1.905572e+00 -4.601301e+00 2.826911e+00 -1.703041e-01 3.643450e-01 1.545776e-01 -9.162988e-01 1.712636e-02 8.774607e-01 4.229570e-02 -4.757240e-01 2.664630e-02 4.242817e-01 5.678861e-01 -4.283648e-01 -3.239956e-01 -1.595401e-02
<VARIANCE> 25
 9.851609e+00 1.683306e+01 2.207980e+01 2.808602e+01 3.138141e+01 3.195940e+01 4.631842e+01 3.525363e+01 3.950951e+01 3.280745e+01 2.781563e+01 2.680603e+01 4.662668e-01 7.435386e-01 1.524156e+00 1.245863e+00 1.632936e+00 1.634968e+00 2.156461e+00 1.747991e+00 2.017103e+00 1.700066e+00 1.414581e+00 1.446079e+00 7.276309e-04
<GCONST> 8.219124e+01
<MIXTURE> 37 1.246826e-02
<MEAN> 25
 5.455177e-01 7.774457e+00 1.205849e+01 -5.555157e+00 -8.031432e+00 -1.052838e+00 -5.080772e+00 -8.324491e+00 -3.710839e+00 -9.074681e-01 -3.669998e+00 -1.292323e+00 1.826137e-01 6.471883e-01 -1.354028e+00 3.583960e+00 1.988092e+00 -3.008035e-01 1.091383e+00 4.360720e-01 5.280645e-01 -3.233026e-01 5.375503e-01 -9.750196e-02 -9.494817e-02
<VARIANCE> 25
 1.593227e+01 2.598293e+01 3.083138e+01 5.101466e+01 3.393669e+01 3.201566e+01 4.398153e+01 3.505313e+01 3.861423e+01 3.597027e+01 3.775356e+01 3.089144e+01 2.956546e+00 3.416127e+00 3.018454e+00 4.091929e+00 4.617923e+00 3.753105e+00 4.208395e+00 3.810974e+00 3.449771e+00 3.621804e+00 3.870178e+00 2.792139e+00 3.927696e-03
<GCONST> 9.778206e+01
<MIXTURE> 38 1.154525e-02
<MEAN> 25
 -4.476925e+00 8.975993e+00 4.601865e+00 3.232454e+00 8.471134e-01 -5.220717e+00 -6.072919e-01 -2.745167e+00 -2.856310e+00 -3.103466e+00 -1.492068e+00 -5.423204e-01 -4.519026e+00 1.252010e+00 -3.116252e-01 1.455030e+00 2.563421e+00 1.392644e+00 2.051610e+00 9.537174e-01 7.858362e-01 6.377710e-01 1.004859e+00 3.258498e-01 4.857297e-02
<VARIANCE> 25
 3.140203e+01 2.955972e+01 3.901703e+01 3.301396e+01 4.886661e+01 3.559236e+01 3.636649e+01 4.165480e+01 3.488081e+01 3.250525e+01 2.429137e+01 2.873221e+01 2.351595e+00 3.941722e+00 3.909839e+00 5.163619e+00 4.248078e+00 5.021264e+00 4.782423e+00 4.644341e+00 4.447000e+00 4.939046e+00 4.390529e+00 3.264287e+00 2.049505e-03
<GCONST> 9.926125e+01
<MIXTURE> 39 9.501867e-03
<MEAN> 25
 1.340387e+00 2.606000e+00 1.021875e+01 -9.223357e+00 -1.129457e+01 -9.895654e-01 -2.967631e+00 -6.577557e+00 -4.525556e+00 8.718677e-01 -3.682330e+00 -2.297655e+00 -7.289780e-01 1.523194e+00 1.626761e+00 -1.390946e+00 7.878245e-02 1.223184e+00 -1.201026e+00 -1.253237e+00 4.295118e-01 4.456944e-01 -5.058109e-01 1.234288e-01 1.327169e-03
<VARIANCE> 25
 8.908757e+00 3.009916e+01 3.162688e+01 3.823084e+01 3.718689e+01 4.271635e+01 4.443857e+01 3.347753e+01 3.944388e+01 3.322213e+01 3.621585e+01 2.944655e+01 6.916431e-01 1.547165e+00 1.511845e+00 2.925331e+00 2.418459e+00 2.823204e+00 3.052963e+00 2.749124e+00 2.436185e+00 2.618347e+00 2.121790e+00 2.070572e+00 1.184772e-03
<GCONST> 8.965953e+01
<MIXTURE> 40 1.030800e-02
<MEAN> 25
 -9.413055e+00 2.133316e+00 -1.103630e+00 8.269092e+00 3.806348e+00 5.519771e+00 5.284620e+00 4.276615e+00 4.602882e+00 4.215790e+00 5.737222e+00 1.711817e+00 -9.329309e-02 -2.351204e-01 -3.250634e-02 -2.317578e-01 -1.062632e-01 -1.107547e-01 6.254488e-02 7.239562e-02 -5.217473e-03 4.866655e-03 6.537687e-02 2.232879e-02 3.902025e-03
<VARIANCE> 25
 4.197837e+01 2.082431e+01 2.970039e+01 2.678693e+01 2.634260e+01 1.906701e+01 1.958571e+01 1.846515e+01 1.729617e+01 1.866222e+01 1.880110e+01 1.460982e+01 7.480429e-01 7.404393e-01 8.793857e-01 1.107219e+00 1.137903e+00 1.255536e+00 1.323183e+00 1.285010e+00 1.250564e+00 1.225465e+00 1.174877e+00 1.076979e+00 8.601992e-04
<GCONST> 7.677566e+01
<MIXTURE> 41 6.713373e-03
<MEAN> 25
 1.308533e+00 1.785501e+00 1.047876e+01 -6.963687e+00 -1.047381e+01 -3.857818e+00 -2.486295e+00 -5.044209e+00 -4.655803e+00 2.663098e+00 -1.745260e+00 -9.518701e-01 7.795932e-02 -7.607641e-01 1.697234e+00 -3.559624e+00 -2.461404e+00 -1.131380e-01 -5.064985e-01 -3.570399e-01 -8.271163e-01 1.086999e+00 -1.046004e+00 8.311216e-02 8.630333e-02
<VARIANCE> 25
 1.169646e+01 2.965764e+01 3.259169e+01 4.003590e+01 3.868280e+01 4.016276e+01 3.714274e+01 2.987189e+01 3.309366e+01 2.877605e+01 3.186072e+01 2.719327e+01 3.178360e+00 3.311765e+00 3.824816e+00 3.795240e+00 4.904281e+00 5.875463e+00 4.715923e+00 4.558536e+00 3.976252e+00 4.220469e+00 3.833265e+00 3.223618e+00 2.929949e-03
<GCONST> 9.791270e+01
<MIXTURE> 42 1.106211e-02
<MEAN> 25
 -1.927635e+00 4.571050e+00 4.671364e+00 2.881631e+00 1.974728e-01 -6.302271e+00 -9.979969e-01 -1.871883e+00 -1.512946e+00 -1.232871e+00 -2.289586e+00 1.267690e+00 4.185868e+00 -3.491971e-01 1.528452e+00 1.978562e-01 -2.963856e+00 -1.153419e+00 -2.258655e+00 -8.183389e-01 -7.874091e-01 -7.358828e-01 5.322216e-01 -1.058659e+00 9.603712e-03
<VARIANCE> 25
 3.629461e+01 2.117105e+01 4.671597e+01 2.621895e+01 3.929702e+01 3.906785e+01 3.726065e+01 2.728592e+01 2.864744e+01 2.757994e+01 2.009664e+01 1.791919e+01 3.555096e+00 4.894184e+00 6.151867e+00 4.790121e+00 4.649192e+00 6.019348e+00 5.085729e+00 5.296442e+00 4.979354e+00 4.859153e+00 4.236849e+00 3.414872e+00 4.470616e-03
<GCONST> 9.983392e+01
<MIXTURE> 43 7.108250e-03
<MEAN> 25
 3.166509e+00 -6.309334e+00 -2.251245e+00 -5.189844e+00 -7.400252e+00 -3.404627e+00 4.141410e+00 1.310629e+00 -5.064775e+00 -7.096175e+00 -4.324910e+00 -1.249608e+00 2.377644e-01 2.165365e+00 1.914286e+00 -1.334695e-01 -1.430425e+00 -7.949351e-01 -9.700343e-01 -7.794135e-01 8.217697e-01 1.468755e+00 3.426339e-01 2.079755e-02 -4.510890e-02
<VARIANCE> 25
 9.600990e+00 1.968834e+01 2.734682e+01 3.520826e+01 3.841099e+01 3.664066e+01 3.329092e+01 3.981250e+01 3.965361e+01 3.863672e+01 2.653881e+01 2.955714e+01 6.906824e-01 1.248950e+00 1.570084e+00 2.491150e+00 2.375531e+00 2.382958e+00 2.653359e+00 3.026976e+00 2.606959e+00 2.577575e+00 2.331519e+00 1.919594e+00 9.432215e-04
<GCONST> 8.796751e+01
<MIXTURE> 44 7.328289e-03
<MEAN> 25
 -1.545218e+01 1.547362e+00 3.601728e+00 -3.298091e+00 3.384151e+00 2.097322e+00 -4.373799e-02 2.448233e+00 1.532416e+00 -7.840756e-01 1.822393e+00 1.977701e+00 -1.632669e-01 -7.311736e-04 1.632325e-01 2.978580e-01 -1.146968e-01 1.943358e-01 4.687304e-01 1.085347e-01 2.471559e-01 1.393683e-01 5.803411e-02 9.641863e-02 4.493322e-03
<VARIANCE> 25
 4.076510e+01 2.801492e+01 3.484599e+01 3.024264e+01 2.955632e+01 3.016116e+01 2.498286e+01 3.191615e+01 2.786108e+01 2.739399e+01 2.723462e+01 1.947919e+01 1.227980e+00 1.549524e+00 1.401474e+00 1.346287e+00 2.165761e+00 1.660006e+00 1.515539e+00 1.654059e+00 1.574731e+00 1.502069e+00 1.369467e+00 1.225507e+00 1.293624e-03
<GCONST> 8.453842e+01
<MIXTURE> 45 1.364932e-02
<MEAN> 25
 -1.245203e+01 3.422291e+00 -1.253558e+00 2.846641e+00 5.736879e+00 1.091893e-01 4.764368e+00 2.862960e+00 3.301465e+00 2.190882e+00 2.367412e+00 2.590978e+00 -2.941185e+00 5.944577e-01 -4.864024e-01 -5.341915e-01 1.939441e-01 -1.695983e-02 4.601979e-01 6.711017e-02 -6.892081e-02 -6.746779e-02 2.506780e-01 9.413528e-02 1.191340e-01
<VARIANCE> 25
 3.350714e+01 3.030395e+01 3.082282e+01 3.502445e+01 3.140504e+01 2.912863e+01 2.967963e+01 2.655596e+01 2.480755e+01 2.336545e+01 2.804457e+01 1.560488e+01 2.424679e+00 3.065903e+00 2.852334e+00 2.681980e+00 2.501318e+00 2.632770e+00 2.313370e+00 2.268571e+00 2.143492e+00 2.118499e+00 1.973826e+00 1.642071e+00 4.082972e-03
<GCONST> 9.055805e+01
<MIXTURE> 46 9.336261e-03
<MEAN> 25
 -9.466179e+00 2.309958e+00 1.199545e+00 7.571264e+00 5.944343e+00 3.338194e+00 7.070124e+00 4.497271e+00 5.709588e+00 4.694503e+00 5.041533e+00 2.927051e+00 1.061186e+00 -2.406563e-01 4.066575e-02 1.002015e+00 6.038363e-01 9.430870e-01 3.870855e-01 6.747371e-01 4.731007e-01 5.081091e-01 6.408492e-01 5.241476e-01 -1.057210e-01
<VARIANCE> 25
 3.422281e+01 4.384899e+01 3.854143e+01 4.994630e+01 5.084114e+01 4.080944e+01 3.706880e+01 3.537646e+01 3.316307e+01 3.095612e+01 2.824025e+01 2.023158e+01 3.912393e+00 4.144668e+00 3.883383e+00 4.140166e+00 4.176615e+00 3.698402e+00 3.382228e+00 3.115938e+00 2.982695e+00 2.866495e+00 2.309528e+00 1.784102e+00 7.951383e-03
<GCONST> 9.830506e+01
<MIXTURE> 47 7.116148e-03
<MEAN> 25
 7.335569e+00 -7.381703e+00 -7.762959e+00 -6.456295e+00 1.507621e+00 8.401668e-01 -2.389986e+00 1.226967e+00 3.019803e+00 1.482519e-01 -4.260213e+00 -6.715914e+00 -1.839834e-01 -1.257756e+00 -6.927825e-01 -4.198701e-01 6.232646e-01 8.176561e-01 8.772765e-01 2.999436e-01 1.178469e-01 -8.866881e-01 -4.678338e-01 -4.576634e-01 3.012924e-02
<VARIANCE> 25
 1.068058e+01 2.102652e+01 2.050895e+01 3.318086e+01 3.622180e+01 5.279520e+01 4.530909e+01 4.079144e+01 4.341658e+01 4.703766e+01 4.865031e+01 3.355425e+01 5.195022e-01 7.716605e-01 1.124507e+00 1.668000e+00 1.979128e+00 2.203598e+00 2.320387e+00 2.481571e+00 2.193824e+00 2.143957e+00 2.186953e+00 2.011715e+00 5.498011e-04
<GCONST> 8.644375e+01
<MIXTURE> 48 7.116148e-03
<MEAN> 25
 7.335569e+00 -7.381703e+00 -7.762959e+00 -6.456295e+00 1.507621e+00 8.401668e-01 -2.389986e+00 1.226967e+00 3.019803e+00 1.482519e-01 -4.260213e+00 -6.715914e+00 -1.839834e-01 -1.257756e+00 -6.927825e-01 -4.198701e-01 6.232646e-01 8.176561e-01 8.772765e-01 2.999436e-01 1.178469e-01 -8.866881e-01 -4.678338e-01 -4.576634e-01 3.012924e-02
<VARIANCE> 25
 1.068058e+01 2.102652e+01 2.050895e+01 3.318086e+01 3.622180e+01 5.279520e+01 4.530909e+01 4.079144e+01 4.341658e+01 4.703766e+01 4.865031e+01 3.355425e+01 5.195022e-01 7.716605e-01 1.124507e+00 1.668000e+00 1.979128e+00 2.203598e+00 2.320387e+00 2.481571e+00 2.193824e+00 2.143957e+00 2.186953e+00 2.011715e+00 5.498011e-04
<GCONST> 8.644375e+01
<MIXTURE> 49 5.548474e-03
<MEAN> 25
 -5.087485e+00 3.547415e-01 1.706981e-01 8.453926e+00 6.148538e+00 5.620632e+00 6.068976e+00 4.488417e+00 5.026273e+00 3.723449e+00 4.934968e+00 2.862850e+00 3.660426e-01 6.559807e-01 7.026452e-01 3.534243e-01 -1.966139e-01 -6.695331e-01 -1.009067e+00 -1.121606e+00 -9.561820e-01 -6.807481e-01 -4.928881e-01 -2.715284e-01 -2.008005e-05
<VARIANCE> 25
 9.597992e+00 1.003649e+01 1.425577e+01 1.587317e+01 1.589453e+01 1.713665e+01 1.943544e+01 1.942959e+01 1.823021e+01 1.794926e+01 2.063239e+01 1.428914e+01 2.803990e-01 2.632295e-01 3.594671e-01 6.115493e-01 8.694316e-01 9.741457e-01 9.924999e-01 1.052719e+00 1.135285e+00 1.219569e+00 1.280768e+00 1.208620e+00 1.434273e-05
<GCONST> 6.432121e+01
<MIXTURE> 50 6.234642e-03
<MEAN> 25
 -4.667297e+00 9.274097e-02 -1.451486e+00 6.200746e+00 4.220960e+00 2.276392e+00 3.705180e+00 1.987271e+00 2.779905e+00 1.404947e+00 2.157530e+00 2.846884e+00 5.631480e-02 1.759396e-01 9.540368e-02 -1.772728e-01 -5.118390e-01 -6.152570e-01 -4.266462e-01 -5.125352e-02 4.410728e-01 7.741106e-01 7.390668e-01 4.451569e-01 -1.301583e-05
<VARIANCE> 25
 1.053794e+01 1.115888e+01 1.434672e+01 1.541858e+01 1.534401e+01 1.857921e+01 1.856904e+01 1.948717e+01 1.854696e+01 1.749004e+01 2.164972e+01 1.520352e+01 1.447876e-01 2.394428e-01 3.785429e-01 5.173824e-01 5.987353e-01 7.348699e-01 9.568260e-01 1.118142e+00 1.060243e+00 9.096958e-01 9.182222e-01 9.894410e-01 1.000000e-06
<GCONST> 5.954233e+01
<MIXTURE> 51 6.234642e-03
<MEAN> 25
 -4.667297e+00 9.274097e-02 -1.451486e+00 6.200746e+00 4.220960e+00 2.276392e+00 3.705180e+00 1.987271e+00 2.779905e+00 1.404947e+00 2.157530e+00 2.846884e+00 5.631480e-02 1.759396e-01 9.540368e-02 -1.772728e-01 -5.118390e-01 -6.152570e-01 -4.266462e-01 -5.125352e-02 4.410728e-01 7.741106e-01 7.390668e-01 4.451569e-01 -1.301583e-05
<VARIANCE> 25
 1.053794e+01 1.115888e+01 1.434672e+01 1.541858e+01 1.534401e+01 1.857921e+01 1.856904e+01 1.948717e+01 1.854696e+01 1.749004e+01 2.164972e+01 1.520352e+01 1.447876e-01 2.394428e-01 3.785429e-01 5.173824e-01 5.987353e-01 7.348699e-01 9.568260e-01 1.118142e+00 1.060243e+00 9.096958e-01 9.182222e-01 9.894410e-01 1.000000e-06
<GCONST> 5.954233e+01
<MIXTURE> 52 6.367945e-03
<MEAN> 25
 1.012409e+01 2.049371e+00 -6.198589e+00 -1.428665e+01 -4.222361e+00 8.537684e+00 -2.752695e+00 -3.061040e+00 -4.408453e+00 -2.132985e+00 3.354725e+00 7.466573e-01 -3.855920e-01 -4.802872e-01 -6.964383e-02 1.140550e+00 1.339759e+00 -4.735020e-01 -6.029696e-01 -6.591303e-01 4.291024e-02 1.246413e+00 3.874820e-01 -5.457838e-01 -1.381981e-02
<VARIANCE> 25
 9.287472e+00 2.048961e+01 2.533449e+01 3.858441e+01 4.573242e+01 3.071616e+01 4.654858e+01 4.894510e+01 4.306497e+01 4.604115e+01 3.995126e+01 3.000907e+01 4.496172e-01 1.480764e+00 1.310601e+00 2.758095e+00 2.328853e+00 2.199865e+00 2.986008e+00 2.799600e+00 3.006294e+00 2.667037e+00 2.520501e+00 2.277603e+00 1.546113e-03
<GCONST> 8.973338e+01
<MIXTURE> 53 6.367945e-03
<MEAN> 25
 1.012409e+01 2.049371e+00 -6.198589e+00 -1.428665e+01 -4.222361e+00 8.537684e+00 -2.752695e+00 -3.061040e+00 -4.408453e+00 -2.132985e+00 3.354725e+00 7.466573e-01 -3.855920e-01 -4.802872e-01 -6.964383e-02 1.140550e+00 1.339759e+00 -4.735020e-01 -6.029696e-01 -6.591303e-01 4.291024e-02 1.246413e+00 3.874820e-01 -5.457838e-01 -1.381981e-02
<VARIANCE> 25
 9.287472e+00 2.048961e+01 2.533449e+01 3.858441e+01 4.573242e+01 3.071616e+01 4.654858e+01 4.894510e+01 4.306497e+01 4.604115e+01 3.995126e+01 3.000907e+01 4.496172e-01 1.480764e+00 1.310601e+00 2.758095e+00 2.328853e+00 2.199865e+00 2.986008e+00 2.799600e+00 3.006294e+00 2.667037e+00 2.520501e+00 2.277603e+00 1.546113e-03
<GCONST> 8.973338e+01
<MIXTURE> 54 7.368619e-03
<MEAN> 25
 -3.633801e+00 4.931954e-02 -6.831419e-01 8.036570e+00 6.484003e+00 4.625407e+00 4.675332e+00 4.601055e+00 4.053099e+00 3.593801e+00 4.457477e+00 2.326298e+00 -2.133210e-03 2.653849e-02 3.415401e-02 4.748240e-02 5.136495e-02 4.707923e-02 3.888674e-02 2.892036e-02 3.080963e-02 2.506088e-02 1.452187e-02 1.778039e-03 -1.219590e-05
<VARIANCE> 25
 9.137465e+00 1.036359e+01 9.295803e+00 1.818508e+01 1.332127e+01 1.353345e+01 1.197145e+01 1.128198e+01 1.134292e+01 1.354989e+01 1.780268e+01 1.253449e+01 4.087522e-02 8.734614e-02 1.540843e-01 2.265825e-01 3.079380e-01 3.969485e-01 4.608482e-01 5.215847e-01 5.420835e-01 5.211474e-01 5.144392e-01 5.164422e-01 1.000000e-06
<GCONST> 4.724841e+01
<MIXTURE> 55 7.368619e-03
<MEAN> 25
 -3.633801e+00 4.931954e-02 -6.831419e-01 8.036570e+00 6.484003e+00 4.625407e+00 4.675332e+00 4.601055e+00 4.053099e+00 3.593801e+00 4.457477e+00 2.326298e+00 -2.133210e-03 2.653849e-02 3.415401e-02 4.748240e-02 5.136495e-02 4.707923e-02 3.888674e-02 2.892036e-02 3.080963e-02 2.506088e-02 1.452187e-02 1.778039e-03 -1.219590e-05
<VARIANCE> 25
 9.137465e+00 1.036359e+01 9.295803e+00 1.818508e+01 1.332127e+01 1.353345e+01 1.197145e+01 1.128198e+01 1.134292e+01 1.354989e+01 1.780268e+01 1.253449e+01 4.087522e-02 8.734614e-02 1.540843e-01 2.265825e-01 3.079380e-01 3.969485e-01 4.608482e-01 5.215847e-01 5.420835e-01 5.211474e-01 5.144392e-01 5.164422e-01 1.000000e-06
<GCONST> 4.724841e+01
<MIXTURE> 56 6.132463e-03
<MEAN> 25
 7.560963e+00 -6.778871e+00 -9.159410e+00 -8.664660e+00 3.962918e+00 3.932575e+00 -2.177848e+00 -1.478078e+00 1.957841e+00 6.570947e-01 -2.485314e+00 -7.147542e+00 -1.046290e-02 2.582966e-02 -8.564128e-02 2.173575e-02 2.584671e-01 6.612518e-02 1.147798e-01 -1.375748e-01 -4.634555e-02 -3.664729e-02 -8.255211e-02 1.853134e-02 -7.063218e-03
<VARIANCE> 25
 9.320417e+00 2.326434e+01 1.999695e+01 4.124398e+01 3.315805e+01 5.102175e+01 6.196829e+01 3.683027e+01 3.895597e+01 3.769788e+01 4.027182e+01 3.114602e+01 2.061400e-01 4.322058e-01 4.531068e-01 7.722593e-01 7.972876e-01 1.113085e+00 9.100232e-01 9.073507e-01 9.087955e-01 9.267299e-01 1.034997e+00 7.848886e-01 2.392407e-04
<GCONST> 7.513738e+01
<MIXTURE> 57 6.132463e-03
<MEAN> 25
 7.560963e+00 -6.778871e+00 -9.159410e+00 -8.664660e+00 3.962918e+00 3.932575e+00 -2.177848e+00 -1.478078e+00 1.957841e+00 6.570947e-01 -2.485314e+00 -7.147542e+00 -1.046290e-02 2.582966e-02 -8.564128e-02 2.173575e-02 2.584671e-01 6.612518e-02 1.147798e-01 -1.375748e-01 -4.634555e-02 -3.664729e-02 -8.255211e-02 1.853134e-02 -7.063218e-03
<VARIANCE> 25
 9.320417e+00 2.326434e+01 1.999695e+01 4.124398e+01 3.315805e+01 5.102175e+01 6.196829e+01 3.683027e+01 3.895597e+01 3.769788e+01 4.027182e+01 3.114602e+01 2.061400e-01 4.322058e-01 4.531068e-01 7.722593e-01 7.972876e-01 1.113085e+00 9.100232e-01 9.073507e-01 9.087955e-01 9.267299e-01 1.034997e+00 7.848886e-01 2.392407e-04
<GCONST> 7.513738e+01
<MIXTURE> 58 6.172146e-03
<MEAN> 25
 2.584867e+00 -3.105620e+00 7.374882e+00 -5.287226e+00 -1.348089e+01 -5.615885e+00 1.665889e+00 8.420339e-01 -2.410433e+00 1.846839e+00 5.412334e-01 -8.420748e-01 -3.008957e-02 -1.370302e-01 -7.130902e-02 -1.628525e-01 -1.869550e-02 2.338233e-01 3.765306e-01 2.238568e-01 1.751091e-02 1.750174e-02 -7.710792e-02 -1.408482e-01 -2.877967e-03
<VARIANCE> 25
 7.384178e+00 1.510631e+01 2.021699e+01 2.707390e+01 2.316012e+01 4.646299e+01 3.273819e+01 3.474044e+01 3.228119e+01 3.131342e+01 2.281222e+01 2.021646e+01 3.075376e-01 8.039255e-01 7.520448e-01 1.017969e+00 8.872310e-01 1.211172e+00 1.152807e+00 1.297053e+00 1.074320e+00 1.063778e+00 9.130402e-01 8.773699e-01 7.248953e-04
<GCONST> 7.552824e+01
<MIXTURE> 59 6.172146e-03
<MEAN> 25
 2.584867e+00 -3.105620e+00 7.374882e+00 -5.287226e+00 -1.348089e+01 -5.615885e+00 1.665889e+00 8.420339e-01 -2.410433e+00 1.846839e+00 5.412334e-01 -8.420748e-01 -3.008957e-02 -1.370302e-01 -7.130902e-02 -1.628525e-01 -1.869550e-02 2.338233e-01 3.765306e-01 2.238568e-01 1.751091e-02 1.750174e-02 -7.710792e-02 -1.408482e-01 -2.877967e-03
<VARIANCE> 25
 7.384178e+00 1.510631e+01 2.021699e+01 2.707390e+01 2.316012e+01 4.646299e+01 3.273819e+01 3.474044e+01 3.228119e+01 3.131342e+01 2.281222e+01 2.021646e+01 3.075376e-01 8.039255e-01 7.520448e-01 1.017969e+00 8.872310e-01 1.211172e+00 1.152807e+00 1.297053e+00 1.074320e+00 1.063778e+00 9.130402e-01 8.773699e-01 7.248953e-04
<GCONST> 7.552824e+01
<MIXTURE> 60 4.479130e-03
<MEAN> 25
 -4.264487e+00 -6.649057e-01 -1.084375e+00 3.697239e+00 1.731568e+00 2.118855e+00 1.637564e+00 1.531185e+00 2.158351e+00 1.264553e+00 2.386028e+00 1.916092e+00 -2.849127e-02 5.650640e-02 1.011057e-01 1.301869e-01 1.294798e-01 1.293240e-01 1.787916e-01 3.225632e-01 5.452076e-01 6.645933e-01 5.562593e-01 3.033151e-01 -3.906901e-04
<VARIANCE> 25
 6.932818e+00 4.524348e+00 1.027675e+01 1.130676e+01 1.357749e+01 1.700124e+01 1.399785e+01 1.185802e+01 1.272545e+01 1.319725e+01 1.594022e+01 1.229296e+01 8.693190e-02 1.683225e-01 2.793859e-01 4.319128e-01 5.865183e-01 7.280031e-01 8.283046e-01 8.989629e-01 9.026473e-01 8.356966e-01 8.391468e-01 8.626353e-01 2.295606e-05
<GCONST> 5.633097e+01
<MIXTURE> 61 4.479130e-03
<MEAN> 25
 -4.264487e+00 -6.649057e-01 -1.084375e+00 3.697239e+00 1.731568e+00 2.118855e+00 1.637564e+00 1.531185e+00 2.158351e+00 1.264553e+00 2.386028e+00 1.916092e+00 -2.849127e-02 5.650640e-02 1.011057e-01 1.301869e-01 1.294798e-01 1.293240e-01 1.787916e-01 3.225632e-01 5.452076e-01 6.645933e-01 5.562593e-01 3.033151e-01 -3.906901e-04
<VARIANCE> 25
 6.932818e+00 4.524348e+00 1.027675e+01 1.130676e+01 1.357749e+01 1.700124e+01 1.399785e+01 1.185802e+01 1.272545e+01 1.319725e+01 1.594022e+01 1.229296e+01 8.693190e-02 1.683225e-01 2.793859e-01 4.319128e-01 5.865183e-01 7.280031e-01 8.283046e-01 8.989629e-01 9.026473e-01 8.356966e-01 8.391468e-01 8.626353e-01 2.295606e-05
<GCONST> 5.633097e+01
<MIXTURE> 62 3.278034e-03
<MEAN> 25
 -5.091026e+00 1.241214e+00 1.026271e+00 8.818723e+00 6.130915e+00 5.050725e+00 5.499556e+00 4.033865e+00 4.986128e+00 3.917933e+00 4.966511e+00 2.951131e+00 -1.003324e+00 -1.166706e+00 -9.532436e-01 -2.767730e-01 4.275916e-01 1.005176e+00 1.384688e+00 1.552256e+00 1.478758e+00 1.243487e+00 1.067137e+00 7.261052e-01 -1.264886e-03
<VARIANCE> 25
 9.873005e+00 9.958960e+00 1.311584e+01 1.673339e+01 1.741418e+01 1.752483e+01 1.970122e+01 1.911283e+01 1.886002e+01 1.872700e+01 2.156159e+01 1.479604e+01 4.017271e-01 4.320417e-01 5.541465e-01 7.793610e-01 1.035032e+00 1.192222e+00 1.252357e+00 1.279046e+00 1.329671e+00 1.363855e+00 1.400036e+00 1.371338e+00 1.632312e-05
<GCONST> 6.752585e+01
<MIXTURE> 63 4.351214e-03
<MEAN> 25
 -4.192623e+00 -2.454185e+00 -4.748621e+00 2.860804e+00 3.399893e+00 -2.781102e-01 2.844346e+00 1.481799e+00 2.387551e+00 -8.602241e-01 -1.125951e+00 2.519374e+00 -9.938327e-02 3.391290e-01 4.152664e-01 5.053514e-01 3.914747e-01 4.152916e-01 3.999948e-01 1.592060e-01 1.467448e-01 2.509842e-01 2.305671e-01 1.304987e-01 -4.507080e-03
<VARIANCE> 25
 8.815775e+00 1.467838e+01 1.652135e+01 1.622747e+01 1.808454e+01 2.687191e+01 2.286815e+01 2.441602e+01 2.497857e+01 2.189436e+01 2.004180e+01 1.671763e+01 2.700724e-01 4.440289e-01 6.226795e-01 7.055017e-01 9.132487e-01 1.139597e+00 1.254686e+00 1.365422e+00 1.372886e+00 1.409585e+00 1.338830e+00 1.239122e+00 1.792416e-04
<GCONST> 7.120525e+01
<MIXTURE> 64 4.351214e-03
<MEAN> 25
 -4.192623e+00 -2.454185e+00 -4.748621e+00 2.860804e+00 3.399893e+00 -2.781102e-01 2.844346e+00 1.481799e+00 2.387551e+00 -8.602241e-01 -1.125951e+00 2.519374e+00 -9.938327e-02 3.391290e-01 4.152664e-01 5.053514e-01 3.914747e-01 4.152916e-01 3.999948e-01 1.592060e-01 1.467448e-01 2.509842e-01 2.305671e-01 1.304987e-01 -4.507080e-03
<VARIANCE> 25
 8.815775e+00 1.467838e+01 1.652135e+01 1.622747e+01 1.808454e+01 2.687191e+01 2.286815e+01 2.441602e+01 2.497857e+01 2.189436e+01 2.004180e+01 1.671763e+01 2.700724e-01 4.440289e-01 6.226795e-01 7.055017e-01 9.132487e-01 1.139597e+00 1.254686e+00 1.365422e+00 1.372886e+00 1.409585e+00 1.338830e+00 1.239122e+00 1.792416e-04
<GCONST> 7.120525e+01
<MIXTURE> 65 1.721197e-02
<MEAN> 25
 8.050258e+00 2.105318e+00 1.971983e+00 6.558904e-01 -5.427873e+00 -4.367146e+00 -5.889863e+00 -6.821213e+00 -3.848579e+00 -2.330883e+00 -5.568249e+00 -1.907742e+00 1.784219e-01 1.200223e-01 1.412361e-02 1.371225e-01 -1.763901e-01 2.654818e-01 -1.133375e-01 -1.753456e-01 1.873075e-01 1.700700e-02 -4.255288e-02 -1.549753e-01 -4.535834e-03
<VARIANCE> 25
 9.944725e+00 1.928784e+01 2.587353e+01 3.648241e+01 3.837322e+01 5.862939e+01 5.869209e+01 5.945025e+01 5.604063e+01 5.861166e+01 5.653330e+01 5.162680e+01 5.578551e-01 9.573328e-01 1.621613e+00 1.826584e+00 2.021956e+00 2.222890e+00 2.315184e+00 2.999064e+00 2.463935e+00 2.504837e+00 2.423014e+00 2.142966e+00 4.228798e-04
<GCONST> 8.960343e+01
<MIXTURE> 66 1.191532e-02
<MEAN> 25
 6.681918e+00 -4.094368e+00 -5.623781e+00 -4.831130e+00 1.277551e+00 -5.092893e+00 -6.924564e+00 1.193197e+00 6.846156e-01 -2.051390e+00 -6.141057e+00 -3.475557e+00 -4.561052e-02 1.667493e+00 2.240483e+00 2.318021e+00 -1.251148e+00 -1.253531e+00 5.542706e-02 -5.470158e-01 -1.447569e-01 -1.944980e-01 -2.016936e-01 1.044900e+00 -6.380570e-02
<VARIANCE> 25
 8.927608e+00 2.234649e+01 2.706047e+01 3.306602e+01 3.851922e+01 5.342645e+01 5.600357e+01 4.541639e+01 5.411217e+01 6.678559e+01 3.698498e+01 3.644658e+01 1.283719e+00 2.445653e+00 2.352263e+00 2.470356e+00 4.197608e+00 4.308799e+00 4.369220e+00 4.845676e+00 4.249581e+00 4.994573e+00 3.900409e+00 3.262315e+00 1.468877e-03
<GCONST> 9.683608e+01
<MIXTURE> 67 1.559142e-02
<MEAN> 25
 8.985456e+00 2.035448e+00 -5.978737e+00 -8.274504e+00 9.031860e-01 3.083229e+00 -3.325229e+00 -2.242070e+00 -3.773560e+00 7.784979e-01 -5.461008e-02 -1.732939e+00 -1.074132e+00 1.831960e+00 1.062773e+00 3.073161e+00 1.392620e+00 -5.098513e-01 1.302791e+00 1.202588e-01 1.569752e-01 2.512395e-01 -2.766193e-01 6.252995e-01 -1.299931e-01
<VARIANCE> 25
 1.146567e+01 3.885957e+01 3.078913e+01 5.585363e+01 4.915367e+01 5.406945e+01 6.210220e+01 5.280804e+01 6.478790e+01 5.711977e+01 5.578411e+01 4.738020e+01 2.179849e+00 3.465775e+00 3.290490e+00 4.517694e+00 4.523180e+00 4.553678e+00 4.706660e+00 5.071122e+00 5.476764e+00 4.779429e+00 5.135092e+00 3.746339e+00 3.042452e-03
<GCONST> 1.029183e+02
<MIXTURE> 68 1.485092e-02
<MEAN> 25
 -2.018520e+00 -2.311421e+00 -4.105386e+00 1.255191e+00 5.263167e+00 -6.685876e-01 2.130914e+00 1.825844e+00 2.006380e+00 1.690594e+00 4.857414e-01 1.877478e+00 2.768745e+00 5.490175e-01 1.387046e-02 -2.585632e+00 -2.417629e+00 -1.591599e+00 -2.354172e+00 -1.792144e+00 -1.651316e+00 -1.481279e+00 -1.985842e+00 -1.059356e+00 1.033021e-01
<VARIANCE> 25
 2.600489e+01 3.204491e+01 5.877217e+01 5.261924e+01 4.670044e+01 5.512207e+01 4.528500e+01 4.228265e+01 4.044632e+01 4.351861e+01 3.739885e+01 2.576268e+01 1.863591e+00 3.745699e+00 5.939712e+00 5.868512e+00 4.699099e+00 5.611854e+00 5.773546e+00 4.975441e+00 4.979873e+00 5.262974e+00 5.044483e+00 3.422025e+00 6.138647e-03
<GCONST> 1.036094e+02
<MIXTURE> 69 1.204884e-02
<MEAN> 25
 4.674334e+00 -4.232698e+00 -3.569108e+00 -3.631293e+00 -3.507054e+00 -7.882138e+00 -1.110418e+00 2.214212e+00 -3.478986e-01 -4.740545e+00 -5.688964e+00 9.578030e-01 1.678610e+00 -2.236309e+00 -1.338717e+00 -2.244947e+00 -5.300636e-01 -3.492818e-01 -4.729671e-01 6.160700e-01 -6.424503e-01 -1.460862e+00 -2.205120e+00 -1.727276e-01 6.255900e-02
<VARIANCE> 25
 8.859895e+00 2.179609e+01 2.675517e+01 2.593662e+01 4.271371e+01 3.562738e+01 4.896965e+01 3.160029e+01 3.977965e+01 3.791923e+01 3.108768e+01 2.461651e+01 3.548496e+00 2.922050e+00 3.335999e+00 3.700890e+00 5.769241e+00 5.012118e+00 7.119352e+00 6.080811e+00 5.914469e+00 5.868247e+00 4.351985e+00 3.705781e+00 2.446608e-03
<GCONST> 9.868256e+01
<MIXTURE> 70 1.329190e-02
<MEAN> 25
 7.524614e+00 -2.036039e+00 -3.890179e+00 -3.609616e+00 -4.099184e-01 -6.676780e-01 -7.691746e+00 -4.028407e+00 5.707952e-01 2.893893e+00 -1.315294e-01 -4.912291e+00 1.936196e+00 -1.138649e+00 -8.204910e-01 -2.206605e+00 -1.519522e+00 1.178233e+00 -1.337932e+00 -8.800564e-02 3.376006e-01 -2.775311e-02 6.879399e-01 -1.455076e+00 5.869541e-02
<VARIANCE> 25
 9.916604e+00 2.257729e+01 2.833877e+01 4.699031e+01 3.550883e+01 4.451611e+01 4.988329e+01 4.410444e+01 4.709306e+01 3.279374e+01 4.500114e+01 2.729014e+01 3.501925e+00 3.212408e+00 4.743615e+00 4.958519e+00 5.217481e+00 6.448595e+00 6.795623e+00 7.556820e+00 6.176129e+00 5.389207e+00 5.868676e+00 4.306628e+00 2.537477e-03
<GCONST> 1.018608e+02
<MIXTURE> 71 1.406903e-02
<MEAN> 25
 6.404425e+00 5.197020e+00 4.273345e+00 3.119265e+00 -3.470443e+00 -3.429752e+00 -3.433302e+00 -6.658062e+00 -4.678047e+00 -2.514473e+00 -5.246035e+00 -3.245861e+00 -1.577454e+00 -6.989403e-01 -2.528828e-01 -1.780908e+00 1.130722e+00 -1.476200e-01 5.147474e-02 1.539367e+00 3.089443e-01 -1.798087e-01 6.874779e-01 1.838313e-01 4.097904e-02
<VARIANCE> 25
 1.884061e+01 2.571736e+01 2.409745e+01 4.504777e+01 4.076687e+01 4.066150e+01 4.265022e+01 4.154902e+01 3.907231e+01 4.417332e+01 3.655054e+01 3.456892e+01 1.753975e+00 3.048441e+00 5.307292e+00 4.889516e+00 4.712144e+00 4.745267e+00 4.881613e+00 5.396248e+00 4.311620e+00 4.101657e+00 3.634590e+00 3.303090e+00 1.422233e-03
<GCONST> 9.872186e+01
<MIXTURE> 72 8.134746e-03
<MEAN> 25
 3.792401e+00 -3.684665e+00 5.458186e+00 -2.467496e+00 -1.040664e+01 -9.626873e+00 -2.451001e+00 1.924540e+00 -4.944353e+00 -2.200617e+00 -1.887092e+00 6.176790e-01 9.327467e-01 -7.863138e-01 -2.577715e+00 4.631986e-01 2.137838e+00 -6.550938e-01 -1.317648e+00 1.525841e+00 1.815086e+00 -5.968249e-01 -1.289754e+00 4.028070e-01 -6.130232e-03
<VARIANCE> 25
 1.078910e+01 1.948575e+01 3.287077e+01 3.843911e+01 3.231302e+01 3.338144e+01 4.108025e+01 3.621774e+01 4.370840e+01 4.137667e+01 3.880777e+01 2.852297e+01 4.322334e-01 1.026287e+00 2.021212e+00 1.469836e+00 2.183306e+00 2.356240e+00 3.061687e+00 2.732612e+00 2.603862e+00 2.961858e+00 2.024397e+00 2.129148e+00 5.408928e-04
<GCONST> 8.725459e+01
<MIXTURE> 73 1.213625e-02
<MEAN> 25
 -5.640654e+00 -7.918060e-01 -1.304353e+00 4.917098e+00 4.240480e+00 2.343235e+00 5.519145e+00 3.455133e+00 4.369024e+00 3.435408e+00 4.270539e+00 3.028855e+00 8.031793e-01 -1.030972e+00 -9.460344e-01 -2.649166e+00 -1.261653e+00 -1.752355e+00 -9.019920e-01 -5.084280e-01 -9.206690e-01 -7.017779e-01 -1.105216e+00 -2.827637e-01 1.549286e-01
<VARIANCE> 25
 1.284148e+01 1.340084e+01 1.520383e+01 2.263482e+01 2.333818e+01 2.477593e+01 2.038718e+01 2.000582e+01 1.777445e+01 1.906379e+01 2.279729e+01 1.558020e+01 4.047544e+00 3.091492e+00 5.967036e+00 4.675811e+00 6.153992e+00 4.561712e+00 4.304380e+00 4.250959e+00 3.899050e+00 4.232501e+00 3.542232e+00 2.674371e+00 4.295867e-03
<GCONST> 9.270393e+01
<MIXTURE> 74 1.756491e-02
<MEAN> 25
 4.522349e+00 -1.596705e+00 5.276510e+00 -1.154631e+00 -8.775933e+00 -8.330041e+00 -2.707931e+00 7.612069e-01 -4.124226e+00 -2.842971e+00 -1.706338e+00 2.615411e-01 3.114139e-01 2.025988e+00 4.402602e-02 1.721143e+00 1.236113e+00 3.581706e-01 -3.325129e-03 -1.335015e+00 1.745200e-01 1.787679e-01 -2.385929e-01 -1.060684e-01 -7.879420e-02
<VARIANCE> 25
 1.170334e+01 2.203400e+01 3.768138e+01 3.874469e+01 3.718959e+01 3.972839e+01 5.170938e+01 4.674258e+01 4.816662e+01 4.482052e+01 4.123131e+01 3.448829e+01 2.104313e+00 2.052655e+00 3.932235e+00 2.596047e+00 3.933767e+00 3.921185e+00 5.071729e+00 4.289437e+00 4.177832e+00 4.046327e+00 3.659545e+00 3.206330e+00 1.753130e-03
<GCONST> 9.735696e+01
<MIXTURE> 75 9.711649e-03
<MEAN> 25
 2.665512e+00 -1.247242e+00 1.104233e+01 1.730894e+00 -1.184692e+01 -7.676561e+00 -4.582257e+00 -4.821047e-01 -4.512537e+00 -4.626535e+00 3.268954e+00 1.544457e-01 1.754298e+00 -1.768812e+00 2.012977e-01 -2.581614e-01 -2.404396e+00 -5.194134e-01 -1.468341e+00 9.669424e-01 -1.531784e-01 -3.533757e-01 1.083445e+00 -6.310894e-01 3.866636e-02
<VARIANCE> 25
 1.114302e+01 1.783728e+01 3.035999e+01 2.783101e+01 2.688278e+01 3.276223e+01 3.148528e+01 3.115940e+01 3.373247e+01 3.163879e+01 2.045439e+01 2.172904e+01 2.381778e+00 1.901779e+00 4.295132e+00 2.492397e+00 3.880237e+00 4.349163e+00 4.162321e+00 3.520699e+00 3.952385e+00 3.383592e+00 3.107456e+00 2.513548e+00 1.543923e-03
<GCONST> 9.228471e+01
<MIXTURE> 76 1.052359e-02
<MEAN> 25
 -6.883931e+00 -1.624774e+00 -2.811482e+00 3.963115e+00 4.324136e+00 1.937550e+00 4.147331e+00 2.150028e+00 2.535714e+00 5.686746e-01 1.754295e+00 2.561885e+00 -8.909587e-02 -5.649254e-01 -3.051084e-01 -8.233603e-01 -6.105173e-01 -8.609725e-01 -5.911655e-01 -3.270779e-01 -4.631112e-01 -4.293756e-01 -2.760756e-01 -1.709481e-01 2.124518e-02
<VARIANCE> 25
 3.617080e+01 2.803661e+01 2.992029e+01 2.773076e+01 3.079086e+01 3.167988e+01 2.741969e+01 2.783598e+01 2.419242e+01 2.482507e+01 2.734272e+01 1.922868e+01 1.098084e+00 1.114873e+00 1.413095e+00 1.248606e+00 1.454674e+00 1.660510e+00 1.656831e+00 1.705362e+00 1.611216e+00 1.593976e+00 1.497958e+00 1.324328e+00 1.239397e-03
<GCONST> 8.339883e+01
<MIXTURE> 77 1.244626e-02
<MEAN> 25
 -4.667743e-01 8.589003e+00 1.246485e+01 -1.162249e+01 -7.007765e+00 9.582707e-01 -9.282236e+00 -7.239611e+00 -3.377558e+00 -1.976660e-01 -4.657887e+00 -1.486440e+00 6.811570e-02 1.374618e-01 7.361050e-02 2.507689e-01 -2.221369e-02 7.820483e-02 -6.482302e-02 -6.189926e-02 8.264334e-02 -4.487342e-02 2.576342e-02 1.181392e-01 -9.916320e-03
<VARIANCE> 25
 1.044189e+01 2.005403e+01 2.750925e+01 4.157118e+01 3.319202e+01 3.380479e+01 3.670658e+01 3.177258e+01 3.524631e+01 3.322752e+01 3.757049e+01 3.495239e+01 2.988783e-01 7.781760e-01 6.455174e-01 1.086237e+00 1.237933e+00 9.856086e-01 1.223602e+00 1.074155e+00 1.043736e+00 1.066029e+00 9.714707e-01 9.223823e-01 5.401326e-04
<GCONST> 7.779561e+01
<MIXTURE> 78 9.702549e-03
<MEAN> 25
 -1.166806e+01 1.106041e+00 -1.647160e+00 2.266557e+00 4.455718e+00 -2.276282e+00 3.802465e+00 2.668001e+00 2.625536e+00 7.547858e-01 -4.804467e-01 3.064526e+00 2.413856e+00 -2.752886e-01 1.855105e-01 5.873734e-01 -3.173030e-02 1.979293e-02 -3.075705e-01 -8.965640e-02 2.191064e-01 1.447529e-01 -3.770696e-01 -4.623461e-01 -6.226120e-02
<VARIANCE> 25
 4.062957e+01 3.296684e+01 3.288461e+01 3.269641e+01 3.988959e+01 3.739953e+01 3.589006e+01 3.301356e+01 2.829947e+01 2.780185e+01 2.726888e+01 2.023108e+01 4.935707e+00 2.596243e+00 2.871739e+00 3.084565e+00 2.868553e+00 3.529081e+00 3.280527e+00 2.844860e+00 2.359380e+00 2.377098e+00 2.257266e+00 2.135843e+00 4.718469e-03
<GCONST> 9.471454e+01
<MIXTURE> 79 1.156824e-02
<MEAN> 25
 2.421899e+00 1.578924e+00 9.199244e+00 -6.613007e+00 -1.208323e+01 -1.819003e+00 -1.915389e+00 -6.479494e+00 -6.581864e+00 3.252704e-01 -3.519857e+00 -3.298509e+00 1.222413e+00 -5.261077e-01 -1.433643e+00 2.355634e+00 3.804943e-01 -1.474364e+00 5.352469e-01 8.881986e-01 -4.362488e-01 -5.431581e-01 3.585147e-01 2.800781e-01 -3.633822e-02
<VARIANCE> 25
 1.424420e+01 2.415540e+01 3.787913e+01 4.979436e+01 3.336335e+01 4.355037e+01 4.289342e+01 3.679589e+01 3.897515e+01 3.983661e+01 4.395065e+01 3.070184e+01 9.434652e-01 2.263761e+00 1.895615e+00 2.085935e+00 2.474886e+00 2.817159e+00 3.199696e+00 3.536518e+00 2.517603e+00 2.736914e+00 2.318550e+00 2.032040e+00 1.232952e-03
<GCONST> 9.181416e+01
<MIXTURE> 80 7.550998e-03
<MEAN> 25
 -1.460866e+01 3.982978e+00 6.888527e-01 2.865978e+00 2.449390e+00 1.410288e+00 6.397008e+00 2.496773e+00 2.719634e+00 2.373497e+00 4.852879e+00 1.186962e+00 4.286331e+00 -1.602020e-02 1.637934e+00 -1.135554e+00 -2.889475e+00 -2.777582e+00 -2.323244e+00 -2.021465e+00 -1.975032e+00 -1.685194e+00 -1.650844e+00 -6.027454e-01 -4.423228e-02
<VARIANCE> 25
 2.094969e+01 1.984664e+01 3.444448e+01 3.470766e+01 3.018093e+01 2.920889e+01 2.828683e+01 2.855507e+01 2.674643e+01 2.881129e+01 2.685423e+01 1.810697e+01 2.357266e+00 2.666195e+00 2.673126e+00 4.119907e+00 3.394136e+00 2.705081e+00 3.025253e+00 3.204086e+00 2.749122e+00 2.701698e+00 2.782157e+00 2.145745e+00 1.512166e-03
<GCONST> 9.139670e+01
<MIXTURE> 81 8.025434e-03
<MEAN> 25
 -1.118658e+00 4.067386e+00 1.018048e+01 -1.480521e+01 -9.081086e+00 -1.422634e+00 -6.767787e+00 -8.426631e+00 -4.151688e+00 -4.161695e-01 -7.575404e+00 -2.247041e+00 1.339255e-01 -5.873004e-01 -2.672242e-03 -5.564564e-01 -4.640980e-01 3.352010e-01 3.198745e-01 1.369444e-01 -1.403935e-01 1.066347e-01 -4.695080e-01 -1.253025e-01 1.151253e-02
<VARIANCE> 25
 1.015240e+01 3.280758e+01 2.644839e+01 2.925814e+01 3.370429e+01 3.052438e+01 4.544821e+01 2.825467e+01 3.799478e+01 3.189075e+01 2.529764e+01 3.105283e+01 7.722468e-01 2.277458e+00 1.546032e+00 2.872782e+00 2.663352e+00 2.126229e+00 3.280991e+00 2.288022e+00 2.355606e+00 2.539266e+00 2.298703e+00 2.078651e+00 1.183442e-03
<GCONST> 8.868556e+01
<MIXTURE> 82 8.213053e-03
<MEAN> 25
 -9.966270e+00 -3.903473e+00 1.640102e+00 -2.971876e+00 3.113833e+00 6.711991e-01 1.994745e+00 9.378460e-01 2.976421e+00 1.729321e+00 1.742751e+00 3.085362e+00 -1.314336e+00 -1.249191e-01 2.896840e-01 -2.604469e+00 -1.105539e+00 -1.265405e+00 -1.013555e+00 -8.702855e-01 -3.166782e-01 -4.782961e-01 -3.166651e-01 -9.515849e-02 1.784501e-01
<VARIANCE> 25
 1.801052e+01 2.493746e+01 3.237104e+01 3.088886e+01 3.302585e+01 3.229260e+01 3.178302e+01 3.298331e+01 3.085983e+01 2.512638e+01 3.079053e+01 1.750380e+01 3.754998e+00 3.049268e+00 3.316931e+00 3.268510e+00 3.562314e+00 3.286661e+00 2.943631e+00 3.016165e+00 2.795074e+00 2.490984e+00 2.449395e+00 1.865945e+00 3.429721e-03
<GCONST> 9.308212e+01
<MIXTURE> 83 1.167529e-02
<MEAN> 25
 -2.004081e+01 5.504238e+00 -1.789702e+00 -4.051103e-01 7.829639e+00 -1.234488e+00 5.460100e+00 3.044532e+00 1.192393e+00 2.190908e+00 7.244872e-01 2.881716e+00 -2.631321e-02 -4.501706e-01 4.872012e-03 -3.655977e-01 -4.974648e-01 -1.258521e-01 -1.343577e-01 -9.942717e-02 -4.144356e-02 -3.920248e-02 -3.058213e-02 -3.465528e-02 4.403248e-03
<VARIANCE> 25
 8.819281e+00 1.645402e+01 2.851271e+01 2.248555e+01 2.127508e+01 2.407955e+01 2.202746e+01 2.336420e+01 2.042958e+01 2.221887e+01 2.319599e+01 1.448780e+01 1.060910e+00 9.362045e-01 1.240790e+00 1.065688e+00 1.359398e+00 1.291389e+00 1.283447e+00 1.388157e+00 1.349015e+00 1.310737e+00 1.220778e+00 1.071650e+00 8.923842e-04
<GCONST> 7.703519e+01
<MIXTURE> 84 1.066614e-02
<MEAN> 25
 1.178706e+00 9.026346e+00 7.247645e+00 7.990674e+00 2.833986e+00 -9.180067e-01 -1.527006e+00 -4.482318e+00 -4.120932e+00 -2.911742e+00 -2.414361e+00 -1.596601e+00 -1.788185e+00 -1.185922e+00 -1.206717e+00 1.289494e+00 2.254732e+00 1.504481e+00 1.453635e+00 1.290366e+00 1.169353e+00 4.030454e-01 4.168966e-01 4.255890e-01 -7.174502e-02
<VARIANCE> 25
 2.350640e+01 1.823455e+01 2.160429e+01 2.412270e+01 2.918731e+01 2.831621e+01 2.795795e+01 2.655237e+01 2.529814e+01 2.525426e+01 2.360528e+01 2.461612e+01 2.102265e+00 2.541754e+00 3.850177e+00 3.302387e+00 3.275830e+00 3.378394e+00 3.291669e+00 3.408297e+00 3.484463e+00 3.251832e+00 3.589455e+00 2.806602e+00 3.526267e-03
<GCONST> 9.254536e+01
<MIXTURE> 85 7.591392e-03
<MEAN> 25
 -3.110719e+00 7.892380e+00 5.725119e+00 1.286123e+00 -3.493886e+00 -5.325594e+00 -2.980340e+00 -6.121626e+00 -3.542509e+00 -3.184667e+00 -4.793602e-01 -1.899521e+00 3.943540e+00 3.247992e-01 1.756039e+00 -2.091562e+00 -3.414684e+00 -2.583327e+00 -2.886126e+00 -2.341582e+00 -2.249178e+00 -1.264159e+00 -2.302943e+00 -6.158324e-01 9.208782e-03
<VARIANCE> 25
 4.247471e+01 2.343091e+01 3.647598e+01 3.822340e+01 3.974855e+01 4.119092e+01 3.216690e+01 2.789583e+01 2.664456e+01 2.611916e+01 2.622751e+01 2.056922e+01 2.704109e+00 4.326328e+00 4.058795e+00 5.182798e+00 4.408378e+00 3.880895e+00 3.853545e+00 3.987244e+00 3.849566e+00 4.040565e+00 3.941542e+00 3.485200e+00 5.446285e-03
<GCONST> 9.835508e+01
<MIXTURE> 86 1.273941e-02
<MEAN> 25
 -4.974984e+00 -1.208759e+00 -7.959477e-01 6.335988e+00 5.017891e+00 4.674121e+00 5.318567e+00 4.572353e+00 4.661089e+00 3.916089e+00 5.338316e+00 2.701070e+00 -6.746942e-03 -8.715462e-03 -3.815584e-02 -6.559626e-02 -1.177687e-01 -1.849797e-01 -2.672643e-01 -3.320582e-01 -3.533319e-01 -3.193769e-01 -2.302648e-01 -1.064976e-01 -5.502826e-04
<VARIANCE> 25
 7.885632e+00 5.633391e+00 9.979819e+00 1.230385e+01 1.587446e+01 1.433559e+01 1.353708e+01 1.305196e+01 1.319269e+01 1.424053e+01 1.433136e+01 1.277738e+01 9.991921e-02 1.929728e-01 3.185055e-01 4.834529e-01 6.362179e-01 7.345995e-01 7.434303e-01 7.641538e-01 8.305605e-01 8.844309e-01 9.115669e-01 9.031933e-01 5.341454e-05
<GCONST> 5.811294e+01
<MIXTURE> 87 1.100681e-02
<MEAN> 25
 -3.303574e+00 4.544585e+00 3.506753e+00 7.025370e+00 5.571773e+00 8.929258e-01 1.644103e+00 -9.469365e-01 -5.884863e-01 -8.887189e-01 -7.871411e-01 2.991044e-02 -2.152584e+00 -2.787797e+00 -2.103272e+00 -2.226399e+00 -3.753929e-02 -1.826377e-01 6.134931e-01 1.299871e+00 1.404007e+00 1.031012e+00 9.451337e-01 1.004004e+00 1.047345e-01
<VARIANCE> 25
 3.812526e+01 2.954844e+01 2.806421e+01 3.372161e+01 2.872510e+01 3.192350e+01 2.815131e+01 2.731576e+01 2.594816e+01 2.470452e+01 2.482558e+01 2.316699e+01 3.861020e+00 2.714049e+00 3.917968e+00 3.653956e+00 4.795435e+00 4.312703e+00 4.157070e+00 3.899255e+00 3.535995e+00 3.387152e+00 3.384423e+00 2.733437e+00 4.955852e-03
<GCONST> 9.633646e+01
<MIXTURE> 88 1.256585e-02
<MEAN> 25
 -4.353282e+00 -8.939539e-01 -1.449197e+00 5.482498e+00 4.676696e+00 3.493675e+00 4.675013e+00 3.325233e+00 3.511098e+00 2.333882e+00 2.983176e+00 2.700982e+00 2.188292e-02 1.744902e-01 2.402279e-01 3.959206e-01 2.653611e-01 1.811568e-01 -4.926433e-02 -2.077528e-01 -2.865639e-01 -2.365726e-01 -9.082668e-02 -2.734694e-02 -6.403082e-03
<VARIANCE> 25
 9.276117e+00 1.007537e+01 1.536277e+01 1.581663e+01 2.013094e+01 2.072309e+01 1.941058e+01 1.878819e+01 1.756951e+01 1.859492e+01 2.128674e+01 1.495773e+01 1.333046e+00 1.675085e+00 2.138139e+00 2.284072e+00 2.635645e+00 2.667847e+00 2.659256e+00 2.540394e+00 2.452106e+00 2.571200e+00 2.292988e+00 2.027884e+00 1.493695e-03
<GCONST> 8.258405e+01
<MIXTURE> 89 9.333529e-03
<MEAN> 25
 6.080495e+00 -6.834954e+00 -3.560651e+00 -3.169268e+00 -1.611912e+00 -5.592290e+00 -6.120767e+00 4.103040e+00 3.475534e+00 -2.807144e+00 -6.033325e+00 -3.287962e+00 -5.713875e-01 1.566876e-01 1.991117e+00 9.017866e-01 -1.869807e+00 -1.649343e+00 8.840500e-01 1.264922e+00 -7.894505e-01 -1.317013e+00 4.044343e-01 1.536890e+00 -4.884995e-03
<VARIANCE> 25
 8.984912e+00 2.670602e+01 3.107988e+01 3.021149e+01 3.611174e+01 4.167201e+01 5.967670e+01 4.212740e+01 3.910032e+01 4.242728e+01 3.582312e+01 3.240381e+01 3.537305e-01 8.418319e-01 1.472026e+00 1.317320e+00 1.917902e+00 2.126625e+00 2.577286e+00 2.041605e+00 2.249088e+00 2.127958e+00 2.331407e+00 1.470657e+00 3.666488e-04
<GCONST> 8.529289e+01
<MIXTURE> 90 7.114504e-03
<MEAN> 25
 2.448394e+00 -9.724323e+00 -4.755058e+00 -3.978390e+00 -3.383842e+00 -1.813612e+00 3.366389e+00 1.181424e+00 -7.533021e+00 -1.021731e+01 -3.429882e+00 -7.392296e-01 -1.636501e-01 9.090890e-01 1.168859e+00 -8.539643e-01 -1.613061e+00 -2.119314e-01 6.448410e-01 -2.099774e-01 -1.688475e-01 7.371355e-01 1.829775e-01 -5.501416e-01 -1.114925e-02
<VARIANCE> 25
 8.492494e+00 1.778145e+01 1.981252e+01 2.802135e+01 3.684011e+01 3.217675e+01 3.852350e+01 3.640640e+01 3.521472e+01 2.769224e+01 2.700379e+01 2.613764e+01 2.237503e-01 6.127485e-01 7.866905e-01 1.042879e+00 1.470096e+00 1.591681e+00 1.780409e+00 1.654620e+00 1.810389e+00 1.678416e+00 1.495425e+00 1.308619e+00 2.149878e-04
<GCONST> 7.813277e+01
<MIXTURE> 91 7.852946e-03
<MEAN> 25
 6.393653e+00 -7.650475e+00 -8.584436e+00 -5.167966e+00 3.971806e+00 -1.191411e-01 -2.192271e+00 7.303078e-01 7.838171e-01 -2.945465e+00 -4.937387e+00 -5.184799e+00 2.595139e-01 1.003725e+00 1.918957e-01 4.493355e-01 -7.038429e-02 -5.597662e-01 -3.892391e-01 -1.013278e-01 -1.030379e-01 4.573087e-01 -1.176345e-01 2.111048e-01 -3.501416e-02
<VARIANCE> 25
 1.010986e+01 2.264054e+01 1.990435e+01 4.059350e+01 3.519614e+01 5.551277e+01 5.446209e+01 3.968133e+01 5.196635e+01 6.427813e+01 3.828568e+01 4.150850e+01 4.459558e-01 8.871262e-01 1.127974e+00 1.386993e+00 2.196421e+00 2.379743e+00 2.372269e+00 2.390527e+00 2.246121e+00 2.217469e+00 2.013870e+00 1.821460e+00 5.854502e-04
<GCONST> 8.718703e+01
<MIXTURE> 92 7.852946e-03
<MEAN> 25
 6.393653e+00 -7.650475e+00 -8.584436e+00 -5.167966e+00 3.971806e+00 -1.191411e-01 -2.192271e+00 7.303078e-01 7.838171e-01 -2.945465e+00 -4.937387e+00 -5.184799e+00 2.595139e-01 1.003725e+00 1.918957e-01 4.493355e-01 -7.038429e-02 -5.597662e-01 -3.892391e-01 -1.013278e-01 -1.030379e-01 4.573087e-01 -1.176345e-01 2.111048e-01 -3.501416e-02
<VARIANCE> 25
 1.010986e+01 2.264054e+01 1.990435e+01 4.059350e+01 3.519614e+01 5.551277e+01 5.446209e+01 3.968133e+01 5.196635e+01 6.427813e+01 3.828568e+01 4.150850e+01 4.459558e-01 8.871262e-01 1.127974e+00 1.386993e+00 2.196421e+00 2.379743e+00 2.372269e+00 2.390527e+00 2.246121e+00 2.217469e+00 2.013870e+00 1.821460e+00 5.854502e-04
<GCONST> 8.718703e+01
<MIXTURE> 93 6.122770e-03
<MEAN> 25
 -6.825819e+00 -9.612056e-01 -2.402231e+00 5.798120e+00 5.908294e+00 3.922797e+00 6.123493e+00 3.609040e+00 4.119614e+00 2.509350e+00 1.818382e+00 3.705910e+00 -6.164000e-02 -1.543872e-01 -2.573870e-01 -3.317066e-01 -3.337587e-01 -2.844732e-01 -2.177871e-01 -1.742780e-01 -1.667204e-01 -1.506447e-01 -1.044153e-01 -3.554936e-02 -3.837683e-06
<VARIANCE> 25
 9.093901e+00 6.027777e+00 8.185111e+00 1.136881e+01 1.149258e+01 1.598249e+01 1.527640e+01 1.644382e+01 1.475774e+01 1.454170e+01 1.678724e+01 1.344866e+01 8.272374e-02 1.533694e-01 2.637162e-01 3.805642e-01 4.977629e-01 6.423341e-01 7.793725e-01 8.873125e-01 9.166239e-01 8.761251e-01 8.923470e-01 9.178920e-01 1.000000e-06
<GCONST> 5.360219e+01
<MIXTURE> 94 6.122770e-03
<MEAN> 25
 -6.825819e+00 -9.612056e-01 -2.402231e+00 5.798120e+00 5.908294e+00 3.922797e+00 6.123493e+00 3.609040e+00 4.119614e+00 2.509350e+00 1.818382e+00 3.705910e+00 -6.164000e-02 -1.543872e-01 -2.573870e-01 -3.317066e-01 -3.337587e-01 -2.844732e-01 -2.177871e-01 -1.742780e-01 -1.667204e-01 -1.506447e-01 -1.044153e-01 -3.554936e-02 -3.837683e-06
<VARIANCE> 25
 9.093901e+00 6.027777e+00 8.185111e+00 1.136881e+01 1.149258e+01 1.598249e+01 1.527640e+01 1.644382e+01 1.475774e+01 1.454170e+01 1.678724e+01 1.344866e+01 8.272374e-02 1.533694e-01 2.637162e-01 3.805642e-01 4.977629e-01 6.423341e-01 7.793725e-01 8.873125e-01 9.166239e-01 8.761251e-01 8.923470e-01 9.178920e-01 1.000000e-06
<GCONST> 5.360219e+01
<MIXTURE> 95 5.258835e-03
<MEAN> 25
 -5.828194e+00 -7.381423e-01 -1.989551e+00 4.896989e+00 4.223797e+00 2.809294e+00 4.173112e+00 1.662247e+00 2.226425e+00 8.720304e-01 1.197312e+00 2.594144e+00 1.454761e-01 1.467564e-01 8.523408e-02 -8.324565e-02 -3.783912e-01 -7.175836e-01 -1.055871e+00 -1.281832e+00 -1.264004e+00 -9.921027e-01 -6.497644e-01 -3.076674e-01 -1.425471e-04
<VARIANCE> 25
 1.023204e+01 6.487837e+00 1.223110e+01 1.278131e+01 1.397583e+01 1.831851e+01 1.790710e+01 1.689650e+01 1.541822e+01 1.542877e+01 1.997850e+01 1.435067e+01 2.094538e-01 2.930525e-01 4.539509e-01 6.295345e-01 8.003445e-01 8.964953e-01 9.120876e-01 9.240815e-01 9.706755e-01 1.076160e+00 1.159870e+00 1.114726e+00 4.195802e-05
<GCONST> 6.325771e+01
<MIXTURE> 96 7.034693e-03
<MEAN> 25
 -5.096676e+00 -4.548352e-01 -2.243811e+00 5.163478e+00 3.866032e+00 1.791501e+00 3.541566e+00 1.804465e+00 2.453365e+00 9.499912e-01 1.147341e+00 2.837089e+00 -2.968468e-02 8.781838e-02 2.134370e-01 4.057707e-01 5.389143e-01 4.999281e-01 2.461946e-01 -1.265887e-01 -4.634765e-01 -6.517613e-01 -6.085039e-01 -3.674167e-01 -1.581863e-05
<VARIANCE> 25
 1.101202e+01 9.725837e+00 1.288803e+01 1.428365e+01 1.502163e+01 1.952112e+01 1.807648e+01 1.930171e+01 1.800599e+01 1.660915e+01 1.976787e+01 1.453510e+01 1.204457e-01 2.181627e-01 3.166818e-01 3.977631e-01 4.946318e-01 6.606247e-01 8.674674e-01 9.963827e-01 9.568194e-01 8.641353e-01 8.866712e-01 9.406826e-01 1.000000e-06
<GCONST> 5.757094e+01
<MIXTURE> 97 7.034693e-03
<MEAN> 25
 -5.096676e+00 -4.548352e-01 -2.243811e+00 5.163478e+00 3.866032e+00 1.791501e+00 3.541566e+00 1.804465e+00 2.453365e+00 9.499912e-01 1.147341e+00 2.837089e+00 -2.968468e-02 8.781838e-02 2.134370e-01 4.057707e-01 5.389143e-01 4.999281e-01 2.461946e-01 -1.265887e-01 -4.634765e-01 -6.517613e-01 -6.085039e-01 -3.674167e-01 -1.581863e-05
<VARIANCE> 25
 1.101202e+01 9.725837e+00 1.288803e+01 1.428365e+01 1.502163e+01 1.952112e+01 1.807648e+01 1.930171e+01 1.800599e+01 1.660915e+01 1.976787e+01 1.453510e+01 1.204457e-01 2.181627e-01 3.166818e-01 3.977631e-01 4.946318e-01 6.606247e-01 8.674674e-01 9.963827e-01 9.568194e-01 8.641353e-01 8.866712e-01 9.406826e-01 1.000000e-06
<GCONST> 5.757094e+01
<MIXTURE> 98 9.917806e-03
<MEAN> 25
 -1.488687e+00 9.620301e-01 -1.657564e-01 4.607842e+00 3.693924e+00 2.658666e+00 3.179959e+00 1.700774e+00 1.612115e+00 9.186345e-01 7.475877e-01 1.015421e+00 -1.817518e+00 -1.499556e+00 -1.025410e+00 1.537194e-01 6.377157e-01 8.172836e-01 1.266927e+00 1.449885e+00 1.695056e+00 1.146393e+00 1.328986e+00 9.696614e-01 -3.520011e-02
<VARIANCE> 25
 1.433874e+01 2.002870e+01 3.179943e+01 3.272900e+01 4.298619e+01 3.668283e+01 3.245171e+01 2.915938e+01 2.764739e+01 3.028681e+01 2.675059e+01 2.377971e+01 1.350891e+00 1.502243e+00 2.363431e+00 2.451617e+00 2.875956e+00 2.921882e+00 2.879164e+00 2.785307e+00 2.614504e+00 3.013912e+00 2.772400e+00 2.143399e+00 2.383044e-03
<GCONST> 9.043824e+01
<MIXTURE> 99 6.696178e-03
<MEAN> 25
 -6.482084e+00 1.005108e+01 6.851194e+00 3.501083e+00 9.434409e-01 -5.331912e+00 -1.718526e+00 -4.181543e+00 -3.500532e+00 -3.768971e+00 -1.624821e+00 3.836044e-01 5.703580e-01 -7.314675e-01 3.167999e-01 -3.903334e-01 -1.149861e+00 -5.154542e-01 -3.316525e-01 -2.534610e-01 -1.047569e-01 -5.263200e-02 2.398329e-01 1.678514e-01 1.053839e-02
<VARIANCE> 25
 3.590800e+01 2.512631e+01 4.702281e+01 3.183337e+01 3.678570e+01 3.537714e+01 2.784996e+01 2.960918e+01 2.695036e+01 2.804427e+01 2.075601e+01 2.924507e+01 2.205763e+00 1.893665e+00 1.447434e+00 1.755365e+00 2.675250e+00 2.112084e+00 1.604268e+00 1.660604e+00 1.567403e+00 1.587690e+00 1.316119e+00 1.278214e+00 1.574425e-03
<GCONST> 8.703696e+01
<MIXTURE> 100 4.498083e-03
<MEAN> 25
 -1.598878e+00 6.344827e+00 1.027700e+01 -7.462759e+00 -1.078206e+01 -5.075294e+00 -4.941668e+00 -9.968847e+00 -4.718240e+00 -8.551691e-01 -2.733300e+00 -2.708267e+00 2.917895e+00 -1.260455e+00 1.299659e+00 -2.185945e+00 -3.419489e+00 -7.841161e-01 -1.218778e+00 -8.197802e-01 -1.475479e+00 3.466953e-01 -1.655620e+00 -2.862392e-01 2.015521e-03
<VARIANCE> 25
 1.362666e+01 2.105913e+01 2.246177e+01 2.642710e+01 2.301848e+01 2.372172e+01 2.911146e+01 2.170685e+01 2.748231e+01 2.265230e+01 2.241141e+01 2.134114e+01 1.799129e+00 3.953767e+00 2.919965e+00 4.286306e+00 4.184435e+00 4.537227e+00 4.015484e+00 4.340374e+00 4.167888e+00 3.896067e+00 3.910382e+00 3.225015e+00 1.674840e-03
<GCONST> 9.256866e+01
<MIXTURE> 101 6.007792e-03
<MEAN> 25
 8.096079e+00 -3.488343e+00 -6.312625e+00 -6.867279e+00 8.470662e-01 -1.258883e+00 -1.058924e+01 -2.059193e+00 1.622421e+00 2.714293e+00 -2.387554e+00 -5.143009e+00 6.735162e-01 6.510686e-01 -1.457085e+00 -1.610713e+00 1.032406e+00 2.318736e+00 1.969982e-01 -1.460593e+00 -1.064593e+00 1.036849e+00 1.373428e+00 -4.156221e-01 -4.808852e-03
<VARIANCE> 25
 9.271352e+00 1.671453e+01 2.984297e+01 4.279351e+01 3.622900e+01 3.581821e+01 3.702962e+01 3.622841e+01 3.786591e+01 4.399052e+01 5.178077e+01 2.422963e+01 2.937014e-01 6.693079e-01 1.172397e+00 1.551514e+00 1.687607e+00 2.096311e+00 2.086355e+00 1.992397e+00 2.349168e+00 2.216585e+00 1.785569e+00 1.935392e+00 3.449597e-04
<GCONST> 8.364278e+01
<MIXTURE> 102 6.007792e-03
<MEAN> 25
 8.096079e+00 -3.488343e+00 -6.312625e+00 -6.867279e+00 8.470662e-01 -1.258883e+00 -1.058924e+01 -2.059193e+00 1.622421e+00 2.714293e+00 -2.387554e+00 -5.143009e+00 6.735162e-01 6.510686e-01 -1.457085e+00 -1.610713e+00 1.032406e+00 2.318736e+00 1.969982e-01 -1.460593e+00 -1.064593e+00 1.036849e+00 1.373428e+00 -4.156221e-01 -4.808852e-03
<VARIANCE> 25
 9.271352e+00 1.671453e+01 2.984297e+01 4.279351e+01 3.622900e+01 3.581821e+01 3.702962e+01 3.622841e+01 3.786591e+01 4.399052e+01 5.178077e+01 2.422963e+01 2.937014e-01 6.693079e-01 1.172397e+00 1.551514e+00 1.687607e+00 2.096311e+00 2.086355e+00 1.992397e+00 2.349168e+00 2.216585e+00 1.785569e+00 1.935392e+00 3.449597e-04
<GCONST> 8.364278e+01
<MIXTURE> 103 5.694616e-03
<MEAN> 25
 3.367409e+00 -9.481294e+00 -6.133417e+00 -3.090555e+00 -1.332706e+00 -1.971339e+00 2.439525e+00 2.516928e+00 -4.613288e+00 -9.259199e+00 -5.063093e+00 3.627117e-01 -1.577492e-01 -1.488866e+00 -9.809290e-01 3.755117e-01 1.213949e+00 1.020449e+00 1.588483e-01 -2.672867e-01 -7.811769e-01 -9.466285e-01 -3.503692e-02 1.203286e-01 2.694747e-02
<VARIANCE> 25
 1.033882e+01 2.031599e+01 2.290418e+01 3.168377e+01 4.805574e+01 3.501380e+01 4.641090e+01 3.669122e+01 4.212466e+01 2.931576e+01 3.006438e+01 2.640769e+01 6.438428e-01 1.251875e+00 1.537816e+00 1.940252e+00 2.927029e+00 2.410697e+00 2.890839e+00 2.577216e+00 2.563415e+00 2.524078e+00 2.097355e+00 2.016822e+00 8.073318e-04
<GCONST> 8.757262e+01
<MIXTURE> 104 5.694616e-03
<MEAN> 25
 3.367409e+00 -9.481294e+00 -6.133417e+00 -3.090555e+00 -1.332706e+00 -1.971339e+00 2.439525e+00 2.516928e+00 -4.613288e+00 -9.259199e+00 -5.063093e+00 3.627117e-01 -1.577492e-01 -1.488866e+00 -9.809290e-01 3.755117e-01 1.213949e+00 1.020449e+00 1.588483e-01 -2.672867e-01 -7.811769e-01 -9.466285e-01 -3.503692e-02 1.203286e-01 2.694747e-02
<VARIANCE> 25
 1.033882e+01 2.031599e+01 2.290418e+01 3.168377e+01 4.805574e+01 3.501380e+01 4.641090e+01 3.669122e+01 4.212466e+01 2.931576e+01 3.006438e+01 2.640769e+01 6.438428e-01 1.251875e+00 1.537816e+00 1.940252e+00 2.927029e+00 2.410697e+00 2.890839e+00 2.577216e+00 2.563415e+00 2.524078e+00 2.097355e+00 2.016822e+00 8.073318e-04
<GCONST> 8.757262e+01
<MIXTURE> 105 4.710236e-03
<MEAN> 25
 2.228288e+00 -1.498273e+00 9.251144e+00 -2.698127e+00 -1.160984e+01 -5.024391e+00 -4.175264e+00 -7.741349e-01 -3.822680e+00 -3.199198e+00 1.517093e+00 -1.155980e+00 9.314424e-03 3.027557e-02 4.900507e-02 -4.614276e-02 4.387998e-03 4.771139e-02 -1.173617e-02 5.055445e-02 -3.737183e-02 2.676130e-02 2.907414e-02 -2.824684e-02 -2.191115e-03
<VARIANCE> 25
 1.332659e+01 2.861238e+01 4.085445e+01 4.486582e+01 3.772484e+01 5.368402e+01 4.118108e+01 4.337321e+01 3.973494e+01 4.202597e+01 4.193042e+01 3.076276e+01 8.370768e-02 1.861470e-01 3.423618e-01 2.910334e-01 3.730018e-01 4.288858e-01 4.704648e-01 4.911736e-01 4.934040e-01 4.406989e-01 4.208154e-01 3.981715e-01 8.921402e-05
<GCONST> 6.668600e+01
<MIXTURE> 106 4.710236e-03
<MEAN> 25
 2.228288e+00 -1.498273e+00 9.251144e+00 -2.698127e+00 -1.160984e+01 -5.024391e+00 -4.175264e+00 -7.741349e-01 -3.822680e+00 -3.199198e+00 1.517093e+00 -1.155980e+00 9.314424e-03 3.027557e-02 4.900507e-02 -4.614276e-02 4.387998e-03 4.771139e-02 -1.173617e-02 5.055445e-02 -3.737183e-02 2.676130e-02 2.907414e-02 -2.824684e-02 -2.191115e-03
<VARIANCE> 25
 1.332659e+01 2.861238e+01 4.085445e+01 4.486582e+01 3.772484e+01 5.368402e+01 4.118108e+01 4.337321e+01 3.973494e+01 4.202597e+01 4.193042e+01 3.076276e+01 8.370768e-02 1.861470e-01 3.423618e-01 2.910334e-01 3.730018e-01 4.288858e-01 4.704648e-01 4.911736e-01 4.934040e-01 4.406989e-01 4.208154e-01 3.981715e-01 8.921402e-05
<GCONST> 6.668600e+01
<MIXTURE> 107 5.452374e-03
<MEAN> 25
 8.641904e+00 -2.310668e+00 -8.041058e+00 -9.562292e+00 1.965845e+00 2.958543e+00 -8.642164e+00 -4.554155e+00 -8.843119e-01 3.389237e+00 8.549146e-01 -5.074838e+00 -6.099874e-01 -7.685043e-01 8.360502e-01 1.773401e+00 2.254680e-01 -2.012988e+00 -9.218233e-01 8.486400e-01 1.767513e+00 4.705316e-02 -1.658216e+00 -8.203782e-01 -1.793208e-03
<VARIANCE> 25
 9.244810e+00 2.047068e+01 2.835267e+01 4.281211e+01 3.577274e+01 3.848113e+01 5.117625e+01 3.627512e+01 4.580087e+01 4.174176e+01 5.138211e+01 3.037139e+01 3.557458e-01 9.686454e-01 1.462018e+00 2.414100e+00 2.286858e+00 2.824299e+00 2.614789e+00 2.542175e+00 2.297771e+00 3.031330e+00 1.945399e+00 2.207011e+00 7.029832e-04
<GCONST> 8.804713e+01
<MIXTURE> 108 5.452374e-03
<MEAN> 25
 8.641904e+00 -2.310668e+00 -8.041058e+00 -9.562292e+00 1.965845e+00 2.958543e+00 -8.642164e+00 -4.554155e+00 -8.843119e-01 3.389237e+00 8.549146e-01 -5.074838e+00 -6.099874e-01 -7.685043e-01 8.360502e-01 1.773401e+00 2.254680e-01 -2.012988e+00 -9.218233e-01 8.486400e-01 1.767513e+00 4.705316e-02 -1.658216e+00 -8.203782e-01 -1.793208e-03
<VARIANCE> 25
 9.244810e+00 2.047068e+01 2.835267e+01 4.281211e+01 3.577274e+01 3.848113e+01 5.117625e+01 3.627512e+01 4.580087e+01 4.174176e+01 5.138211e+01 3.037139e+01 3.557458e-01 9.686454e-01 1.462018e+00 2.414100e+00 2.286858e+00 2.824299e+00 2.614789e+00 2.542175e+00 2.297771e+00 3.031330e+00 1.945399e+00 2.207011e+00 7.029832e-04
<GCONST> 8.804713e+01
<MIXTURE> 109 6.661063e-03
<MEAN> 25
 4.081645e+00 -1.055423e+01 -8.306934e+00 -1.358626e+00 2.754966e+00 -4.541610e-02 -7.115210e-02 1.457855e+00 -2.571395e+00 -8.376859e+00 -5.386170e+00 6.494444e-02 -3.319465e-02 -1.322865e-01 -3.282550e-02 2.506186e-01 1.970146e-01 1.186180e-01 -1.254258e-01 -1.054588e-01 -4.043017e-02 -1.311385e-01 2.192466e-01 1.202022e-02 -3.518178e-03
<VARIANCE> 25
 9.087972e+00 1.818095e+01 1.999575e+01 3.142988e+01 4.082446e+01 3.677675e+01 4.663581e+01 3.437447e+01 4.607226e+01 3.524933e+01 2.958115e+01 2.817848e+01 1.929820e-01 4.229725e-01 5.384480e-01 6.345088e-01 1.231102e+00 9.941425e-01 1.258181e+00 1.092986e+00 1.117448e+00 9.523793e-01 8.775979e-01 8.855233e-01 1.820164e-04
<GCONST> 7.444946e+01
<MIXTURE> 110 6.661063e-03
<MEAN> 25
 4.081645e+00 -1.055423e+01 -8.306934e+00 -1.358626e+00 2.754966e+00 -4.541610e-02 -7.115210e-02 1.457855e+00 -2.571395e+00 -8.376859e+00 -5.386170e+00 6.494444e-02 -3.319465e-02 -1.322865e-01 -3.282550e-02 2.506186e-01 1.970146e-01 1.186180e-01 -1.254258e-01 -1.054588e-01 -4.043017e-02 -1.311385e-01 2.192466e-01 1.202022e-02 -3.518178e-03
<VARIANCE> 25
 9.087972e+00 1.818095e+01 1.999575e+01 3.142988e+01 4.082446e+01 3.677675e+01 4.663581e+01 3.437447e+01 4.607226e+01 3.524933e+01 2.958115e+01 2.817848e+01 1.929820e-01 4.229725e-01 5.384480e-01 6.345088e-01 1.231102e+00 9.941425e-01 1.258181e+00 1.092986e+00 1.117448e+00 9.523793e-01 8.775979e-01 8.855233e-01 1.820164e-04
<GCONST> 7.444946e+01
<MIXTURE> 111 4.337246e-03
<MEAN> 25
 -4.473885e+00 -9.063295e-01 -1.721021e+00 1.688070e+00 9.647364e-01 9.644091e-01 3.142903e-01 2.110198e-01 8.899395e-02 -5.414049e-01 -6.300222e-01 1.964555e+00 -2.107539e-02 -3.247489e-02 -7.233648e-02 -7.354105e-02 -3.728380e-02 6.404094e-03 -1.101275e-03 -5.925685e-02 -1.404486e-01 -2.029705e-01 -1.901401e-01 -1.064510e-01 -2.146435e-04
<VARIANCE> 25
 7.001233e+00 4.976976e+00 1.021288e+01 9.407270e+00 1.310906e+01 2.384236e+01 1.466654e+01 1.316663e+01 1.160103e+01 1.191203e+01 1.362880e+01 1.158859e+01 7.917870e-02 1.635702e-01 2.752667e-01 4.205345e-01 5.694606e-01 7.054015e-01 8.005947e-01 8.582656e-01 8.927959e-01 8.559541e-01 8.621329e-01 8.478526e-01 2.231563e-05
<GCONST> 5.597918e+01
<MIXTURE> 112 4.337246e-03
<MEAN> 25
 -4.473885e+00 -9.063295e-01 -1.721021e+00 1.688070e+00 9.647364e-01 9.644091e-01 3.142903e-01 2.110198e-01 8.899395e-02 -5.414049e-01 -6.300222e-01 1.964555e+00 -2.107539e-02 -3.247489e-02 -7.233648e-02 -7.354105e-02 -3.728380e-02 6.404094e-03 -1.101275e-03 -5.925685e-02 -1.404486e-01 -2.029705e-01 -1.901401e-01 -1.064510e-01 -2.146435e-04
<VARIANCE> 25
 7.001233e+00 4.976976e+00 1.021288e+01 9.407270e+00 1.310906e+01 2.384236e+01 1.466654e+01 1.316663e+01 1.160103e+01 1.191203e+01 1.362880e+01 1.158859e+01 7.917870e-02 1.635702e-01 2.752667e-01 4.205345e-01 5.694606e-01 7.054015e-01 8.005947e-01 8.582656e-01 8.927959e-01 8.559541e-01 8.621329e-01 8.478526e-01 2.231563e-05
<GCONST> 5.597918e+01
<MIXTURE> 113 5.938667e-03
<MEAN> 25
 9.978357e+00 1.755182e+00 -8.781635e+00 -1.704810e+01 -1.034120e+00 5.659579e+00 -5.280975e+00 -1.466079e+00 -5.695920e+00 -4.937987e-01 2.990457e-01 -1.976306e-01 4.814770e-03 1.383338e-02 -5.952226e-02 -1.134082e-01 1.043176e-01 1.505967e-01 5.930182e-02 3.606787e-02 -5.699058e-02 -5.125005e-02 1.797093e-01 3.523592e-02 -1.410354e-03
<VARIANCE> 25
 8.871517e+00 1.639133e+01 2.967418e+01 3.419381e+01 5.273928e+01 3.386648e+01 3.970903e+01 3.914356e+01 3.737587e+01 4.640521e+01 3.629900e+01 2.844291e+01 1.217925e-01 3.205926e-01 3.161455e-01 6.314218e-01 6.128703e-01 6.536570e-01 7.765684e-01 8.452074e-01 9.594593e-01 9.052593e-01 7.245082e-01 7.135695e-01 1.247807e-04
<GCONST> 7.110380e+01
<MIXTURE> 114 5.938667e-03
<MEAN> 25
 9.978357e+00 1.755182e+00 -8.781635e+00 -1.704810e+01 -1.034120e+00 5.659579e+00 -5.280975e+00 -1.466079e+00 -5.695920e+00 -4.937987e-01 2.990457e-01 -1.976306e-01 4.814770e-03 1.383338e-02 -5.952226e-02 -1.134082e-01 1.043176e-01 1.505967e-01 5.930182e-02 3.606787e-02 -5.699058e-02 -5.125005e-02 1.797093e-01 3.523592e-02 -1.410354e-03
<VARIANCE> 25
 8.871517e+00 1.639133e+01 2.967418e+01 3.419381e+01 5.273928e+01 3.386648e+01 3.970903e+01 3.914356e+01 3.737587e+01 4.640521e+01 3.629900e+01 2.844291e+01 1.217925e-01 3.205926e-01 3.161455e-01 6.314218e-01 6.128703e-01 6.536570e-01 7.765684e-01 8.452074e-01 9.594593e-01 9.052593e-01 7.245082e-01 7.135695e-01 1.247807e-04
<GCONST> 7.110380e+01
<MIXTURE> 115 2.935202e-03
<MEAN> 25
 -4.031508e+00 -7.523134e-01 -3.108292e+00 3.656949e+00 2.413549e+00 -4.277790e-01 2.235019e+00 4.127970e-01 1.388240e+00 -1.980280e-02 4.044602e-02 2.687725e+00 3.161651e-02 -7.211528e-02 -2.307798e-01 -4.386980e-01 -6.334474e-01 -6.703678e-01 -5.921516e-01 -5.095131e-01 -4.866898e-01 -4.566612e-01 -3.437370e-01 -1.649531e-01 -3.168033e-06
<VARIANCE> 25
 9.267219e+00 9.883682e+00 1.353192e+01 1.270435e+01 1.348816e+01 1.756121e+01 1.708409e+01 2.080719e+01 1.793073e+01 1.721353e+01 1.919555e+01 1.466582e+01 2.037629e-01 3.456421e-01 4.855044e-01 5.616056e-01 6.341601e-01 7.979911e-01 1.008026e+00 1.130844e+00 1.075163e+00 9.943575e-01 1.025555e+00 1.064796e+00 1.000000e-06
<GCONST> 6.016114e+01
<MIXTURE> 116 2.935202e-03
<MEAN> 25
 -4.031508e+00 -7.523134e-01 -3.108292e+00 3.656949e+00 2.413549e+00 -4.277790e-01 2.235019e+00 4.127970e-01 1.388240e+00 -1.980280e-02 4.044602e-02 2.687725e+00 3.161651e-02 -7.211528e-02 -2.307798e-01 -4.386980e-01 -6.334474e-01 -6.703678e-01 -5.921516e-01 -5.095131e-01 -4.866898e-01 -4.566612e-01 -3.437370e-01 -1.649531e-01 -3.168033e-06
<VARIANCE> 25
 9.267219e+00 9.883682e+00 1.353192e+01 1.270435e+01 1.348816e+01 1.756121e+01 1.708409e+01 2.080719e+01 1.793073e+01 1.721353e+01 1.919555e+01 1.466582e+01 2.037629e-01 3.456421e-01 4.855044e-01 5.616056e-01 6.341601e-01 7.979911e-01 1.008026e+00 1.130844e+00 1.075163e+00 9.943575e-01 1.025555e+00 1.064796e+00 1.000000e-06
<GCONST> 6.016114e+01
<MIXTURE> 117 6.506005e-03
<MEAN> 25
 -4.644592e+00 1.117793e+00 1.054499e+00 9.758447e+00 6.260121e+00 6.256477e+00 6.463082e+00 5.044496e+00 6.385674e+00 4.929173e+00 6.367208e+00 2.709929e+00 -7.503008e-02 -2.341336e-01 -3.583474e-01 -4.199596e-01 -3.675186e-01 -3.027199e-01 -2.873273e-01 -3.314594e-01 -3.917833e-01 -3.689738e-01 -2.631080e-01 -1.159785e-01 -9.052962e-06
<VARIANCE> 25
 7.187259e+00 8.753097e+00 9.809425e+00 1.430823e+01 1.561781e+01 1.534934e+01 1.772638e+01 1.796108e+01 1.640261e+01 1.637152e+01 1.674076e+01 1.475332e+01 2.166086e-01 3.075042e-01 4.261350e-01 6.171185e-01 8.536686e-01 1.055364e+00 1.177562e+00 1.232911e+00 1.223976e+00 1.194855e+00 1.167213e+00 1.113683e+00 1.000000e-06
<GCONST> 6.042865e+01
<MIXTURE> 118 6.506005e-03
<MEAN> 25
 -4.644592e+00 1.117793e+00 1.054499e+00 9.758447e+00 6.260121e+00 6.256477e+00 6.463082e+00 5.044496e+00 6.385674e+00 4.929173e+00 6.367208e+00 2.709929e+00 -7.503008e-02 -2.341336e-01 -3.583474e-01 -4.199596e-01 -3.675186e-01 -3.027199e-01 -2.873273e-01 -3.314594e-01 -3.917833e-01 -3.689738e-01 -2.631080e-01 -1.159785e-01 -9.052962e-06
<VARIANCE> 25
 7.187259e+00 8.753097e+00 9.809425e+00 1.430823e+01 1.561781e+01 1.534934e+01 1.772638e+01 1.796108e+01 1.640261e+01 1.637152e+01 1.674076e+01 1.475332e+01 2.166086e-01 3.075042e-01 4.261350e-01 6.171185e-01 8.536686e-01 1.055364e+00 1.177562e+00 1.232911e+00 1.223976e+00 1.194855e+00 1.167213e+00 1.113683e+00 1.000000e-06
<GCONST> 6.042865e+01
<MIXTURE> 119 4.297961e-03
<MEAN> 25
 -4.975598e+00 -7.634647e+00 2.231646e+00 2.016639e+00 2.239614e+00 2.076994e-01 5.275206e+00 5.939713e+00 1.166136e+00 9.677677e-01 6.613866e+00 1.569998e+00 -4.997206e-02 -7.931148e-02 3.729610e-02 -5.719883e-02 -1.261394e-01 -1.799054e-01 -6.905186e-02 -1.393463e-02 -9.187473e-02 -1.121016e-01 -5.515629e-02 -5.818786e-02 1.111643e-03
<VARIANCE> 25
 8.501863e+00 9.813537e+00 1.656438e+01 2.018279e+01 2.286663e+01 2.320607e+01 2.499717e+01 2.648552e+01 2.503739e+01 2.807428e+01 2.040337e+01 2.041015e+01 1.604242e-01 2.824877e-01 4.597538e-01 6.328265e-01 8.034651e-01 1.003842e+00 1.099947e+00 1.277788e+00 1.285857e+00 1.245821e+00 1.192396e+00 1.112443e+00 2.316193e-04
<GCONST> 6.971953e+01
<MIXTURE> 120 4.297961e-03
<MEAN> 25
 -4.975598e+00 -7.634647e+00 2.231646e+00 2.016639e+00 2.239614e+00 2.076994e-01 5.275206e+00 5.939713e+00 1.166136e+00 9.677677e-01 6.613866e+00 1.569998e+00 -4.997206e-02 -7.931148e-02 3.729610e-02 -5.719883e-02 -1.261394e-01 -1.799054e-01 -6.905186e-02 -1.393463e-02 -9.187473e-02 -1.121016e-01 -5.515629e-02 -5.818786e-02 1.111643e-03
<VARIANCE> 25
 8.501863e+00 9.813537e+00 1.656438e+01 2.018279e+01 2.286663e+01 2.320607e+01 2.499717e+01 2.648552e+01 2.503739e+01 2.807428e+01 2.040337e+01 2.041015e+01 1.604242e-01 2.824877e-01 4.597538e-01 6.328265e-01 8.034651e-01 1.003842e+00 1.099947e+00 1.277788e+00 1.285857e+00 1.245821e+00 1.192396e+00 1.112443e+00 2.316193e-04
<GCONST> 6.971953e+01
<MIXTURE> 121 4.567512e-03
<MEAN> 25
 2.074964e-01 -2.524012e+00 5.153263e+00 -1.290326e+01 -1.264689e+01 -1.665214e+00 9.989504e-01 -5.107801e+00 -4.199427e+00 -4.899806e-01 -5.508050e+00 -4.313338e+00 2.410370e-02 1.323658e-01 -4.149543e-02 7.962478e-02 1.585143e-01 7.846437e-02 -7.942359e-02 -1.832200e-01 -2.685326e-01 -2.576512e-01 -1.145161e-01 9.181199e-04 -7.434082e-03
<VARIANCE> 25
 7.732639e+00 1.560589e+01 1.727573e+01 2.035750e+01 2.441031e+01 2.925116e+01 2.953889e+01 2.457755e+01 3.528794e+01 2.833920e+01 1.974621e+01 2.118016e+01 1.549991e-01 6.430969e-01 6.230602e-01 7.048418e-01 7.706043e-01 1.149956e+00 1.118103e+00 1.120875e+00 1.217460e+00 1.192660e+00 9.416311e-01 8.719059e-01 2.108308e-04
<GCONST> 7.139254e+01
<MIXTURE> 122 4.567512e-03
<MEAN> 25
 2.074964e-01 -2.524012e+00 5.153263e+00 -1.290326e+01 -1.264689e+01 -1.665214e+00 9.989504e-01 -5.107801e+00 -4.199427e+00 -4.899806e-01 -5.508050e+00 -4.313338e+00 2.410370e-02 1.323658e-01 -4.149543e-02 7.962478e-02 1.585143e-01 7.846437e-02 -7.942359e-02 -1.832200e-01 -2.685326e-01 -2.576512e-01 -1.145161e-01 9.181199e-04 -7.434082e-03
<VARIANCE> 25
 7.732639e+00 1.560589e+01 1.727573e+01 2.035750e+01 2.441031e+01 2.925116e+01 2.953889e+01 2.457755e+01 3.528794e+01 2.833920e+01 1.974621e+01 2.118016e+01 1.549991e-01 6.430969e-01 6.230602e-01 7.048418e-01 7.706043e-01 1.149956e+00 1.118103e+00 1.120875e+00 1.217460e+00 1.192660e+00 9.416311e-01 8.719059e-01 2.108308e-04
<GCONST> 7.139254e+01
<MIXTURE> 123 4.393044e-03
<MEAN> 25
 -4.260813e+00 9.385828e-01 1.145146e-01 6.186610e+00 5.282911e+00 3.518903e+00 3.286506e+00 4.522898e-01 2.904845e-01 -5.319542e-01 1.495920e-02 8.186122e-01 -4.808224e-01 -7.750694e-01 -8.646894e-01 -6.226456e-01 -2.576331e-01 6.404907e-02 3.798026e-01 6.494336e-01 7.971401e-01 7.705553e-01 7.198806e-01 5.288074e-01 -2.911346e-03
<VARIANCE> 25
 1.050479e+01 1.021586e+01 1.564796e+01 1.728494e+01 2.199690e+01 2.733897e+01 2.191228e+01 1.895070e+01 1.924792e+01 1.763695e+01 2.227301e+01 1.975999e+01 3.735057e-01 3.612515e-01 5.108674e-01 7.228940e-01 9.789552e-01 1.149069e+00 1.201961e+00 1.187358e+00 1.165707e+00 1.177911e+00 1.210942e+00 1.205475e+00 9.863140e-05
<GCONST> 6.951085e+01
<MIXTURE> 124 4.069875e-03
<MEAN> 25
 -6.565010e+00 -1.211011e+00 -2.923103e+00 5.106268e+00 4.972325e+00 3.390449e+00 5.390555e+00 2.565902e+00 3.193088e+00 1.279642e+00 1.127693e+00 3.043824e+00 -2.048482e-01 -3.230448e-01 -3.621842e-01 -2.167044e-01 1.279921e-01 5.196313e-01 8.104666e-01 8.601755e-01 6.548764e-01 3.274187e-01 7.226630e-02 -2.495558e-02 4.234802e-05
<VARIANCE> 25
 1.100917e+01 6.983246e+00 1.114288e+01 1.243205e+01 1.210751e+01 1.981946e+01 1.551588e+01 1.706865e+01 1.544148e+01 1.606992e+01 1.920493e+01 1.444099e+01 1.048239e-01 1.681124e-01 2.702850e-01 4.177250e-01 5.929995e-01 7.065688e-01 7.480275e-01 8.141062e-01 9.084589e-01 9.809870e-01 1.008202e+00 9.927143e-01 1.798431e-05
<GCONST> 5.879307e+01
<MIXTURE> 125 4.069875e-03
<MEAN> 25
 -6.565010e+00 -1.211011e+00 -2.923103e+00 5.106268e+00 4.972325e+00 3.390449e+00 5.390555e+00 2.565902e+00 3.193088e+00 1.279642e+00 1.127693e+00 3.043824e+00 -2.048482e-01 -3.230448e-01 -3.621842e-01 -2.167044e-01 1.279921e-01 5.196313e-01 8.104666e-01 8.601755e-01 6.548764e-01 3.274187e-01 7.226630e-02 -2.495558e-02 4.234802e-05
<VARIANCE> 25
 1.100917e+01 6.983246e+00 1.114288e+01 1.243205e+01 1.210751e+01 1.981946e+01 1.551588e+01 1.706865e+01 1.544148e+01 1.606992e+01 1.920493e+01 1.444099e+01 1.048239e-01 1.681124e-01 2.702850e-01 4.177250e-01 5.929995e-01 7.065688e-01 7.480275e-01 8.141062e-01 9.084589e-01 9.809870e-01 1.008202e+00 9.927143e-01 1.798431e-05
<GCONST> 5.879307e+01
<MIXTURE> 126 2.402244e-03
<MEAN> 25
 -3.789834e+00 -6.939136e+00 -5.282888e+00 2.319793e+00 4.276622e+00 -3.242067e+00 6.916166e-02 3.553900e+00 3.340191e+00 -2.697466e+00 -1.428767e+00 3.055973e+00 -2.208412e-03 -6.527855e-03 -3.579813e-02 -1.582149e-01 -3.186379e-01 -3.892846e-01 -2.737016e-01 -1.575871e-01 -1.132604e-01 -1.154717e-01 -9.801490e-02 -3.070834e-02 -1.474197e-03
<VARIANCE> 25
 7.428449e+00 1.260981e+01 1.383607e+01 1.512359e+01 2.466953e+01 2.369046e+01 2.273859e+01 2.841081e+01 3.128329e+01 2.623949e+01 2.176544e+01 1.918697e+01 1.706364e-01 3.518780e-01 4.831251e-01 5.669597e-01 7.536319e-01 9.956055e-01 1.122052e+00 1.262418e+00 1.328903e+00 1.310715e+00 1.213680e+00 1.147055e+00 2.108134e-04
<GCONST> 6.979118e+01
<MIXTURE> 127 2.402244e-03
<MEAN> 25
 -3.789834e+00 -6.939136e+00 -5.282888e+00 2.319793e+00 4.276622e+00 -3.242067e+00 6.916166e-02 3.553900e+00 3.340191e+00 -2.697466e+00 -1.428767e+00 3.055973e+00 -2.208412e-03 -6.527855e-03 -3.579813e-02 -1.582149e-01 -3.186379e-01 -3.892846e-01 -2.737016e-01 -1.575871e-01 -1.132604e-01 -1.154717e-01 -9.801490e-02 -3.070834e-02 -1.474197e-03
<VARIANCE> 25
 7.428449e+00 1.260981e+01 1.383607e+01 1.512359e+01 2.466953e+01 2.369046e+01 2.273859e+01 2.841081e+01 3.128329e+01 2.623949e+01 2.176544e+01 1.918697e+01 1.706364e-01 3.518780e-01 4.831251e-01 5.669597e-01 7.536319e-01 9.956055e-01 1.122052e+00 1.262418e+00 1.328903e+00 1.310715e+00 1.213680e+00 1.147055e+00 2.108134e-04
<GCONST> 6.979118e+01
<MIXTURE> 128 3.790456e-03
<MEAN> 25
 -3.932106e+00 1.542031e+00 -3.398265e-01 6.574659e+00 3.620763e+00 1.858528e+00 3.578068e+00 2.371367e+00 3.963129e+00 3.700480e+00 3.771067e+00 3.525685e+00 -3.959768e-01 -1.971741e-01 9.853614e-02 7.267153e-01 1.184735e+00 1.135663e+00 7.179132e-01 1.311108e-01 -4.391942e-01 -7.881165e-01 -7.024586e-01 -3.937823e-01 -3.633006e-05
<VARIANCE> 25
 1.021194e+01 1.169818e+01 1.498928e+01 1.931607e+01 2.004483e+01 2.117832e+01 2.430666e+01 2.467161e+01 2.641348e+01 2.387321e+01 2.679905e+01 1.820314e+01 8.925392e-01 1.146521e+00 1.365936e+00 1.502706e+00 1.580478e+00 1.862803e+00 2.249024e+00 2.325391e+00 2.147822e+00 1.857417e+00 1.744245e+00 1.748451e+00 1.000000e-06
<GCONST> 7.364166e+01
<TRANSP> 3
 0.000000e+00 1.000000e+00 0.000000e+00
 0.000000e+00 9.999990e-01 9.999998e-07
 0.000000e+00 0.000000e+00 0.000000e+00
<ENDHMM>
