svm_type c_svc
kernel_type rbf
gamma 0.00166667
nr_class 4
total_sv 87
rho -0.53341 -0.289378 0.210267 0.387807 0.796952 0.487389
label 1 2 3 4
nr_sv 20 20 21 26
SV
4 4 4 1:-0.0730232 2:0.366473 3:0.465619 4:0.739932 5:0.247591 6:-0.491013 7:-0.605797 8:-0.570087 9:0.115705 10:-0.564299 11:-0.0103986 12:-0.0758638 13:0.028354 14:-0.340253 15:0.275055 16:0.321184 17:0.394982 18:0.0533146 19:0.423289 20:0.207576 21:0.121939 22:0.936943 23:0.0571123 24:0.598427 25:0.251718 26:0.261021 27:-0.194904 28:0.447565 29:0.241145 30:-0.26734 31:0.449571 32:-0.23048 33:0.257866 34:-0.0773946 35:-0.335134 36:-0.33284 37:0.231884 38:0.232231 39:-0.458553 40:0.122366 41:-0.261132 42:0.17259 43:0.179429 44:0.495421 45:0.419992 46:-0.162356 47:0.614249 48:-0.0530229 49:-0.0598148 50:0.116973 51:-0.164982 52:1 53:-0.719804 54:0.307637 55:0.257552 56:0.778933 57:0.0891022 58:-0.0626433 59:-1 60:0.690705 61:0.504217 62:-0.157189 63:-0.16982 64:0.435764 65:0.0374622 66:-0.136408 67:1 68:-0.159926 69:0.823391 70:0.553136 71:-0.554474 72:-0.16792 73:-0.835431 74:-0.0831392 75:0.136562 76:-0.426559 77:-0.00687785 78:0.0463536 79:-0.12682 80:0.301252 81:0.147167 82:0.2292 83:0.399594 84:-0.533932 85:0.112773 86:-0.148823 87:0.326828 88:-0.0863011 89:-0.508209 90:-0.409638 91:-0.0312317 92:0.479168 93:-0.809064 94:0.299905 95:0.130677 96:-0.0880697 97:-0.637669 98:-1 99:0.539026 100:0.669056 101:0.301662 102:-0.00140688 103:0.0652489 104:-0.00133259 105:-0.960865 106:-0.000319025 107:0.360603 108:0.217803 109:-0.659543 110:0.00288991 111:0.25376 112:-0.239534 113:0.458213 114:-0.0597343 115:-0.424893 116:0.54048 117:-0.503292 118:-0.0460871 119:0.503229 120:0.267351 121:0.687863 122:0.101129 123:0.215304 124:0.158978 125:0.118521 126:-0.427545 127:0.490348 128:-0.632204 129:1 130:-0.140817 131:-0.223397 132:0.299018 133:0.708658 134:-0.64872 135:-0.12258 136:0.0296506 137:-0.132842 138:-0.153415 139:0.187922 140:0.359723 141:1 142:-0.365378 143:-0.201028 144:0.0524736 145:0.0297818 146:-0.339995 147:0.373228 148:-0.206656 149:-0.0800508 150:0.0733781 151:-0.0873242 152:0.765939 153:0.282252 154:0.257621 155:-0.0600079 156:0.895509 157:0.175856 158:0.599294 159:0.441595 160:0.411235 161:0.578322 162:0.217053 163:0.852461 164:0.404599 165:-0.0950762 166:-0.215484 167:-0.924482 168:-0.139551 169:0.637851 170:0.40337 171:-0.0754056 172:0.466148 173:0.0638958 174:-0.806015 175:0.0687134 176:-0.258757 177:-0.327779 178:0.189744 179:0.876783 180:0.146778 181:0.0064501 182:-0.0466041 183:-0.805161 184:0.00703614 185:0.133417 186:-0.00754784 187:0.119287 188:0.89139 189:0.221082 190:0.427821 191:-0.483832 192:-0.0764021 193:0.557043 194:-0.304251 195:-0.140529 196:-0.214642 197:0.472563 198:-0.106628 199:0.18793 200:-0.390044 201:0.213807 202:-0.668645 203:-0.232882 204:-0.366732 205:-1 206:-0.751592 207:0.101428 208:-0.179838 209:-0.430945 210:0.354588 211:1 212:-0.132405 213:-0.621969 214:-0.841655 215:-0.781703 216:0.0464189 217:-0.324496 218:0.280257 219:0.506323 220:-0.744126 221:-0.170613 222:0.309599 223:-0.809866 224:0.196351 225:-0.182815 226:0.229927 227:0.24925 228:-0.2604 229:0.41069 230:0.278238 231:-0.188121 232:0.0775118 233:0.0882372 234:-0.334605 235:0.212806 236:0.204479 237:0.500988 238:0.563311 239:0.0646438 240:0.187285 241:0.0873624 242:-0.024088 243:-0.73241 244:0.1694 245:0.0186447 246:-0.423139 247:-0.667076 248:-0.550212 249:-0.288971 250:-0.177119 251:0.498951 252:0.169911 253:-0.381835 254:-0.738022 255:0.169261 256:-0.655686 257:0.283127 258:-0.695803 259:0.553892 260:-0.290023 261:0.68109 262:-0.523665 263:0.0931505 264:0.567272 265:-0.818591 266:0.293779 267:0.882591 268:-0.139374 269:-0.0602458 270:-0.660619 271:-0.0561375 272:-0.113525 273:-1 274:0.109639 275:-0.7483 276:-0.5217 277:-0.830802 278:0.209858 279:-0.0329485 280:-0.203675 281:1 282:0.323948 283:0.143258 284:0.500521 285:0.0061612 286:0.303052 287:0.546364 288:-0.814259 289:-0.195947 290:0.400489 291:0.460037 292:-0.212763 293:0.257056 294:0.322842 295:0.144447 296:-0.151493 297:0.167475 298:1 299:-0.119096 300:-0.908836 301:-0.513948 302:1 303:-0.456951 304:0.233679 305:0.35314 306:-0.0732539 307:0.2219 308:0.0163555 309:-0.436238 310:-0.126048 311:1 312:1 313:-0.382158 314:-0.67422 315:0.572442 316:0.0241016 317:0.232278 318:-0.188071 319:0.267524 320:0.418599 321:-0.014304 322:0.675204 323:-0.305119 324:0.264498 325:0.254626 326:-0.187668 327:-0.43535 328:-0.05664 329:0.314541 330:0.311297 331:0.0615 332:-0.247789 333:-0.209153 334:0.255689 335:0.0351814 336:0.350934 337:-0.569316 338:-0.601828 339:0.402257 340:0.468125 341:0.454788 342:0.185138 343:-0.137239 344:-0.597409 345:0.0686605 346:-0.633092 347:1 348:-0.289998 349:1 350:-0.583829 351:0.00782094 352:-0.819089 353:0.559065 354:-0.45704 355:0.0557667 356:-0.528125 357:0.103208 358:-0.0913672 359:0.105271 360:0.837478 361:0.134221 362:0.935609 363:0.257581 364:0.233728 365:0.313346 366:0.364913 367:-0.441085 368:0.00129821 369:-0.12015 370:0.575311 371:0.308936 372:1 373:-0.314094 374:-0.598106 375:0.30776 376:-0.188857 377:0.469697 378:0.368861 379:-0.224996 380:0.31311 381:-0.12659 382:-0.0360357 383:-0.708881 384:-0.922565 385:0.297472 386:0.565819 387:0.154708 388:0.430277 389:0.351237 390:-0.773353 391:-0.539537 392:-0.395952 393:-0.322912 394:-0.237535 395:0.659958 396:1 397:0.0855392 398:0.597039 399:-0.518598 400:0.203865 401:0.268584 402:-0.36922 403:0.326786 404:0.102278 405:-0.613469 406:-0.381652 407:0.0496846 408:-0.196815 409:0.493282 410:-0.243673 411:0.300347 412:-0.325552 413:-0.18762 414:-0.559245 415:-0.0691057 416:-0.159928 417:0.553778 418:1 419:-0.35699 420:-0.350098 421:0.723357 422:-0.498582 423:0.756928 424:0.707703 425:0.0308329 426:0.414652 427:0.365594 428:0.188701 429:-0.0278805 430:0.0490251 431:0.287281 432:-0.566679 433:-0.597098 434:-1 435:-0.768088 436:-0.178426 437:-0.746391 438:0.625601 439:0.232511 440:-0.0488339 441:0.513709 442:-0.26223 443:-0.242192 444:-0.73542 445:0.322151 446:0.565625 447:-1 448:0.197776 449:-0.16047 450:0.100485 451:-0.0586823 452:-0.619138 453:-0.583485 454:0.317035 455:-0.558454 456:0.208538 457:0.00401024 458:-0.678 459:0.207655 460:-0.333228 461:-0.400086 462:0.419068 463:0.478478 464:-0.781503 465:-0.416903 466:0.314758 467:-0.0935915 468:-0.0885111 469:-0.0301711 470:0.668089 471:-0.544821 472:-0.460854 473:0.834263 474:-0.136677 475:0.741208 476:-0.718365 477:-0.246777 478:-0.0782324 479:-0.46478 480:-0.0696701 481:0.528584 482:-0.0862993 483:-0.116797 484:-0.474567 485:-0.308366 486:-0.110619 487:0.621788 488:0.287379 489:-0.907378 490:-0.359688 491:0.351884 492:-0.418201 493:-0.950077 494:-0.185336 495:-0.384599 496:-0.325272 497:0.316246 498:-0.817563 499:-0.148589 500:-1 501:-0.635672 502:-0.183795 503:0.000623156 504:-0.267574 505:0.263 506:-0.0857585 507:-0.428222 508:0.241017 509:-0.767731 510:-0.308442 511:0.527915 512:-0.259165 513:0.476081 514:0.893631 515:0.398383 516:1 517:0.985923 518:-0.25547 519:0.166535 520:-0.100569 521:0.732215 522:-0.530582 523:-0.79432 524:-0.0377334 525:-0.333231 526:0.0628321 527:-0.19411 528:-0.69991 529:-0.0498187 530:-0.190627 531:0.596938 532:-0.44473 533:-0.0475644 534:-0.329113 535:0.131296 536:-0.122222 537:-0.621643 538:0.169305 539:-0.352095 540:0.519816 541:-0.156543 542:-0.0879139 543:0.106949 544:0.45601 545:-0.688941 546:-0.667658 547:0.841687 548:-0.664053 549:0.0879013 550:-0.244289 551:0.155777 552:-0.409862 553:-0.251395 554:-0.512794 555:0.261323 556:0.373837 557:-0.102608 558:0.311192 559:-0.382723 560:0.776466 561:0.331 562:-0.0389518 563:-0.111627 564:-0.202549 565:0.143669 566:-0.276246 567:-0.227009 568:0.197992 569:-0.328018 570:0.0876426 571:-0.137885 572:-0.345271 573:0.515472 574:0.290198 575:-0.360321 576:-0.237007 577:-0.205141 578:0.360216 579:0.0347876 580:0.62159 581:-0.0184355 582:0.797257 583:-0.137462 584:0.622229 585:0.285816 586:0.227399 587:-0.766082 588:-0.228667 589:0.17239 590:0.167204 591:-0.0076945 592:-0.558232 593:-0.562723 594:0.249925 595:-0.112935 596:0.384546 597:-0.0499154 598:0.292389 599:-0.556833 600:0.671286 
1.209726562849651 3.971700496003256 1.945839701953733 1:-0.00894058 2:0.0842718 3:0.170521 4:0.107484 5:-0.138179 6:0.0859093 7:0.28597 8:-0.0828691 9:-0.266179 10:0.154603 11:0.871994 12:-1 13:0.202005 14:0.15157 15:0.366416 16:0.275243 17:-0.203549 18:-0.336443 19:0.701765 20:0.309258 21:-0.48952 22:-0.318322 23:-0.0119635 24:-0.159553 25:-0.0973303 26:0.233669 27:-0.00979694 28:-0.341051 29:-0.28326 30:0.198527 31:0.305705 32:-0.335328 33:-0.157368 34:0.0534163 35:-0.0993012 36:0.336236 37:0.431328 38:0.567707 39:0.405629 40:0.335429 41:0.214136 42:-0.0565978 43:0.228828 44:-0.241955 45:-0.174266 46:0.574816 47:-0.421517 48:0.497212 49:-0.693208 50:0.00485742 51:-0.908332 52:-0.840944 53:-0.104826 54:0.289656 55:0.0755553 56:-0.304914 57:-0.469375 58:-0.133813 59:0.122298 60:-0.284677 61:0.210027 62:-0.506071 63:-0.285521 64:1 65:0.177968 66:-0.263134 67:-0.366727 68:-0.0827415 69:0.127663 70:0.0873628 71:0.188525 72:-0.155783 73:-0.0946368 74:-0.132118 75:0.51975 76:-0.444565 77:-0.315652 78:-0.0732608 79:-0.353023 80:0.644233 81:0.029124 82:0.202752 83:-0.6596 84:-0.426774 85:-0.217182 86:0.683321 87:0.681017 88:-0.749872 89:0.295803 90:-0.0595107 91:-0.523407 92:-0.0201775 93:0.35158 94:0.900014 95:0.119444 96:-0.35856 97:0.546018 98:0.481218 99:0.197881 100:0.0497018 101:-0.497326 102:0.13046 103:-0.0799157 104:-0.125287 105:0.611377 106:0.470548 107:0.0104762 108:0.86645 109:0.163378 110:-0.307847 111:0.336623 112:-0.185571 113:-0.572554 114:-0.291006 115:-0.169758 116:0.0456691 117:-0.00596571 118:-0.105538 119:0.300568 120:0.422179 121:0.427449 122:-0.518815 123:0.429512 124:-0.132661 125:-0.851999 126:0.290801 127:0.266409 128:0.070191 129:-0.452294 130:0.197352 131:-0.237036 132:-0.939221 133:0.563295 134:0.0683357 135:-0.417675 136:0.294033 137:-0.416052 138:0.46757 139:-0.483229 140:0.265396 141:0.210153 142:-0.598993 143:0.155199 144:-0.100309 145:-0.0488223 146:-0.25043 147:0.15986 148:0.017961 149:0.506941 150:-0.0190079 151:0.727634 152:-0.164051 153:0.515186 154:0.238224 155:-0.111312 156:0.883164 157:0.26728 158:-0.0808215 159:0.406263 160:0.12146 161:-0.552375 162:0.140075 163:-0.459492 164:0.594331 165:-0.262675 166:-0.507222 167:-0.375675 168:-0.655653 169:-0.675072 170:-0.986719 171:0.112842 172:0.148341 173:0.338798 174:0.367615 175:0.27884 176:-0.303464 177:-0.409877 178:0.27286 179:0.490949 180:-0.183373 181:-0.0498263 182:-0.707021 183:0.0226306 184:-0.0883767 185:-0.251225 186:-0.437792 187:-0.0617774 188:0.265542 189:0.334908 190:-0.153094 191:-0.0643615 192:-0.112271 193:-0.411491 194:-0.398473 195:-0.321942 196:-0.509306 197:-0.147011 198:-0.202874 199:0.175614 200:0.0725747 201:0.0669131 202:-0.203111 203:-0.378836 204:-0.491895 205:0.562917 206:0.0169591 207:0.136489 208:0.117994 209:0.417544 210:0.139688 211:-0.138381 212:0.716099 213:-0.0632188 214:-0.285476 215:-0.994975 216:-0.171293 217:0.422241 218:-0.355946 219:0.293645 220:0.176178 221:-0.039332 222:0.0817149 223:-0.364816 224:0.21992 225:0.690843 226:0.298879 227:0.13925 228:0.62816 229:-0.163442 230:0.0520966 231:-0.404261 232:0.110564 233:-0.251048 234:-0.00961052 235:-0.73341 236:0.444375 237:-0.310406 238:-0.0313771 239:0.760484 240:-0.0722005 241:0.178541 242:0.0249734 243:0.454704 244:1 245:-0.144137 246:-0.410233 247:-0.502979 248:0.240773 249:0.40598 250:-0.132312 251:-0.418156 252:-0.462789 253:-0.758854 254:-0.607909 255:0.450807 256:-0.830296 257:0.478275 258:0.161547 259:0.708305 260:-0.000923825 261:-0.291726 262:-0.25323 263:-0.220683 264:0.372341 265:-0.244994 266:0.781455 267:0.637606 268:-0.403953 269:0.506049 270:0.360727 271:-0.217784 272:-0.234123 273:0.276326 274:-0.372753 275:0.22369 276:0.0162138 277:0.348874 278:0.427415 279:0.923278 280:0.299743 281:0.105359 282:-0.266213 283:-0.0599477 284:-0.418012 285:0.139483 286:-0.0475168 287:0.0654762 288:0.158963 289:0.114487 290:0.440229 291:0.391223 292:0.0379336 293:0.196437 294:0.540022 295:-0.00197353 296:0.524808 297:-0.0393095 298:0.517306 299:-0.543248 300:-0.787869 301:0.0755092 302:0.256828 303:-0.165969 304:0.727469 305:0.410434 306:0.0897745 307:0.292871 308:-0.347502 309:-1 310:0.047143 311:0.764516 312:0.126782 313:-0.331449 314:0.799844 315:0.465356 316:0.231106 317:0.329583 318:-0.385795 319:0.625937 320:0.326516 321:0.134324 322:0.190746 323:0.500043 324:-0.28406 325:-0.488644 326:0.221049 327:-0.322385 328:-0.398043 329:0.0500371 330:0.0818027 331:-0.0779788 332:0.494443 333:-0.172978 334:0.811532 335:0.608834 336:-0.381171 337:-0.0348959 338:-0.338168 339:0.765298 340:0.0075492 341:-0.0589138 342:-0.635395 343:1 344:-0.385726 345:-0.310793 346:-0.702641 347:0.499918 348:-0.102424 349:-1 350:0.0232261 351:0.274091 352:-0.0471598 353:-0.025275 354:-0.122028 355:-0.279587 356:0.0825917 357:-0.613139 358:-0.528532 359:-0.474926 360:-0.551276 361:0.842592 362:-0.84161 363:0.645528 364:-0.106333 365:0.133981 366:0.940404 367:-0.759672 368:0.294966 369:-0.24292 370:-0.0411339 371:0.202609 372:-0.563954 373:0.00543748 374:-0.496105 375:0.235974 376:0.566728 377:-0.0530427 378:-1 379:0.0492356 380:-0.251202 381:-0.232659 382:-0.638036 383:0.0652644 384:-0.106298 385:0.248858 386:-0.0215466 387:-0.016139 388:0.394163 389:0.42846 390:-0.186913 391:-0.213879 392:0.177674 393:0.0728012 394:-0.108599 395:0.283813 396:0.368005 397:-0.438463 398:-0.254542 399:-0.586385 400:-0.493263 401:0.936292 402:-0.277546 403:0.296018 404:0.907653 405:0.0619188 406:0.259572 407:0.289764 408:-0.0673244 409:-0.082797 410:-0.385931 411:-0.15464 412:-0.0538872 413:0.0610831 414:0.307669 415:-0.559031 416:-0.166258 417:-0.0238869 418:-0.31519 419:0.122666 420:0.304482 421:0.0162789 422:-0.214607 423:0.258171 424:0.285247 425:-0.540736 426:-0.78121 427:0.112428 428:0.170828 429:0.205974 430:0.248844 431:1 432:0.0984282 433:0.690758 434:0.123937 435:-0.4339 436:-0.418416 437:0.85073 438:-0.0921303 439:0.347441 440:0.300073 441:0.104891 442:-0.0428679 443:0.596207 444:-0.628533 445:0.120402 446:-0.160461 447:-0.313605 448:-0.224663 449:0.794844 450:-0.268748 451:0.233041 452:-0.768043 453:0.201068 454:0.019755 455:0.0038459 456:-0.0256149 457:0.364843 458:0.765141 459:0.235126 460:-0.234161 461:-0.122796 462:-0.43368 463:-0.159463 464:-0.0852089 465:-0.300371 466:-0.320148 467:-0.388857 468:0.361331 469:-0.118483 470:0.267322 471:0.0313834 472:-0.584608 473:-0.5096 474:0.647413 475:0.294894 476:0.229143 477:0.239596 478:-0.014695 479:-0.178694 480:-0.915778 481:-0.24936 482:-0.402392 483:-0.513923 484:0.480557 485:-0.0154268 486:-0.00728316 487:-0.202631 488:-0.935049 489:-0.600093 490:0.0729295 491:0.72597 492:-0.992026 493:-0.789493 494:-0.112072 495:0.124795 496:-0.217537 497:0.0686854 498:-0.342328 499:-0.0106699 500:0.0260131 501:-0.740048 502:0.02215 503:-0.187416 504:0.451572 505:0.804106 506:0.0437007 507:-0.0896307 508:-0.365569 509:-1 510:-0.500743 511:-0.355954 512:-0.686816 513:-0.611184 514:-0.305372 515:0.294452 516:-0.0115968 517:0.190743 518:-0.365895 519:0.460281 520:0.163775 521:-0.357454 522:-0.354926 523:0.491988 524:0.779847 525:0.0260382 526:-0.0175634 527:-0.34605 528:0.23538 529:-0.562959 530:0.428327 531:-0.212088 532:-0.644297 533:-0.0916158 534:-0.426051 535:-0.294139 536:0.825538 537:0.0793108 538:0.273094 539:-0.548081 540:-0.155956 541:-0.428475 542:-0.708983 543:-0.196413 544:0.879759 545:-0.0988801 546:-0.19032 547:0.270789 548:-0.510405 549:-0.130819 550:-0.0358114 551:0.673865 552:0.363695 553:0.354338 554:0.469716 555:-0.00515353 556:-0.132132 557:-0.591868 558:-0.34201 559:-0.0805129 560:-0.194166 561:-0.289855 562:0.0381844 563:0.95994 564:-0.111842 565:-0.103953 566:-0.756603 567:0.945767 568:-0.287901 569:-0.336564 570:0.526268 571:-0.0850055 572:0.0130768 573:-0.707161 574:-0.232632 575:-0.200564 576:0.702249 577:-0.702913 578:0.00924045 579:0.607582 580:0.336901 581:0.0952004 582:-0.0508782 583:-0.423406 584:0.571839 585:0.0896737 586:-0.0817542 587:0.0100185 588:-0.967824 589:0.265743 590:0.240311 591:0.138267 592:-0.132631 593:0.251648 594:-0.311869 595:-0.427224 596:0.382184 597:-0.148565 598:-0.701804 599:-0.500478 600:0.202041 
1.957002798856046 3.979715389771199 3.53328373638755 1:0.328778 2:-0.0665222 3:-0.44553 4:-0.220109 5:0.354514 6:0.508277 7:-0.245179 8:-0.449774 9:0.0860636 10:-0.126773 11:0.175094 12:-0.0994312 13:-0.0330362 14:-0.0868678 15:-0.223735 16:0.0557818 17:0.248306 18:0.111338 19:0.313141 20:0.20667 21:-0.321096 22:-0.00244508 23:0.467092 24:0.647184 25:-0.257415 26:-0.527335 27:0.0218625 28:-0.0825123 29:0.0167307 30:-0.0626414 31:-0.101069 32:-0.226826 33:-0.38159 34:-0.232151 35:0.0841313 36:0.65945 37:0.281303 38:0.290171 39:-0.0982257 40:-0.131732 41:0.435033 42:-0.43403 43:-0.601744 44:0.23918 45:-0.0606091 46:0.39852 47:-0.213846 48:0.238877 49:-0.476941 50:-0.156873 51:-0.500399 52:-0.206944 53:0.119809 54:0.18998 55:-0.107494 56:-0.573205 57:0.456799 58:0.107554 59:0.78437 60:0.162688 61:-0.948479 62:0.138046 63:0.0609745 64:0.338561 65:-0.28454 66:-0.239665 67:-0.822684 68:0.453098 69:-0.335025 70:0.65809 71:-0.0199034 72:-0.272963 73:-0.588368 74:0.0019516 75:-0.147993 76:-0.426208 77:-0.463621 78:0.098386 79:-0.602175 80:0.112676 81:0.403021 82:0.206674 83:0.0982389 84:-0.600157 85:0.107629 86:-0.550023 87:-0.0523712 88:-0.758448 89:0.333869 90:0.23178 91:0.334254 92:-0.189415 93:0.214778 94:-0.134862 95:0.569545 96:-0.482953 97:0.0247452 98:0.531937 99:-0.00402932 100:-0.105982 101:0.274873 102:0.921589 103:0.132686 104:0.481657 105:0.0656213 106:-0.326403 107:0.160183 108:-0.176914 109:-0.606409 110:-0.0508197 111:0.0890831 112:-0.49655 113:-0.118143 114:0.160108 115:0.253456 116:0.012662 117:0.241479 118:0.488656 119:0.287746 120:-0.342182 121:-0.0349248 122:0.5615 123:-0.0352917 124:0.131582 125:0.476057 126:0.599716 127:-0.660456 128:0.180175 129:0.288601 130:-0.119708 131:-0.176454 132:-0.0252894 133:0.725254 134:-0.197757 135:-0.0367934 136:-0.323215 137:0.30198 138:0.0257755 139:0.232381 140:0.299579 141:-0.07458 142:-0.846127 143:-0.424482 144:0.594158 145:0.128078 146:-0.706541 147:0.881802 148:-0.451448 149:-0.183557 150:0.26206 151:0.103097 152:-0.198104 153:0.0994998 154:0.666475 155:0.235793 156:0.0678854 157:0.130793 158:0.138097 159:0.673669 160:-0.218852 161:-0.326174 162:0.0380354 163:0.227348 164:0.00322606 165:-0.74681 166:-0.193343 167:0.0769257 168:-0.291463 169:0.596066 170:0.50855 171:0.0337254 172:-0.525363 173:0.00652997 174:-0.454242 175:0.680756 176:0.123601 177:-0.249613 178:0.852568 179:-0.266288 180:-0.532171 181:-0.0445013 182:-1 183:-0.506045 184:0.803242 185:-0.311409 186:-0.0222992 187:-0.163932 188:-0.647165 189:-0.753354 190:0.29362 191:-0.0638755 192:-0.380326 193:0.848966 194:-0.175065 195:0.430596 196:-0.2334 197:-0.161647 198:-0.289168 199:0.190097 200:0.0853055 201:-0.0207064 202:-0.619417 203:-0.873023 204:0.0442483 205:0.122254 206:0.631284 207:-0.288521 208:0.051174 209:0.47913 210:-0.269466 211:0.253359 212:-0.192508 213:-0.263162 214:-0.371131 215:-0.117921 216:-0.931916 217:0.0992574 218:-0.135574 219:0.00491944 220:-0.341898 221:-0.481726 222:0.316971 223:0.00346383 224:-0.0378034 225:-0.291626 226:-0.288383 227:-0.33623 228:-0.219595 229:0.367937 230:-0.857522 231:-0.455011 232:-0.261817 233:-0.197324 234:-0.89226 235:-0.236296 236:0.299388 237:-0.200727 238:-0.272092 239:0.203855 240:-0.354196 241:0.0241599 242:-0.66959 243:-0.209412 244:0.310674 245:-0.224003 246:-0.190562 247:-0.160803 248:0.553759 249:-0.029037 250:0.598551 251:-0.161602 252:-0.191258 253:0.222252 254:-0.587535 255:0.11207 256:-0.837053 257:0.731511 258:0.386503 259:-0.0196738 260:0.503222 261:-0.604516 262:-0.575554 263:-0.945755 264:0.260862 265:0.0257603 266:1 267:-0.208699 268:0.0221533 269:0.503978 270:-0.192758 271:-0.120604 272:-0.182807 273:1 274:0.142867 275:-0.00845456 276:0.111212 277:-0.695012 278:-0.563093 279:0.0950705 280:-0.387126 281:-0.400628 282:-0.707696 283:0.608867 284:-0.232128 285:0.213264 286:-0.14601 287:0.540455 288:-0.12683 289:0.11723 290:-0.0027158 291:0.56068 292:0.214462 293:0.253762 294:-0.338073 295:-0.186138 296:-0.319963 297:0.236412 298:-0.0673485 299:0.352145 300:0.00329056 301:0.108177 302:0.422198 303:0.632352 304:-0.849145 305:0.171426 306:0.262686 307:-0.671671 308:-0.487115 309:0.0150444 310:0.267922 311:-0.146225 312:0.0898315 313:-0.182258 314:0.504721 315:-0.448568 316:0.128422 317:-0.166737 318:-0.58637 319:0.231991 320:0.137217 321:-0.460643 322:0.0470068 323:0.906626 324:-0.154217 325:0.237517 326:0.530071 327:0.130966 328:0.615553 329:0.0681319 330:0.516364 331:0.489128 332:-0.110132 333:0.0819254 334:0.351376 335:0.85955 336:0.240854 337:0.248439 338:-0.55661 339:-0.116172 340:0.702073 341:-0.0591572 342:-0.335937 343:0.308097 344:-0.0747844 345:0.0876442 346:-0.37861 347:0.0643059 348:0.360386 349:0.00480194 350:-0.791918 351:-0.745946 352:-0.15793 353:0.28561 354:0.361209 355:-0.523634 356:-0.662451 357:-0.415191 358:-0.346007 359:-0.259945 360:0.00659676 361:0.107679 362:-0.343921 363:-0.288763 364:0.318455 365:0.719071 366:0.180895 367:0.673046 368:0.644841 369:-0.00123256 370:-0.318722 371:-0.407502 372:0.661058 373:-0.0239691 374:-0.0488771 375:0.308246 376:-0.647653 377:0.660593 378:-0.066883 379:0.410854 380:0.138261 381:0.149508 382:-0.598976 383:0.211106 384:-0.225135 385:-0.45601 386:0.112402 387:-0.232865 388:-0.329811 389:-0.123005 390:0.620986 391:0.24663 392:-0.188788 393:-0.426478 394:0.27424 395:0.446043 396:-0.593741 397:-0.285717 398:-0.289079 399:-0.401519 400:0.156504 401:-0.219129 402:-0.0498092 403:0.19912 404:0.365574 405:0.322636 406:0.513119 407:0.867724 408:-0.461845 409:-0.440235 410:-0.133144 411:-0.0761853 412:0.215175 413:-0.148708 414:-0.130858 415:-0.334694 416:-0.0513479 417:0.113206 418:0.0912217 419:-0.0587844 420:-0.1143 421:0.349329 422:-0.0545151 423:0.666748 424:-0.351588 425:-0.205219 426:0.317357 427:-0.180238 428:-0.358624 429:0.133611 430:0.363819 431:-0.648582 432:0.585756 433:-0.161368 434:0.777186 435:-0.664995 436:-0.174456 437:-0.391439 438:0.517166 439:-0.150692 440:-0.342214 441:-0.407706 442:-0.272156 443:-0.0197866 444:0.541348 445:0.366695 446:-0.152038 447:0.508968 448:0.0167412 449:-0.655334 450:-0.0320976 451:0.305836 452:-0.37928 453:-0.701242 454:-0.112667 455:0.263518 456:-0.494467 457:-0.943999 458:0.143123 459:-0.287655 460:-0.120589 461:0.121915 462:-0.0385438 463:-0.363951 464:-0.394042 465:0.408329 466:-0.360312 467:0.854574 468:0.408493 469:-0.0231376 470:-0.137878 471:-0.0527025 472:0.646244 473:-0.863285 474:0.500596 475:-0.350591 476:-0.489789 477:-0.0571161 478:-0.0614234 479:0.979237 480:-0.344052 481:-0.13733 482:-0.127903 483:1 484:-0.395632 485:-0.188157 486:-0.302452 487:-0.715883 488:-0.504616 489:-1 490:0.291471 491:-0.0755614 492:-0.404095 493:0.0626138 494:-0.0436825 495:-0.515394 496:-0.383452 497:-0.40052 498:0.295284 499:0.750229 500:-0.825127 501:-0.449391 502:0.40882 503:0.109247 504:-0.0885071 505:-0.20152 506:0.691716 507:-0.28643 508:0.227689 509:0.178451 510:-0.391641 511:-0.0636488 512:0.0232073 513:-0.283789 514:-0.16064 515:0.753756 516:0.211861 517:0.28077 518:0.372232 519:-0.0800739 520:0.143179 521:0.270878 522:0.605128 523:0.0864694 524:0.467783 525:-0.274334 526:0.217184 527:0.0207287 528:0.411225 529:-0.435701 530:0.692557 531:0.396781 532:-0.490587 533:0.147716 534:-0.656672 535:0.768707 536:-0.37086 537:0.00323705 538:0.403948 539:0.270511 540:0.954156 541:-0.653173 542:-0.713561 543:0.431306 544:-0.249936 545:-0.214507 546:0.23897 547:0.383827 548:-0.449314 549:-0.492011 550:-0.622389 551:0.674861 552:-0.0244366 553:0.313541 554:0.52336 555:-0.0458487 556:0.357867 557:-0.626838 558:0.0869915 559:0.226696 560:-0.00401953 561:-0.621091 562:-0.590122 563:0.508907 564:0.232558 565:-0.463811 566:0.564876 567:0.0474543 568:-0.475537 569:0.351706 570:-0.233286 571:-0.747207 572:0.726737 573:0.413156 574:0.608307 575:-0.0350081 576:-0.426964 577:-0.500531 578:-0.0743835 579:-0.902798 580:0.0816818 581:0.169721 582:0.182932 583:0.24237 584:0.0850108 585:-0.0538154 586:-0.073327 587:-0.0181272 588:-0.589277 589:0.69979 590:0.422879 591:0.240315 592:-0.77447 593:-0.235338 594:0.327656 595:0.0305174 596:0.0339124 597:0.469291 598:0.0825349 599:-0.0021671 600:0.770326 
4 4 4 1:0.252421 2:-0.118455 3:0.115921 4:-0.141383 5:-0.0918142 6:0.407207 7:-0.266725 8:-0.717043 9:-0.405763 10:-0.377349 11:0.299045 12:-0.580241 13:-0.057414 14:-0.301805 15:-0.318461 16:0.365118 17:-0.0691672 18:-0.562767 19:0.00856371 20:0.182077 21:0.190477 22:-0.423853 23:0.186637 24:-0.60582 25:0.51024 26:0.136274 27:0.179501 28:-0.632042 29:-0.785729 30:0.222648 31:-0.506073 32:0.989326 33:0.262558 34:-0.211873 35:0.378115 36:0.293868 37:-0.136545 38:0.19239 39:0.437681 40:0.206659 41:0.280037 42:0.126223 43:0.0273706 44:-0.312757 45:0.0335711 46:-0.506396 47:0.318899 48:-0.68089 49:-0.185934 50:-0.334171 51:-0.706038 52:-0.0820874 53:-0.395177 54:-0.316629 55:-0.334693 56:-0.307127 57:-0.151356 58:-0.139303 59:0.151697 60:-0.549194 61:0.116252 62:0.0580128 63:-0.14545 64:0.70766 65:-0.0551812 66:-0.252635 67:0.403877 68:-0.385728 69:0.248073 70:-0.0305594 71:0.163644 72:0.530361 73:0.27 74:-0.210759 75:0.265154 76:0.913753 77:-0.216487 78:-0.318347 79:-0.0229377 80:0.145525 81:0.0196793 82:-0.104741 83:0.445446 84:0.0847191 85:-0.162711 86:-0.564494 87:0.117986 88:-0.586338 89:0.141073 90:0.434131 91:-0.59813 92:0.0486225 93:-0.14705 94:-0.547402 95:-0.199878 96:0.442149 97:0.83186 98:0.686223 99:-0.566106 100:-0.177887 101:-0.342157 102:0.36748 103:-0.580931 104:0.284247 105:-0.034421 106:0.802889 107:-0.425038 108:-0.0781537 109:-0.567959 110:-0.374523 111:-0.110849 112:-0.224804 113:0.606309 114:0.568751 115:0.144097 116:0.0144632 117:-0.261332 118:0.18819 119:-0.461516 120:-0.548733 121:-0.396451 122:0.135412 123:0.167494 124:0.0096801 125:-0.45878 126:0.0664215 127:-0.0710461 128:0.464771 129:0.0738483 130:-0.700519 131:0.132651 132:-0.404383 133:0.751737 134:-0.033965 135:-0.605575 136:0.652307 137:0.486911 138:0.198743 139:-0.432703 140:0.861379 141:-0.628503 142:0.193666 143:-0.657667 144:0.16586 145:-0.304754 146:0.0373912 147:0.00764234 148:-0.196552 149:-0.0163401 150:0.256332 151:0.348384 152:0.379639 153:-0.42926 154:0.260236 155:0.164694 156:0.624528 157:0.105146 158:0.482124 159:0.33492 160:0.206237 161:-0.582851 162:-0.169867 163:0.203511 164:-0.292334 165:-0.76926 166:-0.152305 167:0.234467 168:-0.0952791 169:-0.165512 170:-0.553499 171:-0.235256 172:0.366362 173:0.339434 174:-0.210088 175:-0.27465 176:0.473793 177:-0.131425 178:-0.0923048 179:-0.751278 180:-0.277856 181:-0.572113 182:0.138739 183:0.348203 184:-0.255018 185:0.196472 186:0.402839 187:-0.0333373 188:-0.200506 189:-0.0458189 190:-0.243617 191:-0.109759 192:-0.311581 193:-0.295758 194:-0.574477 195:0.214268 196:0.102075 197:-0.416558 198:0.0187712 199:0.106089 200:-0.231956 201:-0.934953 202:0.084541 203:0.106828 204:-0.498409 205:0.564759 206:0.155618 207:0.191658 208:0.577105 209:0.500995 210:-0.454196 211:-0.303905 212:-0.260855 213:0.278453 214:0.363085 215:-0.0606272 216:-0.468464 217:-0.338097 218:-0.283593 219:-0.288555 220:-0.330861 221:0.26695 222:-0.0666262 223:-0.446416 224:0.231923 225:0.308993 226:-0.212111 227:-0.457728 228:0.052566 229:0.0966648 230:-0.099406 231:-0.279699 232:-0.357247 233:0.364222 234:0.0497236 235:-0.118624 236:0.0132759 237:-0.645288 238:-0.132055 239:0.07349 240:-0.638407 241:-0.524322 242:-0.06081 243:-0.43157 244:-0.479997 245:0.0775646 246:-0.920506 247:0.0417861 248:0.47343 249:-0.100978 250:0.200492 251:0.133823 252:-0.249235 253:0.118329 254:-0.00765047 255:0.0372222 256:0.306056 257:-0.567955 258:-0.103038 259:-0.372882 260:-0.124479 261:0.0310663 262:-0.240611 263:0.150812 264:0.334435 265:-0.662143 266:-1 267:-0.666314 268:0.657141 269:0.652761 270:-0.43041 271:-0.48426 272:-0.176511 273:0.489938 274:0.283136 275:0.00289914 276:-0.057262 277:-0.499055 278:-0.320802 279:0.00680799 280:0.329921 281:0.928079 282:-0.675536 283:0.33268 284:-0.0975077 285:-0.00211325 286:0.159261 287:0.537697 288:-0.92725 289:-0.153138 290:0.286638 291:-0.128889 292:0.317507 293:-0.376629 294:-0.311022 295:0.312026 296:-0.240983 297:0.344781 298:-0.295743 299:0.0172687 300:0.168704 301:-0.112347 302:-0.0569013 303:0.314517 304:-0.341169 305:1 306:-0.0484926 307:0.111346 308:0.63261 309:-0.513559 310:-0.463219 311:0.134223 312:-0.174105 313:0.363498 314:-0.0649072 315:0.434066 316:0.400835 317:0.0717642 318:-0.0637929 319:0.605655 320:-1 321:0.83549 322:0.402332 323:0.248457 324:-0.519727 325:0.26522 326:0.556749 327:0.220618 328:-0.307213 329:-0.184772 330:0.00845108 331:0.652401 332:0.264399 333:0.358335 334:-0.11474 335:-0.876556 336:0.131763 337:-0.173189 338:-0.0636389 339:-0.452018 340:-0.62662 341:-0.199224 342:-0.210623 343:-0.367275 344:-0.449744 345:-0.0350165 346:-0.215263 347:-0.0566976 348:0.160877 349:0.0661031 350:-0.103825 351:0.152032 352:-0.105672 353:0.0905617 354:0.152509 355:0.570672 356:-0.762356 357:-0.196408 358:-0.0835875 359:0.277704 360:0.711154 361:0.474147 362:0.284147 363:-0.497261 364:-0.360622 365:0.296525 366:0.795651 367:0.46625 368:0.068203 369:-0.324601 370:-0.465602 371:0.905378 372:-0.0730765 373:0.161885 374:0.0214536 375:0.0931391 376:0.251774 377:0.112557 378:-0.10458 379:-0.00314392 380:-0.134461 381:-0.140583 382:-0.303521 383:-0.0973563 384:0.141835 385:-0.217963 386:-0.719557 387:0.590842 388:0.555669 389:-0.104131 390:0.505052 391:0.649093 392:0.11971 393:0.259637 394:0.79275 395:0.478512 396:0.126223 397:0.171614 398:-0.555404 399:-0.183457 400:-0.279077 401:-0.260002 402:0.224303 403:0.225606 404:-0.133908 405:0.380494 406:0.112645 407:-0.0745049 408:0.33154 409:0.210342 410:0.804518 411:-0.625849 412:0.47215 413:0.00277543 414:0.573648 415:-0.476311 416:0.0451014 417:0.376781 418:-0.164456 419:0.234963 420:0.00362266 421:0.545425 422:0.524721 423:0.444586 424:-0.799774 425:-0.632309 426:-0.220221 427:-0.163463 428:-0.893885 429:-0.312565 430:0.264064 431:-0.175812 432:-0.0224854 433:0.457905 434:-0.139114 435:-0.443423 436:0.194882 437:0.50568 438:-0.249153 439:-0.175423 440:-0.620265 441:-0.226878 442:0.786171 443:0.281166 444:-0.0573447 445:0.861658 446:-0.345138 447:0.212681 448:0.321467 449:-0.72327 450:-0.57127 451:-0.226617 452:0.129079 453:-0.125735 454:0.145224 455:-0.0192272 456:0.457944 457:-0.422381 458:0.0206971 459:-0.497302 460:0.82504 461:-1 462:0.375748 463:-0.105887 464:-0.105525 465:0.278329 466:-0.434324 467:0.383139 468:0.11451 469:0.0989949 470:-0.559203 471:-0.033112 472:0.10101 473:-0.235009 474:0.514785 475:-1 476:-0.0396097 477:0.0836074 478:0.00681358 479:0.7131 480:0.114209 481:0.142191 482:0.243325 483:0.577293 484:-0.28212 485:-0.213509 486:-0.270586 487:-0.456081 488:-0.204865 489:-0.150132 490:-0.0855126 491:-0.779922 492:0.189 493:0.0141387 494:-0.00902966 495:0.382816 496:0.793019 497:-0.575411 498:-0.00376533 499:0.34142 500:0.325468 501:0.224238 502:-0.544289 503:0.207024 504:0.105829 505:-0.529851 506:0.150072 507:0.299529 508:-0.239321 509:0.439809 510:-0.691113 511:-0.206364 512:-0.720538 513:-0.284103 514:-0.172489 515:-0.145941 516:0.295213 517:-0.462401 518:0.369773 519:0.0909854 520:-0.194797 521:0.156395 522:0.151993 523:0.0552993 524:-0.299303 525:-0.575118 526:0.0483923 527:-0.218419 528:-0.278244 529:-0.131548 530:0.273987 531:-0.605501 532:0.487575 533:-0.443046 534:0.0563529 535:0.0117585 536:-0.228499 537:0.652704 538:-0.33579 539:-0.566258 540:0.0593317 541:-0.634548 542:0.332429 543:-0.268417 544:-0.221248 545:-0.166709 546:0.0462448 547:-0.151431 548:-0.781841 549:-0.440002 550:-0.49196 551:0.200697 552:0.0321273 553:-0.240366 554:-0.543177 555:0.587113 556:0.0196076 557:-0.193801 558:-0.250152 559:-0.0744021 560:0.381004 561:-0.142217 562:-0.0960006 563:0.452613 564:-0.231205 565:-0.675215 566:-0.222814 567:0.523416 568:-0.0803759 569:0.0382215 570:-0.51359 571:-0.21324 572:0.197186 573:0.396129 574:0.0811793 575:-0.00444989 576:-0.0619591 577:-0.417469 578:-0.385916 579:-0.735205 580:0.411959 581:0.168055 582:0.317965 583:-0.215591 584:-0.189566 585:0.0528115 586:-0.334486 587:-0.0693152 588:0.0650638 589:-0.0496358 590:0.890828 591:-0.177257 592:-0.0869092 593:-0.404069 594:0.546569 595:0.253104 596:0.0352442 597:-0.0812554 598:0.25534 599:-0.316738 600:0.646384 
2.969334090222674 2.571353837202331 3.799795045660953 1:0.167729 2:-0.130882 3:0.122918 4:0.317366 5:0.258668 6:-0.309794 7:-0.539773 8:-0.199212 9:0.0338377 10:-0.387123 11:-0.293966 12:-0.263296 13:-0.0992319 14:0.30505 15:0.699908 16:-0.200214 17:-0.0841231 18:0.154077 19:0.858294 20:-0.217794 21:-0.658049 22:-0.237945 23:0.347501 24:0.0539141 25:0.528567 26:0.137774 27:0.514644 28:0.0810752 29:-0.733869 30:-0.439533 31:0.651379 32:-0.337556 33:0.0925247 34:0.57113 35:0.202916 36:-0.318187 37:-0.0341393 38:-0.112825 39:-0.0366885 40:0.693131 41:-0.276635 42:0.415499 43:-0.459485 44:0.42773 45:-0.0180268 46:0.213398 47:-0.0640417 48:-0.480053 49:-0.876238 50:-0.271954 51:0.195485 52:-0.259903 53:-0.321317 54:-1 55:0.827979 56:0.420298 57:0.330175 58:0.0794272 59:-0.193 60:-0.680365 61:0.100557 62:-0.00013212 63:-0.68894 64:-0.00705782 65:0.248762 66:-0.541373 67:-0.106734 68:-0.465119 69:0.135185 70:0.133476 71:0.345033 72:0.23791 73:-0.430712 74:0.283142 75:0.376362 76:0.280258 77:-0.0846498 78:-0.123221 79:0.0154112 80:0.301121 81:0.355021 82:-0.180954 83:-1 84:-0.344036 85:-0.138561 86:-0.15733 87:0.0143727 88:-0.723225 89:-0.908578 90:-1.80776e-05 91:-0.768847 92:0.501129 93:-0.172798 94:0.26336 95:-0.242631 96:-0.473142 97:0.417544 98:0.021881 99:0.242897 100:-0.344547 101:-0.422031 102:0.731793 103:0.46884 104:-0.0156368 105:-0.586602 106:0.349249 107:0.193412 108:0.654566 109:-0.348434 110:-0.0872773 111:-0.21533 112:-0.11867 113:0.0482075 114:-0.228221 115:0.0516983 116:0.931521 117:-0.712247 118:0.163177 119:0.822461 120:0.462578 121:0.454465 122:-0.125983 123:0.908137 124:0.509868 125:-0.636604 126:0.440465 127:-0.405132 128:0.458861 129:-0.123808 130:0.0475729 131:-0.0514268 132:-0.0299753 133:0.139905 134:-0.780766 135:0.11057 136:0.707447 137:0.225444 138:0.24928 139:-0.885891 140:0.0849371 141:-0.445987 142:-0.277411 143:0.546591 144:-0.523022 145:-0.463783 146:-0.0661602 147:-0.127855 148:-0.208481 149:-0.710854 150:-0.388816 151:-0.916992 152:0.163785 153:-0.84534 154:-0.0287687 155:0.32747 156:-0.592915 157:0.0283863 158:0.444576 159:0.309708 160:0.299926 161:0.186694 162:-0.28779 163:-0.016842 164:-0.262705 165:-0.548198 166:0.000982729 167:-0.405454 168:0.0613942 169:-0.0144404 170:0.11544 171:-0.0364134 172:0.993136 173:0.2983 174:-0.115177 175:0.527028 176:-0.405228 177:-0.838122 178:0.108257 179:0.211875 180:-0.211403 181:-0.0435839 182:0.352519 183:0.166879 184:0.314176 185:-0.50223 186:-0.051285 187:-0.0849034 188:-0.818237 189:-0.785835 190:-0.394188 191:0.068663 192:0.28493 193:0.0166075 194:0.0812513 195:-0.157126 196:-0.274694 197:-0.0235565 198:-0.577287 199:0.00833987 200:-0.584862 201:0.570081 202:-0.136999 203:0.250519 204:-0.323743 205:0.150184 206:-0.143493 207:-0.179021 208:0.812442 209:0.0139107 210:0.136885 211:-0.742446 212:1 213:0.605135 214:0.109515 215:-0.949884 216:0.590682 217:-0.129904 218:-0.378125 219:-0.190406 220:-0.465318 221:0.0237729 222:0.157178 223:0.0202194 224:0.221181 225:-0.0721617 226:-0.169424 227:0.281986 228:-0.481486 229:0.0413419 230:0.305925 231:1 232:-0.462259 233:1 234:0.455357 235:-0.294114 236:0.0544247 237:0.160313 238:0.203761 239:0.840149 240:0.111933 241:-0.872768 242:0.286856 243:-0.0196099 244:0.141154 245:0.268464 246:0.0103806 247:-0.4714 248:-0.47957 249:0.485081 250:0.409477 251:-0.152893 252:0.0409257 253:0.448921 254:-0.184001 255:0.318441 256:-0.22889 257:0.133055 258:0.201253 259:0.180356 260:-0.301453 261:-0.133426 262:0.621773 263:-0.27606 264:0.597842 265:0.283912 266:0.0900483 267:0.12905 268:0.292807 269:0.0713237 270:0.227992 271:-0.96436 272:0.331935 273:0.265653 274:-0.424489 275:0.179942 276:-0.291238 277:-0.431943 278:-0.45759 279:-0.22176 280:0.58122 281:0.298748 282:-0.213177 283:0.194822 284:0.389333 285:0.604987 286:-0.403726 287:0.191278 288:-0.393939 289:-0.243197 290:0.505817 291:0.544747 292:0.28345 293:0.29337 294:0.101508 295:-0.398554 296:-0.318946 297:0.616486 298:-0.344835 299:0.146191 300:-0.78748 301:-0.901969 302:0.0419526 303:-0.55584 304:0.228776 305:-0.888295 306:-0.263288 307:-0.0110867 308:-0.293707 309:0.186176 310:0.24917 311:0.37456 312:0.461503 313:-0.036117 314:0.456868 315:0.31612 316:0.0943199 317:0.106292 318:0.264196 319:0.54515 320:0.891984 321:0.262116 322:0.416971 323:-0.0970098 324:0.181187 325:-0.187497 326:-0.241956 327:0.622623 328:0.604573 329:0.0189432 330:0.702693 331:-0.176677 332:-0.0357063 333:-0.426115 334:-0.0110861 335:0.676651 336:-0.108827 337:-0.291454 338:0.283062 339:0.00336434 340:-0.747763 341:0.0617656 342:0.207412 343:0.349934 344:-0.141555 345:-0.65127 346:-0.159997 347:-0.0476228 348:0.0319196 349:0.245181 350:-0.352282 351:-0.279632 352:0.0275803 353:-0.236033 354:0.010154 355:0.10687 356:0.0431455 357:-0.127893 358:-1 359:0.251123 360:0.522731 361:0.386326 362:0.38741 363:-0.128407 364:0.0723162 365:0.103605 366:0.24393 367:-0.213728 368:-0.411908 369:-0.204496 370:0.458798 371:-0.672228 372:-0.0296057 373:0.0723773 374:-0.208128 375:0.430405 376:-0.0158316 377:0.210095 378:-0.788532 379:-0.179198 380:0.0582261 381:0.11526 382:-0.21316 383:-0.407825 384:0.489996 385:-0.0705096 386:0.324098 387:-0.123319 388:-0.176069 389:-0.350651 390:-0.270714 391:0.495447 392:0.112133 393:-0.103679 394:-0.308157 395:0.252623 396:0.227001 397:0.767649 398:-0.525229 399:-0.32309 400:0.635372 401:0.328813 402:-1 403:0.0883314 404:0.662218 405:0.150481 406:0.313538 407:0.0927047 408:0.120996 409:0.519323 410:-0.333276 411:-0.288402 412:-0.719152 413:0.487611 414:-0.0546102 415:-0.362153 416:-0.746333 417:-0.372621 418:0.176281 419:-0.017301 420:0.441159 421:0.0710512 422:0.0632284 423:0.362672 424:0.229292 425:-0.0693691 426:0.44699 427:0.455135 428:-0.146069 429:-0.148302 430:-0.520073 431:0.441459 432:0.495525 433:0.0334526 434:0.225769 435:-0.226156 436:-0.10896 437:-0.7283 438:-0.150198 439:-0.123831 440:0.109877 441:-0.150445 442:0.0988286 443:-0.879011 444:-0.624815 445:0.172645 446:0.434329 447:0.287652 448:0.549517 449:-0.0879286 450:-0.022113 451:0.213846 452:-0.0391805 453:0.834067 454:0.424677 455:-0.878146 456:0.237812 457:-0.486527 458:-0.105371 459:0.420869 460:-0.0778476 461:0.952284 462:0.297284 463:0.374745 464:0.222381 465:-0.146592 466:-0.0460917 467:-0.246306 468:0.0883612 469:-0.269124 470:-0.409038 471:0.356635 472:-0.259133 473:-0.109842 474:0.685776 475:0.243148 476:-0.160415 477:-1 478:-0.30589 479:-0.0379608 480:-0.560309 481:0.462111 482:0.0332122 483:0.00151986 484:0.228658 485:-0.169536 486:0.127764 487:-0.00304202 488:-0.200543 489:-0.36935 490:0.0073558 491:-0.316234 492:-0.870041 493:0.632975 494:0.183627 495:0.371284 496:0.387603 497:-0.295681 498:-0.0595588 499:-0.183726 500:-0.0224454 501:-0.304597 502:-0.306242 503:0.430365 504:0.00604747 505:0.594168 506:-0.360595 507:-0.592717 508:0.327175 509:-0.160814 510:-0.0819711 511:-0.288331 512:-0.536053 513:-0.335013 514:0.370464 515:0.663696 516:-0.471941 517:-0.374319 518:0.33147 519:-0.397142 520:-0.544821 521:0.0472409 522:-0.408998 523:-0.0284567 524:0.411042 525:-0.188541 526:0.0623756 527:0.483711 528:0.27777 529:-0.528093 530:-0.0539864 531:0.356968 532:-0.572672 533:0.611434 534:-0.0258705 535:0.206987 536:-0.392272 537:-0.208031 538:0.56141 539:0.0931921 540:-0.0699373 541:-0.253258 542:-0.136237 543:-0.483641 544:0.423604 545:-0.572 546:0.715805 547:0.0276248 548:-0.451873 549:0.618913 550:-0.384658 551:0.0686358 552:-0.581132 553:0.303663 554:-0.610905 555:0.3544 556:0.30502 557:-0.271706 558:-0.521465 559:-0.28173 560:0.153502 561:0.499163 562:0.0955876 563:0.985282 564:-0.184057 565:0.254114 566:-0.706797 567:-0.273839 568:-0.603909 569:-0.119983 570:-0.675508 571:0.243043 572:0.0532781 573:-0.082676 574:0.0872688 575:0.57739 576:0.107486 577:-0.569167 578:0.0379362 579:0.30086 580:0.956131 581:-0.249081 582:-0.270823 583:-0.182994 584:0.00553394 585:-0.0126022 586:0.112669 587:-0.597176 588:-0.395673 589:0.264739 590:0.0802236 591:-0.524793 592:0.48936 593:-0.48484 594:-0.0676369 595:0.587845 596:-0.169225 597:0.290587 598:-0.0352118 599:-0.665741 600:0.389676 
1.461071407810554 4 1.711889885114804 1:-0.316916 2:0.111008 3:0.475335 4:-0.329093 5:0.376731 6:0.00101516 7:0.296923 8:-0.0715563 9:0.552639 10:-0.90508 11:0.232175 12:0.0401132 13:-0.0897287 14:-0.523406 15:0.389725 16:-0.400642 17:0.171138 18:-0.0343977 19:0.372284 20:-0.389666 21:-0.460949 22:-0.439749 23:0.175688 24:-0.338983 25:0.180242 26:0.120361 27:-0.403268 28:0.164449 29:0.45876 30:-0.0569163 31:-0.198214 32:0.160743 33:-0.339324 34:0.932211 35:0.457297 36:-0.361611 37:-0.430139 38:-0.00763825 39:0.487089 40:-0.605059 41:-0.296617 42:-0.420965 43:-0.293701 44:0.406452 45:-0.14209 46:0.407765 47:0.185352 48:-0.53693 49:-0.233759 50:1 51:-0.287938 52:-0.0936358 53:-0.870625 54:-0.900513 55:0.57305 56:-0.719313 57:-0.367296 58:0.0457524 59:0.727949 60:0.672913 61:-0.0855015 62:1 63:-0.00570172 64:-0.454464 65:-0.165867 66:0.0512174 67:0.355634 68:-0.176931 69:-0.817504 70:-0.175801 71:-0.441157 72:0.371152 73:-0.296244 74:0.0250111 75:0.603231 76:-0.0892254 77:-0.0815849 78:0.266787 79:0.790917 80:0.0648074 81:-0.440126 82:0.0410368 83:0.106248 84:-0.48506 85:-1 86:0.30552 87:0.815066 88:-0.242916 89:-0.491263 90:0.262844 91:0.0448191 92:0.294128 93:-0.181921 94:0.497073 95:-0.224712 96:-0.666971 97:0.573318 98:0.411921 99:-1 100:0.624064 101:0.100684 102:0.506498 103:-0.184651 104:-0.760473 105:-0.267345 106:0.0268181 107:0.381848 108:0.714791 109:-0.89985 110:0.107619 111:0.47127 112:-0.0643382 113:-1 114:-0.401028 115:-0.298188 116:-1 117:0.445468 118:-0.228334 119:0.0142902 120:-0.15842 121:0.342108 122:0.358908 123:0.766292 124:0.213886 125:-0.426402 126:-0.544023 127:0.0932161 128:0.663234 129:-0.940574 130:-0.210461 131:-0.199753 132:-0.373754 133:0.621626 134:-0.272633 135:-0.506676 136:0.884258 137:0.091143 138:0.399215 139:-0.839245 140:0.734323 141:-0.982024 142:0.235008 143:0.41592 144:-1 145:0.262686 146:0.203983 147:-0.186624 148:-0.201281 149:-0.13844 150:0.172066 151:-0.208245 152:-0.0848577 153:0.547556 154:-0.115735 155:0.720204 156:0.228694 157:-0.364554 158:-0.623153 159:0.193526 160:0.258164 161:-0.651623 162:-0.0911645 163:-0.410573 164:1 165:0.536318 166:-0.152127 167:-0.289042 168:0.587642 169:-0.186776 170:0.457398 171:-0.541985 172:0.604433 173:0.212798 174:-0.321781 175:0.687298 176:0.485535 177:-0.0982695 178:-0.50269 179:-0.0153856 180:-0.115206 181:-0.45644 182:0.664635 183:0.34408 184:-0.435238 185:-0.261315 186:-0.428112 187:0.933578 188:-0.262671 189:-0.748448 190:-0.730866 191:-0.0868056 192:0.225269 193:-0.72585 194:-0.181221 195:0.199184 196:0.293894 197:-0.121229 198:0.252513 199:0.753496 200:0.644158 201:1 202:-0.308608 203:0.248854 204:0.284387 205:0.172375 206:0.367554 207:-0.21522 208:-0.359836 209:0.501645 210:-0.239578 211:0.326693 212:-0.51664 213:-0.364503 214:1 215:-0.122559 216:-0.476495 217:-0.205604 218:-0.55391 219:0.735465 220:-0.486618 221:0.132163 222:0.289759 223:0.0427797 224:-0.0914809 225:0.689042 226:-0.483937 227:0.470077 228:0.960268 229:0.0366087 230:0.0452063 231:-0.857586 232:-0.287652 233:0.174642 234:0.245068 235:-0.454704 236:-0.18152 237:0.0787228 238:-0.0372609 239:0.431803 240:-0.284284 241:-0.934478 242:0.0185583 243:-0.720747 244:0.0690281 245:0.53618 246:-0.699964 247:-0.259736 248:-0.39871 249:0.145945 250:0.151155 251:-0.859518 252:0.294779 253:0.412932 254:-0.0177125 255:0.0393167 256:0.181132 257:0.512219 258:-0.437447 259:-0.286968 260:0.0224686 261:0.0724603 262:0.340622 263:-0.605375 264:-0.614239 265:-0.855025 266:-0.0390593 267:0.326082 268:0.824887 269:0.351097 270:-0.224068 271:-0.120288 272:-0.135985 273:0.7166 274:1 275:-0.113845 276:-0.595263 277:-0.779741 278:-1 279:-0.295782 280:0.237891 281:0.411872 282:0.741216 283:-0.110205 284:-1 285:1 286:0.486131 287:-0.214417 288:-0.930263 289:0.353837 290:0.137528 291:0.0504368 292:-0.142548 293:0.268758 294:-1 295:-0.380221 296:-0.407122 297:0.354517 298:0.444981 299:-0.0684812 300:0.0497849 301:0.0955732 302:-0.231867 303:-0.734921 304:-0.933028 305:-0.0160244 306:-0.134878 307:0.588019 308:0.473687 309:0.56931 310:-0.243384 311:0.353562 312:0.627092 313:-0.392857 314:0.403401 315:0.609218 316:0.265138 317:0.514453 318:0.601948 319:-0.18706 320:0.469729 321:0.247362 322:-0.00931454 323:-0.0669952 324:-0.939594 325:0.281529 326:0.0369265 327:-0.110156 328:-0.513105 329:-0.132916 330:-0.644529 331:0.772013 332:0.115439 333:-0.313142 334:0.0984756 335:-0.599842 336:-0.44578 337:0.22857 338:-0.158108 339:-0.227938 340:-0.864135 341:-0.939034 342:-0.285364 343:0.596065 344:0.17543 345:0.101369 346:-0.633193 347:-0.55493 348:-0.00626707 349:0.0788558 350:-0.149044 351:-1 352:0.263547 353:-0.808864 354:0.382037 355:-0.527707 356:-0.495241 357:0.757761 358:-0.0615644 359:0.29947 360:0.464069 361:0.0523985 362:-0.412404 363:-1 364:0.195957 365:0.427325 366:0.241078 367:-0.257816 368:0.631168 369:-0.136195 370:-0.210739 371:0.136422 372:0.340844 373:1 374:-0.459819 375:0.219093 376:0.846331 377:-0.61485 378:-0.0571319 379:0.195283 380:0.210995 381:-0.0342774 382:0.173552 383:-0.433892 384:0.110875 385:-0.268598 386:-0.814885 387:0.84693 388:0.836016 389:0.452379 390:0.357451 391:1 392:-0.00907509 393:0.307342 394:-0.0236063 395:0.623657 396:0.479875 397:-0.0151721 398:-0.0746252 399:-0.317876 400:-1 401:-0.476284 402:-0.23659 403:-0.0702063 404:-0.278847 405:0.280469 406:-0.656568 407:0.384752 408:-0.174434 409:-0.0157848 410:0.00548305 411:0.133882 412:-0.366961 413:1 414:0.0436961 415:-0.442543 416:0.282895 417:-0.128002 418:-0.581968 419:-0.641112 420:-0.0675003 421:0.0836079 422:0.410977 423:-0.250329 424:0.218324 425:1 426:0.129153 427:0.0745645 428:-0.00677523 429:0.0239819 430:-0.125715 431:0.14444 432:0.324186 433:0.990333 434:0.804379 435:1 436:0.945033 437:-0.739857 438:0.271634 439:0.295018 440:-0.330487 441:-0.405019 442:-0.5803 443:-0.575638 444:0.110545 445:0.212831 446:0.0502918 447:0.2383 448:-0.0340938 449:-0.0536744 450:-1 451:0.618121 452:0.268683 453:-0.0637453 454:0.237079 455:-0.34808 456:0.155644 457:-0.492519 458:-0.494644 459:-0.204787 460:0.443931 461:0.17096 462:-0.310643 463:0.0624022 464:-0.0734156 465:-0.125824 466:-0.875102 467:0.61126 468:-0.880913 469:-0.141926 470:0.13348 471:0.0488931 472:-0.471101 473:-0.220891 474:0.700628 475:-0.230351 476:0.013533 477:-0.0108941 478:1 479:-0.134758 480:0.108226 481:-0.140341 482:-0.0732866 483:-0.231507 484:0.504794 485:0.352023 486:-0.361787 487:0.153778 488:-1 489:-0.285569 490:0.179865 491:0.502531 492:0.337916 493:0.273215 494:0.643151 495:0.552613 496:-0.18186 497:-0.446618 498:-0.189409 499:-0.664434 500:-0.607274 501:-0.354229 502:0.406441 503:0.511297 504:-0.0146405 505:0.959505 506:0.0496778 507:0.95124 508:0.902028 509:0.309126 510:-0.0441718 511:-1 512:0.48492 513:-0.356329 514:0.247642 515:0.292963 516:0.0507674 517:0.0139045 518:0.140542 519:-0.204711 520:0.159279 521:-0.685298 522:-0.657012 523:0.878182 524:0.135296 525:0.216263 526:0.668879 527:-0.324689 528:-0.142158 529:-0.347599 530:0.103337 531:-0.633472 532:-0.833717 533:0.166066 534:-0.0997995 535:0.192678 536:0.313486 537:0.157744 538:0.227471 539:-0.556796 540:0.283781 541:-0.728667 542:0.858831 543:0.160673 544:0.553299 545:0.254214 546:0.39282 547:0.226915 548:-0.702999 549:-0.174972 550:-0.630823 551:0.667818 552:0.148746 553:-0.757616 554:-0.173567 555:0.752517 556:-0.0544126 557:1 558:-0.560534 559:0.717945 560:-0.352936 561:-0.447233 562:-0.776586 563:0.527404 564:-0.0677441 565:1 566:-0.407161 567:0.0819697 568:-0.481261 569:0.267979 570:0.308965 571:0.588201 572:0.149357 573:0.281754 574:-0.318155 575:0.0837499 576:0.988419 577:-0.00259829 578:-0.329348 579:-0.658412 580:0.127577 581:0.846788 582:0.0740929 583:0.0396022 584:-0.0260766 585:0.1301 586:-0.306907 587:0.056955 588:0.368115 589:0.872907 590:0.730005 591:-0.140824 592:-0.111536 593:0.131425 594:-0.409895 595:0.118576 596:0.879293 597:-0.171344 598:-0.25984 599:-0.14507 600:0.511371 
3.783365519864979 2.063168166928749 4 1:-0.486763 2:-0.2016 3:-0.247919 4:-0.664934 5:-0.0834719 6:-0.541414 7:0.0860041 8:-0.370943 9:0.226572 10:0.287181 11:0.240572 12:-0.298787 13:0.143545 14:0.307292 15:-0.0226299 16:-0.410347 17:0.66955 18:0.749285 19:0.164667 20:0.326595 21:-0.311174 22:-0.191991 23:0.301335 24:-0.461481 25:0.0652994 26:-0.10024 27:0.889348 28:0.105002 29:-0.548578 30:0.382489 31:0.231163 32:-0.780083 33:0.2986 34:0.669865 35:0.863967 36:0.175646 37:0.0948252 38:-0.328975 39:-0.0762503 40:-0.159472 41:0.177305 42:0.0491683 43:-0.169984 44:0.0948562 45:-0.551241 46:0.480393 47:0.140538 48:0.00525304 49:-0.107335 50:-0.404796 51:-1 52:-0.587259 53:0.151925 54:-0.155024 55:-0.146414 56:0.799815 57:-0.272477 58:0.210667 59:0.481474 60:0.144702 61:0.350296 62:-0.229388 63:0.313906 64:-0.0450247 65:0.321688 66:0.0849387 67:-0.243245 68:-0.0600321 69:1 70:0.957808 71:-0.0262137 72:-0.103903 73:0.0318644 74:0.0138093 75:0.0931783 76:-0.0457401 77:-0.741249 78:-1 79:0.233229 80:0.192368 81:0.19645 82:0.335361 83:0.238321 84:-0.0309862 85:-0.0896723 86:-0.111407 87:0.621239 88:-0.662358 89:0.631507 90:-0.476918 91:-0.136718 92:0.231954 93:0.0716957 94:-0.690616 95:-0.360964 96:0.366949 97:-0.095934 98:0.75404 99:-0.069806 100:0.342703 101:0.545797 102:-0.4012 103:0.0968611 104:0.582228 105:-0.374621 106:0.0665182 107:-0.331768 108:0.548835 109:-0.697024 110:-0.344429 111:-0.016338 112:-0.0931363 113:-0.663036 114:0.00121792 115:0.75043 116:0.180285 117:-0.448326 118:0.516151 119:0.254071 120:-0.0494418 121:0.11715 122:0.118214 123:0.383708 124:0.402244 125:-0.107766 126:0.0748909 127:-0.436845 128:-0.436301 129:-1 130:-0.473552 131:0.0828021 132:-0.312453 133:0.339707 134:-0.589306 135:-0.0234289 136:0.0543766 137:0.793855 138:0.879422 139:-0.134809 140:-0.240207 141:-0.279156 142:-0.636126 143:0.0995961 144:-0.680131 145:0.646497 146:0.315979 147:-0.14896 148:0.137537 149:-0.311225 150:0.12771 151:-0.608059 152:0.115701 153:0.0238626 154:0.152179 155:0.353189 156:0.479545 157:-0.297434 158:0.400604 159:0.176602 160:-0.302827 161:-0.617829 162:-0.114142 163:0.726587 164:-0.438096 165:-0.896903 166:0.268205 167:-0.0841845 168:-0.627861 169:0.179994 170:-0.390488 171:0.518692 172:0.0932858 173:-0.218545 174:-0.398084 175:0.669132 176:0.311569 177:-0.223139 178:-0.0806722 179:0.513679 180:-0.491011 181:-0.407394 182:-0.426809 183:-0.0875536 184:0.237547 185:-0.299312 186:0.225414 187:-0.0347923 188:0.177215 189:0.473131 190:-0.0570125 191:-0.101065 192:-0.158302 193:0.208213 194:0.0831977 195:0.0352148 196:-0.369117 197:0.137705 198:-0.763278 199:-0.230919 200:-0.187299 201:-0.729981 202:-0.8969 203:-0.482137 204:-0.694369 205:0.166661 206:0.229057 207:-0.799355 208:0.402781 209:0.480097 210:-0.0271611 211:0.104852 212:-0.487641 213:0.445966 214:-0.742447 215:-0.434751 216:0.0107883 217:-0.220089 218:0.29024 219:0.514444 220:-0.644243 221:0.170232 222:-0.155027 223:-0.831611 224:-0.670879 225:0.182948 226:0.1916 227:-0.323071 228:0.274691 229:0.239077 230:-0.19862 231:-0.541535 232:-0.32209 233:0.613108 234:0.19965 235:-0.572323 236:0.16614 237:-0.161428 238:-0.49755 239:1 240:-0.290341 241:0.132356 242:-0.134898 243:-0.0622059 244:-0.0146347 245:-0.0392751 246:-0.276976 247:0.0213652 248:0.661387 249:-0.258988 250:0.199859 251:-0.226954 252:-0.191723 253:-0.0618979 254:-0.13388 255:0.13339 256:-0.501323 257:-0.118588 258:0.0589532 259:0.039927 260:0.133991 261:-0.291787 262:-0.365956 263:0.0819801 264:0.169807 265:0.0242466 266:-0.125809 267:-0.0229641 268:-0.0152912 269:-0.470354 270:-0.0256204 271:0.405509 272:-0.409083 273:0.519274 274:0.223621 275:0.308503 276:-0.362217 277:-0.766661 278:-0.0378824 279:0.299929 280:-0.00768148 281:0.570718 282:-0.353994 283:-0.144724 284:0.227527 285:-0.204041 286:-0.119252 287:0.089402 288:0.0794404 289:-0.629872 290:0.390051 291:0.110584 292:0.444952 293:0.0817284 294:0.174333 295:-0.0774562 296:0.152357 297:-0.105779 298:-0.333818 299:-0.292989 300:0.111534 301:-0.318537 302:0.215455 303:-0.408432 304:-0.0585823 305:0.727 306:-0.287195 307:-0.157602 308:0.100278 309:-0.215727 310:-0.991433 311:-0.312525 312:0.197298 313:-0.213485 314:-0.174127 315:-0.240245 316:0.502234 317:-0.445224 318:0.0733948 319:0.513383 320:0.0199044 321:-0.439974 322:0.182165 323:0.416679 324:-0.125297 325:-0.297618 326:0.380236 327:0.0454762 328:0.851722 329:-0.269409 330:0.509257 331:0.0168166 332:0.505315 333:-0.0736105 334:0.141401 335:0.995486 336:0.0636969 337:0.349615 338:-0.390123 339:0.663966 340:0.844574 341:0.641391 342:0.990185 343:0.661141 344:-0.15823 345:0.749894 346:-0.808225 347:0.149024 348:0.0644243 349:0.502184 350:-0.237238 351:0.563306 352:-0.614332 353:-0.115306 354:0.730948 355:-0.953995 356:-0.567092 357:-0.733895 358:-0.350795 359:-0.608706 360:0.11953 361:-0.130182 362:-0.162735 363:0.623778 364:-0.00978645 365:0.105217 366:0.680293 367:0.178734 368:0.328899 369:-0.446159 370:0.163372 371:0.640114 372:0.0716266 373:-0.32357 374:-0.562116 375:0.288602 376:0.240565 377:1 378:-0.159608 379:0.168611 380:0.0206425 381:0.29903 382:-0.321411 383:-0.708147 384:0.190564 385:0.33214 386:-0.0154744 387:0.204378 388:0.258546 389:0.605133 390:-0.282053 391:-0.0908643 392:0.103177 393:-0.13865 394:-0.381823 395:0.670508 396:-0.582926 397:-0.134016 398:0.371625 399:0.0874103 400:-0.0326532 401:0.461462 402:-0.18952 403:-0.197915 404:0.518558 405:-0.0942479 406:0.185443 407:0.537815 408:-0.0657207 409:-0.667301 410:-0.307233 411:0.109855 412:-0.154906 413:0.134995 414:-0.561658 415:0.351367 416:0.265797 417:-0.0697613 418:-0.100377 419:0.197385 420:0.0712337 421:0.581875 422:-0.0972001 423:-0.141276 424:0.318771 425:-0.594231 426:0.065073 427:-0.0187462 428:-0.191066 429:-0.243288 430:-0.0523089 431:0.329167 432:0.281528 433:-0.290066 434:-0.429252 435:-0.531061 436:-0.0275795 437:-0.337125 438:-0.416676 439:0.141076 440:0.277246 441:0.507837 442:0.349765 443:-0.127528 444:0.207499 445:0.163493 446:-0.697312 447:-0.0656182 448:0.167275 449:-0.0332011 450:-0.0213071 451:0.722821 452:-0.51914 453:0.355815 454:-0.198511 455:-0.243656 456:-0.0463732 457:-0.386563 458:0.984255 459:-0.271057 460:0.360926 461:-0.251344 462:-0.396673 463:-0.40741 464:-0.189415 465:0.387362 466:-0.334046 467:0.0765111 468:0.747324 469:0.531154 470:-0.0298838 471:0.438676 472:0.00522228 473:-0.435965 474:-0.0412991 475:-0.199039 476:-0.0262433 477:-0.235714 478:-0.413226 479:0.540695 480:-0.839284 481:0.112347 482:-0.459316 483:0.119538 484:0.54987 485:1 486:0.0972053 487:0.105603 488:-0.324952 489:-0.741713 490:0.569802 491:-0.155782 492:-1 493:-0.0281746 494:-0.0525109 495:-0.051604 496:-0.472597 497:-0.393824 498:0.652249 499:0.0410655 500:0.0514082 501:-0.0331151 502:-0.315189 503:0.531931 504:-0.0878309 505:0.0196317 506:-0.454335 507:-0.308052 508:0.0468677 509:0.189434 510:-0.92478 511:-0.142682 512:-0.0825417 513:0.550377 514:0.0754478 515:0.454123 516:-0.204807 517:-0.19868 518:0.275536 519:-0.777989 520:0.0545246 521:-0.164662 522:0.428368 523:-0.599024 524:0.781057 525:-0.155172 526:-0.231556 527:-0.175936 528:0.176145 529:-0.0636528 530:-0.121018 531:0.607613 532:0.404951 533:-0.334784 534:-0.159283 535:-0.100813 536:0.49025 537:-0.184208 538:-0.35395 539:-0.494095 540:0.336994 541:-0.300016 542:0.117777 543:-0.0231586 544:0.226704 545:-0.974578 546:0.494948 547:-0.370484 548:0.168647 549:0.378898 550:-0.268145 551:0.189042 552:-0.155981 553:-0.0376908 554:0.0666099 555:-0.670795 556:0.581158 557:-0.358367 558:-1 559:0.232139 560:0.0880033 561:-0.527685 562:0.433288 563:1 564:0.520741 565:-0.0439533 566:0.0287951 567:0.688482 568:0.232215 569:-0.377839 570:-0.144759 571:-0.0435489 572:0.185524 573:-0.127319 574:-0.00517606 575:0.375247 576:-0.10983 577:-1 578:0.178214 579:-0.978757 580:0.231365 581:-0.00610601 582:0.482812 583:0.0693926 584:0.223722 585:0.191448 586:-0.415377 587:-0.0775496 588:-0.0189139 589:-0.3198 590:0.354113 591:0.00813697 592:-0.372039 593:0.197847 594:-0.208808 595:-0.695055 596:0.138024 597:-0.0147559 598:-0.0632612 599:-0.092876 600:0.171167 
1.481660866341749 2.340472292965628 2.293425520638955 1:-0.349486 2:0.541295 3:0.379083 4:-0.379875 5:-0.597698 6:0.397922 7:-0.647321 8:0.185119 9:0.142279 10:-0.502174 11:-0.654925 12:-0.516446 13:0.0214749 14:-0.0868636 15:0.377638 16:0.566832 17:-0.0308156 18:0.216959 19:-0.0095421 20:0.697478 21:0.0882606 22:0.526133 23:0.368954 24:0.950004 25:-0.262331 26:0.18723 27:0.285089 28:-0.950069 29:0.0461471 30:0.368717 31:-0.410084 32:-0.384402 33:-0.126289 34:-0.53546 35:-0.0774383 36:-0.326012 37:0.565577 38:-1 39:0.0721176 40:-0.918037 41:0.119638 42:0.333103 43:0.418642 44:0.0175573 45:-0.0723401 46:-0.833133 47:0.323569 48:0.643314 49:0.0477028 50:0.20052 51:0.34048 52:0.0155435 53:-0.120674 54:-0.268344 55:0.337013 56:-0.405131 57:0.95141 58:1 59:0.757636 60:0.240492 61:0.792186 62:-0.123692 63:-0.0382646 64:0.656188 65:0.25138 66:0.123101 67:-0.923465 68:-0.43952 69:-0.863955 70:-0.719176 71:0.121778 72:-0.70842 73:-0.0413107 74:0.329296 75:0.168287 76:-0.268202 77:-0.424404 78:0.0694654 79:0.442353 80:-0.454145 81:0.422877 82:-0.404283 83:-0.217476 84:0.310423 85:0.539774 86:-0.177404 87:0.416755 88:0.141127 89:0.595064 90:0.70564 91:0.434816 92:0.320289 93:-0.056144 94:-0.577313 95:-0.302473 96:0.190825 97:0.494561 98:-0.34607 99:-0.344946 100:-0.376487 101:-0.0976566 102:-0.0199858 103:-0.145241 104:-0.122893 105:0.972345 106:0.061597 107:0.344527 108:0.371853 109:-0.561248 110:0.877538 111:0.536931 112:-0.0566123 113:0.137135 114:0.421486 115:0.362937 116:-0.16823 117:-0.502467 118:0.151311 119:0.0986534 120:-0.158125 121:-0.695639 122:-0.114839 123:0.143698 124:0.0578598 125:0.012289 126:-0.128856 127:0.670369 128:0.0134275 129:0.0564797 130:0.372011 131:-0.147515 132:-0.0591935 133:-0.716264 134:0.173945 135:0.492021 136:0.570466 137:0.718531 138:0.590117 139:-0.52899 140:0.161557 141:-0.328495 142:-0.0996028 143:0.660002 144:0.292126 145:0.18794 146:-0.0822765 147:0.0815224 148:0.175542 149:-0.193346 150:-0.032631 151:0.102963 152:-0.630986 153:-0.464147 154:0.441494 155:0.519813 156:-0.0104888 157:-0.364654 158:-0.0317418 159:0.508222 160:-0.0769086 161:-0.410227 162:-0.213069 163:0.448031 164:-0.286974 165:-0.733809 166:0.0503002 167:0.200871 168:-0.632297 169:0.693109 170:-0.369573 171:0.380459 172:-0.211947 173:0.194295 174:-0.38159 175:-0.0973679 176:0.588236 177:-0.0756017 178:-0.0720132 179:-0.347692 180:-0.961998 181:0.447205 182:-0.315395 183:-0.509505 184:0.687008 185:-0.107955 186:-0.289242 187:0.290569 188:-0.473157 189:-0.0838357 190:-0.440934 191:0.1145 192:-0.299301 193:-0.628044 194:-0.647653 195:-0.206211 196:-0.0544017 197:-0.303347 198:-0.441714 199:0.377568 200:-1 201:0.439757 202:0.00741214 203:-0.228362 204:0.119078 205:1 206:0.562962 207:0.213131 208:0.357956 209:-0.0511438 210:0.523735 211:-0.109563 212:-0.411262 213:-0.582023 214:0.0400011 215:-0.369842 216:0.151499 217:0.185796 218:0.245279 219:-0.41294 220:-0.823006 221:-0.543439 222:-0.468276 223:0.248805 224:0.117751 225:0.452582 226:0.118944 227:-0.621908 228:-0.519232 229:-0.00653826 230:0.113481 231:-0.687175 232:-0.409131 233:0.159506 234:-0.704216 235:-0.431822 236:-0.616148 237:-0.217937 238:-0.0532189 239:-0.303818 240:-0.176893 241:-0.297186 242:0.0680121 243:0.164532 244:-0.300492 245:-0.343775 246:-0.0628269 247:0.666683 248:-0.00980448 249:-1 250:-0.0315371 251:-0.614602 252:-0.722656 253:0.0978545 254:0.222984 255:0.156108 256:0.277366 257:-0.471936 258:0.280121 259:-0.146919 260:0.31617 261:0.0200931 262:0.0439303 263:-0.492603 264:0.022326 265:-0.147493 266:0.55503 267:0.0689259 268:0.339039 269:0.159841 270:-0.16806 271:0.0225775 272:0.248153 273:0.474659 274:0.0990268 275:0.0441927 276:-0.413444 277:-0.39005 278:0.257905 279:-0.1282 280:0.602055 281:-0.317735 282:0.0915586 283:0.712254 284:0.567862 285:-0.598687 286:-0.453967 287:0.37131 288:-0.48817 289:0.158301 290:-0.0854197 291:0.345128 292:0.632376 293:-0.58297 294:0.85114 295:-0.383843 296:0.878894 297:0.369495 298:0.084367 299:-0.462142 300:0.330486 301:0.0639582 302:-0.234488 303:-0.118314 304:-0.368818 305:0.201112 306:0.789374 307:-0.0957602 308:-0.704645 309:-0.0102321 310:0.163574 311:-0.0258452 312:-0.00181114 313:-0.350983 314:0.174546 315:0.478815 316:0.213508 317:-0.451028 318:0.275612 319:-0.0329109 320:-0.251379 321:-0.225092 322:-0.26832 323:-0.486684 324:-0.499086 325:0.0563587 326:0.840101 327:0.15707 328:0.261713 329:-0.341442 330:-0.25537 331:-0.0227974 332:-0.339125 333:-0.13566 334:0.238461 335:-0.105853 336:-0.558755 337:0.148615 338:-0.249479 339:-0.0680403 340:0.197196 341:0.257644 342:0.342696 343:0.027997 344:-0.232499 345:0.517675 346:-0.126176 347:-0.299107 348:0.447257 349:0.0718854 350:0.0675669 351:-0.269828 352:0.629032 353:-0.319844 354:-0.294379 355:-0.34433 356:-0.471458 357:0.192698 358:-0.939965 359:0.808875 360:0.183011 361:0.338067 362:0.110619 363:0.200252 364:-0.0651 365:0.477406 366:-0.356675 367:0.00455501 368:-0.293624 369:-0.953886 370:-0.94793 371:-0.445533 372:0.571567 373:0.137701 374:-0.108278 375:0.102215 376:0.666812 377:-0.249993 378:-0.68804 379:0.565998 380:-0.497205 381:0.146914 382:-0.590911 383:-0.334324 384:0.137067 385:0.240387 386:-0.83074 387:0.972977 388:0.064146 389:0.596073 390:0.28388 391:0.126352 392:0.600758 393:0.108021 394:-0.22523 395:0.160149 396:0.359883 397:-0.359322 398:-0.428508 399:-0.738288 400:-0.650101 401:0.168987 402:-0.303155 403:-0.00239395 404:0.412751 405:-1 406:-0.372006 407:-0.0917284 408:0.164844 409:-0.0153436 410:-0.397426 411:-0.474544 412:-0.689465 413:-0.420192 414:1 415:0.495167 416:-0.316779 417:0.455659 418:-0.438874 419:0.236064 420:0.349702 421:0.497926 422:-0.343802 423:-0.0854409 424:-0.341675 425:-0.555355 426:-1 427:-0.0473882 428:0.284081 429:-0.209123 430:-0.262979 431:0.144822 432:0.490464 433:0.7079 434:0.0798543 435:-0.810413 436:-0.127175 437:0.542048 438:0.0205074 439:-0.506844 440:-0.377607 441:-0.183039 442:-0.669034 443:0.0323791 444:-0.158872 445:0.420288 446:-0.742389 447:-0.0403641 448:-0.1292 449:-0.33212 450:-0.185224 451:0.23839 452:-0.141921 453:0.815518 454:-0.0077435 455:-0.237914 456:0.240908 457:0.259525 458:0.622379 459:-0.177672 460:0.58097 461:-0.0741629 462:-0.00988798 463:-0.265745 464:0.188789 465:-0.109775 466:-0.796922 467:0.013661 468:0.0813956 469:0.13127 470:0.270723 471:0.644388 472:-0.405268 473:-0.639875 474:-0.590488 475:0.689804 476:0.129451 477:-0.802752 478:0.372865 479:0.301415 480:1 481:-0.119618 482:0.0803409 483:0.711563 484:-0.157791 485:0.462671 486:-0.538164 487:-0.381199 488:-0.194364 489:1 490:0.196171 491:-0.097526 492:-0.54792 493:-0.205036 494:-0.311158 495:-0.599669 496:0.889868 497:-0.170903 498:0.328993 499:0.303037 500:0.11765 501:0.435695 502:0.376041 503:0.448672 504:-0.485431 505:-0.114228 506:0.152766 507:-0.176243 508:0.331292 509:-0.193758 510:0.493034 511:0.161626 512:0.354445 513:0.160368 514:-0.182249 515:0.31763 516:0.0459912 517:0.81812 518:0.40397 519:-0.0980239 520:0.252653 521:0.0266639 522:-0.200943 523:0.0738163 524:-0.358313 525:-0.924137 526:0.189791 527:0.412548 528:-0.650652 529:-0.00727693 530:-0.377879 531:0.295763 532:0.163764 533:-0.210265 534:0.168501 535:0.140851 536:0.462404 537:0.287245 538:-0.0506376 539:-0.705353 540:0.030816 541:-0.544717 542:-0.548109 543:-0.617385 544:-0.361154 545:-0.449995 546:-0.444249 547:-0.697909 548:-0.167373 549:-0.841761 550:-0.333335 551:0.57487 552:-0.216376 553:-0.121246 554:-0.472581 555:0.0104383 556:0.455947 557:0.316832 558:0.140237 559:0.157822 560:-0.183717 561:0.177003 562:0.330257 563:0.183185 564:0.172702 565:-0.0625834 566:-0.194174 567:0.517604 568:0.074651 569:-0.655955 570:0.270026 571:-0.099439 572:-0.43344 573:0.056335 574:-0.412984 575:-0.419012 576:0.255622 577:0.0490417 578:-0.360961 579:0.719513 580:0.759053 581:0.624269 582:0.933991 583:-0.480423 584:-0.608986 585:0.0247479 586:-0.0972119 587:-0.100767 588:-0.580913 589:0.216143 590:0.256128 591:0.270869 592:-0.0846356 593:0.863031 594:-0.262182 595:0.401475 596:0.0527724 597:0.273411 598:0.18392 599:-0.256885 600:0.896246 
4 1.418069148483967 2.265939350209742 1:-0.215397 2:0.136959 3:0.0540192 4:-0.283364 5:-0.267962 6:0.424009 7:0.194449 8:-0.0453045 9:0.306245 10:-0.00446009 11:-0.1895 12:0.283324 13:0.134432 14:-0.706514 15:0.546249 16:0.591866 17:-1 18:0.154957 19:0.806583 20:0.0629559 21:0.0572739 22:0.1059 23:-0.472078 24:0.64866 25:-0.100014 26:0.288266 27:0.0563021 28:0.320712 29:-0.547535 30:0.336461 31:0.411187 32:-0.439327 33:-0.23497 34:0.064728 35:-0.0848454 36:0.748028 37:0.182426 38:-0.360181 39:0.175706 40:0.366874 41:0.365768 42:0.500679 43:0.30816 44:0.646563 45:-0.262345 46:-0.293046 47:0.144579 48:0.441684 49:-0.302482 50:-0.0425886 51:0.484379 52:-0.159784 53:-0.38462 54:0.043665 55:0.739853 56:0.0702673 57:-0.169002 58:0.125183 59:0.30492 60:-0.332609 61:0.931479 62:0.212573 63:0.20176 64:-0.541675 65:0.126506 66:-0.563015 67:-0.177995 68:-0.0086971 69:0.0477672 70:0.18855 71:-0.0605438 72:-0.22153 73:-1 74:0.245148 75:0.725512 76:0.335279 77:-0.28336 78:0.331283 79:0.0590849 80:-0.106051 81:0.114627 82:0.487124 83:-0.334658 84:0.376283 85:-0.205747 86:-0.0927736 87:0.0880159 88:0.815861 89:-0.168684 90:-0.0319506 91:0.373431 92:0.114168 93:-0.04135 94:0.747039 95:-0.148677 96:-0.188258 97:0.138532 98:0.0107083 99:-0.307379 100:0.386814 101:0.670268 102:-0.240418 103:0.00257583 104:0.0820749 105:-0.279962 106:0.118917 107:0.837088 108:0.212877 109:0.314809 110:1 111:0.78361 112:-0.655879 113:0.368515 114:-0.0317061 115:0.234469 116:0.583103 117:-0.683442 118:-0.0293392 119:0.577608 120:0.264663 121:0.01063 122:-0.430231 123:-0.00591505 124:0.375761 125:0.0626641 126:0.148613 127:-0.218155 128:-0.439833 129:-0.0807789 130:0.0365614 131:0.0384019 132:-0.346414 133:0.0360353 134:-0.378615 135:0.306252 136:0.516998 137:-0.227975 138:-0.128701 139:0.0904305 140:0.376522 141:0.190715 142:-0.364988 143:-0.16276 144:-0.590027 145:0.502765 146:-0.0884331 147:-0.359135 148:0.334085 149:-0.0128041 150:0.211781 151:0.388119 152:0.405057 153:0.0233331 154:-0.603843 155:0.515708 156:-0.215727 157:-0.261669 158:-0.463796 159:0.194396 160:0.295344 161:0.166361 162:-0.143237 163:0.367429 164:0.489637 165:0.0511215 166:-0.369349 167:-0.821082 168:-0.217666 169:0.211249 170:0.634094 171:0.0549572 172:0.208961 173:0.0610353 174:0.190529 175:-0.163785 176:-0.845235 177:-0.360267 178:0.340592 179:0.432644 180:0.142873 181:-0.26717 182:0.281381 183:0.2353 184:0.00818278 185:-0.696417 186:-0.128877 187:-0.159891 188:-0.0949004 189:-0.0280346 190:-0.580506 191:-0.55112 192:-0.888948 193:0.268273 194:0.0367695 195:-0.247984 196:0.0449131 197:-0.0567632 198:-0.361723 199:0.41681 200:-0.161383 201:-0.021815 202:0.169044 203:0.306759 204:0.195286 205:0.655593 206:0.570354 207:-0.104008 208:0.408169 209:-0.724525 210:-0.52019 211:-0.343166 212:-0.120742 213:-0.342123 214:-0.173977 215:0.332271 216:0.280691 217:-0.333382 218:-0.186447 219:-0.154565 220:-0.547843 221:-0.204167 222:-0.155138 223:0.19862 224:0.372474 225:-1 226:-0.048351 227:-0.0683897 228:-0.688717 229:-0.0987322 230:0.907977 231:-0.837906 232:-0.114163 233:-0.423109 234:-0.258438 235:0.0198539 236:0.214492 237:0.370922 238:0.161168 239:0.0164737 240:-0.222753 241:-0.159317 242:0.227133 243:0.0768595 244:-0.0679585 245:0.114031 246:-0.536586 247:0.221746 248:-0.38633 249:-0.263223 250:-0.329782 251:-0.00826021 252:0.356301 253:0.885131 254:-0.494114 255:0.676834 256:0.0985052 257:0.399927 258:0.621611 259:-0.430734 260:-0.615132 261:-0.429382 262:0.308693 263:-0.475379 264:0.332939 265:-0.639282 266:-0.31735 267:1 268:0.536427 269:0.401752 270:-0.0596233 271:0.392025 272:0.191135 273:-0.203733 274:-0.276645 275:0.0893231 276:-0.0512814 277:-0.30407 278:-0.0891041 279:0.101989 280:0.0291922 281:0.0751111 282:0.508506 283:-0.118037 284:0.284851 285:-0.0616914 286:-0.459666 287:0.111754 288:0.12915 289:-0.423464 290:0.701048 291:0.441451 292:-0.0985261 293:0.215096 294:0.240715 295:-0.00622696 296:-0.846635 297:0.924394 298:0.232183 299:-0.4719 300:-0.0769491 301:0.215802 302:0.0529211 303:-0.27207 304:1 305:-0.430532 306:0.175001 307:-0.236167 308:-0.625047 309:0.0662255 310:-0.113763 311:-0.0399011 312:-0.29423 313:-0.936238 314:0.134501 315:-0.0633075 316:0.42442 317:-0.239772 318:-0.221541 319:0.170459 320:-0.0817344 321:0.413117 322:0.619148 323:0.431758 324:-0.330622 325:-0.716473 326:0.353138 327:-0.0059608 328:0.354091 329:0.00150547 330:0.151584 331:-0.0360414 332:-0.48507 333:-0.0394578 334:-0.685223 335:0.572815 336:-0.314673 337:-0.217056 338:0.171822 339:-0.584528 340:0.368523 341:-0.631321 342:-0.357893 343:0.483579 344:-0.159247 345:0.762658 346:0.154484 347:0.129568 348:0.0225032 349:0.26477 350:-0.154788 351:-0.317029 352:-0.483353 353:0.182697 354:-0.0869924 355:0.12197 356:-0.208376 357:-0.241138 358:-0.189483 359:-0.407299 360:-0.0513906 361:-0.0508796 362:-0.295991 363:-0.248395 364:-0.441809 365:0.498804 366:0.1414 367:-0.946992 368:-0.0288256 369:0.376193 370:0.248768 371:-0.75563 372:0.32556 373:0.157422 374:-0.444802 375:0.878387 376:-0.785156 377:0.577669 378:-0.612506 379:0.215866 380:0.304368 381:-0.422775 382:-0.513983 383:-0.102602 384:0.473974 385:0.24373 386:-0.00886373 387:0.658821 388:-0.171976 389:-0.880708 390:-0.139707 391:-0.504667 392:0.103873 393:0.166554 394:-0.180258 395:0.368582 396:-0.158512 397:-0.169893 398:-0.626634 399:-0.580941 400:0.0483328 401:1 402:-0.427786 403:-0.287064 404:0.233005 405:0.378568 406:-0.34623 407:0.351449 408:-0.507436 409:0.588323 410:-0.866929 411:0.466183 412:0.324741 413:0.268116 414:0.129193 415:-0.881908 416:-0.184113 417:0.0466049 418:-0.244607 419:0.33121 420:0.338223 421:1 422:-0.171672 423:0.309167 424:0.51057 425:-0.335627 426:-0.497616 427:-0.394498 428:-0.610858 429:-0.374776 430:-0.810943 431:0.545209 432:0.636871 433:-0.604896 434:0.984827 435:0.208905 436:-0.403456 437:0.867839 438:-0.279259 439:-0.324027 440:0.53096 441:-0.139802 442:-0.440995 443:-0.247713 444:-0.36944 445:0.225469 446:0.145932 447:-0.725852 448:-0.109024 449:-0.128446 450:0.116615 451:0.0766804 452:0.140355 453:-0.0137519 454:-0.118051 455:-0.703427 456:0.0717435 457:0.838649 458:-0.0834918 459:0.319606 460:0.484412 461:0.090599 462:0.168941 463:-0.159052 464:-0.436665 465:0.165066 466:-1 467:0.580095 468:0.546827 469:-0.215453 470:-0.132891 471:0.527132 472:-0.0356031 473:-0.324951 474:0.0324398 475:0.670067 476:0.0834655 477:-0.346613 478:0.303959 479:0.41929 480:-0.169639 481:0.520014 482:-0.0881721 483:-0.0636909 484:-1 485:-0.273648 486:0.329221 487:-0.327181 488:-0.0880129 489:-0.232411 490:0.122279 491:0.270032 492:-0.668654 493:0.153206 494:-0.180315 495:0.498582 496:-0.252559 497:0.321922 498:-0.0246424 499:-0.490544 500:-0.147799 501:-0.28476 502:-0.958447 503:0.205301 504:-0.264765 505:-0.534127 506:0.026553 507:-0.0690386 508:1 509:0.182026 510:0.068667 511:-0.103153 512:-0.0255026 513:-0.158554 514:-0.0944132 515:0.540303 516:0.0418127 517:-0.265476 518:0.122856 519:-0.26988 520:0.276846 521:0.286165 522:-0.376492 523:0.378961 524:0.0698344 525:0.192168 526:0.679485 527:0.137135 528:-0.242293 529:0.878018 530:0.629285 531:0.290511 532:0.0464667 533:-0.229135 534:0.142746 535:0.291753 536:0.191828 537:-0.219518 538:0.309669 539:0.524455 540:0.0878264 541:0.186917 542:0.207119 543:0.367016 544:-0.483208 545:0.48363 546:1 547:0.101727 548:0.207954 549:-0.867456 550:-0.245442 551:0.065075 552:-0.0384841 553:-0.837467 554:0.197721 555:-0.400405 556:0.143065 557:-0.803496 558:-0.161974 559:-0.616093 560:0.524263 561:0.259112 562:0.412848 563:-0.535357 564:0.280696 565:0.0489619 566:-0.284333 567:-0.145049 568:0.0207268 569:0.0571187 570:-0.0442651 571:-0.398871 572:-0.281385 573:-0.391534 574:0.28677 575:-0.264531 576:-0.213881 577:0.0260764 578:-0.592408 579:-0.159399 580:0.593399 581:0.709221 582:0.310608 583:-0.435632 584:-0.452864 585:0.496557 586:0.0736181 587:-1 588:0.715751 589:0.274314 590:0.68491 591:0.556325 592:0.229486 593:-0.0364332 594:0.138689 595:-0.111964 596:0.591683 597:-0.349348 598:0.457013 599:-0.584973 600:0.87576 
1.838499295989017 0.6990135919183845 1.666673408085144 1:-0.212709 2:-0.0748489 3:1 4:-0.593044 5:0.627119 6:0.421949 7:0.206092 8:0.0708924 9:0.187343 10:0.34632 11:-1 12:-0.162283 13:0.473948 14:-0.172865 15:-0.0343592 16:0.0024901 17:0.291297 18:0.120727 19:0.183926 20:-0.458026 21:-0.154436 22:-0.49336 23:0.135402 24:-0.164974 25:0.913776 26:0.0882809 27:0.134952 28:-0.246104 29:0.509542 30:0.213187 31:0.00528373 32:0.304236 33:0.0954934 34:-0.30045 35:-0.69223 36:0.2994 37:-0.426775 38:-0.0226399 39:0.339012 40:0.213658 41:0.278728 42:-0.189433 43:0.380349 44:0.564837 45:-0.0174641 46:-0.201268 47:0.576569 48:-0.354512 49:-0.800659 50:-0.133167 51:1 52:-0.079549 53:-0.251326 54:-0.148941 55:0.791199 56:-0.691532 57:0.0404616 58:0.107781 59:0.472017 60:-0.1528 61:-0.079232 62:-0.20151 63:-0.165139 64:0.250533 65:0.0501517 66:-0.324418 67:-0.00711083 68:-0.391083 69:-0.231556 70:-0.801376 71:0.392039 72:0.0665155 73:0.164807 74:0.320711 75:0.562677 76:0.164663 77:-0.0962519 78:-0.117295 79:-0.0840846 80:0.692813 81:-0.100478 82:-0.533815 83:-0.209849 84:-0.038049 85:0.168228 86:-0.242785 87:0.524882 88:-0.306577 89:-0.275719 90:0.332262 91:-0.200854 92:0.372119 93:0.110785 94:-0.366049 95:0.149368 96:-0.0203752 97:0.46561 98:-0.880822 99:-0.127439 100:0.104505 101:0.494879 102:-0.394802 103:-0.340968 104:0.710272 105:-0.375715 106:-0.00615785 107:0.134354 108:0.264983 109:0.121216 110:0.484093 111:0.178194 112:-0.0537448 113:-0.0564018 114:0.107383 115:-0.134462 116:-0.328679 117:-0.0200398 118:-0.558256 119:0.0962049 120:-0.64606 121:0.407937 122:-0.50167 123:-0.248517 124:0.249978 125:0.0359937 126:-0.223838 127:-0.0522126 128:0.497245 129:0.917082 130:0.157527 131:0.860399 132:-0.179407 133:0.253682 134:-0.302993 135:-0.262852 136:0.141677 137:-0.259363 138:0.428978 139:-0.722237 140:0.203308 141:-0.817981 142:-0.773799 143:0.0272129 144:-0.817674 145:-0.48595 146:-0.145498 147:0.0975001 148:-0.113211 149:0.0824991 150:0.715788 151:-0.0221644 152:0.50711 153:0.266415 154:-0.0120384 155:-0.129014 156:0.182424 157:0.241594 158:0.338354 159:0.324153 160:0.0978443 161:-0.684128 162:0.217549 163:-0.211207 164:0.982277 165:-0.528515 166:-0.199218 167:0.0510249 168:-0.149252 169:0.336064 170:0.0426238 171:-0.365858 172:0.692008 173:-0.0950261 174:-0.361589 175:1 176:0.093351 177:-0.443337 178:-0.987209 179:0.203455 180:-0.683877 181:-0.689703 182:0.47161 183:-0.208829 184:0.626959 185:-0.200059 186:0.0128218 187:0.0816116 188:-0.796543 189:-0.130965 190:0.419808 191:-0.491498 192:0.0324281 193:-0.621854 194:-0.0631538 195:0.133105 196:-0.301929 197:-0.663163 198:0.107021 199:0.158196 200:-0.417227 201:0.377824 202:0.128133 203:0.254109 204:-0.523552 205:-0.0722468 206:0.678381 207:-0.23414 208:0.0860685 209:1 210:0.504056 211:0.0264487 212:-0.172018 213:-0.343751 214:-0.154358 215:-0.133919 216:-0.418366 217:0.502314 218:0.514486 219:-0.529088 220:-1 221:0.0532114 222:0.144213 223:0.624186 224:0.644282 225:0.226399 226:1 227:-0.0652982 228:-0.193673 229:-0.536992 230:0.423324 231:0.0701072 232:-0.342317 233:0.366652 234:-0.331896 235:0.121777 236:0.205936 237:-0.736082 238:0.0248222 239:-0.134801 240:-0.195457 241:-0.052744 242:0.276579 243:-0.50544 244:0.298626 245:0.0875727 246:-0.0243837 247:-0.0881589 248:-0.808133 249:0.311347 250:0.164308 251:0.17028 252:0.124694 253:0.875198 254:-0.30111 255:0.211164 256:0.309115 257:0.803095 258:1 259:1 260:0.0252238 261:0.375788 262:-0.119938 263:-0.436295 264:0.134824 265:-0.278985 266:0.175279 267:0.178022 268:0.140423 269:1 270:-0.542313 271:-0.251019 272:0.239227 273:0.287872 274:0.938957 275:0.320541 276:-0.745962 277:-0.537347 278:0.169464 279:0.305655 280:-0.389382 281:-0.358477 282:-0.044347 283:-0.263815 284:-0.62618 285:0.133313 286:-0.305337 287:-0.00131037 288:-0.747846 289:0.578845 290:0.307426 291:0.12375 292:0.429909 293:0.0643231 294:-0.482984 295:-0.251461 296:-0.838525 297:0.386482 298:0.0616098 299:-0.0288793 300:0.273552 301:0.493787 302:-0.396116 303:-0.156763 304:0.276183 305:-0.192904 306:0.153575 307:0.458733 308:0.229124 309:0.0491028 310:0.331918 311:0.866027 312:-0.108843 313:-0.0164462 314:-0.0169827 315:0.465711 316:0.0860102 317:0.223242 318:0.718613 319:-0.47672 320:-0.568015 321:0.255355 322:-0.491467 323:-0.310058 324:-0.339666 325:-0.489136 326:-0.0424686 327:-0.585643 328:-0.846643 329:-0.137004 330:0.159077 331:0.891884 332:0.00192423 333:-0.261703 334:0.164619 335:-0.55597 336:0.393741 337:-0.327055 338:-0.186346 339:-0.619243 340:-0.562163 341:-0.118623 342:-0.0682261 343:0.345469 344:-0.306348 345:-0.199881 346:-0.0148936 347:-0.740678 348:0.133989 349:-0.083004 350:-0.308863 351:-0.380956 352:0.918255 353:0.29121 354:-1 355:0.471772 356:-0.856722 357:-0.0693405 358:-0.88701 359:-0.44295 360:0.468993 361:0.843247 362:-0.0793824 363:-0.134716 364:-0.534434 365:0.740485 366:0.185793 367:0.559538 368:-0.0632414 369:-0.495504 370:-0.0482563 371:-0.486438 372:0.718404 373:0.107381 374:-0.820606 375:0.80807 376:0.260042 377:-0.511939 378:0.432702 379:0.595051 380:0.108337 381:0.256093 382:-0.44865 383:-0.807597 384:-0.671426 385:-0.022343 386:0.00972287 387:0.507027 388:0.121679 389:0.507896 390:0.168714 391:-0.66602 392:0.412732 393:-0.395197 394:0.26225 395:-0.0118175 396:0.094643 397:0.395643 398:0.0982581 399:0.159412 400:-0.0568837 401:0.19459 402:-0.121697 403:0.31379 404:0.143424 405:-0.876178 406:0.889508 407:0.423236 408:0.627524 409:-0.625857 410:-0.00439315 411:0.216698 412:-0.227336 413:-0.684972 414:0.698348 415:0.449542 416:0.358579 417:0.220654 418:-0.187043 419:-0.209827 420:0.248822 421:0.603824 422:-0.0147345 423:0.891902 424:-0.127161 425:0.393106 426:0.0713643 427:-0.318509 428:-0.148834 429:-0.724739 430:1 431:0.923189 432:-0.278549 433:0.254124 434:-0.710941 435:-0.195728 436:0.177962 437:0.362808 438:0.0145036 439:0.19922 440:0.114771 441:-0.326216 442:-0.396125 443:0.175863 444:0.429358 445:0.0322751 446:0.654328 447:-0.51066 448:-0.393908 449:-0.735259 450:-0.586387 451:-0.307331 452:-0.33031 453:-0.132799 454:0.226325 455:-0.079069 456:-0.809504 457:0.447678 458:0.479881 459:0.28227 460:0.35059 461:0.104514 462:-0.493046 463:0.049337 464:0.150935 465:0.258158 466:-0.197575 467:0.0372951 468:-0.15465 469:-0.0941181 470:-0.515614 471:0.0836139 472:-0.524613 473:-0.525545 474:0.513978 475:0.044921 476:-0.485579 477:0.702116 478:0.623921 479:-0.0317464 480:-0.0697465 481:0.315592 482:-0.0257732 483:0.217784 484:-0.519152 485:-0.232053 486:-0.535652 487:-0.174268 488:-0.288929 489:-0.557059 490:0.0472213 491:-0.446638 492:0.447809 493:0.397164 494:-0.104407 495:0.732205 496:0.889395 497:-0.300196 498:0.258776 499:0.194369 500:-0.371966 501:0.0586719 502:-0.449306 503:-0.261781 504:0.54317 505:-0.370454 506:-0.980911 507:-0.199652 508:-0.0669988 509:0.151758 510:0.271933 511:-0.355943 512:-0.0245504 513:0.16493 514:0.351041 515:0.153305 516:0.0172015 517:0.369158 518:0.359681 519:-0.297826 520:0.139759 521:0.0878131 522:0.0826907 523:-0.200044 524:-0.854685 525:-0.0208238 526:-0.0968723 527:0.258809 528:-0.42262 529:0.430238 530:-0.488474 531:-0.157093 532:0.370398 533:0.147252 534:-0.0509195 535:-0.0108845 536:0.292166 537:0.0769823 538:-0.109932 539:-0.17747 540:-0.402449 541:-0.680533 542:-0.298759 543:0.610138 544:0.537526 545:0.0994692 546:0.0592567 547:0.494938 548:-0.503992 549:-0.38505 550:-0.389078 551:0.151461 552:-0.990083 553:-0.148781 554:-0.238616 555:0.841625 556:-0.13391 557:0.100398 558:0.0231152 559:-0.955569 560:0.741103 561:0.806446 562:0.0437462 563:0.320674 564:0.283527 565:-0.307166 566:-0.395906 567:-0.24035 568:0.523536 569:0.321333 570:0.614035 571:0.334589 572:-0.370426 573:0.436627 574:-0.0241599 575:-0.109378 576:0.175328 577:-0.0833178 578:0.0119101 579:-0.16601 580:-0.198443 581:0.279275 582:-0.0692714 583:0.101247 584:-0.427964 585:0.0692784 586:0.241493 587:0.489426 588:-0.243772 589:0.101088 590:-0.430151 591:0.0581174 592:0.0911425 593:0.0452099 594:0.144911 595:0.186696 596:0.823344 597:-0.0863098 598:-0.20597 599:-0.327691 600:0.875433 
2.749266334522598 1.433553491821958 2.33821782568632 1:0.160687 2:0.493984 3:-0.233465 4:-0.335537 5:0.345684 6:-0.19836 7:-0.127393 8:-0.00154425 9:0.215014 10:-0.0436611 11:-0.673056 12:0.1473 13:0.445973 14:-0.17032 15:-0.304785 16:0.841447 17:-0.316938 18:0.0187197 19:0.102922 20:-0.484194 21:-0.241163 22:0.728056 23:0.576353 24:-0.489678 25:0.534073 26:-0.668788 27:0.0127594 28:-0.539881 29:-0.348767 30:0.449025 31:0.55813 32:0.769508 33:0.0503218 34:-0.0409509 35:-0.212919 36:-0.222336 37:0.0671516 38:-0.241538 39:0.449887 40:0.289564 41:-0.110607 42:-0.0399396 43:-0.216683 44:0.171234 45:-0.485865 46:-0.585104 47:-0.425646 48:-0.505558 49:-0.218783 50:-0.564567 51:-0.162138 52:-0.252688 53:-0.469585 54:0.391149 55:0.930192 56:-0.112971 57:0.106244 58:0.654105 59:-0.245121 60:-0.396059 61:-0.541864 62:-0.262857 63:-0.0988437 64:-0.3986 65:-0.111675 66:-0.145572 67:0.0730127 68:0.312107 69:-0.254713 70:0.6525 71:0.40775 72:0.686005 73:-0.57458 74:-0.0636149 75:0.105165 76:0.0927859 77:-0.375943 78:-0.305806 79:-0.265316 80:0.170906 81:0.0708308 82:-0.18815 83:0.25969 84:-0.434033 85:0.502146 86:-1 87:-1 88:-0.194822 89:-0.0485788 90:0.153554 91:0.57603 92:0.146717 93:-0.0206385 94:-0.31333 95:0.384636 96:-0.153671 97:0.436662 98:0.469266 99:-0.321699 100:0.941864 101:0.496045 102:0.653326 103:0.885349 104:0.260231 105:-0.818064 106:-0.218591 107:-0.187888 108:0.137897 109:0.452965 110:0.171893 111:0.362895 112:0.222037 113:1 114:0.453107 115:-0.668188 116:0.504015 117:0.491132 118:0.606725 119:0.187661 120:-0.0836786 121:0.336001 122:-0.132896 123:0.24479 124:0.500339 125:0.570365 126:-0.0328812 127:-0.946144 128:0.147485 129:0.0795958 130:-0.158209 131:0.595254 132:-0.220567 133:0.528352 134:0.00735851 135:-0.537192 136:-0.266712 137:0.268502 138:-0.183042 139:-0.169915 140:-0.254969 141:-0.627447 142:-0.400853 143:-0.389523 144:-0.304845 145:-0.122396 146:0.461042 147:-0.437783 148:-0.0861727 149:-0.0474398 150:0.347753 151:0.353375 152:-0.344341 153:-0.246694 154:-0.0582293 155:0.0499473 156:-1 157:-0.33936 158:0.00205633 159:1 160:0.0588895 161:-0.289709 162:-0.0781126 163:0.623948 164:0.0838799 165:0.0628728 166:0.462389 167:-0.182086 168:-0.709723 169:0.361365 170:-0.115479 171:0.47212 172:0.391067 173:0.310413 174:0.553078 175:0.0451344 176:-0.733689 177:-0.745196 178:-0.0453899 179:0.152527 180:-0.0548805 181:0.404074 182:0.302448 183:-0.287343 184:0.0773518 185:-0.598242 186:-0.411125 187:0.0427134 188:0.422383 189:0.958868 190:-0.279233 191:-0.31796 192:-0.466575 193:-0.847953 194:0.181224 195:0.616843 196:-0.857787 197:0.393088 198:-0.245826 199:-0.340289 200:0.572787 201:-0.448828 202:-0.325703 203:-0.469153 204:-0.34307 205:-0.275261 206:-0.094153 207:-0.317165 208:-0.404054 209:-0.111299 210:-0.115762 211:0.287527 212:-0.0567592 213:-0.249385 214:-0.0544274 215:0.17991 216:0.393479 217:-1 218:-0.068053 219:-0.285068 220:0.273071 221:0.126798 222:0.108696 223:-0.0950798 224:0.725862 225:-0.0711017 226:0.0261273 227:-0.732489 228:-0.563265 229:-0.592563 230:0.297619 231:-0.469534 232:-0.0577342 233:-0.197498 234:-0.640988 235:0.49564 236:0.436931 237:0.782358 238:-0.511679 239:0.528125 240:-0.369257 241:0.268718 242:-0.291433 243:0.475249 244:-0.0200578 245:-0.354333 246:-0.127121 247:-0.479301 248:0.583321 249:-0.959579 250:-0.561649 251:0.0809683 252:-0.664366 253:0.282055 254:-0.90945 255:-0.105407 256:0.374178 257:0.591285 258:0.608541 259:0.814454 260:0.077538 261:-0.575462 262:0.139546 263:-0.196117 264:0.173409 265:-0.447546 266:0.385651 267:-0.905012 268:0.530494 269:0.173825 270:0.0991891 271:0.0500911 272:0.0352111 273:0.317867 274:-0.892425 275:0.456214 276:1 277:-0.212001 278:-0.271913 279:0.187211 280:-0.271664 281:-0.151303 282:0.387634 283:0.305388 284:-0.034761 285:0.216272 286:0.759225 287:-0.103279 288:-0.899408 289:-0.184827 290:-0.313211 291:-0.318273 292:-0.69745 293:-0.14428 294:0.289644 295:-0.190278 296:0.339438 297:0.701781 298:-0.316145 299:0.531097 300:0.428196 301:-0.561857 302:-0.462749 303:0.158647 304:-0.588108 305:0.0410473 306:0.343295 307:-0.281147 308:-0.0576631 309:-0.197025 310:0.126993 311:-0.121822 312:-0.240613 313:-0.183782 314:0.792059 315:-0.140888 316:-0.124236 317:0.0287021 318:0.225506 319:-0.180581 320:0.0757179 321:-0.264413 322:0.210974 323:0.0748319 324:-0.270633 325:-0.118386 326:-0.220374 327:0.0354033 328:0.625365 329:-0.745248 330:-0.0520867 331:0.33804 332:-0.717121 333:-0.160738 334:0.0626509 335:-0.470972 336:-0.41993 337:-0.00880262 338:-0.243121 339:-0.419471 340:0.230291 341:-0.691937 342:-0.376564 343:0.111209 344:-0.0380565 345:-0.0284482 346:-0.640202 347:-0.414301 348:0.786073 349:-0.0901233 350:-0.676776 351:0.103359 352:-0.636598 353:-0.275661 354:0.014516 355:-0.332663 356:0.24339 357:-0.291934 358:-0.499968 359:0.250978 360:0.928291 361:-0.194668 362:-0.120749 363:-0.866612 364:0.129252 365:-0.633588 366:-0.23177 367:-0.0618169 368:-0.138841 369:0.263202 370:0.580323 371:0.0552981 372:-0.23828 373:-0.115328 374:0.306783 375:0.693437 376:0.567418 377:0.104961 378:-0.0354746 379:-0.44845 380:-0.361864 381:-0.00969784 382:-0.677822 383:0.175626 384:-0.431338 385:0.171441 386:0.649408 387:-1 388:-0.0688269 389:-0.243844 390:1 391:-0.161614 392:0.525193 393:0.685683 394:-0.414772 395:0.213664 396:0.391504 397:-0.118734 398:-0.930311 399:-0.297149 400:-0.0450749 401:-0.321689 402:0.0717566 403:0.0596941 404:-0.423943 405:0.064592 406:-0.248615 407:-0.400084 408:0.134173 409:-0.838677 410:-0.688017 411:0.108115 412:0.134458 413:-0.70616 414:-0.563509 415:-0.504626 416:-0.211779 417:0.0930602 418:-0.222387 419:0.025789 420:0.180043 421:-0.587062 422:-1 423:0.477414 424:0.0382385 425:-0.446333 426:-0.569247 427:-0.61057 428:-0.394763 429:-0.205034 430:-0.0781081 431:0.668988 432:0.896677 433:-0.406122 434:0.551302 435:-0.311467 436:0.134205 437:0.275732 438:0.78551 439:-1 440:0.362733 441:-0.00574065 442:-0.170868 443:0.430714 444:-0.464469 445:0.586706 446:1 447:0.612507 448:-0.233964 449:0.287895 450:-0.639579 451:0.876897 452:-0.29577 453:-0.336973 454:0.129647 455:-0.630434 456:1 457:-0.703554 458:0.953899 459:1 460:0.268425 461:0.390179 462:-0.0514269 463:-0.427403 464:-0.206566 465:-0.44977 466:-0.16688 467:0.757442 468:-0.344034 469:0.139973 470:0.573051 471:0.0700081 472:0.117691 473:-0.510887 474:0.793576 475:0.00816121 476:-0.753299 477:-0.370028 478:-0.00665212 479:0.348853 480:-0.214998 481:0.798073 482:-0.242497 483:0.014748 484:0.13156 485:-0.0683662 486:-0.287241 487:-0.552319 488:-0.355394 489:-0.536258 490:-0.215752 491:0.352956 492:0.04773 493:0.20097 494:-0.686765 495:-0.0952412 496:-0.108838 497:0.9347 498:0.206096 499:0.467195 500:-0.247558 501:1 502:-0.413978 503:-0.0592116 504:-0.541921 505:-0.394733 506:-0.0672095 507:-0.175476 508:0.729851 509:1 510:0.353581 511:0.401803 512:0.198603 513:0.681972 514:-0.0383408 515:1 516:0.594086 517:0.568109 518:0.523713 519:-0.598783 520:0.293233 521:-0.000441718 522:-0.131794 523:-0.494656 524:0.0928879 525:-0.438855 526:-0.584375 527:-0.127587 528:0.257841 529:0.106283 530:-0.284676 531:-0.102352 532:0.0155656 533:-0.189196 534:0.648647 535:-0.0703885 536:-0.594015 537:0.24099 538:0.0564067 539:-0.164102 540:-0.372328 541:0.225839 542:-0.389315 543:0.276024 544:-0.200058 545:0.291362 546:-0.188494 547:-0.0877287 548:0.332202 549:-0.295637 550:0.0311717 551:-1 552:0.576869 553:-0.0748833 554:0.105435 555:-0.481987 556:-0.565288 557:-0.0304151 558:0.309835 559:0.266039 560:0.141463 561:1 562:0.0209426 563:0.685985 564:-0.329236 565:-0.388914 566:0.740578 567:0.273535 568:-0.628387 569:-0.176532 570:-0.778591 571:-0.380006 572:-0.102685 573:-0.643205 574:0.21483 575:0.125388 576:-0.670014 577:-0.108194 578:-0.388126 579:-0.471915 580:0.588301 581:-0.22802 582:-0.143938 583:0.555866 584:-0.766186 585:0.374626 586:0.175997 587:-0.277178 588:-0.146089 589:-1 590:0.197899 591:0.0819916 592:0.151671 593:-0.3224 594:-1 595:0.687748 596:-0.239007 597:0.00816925 598:0.311999 599:0.0169061 600:0.355041 
4 4 4 1:-0.134905 2:0.694371 3:0.27956 4:-0.0178382 5:-0.163996 6:0.238761 7:0.314986 8:-0.0740516 9:-0.0982437 10:-0.0653478 11:-0.364415 12:0.626161 13:0.0304157 14:-0.011636 15:-0.16254 16:-0.277853 17:0.628875 18:0.1911 19:-0.536606 20:-0.791101 21:-0.194003 22:-0.208347 23:-0.321436 24:-0.1752 25:0.257087 26:0.163284 27:0.600921 28:-0.602278 29:0.587231 30:0.14336 31:0.742626 32:-0.129741 33:0.2222 34:-0.0909305 35:0.298125 36:0.169832 37:-0.711992 38:0.254199 39:-0.0417617 40:-0.493707 41:0.277675 42:-0.102136 43:0.278972 44:0.4194 45:-0.486292 46:0.6072 47:-0.00970502 48:-0.216664 49:0.0288776 50:-0.29397 51:0.22255 52:0.530941 53:-0.875547 54:-0.861299 55:-0.0621531 56:0.210693 57:0.412925 58:-0.3638 59:0.558718 60:-0.630696 61:0.547863 62:-0.0644641 63:-0.0259312 64:0.467055 65:-0.163219 66:0.401627 67:0.119864 68:-0.141019 69:-0.357481 70:0.110893 71:-1 72:-0.0541692 73:-0.00922149 74:0.332159 75:0.669278 76:0.322931 77:0.11507 78:-0.0225066 79:0.0892023 80:0.483665 81:-0.52502 82:0.415716 83:0.0148362 84:-0.602095 85:-0.312461 86:-0.0532267 87:-0.157362 88:-0.807099 89:0.912555 90:0.186575 91:1 92:-0.0438323 93:0.0610311 94:-0.726696 95:-0.642589 96:-0.261761 97:0.678365 98:0.902856 99:-0.298601 100:0.332231 101:-0.00449804 102:0.100298 103:0.289922 104:0.45976 105:-0.0828062 106:-0.257297 107:0.134894 108:0.275614 109:0.451176 110:0.283441 111:0.139777 112:0.446263 113:-0.551663 114:0.35507 115:-0.85217 116:0.748199 117:0.246084 118:0.788864 119:-0.252507 120:-0.599682 121:-0.00426527 122:0.13101 123:-0.399411 124:-0.0728301 125:-0.887534 126:0.421951 127:-0.254985 128:0.0792967 129:-0.0214519 130:-0.901655 131:-0.542356 132:0.410977 133:-0.200546 134:-0.49077 135:-0.509238 136:0.186619 137:0.36653 138:0.818805 139:0.13995 140:-0.529144 141:-0.459391 142:0.146875 143:-0.31316 144:0.825546 145:-0.691993 146:-0.851783 147:0.729097 148:0.753223 149:1 150:0.266164 151:0.0256896 152:-0.129695 153:0.178756 154:-0.556638 155:0.0346812 156:0.427079 157:-0.395031 158:0.615916 159:0.0976892 160:-0.42777 161:-1 162:-0.934821 163:0.342392 164:-0.130622 165:-0.669586 166:-0.0296072 167:-0.328654 168:-0.660961 169:-0.150716 170:-0.126236 171:0.299874 172:-0.33018 173:0.354655 174:0.438388 175:0.00868663 176:-0.395352 177:-0.335723 178:0.772325 179:0.368127 180:0.0414899 181:-0.535793 182:-0.0793435 183:-0.342343 184:-0.801792 185:-0.529996 186:0.429114 187:-0.306909 188:0.421832 189:0.226671 190:-0.186203 191:-0.472689 192:-0.0264906 193:-0.298225 194:0.235616 195:0.41672 196:0.444862 197:-0.292716 198:-0.118895 199:-0.293839 200:0.442216 201:0.368633 202:-0.300052 203:-0.273782 204:0.75348 205:0.329932 206:-0.755456 207:0.0795188 208:0.647003 209:0.630176 210:-0.491916 211:-0.398808 212:-0.30307 213:-0.0410547 214:-0.662541 215:0.0645855 216:-0.259 217:0.931587 218:-0.0295598 219:-0.563625 220:0.790145 221:-0.292833 222:0.392281 223:-0.268053 224:-0.137146 225:0.426107 226:0.709452 227:0.349601 228:-0.262808 229:0.44367 230:0.509282 231:-0.254166 232:0.21267 233:-0.371058 234:0.36343 235:-0.243251 236:0.299569 237:-0.628811 238:-0.647693 239:-0.17527 240:-0.328845 241:-1 242:0.323526 243:-0.21599 244:0.430238 245:-0.2274 246:-0.324846 247:0.151345 248:0.354191 249:0.279058 250:0.558797 251:-0.418326 252:0.188477 253:0.0248714 254:0.00900115 255:0.33726 256:-0.657868 257:-0.180383 258:0.263569 259:-0.0618423 260:-0.119161 261:-0.293497 262:-0.480864 263:-0.296516 264:0.501664 265:-0.0966015 266:0.0512248 267:-0.31234 268:0.0116846 269:0.453761 270:0.951607 271:0.22296 272:-0.107206 273:-0.175224 274:-0.275809 275:0.0323977 276:-0.58196 277:-0.562585 278:0.717111 279:0.260513 280:0.063052 281:-0.510301 282:0.255215 283:-0.215685 284:0.515887 285:-0.537725 286:-0.434292 287:-0.339864 288:-0.170152 289:-0.234824 290:0.0478288 291:-0.469385 292:0.272606 293:0.437145 294:-0.0811009 295:-0.1282 296:0.121146 297:0.824802 298:0.179977 299:-0.332953 300:0.107383 301:0.117907 302:-1 303:0.512843 304:0.185191 305:0.91753 306:-0.14473 307:0.750712 308:0.463729 309:0.0623858 310:-0.03282 311:0.146295 312:-0.750164 313:0.190739 314:0.239493 315:0.596308 316:-0.688989 317:-0.655183 318:-0.29908 319:0.460799 320:-0.184094 321:0.325364 322:0.387846 323:-0.37535 324:-0.349277 325:-1 326:-0.00522684 327:0.432459 328:-0.702748 329:0.279836 330:-0.353143 331:-0.129509 332:-0.18315 333:-0.127836 334:0.618738 335:-0.803774 336:-0.0761586 337:-0.0109883 338:0.503613 339:-0.22048 340:0.045799 341:0.308203 342:-0.28724 343:-0.347097 344:-0.343159 345:-0.414438 346:0.296912 347:0.285167 348:-0.0253005 349:-0.294091 350:-0.261136 351:0.430985 352:-0.227031 353:0.395008 354:1 355:0.572539 356:-0.923865 357:0.144338 358:-0.117676 359:0.312198 360:0.165221 361:0.532427 362:0.141917 363:-0.0300635 364:-0.630056 365:0.59435 366:0.237482 367:0.208962 368:0.546905 369:-0.0135524 370:-0.0814373 371:-0.0195305 372:-0.236773 373:-0.16043 374:0.221046 375:0.398412 376:0.206291 377:0.47227 378:0.0907115 379:-0.171825 380:-0.0064596 381:0.753975 382:-0.46583 383:-0.87804 384:0.747557 385:0.483036 386:-0.58974 387:0.364222 388:0.114847 389:-0.551042 390:0.561119 391:-0.740374 392:0.44078 393:0.275418 394:0.05763 395:-0.367577 396:-0.167308 397:-0.997416 398:-0.0577207 399:-0.733184 400:0.348401 401:-0.11865 402:0.214727 403:0.445211 404:-0.390568 405:-0.603711 406:0.410085 407:-0.470758 408:-0.0843874 409:0.0855135 410:-0.189972 411:-0.485798 412:0.285675 413:0.365507 414:0.230284 415:-0.0581515 416:-0.401063 417:0.0575116 418:0.096588 419:1 420:-0.518392 421:-0.589804 422:-0.256246 423:0.36216 424:-0.0770975 425:-0.396427 426:0.256095 427:0.169229 428:1 429:-0.840152 430:0.10249 431:0.151806 432:0.546737 433:-0.104411 434:-0.426605 435:-0.168444 436:0.75558 437:0.15184 438:-0.0581078 439:0.462898 440:0.0489236 441:0.0864351 442:0.273498 443:-0.512512 444:-0.354293 445:0.162703 446:0.52797 447:-0.206575 448:-0.281712 449:0.199194 450:-0.133075 451:0.834981 452:-0.626283 453:-0.0857219 454:-0.31912 455:-0.122953 456:-0.0105243 457:-0.159236 458:0.389072 459:-0.356998 460:0.872806 461:0.12044 462:-0.168961 463:0.361188 464:0.343415 465:1 466:0.123876 467:0.548976 468:-0.118782 469:-0.158056 470:-0.027559 471:0.537088 472:1 473:-0.446583 474:0.46839 475:0.0953261 476:-0.626633 477:-0.0704176 478:-0.263597 479:-0.0936721 480:0.44118 481:-0.235992 482:-0.378975 483:0.517384 484:-0.252571 485:-0.207468 486:-0.235799 487:0.582142 488:0.0834163 489:-0.101358 490:-0.0247299 491:-0.455336 492:-0.222562 493:-0.572612 494:0.114542 495:0.303024 496:-0.252445 497:0.731911 498:0.542111 499:0.743582 500:-0.378634 501:-0.290747 502:-0.0962876 503:-0.993984 504:-0.816667 505:-0.0947307 506:0.544386 507:0.00487002 508:0.0622541 509:-0.0692301 510:-0.551481 511:-0.0364436 512:-0.225166 513:-0.0224181 514:0.209687 515:-0.315885 516:-0.213225 517:0.0123657 518:0.431285 519:-0.273755 520:-0.437356 521:0.446338 522:0.309111 523:-0.00491683 524:0.94157 525:-0.576109 526:-0.17014 527:-0.131938 528:-1 529:0.297462 530:0.0614013 531:0.990538 532:0.343136 533:-0.363555 534:-0.327843 535:-0.39078 536:-0.0832524 537:-0.0200778 538:-0.312045 539:-0.00529989 540:-0.189843 541:-0.22377 542:-0.120817 543:0.260589 544:-0.267012 545:0.808499 546:0.0216859 547:0.595696 548:-0.492567 549:0.168902 550:-0.314378 551:0.306992 552:-0.324926 553:-0.0343297 554:-0.467383 555:-1 556:0.439442 557:0.0524488 558:0.199532 559:0.000239194 560:0.293214 561:0.708655 562:-0.362859 563:-0.227978 564:0.268011 565:-0.338528 566:0.0644973 567:0.75762 568:0.0355235 569:0.770718 570:-0.767144 571:0.111604 572:0.527782 573:0.299501 574:-0.239986 575:0.513467 576:0.941456 577:0.0871412 578:-0.520181 579:0.978645 580:-0.0688288 581:0.404705 582:-0.484972 583:-0.588445 584:-0.354973 585:0.288686 586:0.118622 587:-0.44356 588:0.429415 589:0.210082 590:0.418607 591:0.390136 592:-0.0748652 593:0.539953 594:-0.265875 595:-0.30815 596:-0.209142 597:0.00623429 598:0.820244 599:0.494919 600:0.619998 
