~o
<STREAMINFO> 1 25
<VECSIZE> 25<NULLD><MFCC_E_D_N><DIAGC>
~h "jmodel"
<BEGINHMM>
<NUMSTATES> 3
<STATE> 2
<NUMMIXES> 128
<MIXTURE> 1 5.748963e-03
<MEAN> 25
 -2.582157e+00 3.180184e+00 2.310477e+00 8.749446e+00 4.369485e+00 3.448740e+00 4.060899e+00 3.934497e+00 5.830789e+00 5.253962e+00 5.883566e+00 3.079786e+00 -2.003404e+00 -1.633580e+00 -8.630534e-01 1.075628e+00 1.560131e+00 2.231453e+00 2.153222e+00 2.084380e+00 1.693293e+00 1.269428e+00 1.566880e+00 6.133206e-01 -4.688080e-02
<VARIANCE> 25
 1.006064e+01 1.175421e+01 1.493851e+01 1.871555e+01 2.318492e+01 2.213922e+01 2.188832e+01 2.196342e+01 2.098965e+01 2.252526e+01 2.093605e+01 1.707433e+01 1.790258e+00 2.112499e+00 3.026648e+00 3.208245e+00 3.737939e+00 3.356131e+00 3.319267e+00 3.379330e+00 3.519456e+00 3.724404e+00 3.511915e+00 2.832702e+00 3.122568e-03
<GCONST> 8.845863e+01
<MIXTURE> 2 4.549242e-03
<MEAN> 25
 -4.857031e+00 1.317013e+00 9.898892e-01 9.868448e+00 6.683807e+00 7.418694e+00 7.847178e+00 6.957266e+00 8.365818e+00 6.361761e+00 7.603381e+00 3.064703e+00 -6.143325e-02 4.133856e-02 1.418474e-01 2.254397e-01 2.673059e-01 2.836546e-01 2.943451e-01 3.195446e-01 3.470411e-01 3.083138e-01 1.973518e-01 8.028089e-02 -2.402748e-06
<VARIANCE> 25
 7.022088e+00 8.896738e+00 1.062210e+01 1.612507e+01 1.720978e+01 1.553064e+01 1.686424e+01 1.844058e+01 1.654940e+01 1.738341e+01 1.817737e+01 1.433470e+01 1.251552e-01 2.259884e-01 3.355451e-01 4.667976e-01 6.520106e-01 8.138515e-01 9.279099e-01 1.001665e+00 1.052283e+00 1.074397e+00 1.072822e+00 1.012479e+00 1.001673e-06
<GCONST> 5.804317e+01
<MIXTURE> 3 4.549242e-03
<MEAN> 25
 -4.857031e+00 1.317013e+00 9.898892e-01 9.868448e+00 6.683807e+00 7.418694e+00 7.847178e+00 6.957266e+00 8.365818e+00 6.361761e+00 7.603381e+00 3.064703e+00 -6.143325e-02 4.133856e-02 1.418474e-01 2.254397e-01 2.673059e-01 2.836546e-01 2.943451e-01 3.195446e-01 3.470411e-01 3.083138e-01 1.973518e-01 8.028089e-02 -2.402748e-06
<VARIANCE> 25
 7.022088e+00 8.896738e+00 1.062210e+01 1.612507e+01 1.720978e+01 1.553064e+01 1.686424e+01 1.844058e+01 1.654940e+01 1.738341e+01 1.817737e+01 1.433470e+01 1.251552e-01 2.259884e-01 3.355451e-01 4.667976e-01 6.520106e-01 8.138515e-01 9.279099e-01 1.001665e+00 1.052283e+00 1.074397e+00 1.072822e+00 1.012479e+00 1.001673e-06
<GCONST> 5.804317e+01
<MIXTURE> 4 1.671429e-02
<MEAN> 25
 3.439458e+00 2.548789e+00 -3.799787e+00 9.360124e-01 4.321559e+00 -2.101757e-01 7.524429e-02 1.146104e-02 1.502278e+00 1.303695e+00 -1.886047e+00 1.033261e-01 -2.770945e+00 1.218097e+00 1.776772e+00 3.089467e+00 9.221044e-01 5.004780e-01 1.519093e+00 1.042084e+00 9.763417e-01 4.305764e-01 1.240902e+00 8.992896e-01 -1.039449e-01
<VARIANCE> 25
 2.116360e+01 2.950820e+01 2.920093e+01 3.980064e+01 4.571673e+01 6.876118e+01 6.530508e+01 5.375549e+01 5.542625e+01 6.217172e+01 4.976925e+01 3.592046e+01 2.348485e+00 5.053867e+00 3.735478e+00 4.950573e+00 5.017848e+00 6.161831e+00 6.103106e+00 5.578497e+00 5.965112e+00 6.435225e+00 6.117958e+00 4.463541e+00 6.116309e-03
<GCONST> 1.055007e+02
<MIXTURE> 5 3.206198e-03
<MEAN> 25
 -3.399409e+00 2.170745e+00 6.007774e-01 9.385661e+00 6.671715e+00 6.307281e+00 7.100042e+00 4.721505e+00 5.482270e+00 3.831960e+00 4.631213e+00 2.589434e+00 -3.228002e-01 7.528983e-01 1.222671e+00 1.029846e+00 3.071324e-01 -9.957650e-02 -8.204840e-02 3.612175e-02 4.611569e-01 6.791319e-01 3.997257e-01 8.290561e-02 -2.691422e-05
<VARIANCE> 25
 1.028601e+01 1.392808e+01 2.346493e+01 2.596839e+01 2.030302e+01 1.939890e+01 2.008593e+01 2.029289e+01 2.141174e+01 2.126682e+01 2.421077e+01 1.639042e+01 1.206350e+00 1.240055e+00 1.354956e+00 1.669811e+00 2.280803e+00 2.369005e+00 2.295614e+00 2.282933e+00 2.317099e+00 2.240558e+00 2.089351e+00 1.875995e+00 1.004367e-06
<GCONST> 7.517946e+01
<MIXTURE> 6 5.475854e-03
<MEAN> 25
 9.667079e+00 -4.274193e-01 -6.685910e+00 -1.098379e+01 -2.087278e+00 6.714354e+00 -5.837631e+00 -5.308316e+00 -3.656379e+00 1.834905e+00 4.616475e+00 -1.257518e+00 4.835548e-01 8.870391e-01 -3.552090e-01 -1.463266e+00 -6.358334e-01 1.313842e+00 1.526885e+00 2.426239e-01 -1.213009e+00 -1.224997e+00 3.063131e-01 1.209960e+00 -7.968592e-03
<VARIANCE> 25
 9.060776e+00 1.696007e+01 2.378999e+01 3.928379e+01 3.661368e+01 3.049078e+01 4.423772e+01 3.787768e+01 4.044302e+01 3.924440e+01 4.190655e+01 2.820930e+01 3.106723e-01 8.613021e-01 9.447352e-01 1.967500e+00 1.598385e+00 2.004017e+00 1.917459e+00 2.053024e+00 2.386716e+00 1.957483e+00 2.271615e+00 1.477809e+00 5.874650e-04
<GCONST> 8.385739e+01
<MIXTURE> 7 5.475854e-03
<MEAN> 25
 9.667079e+00 -4.274193e-01 -6.685910e+00 -1.098379e+01 -2.087278e+00 6.714354e+00 -5.837631e+00 -5.308316e+00 -3.656379e+00 1.834905e+00 4.616475e+00 -1.257518e+00 4.835548e-01 8.870391e-01 -3.552090e-01 -1.463266e+00 -6.358334e-01 1.313842e+00 1.526885e+00 2.426239e-01 -1.213009e+00 -1.224997e+00 3.063131e-01 1.209960e+00 -7.968592e-03
<VARIANCE> 25
 9.060776e+00 1.696007e+01 2.378999e+01 3.928379e+01 3.661368e+01 3.049078e+01 4.423772e+01 3.787768e+01 4.044302e+01 3.924440e+01 4.190655e+01 2.820930e+01 3.106723e-01 8.613021e-01 9.447352e-01 1.967500e+00 1.598385e+00 2.004017e+00 1.917459e+00 2.053024e+00 2.386716e+00 1.957483e+00 2.271615e+00 1.477809e+00 5.874650e-04
<GCONST> 8.385739e+01
<MIXTURE> 8 1.165917e-02
<MEAN> 25
 -4.723800e+00 1.362091e+00 1.290585e+00 9.546842e+00 6.568477e+00 6.251090e+00 6.476252e+00 5.684014e+00 6.654592e+00 5.631747e+00 6.568616e+00 3.150452e+00 -6.299019e-01 -1.423452e+00 -1.068224e+00 -1.728108e+00 -2.307396e-01 -9.447603e-01 -1.770060e-01 -2.902451e-01 -2.519525e-01 -1.734581e-01 -2.125626e-01 8.203289e-02 9.878772e-02
<VARIANCE> 25
 9.354650e+00 9.835020e+00 1.160105e+01 1.614462e+01 1.664493e+01 1.570511e+01 1.812123e+01 1.751281e+01 1.704833e+01 1.736909e+01 1.886763e+01 1.398932e+01 2.755045e+00 2.815846e+00 3.910075e+00 3.763820e+00 3.452711e+00 3.312708e+00 3.126399e+00 3.078261e+00 2.869696e+00 2.653662e+00 2.432494e+00 1.900042e+00 6.681863e-03
<GCONST> 8.628547e+01
<MIXTURE> 9 1.199672e-02
<MEAN> 25
 9.288528e+00 3.378734e+00 -6.201404e+00 -1.063601e+01 -2.194576e+00 4.961123e+00 -2.187726e+00 -2.309471e+00 -5.383630e+00 -1.224184e+00 5.877383e-01 -1.070769e-02 1.439205e+00 -1.300211e-01 -4.983471e-01 -2.693989e+00 -1.634217e+00 8.608722e-01 -9.649963e-01 -2.381295e-01 -1.813477e-01 -5.815102e-01 6.110707e-01 -1.583075e-01 7.315745e-02
<VARIANCE> 25
 1.220993e+01 2.136696e+01 3.342586e+01 5.361885e+01 5.003469e+01 3.216778e+01 4.310850e+01 5.197088e+01 4.192369e+01 4.166031e+01 3.604634e+01 2.681169e+01 2.080683e+00 2.440818e+00 4.564984e+00 4.880512e+00 5.024263e+00 4.088097e+00 4.233295e+00 6.030338e+00 5.017672e+00 4.067988e+00 4.004034e+00 2.799697e+00 2.211569e-03
<GCONST> 9.874909e+01
<MIXTURE> 10 6.596976e-03
<MEAN> 25
 8.210059e-01 7.634367e+00 5.375957e+00 7.148989e+00 1.587359e+00 -2.115164e+00 -5.181956e-01 -1.685375e+00 8.743564e-01 8.599326e-01 8.390179e-01 6.573990e-01 -1.924940e+00 -6.733400e-01 -4.585977e-01 3.028214e+00 2.463276e+00 2.710474e+00 2.373911e+00 2.277892e+00 1.861639e+00 1.545136e+00 2.335875e+00 5.248725e-01 -1.381432e-01
<VARIANCE> 25
 1.954187e+01 2.068566e+01 2.230444e+01 2.906123e+01 3.831321e+01 3.494081e+01 3.514595e+01 3.384125e+01 2.761283e+01 2.904954e+01 2.695905e+01 2.501452e+01 2.234845e+00 3.426175e+00 5.535602e+00 5.169560e+00 5.552354e+00 4.469520e+00 4.699816e+00 4.843578e+00 4.388601e+00 5.021101e+00 4.442219e+00 3.191094e+00 2.696751e-03
<GCONST> 9.745956e+01
<MIXTURE> 11 1.633820e-02
<MEAN> 25
 6.303259e+00 3.458886e+00 3.014569e+00 4.058348e+00 -2.738611e+00 -1.739533e+00 -2.225903e+00 -5.724047e+00 -3.499555e+00 -6.783684e-02 -2.501142e+00 -2.471068e+00 -1.499500e-01 4.894598e-01 1.323161e-01 2.895565e-01 4.665035e-01 -8.631068e-02 2.415648e-01 -2.212098e-01 -2.638770e-01 -5.303873e-02 -1.793686e-01 6.292047e-02 -1.550348e-02
<VARIANCE> 25
 1.554636e+01 2.157027e+01 1.741167e+01 2.919721e+01 3.282917e+01 3.256411e+01 4.085733e+01 3.867118e+01 3.662003e+01 3.009167e+01 2.872869e+01 2.545784e+01 1.001651e+00 1.082409e+00 1.458007e+00 1.943237e+00 1.822044e+00 1.888628e+00 1.861643e+00 2.506665e+00 1.968409e+00 1.744943e+00 1.765665e+00 1.573995e+00 9.403726e-04
<GCONST> 8.511809e+01
<MIXTURE> 12 5.904134e-03
<MEAN> 25
 1.073604e+01 3.717775e+00 -4.509700e+00 -1.594013e+01 -8.660606e+00 8.622371e+00 -8.758944e-01 -1.915417e+00 -1.733147e+00 -4.881637e+00 1.747787e+00 7.018377e-01 6.629048e-02 2.918531e-01 7.924261e-02 -3.684148e-01 -3.109912e-01 2.905305e-02 3.046297e-01 4.505717e-01 1.399149e-01 -3.872102e-01 -3.866908e-01 5.712141e-02 -6.297546e-03
<VARIANCE> 25
 9.015696e+00 2.103405e+01 2.326528e+01 3.543964e+01 4.211563e+01 3.092941e+01 4.173475e+01 4.878638e+01 4.389127e+01 3.724592e+01 3.796788e+01 2.884759e+01 2.461962e-01 6.860018e-01 6.860493e-01 1.166926e+00 1.183205e+00 1.049679e+00 1.168870e+00 1.392486e+00 1.237987e+00 1.232761e+00 1.224429e+00 9.609299e-01 5.762068e-04
<GCONST> 7.892499e+01
<MIXTURE> 13 5.904134e-03
<MEAN> 25
 1.073604e+01 3.717775e+00 -4.509700e+00 -1.594013e+01 -8.660606e+00 8.622371e+00 -8.758944e-01 -1.915417e+00 -1.733147e+00 -4.881637e+00 1.747787e+00 7.018377e-01 6.629048e-02 2.918531e-01 7.924261e-02 -3.684148e-01 -3.109912e-01 2.905305e-02 3.046297e-01 4.505717e-01 1.399149e-01 -3.872102e-01 -3.866908e-01 5.712141e-02 -6.297546e-03
<VARIANCE> 25
 9.015696e+00 2.103405e+01 2.326528e+01 3.543964e+01 4.211563e+01 3.092941e+01 4.173475e+01 4.878638e+01 4.389127e+01 3.724592e+01 3.796788e+01 2.884759e+01 2.461962e-01 6.860018e-01 6.860493e-01 1.166926e+00 1.183205e+00 1.049679e+00 1.168870e+00 1.392486e+00 1.237987e+00 1.232761e+00 1.224429e+00 9.609299e-01 5.762068e-04
<GCONST> 7.892499e+01
<MIXTURE> 14 6.488954e-03
<MEAN> 25
 -4.226719e+00 -3.603100e-01 -2.977215e-01 8.670666e+00 7.349755e+00 7.276713e+00 7.718950e+00 7.276583e+00 7.223633e+00 5.304959e+00 6.814268e+00 4.074667e+00 -2.781378e-01 1.976379e-01 3.872749e-01 3.182862e-01 6.995803e-03 5.783105e-02 1.011724e-01 1.648421e-01 3.099096e-01 5.387572e-01 5.063126e-01 8.033258e-02 -8.732847e-03
<VARIANCE> 25
 9.371369e+00 1.356085e+01 1.822154e+01 1.963550e+01 2.142736e+01 1.960391e+01 2.156123e+01 2.039586e+01 1.985610e+01 2.404457e+01 2.103078e+01 1.578598e+01 9.610892e-01 1.610398e+00 1.775043e+00 1.901803e+00 2.206402e+00 2.208942e+00 2.208500e+00 2.215517e+00 2.242623e+00 2.457516e+00 2.151547e+00 1.781892e+00 1.032989e-03
<GCONST> 8.177233e+01
<MIXTURE> 15 2.475190e-03
<MEAN> 25
 -5.080880e+00 -5.987611e-01 -1.998792e-01 6.968424e+00 5.471072e+00 5.430131e+00 5.826447e+00 4.878765e+00 5.038321e+00 4.098615e+00 5.247972e+00 2.377358e+00 -1.207799e-01 -2.948782e-02 7.712693e-02 2.491894e-01 4.787554e-01 7.946818e-01 1.059741e+00 1.182768e+00 1.073775e+00 7.616192e-01 4.023747e-01 1.345084e-01 5.125456e-05
<VARIANCE> 25
 8.150517e+00 5.441023e+00 8.608706e+00 1.437059e+01 1.437220e+01 1.462765e+01 1.497827e+01 1.448960e+01 1.393884e+01 1.375447e+01 1.557493e+01 1.259960e+01 1.257096e-01 2.047989e-01 3.110816e-01 4.978569e-01 7.037499e-01 7.772210e-01 7.660876e-01 7.661335e-01 9.075219e-01 1.028342e+00 1.057429e+00 1.019478e+00 2.937605e-05
<GCONST> 5.873039e+01
<MIXTURE> 16 2.475190e-03
<MEAN> 25
 -5.080880e+00 -5.987611e-01 -1.998792e-01 6.968424e+00 5.471072e+00 5.430131e+00 5.826447e+00 4.878765e+00 5.038321e+00 4.098615e+00 5.247972e+00 2.377358e+00 -1.207799e-01 -2.948782e-02 7.712693e-02 2.491894e-01 4.787554e-01 7.946818e-01 1.059741e+00 1.182768e+00 1.073775e+00 7.616192e-01 4.023747e-01 1.345084e-01 5.125456e-05
<VARIANCE> 25
 8.150517e+00 5.441023e+00 8.608706e+00 1.437059e+01 1.437220e+01 1.462765e+01 1.497827e+01 1.448960e+01 1.393884e+01 1.375447e+01 1.557493e+01 1.259960e+01 1.257096e-01 2.047989e-01 3.110816e-01 4.978569e-01 7.037499e-01 7.772210e-01 7.660876e-01 7.661335e-01 9.075219e-01 1.028342e+00 1.057429e+00 1.019478e+00 2.937605e-05
<GCONST> 5.873039e+01
<MIXTURE> 17 9.518312e-03
<MEAN> 25
 3.685623e+00 -7.979408e-01 6.318887e+00 2.351576e+00 -5.915613e+00 -6.328855e+00 -3.147928e+00 -1.556877e-01 -2.646771e+00 -3.245692e+00 2.244562e-02 -6.694093e-02 -7.719691e-01 -1.201386e+00 1.294006e+00 -2.106529e+00 -2.328486e+00 -1.576023e-01 1.718965e-01 7.297928e-01 -2.734699e-01 -1.786401e-01 1.023847e+00 3.994953e-01 8.160668e-02
<VARIANCE> 25
 1.660075e+01 3.112650e+01 3.008514e+01 3.910744e+01 4.462805e+01 4.839801e+01 4.168826e+01 3.384428e+01 3.519439e+01 2.669848e+01 2.781283e+01 2.787356e+01 1.824135e+00 2.687948e+00 3.958595e+00 3.073025e+00 4.121263e+00 5.399496e+00 4.933812e+00 4.777661e+00 4.036113e+00 3.981973e+00 3.026397e+00 2.697202e+00 2.139638e-03
<GCONST> 9.677375e+01
<MIXTURE> 18 1.221018e-02
<MEAN> 25
 3.950341e+00 4.618319e+00 6.742632e+00 4.737831e+00 -4.611715e+00 -8.353210e+00 -1.743088e+00 -1.171595e+00 -3.370197e+00 -2.453483e+00 -8.824991e-01 5.747132e-01 -7.607012e-01 2.160082e+00 -1.995911e-01 2.031350e+00 3.115733e+00 1.484252e+00 8.037564e-01 -2.106612e-01 6.175691e-01 5.182513e-01 -2.904964e-01 -6.236937e-02 -1.238160e-01
<VARIANCE> 25
 1.609300e+01 2.532622e+01 3.288710e+01 2.616848e+01 4.002734e+01 3.368602e+01 3.865392e+01 3.510117e+01 3.917655e+01 3.451356e+01 3.251589e+01 3.096259e+01 2.563389e+00 3.033421e+00 4.732715e+00 4.048587e+00 4.093249e+00 4.669357e+00 4.654326e+00 4.452998e+00 4.488763e+00 4.312500e+00 4.568504e+00 3.626624e+00 4.113236e-03
<GCONST> 9.852091e+01
<MIXTURE> 19 9.912824e-03
<MEAN> 25
 -9.687434e+00 1.697900e+00 3.303074e-01 1.012388e+00 3.740878e+00 1.536232e+00 3.249699e+00 1.066655e+00 2.042255e+00 1.154527e+00 1.066998e+00 1.919493e+00 2.004019e+00 1.684541e+00 2.100003e+00 7.194400e-01 -1.013163e+00 -9.810398e-01 -1.010296e+00 -1.390095e+00 -1.498286e+00 -1.144393e+00 -8.504077e-01 -8.074884e-01 7.978603e-04
<VARIANCE> 25
 5.506784e+01 2.923128e+01 4.619827e+01 5.124677e+01 3.380585e+01 3.161231e+01 3.065804e+01 2.879916e+01 2.839620e+01 2.648397e+01 2.906218e+01 1.938285e+01 2.461141e+00 2.212331e+00 2.219167e+00 2.291595e+00 2.524830e+00 2.195036e+00 2.386953e+00 2.366261e+00 2.040803e+00 1.993176e+00 2.204458e+00 1.746012e+00 2.322537e-03
<GCONST> 9.126491e+01
<MIXTURE> 20 6.308331e-03
<MEAN> 25
 -1.418142e+01 7.416195e+00 8.452269e-01 6.152209e+00 4.843561e+00 1.637033e+00 5.209327e+00 8.536176e-01 9.223497e-01 7.987006e-01 2.568576e+00 -3.024393e-01 -3.285934e+00 -8.668811e-01 -1.565160e+00 3.325799e-01 1.541035e+00 2.063115e+00 1.979233e+00 2.056185e+00 2.144587e+00 2.040222e+00 1.684737e+00 9.453116e-01 4.732127e-02
<VARIANCE> 25
 1.966352e+01 2.345546e+01 3.096044e+01 3.717694e+01 3.084958e+01 2.789063e+01 2.993295e+01 3.147594e+01 2.796413e+01 2.821401e+01 2.515962e+01 2.091763e+01 2.092043e+00 2.182245e+00 1.909941e+00 2.541346e+00 2.702739e+00 2.313185e+00 2.310108e+00 2.320078e+00 2.235426e+00 2.652309e+00 2.241421e+00 1.865647e+00 1.886409e-03
<GCONST> 8.921893e+01
<MIXTURE> 21 7.928653e-03
<MEAN> 25
 3.913770e+00 -4.472813e+00 5.669232e+00 -1.545980e+00 -1.048802e+01 -8.686583e+00 -2.627856e+00 4.066999e+00 -1.981689e+00 -3.384711e+00 2.099023e-01 3.006667e-01 -6.924433e-01 1.318810e+00 2.548415e+00 -5.128636e-02 -1.541000e+00 3.474441e-01 5.622655e-01 -1.465790e+00 -1.973301e+00 2.846693e-01 1.315394e+00 2.604314e-01 -1.280050e-02
<VARIANCE> 25
 9.150840e+00 1.853823e+01 2.966767e+01 2.787597e+01 2.850432e+01 3.291132e+01 4.218379e+01 3.921800e+01 4.257983e+01 3.107297e+01 3.328349e+01 2.293132e+01 4.091173e-01 9.584384e-01 1.903671e+00 1.272553e+00 2.191038e+00 2.160909e+00 3.612241e+00 2.526692e+00 2.143148e+00 2.600688e+00 1.995278e+00 2.264554e+00 4.232017e-04
<GCONST> 8.505205e+01
<MIXTURE> 22 8.827789e-03
<MEAN> 25
 -1.791981e+01 7.154819e+00 -4.130835e+00 7.390845e+00 4.602711e+00 2.759811e+00 8.400190e+00 1.746939e+00 5.379428e+00 3.299916e+00 5.715961e+00 1.184803e+00 -3.097070e-01 -2.075716e-01 -1.255522e-01 -1.492309e-01 -7.229717e-03 1.367213e-01 1.807656e-01 1.777759e-01 2.485574e-01 2.071045e-01 1.726882e-01 1.925211e-01 8.860254e-03
<VARIANCE> 25
 8.125648e+00 1.682345e+01 1.738345e+01 2.519077e+01 2.289380e+01 2.084667e+01 1.942995e+01 1.872727e+01 1.813785e+01 2.087386e+01 1.924127e+01 1.378659e+01 1.090798e+00 1.357207e+00 1.363803e+00 1.571845e+00 1.408651e+00 1.527286e+00 1.508784e+00 1.532900e+00 1.614133e+00 1.544928e+00 1.357255e+00 1.167919e+00 1.745469e-03
<GCONST> 7.831200e+01
<MIXTURE> 23 6.455497e-03
<MEAN> 25
 5.674152e+00 1.754429e+00 2.024848e+00 1.465500e+00 -3.532228e+00 -2.483599e+00 -3.489316e+00 -5.528656e+00 -3.269135e+00 -1.378425e+00 -3.394962e+00 -2.090065e+00 4.529254e-02 1.250969e-01 5.918300e-02 4.173848e-02 -4.080304e-02 2.326481e-03 2.860411e-02 -3.086804e-02 -8.088474e-03 3.275547e-02 2.520490e-02 4.437566e-02 -3.676061e-03
<VARIANCE> 25
 1.490215e+01 1.638004e+01 1.944099e+01 3.120376e+01 3.081092e+01 4.113540e+01 4.580779e+01 4.417574e+01 3.947196e+01 3.733227e+01 3.829903e+01 3.235323e+01 1.112646e-01 2.818598e-01 3.706734e-01 4.563248e-01 6.481418e-01 6.835175e-01 7.266635e-01 8.575438e-01 9.188411e-01 9.594131e-01 8.830208e-01 7.188680e-01 8.916064e-05
<GCONST> 7.059544e+01
<MIXTURE> 24 6.455497e-03
<MEAN> 25
 5.674152e+00 1.754429e+00 2.024848e+00 1.465500e+00 -3.532228e+00 -2.483599e+00 -3.489316e+00 -5.528656e+00 -3.269135e+00 -1.378425e+00 -3.394962e+00 -2.090065e+00 4.529254e-02 1.250969e-01 5.918300e-02 4.173848e-02 -4.080304e-02 2.326481e-03 2.860411e-02 -3.086804e-02 -8.088474e-03 3.275547e-02 2.520490e-02 4.437566e-02 -3.676061e-03
<VARIANCE> 25
 1.490215e+01 1.638004e+01 1.944099e+01 3.120376e+01 3.081092e+01 4.113540e+01 4.580779e+01 4.417574e+01 3.947196e+01 3.733227e+01 3.829903e+01 3.235323e+01 1.112646e-01 2.818598e-01 3.706734e-01 4.563248e-01 6.481418e-01 6.835175e-01 7.266635e-01 8.575438e-01 9.188411e-01 9.594131e-01 8.830208e-01 7.188680e-01 8.916064e-05
<GCONST> 7.059544e+01
<MIXTURE> 25 1.118642e-02
<MEAN> 25
 2.638151e-01 3.432033e+00 1.656689e+01 -1.014769e+00 -1.118107e+01 -1.737078e+00 -4.916886e+00 -2.954275e+00 -6.884692e+00 -5.391838e+00 4.039973e+00 -1.676042e+00 -1.306471e-01 4.340678e-01 1.672878e-01 1.530286e-01 2.142660e-01 1.054115e-01 1.970540e-01 -1.705167e-01 -2.573801e-01 7.857223e-02 -6.864934e-02 -1.094505e-01 -1.279467e-02
<VARIANCE> 25
 8.793901e+00 2.200055e+01 2.333177e+01 2.826506e+01 3.249687e+01 4.048451e+01 2.735985e+01 2.966036e+01 2.824563e+01 3.626288e+01 2.122367e+01 2.738540e+01 5.975620e-01 1.431714e+00 1.388294e+00 1.370508e+00 2.263088e+00 2.028739e+00 1.725752e+00 1.624706e+00 1.531454e+00 1.645285e+00 1.343044e+00 1.298525e+00 1.266996e-03
<GCONST> 8.273286e+01
<MIXTURE> 26 7.727677e-03
<MEAN> 25
 2.183527e+00 -6.367709e+00 -1.029780e+01 -7.430519e-01 7.861091e+00 5.475805e+00 4.061656e+00 -2.623735e-01 2.205788e+00 -9.461449e-01 -2.858612e+00 -9.654165e-01 -6.494386e-01 6.199590e-01 3.640935e-01 6.954032e-01 1.770745e-01 2.411309e-01 2.965365e-01 3.366582e-01 2.970074e-01 8.522691e-02 3.859906e-01 4.260180e-01 -5.197374e-02
<VARIANCE> 25
 2.478252e+01 3.389120e+01 2.597322e+01 6.156780e+01 3.965173e+01 4.194987e+01 4.557826e+01 4.344438e+01 3.912886e+01 5.369581e+01 3.963497e+01 4.627199e+01 1.636628e+00 1.938267e+00 1.906094e+00 1.983432e+00 2.292532e+00 2.338711e+00 2.498523e+00 2.734283e+00 2.316545e+00 2.353075e+00 2.188618e+00 1.995964e+00 3.317958e-03
<GCONST> 9.377634e+01
<MIXTURE> 27 7.727677e-03
<MEAN> 25
 2.183527e+00 -6.367709e+00 -1.029780e+01 -7.430519e-01 7.861091e+00 5.475805e+00 4.061656e+00 -2.623735e-01 2.205788e+00 -9.461449e-01 -2.858612e+00 -9.654165e-01 -6.494386e-01 6.199590e-01 3.640935e-01 6.954032e-01 1.770745e-01 2.411309e-01 2.965365e-01 3.366582e-01 2.970074e-01 8.522691e-02 3.859906e-01 4.260180e-01 -5.197374e-02
<VARIANCE> 25
 2.478252e+01 3.389120e+01 2.597322e+01 6.156780e+01 3.965173e+01 4.194987e+01 4.557826e+01 4.344438e+01 3.912886e+01 5.369581e+01 3.963497e+01 4.627199e+01 1.636628e+00 1.938267e+00 1.906094e+00 1.983432e+00 2.292532e+00 2.338711e+00 2.498523e+00 2.734283e+00 2.316545e+00 2.353075e+00 2.188618e+00 1.995964e+00 3.317958e-03
<GCONST> 9.377634e+01
<MIXTURE> 28 5.036674e-03
<MEAN> 25
 -4.355531e+00 2.252943e-02 -1.253422e+00 5.267920e+00 4.351774e+00 3.177465e+00 4.770755e+00 2.933209e+00 3.486741e+00 1.866717e+00 2.046092e+00 2.652892e+00 -9.623221e-02 2.342751e-01 5.565047e-01 7.978975e-01 8.407065e-01 7.656966e-01 5.715501e-01 4.387106e-01 5.505284e-01 5.519571e-01 3.700110e-01 1.626277e-01 -1.474303e-05
<VARIANCE> 25
 1.248664e+01 7.439130e+00 1.092561e+01 1.818755e+01 1.509758e+01 1.632216e+01 1.700729e+01 1.706310e+01 1.661975e+01 1.567172e+01 1.993988e+01 1.485902e+01 2.288409e-01 3.099882e-01 4.240058e-01 4.468730e-01 5.789897e-01 7.924998e-01 1.046185e+00 1.111506e+00 1.100286e+00 1.055091e+00 9.568098e-01 9.806387e-01 1.048545e-06
<GCONST> 5.958136e+01
<MIXTURE> 29 5.036674e-03
<MEAN> 25
 -4.355531e+00 2.252943e-02 -1.253422e+00 5.267920e+00 4.351774e+00 3.177465e+00 4.770755e+00 2.933209e+00 3.486741e+00 1.866717e+00 2.046092e+00 2.652892e+00 -9.623221e-02 2.342751e-01 5.565047e-01 7.978975e-01 8.407065e-01 7.656966e-01 5.715501e-01 4.387106e-01 5.505284e-01 5.519571e-01 3.700110e-01 1.626277e-01 -1.474303e-05
<VARIANCE> 25
 1.248664e+01 7.439130e+00 1.092561e+01 1.818755e+01 1.509758e+01 1.632216e+01 1.700729e+01 1.706310e+01 1.661975e+01 1.567172e+01 1.993988e+01 1.485902e+01 2.288409e-01 3.099882e-01 4.240058e-01 4.468730e-01 5.789897e-01 7.924998e-01 1.046185e+00 1.111506e+00 1.100286e+00 1.055091e+00 9.568098e-01 9.806387e-01 1.048545e-06
<GCONST> 5.958136e+01
<MIXTURE> 30 8.917812e-03
<MEAN> 25
 -4.342849e+00 -1.609114e-01 6.431339e-01 8.856443e+00 7.650805e+00 7.377889e+00 7.459288e+00 6.810112e+00 6.427505e+00 4.818252e+00 6.818716e+00 3.368275e+00 -1.838868e-02 2.582409e-02 5.796810e-02 8.847711e-02 8.336872e-02 5.705434e-02 1.832149e-02 -2.526856e-03 8.926828e-03 3.334041e-02 4.302313e-02 3.340194e-02 -6.172701e-04
<VARIANCE> 25
 7.321602e+00 9.655715e+00 1.011841e+01 1.481173e+01 1.611381e+01 1.660682e+01 1.910559e+01 1.792703e+01 1.627258e+01 1.813661e+01 2.178489e+01 1.468206e+01 9.813298e-02 2.001091e-01 3.218259e-01 4.800558e-01 6.213188e-01 7.243108e-01 7.617915e-01 8.013384e-01 8.813793e-01 9.419167e-01 9.205580e-01 8.653535e-01 5.191725e-05
<GCONST> 6.072684e+01
<MIXTURE> 31 4.136493e-03
<MEAN> 25
 -2.218045e+00 -3.689769e+00 8.535592e-02 3.418830e+00 2.491944e+00 1.407121e+00 3.793024e+00 5.431124e+00 2.472125e+00 1.332725e+00 4.760633e+00 2.321514e+00 4.175082e-01 5.352150e-01 -2.340339e-01 1.706655e-01 6.941293e-02 3.301275e-01 1.663146e-01 -2.322312e-04 4.839955e-01 4.205359e-01 1.796569e-01 5.229177e-02 -1.711421e-02
<VARIANCE> 25
 6.340736e+00 1.532215e+01 1.239398e+01 1.593204e+01 1.925096e+01 1.822760e+01 2.049598e+01 2.206240e+01 2.047537e+01 2.116895e+01 1.964340e+01 1.545750e+01 2.199814e-01 4.940636e-01 6.072044e-01 7.099734e-01 8.527764e-01 9.754308e-01 9.842297e-01 1.376521e+00 1.230604e+00 1.141782e+00 1.081440e+00 1.036218e+00 2.797531e-04
<GCONST> 6.890212e+01
<MIXTURE> 32 4.136493e-03
<MEAN> 25
 -2.218045e+00 -3.689769e+00 8.535592e-02 3.418830e+00 2.491944e+00 1.407121e+00 3.793024e+00 5.431124e+00 2.472125e+00 1.332725e+00 4.760633e+00 2.321514e+00 4.175082e-01 5.352150e-01 -2.340339e-01 1.706655e-01 6.941293e-02 3.301275e-01 1.663146e-01 -2.322312e-04 4.839955e-01 4.205359e-01 1.796569e-01 5.229177e-02 -1.711421e-02
<VARIANCE> 25
 6.340736e+00 1.532215e+01 1.239398e+01 1.593204e+01 1.925096e+01 1.822760e+01 2.049598e+01 2.206240e+01 2.047537e+01 2.116895e+01 1.964340e+01 1.545750e+01 2.199814e-01 4.940636e-01 6.072044e-01 7.099734e-01 8.527764e-01 9.754308e-01 9.842297e-01 1.376521e+00 1.230604e+00 1.141782e+00 1.081440e+00 1.036218e+00 2.797531e-04
<GCONST> 6.890212e+01
<MIXTURE> 33 1.508826e-02
<MEAN> 25
 6.533733e+00 -3.944661e+00 -2.238130e+00 -2.600667e+00 -1.912503e+00 -5.496137e+00 -7.066083e+00 1.705371e+00 2.237778e+00 -3.730768e-01 -4.536476e+00 -2.903192e+00 6.635450e-01 -1.159020e+00 -2.425426e+00 -1.838449e+00 1.454746e+00 1.415142e+00 -7.374535e-01 6.002528e-01 9.857246e-01 5.381998e-01 -2.940632e-01 -1.333586e+00 3.726605e-02
<VARIANCE> 25
 9.967179e+00 2.091957e+01 2.844329e+01 3.539586e+01 3.990304e+01 4.395325e+01 4.421999e+01 4.606096e+01 4.000872e+01 4.341043e+01 3.562664e+01 2.841373e+01 1.148341e+00 1.910532e+00 2.173514e+00 2.187476e+00 4.137053e+00 3.384037e+00 4.272150e+00 5.718101e+00 3.779651e+00 4.351602e+00 3.331784e+00 2.554238e+00 1.456913e-03
<GCONST> 9.425949e+01
<MIXTURE> 34 1.588179e-02
<MEAN> 25
 8.920415e+00 4.667695e-02 1.335102e-01 1.213549e+00 -2.943546e+00 -1.521673e+00 -6.150385e+00 -4.687840e+00 -1.806148e+00 1.537186e-01 -2.652050e+00 -3.697940e+00 -1.647730e-02 1.346283e+00 1.473341e+00 2.395461e+00 -4.103712e-02 -1.529994e-01 7.901006e-01 -1.641360e+00 -9.016633e-01 2.582417e-01 -5.566461e-01 2.435623e-01 -6.235592e-02
<VARIANCE> 25
 7.715184e+00 3.102363e+01 2.942682e+01 4.989725e+01 4.235505e+01 4.943196e+01 5.498438e+01 5.669057e+01 5.263954e+01 4.323834e+01 4.831306e+01 3.151663e+01 1.264189e+00 1.982900e+00 4.267554e+00 4.052207e+00 5.630379e+00 5.831081e+00 5.509503e+00 6.163156e+00 5.197752e+00 4.979481e+00 5.023069e+00 3.878950e+00 1.153680e-03
<GCONST> 9.971059e+01
<MIXTURE> 35 1.467755e-02
<MEAN> 25
 -2.139860e+00 -5.231264e+00 -9.959126e+00 2.120299e-01 9.680642e+00 7.971214e-01 1.611488e+00 2.540025e+00 1.456691e+00 4.578125e+00 5.342651e-02 1.876659e+00 5.418453e-01 -1.108965e+00 -1.425086e+00 -1.383575e+00 4.120130e-01 -7.988175e-01 -6.710073e-01 -1.405746e-01 -1.581564e-01 1.582292e-01 -6.475573e-01 -4.971683e-01 1.076126e-01
<VARIANCE> 25
 1.958489e+01 2.945136e+01 4.342375e+01 6.216431e+01 4.220662e+01 5.727648e+01 5.085758e+01 4.348344e+01 5.032011e+01 3.839700e+01 3.647258e+01 3.088534e+01 3.470226e+00 3.585470e+00 6.763377e+00 5.540681e+00 5.206471e+00 5.566123e+00 4.953388e+00 4.750291e+00 5.042212e+00 4.515148e+00 4.069411e+00 3.784870e+00 5.293069e-03
<GCONST> 1.035784e+02
<MIXTURE> 36 1.093293e-02
<MEAN> 25
 4.422482e+00 -3.076307e+00 6.190966e+00 2.257033e+00 -9.105201e+00 -7.991004e+00 -5.657855e+00 2.669065e+00 -1.861541e+00 -4.127212e+00 2.330057e+00 -3.246586e-01 4.180791e-01 1.615919e-01 -8.537556e-01 5.508460e-03 7.826124e-01 6.804607e-02 -4.088207e-01 1.905812e-02 3.089696e-01 4.892684e-01 -4.299883e-01 -3.193229e-01 -1.699188e-02
<VARIANCE> 25
 1.073023e+01 1.591222e+01 2.369713e+01 2.563666e+01 3.408872e+01 3.409302e+01 4.296401e+01 3.279416e+01 3.556905e+01 3.055936e+01 2.605432e+01 2.410967e+01 4.768216e-01 6.950741e-01 1.388741e+00 1.162453e+00 1.580255e+00 1.522370e+00 1.977745e+00 1.691275e+00 2.032921e+00 1.667986e+00 1.359471e+00 1.389565e+00 6.833361e-04
<GCONST> 8.126759e+01
<MIXTURE> 37 1.246826e-02
<MEAN> 25
 5.447680e-01 7.769692e+00 1.205184e+01 -5.551969e+00 -8.026626e+00 -1.052748e+00 -5.079208e+00 -8.321589e+00 -3.711335e+00 -9.079591e-01 -3.668684e+00 -1.294040e+00 1.827767e-01 6.467745e-01 -1.352938e+00 3.582145e+00 1.987034e+00 -3.004533e-01 1.091013e+00 4.360703e-01 5.273055e-01 -3.230433e-01 5.371246e-01 -9.751436e-02 -9.488980e-02
<VARIANCE> 25
 1.592288e+01 2.599902e+01 3.087660e+01 5.099605e+01 3.394958e+01 3.199613e+01 4.396204e+01 3.504748e+01 3.859475e+01 3.594912e+01 3.773252e+01 3.088307e+01 2.955463e+00 3.414278e+00 3.018469e+00 4.094033e+00 4.617065e+00 3.751531e+00 4.206218e+00 3.809446e+00 3.449244e+00 3.620054e+00 3.868790e+00 2.791806e+00 3.930347e-03
<GCONST> 9.777809e+01
<MIXTURE> 38 1.154525e-02
<MEAN> 25
 -4.466814e+00 8.957859e+00 4.588480e+00 3.221775e+00 8.503658e-01 -5.210927e+00 -5.989816e-01 -2.739624e+00 -2.853366e+00 -3.092957e+00 -1.488751e+00 -5.436376e-01 -4.513130e+00 1.252137e+00 -3.109393e-01 1.450689e+00 2.560697e+00 1.385993e+00 2.051951e+00 9.465993e-01 7.865623e-01 6.328310e-01 1.003260e+00 3.257263e-01 4.867435e-02
<VARIANCE> 25
 3.138721e+01 2.964665e+01 3.901256e+01 3.299168e+01 4.876485e+01 3.556745e+01 3.637388e+01 4.161375e+01 3.484784e+01 3.250331e+01 2.425113e+01 2.869264e+01 2.361866e+00 3.934263e+00 3.901537e+00 5.160450e+00 4.242275e+00 5.031085e+00 4.777883e+00 4.657081e+00 4.439463e+00 4.940028e+00 4.381857e+00 3.257699e+00 2.051881e-03
<GCONST> 9.925307e+01
<MIXTURE> 39 9.501865e-03
<MEAN> 25
 1.225286e+00 2.394459e+00 9.812016e+00 -8.803172e+00 -1.080823e+01 -1.089400e+00 -3.055867e+00 -6.446181e+00 -4.514205e+00 6.972823e-01 -3.697443e+00 -2.463749e+00 -7.593141e-01 1.461774e+00 1.587192e+00 -1.337922e+00 1.053219e-01 1.168510e+00 -1.181330e+00 -1.306937e+00 4.133740e-01 4.273778e-01 -4.745406e-01 1.274523e-01 3.048791e-03
<VARIANCE> 25
 8.789492e+00 2.981627e+01 3.353141e+01 4.009893e+01 4.026916e+01 4.111335e+01 4.286969e+01 3.252401e+01 3.784921e+01 3.242863e+01 3.463061e+01 2.889308e+01 6.915215e-01 1.560641e+00 1.478055e+00 2.871528e+00 2.334937e+00 2.762787e+00 2.948284e+00 2.770402e+00 2.367567e+00 2.523458e+00 2.063815e+00 2.015729e+00 1.206637e-03
<GCONST> 8.937179e+01
<MIXTURE> 40 1.030800e-02
<MEAN> 25
 -6.009703e+00 1.587464e+00 -6.658704e-01 5.244538e+00 2.656763e+00 4.533203e+00 4.400029e+00 3.888259e+00 4.406366e+00 4.178276e+00 4.443075e+00 1.386093e+00 -7.180165e-02 -1.434704e-01 1.011305e-01 -1.227109e-01 -1.364426e-01 -8.216483e-02 8.784785e-02 6.814339e-02 8.949261e-02 5.275412e-02 8.364423e-02 6.239514e-02 3.950868e-03
<VARIANCE> 25
 3.951546e+01 1.428788e+01 2.009671e+01 2.880540e+01 1.985602e+01 1.614695e+01 1.674947e+01 1.543711e+01 1.530785e+01 1.825352e+01 1.652531e+01 1.404752e+01 7.691668e-01 6.473005e-01 1.037539e+00 9.398181e-01 1.088049e+00 1.035223e+00 1.051096e+00 1.143009e+00 1.095388e+00 1.044582e+00 9.494542e-01 9.325557e-01 7.871737e-04
<GCONST> 7.349546e+01
<MIXTURE> 41 6.713375e-03
<MEAN> 25
 1.307335e+00 1.783297e+00 1.047260e+01 -6.959708e+00 -1.046853e+01 -3.856993e+00 -2.486326e+00 -5.042051e+00 -4.654311e+00 2.660647e+00 -1.745998e+00 -9.535611e-01 7.758999e-02 -7.603791e-01 1.696434e+00 -3.557637e+00 -2.459888e+00 -1.132574e-01 -5.065686e-01 -3.577978e-01 -8.268812e-01 1.086206e+00 -1.045177e+00 8.319286e-02 8.626191e-02
<VARIANCE> 25
 1.169175e+01 2.964802e+01 3.262925e+01 4.003557e+01 3.870440e+01 4.014425e+01 3.712690e+01 2.986430e+01 3.308249e+01 2.877370e+01 3.184329e+01 2.718577e+01 3.177742e+00 3.310086e+00 3.823545e+00 3.799101e+00 4.905214e+00 5.872156e+00 4.713248e+00 4.558404e+00 3.975060e+00 4.219412e+00 3.832785e+00 3.222086e+00 2.931251e-03
<GCONST> 9.790961e+01
<MIXTURE> 42 1.106211e-02
<MEAN> 25
 -1.918691e+00 4.536567e+00 4.643159e+00 2.855347e+00 1.847145e-01 -6.271893e+00 -9.869645e-01 -1.867351e+00 -1.518302e+00 -1.233976e+00 -2.280806e+00 1.251180e+00 4.164573e+00 -3.490700e-01 1.517856e+00 1.976532e-01 -2.947978e+00 -1.147803e+00 -2.246073e+00 -8.125976e-01 -7.924017e-01 -7.316570e-01 5.301476e-01 -1.052239e+00 9.320349e-03
<VARIANCE> 25
 3.607153e+01 2.119501e+01 4.651123e+01 2.614940e+01 3.914759e+01 3.902017e+01 3.707328e+01 2.715647e+01 2.855645e+01 2.749770e+01 1.999800e+01 1.787893e+01 3.596363e+00 4.862238e+00 6.124212e+00 4.759454e+00 4.654801e+00 5.990644e+00 5.077188e+00 5.279734e+00 4.956582e+00 4.843264e+00 4.219393e+00 3.407784e+00 4.456467e-03
<GCONST> 9.976208e+01
<MIXTURE> 43 7.108249e-03
<MEAN> 25
 3.094192e+00 -6.119934e+00 -2.159970e+00 -4.972961e+00 -7.149086e+00 -3.157931e+00 4.120876e+00 1.277454e+00 -5.104748e+00 -7.125995e+00 -4.322479e+00 -1.239641e+00 2.477475e-01 2.138737e+00 1.813779e+00 -1.841259e-01 -1.351603e+00 -8.299131e-01 -9.444872e-01 -7.871383e-01 7.656732e-01 1.397887e+00 3.147628e-01 -1.030439e-02 -4.459123e-02
<VARIANCE> 25
 9.360143e+00 1.974424e+01 2.650323e+01 3.494475e+01 3.838108e+01 3.674307e+01 3.221457e+01 3.836731e+01 3.832946e+01 3.757971e+01 2.561145e+01 2.841893e+01 6.696883e-01 1.235054e+00 1.751504e+00 2.474627e+00 2.437964e+00 2.332591e+00 2.577044e+00 2.936503e+00 2.590312e+00 2.618087e+00 2.272687e+00 1.889007e+00 9.163503e-04
<GCONST> 8.764607e+01
<MIXTURE> 44 7.328289e-03
<MEAN> 25
 -1.202807e+01 1.279953e+00 2.935438e+00 -2.713435e+00 2.569725e+00 1.661807e+00 1.719705e-01 1.430847e+00 1.196330e+00 -6.086235e-01 1.280832e+00 1.493816e+00 -1.495873e-01 3.595555e-03 1.548054e-01 2.733886e-01 -1.402714e-01 1.702362e-01 4.049547e-01 8.796314e-02 2.517488e-01 1.587224e-01 4.592722e-02 1.413399e-01 4.805995e-03
<VARIANCE> 25
 5.929795e+01 2.275121e+01 2.818595e+01 2.517246e+01 2.575386e+01 2.688537e+01 2.280443e+01 3.121505e+01 2.599864e+01 2.343964e+01 2.277907e+01 1.720195e+01 1.241734e+00 1.299033e+00 1.295238e+00 1.143520e+00 1.907451e+00 1.518718e+00 1.288599e+00 1.517820e+00 1.419591e+00 1.397447e+00 1.192388e+00 1.115819e+00 1.203988e-03
<GCONST> 8.206390e+01
<MIXTURE> 45 1.364932e-02
<MEAN> 25
 -1.040590e+01 3.143177e+00 -1.341653e+00 2.130363e+00 5.251847e+00 -2.737336e-02 4.848632e+00 2.407673e+00 2.768229e+00 2.167263e+00 2.079278e+00 2.266172e+00 -2.813137e+00 7.352757e-01 -4.406435e-01 -5.394953e-01 4.076737e-01 -3.324106e-01 8.080155e-01 -3.040490e-01 1.938206e-01 -3.439999e-01 2.481765e-01 1.288517e-01 1.168628e-01
<VARIANCE> 25
 4.685203e+01 2.624688e+01 2.594467e+01 3.172307e+01 2.745068e+01 2.544701e+01 2.699502e+01 2.548756e+01 2.508482e+01 2.074662e+01 2.403655e+01 1.427503e+01 2.134426e+00 2.729913e+00 2.412790e+00 2.255956e+00 2.356661e+00 2.705470e+00 2.662253e+00 2.569616e+00 2.188140e+00 2.151040e+00 1.662609e+00 1.405101e+00 3.517816e-03
<GCONST> 8.892989e+01
<MIXTURE> 46 9.336259e-03
<MEAN> 25
 -9.423198e+00 2.296413e+00 1.184951e+00 7.523405e+00 5.908409e+00 3.302035e+00 7.055136e+00 4.475145e+00 5.680112e+00 4.665424e+00 5.027765e+00 2.926656e+00 1.065746e+00 -2.438231e-01 3.964952e-02 1.001166e+00 5.955740e-01 9.436572e-01 3.781768e-01 6.800628e-01 4.668226e-01 5.139045e-01 6.365759e-01 5.250878e-01 -1.056071e-01
<VARIANCE> 25
 3.435928e+01 4.363659e+01 3.837416e+01 5.006285e+01 5.079864e+01 4.086435e+01 3.691483e+01 3.530456e+01 3.316322e+01 3.097530e+01 2.812601e+01 2.012900e+01 3.899270e+00 4.127224e+00 3.863575e+00 4.119323e+00 4.167742e+00 3.680268e+00 3.383229e+00 3.111123e+00 2.977373e+00 2.859302e+00 2.301269e+00 1.775812e+00 7.923317e-03
<GCONST> 9.824583e+01
<MIXTURE> 47 7.116147e-03
<MEAN> 25
 7.148979e+00 -6.831920e+00 -7.615782e+00 -6.101093e+00 1.488902e+00 1.291034e+00 -1.753735e+00 7.058808e-01 2.489789e+00 2.326348e-01 -3.776706e+00 -6.318995e+00 -1.492753e-01 -1.167600e+00 -7.050268e-01 -4.416245e-01 5.498073e-01 8.283567e-01 8.601654e-01 3.203214e-01 1.128092e-01 -1.018333e+00 -5.951547e-01 -4.918277e-01 2.870056e-02
<VARIANCE> 25
 1.013280e+01 2.172456e+01 1.906122e+01 3.114771e+01 3.287889e+01 5.026363e+01 4.560826e+01 4.048792e+01 4.187246e+01 4.455810e+01 4.682618e+01 3.199644e+01 5.133649e-01 7.704979e-01 1.094273e+00 1.527384e+00 1.913174e+00 2.094144e+00 2.133394e+00 2.697588e+00 2.053256e+00 2.144669e+00 2.219206e+00 1.901411e+00 5.323861e-04
<GCONST> 8.561037e+01
<MIXTURE> 48 7.116147e-03
<MEAN> 25
 7.148979e+00 -6.831920e+00 -7.615782e+00 -6.101093e+00 1.488902e+00 1.291034e+00 -1.753735e+00 7.058808e-01 2.489789e+00 2.326348e-01 -3.776706e+00 -6.318995e+00 -1.492753e-01 -1.167600e+00 -7.050268e-01 -4.416245e-01 5.498073e-01 8.283567e-01 8.601654e-01 3.203214e-01 1.128092e-01 -1.018333e+00 -5.951547e-01 -4.918277e-01 2.870056e-02
<VARIANCE> 25
 1.013280e+01 2.172456e+01 1.906122e+01 3.114771e+01 3.287889e+01 5.026363e+01 4.560826e+01 4.048792e+01 4.187246e+01 4.455810e+01 4.682618e+01 3.199644e+01 5.133649e-01 7.704979e-01 1.094273e+00 1.527384e+00 1.913174e+00 2.094144e+00 2.133394e+00 2.697588e+00 2.053256e+00 2.144669e+00 2.219206e+00 1.901411e+00 5.323861e-04
<GCONST> 8.561037e+01
<MIXTURE> 49 5.548473e-03
<MEAN> 25
 -4.341445e+00 3.395763e-01 1.696322e-01 7.272401e+00 5.433491e+00 5.006467e+00 5.371078e+00 3.969678e+00 4.807988e+00 3.578377e+00 4.540292e+00 2.607510e+00 3.486513e-01 6.613236e-01 7.094795e-01 3.691651e-01 -1.521614e-01 -6.018279e-01 -9.986510e-01 -1.108513e+00 -9.419233e-01 -7.115828e-01 -5.291230e-01 -2.929769e-01 3.611399e-04
<VARIANCE> 25
 1.099602e+01 8.792168e+00 1.243626e+01 2.109056e+01 1.677368e+01 1.698593e+01 2.038823e+01 1.935682e+01 1.709986e+01 1.715561e+01 1.948447e+01 1.353883e+01 2.560433e-01 2.499608e-01 3.497728e-01 5.897307e-01 8.617489e-01 9.333811e-01 9.956232e-01 1.016881e+00 1.083463e+00 1.160294e+00 1.305122e+00 1.212489e+00 1.604834e-05
<GCONST> 6.408965e+01
<MIXTURE> 50 6.234641e-03
<MEAN> 25
 -2.130058e+00 1.679504e-01 -8.293737e-01 3.131835e+00 2.704770e+00 1.504576e+00 2.066212e+00 1.447215e+00 2.151325e+00 1.175295e+00 8.922918e-01 1.397028e+00 7.387827e-02 1.608977e-01 6.761781e-02 -1.858655e-01 -5.310166e-01 -6.008359e-01 -4.748490e-01 -1.296759e-01 4.437762e-01 8.918769e-01 8.307117e-01 5.479330e-01 1.855052e-05
<VARIANCE> 25
 8.198376e+00 6.649473e+00 8.877462e+00 1.369908e+01 1.124874e+01 1.322734e+01 1.373641e+01 1.427968e+01 1.568831e+01 1.381786e+01 1.727117e+01 1.176203e+01 1.253324e-01 1.867837e-01 3.746483e-01 4.980984e-01 5.743346e-01 6.688922e-01 9.822429e-01 1.043373e+00 1.005398e+00 9.076082e-01 7.922089e-01 8.512361e-01 1.303582e-06
<GCONST> 5.531908e+01
<MIXTURE> 51 6.234641e-03
<MEAN> 25
 -2.130058e+00 1.679504e-01 -8.293737e-01 3.131835e+00 2.704770e+00 1.504576e+00 2.066212e+00 1.447215e+00 2.151325e+00 1.175295e+00 8.922918e-01 1.397028e+00 7.387827e-02 1.608977e-01 6.761781e-02 -1.858655e-01 -5.310166e-01 -6.008359e-01 -4.748490e-01 -1.296759e-01 4.437762e-01 8.918769e-01 8.307117e-01 5.479330e-01 1.855052e-05
<VARIANCE> 25
 8.198376e+00 6.649473e+00 8.877462e+00 1.369908e+01 1.124874e+01 1.322734e+01 1.373641e+01 1.427968e+01 1.568831e+01 1.381786e+01 1.727117e+01 1.176203e+01 1.253324e-01 1.867837e-01 3.746483e-01 4.980984e-01 5.743346e-01 6.688922e-01 9.822429e-01 1.043373e+00 1.005398e+00 9.076082e-01 7.922089e-01 8.512361e-01 1.303582e-06
<GCONST> 5.531908e+01
<MIXTURE> 52 6.367945e-03
<MEAN> 25
 1.006321e+01 2.007856e+00 -6.199445e+00 -1.420478e+01 -4.205579e+00 8.511118e+00 -2.677644e+00 -3.014647e+00 -4.403318e+00 -2.101405e+00 3.326925e+00 7.845590e-01 -3.896260e-01 -4.778375e-01 -6.856959e-02 1.143155e+00 1.333288e+00 -4.622731e-01 -5.865487e-01 -6.559947e-01 5.309331e-02 1.253563e+00 4.067302e-01 -5.264275e-01 -1.377992e-02
<VARIANCE> 25
 9.564642e+00 2.045915e+01 2.508744e+01 3.887406e+01 4.531083e+01 3.048833e+01 4.665508e+01 4.868114e+01 4.264791e+01 4.569915e+01 3.964212e+01 2.987446e+01 4.471692e-01 1.466873e+00 1.298396e+00 2.733677e+00 2.311066e+00 2.192397e+00 2.987168e+00 2.775495e+00 2.988883e+00 2.648426e+00 2.536426e+00 2.294094e+00 1.531118e-03
<GCONST> 8.964819e+01
<MIXTURE> 53 6.367945e-03
<MEAN> 25
 1.006321e+01 2.007856e+00 -6.199445e+00 -1.420478e+01 -4.205579e+00 8.511118e+00 -2.677644e+00 -3.014647e+00 -4.403318e+00 -2.101405e+00 3.326925e+00 7.845590e-01 -3.896260e-01 -4.778375e-01 -6.856959e-02 1.143155e+00 1.333288e+00 -4.622731e-01 -5.865487e-01 -6.559947e-01 5.309331e-02 1.253563e+00 4.067302e-01 -5.264275e-01 -1.377992e-02
<VARIANCE> 25
 9.564642e+00 2.045915e+01 2.508744e+01 3.887406e+01 4.531083e+01 3.048833e+01 4.665508e+01 4.868114e+01 4.264791e+01 4.569915e+01 3.964212e+01 2.987446e+01 4.471692e-01 1.466873e+00 1.298396e+00 2.733677e+00 2.311066e+00 2.192397e+00 2.987168e+00 2.775495e+00 2.988883e+00 2.648426e+00 2.536426e+00 2.294094e+00 1.531118e-03
<GCONST> 8.964819e+01
<MIXTURE> 54 7.368620e-03
<MEAN> 25
 -2.366396e+00 1.122967e-01 -3.439204e-01 5.518395e+00 5.001123e+00 4.045513e+00 4.247758e+00 4.193860e+00 3.602676e+00 3.301690e+00 3.570795e+00 1.707191e+00 4.588970e-03 2.860549e-02 3.763205e-02 2.087332e-02 7.299617e-02 5.690202e-02 2.440765e-02 5.556097e-02 -3.222340e-02 1.692272e-02 1.565889e-02 1.231201e-01 -7.664236e-06
<VARIANCE> 25
 8.402924e+00 8.009191e+00 7.378118e+00 2.169869e+01 1.342698e+01 1.265555e+01 1.163222e+01 1.019897e+01 9.406699e+00 1.167981e+01 1.703204e+01 1.164475e+01 3.814928e-02 7.834361e-02 1.374220e-01 2.601276e-01 3.517077e-01 3.894286e-01 4.271257e-01 5.232164e-01 5.035851e-01 4.723700e-01 4.800663e-01 5.783905e-01 1.252670e-06
<GCONST> 4.619433e+01
<MIXTURE> 55 7.368620e-03
<MEAN> 25
 -2.366396e+00 1.122967e-01 -3.439204e-01 5.518395e+00 5.001123e+00 4.045513e+00 4.247758e+00 4.193860e+00 3.602676e+00 3.301690e+00 3.570795e+00 1.707191e+00 4.588970e-03 2.860549e-02 3.763205e-02 2.087332e-02 7.299617e-02 5.690202e-02 2.440765e-02 5.556097e-02 -3.222340e-02 1.692272e-02 1.565889e-02 1.231201e-01 -7.664236e-06
<VARIANCE> 25
 8.402924e+00 8.009191e+00 7.378118e+00 2.169869e+01 1.342698e+01 1.265555e+01 1.163222e+01 1.019897e+01 9.406699e+00 1.167981e+01 1.703204e+01 1.164475e+01 3.814928e-02 7.834361e-02 1.374220e-01 2.601276e-01 3.517077e-01 3.894286e-01 4.271257e-01 5.232164e-01 5.035851e-01 4.723700e-01 4.800663e-01 5.783905e-01 1.252670e-06
<GCONST> 4.619433e+01
<MIXTURE> 56 6.132464e-03
<MEAN> 25
 7.297300e+00 -6.405725e+00 -8.854198e+00 -8.369304e+00 3.692119e+00 3.822521e+00 -1.904818e+00 -1.396732e+00 1.659064e+00 4.644653e-01 -2.513672e+00 -6.750188e+00 -1.930027e-02 1.980971e-02 -8.616353e-02 1.985897e-03 2.242821e-01 5.835953e-02 1.011404e-01 -1.292042e-01 -7.014249e-02 -3.512037e-02 -8.193229e-02 5.213882e-02 -7.033944e-03
<VARIANCE> 25
 9.891545e+00 2.363371e+01 2.033690e+01 4.009082e+01 3.227349e+01 4.827578e+01 5.973648e+01 3.591327e+01 3.835141e+01 3.635339e+01 3.802240e+01 3.169581e+01 2.028763e-01 4.147661e-01 4.636566e-01 7.607598e-01 8.004419e-01 1.065211e+00 9.103294e-01 9.122611e-01 8.964344e-01 9.686218e-01 1.034283e+00 8.228123e-01 2.331555e-04
<GCONST> 7.493274e+01
<MIXTURE> 57 6.132464e-03
<MEAN> 25
 7.297300e+00 -6.405725e+00 -8.854198e+00 -8.369304e+00 3.692119e+00 3.822521e+00 -1.904818e+00 -1.396732e+00 1.659064e+00 4.644653e-01 -2.513672e+00 -6.750188e+00 -1.930027e-02 1.980971e-02 -8.616353e-02 1.985897e-03 2.242821e-01 5.835953e-02 1.011404e-01 -1.292042e-01 -7.014249e-02 -3.512037e-02 -8.193229e-02 5.213882e-02 -7.033944e-03
<VARIANCE> 25
 9.891545e+00 2.363371e+01 2.033690e+01 4.009082e+01 3.227349e+01 4.827578e+01 5.973648e+01 3.591327e+01 3.835141e+01 3.635339e+01 3.802240e+01 3.169581e+01 2.028763e-01 4.147661e-01 4.636566e-01 7.607598e-01 8.004419e-01 1.065211e+00 9.103294e-01 9.122611e-01 8.964344e-01 9.686218e-01 1.034283e+00 8.228123e-01 2.331555e-04
<GCONST> 7.493274e+01
<MIXTURE> 58 6.172147e-03
<MEAN> 25
 1.814960e+00 -2.034978e+00 5.216108e+00 -4.014784e+00 -1.021786e+01 -4.186110e+00 1.114079e+00 5.995483e-01 -2.259748e+00 1.214165e+00 3.053143e-02 -1.066138e+00 -1.955361e-02 -1.127111e-01 -6.280579e-02 -1.306944e-01 -4.951183e-02 2.390767e-01 4.056107e-01 1.658614e-01 -1.302232e-02 1.687496e-02 -1.610094e-01 -1.771990e-01 -2.481907e-03
<VARIANCE> 25
 5.997856e+00 1.207306e+01 2.061316e+01 2.116643e+01 3.060130e+01 3.564486e+01 2.372122e+01 2.775905e+01 2.514913e+01 2.489085e+01 1.800225e+01 1.725547e+01 3.380706e-01 6.739548e-01 6.523180e-01 1.029102e+00 8.798284e-01 1.081356e+00 1.064669e+00 1.306005e+00 1.095302e+00 1.153825e+00 8.339601e-01 8.202258e-01 6.021718e-04
<GCONST> 7.281177e+01
<MIXTURE> 59 6.172147e-03
<MEAN> 25
 1.814960e+00 -2.034978e+00 5.216108e+00 -4.014784e+00 -1.021786e+01 -4.186110e+00 1.114079e+00 5.995483e-01 -2.259748e+00 1.214165e+00 3.053143e-02 -1.066138e+00 -1.955361e-02 -1.127111e-01 -6.280579e-02 -1.306944e-01 -4.951183e-02 2.390767e-01 4.056107e-01 1.658614e-01 -1.302232e-02 1.687496e-02 -1.610094e-01 -1.771990e-01 -2.481907e-03
<VARIANCE> 25
 5.997856e+00 1.207306e+01 2.061316e+01 2.116643e+01 3.060130e+01 3.564486e+01 2.372122e+01 2.775905e+01 2.514913e+01 2.489085e+01 1.800225e+01 1.725547e+01 3.380706e-01 6.739548e-01 6.523180e-01 1.029102e+00 8.798284e-01 1.081356e+00 1.064669e+00 1.306005e+00 1.095302e+00 1.153825e+00 8.339601e-01 8.202258e-01 6.021718e-04
<GCONST> 7.281177e+01
<MIXTURE> 60 4.479129e-03
<MEAN> 25
 -2.807815e-01 -6.046698e-03 5.917256e-02 5.086206e-01 3.211991e-01 3.599714e-01 5.202544e-01 7.234473e-01 9.209735e-01 9.302841e-01 1.063182e+00 4.905984e-01 -1.960551e-02 4.731658e-02 8.748657e-02 1.564875e-01 1.354638e-01 1.305228e-01 2.274991e-01 4.071511e-01 5.444528e-01 6.920847e-01 6.006045e-01 2.730234e-01 -7.322930e-05
<VARIANCE> 25
 1.764231e+00 2.117933e+00 4.382090e+00 5.124658e+00 7.179501e+00 8.329956e+00 7.819784e+00 9.083289e+00 8.698177e+00 9.982751e+00 1.075138e+01 9.149467e+00 8.999112e-02 1.660073e-01 2.907899e-01 4.284833e-01 6.949446e-01 7.928773e-01 7.798507e-01 9.982426e-01 9.099413e-01 8.218552e-01 8.006434e-01 7.936501e-01 3.718842e-05
<GCONST> 4.970718e+01
<MIXTURE> 61 4.479129e-03
<MEAN> 25
 -2.807815e-01 -6.046698e-03 5.917256e-02 5.086206e-01 3.211991e-01 3.599714e-01 5.202544e-01 7.234473e-01 9.209735e-01 9.302841e-01 1.063182e+00 4.905984e-01 -1.960551e-02 4.731658e-02 8.748657e-02 1.564875e-01 1.354638e-01 1.305228e-01 2.274991e-01 4.071511e-01 5.444528e-01 6.920847e-01 6.006045e-01 2.730234e-01 -7.322930e-05
<VARIANCE> 25
 1.764231e+00 2.117933e+00 4.382090e+00 5.124658e+00 7.179501e+00 8.329956e+00 7.819784e+00 9.083289e+00 8.698177e+00 9.982751e+00 1.075138e+01 9.149467e+00 8.999112e-02 1.660073e-01 2.907899e-01 4.284833e-01 6.949446e-01 7.928773e-01 7.798507e-01 9.982426e-01 9.099413e-01 8.218552e-01 8.006434e-01 7.936501e-01 3.718842e-05
<GCONST> 4.970718e+01
<MIXTURE> 62 3.278034e-03
<MEAN> 25
 -5.027104e+00 1.233884e+00 1.011628e+00 8.719715e+00 6.051024e+00 4.981829e+00 5.461196e+00 4.001006e+00 4.957482e+00 3.888161e+00 4.885708e+00 2.937906e+00 -9.960008e-01 -1.160094e+00 -9.461794e-01 -2.796506e-01 4.306614e-01 1.005358e+00 1.380864e+00 1.551971e+00 1.480590e+00 1.245605e+00 1.068666e+00 7.282267e-01 -1.265084e-03
<VARIANCE> 25
 1.008854e+01 9.861169e+00 1.299299e+01 1.737162e+01 1.780115e+01 1.773206e+01 1.961950e+01 1.913210e+01 1.878452e+01 1.862524e+01 2.192799e+01 1.471168e+01 4.021082e-01 4.312935e-01 5.535017e-01 7.767023e-01 1.032727e+00 1.182532e+00 1.248021e+00 1.274820e+00 1.325373e+00 1.352045e+00 1.390105e+00 1.364258e+00 1.630525e-05
<GCONST> 6.754996e+01
<MIXTURE> 63 4.351215e-03
<MEAN> 25
 -1.008593e+00 -5.632610e-01 -1.243696e+00 3.479880e-01 7.040401e-01 -9.462111e-02 8.591962e-01 3.050280e-01 5.664436e-01 -5.185748e-01 -7.020019e-01 3.770688e-01 -5.115122e-03 3.103849e-01 4.088291e-01 5.068857e-01 4.367799e-01 4.087884e-01 3.714743e-01 2.230755e-01 2.557203e-01 9.277342e-02 1.689290e-01 -1.999343e-03 3.129506e-04
<VARIANCE> 25
 3.989394e+00 5.380758e+00 7.677754e+00 7.081429e+00 8.564695e+00 1.222649e+01 1.217492e+01 1.557788e+01 1.507997e+01 1.224112e+01 1.119602e+01 1.289182e+01 2.601868e-01 3.887229e-01 5.690753e-01 5.437778e-01 8.928144e-01 9.789436e-01 1.043650e+00 1.272389e+00 1.319665e+00 1.141126e+00 1.256516e+00 1.121560e+00 2.009062e-04
<GCONST> 6.202055e+01
<MIXTURE> 64 4.351215e-03
<MEAN> 25
 -1.008593e+00 -5.632610e-01 -1.243696e+00 3.479880e-01 7.040401e-01 -9.462111e-02 8.591962e-01 3.050280e-01 5.664436e-01 -5.185748e-01 -7.020019e-01 3.770688e-01 -5.115122e-03 3.103849e-01 4.088291e-01 5.068857e-01 4.367799e-01 4.087884e-01 3.714743e-01 2.230755e-01 2.557203e-01 9.277342e-02 1.689290e-01 -1.999343e-03 3.129506e-04
<VARIANCE> 25
 3.989394e+00 5.380758e+00 7.677754e+00 7.081429e+00 8.564695e+00 1.222649e+01 1.217492e+01 1.557788e+01 1.507997e+01 1.224112e+01 1.119602e+01 1.289182e+01 2.601868e-01 3.887229e-01 5.690753e-01 5.437778e-01 8.928144e-01 9.789436e-01 1.043650e+00 1.272389e+00 1.319665e+00 1.141126e+00 1.256516e+00 1.121560e+00 2.009062e-04
<GCONST> 6.202055e+01
<MIXTURE> 65 1.721197e-02
<MEAN> 25
 6.810309e+00 1.786674e+00 1.674531e+00 3.696059e-01 -4.751225e+00 -3.882187e+00 -5.246048e+00 -6.159009e+00 -3.748280e+00 -2.234691e+00 -4.918599e+00 -1.958650e+00 1.947076e-01 9.853710e-02 1.108089e-02 9.668369e-02 -1.636005e-01 2.233275e-01 -9.270892e-02 -1.560507e-01 8.950481e-02 -4.753828e-02 -8.386565e-02 -1.765686e-01 -5.082241e-03
<VARIANCE> 25
 1.489677e+01 1.674408e+01 2.259758e+01 3.149913e+01 3.479779e+01 5.158935e+01 5.221313e+01 5.372776e+01 4.960665e+01 5.102057e+01 4.987130e+01 4.466439e+01 5.474796e-01 8.588182e-01 1.432245e+00 1.643132e+00 1.865254e+00 2.036234e+00 2.100010e+00 2.803921e+00 2.468502e+00 2.363780e+00 2.252893e+00 2.115014e+00 4.106683e-04
<GCONST> 8.774715e+01
<MIXTURE> 66 1.191532e-02
<MEAN> 25
 6.677315e+00 -4.091264e+00 -5.620791e+00 -4.828158e+00 1.275520e+00 -5.088365e+00 -6.919203e+00 1.192140e+00 6.827920e-01 -2.050074e+00 -6.137537e+00 -3.473463e+00 -4.523111e-02 1.666337e+00 2.238858e+00 2.316328e+00 -1.250010e+00 -1.252979e+00 5.506868e-02 -5.465439e-01 -1.450460e-01 -1.946019e-01 -2.017922e-01 1.043998e+00 -6.376831e-02
<VARIANCE> 25
 8.946652e+00 2.233786e+01 2.705160e+01 3.305054e+01 3.849540e+01 5.341193e+01 5.599331e+01 4.538131e+01 5.407327e+01 6.673202e+01 3.697120e+01 3.642378e+01 1.283359e+00 2.445277e+00 2.353546e+00 2.471651e+00 4.195966e+00 4.306746e+00 4.366486e+00 4.844121e+00 4.247180e+00 4.991758e+00 3.899200e+00 3.262492e+00 1.469344e-03
<GCONST> 9.683041e+01
<MIXTURE> 67 1.559142e-02
<MEAN> 25
 8.985011e+00 2.035131e+00 -5.978719e+00 -8.274214e+00 9.029602e-01 3.083412e+00 -3.324667e+00 -2.241785e+00 -3.773464e+00 7.785233e-01 -5.455330e-02 -1.732552e+00 -1.074091e+00 1.831820e+00 1.062705e+00 3.073006e+00 1.392562e+00 -5.097660e-01 1.302769e+00 1.202402e-01 1.570331e-01 2.512957e-01 -2.765147e-01 6.252967e-01 -1.299837e-01
<VARIANCE> 25
 1.146733e+01 3.885774e+01 3.078692e+01 5.585062e+01 4.915047e+01 5.406601e+01 6.210219e+01 5.280490e+01 6.478326e+01 5.711539e+01 5.577992e+01 4.737901e+01 2.179725e+00 3.465765e+00 3.290299e+00 4.517665e+00 4.522870e+00 4.553411e+00 4.706308e+00 5.070853e+00 5.476427e+00 4.779318e+00 5.135198e+00 3.746204e+00 3.043320e-03
<GCONST> 1.029177e+02
<MIXTURE> 68 1.485092e-02
<MEAN> 25
 -2.014661e+00 -2.309986e+00 -4.101533e+00 1.252896e+00 5.255558e+00 -6.679268e-01 2.130916e+00 1.825817e+00 2.003351e+00 1.689088e+00 4.861103e-01 1.876137e+00 2.766652e+00 5.478986e-01 1.306035e-02 -2.583109e+00 -2.414405e+00 -1.590034e+00 -2.352182e+00 -1.792270e+00 -1.651293e+00 -1.480191e+00 -1.983513e+00 -1.059468e+00 1.031764e-01
<VARIANCE> 25
 2.599384e+01 3.201311e+01 5.872413e+01 5.256585e+01 4.670091e+01 5.506591e+01 4.524079e+01 4.224453e+01 4.042226e+01 4.349461e+01 3.736531e+01 2.575376e+01 1.865928e+00 3.743114e+00 5.934723e+00 5.867393e+00 4.704388e+00 5.608448e+00 5.771354e+00 4.972528e+00 4.974539e+00 5.260539e+00 5.045560e+00 3.419438e+00 6.145582e-03
<GCONST> 1.035990e+02
<MIXTURE> 69 1.204884e-02
<MEAN> 25
 4.662582e+00 -4.222725e+00 -3.560834e+00 -3.622866e+00 -3.502082e+00 -7.862826e+00 -1.105622e+00 2.208447e+00 -3.501179e-01 -4.727563e+00 -5.671614e+00 9.527013e-01 1.675084e+00 -2.230046e+00 -1.336057e+00 -2.239843e+00 -5.285608e-01 -3.483411e-01 -4.726295e-01 6.109344e-01 -6.441130e-01 -1.458059e+00 -2.198054e+00 -1.742467e-01 6.236417e-02
<VARIANCE> 25
 8.886556e+00 2.175968e+01 2.670620e+01 2.587826e+01 4.260241e+01 3.567102e+01 4.886390e+01 3.153696e+01 3.968283e+01 3.790313e+01 3.110544e+01 2.459213e+01 3.544012e+00 2.925787e+00 3.329766e+00 3.697905e+00 5.756783e+00 4.999587e+00 7.100232e+00 6.082478e+00 5.902192e+00 5.857185e+00 4.359364e+00 3.699637e+00 2.452477e-03
<GCONST> 9.865969e+01
<MIXTURE> 70 1.329190e-02
<MEAN> 25
 7.515331e+00 -2.027167e+00 -3.890308e+00 -3.600007e+00 -4.000777e-01 -6.518788e-01 -7.643627e+00 -4.023007e+00 5.555488e-01 2.906044e+00 -1.106334e-01 -4.888646e+00 1.931325e+00 -1.135077e+00 -8.255650e-01 -2.197237e+00 -1.506863e+00 1.181493e+00 -1.328830e+00 -9.682882e-02 3.335477e-01 -3.435241e-02 6.834962e-01 -1.454508e+00 5.854111e-02
<VARIANCE> 25
 9.908695e+00 2.248520e+01 2.821189e+01 4.677856e+01 3.536522e+01 4.437006e+01 5.011519e+01 4.394136e+01 4.691801e+01 3.269375e+01 4.489534e+01 2.728525e+01 3.491129e+00 3.199714e+00 4.728285e+00 4.951884e+00 5.226514e+00 6.424652e+00 6.782102e+00 7.539552e+00 6.150565e+00 5.375127e+00 5.847229e+00 4.286669e+00 2.531247e-03
<GCONST> 1.017958e+02
<MIXTURE> 71 1.406903e-02
<MEAN> 25
 6.145764e+00 4.992446e+00 4.179353e+00 2.974608e+00 -3.368268e+00 -3.413956e+00 -3.492497e+00 -6.593184e+00 -4.694299e+00 -2.514056e+00 -5.188785e+00 -3.364056e+00 -1.565879e+00 -6.789507e-01 -2.150650e-01 -1.712295e+00 1.117335e+00 -1.465629e-01 3.413064e-02 1.428705e+00 2.866259e-01 -1.644669e-01 6.835105e-01 2.060684e-01 4.060832e-02
<VARIANCE> 25
 1.992198e+01 2.608273e+01 2.351734e+01 4.408262e+01 3.963661e+01 3.930682e+01 4.148130e+01 4.046427e+01 3.784947e+01 4.271230e+01 3.539305e+01 3.400110e+01 1.705076e+00 2.962034e+00 5.162356e+00 4.863163e+00 4.564575e+00 4.583109e+00 4.745795e+00 5.605851e+00 4.216725e+00 3.985916e+00 3.530547e+00 3.255036e+00 1.392190e-03
<GCONST> 9.825258e+01
<MIXTURE> 72 8.134747e-03
<MEAN> 25
 3.772615e+00 -3.665720e+00 5.431703e+00 -2.457136e+00 -1.036404e+01 -9.589230e+00 -2.450682e+00 1.898920e+00 -4.938522e+00 -2.198635e+00 -1.885770e+00 6.074303e-01 9.314327e-01 -7.830868e-01 -2.566069e+00 4.614061e-01 2.128123e+00 -6.515768e-01 -1.310248e+00 1.522830e+00 1.808989e+00 -5.938237e-01 -1.285090e+00 4.010268e-01 -6.176495e-03
<VARIANCE> 25
 1.081319e+01 1.945805e+01 3.284382e+01 3.828746e+01 3.249584e+01 3.351036e+01 4.089486e+01 3.623053e+01 4.356446e+01 4.120555e+01 3.863985e+01 2.841879e+01 4.323755e-01 1.024413e+00 2.038249e+00 1.466605e+00 2.194491e+00 2.349901e+00 3.062217e+00 2.729292e+00 2.609726e+00 2.952982e+00 2.024759e+00 2.127836e+00 5.401079e-04
<GCONST> 8.724394e+01
<MIXTURE> 73 1.213625e-02
<MEAN> 25
 -5.588380e+00 -7.761708e-01 -1.304900e+00 4.866340e+00 4.218833e+00 2.314791e+00 5.516744e+00 3.426947e+00 4.344633e+00 3.422220e+00 4.238691e+00 3.018254e+00 7.814406e-01 -1.014014e+00 -9.397071e-01 -2.631191e+00 -1.238925e+00 -1.751776e+00 -8.808170e-01 -5.239745e-01 -9.036425e-01 -7.074506e-01 -1.095105e+00 -2.790155e-01 1.543360e-01
<VARIANCE> 25
 1.305721e+01 1.334198e+01 1.509720e+01 2.273798e+01 2.322001e+01 2.468093e+01 2.031944e+01 1.999233e+01 1.779775e+01 1.894765e+01 2.273199e+01 1.549628e+01 4.081750e+00 3.105785e+00 5.926391e+00 4.672122e+00 6.168161e+00 4.533115e+00 4.343051e+00 4.250940e+00 3.922442e+00 4.207490e+00 3.527413e+00 2.657249e+00 4.314005e-03
<GCONST> 9.269171e+01
<MIXTURE> 74 1.756491e-02
<MEAN> 25
 4.465375e+00 -1.580980e+00 5.193629e+00 -1.142167e+00 -8.670391e+00 -8.217633e+00 -2.685300e+00 7.413042e-01 -4.084356e+00 -2.805664e+00 -1.712378e+00 2.211031e-01 3.240677e-01 2.004643e+00 3.889304e-02 1.696571e+00 1.222568e+00 3.505602e-01 -1.946464e-03 -1.316154e+00 1.535436e-01 1.649127e-01 -2.488223e-01 -1.173749e-01 -7.809886e-02
<VARIANCE> 25
 1.174053e+01 2.172270e+01 3.756422e+01 3.817495e+01 3.737191e+01 4.004171e+01 5.104435e+01 4.610056e+01 4.763126e+01 4.436293e+01 4.063716e+01 3.411955e+01 2.089516e+00 2.056276e+00 3.878095e+00 2.601164e+00 3.893362e+00 3.875406e+00 5.002256e+00 4.262253e+00 4.152296e+00 4.008632e+00 3.640795e+00 3.178911e+00 1.762305e-03
<GCONST> 9.718382e+01
<MIXTURE> 75 9.711651e-03
<MEAN> 25
 2.643322e+00 -1.248870e+00 1.096970e+01 1.709090e+00 -1.179974e+01 -7.664088e+00 -4.566958e+00 -4.862264e-01 -4.474635e+00 -4.604222e+00 3.236715e+00 1.434689e-01 1.748640e+00 -1.757813e+00 2.006217e-01 -2.598225e-01 -2.395240e+00 -5.121179e-01 -1.462357e+00 9.626982e-01 -1.664237e-01 -3.562665e-01 1.082131e+00 -6.209675e-01 3.831397e-02
<VARIANCE> 25
 1.113827e+01 1.771798e+01 3.089388e+01 2.771017e+01 2.704369e+01 3.265552e+01 3.134339e+01 3.097026e+01 3.376196e+01 3.154344e+01 2.048578e+01 2.160745e+01 2.372005e+00 1.906927e+00 4.266261e+00 2.476734e+00 3.867617e+00 4.334067e+00 4.140630e+00 3.508760e+00 3.967702e+00 3.371070e+00 3.090889e+00 2.516077e+00 1.552536e-03
<GCONST> 9.224809e+01
<MIXTURE> 76 1.052359e-02
<MEAN> 25
 -2.855207e+00 -6.951219e-01 -1.004685e+00 1.437821e+00 1.544587e+00 8.584192e-01 2.039540e+00 8.289300e-01 1.643097e+00 4.613039e-01 8.735900e-01 1.214703e+00 -1.745910e-01 -4.682388e-01 -7.413967e-02 -5.605904e-01 -5.349897e-01 -7.004604e-01 -6.306568e-01 -4.994403e-01 -4.978759e-01 -2.732190e-01 -3.045618e-01 -1.546069e-01 1.190108e-02
<VARIANCE> 25
 2.055522e+01 1.379595e+01 1.453543e+01 1.555327e+01 1.835938e+01 1.901035e+01 2.037526e+01 1.981821e+01 1.797034e+01 1.576380e+01 1.465004e+01 1.322523e+01 1.038092e+00 7.803531e-01 1.000964e+00 8.298966e-01 1.191717e+00 1.226321e+00 1.130548e+00 1.696483e+00 1.607676e+00 1.477014e+00 1.260471e+00 1.138869e+00 9.780447e-04
<GCONST> 7.471526e+01
<MIXTURE> 77 1.244626e-02
<MEAN> 25
 -4.672419e-01 8.112329e+00 1.183375e+01 -1.095750e+01 -6.668234e+00 8.413975e-01 -8.879469e+00 -7.101168e+00 -3.375755e+00 -2.825290e-01 -4.485007e+00 -1.621459e+00 6.966189e-02 1.294935e-01 7.999243e-02 2.477044e-01 -2.509859e-02 6.662652e-02 -5.095921e-02 -6.394263e-02 7.602486e-02 -1.853425e-02 4.699536e-02 1.313548e-01 -9.605949e-03
<VARIANCE> 25
 9.930134e+00 2.222973e+01 3.187384e+01 4.586594e+01 3.316977e+01 3.230254e+01 3.735325e+01 3.069410e+01 3.409205e+01 3.185771e+01 3.609835e+01 3.404543e+01 3.280080e-01 7.548762e-01 6.359193e-01 1.063373e+00 1.224437e+00 9.687971e-01 1.186548e+00 1.079791e+00 1.056863e+00 1.056056e+00 9.715752e-01 9.370547e-01 5.337154e-04
<GCONST> 7.786880e+01
<MIXTURE> 78 9.702551e-03
<MEAN> 25
 -1.041413e+01 1.041894e+00 -1.648252e+00 1.810334e+00 4.010834e+00 -2.647610e+00 3.845168e+00 2.016310e+00 2.373779e+00 4.530647e-01 -1.700122e-01 2.944070e+00 2.308756e+00 -3.572194e-01 1.394146e-01 6.144174e-01 -1.618244e-01 1.140712e-01 -4.621702e-01 1.344679e-01 4.312996e-02 2.889135e-01 -3.449967e-01 -3.525316e-01 -6.486215e-02
<VARIANCE> 25
 4.386879e+01 2.865512e+01 2.846419e+01 2.916952e+01 3.771710e+01 3.433757e+01 3.155104e+01 3.266483e+01 2.592944e+01 2.464121e+01 2.428437e+01 1.786921e+01 4.390259e+00 2.322690e+00 2.493815e+00 2.690403e+00 2.597656e+00 3.198793e+00 3.023868e+00 2.886425e+00 2.254881e+00 2.277602e+00 1.999112e+00 1.976511e+00 4.339108e-03
<GCONST> 9.252193e+01
<MIXTURE> 79 1.156824e-02
<MEAN> 25
 2.300980e+00 1.484663e+00 8.821256e+00 -6.337584e+00 -1.159061e+01 -1.722632e+00 -1.822360e+00 -6.248480e+00 -6.452543e+00 2.888186e-01 -3.403273e+00 -3.221575e+00 1.240324e+00 -5.104311e-01 -1.377828e+00 2.264764e+00 3.496685e-01 -1.435332e+00 5.120782e-01 8.472775e-01 -4.639251e-01 -4.973059e-01 3.536915e-01 2.575827e-01 -3.583362e-02
<VARIANCE> 25
 1.384729e+01 2.310964e+01 3.860070e+01 4.875894e+01 3.635372e+01 4.161890e+01 4.110665e+01 3.645975e+01 3.767731e+01 3.845808e+01 4.208732e+01 2.936953e+01 9.128563e-01 2.176442e+00 1.866210e+00 2.140256e+00 2.390024e+00 2.716700e+00 3.075637e+00 3.505135e+00 2.447585e+00 2.668759e+00 2.288024e+00 1.963247e+00 1.185347e-03
<GCONST> 9.124908e+01
<MIXTURE> 80 7.550998e-03
<MEAN> 25
 -1.460860e+01 3.982972e+00 6.888208e-01 2.865943e+00 2.449449e+00 1.410185e+00 6.396998e+00 2.496674e+00 2.719659e+00 2.373456e+00 4.852843e+00 1.186977e+00 4.286299e+00 -1.602776e-02 1.637920e+00 -1.135539e+00 -2.889460e+00 -2.777561e+00 -2.323240e+00 -2.021435e+00 -1.975030e+00 -1.685175e+00 -1.650825e+00 -6.027434e-01 -4.423237e-02
<VARIANCE> 25
 2.094993e+01 1.984646e+01 3.444428e+01 3.470749e+01 3.018103e+01 2.920979e+01 2.828658e+01 2.855589e+01 2.674625e+01 2.881122e+01 2.685413e+01 1.810683e+01 2.357356e+00 2.666177e+00 2.673122e+00 4.119895e+00 3.394130e+00 2.705107e+00 3.025228e+00 3.204159e+00 2.749098e+00 2.701714e+00 2.782170e+00 2.145726e+00 1.512153e-03
<GCONST> 9.139674e+01
<MIXTURE> 81 8.025434e-03
<MEAN> 25
 -1.113463e+00 4.032646e+00 1.009197e+01 -1.467981e+01 -9.010461e+00 -1.433205e+00 -6.733867e+00 -8.400732e+00 -4.162960e+00 -4.369071e-01 -7.527981e+00 -2.281678e+00 1.273772e-01 -5.854073e-01 4.030464e-03 -5.464200e-01 -4.553985e-01 3.318731e-01 3.169237e-01 1.337435e-01 -1.448798e-01 1.086019e-01 -4.590834e-01 -1.171483e-01 1.146241e-02
<VARIANCE> 25
 1.005826e+01 3.261021e+01 2.697243e+01 3.051715e+01 3.389280e+01 3.028740e+01 4.522795e+01 2.811951e+01 3.774278e+01 3.166672e+01 2.528552e+01 3.098369e+01 7.762096e-01 2.256892e+00 1.538504e+00 2.860144e+00 2.653672e+00 2.111596e+00 3.255570e+00 2.277622e+00 2.357341e+00 2.529780e+00 2.296078e+00 2.090859e+00 1.174924e-03
<GCONST> 8.866203e+01
<MIXTURE> 82 8.213053e-03
<MEAN> 25
 -9.924903e+00 -3.881074e+00 1.629005e+00 -2.963843e+00 3.109079e+00 6.626752e-01 2.005536e+00 9.305888e-01 2.970513e+00 1.726923e+00 1.734457e+00 3.076834e+00 -1.318127e+00 -1.202473e-01 2.881408e-01 -2.595840e+00 -1.095455e+00 -1.268254e+00 -1.002131e+00 -8.758601e-01 -3.089941e-01 -4.820441e-01 -3.148258e-01 -9.310811e-02 1.780977e-01
<VARIANCE> 25
 1.834542e+01 2.496780e+01 3.227201e+01 3.077894e+01 3.290392e+01 3.219136e+01 3.178490e+01 3.290032e+01 3.079601e+01 2.504450e+01 3.068308e+01 1.747481e+01 3.743477e+00 3.045571e+00 3.304582e+00 3.272025e+00 3.575599e+00 3.277798e+00 2.971993e+00 3.015135e+00 2.802906e+00 2.487530e+00 2.440963e+00 1.859702e+00 3.447730e-03
<GCONST> 9.307854e+01
<MIXTURE> 83 1.167529e-02
<MEAN> 25
 -2.002900e+01 5.505488e+00 -1.788345e+00 -4.099063e-01 7.828201e+00 -1.241237e+00 5.465209e+00 3.030632e+00 1.197716e+00 2.183390e+00 7.255296e-01 2.877836e+00 -2.734496e-02 -4.499218e-01 4.861126e-03 -3.650078e-01 -4.973256e-01 -1.274011e-01 -1.343640e-01 -1.000794e-01 -4.094066e-02 -4.032037e-02 -3.013932e-02 -3.399136e-02 4.414442e-03
<VARIANCE> 25
 8.942524e+00 1.644154e+01 2.848606e+01 2.248826e+01 2.125642e+01 2.409893e+01 2.203633e+01 2.352369e+01 2.043513e+01 2.225129e+01 2.317282e+01 1.449083e+01 1.061748e+00 9.353982e-01 1.239490e+00 1.064932e+00 1.358210e+00 1.292713e+00 1.282970e+00 1.388350e+00 1.349229e+00 1.311228e+00 1.219679e+00 1.071228e+00 8.929823e-04
<GCONST> 7.705354e+01
<MIXTURE> 84 1.066614e-02
<MEAN> 25
 1.174392e+00 9.008355e+00 7.235925e+00 7.972616e+00 2.825804e+00 -9.195621e-01 -1.530826e+00 -4.480576e+00 -4.120383e+00 -2.909622e+00 -2.413874e+00 -1.600181e+00 -1.784054e+00 -1.183260e+00 -1.203297e+00 1.288186e+00 2.251371e+00 1.502640e+00 1.451493e+00 1.289121e+00 1.167382e+00 4.021864e-01 4.159705e-01 4.245490e-01 -7.158165e-02
<VARIANCE> 25
 2.346143e+01 1.833453e+01 2.162219e+01 2.421832e+01 2.915596e+01 2.826456e+01 2.792603e+01 2.651240e+01 2.525954e+01 2.520720e+01 2.356210e+01 2.459672e+01 2.106312e+00 2.539628e+00 3.847438e+00 3.296941e+00 3.274930e+00 3.374981e+00 3.288980e+00 3.405449e+00 3.484859e+00 3.246826e+00 3.585072e+00 2.807562e+00 3.530235e-03
<GCONST> 9.253673e+01
<MIXTURE> 85 7.591393e-03
<MEAN> 25
 -3.110035e+00 7.889933e+00 5.723748e+00 1.285620e+00 -3.493306e+00 -5.323406e+00 -2.979378e+00 -6.120028e+00 -3.542855e+00 -3.185683e+00 -4.797288e-01 -1.900340e+00 3.942347e+00 3.245344e-01 1.755522e+00 -2.091069e+00 -3.413978e+00 -2.582880e+00 -2.885201e+00 -2.341098e+00 -2.249092e+00 -1.264582e+00 -2.302600e+00 -6.162730e-01 9.200579e-03
<VARIANCE> 25
 4.246276e+01 2.344222e+01 3.647025e+01 3.821218e+01 3.973795e+01 4.119401e+01 3.215998e+01 2.789518e+01 2.663857e+01 2.611892e+01 2.622226e+01 2.056744e+01 2.707722e+00 4.325199e+00 4.058352e+00 5.181929e+00 4.408542e+00 3.880476e+00 3.855224e+00 3.986938e+00 3.848438e+00 4.040112e+00 3.940838e+00 3.485296e+00 5.444756e-03
<GCONST> 9.835411e+01
<MIXTURE> 86 1.273941e-02
<MEAN> 25
 -1.650033e+00 -1.353131e-01 -4.694248e-02 2.963161e+00 2.468766e+00 2.705039e+00 3.678725e+00 3.707635e+00 3.685204e+00 3.574724e+00 3.645137e+00 1.509162e+00 1.230155e-02 -4.377520e-02 -6.187689e-03 -1.230132e-01 -1.341705e-01 -8.833647e-02 -3.275393e-01 -3.460368e-01 -4.947407e-01 -4.807689e-01 -4.008020e-01 -2.184331e-01 -7.576630e-05
<VARIANCE> 25
 4.608611e+00 3.568545e+00 5.913277e+00 8.224134e+00 1.229916e+01 1.033388e+01 1.008886e+01 1.048682e+01 9.339890e+00 1.035546e+01 9.231721e+00 1.112027e+01 9.198906e-02 2.171168e-01 3.584987e-01 4.832120e-01 5.952337e-01 6.984603e-01 6.407618e-01 6.568346e-01 7.488925e-01 8.242750e-01 8.168377e-01 8.291911e-01 7.116348e-05
<GCONST> 5.350881e+01
<MIXTURE> 87 1.100681e-02
<MEAN> 25
 -3.291206e+00 4.529320e+00 3.494941e+00 6.997602e+00 5.555217e+00 8.877432e-01 1.642347e+00 -9.417712e-01 -5.832935e-01 -8.832492e-01 -7.861063e-01 3.128217e-02 -2.148693e+00 -2.777222e+00 -2.095979e+00 -2.220864e+00 -3.777996e-02 -1.853085e-01 6.138489e-01 1.295412e+00 1.403583e+00 1.027730e+00 9.440518e-01 1.003770e+00 1.045278e-01
<VARIANCE> 25
 3.803259e+01 2.951505e+01 2.800938e+01 3.381905e+01 2.871248e+01 3.183645e+01 2.811687e+01 2.726420e+01 2.589874e+01 2.464086e+01 2.475178e+01 2.310159e+01 3.855969e+00 2.738946e+00 3.919602e+00 3.650822e+00 4.784590e+00 4.303790e+00 4.149699e+00 3.908345e+00 3.525970e+00 3.384266e+00 3.375586e+00 2.728684e+00 4.955901e-03
<GCONST> 9.631281e+01
<MIXTURE> 88 1.256585e-02
<MEAN> 25
 -1.903477e+00 -4.862115e-01 -2.503957e-01 2.604294e+00 2.200506e+00 2.465210e+00 2.709833e+00 2.181363e+00 2.408741e+00 2.132461e+00 1.951934e+00 1.705737e+00 5.722035e-02 2.024717e-01 1.880423e-01 2.470965e-01 9.787297e-02 1.275492e-01 -8.285221e-02 -3.081468e-01 -1.694483e-01 -1.735519e-01 -8.762938e-02 -6.709137e-02 -1.588350e-03
<VARIANCE> 25
 6.457603e+00 5.756190e+00 9.831602e+00 1.094250e+01 1.260782e+01 1.366739e+01 1.533604e+01 1.298884e+01 1.390073e+01 1.288108e+01 1.293523e+01 1.139715e+01 1.080838e+00 1.045316e+00 1.605975e+00 1.318590e+00 1.965490e+00 1.556492e+00 1.653372e+00 2.104093e+00 2.111841e+00 1.861548e+00 1.738727e+00 1.529827e+00 1.062610e-03
<GCONST> 7.360284e+01
<MIXTURE> 89 9.333527e-03
<MEAN> 25
 6.005648e+00 -6.687140e+00 -3.573041e+00 -3.182632e+00 -1.621543e+00 -5.434665e+00 -5.938657e+00 3.995855e+00 3.332595e+00 -2.792483e+00 -5.980834e+00 -3.233980e+00 -5.578993e-01 1.550471e-01 1.963246e+00 8.910483e-01 -1.821687e+00 -1.618420e+00 8.584521e-01 1.267727e+00 -7.705669e-01 -1.309305e+00 3.968487e-01 1.538566e+00 -5.055526e-03
<VARIANCE> 25
 9.155257e+00 2.683049e+01 3.050487e+01 2.962634e+01 3.537751e+01 4.185294e+01 5.958831e+01 4.153729e+01 3.895407e+01 4.140194e+01 3.505670e+01 3.176344e+01 3.542907e-01 8.219876e-01 1.466615e+00 1.296459e+00 1.973150e+00 2.138477e+00 2.550490e+00 2.005110e+00 2.234011e+00 2.104091e+00 2.297146e+00 1.460638e+00 3.600105e-04
<GCONST> 8.508212e+01
<MIXTURE> 90 7.114505e-03
<MEAN> 25
 2.017372e+00 -8.232950e+00 -4.130591e+00 -3.518069e+00 -3.063036e+00 -1.452547e+00 2.793876e+00 7.260047e-01 -7.409034e+00 -9.351704e+00 -3.094617e+00 -8.226228e-01 -1.009726e-01 8.708232e-01 1.021259e+00 -8.473842e-01 -1.480545e+00 -1.487081e-01 6.618679e-01 -6.417999e-02 -1.922332e-01 5.359529e-01 8.636822e-02 -5.659459e-01 -1.080588e-02
<VARIANCE> 25
 8.089771e+00 2.376651e+01 1.866814e+01 2.533577e+01 3.149508e+01 2.865946e+01 3.482568e+01 3.246381e+01 3.099409e+01 2.723768e+01 2.428287e+01 2.382010e+01 2.146692e-01 6.041712e-01 8.405198e-01 9.915369e-01 1.415706e+00 1.628762e+00 1.639509e+00 1.774299e+00 1.646328e+00 1.758112e+00 1.377841e+00 1.290359e+00 2.165066e-04
<GCONST> 7.717814e+01
<MIXTURE> 91 7.852945e-03
<MEAN> 25
 6.219343e+00 -7.374019e+00 -8.309778e+00 -5.006001e+00 3.770497e+00 -4.921981e-02 -2.057504e+00 7.168818e-01 6.554131e-01 -2.936151e+00 -4.849647e+00 -5.041424e+00 2.718347e-01 9.931037e-01 1.766981e-01 4.219533e-01 -5.262252e-02 -5.599135e-01 -3.790543e-01 -1.053681e-01 -1.216363e-01 4.154537e-01 -1.381101e-01 1.862336e-01 -3.472269e-02
<VARIANCE> 25
 1.049350e+01 2.345984e+01 2.104029e+01 3.973307e+01 3.477487e+01 5.370903e+01 5.328793e+01 3.832841e+01 5.061594e+01 6.233010e+01 3.707359e+01 4.045958e+01 4.523650e-01 8.756496e-01 1.113576e+00 1.385297e+00 2.130019e+00 2.320894e+00 2.307781e+00 2.373843e+00 2.199306e+00 2.211281e+00 1.999582e+00 1.829576e+00 5.737917e-04
<GCONST> 8.692770e+01
<MIXTURE> 92 7.852945e-03
<MEAN> 25
 6.219343e+00 -7.374019e+00 -8.309778e+00 -5.006001e+00 3.770497e+00 -4.921981e-02 -2.057504e+00 7.168818e-01 6.554131e-01 -2.936151e+00 -4.849647e+00 -5.041424e+00 2.718347e-01 9.931037e-01 1.766981e-01 4.219533e-01 -5.262252e-02 -5.599135e-01 -3.790543e-01 -1.053681e-01 -1.216363e-01 4.154537e-01 -1.381101e-01 1.862336e-01 -3.472269e-02
<VARIANCE> 25
 1.049350e+01 2.345984e+01 2.104029e+01 3.973307e+01 3.477487e+01 5.370903e+01 5.328793e+01 3.832841e+01 5.061594e+01 6.233010e+01 3.707359e+01 4.045958e+01 4.523650e-01 8.756496e-01 1.113576e+00 1.385297e+00 2.130019e+00 2.320894e+00 2.307781e+00 2.373843e+00 2.199306e+00 2.211281e+00 1.999582e+00 1.829576e+00 5.737917e-04
<GCONST> 8.692770e+01
<MIXTURE> 93 6.122769e-03
<MEAN> 25
 -6.138212e+00 -8.500913e-01 -2.162298e+00 5.367026e+00 5.513828e+00 3.734044e+00 5.894158e+00 3.617891e+00 3.999746e+00 2.523314e+00 1.806356e+00 3.333457e+00 -6.590335e-02 -1.674467e-01 -2.680410e-01 -3.784410e-01 -3.320131e-01 -2.647608e-01 -2.353738e-01 -2.000112e-01 -1.836393e-01 -1.586755e-01 -1.201512e-01 -2.817000e-02 2.453450e-05
<VARIANCE> 25
 1.210232e+01 5.666498e+00 8.080237e+00 1.218252e+01 1.199123e+01 1.526597e+01 1.499971e+01 1.543139e+01 1.414918e+01 1.389314e+01 1.578218e+01 1.379201e+01 8.454289e-02 1.489000e-01 2.605342e-01 3.987155e-01 4.825136e-01 6.261284e-01 7.671171e-01 9.028171e-01 9.135456e-01 8.738207e-01 9.081435e-01 8.913845e-01 1.099592e-06
<GCONST> 5.372156e+01
<MIXTURE> 94 6.122769e-03
<MEAN> 25
 -6.138212e+00 -8.500913e-01 -2.162298e+00 5.367026e+00 5.513828e+00 3.734044e+00 5.894158e+00 3.617891e+00 3.999746e+00 2.523314e+00 1.806356e+00 3.333457e+00 -6.590335e-02 -1.674467e-01 -2.680410e-01 -3.784410e-01 -3.320131e-01 -2.647608e-01 -2.353738e-01 -2.000112e-01 -1.836393e-01 -1.586755e-01 -1.201512e-01 -2.817000e-02 2.453450e-05
<VARIANCE> 25
 1.210232e+01 5.666498e+00 8.080237e+00 1.218252e+01 1.199123e+01 1.526597e+01 1.499971e+01 1.543139e+01 1.414918e+01 1.389314e+01 1.578218e+01 1.379201e+01 8.454289e-02 1.489000e-01 2.605342e-01 3.987155e-01 4.825136e-01 6.261284e-01 7.671171e-01 9.028171e-01 9.135456e-01 8.738207e-01 9.081435e-01 8.913845e-01 1.099592e-06
<GCONST> 5.372156e+01
<MIXTURE> 95 5.258835e-03
<MEAN> 25
 -1.101756e+00 1.949259e-01 -2.720726e-01 1.263798e+00 1.622967e+00 1.523071e+00 1.376421e+00 8.142922e-01 1.223163e+00 1.051523e+00 8.033345e-01 1.134166e+00 5.426301e-02 4.154811e-02 1.554307e-01 -3.177252e-02 -2.528989e-01 -6.538675e-01 -1.102273e+00 -1.320761e+00 -1.307193e+00 -1.085016e+00 -7.575473e-01 -2.891525e-01 -1.712254e-04
<VARIANCE> 25
 4.153187e+00 3.454097e+00 5.418030e+00 7.129607e+00 8.910909e+00 7.763612e+00 1.022943e+01 9.821201e+00 1.017257e+01 1.268553e+01 1.082401e+01 9.114432e+00 1.252590e-01 2.891441e-01 3.913884e-01 5.164608e-01 6.947643e-01 8.621837e-01 7.952092e-01 8.229931e-01 8.044280e-01 9.228484e-01 1.109558e+00 1.028908e+00 6.242967e-05
<GCONST> 5.486230e+01
<MIXTURE> 96 7.034694e-03
<MEAN> 25
 -1.709450e+00 -1.558998e-01 -7.591693e-01 2.060981e+00 1.683173e+00 9.174699e-01 1.451974e+00 1.295513e+00 1.201951e+00 5.260758e-01 6.287770e-01 1.196631e+00 7.509554e-03 1.680427e-01 2.461755e-01 3.852019e-01 5.814337e-01 5.337516e-01 2.450177e-01 -1.378554e-01 -4.550266e-01 -6.616882e-01 -6.619992e-01 -4.167514e-01 -6.438122e-05
<VARIANCE> 25
 7.179130e+00 5.285880e+00 7.473550e+00 9.502331e+00 9.633249e+00 1.152384e+01 1.366026e+01 1.281008e+01 1.234573e+01 1.233643e+01 1.328223e+01 1.238810e+01 1.101376e-01 2.358900e-01 3.294902e-01 3.702227e-01 4.941338e-01 6.860817e-01 8.785929e-01 9.680361e-01 9.814737e-01 8.235871e-01 8.892906e-01 1.019241e+00 1.645858e-06
<GCONST> 5.322325e+01
<MIXTURE> 97 7.034694e-03
<MEAN> 25
 -1.709450e+00 -1.558998e-01 -7.591693e-01 2.060981e+00 1.683173e+00 9.174699e-01 1.451974e+00 1.295513e+00 1.201951e+00 5.260758e-01 6.287770e-01 1.196631e+00 7.509554e-03 1.680427e-01 2.461755e-01 3.852019e-01 5.814337e-01 5.337516e-01 2.450177e-01 -1.378554e-01 -4.550266e-01 -6.616882e-01 -6.619992e-01 -4.167514e-01 -6.438122e-05
<VARIANCE> 25
 7.179130e+00 5.285880e+00 7.473550e+00 9.502331e+00 9.633249e+00 1.152384e+01 1.366026e+01 1.281008e+01 1.234573e+01 1.233643e+01 1.328223e+01 1.238810e+01 1.101376e-01 2.358900e-01 3.294902e-01 3.702227e-01 4.941338e-01 6.860817e-01 8.785929e-01 9.680361e-01 9.814737e-01 8.235871e-01 8.892906e-01 1.019241e+00 1.645858e-06
<GCONST> 5.322325e+01
<MIXTURE> 98 9.917808e-03
<MEAN> 25
 -1.290622e+00 8.492763e-01 -2.010189e-01 3.944714e+00 3.229464e+00 2.510719e+00 2.970423e+00 1.575120e+00 1.490440e+00 9.092445e-01 6.477448e-01 9.746962e-01 -1.689211e+00 -1.375496e+00 -8.874570e-01 1.359973e-01 5.539861e-01 7.556449e-01 1.193467e+00 1.387301e+00 1.635273e+00 1.146472e+00 1.293549e+00 9.851319e-01 -2.970055e-02
<VARIANCE> 25
 1.334060e+01 1.816725e+01 2.909922e+01 3.321978e+01 4.059910e+01 3.433411e+01 3.022807e+01 2.711890e+01 2.579957e+01 2.744670e+01 2.478225e+01 2.209401e+01 1.389726e+00 1.500557e+00 2.342464e+00 2.306356e+00 2.722953e+00 2.722889e+00 2.679923e+00 2.721054e+00 2.466403e+00 2.761579e+00 2.635752e+00 2.038452e+00 2.407021e-03
<GCONST> 8.911074e+01
<MIXTURE> 99 6.696178e-03
<MEAN> 25
 -5.377357e+00 7.931420e+00 5.581921e+00 2.754611e+00 9.650097e-01 -4.503301e+00 -1.391932e+00 -4.340823e+00 -3.304812e+00 -3.595497e+00 -1.330689e+00 -9.594208e-02 4.934419e-01 -5.274369e-01 2.976704e-01 -2.748402e-01 -1.049160e+00 -5.883659e-01 -2.831236e-01 -2.314404e-01 -9.818178e-02 -3.068195e-02 2.223646e-01 1.721506e-01 6.562744e-03
<VARIANCE> 25
 3.252852e+01 3.171508e+01 4.059491e+01 2.771375e+01 3.099770e+01 3.115507e+01 2.707887e+01 2.478560e+01 2.637419e+01 2.292150e+01 1.784116e+01 2.641358e+01 2.019190e+00 1.654678e+00 1.174989e+00 1.528418e+00 2.260897e+00 1.894897e+00 1.418259e+00 1.690849e+00 1.518799e+00 1.377573e+00 1.157098e+00 1.157304e+00 1.452466e-03
<GCONST> 8.447032e+01
<MIXTURE> 100 4.498084e-03
<MEAN> 25
 -1.598801e+00 6.344117e+00 1.027616e+01 -7.462214e+00 -1.078158e+01 -5.075352e+00 -4.941442e+00 -9.968071e+00 -4.717751e+00 -8.553108e-01 -2.733233e+00 -2.708213e+00 2.917722e+00 -1.260352e+00 1.299557e+00 -2.185777e+00 -3.419276e+00 -7.839994e-01 -1.218722e+00 -8.196820e-01 -1.475575e+00 3.465611e-01 -1.655403e+00 -2.861511e-01 2.013564e-03
<VARIANCE> 25
 1.362551e+01 2.106273e+01 2.246750e+01 2.642794e+01 2.301926e+01 2.372139e+01 2.910991e+01 2.171171e+01 2.748352e+01 2.265138e+01 2.240947e+01 2.133940e+01 1.799310e+00 3.953533e+00 2.919820e+00 4.286238e+00 4.184573e+00 4.537062e+00 4.015181e+00 4.340176e+00 4.167696e+00 3.896037e+00 3.910615e+00 3.224950e+00 1.674729e-03
<GCONST> 9.256880e+01
<MIXTURE> 101 6.007792e-03
<MEAN> 25
 7.979740e+00 -3.364779e+00 -6.181547e+00 -6.691975e+00 8.755317e-01 -1.191082e+00 -1.028927e+01 -2.027455e+00 1.543444e+00 2.738557e+00 -2.263464e+00 -5.034506e+00 6.830998e-01 6.282556e-01 -1.458723e+00 -1.568250e+00 1.030034e+00 2.289270e+00 1.917656e-01 -1.475563e+00 -1.063146e+00 9.774891e-01 1.316976e+00 -4.461742e-01 -4.647559e-03
<VARIANCE> 25
 9.527048e+00 1.665216e+01 2.952740e+01 4.235240e+01 3.513590e+01 3.499138e+01 3.892101e+01 3.532357e+01 3.696701e+01 4.288260e+01 5.098501e+01 2.399134e+01 2.888614e-01 6.688980e-01 1.151638e+00 1.556163e+00 1.640762e+00 2.083208e+00 2.040903e+00 1.942331e+00 2.291332e+00 2.270323e+00 1.837991e+00 1.906353e+00 3.635013e-04
<GCONST> 8.349210e+01
<MIXTURE> 102 6.007792e-03
<MEAN> 25
 7.979740e+00 -3.364779e+00 -6.181547e+00 -6.691975e+00 8.755317e-01 -1.191082e+00 -1.028927e+01 -2.027455e+00 1.543444e+00 2.738557e+00 -2.263464e+00 -5.034506e+00 6.830998e-01 6.282556e-01 -1.458723e+00 -1.568250e+00 1.030034e+00 2.289270e+00 1.917656e-01 -1.475563e+00 -1.063146e+00 9.774891e-01 1.316976e+00 -4.461742e-01 -4.647559e-03
<VARIANCE> 25
 9.527048e+00 1.665216e+01 2.952740e+01 4.235240e+01 3.513590e+01 3.499138e+01 3.892101e+01 3.532357e+01 3.696701e+01 4.288260e+01 5.098501e+01 2.399134e+01 2.888614e-01 6.688980e-01 1.151638e+00 1.556163e+00 1.640762e+00 2.083208e+00 2.040903e+00 1.942331e+00 2.291332e+00 2.270323e+00 1.837991e+00 1.906353e+00 3.635013e-04
<GCONST> 8.349210e+01
<MIXTURE> 103 5.694618e-03
<MEAN> 25
 3.312412e+00 -9.338488e+00 -6.062210e+00 -3.073147e+00 -1.337522e+00 -1.944346e+00 2.380981e+00 2.448435e+00 -4.601727e+00 -9.149279e+00 -5.007783e+00 3.273258e-01 -1.609787e-01 -1.470968e+00 -9.657787e-01 3.682927e-01 1.196871e+00 1.001207e+00 1.543798e-01 -2.701968e-01 -7.747224e-01 -9.403183e-01 -3.799450e-02 1.122919e-01 2.656485e-02
<VARIANCE> 25
 1.040245e+01 2.111240e+01 2.298911e+01 3.127584e+01 4.732910e+01 3.466546e+01 4.614477e+01 3.645648e+01 4.166287e+01 2.964237e+01 2.984380e+01 2.622366e+01 6.461117e-01 1.253165e+00 1.531993e+00 1.920354e+00 2.910710e+00 2.399925e+00 2.854967e+00 2.586771e+00 2.547384e+00 2.514952e+00 2.081143e+00 2.015449e+00 8.086281e-04
<GCONST> 8.751111e+01
<MIXTURE> 104 5.694618e-03
<MEAN> 25
 3.312412e+00 -9.338488e+00 -6.062210e+00 -3.073147e+00 -1.337522e+00 -1.944346e+00 2.380981e+00 2.448435e+00 -4.601727e+00 -9.149279e+00 -5.007783e+00 3.273258e-01 -1.609787e-01 -1.470968e+00 -9.657787e-01 3.682927e-01 1.196871e+00 1.001207e+00 1.543798e-01 -2.701968e-01 -7.747224e-01 -9.403183e-01 -3.799450e-02 1.122919e-01 2.656485e-02
<VARIANCE> 25
 1.040245e+01 2.111240e+01 2.298911e+01 3.127584e+01 4.732910e+01 3.466546e+01 4.614477e+01 3.645648e+01 4.166287e+01 2.964237e+01 2.984380e+01 2.622366e+01 6.461117e-01 1.253165e+00 1.531993e+00 1.920354e+00 2.910710e+00 2.399925e+00 2.854967e+00 2.586771e+00 2.547384e+00 2.514952e+00 2.081143e+00 2.015449e+00 8.086281e-04
<GCONST> 8.751111e+01
<MIXTURE> 105 4.710235e-03
<MEAN> 25
 1.414625e+00 -9.729390e-01 6.028416e+00 -2.121230e+00 -8.328715e+00 -3.946939e+00 -3.316369e+00 -1.166714e+00 -3.310394e+00 -2.732382e+00 8.371850e-01 -1.200368e+00 1.001874e-03 4.424652e-02 8.233178e-02 -7.625727e-02 -3.926791e-02 4.100789e-02 6.296151e-02 6.652848e-02 -2.246440e-02 5.774334e-02 4.088546e-02 -2.006515e-02 -1.086948e-03
<VARIANCE> 25
 9.947181e+00 1.946936e+01 4.039775e+01 3.149607e+01 3.895166e+01 3.790908e+01 3.171271e+01 3.421530e+01 3.277873e+01 3.247430e+01 3.452039e+01 2.416465e+01 8.688539e-02 1.916156e-01 3.352336e-01 2.870891e-01 4.022596e-01 4.319521e-01 4.255486e-01 5.118343e-01 5.255728e-01 4.974191e-01 5.236205e-01 3.688970e-01 9.668375e-05
<GCONST> 6.440483e+01
<MIXTURE> 106 4.710235e-03
<MEAN> 25
 1.414625e+00 -9.729390e-01 6.028416e+00 -2.121230e+00 -8.328715e+00 -3.946939e+00 -3.316369e+00 -1.166714e+00 -3.310394e+00 -2.732382e+00 8.371850e-01 -1.200368e+00 1.001874e-03 4.424652e-02 8.233178e-02 -7.625727e-02 -3.926791e-02 4.100789e-02 6.296151e-02 6.652848e-02 -2.246440e-02 5.774334e-02 4.088546e-02 -2.006515e-02 -1.086948e-03
<VARIANCE> 25
 9.947181e+00 1.946936e+01 4.039775e+01 3.149607e+01 3.895166e+01 3.790908e+01 3.171271e+01 3.421530e+01 3.277873e+01 3.247430e+01 3.452039e+01 2.416465e+01 8.688539e-02 1.916156e-01 3.352336e-01 2.870891e-01 4.022596e-01 4.319521e-01 4.255486e-01 5.118343e-01 5.255728e-01 4.974191e-01 5.236205e-01 3.688970e-01 9.668375e-05
<GCONST> 6.440483e+01
<MIXTURE> 107 5.452374e-03
<MEAN> 25
 8.625046e+00 -2.310122e+00 -8.035622e+00 -9.539553e+00 1.960890e+00 2.969629e+00 -8.597007e+00 -4.543735e+00 -8.840352e-01 3.376449e+00 8.527356e-01 -5.065079e+00 -6.089412e-01 -7.657636e-01 8.346736e-01 1.768254e+00 2.245023e-01 -2.006614e+00 -9.155054e-01 8.530199e-01 1.765867e+00 4.049763e-02 -1.659451e+00 -8.201479e-01 -1.784899e-03
<VARIANCE> 25
 9.315960e+00 2.040718e+01 2.828950e+01 4.283534e+01 3.567026e+01 3.843089e+01 5.168596e+01 3.620843e+01 4.566271e+01 4.170645e+01 5.125388e+01 3.032596e+01 3.550656e-01 9.689304e-01 1.459206e+00 2.417437e+00 2.282646e+00 2.828902e+00 2.620584e+00 2.545476e+00 2.293568e+00 3.038567e+00 1.941634e+00 2.204191e+00 7.009445e-04
<GCONST> 8.804160e+01
<MIXTURE> 108 5.452374e-03
<MEAN> 25
 8.625046e+00 -2.310122e+00 -8.035622e+00 -9.539553e+00 1.960890e+00 2.969629e+00 -8.597007e+00 -4.543735e+00 -8.840352e-01 3.376449e+00 8.527356e-01 -5.065079e+00 -6.089412e-01 -7.657636e-01 8.346736e-01 1.768254e+00 2.245023e-01 -2.006614e+00 -9.155054e-01 8.530199e-01 1.765867e+00 4.049763e-02 -1.659451e+00 -8.201479e-01 -1.784899e-03
<VARIANCE> 25
 9.315960e+00 2.040718e+01 2.828950e+01 4.283534e+01 3.567026e+01 3.843089e+01 5.168596e+01 3.620843e+01 4.566271e+01 4.170645e+01 5.125388e+01 3.032596e+01 3.550656e-01 9.689304e-01 1.459206e+00 2.417437e+00 2.282646e+00 2.828902e+00 2.620584e+00 2.545476e+00 2.293568e+00 3.038567e+00 1.941634e+00 2.204191e+00 7.009445e-04
<GCONST> 8.804160e+01
<MIXTURE> 109 6.661064e-03
<MEAN> 25
 3.528194e+00 -8.648802e+00 -7.355955e+00 -1.826206e+00 1.949726e+00 6.250062e-02 -8.860824e-02 9.671093e-01 -2.960592e+00 -7.336767e+00 -4.992413e+00 -1.759378e-01 -7.754334e-02 -1.491387e-01 -1.606678e-02 2.273490e-01 1.625216e-01 4.090259e-02 -1.150770e-01 -6.324184e-02 -6.541257e-02 -1.098114e-01 1.949680e-01 1.406590e-01 -4.000975e-03
<VARIANCE> 25
 9.330696e+00 2.463302e+01 1.971866e+01 2.693345e+01 3.619141e+01 3.080696e+01 4.082777e+01 3.103541e+01 4.002443e+01 3.169349e+01 2.462727e+01 2.426299e+01 2.041276e-01 4.033035e-01 5.296748e-01 6.230255e-01 1.099964e+00 8.722178e-01 1.146507e+00 1.099396e+00 1.015991e+00 9.304332e-01 8.058831e-01 8.879278e-01 1.631133e-04
<GCONST> 7.283102e+01
<MIXTURE> 110 6.661064e-03
<MEAN> 25
 3.528194e+00 -8.648802e+00 -7.355955e+00 -1.826206e+00 1.949726e+00 6.250062e-02 -8.860824e-02 9.671093e-01 -2.960592e+00 -7.336767e+00 -4.992413e+00 -1.759378e-01 -7.754334e-02 -1.491387e-01 -1.606678e-02 2.273490e-01 1.625216e-01 4.090259e-02 -1.150770e-01 -6.324184e-02 -6.541257e-02 -1.098114e-01 1.949680e-01 1.406590e-01 -4.000975e-03
<VARIANCE> 25
 9.330696e+00 2.463302e+01 1.971866e+01 2.693345e+01 3.619141e+01 3.080696e+01 4.082777e+01 3.103541e+01 4.002443e+01 3.169349e+01 2.462727e+01 2.426299e+01 2.041276e-01 4.033035e-01 5.296748e-01 6.230255e-01 1.099964e+00 8.722178e-01 1.146507e+00 1.099396e+00 1.015991e+00 9.304332e-01 8.058831e-01 8.879278e-01 1.631133e-04
<GCONST> 7.283102e+01
<MIXTURE> 111 4.337247e-03
<MEAN> 25
 -1.155778e-01 -4.329430e-02 -1.585225e-03 -7.513083e-02 -2.473658e-01 -3.389062e-01 -6.341298e-01 -5.809206e-01 -6.192369e-01 -6.530166e-01 -5.246534e-01 -1.058519e-01 -3.086428e-03 -3.177847e-02 -6.690099e-02 -6.179347e-02 -4.630744e-02 -4.522681e-02 -4.207738e-02 -8.390360e-02 -1.748325e-01 -2.545908e-01 -2.063924e-01 -1.075299e-01 1.598196e-04
<VARIANCE> 25
 1.448544e+00 2.046314e+00 3.542197e+00 4.343836e+00 6.326976e+00 8.041772e+00 7.859705e+00 9.271838e+00 8.703216e+00 9.740650e+00 9.392806e+00 7.713073e+00 7.289663e-02 1.768461e-01 3.078117e-01 4.354605e-01 6.491210e-01 7.278751e-01 7.584166e-01 1.033113e+00 8.603142e-01 8.510993e-01 8.651963e-01 8.461797e-01 3.238701e-05
<GCONST> 4.839231e+01
<MIXTURE> 112 4.337247e-03
<MEAN> 25
 -1.155778e-01 -4.329430e-02 -1.585225e-03 -7.513083e-02 -2.473658e-01 -3.389062e-01 -6.341298e-01 -5.809206e-01 -6.192369e-01 -6.530166e-01 -5.246534e-01 -1.058519e-01 -3.086428e-03 -3.177847e-02 -6.690099e-02 -6.179347e-02 -4.630744e-02 -4.522681e-02 -4.207738e-02 -8.390360e-02 -1.748325e-01 -2.545908e-01 -2.063924e-01 -1.075299e-01 1.598196e-04
<VARIANCE> 25
 1.448544e+00 2.046314e+00 3.542197e+00 4.343836e+00 6.326976e+00 8.041772e+00 7.859705e+00 9.271838e+00 8.703216e+00 9.740650e+00 9.392806e+00 7.713073e+00 7.289663e-02 1.768461e-01 3.078117e-01 4.354605e-01 6.491210e-01 7.278751e-01 7.584166e-01 1.033113e+00 8.603142e-01 8.510993e-01 8.651963e-01 8.461797e-01 3.238701e-05
<GCONST> 4.839231e+01
<MIXTURE> 113 5.938666e-03
<MEAN> 25
 9.801354e+00 1.665971e+00 -8.662575e+00 -1.670042e+01 -1.070824e+00 5.610856e+00 -5.052155e+00 -1.424537e+00 -5.708717e+00 -6.586828e-01 1.316018e-01 -2.612495e-01 -6.787299e-03 5.084519e-03 -8.134562e-02 -1.387996e-01 6.632900e-02 1.372454e-01 4.103647e-02 2.121512e-02 -7.864825e-02 -1.090910e-02 1.883311e-01 5.227399e-02 -1.587495e-03
<VARIANCE> 25
 9.421722e+00 1.603996e+01 2.905728e+01 3.628444e+01 5.102506e+01 3.287720e+01 3.973808e+01 3.796893e+01 3.616615e+01 4.564073e+01 3.588689e+01 2.777245e+01 1.216647e-01 3.124564e-01 3.266335e-01 6.356681e-01 6.385300e-01 6.364850e-01 7.740291e-01 8.375158e-01 9.485770e-01 9.423193e-01 7.058332e-01 7.065439e-01 1.219924e-04
<GCONST> 7.098809e+01
<MIXTURE> 114 5.938666e-03
<MEAN> 25
 9.801354e+00 1.665971e+00 -8.662575e+00 -1.670042e+01 -1.070824e+00 5.610856e+00 -5.052155e+00 -1.424537e+00 -5.708717e+00 -6.586828e-01 1.316018e-01 -2.612495e-01 -6.787299e-03 5.084519e-03 -8.134562e-02 -1.387996e-01 6.632900e-02 1.372454e-01 4.103647e-02 2.121512e-02 -7.864825e-02 -1.090910e-02 1.883311e-01 5.227399e-02 -1.587495e-03
<VARIANCE> 25
 9.421722e+00 1.603996e+01 2.905728e+01 3.628444e+01 5.102506e+01 3.287720e+01 3.973808e+01 3.796893e+01 3.616615e+01 4.564073e+01 3.588689e+01 2.777245e+01 1.216647e-01 3.124564e-01 3.266335e-01 6.356681e-01 6.385300e-01 6.364850e-01 7.740291e-01 8.375158e-01 9.485770e-01 9.423193e-01 7.058332e-01 7.065439e-01 1.219924e-04
<GCONST> 7.098809e+01
<MIXTURE> 115 2.935202e-03
<MEAN> 25
 -1.133334e+00 -1.863415e-01 -1.321260e+00 8.270852e-01 6.314498e-01 -4.415777e-01 3.470728e-01 -5.099910e-02 2.989216e-01 1.752517e-01 3.112819e-03 7.979882e-01 2.265374e-03 -1.244577e-01 -2.751324e-01 -4.580248e-01 -5.522056e-01 -5.519797e-01 -5.836023e-01 -6.024751e-01 -4.908202e-01 -4.020886e-01 -3.695933e-01 -1.023950e-01 -1.172545e-04
<VARIANCE> 25
 4.329403e+00 4.239809e+00 7.025894e+00 8.903236e+00 8.421012e+00 9.730526e+00 1.150440e+01 1.448054e+01 1.446601e+01 1.518312e+01 1.252119e+01 9.344578e+00 1.486200e-01 2.793870e-01 4.062006e-01 5.170528e-01 5.690317e-01 6.606462e-01 9.239725e-01 1.084680e+00 8.603241e-01 1.012146e+00 1.022178e+00 1.064235e+00 1.625601e-06
<GCONST> 5.356664e+01
<MIXTURE> 116 2.935202e-03
<MEAN> 25
 -1.133334e+00 -1.863415e-01 -1.321260e+00 8.270852e-01 6.314498e-01 -4.415777e-01 3.470728e-01 -5.099910e-02 2.989216e-01 1.752517e-01 3.112819e-03 7.979882e-01 2.265374e-03 -1.244577e-01 -2.751324e-01 -4.580248e-01 -5.522056e-01 -5.519797e-01 -5.836023e-01 -6.024751e-01 -4.908202e-01 -4.020886e-01 -3.695933e-01 -1.023950e-01 -1.172545e-04
<VARIANCE> 25
 4.329403e+00 4.239809e+00 7.025894e+00 8.903236e+00 8.421012e+00 9.730526e+00 1.150440e+01 1.448054e+01 1.446601e+01 1.518312e+01 1.252119e+01 9.344578e+00 1.486200e-01 2.793870e-01 4.062006e-01 5.170528e-01 5.690317e-01 6.606462e-01 9.239725e-01 1.084680e+00 8.603241e-01 1.012146e+00 1.022178e+00 1.064235e+00 1.625601e-06
<GCONST> 5.356664e+01
<MIXTURE> 117 6.506003e-03
<MEAN> 25
 -4.498433e+00 1.093141e+00 1.051617e+00 9.528910e+00 6.131556e+00 6.116161e+00 6.390509e+00 5.013322e+00 6.292018e+00 4.896118e+00 6.262627e+00 2.641976e+00 -7.698943e-02 -2.401997e-01 -3.579563e-01 -4.412688e-01 -3.690782e-01 -2.930627e-01 -2.944449e-01 -3.429647e-01 -3.907793e-01 -3.594384e-01 -2.689163e-01 -1.159288e-01 -7.251080e-06
<VARIANCE> 25
 7.626540e+00 8.523751e+00 9.543239e+00 1.564937e+01 1.573418e+01 1.563706e+01 1.759609e+01 1.755367e+01 1.638526e+01 1.605647e+01 1.663641e+01 1.458033e+01 2.143544e-01 3.014410e-01 4.180592e-01 6.209219e-01 8.456743e-01 1.041729e+00 1.160087e+00 1.225193e+00 1.223095e+00 1.188467e+00 1.158538e+00 1.095693e+00 1.005275e-06
<GCONST> 6.036908e+01
<MIXTURE> 118 6.506003e-03
<MEAN> 25
 -4.498433e+00 1.093141e+00 1.051617e+00 9.528910e+00 6.131556e+00 6.116161e+00 6.390509e+00 5.013322e+00 6.292018e+00 4.896118e+00 6.262627e+00 2.641976e+00 -7.698943e-02 -2.401997e-01 -3.579563e-01 -4.412688e-01 -3.690782e-01 -2.930627e-01 -2.944449e-01 -3.429647e-01 -3.907793e-01 -3.594384e-01 -2.689163e-01 -1.159288e-01 -7.251080e-06
<VARIANCE> 25
 7.626540e+00 8.523751e+00 9.543239e+00 1.564937e+01 1.573418e+01 1.563706e+01 1.759609e+01 1.755367e+01 1.638526e+01 1.605647e+01 1.663641e+01 1.458033e+01 2.143544e-01 3.014410e-01 4.180592e-01 6.209219e-01 8.456743e-01 1.041729e+00 1.160087e+00 1.225193e+00 1.223095e+00 1.188467e+00 1.158538e+00 1.095693e+00 1.005275e-06
<GCONST> 6.036908e+01
<MIXTURE> 119 4.297961e-03
<MEAN> 25
 -4.401931e+00 -6.361809e+00 2.065276e+00 1.510154e+00 1.473838e+00 -1.288332e-02 4.286910e+00 4.921817e+00 1.158418e+00 1.158974e+00 5.633229e+00 1.441757e+00 -5.543210e-02 -7.077767e-02 3.301441e-02 -4.833033e-02 -1.458732e-01 -1.990005e-01 -1.033462e-01 -8.334451e-02 -1.946061e-01 -1.959964e-01 -1.153098e-01 -8.783477e-02 2.363105e-03
<VARIANCE> 25
 8.956878e+00 1.290012e+01 1.428730e+01 1.746251e+01 2.111202e+01 1.938681e+01 2.337962e+01 2.485395e+01 2.203986e+01 2.462082e+01 2.077204e+01 1.775971e+01 1.739873e-01 2.834328e-01 5.022409e-01 5.836927e-01 7.740931e-01 9.156764e-01 1.006624e+00 1.288936e+00 1.253829e+00 1.229554e+00 1.128904e+00 1.130347e+00 2.289867e-04
<GCONST> 6.877673e+01
<MIXTURE> 120 4.297961e-03
<MEAN> 25
 -4.401931e+00 -6.361809e+00 2.065276e+00 1.510154e+00 1.473838e+00 -1.288332e-02 4.286910e+00 4.921817e+00 1.158418e+00 1.158974e+00 5.633229e+00 1.441757e+00 -5.543210e-02 -7.077767e-02 3.301441e-02 -4.833033e-02 -1.458732e-01 -1.990005e-01 -1.033462e-01 -8.334451e-02 -1.946061e-01 -1.959964e-01 -1.153098e-01 -8.783477e-02 2.363105e-03
<VARIANCE> 25
 8.956878e+00 1.290012e+01 1.428730e+01 1.746251e+01 2.111202e+01 1.938681e+01 2.337962e+01 2.485395e+01 2.203986e+01 2.462082e+01 2.077204e+01 1.775971e+01 1.739873e-01 2.834328e-01 5.022409e-01 5.836927e-01 7.740931e-01 9.156764e-01 1.006624e+00 1.288936e+00 1.253829e+00 1.229554e+00 1.128904e+00 1.130347e+00 2.289867e-04
<GCONST> 6.877673e+01
<MIXTURE> 121 4.567511e-03
<MEAN> 25
 1.294177e-01 -2.191456e+00 4.125194e+00 -1.135918e+01 -1.120964e+01 -1.724520e+00 6.656284e-01 -4.955394e+00 -4.194660e+00 -8.997790e-01 -5.098719e+00 -3.998266e+00 1.807239e-02 7.294250e-02 5.195286e-03 8.289816e-02 1.785649e-01 7.561423e-02 -5.940356e-02 -1.030367e-01 -1.662208e-01 -2.150066e-01 -1.151090e-01 1.839138e-03 -7.092602e-03
<VARIANCE> 25
 6.676643e+00 1.361198e+01 1.920982e+01 2.731594e+01 2.939524e+01 2.589610e+01 2.611889e+01 2.346550e+01 3.320807e+01 2.683440e+01 1.812071e+01 1.970075e+01 1.583370e-01 6.001125e-01 5.764589e-01 6.857234e-01 7.881665e-01 1.121632e+00 1.088368e+00 1.113593e+00 1.418423e+00 1.368037e+00 8.605635e-01 9.725690e-01 1.954530e-04
<GCONST> 7.117465e+01
<MIXTURE> 122 4.567511e-03
<MEAN> 25
 1.294177e-01 -2.191456e+00 4.125194e+00 -1.135918e+01 -1.120964e+01 -1.724520e+00 6.656284e-01 -4.955394e+00 -4.194660e+00 -8.997790e-01 -5.098719e+00 -3.998266e+00 1.807239e-02 7.294250e-02 5.195286e-03 8.289816e-02 1.785649e-01 7.561423e-02 -5.940356e-02 -1.030367e-01 -1.662208e-01 -2.150066e-01 -1.151090e-01 1.839138e-03 -7.092602e-03
<VARIANCE> 25
 6.676643e+00 1.361198e+01 1.920982e+01 2.731594e+01 2.939524e+01 2.589610e+01 2.611889e+01 2.346550e+01 3.320807e+01 2.683440e+01 1.812071e+01 1.970075e+01 1.583370e-01 6.001125e-01 5.764589e-01 6.857234e-01 7.881665e-01 1.121632e+00 1.088368e+00 1.113593e+00 1.418423e+00 1.368037e+00 8.605635e-01 9.725690e-01 1.954530e-04
<GCONST> 7.117465e+01
<MIXTURE> 123 4.393044e-03
<MEAN> 25
 -8.418272e-01 5.008348e-01 3.298177e-01 1.937485e+00 1.642019e+00 8.673718e-01 6.932346e-01 -4.224628e-01 -5.297989e-01 -6.679216e-01 -2.672715e-01 -1.580324e-01 -2.841492e-01 -5.975568e-01 -7.323840e-01 -6.192212e-01 -3.085680e-01 -1.045890e-01 1.983237e-01 4.706368e-01 8.263993e-01 1.101907e+00 8.404611e-01 5.250196e-01 -7.993920e-04
<VARIANCE> 25
 3.980324e+00 3.576741e+00 6.153926e+00 8.853261e+00 1.053820e+01 1.000384e+01 1.052308e+01 1.264689e+01 1.186452e+01 1.200351e+01 1.315081e+01 1.073456e+01 2.349693e-01 2.490755e-01 3.136185e-01 6.274729e-01 7.227788e-01 9.061723e-01 1.025694e+00 1.213777e+00 1.060777e+00 1.133364e+00 1.103784e+00 1.112934e+00 9.702372e-05
<GCONST> 5.853965e+01
<MIXTURE> 124 4.069876e-03
<MEAN> 25
 -3.954527e+00 -8.198362e-01 -1.949392e+00 3.282440e+00 3.529020e+00 2.448358e+00 4.100113e+00 2.513487e+00 2.748611e+00 1.250885e+00 6.757814e-01 1.841962e+00 -2.017427e-01 -3.370164e-01 -3.849278e-01 -2.501865e-01 1.158230e-01 5.934846e-01 8.773216e-01 9.558196e-01 7.385392e-01 3.632046e-01 4.536817e-02 -2.859572e-02 -1.535352e-04
<VARIANCE> 25
 1.355379e+01 5.435982e+00 8.559718e+00 1.259075e+01 1.184186e+01 1.505743e+01 1.350124e+01 1.489790e+01 1.368123e+01 1.369182e+01 1.550161e+01 1.323558e+01 1.023393e-01 1.499138e-01 2.557721e-01 4.160271e-01 5.698141e-01 6.505131e-01 6.870914e-01 7.582986e-01 1.027198e+00 9.894889e-01 9.844070e-01 9.102669e-01 2.086485e-05
<GCONST> 5.703790e+01
<MIXTURE> 125 4.069876e-03
<MEAN> 25
 -3.954527e+00 -8.198362e-01 -1.949392e+00 3.282440e+00 3.529020e+00 2.448358e+00 4.100113e+00 2.513487e+00 2.748611e+00 1.250885e+00 6.757814e-01 1.841962e+00 -2.017427e-01 -3.370164e-01 -3.849278e-01 -2.501865e-01 1.158230e-01 5.934846e-01 8.773216e-01 9.558196e-01 7.385392e-01 3.632046e-01 4.536817e-02 -2.859572e-02 -1.535352e-04
<VARIANCE> 25
 1.355379e+01 5.435982e+00 8.559718e+00 1.259075e+01 1.184186e+01 1.505743e+01 1.350124e+01 1.489790e+01 1.368123e+01 1.369182e+01 1.550161e+01 1.323558e+01 1.023393e-01 1.499138e-01 2.557721e-01 4.160271e-01 5.698141e-01 6.505131e-01 6.870914e-01 7.582986e-01 1.027198e+00 9.894889e-01 9.844070e-01 9.102669e-01 2.086485e-05
<GCONST> 5.703790e+01
<MIXTURE> 126 2.402244e-03
<MEAN> 25
 -2.804265e+00 -5.051693e+00 -3.919217e+00 1.550117e+00 2.907642e+00 -2.674125e+00 -1.358892e-01 2.307411e+00 2.500950e+00 -2.137930e+00 -1.372963e+00 1.998469e+00 1.253820e-02 -6.270628e-02 -2.617902e-02 -2.051233e-01 -3.864814e-01 -4.100692e-01 -2.998146e-01 -1.693788e-01 -1.355684e-01 -1.117922e-01 -1.210123e-01 -2.078737e-02 -2.227121e-03
<VARIANCE> 25
 7.420226e+00 1.514349e+01 1.416701e+01 1.266261e+01 2.207272e+01 1.912553e+01 1.780410e+01 2.558819e+01 2.917178e+01 2.333699e+01 1.885547e+01 1.793915e+01 1.778817e-01 3.462134e-01 4.624057e-01 5.739719e-01 7.707753e-01 9.540718e-01 9.946226e-01 1.350965e+00 1.413360e+00 1.212191e+00 1.149487e+00 1.101884e+00 2.163145e-04
<GCONST> 6.858241e+01
<MIXTURE> 127 2.402244e-03
<MEAN> 25
 -2.804265e+00 -5.051693e+00 -3.919217e+00 1.550117e+00 2.907642e+00 -2.674125e+00 -1.358892e-01 2.307411e+00 2.500950e+00 -2.137930e+00 -1.372963e+00 1.998469e+00 1.253820e-02 -6.270628e-02 -2.617902e-02 -2.051233e-01 -3.864814e-01 -4.100692e-01 -2.998146e-01 -1.693788e-01 -1.355684e-01 -1.117922e-01 -1.210123e-01 -2.078737e-02 -2.227121e-03
<VARIANCE> 25
 7.420226e+00 1.514349e+01 1.416701e+01 1.266261e+01 2.207272e+01 1.912553e+01 1.780410e+01 2.558819e+01 2.917178e+01 2.333699e+01 1.885547e+01 1.793915e+01 1.778817e-01 3.462134e-01 4.624057e-01 5.739719e-01 7.707753e-01 9.540718e-01 9.946226e-01 1.350965e+00 1.413360e+00 1.212191e+00 1.149487e+00 1.101884e+00 2.163145e-04
<GCONST> 6.858241e+01
<MIXTURE> 128 3.790457e-03
<MEAN> 25
 -3.414802e+00 1.367341e+00 -2.120849e-01 5.790141e+00 3.152261e+00 1.516038e+00 3.117163e+00 2.054445e+00 3.313721e+00 3.155900e+00 3.203414e+00 3.192579e+00 -3.370631e-01 -1.212556e-01 1.304253e-01 7.034338e-01 1.155473e+00 1.102209e+00 7.847064e-01 2.092245e-01 -3.778291e-01 -7.695351e-01 -7.020398e-01 -4.884658e-01 2.217238e-05
<VARIANCE> 25
 1.061670e+01 1.064315e+01 1.397052e+01 2.102224e+01 1.922094e+01 2.000301e+01 2.370746e+01 2.328295e+01 2.667915e+01 2.352040e+01 2.601008e+01 1.754109e+01 8.160737e-01 1.091563e+00 1.312528e+00 1.520910e+00 1.633463e+00 1.775383e+00 2.122429e+00 2.264693e+00 2.059760e+00 1.733910e+00 1.702609e+00 1.681792e+00 1.261506e-06
<GCONST> 7.313909e+01
<TRANSP> 3
 0.000000e+00 1.000000e+00 0.000000e+00
 0.000000e+00 9.999990e-01 9.999998e-07
 0.000000e+00 0.000000e+00 0.000000e+00
<ENDHMM>
