~o
<STREAMINFO> 1 25
<VECSIZE> 25<NULLD><MFCC_E_D_N><DIAGC>
~h "jmodel"
<BEGINHMM>
<NUMSTATES> 3
<STATE> 2
<NUMMIXES> 128
<MIXTURE> 1 5.748963e-03
<MEAN> 25
 -2.553530e+00 3.183348e+00 2.295089e+00 8.737285e+00 4.382142e+00 3.438346e+00 4.059037e+00 3.914699e+00 5.825279e+00 5.247087e+00 5.850883e+00 3.075062e+00 -2.000067e+00 -1.629251e+00 -8.659688e-01 1.068809e+00 1.558708e+00 2.235133e+00 2.143746e+00 2.077389e+00 1.675631e+00 1.262315e+00 1.574805e+00 6.133352e-01 -4.653774e-02
<VARIANCE> 25
 1.023664e+01 1.171008e+01 1.495197e+01 1.868151e+01 2.313747e+01 2.208711e+01 2.182472e+01 2.198297e+01 2.093220e+01 2.244971e+01 2.112283e+01 1.702698e+01 1.786968e+00 2.110157e+00 3.017188e+00 3.209216e+00 3.725988e+00 3.346192e+00 3.332674e+00 3.381320e+00 3.596959e+00 3.727058e+00 3.522150e+00 2.822837e+00 3.145633e-03
<GCONST> 8.848682e+01
<MIXTURE> 2 4.549242e-03
<MEAN> 25
 -4.849403e+00 1.323885e+00 9.777132e-01 9.883914e+00 6.698035e+00 7.360318e+00 7.850972e+00 6.966296e+00 8.369887e+00 6.357786e+00 7.574923e+00 3.053306e+00 -6.035953e-02 4.190205e-02 1.471281e-01 2.190061e-01 2.691260e-01 2.826011e-01 3.007782e-01 3.227199e-01 3.450718e-01 2.996164e-01 1.993487e-01 7.520743e-02 4.043241e-06
<VARIANCE> 25
 7.012436e+00 8.869543e+00 1.062978e+01 1.586391e+01 1.713301e+01 1.609930e+01 1.680106e+01 1.840412e+01 1.648613e+01 1.731278e+01 1.838109e+01 1.434698e+01 1.249826e-01 2.252425e-01 3.387623e-01 4.751022e-01 6.491651e-01 8.102010e-01 9.312301e-01 1.004130e+00 1.049706e+00 1.088385e+00 1.071573e+00 1.013414e+00 9.995424e-07
<GCONST> 5.808075e+01
<MIXTURE> 3 4.549242e-03
<MEAN> 25
 -4.849403e+00 1.323885e+00 9.777132e-01 9.883914e+00 6.698035e+00 7.360318e+00 7.850972e+00 6.966296e+00 8.369887e+00 6.357786e+00 7.574923e+00 3.053306e+00 -6.035953e-02 4.190205e-02 1.471281e-01 2.190061e-01 2.691260e-01 2.826011e-01 3.007782e-01 3.227199e-01 3.450718e-01 2.996164e-01 1.993487e-01 7.520743e-02 4.043241e-06
<VARIANCE> 25
 7.012436e+00 8.869543e+00 1.062978e+01 1.586391e+01 1.713301e+01 1.609930e+01 1.680106e+01 1.840412e+01 1.648613e+01 1.731278e+01 1.838109e+01 1.434698e+01 1.249826e-01 2.252425e-01 3.387623e-01 4.751022e-01 6.491651e-01 8.102010e-01 9.312301e-01 1.004130e+00 1.049706e+00 1.088385e+00 1.071573e+00 1.013414e+00 9.995424e-07
<GCONST> 5.808075e+01
<MIXTURE> 4 1.671429e-02
<MEAN> 25
 3.313375e+00 2.587671e+00 -4.117179e+00 2.676661e-01 3.890922e+00 6.660788e-01 4.156889e-01 -3.148888e-01 1.815040e+00 1.500681e+00 -2.205507e+00 -1.706451e-01 -2.827529e+00 1.240022e+00 1.297610e+00 3.071631e+00 8.414297e-01 2.221983e-01 1.600140e+00 1.312025e+00 3.299707e-01 3.927557e-01 1.189861e+00 9.459223e-01 -8.468895e-02
<VARIANCE> 25
 2.008326e+01 2.579221e+01 2.791979e+01 3.837117e+01 4.013900e+01 6.153285e+01 5.785999e+01 4.707903e+01 4.959779e+01 5.281806e+01 4.943165e+01 3.221524e+01 2.177231e+00 4.736350e+00 4.263025e+00 4.509475e+00 4.470284e+00 6.109397e+00 5.338511e+00 5.487861e+00 7.128534e+00 5.654873e+00 5.488631e+00 3.856661e+00 7.090327e-03
<GCONST> 1.039135e+02
<MIXTURE> 5 3.206198e-03
<MEAN> 25
 -3.359945e+00 2.155588e+00 5.447429e-01 9.343996e+00 6.769124e+00 6.203031e+00 7.074976e+00 4.751543e+00 5.591886e+00 3.865607e+00 4.560728e+00 2.422543e+00 -3.045118e-01 7.361783e-01 1.188084e+00 1.029626e+00 3.168688e-01 -8.567618e-02 -1.055904e-01 -1.581582e-02 4.668549e-01 6.888804e-01 4.384265e-01 1.022835e-01 -4.150498e-05
<VARIANCE> 25
 1.022297e+01 1.371544e+01 2.326575e+01 2.549780e+01 2.010642e+01 1.971589e+01 1.981231e+01 2.006434e+01 2.149887e+01 2.090485e+01 2.413342e+01 1.782575e+01 1.207992e+00 1.235095e+00 1.402104e+00 1.644473e+00 2.246850e+00 2.343426e+00 2.286458e+00 2.370003e+00 2.278891e+00 2.201946e+00 2.116899e+00 1.853345e+00 9.936219e-07
<GCONST> 7.516022e+01
<MIXTURE> 6 5.475854e-03
<MEAN> 25
 9.217670e+00 -3.650407e-01 -6.136421e+00 -1.077545e+01 -2.196547e+00 6.592992e+00 -5.947958e+00 -4.971867e+00 -4.010619e+00 1.606142e+00 4.910720e+00 -1.257652e+00 4.681512e-01 9.041039e-01 -3.710166e-01 -1.481568e+00 -5.717138e-01 1.331487e+00 1.561451e+00 1.810354e-01 -1.060984e+00 -1.173938e+00 2.000458e-01 1.220025e+00 -1.026780e-02
<VARIANCE> 25
 1.136320e+01 1.591573e+01 2.554956e+01 4.093529e+01 3.419231e+01 2.946509e+01 4.091227e+01 3.676735e+01 3.968044e+01 3.763950e+01 4.023104e+01 2.689163e+01 3.046149e-01 8.422038e-01 1.084550e+00 1.895292e+00 1.586236e+00 1.914075e+00 1.874057e+00 1.955223e+00 2.691451e+00 1.853566e+00 2.302078e+00 1.419725e+00 6.714844e-04
<GCONST> 8.387859e+01
<MIXTURE> 7 5.475854e-03
<MEAN> 25
 9.217670e+00 -3.650407e-01 -6.136421e+00 -1.077545e+01 -2.196547e+00 6.592992e+00 -5.947958e+00 -4.971867e+00 -4.010619e+00 1.606142e+00 4.910720e+00 -1.257652e+00 4.681512e-01 9.041039e-01 -3.710166e-01 -1.481568e+00 -5.717138e-01 1.331487e+00 1.561451e+00 1.810354e-01 -1.060984e+00 -1.173938e+00 2.000458e-01 1.220025e+00 -1.026780e-02
<VARIANCE> 25
 1.136320e+01 1.591573e+01 2.554956e+01 4.093529e+01 3.419231e+01 2.946509e+01 4.091227e+01 3.676735e+01 3.968044e+01 3.763950e+01 4.023104e+01 2.689163e+01 3.046149e-01 8.422038e-01 1.084550e+00 1.895292e+00 1.586236e+00 1.914075e+00 1.874057e+00 1.955223e+00 2.691451e+00 1.853566e+00 2.302078e+00 1.419725e+00 6.714844e-04
<GCONST> 8.387859e+01
<MIXTURE> 8 1.165917e-02
<MEAN> 25
 -4.710779e+00 1.404678e+00 1.287730e+00 9.581139e+00 6.595851e+00 6.180090e+00 6.463532e+00 5.659373e+00 6.744567e+00 5.630936e+00 6.475579e+00 3.151434e+00 -6.354092e-01 -1.400153e+00 -1.062926e+00 -1.728270e+00 -2.281257e-01 -9.449105e-01 -1.799721e-01 -2.851312e-01 -2.663745e-01 -1.739614e-01 -2.065946e-01 8.320224e-02 9.772220e-02
<VARIANCE> 25
 9.324802e+00 9.907606e+00 1.153478e+01 1.601070e+01 1.652869e+01 1.604652e+01 1.796827e+01 1.741343e+01 1.776385e+01 1.722355e+01 1.955195e+01 1.385656e+01 2.733849e+00 2.846759e+00 3.875493e+00 3.728405e+00 3.421227e+00 3.293121e+00 3.095009e+00 3.057595e+00 2.864690e+00 2.629386e+00 2.419668e+00 1.885482e+00 6.732270e-03
<GCONST> 8.627122e+01
<MIXTURE> 9 1.199672e-02
<MEAN> 25
 8.356743e+00 3.019426e+00 -6.004101e+00 -1.158815e+01 -2.674411e+00 5.596586e+00 -2.074241e+00 -2.770723e+00 -4.644638e+00 -2.547428e+00 1.568844e-01 4.333363e-01 1.409039e+00 -4.977020e-01 -2.719770e-01 -2.756032e+00 -1.472436e+00 9.618712e-01 -7.797364e-01 -5.728553e-01 -3.109351e-01 -8.702245e-01 9.611650e-01 7.443785e-03 7.360800e-02
<VARIANCE> 25
 1.548867e+01 2.011219e+01 3.037137e+01 5.535873e+01 4.853348e+01 3.167979e+01 3.811359e+01 4.670701e+01 4.017903e+01 4.751447e+01 3.571502e+01 2.429514e+01 2.003551e+00 3.047830e+00 4.367777e+00 4.441580e+00 4.508295e+00 3.829770e+00 4.033756e+00 6.198964e+00 4.673959e+00 4.431881e+00 4.385490e+00 2.578005e+00 2.112916e-03
<GCONST> 9.839721e+01
<MIXTURE> 10 6.596976e-03
<MEAN> 25
 8.243923e-01 7.627662e+00 5.372886e+00 7.140380e+00 1.580560e+00 -2.109432e+00 -5.192586e-01 -1.687163e+00 8.715110e-01 8.602234e-01 8.315294e-01 6.619507e-01 -1.922485e+00 -6.722106e-01 -4.598741e-01 3.024266e+00 2.462416e+00 2.708349e+00 2.369289e+00 2.275484e+00 1.862969e+00 1.547598e+00 2.329531e+00 5.228738e-01 -1.380209e-01
<VARIANCE> 25
 1.952018e+01 2.068420e+01 2.228521e+01 2.906885e+01 3.829097e+01 3.490969e+01 3.510658e+01 3.379721e+01 2.758624e+01 2.901702e+01 2.696107e+01 2.499305e+01 2.235538e+00 3.421999e+00 5.528495e+00 5.172345e+00 5.545160e+00 4.466313e+00 4.707967e+00 4.841083e+00 4.384201e+00 5.018337e+00 4.462954e+00 3.189092e+00 2.703347e-03
<GCONST> 9.745349e+01
<MIXTURE> 11 1.633820e-02
<MEAN> 25
 6.791728e+00 4.041101e+00 2.377368e+00 5.536839e+00 -1.490800e+00 -1.187143e+00 -1.071443e+00 -5.971003e+00 -2.667090e+00 5.700619e-01 -3.065661e+00 -1.798875e+00 -2.743830e-01 5.162858e-01 7.797073e-02 3.089974e-01 8.099160e-01 -1.973978e-02 7.220609e-02 -7.364783e-02 1.298374e-02 8.755927e-02 -1.130926e-01 5.300418e-03 -1.312239e-02
<VARIANCE> 25
 9.102339e+00 1.828557e+01 1.708790e+01 2.883528e+01 3.989207e+01 3.707561e+01 4.192890e+01 3.781410e+01 3.682412e+01 2.994572e+01 3.035632e+01 2.296084e+01 9.808259e-01 9.886972e-01 1.651477e+00 1.996484e+00 1.847602e+00 1.869449e+00 2.705256e+00 2.551532e+00 2.902428e+00 2.252711e+00 2.124900e+00 1.450998e+00 9.141674e-04
<GCONST> 8.582157e+01
<MIXTURE> 12 5.904134e-03
<MEAN> 25
 1.072217e+01 3.725194e+00 -4.479994e+00 -1.599692e+01 -8.664468e+00 8.619978e+00 -9.286439e-01 -1.935879e+00 -1.747449e+00 -4.882682e+00 1.805962e+00 7.124430e-01 6.686753e-02 2.924536e-01 8.424091e-02 -3.700122e-01 -3.128486e-01 3.100607e-02 3.103923e-01 4.444452e-01 1.473589e-01 -3.870013e-01 -3.866059e-01 5.892454e-02 -6.288517e-03
<VARIANCE> 25
 9.259806e+00 2.100442e+01 2.338983e+01 3.496421e+01 4.211824e+01 3.102418e+01 4.185918e+01 4.881954e+01 4.413749e+01 3.724875e+01 3.810572e+01 2.889429e+01 2.464566e-01 6.900470e-01 6.928750e-01 1.172629e+00 1.188963e+00 1.054119e+00 1.177426e+00 1.384035e+00 1.262161e+00 1.220131e+00 1.221365e+00 9.667754e-01 5.791602e-04
<GCONST> 7.900952e+01
<MIXTURE> 13 5.904134e-03
<MEAN> 25
 1.072217e+01 3.725194e+00 -4.479994e+00 -1.599692e+01 -8.664468e+00 8.619978e+00 -9.286439e-01 -1.935879e+00 -1.747449e+00 -4.882682e+00 1.805962e+00 7.124430e-01 6.686753e-02 2.924536e-01 8.424091e-02 -3.700122e-01 -3.128486e-01 3.100607e-02 3.103923e-01 4.444452e-01 1.473589e-01 -3.870013e-01 -3.866059e-01 5.892454e-02 -6.288517e-03
<VARIANCE> 25
 9.259806e+00 2.100442e+01 2.338983e+01 3.496421e+01 4.211824e+01 3.102418e+01 4.185918e+01 4.881954e+01 4.413749e+01 3.724875e+01 3.810572e+01 2.889429e+01 2.464566e-01 6.900470e-01 6.928750e-01 1.172629e+00 1.188963e+00 1.054119e+00 1.177426e+00 1.384035e+00 1.262161e+00 1.220131e+00 1.221365e+00 9.667754e-01 5.791602e-04
<GCONST> 7.900952e+01
<MIXTURE> 14 6.488954e-03
<MEAN> 25
 -4.114789e+00 -1.607175e-01 -3.154958e-01 8.928820e+00 7.619692e+00 7.056238e+00 7.770741e+00 7.058289e+00 7.635392e+00 5.376296e+00 6.497358e+00 3.979151e+00 -2.771109e-01 2.254863e-01 3.319884e-01 2.772607e-01 3.771387e-02 4.521620e-02 4.568969e-02 1.357463e-01 2.299079e-01 5.260898e-01 5.052481e-01 1.346392e-01 -9.402405e-03
<VARIANCE> 25
 9.585423e+00 1.391863e+01 1.773334e+01 1.781583e+01 1.996947e+01 2.035747e+01 2.079679e+01 2.051465e+01 2.150816e+01 2.321300e+01 2.334885e+01 1.526242e+01 9.532138e-01 1.569826e+00 1.678241e+00 1.945325e+00 2.149143e+00 2.192596e+00 2.157534e+00 2.262041e+00 2.237032e+00 2.351988e+00 2.078115e+00 1.801876e+00 9.644293e-04
<GCONST> 8.150697e+01
<MIXTURE> 15 2.475190e-03
<MEAN> 25
 -5.283587e+00 -5.853947e-01 -2.512107e-01 7.319463e+00 5.764562e+00 5.547880e+00 6.067915e+00 4.988014e+00 5.222663e+00 4.197533e+00 5.323990e+00 2.585285e+00 -1.083205e-01 -2.693460e-02 9.388390e-02 2.385022e-01 4.783607e-01 7.840598e-01 1.076886e+00 1.200040e+00 1.029141e+00 7.324190e-01 4.320101e-01 1.645633e-01 -2.447718e-04
<VARIANCE> 25
 7.532347e+00 5.609118e+00 9.112822e+00 1.266821e+01 1.382418e+01 1.486616e+01 1.471255e+01 1.489310e+01 1.397411e+01 1.389826e+01 1.591683e+01 1.259004e+01 1.297767e-01 2.020163e-01 3.339058e-01 4.958041e-01 6.876379e-01 7.787707e-01 7.467844e-01 8.011803e-01 9.267144e-01 1.021792e+00 1.052741e+00 1.025905e+00 2.835361e-05
<GCONST> 5.869734e+01
<MIXTURE> 16 2.475190e-03
<MEAN> 25
 -5.283587e+00 -5.853947e-01 -2.512107e-01 7.319463e+00 5.764562e+00 5.547880e+00 6.067915e+00 4.988014e+00 5.222663e+00 4.197533e+00 5.323990e+00 2.585285e+00 -1.083205e-01 -2.693460e-02 9.388390e-02 2.385022e-01 4.783607e-01 7.840598e-01 1.076886e+00 1.200040e+00 1.029141e+00 7.324190e-01 4.320101e-01 1.645633e-01 -2.447718e-04
<VARIANCE> 25
 7.532347e+00 5.609118e+00 9.112822e+00 1.266821e+01 1.382418e+01 1.486616e+01 1.471255e+01 1.489310e+01 1.397411e+01 1.389826e+01 1.591683e+01 1.259004e+01 1.297767e-01 2.020163e-01 3.339058e-01 4.958041e-01 6.876379e-01 7.787707e-01 7.467844e-01 8.011803e-01 9.267144e-01 1.021792e+00 1.052741e+00 1.025905e+00 2.835361e-05
<GCONST> 5.869734e+01
<MIXTURE> 17 9.518312e-03
<MEAN> 25
 1.271522e+00 -1.379425e+00 7.084216e+00 2.669692e+00 -4.721829e+00 -5.512213e+00 -3.293818e+00 1.240479e+00 -3.168565e+00 -4.130184e+00 -4.451354e-01 -1.595894e-02 -7.917536e-01 -1.533010e+00 2.054558e+00 -1.797538e+00 -2.390469e+00 -8.935958e-02 -4.407326e-01 9.595449e-01 -6.410153e-01 -3.859030e-01 9.176579e-01 2.752454e-01 8.224256e-02
<VARIANCE> 25
 2.275727e+01 2.556542e+01 2.735596e+01 3.514141e+01 4.649994e+01 6.636126e+01 3.204208e+01 3.990982e+01 5.359572e+01 2.575325e+01 3.013463e+01 1.936247e+01 1.675855e+00 2.390856e+00 4.288593e+00 2.691579e+00 3.215698e+00 4.871723e+00 4.550448e+00 3.861147e+00 4.295340e+00 3.762151e+00 2.313041e+00 2.316828e+00 1.927624e-03
<GCONST> 9.563020e+01
<MIXTURE> 18 1.221018e-02
<MEAN> 25
 3.829268e+00 4.342225e+00 6.371899e+00 4.518242e+00 -4.950721e+00 -7.243359e+00 -1.422177e+00 -1.665516e+00 -3.861764e+00 -2.870079e+00 -1.085656e+00 8.832191e-01 -5.972766e-01 1.846022e+00 -2.911201e-01 1.842849e+00 3.077087e+00 1.278590e+00 6.336489e-01 -2.732232e-01 8.831061e-01 7.520355e-01 -7.036440e-01 -1.373029e-01 -1.184714e-01
<VARIANCE> 25
 1.467961e+01 2.341688e+01 3.074957e+01 2.402685e+01 3.872194e+01 3.896057e+01 3.529839e+01 3.418010e+01 3.661271e+01 3.248375e+01 3.298853e+01 2.825837e+01 2.392256e+00 3.185581e+00 4.241704e+00 3.791964e+00 3.704735e+00 4.443870e+00 4.440695e+00 4.028120e+00 4.438119e+00 4.408945e+00 5.095724e+00 3.200548e+00 3.791424e-03
<GCONST> 9.740958e+01
<MIXTURE> 19 9.912824e-03
<MEAN> 25
 -9.394709e+00 2.431531e+00 -2.879985e-01 9.338161e-01 3.933649e+00 1.574440e+00 2.964063e+00 1.659849e+00 2.756144e+00 2.203749e+00 4.788570e-01 1.575876e+00 1.977231e+00 1.564301e+00 2.006367e+00 7.683777e-01 -1.053684e+00 -1.072767e+00 -8.966854e-01 -1.425014e+00 -1.655860e+00 -1.244805e+00 -8.939283e-01 -7.024727e-01 1.712380e-03
<VARIANCE> 25
 5.321000e+01 3.030136e+01 4.515642e+01 4.900928e+01 3.016074e+01 2.949601e+01 3.179828e+01 3.162032e+01 2.880959e+01 3.200587e+01 3.420982e+01 2.077666e+01 2.223948e+00 2.169861e+00 2.158988e+00 2.076333e+00 2.327819e+00 1.988662e+00 2.311498e+00 2.172209e+00 3.442512e+00 1.927296e+00 3.648166e+00 1.690719e+00 2.235679e-03
<GCONST> 9.196021e+01
<MIXTURE> 20 6.308331e-03
<MEAN> 25
 -1.418360e+01 7.429105e+00 8.225276e-01 6.174293e+00 4.849955e+00 1.614686e+00 5.202154e+00 8.421494e-01 9.245034e-01 7.846578e-01 2.552183e+00 -2.777210e-01 -3.281480e+00 -8.634820e-01 -1.562254e+00 3.381994e-01 1.538039e+00 2.052618e+00 1.974309e+00 2.052156e+00 2.143478e+00 2.034094e+00 1.678916e+00 9.470019e-01 4.732812e-02
<VARIANCE> 25
 1.961652e+01 2.345026e+01 3.105367e+01 3.728803e+01 3.078241e+01 2.801076e+01 2.986552e+01 3.143217e+01 2.788653e+01 2.821242e+01 2.518977e+01 2.107560e+01 2.093552e+00 2.181066e+00 1.907498e+00 2.545667e+00 2.698307e+00 2.346142e+00 2.312085e+00 2.319178e+00 2.230456e+00 2.658119e+00 2.247036e+00 1.861775e+00 1.882288e-03
<GCONST> 8.923841e+01
<MIXTURE> 21 7.928653e-03
<MEAN> 25
 2.975241e+00 -6.066294e+00 4.765569e+00 -3.166558e+00 -9.713677e+00 -9.075233e+00 -2.409517e+00 4.789998e+00 -3.914849e+00 -2.750590e+00 2.374474e+00 -7.758967e-01 -5.051648e-01 1.292162e+00 2.328073e+00 -3.256500e-01 -1.271937e+00 -7.255663e-03 2.867460e-01 -1.702726e+00 -2.101444e+00 2.108943e-01 1.790411e+00 3.318781e-01 -1.271520e-02
<VARIANCE> 25
 1.203980e+01 2.061674e+01 3.052550e+01 3.081686e+01 2.538585e+01 2.758031e+01 3.406268e+01 3.168897e+01 4.218000e+01 2.517063e+01 3.768703e+01 2.430889e+01 4.019776e-01 9.767568e-01 1.820635e+00 1.296345e+00 1.916412e+00 1.907777e+00 3.112930e+00 2.574200e+00 2.503462e+00 1.989554e+00 3.039476e+00 1.834577e+00 3.993320e-04
<GCONST> 8.443085e+01
<MIXTURE> 22 8.827789e-03
<MEAN> 25
 -1.781683e+01 7.346662e+00 -4.238919e+00 7.681886e+00 4.716894e+00 2.374493e+00 8.171025e+00 1.544861e+00 5.235432e+00 2.988067e+00 5.345352e+00 1.488159e+00 -3.614440e-01 -1.919775e-01 -1.405917e-01 -5.005307e-02 1.316266e-02 6.580564e-02 1.838544e-01 1.955383e-01 3.155231e-01 1.950677e-01 1.487657e-01 2.465272e-01 1.051561e-02
<VARIANCE> 25
 8.044477e+00 1.699000e+01 1.694868e+01 2.612531e+01 2.227543e+01 2.343625e+01 1.984380e+01 1.890787e+01 1.788288e+01 2.228114e+01 2.162188e+01 1.533451e+01 1.108584e+00 1.308201e+00 1.314489e+00 1.733950e+00 1.361450e+00 1.580884e+00 1.448764e+00 1.478587e+00 1.652931e+00 1.485943e+00 1.315710e+00 1.187877e+00 1.738869e-03
<GCONST> 7.864879e+01
<MIXTURE> 23 6.455497e-03
<MEAN> 25
 7.618631e+00 2.469883e+00 2.753256e+00 2.580203e+00 -4.102201e+00 -3.191336e+00 -3.842274e+00 -6.256445e+00 -3.455014e+00 -7.823396e-01 -4.021417e+00 -2.115439e+00 5.128027e-02 1.849542e-01 2.626730e-02 6.364770e-02 -2.043956e-02 6.125318e-02 7.903485e-02 -9.439278e-02 -4.498747e-02 2.666043e-02 4.893011e-02 5.925619e-02 -3.824896e-03
<VARIANCE> 25
 1.115097e+01 2.109184e+01 2.497236e+01 4.198676e+01 4.472616e+01 5.053199e+01 5.960083e+01 5.237287e+01 4.984182e+01 4.520454e+01 4.875767e+01 3.769349e+01 1.237673e-01 2.935647e-01 3.844609e-01 4.708141e-01 6.178685e-01 6.794636e-01 8.056501e-01 8.877005e-01 9.213524e-01 8.685966e-01 9.019294e-01 8.042453e-01 9.314958e-05
<GCONST> 7.331557e+01
<MIXTURE> 24 6.455497e-03
<MEAN> 25
 7.618631e+00 2.469883e+00 2.753256e+00 2.580203e+00 -4.102201e+00 -3.191336e+00 -3.842274e+00 -6.256445e+00 -3.455014e+00 -7.823396e-01 -4.021417e+00 -2.115439e+00 5.128027e-02 1.849542e-01 2.626730e-02 6.364770e-02 -2.043956e-02 6.125318e-02 7.903485e-02 -9.439278e-02 -4.498747e-02 2.666043e-02 4.893011e-02 5.925619e-02 -3.824896e-03
<VARIANCE> 25
 1.115097e+01 2.109184e+01 2.497236e+01 4.198676e+01 4.472616e+01 5.053199e+01 5.960083e+01 5.237287e+01 4.984182e+01 4.520454e+01 4.875767e+01 3.769349e+01 1.237673e-01 2.935647e-01 3.844609e-01 4.708141e-01 6.178685e-01 6.794636e-01 8.056501e-01 8.877005e-01 9.213524e-01 8.685966e-01 9.019294e-01 8.042453e-01 9.314958e-05
<GCONST> 7.331557e+01
<MIXTURE> 25 1.118642e-02
<MEAN> 25
 -5.359232e-01 2.048355e+00 1.416382e+01 -1.208550e+00 -1.143012e+01 -2.052844e+00 -5.068426e+00 -3.153490e+00 -8.789169e+00 -5.269597e+00 5.382652e+00 -4.502432e-01 -1.146635e-01 5.771850e-01 3.816442e-02 1.367411e-01 -7.819144e-02 -1.509881e-01 4.137862e-01 -2.938680e-01 8.466100e-03 -2.399218e-01 -8.912521e-02 2.342534e-01 -1.155315e-02
<VARIANCE> 25
 1.089373e+01 2.394917e+01 2.682010e+01 2.201145e+01 2.263364e+01 5.166206e+01 2.282717e+01 2.661469e+01 2.688953e+01 2.695551e+01 2.039221e+01 2.434524e+01 5.447182e-01 1.081759e+00 1.044923e+00 1.805300e+00 1.815424e+00 1.611500e+00 2.121650e+00 3.253824e+00 1.282675e+00 1.397380e+00 1.461660e+00 1.252720e+00 9.927198e-04
<GCONST> 8.154343e+01
<MIXTURE> 26 7.727677e-03
<MEAN> 25
 1.439103e+00 -5.225323e+00 -1.027852e+01 -1.791230e+00 6.944970e+00 5.818731e+00 3.873341e+00 -1.324867e-01 2.204385e+00 -1.806373e-01 -2.525342e+00 -1.154291e+00 -6.888014e-01 7.104209e-01 3.142662e-01 7.129968e-01 2.763086e-01 1.587072e-01 2.486723e-01 4.719555e-01 2.840145e-01 1.355371e-01 2.512984e-01 3.749253e-01 -4.932612e-02
<VARIANCE> 25
 2.699892e+01 4.193441e+01 2.368836e+01 6.306577e+01 4.020370e+01 4.203841e+01 4.259460e+01 3.954111e+01 3.552362e+01 5.257658e+01 4.429626e+01 4.169487e+01 1.611947e+00 2.185091e+00 1.910805e+00 1.824534e+00 2.262329e+00 2.409629e+00 2.547196e+00 2.751065e+00 2.468934e+00 2.188760e+00 2.430935e+00 1.809638e+00 3.105360e-03
<GCONST> 9.374802e+01
<MIXTURE> 27 7.727677e-03
<MEAN> 25
 1.439103e+00 -5.225323e+00 -1.027852e+01 -1.791230e+00 6.944970e+00 5.818731e+00 3.873341e+00 -1.324867e-01 2.204385e+00 -1.806373e-01 -2.525342e+00 -1.154291e+00 -6.888014e-01 7.104209e-01 3.142662e-01 7.129968e-01 2.763086e-01 1.587072e-01 2.486723e-01 4.719555e-01 2.840145e-01 1.355371e-01 2.512984e-01 3.749253e-01 -4.932612e-02
<VARIANCE> 25
 2.699892e+01 4.193441e+01 2.368836e+01 6.306577e+01 4.020370e+01 4.203841e+01 4.259460e+01 3.954111e+01 3.552362e+01 5.257658e+01 4.429626e+01 4.169487e+01 1.611947e+00 2.185091e+00 1.910805e+00 1.824534e+00 2.262329e+00 2.409629e+00 2.547196e+00 2.751065e+00 2.468934e+00 2.188760e+00 2.430935e+00 1.809638e+00 3.105360e-03
<GCONST> 9.374802e+01
<MIXTURE> 28 5.036674e-03
<MEAN> 25
 -5.223856e+00 1.043748e-01 -1.522135e+00 6.519806e+00 5.376306e+00 3.294587e+00 5.485467e+00 3.412275e+00 4.101757e+00 2.493916e+00 2.401935e+00 2.913453e+00 -9.661750e-02 2.188281e-01 5.286028e-01 7.756240e-01 7.863952e-01 7.067028e-01 5.169408e-01 3.899764e-01 4.021784e-01 4.776610e-01 3.816317e-01 1.989057e-01 -6.103344e-05
<VARIANCE> 25
 1.105055e+01 8.198190e+00 1.181826e+01 1.449247e+01 1.456788e+01 1.809851e+01 1.742260e+01 2.022703e+01 1.723172e+01 1.621545e+01 2.108069e+01 1.662586e+01 2.560990e-01 3.236739e-01 4.187908e-01 4.664955e-01 6.441749e-01 8.123254e-01 1.063125e+00 1.266307e+00 1.138813e+00 1.011131e+00 1.051361e+00 1.036268e+00 1.044140e-06
<GCONST> 6.050909e+01
<MIXTURE> 29 5.036674e-03
<MEAN> 25
 -5.223856e+00 1.043748e-01 -1.522135e+00 6.519806e+00 5.376306e+00 3.294587e+00 5.485467e+00 3.412275e+00 4.101757e+00 2.493916e+00 2.401935e+00 2.913453e+00 -9.661750e-02 2.188281e-01 5.286028e-01 7.756240e-01 7.863952e-01 7.067028e-01 5.169408e-01 3.899764e-01 4.021784e-01 4.776610e-01 3.816317e-01 1.989057e-01 -6.103344e-05
<VARIANCE> 25
 1.105055e+01 8.198190e+00 1.181826e+01 1.449247e+01 1.456788e+01 1.809851e+01 1.742260e+01 2.022703e+01 1.723172e+01 1.621545e+01 2.108069e+01 1.662586e+01 2.560990e-01 3.236739e-01 4.187908e-01 4.664955e-01 6.441749e-01 8.123254e-01 1.063125e+00 1.266307e+00 1.138813e+00 1.011131e+00 1.051361e+00 1.036268e+00 1.044140e-06
<GCONST> 6.050909e+01
<MIXTURE> 30 8.917812e-03
<MEAN> 25
 -3.438426e+00 4.509532e-01 3.882228e-01 8.406690e+00 8.114946e+00 6.441919e+00 7.820122e+00 6.825801e+00 7.129625e+00 5.193629e+00 4.783170e+00 2.549453e+00 -1.286056e-02 2.596239e-02 -1.228000e-02 1.750958e-01 1.163458e-01 5.109868e-02 -3.932627e-02 -9.581283e-02 -6.216659e-02 7.146870e-02 1.144695e-01 4.092186e-02 -1.178822e-03
<VARIANCE> 25
 8.765380e+00 9.177971e+00 9.456653e+00 1.362700e+01 1.373310e+01 1.662504e+01 1.558887e+01 1.820735e+01 1.885514e+01 1.629279e+01 3.708559e+01 1.684310e+01 9.789100e-02 2.109614e-01 3.202412e-01 4.855147e-01 5.658055e-01 6.436310e-01 7.455482e-01 9.498512e-01 8.139119e-01 7.611192e-01 8.331687e-01 1.018662e+00 5.974778e-05
<GCONST> 6.097240e+01
<MIXTURE> 31 4.136493e-03
<MEAN> 25
 -3.232861e+00 -5.546321e+00 3.656057e-02 4.881857e+00 3.767947e+00 1.648160e+00 5.321665e+00 6.676928e+00 2.828683e+00 1.331929e+00 6.354254e+00 3.084181e+00 2.529671e-01 4.575329e-01 -2.244849e-01 3.146950e-01 1.362438e-01 4.263284e-01 1.762258e-01 -1.647658e-02 3.970474e-01 3.916110e-01 1.350676e-01 1.113129e-01 -1.818044e-02
<VARIANCE> 25
 7.254452e+00 1.593845e+01 1.720111e+01 1.767851e+01 2.514467e+01 2.364977e+01 2.345597e+01 2.504503e+01 2.592324e+01 2.795430e+01 2.164258e+01 1.871279e+01 1.890108e-01 5.013121e-01 6.074789e-01 7.563608e-01 9.624773e-01 1.073805e+00 1.212915e+00 1.439558e+00 1.361020e+00 1.297883e+00 1.270942e+00 1.134173e+00 2.539658e-04
<GCONST> 7.188046e+01
<MIXTURE> 32 4.136493e-03
<MEAN> 25
 -3.232861e+00 -5.546321e+00 3.656057e-02 4.881857e+00 3.767947e+00 1.648160e+00 5.321665e+00 6.676928e+00 2.828683e+00 1.331929e+00 6.354254e+00 3.084181e+00 2.529671e-01 4.575329e-01 -2.244849e-01 3.146950e-01 1.362438e-01 4.263284e-01 1.762258e-01 -1.647658e-02 3.970474e-01 3.916110e-01 1.350676e-01 1.113129e-01 -1.818044e-02
<VARIANCE> 25
 7.254452e+00 1.593845e+01 1.720111e+01 1.767851e+01 2.514467e+01 2.364977e+01 2.345597e+01 2.504503e+01 2.592324e+01 2.795430e+01 2.164258e+01 1.871279e+01 1.890108e-01 5.013121e-01 6.074789e-01 7.563608e-01 9.624773e-01 1.073805e+00 1.212915e+00 1.439558e+00 1.361020e+00 1.297883e+00 1.270942e+00 1.134173e+00 2.539658e-04
<GCONST> 7.188046e+01
<MIXTURE> 33 1.508826e-02
<MEAN> 25
 5.842813e+00 -4.449337e+00 -1.967113e+00 -3.188290e+00 -2.591544e+00 -5.736670e+00 -7.001555e+00 2.619846e+00 3.236437e+00 -1.508275e-01 -3.773553e+00 -3.352358e+00 6.220579e-01 -1.093125e+00 -2.461339e+00 -1.689262e+00 1.432171e+00 1.569112e+00 -8.294604e-01 3.766102e-01 1.183615e+00 8.219756e-01 -2.129022e-01 -1.389892e+00 3.301540e-02
<VARIANCE> 25
 1.390735e+01 2.141955e+01 2.718937e+01 3.755441e+01 4.077007e+01 4.044518e+01 4.055291e+01 4.986694e+01 4.598652e+01 4.068934e+01 3.971738e+01 2.713871e+01 1.064921e+00 1.832846e+00 2.014906e+00 2.329285e+00 3.824625e+00 3.338932e+00 4.066514e+00 5.810708e+00 3.759260e+00 4.626454e+00 3.184386e+00 2.412266e+00 1.534953e-03
<GCONST> 9.444927e+01
<MIXTURE> 34 1.588179e-02
<MEAN> 25
 8.319193e+00 1.468245e-01 -1.135486e-02 9.585193e-01 -2.985027e+00 -5.629511e-01 -5.550160e+00 -4.650975e+00 -1.839100e+00 -4.025398e-01 -2.420961e+00 -3.055654e+00 -5.803202e-03 1.313093e+00 1.013590e+00 2.099079e+00 2.453185e-01 -1.150837e-01 9.273024e-01 -1.628236e+00 -8.161377e-01 3.654069e-01 -7.352349e-01 2.226661e-01 -6.196159e-02
<VARIANCE> 25
 8.577394e+00 2.904878e+01 2.647421e+01 4.964880e+01 4.063534e+01 4.775277e+01 5.275824e+01 5.461862e+01 4.797421e+01 4.338367e+01 4.687923e+01 3.047877e+01 1.206641e+00 1.930331e+00 4.929907e+00 4.203912e+00 5.393218e+00 5.648138e+00 4.934347e+00 6.203804e+00 5.760253e+00 4.481375e+00 5.339129e+00 3.593222e+00 1.074686e-03
<GCONST> 9.917233e+01
<MIXTURE> 35 1.467755e-02
<MEAN> 25
 -2.478523e+00 -3.919281e+00 -9.948537e+00 -1.168544e+00 8.561601e+00 4.517938e+00 9.771886e-02 3.022672e+00 2.454213e-01 4.465972e+00 1.476371e+00 9.597964e-01 5.822694e-02 -1.128463e+00 -9.217396e-01 -1.436597e+00 -2.408995e-01 -6.816000e-01 -5.364252e-01 1.871165e-01 2.612811e-01 4.007142e-01 -4.539120e-01 -7.754936e-01 9.885471e-02
<VARIANCE> 25
 1.880250e+01 2.668124e+01 3.372329e+01 5.107780e+01 3.941448e+01 7.815145e+01 4.512660e+01 3.483790e+01 4.694053e+01 3.427169e+01 3.464445e+01 2.800438e+01 3.999713e+00 2.673064e+00 6.281667e+00 4.218266e+00 5.037942e+00 8.017525e+00 5.546272e+00 4.978539e+00 5.641879e+00 3.830094e+00 4.631573e+00 3.190755e+00 4.105909e-03
<GCONST> 1.022044e+02
<MIXTURE> 36 1.093293e-02
<MEAN> 25
 3.549964e+00 -4.528635e+00 9.186353e+00 5.080679e+00 -9.845152e+00 -8.454429e+00 -7.864121e+00 3.378335e+00 -1.966034e+00 -5.562282e+00 7.253096e-01 7.118094e-02 4.699129e-01 1.744590e-01 -1.046673e+00 9.357480e-02 7.737786e-01 3.835175e-01 -4.987996e-01 8.371469e-03 6.229578e-01 6.596282e-01 -2.079039e-01 -4.704681e-01 -1.345085e-02
<VARIANCE> 25
 1.161318e+01 1.946342e+01 2.540279e+01 3.294403e+01 2.476787e+01 2.887405e+01 4.699134e+01 3.073585e+01 3.349137e+01 2.804068e+01 3.028725e+01 2.092527e+01 3.980426e-01 7.682326e-01 2.656350e+00 1.351890e+00 1.346460e+00 1.979706e+00 2.858444e+00 1.838202e+00 1.894701e+00 1.711201e+00 1.890486e+00 1.200978e+00 6.605815e-04
<GCONST> 8.264871e+01
<MIXTURE> 37 1.246826e-02
<MEAN> 25
 5.759654e-01 7.681439e+00 1.190724e+01 -5.500761e+00 -8.038410e+00 -1.025113e+00 -5.004496e+00 -8.260461e+00 -3.754573e+00 -9.862184e-01 -3.585685e+00 -1.209616e+00 1.859051e-01 6.365750e-01 -1.338590e+00 3.546788e+00 1.976597e+00 -3.097751e-01 1.082143e+00 4.336276e-01 5.515134e-01 -2.982000e-01 4.827655e-01 -1.023576e-01 -9.445278e-02
<VARIANCE> 25
 1.585625e+01 2.620446e+01 3.194210e+01 5.134859e+01 3.388131e+01 3.199650e+01 4.379078e+01 3.496420e+01 3.843678e+01 3.596965e+01 3.826119e+01 3.092179e+01 2.917343e+00 3.383260e+00 2.992522e+00 4.121936e+00 4.626573e+00 3.724361e+00 4.182815e+00 3.802484e+00 3.443283e+00 3.648548e+00 4.020803e+00 2.760692e+00 3.907081e-03
<GCONST> 9.781686e+01
<MIXTURE> 38 1.154525e-02
<MEAN> 25
 -4.779817e+00 8.981506e+00 3.548635e+00 3.383588e+00 1.584281e+00 -4.378016e+00 -2.338253e-01 -3.164534e+00 -2.828853e+00 -3.042053e+00 -1.824104e+00 -2.249586e-01 -4.501521e+00 1.382460e+00 -4.929130e-01 1.588412e+00 2.388261e+00 7.736407e-01 1.764808e+00 8.471281e-01 5.422526e-01 2.197924e-01 1.134798e+00 6.237924e-01 5.442079e-02
<VARIANCE> 25
 3.058387e+01 2.631731e+01 4.052391e+01 2.969613e+01 4.570106e+01 3.646315e+01 3.280021e+01 3.755848e+01 3.403689e+01 2.938797e+01 2.307077e+01 2.631663e+01 2.080067e+00 3.564146e+00 3.597796e+00 4.650045e+00 3.905777e+00 6.675626e+00 4.707088e+00 4.141474e+00 4.240853e+00 5.323542e+00 3.931234e+00 3.452532e+00 2.024623e-03
<GCONST> 9.815624e+01
<MIXTURE> 39 9.501865e-03
<MEAN> 25
 1.242544e+00 1.649825e+00 8.388894e+00 -1.001056e+01 -9.808395e+00 -1.161326e+00 -3.413949e+00 -6.027884e+00 -5.839297e+00 6.166130e-03 -3.016773e-01 -2.586604e+00 -6.128482e-01 1.421888e+00 1.422758e+00 -1.513778e+00 1.042199e-01 1.282517e+00 -1.112818e+00 -1.128484e+00 7.474606e-01 2.241035e-01 -5.268810e-01 4.434587e-01 -2.208484e-04
<VARIANCE> 25
 7.467973e+00 2.839723e+01 3.630348e+01 3.781051e+01 3.732304e+01 4.339388e+01 3.715061e+01 2.850715e+01 3.844291e+01 2.941854e+01 6.435296e+01 2.595168e+01 6.273406e-01 1.455787e+00 1.588745e+00 2.462076e+00 2.072223e+00 2.487828e+00 3.406733e+00 2.633786e+00 2.786597e+00 2.383785e+00 2.083860e+00 2.261165e+00 9.759314e-04
<GCONST> 8.895376e+01
<MIXTURE> 40 1.030800e-02
<MEAN> 25
 -8.338867e+00 2.641279e+00 -1.379493e+00 7.972536e+00 4.371515e+00 4.834475e+00 4.880417e+00 4.064721e+00 5.480313e+00 4.480275e+00 4.767082e+00 1.856238e+00 -1.167750e-01 -1.000362e-01 -2.146908e-02 -2.283924e-01 -7.206039e-02 -2.848144e-01 -8.139870e-02 1.416207e-01 2.052173e-02 2.752114e-02 -1.667617e-02 5.444209e-02 2.579036e-04
<VARIANCE> 25
 4.115723e+01 1.914336e+01 2.750051e+01 2.999837e+01 2.582065e+01 1.993163e+01 2.034957e+01 1.747426e+01 2.207207e+01 1.683429e+01 2.298203e+01 1.268401e+01 7.581786e-01 7.684683e-01 8.080640e-01 1.234883e+00 1.019343e+00 1.277508e+00 1.290865e+00 1.287808e+00 1.514213e+00 1.048341e+00 1.244641e+00 9.879493e-01 7.987471e-04
<GCONST> 7.680804e+01
<MIXTURE> 41 6.713375e-03
<MEAN> 25
 1.293947e+00 1.728731e+00 1.040027e+01 -7.000861e+00 -1.039123e+01 -3.708859e+00 -2.499570e+00 -5.069638e+00 -4.719809e+00 2.534341e+00 -1.594204e+00 -9.178830e-01 6.103252e-02 -7.522250e-01 1.694645e+00 -3.524598e+00 -2.451174e+00 -1.327115e-01 -4.975459e-01 -3.139082e-01 -8.139713e-01 1.069079e+00 -1.013819e+00 7.866480e-02 8.517995e-02
<VARIANCE> 25
 1.161998e+01 2.939561e+01 3.252980e+01 4.167178e+01 3.864297e+01 4.118800e+01 3.666729e+01 2.985302e+01 3.350537e+01 2.936117e+01 3.294371e+01 2.692147e+01 3.147206e+00 3.297581e+00 3.775358e+00 3.848702e+00 4.855073e+00 5.828717e+00 4.792049e+00 4.643900e+00 4.032618e+00 4.195445e+00 3.861328e+00 3.199863e+00 2.962537e-03
<GCONST> 9.802435e+01
<MIXTURE> 42 1.106211e-02
<MEAN> 25
 -2.450542e+00 4.400450e+00 4.306541e+00 3.469481e+00 1.928652e-01 -5.995981e+00 -7.722792e-01 -1.490504e+00 -2.257434e+00 -1.579286e+00 -2.289987e+00 1.582015e+00 3.551109e+00 -5.229166e-01 1.692082e+00 3.347508e-01 -2.929105e+00 -1.468986e+00 -2.362625e+00 -5.151923e-01 -1.208032e+00 -8.775709e-01 6.975775e-01 -9.268413e-01 2.273176e-02
<VARIANCE> 25
 3.529089e+01 2.002645e+01 5.592665e+01 2.636910e+01 3.516758e+01 3.825226e+01 3.426530e+01 2.515997e+01 3.337869e+01 2.835562e+01 1.883537e+01 1.805474e+01 6.008188e+00 4.576045e+00 5.681625e+00 4.412067e+00 4.221550e+00 6.226379e+00 4.763447e+00 5.528278e+00 5.655130e+00 4.535144e+00 3.945221e+00 3.209762e+00 5.219034e-03
<GCONST> 1.000525e+02
<MIXTURE> 43 7.108249e-03
<MEAN> 25
 3.145261e+00 -6.301319e+00 -2.210492e+00 -5.301404e+00 -7.376955e+00 -3.483638e+00 4.042744e+00 1.336792e+00 -5.120851e+00 -6.989466e+00 -4.093489e+00 -1.278201e+00 2.406390e-01 2.163431e+00 1.893912e+00 -1.435199e-01 -1.400217e+00 -7.921464e-01 -9.791893e-01 -8.006118e-01 7.943864e-01 1.452375e+00 3.512785e-01 3.348030e-02 -4.511076e-02
<VARIANCE> 25
 9.485543e+00 1.983623e+01 2.727780e+01 3.533503e+01 3.779468e+01 3.740353e+01 3.330938e+01 4.024232e+01 3.945720e+01 3.868027e+01 2.973658e+01 2.955707e+01 6.840359e-01 1.244783e+00 1.571392e+00 2.525033e+00 2.387989e+00 2.348442e+00 2.627469e+00 3.031310e+00 2.637249e+00 2.557796e+00 2.379275e+00 1.895706e+00 9.527142e-04
<GCONST> 8.809480e+01
<MIXTURE> 44 7.328289e-03
<MEAN> 25
 -1.496731e+01 1.930866e+00 2.701526e+00 -3.589766e+00 3.230955e+00 2.624323e+00 -1.712318e-01 2.569665e+00 1.524733e+00 -1.435879e-01 2.228151e+00 1.801464e+00 -1.763407e-01 3.497280e-02 2.338939e-01 3.888294e-01 -5.688307e-02 8.765680e-02 3.395376e-01 2.377613e-01 3.466991e-01 1.935188e-01 -1.692790e-03 1.297579e-01 2.143607e-03
<VARIANCE> 25
 4.141840e+01 2.843640e+01 4.386967e+01 3.067863e+01 2.821594e+01 3.302098e+01 2.382332e+01 3.046828e+01 2.670461e+01 3.142075e+01 2.825322e+01 1.888411e+01 1.182992e+00 1.515933e+00 1.402238e+00 1.403659e+00 2.085533e+00 1.780889e+00 1.684880e+00 1.833607e+00 1.637615e+00 1.460107e+00 1.371518e+00 1.173572e+00 1.303760e-03
<GCONST> 8.506589e+01
<MIXTURE> 45 1.364932e-02
<MEAN> 25
 -1.160367e+01 4.822489e+00 -2.395306e+00 3.488753e+00 5.515239e+00 3.089359e-01 4.500592e+00 1.821340e+00 3.019350e+00 1.771616e+00 1.436939e+00 2.661151e+00 -2.985429e+00 8.339134e-01 -6.173927e-01 -4.403330e-02 3.243306e-01 -3.420432e-01 4.496734e-01 1.662984e-01 -1.057750e-01 -2.347605e-01 3.473834e-01 3.728312e-01 1.063921e-01
<VARIANCE> 25
 3.558986e+01 3.382402e+01 3.217879e+01 4.566983e+01 2.777937e+01 3.045941e+01 2.463691e+01 2.586545e+01 2.201600e+01 2.324854e+01 3.081008e+01 1.500330e+01 2.124530e+00 2.991184e+00 2.440048e+00 3.316475e+00 2.229338e+00 3.224676e+00 1.968347e+00 1.918157e+00 2.009784e+00 2.177596e+00 1.818084e+00 1.812301e+00 4.510550e-03
<GCONST> 9.041340e+01
<MIXTURE> 46 9.336259e-03
<MEAN> 25
 -9.385276e+00 2.562400e+00 6.489518e-01 6.842366e+00 5.690560e+00 3.630176e+00 6.714300e+00 4.411682e+00 5.543691e+00 4.869561e+00 5.141325e+00 2.801303e+00 9.580141e-01 -1.541410e-01 5.992067e-02 1.009054e+00 6.233378e-01 8.849461e-01 3.439538e-01 7.249377e-01 4.860439e-01 5.312742e-01 5.807650e-01 5.159644e-01 -1.027907e-01
<VARIANCE> 25
 3.300168e+01 4.319527e+01 4.305136e+01 5.919601e+01 5.001564e+01 4.114703e+01 3.812208e+01 3.428452e+01 3.253067e+01 3.030334e+01 2.754476e+01 1.982562e+01 4.024662e+00 4.231189e+00 3.776784e+00 3.990166e+00 4.005199e+00 3.735597e+00 3.361732e+00 3.062330e+00 2.954775e+00 2.761686e+00 2.312251e+00 1.715205e+00 7.778419e-03
<GCONST> 9.825906e+01
<MIXTURE> 47 7.116147e-03
<MEAN> 25
 6.714559e+00 -7.322959e+00 -7.761773e+00 -6.758572e+00 1.448348e+00 9.922070e-01 -1.677105e+00 9.961756e-01 3.223608e+00 5.137880e-01 -4.336156e+00 -6.663899e+00 -1.814362e-01 -1.196348e+00 -7.066006e-01 -4.320512e-01 6.577657e-01 6.455293e-01 1.027687e+00 2.578773e-01 1.487308e-01 -8.934771e-01 -6.637171e-01 -4.068627e-01 3.180809e-02
<VARIANCE> 25
 1.485851e+01 1.973322e+01 1.919702e+01 3.231894e+01 3.387957e+01 5.026364e+01 4.897704e+01 3.891407e+01 4.121950e+01 4.601296e+01 4.579939e+01 3.148657e+01 4.888432e-01 7.940193e-01 1.061343e+00 1.570979e+00 1.883597e+00 2.445972e+00 2.652868e+00 2.468543e+00 2.084724e+00 2.003918e+00 2.662699e+00 1.910271e+00 6.126383e-04
<GCONST> 8.650304e+01
<MIXTURE> 48 7.116147e-03
<MEAN> 25
 6.714559e+00 -7.322959e+00 -7.761773e+00 -6.758572e+00 1.448348e+00 9.922070e-01 -1.677105e+00 9.961756e-01 3.223608e+00 5.137880e-01 -4.336156e+00 -6.663899e+00 -1.814362e-01 -1.196348e+00 -7.066006e-01 -4.320512e-01 6.577657e-01 6.455293e-01 1.027687e+00 2.578773e-01 1.487308e-01 -8.934771e-01 -6.637171e-01 -4.068627e-01 3.180809e-02
<VARIANCE> 25
 1.485851e+01 1.973322e+01 1.919702e+01 3.231894e+01 3.387957e+01 5.026364e+01 4.897704e+01 3.891407e+01 4.121950e+01 4.601296e+01 4.579939e+01 3.148657e+01 4.888432e-01 7.940193e-01 1.061343e+00 1.570979e+00 1.883597e+00 2.445972e+00 2.652868e+00 2.468543e+00 2.084724e+00 2.003918e+00 2.662699e+00 1.910271e+00 6.126383e-04
<GCONST> 8.650304e+01
<MIXTURE> 49 5.548473e-03
<MEAN> 25
 -3.853044e+00 6.210398e-01 -3.122050e-01 8.228308e+00 6.512207e+00 4.864708e+00 5.668396e+00 3.704672e+00 5.162652e+00 4.370600e+00 4.279946e+00 3.156916e+00 3.248209e-01 6.323994e-01 7.134698e-01 3.824141e-01 -1.309418e-01 -5.720115e-01 -9.080847e-01 -1.151364e+00 -1.109082e+00 -5.851153e-01 -3.485087e-01 -6.017356e-02 -2.810244e-04
<VARIANCE> 25
 1.412659e+01 9.010886e+00 1.308435e+01 1.382093e+01 1.446535e+01 1.692589e+01 1.743246e+01 1.892822e+01 1.598878e+01 1.719994e+01 2.009943e+01 1.341205e+01 2.711864e-01 2.231513e-01 3.493914e-01 5.317844e-01 7.969932e-01 8.964715e-01 9.670626e-01 9.375687e-01 1.248393e+00 1.149854e+00 1.391579e+00 1.500420e+00 1.791331e-05
<GCONST> 6.374987e+01
<MIXTURE> 50 6.234641e-03
<MEAN> 25
 -4.385858e+00 1.575734e-01 -1.515528e+00 6.143668e+00 4.500600e+00 2.308464e+00 3.838577e+00 1.904550e+00 2.959023e+00 1.530209e+00 1.905188e+00 2.552776e+00 7.275011e-02 1.612806e-01 5.112898e-02 -1.699101e-01 -4.798099e-01 -5.757613e-01 -4.418318e-01 -9.395158e-02 4.787203e-01 7.768224e-01 7.340257e-01 4.294011e-01 -1.142011e-05
<VARIANCE> 25
 1.153395e+01 1.069766e+01 1.374216e+01 1.473296e+01 1.603602e+01 1.831136e+01 1.807196e+01 2.015312e+01 1.883607e+01 1.706571e+01 2.196592e+01 1.669211e+01 1.472353e-01 2.325230e-01 4.173624e-01 5.323920e-01 6.066909e-01 7.928597e-01 9.791114e-01 1.210537e+00 1.054237e+00 8.718231e-01 9.968506e-01 9.736300e-01 1.021279e-06
<GCONST> 5.998091e+01
<MIXTURE> 51 6.234641e-03
<MEAN> 25
 -4.385858e+00 1.575734e-01 -1.515528e+00 6.143668e+00 4.500600e+00 2.308464e+00 3.838577e+00 1.904550e+00 2.959023e+00 1.530209e+00 1.905188e+00 2.552776e+00 7.275011e-02 1.612806e-01 5.112898e-02 -1.699101e-01 -4.798099e-01 -5.757613e-01 -4.418318e-01 -9.395158e-02 4.787203e-01 7.768224e-01 7.340257e-01 4.294011e-01 -1.142011e-05
<VARIANCE> 25
 1.153395e+01 1.069766e+01 1.374216e+01 1.473296e+01 1.603602e+01 1.831136e+01 1.807196e+01 2.015312e+01 1.883607e+01 1.706571e+01 2.196592e+01 1.669211e+01 1.472353e-01 2.325230e-01 4.173624e-01 5.323920e-01 6.066909e-01 7.928597e-01 9.791114e-01 1.210537e+00 1.054237e+00 8.718231e-01 9.968506e-01 9.736300e-01 1.021279e-06
<GCONST> 5.998091e+01
<MIXTURE> 52 6.367945e-03
<MEAN> 25
 9.313334e+00 1.938904e+00 -5.855278e+00 -1.393215e+01 -3.753427e+00 8.667686e+00 -2.680185e+00 -3.721417e+00 -3.602363e+00 -2.529025e+00 2.978677e+00 1.173798e+00 -2.714469e-01 -3.984824e-01 -2.916126e-03 1.178158e+00 1.322086e+00 -5.314057e-01 -5.513206e-01 -6.107915e-01 1.219879e-01 1.246814e+00 2.495009e-01 -5.556331e-01 -1.943959e-02
<VARIANCE> 25
 1.254638e+01 1.957239e+01 2.298902e+01 3.761680e+01 4.189051e+01 2.926235e+01 4.123503e+01 4.661336e+01 4.242928e+01 4.218966e+01 3.982026e+01 2.749385e+01 4.945508e-01 1.488390e+00 1.208699e+00 2.583405e+00 2.210306e+00 2.010435e+00 2.720572e+00 2.700990e+00 2.932316e+00 2.454357e+00 2.865935e+00 2.213061e+00 1.721412e-03
<GCONST> 8.914835e+01
<MIXTURE> 53 6.367945e-03
<MEAN> 25
 9.313334e+00 1.938904e+00 -5.855278e+00 -1.393215e+01 -3.753427e+00 8.667686e+00 -2.680185e+00 -3.721417e+00 -3.602363e+00 -2.529025e+00 2.978677e+00 1.173798e+00 -2.714469e-01 -3.984824e-01 -2.916126e-03 1.178158e+00 1.322086e+00 -5.314057e-01 -5.513206e-01 -6.107915e-01 1.219879e-01 1.246814e+00 2.495009e-01 -5.556331e-01 -1.943959e-02
<VARIANCE> 25
 1.254638e+01 1.957239e+01 2.298902e+01 3.761680e+01 4.189051e+01 2.926235e+01 4.123503e+01 4.661336e+01 4.242928e+01 4.218966e+01 3.982026e+01 2.749385e+01 4.945508e-01 1.488390e+00 1.208699e+00 2.583405e+00 2.210306e+00 2.010435e+00 2.720572e+00 2.700990e+00 2.932316e+00 2.454357e+00 2.865935e+00 2.213061e+00 1.721412e-03
<GCONST> 8.914835e+01
<MIXTURE> 54 7.368620e-03
<MEAN> 25
 -3.605197e+00 7.435235e-02 -6.849957e-01 8.022417e+00 6.498645e+00 4.576083e+00 4.701518e+00 4.615676e+00 4.071149e+00 3.594078e+00 4.404871e+00 2.307019e+00 -1.089651e-03 2.691402e-02 4.035361e-02 3.989283e-02 5.331308e-02 5.119756e-02 4.603342e-02 3.608570e-02 2.823645e-02 1.898683e-02 1.330400e-02 -5.455370e-03 -1.027733e-05
<VARIANCE> 25
 9.160346e+00 1.034793e+01 9.233580e+00 1.808348e+01 1.324018e+01 1.378085e+01 1.196289e+01 1.142808e+01 1.132029e+01 1.345009e+01 1.800469e+01 1.250092e+01 4.067466e-02 8.682828e-02 1.592603e-01 2.380077e-01 3.106034e-01 3.969086e-01 4.662230e-01 5.260090e-01 5.441740e-01 5.279502e-01 5.165440e-01 5.256054e-01 1.004567e-06
<GCONST> 4.740343e+01
<MIXTURE> 55 7.368620e-03
<MEAN> 25
 -3.605197e+00 7.435235e-02 -6.849957e-01 8.022417e+00 6.498645e+00 4.576083e+00 4.701518e+00 4.615676e+00 4.071149e+00 3.594078e+00 4.404871e+00 2.307019e+00 -1.089651e-03 2.691402e-02 4.035361e-02 3.989283e-02 5.331308e-02 5.119756e-02 4.603342e-02 3.608570e-02 2.823645e-02 1.898683e-02 1.330400e-02 -5.455370e-03 -1.027733e-05
<VARIANCE> 25
 9.160346e+00 1.034793e+01 9.233580e+00 1.808348e+01 1.324018e+01 1.378085e+01 1.196289e+01 1.142808e+01 1.132029e+01 1.345009e+01 1.800469e+01 1.250092e+01 4.067466e-02 8.682828e-02 1.592603e-01 2.380077e-01 3.106034e-01 3.969086e-01 4.662230e-01 5.260090e-01 5.441740e-01 5.279502e-01 5.165440e-01 5.256054e-01 1.004567e-06
<GCONST> 4.740343e+01
<MIXTURE> 56 6.132464e-03
<MEAN> 25
 7.198959e+00 -6.526039e+00 -8.906494e+00 -8.702019e+00 3.929434e+00 3.681635e+00 -2.053280e+00 -1.439795e+00 1.895073e+00 7.575696e-01 -2.413567e+00 -6.984782e+00 -1.698058e-02 4.077519e-02 -9.625968e-02 3.707858e-02 2.488583e-01 6.193580e-02 9.231205e-02 -1.149098e-01 -5.537147e-02 -5.904037e-02 -1.170811e-01 6.898897e-03 -6.862169e-03
<VARIANCE> 25
 1.112643e+01 2.368954e+01 2.050932e+01 4.278507e+01 3.240409e+01 4.925439e+01 6.426249e+01 3.541272e+01 3.965793e+01 3.613847e+01 4.462115e+01 2.999966e+01 1.969002e-01 4.178436e-01 4.451396e-01 7.376527e-01 8.024738e-01 1.300946e+00 9.521812e-01 9.698867e-01 9.145432e-01 9.243520e-01 1.127027e+00 7.703826e-01 2.294960e-04
<GCONST> 7.553392e+01
<MIXTURE> 57 6.132464e-03
<MEAN> 25
 7.198959e+00 -6.526039e+00 -8.906494e+00 -8.702019e+00 3.929434e+00 3.681635e+00 -2.053280e+00 -1.439795e+00 1.895073e+00 7.575696e-01 -2.413567e+00 -6.984782e+00 -1.698058e-02 4.077519e-02 -9.625968e-02 3.707858e-02 2.488583e-01 6.193580e-02 9.231205e-02 -1.149098e-01 -5.537147e-02 -5.904037e-02 -1.170811e-01 6.898897e-03 -6.862169e-03
<VARIANCE> 25
 1.112643e+01 2.368954e+01 2.050932e+01 4.278507e+01 3.240409e+01 4.925439e+01 6.426249e+01 3.541272e+01 3.965793e+01 3.613847e+01 4.462115e+01 2.999966e+01 1.969002e-01 4.178436e-01 4.451396e-01 7.376527e-01 8.024738e-01 1.300946e+00 9.521812e-01 9.698867e-01 9.145432e-01 9.243520e-01 1.127027e+00 7.703826e-01 2.294960e-04
<GCONST> 7.553392e+01
<MIXTURE> 58 6.172147e-03
<MEAN> 25
 2.496832e+00 -3.079887e+00 7.356723e+00 -5.264004e+00 -1.341717e+01 -5.547415e+00 1.522336e+00 8.057505e-01 -2.614096e+00 1.750760e+00 6.953173e-01 -8.081368e-01 -3.256185e-02 -1.230736e-01 -6.960638e-02 -1.638809e-01 -4.298032e-02 2.208259e-01 3.946731e-01 2.128822e-01 2.533661e-02 8.652034e-04 -7.557759e-02 -1.160299e-01 -2.782170e-03
<VARIANCE> 25
 7.863974e+00 1.528326e+01 2.009442e+01 2.701540e+01 2.313772e+01 4.701407e+01 3.333969e+01 3.524493e+01 3.374952e+01 3.123564e+01 2.374441e+01 2.000844e+01 3.044749e-01 8.083500e-01 7.440900e-01 1.023535e+00 9.035492e-01 1.207420e+00 1.182378e+00 1.376495e+00 1.078680e+00 1.073467e+00 9.057658e-01 9.093853e-01 7.237201e-04
<GCONST> 7.583926e+01
<MIXTURE> 59 6.172147e-03
<MEAN> 25
 2.496832e+00 -3.079887e+00 7.356723e+00 -5.264004e+00 -1.341717e+01 -5.547415e+00 1.522336e+00 8.057505e-01 -2.614096e+00 1.750760e+00 6.953173e-01 -8.081368e-01 -3.256185e-02 -1.230736e-01 -6.960638e-02 -1.638809e-01 -4.298032e-02 2.208259e-01 3.946731e-01 2.128822e-01 2.533661e-02 8.652034e-04 -7.557759e-02 -1.160299e-01 -2.782170e-03
<VARIANCE> 25
 7.863974e+00 1.528326e+01 2.009442e+01 2.701540e+01 2.313772e+01 4.701407e+01 3.333969e+01 3.524493e+01 3.374952e+01 3.123564e+01 2.374441e+01 2.000844e+01 3.044749e-01 8.083500e-01 7.440900e-01 1.023535e+00 9.035492e-01 1.207420e+00 1.182378e+00 1.376495e+00 1.078680e+00 1.073467e+00 9.057658e-01 9.093853e-01 7.237201e-04
<GCONST> 7.583926e+01
<MIXTURE> 60 4.479129e-03
<MEAN> 25
 -3.828086e+00 -4.787430e-01 -1.241534e+00 3.722278e+00 2.148924e+00 1.838547e+00 1.846275e+00 1.604945e+00 2.462070e+00 1.559258e+00 1.869896e+00 1.775719e+00 -1.569775e-02 5.093262e-02 1.002692e-01 1.010490e-01 7.656464e-02 1.353145e-01 1.794571e-01 3.367872e-01 5.393381e-01 6.801167e-01 5.456832e-01 2.777537e-01 -2.149998e-04
<VARIANCE> 25
 8.747505e+00 4.662474e+00 1.019880e+01 1.076122e+01 1.471447e+01 1.720179e+01 1.390648e+01 1.200248e+01 1.336383e+01 1.338260e+01 1.837399e+01 1.271330e+01 8.632831e-02 1.624652e-01 2.896600e-01 4.315927e-01 6.021727e-01 7.309346e-01 8.057652e-01 9.833362e-01 8.895403e-01 7.915265e-01 8.129683e-01 8.538807e-01 2.346605e-05
<GCONST> 5.686942e+01
<MIXTURE> 61 4.479129e-03
<MEAN> 25
 -3.828086e+00 -4.787430e-01 -1.241534e+00 3.722278e+00 2.148924e+00 1.838547e+00 1.846275e+00 1.604945e+00 2.462070e+00 1.559258e+00 1.869896e+00 1.775719e+00 -1.569775e-02 5.093262e-02 1.002692e-01 1.010490e-01 7.656464e-02 1.353145e-01 1.794571e-01 3.367872e-01 5.393381e-01 6.801167e-01 5.456832e-01 2.777537e-01 -2.149998e-04
<VARIANCE> 25
 8.747505e+00 4.662474e+00 1.019880e+01 1.076122e+01 1.471447e+01 1.720179e+01 1.390648e+01 1.200248e+01 1.336383e+01 1.338260e+01 1.837399e+01 1.271330e+01 8.632831e-02 1.624652e-01 2.896600e-01 4.315927e-01 6.021727e-01 7.309346e-01 8.057652e-01 9.833362e-01 8.895403e-01 7.915265e-01 8.129683e-01 8.538807e-01 2.346605e-05
<GCONST> 5.686942e+01
<MIXTURE> 62 3.278034e-03
<MEAN> 25
 -5.070490e+00 1.242978e+00 1.017748e+00 8.805106e+00 6.133136e+00 5.031731e+00 5.507001e+00 4.030367e+00 4.987849e+00 3.921224e+00 4.935475e+00 2.933023e+00 -1.000678e+00 -1.165509e+00 -9.513801e-01 -2.758211e-01 4.255747e-01 1.003898e+00 1.382678e+00 1.548308e+00 1.480647e+00 1.242342e+00 1.066140e+00 7.235680e-01 -1.282990e-03
<VARIANCE> 25
 9.981270e+00 9.933633e+00 1.310477e+01 1.674399e+01 1.737164e+01 1.759597e+01 1.966516e+01 1.917601e+01 1.882299e+01 1.867284e+01 2.181001e+01 1.487376e+01 4.031487e-01 4.319215e-01 5.555975e-01 7.783751e-01 1.038295e+00 1.189586e+00 1.254702e+00 1.293302e+00 1.327957e+00 1.360359e+00 1.400764e+00 1.370091e+00 1.640464e-05
<GCONST> 6.756813e+01
<MIXTURE> 63 4.351215e-03
<MEAN> 25
 -3.298665e+00 -1.760997e+00 -4.564948e+00 3.184904e+00 3.962656e+00 -1.825063e-01 3.345101e+00 1.303184e+00 3.064407e+00 6.013559e-02 -1.844449e+00 2.149608e+00 -5.390011e-02 3.643862e-01 4.002768e-01 4.497076e-01 3.367739e-01 3.532353e-01 3.273725e-01 1.728905e-01 1.757389e-01 2.596174e-01 2.590038e-01 1.443735e-01 -3.898571e-03
<VARIANCE> 25
 1.123353e+01 1.491525e+01 1.445544e+01 1.485809e+01 1.800328e+01 2.353520e+01 2.136026e+01 2.457174e+01 2.636478e+01 2.278883e+01 2.081871e+01 1.684701e+01 2.750763e-01 4.419244e-01 6.115696e-01 6.486550e-01 8.705416e-01 1.043758e+00 1.197063e+00 1.435717e+00 1.465681e+00 1.239976e+00 1.351061e+00 1.162946e+00 1.640524e-04
<GCONST> 7.075607e+01
<MIXTURE> 64 4.351215e-03
<MEAN> 25
 -3.298665e+00 -1.760997e+00 -4.564948e+00 3.184904e+00 3.962656e+00 -1.825063e-01 3.345101e+00 1.303184e+00 3.064407e+00 6.013559e-02 -1.844449e+00 2.149608e+00 -5.390011e-02 3.643862e-01 4.002768e-01 4.497076e-01 3.367739e-01 3.532353e-01 3.273725e-01 1.728905e-01 1.757389e-01 2.596174e-01 2.590038e-01 1.443735e-01 -3.898571e-03
<VARIANCE> 25
 1.123353e+01 1.491525e+01 1.445544e+01 1.485809e+01 1.800328e+01 2.353520e+01 2.136026e+01 2.457174e+01 2.636478e+01 2.278883e+01 2.081871e+01 1.684701e+01 2.750763e-01 4.419244e-01 6.115696e-01 6.486550e-01 8.705416e-01 1.043758e+00 1.197063e+00 1.435717e+00 1.465681e+00 1.239976e+00 1.351061e+00 1.162946e+00 1.640524e-04
<GCONST> 7.075607e+01
<MIXTURE> 65 1.721197e-02
<MEAN> 25
 7.465974e+00 1.943318e+00 1.807863e+00 1.091982e+00 -4.888059e+00 -3.326721e+00 -5.056611e+00 -7.120495e+00 -3.724637e+00 -2.186072e+00 -4.793801e+00 -1.554930e+00 1.141637e-01 1.897770e-01 -9.485912e-03 5.058806e-02 -1.031779e-02 3.160706e-01 -1.289591e-01 -1.930987e-01 1.036131e-01 2.154832e-01 1.030498e-02 -1.714902e-01 -5.769212e-03
<VARIANCE> 25
 1.068605e+01 1.808011e+01 2.347386e+01 3.819455e+01 4.028591e+01 5.911461e+01 5.586771e+01 5.792549e+01 5.197175e+01 5.513482e+01 5.692527e+01 4.674625e+01 5.287236e-01 9.163719e-01 1.535016e+00 1.870094e+00 2.020066e+00 2.033152e+00 2.403340e+00 2.892404e+00 3.186332e+00 2.847706e+00 2.435744e+00 2.044728e+00 4.064401e-04
<GCONST> 8.939824e+01
<MIXTURE> 66 1.191532e-02
<MEAN> 25
 6.439183e+00 -4.308351e+00 -5.585947e+00 -5.039090e+00 1.093399e+00 -5.111729e+00 -6.550602e+00 1.371099e+00 8.131356e-01 -1.975181e+00 -5.961310e+00 -3.481081e+00 1.008686e-02 1.509344e+00 2.209314e+00 2.215944e+00 -1.206207e+00 -1.228230e+00 1.646516e-03 -4.895192e-01 -3.293382e-01 -1.778286e-01 3.853443e-02 9.964089e-01 -6.177714e-02
<VARIANCE> 25
 9.555971e+00 2.448935e+01 2.565155e+01 3.231043e+01 3.735371e+01 5.234107e+01 5.519783e+01 4.586086e+01 5.184289e+01 6.315583e+01 3.649824e+01 3.518248e+01 1.294821e+00 2.807287e+00 2.330248e+00 2.553602e+00 4.049050e+00 4.078572e+00 4.271047e+00 4.681874e+00 4.889996e+00 4.761548e+00 5.190444e+00 3.122173e+00 1.512143e-03
<GCONST> 9.710146e+01
<MIXTURE> 67 1.559142e-02
<MEAN> 25
 7.923868e+00 1.812115e+00 -5.897963e+00 -8.500605e+00 -7.238881e-02 3.885720e+00 -3.472548e+00 -2.821136e+00 -3.024771e+00 6.172702e-01 3.472380e-01 -9.946856e-01 -9.186171e-01 1.943260e+00 6.606154e-01 2.785728e+00 1.340830e+00 -4.024762e-01 1.215362e+00 7.234950e-02 -1.808592e-02 3.584386e-01 -6.348298e-01 7.024875e-01 -1.196031e-01
<VARIANCE> 25
 1.418362e+01 3.540213e+01 2.773137e+01 4.711304e+01 4.461070e+01 4.853923e+01 5.111232e+01 4.850874e+01 5.831566e+01 4.909393e+01 5.267168e+01 4.285457e+01 2.175617e+00 3.326985e+00 3.648088e+00 4.080738e+00 3.858987e+00 4.206613e+00 3.952869e+00 4.441036e+00 5.742731e+00 4.013309e+00 4.948975e+00 3.417076e+00 2.953944e-03
<GCONST> 1.009917e+02
<MIXTURE> 68 1.485092e-02
<MEAN> 25
 -2.291714e+00 -6.469526e-01 -4.909031e+00 1.476399e-01 4.398984e+00 5.589955e-01 1.146637e+00 2.069991e+00 2.550379e+00 2.192687e+00 -5.367515e-01 1.220000e+00 2.666299e+00 5.581827e-02 1.541061e-01 -2.672513e+00 -2.336235e+00 -1.280199e+00 -1.573758e+00 -2.083093e+00 -1.594319e+00 -2.061226e+00 -1.959960e+00 -8.987980e-01 9.553708e-02
<VARIANCE> 25
 2.247105e+01 3.964982e+01 5.057801e+01 4.850975e+01 4.077549e+01 5.137203e+01 4.189417e+01 3.573483e+01 3.551117e+01 3.953942e+01 3.831719e+01 2.435150e+01 1.655420e+00 4.047326e+00 4.922232e+00 5.390152e+00 3.841623e+00 6.023320e+00 6.876970e+00 4.511559e+00 5.179350e+00 6.787308e+00 5.175275e+00 3.044925e+00 5.299428e-03
<GCONST> 1.024223e+02
<MIXTURE> 69 1.204884e-02
<MEAN> 25
 4.328138e+00 -4.151380e+00 -3.792919e+00 -3.966657e+00 -3.402277e+00 -7.392620e+00 -9.968340e-01 2.252682e+00 1.553321e-02 -4.400988e+00 -5.662821e+00 6.038479e-01 1.678843e+00 -2.254908e+00 -1.195407e+00 -2.221974e+00 -5.867985e-01 -3.595350e-01 -3.711342e-01 4.718373e-01 -6.899654e-01 -1.539800e+00 -2.000736e+00 -1.634654e-01 6.211680e-02
<VARIANCE> 25
 1.004205e+01 2.484501e+01 2.616834e+01 2.608040e+01 4.023146e+01 3.882495e+01 4.615955e+01 3.029636e+01 3.936826e+01 3.752199e+01 3.156993e+01 2.589008e+01 3.354278e+00 2.770083e+00 3.443019e+00 3.762515e+00 5.457372e+00 5.073097e+00 7.368327e+00 6.340617e+00 5.973639e+00 6.030613e+00 5.530572e+00 3.524325e+00 2.496163e-03
<GCONST> 9.910971e+01
<MIXTURE> 70 1.329190e-02
<MEAN> 25
 6.997108e+00 -2.463607e+00 -3.902550e+00 -3.977004e+00 -4.407851e-01 -6.217144e-01 -7.049675e+00 -3.466448e+00 8.996118e-01 2.836622e+00 -3.648764e-02 -5.025920e+00 1.847906e+00 -1.182775e+00 -7.012366e-01 -2.134552e+00 -1.461019e+00 9.702376e-01 -1.060914e+00 -1.819966e-01 2.179802e-01 -1.014905e-01 7.014552e-01 -1.365724e+00 5.827111e-02
<VARIANCE> 25
 1.194356e+01 2.484919e+01 2.627316e+01 4.624538e+01 3.334129e+01 4.479621e+01 4.996111e+01 4.535752e+01 4.656962e+01 3.059301e+01 4.251063e+01 2.643051e+01 3.375736e+00 3.040739e+00 4.772342e+00 4.710495e+00 4.836333e+00 6.983170e+00 7.771793e+00 7.274050e+00 6.734431e+00 5.050625e+00 7.091682e+00 4.109706e+00 2.660075e-03
<GCONST> 1.020286e+02
<MIXTURE> 71 1.406903e-02
<MEAN> 25
 5.987263e+00 4.396845e+00 4.035534e+00 3.409310e+00 -3.047007e+00 -2.049266e+00 -2.634254e+00 -6.936028e+00 -4.913852e+00 -2.179716e+00 -4.197874e+00 -2.585759e+00 -1.612108e+00 -5.392504e-01 -2.233007e-02 -1.840363e+00 9.120529e-01 5.056358e-02 -2.936241e-01 1.587832e+00 -4.573289e-02 -1.195625e-01 8.248995e-01 6.129676e-02 3.777170e-02
<VARIANCE> 25
 1.646954e+01 2.532631e+01 2.201694e+01 4.007919e+01 4.516874e+01 4.447699e+01 3.889570e+01 4.093229e+01 4.625707e+01 3.877449e+01 4.002745e+01 3.052812e+01 1.521171e+00 2.899897e+00 5.144868e+00 4.401138e+00 4.253485e+00 4.945855e+00 5.005293e+00 4.764389e+00 4.819021e+00 4.069028e+00 3.494066e+00 2.897798e+00 1.354567e-03
<GCONST> 9.785002e+01
<MIXTURE> 72 8.134747e-03
<MEAN> 25
 2.517954e+00 -4.220565e+00 5.884178e+00 -2.804550e+00 -1.085361e+01 -9.706343e+00 -1.784060e+00 2.604507e+00 -3.716748e+00 -2.998537e+00 -7.949272e-01 4.620288e-01 7.414336e-01 -8.973101e-01 -2.240349e+00 7.573676e-01 1.777243e+00 -6.272389e-01 -1.356304e+00 1.749020e+00 2.239329e+00 -1.848860e-02 -1.333761e+00 -1.354315e-01 -2.779803e-03
<VARIANCE> 25
 1.355029e+01 1.707891e+01 3.115063e+01 5.934144e+01 2.630985e+01 2.938161e+01 3.669327e+01 4.074667e+01 4.536503e+01 3.895291e+01 4.303181e+01 2.382042e+01 4.832929e-01 9.252838e-01 2.634857e+00 1.867261e+00 2.213578e+00 2.477429e+00 2.773571e+00 3.045195e+00 2.749198e+00 4.413075e+00 1.893523e+00 2.588538e+00 5.127779e-04
<GCONST> 8.841696e+01
<MIXTURE> 73 1.213625e-02
<MEAN> 25
 -5.544923e+00 -3.912260e-01 -1.712469e+00 4.924392e+00 3.908654e+00 2.163850e+00 5.632303e+00 3.729931e+00 3.590903e+00 3.407628e+00 4.058911e+00 3.454054e+00 4.529468e-01 -9.978727e-01 -7.721041e-01 -2.164986e+00 -1.338733e+00 -2.039327e+00 -9.166740e-01 -2.517450e-01 -1.262707e+00 -8.830594e-01 -8.771155e-01 -1.392824e-01 1.509663e-01
<VARIANCE> 25
 1.209562e+01 1.404946e+01 1.580468e+01 2.105571e+01 2.267897e+01 2.341360e+01 1.914578e+01 1.934448e+01 2.306048e+01 1.766455e+01 2.157181e+01 1.676756e+01 5.059836e+00 2.864430e+00 5.825333e+00 6.818000e+00 5.721793e+00 5.143266e+00 4.005012e+00 4.662732e+00 4.892160e+00 4.251058e+00 3.830909e+00 2.704962e+00 4.127718e-03
<GCONST> 9.352716e+01
<MIXTURE> 74 1.756491e-02
<MEAN> 25
 3.148139e+00 -2.460275e+00 6.226965e+00 1.278103e+00 -9.670563e+00 -6.135575e+00 -2.400895e+00 -6.604741e-01 -4.198958e+00 -5.045304e+00 -5.210942e-01 1.331856e+00 5.578052e-01 1.684352e+00 -6.585306e-01 1.231786e+00 1.081646e+00 6.501378e-01 8.742952e-01 -1.847705e+00 4.808436e-02 1.384850e-01 -3.783457e-01 8.122001e-02 -6.836676e-02
<VARIANCE> 25
 1.388508e+01 2.510224e+01 4.227825e+01 5.099356e+01 2.913534e+01 5.250781e+01 4.273841e+01 4.121526e+01 4.404860e+01 4.055308e+01 3.619216e+01 2.754315e+01 1.480724e+00 1.906015e+00 4.258886e+00 3.110394e+00 3.051178e+00 3.706383e+00 6.118732e+00 5.129332e+00 4.540104e+00 3.309052e+00 5.350753e+00 2.430361e+00 1.465909e-03
<GCONST> 9.691881e+01
<MIXTURE> 75 9.711651e-03
<MEAN> 25
 8.713838e-01 -3.148184e+00 1.216644e+01 2.892660e+00 -1.106651e+01 -8.138356e+00 -5.060405e+00 4.276871e-01 -4.309366e+00 -6.271744e+00 1.162896e+00 5.646676e-01 1.404771e+00 -1.619927e+00 4.405385e-01 7.310500e-02 -1.960764e+00 -4.497643e-01 -1.842487e+00 1.361469e+00 7.810305e-02 -8.770507e-02 8.176559e-01 -6.185210e-01 3.553932e-02
<VARIANCE> 25
 1.337729e+01 1.973693e+01 2.896770e+01 3.953173e+01 2.242206e+01 3.169480e+01 3.231495e+01 3.291684e+01 3.249569e+01 2.736458e+01 3.105890e+01 1.525352e+01 1.878339e+00 1.491868e+00 3.498213e+00 2.933911e+00 3.576643e+00 6.037750e+00 4.195632e+00 3.526261e+00 4.293867e+00 2.664279e+00 2.709634e+00 2.040031e+00 1.560402e-03
<GCONST> 9.186287e+01
<MIXTURE> 76 1.052359e-02
<MEAN> 25
 -6.020880e+00 -1.399814e-01 -2.808345e+00 4.701653e+00 5.713248e+00 9.958006e-01 4.213975e+00 1.550594e+00 3.375747e+00 1.120384e+00 7.556924e-01 2.307384e+00 1.981742e-02 -5.108327e-01 -4.019359e-01 -8.044152e-01 -5.470334e-01 -8.071947e-01 -5.791678e-01 -4.213791e-01 -6.849720e-01 -3.459184e-01 -3.090140e-01 -1.842728e-01 1.189782e-02
<VARIANCE> 25
 3.364353e+01 2.789679e+01 2.363196e+01 2.454432e+01 3.037213e+01 2.744684e+01 2.251006e+01 2.509974e+01 2.356910e+01 2.034875e+01 2.508787e+01 1.758829e+01 1.031074e+00 1.008386e+00 1.226529e+00 1.140301e+00 1.295972e+00 1.396753e+00 1.384864e+00 1.547248e+00 2.113417e+00 1.405311e+00 1.386174e+00 1.169647e+00 1.242931e-03
<GCONST> 8.109095e+01
<MIXTURE> 77 1.244626e-02
<MEAN> 25
 -4.415546e-01 8.423435e+00 1.228629e+01 -1.152037e+01 -7.044113e+00 1.015671e+00 -9.214838e+00 -7.219033e+00 -3.614856e+00 -2.635029e-01 -4.301115e+00 -1.479247e+00 5.998571e-02 1.572355e-01 6.912903e-02 2.348205e-01 -4.481621e-02 7.733934e-02 -2.395163e-02 -4.038468e-02 1.064154e-01 -6.803834e-02 2.031887e-02 1.371823e-01 -9.930168e-03
<VARIANCE> 25
 1.024217e+01 2.084124e+01 2.854150e+01 4.168262e+01 3.280053e+01 3.334083e+01 3.616876e+01 3.113511e+01 3.699060e+01 3.273712e+01 4.210487e+01 3.436040e+01 2.971931e-01 7.814727e-01 6.409330e-01 1.089898e+00 1.241731e+00 9.772010e-01 1.290498e+00 1.083793e+00 1.077681e+00 1.068440e+00 9.578008e-01 9.372844e-01 5.287530e-04
<GCONST> 7.799021e+01
<MIXTURE> 78 9.702551e-03
<MEAN> 25
 -1.136093e+01 1.463157e+00 -1.931053e+00 2.143496e+00 4.402651e+00 -1.993989e+00 3.500125e+00 2.753103e+00 2.762372e+00 1.133496e+00 -3.579609e-01 2.982220e+00 2.310613e+00 -2.496582e-01 1.863940e-01 6.073633e-01 -2.644270e-02 -4.677835e-02 -3.241740e-01 -6.579603e-02 2.670506e-01 1.155746e-01 -4.753947e-01 -4.091024e-01 -6.005054e-02
<VARIANCE> 25
 4.086902e+01 3.368058e+01 3.269413e+01 3.372232e+01 3.848079e+01 3.829806e+01 3.616707e+01 3.332279e+01 2.746357e+01 3.000244e+01 2.756804e+01 1.967558e+01 4.896580e+00 2.506615e+00 2.742019e+00 2.955844e+00 2.753515e+00 3.463776e+00 3.160476e+00 2.777101e+00 2.345750e+00 2.393567e+00 2.525089e+00 2.080788e+00 4.560018e-03
<GCONST> 9.460101e+01
<MIXTURE> 79 1.156824e-02
<MEAN> 25
 1.635340e+00 1.214689e+00 8.645140e+00 -6.270210e+00 -1.226567e+01 -1.862982e+00 -1.236221e+00 -5.800569e+00 -7.037734e+00 -1.272610e+00 -1.118464e+00 -1.868033e+00 1.046101e+00 -4.420671e-01 -1.165251e+00 2.332348e+00 7.626711e-02 -1.516485e+00 8.102850e-01 9.790758e-01 -6.460964e-02 -5.775011e-01 -2.137817e-02 2.609414e-01 -3.308454e-02
<VARIANCE> 25
 1.479998e+01 2.296366e+01 3.182669e+01 5.289539e+01 2.810968e+01 4.835372e+01 3.797764e+01 3.264785e+01 3.633756e+01 4.120938e+01 5.571840e+01 3.352277e+01 9.529867e-01 2.119894e+00 1.787034e+00 1.815705e+00 2.651972e+00 2.604165e+00 2.906205e+00 4.164047e+00 2.565377e+00 2.498575e+00 2.699952e+00 2.023068e+00 1.222062e-03
<GCONST> 9.154002e+01
<MIXTURE> 80 7.550998e-03
<MEAN> 25
 -1.456654e+01 4.023617e+00 6.417059e-01 2.827143e+00 2.444426e+00 1.423335e+00 6.320071e+00 2.552907e+00 2.751788e+00 2.445046e+00 4.831664e+00 1.195285e+00 4.268723e+00 -1.321833e-02 1.627963e+00 -1.123611e+00 -2.872884e+00 -2.768800e+00 -2.306814e+00 -2.014686e+00 -1.959073e+00 -1.691784e+00 -1.673130e+00 -5.964451e-01 -4.411089e-02
<VARIANCE> 25
 2.107363e+01 1.995962e+01 3.454552e+01 3.470038e+01 2.998378e+01 2.904049e+01 2.897646e+01 2.883557e+01 2.672183e+01 2.938108e+01 2.674411e+01 1.799703e+01 2.387652e+00 2.649782e+00 2.670091e+00 4.114578e+00 3.412573e+00 2.698719e+00 3.045260e+00 3.189994e+00 2.768848e+00 2.690792e+00 2.837470e+00 2.137363e+00 1.504536e-03
<GCONST> 9.146426e+01
<MIXTURE> 81 8.025434e-03
<MEAN> 25
 -9.751835e-01 3.605346e+00 9.496660e+00 -1.567589e+01 -8.545585e+00 -6.540605e-01 -6.519122e+00 -8.293706e+00 -4.079610e+00 -1.136967e+00 -5.897132e+00 -1.526307e+00 6.477579e-02 -6.782522e-01 2.046239e-01 -5.423945e-01 -7.389965e-01 9.042134e-02 6.585911e-01 3.288332e-01 1.537961e-01 -1.755229e-02 -4.416500e-01 -5.521217e-02 1.235085e-02
<VARIANCE> 25
 9.210176e+00 3.058253e+01 2.681082e+01 3.167089e+01 3.298888e+01 3.120914e+01 4.161620e+01 2.536461e+01 3.380549e+01 3.201199e+01 4.191610e+01 3.122180e+01 7.232513e-01 2.093301e+00 1.675112e+00 2.652034e+00 2.947825e+00 2.467438e+00 3.757899e+00 2.503681e+00 2.707718e+00 2.360400e+00 2.058479e+00 2.045079e+00 1.057403e-03
<GCONST> 8.896635e+01
<MIXTURE> 82 8.213053e-03
<MEAN> 25
 -9.951449e+00 -3.868844e+00 1.626633e+00 -2.931082e+00 3.102186e+00 6.638377e-01 1.986975e+00 9.438671e-01 2.929769e+00 1.706306e+00 1.726531e+00 3.085948e+00 -1.317500e+00 -1.355897e-01 3.063104e-01 -2.587304e+00 -1.113713e+00 -1.275958e+00 -1.022620e+00 -8.557411e-01 -3.319659e-01 -4.870160e-01 -3.086278e-01 -9.645651e-02 1.781790e-01
<VARIANCE> 25
 1.800096e+01 2.510558e+01 3.264495e+01 3.118198e+01 3.292468e+01 3.257087e+01 3.168350e+01 3.286136e+01 3.139163e+01 2.519411e+01 3.075715e+01 1.749591e+01 3.741834e+00 3.056525e+00 3.360226e+00 3.315416e+00 3.561237e+00 3.318043e+00 2.958984e+00 3.046920e+00 2.848629e+00 2.501673e+00 2.456712e+00 1.859902e+00 3.429614e-03
<GCONST> 9.319670e+01
<MIXTURE> 83 1.167529e-02
<MEAN> 25
 -2.002826e+01 5.519191e+00 -1.801336e+00 -3.695020e-01 7.829363e+00 -1.247520e+00 5.453824e+00 3.029323e+00 1.194770e+00 2.175498e+00 7.144893e-01 2.895530e+00 -2.989376e-02 -4.487695e-01 3.505520e-03 -3.595043e-01 -4.951272e-01 -1.294026e-01 -1.335459e-01 -9.792392e-02 -3.723367e-02 -3.931771e-02 -3.155770e-02 -3.106301e-02 4.504347e-03
<VARIANCE> 25
 8.868894e+00 1.650870e+01 2.850088e+01 2.295713e+01 2.122658e+01 2.409450e+01 2.199072e+01 2.340173e+01 2.038692e+01 2.226770e+01 2.318122e+01 1.453159e+01 1.064053e+00 9.348528e-01 1.238650e+00 1.079785e+00 1.358354e+00 1.293451e+00 1.280751e+00 1.386159e+00 1.355379e+00 1.307534e+00 1.218165e+00 1.074732e+00 8.952154e-04
<GCONST> 7.708154e+01
<MIXTURE> 84 1.066614e-02
<MEAN> 25
 1.352324e+00 8.611435e+00 6.919018e+00 7.579050e+00 2.503627e+00 -7.105195e-01 -1.449581e+00 -4.403461e+00 -4.054389e+00 -2.775620e+00 -2.587299e+00 -1.347454e+00 -1.677571e+00 -1.103873e+00 -1.200467e+00 1.221261e+00 2.274544e+00 1.436134e+00 1.318609e+00 1.190367e+00 1.281678e+00 5.567652e-01 2.012195e-01 3.385805e-01 -7.146011e-02
<VARIANCE> 25
 2.224013e+01 1.906181e+01 2.195085e+01 2.467656e+01 2.931383e+01 2.705208e+01 2.683207e+01 2.558228e+01 2.426804e+01 2.447122e+01 2.287318e+01 2.402909e+01 2.120367e+00 2.457968e+00 3.618525e+00 3.151540e+00 3.104126e+00 3.350342e+00 3.408598e+00 3.336433e+00 3.437987e+00 3.459430e+00 3.995808e+00 2.719548e+00 3.351533e-03
<GCONST> 9.221562e+01
<MIXTURE> 85 7.591393e-03
<MEAN> 25
 -3.111358e+00 7.888534e+00 5.727033e+00 1.288892e+00 -3.491963e+00 -5.321998e+00 -2.979823e+00 -6.117464e+00 -3.543368e+00 -3.186916e+00 -4.809470e-01 -1.896665e+00 3.941438e+00 3.236057e-01 1.756317e+00 -2.089972e+00 -3.414602e+00 -2.583177e+00 -2.885790e+00 -2.339717e+00 -2.250200e+00 -1.264538e+00 -2.300892e+00 -6.150773e-01 9.262819e-03
<VARIANCE> 25
 4.245371e+01 2.345110e+01 3.654580e+01 3.823045e+01 3.973545e+01 4.121026e+01 3.215421e+01 2.790947e+01 2.665315e+01 2.613534e+01 2.622141e+01 2.057567e+01 2.711082e+00 4.326583e+00 4.057342e+00 5.186787e+00 4.406576e+00 3.881224e+00 3.853729e+00 3.994121e+00 3.850415e+00 4.040906e+00 3.947804e+00 3.484580e+00 5.448570e-03
<GCONST> 9.836541e+01
<MIXTURE> 86 1.273941e-02
<MEAN> 25
 -3.727384e+00 -3.602675e-01 -7.675006e-01 5.986172e+00 5.904439e+00 3.899179e+00 5.843365e+00 4.387758e+00 4.758677e+00 4.021708e+00 4.007199e+00 2.585759e+00 -6.618490e-03 -1.365899e-02 1.969114e-03 -1.556682e-01 -9.558459e-02 -1.878982e-01 -2.501381e-01 -3.055445e-01 -3.438050e-01 -3.028936e-01 -2.963808e-01 -2.166493e-01 -7.052395e-04
<VARIANCE> 25
 1.096875e+01 6.783899e+00 8.865829e+00 1.133285e+01 1.558587e+01 1.363629e+01 1.221584e+01 1.453242e+01 1.387254e+01 1.280704e+01 1.767718e+01 1.083250e+01 9.195332e-02 1.898405e-01 3.183620e-01 5.611777e-01 5.624686e-01 6.441011e-01 7.190032e-01 8.634219e-01 7.990610e-01 8.852109e-01 1.093673e+00 9.902040e-01 6.101365e-05
<GCONST> 5.860603e+01
<MIXTURE> 87 1.100681e-02
<MEAN> 25
 -2.515821e+00 4.428306e+00 2.972723e+00 6.717422e+00 5.823251e+00 9.553131e-01 1.547147e+00 -1.311052e+00 -7.406309e-01 -5.613399e-01 -7.645330e-01 2.817920e-01 -2.156582e+00 -2.630816e+00 -2.007817e+00 -2.201021e+00 2.498376e-03 2.972594e-01 4.307065e-01 1.344154e+00 1.155722e+00 7.379454e-01 1.090885e+00 9.757622e-01 1.023887e-01
<VARIANCE> 25
 3.946434e+01 2.688887e+01 2.813722e+01 3.253393e+01 2.645973e+01 3.012072e+01 2.557399e+01 2.635528e+01 2.604126e+01 2.318774e+01 2.256045e+01 2.139851e+01 3.490417e+00 2.659851e+00 4.418395e+00 3.347898e+00 4.391434e+00 5.878588e+00 4.018536e+00 3.583531e+00 4.031459e+00 3.758816e+00 3.675642e+00 2.468793e+00 4.614491e-03
<GCONST> 9.589610e+01
<MIXTURE> 88 1.256585e-02
<MEAN> 25
 -3.341144e+00 -8.035666e-02 -1.783101e+00 5.769698e+00 5.199175e+00 2.568291e+00 4.586684e+00 2.832216e+00 3.893488e+00 2.893058e+00 1.743388e+00 2.288770e+00 1.256804e-01 8.498872e-02 1.224879e-01 3.179588e-01 1.367414e-01 1.657469e-01 -6.895182e-02 -1.591631e-01 -4.558377e-01 -2.089405e-01 1.500390e-01 4.796305e-02 -5.677724e-03
<VARIANCE> 25
 1.277795e+01 1.055674e+01 1.291817e+01 1.428678e+01 1.806201e+01 1.990760e+01 1.756406e+01 1.781601e+01 1.679904e+01 1.633942e+01 2.271943e+01 1.480113e+01 1.299099e+00 1.416875e+00 1.849923e+00 1.921759e+00 2.470943e+00 2.485962e+00 2.243707e+00 2.778337e+00 3.347740e+00 2.246181e+00 2.536852e+00 1.782487e+00 1.373325e-03
<GCONST> 8.159275e+01
<MIXTURE> 89 9.333527e-03
<MEAN> 25
 5.213442e+00 -6.916459e+00 -4.136393e+00 -3.832322e+00 -1.663881e+00 -5.646891e+00 -4.933004e+00 4.245526e+00 3.857364e+00 -2.375770e+00 -6.409619e+00 -3.701405e+00 -3.983658e-01 -5.037926e-02 1.902931e+00 8.515339e-01 -1.832022e+00 -1.663484e+00 5.029886e-01 1.257879e+00 -9.554459e-01 -1.246919e+00 7.320107e-01 1.408243e+00 -5.447247e-03
<VARIANCE> 25
 1.316119e+01 2.465218e+01 3.005070e+01 3.007940e+01 3.249304e+01 3.710748e+01 6.241623e+01 3.771524e+01 3.671329e+01 3.866783e+01 3.584405e+01 2.984340e+01 5.234300e-01 1.067036e+00 1.427371e+00 1.196692e+00 1.719138e+00 1.973816e+00 3.279141e+00 1.857388e+00 2.548620e+00 1.917555e+00 3.332648e+00 1.412347e+00 3.282630e-04
<GCONST> 8.572322e+01
<MIXTURE> 90 7.114505e-03
<MEAN> 25
 2.440124e+00 -9.682780e+00 -4.724091e+00 -4.063256e+00 -3.381918e+00 -1.822568e+00 3.270280e+00 1.148935e+00 -7.582322e+00 -1.014158e+01 -3.314678e+00 -7.679983e-01 -1.664074e-01 9.103251e-01 1.160943e+00 -8.447735e-01 -1.607607e+00 -2.102298e-01 6.463805e-01 -2.150763e-01 -1.817821e-01 7.243284e-01 1.867232e-01 -5.528628e-01 -1.111650e-02
<VARIANCE> 25
 8.435752e+00 1.792547e+01 1.978060e+01 2.870078e+01 3.655079e+01 3.198208e+01 3.944529e+01 3.634018e+01 3.527306e+01 2.816665e+01 2.840067e+01 2.604212e+01 2.234641e-01 6.090450e-01 7.937773e-01 1.050934e+00 1.464439e+00 1.582984e+00 1.769757e+00 1.647999e+00 1.834556e+00 1.685965e+00 1.502744e+00 1.306893e+00 2.136443e-04
<GCONST> 7.823480e+01
<MIXTURE> 91 7.852945e-03
<MEAN> 25
 5.895689e+00 -7.232934e+00 -8.456790e+00 -5.468781e+00 3.874611e+00 -1.047337e-01 -1.573700e+00 7.422436e-01 1.240872e+00 -2.608919e+00 -5.273407e+00 -5.129280e+00 2.485609e-01 9.020655e-01 1.736391e-01 5.043272e-01 -6.308565e-02 -6.986789e-01 -4.117707e-01 -4.248507e-02 -2.738939e-02 4.288171e-01 -1.606437e-01 1.771436e-01 -3.414137e-02
<VARIANCE> 25
 1.253783e+01 2.325547e+01 1.872108e+01 4.063126e+01 3.275065e+01 5.296997e+01 5.514032e+01 3.846316e+01 5.058122e+01 6.068178e+01 4.014477e+01 3.988701e+01 4.216284e-01 9.604254e-01 1.049370e+00 1.325096e+00 2.290665e+00 2.456179e+00 2.472163e+00 2.369499e+00 2.238323e+00 2.243968e+00 2.009218e+00 1.701390e+00 6.188625e-04
<GCONST> 8.715881e+01
<MIXTURE> 92 7.852945e-03
<MEAN> 25
 5.895689e+00 -7.232934e+00 -8.456790e+00 -5.468781e+00 3.874611e+00 -1.047337e-01 -1.573700e+00 7.422436e-01 1.240872e+00 -2.608919e+00 -5.273407e+00 -5.129280e+00 2.485609e-01 9.020655e-01 1.736391e-01 5.043272e-01 -6.308565e-02 -6.986789e-01 -4.117707e-01 -4.248507e-02 -2.738939e-02 4.288171e-01 -1.606437e-01 1.771436e-01 -3.414137e-02
<VARIANCE> 25
 1.253783e+01 2.325547e+01 1.872108e+01 4.063126e+01 3.275065e+01 5.296997e+01 5.514032e+01 3.846316e+01 5.058122e+01 6.068178e+01 4.014477e+01 3.988701e+01 4.216284e-01 9.604254e-01 1.049370e+00 1.325096e+00 2.290665e+00 2.456179e+00 2.472163e+00 2.369499e+00 2.238323e+00 2.243968e+00 2.009218e+00 1.701390e+00 6.188625e-04
<GCONST> 8.715881e+01
<MIXTURE> 93 6.122769e-03
<MEAN> 25
 -6.569911e+00 -8.506406e-01 -2.355520e+00 5.811309e+00 6.038306e+00 3.832481e+00 6.128033e+00 3.475402e+00 4.084314e+00 2.483879e+00 1.647093e+00 3.631072e+00 -5.679916e-02 -1.480418e-01 -2.549319e-01 -3.558541e-01 -3.242703e-01 -2.820404e-01 -2.233171e-01 -1.591658e-01 -1.443434e-01 -1.562693e-01 -1.448776e-01 -8.360780e-02 1.661289e-05
<VARIANCE> 25
 1.056483e+01 6.169457e+00 8.026178e+00 1.100289e+01 1.155280e+01 1.594011e+01 1.479083e+01 1.690470e+01 1.438260e+01 1.417859e+01 1.704936e+01 1.332628e+01 8.066934e-02 1.504387e-01 2.885530e-01 3.985887e-01 4.871160e-01 6.479954e-01 7.788615e-01 8.649076e-01 9.159296e-01 8.659111e-01 9.267758e-01 9.753571e-01 1.020701e-06
<GCONST> 5.383562e+01
<MIXTURE> 94 6.122769e-03
<MEAN> 25
 -6.569911e+00 -8.506406e-01 -2.355520e+00 5.811309e+00 6.038306e+00 3.832481e+00 6.128033e+00 3.475402e+00 4.084314e+00 2.483879e+00 1.647093e+00 3.631072e+00 -5.679916e-02 -1.480418e-01 -2.549319e-01 -3.558541e-01 -3.242703e-01 -2.820404e-01 -2.233171e-01 -1.591658e-01 -1.443434e-01 -1.562693e-01 -1.448776e-01 -8.360780e-02 1.661289e-05
<VARIANCE> 25
 1.056483e+01 6.169457e+00 8.026178e+00 1.100289e+01 1.155280e+01 1.594011e+01 1.479083e+01 1.690470e+01 1.438260e+01 1.417859e+01 1.704936e+01 1.332628e+01 8.066934e-02 1.504387e-01 2.885530e-01 3.985887e-01 4.871160e-01 6.479954e-01 7.788615e-01 8.649076e-01 9.159296e-01 8.659111e-01 9.267758e-01 9.753571e-01 1.020701e-06
<GCONST> 5.383562e+01
<MIXTURE> 95 5.258835e-03
<MEAN> 25
 -4.172030e+00 2.120121e-02 -2.138750e+00 5.383176e+00 5.664140e+00 2.254581e+00 4.194715e+00 1.182734e+00 2.437153e+00 1.813504e+00 6.785398e-01 2.361987e+00 1.457081e-01 1.771324e-01 4.706727e-02 -6.499187e-02 -2.520471e-01 -7.573054e-01 -8.761339e-01 -1.217739e+00 -1.318041e+00 -1.142619e+00 -8.873477e-01 -3.162565e-01 -1.662150e-03
<VARIANCE> 25
 1.596302e+01 7.601706e+00 1.059990e+01 1.109608e+01 1.791840e+01 1.677573e+01 1.598199e+01 1.480567e+01 1.426511e+01 1.646907e+01 1.714182e+01 1.281026e+01 1.881017e-01 2.445771e-01 4.358406e-01 5.301265e-01 7.992971e-01 7.812546e-01 9.446526e-01 8.145862e-01 1.076282e+00 1.068188e+00 1.294328e+00 1.143932e+00 5.009416e-05
<GCONST> 6.288964e+01
<MIXTURE> 96 7.034694e-03
<MEAN> 25
 -4.610568e+00 -1.961539e-01 -2.140397e+00 5.251573e+00 4.295851e+00 1.613375e+00 3.700077e+00 1.879749e+00 2.768883e+00 1.375361e+00 9.421483e-01 2.660915e+00 -1.277913e-02 1.098641e-01 2.106498e-01 3.429355e-01 5.637917e-01 4.293175e-01 2.191120e-01 -8.805423e-02 -4.586471e-01 -6.941433e-01 -6.308290e-01 -4.528246e-01 -2.896962e-06
<VARIANCE> 25
 1.225672e+01 9.515251e+00 1.200458e+01 1.328101e+01 1.541827e+01 1.877803e+01 1.736274e+01 2.067061e+01 1.778143e+01 1.820325e+01 1.873989e+01 1.411989e+01 1.132792e-01 2.099603e-01 3.461100e-01 4.642505e-01 5.297210e-01 7.097409e-01 8.993261e-01 9.826674e-01 8.876850e-01 8.514795e-01 8.938448e-01 9.995350e-01 1.023370e-06
<GCONST> 5.783282e+01
<MIXTURE> 97 7.034694e-03
<MEAN> 25
 -4.610568e+00 -1.961539e-01 -2.140397e+00 5.251573e+00 4.295851e+00 1.613375e+00 3.700077e+00 1.879749e+00 2.768883e+00 1.375361e+00 9.421483e-01 2.660915e+00 -1.277913e-02 1.098641e-01 2.106498e-01 3.429355e-01 5.637917e-01 4.293175e-01 2.191120e-01 -8.805423e-02 -4.586471e-01 -6.941433e-01 -6.308290e-01 -4.528246e-01 -2.896962e-06
<VARIANCE> 25
 1.225672e+01 9.515251e+00 1.200458e+01 1.328101e+01 1.541827e+01 1.877803e+01 1.736274e+01 2.067061e+01 1.778143e+01 1.820325e+01 1.873989e+01 1.411989e+01 1.132792e-01 2.099603e-01 3.461100e-01 4.642505e-01 5.297210e-01 7.097409e-01 8.993261e-01 9.826674e-01 8.876850e-01 8.514795e-01 8.938448e-01 9.995350e-01 1.023370e-06
<GCONST> 5.783282e+01
<MIXTURE> 98 9.917808e-03
<MEAN> 25
 -1.027357e+00 1.200781e+00 -2.447383e-01 4.392241e+00 3.592487e+00 2.603617e+00 3.013710e+00 1.410533e+00 1.638998e+00 1.206332e+00 2.974529e-01 9.466817e-01 -1.708194e+00 -1.356308e+00 -9.915393e-01 1.448748e-01 6.340768e-01 8.937498e-01 1.165314e+00 1.442100e+00 1.638320e+00 1.158717e+00 1.216504e+00 8.326535e-01 -3.202157e-02
<VARIANCE> 25
 1.502701e+01 1.854268e+01 3.028964e+01 3.058309e+01 4.094471e+01 3.486311e+01 3.186652e+01 2.720535e+01 2.530499e+01 2.808488e+01 2.712729e+01 2.284312e+01 1.348072e+00 1.537033e+00 2.223001e+00 2.281652e+00 2.774924e+00 2.797205e+00 2.843241e+00 2.676816e+00 2.985528e+00 2.995546e+00 3.011515e+00 2.122103e+00 2.409880e-03
<GCONST> 8.988082e+01
<MIXTURE> 99 6.696178e-03
<MEAN> 25
 -6.459817e+00 9.905403e+00 6.543379e+00 3.697044e+00 1.119233e+00 -5.355877e+00 -1.588454e+00 -4.166564e+00 -3.367295e+00 -3.685233e+00 -1.690017e+00 4.295990e-01 5.578826e-01 -7.230768e-01 3.008623e-01 -3.552295e-01 -1.121813e+00 -5.148532e-01 -3.306876e-01 -2.415777e-01 -7.622950e-02 -4.354963e-02 2.232445e-01 1.886451e-01 1.042562e-02
<VARIANCE> 25
 3.655466e+01 2.586999e+01 4.915883e+01 3.250335e+01 3.757933e+01 3.451676e+01 2.773475e+01 2.892066e+01 2.734307e+01 2.779706e+01 2.046531e+01 2.923498e+01 2.201010e+00 1.859596e+00 1.427070e+00 1.790444e+00 2.644017e+00 2.076299e+00 1.583553e+00 1.649443e+00 1.583875e+00 1.564158e+00 1.295893e+00 1.266986e+00 1.567297e-03
<GCONST> 8.701286e+01
<MIXTURE> 100 4.498084e-03
<MEAN> 25
 -1.598888e+00 6.344676e+00 1.027691e+01 -7.462932e+00 -1.078201e+01 -5.075213e+00 -4.941617e+00 -9.968800e+00 -4.718273e+00 -8.552794e-01 -2.733119e+00 -2.708098e+00 2.917835e+00 -1.260448e+00 1.299658e+00 -2.185881e+00 -3.419474e+00 -7.841417e-01 -1.218693e+00 -8.197387e-01 -1.475415e+00 3.466662e-01 -1.655597e+00 -2.862381e-01 2.015648e-03
<VARIANCE> 25
 1.362654e+01 2.105994e+01 2.246178e+01 2.643061e+01 2.301829e+01 2.372343e+01 2.911103e+01 2.170656e+01 2.748222e+01 2.265253e+01 2.241266e+01 2.134226e+01 1.799289e+00 3.953715e+00 2.919918e+00 4.286467e+00 4.184388e+00 4.537186e+00 4.015792e+00 4.340479e+00 4.168022e+00 3.896037e+00 3.910344e+00 3.224952e+00 1.674817e-03
<GCONST> 9.256911e+01
<MIXTURE> 101 6.007792e-03
<MEAN> 25
 6.747643e+00 -3.644346e+00 -4.998229e+00 -6.863100e+00 -3.156401e-01 -1.204268e+00 -1.012621e+01 -1.294292e+00 1.569191e+00 2.759990e+00 -4.334863e-01 -5.050090e+00 6.728017e-01 7.554488e-01 -1.650200e+00 -1.591216e+00 1.063187e+00 2.601454e+00 2.094341e-01 -1.663224e+00 -1.061291e+00 9.840049e-01 1.312287e+00 -1.960909e-01 -8.809797e-03
<VARIANCE> 25
 1.377902e+01 1.547219e+01 3.186448e+01 5.273000e+01 3.511031e+01 3.273344e+01 3.590975e+01 3.372824e+01 5.129515e+01 3.787764e+01 5.785191e+01 2.171872e+01 2.949632e-01 6.280838e-01 1.306125e+00 1.888676e+00 1.476031e+00 1.980799e+00 2.687632e+00 1.861129e+00 2.456141e+00 1.946173e+00 1.597161e+00 1.984813e+00 3.378410e-04
<GCONST> 8.421499e+01
<MIXTURE> 102 6.007792e-03
<MEAN> 25
 6.747643e+00 -3.644346e+00 -4.998229e+00 -6.863100e+00 -3.156401e-01 -1.204268e+00 -1.012621e+01 -1.294292e+00 1.569191e+00 2.759990e+00 -4.334863e-01 -5.050090e+00 6.728017e-01 7.554488e-01 -1.650200e+00 -1.591216e+00 1.063187e+00 2.601454e+00 2.094341e-01 -1.663224e+00 -1.061291e+00 9.840049e-01 1.312287e+00 -1.960909e-01 -8.809797e-03
<VARIANCE> 25
 1.377902e+01 1.547219e+01 3.186448e+01 5.273000e+01 3.511031e+01 3.273344e+01 3.590975e+01 3.372824e+01 5.129515e+01 3.787764e+01 5.785191e+01 2.171872e+01 2.949632e-01 6.280838e-01 1.306125e+00 1.888676e+00 1.476031e+00 1.980799e+00 2.687632e+00 1.861129e+00 2.456141e+00 1.946173e+00 1.597161e+00 1.984813e+00 3.378410e-04
<GCONST> 8.421499e+01
<MIXTURE> 103 5.694618e-03
<MEAN> 25
 3.305640e+00 -9.443564e+00 -6.151510e+00 -3.199656e+00 -1.344632e+00 -1.962627e+00 2.440732e+00 2.525544e+00 -4.486837e+00 -9.155191e+00 -5.091210e+00 3.101739e-01 -1.410749e-01 -1.494668e+00 -9.515568e-01 3.716517e-01 1.177723e+00 9.950117e-01 1.291713e-01 -2.570984e-01 -8.073257e-01 -9.428554e-01 2.173958e-02 1.290641e-01 2.656139e-02
<VARIANCE> 25
 1.048791e+01 2.022177e+01 2.266461e+01 3.239061e+01 4.744930e+01 3.575030e+01 4.581630e+01 3.647047e+01 4.272303e+01 2.991364e+01 3.018761e+01 2.641196e+01 6.561764e-01 1.241281e+00 1.581025e+00 1.918650e+00 2.987255e+00 2.429853e+00 2.926389e+00 2.587641e+00 2.591336e+00 2.491467e+00 2.331037e+00 1.994585e+00 8.110091e-04
<GCONST> 8.779002e+01
<MIXTURE> 104 5.694618e-03
<MEAN> 25
 3.305640e+00 -9.443564e+00 -6.151510e+00 -3.199656e+00 -1.344632e+00 -1.962627e+00 2.440732e+00 2.525544e+00 -4.486837e+00 -9.155191e+00 -5.091210e+00 3.101739e-01 -1.410749e-01 -1.494668e+00 -9.515568e-01 3.716517e-01 1.177723e+00 9.950117e-01 1.291713e-01 -2.570984e-01 -8.073257e-01 -9.428554e-01 2.173958e-02 1.290641e-01 2.656139e-02
<VARIANCE> 25
 1.048791e+01 2.022177e+01 2.266461e+01 3.239061e+01 4.744930e+01 3.575030e+01 4.581630e+01 3.647047e+01 4.272303e+01 2.991364e+01 3.018761e+01 2.641196e+01 6.561764e-01 1.241281e+00 1.581025e+00 1.918650e+00 2.987255e+00 2.429853e+00 2.926389e+00 2.587641e+00 2.591336e+00 2.491467e+00 2.331037e+00 1.994585e+00 8.110091e-04
<GCONST> 8.779002e+01
<MIXTURE> 105 4.710235e-03
<MEAN> 25
 2.152810e+00 -1.539765e+00 8.601744e+00 -3.459050e+00 -1.093127e+01 -4.770188e+00 -4.482287e+00 -9.657553e-01 -4.427643e+00 -3.066497e+00 2.381428e+00 -1.380132e+00 -1.000384e-02 8.772860e-02 5.496564e-02 -1.330036e-02 -3.138318e-02 8.820122e-02 3.885222e-02 4.628081e-02 -6.276150e-02 -1.323047e-02 3.555089e-02 -4.867772e-02 -2.450143e-03
<VARIANCE> 25
 1.252853e+01 2.688852e+01 4.382092e+01 4.972631e+01 4.164150e+01 5.115912e+01 3.976521e+01 4.104839e+01 4.219418e+01 3.957252e+01 4.923396e+01 2.947613e+01 8.345784e-02 2.256943e-01 3.212757e-01 2.874923e-01 3.742427e-01 4.283353e-01 4.772361e-01 4.718497e-01 5.742551e-01 4.371511e-01 4.081610e-01 3.835538e-01 8.452281e-05
<GCONST> 6.692509e+01
<MIXTURE> 106 4.710235e-03
<MEAN> 25
 2.152810e+00 -1.539765e+00 8.601744e+00 -3.459050e+00 -1.093127e+01 -4.770188e+00 -4.482287e+00 -9.657553e-01 -4.427643e+00 -3.066497e+00 2.381428e+00 -1.380132e+00 -1.000384e-02 8.772860e-02 5.496564e-02 -1.330036e-02 -3.138318e-02 8.820122e-02 3.885222e-02 4.628081e-02 -6.276150e-02 -1.323047e-02 3.555089e-02 -4.867772e-02 -2.450143e-03
<VARIANCE> 25
 1.252853e+01 2.688852e+01 4.382092e+01 4.972631e+01 4.164150e+01 5.115912e+01 3.976521e+01 4.104839e+01 4.219418e+01 3.957252e+01 4.923396e+01 2.947613e+01 8.345784e-02 2.256943e-01 3.212757e-01 2.874923e-01 3.742427e-01 4.283353e-01 4.772361e-01 4.718497e-01 5.742551e-01 4.371511e-01 4.081610e-01 3.835538e-01 8.452281e-05
<GCONST> 6.692509e+01
<MIXTURE> 107 5.452374e-03
<MEAN> 25
 8.531076e+00 -2.153772e+00 -7.867795e+00 -9.486423e+00 1.885966e+00 2.948561e+00 -8.509318e+00 -4.682101e+00 -7.949641e-01 3.198557e+00 6.590356e-01 -4.822063e+00 -5.980551e-01 -7.602099e-01 8.100656e-01 1.772293e+00 2.637843e-01 -2.011301e+00 -8.657976e-01 8.734990e-01 1.746272e+00 8.013793e-02 -1.640049e+00 -8.554976e-01 -3.319623e-03
<VARIANCE> 25
 9.399952e+00 2.065449e+01 2.847370e+01 4.210128e+01 3.503057e+01 3.742072e+01 5.036402e+01 3.603424e+01 4.481493e+01 4.163424e+01 5.139110e+01 3.160290e+01 3.544953e-01 9.436095e-01 1.447716e+00 2.363060e+00 2.294496e+00 2.751502e+00 2.651407e+00 2.513434e+00 2.266811e+00 2.985661e+00 1.907479e+00 2.218494e+00 7.652253e-04
<GCONST> 8.796469e+01
<MIXTURE> 108 5.452374e-03
<MEAN> 25
 8.531076e+00 -2.153772e+00 -7.867795e+00 -9.486423e+00 1.885966e+00 2.948561e+00 -8.509318e+00 -4.682101e+00 -7.949641e-01 3.198557e+00 6.590356e-01 -4.822063e+00 -5.980551e-01 -7.602099e-01 8.100656e-01 1.772293e+00 2.637843e-01 -2.011301e+00 -8.657976e-01 8.734990e-01 1.746272e+00 8.013793e-02 -1.640049e+00 -8.554976e-01 -3.319623e-03
<VARIANCE> 25
 9.399952e+00 2.065449e+01 2.847370e+01 4.210128e+01 3.503057e+01 3.742072e+01 5.036402e+01 3.603424e+01 4.481493e+01 4.163424e+01 5.139110e+01 3.160290e+01 3.544953e-01 9.436095e-01 1.447716e+00 2.363060e+00 2.294496e+00 2.751502e+00 2.651407e+00 2.513434e+00 2.266811e+00 2.985661e+00 1.907479e+00 2.218494e+00 7.652253e-04
<GCONST> 8.796469e+01
<MIXTURE> 109 6.661064e-03
<MEAN> 25
 4.050632e+00 -1.049940e+01 -8.299230e+00 -1.404360e+00 2.768770e+00 -5.173183e-02 -2.463113e-02 1.453471e+00 -2.512974e+00 -8.295187e+00 -5.407560e+00 2.352520e-02 -3.302840e-02 -1.306344e-01 -3.295187e-02 2.518232e-01 1.899606e-01 1.060395e-01 -1.280714e-01 -9.638479e-02 -3.888689e-02 -1.361512e-01 2.101883e-01 8.940821e-03 -3.497247e-03
<VARIANCE> 25
 9.184698e+00 1.857359e+01 1.991288e+01 3.189687e+01 4.068695e+01 3.656614e+01 4.693709e+01 3.418549e+01 4.645919e+01 3.590795e+01 2.971650e+01 2.825376e+01 1.921730e-01 4.224781e-01 5.376354e-01 6.312326e-01 1.232102e+00 1.024708e+00 1.262100e+00 1.104040e+00 1.117186e+00 9.522235e-01 8.944423e-01 8.832320e-01 1.808886e-04
<GCONST> 7.455994e+01
<MIXTURE> 110 6.661064e-03
<MEAN> 25
 4.050632e+00 -1.049940e+01 -8.299230e+00 -1.404360e+00 2.768770e+00 -5.173183e-02 -2.463113e-02 1.453471e+00 -2.512974e+00 -8.295187e+00 -5.407560e+00 2.352520e-02 -3.302840e-02 -1.306344e-01 -3.295187e-02 2.518232e-01 1.899606e-01 1.060395e-01 -1.280714e-01 -9.638479e-02 -3.888689e-02 -1.361512e-01 2.101883e-01 8.940821e-03 -3.497247e-03
<VARIANCE> 25
 9.184698e+00 1.857359e+01 1.991288e+01 3.189687e+01 4.068695e+01 3.656614e+01 4.693709e+01 3.418549e+01 4.645919e+01 3.590795e+01 2.971650e+01 2.825376e+01 1.921730e-01 4.224781e-01 5.376354e-01 6.312326e-01 1.232102e+00 1.024708e+00 1.262100e+00 1.104040e+00 1.117186e+00 9.522235e-01 8.944423e-01 8.832320e-01 1.808886e-04
<GCONST> 7.455994e+01
<MIXTURE> 111 4.337247e-03
<MEAN> 25
 -4.356400e+00 -8.589494e-01 -1.751430e+00 1.753655e+00 1.090531e+00 8.838879e-01 3.571336e-01 1.962099e-01 1.493105e-01 -4.705497e-01 -6.898142e-01 1.954534e+00 -1.721919e-02 -3.073388e-02 -7.676886e-02 -8.321482e-02 -4.801304e-02 1.452743e-02 9.507664e-04 -6.284212e-02 -1.225223e-01 -1.866391e-01 -1.928722e-01 -1.113792e-01 -1.591307e-04
<VARIANCE> 25
 7.654982e+00 5.028169e+00 1.013547e+01 9.521685e+00 1.377381e+01 2.387374e+01 1.457743e+01 1.308373e+01 1.169025e+01 1.204255e+01 1.364489e+01 1.155202e+01 7.882343e-02 1.615940e-01 2.757690e-01 4.196582e-01 5.688921e-01 7.048936e-01 7.902294e-01 8.604146e-01 9.024599e-01 8.684759e-01 8.604305e-01 8.387451e-01 2.226208e-05
<GCONST> 5.611906e+01
<MIXTURE> 112 4.337247e-03
<MEAN> 25
 -4.356400e+00 -8.589494e-01 -1.751430e+00 1.753655e+00 1.090531e+00 8.838879e-01 3.571336e-01 1.962099e-01 1.493105e-01 -4.705497e-01 -6.898142e-01 1.954534e+00 -1.721919e-02 -3.073388e-02 -7.676886e-02 -8.321482e-02 -4.801304e-02 1.452743e-02 9.507664e-04 -6.284212e-02 -1.225223e-01 -1.866391e-01 -1.928722e-01 -1.113792e-01 -1.591307e-04
<VARIANCE> 25
 7.654982e+00 5.028169e+00 1.013547e+01 9.521685e+00 1.377381e+01 2.387374e+01 1.457743e+01 1.308373e+01 1.169025e+01 1.204255e+01 1.364489e+01 1.155202e+01 7.882343e-02 1.615940e-01 2.757690e-01 4.196582e-01 5.688921e-01 7.048936e-01 7.902294e-01 8.604146e-01 9.024599e-01 8.684759e-01 8.604305e-01 8.387451e-01 2.226208e-05
<GCONST> 5.611906e+01
<MIXTURE> 113 5.938666e-03
<MEAN> 25
 9.516911e+00 1.470162e+00 -8.347136e+00 -1.696029e+01 -1.026246e+00 5.300589e+00 -5.545889e+00 -1.558210e+00 -5.991541e+00 -5.237536e-01 9.687973e-01 -3.712462e-01 -1.581004e-02 5.146218e-02 -6.613028e-02 -8.055733e-02 8.603146e-02 1.998608e-01 7.035982e-02 7.011619e-03 -1.375428e-01 -7.875438e-02 1.754347e-01 -2.285239e-03 -1.607485e-03
<VARIANCE> 25
 1.188108e+01 1.685644e+01 3.115421e+01 3.249616e+01 5.001930e+01 3.420953e+01 3.874829e+01 3.732830e+01 3.739534e+01 4.395141e+01 4.177621e+01 2.741234e+01 1.241361e-01 3.302414e-01 3.033771e-01 6.184624e-01 6.267093e-01 7.181737e-01 7.971848e-01 8.162296e-01 1.045170e+00 8.737308e-01 7.043067e-01 7.186342e-01 1.186752e-04
<GCONST> 7.142986e+01
<MIXTURE> 114 5.938666e-03
<MEAN> 25
 9.516911e+00 1.470162e+00 -8.347136e+00 -1.696029e+01 -1.026246e+00 5.300589e+00 -5.545889e+00 -1.558210e+00 -5.991541e+00 -5.237536e-01 9.687973e-01 -3.712462e-01 -1.581004e-02 5.146218e-02 -6.613028e-02 -8.055733e-02 8.603146e-02 1.998608e-01 7.035982e-02 7.011619e-03 -1.375428e-01 -7.875438e-02 1.754347e-01 -2.285239e-03 -1.607485e-03
<VARIANCE> 25
 1.188108e+01 1.685644e+01 3.115421e+01 3.249616e+01 5.001930e+01 3.420953e+01 3.874829e+01 3.732830e+01 3.739534e+01 4.395141e+01 4.177621e+01 2.741234e+01 1.241361e-01 3.302414e-01 3.033771e-01 6.184624e-01 6.267093e-01 7.181737e-01 7.971848e-01 8.162296e-01 1.045170e+00 8.737308e-01 7.043067e-01 7.186342e-01 1.186752e-04
<GCONST> 7.142986e+01
<MIXTURE> 115 2.935202e-03
<MEAN> 25
 -3.702985e+00 -6.143275e-01 -3.052673e+00 3.818047e+00 2.848922e+00 -3.953084e-01 2.440588e+00 2.270192e-01 1.460904e+00 5.499508e-02 -1.832425e-01 2.648516e+00 3.897779e-02 -5.557023e-02 -2.818635e-01 -4.306374e-01 -5.813929e-01 -6.942200e-01 -6.185249e-01 -4.666966e-01 -4.260570e-01 -4.537353e-01 -4.308300e-01 -2.153078e-01 1.054813e-05
<VARIANCE> 25
 1.027031e+01 9.584288e+00 1.282485e+01 1.235384e+01 1.538356e+01 1.682109e+01 1.678873e+01 2.029495e+01 1.731491e+01 1.662653e+01 1.883963e+01 1.459301e+01 1.932185e-01 3.306493e-01 5.168269e-01 5.400476e-01 6.598241e-01 7.777178e-01 9.861477e-01 1.092135e+00 1.083082e+00 9.783458e-01 1.080855e+00 1.048933e+00 1.062362e-06
<GCONST> 6.007642e+01
<MIXTURE> 116 2.935202e-03
<MEAN> 25
 -3.702985e+00 -6.143275e-01 -3.052673e+00 3.818047e+00 2.848922e+00 -3.953084e-01 2.440588e+00 2.270192e-01 1.460904e+00 5.499508e-02 -1.832425e-01 2.648516e+00 3.897779e-02 -5.557023e-02 -2.818635e-01 -4.306374e-01 -5.813929e-01 -6.942200e-01 -6.185249e-01 -4.666966e-01 -4.260570e-01 -4.537353e-01 -4.308300e-01 -2.153078e-01 1.054813e-05
<VARIANCE> 25
 1.027031e+01 9.584288e+00 1.282485e+01 1.235384e+01 1.538356e+01 1.682109e+01 1.678873e+01 2.029495e+01 1.731491e+01 1.662653e+01 1.883963e+01 1.459301e+01 1.932185e-01 3.306493e-01 5.168269e-01 5.400476e-01 6.598241e-01 7.777178e-01 9.861477e-01 1.092135e+00 1.083082e+00 9.783458e-01 1.080855e+00 1.048933e+00 1.062362e-06
<GCONST> 6.007642e+01
<MIXTURE> 117 6.506003e-03
<MEAN> 25
 -4.572117e+00 1.140643e+00 1.019229e+00 9.702873e+00 6.307844e+00 6.161023e+00 6.450064e+00 5.012567e+00 6.384409e+00 4.928387e+00 6.249693e+00 2.666459e+00 -7.059809e-02 -2.278276e-01 -3.482426e-01 -4.242539e-01 -3.490856e-01 -2.981832e-01 -2.856497e-01 -3.283439e-01 -3.859411e-01 -3.770541e-01 -2.655244e-01 -1.376795e-01 1.148395e-06
<VARIANCE> 25
 7.389970e+00 8.653534e+00 9.748444e+00 1.427625e+01 1.551798e+01 1.573533e+01 1.754395e+01 1.804038e+01 1.623055e+01 1.630309e+01 1.731739e+01 1.477092e+01 2.151037e-01 3.064022e-01 4.341335e-01 6.242714e-01 8.680972e-01 1.047641e+00 1.175511e+00 1.234864e+00 1.210670e+00 1.192997e+00 1.178675e+00 1.143305e+00 9.990143e-07
<GCONST> 6.052071e+01
<MIXTURE> 118 6.506003e-03
<MEAN> 25
 -4.572117e+00 1.140643e+00 1.019229e+00 9.702873e+00 6.307844e+00 6.161023e+00 6.450064e+00 5.012567e+00 6.384409e+00 4.928387e+00 6.249693e+00 2.666459e+00 -7.059809e-02 -2.278276e-01 -3.482426e-01 -4.242539e-01 -3.490856e-01 -2.981832e-01 -2.856497e-01 -3.283439e-01 -3.859411e-01 -3.770541e-01 -2.655244e-01 -1.376795e-01 1.148395e-06
<VARIANCE> 25
 7.389970e+00 8.653534e+00 9.748444e+00 1.427625e+01 1.551798e+01 1.573533e+01 1.754395e+01 1.804038e+01 1.623055e+01 1.630309e+01 1.731739e+01 1.477092e+01 2.151037e-01 3.064022e-01 4.341335e-01 6.242714e-01 8.680972e-01 1.047641e+00 1.175511e+00 1.234864e+00 1.210670e+00 1.192997e+00 1.178675e+00 1.143305e+00 9.990143e-07
<GCONST> 6.052071e+01
<MIXTURE> 119 4.297961e-03
<MEAN> 25
 -4.974349e+00 -7.631701e+00 2.232074e+00 2.016649e+00 2.238731e+00 2.051990e-01 5.274319e+00 5.940268e+00 1.165197e+00 9.679355e-01 6.610543e+00 1.569810e+00 -4.992455e-02 -7.933231e-02 3.719316e-02 -5.724960e-02 -1.261773e-01 -1.799757e-01 -6.902730e-02 -1.472360e-02 -9.164361e-02 -1.120425e-01 -5.491764e-02 -5.806806e-02 1.114241e-03
<VARIANCE> 25
 8.506641e+00 9.836040e+00 1.656833e+01 2.017840e+01 2.290292e+01 2.322768e+01 2.501193e+01 2.647966e+01 2.506334e+01 2.806753e+01 2.042512e+01 2.040444e+01 1.603725e-01 2.824786e-01 4.598583e-01 6.328402e-01 8.034757e-01 1.003720e+00 1.099625e+00 1.280721e+00 1.285866e+00 1.245639e+00 1.192627e+00 1.112720e+00 2.316388e-04
<GCONST> 6.972903e+01
<MIXTURE> 120 4.297961e-03
<MEAN> 25
 -4.974349e+00 -7.631701e+00 2.232074e+00 2.016649e+00 2.238731e+00 2.051990e-01 5.274319e+00 5.940268e+00 1.165197e+00 9.679355e-01 6.610543e+00 1.569810e+00 -4.992455e-02 -7.933231e-02 3.719316e-02 -5.724960e-02 -1.261773e-01 -1.799757e-01 -6.902730e-02 -1.472360e-02 -9.164361e-02 -1.120425e-01 -5.491764e-02 -5.806806e-02 1.114241e-03
<VARIANCE> 25
 8.506641e+00 9.836040e+00 1.656833e+01 2.017840e+01 2.290292e+01 2.322768e+01 2.501193e+01 2.647966e+01 2.506334e+01 2.806753e+01 2.042512e+01 2.040444e+01 1.603725e-01 2.824786e-01 4.598583e-01 6.328402e-01 8.034757e-01 1.003720e+00 1.099625e+00 1.280721e+00 1.285866e+00 1.245639e+00 1.192627e+00 1.112720e+00 2.316388e-04
<GCONST> 6.972903e+01
<MIXTURE> 121 4.567511e-03
<MEAN> 25
 2.155057e-01 -2.527205e+00 5.096347e+00 -1.291942e+01 -1.256192e+01 -1.663903e+00 9.054210e-01 -5.098930e+00 -4.287983e+00 -5.008466e-01 -5.358177e+00 -4.313693e+00 1.936270e-02 1.399418e-01 -4.105601e-02 8.228301e-02 1.499579e-01 8.161672e-02 -6.973749e-02 -1.862395e-01 -2.743267e-01 -2.644647e-01 -1.141539e-01 -5.051216e-03 -7.412950e-03
<VARIANCE> 25
 7.679694e+00 1.549852e+01 1.748559e+01 2.024087e+01 2.500090e+01 2.900848e+01 3.025964e+01 2.437255e+01 3.584517e+01 2.813495e+01 2.202922e+01 2.102891e+01 1.565997e-01 6.436395e-01 6.197088e-01 7.034941e-01 7.774716e-01 1.147345e+00 1.121089e+00 1.113412e+00 1.242409e+00 1.187321e+00 9.358297e-01 8.830136e-01 2.090118e-04
<GCONST> 7.154708e+01
<MIXTURE> 122 4.567511e-03
<MEAN> 25
 2.155057e-01 -2.527205e+00 5.096347e+00 -1.291942e+01 -1.256192e+01 -1.663903e+00 9.054210e-01 -5.098930e+00 -4.287983e+00 -5.008466e-01 -5.358177e+00 -4.313693e+00 1.936270e-02 1.399418e-01 -4.105601e-02 8.228301e-02 1.499579e-01 8.161672e-02 -6.973749e-02 -1.862395e-01 -2.743267e-01 -2.644647e-01 -1.141539e-01 -5.051216e-03 -7.412950e-03
<VARIANCE> 25
 7.679694e+00 1.549852e+01 1.748559e+01 2.024087e+01 2.500090e+01 2.900848e+01 3.025964e+01 2.437255e+01 3.584517e+01 2.813495e+01 2.202922e+01 2.102891e+01 1.565997e-01 6.436395e-01 6.197088e-01 7.034941e-01 7.774716e-01 1.147345e+00 1.121089e+00 1.113412e+00 1.242409e+00 1.187321e+00 9.358297e-01 8.830136e-01 2.090118e-04
<GCONST> 7.154708e+01
<MIXTURE> 123 4.393044e-03
<MEAN> 25
 -3.041837e+00 1.249275e+00 -2.217143e-01 5.951459e+00 5.676431e+00 2.841338e+00 3.973967e+00 2.818820e-01 9.475473e-01 4.221194e-01 -1.002145e+00 -1.218049e-02 -4.494824e-01 -7.824132e-01 -6.939681e-01 -5.497327e-01 -3.722766e-01 1.728729e-01 5.577914e-01 8.082218e-01 1.031832e+00 7.579115e-01 5.752190e-01 4.409090e-01 -3.877228e-03
<VARIANCE> 25
 1.415206e+01 8.775451e+00 1.380379e+01 1.456519e+01 1.960171e+01 2.479126e+01 2.016169e+01 2.014438e+01 1.807285e+01 1.774199e+01 2.264378e+01 1.977301e+01 3.484156e-01 3.536814e-01 5.963954e-01 6.581579e-01 1.016416e+00 1.035867e+00 1.345676e+00 1.503815e+00 1.255166e+00 9.793111e-01 1.169547e+00 1.062906e+00 9.220965e-05
<GCONST> 6.899976e+01
<MIXTURE> 124 4.069876e-03
<MEAN> 25
 -5.203586e+00 -7.107750e-01 -3.152673e+00 4.969481e+00 5.499746e+00 3.031476e+00 5.504466e+00 2.336133e+00 3.934741e+00 1.946083e+00 -5.274123e-02 2.613414e+00 -1.797796e-01 -2.888234e-01 -3.428188e-01 -2.507060e-01 5.403143e-02 5.309058e-01 7.427488e-01 8.488186e-01 7.776420e-01 4.203126e-01 1.380489e-02 -7.297792e-02 -2.834832e-04
<VARIANCE> 25
 1.728717e+01 7.091608e+00 1.017870e+01 1.095567e+01 1.177846e+01 1.912407e+01 1.350881e+01 1.824254e+01 1.736877e+01 1.565393e+01 2.281693e+01 1.383992e+01 1.141364e-01 1.585141e-01 2.497736e-01 3.979185e-01 5.477028e-01 7.144708e-01 7.318999e-01 8.164303e-01 9.656851e-01 8.814504e-01 9.922111e-01 9.317936e-01 1.983149e-05
<GCONST> 5.891279e+01
<MIXTURE> 125 4.069876e-03
<MEAN> 25
 -5.203586e+00 -7.107750e-01 -3.152673e+00 4.969481e+00 5.499746e+00 3.031476e+00 5.504466e+00 2.336133e+00 3.934741e+00 1.946083e+00 -5.274123e-02 2.613414e+00 -1.797796e-01 -2.888234e-01 -3.428188e-01 -2.507060e-01 5.403143e-02 5.309058e-01 7.427488e-01 8.488186e-01 7.776420e-01 4.203126e-01 1.380489e-02 -7.297792e-02 -2.834832e-04
<VARIANCE> 25
 1.728717e+01 7.091608e+00 1.017870e+01 1.095567e+01 1.177846e+01 1.912407e+01 1.350881e+01 1.824254e+01 1.736877e+01 1.565393e+01 2.281693e+01 1.383992e+01 1.141364e-01 1.585141e-01 2.497736e-01 3.979185e-01 5.477028e-01 7.144708e-01 7.318999e-01 8.164303e-01 9.656851e-01 8.814504e-01 9.922111e-01 9.317936e-01 1.983149e-05
<GCONST> 5.891279e+01
<MIXTURE> 126 2.402244e-03
<MEAN> 25
 -3.752471e+00 -6.875368e+00 -5.274089e+00 2.330462e+00 4.308134e+00 -3.222970e+00 1.144291e-01 3.555837e+00 3.388783e+00 -2.641625e+00 -1.473526e+00 3.033467e+00 -3.669878e-03 -5.644774e-03 -3.591491e-02 -1.590986e-01 -3.189113e-01 -3.875583e-01 -2.730090e-01 -1.490858e-01 -1.052904e-01 -1.109798e-01 -1.025993e-01 -3.326817e-02 -1.481327e-03
<VARIANCE> 25
 7.556079e+00 1.305135e+01 1.377225e+01 1.519177e+01 2.464485e+01 2.357651e+01 2.286447e+01 2.827335e+01 3.144047e+01 2.643034e+01 2.191242e+01 1.923304e+01 1.714693e-01 3.503338e-01 4.820354e-01 5.654092e-01 7.505624e-01 9.953585e-01 1.117514e+00 1.269696e+00 1.339504e+00 1.307254e+00 1.217311e+00 1.143408e+00 2.095212e-04
<GCONST> 6.985052e+01
<MIXTURE> 127 2.402244e-03
<MEAN> 25
 -3.752471e+00 -6.875368e+00 -5.274089e+00 2.330462e+00 4.308134e+00 -3.222970e+00 1.144291e-01 3.555837e+00 3.388783e+00 -2.641625e+00 -1.473526e+00 3.033467e+00 -3.669878e-03 -5.644774e-03 -3.591491e-02 -1.590986e-01 -3.189113e-01 -3.875583e-01 -2.730090e-01 -1.490858e-01 -1.052904e-01 -1.109798e-01 -1.025993e-01 -3.326817e-02 -1.481327e-03
<VARIANCE> 25
 7.556079e+00 1.305135e+01 1.377225e+01 1.519177e+01 2.464485e+01 2.357651e+01 2.286447e+01 2.827335e+01 3.144047e+01 2.643034e+01 2.191242e+01 1.923304e+01 1.714693e-01 3.503338e-01 4.820354e-01 5.654092e-01 7.505624e-01 9.953585e-01 1.117514e+00 1.269696e+00 1.339504e+00 1.307254e+00 1.217311e+00 1.143408e+00 2.095212e-04
<GCONST> 6.985052e+01
<MIXTURE> 128 3.790457e-03
<MEAN> 25
 -3.787673e+00 1.562021e+00 -4.092582e-01 6.543626e+00 3.778074e+00 1.787081e+00 3.588645e+00 2.329391e+00 4.063126e+00 3.793320e+00 3.627653e+00 3.384851e+00 -3.745746e-01 -1.819657e-01 8.127089e-02 7.092806e-01 1.192756e+00 1.078339e+00 6.699636e-01 1.180389e-01 -4.350997e-01 -8.021208e-01 -7.152329e-01 -4.193500e-01 -1.281685e-05
<VARIANCE> 25
 1.065622e+01 1.139141e+01 1.480424e+01 1.883566e+01 2.031577e+01 2.097783e+01 2.375829e+01 2.452252e+01 2.604259e+01 2.367889e+01 2.679907e+01 1.857487e+01 8.834011e-01 1.123505e+00 1.352976e+00 1.480578e+00 1.546852e+00 1.940147e+00 2.290107e+00 2.289058e+00 2.092931e+00 1.829649e+00 1.754671e+00 1.741416e+00 1.014264e-06
<GCONST> 7.353473e+01
<TRANSP> 3
 0.000000e+00 1.000000e+00 0.000000e+00
 0.000000e+00 9.999990e-01 9.999998e-07
 0.000000e+00 0.000000e+00 0.000000e+00
<ENDHMM>
