~o
<STREAMINFO> 1 25
<VECSIZE> 25<NULLD><MFCC_E_D_N><DIAGC>
~h "jmodel"
<BEGINHMM>
<NUMSTATES> 3
<STATE> 2
<NUMMIXES> 128
<MIXTURE> 1 5.748963e-03
<MEAN> 25
 -2.592316e+00 3.183898e+00 2.288644e+00 8.739565e+00 4.336439e+00 3.401117e+00 4.087405e+00 3.903282e+00 5.829488e+00 5.261347e+00 5.853811e+00 3.076729e+00 -1.999276e+00 -1.624362e+00 -8.622500e-01 1.079870e+00 1.552146e+00 2.232624e+00 2.156059e+00 2.073073e+00 1.691210e+00 1.258708e+00 1.562752e+00 6.127131e-01 -4.690278e-02
<VARIANCE> 25
 1.006448e+01 1.179976e+01 1.513105e+01 1.863148e+01 2.353566e+01 2.256561e+01 2.197179e+01 2.206833e+01 2.097296e+01 2.245126e+01 2.103644e+01 1.705576e+01 1.795684e+00 2.121720e+00 3.012127e+00 3.200149e+00 3.743697e+00 3.347200e+00 3.312270e+00 3.401535e+00 3.510430e+00 3.731295e+00 3.503997e+00 2.822726e+00 3.109027e-03
<GCONST> 8.850597e+01
<MIXTURE> 2 4.549242e-03
<MEAN> 25
 -4.875573e+00 1.311745e+00 9.942502e-01 9.899774e+00 6.692253e+00 7.424609e+00 7.847095e+00 6.958012e+00 8.373209e+00 6.372986e+00 7.624276e+00 3.074621e+00 -6.199481e-02 4.161359e-02 1.425391e-01 2.258707e-01 2.652942e-01 2.813596e-01 2.954158e-01 3.195485e-01 3.497735e-01 3.089103e-01 1.971936e-01 8.007684e-02 1.242766e-06
<VARIANCE> 25
 6.952986e+00 8.901834e+00 1.065196e+01 1.591086e+01 1.723564e+01 1.556303e+01 1.689878e+01 1.848590e+01 1.658677e+01 1.738606e+01 1.811135e+01 1.434032e+01 1.252534e-01 2.266276e-01 3.364737e-01 4.671338e-01 6.492715e-01 8.148800e-01 9.298843e-01 1.003167e+00 1.051670e+00 1.077763e+00 1.075668e+00 1.013932e+00 1.000005e-06
<GCONST> 5.804327e+01
<MIXTURE> 3 4.549242e-03
<MEAN> 25
 -4.875573e+00 1.311745e+00 9.942502e-01 9.899774e+00 6.692253e+00 7.424609e+00 7.847095e+00 6.958012e+00 8.373209e+00 6.372986e+00 7.624276e+00 3.074621e+00 -6.199481e-02 4.161359e-02 1.425391e-01 2.258707e-01 2.652942e-01 2.813596e-01 2.954158e-01 3.195485e-01 3.497735e-01 3.089103e-01 1.971936e-01 8.007684e-02 1.242766e-06
<VARIANCE> 25
 6.952986e+00 8.901834e+00 1.065196e+01 1.591086e+01 1.723564e+01 1.556303e+01 1.689878e+01 1.848590e+01 1.658677e+01 1.738606e+01 1.811135e+01 1.434032e+01 1.252534e-01 2.266276e-01 3.364737e-01 4.671338e-01 6.492715e-01 8.148800e-01 9.298843e-01 1.003167e+00 1.051670e+00 1.077763e+00 1.075668e+00 1.013932e+00 1.000005e-06
<GCONST> 5.804327e+01
<MIXTURE> 4 1.671429e-02
<MEAN> 25
 2.843869e+00 2.777281e+00 -4.791831e+00 1.626677e+00 4.911841e+00 -1.807616e+00 -5.603045e-01 -1.087513e+00 1.787353e+00 1.197067e+00 -2.376204e+00 6.685144e-01 -2.687333e+00 1.013955e+00 1.161889e+00 2.544313e+00 7.553338e-01 -8.872316e-02 1.857930e+00 8.993591e-01 1.243505e+00 1.110845e-01 6.963287e-01 1.284551e+00 -7.417909e-02
<VARIANCE> 25
 1.994677e+01 2.368158e+01 2.473640e+01 3.131373e+01 3.593509e+01 8.208324e+01 6.298662e+01 4.508689e+01 4.320994e+01 4.769172e+01 3.950032e+01 2.896475e+01 2.015966e+00 4.182332e+00 3.864423e+00 4.521890e+00 4.210952e+00 6.705791e+00 6.947794e+00 4.964307e+00 6.105246e+00 5.490202e+00 5.447178e+00 3.836852e+00 6.851548e-03
<GCONST> 1.028139e+02
<MIXTURE> 5 3.206198e-03
<MEAN> 25
 -3.406469e+00 2.181931e+00 5.981134e-01 9.424304e+00 6.693717e+00 6.313217e+00 7.114629e+00 4.715943e+00 5.493427e+00 3.846923e+00 4.647305e+00 2.597719e+00 -3.243436e-01 7.508070e-01 1.223926e+00 1.032914e+00 3.085963e-01 -1.009411e-01 -8.460444e-02 3.375107e-02 4.592430e-01 6.815399e-01 4.049057e-01 9.015860e-02 -2.626309e-05
<VARIANCE> 25
 1.030810e+01 1.392497e+01 2.354795e+01 2.559194e+01 2.019793e+01 1.940150e+01 2.008529e+01 2.036643e+01 2.139097e+01 2.125397e+01 2.414258e+01 1.638538e+01 1.211410e+00 1.245452e+00 1.355953e+00 1.670964e+00 2.282404e+00 2.374172e+00 2.298884e+00 2.272798e+00 2.314126e+00 2.240205e+00 2.084806e+00 1.875284e+00 1.000315e-06
<GCONST> 7.516586e+01
<MIXTURE> 6 5.475854e-03
<MEAN> 25
 9.222951e+00 -6.732418e-01 -6.544265e+00 -1.114610e+01 -2.296340e+00 6.874693e+00 -5.939058e+00 -3.999282e+00 -3.089364e+00 2.103247e+00 4.480457e+00 -7.796300e-01 4.781469e-01 1.011994e+00 -2.556722e-01 -1.594191e+00 -4.691454e-01 1.620953e+00 1.552012e+00 2.190519e-01 -1.177119e+00 -1.409159e+00 5.853050e-01 1.122881e+00 -1.073425e-02
<VARIANCE> 25
 8.238123e+00 1.475114e+01 2.012854e+01 3.202840e+01 3.122896e+01 2.926031e+01 3.622684e+01 3.766342e+01 3.465947e+01 3.501635e+01 3.457836e+01 2.652020e+01 3.013237e-01 7.704557e-01 9.088436e-01 1.843478e+00 1.455500e+00 2.074838e+00 1.728265e+00 1.952894e+00 1.965358e+00 2.161043e+00 2.126426e+00 1.564958e+00 5.034499e-04
<GCONST> 8.160631e+01
<MIXTURE> 7 5.475854e-03
<MEAN> 25
 9.222951e+00 -6.732418e-01 -6.544265e+00 -1.114610e+01 -2.296340e+00 6.874693e+00 -5.939058e+00 -3.999282e+00 -3.089364e+00 2.103247e+00 4.480457e+00 -7.796300e-01 4.781469e-01 1.011994e+00 -2.556722e-01 -1.594191e+00 -4.691454e-01 1.620953e+00 1.552012e+00 2.190519e-01 -1.177119e+00 -1.409159e+00 5.853050e-01 1.122881e+00 -1.073425e-02
<VARIANCE> 25
 8.238123e+00 1.475114e+01 2.012854e+01 3.202840e+01 3.122896e+01 2.926031e+01 3.622684e+01 3.766342e+01 3.465947e+01 3.501635e+01 3.457836e+01 2.652020e+01 3.013237e-01 7.704557e-01 9.088436e-01 1.843478e+00 1.455500e+00 2.074838e+00 1.728265e+00 1.952894e+00 1.965358e+00 2.161043e+00 2.126426e+00 1.564958e+00 5.034499e-04
<GCONST> 8.160631e+01
<MIXTURE> 8 1.165917e-02
<MEAN> 25
 -4.721103e+00 1.362079e+00 1.284846e+00 9.543859e+00 6.554151e+00 6.250325e+00 6.490487e+00 5.664370e+00 6.654368e+00 5.626873e+00 6.562304e+00 3.147649e+00 -6.274360e-01 -1.425073e+00 -1.062311e+00 -1.727729e+00 -2.325752e-01 -9.427318e-01 -1.830833e-01 -2.889516e-01 -2.515687e-01 -1.752891e-01 -2.103469e-01 8.356672e-02 9.869580e-02
<VARIANCE> 25
 9.380488e+00 9.853972e+00 1.166623e+01 1.611068e+01 1.679818e+01 1.568174e+01 1.812474e+01 1.767827e+01 1.702819e+01 1.736103e+01 1.887614e+01 1.399130e+01 2.754783e+00 2.809301e+00 3.943574e+00 3.756848e+00 3.458622e+00 3.319556e+00 3.138593e+00 3.075342e+00 2.872311e+00 2.653997e+00 2.435379e+00 1.908076e+00 6.689081e-03
<GCONST> 8.632835e+01
<MIXTURE> 9 1.199672e-02
<MEAN> 25
 9.295300e+00 3.391141e+00 -6.205586e+00 -1.066664e+01 -2.207571e+00 4.965044e+00 -2.217887e+00 -2.300985e+00 -5.393898e+00 -1.255738e+00 5.707193e-01 -1.415013e-02 1.439771e+00 -1.284226e-01 -4.899205e-01 -2.703450e+00 -1.644811e+00 8.541521e-01 -9.738652e-01 -2.309616e-01 -1.815701e-01 -5.766458e-01 6.151178e-01 -1.526503e-01 7.332284e-02
<VARIANCE> 25
 1.225900e+01 2.140709e+01 3.355312e+01 5.357660e+01 5.018730e+01 3.231746e+01 4.330912e+01 5.214595e+01 4.205938e+01 4.157010e+01 3.609740e+01 2.693014e+01 2.089865e+00 2.450154e+00 4.574056e+00 4.874083e+00 5.010181e+00 4.098094e+00 4.245825e+00 6.041901e+00 5.036923e+00 4.079219e+00 4.012674e+00 2.804271e+00 2.214108e-03
<GCONST> 9.880549e+01
<MIXTURE> 10 6.596976e-03
<MEAN> 25
 8.169492e-01 7.625279e+00 5.360374e+00 7.138348e+00 1.580951e+00 -2.120439e+00 -5.095865e-01 -1.687854e+00 8.755842e-01 8.604770e-01 8.360729e-01 6.557040e-01 -1.920699e+00 -6.717054e-01 -4.602481e-01 3.026037e+00 2.458717e+00 2.708058e+00 2.373577e+00 2.270973e+00 1.860907e+00 1.539813e+00 2.329702e+00 5.247515e-01 -1.379459e-01
<VARIANCE> 25
 1.953846e+01 2.070102e+01 2.240607e+01 2.906095e+01 3.831866e+01 3.493318e+01 3.521481e+01 3.377395e+01 2.758149e+01 2.909181e+01 2.692053e+01 2.498612e+01 2.241315e+00 3.422717e+00 5.525018e+00 5.161900e+00 5.550236e+00 4.465694e+00 4.693465e+00 4.855757e+00 4.381492e+00 5.022216e+00 4.449883e+00 3.184687e+00 2.707771e-03
<GCONST> 9.746312e+01
<MIXTURE> 11 1.633820e-02
<MEAN> 25
 6.540567e+00 3.855531e+00 2.319677e+00 4.222013e+00 -1.191434e+00 -1.386936e+00 -2.773658e+00 -5.638815e+00 -3.560317e+00 -1.303392e+00 -2.425963e+00 -2.608969e+00 -2.436173e-01 4.385911e-01 -2.127210e-01 5.127287e-01 3.657337e-01 -2.509163e-01 6.370830e-01 -2.206455e-01 1.092176e-01 -9.157622e-02 -4.472005e-01 3.689756e-01 -1.996052e-02
<VARIANCE> 25
 1.123209e+01 2.042283e+01 2.073908e+01 2.372509e+01 3.527235e+01 3.873786e+01 5.066845e+01 3.645773e+01 3.474306e+01 3.479708e+01 2.758137e+01 2.130699e+01 9.207305e-01 1.394445e+00 1.556810e+00 1.951549e+00 1.936201e+00 2.331887e+00 2.572698e+00 2.783709e+00 1.984465e+00 1.710825e+00 1.585627e+00 1.353239e+00 1.153523e-03
<GCONST> 8.585416e+01
<MIXTURE> 12 5.904134e-03
<MEAN> 25
 1.055252e+01 3.448008e+00 -4.369977e+00 -1.585493e+01 -8.198997e+00 9.006033e+00 -1.164231e+00 -1.391541e+00 -1.681467e+00 -4.586070e+00 2.055496e+00 8.197706e-01 5.027591e-02 3.394068e-01 1.854377e-01 -3.807547e-01 -1.698775e-01 2.696915e-02 3.431707e-01 4.833236e-01 4.941915e-02 -4.428697e-01 -3.261492e-01 -6.961036e-03 -6.709618e-03
<VARIANCE> 25
 8.740278e+00 2.088376e+01 2.190855e+01 3.275033e+01 4.184086e+01 3.014899e+01 3.996804e+01 4.858120e+01 4.178554e+01 3.591739e+01 3.646314e+01 2.726502e+01 2.389450e-01 6.629263e-01 7.644517e-01 1.100727e+00 1.361126e+00 1.101037e+00 1.147318e+00 1.308375e+00 1.263116e+00 1.388599e+00 1.189651e+00 9.353482e-01 5.427436e-04
<GCONST> 7.860201e+01
<MIXTURE> 13 5.904134e-03
<MEAN> 25
 1.055252e+01 3.448008e+00 -4.369977e+00 -1.585493e+01 -8.198997e+00 9.006033e+00 -1.164231e+00 -1.391541e+00 -1.681467e+00 -4.586070e+00 2.055496e+00 8.197706e-01 5.027591e-02 3.394068e-01 1.854377e-01 -3.807547e-01 -1.698775e-01 2.696915e-02 3.431707e-01 4.833236e-01 4.941915e-02 -4.428697e-01 -3.261492e-01 -6.961036e-03 -6.709618e-03
<VARIANCE> 25
 8.740278e+00 2.088376e+01 2.190855e+01 3.275033e+01 4.184086e+01 3.014899e+01 3.996804e+01 4.858120e+01 4.178554e+01 3.591739e+01 3.646314e+01 2.726502e+01 2.389450e-01 6.629263e-01 7.644517e-01 1.100727e+00 1.361126e+00 1.101037e+00 1.147318e+00 1.308375e+00 1.263116e+00 1.388599e+00 1.189651e+00 9.353482e-01 5.427436e-04
<GCONST> 7.860201e+01
<MIXTURE> 14 6.488954e-03
<MEAN> 25
 -4.286233e+00 -3.781388e-01 -3.371457e-01 8.887291e+00 7.440017e+00 7.343115e+00 7.858213e+00 7.258741e+00 7.257524e+00 5.227360e+00 6.838422e+00 4.101476e+00 -2.681640e-01 1.897722e-01 3.606521e-01 3.002893e-01 1.340399e-02 7.484421e-02 7.906483e-02 1.739660e-01 3.046705e-01 5.233662e-01 5.035362e-01 6.947362e-02 -9.439812e-03
<VARIANCE> 25
 9.487664e+00 1.380180e+01 1.880885e+01 1.775673e+01 2.158383e+01 1.960926e+01 2.137771e+01 2.097338e+01 1.995252e+01 2.373432e+01 2.131151e+01 1.588761e+01 9.619939e-01 1.637038e+00 1.785319e+00 1.930582e+00 2.231701e+00 2.267553e+00 2.286607e+00 2.232207e+00 2.294952e+00 2.521054e+00 2.185065e+00 1.801814e+00 1.039039e-03
<GCONST> 8.197088e+01
<MIXTURE> 15 2.475190e-03
<MEAN> 25
 -5.416399e+00 -6.415730e-01 -2.170907e-01 7.365821e+00 5.717931e+00 5.689226e+00 6.070201e+00 4.969825e+00 5.163695e+00 4.152044e+00 5.493700e+00 2.542610e+00 -1.215918e-01 -2.921489e-02 7.452993e-02 2.447512e-01 4.902281e-01 7.855300e-01 1.070802e+00 1.182428e+00 1.059279e+00 7.545358e-01 4.175941e-01 1.528345e-01 -1.035837e-04
<VARIANCE> 25
 7.080146e+00 5.622207e+00 9.131877e+00 1.280422e+01 1.410675e+01 1.435555e+01 1.492990e+01 1.490926e+01 1.408832e+01 1.415498e+01 1.510196e+01 1.248481e+01 1.246016e-01 2.057639e-01 3.193006e-01 5.024902e-01 6.983146e-01 7.980635e-01 7.630494e-01 7.906430e-01 9.134058e-01 1.025745e+00 1.070977e+00 1.041364e+00 2.811434e-05
<GCONST> 5.862463e+01
<MIXTURE> 16 2.475190e-03
<MEAN> 25
 -5.416399e+00 -6.415730e-01 -2.170907e-01 7.365821e+00 5.717931e+00 5.689226e+00 6.070201e+00 4.969825e+00 5.163695e+00 4.152044e+00 5.493700e+00 2.542610e+00 -1.215918e-01 -2.921489e-02 7.452993e-02 2.447512e-01 4.902281e-01 7.855300e-01 1.070802e+00 1.182428e+00 1.059279e+00 7.545358e-01 4.175941e-01 1.528345e-01 -1.035837e-04
<VARIANCE> 25
 7.080146e+00 5.622207e+00 9.131877e+00 1.280422e+01 1.410675e+01 1.435555e+01 1.492990e+01 1.490926e+01 1.408832e+01 1.415498e+01 1.510196e+01 1.248481e+01 1.246016e-01 2.057639e-01 3.193006e-01 5.024902e-01 6.983146e-01 7.980635e-01 7.630494e-01 7.906430e-01 9.134058e-01 1.025745e+00 1.070977e+00 1.041364e+00 2.811434e-05
<GCONST> 5.862463e+01
<MIXTURE> 17 9.518312e-03
<MEAN> 25
 1.758829e+00 -2.407320e+00 5.738103e+00 1.338226e+00 -4.646726e+00 -3.576732e+00 -2.053380e+00 2.386094e-01 -2.440963e+00 -3.291943e+00 4.933630e-01 -1.139544e-01 -5.058531e-01 -1.702752e+00 2.119696e+00 -1.715701e+00 -2.300075e+00 -2.917454e-01 -7.349125e-01 9.543962e-01 -8.570079e-01 9.285740e-02 1.218715e+00 3.210703e-01 9.193395e-02
<VARIANCE> 25
 1.592475e+01 2.776539e+01 3.106893e+01 2.763034e+01 4.586328e+01 5.351904e+01 5.873464e+01 3.346185e+01 2.958896e+01 2.020377e+01 2.504538e+01 3.187963e+01 1.765250e+00 2.690144e+00 3.863903e+00 2.734568e+00 3.823118e+00 5.050393e+00 6.598522e+00 4.292732e+00 3.270529e+00 3.087377e+00 2.387269e+00 3.267550e+00 1.887931e-03
<GCONST> 9.557281e+01
<MIXTURE> 18 1.221018e-02
<MEAN> 25
 3.810860e+00 4.525755e+00 6.487547e+00 4.520189e+00 -4.240437e+00 -7.895097e+00 -1.768058e+00 -1.173498e+00 -3.292392e+00 -2.411535e+00 -8.461773e-01 4.075303e-01 -6.780931e-01 2.091954e+00 -3.286142e-01 1.936337e+00 2.983605e+00 1.471184e+00 9.600075e-01 -3.586792e-01 5.998390e-01 3.999692e-01 -3.409840e-01 -3.004517e-02 -1.206208e-01
<VARIANCE> 25
 1.575005e+01 2.487893e+01 3.201253e+01 2.534279e+01 3.991600e+01 3.512231e+01 3.936445e+01 3.344020e+01 3.710859e+01 3.481324e+01 3.056168e+01 3.023105e+01 2.498848e+00 2.981902e+00 4.637459e+00 4.075069e+00 4.052063e+00 4.447862e+00 4.786713e+00 4.486820e+00 4.290860e+00 4.235801e+00 4.310454e+00 3.412753e+00 3.994376e-03
<GCONST> 9.800894e+01
<MIXTURE> 19 9.912824e-03
<MEAN> 25
 -1.021474e+01 2.360009e+00 -4.623928e-01 1.589030e+00 4.351697e+00 8.986710e-01 3.940317e+00 1.591339e+00 2.103385e+00 8.088872e-01 3.967087e-01 2.330313e+00 2.079410e+00 1.580925e+00 2.179507e+00 7.179498e-01 -1.072900e+00 -1.128318e+00 -1.156095e+00 -1.352611e+00 -1.473565e+00 -1.111419e+00 -7.849045e-01 -8.105800e-01 2.566212e-03
<VARIANCE> 25
 4.964516e+01 3.132092e+01 5.188578e+01 5.258483e+01 3.284357e+01 3.717804e+01 3.305994e+01 3.150026e+01 2.645482e+01 2.674150e+01 3.392480e+01 1.957578e+01 2.299060e+00 2.487537e+00 2.257557e+00 2.180381e+00 2.752270e+00 2.253738e+00 2.628357e+00 2.275478e+00 1.963269e+00 2.037182e+00 2.251023e+00 1.906123e+00 2.242399e-03
<GCONST> 9.201705e+01
<MIXTURE> 20 6.308331e-03
<MEAN> 25
 -1.358625e+01 7.446911e+00 -5.475424e-02 6.167690e+00 4.914122e+00 9.575202e-01 5.708341e+00 8.273947e-01 7.114813e-01 4.054084e-01 1.922100e+00 -1.005933e-02 -3.135401e+00 -6.351513e-01 -1.488269e+00 3.870159e-01 1.404665e+00 2.119080e+00 1.727582e+00 2.158606e+00 2.116446e+00 1.964033e+00 1.716219e+00 7.920659e-01 4.433003e-02
<VARIANCE> 25
 2.082578e+01 2.233864e+01 3.560563e+01 3.351377e+01 2.786977e+01 3.044236e+01 2.980831e+01 2.877975e+01 2.710929e+01 2.707237e+01 2.713053e+01 1.975304e+01 2.143285e+00 2.419222e+00 1.786911e+00 2.324914e+00 2.595182e+00 2.301333e+00 2.831248e+00 2.205851e+00 2.064747e+00 2.474653e+00 2.044061e+00 1.896028e+00 1.838026e-03
<GCONST> 8.892976e+01
<MIXTURE> 21 7.928653e-03
<MEAN> 25
 3.985299e+00 -4.529514e+00 5.771980e+00 -1.508888e+00 -1.055819e+01 -8.665660e+00 -2.580697e+00 4.180529e+00 -2.117814e+00 -3.415676e+00 2.667259e-01 2.801278e-01 -7.115698e-01 1.335466e+00 2.587097e+00 -6.853034e-02 -1.527782e+00 3.602218e-01 5.707151e-01 -1.492069e+00 -1.951561e+00 3.234154e-01 1.320001e+00 2.350098e-01 -1.257894e-02
<VARIANCE> 25
 8.868880e+00 1.873292e+01 2.944976e+01 2.839543e+01 2.849621e+01 3.335303e+01 4.320625e+01 3.936191e+01 4.290836e+01 3.133155e+01 3.359405e+01 2.346648e+01 3.808857e-01 9.476364e-01 1.841333e+00 1.360724e+00 2.268676e+00 2.253537e+00 3.663835e+00 2.499282e+00 2.150627e+00 2.601396e+00 2.010551e+00 2.285679e+00 4.320573e-04
<GCONST> 8.520358e+01
<MIXTURE> 22 8.827789e-03
<MEAN> 25
 -1.740363e+01 7.110823e+00 -4.353505e+00 7.226054e+00 4.650897e+00 2.501603e+00 8.396482e+00 2.012070e+00 5.706369e+00 3.495554e+00 5.622662e+00 1.566389e+00 -2.925006e-01 -7.842834e-02 -2.521897e-01 -1.682331e-01 6.303830e-02 2.586156e-01 1.063783e-01 2.078824e-01 2.636185e-01 2.471870e-01 1.507671e-01 1.930472e-01 7.782551e-03
<VARIANCE> 25
 1.037562e+01 1.557477e+01 1.659733e+01 2.357823e+01 2.121878e+01 2.002433e+01 1.793904e+01 1.814244e+01 1.825300e+01 1.985019e+01 1.854603e+01 1.428585e+01 1.011137e+00 1.446715e+00 1.452606e+00 1.456959e+00 1.361424e+00 1.622362e+00 1.465763e+00 1.437552e+00 1.501119e+00 1.467009e+00 1.302813e+00 1.084085e+00 1.627536e-03
<GCONST> 7.769256e+01
<MIXTURE> 23 6.455497e-03
<MEAN> 25
 7.677697e+00 2.325644e+00 2.888080e+00 2.320722e+00 -4.552628e+00 -2.734247e+00 -3.995951e+00 -6.320704e+00 -2.955739e+00 -1.121217e+00 -3.964723e+00 -2.118303e+00 3.925565e-02 1.881591e-01 -6.039253e-02 8.306926e-02 2.351638e-02 1.264238e-02 4.990450e-02 -3.587396e-02 -9.161130e-03 3.626033e-02 -3.261892e-02 4.944221e-02 -4.963667e-03
<VARIANCE> 25
 1.111470e+01 2.209482e+01 2.432985e+01 3.890356e+01 3.800121e+01 5.390812e+01 5.931092e+01 5.255210e+01 5.031664e+01 4.634302e+01 4.647529e+01 3.876541e+01 1.161486e-01 2.847993e-01 4.516859e-01 4.822036e-01 5.824471e-01 7.187939e-01 7.752862e-01 8.439828e-01 8.849911e-01 8.406215e-01 8.306124e-01 7.258920e-01 9.204089e-05
<GCONST> 7.290082e+01
<MIXTURE> 24 6.455497e-03
<MEAN> 25
 7.677697e+00 2.325644e+00 2.888080e+00 2.320722e+00 -4.552628e+00 -2.734247e+00 -3.995951e+00 -6.320704e+00 -2.955739e+00 -1.121217e+00 -3.964723e+00 -2.118303e+00 3.925565e-02 1.881591e-01 -6.039253e-02 8.306926e-02 2.351638e-02 1.264238e-02 4.990450e-02 -3.587396e-02 -9.161130e-03 3.626033e-02 -3.261892e-02 4.944221e-02 -4.963667e-03
<VARIANCE> 25
 1.111470e+01 2.209482e+01 2.432985e+01 3.890356e+01 3.800121e+01 5.390812e+01 5.931092e+01 5.255210e+01 5.031664e+01 4.634302e+01 4.647529e+01 3.876541e+01 1.161486e-01 2.847993e-01 4.516859e-01 4.822036e-01 5.824471e-01 7.187939e-01 7.752862e-01 8.439828e-01 8.849911e-01 8.406215e-01 8.306124e-01 7.258920e-01 9.204089e-05
<GCONST> 7.290082e+01
<MIXTURE> 25 1.118642e-02
<MEAN> 25
 -5.248755e-01 2.828420e+00 1.699159e+01 -2.378232e+00 -9.422395e+00 2.027080e-01 -5.411899e+00 -3.344033e+00 -6.159670e+00 -4.156559e+00 4.059831e+00 -2.037995e+00 -2.174890e-01 4.770820e-01 1.319503e-01 1.587868e-02 -3.440944e-03 -9.912070e-02 2.311268e-01 3.280605e-02 -3.453076e-01 4.051863e-02 3.674062e-03 6.259324e-02 -1.217116e-02
<VARIANCE> 25
 1.082039e+01 2.166965e+01 2.065116e+01 3.147569e+01 4.182055e+01 5.287387e+01 2.427178e+01 3.067715e+01 2.775119e+01 3.770779e+01 1.780774e+01 2.484826e+01 6.173099e-01 1.353445e+00 1.630055e+00 1.368511e+00 2.381621e+00 2.087373e+00 1.507014e+00 2.242305e+00 1.361460e+00 1.512035e+00 1.265285e+00 1.223804e+00 1.300537e-03
<GCONST> 8.319918e+01
<MIXTURE> 26 7.727677e-03
<MEAN> 25
 2.266327e+00 -5.714253e+00 -9.994629e+00 -4.315579e-01 7.694506e+00 5.426735e+00 4.178055e+00 -5.777583e-01 2.090941e+00 -1.119913e+00 -2.813561e+00 -1.122790e+00 -7.562047e-01 5.659878e-01 2.872112e-01 7.143706e-01 2.004916e-01 1.920515e-01 3.971831e-01 2.744303e-01 3.621215e-01 9.446783e-02 3.216913e-01 4.784490e-01 -4.834497e-02
<VARIANCE> 25
 2.370799e+01 3.619400e+01 2.534782e+01 5.771609e+01 3.666297e+01 3.962029e+01 4.375629e+01 4.137607e+01 3.793403e+01 5.156478e+01 3.691936e+01 4.319543e+01 1.712730e+00 1.896407e+00 1.937917e+00 2.020838e+00 2.208860e+00 2.384471e+00 2.527187e+00 2.684586e+00 2.277331e+00 2.592037e+00 2.176256e+00 2.025737e+00 3.468345e-03
<GCONST> 9.343964e+01
<MIXTURE> 27 7.727677e-03
<MEAN> 25
 2.266327e+00 -5.714253e+00 -9.994629e+00 -4.315579e-01 7.694506e+00 5.426735e+00 4.178055e+00 -5.777583e-01 2.090941e+00 -1.119913e+00 -2.813561e+00 -1.122790e+00 -7.562047e-01 5.659878e-01 2.872112e-01 7.143706e-01 2.004916e-01 1.920515e-01 3.971831e-01 2.744303e-01 3.621215e-01 9.446783e-02 3.216913e-01 4.784490e-01 -4.834497e-02
<VARIANCE> 25
 2.370799e+01 3.619400e+01 2.534782e+01 5.771609e+01 3.666297e+01 3.962029e+01 4.375629e+01 4.137607e+01 3.793403e+01 5.156478e+01 3.691936e+01 4.319543e+01 1.712730e+00 1.896407e+00 1.937917e+00 2.020838e+00 2.208860e+00 2.384471e+00 2.527187e+00 2.684586e+00 2.277331e+00 2.592037e+00 2.176256e+00 2.025737e+00 3.468345e-03
<GCONST> 9.343964e+01
<MIXTURE> 28 5.036674e-03
<MEAN> 25
 -5.199378e+00 1.083513e-01 -1.736765e+00 6.627811e+00 5.220110e+00 3.533314e+00 5.508196e+00 3.052943e+00 3.910349e+00 2.432810e+00 2.483946e+00 3.033844e+00 -9.563896e-02 2.044255e-01 5.384092e-01 7.979557e-01 8.157886e-01 6.767426e-01 4.822957e-01 3.744769e-01 4.809048e-01 4.639396e-01 4.061909e-01 2.135193e-01 2.162448e-05
<VARIANCE> 25
 1.214979e+01 8.405707e+00 1.269362e+01 1.441226e+01 1.429147e+01 1.721550e+01 1.777725e+01 1.864776e+01 1.668158e+01 1.628366e+01 2.075770e+01 1.567042e+01 2.612198e-01 3.379113e-01 3.991212e-01 4.559439e-01 6.045665e-01 8.439562e-01 1.079746e+00 1.121407e+00 1.111541e+00 1.010608e+00 1.046159e+00 1.053578e+00 1.012593e-06
<GCONST> 6.027842e+01
<MIXTURE> 29 5.036674e-03
<MEAN> 25
 -5.199378e+00 1.083513e-01 -1.736765e+00 6.627811e+00 5.220110e+00 3.533314e+00 5.508196e+00 3.052943e+00 3.910349e+00 2.432810e+00 2.483946e+00 3.033844e+00 -9.563896e-02 2.044255e-01 5.384092e-01 7.979557e-01 8.157886e-01 6.767426e-01 4.822957e-01 3.744769e-01 4.809048e-01 4.639396e-01 4.061909e-01 2.135193e-01 2.162448e-05
<VARIANCE> 25
 1.214979e+01 8.405707e+00 1.269362e+01 1.441226e+01 1.429147e+01 1.721550e+01 1.777725e+01 1.864776e+01 1.668158e+01 1.628366e+01 2.075770e+01 1.567042e+01 2.612198e-01 3.379113e-01 3.991212e-01 4.559439e-01 6.045665e-01 8.439562e-01 1.079746e+00 1.121407e+00 1.111541e+00 1.010608e+00 1.046159e+00 1.053578e+00 1.012593e-06
<GCONST> 6.027842e+01
<MIXTURE> 30 8.917812e-03
<MEAN> 25
 -4.486257e+00 -1.909144e-01 6.372623e-01 9.082760e+00 7.765692e+00 7.493016e+00 7.589894e+00 6.857460e+00 6.537358e+00 4.897111e+00 6.995267e+00 3.499609e+00 -2.475732e-02 3.156472e-02 5.545052e-02 8.924448e-02 8.341450e-02 4.632874e-02 1.433022e-02 -2.128746e-03 1.587004e-02 5.090686e-02 5.867147e-02 3.319600e-02 -5.790833e-04
<VARIANCE> 25
 7.034747e+00 9.861401e+00 1.049052e+01 1.374057e+01 1.581883e+01 1.651952e+01 1.908635e+01 1.833715e+01 1.631400e+01 1.832677e+01 2.129816e+01 1.434011e+01 9.820574e-02 1.997940e-01 3.248463e-01 4.813699e-01 6.191475e-01 7.270243e-01 7.709051e-01 8.113655e-01 8.763831e-01 9.369975e-01 9.211787e-01 8.623137e-01 5.108292e-05
<GCONST> 6.063952e+01
<MIXTURE> 31 4.136493e-03
<MEAN> 25
 -3.120377e+00 -5.552772e+00 1.225930e-02 4.756337e+00 3.409293e+00 1.789315e+00 5.340073e+00 6.261017e+00 2.936169e+00 1.286297e+00 6.297853e+00 3.080531e+00 2.647011e-01 4.653111e-01 -2.603307e-01 2.797508e-01 1.602172e-01 4.187885e-01 1.767054e-01 -1.551031e-02 3.748490e-01 3.459952e-01 4.774242e-02 6.313828e-02 -1.849679e-02
<VARIANCE> 25
 7.620485e+00 1.513391e+01 1.720847e+01 1.768084e+01 2.620355e+01 2.318473e+01 2.304065e+01 2.768547e+01 2.589214e+01 2.728178e+01 2.074714e+01 1.813536e+01 1.913753e-01 4.826798e-01 6.368802e-01 7.892373e-01 9.642439e-01 1.076499e+00 1.200823e+00 1.383483e+00 1.325487e+00 1.303812e+00 1.284403e+00 1.178606e+00 2.538267e-04
<GCONST> 7.192855e+01
<MIXTURE> 32 4.136493e-03
<MEAN> 25
 -3.120377e+00 -5.552772e+00 1.225930e-02 4.756337e+00 3.409293e+00 1.789315e+00 5.340073e+00 6.261017e+00 2.936169e+00 1.286297e+00 6.297853e+00 3.080531e+00 2.647011e-01 4.653111e-01 -2.603307e-01 2.797508e-01 1.602172e-01 4.187885e-01 1.767054e-01 -1.551031e-02 3.748490e-01 3.459952e-01 4.774242e-02 6.313828e-02 -1.849679e-02
<VARIANCE> 25
 7.620485e+00 1.513391e+01 1.720847e+01 1.768084e+01 2.620355e+01 2.318473e+01 2.304065e+01 2.768547e+01 2.589214e+01 2.728178e+01 2.074714e+01 1.813536e+01 1.913753e-01 4.826798e-01 6.368802e-01 7.892373e-01 9.642439e-01 1.076499e+00 1.200823e+00 1.383483e+00 1.325487e+00 1.303812e+00 1.284403e+00 1.178606e+00 2.538267e-04
<GCONST> 7.192855e+01
<MIXTURE> 33 1.508826e-02
<MEAN> 25
 6.164233e+00 -4.856893e+00 -1.718484e+00 -1.674009e+00 -3.090978e+00 -6.246732e+00 -8.454870e+00 3.166311e+00 1.710107e+00 1.836993e-01 -4.000802e+00 -1.920980e+00 8.053882e-01 -9.421899e-01 -2.697511e+00 -1.911355e+00 1.391558e+00 1.733441e+00 -1.055581e+00 3.339770e-01 1.202333e+00 1.049010e+00 -4.329892e-01 -1.631124e+00 2.821659e-02
<VARIANCE> 25
 8.810871e+00 2.108129e+01 2.663785e+01 3.358720e+01 4.366317e+01 4.226870e+01 4.059354e+01 4.516719e+01 3.350924e+01 3.650220e+01 2.927135e+01 3.187410e+01 1.093625e+00 1.739585e+00 2.595237e+00 2.153356e+00 3.504395e+00 3.506031e+00 4.316982e+00 4.982614e+00 3.355403e+00 4.292928e+00 2.997041e+00 2.605000e+00 1.477399e-03
<GCONST> 9.309590e+01
<MIXTURE> 34 1.588179e-02
<MEAN> 25
 8.395901e+00 8.754095e-01 -2.625306e-01 5.824859e-01 -1.330118e+00 -9.770809e-01 -5.584867e+00 -4.205580e+00 -1.771115e+00 6.957098e-01 -1.978030e+00 -4.194299e+00 4.544980e-02 1.208995e+00 9.626400e-01 2.261507e+00 -2.324403e-01 -2.286178e-01 1.527121e+00 -1.564242e+00 -6.291404e-01 1.398404e-02 -7.982981e-01 3.359428e-01 -6.205976e-02
<VARIANCE> 25
 7.251322e+00 2.929332e+01 2.441090e+01 4.219783e+01 4.090372e+01 4.240174e+01 4.674081e+01 4.807073e+01 4.248064e+01 3.662476e+01 4.043736e+01 2.658655e+01 1.082475e+00 1.675568e+00 4.048899e+00 3.704926e+00 5.656528e+00 4.699878e+00 7.151461e+00 4.911523e+00 4.881267e+00 4.148081e+00 4.125822e+00 3.205165e+00 1.011263e-03
<GCONST> 9.658478e+01
<MIXTURE> 35 1.467755e-02
<MEAN> 25
 -1.950686e+00 -4.566266e+00 -9.183983e+00 5.515891e-01 9.312629e+00 1.760921e-02 1.082783e+00 2.643238e+00 1.345564e+00 3.526242e+00 -1.801744e-01 1.841370e+00 1.951423e-01 -1.118285e+00 -8.986263e-01 -1.279442e+00 3.646711e-01 -1.074310e+00 -1.156898e+00 8.841144e-02 -4.364232e-01 1.421847e-01 -4.135047e-01 -2.263079e-01 1.037304e-01
<VARIANCE> 25
 1.944647e+01 2.807771e+01 4.145435e+01 5.524357e+01 3.785429e+01 5.733962e+01 5.565363e+01 4.033479e+01 4.507286e+01 4.060756e+01 3.224673e+01 3.151533e+01 3.820810e+00 3.153488e+00 7.730501e+00 4.901556e+00 4.988393e+00 5.658917e+00 6.367785e+00 4.875379e+00 4.868125e+00 4.430822e+00 3.975561e+00 4.014416e+00 4.772959e-03
<GCONST> 1.032172e+02
<MIXTURE> 36 1.093293e-02
<MEAN> 25
 4.642085e+00 -3.641723e+00 7.127697e+00 2.350237e+00 -9.932732e+00 -8.267838e+00 -5.746747e+00 3.318207e+00 -1.847378e+00 -4.015516e+00 2.758319e+00 -1.615933e-01 3.778865e-01 2.409472e-01 -9.421848e-01 7.475025e-02 9.064460e-01 -1.520688e-02 -3.903443e-01 -2.270583e-02 4.450065e-01 5.598805e-01 -4.444203e-01 -2.826253e-01 -1.848862e-02
<VARIANCE> 25
 1.086094e+01 1.682126e+01 2.123650e+01 2.775470e+01 3.467107e+01 3.689322e+01 4.975498e+01 3.620346e+01 3.672683e+01 3.785191e+01 2.590351e+01 2.609713e+01 4.490717e-01 8.047975e-01 1.509869e+00 1.250672e+00 1.733080e+00 1.629601e+00 2.142892e+00 1.830064e+00 1.904767e+00 1.612781e+00 1.328712e+00 1.419710e+00 8.437778e-04
<GCONST> 8.263954e+01
<MIXTURE> 37 1.246826e-02
<MEAN> 25
 -2.574810e-02 6.740076e+00 1.079337e+01 -6.008735e+00 -5.834560e+00 -3.204506e-02 -4.654198e+00 -7.449627e+00 -4.184245e+00 -1.977840e+00 -2.297508e+00 -1.306739e+00 5.435768e-01 6.076766e-01 -1.924518e+00 3.241541e+00 1.667581e+00 -3.178079e-01 1.072738e+00 -1.056113e-01 7.869102e-01 -7.656007e-01 1.029847e-02 -2.239227e-01 -9.681847e-02
<VARIANCE> 25
 1.284570e+01 2.703460e+01 2.977306e+01 4.221078e+01 3.583727e+01 3.508599e+01 3.223207e+01 2.851080e+01 3.170750e+01 2.957672e+01 3.136252e+01 2.322578e+01 2.536384e+00 2.675823e+00 2.854614e+00 3.455383e+00 3.796640e+00 2.745887e+00 3.073848e+00 3.428875e+00 2.747092e+00 3.109405e+00 3.392760e+00 2.135952e+00 2.906038e-03
<GCONST> 9.351559e+01
<MIXTURE> 38 1.154525e-02
<MEAN> 25
 -4.100040e+00 8.413276e+00 3.593083e+00 3.348774e+00 1.240546e+00 -5.472911e+00 -5.245804e-01 -2.994256e+00 -2.289418e+00 -2.665906e+00 -1.582349e+00 -1.505453e-01 -4.353304e+00 1.221185e+00 -3.674790e-01 1.394620e+00 2.297482e+00 1.019657e+00 2.148788e+00 9.851562e-01 7.962303e-01 6.531891e-01 8.390687e-01 4.729901e-01 4.724527e-02
<VARIANCE> 25
 3.078880e+01 2.879580e+01 4.302454e+01 2.972799e+01 4.507056e+01 3.628648e+01 3.893575e+01 3.878132e+01 3.385001e+01 3.055790e+01 2.291336e+01 2.812712e+01 2.355727e+00 3.557006e+00 3.576127e+00 4.608147e+00 4.295119e+00 5.949720e+00 4.562857e+00 4.345939e+00 4.306337e+00 4.668043e+00 4.250029e+00 3.149908e+00 1.970834e-03
<GCONST> 9.853942e+01
<MIXTURE> 39 9.501865e-03
<MEAN> 25
 8.852401e-01 1.194455e+00 1.048350e+01 -8.229989e+00 -8.895975e+00 4.989666e-01 -2.957479e+00 -5.342270e+00 -4.568670e+00 4.048263e-01 -1.764490e+00 -2.667546e+00 -6.865481e-01 1.424353e+00 1.479510e+00 -1.542769e+00 3.705380e-01 1.239788e+00 -1.173723e+00 -1.334249e+00 1.675783e-01 6.259430e-01 -3.033875e-01 1.082919e-01 1.272353e-03
<VARIANCE> 25
 7.601646e+00 3.266456e+01 2.963203e+01 3.399334e+01 4.475810e+01 4.603159e+01 4.503001e+01 3.737383e+01 3.568367e+01 2.598187e+01 3.274298e+01 2.421156e+01 7.327670e-01 1.658437e+00 1.567392e+00 3.102387e+00 2.309423e+00 2.871287e+00 2.850582e+00 2.550660e+00 2.020166e+00 2.302159e+00 1.947267e+00 2.057538e+00 1.147028e-03
<GCONST> 8.874966e+01
<MIXTURE> 40 1.030800e-02
<MEAN> 25
 -8.613866e+00 2.407914e+00 -1.710354e+00 7.856506e+00 3.490011e+00 4.809982e+00 5.729538e+00 3.647475e+00 5.237755e+00 4.387713e+00 4.869464e+00 2.072335e+00 -9.609552e-02 -1.310638e-01 -1.972724e-01 -2.673308e-01 5.045391e-02 2.183354e-03 1.263067e-02 1.554056e-02 4.441616e-02 -4.105870e-02 -1.516808e-01 -3.241018e-03 2.436139e-03
<VARIANCE> 25
 4.302590e+01 2.160665e+01 2.933939e+01 2.372050e+01 2.581556e+01 1.965643e+01 1.760308e+01 1.855586e+01 1.826945e+01 1.690661e+01 2.046321e+01 1.310028e+01 6.772380e-01 7.469258e-01 9.199781e-01 9.879022e-01 1.082118e+00 1.250811e+00 1.219838e+00 1.159542e+00 1.178402e+00 1.174376e+00 1.322207e+00 9.572384e-01 8.161844e-04
<GCONST> 7.599142e+01
<MIXTURE> 41 6.713375e-03
<MEAN> 25
 1.060642e+00 1.251507e+00 1.057861e+01 -6.539045e+00 -1.041670e+01 -3.686188e+00 -2.160362e+00 -4.946712e+00 -4.610353e+00 2.484706e+00 -1.379805e+00 -3.614751e-01 8.681653e-02 -9.723003e-01 1.848093e+00 -3.419782e+00 -2.554825e+00 -1.886536e-01 -6.405166e-01 -1.514920e-01 -8.038756e-01 1.064558e+00 -9.272556e-01 1.334050e-01 8.943105e-02
<VARIANCE> 25
 1.179161e+01 3.218014e+01 3.254042e+01 3.994123e+01 3.813286e+01 3.880202e+01 3.733440e+01 2.907441e+01 3.103592e+01 2.760801e+01 3.138645e+01 3.121192e+01 2.985427e+00 3.755101e+00 3.979155e+00 3.797705e+00 4.797386e+00 5.753891e+00 4.668941e+00 5.071023e+00 3.764155e+00 3.965274e+00 3.756373e+00 3.287563e+00 2.952987e-03
<GCONST> 9.799182e+01
<MIXTURE> 42 1.106211e-02
<MEAN> 25
 -2.968555e+00 4.615129e+00 1.898292e+00 3.953641e+00 1.120328e+00 -7.899114e+00 -1.508958e-01 -1.169009e+00 -1.037928e+00 -1.759856e+00 -2.991408e+00 1.872895e+00 3.852403e+00 -1.033780e+00 2.134365e+00 -3.891150e-01 -2.657055e+00 -8.158531e-01 -2.942792e+00 -6.311867e-01 -1.053508e+00 -4.484538e-01 9.720681e-01 -1.443938e+00 2.087269e-02
<VARIANCE> 25
 2.905406e+01 1.680243e+01 4.503217e+01 1.938874e+01 3.910469e+01 3.487292e+01 4.294330e+01 2.349826e+01 2.136007e+01 2.212328e+01 1.595626e+01 1.975047e+01 3.112812e+00 4.230134e+00 5.292964e+00 4.002088e+00 5.320355e+00 5.022022e+00 7.101386e+00 4.805072e+00 4.138464e+00 3.580479e+00 3.194251e+00 3.832949e+00 3.495120e-03
<GCONST> 9.694633e+01
<MIXTURE> 43 7.108249e-03
<MEAN> 25
 3.102784e+00 -6.495192e+00 -2.072339e+00 -5.051130e+00 -7.590387e+00 -3.262735e+00 4.444117e+00 1.071059e+00 -4.946579e+00 -6.903185e+00 -3.985990e+00 -1.367935e+00 2.545374e-01 2.087005e+00 1.913219e+00 -1.792897e-01 -1.367419e+00 -5.753289e-01 -1.073806e+00 -8.566240e-01 7.637821e-01 1.551159e+00 3.156605e-01 -6.638947e-02 -4.397206e-02
<VARIANCE> 25
 9.293386e+00 1.967485e+01 2.694646e+01 3.420144e+01 3.770866e+01 3.562626e+01 3.422723e+01 3.957300e+01 3.831447e+01 3.793924e+01 2.797784e+01 2.869270e+01 6.687205e-01 1.334509e+00 1.518458e+00 2.439440e+00 2.378495e+00 3.376605e+00 2.798867e+00 3.041682e+00 2.578576e+00 2.631559e+00 2.254282e+00 2.013620e+00 9.385697e-04
<GCONST> 8.824273e+01
<MIXTURE> 44 7.328289e-03
<MEAN> 25
 -1.498076e+01 1.581003e+00 3.609132e+00 -3.235731e+00 3.286552e+00 2.217043e+00 -6.438699e-02 2.089467e+00 1.514130e+00 -7.969285e-01 1.779346e+00 1.813559e+00 -1.938421e-01 7.074734e-03 1.993563e-01 2.907932e-01 -1.406524e-01 1.829030e-01 4.775511e-01 1.165516e-01 2.276358e-01 1.602041e-01 8.086092e-02 1.209798e-01 5.134220e-03
<VARIANCE> 25
 4.492777e+01 2.743495e+01 3.772088e+01 3.041037e+01 2.884508e+01 3.087215e+01 2.616787e+01 3.421478e+01 2.714583e+01 2.700382e+01 2.667103e+01 1.978560e+01 1.228941e+00 1.509224e+00 1.520781e+00 1.317259e+00 2.136597e+00 1.647292e+00 1.479077e+00 1.670920e+00 1.559853e+00 1.505390e+00 1.391050e+00 1.211851e+00 1.304738e-03
<GCONST> 8.477327e+01
<MIXTURE> 45 1.364932e-02
<MEAN> 25
 -1.051985e+01 3.920579e+00 -2.771974e+00 3.334852e+00 5.359644e+00 -2.164306e+00 6.015077e+00 1.454475e+00 2.391040e+00 1.508271e+00 2.264520e-01 3.398419e+00 -3.037394e+00 5.879146e-01 -6.557711e-01 -1.096428e-01 2.262222e-01 -4.205273e-01 9.695843e-01 4.721206e-01 6.383162e-03 -1.257555e-01 -1.518329e-02 4.587442e-01 1.002684e-01
<VARIANCE> 25
 3.159194e+01 2.145824e+01 2.546885e+01 2.516012e+01 2.305546e+01 3.430581e+01 2.548845e+01 2.902493e+01 2.003377e+01 1.906928e+01 2.688944e+01 1.467964e+01 1.978035e+00 2.144296e+00 2.875716e+00 2.049058e+00 1.798447e+00 2.869652e+00 2.221995e+00 2.237601e+00 1.720565e+00 2.087902e+00 2.343435e+00 1.543576e+00 3.316447e-03
<GCONST> 8.745115e+01
<MIXTURE> 46 9.336259e-03
<MEAN> 25
 -9.110433e+00 2.144600e+00 1.208204e+00 7.362649e+00 5.365632e+00 2.900159e+00 7.236956e+00 4.267134e+00 5.447895e+00 4.851291e+00 4.832471e+00 3.022264e+00 9.762554e-01 -1.944152e-01 -1.015800e-02 1.063046e+00 6.226519e-01 1.029569e+00 4.587605e-01 5.691319e-01 5.271900e-01 4.190645e-01 6.290516e-01 4.987592e-01 -1.024332e-01
<VARIANCE> 25
 3.432148e+01 4.317833e+01 3.814037e+01 4.789231e+01 5.393001e+01 4.223484e+01 3.567586e+01 3.481335e+01 3.383241e+01 3.021285e+01 2.742503e+01 2.016006e+01 3.834523e+00 3.958767e+00 3.756137e+00 4.076987e+00 4.022370e+00 3.617342e+00 3.404189e+00 3.214894e+00 2.947607e+00 2.832178e+00 2.213196e+00 1.707907e+00 7.677389e-03
<GCONST> 9.795992e+01
<MIXTURE> 47 7.116147e-03
<MEAN> 25
 7.328954e+00 -7.366862e+00 -7.750999e+00 -6.439640e+00 1.512777e+00 8.450612e-01 -2.385829e+00 1.219345e+00 3.016273e+00 1.373975e-01 -4.261708e+00 -6.712609e+00 -1.854040e-01 -1.256455e+00 -6.927997e-01 -4.188244e-01 6.223084e-01 8.160928e-01 8.768046e-01 3.001124e-01 1.183126e-01 -8.843890e-01 -4.680738e-01 -4.573368e-01 3.010394e-02
<VARIANCE> 25
 1.068860e+01 2.115863e+01 2.059568e+01 3.328701e+01 3.618022e+01 5.273488e+01 4.525972e+01 4.076088e+01 4.337022e+01 4.705268e+01 4.859219e+01 3.352119e+01 5.212286e-01 7.728561e-01 1.122948e+00 1.666859e+00 1.979167e+00 2.202171e+00 2.318692e+00 2.478462e+00 2.190896e+00 2.144210e+00 2.185025e+00 2.008875e+00 5.506090e-04
<GCONST> 8.644925e+01
<MIXTURE> 48 7.116147e-03
<MEAN> 25
 7.328954e+00 -7.366862e+00 -7.750999e+00 -6.439640e+00 1.512777e+00 8.450612e-01 -2.385829e+00 1.219345e+00 3.016273e+00 1.373975e-01 -4.261708e+00 -6.712609e+00 -1.854040e-01 -1.256455e+00 -6.927997e-01 -4.188244e-01 6.223084e-01 8.160928e-01 8.768046e-01 3.001124e-01 1.183126e-01 -8.843890e-01 -4.680738e-01 -4.573368e-01 3.010394e-02
<VARIANCE> 25
 1.068860e+01 2.115863e+01 2.059568e+01 3.328701e+01 3.618022e+01 5.273488e+01 4.525972e+01 4.076088e+01 4.337022e+01 4.705268e+01 4.859219e+01 3.352119e+01 5.212286e-01 7.728561e-01 1.122948e+00 1.666859e+00 1.979167e+00 2.202171e+00 2.318692e+00 2.478462e+00 2.190896e+00 2.144210e+00 2.185025e+00 2.008875e+00 5.506090e-04
<GCONST> 8.644925e+01
<MIXTURE> 49 5.548473e-03
<MEAN> 25
 -5.056243e+00 3.590789e-01 1.385077e-01 8.424320e+00 6.117494e+00 5.613229e+00 6.090067e+00 4.446393e+00 5.027201e+00 3.731893e+00 4.902675e+00 2.841598e+00 3.661447e-01 6.564876e-01 6.968744e-01 3.555128e-01 -1.938038e-01 -6.643969e-01 -1.004452e+00 -1.117387e+00 -9.546717e-01 -6.761279e-01 -4.925767e-01 -2.738604e-01 -3.652188e-05
<VARIANCE> 25
 9.764512e+00 1.000227e+01 1.445379e+01 1.596964e+01 1.603183e+01 1.709161e+01 1.943414e+01 1.966221e+01 1.819198e+01 1.787569e+01 2.076012e+01 1.430305e+01 2.792176e-01 2.622768e-01 3.641506e-01 6.099802e-01 8.664172e-01 9.750934e-01 9.912599e-01 1.050731e+00 1.134769e+00 1.219250e+00 1.276809e+00 1.205182e+00 1.437335e-05
<GCONST> 6.436595e+01
<MIXTURE> 50 6.234641e-03
<MEAN> 25
 -4.536742e+00 1.461275e-01 -1.548850e+00 6.213565e+00 4.229981e+00 2.306142e+00 3.786772e+00 1.961523e+00 2.792067e+00 1.443543e+00 2.077736e+00 2.747005e+00 6.451931e-02 1.660962e-01 1.078480e-01 -1.536428e-01 -4.928989e-01 -6.079845e-01 -4.336190e-01 -5.359126e-02 4.616933e-01 7.587389e-01 7.525902e-01 4.543664e-01 5.578218e-06
<VARIANCE> 25
 1.133745e+01 1.113696e+01 1.465451e+01 1.517477e+01 1.510078e+01 1.831592e+01 1.864208e+01 1.920207e+01 1.824411e+01 1.728091e+01 2.164735e+01 1.552064e+01 1.462735e-01 2.410573e-01 3.826373e-01 5.406331e-01 6.091795e-01 7.255106e-01 9.448210e-01 1.100298e+00 1.066920e+00 9.081549e-01 9.142904e-01 9.778222e-01 1.009102e-06
<GCONST> 5.961470e+01
<MIXTURE> 51 6.234641e-03
<MEAN> 25
 -4.536742e+00 1.461275e-01 -1.548850e+00 6.213565e+00 4.229981e+00 2.306142e+00 3.786772e+00 1.961523e+00 2.792067e+00 1.443543e+00 2.077736e+00 2.747005e+00 6.451931e-02 1.660962e-01 1.078480e-01 -1.536428e-01 -4.928989e-01 -6.079845e-01 -4.336190e-01 -5.359126e-02 4.616933e-01 7.587389e-01 7.525902e-01 4.543664e-01 5.578218e-06
<VARIANCE> 25
 1.133745e+01 1.113696e+01 1.465451e+01 1.517477e+01 1.510078e+01 1.831592e+01 1.864208e+01 1.920207e+01 1.824411e+01 1.728091e+01 2.164735e+01 1.552064e+01 1.462735e-01 2.410573e-01 3.826373e-01 5.406331e-01 6.091795e-01 7.255106e-01 9.448210e-01 1.100298e+00 1.066920e+00 9.081549e-01 9.142904e-01 9.778222e-01 1.009102e-06
<GCONST> 5.961470e+01
<MIXTURE> 52 6.367945e-03
<MEAN> 25
 9.699105e+00 1.802653e+00 -5.550853e+00 -1.418369e+01 -3.675669e+00 8.907061e+00 -2.996548e+00 -1.848077e+00 -4.460186e+00 -1.803279e+00 3.830429e+00 5.523790e-01 -3.662157e-01 -2.751749e-01 1.188392e-02 1.280353e+00 1.380172e+00 -6.494930e-01 -3.593657e-01 -6.168299e-01 4.830377e-03 1.175273e+00 2.885623e-01 -5.657060e-01 -1.972507e-02
<VARIANCE> 25
 8.898551e+00 1.933448e+01 2.443595e+01 3.385847e+01 4.146488e+01 2.736983e+01 4.356888e+01 4.883485e+01 3.788358e+01 4.316118e+01 3.574664e+01 2.573610e+01 3.874556e-01 1.482698e+00 1.322811e+00 2.824239e+00 2.016096e+00 2.224289e+00 2.942426e+00 2.555083e+00 2.748993e+00 2.355449e+00 2.290722e+00 1.986051e+00 1.537701e-03
<GCONST> 8.792098e+01
<MIXTURE> 53 6.367945e-03
<MEAN> 25
 9.699105e+00 1.802653e+00 -5.550853e+00 -1.418369e+01 -3.675669e+00 8.907061e+00 -2.996548e+00 -1.848077e+00 -4.460186e+00 -1.803279e+00 3.830429e+00 5.523790e-01 -3.662157e-01 -2.751749e-01 1.188392e-02 1.280353e+00 1.380172e+00 -6.494930e-01 -3.593657e-01 -6.168299e-01 4.830377e-03 1.175273e+00 2.885623e-01 -5.657060e-01 -1.972507e-02
<VARIANCE> 25
 8.898551e+00 1.933448e+01 2.443595e+01 3.385847e+01 4.146488e+01 2.736983e+01 4.356888e+01 4.883485e+01 3.788358e+01 4.316118e+01 3.574664e+01 2.573610e+01 3.874556e-01 1.482698e+00 1.322811e+00 2.824239e+00 2.016096e+00 2.224289e+00 2.942426e+00 2.555083e+00 2.748993e+00 2.355449e+00 2.290722e+00 1.986051e+00 1.537701e-03
<GCONST> 8.792098e+01
<MIXTURE> 54 7.368620e-03
<MEAN> 25
 -3.633548e+00 4.942670e-02 -6.833680e-01 8.036510e+00 6.483910e+00 4.625393e+00 4.675477e+00 4.600875e+00 4.053100e+00 3.593818e+00 4.457226e+00 2.326097e+00 -2.112297e-03 2.652744e-02 3.417916e-02 4.752592e-02 5.138423e-02 4.707154e-02 3.885530e-02 2.890949e-02 3.086330e-02 2.505846e-02 1.456953e-02 1.810366e-03 -1.217497e-05
<VARIANCE> 25
 9.138784e+00 1.036355e+01 9.296884e+00 1.818456e+01 1.332117e+01 1.353295e+01 1.197154e+01 1.128252e+01 1.134258e+01 1.354941e+01 1.780371e+01 1.253508e+01 4.088510e-02 8.735225e-02 1.541040e-01 2.266239e-01 3.079365e-01 3.969350e-01 4.608589e-01 5.215683e-01 5.421520e-01 5.211310e-01 5.145050e-01 5.164562e-01 1.000082e-06
<GCONST> 4.724961e+01
<MIXTURE> 55 7.368620e-03
<MEAN> 25
 -3.633548e+00 4.942670e-02 -6.833680e-01 8.036510e+00 6.483910e+00 4.625393e+00 4.675477e+00 4.600875e+00 4.053100e+00 3.593818e+00 4.457226e+00 2.326097e+00 -2.112297e-03 2.652744e-02 3.417916e-02 4.752592e-02 5.138423e-02 4.707154e-02 3.885530e-02 2.890949e-02 3.086330e-02 2.505846e-02 1.456953e-02 1.810366e-03 -1.217497e-05
<VARIANCE> 25
 9.138784e+00 1.036355e+01 9.296884e+00 1.818456e+01 1.332117e+01 1.353295e+01 1.197154e+01 1.128252e+01 1.134258e+01 1.354941e+01 1.780371e+01 1.253508e+01 4.088510e-02 8.735225e-02 1.541040e-01 2.266239e-01 3.079365e-01 3.969350e-01 4.608589e-01 5.215683e-01 5.421520e-01 5.211310e-01 5.145050e-01 5.164562e-01 1.000082e-06
<GCONST> 4.724961e+01
<MIXTURE> 56 6.132464e-03
<MEAN> 25
 7.439832e+00 -6.782099e+00 -8.694973e+00 -8.287479e+00 3.897876e+00 3.915910e+00 -2.141581e+00 -1.450038e+00 1.997785e+00 6.808283e-01 -2.378211e+00 -7.186127e+00 2.440040e-03 2.708334e-02 -9.259091e-02 5.804598e-02 2.980680e-01 2.416907e-02 1.003430e-01 -9.322868e-02 -4.579072e-02 -4.760696e-02 -5.974077e-02 3.423498e-03 -7.294829e-03
<VARIANCE> 25
 9.347702e+00 2.301629e+01 2.456582e+01 4.325642e+01 3.223086e+01 4.916797e+01 6.067763e+01 3.544847e+01 3.792610e+01 3.641435e+01 3.921736e+01 3.085462e+01 2.035402e-01 4.191824e-01 4.515241e-01 7.804818e-01 8.096518e-01 1.130219e+00 8.858579e-01 9.314396e-01 8.990259e-01 9.020868e-01 1.021927e+00 7.659604e-01 2.319026e-04
<GCONST> 7.504871e+01
<MIXTURE> 57 6.132464e-03
<MEAN> 25
 7.439832e+00 -6.782099e+00 -8.694973e+00 -8.287479e+00 3.897876e+00 3.915910e+00 -2.141581e+00 -1.450038e+00 1.997785e+00 6.808283e-01 -2.378211e+00 -7.186127e+00 2.440040e-03 2.708334e-02 -9.259091e-02 5.804598e-02 2.980680e-01 2.416907e-02 1.003430e-01 -9.322868e-02 -4.579072e-02 -4.760696e-02 -5.974077e-02 3.423498e-03 -7.294829e-03
<VARIANCE> 25
 9.347702e+00 2.301629e+01 2.456582e+01 4.325642e+01 3.223086e+01 4.916797e+01 6.067763e+01 3.544847e+01 3.792610e+01 3.641435e+01 3.921736e+01 3.085462e+01 2.035402e-01 4.191824e-01 4.515241e-01 7.804818e-01 8.096518e-01 1.130219e+00 8.858579e-01 9.314396e-01 8.990259e-01 9.020868e-01 1.021927e+00 7.659604e-01 2.319026e-04
<GCONST> 7.504871e+01
<MIXTURE> 58 6.172147e-03
<MEAN> 25
 1.685817e+00 -4.322622e+00 8.463605e+00 -5.158117e+00 -1.382790e+01 -5.108481e+00 1.573259e+00 2.024992e+00 -2.246679e+00 2.327283e+00 1.154706e+00 -1.999754e-01 4.795769e-02 -2.231927e-02 -2.648176e-01 -1.685410e-01 -3.726409e-02 1.144888e-01 4.800062e-01 4.703615e-01 4.479242e-02 2.089960e-01 -7.404346e-02 -2.237552e-01 -7.991539e-03
<VARIANCE> 25
 9.987003e+00 2.082237e+01 2.309890e+01 2.318880e+01 2.112543e+01 4.087577e+01 2.810935e+01 3.698756e+01 2.752883e+01 2.824719e+01 2.095558e+01 1.905072e+01 3.200915e-01 9.879977e-01 8.510040e-01 9.444059e-01 8.935736e-01 1.148001e+00 1.104173e+00 1.659188e+00 9.330106e-01 1.076481e+00 7.846354e-01 9.613212e-01 9.072469e-04
<GCONST> 7.589958e+01
<MIXTURE> 59 6.172147e-03
<MEAN> 25
 1.685817e+00 -4.322622e+00 8.463605e+00 -5.158117e+00 -1.382790e+01 -5.108481e+00 1.573259e+00 2.024992e+00 -2.246679e+00 2.327283e+00 1.154706e+00 -1.999754e-01 4.795769e-02 -2.231927e-02 -2.648176e-01 -1.685410e-01 -3.726409e-02 1.144888e-01 4.800062e-01 4.703615e-01 4.479242e-02 2.089960e-01 -7.404346e-02 -2.237552e-01 -7.991539e-03
<VARIANCE> 25
 9.987003e+00 2.082237e+01 2.309890e+01 2.318880e+01 2.112543e+01 4.087577e+01 2.810935e+01 3.698756e+01 2.752883e+01 2.824719e+01 2.095558e+01 1.905072e+01 3.200915e-01 9.879977e-01 8.510040e-01 9.444059e-01 8.935736e-01 1.148001e+00 1.104173e+00 1.659188e+00 9.330106e-01 1.076481e+00 7.846354e-01 9.613212e-01 9.072469e-04
<GCONST> 7.589958e+01
<MIXTURE> 60 4.479129e-03
<MEAN> 25
 -4.065312e+00 -6.628137e-01 -1.213807e+00 3.682849e+00 1.660924e+00 2.184353e+00 1.880038e+00 1.393685e+00 2.282794e+00 1.361338e+00 2.318630e+00 1.864827e+00 -2.113216e-02 6.565923e-02 7.759505e-02 1.495176e-01 1.426610e-01 1.185660e-01 1.784855e-01 3.217114e-01 5.393529e-01 6.588931e-01 5.305430e-01 3.002998e-01 -5.549128e-04
<VARIANCE> 25
 7.943582e+00 4.432587e+00 1.078360e+01 1.101540e+01 1.339173e+01 1.670012e+01 1.545274e+01 1.226219e+01 1.305943e+01 1.318612e+01 1.568416e+01 1.214122e+01 8.888129e-02 1.712975e-01 2.981166e-01 4.317743e-01 5.766361e-01 7.158150e-01 8.113269e-01 9.014927e-01 9.353471e-01 8.210142e-01 8.506854e-01 8.453348e-01 2.371384e-05
<GCONST> 5.666204e+01
<MIXTURE> 61 4.479129e-03
<MEAN> 25
 -4.065312e+00 -6.628137e-01 -1.213807e+00 3.682849e+00 1.660924e+00 2.184353e+00 1.880038e+00 1.393685e+00 2.282794e+00 1.361338e+00 2.318630e+00 1.864827e+00 -2.113216e-02 6.565923e-02 7.759505e-02 1.495176e-01 1.426610e-01 1.185660e-01 1.784855e-01 3.217114e-01 5.393529e-01 6.588931e-01 5.305430e-01 3.002998e-01 -5.549128e-04
<VARIANCE> 25
 7.943582e+00 4.432587e+00 1.078360e+01 1.101540e+01 1.339173e+01 1.670012e+01 1.545274e+01 1.226219e+01 1.305943e+01 1.318612e+01 1.568416e+01 1.214122e+01 8.888129e-02 1.712975e-01 2.981166e-01 4.317743e-01 5.766361e-01 7.158150e-01 8.113269e-01 9.014927e-01 9.353471e-01 8.210142e-01 8.506854e-01 8.453348e-01 2.371384e-05
<GCONST> 5.666204e+01
<MIXTURE> 62 3.278034e-03
<MEAN> 25
 -5.090425e+00 1.241191e+00 1.024922e+00 8.818179e+00 6.130426e+00 5.050126e+00 5.500386e+00 4.032854e+00 4.985739e+00 3.917751e+00 4.965771e+00 2.950953e+00 -1.003184e+00 -1.166534e+00 -9.532437e-01 -2.766295e-01 4.276800e-01 1.005060e+00 1.384647e+00 1.552194e+00 1.478653e+00 1.243309e+00 1.066971e+00 7.259939e-01 -1.265373e-03
<VARIANCE> 25
 9.878923e+00 9.958398e+00 1.312606e+01 1.673409e+01 1.741785e+01 1.752626e+01 1.970286e+01 1.911710e+01 1.885855e+01 1.872440e+01 2.156214e+01 1.479432e+01 4.017966e-01 4.321629e-01 5.541309e-01 7.793699e-01 1.034919e+00 1.192430e+00 1.252188e+00 1.278895e+00 1.329880e+00 1.364017e+00 1.400037e+00 1.371339e+00 1.632303e-05
<GCONST> 6.752801e+01
<MIXTURE> 63 4.351215e-03
<MEAN> 25
 -3.419320e+00 -1.759687e+00 -5.296957e+00 3.236420e+00 3.092043e+00 6.598485e-02 4.123832e+00 8.690363e-01 2.798261e+00 -1.481507e-01 -1.146865e+00 2.403504e+00 -1.127898e-01 3.278931e-01 2.609099e-01 4.971115e-01 4.455876e-01 4.137081e-01 3.841484e-01 1.787836e-01 -2.827096e-02 1.509568e-01 1.583290e-01 2.265456e-02 -5.470909e-03
<VARIANCE> 25
 1.230378e+01 1.444591e+01 1.593779e+01 1.473376e+01 1.596726e+01 2.520758e+01 2.558443e+01 2.192582e+01 2.417830e+01 2.111229e+01 1.692096e+01 1.471772e+01 2.813967e-01 4.241700e-01 7.614145e-01 6.497525e-01 7.639993e-01 1.152301e+00 1.085332e+00 1.206456e+00 1.694036e+00 1.260976e+00 1.285099e+00 1.157986e+00 1.628732e-04
<GCONST> 7.041312e+01
<MIXTURE> 64 4.351215e-03
<MEAN> 25
 -3.419320e+00 -1.759687e+00 -5.296957e+00 3.236420e+00 3.092043e+00 6.598485e-02 4.123832e+00 8.690363e-01 2.798261e+00 -1.481507e-01 -1.146865e+00 2.403504e+00 -1.127898e-01 3.278931e-01 2.609099e-01 4.971115e-01 4.455876e-01 4.137081e-01 3.841484e-01 1.787836e-01 -2.827096e-02 1.509568e-01 1.583290e-01 2.265456e-02 -5.470909e-03
<VARIANCE> 25
 1.230378e+01 1.444591e+01 1.593779e+01 1.473376e+01 1.596726e+01 2.520758e+01 2.558443e+01 2.192582e+01 2.417830e+01 2.111229e+01 1.692096e+01 1.471772e+01 2.813967e-01 4.241700e-01 7.614145e-01 6.497525e-01 7.639993e-01 1.152301e+00 1.085332e+00 1.206456e+00 1.694036e+00 1.260976e+00 1.285099e+00 1.157986e+00 1.628732e-04
<GCONST> 7.041312e+01
<MIXTURE> 65 1.721197e-02
<MEAN> 25
 7.434125e+00 2.051872e+00 1.786573e+00 7.452173e-01 -4.453477e+00 -4.152030e+00 -6.061051e+00 -6.435586e+00 -3.775188e+00 -2.283842e+00 -5.093339e+00 -1.997670e+00 1.578507e-01 2.000805e-01 -9.743986e-02 2.009248e-01 -1.543761e-01 9.969326e-02 1.729116e-02 -2.281284e-01 2.836185e-01 8.644804e-03 -1.779138e-01 -4.228128e-02 -4.517812e-03
<VARIANCE> 25
 1.215351e+01 1.819963e+01 2.542253e+01 3.316050e+01 4.257566e+01 6.077632e+01 5.874817e+01 5.634576e+01 5.267560e+01 5.696636e+01 5.320437e+01 4.687716e+01 5.714421e-01 1.034437e+00 1.624309e+00 1.755143e+00 1.912694e+00 2.416495e+00 2.412067e+00 2.994030e+00 2.420182e+00 2.288684e+00 2.365632e+00 2.169737e+00 4.613484e-04
<GCONST> 8.957043e+01
<MIXTURE> 66 1.191532e-02
<MEAN> 25
 6.643826e+00 -3.984277e+00 -5.539969e+00 -4.760667e+00 1.339801e+00 -4.994114e+00 -6.924338e+00 1.158329e+00 6.232406e-01 -1.939798e+00 -5.985736e+00 -3.489944e+00 -4.576590e-02 1.654593e+00 2.182469e+00 2.306299e+00 -1.224808e+00 -1.258251e+00 1.039639e-01 -5.658503e-01 -1.200913e-01 -1.943165e-01 -2.296839e-01 1.041870e+00 -6.324241e-02
<VARIANCE> 25
 8.970353e+00 2.276772e+01 2.706206e+01 3.322678e+01 3.807186e+01 5.398282e+01 5.571326e+01 4.501522e+01 5.352736e+01 6.628748e+01 3.767746e+01 3.597268e+01 1.275351e+00 2.424593e+00 2.475215e+00 2.464755e+00 4.222233e+00 4.256328e+00 4.499531e+00 4.782815e+00 4.243286e+00 4.902539e+00 3.868155e+00 3.228178e+00 1.484621e-03
<GCONST> 9.685133e+01
<MIXTURE> 67 1.559142e-02
<MEAN> 25
 8.603049e+00 2.091638e+00 -5.132947e+00 -7.769677e+00 1.486670e+00 3.485387e+00 -2.915539e+00 -1.277831e+00 -3.212166e+00 1.370038e+00 1.104630e+00 -1.927998e+00 -9.170135e-01 1.533908e+00 5.776287e-01 3.273207e+00 1.327410e+00 -8.016945e-01 1.645022e+00 -3.027843e-01 7.040303e-01 1.569064e-01 -7.662341e-01 4.159825e-01 -1.196078e-01
<VARIANCE> 25
 9.158396e+00 3.013599e+01 2.518567e+01 4.647901e+01 3.885959e+01 4.151245e+01 5.170895e+01 4.254752e+01 5.305633e+01 4.612161e+01 4.685801e+01 3.603793e+01 1.719836e+00 3.029054e+00 3.146702e+00 3.678202e+00 3.501591e+00 3.802683e+00 4.445586e+00 4.231452e+00 4.826676e+00 3.912515e+00 4.409626e+00 3.049868e+00 2.557988e-03
<GCONST> 9.814045e+01
<MIXTURE> 68 1.485092e-02
<MEAN> 25
 -2.131082e+00 -2.267093e+00 -3.856487e+00 1.373409e+00 5.272925e+00 -1.002365e+00 1.960864e+00 2.180379e+00 1.920885e+00 1.033696e+00 4.711972e-01 1.826884e+00 2.558574e+00 2.890425e-01 4.198800e-01 -2.473973e+00 -2.459935e+00 -1.554422e+00 -2.598272e+00 -1.426723e+00 -1.718626e+00 -1.371864e+00 -1.690542e+00 -1.076449e+00 1.042529e-01
<VARIANCE> 25
 2.521138e+01 3.085823e+01 5.521259e+01 4.823984e+01 4.515376e+01 5.627378e+01 4.788404e+01 4.045175e+01 3.716726e+01 4.361045e+01 3.512907e+01 2.754470e+01 2.257345e+00 4.063837e+00 6.804793e+00 5.485887e+00 4.852101e+00 5.274110e+00 6.870324e+00 5.791050e+00 4.647565e+00 4.981455e+00 5.317133e+00 3.212434e+00 5.659418e-03
<GCONST> 1.037332e+02
<MIXTURE> 69 1.204884e-02
<MEAN> 25
 4.393188e+00 -4.637491e+00 -3.480900e+00 -3.266313e+00 -3.574742e+00 -7.879861e+00 -1.203200e-01 2.347165e+00 -1.335785e-01 -5.014504e+00 -5.368882e+00 8.277801e-01 1.745426e+00 -2.357792e+00 -9.650516e-01 -2.275896e+00 -7.144258e-01 -1.924114e-01 -3.750090e-01 5.379084e-01 -7.403151e-01 -1.329805e+00 -1.863063e+00 -2.900507e-01 6.564252e-02
<VARIANCE> 25
 9.086426e+00 2.266499e+01 2.492478e+01 2.542816e+01 4.035266e+01 3.333304e+01 5.867399e+01 2.947574e+01 3.733897e+01 3.623351e+01 2.988799e+01 2.306059e+01 3.515742e+00 2.933662e+00 4.664699e+00 3.465137e+00 5.836512e+00 5.031056e+00 6.905365e+00 5.722367e+00 5.570637e+00 5.648816e+00 5.285328e+00 3.675394e+00 2.381631e-03
<GCONST> 9.867991e+01
<MIXTURE> 70 1.329190e-02
<MEAN> 25
 6.815717e+00 -1.681877e+00 -3.579963e+00 -3.085015e+00 8.066348e-01 -1.116178e+00 -8.860970e+00 -3.312280e+00 4.212514e-01 2.500721e+00 -2.624594e-01 -5.192505e+00 1.931424e+00 -1.081158e+00 -5.508325e-01 -2.128378e+00 -1.276811e+00 1.174451e+00 -1.652337e+00 -8.616654e-02 1.444713e-01 -9.151623e-03 8.018891e-01 -1.475740e+00 5.529287e-02
<VARIANCE> 25
 1.169678e+01 2.296317e+01 2.655283e+01 4.258815e+01 4.044003e+01 4.266137e+01 5.424692e+01 4.259468e+01 4.320348e+01 2.982053e+01 4.165105e+01 2.428637e+01 3.451132e+00 2.862084e+00 4.827567e+00 4.425774e+00 4.934802e+00 6.172143e+00 7.207608e+00 6.871819e+00 5.730647e+00 4.848863e+00 5.207736e+00 3.938731e+00 2.765985e-03
<GCONST> 1.009758e+02
<MIXTURE> 71 1.406903e-02
<MEAN> 25
 5.725314e+00 4.806227e+00 2.885452e+00 3.175417e+00 -2.350984e+00 -3.835322e+00 -3.481868e+00 -5.682435e+00 -4.020186e+00 -2.398836e+00 -4.978848e+00 -3.485364e+00 -1.624809e+00 -7.538377e-01 -2.228427e-01 -1.428516e+00 1.069071e+00 -2.912520e-01 -3.237641e-01 1.491021e+00 2.191942e-01 4.017776e-02 6.660712e-01 2.776802e-01 3.823404e-02
<VARIANCE> 25
 1.794078e+01 2.273250e+01 2.753924e+01 3.854441e+01 3.922801e+01 3.651797e+01 4.423879e+01 3.974298e+01 3.683984e+01 3.828588e+01 3.228345e+01 2.923594e+01 1.577388e+00 2.874862e+00 4.437209e+00 4.623217e+00 4.034147e+00 4.361396e+00 5.963029e+00 5.420174e+00 3.806447e+00 3.654607e+00 3.170180e+00 2.860180e+00 1.306835e-03
<GCONST> 9.683947e+01
<MIXTURE> 72 8.134747e-03
<MEAN> 25
 3.871469e+00 -4.333956e+00 5.517636e+00 -1.536582e+00 -1.019549e+01 -9.579832e+00 -2.800556e+00 2.625417e+00 -4.838242e+00 -2.251555e+00 -1.178498e+00 1.072340e+00 1.029961e+00 -7.946773e-01 -2.821718e+00 3.371723e-01 2.001374e+00 -6.953340e-01 -1.584044e+00 1.592511e+00 1.914619e+00 -2.882242e-01 -1.331769e+00 3.335012e-01 -2.842490e-03
<VARIANCE> 25
 9.831075e+00 2.123719e+01 2.968231e+01 4.308261e+01 3.010307e+01 3.423993e+01 3.838028e+01 3.969247e+01 3.970680e+01 3.789345e+01 3.968353e+01 2.982678e+01 4.812014e-01 9.526958e-01 2.677157e+00 1.521659e+00 2.293421e+00 2.192647e+00 3.398005e+00 2.528518e+00 2.459956e+00 3.506527e+00 1.848654e+00 1.998262e+00 6.738775e-04
<GCONST> 8.765093e+01
<MIXTURE> 73 1.213625e-02
<MEAN> 25
 -5.135330e+00 -2.858748e-01 -1.607911e+00 4.507875e+00 3.595908e+00 2.109311e+00 6.123724e+00 2.583271e+00 4.350995e+00 2.686195e+00 3.416944e+00 2.926039e+00 6.703542e-01 -1.329516e+00 1.456650e-01 -2.321300e+00 -1.428798e+00 -1.717627e+00 -1.379904e+00 -1.109554e-01 -1.173609e+00 -6.242536e-01 -4.490018e-01 -6.450096e-02 1.462916e-01
<VARIANCE> 25
 1.338020e+01 1.376769e+01 1.700832e+01 2.007804e+01 2.363125e+01 2.639397e+01 1.991343e+01 2.311889e+01 1.576383e+01 2.059595e+01 2.061645e+01 1.499143e+01 3.687964e+00 2.904283e+00 8.335410e+00 4.612423e+00 5.573771e+00 3.862255e+00 6.526137e+00 4.040992e+00 3.541757e+00 3.666721e+00 4.235923e+00 3.185137e+00 3.664852e-03
<GCONST> 9.299971e+01
<MIXTURE> 74 1.756491e-02
<MEAN> 25
 3.044425e+00 -2.869623e+00 5.530380e+00 -1.382950e+00 -8.274715e+00 -6.115474e+00 -1.830833e+00 1.605279e+00 -3.034759e+00 -3.071283e-01 -9.400357e-02 2.604426e-01 3.290899e-01 1.825035e+00 -4.408339e-01 1.467130e+00 1.419906e+00 5.196064e-01 4.089061e-01 -1.518735e+00 4.148979e-01 1.448247e-01 -4.612744e-01 -1.407803e-01 -7.765692e-02
<VARIANCE> 25
 1.130026e+01 2.242774e+01 2.604190e+01 3.070325e+01 3.968066e+01 4.036188e+01 6.539946e+01 4.180119e+01 3.612072e+01 5.125448e+01 3.148746e+01 3.213895e+01 1.517600e+00 1.628231e+00 3.076295e+00 2.254874e+00 3.292775e+00 3.150629e+00 6.362294e+00 3.311446e+00 2.843518e+00 3.215994e+00 2.715568e+00 2.513103e+00 1.250967e-03
<GCONST> 9.358007e+01
<MIXTURE> 75 9.711651e-03
<MEAN> 25
 1.758075e+00 -2.952556e+00 1.104763e+01 1.956282e+00 -1.087140e+01 -6.905395e+00 -4.717179e+00 1.607366e+00 -5.579637e+00 -4.163110e+00 3.280240e+00 1.305823e+00 1.895437e+00 -1.723509e+00 5.363812e-01 -1.452379e-01 -2.600410e+00 -6.248011e-01 -2.051651e+00 1.254527e+00 -5.290138e-01 3.197992e-01 1.030320e+00 -7.546074e-01 4.574527e-02
<VARIANCE> 25
 9.846116e+00 1.923396e+01 2.654397e+01 2.372865e+01 2.427761e+01 2.372895e+01 3.322145e+01 3.401377e+01 2.689092e+01 2.225333e+01 1.658179e+01 1.886367e+01 1.917962e+00 1.341827e+00 4.606453e+00 2.809212e+00 4.506532e+00 7.840213e+00 3.538467e+00 2.839406e+00 3.634799e+00 3.124974e+00 2.807562e+00 3.666062e+00 1.354496e-03
<GCONST> 9.069703e+01
<MIXTURE> 76 1.052359e-02
<MEAN> 25
 -6.803206e+00 7.419835e-01 -4.690847e+00 4.453732e+00 4.572168e+00 1.147449e+00 5.189766e+00 1.243833e+00 2.498171e+00 -1.202301e-02 6.016281e-02 2.523198e+00 -4.188684e-02 -4.249169e-01 -3.532700e-01 -6.214093e-01 -5.582270e-01 -9.086058e-01 -3.802897e-01 -2.843454e-01 -3.699996e-01 -7.197512e-01 -5.346403e-01 -1.369424e-01 1.660709e-02
<VARIANCE> 25
 3.522021e+01 3.411482e+01 3.309847e+01 2.163025e+01 2.586939e+01 2.678632e+01 2.349450e+01 2.241887e+01 2.072669e+01 2.178090e+01 2.722068e+01 1.531372e+01 1.004212e+00 9.611759e-01 1.554650e+00 1.057279e+00 1.801039e+00 1.607785e+00 1.632079e+00 1.309587e+00 1.650033e+00 1.718660e+00 1.630277e+00 1.114917e+00 1.075207e-03
<GCONST> 8.165363e+01
<MIXTURE> 77 1.244626e-02
<MEAN> 25
 -9.039624e-01 6.106060e+00 1.269158e+01 -1.055863e+01 -4.784528e+00 3.325968e+00 -8.805322e+00 -7.028389e+00 -1.713550e+00 -2.385219e-01 -3.330700e+00 -2.979501e+00 -9.729758e-03 1.740771e-01 2.287292e-01 1.406015e-01 -1.549955e-01 1.789776e-01 -1.752180e-01 -1.524065e-01 -2.066266e-01 1.270871e-01 3.626827e-01 4.109896e-01 -4.924278e-03
<VARIANCE> 25
 8.873254e+00 2.724777e+01 2.263153e+01 3.386141e+01 3.436633e+01 3.641785e+01 2.818073e+01 2.423246e+01 3.285905e+01 2.552636e+01 3.432528e+01 3.160228e+01 2.789225e-01 7.119585e-01 6.426191e-01 9.604260e-01 1.068741e+00 9.897317e-01 9.857382e-01 1.355657e+00 9.401014e-01 9.085434e-01 1.031078e+00 8.831998e-01 5.233047e-04
<GCONST> 7.589639e+01
<MIXTURE> 78 9.702551e-03
<MEAN> 25
 -1.130411e+01 2.024476e+00 -2.970446e+00 3.236447e+00 4.495492e+00 -3.463768e+00 4.419022e+00 2.635507e+00 2.652997e+00 2.666343e-01 -1.299713e+00 3.332947e+00 2.190532e+00 -3.804263e-01 3.077762e-01 4.925529e-01 -1.435747e-01 -1.101395e-01 -3.046654e-01 -5.125412e-02 1.523211e-01 1.061961e-02 -3.220037e-01 -5.526404e-01 -4.918264e-02
<VARIANCE> 25
 3.620893e+01 3.188341e+01 3.664386e+01 3.121336e+01 3.571767e+01 3.897455e+01 3.306404e+01 3.549175e+01 2.408613e+01 2.594115e+01 2.758065e+01 1.826425e+01 4.859048e+00 2.716900e+00 2.828898e+00 2.936287e+00 3.075396e+00 3.718364e+00 4.025532e+00 2.604393e+00 2.420766e+00 2.248360e+00 2.163710e+00 2.182422e+00 4.650196e-03
<GCONST> 9.436588e+01
<MIXTURE> 79 1.156824e-02
<MEAN> 25
 1.682642e+00 1.415801e+00 9.298069e+00 -6.515255e+00 -1.054042e+01 -5.430061e-01 -2.485593e+00 -5.760146e+00 -5.765994e+00 2.970359e-02 -2.396268e+00 -3.141567e+00 1.256511e+00 -4.127379e-01 -1.630730e+00 2.238122e+00 4.376455e-01 -1.267093e+00 5.975775e-01 7.357295e-01 -1.845613e-01 -7.618536e-01 7.609529e-02 2.738586e-01 -4.447423e-02
<VARIANCE> 25
 1.590436e+01 2.330582e+01 3.965425e+01 4.698417e+01 3.975994e+01 4.724129e+01 3.830024e+01 3.482835e+01 3.603770e+01 3.701915e+01 4.363998e+01 2.623331e+01 8.132254e-01 2.034223e+00 1.828674e+00 1.999468e+00 2.242433e+00 2.601362e+00 2.842558e+00 3.145709e+00 2.527844e+00 2.634458e+00 2.316312e+00 1.804305e+00 1.381529e-03
<GCONST> 9.086106e+01
<MIXTURE> 80 7.550998e-03
<MEAN> 25
 -1.452125e+01 4.109758e+00 4.076327e-01 2.992622e+00 2.624831e+00 1.237334e+00 6.537548e+00 2.568085e+00 2.719303e+00 2.182747e+00 4.529300e+00 1.338832e+00 4.235091e+00 -6.438549e-02 1.697423e+00 -1.095015e+00 -2.917138e+00 -2.791754e+00 -2.338084e+00 -1.974981e+00 -1.952616e+00 -1.673162e+00 -1.582456e+00 -5.737159e-01 -4.271952e-02
<VARIANCE> 25
 2.072553e+01 1.997585e+01 3.663650e+01 3.446655e+01 3.062279e+01 2.965632e+01 2.835420e+01 2.806904e+01 2.608517e+01 2.949949e+01 3.021786e+01 1.855050e+01 2.400163e+00 2.692628e+00 2.747235e+00 4.081687e+00 3.347143e+00 2.647083e+00 2.961318e+00 3.208319e+00 2.701266e+00 2.641824e+00 2.894570e+00 2.130213e+00 1.562875e-03
<GCONST> 9.161851e+01
<MIXTURE> 81 8.025434e-03
<MEAN> 25
 -1.138389e+00 3.831316e+00 1.034589e+01 -1.460284e+01 -8.688897e+00 -8.562635e-01 -6.785150e+00 -8.402389e+00 -3.915836e+00 -3.568808e-01 -7.221049e+00 -2.372243e+00 1.014248e-01 -5.792630e-01 5.200458e-02 -5.629195e-01 -4.606568e-01 3.492703e-01 2.955132e-01 1.093921e-01 -1.765032e-01 1.428609e-01 -4.034864e-01 -9.159940e-02 1.209914e-02
<VARIANCE> 25
 9.883880e+00 3.272502e+01 2.630114e+01 2.894228e+01 3.564959e+01 3.632576e+01 4.363793e+01 2.731499e+01 3.784226e+01 3.075075e+01 2.745514e+01 3.021411e+01 7.747129e-01 2.212478e+00 1.572036e+00 2.768974e+00 2.575352e+00 2.083619e+00 3.162483e+00 2.298292e+00 2.288422e+00 2.474562e+00 2.310611e+00 2.020549e+00 1.156378e-03
<GCONST> 8.857637e+01
<MIXTURE> 82 8.213053e-03
<MEAN> 25
 -9.755133e+00 -3.840646e+00 1.492686e+00 -2.855728e+00 3.260002e+00 4.800137e-01 2.071076e+00 1.181854e+00 2.909258e+00 1.344777e+00 1.550820e+00 3.230760e+00 -1.324760e+00 -1.914358e-01 4.985794e-01 -2.499340e+00 -1.153299e+00 -1.381905e+00 -1.106141e+00 -7.054696e-01 -4.237428e-01 -4.685839e-01 -2.196681e-01 1.152883e-02 1.752651e-01
<VARIANCE> 25
 1.797673e+01 2.415810e+01 3.184335e+01 2.967233e+01 3.363677e+01 3.427900e+01 3.065330e+01 3.366265e+01 2.956490e+01 2.701571e+01 3.016701e+01 1.804166e+01 3.647547e+00 2.996913e+00 3.963769e+00 3.371688e+00 3.469450e+00 3.459574e+00 3.138572e+00 3.424787e+00 2.900113e+00 2.400544e+00 2.562204e+00 2.002963e+00 3.448894e-03
<GCONST> 9.359381e+01
<MIXTURE> 83 1.167529e-02
<MEAN> 25
 -1.955936e+01 5.570561e+00 -2.530644e+00 1.653388e-01 7.714336e+00 -1.639656e+00 5.640394e+00 3.073444e+00 1.301841e+00 1.739398e+00 1.352752e-02 3.161324e+00 6.722952e-03 -3.712333e-01 4.208697e-02 -2.985354e-01 -4.696785e-01 -2.356823e-01 -2.045850e-01 -4.609775e-02 2.302789e-02 -4.034589e-03 -1.273787e-01 -1.144589e-01 5.589560e-03
<VARIANCE> 25
 1.071110e+01 1.528224e+01 3.222785e+01 2.421992e+01 1.977342e+01 2.408718e+01 2.065642e+01 2.159763e+01 1.902342e+01 2.276821e+01 2.698174e+01 1.424509e+01 9.918219e-01 9.352949e-01 1.175881e+00 1.033156e+00 1.278680e+00 1.331826e+00 1.248869e+00 1.315802e+00 1.312550e+00 1.271411e+00 1.233090e+00 1.069916e+00 8.403956e-04
<GCONST> 7.685030e+01
<MIXTURE> 84 1.066614e-02
<MEAN> 25
 1.439145e+00 8.435745e+00 6.203348e+00 6.884340e+00 2.525802e+00 -9.100756e-01 -1.625510e+00 -4.442569e+00 -3.868420e+00 -3.583862e+00 -2.258365e+00 -1.778892e+00 -1.447248e+00 -1.164669e+00 -1.252668e+00 1.337875e+00 2.077022e+00 1.501208e+00 1.482148e+00 1.036580e+00 1.130197e+00 3.089630e-01 2.118011e-01 4.394638e-01 -7.069452e-02
<VARIANCE> 25
 2.069460e+01 1.789026e+01 2.435544e+01 2.717533e+01 2.694663e+01 2.596324e+01 2.429528e+01 2.298351e+01 2.297781e+01 2.453271e+01 2.130658e+01 2.135329e+01 2.519015e+00 2.402592e+00 3.368154e+00 2.995998e+00 3.016955e+00 3.183629e+00 2.985082e+00 3.423388e+00 3.106194e+00 2.978772e+00 3.302955e+00 2.447723e+00 3.110723e-03
<GCONST> 9.092704e+01
<MIXTURE> 85 7.591393e-03
<MEAN> 25
 -3.111227e+00 7.888129e+00 5.714745e+00 1.291229e+00 -3.481822e+00 -5.329439e+00 -2.978407e+00 -6.117460e+00 -3.540606e+00 -3.180030e+00 -4.829888e-01 -1.896911e+00 3.942201e+00 3.215896e-01 1.757591e+00 -2.090883e+00 -3.411038e+00 -2.579686e+00 -2.889456e+00 -2.339957e+00 -2.247403e+00 -1.261463e+00 -2.297171e+00 -6.170524e-01 9.264027e-03
<VARIANCE> 25
 4.242604e+01 2.341875e+01 3.651482e+01 3.819192e+01 3.980936e+01 4.122055e+01 3.222805e+01 2.788732e+01 2.662036e+01 2.610705e+01 2.621847e+01 2.057531e+01 2.706044e+00 4.330034e+00 4.061225e+00 5.177769e+00 4.419919e+00 3.888846e+00 3.863774e+00 3.989301e+00 3.848184e+00 4.040550e+00 3.958909e+00 3.494896e+00 5.444095e-03
<GCONST> 9.837150e+01
<MIXTURE> 86 1.273941e-02
<MEAN> 25
 -4.534410e+00 -1.153228e+00 -9.611388e-01 6.163813e+00 4.632401e+00 4.646060e+00 5.491318e+00 4.027213e+00 4.869439e+00 3.970797e+00 4.974644e+00 2.542228e+00 1.617332e-03 2.942995e-02 -9.533004e-02 -3.317437e-02 -8.022179e-02 -1.746901e-01 -2.360750e-01 -3.270820e-01 -3.820395e-01 -2.981589e-01 -2.633287e-01 -1.086558e-01 -1.023156e-03
<VARIANCE> 25
 1.025727e+01 5.454195e+00 9.970969e+00 1.217274e+01 1.728795e+01 1.364255e+01 1.329789e+01 1.642381e+01 1.326191e+01 1.357755e+01 1.532236e+01 1.255223e+01 1.093235e-01 2.067221e-01 3.618969e-01 4.819082e-01 6.191180e-01 7.020112e-01 7.168010e-01 7.245303e-01 8.375603e-01 8.688504e-01 8.920115e-01 8.737525e-01 5.412398e-05
<GCONST> 5.865625e+01
<MIXTURE> 87 1.100681e-02
<MEAN> 25
 -2.987919e+00 4.331337e+00 2.946055e+00 6.841578e+00 5.348806e+00 7.868679e-01 1.650587e+00 -1.077288e+00 -4.198787e-01 -9.892696e-01 -9.930064e-01 -8.815708e-03 -2.183538e+00 -2.672746e+00 -1.895632e+00 -2.053210e+00 -6.264878e-02 -2.721826e-01 5.809488e-01 1.275478e+00 1.265415e+00 1.006410e+00 8.918109e-01 1.021889e+00 1.015838e-01
<VARIANCE> 25
 3.740739e+01 2.833570e+01 3.050304e+01 3.258467e+01 2.789359e+01 3.223226e+01 2.726146e+01 2.661946e+01 2.469489e+01 2.383769e+01 2.398350e+01 2.222254e+01 3.717922e+00 2.798629e+00 4.282588e+00 3.779155e+00 4.670534e+00 4.501979e+00 4.723907e+00 3.797431e+00 3.554198e+00 3.293154e+00 3.367600e+00 2.651245e+00 4.761288e-03
<GCONST> 9.622047e+01
<MIXTURE> 88 1.256585e-02
<MEAN> 25
 -3.242488e+00 -7.393612e-01 -1.590245e+00 5.422585e+00 3.049730e+00 3.159470e+00 5.811255e+00 2.104325e+00 4.048467e+00 2.680703e+00 2.640115e+00 2.704087e+00 1.649737e-02 7.112863e-02 1.051532e-01 2.886104e-01 3.688985e-01 4.222203e-01 -2.068579e-01 -3.627815e-01 2.438535e-02 -4.721071e-01 -1.135003e-01 -1.189750e-01 -1.121081e-02
<VARIANCE> 25
 1.246701e+01 8.910510e+00 1.759772e+01 1.349977e+01 2.777041e+01 1.967005e+01 1.975807e+01 1.771421e+01 1.549917e+01 1.672941e+01 1.829414e+01 1.339822e+01 1.338245e+00 1.396435e+00 2.193196e+00 2.118840e+00 2.040440e+00 3.063528e+00 2.957699e+00 2.312921e+00 2.895911e+00 2.170166e+00 2.036174e+00 1.860755e+00 1.545970e-03
<GCONST> 8.196355e+01
<MIXTURE> 89 9.333527e-03
<MEAN> 25
 6.073352e+00 -6.813550e+00 -3.540804e+00 -3.146737e+00 -1.597384e+00 -5.575443e+00 -6.127938e+00 4.097308e+00 3.452833e+00 -2.804047e+00 -6.010438e+00 -3.290460e+00 -5.691260e-01 1.607618e-01 1.984711e+00 9.031891e-01 -1.867456e+00 -1.649537e+00 8.853162e-01 1.257812e+00 -7.843201e-01 -1.315112e+00 3.984009e-01 1.535499e+00 -4.869484e-03
<VARIANCE> 25
 8.985414e+00 2.683907e+01 3.116319e+01 3.027196e+01 3.605692e+01 4.167377e+01 5.972885e+01 4.212627e+01 3.913515e+01 4.229616e+01 3.593276e+01 3.230695e+01 3.566661e-01 8.505735e-01 1.480888e+00 1.314234e+00 1.914643e+00 2.119921e+00 2.572857e+00 2.056545e+00 2.250635e+00 2.122770e+00 2.335397e+00 1.466785e+00 3.669395e-04
<GCONST> 8.532088e+01
<MIXTURE> 90 7.114505e-03
<MEAN> 25
 2.447695e+00 -9.713464e+00 -4.750192e+00 -3.971183e+00 -3.387065e+00 -1.810922e+00 3.371566e+00 1.174789e+00 -7.527727e+00 -1.021363e+01 -3.426515e+00 -7.408587e-01 -1.634628e-01 9.078125e-01 1.166682e+00 -8.535729e-01 -1.610545e+00 -2.085884e-01 6.438113e-01 -2.109907e-01 -1.685668e-01 7.382931e-01 1.818588e-01 -5.503737e-01 -1.115322e-02
<VARIANCE> 25
 8.479746e+00 1.788717e+01 1.981330e+01 2.801692e+01 3.682962e+01 3.213183e+01 3.852517e+01 3.638549e+01 3.518059e+01 2.768661e+01 2.699887e+01 2.610416e+01 2.238825e-01 6.131723e-01 7.932498e-01 1.041981e+00 1.471894e+00 1.603183e+00 1.789547e+00 1.656059e+00 1.808006e+00 1.680546e+00 1.493997e+00 1.308431e+00 2.147185e-04
<GCONST> 7.815296e+01
<MIXTURE> 91 7.852945e-03
<MEAN> 25
 6.300198e+00 -7.618956e+00 -7.988790e+00 -4.959400e+00 3.900215e+00 1.781452e-01 -2.323037e+00 6.411999e-01 8.360289e-01 -2.768706e+00 -4.769924e+00 -5.442103e+00 2.865568e-01 9.612364e-01 1.638434e-01 5.168654e-01 1.106446e-01 -5.849381e-01 -4.436393e-01 -3.902861e-02 -4.936061e-02 4.133281e-01 -1.117678e-01 1.481036e-01 -3.527801e-02
<VARIANCE> 25
 9.783392e+00 2.217930e+01 2.506961e+01 3.964832e+01 3.374606e+01 5.452510e+01 5.247464e+01 3.800287e+01 4.966140e+01 6.184738e+01 3.710058e+01 4.104797e+01 4.441119e-01 8.852839e-01 1.100080e+00 1.413595e+00 2.747704e+00 2.298940e+00 2.432475e+00 2.386574e+00 2.186937e+00 2.149651e+00 1.923378e+00 1.823333e+00 5.710383e-04
<GCONST> 8.714674e+01
<MIXTURE> 92 7.852945e-03
<MEAN> 25
 6.300198e+00 -7.618956e+00 -7.988790e+00 -4.959400e+00 3.900215e+00 1.781452e-01 -2.323037e+00 6.411999e-01 8.360289e-01 -2.768706e+00 -4.769924e+00 -5.442103e+00 2.865568e-01 9.612364e-01 1.638434e-01 5.168654e-01 1.106446e-01 -5.849381e-01 -4.436393e-01 -3.902861e-02 -4.936061e-02 4.133281e-01 -1.117678e-01 1.481036e-01 -3.527801e-02
<VARIANCE> 25
 9.783392e+00 2.217930e+01 2.506961e+01 3.964832e+01 3.374606e+01 5.452510e+01 5.247464e+01 3.800287e+01 4.966140e+01 6.184738e+01 3.710058e+01 4.104797e+01 4.441119e-01 8.852839e-01 1.100080e+00 1.413595e+00 2.747704e+00 2.298940e+00 2.432475e+00 2.386574e+00 2.186937e+00 2.149651e+00 1.923378e+00 1.823333e+00 5.710383e-04
<GCONST> 8.714674e+01
<MIXTURE> 93 6.122769e-03
<MEAN> 25
 -6.827233e+00 -9.577583e-01 -2.402285e+00 5.799637e+00 5.908411e+00 3.921451e+00 6.123694e+00 3.607075e+00 4.115883e+00 2.506802e+00 1.817554e+00 3.706356e+00 -6.182021e-02 -1.542617e-01 -2.579872e-01 -3.315966e-01 -3.339677e-01 -2.845570e-01 -2.177148e-01 -1.744903e-01 -1.663765e-01 -1.511751e-01 -1.049948e-01 -3.607481e-02 -5.482965e-06
<VARIANCE> 25
 9.096886e+00 6.050721e+00 8.181813e+00 1.136862e+01 1.148752e+01 1.597903e+01 1.526955e+01 1.644446e+01 1.478159e+01 1.454957e+01 1.678096e+01 1.344367e+01 8.276877e-02 1.533353e-01 2.644384e-01 3.804376e-01 4.976655e-01 6.420501e-01 7.790380e-01 8.870186e-01 9.164743e-01 8.763584e-01 8.927697e-01 9.181288e-01 1.005609e-06
<GCONST> 5.361401e+01
<MIXTURE> 94 6.122769e-03
<MEAN> 25
 -6.827233e+00 -9.577583e-01 -2.402285e+00 5.799637e+00 5.908411e+00 3.921451e+00 6.123694e+00 3.607075e+00 4.115883e+00 2.506802e+00 1.817554e+00 3.706356e+00 -6.182021e-02 -1.542617e-01 -2.579872e-01 -3.315966e-01 -3.339677e-01 -2.845570e-01 -2.177148e-01 -1.744903e-01 -1.663765e-01 -1.511751e-01 -1.049948e-01 -3.607481e-02 -5.482965e-06
<VARIANCE> 25
 9.096886e+00 6.050721e+00 8.181813e+00 1.136862e+01 1.148752e+01 1.597903e+01 1.526955e+01 1.644446e+01 1.478159e+01 1.454957e+01 1.678096e+01 1.344367e+01 8.276877e-02 1.533353e-01 2.644384e-01 3.804376e-01 4.976655e-01 6.420501e-01 7.790380e-01 8.870186e-01 9.164743e-01 8.763584e-01 8.927697e-01 9.181288e-01 1.005609e-06
<GCONST> 5.361401e+01
<MIXTURE> 95 5.258835e-03
<MEAN> 25
 -5.406800e+00 -4.480198e-01 -2.452520e+00 4.781276e+00 3.997132e+00 2.870616e+00 4.787360e+00 1.288806e+00 2.260288e+00 1.013979e+00 7.705918e-01 2.440605e+00 1.231271e-01 2.068682e-01 -2.350454e-02 -7.141514e-02 -3.278097e-01 -6.506730e-01 -9.397875e-01 -1.170292e+00 -1.262040e+00 -9.516242e-01 -6.711748e-01 -3.959241e-01 -8.954094e-04
<VARIANCE> 25
 1.286241e+01 7.612199e+00 1.419397e+01 1.262380e+01 1.386900e+01 1.669349e+01 1.960679e+01 1.651052e+01 1.598802e+01 1.493919e+01 1.994740e+01 1.373949e+01 2.104509e-01 3.068222e-01 5.365213e-01 5.721586e-01 7.654707e-01 8.409544e-01 9.204059e-01 9.190648e-01 1.027568e+00 9.959147e-01 1.085145e+00 1.105914e+00 4.318656e-05
<GCONST> 6.365984e+01
<MIXTURE> 96 7.034694e-03
<MEAN> 25
 -5.087321e+00 -4.492666e-01 -2.249746e+00 5.165620e+00 3.866311e+00 1.793898e+00 3.549760e+00 1.800436e+00 2.454968e+00 9.540855e-01 1.143345e+00 2.830194e+00 -2.906227e-02 8.754554e-02 2.134434e-01 4.067130e-01 5.387709e-01 4.991995e-01 2.450643e-01 -1.267125e-01 -4.611705e-01 -6.510044e-01 -6.064610e-01 -3.662780e-01 -1.696519e-05
<VARIANCE> 25
 1.108694e+01 9.735262e+00 1.289705e+01 1.427159e+01 1.501780e+01 1.950308e+01 1.808877e+01 1.928644e+01 1.799411e+01 1.660095e+01 1.975086e+01 1.455279e+01 1.207239e-01 2.181997e-01 3.174184e-01 3.979271e-01 4.941631e-01 6.607596e-01 8.674312e-01 9.950405e-01 9.601957e-01 8.637683e-01 8.901265e-01 9.412840e-01 1.011096e-06
<GCONST> 5.759820e+01
<MIXTURE> 97 7.034694e-03
<MEAN> 25
 -5.087321e+00 -4.492666e-01 -2.249746e+00 5.165620e+00 3.866311e+00 1.793898e+00 3.549760e+00 1.800436e+00 2.454968e+00 9.540855e-01 1.143345e+00 2.830194e+00 -2.906227e-02 8.754554e-02 2.134434e-01 4.067130e-01 5.387709e-01 4.991995e-01 2.450643e-01 -1.267125e-01 -4.611705e-01 -6.510044e-01 -6.064610e-01 -3.662780e-01 -1.696519e-05
<VARIANCE> 25
 1.108694e+01 9.735262e+00 1.289705e+01 1.427159e+01 1.501780e+01 1.950308e+01 1.808877e+01 1.928644e+01 1.799411e+01 1.660095e+01 1.975086e+01 1.455279e+01 1.207239e-01 2.181997e-01 3.174184e-01 3.979271e-01 4.941631e-01 6.607596e-01 8.674312e-01 9.950405e-01 9.601957e-01 8.637683e-01 8.901265e-01 9.412840e-01 1.011096e-06
<GCONST> 5.759820e+01
<MIXTURE> 98 9.917808e-03
<MEAN> 25
 -1.005879e+00 1.811597e+00 -1.729837e+00 4.350408e+00 3.854913e+00 1.669211e+00 3.292711e+00 2.494755e-01 1.845223e+00 4.329459e-01 1.014971e-01 7.680941e-01 -1.853060e+00 -1.095453e+00 -8.414893e-01 4.242336e-01 4.524076e-01 6.078140e-01 1.477923e+00 1.212823e+00 1.430955e+00 9.323545e-01 1.041339e+00 1.041834e+00 -2.842400e-02
<VARIANCE> 25
 1.839067e+01 1.828909e+01 2.967418e+01 2.485917e+01 3.338668e+01 4.357188e+01 3.032862e+01 2.572111e+01 2.694055e+01 2.993916e+01 2.156728e+01 2.111544e+01 1.210495e+00 1.602184e+00 2.031602e+00 2.174606e+00 2.514889e+00 3.373382e+00 3.132725e+00 2.660438e+00 2.383928e+00 3.475018e+00 2.726340e+00 1.894939e+00 2.250067e-03
<GCONST> 8.919085e+01
<MIXTURE> 99 6.696178e-03
<MEAN> 25
 -6.411773e+00 9.716781e+00 6.056096e+00 3.547468e+00 1.040733e+00 -5.153563e+00 -1.442538e+00 -4.212275e+00 -3.243585e+00 -3.784436e+00 -1.697501e+00 3.138169e-01 5.373728e-01 -7.486002e-01 3.268443e-01 -4.070729e-01 -1.174347e+00 -5.204120e-01 -2.471834e-01 -2.341925e-01 -5.695871e-02 -4.252471e-02 2.336398e-01 1.749911e-01 1.163546e-02
<VARIANCE> 25
 3.627288e+01 2.558942e+01 5.604748e+01 3.106511e+01 3.519690e+01 3.571816e+01 2.905848e+01 2.838913e+01 2.724001e+01 2.700105e+01 1.995097e+01 2.809452e+01 2.313028e+00 1.961836e+00 1.538499e+00 1.722788e+00 2.660007e+00 2.098638e+00 1.676230e+00 1.655209e+00 1.565787e+00 1.619936e+00 1.310216e+00 1.242431e+00 1.581594e-03
<GCONST> 8.721980e+01
<MIXTURE> 100 4.498084e-03
<MEAN> 25
 -1.598878e+00 6.344827e+00 1.027700e+01 -7.462759e+00 -1.078206e+01 -5.075294e+00 -4.941668e+00 -9.968847e+00 -4.718240e+00 -8.551691e-01 -2.733300e+00 -2.708267e+00 2.917895e+00 -1.260455e+00 1.299659e+00 -2.185945e+00 -3.419489e+00 -7.841161e-01 -1.218778e+00 -8.197802e-01 -1.475479e+00 3.466953e-01 -1.655620e+00 -2.862392e-01 2.015521e-03
<VARIANCE> 25
 1.362666e+01 2.105913e+01 2.246177e+01 2.642710e+01 2.301848e+01 2.372172e+01 2.911146e+01 2.170685e+01 2.748231e+01 2.265230e+01 2.241141e+01 2.134114e+01 1.799129e+00 3.953767e+00 2.919965e+00 4.286306e+00 4.184435e+00 4.537227e+00 4.015484e+00 4.340374e+00 4.167888e+00 3.896067e+00 3.910382e+00 3.225015e+00 1.674840e-03
<GCONST> 9.256865e+01
<MIXTURE> 101 6.007792e-03
<MEAN> 25
 7.692611e+00 -3.981193e+00 -5.680073e+00 -6.288265e+00 1.225867e-01 -8.190740e-01 -1.134535e+01 -7.660105e-01 1.511171e+00 3.557980e+00 -2.011723e+00 -5.060774e+00 7.021838e-01 8.119556e-01 -1.497349e+00 -1.905477e+00 1.118871e+00 2.535412e+00 5.349230e-01 -1.652350e+00 -8.073668e-01 1.021899e+00 1.276546e+00 -4.016725e-01 -8.521806e-03
<VARIANCE> 25
 8.669445e+00 1.919928e+01 2.637566e+01 3.675805e+01 4.109420e+01 3.274318e+01 3.314155e+01 3.761565e+01 3.061951e+01 4.053624e+01 4.170637e+01 2.319715e+01 3.072703e-01 7.009369e-01 1.213387e+00 1.922220e+00 1.905539e+00 2.132414e+00 2.342672e+00 1.786715e+00 2.223262e+00 2.235751e+00 1.530937e+00 2.376827e+00 3.231188e-04
<GCONST> 8.327261e+01
<MIXTURE> 102 6.007792e-03
<MEAN> 25
 7.692611e+00 -3.981193e+00 -5.680073e+00 -6.288265e+00 1.225867e-01 -8.190740e-01 -1.134535e+01 -7.660105e-01 1.511171e+00 3.557980e+00 -2.011723e+00 -5.060774e+00 7.021838e-01 8.119556e-01 -1.497349e+00 -1.905477e+00 1.118871e+00 2.535412e+00 5.349230e-01 -1.652350e+00 -8.073668e-01 1.021899e+00 1.276546e+00 -4.016725e-01 -8.521806e-03
<VARIANCE> 25
 8.669445e+00 1.919928e+01 2.637566e+01 3.675805e+01 4.109420e+01 3.274318e+01 3.314155e+01 3.761565e+01 3.061951e+01 4.053624e+01 4.170637e+01 2.319715e+01 3.072703e-01 7.009369e-01 1.213387e+00 1.922220e+00 1.905539e+00 2.132414e+00 2.342672e+00 1.786715e+00 2.223262e+00 2.235751e+00 1.530937e+00 2.376827e+00 3.231188e-04
<GCONST> 8.327261e+01
<MIXTURE> 103 5.694618e-03
<MEAN> 25
 3.363506e+00 -9.437989e+00 -6.123463e+00 -3.068513e+00 -1.317004e+00 -1.963493e+00 2.432301e+00 2.494030e+00 -4.610820e+00 -9.254456e+00 -5.056144e+00 3.538981e-01 -1.601012e-01 -1.484987e+00 -9.807522e-01 3.741617e-01 1.210194e+00 1.018430e+00 1.614286e-01 -2.662320e-01 -7.786987e-01 -9.408499e-01 -3.615855e-02 1.205742e-01 2.683704e-02
<VARIANCE> 25
 1.030833e+01 2.073946e+01 2.287009e+01 3.169876e+01 4.800500e+01 3.494366e+01 4.636109e+01 3.672421e+01 4.199432e+01 2.926984e+01 2.997961e+01 2.634203e+01 6.450117e-01 1.253367e+00 1.533988e+00 1.935151e+00 2.922008e+00 2.406336e+00 2.903518e+00 2.569463e+00 2.560244e+00 2.526253e+00 2.093487e+00 2.010572e+00 8.131409e-04
<GCONST> 8.757362e+01
<MIXTURE> 104 5.694618e-03
<MEAN> 25
 3.363506e+00 -9.437989e+00 -6.123463e+00 -3.068513e+00 -1.317004e+00 -1.963493e+00 2.432301e+00 2.494030e+00 -4.610820e+00 -9.254456e+00 -5.056144e+00 3.538981e-01 -1.601012e-01 -1.484987e+00 -9.807522e-01 3.741617e-01 1.210194e+00 1.018430e+00 1.614286e-01 -2.662320e-01 -7.786987e-01 -9.408499e-01 -3.615855e-02 1.205742e-01 2.683704e-02
<VARIANCE> 25
 1.030833e+01 2.073946e+01 2.287009e+01 3.169876e+01 4.800500e+01 3.494366e+01 4.636109e+01 3.672421e+01 4.199432e+01 2.926984e+01 2.997961e+01 2.634203e+01 6.450117e-01 1.253367e+00 1.533988e+00 1.935151e+00 2.922008e+00 2.406336e+00 2.903518e+00 2.569463e+00 2.560244e+00 2.526253e+00 2.093487e+00 2.010572e+00 8.131409e-04
<GCONST> 8.757362e+01
<MIXTURE> 105 4.710235e-03
<MEAN> 25
 2.211761e+00 -1.485268e+00 9.232390e+00 -2.701591e+00 -1.152534e+01 -4.944629e+00 -4.168096e+00 -8.008889e-01 -3.771107e+00 -3.191788e+00 1.503213e+00 -1.184641e+00 9.489837e-03 3.371650e-02 4.671808e-02 -4.438858e-02 3.795331e-03 4.964976e-02 -1.225625e-02 4.695141e-02 -4.237484e-02 2.863966e-02 3.292161e-02 -2.104722e-02 -2.209900e-03
<VARIANCE> 25
 1.332304e+01 2.847322e+01 4.093249e+01 4.464954e+01 3.851867e+01 5.429569e+01 4.117283e+01 4.319755e+01 3.993757e+01 4.187216e+01 4.171147e+01 3.076847e+01 8.346885e-02 1.876808e-01 3.460980e-01 2.906140e-01 3.718456e-01 4.299806e-01 4.730642e-01 4.921654e-01 4.971368e-01 4.395311e-01 4.280403e-01 4.065922e-01 8.927518e-05
<GCONST> 6.676746e+01
<MIXTURE> 106 4.710235e-03
<MEAN> 25
 2.211761e+00 -1.485268e+00 9.232390e+00 -2.701591e+00 -1.152534e+01 -4.944629e+00 -4.168096e+00 -8.008889e-01 -3.771107e+00 -3.191788e+00 1.503213e+00 -1.184641e+00 9.489837e-03 3.371650e-02 4.671808e-02 -4.438858e-02 3.795331e-03 4.964976e-02 -1.225625e-02 4.695141e-02 -4.237484e-02 2.863966e-02 3.292161e-02 -2.104722e-02 -2.209900e-03
<VARIANCE> 25
 1.332304e+01 2.847322e+01 4.093249e+01 4.464954e+01 3.851867e+01 5.429569e+01 4.117283e+01 4.319755e+01 3.993757e+01 4.187216e+01 4.171147e+01 3.076847e+01 8.346885e-02 1.876808e-01 3.460980e-01 2.906140e-01 3.718456e-01 4.299806e-01 4.730642e-01 4.921654e-01 4.971368e-01 4.395311e-01 4.280403e-01 4.065922e-01 8.927518e-05
<GCONST> 6.676746e+01
<MIXTURE> 107 5.452374e-03
<MEAN> 25
 8.626432e+00 -2.294588e+00 -8.003125e+00 -9.523664e+00 1.965123e+00 2.969116e+00 -8.595283e+00 -4.517559e+00 -8.761757e-01 3.383696e+00 8.613635e-01 -5.065713e+00 -6.085824e-01 -7.614041e-01 8.260269e-01 1.780341e+00 2.333712e-01 -2.009123e+00 -9.090287e-01 8.402691e-01 1.767750e+00 4.608752e-02 -1.656663e+00 -8.129150e-01 -2.191418e-03
<VARIANCE> 25
 9.227313e+00 2.051917e+01 2.843588e+01 4.298540e+01 3.556597e+01 3.841249e+01 5.141821e+01 3.631247e+01 4.561083e+01 4.157283e+01 5.122696e+01 3.026588e+01 3.573805e-01 9.791063e-01 1.473502e+00 2.414685e+00 2.294617e+00 2.813339e+00 2.639596e+00 2.547528e+00 2.287119e+00 3.017176e+00 1.938725e+00 2.208004e+00 7.243295e-04
<GCONST> 8.809008e+01
<MIXTURE> 108 5.452374e-03
<MEAN> 25
 8.626432e+00 -2.294588e+00 -8.003125e+00 -9.523664e+00 1.965123e+00 2.969116e+00 -8.595283e+00 -4.517559e+00 -8.761757e-01 3.383696e+00 8.613635e-01 -5.065713e+00 -6.085824e-01 -7.614041e-01 8.260269e-01 1.780341e+00 2.333712e-01 -2.009123e+00 -9.090287e-01 8.402691e-01 1.767750e+00 4.608752e-02 -1.656663e+00 -8.129150e-01 -2.191418e-03
<VARIANCE> 25
 9.227313e+00 2.051917e+01 2.843588e+01 4.298540e+01 3.556597e+01 3.841249e+01 5.141821e+01 3.631247e+01 4.561083e+01 4.157283e+01 5.122696e+01 3.026588e+01 3.573805e-01 9.791063e-01 1.473502e+00 2.414685e+00 2.294617e+00 2.813339e+00 2.639596e+00 2.547528e+00 2.287119e+00 3.017176e+00 1.938725e+00 2.208004e+00 7.243295e-04
<GCONST> 8.809008e+01
<MIXTURE> 109 6.661064e-03
<MEAN> 25
 4.049781e+00 -1.028023e+01 -8.093752e+00 -1.263034e+00 2.669064e+00 -4.374200e-03 1.637928e-02 1.347530e+00 -2.537625e+00 -8.290911e+00 -5.307725e+00 -5.116468e-02 -3.646719e-02 -1.303062e-01 -6.607602e-02 2.517345e-01 2.091008e-01 1.090407e-01 -8.726800e-02 -8.338601e-02 -3.334928e-02 -1.268356e-01 2.078315e-01 8.444191e-03 -3.828932e-03
<VARIANCE> 25
 8.887377e+00 2.066836e+01 2.123795e+01 3.071480e+01 4.000053e+01 3.576418e+01 4.609549e+01 3.370520e+01 4.535157e+01 3.570567e+01 2.904576e+01 2.852098e+01 1.927290e-01 4.112446e-01 5.700403e-01 6.279159e-01 1.210599e+00 9.878357e-01 1.305148e+00 1.081790e+00 1.098098e+00 9.276523e-01 8.691022e-01 8.630117e-01 1.796132e-04
<GCONST> 7.443172e+01
<MIXTURE> 110 6.661064e-03
<MEAN> 25
 4.049781e+00 -1.028023e+01 -8.093752e+00 -1.263034e+00 2.669064e+00 -4.374200e-03 1.637928e-02 1.347530e+00 -2.537625e+00 -8.290911e+00 -5.307725e+00 -5.116468e-02 -3.646719e-02 -1.303062e-01 -6.607602e-02 2.517345e-01 2.091008e-01 1.090407e-01 -8.726800e-02 -8.338601e-02 -3.334928e-02 -1.268356e-01 2.078315e-01 8.444191e-03 -3.828932e-03
<VARIANCE> 25
 8.887377e+00 2.066836e+01 2.123795e+01 3.071480e+01 4.000053e+01 3.576418e+01 4.609549e+01 3.370520e+01 4.535157e+01 3.570567e+01 2.904576e+01 2.852098e+01 1.927290e-01 4.112446e-01 5.700403e-01 6.279159e-01 1.210599e+00 9.878357e-01 1.305148e+00 1.081790e+00 1.098098e+00 9.276523e-01 8.691022e-01 8.630117e-01 1.796132e-04
<GCONST> 7.443172e+01
<MIXTURE> 111 4.337247e-03
<MEAN> 25
 -4.288577e+00 -9.037397e-01 -1.769147e+00 1.716116e+00 8.903577e-01 1.056126e+00 5.257250e-01 1.022233e-01 2.584191e-01 -4.394120e-01 -6.700382e-01 1.911819e+00 -1.902073e-02 -2.230172e-02 -1.044024e-01 -6.024972e-02 -1.963883e-02 3.126230e-03 9.761123e-03 -5.935354e-02 -1.753464e-01 -2.102434e-01 -1.852675e-01 -9.154994e-02 -4.057919e-04
<VARIANCE> 25
 8.044466e+00 4.890658e+00 1.011352e+01 9.273546e+00 1.301875e+01 2.350366e+01 1.595581e+01 1.328342e+01 1.260260e+01 1.203084e+01 1.346901e+01 1.143748e+01 7.847926e-02 1.652158e-01 3.104160e-01 4.165288e-01 5.661293e-01 6.885193e-01 7.888596e-01 8.392428e-01 9.244319e-01 8.402989e-01 8.532591e-01 8.418770e-01 2.327782e-05
<GCONST> 5.630179e+01
<MIXTURE> 112 4.337247e-03
<MEAN> 25
 -4.288577e+00 -9.037397e-01 -1.769147e+00 1.716116e+00 8.903577e-01 1.056126e+00 5.257250e-01 1.022233e-01 2.584191e-01 -4.394120e-01 -6.700382e-01 1.911819e+00 -1.902073e-02 -2.230172e-02 -1.044024e-01 -6.024972e-02 -1.963883e-02 3.126230e-03 9.761123e-03 -5.935354e-02 -1.753464e-01 -2.102434e-01 -1.852675e-01 -9.154994e-02 -4.057919e-04
<VARIANCE> 25
 8.044466e+00 4.890658e+00 1.011352e+01 9.273546e+00 1.301875e+01 2.350366e+01 1.595581e+01 1.328342e+01 1.260260e+01 1.203084e+01 1.346901e+01 1.143748e+01 7.847926e-02 1.652158e-01 3.104160e-01 4.165288e-01 5.661293e-01 6.885193e-01 7.888596e-01 8.392428e-01 9.244319e-01 8.402989e-01 8.532591e-01 8.418770e-01 2.327782e-05
<GCONST> 5.630179e+01
<MIXTURE> 113 5.938666e-03
<MEAN> 25
 9.962287e+00 1.681113e+00 -8.721007e+00 -1.701998e+01 -1.062779e+00 5.748082e+00 -5.287708e+00 -1.415828e+00 -5.711316e+00 -4.705698e-01 4.070236e-01 -2.052846e-01 3.772556e-03 1.989497e-02 -4.018156e-02 -1.186746e-01 1.126118e-01 1.590780e-01 5.148653e-02 5.225102e-02 -6.047585e-02 -3.223142e-02 1.913414e-01 3.197940e-02 -1.624327e-03
<VARIANCE> 25
 8.791654e+00 1.669965e+01 2.963965e+01 3.387090e+01 5.219982e+01 3.413163e+01 3.926448e+01 3.890916e+01 3.703920e+01 4.592563e+01 3.689143e+01 2.813478e+01 1.206061e-01 3.201689e-01 3.441448e-01 6.265697e-01 6.130928e-01 6.556128e-01 7.766770e-01 8.579360e-01 9.505451e-01 9.400644e-01 7.288566e-01 7.066633e-01 1.273389e-04
<GCONST> 7.119825e+01
<MIXTURE> 114 5.938666e-03
<MEAN> 25
 9.962287e+00 1.681113e+00 -8.721007e+00 -1.701998e+01 -1.062779e+00 5.748082e+00 -5.287708e+00 -1.415828e+00 -5.711316e+00 -4.705698e-01 4.070236e-01 -2.052846e-01 3.772556e-03 1.989497e-02 -4.018156e-02 -1.186746e-01 1.126118e-01 1.590780e-01 5.148653e-02 5.225102e-02 -6.047585e-02 -3.223142e-02 1.913414e-01 3.197940e-02 -1.624327e-03
<VARIANCE> 25
 8.791654e+00 1.669965e+01 2.963965e+01 3.387090e+01 5.219982e+01 3.413163e+01 3.926448e+01 3.890916e+01 3.703920e+01 4.592563e+01 3.689143e+01 2.813478e+01 1.206061e-01 3.201689e-01 3.441448e-01 6.265697e-01 6.130928e-01 6.556128e-01 7.766770e-01 8.579360e-01 9.505451e-01 9.400644e-01 7.288566e-01 7.066633e-01 1.273389e-04
<GCONST> 7.119825e+01
<MIXTURE> 115 2.935202e-03
<MEAN> 25
 -4.038004e+00 -7.438397e-01 -3.107685e+00 3.663297e+00 2.417898e+00 -4.258284e-01 2.240333e+00 4.115180e-01 1.382297e+00 -2.299622e-02 4.041348e-02 2.689799e+00 3.107972e-02 -7.188828e-02 -2.322898e-01 -4.382316e-01 -6.335728e-01 -6.701005e-01 -5.915321e-01 -5.096465e-01 -4.853995e-01 -4.575973e-01 -3.448704e-01 -1.660879e-01 -7.328254e-06
<VARIANCE> 25
 9.304836e+00 9.932825e+00 1.351763e+01 1.272358e+01 1.348932e+01 1.754406e+01 1.708728e+01 2.078387e+01 1.794464e+01 1.720574e+01 1.917273e+01 1.465596e+01 2.038298e-01 3.452920e-01 4.871374e-01 5.612268e-01 6.335725e-01 7.970927e-01 1.007182e+00 1.129552e+00 1.075335e+00 9.940876e-01 1.025879e+00 1.064881e+00 1.014290e-06
<GCONST> 6.017970e+01
<MIXTURE> 116 2.935202e-03
<MEAN> 25
 -4.038004e+00 -7.438397e-01 -3.107685e+00 3.663297e+00 2.417898e+00 -4.258284e-01 2.240333e+00 4.115180e-01 1.382297e+00 -2.299622e-02 4.041348e-02 2.689799e+00 3.107972e-02 -7.188828e-02 -2.322898e-01 -4.382316e-01 -6.335728e-01 -6.701005e-01 -5.915321e-01 -5.096465e-01 -4.853995e-01 -4.575973e-01 -3.448704e-01 -1.660879e-01 -7.328254e-06
<VARIANCE> 25
 9.304836e+00 9.932825e+00 1.351763e+01 1.272358e+01 1.348932e+01 1.754406e+01 1.708728e+01 2.078387e+01 1.794464e+01 1.720574e+01 1.917273e+01 1.465596e+01 2.038298e-01 3.452920e-01 4.871374e-01 5.612268e-01 6.335725e-01 7.970927e-01 1.007182e+00 1.129552e+00 1.075335e+00 9.940876e-01 1.025879e+00 1.064881e+00 1.014290e-06
<GCONST> 6.017970e+01
<MIXTURE> 117 6.506003e-03
<MEAN> 25
 -4.644783e+00 1.117976e+00 1.054386e+00 9.758427e+00 6.260121e+00 6.256299e+00 6.463081e+00 5.044307e+00 6.385320e+00 4.928900e+00 6.366999e+00 2.710003e+00 -7.504369e-02 -2.341213e-01 -3.583894e-01 -4.199502e-01 -3.675344e-01 -3.027255e-01 -2.873195e-01 -3.314705e-01 -3.917526e-01 -3.690064e-01 -2.631476e-01 -1.160162e-01 -9.175659e-06
<VARIANCE> 25
 7.188109e+00 8.753802e+00 9.809477e+00 1.430776e+01 1.561729e+01 1.534977e+01 1.772578e+01 1.796154e+01 1.640579e+01 1.637319e+01 1.674150e+01 1.475299e+01 2.166069e-01 3.074984e-01 4.261734e-01 6.171004e-01 8.536474e-01 1.055330e+00 1.177524e+00 1.232873e+00 1.223963e+00 1.194847e+00 1.167220e+00 1.113688e+00 1.000415e-06
<GCONST> 6.042944e+01
<MIXTURE> 118 6.506003e-03
<MEAN> 25
 -4.644783e+00 1.117976e+00 1.054386e+00 9.758427e+00 6.260121e+00 6.256299e+00 6.463081e+00 5.044307e+00 6.385320e+00 4.928900e+00 6.366999e+00 2.710003e+00 -7.504369e-02 -2.341213e-01 -3.583894e-01 -4.199502e-01 -3.675344e-01 -3.027255e-01 -2.873195e-01 -3.314705e-01 -3.917526e-01 -3.690064e-01 -2.631476e-01 -1.160162e-01 -9.175659e-06
<VARIANCE> 25
 7.188109e+00 8.753802e+00 9.809477e+00 1.430776e+01 1.561729e+01 1.534977e+01 1.772578e+01 1.796154e+01 1.640579e+01 1.637319e+01 1.674150e+01 1.475299e+01 2.166069e-01 3.074984e-01 4.261734e-01 6.171004e-01 8.536474e-01 1.055330e+00 1.177524e+00 1.232873e+00 1.223963e+00 1.194847e+00 1.167220e+00 1.113688e+00 1.000415e-06
<GCONST> 6.042944e+01
<MIXTURE> 119 4.297961e-03
<MEAN> 25
 -4.964784e+00 -7.627775e+00 2.226649e+00 2.015642e+00 2.232303e+00 2.137629e-01 5.276564e+00 5.925838e+00 1.176131e+00 9.687311e-01 6.603654e+00 1.567543e+00 -4.901015e-02 -7.868768e-02 3.499698e-02 -5.767481e-02 -1.241255e-01 -1.797525e-01 -6.915586e-02 -1.472103e-02 -9.177104e-02 -1.126175e-01 -5.715952e-02 -6.022220e-02 1.084664e-03
<VARIANCE> 25
 8.559977e+00 9.833677e+00 1.656738e+01 2.015208e+01 2.287236e+01 2.319011e+01 2.497795e+01 2.656148e+01 2.506244e+01 2.803011e+01 2.043280e+01 2.040406e+01 1.608543e-01 2.824054e-01 4.626284e-01 6.328176e-01 8.047429e-01 1.002847e+00 1.098675e+00 1.277669e+00 1.284535e+00 1.244130e+00 1.194122e+00 1.114093e+00 2.317457e-04
<GCONST> 6.973833e+01
<MIXTURE> 120 4.297961e-03
<MEAN> 25
 -4.964784e+00 -7.627775e+00 2.226649e+00 2.015642e+00 2.232303e+00 2.137629e-01 5.276564e+00 5.925838e+00 1.176131e+00 9.687311e-01 6.603654e+00 1.567543e+00 -4.901015e-02 -7.868768e-02 3.499698e-02 -5.767481e-02 -1.241255e-01 -1.797525e-01 -6.915586e-02 -1.472103e-02 -9.177104e-02 -1.126175e-01 -5.715952e-02 -6.022220e-02 1.084664e-03
<VARIANCE> 25
 8.559977e+00 9.833677e+00 1.656738e+01 2.015208e+01 2.287236e+01 2.319011e+01 2.497795e+01 2.656148e+01 2.506244e+01 2.803011e+01 2.043280e+01 2.040406e+01 1.608543e-01 2.824054e-01 4.626284e-01 6.328176e-01 8.047429e-01 1.002847e+00 1.098675e+00 1.277669e+00 1.284535e+00 1.244130e+00 1.194122e+00 1.114093e+00 2.317457e-04
<GCONST> 6.973833e+01
<MIXTURE> 121 4.567511e-03
<MEAN> 25
 1.856200e-01 -2.533485e+00 5.284022e+00 -1.282685e+01 -1.233772e+01 -1.444924e+00 8.671167e-01 -5.089241e+00 -3.980050e+00 -5.258468e-01 -5.504814e+00 -4.451780e+00 1.769555e-02 1.518800e-01 -3.174137e-02 1.005354e-01 1.568032e-01 7.777034e-02 -1.004873e-01 -1.941076e-01 -2.820722e-01 -2.449312e-01 -7.278220e-02 2.482739e-02 -7.329636e-03
<VARIANCE> 25
 7.595032e+00 1.529931e+01 1.769621e+01 2.021913e+01 2.816979e+01 3.081020e+01 2.970630e+01 2.407689e+01 3.670898e+01 2.780654e+01 1.938906e+01 2.164661e+01 1.538224e-01 6.506666e-01 6.158369e-01 7.151129e-01 7.546307e-01 1.127853e+00 1.115258e+00 1.103144e+00 1.200743e+00 1.175140e+00 1.002659e+00 8.800968e-01 2.079124e-04
<GCONST> 7.155387e+01
<MIXTURE> 122 4.567511e-03
<MEAN> 25
 1.856200e-01 -2.533485e+00 5.284022e+00 -1.282685e+01 -1.233772e+01 -1.444924e+00 8.671167e-01 -5.089241e+00 -3.980050e+00 -5.258468e-01 -5.504814e+00 -4.451780e+00 1.769555e-02 1.518800e-01 -3.174137e-02 1.005354e-01 1.568032e-01 7.777034e-02 -1.004873e-01 -1.941076e-01 -2.820722e-01 -2.449312e-01 -7.278220e-02 2.482739e-02 -7.329636e-03
<VARIANCE> 25
 7.595032e+00 1.529931e+01 1.769621e+01 2.021913e+01 2.816979e+01 3.081020e+01 2.970630e+01 2.407689e+01 3.670898e+01 2.780654e+01 1.938906e+01 2.164661e+01 1.538224e-01 6.506666e-01 6.158369e-01 7.151129e-01 7.546307e-01 1.127853e+00 1.115258e+00 1.103144e+00 1.200743e+00 1.175140e+00 1.002659e+00 8.800968e-01 2.079124e-04
<GCONST> 7.155387e+01
<MIXTURE> 123 4.393044e-03
<MEAN> 25
 -3.402884e+00 1.226480e+00 -1.724809e-01 5.786532e+00 4.989055e+00 3.750181e+00 3.434123e+00 -2.446759e-01 2.767366e-01 -1.236105e+00 -6.367928e-01 5.230401e-01 -4.938906e-01 -7.595224e-01 -9.608406e-01 -4.879674e-01 -2.153565e-01 7.405276e-02 5.029658e-01 6.074093e-01 6.586020e-01 6.775788e-01 4.980262e-01 4.546809e-01 -3.201019e-03
<VARIANCE> 25
 1.406531e+01 9.786664e+00 1.563772e+01 1.583188e+01 2.027721e+01 2.434749e+01 2.092613e+01 1.893676e+01 1.826278e+01 2.031071e+01 2.360677e+01 1.839460e+01 3.490249e-01 3.703147e-01 4.939032e-01 7.076353e-01 9.180168e-01 9.915028e-01 1.123919e+00 1.043274e+00 1.120229e+00 1.092936e+00 1.415952e+00 1.090551e+00 1.460390e-04
<GCONST> 6.933011e+01
<MIXTURE> 124 4.069876e-03
<MEAN> 25
 -6.220597e+00 -9.548575e-01 -3.271085e+00 5.191186e+00 4.903434e+00 3.154003e+00 5.817971e+00 2.182498e+00 3.101340e+00 1.378385e+00 1.083769e+00 2.984363e+00 -2.028932e-01 -2.985564e-01 -4.042535e-01 -1.441845e-01 1.936467e-01 5.132461e-01 8.235146e-01 8.727346e-01 6.468595e-01 2.857969e-01 5.270467e-02 -3.914110e-02 -3.963843e-04
<VARIANCE> 25
 1.452580e+01 7.739731e+00 1.181381e+01 1.231379e+01 1.393694e+01 1.974129e+01 1.614504e+01 1.743816e+01 1.474275e+01 1.497384e+01 1.778428e+01 1.346740e+01 1.008733e-01 1.598385e-01 3.088549e-01 4.340194e-01 5.962178e-01 8.346733e-01 7.021589e-01 7.747229e-01 1.028977e+00 1.019544e+00 9.592062e-01 9.966386e-01 1.893713e-05
<GCONST> 5.946717e+01
<MIXTURE> 125 4.069876e-03
<MEAN> 25
 -6.220597e+00 -9.548575e-01 -3.271085e+00 5.191186e+00 4.903434e+00 3.154003e+00 5.817971e+00 2.182498e+00 3.101340e+00 1.378385e+00 1.083769e+00 2.984363e+00 -2.028932e-01 -2.985564e-01 -4.042535e-01 -1.441845e-01 1.936467e-01 5.132461e-01 8.235146e-01 8.727346e-01 6.468595e-01 2.857969e-01 5.270467e-02 -3.914110e-02 -3.963843e-04
<VARIANCE> 25
 1.452580e+01 7.739731e+00 1.181381e+01 1.231379e+01 1.393694e+01 1.974129e+01 1.614504e+01 1.743816e+01 1.474275e+01 1.497384e+01 1.778428e+01 1.346740e+01 1.008733e-01 1.598385e-01 3.088549e-01 4.340194e-01 5.962178e-01 8.346733e-01 7.021589e-01 7.747229e-01 1.028977e+00 1.019544e+00 9.592062e-01 9.966386e-01 1.893713e-05
<GCONST> 5.946717e+01
<MIXTURE> 126 2.402244e-03
<MEAN> 25
 -3.766054e+00 -6.914505e+00 -5.280239e+00 2.323182e+00 4.257636e+00 -3.213412e+00 1.089591e-01 3.532329e+00 3.354991e+00 -2.675453e+00 -1.427270e+00 3.051133e+00 -2.686360e-03 -3.486600e-03 -4.072499e-02 -1.583798e-01 -3.147684e-01 -3.883350e-01 -2.709103e-01 -1.580243e-01 -1.172360e-01 -1.159956e-01 -1.027520e-01 -3.439013e-02 -1.528481e-03
<VARIANCE> 25
 7.517386e+00 1.269240e+01 1.382135e+01 1.506978e+01 2.466800e+01 2.376370e+01 2.300018e+01 2.841920e+01 3.123255e+01 2.627244e+01 2.167974e+01 1.911807e+01 1.715343e-01 3.532802e-01 4.875527e-01 5.652820e-01 7.543224e-01 9.918115e-01 1.119880e+00 1.258423e+00 1.333217e+00 1.305465e+00 1.215083e+00 1.147889e+00 2.105611e-04
<GCONST> 6.981911e+01
<MIXTURE> 127 2.402244e-03
<MEAN> 25
 -3.766054e+00 -6.914505e+00 -5.280239e+00 2.323182e+00 4.257636e+00 -3.213412e+00 1.089591e-01 3.532329e+00 3.354991e+00 -2.675453e+00 -1.427270e+00 3.051133e+00 -2.686360e-03 -3.486600e-03 -4.072499e-02 -1.583798e-01 -3.147684e-01 -3.883350e-01 -2.709103e-01 -1.580243e-01 -1.172360e-01 -1.159956e-01 -1.027520e-01 -3.439013e-02 -1.528481e-03
<VARIANCE> 25
 7.517386e+00 1.269240e+01 1.382135e+01 1.506978e+01 2.466800e+01 2.376370e+01 2.300018e+01 2.841920e+01 3.123255e+01 2.627244e+01 2.167974e+01 1.911807e+01 1.715343e-01 3.532802e-01 4.875527e-01 5.652820e-01 7.543224e-01 9.918115e-01 1.119880e+00 1.258423e+00 1.333217e+00 1.305465e+00 1.215083e+00 1.147889e+00 2.105611e-04
<GCONST> 6.981911e+01
<MIXTURE> 128 3.790457e-03
<MEAN> 25
 -3.913839e+00 1.538250e+00 -3.556500e-01 6.570301e+00 3.619874e+00 1.867710e+00 3.588649e+00 2.360472e+00 3.965669e+00 3.693565e+00 3.757181e+00 3.511841e+00 -4.012472e-01 -1.994783e-01 9.754922e-02 7.273094e-01 1.186621e+00 1.128440e+00 7.174146e-01 1.343990e-01 -4.392084e-01 -7.930353e-01 -7.031998e-01 -3.860922e-01 -3.682196e-05
<VARIANCE> 25
 1.035340e+01 1.168261e+01 1.507419e+01 1.928493e+01 2.000377e+01 2.117422e+01 2.430671e+01 2.467491e+01 2.636286e+01 2.384591e+01 2.683133e+01 1.825533e+01 9.052329e-01 1.146727e+00 1.363675e+00 1.499688e+00 1.579277e+00 1.883768e+00 2.244526e+00 2.325974e+00 2.143871e+00 1.866173e+00 1.741506e+00 1.773632e+00 9.988858e-07
<GCONST> 7.369081e+01
<TRANSP> 3
 0.000000e+00 1.000000e+00 0.000000e+00
 0.000000e+00 9.999990e-01 9.999998e-07
 0.000000e+00 0.000000e+00 0.000000e+00
<ENDHMM>
