~o
<STREAMINFO> 1 25
<VECSIZE> 25<NULLD><MFCC_E_D_N><DIAGC>
~h "jmodel"
<BEGINHMM>
<NUMSTATES> 3
<STATE> 2
<NUMMIXES> 128
<MIXTURE> 1 5.748963e-03
<MEAN> 25
 -2.563386e+00 3.176294e+00 2.304630e+00 8.743585e+00 4.363120e+00 3.428605e+00 4.062388e+00 3.913922e+00 5.820506e+00 5.250626e+00 5.859966e+00 3.081868e+00 -2.003260e+00 -1.627004e+00 -8.631666e-01 1.073953e+00 1.555992e+00 2.222778e+00 2.145320e+00 2.080764e+00 1.686188e+00 1.261426e+00 1.566712e+00 6.203407e-01 -4.673142e-02
<VARIANCE> 25
 1.015465e+01 1.172413e+01 1.493473e+01 1.866783e+01 2.313410e+01 2.221871e+01 2.188873e+01 2.202346e+01 2.095276e+01 2.250955e+01 2.101814e+01 1.703124e+01 1.793150e+00 2.119742e+00 3.018070e+00 3.203043e+00 3.733923e+00 3.398071e+00 3.335391e+00 3.377534e+00 3.519808e+00 3.729767e+00 3.513023e+00 2.848581e+00 3.125156e-03
<GCONST> 8.849014e+01
<MIXTURE> 2 4.549242e-03
<MEAN> 25
 -4.875671e+00 1.311720e+00 9.943511e-01 9.899809e+00 6.692275e+00 7.424650e+00 7.847087e+00 6.958091e+00 8.373269e+00 6.373019e+00 7.624402e+00 3.074697e+00 -6.200235e-02 4.161923e-02 1.425301e-01 2.258583e-01 2.652900e-01 2.813653e-01 2.954302e-01 3.195550e-01 3.497573e-01 3.089160e-01 1.971766e-01 8.006547e-02 1.228299e-06
<VARIANCE> 25
 6.952293e+00 8.901894e+00 1.065126e+01 1.591096e+01 1.723581e+01 1.556308e+01 1.689898e+01 1.848562e+01 1.658668e+01 1.738619e+01 1.811029e+01 1.434002e+01 1.252503e-01 2.266278e-01 3.364712e-01 4.671271e-01 6.492781e-01 8.148874e-01 9.298787e-01 1.003176e+00 1.051662e+00 1.077774e+00 1.075658e+00 1.013934e+00 1.000000e-06
<GCONST> 5.804302e+01
<MIXTURE> 3 4.549242e-03
<MEAN> 25
 -4.875671e+00 1.311720e+00 9.943511e-01 9.899809e+00 6.692275e+00 7.424650e+00 7.847087e+00 6.958091e+00 8.373269e+00 6.373019e+00 7.624402e+00 3.074697e+00 -6.200235e-02 4.161923e-02 1.425301e-01 2.258583e-01 2.652900e-01 2.813653e-01 2.954302e-01 3.195550e-01 3.497573e-01 3.089160e-01 1.971766e-01 8.006547e-02 1.228299e-06
<VARIANCE> 25
 6.952293e+00 8.901894e+00 1.065126e+01 1.591096e+01 1.723581e+01 1.556308e+01 1.689898e+01 1.848562e+01 1.658668e+01 1.738619e+01 1.811029e+01 1.434002e+01 1.252503e-01 2.266278e-01 3.364712e-01 4.671271e-01 6.492781e-01 8.148874e-01 9.298787e-01 1.003176e+00 1.051662e+00 1.077774e+00 1.075658e+00 1.013934e+00 1.000000e-06
<GCONST> 5.804302e+01
<MIXTURE> 4 1.671429e-02
<MEAN> 25
 3.326100e+00 2.446216e+00 -3.685445e+00 9.639089e-01 4.142980e+00 -2.169487e-01 1.639948e-01 -2.956396e-01 1.498524e+00 1.299734e+00 -1.913648e+00 2.359339e-01 -2.776558e+00 1.226827e+00 1.743769e+00 2.953633e+00 9.328440e-01 4.868542e-01 1.378706e+00 1.001485e+00 9.770459e-01 3.749299e-01 1.183868e+00 9.694207e-01 -9.891167e-02
<VARIANCE> 25
 2.098129e+01 2.845997e+01 2.831359e+01 3.976341e+01 4.430612e+01 6.619949e+01 6.282580e+01 5.468075e+01 5.300501e+01 6.064022e+01 4.975610e+01 3.534177e+01 2.419618e+00 4.835938e+00 3.625847e+00 5.210960e+00 4.819152e+00 6.160856e+00 6.347245e+00 5.517694e+00 5.727129e+00 6.213540e+00 6.044078e+00 4.448640e+00 6.417174e-03
<GCONST> 1.051987e+02
<MIXTURE> 5 3.206198e-03
<MEAN> 25
 -3.412148e+00 2.185628e+00 6.104689e-01 9.420794e+00 6.683473e+00 6.308627e+00 7.106985e+00 4.713931e+00 5.491231e+00 3.848172e+00 4.654155e+00 2.609689e+00 -3.259752e-01 7.519761e-01 1.223101e+00 1.031849e+00 3.091628e-01 -1.008631e-01 -8.506338e-02 3.443200e-02 4.570219e-01 6.859876e-01 4.036808e-01 8.941202e-02 -2.608552e-05
<VARIANCE> 25
 1.026253e+01 1.394571e+01 2.346223e+01 2.564919e+01 2.037165e+01 1.945727e+01 2.012007e+01 2.042455e+01 2.141730e+01 2.126200e+01 2.409126e+01 1.635137e+01 1.210421e+00 1.243836e+00 1.358488e+00 1.672356e+00 2.284425e+00 2.374394e+00 2.300582e+00 2.273642e+00 2.313996e+00 2.240478e+00 2.083385e+00 1.873699e+00 1.001467e-06
<GCONST> 7.517731e+01
<MIXTURE> 6 5.475854e-03
<MEAN> 25
 9.642754e+00 -4.098267e-01 -6.646124e+00 -1.102098e+01 -2.152654e+00 6.686805e+00 -5.882843e+00 -5.273659e+00 -3.666053e+00 1.871287e+00 4.649665e+00 -1.226116e+00 4.798349e-01 8.970900e-01 -3.542335e-01 -1.464563e+00 -6.304483e-01 1.305481e+00 1.529086e+00 2.517914e-01 -1.212872e+00 -1.220839e+00 3.269990e-01 1.223226e+00 -8.188743e-03
<VARIANCE> 25
 9.367749e+00 1.704967e+01 2.410748e+01 3.900133e+01 3.672155e+01 3.091204e+01 4.379757e+01 3.799180e+01 4.052347e+01 3.952787e+01 4.184554e+01 2.843412e+01 3.162067e-01 8.662568e-01 9.473660e-01 1.972800e+00 1.603771e+00 2.016207e+00 1.916257e+00 2.056072e+00 2.391935e+00 1.957786e+00 2.234740e+00 1.445219e+00 5.877489e-04
<GCONST> 8.393066e+01
<MIXTURE> 7 5.475854e-03
<MEAN> 25
 9.642754e+00 -4.098267e-01 -6.646124e+00 -1.102098e+01 -2.152654e+00 6.686805e+00 -5.882843e+00 -5.273659e+00 -3.666053e+00 1.871287e+00 4.649665e+00 -1.226116e+00 4.798349e-01 8.970900e-01 -3.542335e-01 -1.464563e+00 -6.304483e-01 1.305481e+00 1.529086e+00 2.517914e-01 -1.212872e+00 -1.220839e+00 3.269990e-01 1.223226e+00 -8.188743e-03
<VARIANCE> 25
 9.367749e+00 1.704967e+01 2.410748e+01 3.900133e+01 3.672155e+01 3.091204e+01 4.379757e+01 3.799180e+01 4.052347e+01 3.952787e+01 4.184554e+01 2.843412e+01 3.162067e-01 8.662568e-01 9.473660e-01 1.972800e+00 1.603771e+00 2.016207e+00 1.916257e+00 2.056072e+00 2.391935e+00 1.957786e+00 2.234740e+00 1.445219e+00 5.877489e-04
<GCONST> 8.393066e+01
<MIXTURE> 8 1.165917e-02
<MEAN> 25
 -4.637113e+00 1.349617e+00 1.263241e+00 9.452553e+00 6.468566e+00 6.174399e+00 6.568245e+00 5.620199e+00 6.539177e+00 5.588251e+00 6.499344e+00 3.174558e+00 -6.344844e-01 -1.383013e+00 -1.044437e+00 -1.768234e+00 -2.430915e-01 -9.103451e-01 -1.768199e-01 -3.476209e-01 -2.722257e-01 -1.864829e-01 -2.305728e-01 7.905912e-02 9.691748e-02
<VARIANCE> 25
 9.855937e+00 9.680591e+00 1.151952e+01 1.643065e+01 1.691672e+01 1.586376e+01 1.842427e+01 1.745571e+01 1.758830e+01 1.718269e+01 1.884260e+01 1.380419e+01 2.719488e+00 2.867480e+00 3.897247e+00 3.828991e+00 3.424048e+00 3.330139e+00 3.119935e+00 3.343174e+00 2.850531e+00 2.623998e+00 2.422382e+00 1.884903e+00 6.769409e-03
<GCONST> 8.645702e+01
<MIXTURE> 9 1.199672e-02
<MEAN> 25
 8.739827e+00 3.125952e+00 -5.727615e+00 -1.062885e+01 -2.284414e+00 4.670657e+00 -2.046816e+00 -1.885261e+00 -5.162127e+00 -1.123049e+00 1.120758e+00 -8.129393e-03 1.386137e+00 -3.341685e-01 -3.690715e-01 -2.684259e+00 -1.495250e+00 9.270275e-01 -8.569419e-01 -3.421119e-02 -2.200186e-01 -6.910179e-01 7.204438e-01 -3.461844e-01 7.181283e-02
<VARIANCE> 25
 1.435719e+01 2.188782e+01 3.346275e+01 4.988504e+01 4.692989e+01 3.061189e+01 4.087892e+01 5.040026e+01 3.959646e+01 3.878399e+01 3.786414e+01 2.591440e+01 1.954955e+00 2.730788e+00 4.390289e+00 4.506095e+00 4.877515e+00 3.862183e+00 4.143089e+00 5.974540e+00 4.731318e+00 3.923998e+00 3.862115e+00 2.967937e+00 2.096843e-03
<GCONST> 9.824114e+01
<MIXTURE> 10 6.596976e-03
<MEAN> 25
 8.389338e-01 7.608708e+00 5.365642e+00 7.153767e+00 1.574197e+00 -2.153568e+00 -5.323076e-01 -1.700378e+00 8.631818e-01 8.624365e-01 8.480341e-01 6.579967e-01 -1.912558e+00 -6.648523e-01 -4.604784e-01 3.002203e+00 2.446662e+00 2.714740e+00 2.371373e+00 2.253811e+00 1.851659e+00 1.532269e+00 2.315827e+00 5.250546e-01 -1.376743e-01
<VARIANCE> 25
 1.946505e+01 2.064861e+01 2.222028e+01 2.888853e+01 3.813261e+01 3.489953e+01 3.498055e+01 3.370179e+01 2.746859e+01 2.883535e+01 2.681691e+01 2.484929e+01 2.243246e+00 3.413068e+00 5.494670e+00 5.228998e+00 5.549104e+00 4.450024e+00 4.678019e+00 4.900446e+00 4.368695e+00 5.007164e+00 4.474800e+00 3.167794e+00 2.708044e-03
<GCONST> 9.740763e+01
<MIXTURE> 11 1.633820e-02
<MEAN> 25
 6.695246e+00 2.881662e+00 2.654266e+00 6.207378e+00 -3.177977e+00 -3.003906e+00 -1.317979e+00 -7.210326e+00 -2.508508e+00 9.292679e-01 -2.852587e+00 -1.477908e+00 -4.224725e-01 6.192256e-01 5.933831e-02 2.832405e-01 3.011510e-01 -1.095949e-01 5.512796e-01 4.092425e-02 8.050250e-02 -5.388956e-02 5.848427e-02 7.035880e-01 -2.821354e-02
<VARIANCE> 25
 8.590679e+00 2.185664e+01 1.256357e+01 2.877823e+01 2.429252e+01 4.075356e+01 2.794278e+01 3.514954e+01 2.531893e+01 2.501859e+01 2.293772e+01 2.243135e+01 6.486126e-01 1.033556e+00 1.184097e+00 2.214404e+00 1.638807e+00 2.939645e+00 1.610498e+00 2.233957e+00 1.493131e+00 1.532499e+00 1.935597e+00 1.278649e+00 7.598998e-04
<GCONST> 8.152271e+01
<MIXTURE> 12 5.904134e-03
<MEAN> 25
 1.006947e+01 3.803094e+00 -3.403062e+00 -1.633905e+01 -9.195799e+00 7.838247e+00 -2.271930e+00 -1.202451e+00 -1.842735e+00 -5.278100e+00 2.331716e+00 6.960332e-01 9.355556e-02 2.635261e-01 5.777709e-02 -3.860643e-01 -4.506121e-01 8.979380e-03 1.606173e-01 4.495924e-01 1.466719e-01 -3.233694e-01 -3.492957e-01 -1.026517e-01 -2.658592e-03
<VARIANCE> 25
 1.048757e+01 2.302794e+01 2.693913e+01 3.145703e+01 3.993359e+01 3.145166e+01 5.027748e+01 4.676156e+01 3.902424e+01 3.500282e+01 3.687858e+01 2.797736e+01 2.498388e-01 6.063196e-01 6.301011e-01 1.135322e+00 1.257492e+00 1.002859e+00 1.290444e+00 1.232915e+00 1.087878e+00 1.132923e+00 1.181993e+00 9.899170e-01 6.349678e-04
<GCONST> 7.871120e+01
<MIXTURE> 13 5.904134e-03
<MEAN> 25
 1.006947e+01 3.803094e+00 -3.403062e+00 -1.633905e+01 -9.195799e+00 7.838247e+00 -2.271930e+00 -1.202451e+00 -1.842735e+00 -5.278100e+00 2.331716e+00 6.960332e-01 9.355556e-02 2.635261e-01 5.777709e-02 -3.860643e-01 -4.506121e-01 8.979380e-03 1.606173e-01 4.495924e-01 1.466719e-01 -3.233694e-01 -3.492957e-01 -1.026517e-01 -2.658592e-03
<VARIANCE> 25
 1.048757e+01 2.302794e+01 2.693913e+01 3.145703e+01 3.993359e+01 3.145166e+01 5.027748e+01 4.676156e+01 3.902424e+01 3.500282e+01 3.687858e+01 2.797736e+01 2.498388e-01 6.063196e-01 6.301011e-01 1.135322e+00 1.257492e+00 1.002859e+00 1.290444e+00 1.232915e+00 1.087878e+00 1.132923e+00 1.181993e+00 9.899170e-01 6.349678e-04
<GCONST> 7.871120e+01
<MIXTURE> 14 6.488954e-03
<MEAN> 25
 -4.301796e+00 -3.739678e-01 -3.191418e-01 8.894928e+00 7.498024e+00 7.360635e+00 7.826873e+00 7.308281e+00 7.237725e+00 5.235443e+00 6.842235e+00 4.101715e+00 -2.790343e-01 1.949838e-01 3.632682e-01 3.127961e-01 7.975390e-03 5.350590e-02 9.399691e-02 1.790624e-01 2.911018e-01 5.362606e-01 5.111080e-01 8.172466e-02 -9.258313e-03
<VARIANCE> 25
 9.374889e+00 1.383249e+01 1.859903e+01 1.786883e+01 2.092874e+01 1.964068e+01 2.147487e+01 2.073211e+01 2.010313e+01 2.386232e+01 2.152715e+01 1.596860e+01 9.658652e-01 1.638003e+00 1.770046e+00 1.947505e+00 2.241433e+00 2.266975e+00 2.253411e+00 2.244572e+00 2.285738e+00 2.505018e+00 2.207987e+00 1.831959e+00 1.029975e-03
<GCONST> 8.195562e+01
<MIXTURE> 15 2.475190e-03
<MEAN> 25
 -5.424104e+00 -6.444228e-01 -2.011948e-01 7.368020e+00 5.719728e+00 5.701523e+00 6.060597e+00 4.979655e+00 5.164851e+00 4.154551e+00 5.502402e+00 2.539962e+00 -1.212346e-01 -2.916862e-02 7.500418e-02 2.436760e-01 4.894040e-01 7.865168e-01 1.072446e+00 1.182141e+00 1.059321e+00 7.561350e-01 4.197349e-01 1.534032e-01 -8.263445e-05
<VARIANCE> 25
 6.984151e+00 5.606074e+00 9.032881e+00 1.281365e+01 1.407832e+01 1.429724e+01 1.492043e+01 1.489847e+01 1.410044e+01 1.418376e+01 1.510192e+01 1.250873e+01 1.247606e-01 2.061875e-01 3.197811e-01 5.030959e-01 6.995990e-01 7.936963e-01 7.631562e-01 7.916138e-01 9.090421e-01 1.023956e+00 1.071348e+00 1.041232e+00 2.795582e-05
<GCONST> 5.858709e+01
<MIXTURE> 16 2.475190e-03
<MEAN> 25
 -5.424104e+00 -6.444228e-01 -2.011948e-01 7.368020e+00 5.719728e+00 5.701523e+00 6.060597e+00 4.979655e+00 5.164851e+00 4.154551e+00 5.502402e+00 2.539962e+00 -1.212346e-01 -2.916862e-02 7.500418e-02 2.436760e-01 4.894040e-01 7.865168e-01 1.072446e+00 1.182141e+00 1.059321e+00 7.561350e-01 4.197349e-01 1.534032e-01 -8.263445e-05
<VARIANCE> 25
 6.984151e+00 5.606074e+00 9.032881e+00 1.281365e+01 1.407832e+01 1.429724e+01 1.492043e+01 1.489847e+01 1.410044e+01 1.418376e+01 1.510192e+01 1.250873e+01 1.247606e-01 2.061875e-01 3.197811e-01 5.030959e-01 6.995990e-01 7.936963e-01 7.631562e-01 7.916138e-01 9.090421e-01 1.023956e+00 1.071348e+00 1.041232e+00 2.795582e-05
<GCONST> 5.858709e+01
<MIXTURE> 17 9.518312e-03
<MEAN> 25
 3.421974e+00 -6.352899e-01 6.091065e+00 2.189651e+00 -5.541025e+00 -6.375403e+00 -3.410535e+00 3.538724e-01 -3.122668e+00 -2.986179e+00 6.281133e-01 -1.761399e-01 -6.132031e-01 -1.227358e+00 1.350188e+00 -2.051153e+00 -2.186293e+00 -2.818602e-01 9.187141e-02 8.106749e-01 -2.840761e-01 -3.123591e-01 1.120296e+00 1.431475e-01 8.070591e-02
<VARIANCE> 25
 1.616389e+01 2.970906e+01 2.908112e+01 4.495181e+01 4.246283e+01 4.847584e+01 4.334623e+01 3.393889e+01 3.499660e+01 2.511377e+01 2.909855e+01 2.638812e+01 1.876997e+00 2.705947e+00 3.736656e+00 2.909296e+00 3.983236e+00 6.069856e+00 4.773061e+00 4.491005e+00 3.816238e+00 3.794226e+00 2.850340e+00 3.077874e+00 1.996266e-03
<GCONST> 9.653226e+01
<MIXTURE> 18 1.221018e-02
<MEAN> 25
 3.901781e+00 5.094014e+00 6.451416e+00 4.981473e+00 -4.665628e+00 -8.820905e+00 -2.507762e+00 -1.529530e+00 -3.238952e+00 -1.933179e+00 -1.174266e-01 4.291433e-01 -6.124182e-01 1.886512e+00 -2.831576e-01 1.895095e+00 2.766546e+00 1.511593e+00 1.197207e+00 -6.155521e-01 7.270030e-01 5.763118e-01 -3.134974e-01 9.815665e-02 -1.175095e-01
<VARIANCE> 25
 1.390779e+01 2.265789e+01 2.848257e+01 2.619362e+01 3.623841e+01 3.471415e+01 3.658508e+01 3.557472e+01 3.333335e+01 2.953414e+01 2.984508e+01 2.561732e+01 2.259436e+00 2.834839e+00 3.952713e+00 4.279740e+00 4.073872e+00 4.771050e+00 4.628873e+00 4.695610e+00 3.798572e+00 3.676979e+00 3.846480e+00 3.082084e+00 3.582893e-03
<GCONST> 9.636403e+01
<MIXTURE> 19 9.912824e-03
<MEAN> 25
 -9.561604e+00 2.262139e+00 2.920006e-01 1.819541e+00 3.754492e+00 1.316870e+00 2.566235e+00 1.201427e+00 2.096735e+00 1.240073e+00 9.310034e-01 2.546215e+00 1.876186e+00 1.565777e+00 2.119585e+00 8.672723e-01 -9.778603e-01 -1.076959e+00 -1.005186e+00 -1.386676e+00 -1.573662e+00 -1.149781e+00 -7.236015e-01 -9.125790e-01 1.754709e-03
<VARIANCE> 25
 5.502659e+01 2.980473e+01 4.307863e+01 5.675406e+01 3.026012e+01 3.120651e+01 3.271658e+01 2.994325e+01 2.505136e+01 2.623650e+01 2.689173e+01 2.042342e+01 2.453201e+00 2.194063e+00 1.998203e+00 2.305566e+00 2.309154e+00 2.230421e+00 2.504820e+00 2.237183e+00 2.061438e+00 1.848791e+00 2.516226e+00 1.790889e+00 2.364841e-03
<GCONST> 9.105499e+01
<MIXTURE> 20 6.308331e-03
<MEAN> 25
 -1.412959e+01 7.369858e+00 8.732898e-01 6.142419e+00 4.796767e+00 1.520467e+00 5.182093e+00 8.361362e-01 9.293954e-01 7.511711e-01 2.532853e+00 -1.976923e-01 -3.273185e+00 -8.633118e-01 -1.547822e+00 3.292505e-01 1.538149e+00 2.040978e+00 1.973953e+00 2.055363e+00 2.134672e+00 2.011650e+00 1.666148e+00 9.422104e-01 4.762581e-02
<VARIANCE> 25
 1.975961e+01 2.355511e+01 3.067566e+01 3.680975e+01 3.076698e+01 2.907115e+01 2.974719e+01 3.124912e+01 2.773914e+01 2.808818e+01 2.508120e+01 2.164947e+01 2.093581e+00 2.193741e+00 1.917540e+00 2.517099e+00 2.688055e+00 2.333588e+00 2.301080e+00 2.307743e+00 2.221240e+00 2.687906e+00 2.247857e+00 1.855452e+00 1.875936e-03
<GCONST> 8.924614e+01
<MIXTURE> 21 7.928653e-03
<MEAN> 25
 4.215348e+00 -4.633049e+00 5.179070e+00 -2.133022e+00 -9.733438e+00 -7.113270e+00 -2.857599e+00 3.232530e+00 -1.310894e+00 -1.318790e+00 2.929124e-01 -2.902687e-01 -7.632648e-01 1.525237e+00 2.155132e+00 -1.958746e-01 -1.394137e+00 8.294080e-02 6.338396e-01 -1.602120e+00 -2.032825e+00 4.017534e-01 1.481958e+00 5.356807e-01 -1.710574e-02
<VARIANCE> 25
 7.637266e+00 1.647571e+01 2.580816e+01 2.492030e+01 2.610127e+01 3.706947e+01 3.652050e+01 3.661751e+01 3.818961e+01 4.247661e+01 2.859871e+01 2.090426e+01 3.592089e-01 9.509253e-01 2.359248e+00 1.154789e+00 1.910851e+00 2.063432e+00 3.020966e+00 2.163035e+00 1.899578e+00 2.178862e+00 1.758565e+00 2.294991e+00 4.278506e-04
<GCONST> 8.334228e+01
<MIXTURE> 22 8.827789e-03
<MEAN> 25
 -1.774383e+01 7.201422e+00 -3.639180e+00 7.326709e+00 4.332717e+00 2.593421e+00 7.961345e+00 1.501270e+00 5.849352e+00 3.051041e+00 5.461409e+00 1.646329e+00 -2.997231e-01 -1.657479e-01 -1.196513e-01 -9.747684e-02 8.170879e-03 2.183308e-01 1.748037e-01 9.603630e-02 2.463161e-01 2.368378e-01 2.382874e-01 2.405257e-01 9.323846e-03
<VARIANCE> 25
 8.110460e+00 1.613350e+01 1.953061e+01 2.430463e+01 2.286705e+01 2.019049e+01 2.096922e+01 1.854283e+01 2.062741e+01 2.050911e+01 1.909911e+01 1.593300e+01 1.060999e+00 1.361811e+00 1.346886e+00 1.542461e+00 1.347077e+00 1.705650e+00 1.438991e+00 1.610021e+00 1.548103e+00 1.469540e+00 1.530024e+00 1.156282e+00 1.664349e-03
<GCONST> 7.861262e+01
<MIXTURE> 23 6.455497e-03
<MEAN> 25
 7.782841e+00 2.511491e+00 2.971503e+00 2.689048e+00 -4.666188e+00 -2.927515e+00 -4.043105e+00 -6.647851e+00 -3.287637e+00 -9.650838e-01 -3.910983e+00 -2.113363e+00 1.755716e-02 1.971287e-01 3.218048e-02 6.562119e-02 -5.593119e-02 -2.281344e-02 7.808376e-02 -1.050691e-01 3.163566e-03 5.151049e-02 -2.991856e-02 7.042227e-02 -5.538023e-03
<VARIANCE> 25
 1.049604e+01 2.215706e+01 2.310988e+01 3.988163e+01 3.574906e+01 5.169193e+01 5.530132e+01 5.223577e+01 4.490777e+01 4.393220e+01 4.531519e+01 3.778583e+01 1.214261e-01 2.992794e-01 3.878916e-01 4.646725e-01 6.296408e-01 7.372014e-01 8.056552e-01 8.844184e-01 8.182640e-01 9.097171e-01 7.953075e-01 7.170607e-01 9.643837e-05
<GCONST> 7.250735e+01
<MIXTURE> 24 6.455497e-03
<MEAN> 25
 7.782841e+00 2.511491e+00 2.971503e+00 2.689048e+00 -4.666188e+00 -2.927515e+00 -4.043105e+00 -6.647851e+00 -3.287637e+00 -9.650838e-01 -3.910983e+00 -2.113363e+00 1.755716e-02 1.971287e-01 3.218048e-02 6.562119e-02 -5.593119e-02 -2.281344e-02 7.808376e-02 -1.050691e-01 3.163566e-03 5.151049e-02 -2.991856e-02 7.042227e-02 -5.538023e-03
<VARIANCE> 25
 1.049604e+01 2.215706e+01 2.310988e+01 3.988163e+01 3.574906e+01 5.169193e+01 5.530132e+01 5.223577e+01 4.490777e+01 4.393220e+01 4.531519e+01 3.778583e+01 1.214261e-01 2.992794e-01 3.878916e-01 4.646725e-01 6.296408e-01 7.372014e-01 8.056552e-01 8.844184e-01 8.182640e-01 9.097171e-01 7.953075e-01 7.170607e-01 9.643837e-05
<GCONST> 7.250735e+01
<MIXTURE> 25 1.118642e-02
<MEAN> 25
 2.994485e-01 3.472115e+00 1.667414e+01 -1.034635e+00 -1.128351e+01 -1.769480e+00 -4.992462e+00 -2.943904e+00 -6.920483e+00 -5.339406e+00 4.108395e+00 -1.610572e+00 -1.388487e-01 4.502750e-01 1.585387e-01 1.446233e-01 2.105370e-01 1.058255e-01 1.928482e-01 -1.727432e-01 -2.512752e-01 6.578712e-02 -7.017308e-02 -9.672670e-02 -1.304198e-02
<VARIANCE> 25
 8.786593e+00 2.213310e+01 2.219470e+01 2.892760e+01 3.167812e+01 4.114374e+01 2.730921e+01 2.995591e+01 2.823595e+01 3.797099e+01 2.083277e+01 2.754999e+01 5.975307e-01 1.454335e+00 1.415937e+00 1.378227e+00 2.266329e+00 2.028478e+00 1.737206e+00 1.623404e+00 1.538794e+00 1.646212e+00 1.347059e+00 1.310234e+00 1.277002e-03
<GCONST> 8.281628e+01
<MIXTURE> 26 7.727677e-03
<MEAN> 25
 2.099319e+00 -5.790444e+00 -8.713504e+00 -9.444060e-01 6.575763e+00 5.460382e+00 3.821432e+00 4.541452e-01 2.135113e+00 4.919614e-01 -2.387195e+00 -1.513235e+00 -3.860067e-01 8.165859e-01 3.350664e-01 8.064967e-01 1.729009e-01 4.462035e-01 5.971961e-01 -3.832429e-02 2.111973e-01 1.595352e-01 2.215689e-01 5.220920e-01 -5.956109e-02
<VARIANCE> 25
 1.890745e+01 2.833145e+01 2.511039e+01 5.359996e+01 3.400667e+01 3.406383e+01 3.852736e+01 3.749702e+01 3.097300e+01 4.868456e+01 3.642951e+01 3.773955e+01 1.550673e+00 1.646030e+00 1.550436e+00 1.719778e+00 1.804813e+00 2.433808e+00 2.432819e+00 2.556066e+00 2.152844e+00 2.010311e+00 2.338903e+00 1.756616e+00 2.834825e-03
<GCONST> 9.054787e+01
<MIXTURE> 27 7.727677e-03
<MEAN> 25
 2.099319e+00 -5.790444e+00 -8.713504e+00 -9.444060e-01 6.575763e+00 5.460382e+00 3.821432e+00 4.541452e-01 2.135113e+00 4.919614e-01 -2.387195e+00 -1.513235e+00 -3.860067e-01 8.165859e-01 3.350664e-01 8.064967e-01 1.729009e-01 4.462035e-01 5.971961e-01 -3.832429e-02 2.111973e-01 1.595352e-01 2.215689e-01 5.220920e-01 -5.956109e-02
<VARIANCE> 25
 1.890745e+01 2.833145e+01 2.511039e+01 5.359996e+01 3.400667e+01 3.406383e+01 3.852736e+01 3.749702e+01 3.097300e+01 4.868456e+01 3.642951e+01 3.773955e+01 1.550673e+00 1.646030e+00 1.550436e+00 1.719778e+00 1.804813e+00 2.433808e+00 2.432819e+00 2.556066e+00 2.152844e+00 2.010311e+00 2.338903e+00 1.756616e+00 2.834825e-03
<GCONST> 9.054787e+01
<MIXTURE> 28 5.036674e-03
<MEAN> 25
 -5.448177e+00 1.452843e-02 -1.568839e+00 6.613931e+00 5.227023e+00 3.516844e+00 5.414896e+00 3.127685e+00 3.921343e+00 2.394174e+00 2.636676e+00 3.221483e+00 -1.160049e-01 2.230093e-01 5.282912e-01 7.845523e-01 8.225616e-01 7.024884e-01 5.223306e-01 3.921725e-01 4.444260e-01 4.834534e-01 3.709478e-01 1.901617e-01 -1.147267e-05
<VARIANCE> 25
 1.045185e+01 8.364175e+00 1.215665e+01 1.484688e+01 1.476235e+01 1.772991e+01 1.803599e+01 1.902624e+01 1.718064e+01 1.672647e+01 2.060559e+01 1.499815e+01 2.575652e-01 3.364797e-01 4.070571e-01 4.641802e-01 6.216320e-01 8.474628e-01 1.057420e+00 1.144295e+00 1.102391e+00 1.031559e+00 1.036225e+00 1.066821e+00 1.001450e-06
<GCONST> 6.026558e+01
<MIXTURE> 29 5.036674e-03
<MEAN> 25
 -5.448177e+00 1.452843e-02 -1.568839e+00 6.613931e+00 5.227023e+00 3.516844e+00 5.414896e+00 3.127685e+00 3.921343e+00 2.394174e+00 2.636676e+00 3.221483e+00 -1.160049e-01 2.230093e-01 5.282912e-01 7.845523e-01 8.225616e-01 7.024884e-01 5.223306e-01 3.921725e-01 4.444260e-01 4.834534e-01 3.709478e-01 1.901617e-01 -1.147267e-05
<VARIANCE> 25
 1.045185e+01 8.364175e+00 1.215665e+01 1.484688e+01 1.476235e+01 1.772991e+01 1.803599e+01 1.902624e+01 1.718064e+01 1.672647e+01 2.060559e+01 1.499815e+01 2.575652e-01 3.364797e-01 4.070571e-01 4.641802e-01 6.216320e-01 8.474628e-01 1.057420e+00 1.144295e+00 1.102391e+00 1.031559e+00 1.036225e+00 1.066821e+00 1.001450e-06
<GCONST> 6.026558e+01
<MIXTURE> 30 8.917812e-03
<MEAN> 25
 -4.494856e+00 -1.955844e-01 6.549833e-01 9.089485e+00 7.776258e+00 7.510958e+00 7.584587e+00 6.881296e+00 6.534019e+00 4.897042e+00 7.013437e+00 3.502835e+00 -2.377401e-02 3.039365e-02 5.648663e-02 8.878811e-02 8.156331e-02 4.432442e-02 1.351708e-02 -3.020081e-03 1.724336e-02 5.153413e-02 6.148052e-02 3.488803e-02 -5.556997e-04
<VARIANCE> 25
 6.938110e+00 9.864533e+00 1.039685e+01 1.374210e+01 1.575179e+01 1.641825e+01 1.912591e+01 1.818077e+01 1.628381e+01 1.836780e+01 2.123915e+01 1.436375e+01 9.739164e-02 1.995653e-01 3.250103e-01 4.815429e-01 6.194437e-01 7.241967e-01 7.724708e-01 8.124726e-01 8.762312e-01 9.372468e-01 9.205505e-01 8.626050e-01 5.096844e-05
<GCONST> 6.058838e+01
<MIXTURE> 31 4.136493e-03
<MEAN> 25
 -3.294641e+00 -5.698844e+00 4.962214e-02 4.884102e+00 3.688824e+00 1.680023e+00 5.239516e+00 6.651040e+00 2.735744e+00 1.228763e+00 6.511798e+00 3.145233e+00 2.530955e-01 4.752169e-01 -2.109916e-01 3.098550e-01 1.200816e-01 4.243520e-01 1.927659e-01 1.385703e-02 3.787382e-01 3.832348e-01 1.058191e-01 1.172067e-01 -1.843147e-02
<VARIANCE> 25
 7.191847e+00 1.525647e+01 1.749637e+01 1.809787e+01 2.529210e+01 2.389974e+01 2.361806e+01 2.528354e+01 2.588535e+01 2.802761e+01 2.052283e+01 1.877374e+01 1.918094e-01 4.954151e-01 6.026031e-01 7.680751e-01 9.654494e-01 1.094839e+00 1.224047e+00 1.390394e+00 1.349184e+00 1.314373e+00 1.244980e+00 1.134220e+00 2.571491e-04
<GCONST> 7.185534e+01
<MIXTURE> 32 4.136493e-03
<MEAN> 25
 -3.294641e+00 -5.698844e+00 4.962214e-02 4.884102e+00 3.688824e+00 1.680023e+00 5.239516e+00 6.651040e+00 2.735744e+00 1.228763e+00 6.511798e+00 3.145233e+00 2.530955e-01 4.752169e-01 -2.109916e-01 3.098550e-01 1.200816e-01 4.243520e-01 1.927659e-01 1.385703e-02 3.787382e-01 3.832348e-01 1.058191e-01 1.172067e-01 -1.843147e-02
<VARIANCE> 25
 7.191847e+00 1.525647e+01 1.749637e+01 1.809787e+01 2.529210e+01 2.389974e+01 2.361806e+01 2.528354e+01 2.588535e+01 2.802761e+01 2.052283e+01 1.877374e+01 1.918094e-01 4.954151e-01 6.026031e-01 7.680751e-01 9.654494e-01 1.094839e+00 1.224047e+00 1.390394e+00 1.349184e+00 1.314373e+00 1.244980e+00 1.134220e+00 2.571491e-04
<GCONST> 7.185534e+01
<MIXTURE> 33 1.508826e-02
<MEAN> 25
 5.421825e+00 -3.817436e+00 -2.496271e+00 -2.398511e+00 -1.394150e+00 -4.088951e+00 -6.263669e+00 1.553028e+00 3.002182e+00 1.886556e-01 -4.368007e+00 -2.449106e+00 6.732445e-01 -1.474110e+00 -1.825412e+00 -2.184490e+00 1.211255e+00 1.776548e+00 -9.655175e-01 1.146620e+00 9.258313e-01 3.653978e-01 -3.306980e-01 -1.439761e+00 4.737930e-02
<VARIANCE> 25
 1.129812e+01 2.108508e+01 2.397049e+01 3.203373e+01 3.215601e+01 4.459614e+01 3.934581e+01 3.821543e+01 3.481855e+01 3.908346e+01 2.966693e+01 2.274458e+01 1.011770e+00 1.737706e+00 2.452846e+00 1.962520e+00 3.584854e+00 2.919578e+00 3.660341e+00 5.907682e+00 3.103679e+00 3.474399e+00 2.733455e+00 2.043487e+00 1.392255e-03
<GCONST> 9.145695e+01
<MIXTURE> 34 1.588179e-02
<MEAN> 25
 8.066580e+00 -5.026078e-01 -3.293484e-01 1.348547e+00 -1.974856e+00 -9.631906e-02 -4.798459e+00 -5.350012e+00 -2.472271e+00 3.853737e-01 -2.155967e+00 -4.045311e+00 6.572767e-02 1.143043e+00 1.312794e+00 2.695871e+00 -7.366783e-01 -8.046406e-01 7.642993e-01 -2.378612e+00 -3.422658e-01 5.171704e-01 -6.902999e-01 4.762995e-01 -5.996858e-02
<VARIANCE> 25
 6.168455e+00 2.776218e+01 1.922855e+01 4.545702e+01 3.501807e+01 4.110597e+01 4.110905e+01 5.072959e+01 3.663812e+01 3.454217e+01 3.837935e+01 2.518264e+01 1.063360e+00 1.645807e+00 2.894304e+00 3.231874e+00 4.808622e+00 4.505822e+00 4.072030e+00 4.910554e+00 4.031741e+00 3.541844e+00 3.547127e+00 3.520697e+00 8.929392e-04
<GCONST> 9.382434e+01
<MIXTURE> 35 1.467755e-02
<MEAN> 25
 -2.569358e+00 -5.019114e+00 -8.288616e+00 1.742170e+00 9.536006e+00 -1.170634e-01 1.352262e+00 2.162194e+00 2.245268e+00 3.416213e+00 -1.110541e+00 1.758645e+00 9.238446e-01 -1.295140e+00 -1.618912e+00 -1.701601e+00 6.629667e-01 -2.554581e-01 -1.051588e+00 1.094046e-01 -2.743641e-01 3.501501e-02 -5.616880e-01 -1.024674e+00 1.015109e-01
<VARIANCE> 25
 1.829693e+01 2.527804e+01 4.352192e+01 7.026324e+01 3.975648e+01 5.041912e+01 4.763253e+01 3.511673e+01 4.463284e+01 3.631341e+01 3.556450e+01 2.656542e+01 3.159324e+00 3.217880e+00 6.004604e+00 5.192073e+00 4.944045e+00 5.586408e+00 5.276069e+00 4.094804e+00 4.559935e+00 3.737904e+00 3.605342e+00 3.977392e+00 4.412042e-03
<GCONST> 1.016017e+02
<MIXTURE> 36 1.093293e-02
<MEAN> 25
 4.910104e+00 -3.359313e+00 7.073791e+00 2.834387e+00 -9.986043e+00 -9.170065e+00 -6.405215e+00 3.201985e+00 -2.009727e+00 -4.498942e+00 2.812014e+00 -1.991839e-01 3.769277e-01 1.754618e-01 -8.739817e-01 1.503680e-02 8.370693e-01 3.865181e-02 -4.470657e-01 -2.054582e-02 4.643180e-01 5.495344e-01 -3.908629e-01 -3.207003e-01 -1.599699e-02
<VARIANCE> 25
 1.029882e+01 1.775898e+01 2.180317e+01 2.849106e+01 3.198007e+01 3.364055e+01 4.666783e+01 3.548964e+01 3.933607e+01 3.244389e+01 2.737641e+01 2.632351e+01 4.803381e-01 7.554900e-01 1.579403e+00 1.223074e+00 1.693309e+00 1.665994e+00 2.166452e+00 1.850024e+00 2.041856e+00 1.676439e+00 1.472224e+00 1.450849e+00 7.541021e-04
<GCONST> 8.258208e+01
<MIXTURE> 37 1.246826e-02
<MEAN> 25
 1.116455e+00 7.745029e+00 1.122513e+01 -5.833393e+00 -8.681756e+00 -1.457651e+00 -5.121798e+00 -7.586377e+00 -3.773038e+00 -1.381991e+00 -3.422697e+00 -1.216694e+00 1.320008e-01 5.787234e-01 -1.292600e+00 3.745142e+00 2.034636e+00 -4.685820e-01 1.299183e+00 2.743458e-01 4.715296e-01 -1.872133e-02 4.709710e-01 -8.496807e-02 -9.445661e-02
<VARIANCE> 25
 1.870449e+01 2.366141e+01 3.428405e+01 5.086206e+01 3.591708e+01 3.100856e+01 4.079846e+01 3.845789e+01 3.560289e+01 3.678438e+01 3.508841e+01 2.910346e+01 2.742339e+00 3.162009e+00 2.784038e+00 4.033424e+00 4.273763e+00 3.688946e+00 4.260802e+00 3.727309e+00 3.179204e+00 4.188423e+00 3.573661e+00 2.552032e+00 3.573079e-03
<GCONST> 9.724987e+01
<MIXTURE> 38 1.154525e-02
<MEAN> 25
 -4.276330e+00 8.060281e+00 4.017531e+00 3.415138e+00 6.692727e-01 -4.701427e+00 -6.893910e-01 -3.662647e+00 -2.233182e+00 -2.443852e+00 -1.141707e+00 1.402270e+00 -4.459111e+00 1.278854e+00 -1.924705e-02 9.348987e-01 2.211783e+00 1.134066e+00 1.434631e+00 1.263313e+00 8.797311e-01 2.853163e-01 8.777427e-01 6.948785e-01 5.105583e-02
<VARIANCE> 25
 2.925658e+01 2.629347e+01 3.322385e+01 2.867792e+01 3.960812e+01 2.920090e+01 2.888175e+01 3.458135e+01 3.167884e+01 2.695638e+01 2.568202e+01 3.277842e+01 2.058435e+00 3.551232e+00 3.372939e+00 4.764341e+00 3.554509e+00 4.705050e+00 5.532506e+00 4.095445e+00 3.443111e+00 4.292522e+00 3.483720e+00 3.134939e+00 1.712168e-03
<GCONST> 9.631445e+01
<MIXTURE> 39 9.501865e-03
<MEAN> 25
 1.170570e+00 2.250277e+00 9.124567e+00 -8.371988e+00 -1.045539e+01 -9.828018e-01 -2.006874e+00 -6.562445e+00 -4.460779e+00 5.933945e-01 -3.735616e+00 -2.375026e+00 -8.764448e-01 1.565797e+00 1.607861e+00 -1.489259e+00 5.959873e-02 1.054686e+00 -1.257332e+00 -1.454417e+00 3.708831e-01 3.118439e-01 -5.537332e-01 3.165874e-01 1.154154e-03
<VARIANCE> 25
 8.380613e+00 2.821979e+01 3.822981e+01 4.117754e+01 3.950559e+01 3.855816e+01 4.979822e+01 3.037376e+01 3.571048e+01 3.343745e+01 3.463280e+01 2.758388e+01 8.347923e-01 1.416372e+00 1.528428e+00 2.783597e+00 2.199451e+00 2.773617e+00 2.838279e+00 2.960736e+00 2.282385e+00 2.509238e+00 1.986011e+00 2.193832e+00 1.090724e-03
<GCONST> 8.932026e+01
<MIXTURE> 40 1.030800e-02
<MEAN> 25
 -9.571658e+00 2.376688e+00 -7.405459e-01 8.368649e+00 3.307137e+00 5.332399e+00 5.228138e+00 3.938088e+00 5.053471e+00 3.993395e+00 5.324889e+00 2.174759e+00 -3.433450e-02 -2.969276e-01 -1.451736e-01 -2.074001e-01 -1.162506e-01 -1.696930e-01 3.710169e-02 1.016314e-01 3.286926e-02 6.701401e-02 8.183777e-03 2.766038e-02 5.532103e-03
<VARIANCE> 25
 4.101865e+01 2.075191e+01 2.935882e+01 2.685055e+01 2.801957e+01 1.825687e+01 1.827512e+01 1.851790e+01 2.060604e+01 1.808646e+01 1.960231e+01 1.664173e+01 7.953583e-01 7.785592e-01 1.030670e+00 1.082396e+00 1.114143e+00 1.256453e+00 1.314070e+00 1.271191e+00 1.270246e+00 1.198748e+00 1.249154e+00 1.039080e+00 9.259629e-04
<GCONST> 7.730969e+01
<MIXTURE> 41 6.713375e-03
<MEAN> 25
 1.317336e+00 1.756997e+00 1.042717e+01 -6.989881e+00 -1.044548e+01 -3.835829e+00 -2.476115e+00 -5.008645e+00 -4.654538e+00 2.654310e+00 -1.691790e+00 -9.543917e-01 7.885854e-02 -7.687632e-01 1.692206e+00 -3.550775e+00 -2.450039e+00 -1.054770e-01 -5.068602e-01 -3.462318e-01 -8.296970e-01 1.074625e+00 -1.032332e+00 7.228547e-02 8.611067e-02
<VARIANCE> 25
 1.166242e+01 2.974278e+01 3.289461e+01 4.010193e+01 3.864011e+01 4.005009e+01 3.702164e+01 3.003569e+01 3.294390e+01 2.868021e+01 3.239687e+01 2.708176e+01 3.167100e+00 3.324854e+00 3.811108e+00 3.790100e+00 4.903289e+00 5.861241e+00 4.695809e+00 4.571975e+00 3.964898e+00 4.227742e+00 3.851137e+00 3.246408e+00 2.924595e-03
<GCONST> 9.792676e+01
<MIXTURE> 42 1.106211e-02
<MEAN> 25
 -2.147953e+00 4.563354e+00 4.283131e+00 3.811619e+00 5.361874e-01 -6.598767e+00 -1.324880e+00 -1.491966e+00 -2.380714e+00 -1.050884e+00 -2.529850e+00 1.785992e+00 3.805994e+00 -4.283026e-01 1.616757e+00 2.048860e-01 -2.671480e+00 -1.425537e+00 -2.375624e+00 -6.616067e-01 -9.662045e-01 -8.918040e-01 5.684589e-01 -1.273005e+00 1.738624e-02
<VARIANCE> 25
 3.342156e+01 1.908239e+01 4.400693e+01 3.035333e+01 3.661209e+01 3.611392e+01 3.885119e+01 2.627635e+01 3.421551e+01 2.507411e+01 1.911623e+01 1.906157e+01 4.285514e+00 4.522408e+00 6.088458e+00 4.390859e+00 4.925486e+00 6.178766e+00 4.822684e+00 4.946115e+00 4.909983e+00 4.586385e+00 3.859955e+00 3.426130e+00 4.607174e-03
<GCONST> 9.952433e+01
<MIXTURE> 43 7.108249e-03
<MEAN> 25
 3.158493e+00 -6.261431e+00 -2.214379e+00 -5.256298e+00 -6.992443e+00 -3.153157e+00 3.862757e+00 1.467399e+00 -4.980845e+00 -6.725059e+00 -4.141626e+00 -1.483626e+00 2.252883e-01 2.132344e+00 1.869469e+00 -1.126025e-01 -1.415594e+00 -7.729653e-01 -9.277922e-01 -8.354228e-01 7.903232e-01 1.452447e+00 3.347160e-01 2.921504e-02 -4.546636e-02
<VARIANCE> 25
 9.520967e+00 1.942186e+01 2.645719e+01 3.578622e+01 4.140617e+01 3.686071e+01 3.441128e+01 4.003503e+01 3.887207e+01 4.021622e+01 2.736855e+01 2.970692e+01 7.064767e-01 1.225214e+00 1.563860e+00 2.483220e+00 2.357498e+00 2.346628e+00 2.644454e+00 3.077653e+00 2.574574e+00 2.520396e+00 2.279791e+00 1.880337e+00 9.359213e-04
<GCONST> 8.800520e+01
<MIXTURE> 44 7.328289e-03
<MEAN> 25
 -1.496453e+01 3.954218e+00 3.950167e+00 -1.315907e+00 2.491977e+00 8.584934e-01 1.111057e-01 9.015173e-01 3.273790e+00 -1.571380e+00 2.164938e-01 3.975669e+00 -2.026702e-01 1.210486e-01 2.303719e-01 4.390218e-01 -2.806960e-01 3.915384e-01 5.063352e-01 4.708500e-02 3.011610e-01 2.022732e-01 1.346154e-01 -4.542589e-02 2.487532e-03
<VARIANCE> 25
 3.150485e+01 2.922570e+01 2.568959e+01 2.915725e+01 2.342424e+01 2.635087e+01 1.915682e+01 3.035373e+01 3.213537e+01 2.156847e+01 2.778556e+01 2.174165e+01 1.199886e+00 1.373305e+00 1.311808e+00 1.041191e+00 2.026430e+00 1.528829e+00 1.207807e+00 1.631362e+00 2.558738e+00 1.276044e+00 2.041137e+00 1.163030e+00 1.257610e-03
<GCONST> 8.311620e+01
<MIXTURE> 45 1.364932e-02
<MEAN> 25
 -1.208575e+01 4.337719e+00 1.714253e-01 3.144881e+00 5.197151e+00 -5.184216e-01 3.643376e+00 2.027730e+00 3.141562e+00 8.271383e-01 1.939398e+00 4.214142e+00 -2.901061e+00 7.444628e-01 -1.875584e-01 -4.588926e-01 4.057094e-01 -1.005873e-01 4.664996e-01 4.374872e-01 3.779059e-01 -1.614718e-01 2.505306e-01 3.538947e-01 1.051354e-01
<VARIANCE> 25
 2.746919e+01 2.771910e+01 2.813632e+01 2.673725e+01 2.506867e+01 2.856935e+01 2.631366e+01 2.592648e+01 1.969706e+01 2.235972e+01 2.564503e+01 2.090484e+01 2.237352e+00 2.857950e+00 2.367977e+00 2.249573e+00 2.092026e+00 2.130256e+00 2.197412e+00 2.773236e+00 2.129043e+00 1.619503e+00 1.660196e+00 1.675300e+00 3.363524e-03
<GCONST> 8.807238e+01
<MIXTURE> 46 9.336259e-03
<MEAN> 25
 -9.656564e+00 2.476718e+00 1.707241e+00 7.563624e+00 5.532896e+00 2.728170e+00 7.078523e+00 3.978067e+00 5.689705e+00 4.445216e+00 4.370809e+00 3.270168e+00 1.093866e+00 -3.768912e-01 -2.310023e-02 1.010122e+00 6.555475e-01 8.774986e-01 4.574756e-01 6.896513e-01 4.054005e-01 4.890202e-01 5.986505e-01 3.970987e-01 -9.887154e-02
<VARIANCE> 25
 3.353399e+01 4.185177e+01 4.048339e+01 4.681106e+01 4.903051e+01 4.374326e+01 3.585349e+01 3.906321e+01 3.225336e+01 3.002811e+01 3.160311e+01 2.106738e+01 3.663975e+00 4.123594e+00 3.820527e+00 4.018230e+00 4.139640e+00 3.700535e+00 3.457204e+00 2.952563e+00 2.880099e+00 2.788626e+00 2.240330e+00 1.847697e+00 8.163316e-03
<GCONST> 9.822732e+01
<MIXTURE> 47 7.116147e-03
<MEAN> 25
 6.521274e+00 -7.390857e+00 -6.666865e+00 -7.272771e+00 7.329104e-01 1.521608e+00 -2.379322e+00 1.872056e+00 2.125618e+00 8.849318e-02 -2.660193e+00 -6.526014e+00 -1.249628e-01 -1.295905e+00 -6.497067e-01 -4.794567e-01 5.832232e-01 8.803340e-01 6.613567e-01 3.752165e-01 1.165855e-01 -7.604715e-01 -4.025090e-01 -5.437742e-01 3.173532e-02
<VARIANCE> 25
 1.220980e+01 1.921849e+01 2.347005e+01 3.842237e+01 3.539382e+01 4.824578e+01 3.983034e+01 3.726393e+01 4.325826e+01 4.059345e+01 5.930002e+01 2.911353e+01 5.424014e-01 7.648316e-01 1.108953e+00 1.559586e+00 1.897718e+00 1.999119e+00 2.361082e+00 2.183685e+00 1.951993e+00 2.007351e+00 2.063050e+00 1.840024e+00 5.291211e-04
<GCONST> 8.567633e+01
<MIXTURE> 48 7.116147e-03
<MEAN> 25
 6.521274e+00 -7.390857e+00 -6.666865e+00 -7.272771e+00 7.329104e-01 1.521608e+00 -2.379322e+00 1.872056e+00 2.125618e+00 8.849318e-02 -2.660193e+00 -6.526014e+00 -1.249628e-01 -1.295905e+00 -6.497067e-01 -4.794567e-01 5.832232e-01 8.803340e-01 6.613567e-01 3.752165e-01 1.165855e-01 -7.604715e-01 -4.025090e-01 -5.437742e-01 3.173532e-02
<VARIANCE> 25
 1.220980e+01 1.921849e+01 2.347005e+01 3.842237e+01 3.539382e+01 4.824578e+01 3.983034e+01 3.726393e+01 4.325826e+01 4.059345e+01 5.930002e+01 2.911353e+01 5.424014e-01 7.648316e-01 1.108953e+00 1.559586e+00 1.897718e+00 1.999119e+00 2.361082e+00 2.183685e+00 1.951993e+00 2.007351e+00 2.063050e+00 1.840024e+00 5.291211e-04
<GCONST> 8.567633e+01
<MIXTURE> 49 5.548473e-03
<MEAN> 25
 -5.087485e+00 3.547415e-01 1.706981e-01 8.453926e+00 6.148538e+00 5.620632e+00 6.068976e+00 4.488417e+00 5.026273e+00 3.723449e+00 4.934968e+00 2.862850e+00 3.660426e-01 6.559807e-01 7.026452e-01 3.534243e-01 -1.966139e-01 -6.695331e-01 -1.009067e+00 -1.121606e+00 -9.561820e-01 -6.807481e-01 -4.928881e-01 -2.715284e-01 -2.008005e-05
<VARIANCE> 25
 9.597992e+00 1.003649e+01 1.425577e+01 1.587317e+01 1.589453e+01 1.713665e+01 1.943544e+01 1.942959e+01 1.823021e+01 1.794926e+01 2.063239e+01 1.428914e+01 2.803990e-01 2.632295e-01 3.594671e-01 6.115493e-01 8.694316e-01 9.741457e-01 9.924999e-01 1.052719e+00 1.135285e+00 1.219569e+00 1.280768e+00 1.208620e+00 1.434273e-05
<GCONST> 6.432121e+01
<MIXTURE> 50 6.234641e-03
<MEAN> 25
 -4.666656e+00 9.342245e-02 -1.451241e+00 6.200283e+00 4.219839e+00 2.276050e+00 3.704987e+00 1.986564e+00 2.779721e+00 1.405244e+00 2.157366e+00 2.847174e+00 5.613938e-02 1.759104e-01 9.534995e-02 -1.772212e-01 -5.115963e-01 -6.152797e-01 -4.267400e-01 -5.115207e-02 4.409723e-01 7.743327e-01 7.390092e-01 4.452601e-01 -1.285786e-05
<VARIANCE> 25
 1.054054e+01 1.116191e+01 1.434570e+01 1.541885e+01 1.535384e+01 1.857825e+01 1.856735e+01 1.948961e+01 1.854524e+01 1.748894e+01 2.164760e+01 1.520263e+01 1.450531e-01 2.394244e-01 3.785279e-01 5.173501e-01 5.992084e-01 7.347943e-01 9.568018e-01 1.118114e+00 1.060219e+00 9.100474e-01 9.181521e-01 9.894303e-01 1.000119e-06
<GCONST> 5.954578e+01
<MIXTURE> 51 6.234641e-03
<MEAN> 25
 -4.666656e+00 9.342245e-02 -1.451241e+00 6.200283e+00 4.219839e+00 2.276050e+00 3.704987e+00 1.986564e+00 2.779721e+00 1.405244e+00 2.157366e+00 2.847174e+00 5.613938e-02 1.759104e-01 9.534995e-02 -1.772212e-01 -5.115963e-01 -6.152797e-01 -4.267400e-01 -5.115207e-02 4.409723e-01 7.743327e-01 7.390092e-01 4.452601e-01 -1.285786e-05
<VARIANCE> 25
 1.054054e+01 1.116191e+01 1.434570e+01 1.541885e+01 1.535384e+01 1.857825e+01 1.856735e+01 1.948961e+01 1.854524e+01 1.748894e+01 2.164760e+01 1.520263e+01 1.450531e-01 2.394244e-01 3.785279e-01 5.173501e-01 5.992084e-01 7.347943e-01 9.568018e-01 1.118114e+00 1.060219e+00 9.100474e-01 9.181521e-01 9.894303e-01 1.000119e-06
<GCONST> 5.954578e+01
<MIXTURE> 52 6.367945e-03
<MEAN> 25
 9.938960e+00 1.980150e+00 -5.961304e+00 -1.432493e+01 -4.391764e+00 8.425762e+00 -2.771315e+00 -2.772868e+00 -4.349581e+00 -2.177581e+00 3.469462e+00 6.432617e-01 -3.768516e-01 -4.504957e-01 -9.061424e-02 1.188884e+00 1.313703e+00 -4.884794e-01 -5.319558e-01 -6.486905e-01 4.634099e-02 1.226480e+00 3.362792e-01 -5.264892e-01 -1.468872e-02
<VARIANCE> 25
 1.010022e+01 2.129869e+01 2.627274e+01 3.794096e+01 4.693721e+01 3.112471e+01 4.635357e+01 4.976981e+01 4.179403e+01 4.634784e+01 4.011537e+01 2.992235e+01 4.493766e-01 1.477880e+00 1.296661e+00 2.924088e+00 2.295401e+00 2.180633e+00 3.129439e+00 2.733284e+00 2.922819e+00 2.641150e+00 2.533876e+00 2.242634e+00 1.595155e-03
<GCONST> 8.993324e+01
<MIXTURE> 53 6.367945e-03
<MEAN> 25
 9.938960e+00 1.980150e+00 -5.961304e+00 -1.432493e+01 -4.391764e+00 8.425762e+00 -2.771315e+00 -2.772868e+00 -4.349581e+00 -2.177581e+00 3.469462e+00 6.432617e-01 -3.768516e-01 -4.504957e-01 -9.061424e-02 1.188884e+00 1.313703e+00 -4.884794e-01 -5.319558e-01 -6.486905e-01 4.634099e-02 1.226480e+00 3.362792e-01 -5.264892e-01 -1.468872e-02
<VARIANCE> 25
 1.010022e+01 2.129869e+01 2.627274e+01 3.794096e+01 4.693721e+01 3.112471e+01 4.635357e+01 4.976981e+01 4.179403e+01 4.634784e+01 4.011537e+01 2.992235e+01 4.493766e-01 1.477880e+00 1.296661e+00 2.924088e+00 2.295401e+00 2.180633e+00 3.129439e+00 2.733284e+00 2.922819e+00 2.641150e+00 2.533876e+00 2.242634e+00 1.595155e-03
<GCONST> 8.993324e+01
<MIXTURE> 54 7.368620e-03
<MEAN> 25
 -3.633801e+00 4.931954e-02 -6.831419e-01 8.036570e+00 6.484003e+00 4.625407e+00 4.675332e+00 4.601055e+00 4.053099e+00 3.593801e+00 4.457477e+00 2.326298e+00 -2.133210e-03 2.653849e-02 3.415401e-02 4.748240e-02 5.136495e-02 4.707923e-02 3.888674e-02 2.892036e-02 3.080963e-02 2.506088e-02 1.452187e-02 1.778039e-03 -1.219590e-05
<VARIANCE> 25
 9.137465e+00 1.036359e+01 9.295803e+00 1.818508e+01 1.332127e+01 1.353345e+01 1.197145e+01 1.128198e+01 1.134292e+01 1.354989e+01 1.780268e+01 1.253449e+01 4.087522e-02 8.734614e-02 1.540843e-01 2.265825e-01 3.079380e-01 3.969485e-01 4.608482e-01 5.215847e-01 5.420835e-01 5.211474e-01 5.144392e-01 5.164422e-01 1.000000e-06
<GCONST> 4.724841e+01
<MIXTURE> 55 7.368620e-03
<MEAN> 25
 -3.633801e+00 4.931954e-02 -6.831419e-01 8.036570e+00 6.484003e+00 4.625407e+00 4.675332e+00 4.601055e+00 4.053099e+00 3.593801e+00 4.457477e+00 2.326298e+00 -2.133210e-03 2.653849e-02 3.415401e-02 4.748240e-02 5.136495e-02 4.707923e-02 3.888674e-02 2.892036e-02 3.080963e-02 2.506088e-02 1.452187e-02 1.778039e-03 -1.219590e-05
<VARIANCE> 25
 9.137465e+00 1.036359e+01 9.295803e+00 1.818508e+01 1.332127e+01 1.353345e+01 1.197145e+01 1.128198e+01 1.134292e+01 1.354989e+01 1.780268e+01 1.253449e+01 4.087522e-02 8.734614e-02 1.540843e-01 2.265825e-01 3.079380e-01 3.969485e-01 4.608482e-01 5.215847e-01 5.420835e-01 5.211474e-01 5.144392e-01 5.164422e-01 1.000000e-06
<GCONST> 4.724841e+01
<MIXTURE> 56 6.132464e-03
<MEAN> 25
 6.833574e+00 -7.081324e+00 -8.305564e+00 -9.475193e+00 3.315170e+00 4.500166e+00 -2.264915e+00 -3.194261e-01 1.397252e+00 4.692781e-01 -1.195114e+00 -7.263428e+00 4.461730e-02 3.405088e-02 -8.594795e-02 3.933018e-02 3.620044e-01 9.661008e-02 7.300436e-02 -3.313885e-02 -1.299767e-01 8.784271e-03 -1.620268e-01 -5.712821e-02 -8.303905e-03
<VARIANCE> 25
 1.175921e+01 2.157970e+01 2.238706e+01 4.345317e+01 3.262637e+01 4.701710e+01 5.505512e+01 4.089915e+01 3.741847e+01 3.400571e+01 4.786929e+01 2.771941e+01 2.237606e-01 4.039792e-01 4.816940e-01 7.026111e-01 8.521701e-01 1.064263e+00 8.237368e-01 8.896189e-01 8.899050e-01 8.407555e-01 1.066341e+00 7.448284e-01 2.650510e-04
<GCONST> 7.510631e+01
<MIXTURE> 57 6.132464e-03
<MEAN> 25
 6.833574e+00 -7.081324e+00 -8.305564e+00 -9.475193e+00 3.315170e+00 4.500166e+00 -2.264915e+00 -3.194261e-01 1.397252e+00 4.692781e-01 -1.195114e+00 -7.263428e+00 4.461730e-02 3.405088e-02 -8.594795e-02 3.933018e-02 3.620044e-01 9.661008e-02 7.300436e-02 -3.313885e-02 -1.299767e-01 8.784271e-03 -1.620268e-01 -5.712821e-02 -8.303905e-03
<VARIANCE> 25
 1.175921e+01 2.157970e+01 2.238706e+01 4.345317e+01 3.262637e+01 4.701710e+01 5.505512e+01 4.089915e+01 3.741847e+01 3.400571e+01 4.786929e+01 2.771941e+01 2.237606e-01 4.039792e-01 4.816940e-01 7.026111e-01 8.521701e-01 1.064263e+00 8.237368e-01 8.896189e-01 8.899050e-01 8.407555e-01 1.066341e+00 7.448284e-01 2.650510e-04
<GCONST> 7.510631e+01
<MIXTURE> 58 6.172147e-03
<MEAN> 25
 2.598767e+00 -3.157605e+00 6.594635e+00 -6.079246e+00 -1.278685e+01 -4.580743e+00 1.155533e+00 1.043440e+00 -2.802255e+00 1.881549e+00 1.614004e+00 -9.999410e-01 -9.364011e-02 -5.559350e-02 -1.690976e-01 -2.133743e-01 3.337062e-02 2.426051e-01 3.378407e-01 2.709649e-01 3.988954e-02 -6.994066e-02 -4.392112e-02 -9.903196e-02 -1.584856e-03
<VARIANCE> 25
 6.773558e+00 1.606333e+01 2.314329e+01 3.244302e+01 2.389824e+01 5.242839e+01 3.113515e+01 3.453099e+01 3.025489e+01 3.176487e+01 3.103578e+01 2.195582e+01 3.339198e-01 8.656597e-01 8.139546e-01 9.373900e-01 8.365235e-01 1.132589e+00 1.070046e+00 1.277103e+00 1.029724e+00 1.118518e+00 8.782809e-01 8.744628e-01 7.221150e-04
<GCONST> 7.615402e+01
<MIXTURE> 59 6.172147e-03
<MEAN> 25
 2.598767e+00 -3.157605e+00 6.594635e+00 -6.079246e+00 -1.278685e+01 -4.580743e+00 1.155533e+00 1.043440e+00 -2.802255e+00 1.881549e+00 1.614004e+00 -9.999410e-01 -9.364011e-02 -5.559350e-02 -1.690976e-01 -2.133743e-01 3.337062e-02 2.426051e-01 3.378407e-01 2.709649e-01 3.988954e-02 -6.994066e-02 -4.392112e-02 -9.903196e-02 -1.584856e-03
<VARIANCE> 25
 6.773558e+00 1.606333e+01 2.314329e+01 3.244302e+01 2.389824e+01 5.242839e+01 3.113515e+01 3.453099e+01 3.025489e+01 3.176487e+01 3.103578e+01 2.195582e+01 3.339198e-01 8.656597e-01 8.139546e-01 9.373900e-01 8.365235e-01 1.132589e+00 1.070046e+00 1.277103e+00 1.029724e+00 1.118518e+00 8.782809e-01 8.744628e-01 7.221150e-04
<GCONST> 7.615402e+01
<MIXTURE> 60 4.479129e-03
<MEAN> 25
 -4.264301e+00 -6.650012e-01 -1.084478e+00 3.697511e+00 1.731637e+00 2.118546e+00 1.637493e+00 1.531392e+00 2.158411e+00 1.264432e+00 2.385808e+00 1.916132e+00 -2.851570e-02 5.647497e-02 1.011139e-01 1.302590e-01 1.294915e-01 1.292601e-01 1.788211e-01 3.225721e-01 5.452204e-01 6.645888e-01 5.562104e-01 3.033770e-01 -3.908016e-04
<VARIANCE> 25
 6.933608e+00 4.524636e+00 1.027660e+01 1.130939e+01 1.357707e+01 1.700304e+01 1.399754e+01 1.185862e+01 1.272547e+01 1.319746e+01 1.594079e+01 1.229311e+01 8.694752e-02 1.683453e-01 2.793787e-01 4.320253e-01 5.865191e-01 7.280750e-01 8.283846e-01 8.989387e-01 9.026197e-01 8.356858e-01 8.391936e-01 8.627203e-01 2.295819e-05
<GCONST> 5.633247e+01
<MIXTURE> 61 4.479129e-03
<MEAN> 25
 -4.264301e+00 -6.650012e-01 -1.084478e+00 3.697511e+00 1.731637e+00 2.118546e+00 1.637493e+00 1.531392e+00 2.158411e+00 1.264432e+00 2.385808e+00 1.916132e+00 -2.851570e-02 5.647497e-02 1.011139e-01 1.302590e-01 1.294915e-01 1.292601e-01 1.788211e-01 3.225721e-01 5.452204e-01 6.645888e-01 5.562104e-01 3.033770e-01 -3.908016e-04
<VARIANCE> 25
 6.933608e+00 4.524636e+00 1.027660e+01 1.130939e+01 1.357707e+01 1.700304e+01 1.399754e+01 1.185862e+01 1.272547e+01 1.319746e+01 1.594079e+01 1.229311e+01 8.694752e-02 1.683453e-01 2.793787e-01 4.320253e-01 5.865191e-01 7.280750e-01 8.283846e-01 8.989387e-01 9.026197e-01 8.356858e-01 8.391936e-01 8.627203e-01 2.295819e-05
<GCONST> 5.633247e+01
<MIXTURE> 62 3.278034e-03
<MEAN> 25
 -5.084176e+00 1.243937e+00 1.021968e+00 8.811887e+00 6.120081e+00 5.049609e+00 5.497239e+00 4.033051e+00 4.981504e+00 3.912978e+00 4.958338e+00 2.952995e+00 -1.004071e+00 -1.165890e+00 -9.526398e-01 -2.766693e-01 4.285783e-01 1.005044e+00 1.382280e+00 1.551101e+00 1.477000e+00 1.244185e+00 1.066248e+00 7.263056e-01 -1.260991e-03
<VARIANCE> 25
 9.908013e+00 9.957218e+00 1.312221e+01 1.676233e+01 1.751022e+01 1.751224e+01 1.968629e+01 1.910190e+01 1.886138e+01 1.873470e+01 2.160538e+01 1.478429e+01 4.018692e-01 4.322500e-01 5.539303e-01 7.786344e-01 1.034930e+00 1.191460e+00 1.256734e+00 1.279034e+00 1.331297e+00 1.363046e+00 1.399363e+00 1.370006e+00 1.632204e-05
<GCONST> 6.753794e+01
<MIXTURE> 63 4.351215e-03
<MEAN> 25
 -3.705405e+00 -2.477906e+00 -4.581773e+00 3.379065e+00 3.381500e+00 -6.098318e-01 2.640565e+00 1.910178e+00 2.457335e+00 -8.259106e-01 -1.525486e+00 2.634596e+00 -1.725736e-01 2.660528e-01 4.014656e-01 5.782104e-01 3.906080e-01 2.815138e-01 4.357852e-01 1.371245e-01 1.704245e-01 2.983004e-01 1.917308e-01 2.193213e-01 -4.736684e-03
<VARIANCE> 25
 1.014443e+01 1.408806e+01 1.493554e+01 2.078179e+01 1.634617e+01 2.608005e+01 2.217592e+01 2.356948e+01 2.358374e+01 2.053897e+01 1.953434e+01 1.695986e+01 3.128336e-01 4.604174e-01 5.751877e-01 7.980584e-01 9.098800e-01 1.242454e+00 1.475359e+00 1.403698e+00 1.252302e+00 1.356449e+00 1.314206e+00 1.251542e+00 1.800982e-04
<GCONST> 7.148679e+01
<MIXTURE> 64 4.351215e-03
<MEAN> 25
 -3.705405e+00 -2.477906e+00 -4.581773e+00 3.379065e+00 3.381500e+00 -6.098318e-01 2.640565e+00 1.910178e+00 2.457335e+00 -8.259106e-01 -1.525486e+00 2.634596e+00 -1.725736e-01 2.660528e-01 4.014656e-01 5.782104e-01 3.906080e-01 2.815138e-01 4.357852e-01 1.371245e-01 1.704245e-01 2.983004e-01 1.917308e-01 2.193213e-01 -4.736684e-03
<VARIANCE> 25
 1.014443e+01 1.408806e+01 1.493554e+01 2.078179e+01 1.634617e+01 2.608005e+01 2.217592e+01 2.356948e+01 2.358374e+01 2.053897e+01 1.953434e+01 1.695986e+01 3.128336e-01 4.604174e-01 5.751877e-01 7.980584e-01 9.098800e-01 1.242454e+00 1.475359e+00 1.403698e+00 1.252302e+00 1.356449e+00 1.314206e+00 1.251542e+00 1.800982e-04
<GCONST> 7.148679e+01
<MIXTURE> 65 1.721197e-02
<MEAN> 25
 7.697005e+00 2.012285e+00 1.845762e+00 9.588181e-01 -5.323637e+00 -4.422381e+00 -5.526491e+00 -6.715220e+00 -3.713977e+00 -1.881554e+00 -5.237899e+00 -1.646159e+00 1.288117e-01 1.484581e-01 -6.650541e-03 1.437802e-01 -1.437319e-01 2.542296e-01 -3.634655e-02 -9.190939e-02 2.065735e-01 -1.614689e-02 1.176532e-03 -4.935229e-02 -6.344880e-03
<VARIANCE> 25
 1.066927e+01 1.944963e+01 2.435810e+01 3.937452e+01 3.572846e+01 5.710555e+01 5.520992e+01 5.730505e+01 5.189470e+01 5.688523e+01 5.349381e+01 4.940667e+01 5.599778e-01 9.762042e-01 1.569783e+00 1.847333e+00 1.931586e+00 2.357956e+00 2.242975e+00 3.014998e+00 2.307754e+00 2.463656e+00 2.323242e+00 2.159937e+00 4.581607e-04
<GCONST> 8.924933e+01
<MIXTURE> 66 1.191532e-02
<MEAN> 25
 6.448081e+00 -3.805881e+00 -5.023022e+00 -4.562081e+00 1.850728e+00 -2.734984e+00 -6.352562e+00 1.348795e+00 -4.308632e-01 -1.415867e+00 -4.806956e+00 -3.900699e+00 1.346051e-01 1.534045e+00 2.034003e+00 2.249267e+00 -1.472063e+00 -1.142457e+00 2.925380e-02 -1.240913e+00 -2.030807e-01 1.258468e-01 -2.323834e-01 9.782316e-01 -6.384412e-02
<VARIANCE> 25
 8.040917e+00 1.821029e+01 2.446135e+01 2.918378e+01 3.258767e+01 5.922846e+01 4.695018e+01 4.247863e+01 4.941861e+01 5.503540e+01 3.626499e+01 3.190266e+01 1.369415e+00 2.063347e+00 2.010197e+00 2.341962e+00 3.868657e+00 3.839411e+00 3.611604e+00 5.410042e+00 3.564113e+00 4.422901e+00 3.525734e+00 2.876373e+00 1.220333e-03
<GCONST> 9.425370e+01
<MIXTURE> 67 1.559142e-02
<MEAN> 25
 8.025314e+00 1.379237e+00 -5.163094e+00 -8.896858e+00 2.483096e-01 4.203913e+00 -2.528630e+00 -9.646847e-01 -3.506999e+00 1.115657e+00 1.351685e+00 -2.212637e+00 -8.132767e-01 1.765304e+00 7.307437e-01 3.106653e+00 1.132573e+00 -4.515184e-01 1.508599e+00 -2.131130e-01 2.684943e-01 2.759803e-01 -4.173884e-01 7.795845e-01 -1.219268e-01
<VARIANCE> 25
 1.332133e+01 3.618856e+01 2.906435e+01 5.037239e+01 4.793578e+01 5.325016e+01 5.622482e+01 5.362804e+01 5.363861e+01 5.283364e+01 5.560127e+01 4.417443e+01 2.054464e+00 2.932914e+00 3.159996e+00 3.979194e+00 4.112067e+00 3.978023e+00 4.124061e+00 4.654603e+00 4.594971e+00 4.166142e+00 4.499131e+00 3.286778e+00 2.747810e-03
<GCONST> 1.008519e+02
<MIXTURE> 68 1.485092e-02
<MEAN> 25
 -2.235454e+00 -2.208811e+00 -4.122152e+00 1.707658e+00 5.521242e+00 -7.954149e-01 1.745607e+00 1.669065e+00 2.157556e+00 1.653503e+00 -2.185739e-01 1.853044e+00 2.731817e+00 3.461479e-01 -1.366893e-01 -2.734326e+00 -2.241457e+00 -1.376274e+00 -2.268554e+00 -1.561206e+00 -1.735368e+00 -1.435669e+00 -1.751818e+00 -1.288338e+00 1.032698e-01
<VARIANCE> 25
 2.479412e+01 3.023177e+01 5.417968e+01 5.270764e+01 4.517063e+01 5.141553e+01 4.491909e+01 3.912896e+01 3.920934e+01 4.031147e+01 4.069690e+01 2.433316e+01 1.777231e+00 3.922678e+00 5.893813e+00 5.900449e+00 4.782757e+00 5.912466e+00 5.516287e+00 5.122230e+00 4.953156e+00 4.863215e+00 5.377886e+00 3.759320e+00 5.664755e-03
<GCONST> 1.031981e+02
<MIXTURE> 69 1.204884e-02
<MEAN> 25
 4.007882e+00 -4.580412e+00 -3.675913e+00 -3.183435e+00 -2.754894e+00 -6.934741e+00 -8.779889e-01 2.300051e+00 3.135801e-01 -4.249021e+00 -5.279264e+00 3.756212e-01 1.729085e+00 -2.422571e+00 -1.263441e+00 -2.282724e+00 -2.727302e-01 -7.589384e-02 -5.103500e-01 6.396785e-01 -5.912909e-01 -1.320843e+00 -1.872406e+00 -5.774460e-01 6.895415e-02
<VARIANCE> 25
 9.846107e+00 2.134512e+01 2.373390e+01 2.551598e+01 4.211884e+01 3.692578e+01 4.668187e+01 2.741213e+01 4.181941e+01 3.558725e+01 2.916532e+01 2.482229e+01 3.104125e+00 3.052486e+00 2.928088e+00 3.229630e+00 5.473099e+00 4.976385e+00 6.532740e+00 5.375741e+00 5.176781e+00 5.229842e+00 4.538167e+00 4.100420e+00 2.392062e-03
<GCONST> 9.764010e+01
<MIXTURE> 70 1.329190e-02
<MEAN> 25
 6.403160e+00 -2.354149e+00 -3.655495e+00 -4.329492e+00 2.769977e-03 -2.654741e-01 -6.425632e+00 -2.431566e+00 -3.605055e-01 2.049032e+00 3.477321e-01 -5.273186e+00 1.843440e+00 -1.396343e+00 -6.849434e-01 -2.453910e+00 -1.442218e+00 1.311770e+00 -8.513310e-01 2.088810e-01 -2.211425e-01 -3.262072e-01 9.898075e-01 -1.724200e+00 6.487442e-02
<VARIANCE> 25
 1.167845e+01 2.123969e+01 2.479507e+01 4.441191e+01 3.608147e+01 3.598209e+01 4.516136e+01 4.227105e+01 4.377336e+01 2.954742e+01 4.647296e+01 2.831610e+01 2.948336e+00 2.858858e+00 3.976380e+00 4.492716e+00 4.479393e+00 5.194139e+00 6.748990e+00 6.492406e+00 6.423191e+00 4.583964e+00 5.232452e+00 3.747049e+00 2.227925e-03
<GCONST> 9.972833e+01
<MIXTURE> 71 1.406903e-02
<MEAN> 25
 5.605106e+00 4.528999e+00 3.625042e+00 3.317153e+00 -3.154832e+00 -3.645499e+00 -2.844507e+00 -7.090467e+00 -3.743880e+00 -1.957307e+00 -4.985247e+00 -2.298104e+00 -1.617416e+00 -5.700837e-01 -2.343823e-01 -1.720434e+00 1.150094e+00 -1.360233e-01 -1.354206e-01 1.599455e+00 6.134812e-01 -1.713930e-01 5.068251e-01 4.541508e-01 3.997580e-02
<VARIANCE> 25
 2.014888e+01 2.362841e+01 2.196616e+01 4.497534e+01 3.456067e+01 3.518382e+01 3.754284e+01 3.739312e+01 3.593334e+01 4.131831e+01 3.450975e+01 3.253089e+01 1.832459e+00 2.905314e+00 4.855190e+00 4.324603e+00 3.941781e+00 4.319301e+00 4.675745e+00 5.670621e+00 4.079773e+00 3.525955e+00 3.263986e+00 3.462082e+00 1.250052e-03
<GCONST> 9.692026e+01
<MIXTURE> 72 8.134747e-03
<MEAN> 25
 3.775628e+00 -3.669085e+00 5.447499e+00 -2.444560e+00 -1.037748e+01 -9.614162e+00 -2.440664e+00 1.912737e+00 -4.928909e+00 -2.190641e+00 -1.887165e+00 6.267513e-01 9.323608e-01 -7.867718e-01 -2.578273e+00 4.633336e-01 2.139576e+00 -6.509574e-01 -1.318564e+00 1.528486e+00 1.813199e+00 -5.977891e-01 -1.288626e+00 3.999295e-01 -6.097040e-03
<VARIANCE> 25
 1.091758e+01 1.953217e+01 3.287480e+01 3.877285e+01 3.267609e+01 3.337096e+01 4.104456e+01 3.618082e+01 4.376620e+01 4.134626e+01 3.876201e+01 2.848380e+01 4.337438e-01 1.029191e+00 2.024699e+00 1.469686e+00 2.185513e+00 2.357337e+00 3.069432e+00 2.729060e+00 2.599641e+00 2.956626e+00 2.025989e+00 2.130393e+00 5.412656e-04
<GCONST> 8.729389e+01
<MIXTURE> 73 1.213625e-02
<MEAN> 25
 -5.627933e+00 1.985289e-01 -1.481802e+00 5.063473e+00 2.827464e+00 6.759877e-01 5.355989e+00 3.008227e+00 4.374688e+00 2.910223e+00 3.111802e+00 3.768512e+00 1.030370e+00 -1.459106e+00 -1.179606e+00 -2.602957e+00 -7.523618e-01 -1.442860e+00 -1.303272e+00 -1.518221e-01 -6.897818e-01 -7.954913e-01 -1.194652e+00 -7.729229e-01 1.419787e-01
<VARIANCE> 25
 1.296878e+01 1.454513e+01 1.322959e+01 1.995496e+01 2.415730e+01 2.658716e+01 1.705593e+01 1.819210e+01 1.542467e+01 1.662752e+01 2.488367e+01 1.574624e+01 3.989485e+00 3.531876e+00 4.857856e+00 3.729722e+00 5.339740e+00 4.523263e+00 4.288597e+00 3.849304e+00 3.129846e+00 3.514071e+00 2.854764e+00 2.931494e+00 3.847047e-03
<GCONST> 9.097549e+01
<MIXTURE> 74 1.756491e-02
<MEAN> 25
 4.306608e+00 -8.048013e-01 4.973542e+00 -7.413610e-01 -8.200326e+00 -8.542716e+00 -3.172445e+00 9.325112e-01 -3.756508e+00 -2.310199e+00 -9.900162e-01 1.457219e-01 2.982475e-01 1.878826e+00 5.822073e-03 1.727338e+00 1.153239e+00 3.067562e-01 3.149161e-01 -1.441111e+00 2.749655e-01 2.667399e-01 -1.999166e-01 5.268869e-02 -7.740876e-02
<VARIANCE> 25
 1.135291e+01 2.411618e+01 3.403336e+01 4.814291e+01 3.799628e+01 5.428138e+01 4.779134e+01 4.387415e+01 4.212997e+01 4.278251e+01 3.852007e+01 3.022318e+01 1.920953e+00 1.964233e+00 3.390186e+00 2.956409e+00 3.680997e+00 3.766806e+00 4.888470e+00 3.940232e+00 4.108194e+00 3.651720e+00 3.266890e+00 2.981382e+00 1.580272e-03
<GCONST> 9.655187e+01
<MIXTURE> 75 9.711651e-03
<MEAN> 25
 2.293480e+00 -1.029612e+00 1.063609e+01 2.158005e+00 -1.081531e+01 -8.208860e+00 -5.406427e+00 3.852649e-01 -5.045033e+00 -4.233288e+00 3.361172e+00 -1.694454e-01 1.686819e+00 -1.554827e+00 3.906352e-01 -2.991295e-01 -2.310364e+00 -7.342754e-01 -1.439841e+00 8.217034e-01 -5.774452e-02 -3.941386e-01 1.172116e+00 -7.570698e-01 3.990404e-02
<VARIANCE> 25
 1.127840e+01 1.675686e+01 2.918914e+01 2.997835e+01 3.276418e+01 3.429108e+01 3.570507e+01 3.503511e+01 3.276093e+01 2.964952e+01 1.885434e+01 2.043008e+01 2.187179e+00 2.237690e+00 4.171794e+00 2.270838e+00 3.571700e+00 4.712526e+00 3.805984e+00 3.655791e+00 3.857353e+00 3.100249e+00 2.856149e+00 2.403257e+00 1.500888e-03
<GCONST> 9.214996e+01
<MIXTURE> 76 1.052359e-02
<MEAN> 25
 -6.149348e+00 -9.355344e-01 -2.977870e+00 2.776763e+00 4.006987e+00 1.634309e+00 3.921103e+00 1.810431e+00 2.122243e+00 1.145115e+00 1.849387e+00 2.343506e+00 2.830758e-02 -6.364893e-01 -2.757415e-01 -1.048580e+00 -5.198829e-01 -7.411204e-01 -8.182923e-01 -4.199640e-02 -3.878628e-01 -4.623247e-01 -2.895348e-01 -1.852052e-01 3.146303e-02
<VARIANCE> 25
 3.460410e+01 2.979559e+01 2.602076e+01 3.334742e+01 2.614730e+01 2.554571e+01 2.163629e+01 2.355212e+01 2.329713e+01 2.207224e+01 2.286226e+01 2.160422e+01 1.172572e+00 1.135331e+00 1.267885e+00 1.408824e+00 1.213928e+00 1.376970e+00 1.631265e+00 1.860631e+00 1.569988e+00 1.605386e+00 1.835030e+00 1.244771e+00 1.379451e-03
<GCONST> 8.248860e+01
<MIXTURE> 77 1.244626e-02
<MEAN> 25
 -1.835144e-01 8.534882e+00 1.197251e+01 -1.191055e+01 -7.243535e+00 9.126053e-01 -9.327853e+00 -6.944087e+00 -3.328771e+00 -5.649447e-01 -4.123234e+00 -1.222675e+00 7.853939e-02 1.340619e-01 6.450671e-02 1.782098e-01 -1.142966e-01 6.485472e-02 -1.457004e-01 -4.903698e-02 9.264287e-02 -2.904163e-02 3.080527e-02 3.732738e-02 -7.880384e-03
<VARIANCE> 25
 1.131434e+01 1.918665e+01 3.011082e+01 4.269221e+01 3.260330e+01 3.219191e+01 3.520120e+01 3.186168e+01 3.345408e+01 3.487340e+01 4.057842e+01 3.434125e+01 2.914467e-01 7.515172e-01 6.196880e-01 1.127788e+00 1.330906e+00 9.399188e-01 1.299042e+00 1.027166e+00 9.989531e-01 1.028177e+00 9.379690e-01 1.022246e+00 6.005825e-04
<GCONST> 7.796880e+01
<MIXTURE> 78 9.702551e-03
<MEAN> 25
 -1.170267e+01 2.513983e+00 1.315243e+00 3.588967e+00 3.290121e+00 -2.690290e+00 4.746823e+00 5.910704e-01 2.900372e+00 3.370260e-01 -1.471157e+00 4.298401e+00 2.122347e+00 -7.588190e-01 -1.058689e-01 7.622183e-01 3.287582e-01 6.444226e-03 6.870654e-02 1.708565e-01 5.683552e-02 9.394743e-02 -3.125601e-01 -7.096869e-01 -5.045917e-02
<VARIANCE> 25
 3.366575e+01 3.070463e+01 4.082626e+01 2.853908e+01 3.228612e+01 3.223293e+01 3.506426e+01 4.114527e+01 2.459830e+01 2.506189e+01 2.330182e+01 2.075781e+01 3.822059e+00 2.555564e+00 3.252803e+00 2.992555e+00 3.341053e+00 3.317959e+00 3.387849e+00 2.470143e+00 2.116973e+00 2.262344e+00 2.217078e+00 1.694460e+00 4.553287e-03
<GCONST> 9.335865e+01
<MIXTURE> 79 1.156824e-02
<MEAN> 25
 2.783841e+00 1.918635e+00 8.696134e+00 -7.502786e+00 -1.245084e+01 -1.763469e+00 -2.699682e+00 -5.762015e+00 -6.075481e+00 -4.442541e-01 -3.193695e+00 -3.012085e+00 1.153986e+00 -4.817506e-01 -1.346475e+00 2.420321e+00 3.296441e-01 -1.503875e+00 6.670489e-01 8.082031e-01 -4.623224e-01 -4.583232e-01 1.802316e-01 2.062431e-01 -3.777746e-02
<VARIANCE> 25
 1.515349e+01 2.358248e+01 3.737793e+01 5.770447e+01 3.384634e+01 4.049927e+01 4.835196e+01 3.959853e+01 3.849719e+01 4.536544e+01 4.157323e+01 2.915142e+01 9.357429e-01 2.138939e+00 1.837770e+00 2.096247e+00 2.387378e+00 2.614065e+00 3.184521e+00 3.334776e+00 2.337165e+00 2.661217e+00 2.514281e+00 1.991957e+00 1.169620e-03
<GCONST> 9.177194e+01
<MIXTURE> 80 7.550998e-03
<MEAN> 25
 -1.460870e+01 3.983638e+00 6.893218e-01 2.866215e+00 2.449633e+00 1.410320e+00 6.396519e+00 2.496049e+00 2.719716e+00 2.372950e+00 4.852151e+00 1.187762e+00 4.285987e+00 -1.603441e-02 1.637817e+00 -1.135392e+00 -2.889241e+00 -2.777334e+00 -2.322829e+00 -2.021290e+00 -1.974999e+00 -1.685080e+00 -1.650778e+00 -6.027779e-01 -4.423230e-02
<VARIANCE> 25
 2.094786e+01 1.984901e+01 3.444380e+01 3.470544e+01 3.017864e+01 2.920607e+01 2.828672e+01 2.855903e+01 2.674451e+01 2.881200e+01 2.685728e+01 1.811176e+01 2.358316e+00 2.665974e+00 2.673054e+00 4.119801e+00 3.394409e+00 2.705427e+00 3.026689e+00 3.204158e+00 2.748987e+00 2.701626e+00 2.782268e+00 2.145551e+00 1.512093e-03
<GCONST> 9.139778e+01
<MIXTURE> 81 8.025434e-03
<MEAN> 25
 -1.068575e+00 4.082553e+00 1.007304e+01 -1.479003e+01 -9.067753e+00 -1.404840e+00 -6.766224e+00 -8.358737e+00 -4.126372e+00 -4.219676e-01 -7.446000e+00 -2.194170e+00 1.383304e-01 -5.890536e-01 -6.924517e-04 -5.672705e-01 -4.621720e-01 3.323183e-01 3.177424e-01 1.517182e-01 -1.363489e-01 8.928080e-02 -4.552538e-01 -1.405536e-01 1.163842e-02
<VARIANCE> 25
 1.029376e+01 3.253239e+01 2.724176e+01 2.920986e+01 3.354555e+01 3.021898e+01 4.511308e+01 2.838169e+01 3.764256e+01 3.198118e+01 2.654069e+01 3.097360e+01 7.669906e-01 2.262527e+00 1.531715e+00 2.865914e+00 2.652761e+00 2.107134e+00 3.271020e+00 2.298692e+00 2.333880e+00 2.565275e+00 2.303154e+00 2.082537e+00 1.176755e-03
<GCONST> 8.870267e+01
<MIXTURE> 82 8.213053e-03
<MEAN> 25
 -9.915080e+00 -3.866289e+00 1.604654e+00 -2.951539e+00 3.114669e+00 6.594982e-01 2.006537e+00 9.249423e-01 2.956319e+00 1.731271e+00 1.726055e+00 3.080581e+00 -1.303611e+00 -1.317470e-01 2.893101e-01 -2.597403e+00 -1.094467e+00 -1.258892e+00 -1.021312e+00 -8.550509e-01 -3.124403e-01 -4.802190e-01 -3.214636e-01 -9.508875e-02 1.775482e-01
<VARIANCE> 25
 1.826843e+01 2.506025e+01 3.242944e+01 3.083855e+01 3.281715e+01 3.212432e+01 3.158581e+01 3.297073e+01 3.070591e+01 2.505503e+01 3.078550e+01 1.761269e+01 3.772438e+00 3.057100e+00 3.299577e+00 3.261724e+00 3.556030e+00 3.273046e+00 2.937851e+00 3.027881e+00 2.785174e+00 2.477443e+00 2.451946e+00 1.881386e+00 3.494949e-03
<GCONST> 9.309644e+01
<MIXTURE> 83 1.167529e-02
<MEAN> 25
 -1.959257e+01 6.029696e+00 -1.182933e+00 -8.362234e-02 7.479221e+00 -1.255802e+00 5.065205e+00 2.342235e+00 1.489101e+00 1.724039e+00 7.846352e-01 3.776723e+00 -8.981335e-02 -4.114645e-01 9.593309e-02 -3.849768e-01 -5.316387e-01 -1.309696e-01 -2.551441e-02 -3.005080e-01 -6.301392e-02 -1.013331e-01 -2.625382e-01 -8.366120e-03 3.948318e-03
<VARIANCE> 25
 9.750568e+00 1.714852e+01 2.863090e+01 2.147277e+01 2.042673e+01 2.218454e+01 2.116824e+01 2.649574e+01 2.016632e+01 2.299490e+01 2.280655e+01 1.993174e+01 1.073425e+00 8.854241e-01 1.288521e+00 1.031688e+00 1.287735e+00 1.217692e+00 1.270383e+00 1.775110e+00 1.351295e+00 1.252872e+00 1.864172e+00 1.108600e+00 8.656415e-04
<GCONST> 7.788907e+01
<MIXTURE> 84 1.066614e-02
<MEAN> 25
 1.271409e+00 8.604454e+00 6.894815e+00 7.952622e+00 2.442571e+00 -1.584536e+00 -1.463319e+00 -4.350468e+00 -3.776629e+00 -2.605353e+00 -2.123572e+00 -1.265162e+00 -1.655087e+00 -1.091569e+00 -1.176790e+00 1.139360e+00 2.059934e+00 1.601969e+00 1.468867e+00 1.171757e+00 1.108335e+00 3.225378e-01 3.143070e-01 4.500737e-01 -6.960528e-02
<VARIANCE> 25
 2.205997e+01 1.833099e+01 2.109936e+01 2.241268e+01 2.872782e+01 2.922302e+01 2.615039e+01 2.462216e+01 2.448080e+01 2.409488e+01 2.305780e+01 2.337937e+01 2.131165e+00 2.443633e+00 3.522313e+00 3.210526e+00 3.346434e+00 3.423794e+00 3.180511e+00 3.449883e+00 3.178799e+00 3.009753e+00 3.457814e+00 2.589713e+00 3.406867e-03
<GCONST> 9.165655e+01
<MIXTURE> 85 7.591393e-03
<MEAN> 25
 -3.110872e+00 7.889217e+00 5.720264e+00 1.295912e+00 -3.486938e+00 -5.329650e+00 -2.983494e+00 -6.113669e+00 -3.549689e+00 -3.181180e+00 -4.827149e-01 -1.892040e+00 3.940137e+00 3.237765e-01 1.757358e+00 -2.089485e+00 -3.412191e+00 -2.584833e+00 -2.886749e+00 -2.338845e+00 -2.249515e+00 -1.265150e+00 -2.299758e+00 -6.181856e-01 9.287233e-03
<VARIANCE> 25
 4.243929e+01 2.342133e+01 3.647072e+01 3.829365e+01 3.976477e+01 4.117175e+01 3.215509e+01 2.793961e+01 2.668264e+01 2.610837e+01 2.622488e+01 2.062175e+01 2.713836e+00 4.323670e+00 4.057443e+00 5.182607e+00 4.410683e+00 3.880349e+00 3.851376e+00 3.991576e+00 3.847574e+00 4.038110e+00 3.949181e+00 3.488090e+00 5.447787e-03
<GCONST> 9.836553e+01
<MIXTURE> 86 1.273941e-02
<MEAN> 25
 -4.974934e+00 -1.208789e+00 -7.959595e-01 6.336027e+00 5.017880e+00 4.674053e+00 5.318566e+00 4.572357e+00 4.661096e+00 3.916042e+00 5.338217e+00 2.701056e+00 -6.751839e-03 -8.716666e-03 -3.815165e-02 -6.559715e-02 -1.177728e-01 -1.849756e-01 -2.672433e-01 -3.320687e-01 -3.533292e-01 -3.193744e-01 -2.302683e-01 -1.064959e-01 -5.504235e-04
<VARIANCE> 25
 7.885911e+00 5.633463e+00 9.979762e+00 1.230395e+01 1.587435e+01 1.433608e+01 1.353698e+01 1.305186e+01 1.319260e+01 1.424071e+01 1.433255e+01 1.277731e+01 9.992160e-02 1.929715e-01 3.185054e-01 4.834493e-01 6.362153e-01 7.345961e-01 7.434828e-01 7.641625e-01 8.305552e-01 8.844250e-01 9.115616e-01 9.031868e-01 5.341675e-05
<GCONST> 5.811319e+01
<MIXTURE> 87 1.100681e-02
<MEAN> 25
 -3.467295e+00 4.421089e+00 3.514485e+00 7.325779e+00 5.039883e+00 5.651250e-02 1.848930e+00 -1.206459e+00 -1.641085e-01 -9.163240e-01 -9.014075e-01 5.882263e-01 -1.966146e+00 -2.687582e+00 -2.107491e+00 -1.948214e+00 2.591698e-01 -1.356066e-01 5.321885e-01 1.442961e+00 1.368713e+00 8.815775e-01 7.393671e-01 9.065806e-01 9.911001e-02
<VARIANCE> 25
 3.526348e+01 2.818316e+01 2.511889e+01 3.197996e+01 3.072546e+01 3.401912e+01 2.614178e+01 2.597844e+01 2.486709e+01 2.252604e+01 2.321285e+01 2.330352e+01 4.359385e+00 2.544407e+00 3.845556e+00 3.913236e+00 5.063593e+00 4.130031e+00 4.987944e+00 3.694429e+00 3.176804e+00 3.165786e+00 3.443937e+00 3.025921e+00 4.693058e-03
<GCONST> 9.599373e+01
<MIXTURE> 88 1.256585e-02
<MEAN> 25
 -3.075303e+00 -3.512155e-01 -1.845165e+00 4.909760e+00 3.759463e+00 2.792293e+00 4.917214e+00 2.840170e+00 2.845318e+00 3.285281e+00 1.837556e+00 2.751529e+00 -2.420859e-01 3.094350e-01 1.445735e-01 2.622063e-01 3.733723e-01 -8.099811e-02 -2.265913e-01 -2.212000e-01 -4.982744e-01 -2.956168e-01 1.494506e-01 6.193177e-02 -2.411974e-03
<VARIANCE> 25
 1.066684e+01 8.900331e+00 1.310386e+01 1.374310e+01 1.573569e+01 1.727966e+01 2.025046e+01 1.972240e+01 1.408417e+01 1.917222e+01 2.060902e+01 1.633607e+01 1.551185e+00 1.582861e+00 1.601458e+00 3.964984e+00 2.346787e+00 3.188159e+00 2.373258e+00 3.259006e+00 2.071673e+00 2.100217e+00 3.043635e+00 2.436250e+00 1.643112e-03
<GCONST> 8.257420e+01
<MIXTURE> 89 9.333527e-03
<MEAN> 25
 5.987313e+00 -6.748429e+00 -3.433856e+00 -3.002357e+00 -1.596333e+00 -5.240158e+00 -5.871594e+00 3.987756e+00 3.512848e+00 -2.453336e+00 -5.900055e+00 -3.307584e+00 -5.725121e-01 1.646705e-01 1.938951e+00 8.854949e-01 -1.816126e+00 -1.651347e+00 8.367608e-01 1.228718e+00 -7.880743e-01 -1.256533e+00 4.416364e-01 1.525286e+00 -5.314314e-03
<VARIANCE> 25
 8.978061e+00 2.653628e+01 3.026955e+01 3.050918e+01 3.498417e+01 4.332495e+01 5.973319e+01 4.150097e+01 3.773741e+01 4.400470e+01 3.485552e+01 3.123327e+01 3.570341e-01 8.202726e-01 1.490375e+00 1.359766e+00 1.921238e+00 2.067105e+00 2.554471e+00 2.058880e+00 2.180514e+00 2.152260e+00 2.312518e+00 1.494962e+00 3.614593e-04
<GCONST> 8.517384e+01
<MIXTURE> 90 7.114505e-03
<MEAN> 25
 2.481364e+00 -9.715240e+00 -4.703274e+00 -3.959112e+00 -3.377452e+00 -1.757658e+00 3.284780e+00 1.215395e+00 -7.399042e+00 -1.005610e+01 -3.429517e+00 -7.722364e-01 -1.613205e-01 9.032885e-01 1.170154e+00 -8.561931e-01 -1.608113e+00 -2.186671e-01 6.297802e-01 -2.168313e-01 -1.807828e-01 7.398959e-01 2.017241e-01 -5.477830e-01 -1.114581e-02
<VARIANCE> 25
 8.518031e+00 1.763496e+01 1.987800e+01 2.783018e+01 3.662271e+01 3.218304e+01 3.881451e+01 3.616571e+01 3.663423e+01 2.994145e+01 2.673935e+01 2.599904e+01 2.226388e-01 6.114783e-01 7.800499e-01 1.033712e+00 1.459261e+00 1.581078e+00 1.789370e+00 1.645261e+00 1.806528e+00 1.662979e+00 1.518032e+00 1.297561e+00 2.138422e-04
<GCONST> 7.817229e+01
<MIXTURE> 91 7.852945e-03
<MEAN> 25
 5.451974e+00 -6.852159e+00 -7.061035e+00 -4.570762e+00 4.530728e+00 1.418031e+00 -1.205077e+00 2.284492e+00 -3.282729e-01 -2.363424e+00 -3.257560e+00 -5.489588e+00 4.080060e-01 1.136342e+00 2.765070e-01 4.703042e-01 -1.622816e-01 -4.995127e-01 -4.574575e-01 -1.783267e-01 -2.923147e-01 7.546391e-01 -1.413847e-01 1.310511e-02 -3.929218e-02
<VARIANCE> 25
 9.912074e+00 1.965856e+01 1.824654e+01 4.170140e+01 3.551643e+01 4.466558e+01 4.329276e+01 3.304658e+01 4.100225e+01 4.970420e+01 3.352472e+01 2.963274e+01 4.899051e-01 7.447429e-01 1.105594e+00 1.336338e+00 1.788512e+00 2.538041e+00 2.078838e+00 1.994622e+00 1.946993e+00 1.830618e+00 1.748223e+00 1.568938e+00 5.506689e-04
<GCONST> 8.410232e+01
<MIXTURE> 92 7.852945e-03
<MEAN> 25
 5.451974e+00 -6.852159e+00 -7.061035e+00 -4.570762e+00 4.530728e+00 1.418031e+00 -1.205077e+00 2.284492e+00 -3.282729e-01 -2.363424e+00 -3.257560e+00 -5.489588e+00 4.080060e-01 1.136342e+00 2.765070e-01 4.703042e-01 -1.622816e-01 -4.995127e-01 -4.574575e-01 -1.783267e-01 -2.923147e-01 7.546391e-01 -1.413847e-01 1.310511e-02 -3.929218e-02
<VARIANCE> 25
 9.912074e+00 1.965856e+01 1.824654e+01 4.170140e+01 3.551643e+01 4.466558e+01 4.329276e+01 3.304658e+01 4.100225e+01 4.970420e+01 3.352472e+01 2.963274e+01 4.899051e-01 7.447429e-01 1.105594e+00 1.336338e+00 1.788512e+00 2.538041e+00 2.078838e+00 1.994622e+00 1.946993e+00 1.830618e+00 1.748223e+00 1.568938e+00 5.506689e-04
<GCONST> 8.410232e+01
<MIXTURE> 93 6.122769e-03
<MEAN> 25
 -6.825819e+00 -9.612056e-01 -2.402231e+00 5.798120e+00 5.908294e+00 3.922797e+00 6.123493e+00 3.609040e+00 4.119614e+00 2.509350e+00 1.818382e+00 3.705910e+00 -6.164000e-02 -1.543872e-01 -2.573870e-01 -3.317066e-01 -3.337587e-01 -2.844732e-01 -2.177871e-01 -1.742780e-01 -1.667204e-01 -1.506447e-01 -1.044153e-01 -3.554936e-02 -3.837683e-06
<VARIANCE> 25
 9.093901e+00 6.027777e+00 8.185111e+00 1.136881e+01 1.149258e+01 1.598249e+01 1.527640e+01 1.644382e+01 1.475774e+01 1.454170e+01 1.678724e+01 1.344866e+01 8.272374e-02 1.533694e-01 2.637162e-01 3.805642e-01 4.977629e-01 6.423341e-01 7.793725e-01 8.873125e-01 9.166239e-01 8.761251e-01 8.923470e-01 9.178919e-01 1.000000e-06
<GCONST> 5.360219e+01
<MIXTURE> 94 6.122769e-03
<MEAN> 25
 -6.825819e+00 -9.612056e-01 -2.402231e+00 5.798120e+00 5.908294e+00 3.922797e+00 6.123493e+00 3.609040e+00 4.119614e+00 2.509350e+00 1.818382e+00 3.705910e+00 -6.164000e-02 -1.543872e-01 -2.573870e-01 -3.317066e-01 -3.337587e-01 -2.844732e-01 -2.177871e-01 -1.742780e-01 -1.667204e-01 -1.506447e-01 -1.044153e-01 -3.554936e-02 -3.837683e-06
<VARIANCE> 25
 9.093901e+00 6.027777e+00 8.185111e+00 1.136881e+01 1.149258e+01 1.598249e+01 1.527640e+01 1.644382e+01 1.475774e+01 1.454170e+01 1.678724e+01 1.344866e+01 8.272374e-02 1.533694e-01 2.637162e-01 3.805642e-01 4.977629e-01 6.423341e-01 7.793725e-01 8.873125e-01 9.166239e-01 8.761251e-01 8.923470e-01 9.178919e-01 1.000000e-06
<GCONST> 5.360219e+01
<MIXTURE> 95 5.258835e-03
<MEAN> 25
 -5.828194e+00 -7.381423e-01 -1.989551e+00 4.896989e+00 4.223797e+00 2.809294e+00 4.173112e+00 1.662247e+00 2.226425e+00 8.720304e-01 1.197312e+00 2.594144e+00 1.454761e-01 1.467564e-01 8.523408e-02 -8.324565e-02 -3.783912e-01 -7.175836e-01 -1.055871e+00 -1.281832e+00 -1.264004e+00 -9.921027e-01 -6.497644e-01 -3.076674e-01 -1.425471e-04
<VARIANCE> 25
 1.023204e+01 6.487836e+00 1.223110e+01 1.278131e+01 1.397583e+01 1.831851e+01 1.790710e+01 1.689650e+01 1.541822e+01 1.542877e+01 1.997850e+01 1.435067e+01 2.094538e-01 2.930525e-01 4.539509e-01 6.295345e-01 8.003445e-01 8.964953e-01 9.120877e-01 9.240816e-01 9.706755e-01 1.076160e+00 1.159870e+00 1.114726e+00 4.195802e-05
<GCONST> 6.325771e+01
<MIXTURE> 96 7.034694e-03
<MEAN> 25
 -5.096676e+00 -4.548352e-01 -2.243811e+00 5.163478e+00 3.866032e+00 1.791501e+00 3.541566e+00 1.804465e+00 2.453365e+00 9.499912e-01 1.147341e+00 2.837089e+00 -2.968468e-02 8.781838e-02 2.134370e-01 4.057707e-01 5.389143e-01 4.999281e-01 2.461946e-01 -1.265887e-01 -4.634765e-01 -6.517613e-01 -6.085039e-01 -3.674167e-01 -1.581863e-05
<VARIANCE> 25
 1.101202e+01 9.725837e+00 1.288803e+01 1.428365e+01 1.502163e+01 1.952112e+01 1.807648e+01 1.930171e+01 1.800599e+01 1.660915e+01 1.976787e+01 1.453510e+01 1.204457e-01 2.181627e-01 3.166818e-01 3.977631e-01 4.946318e-01 6.606247e-01 8.674675e-01 9.963827e-01 9.568194e-01 8.641353e-01 8.866712e-01 9.406826e-01 1.000000e-06
<GCONST> 5.757094e+01
<MIXTURE> 97 7.034694e-03
<MEAN> 25
 -5.096676e+00 -4.548352e-01 -2.243811e+00 5.163478e+00 3.866032e+00 1.791501e+00 3.541566e+00 1.804465e+00 2.453365e+00 9.499912e-01 1.147341e+00 2.837089e+00 -2.968468e-02 8.781838e-02 2.134370e-01 4.057707e-01 5.389143e-01 4.999281e-01 2.461946e-01 -1.265887e-01 -4.634765e-01 -6.517613e-01 -6.085039e-01 -3.674167e-01 -1.581863e-05
<VARIANCE> 25
 1.101202e+01 9.725837e+00 1.288803e+01 1.428365e+01 1.502163e+01 1.952112e+01 1.807648e+01 1.930171e+01 1.800599e+01 1.660915e+01 1.976787e+01 1.453510e+01 1.204457e-01 2.181627e-01 3.166818e-01 3.977631e-01 4.946318e-01 6.606247e-01 8.674675e-01 9.963827e-01 9.568194e-01 8.641353e-01 8.866712e-01 9.406826e-01 1.000000e-06
<GCONST> 5.757094e+01
<MIXTURE> 98 9.917808e-03
<MEAN> 25
 -8.558305e-01 1.318670e+00 -2.852269e-01 4.378680e+00 2.558055e+00 1.732458e+00 3.283578e+00 1.513328e+00 1.546814e+00 8.955817e-01 3.499073e-01 1.675732e+00 -1.730911e+00 -1.287653e+00 -9.711511e-01 1.834266e-01 6.206226e-01 8.537710e-01 1.109106e+00 1.365468e+00 1.400912e+00 1.066481e+00 1.265772e+00 1.064570e+00 -2.913127e-02
<VARIANCE> 25
 1.524337e+01 1.748822e+01 2.637222e+01 2.779231e+01 4.081990e+01 3.805548e+01 2.762710e+01 2.638400e+01 2.304018e+01 2.836999e+01 2.246206e+01 2.208888e+01 1.195449e+00 1.458182e+00 1.953635e+00 2.125249e+00 2.419599e+00 3.545838e+00 2.607829e+00 2.470920e+00 2.437513e+00 2.878415e+00 2.504374e+00 2.075634e+00 2.312313e-03
<GCONST> 8.827771e+01
<MIXTURE> 99 6.696178e-03
<MEAN> 25
 -7.266412e+00 9.678424e+00 6.534925e+00 3.925774e+00 1.150973e-01 -4.635248e+00 -4.572445e-01 -4.291381e+00 -2.058329e+00 -3.542872e+00 -1.714103e+00 1.849537e+00 3.651545e-01 -7.426119e-01 2.740683e-01 -7.882263e-02 -1.210076e+00 -4.280895e-01 4.366541e-02 -1.555441e-01 2.117386e-01 9.081490e-02 8.621247e-02 1.500145e-01 4.223314e-03
<VARIANCE> 25
 4.040149e+01 1.950715e+01 3.645902e+01 2.668591e+01 3.114679e+01 3.059148e+01 2.678327e+01 2.304022e+01 2.728096e+01 2.232803e+01 2.169839e+01 2.811902e+01 2.025329e+00 1.578876e+00 1.437459e+00 1.614315e+00 2.303051e+00 1.666342e+00 1.515297e+00 1.501000e+00 1.801224e+00 1.816075e+00 1.543321e+00 1.240577e+00 1.575026e-03
<GCONST> 8.515909e+01
<MIXTURE> 100 4.498084e-03
<MEAN> 25
 -1.598813e+00 6.344825e+00 1.027688e+01 -7.462847e+00 -1.078203e+01 -5.075228e+00 -4.941696e+00 -9.968756e+00 -4.718205e+00 -8.551801e-01 -2.733205e+00 -2.708199e+00 2.917865e+00 -1.260450e+00 1.299646e+00 -2.185939e+00 -3.419452e+00 -7.841043e-01 -1.218765e+00 -8.197508e-01 -1.475455e+00 3.466735e-01 -1.655588e+00 -2.862577e-01 2.015877e-03
<VARIANCE> 25
 1.362684e+01 2.105892e+01 2.246275e+01 2.642765e+01 2.301846e+01 2.372176e+01 2.911133e+01 2.170723e+01 2.748206e+01 2.265240e+01 2.241187e+01 2.134124e+01 1.799176e+00 3.953725e+00 2.919943e+00 4.286257e+00 4.184513e+00 4.537182e+00 4.015477e+00 4.340403e+00 4.167880e+00 3.896087e+00 3.910419e+00 3.225000e+00 1.674829e-03
<GCONST> 9.256873e+01
<MIXTURE> 101 6.007792e-03
<MEAN> 25
 8.071815e+00 -3.502196e+00 -6.291763e+00 -6.863168e+00 8.489164e-01 -1.228263e+00 -1.056436e+01 -2.028304e+00 1.639515e+00 2.714515e+00 -2.384236e+00 -5.133399e+00 6.739323e-01 6.489205e-01 -1.443462e+00 -1.606741e+00 1.026764e+00 2.308363e+00 1.958185e-01 -1.456281e+00 -1.065190e+00 1.036844e+00 1.377316e+00 -4.131912e-01 -4.851933e-03
<VARIANCE> 25
 9.379970e+00 1.670927e+01 2.981848e+01 4.264798e+01 3.617934e+01 3.589109e+01 3.700479e+01 3.628455e+01 3.776646e+01 4.383122e+01 5.155935e+01 2.414948e+01 2.947204e-01 6.702961e-01 1.208170e+00 1.548136e+00 1.688719e+00 2.114838e+00 2.079257e+00 1.991277e+00 2.339226e+00 2.206882e+00 1.781674e+00 1.928462e+00 3.444847e-04
<GCONST> 8.366011e+01
<MIXTURE> 102 6.007792e-03
<MEAN> 25
 8.071815e+00 -3.502196e+00 -6.291763e+00 -6.863168e+00 8.489164e-01 -1.228263e+00 -1.056436e+01 -2.028304e+00 1.639515e+00 2.714515e+00 -2.384236e+00 -5.133399e+00 6.739323e-01 6.489205e-01 -1.443462e+00 -1.606741e+00 1.026764e+00 2.308363e+00 1.958185e-01 -1.456281e+00 -1.065190e+00 1.036844e+00 1.377316e+00 -4.131912e-01 -4.851933e-03
<VARIANCE> 25
 9.379970e+00 1.670927e+01 2.981848e+01 4.264798e+01 3.617934e+01 3.589109e+01 3.700479e+01 3.628455e+01 3.776646e+01 4.383122e+01 5.155935e+01 2.414948e+01 2.947204e-01 6.702961e-01 1.208170e+00 1.548136e+00 1.688719e+00 2.114838e+00 2.079257e+00 1.991277e+00 2.339226e+00 2.206882e+00 1.781674e+00 1.928462e+00 3.444847e-04
<GCONST> 8.366011e+01
<MIXTURE> 103 5.694618e-03
<MEAN> 25
 3.005011e+00 -9.447568e+00 -5.607109e+00 -2.715072e+00 2.349199e-01 -1.268044e+00 2.925771e+00 2.454188e+00 -3.598648e+00 -8.848201e+00 -4.457159e+00 -1.804654e-01 2.485603e-02 -1.537757e+00 -9.538403e-01 2.624955e-01 1.165199e+00 1.168625e+00 8.320213e-02 -1.608505e-01 -7.763448e-01 -8.600158e-01 9.244442e-02 -2.708785e-02 3.251559e-02
<VARIANCE> 25
 9.446581e+00 1.801050e+01 2.175086e+01 2.828940e+01 5.508484e+01 3.456668e+01 4.165960e+01 3.093929e+01 4.349511e+01 2.710059e+01 2.775030e+01 2.481127e+01 7.009850e-01 1.151095e+00 1.311168e+00 1.821030e+00 2.559154e+00 2.159080e+00 2.868269e+00 2.257950e+00 2.357811e+00 2.308774e+00 1.919034e+00 1.917638e+00 8.739668e-04
<GCONST> 8.601395e+01
<MIXTURE> 104 5.694618e-03
<MEAN> 25
 3.005011e+00 -9.447568e+00 -5.607109e+00 -2.715072e+00 2.349199e-01 -1.268044e+00 2.925771e+00 2.454188e+00 -3.598648e+00 -8.848201e+00 -4.457159e+00 -1.804654e-01 2.485603e-02 -1.537757e+00 -9.538403e-01 2.624955e-01 1.165199e+00 1.168625e+00 8.320213e-02 -1.608505e-01 -7.763448e-01 -8.600158e-01 9.244442e-02 -2.708785e-02 3.251559e-02
<VARIANCE> 25
 9.446581e+00 1.801050e+01 2.175086e+01 2.828940e+01 5.508484e+01 3.456668e+01 4.165960e+01 3.093929e+01 4.349511e+01 2.710059e+01 2.775030e+01 2.481127e+01 7.009850e-01 1.151095e+00 1.311168e+00 1.821030e+00 2.559154e+00 2.159080e+00 2.868269e+00 2.257950e+00 2.357811e+00 2.308774e+00 1.919034e+00 1.917638e+00 8.739668e-04
<GCONST> 8.601395e+01
<MIXTURE> 105 4.710235e-03
<MEAN> 25
 2.379524e+00 -1.886863e+00 8.941714e+00 -3.521996e+00 -1.122810e+01 -4.234056e+00 -4.032685e+00 -3.476275e-01 -3.892077e+00 -3.122629e+00 2.221184e+00 -1.475886e+00 -2.082051e-02 3.928846e-02 5.146905e-02 -7.023620e-02 -6.849493e-03 6.930549e-02 1.221353e-02 4.750942e-02 2.914762e-02 -1.014534e-02 7.082666e-02 -2.257387e-02 -8.246539e-04
<VARIANCE> 25
 1.283198e+01 2.914182e+01 3.968261e+01 5.210452e+01 3.756715e+01 5.926212e+01 3.899559e+01 4.332505e+01 3.743310e+01 3.955947e+01 4.644795e+01 3.037267e+01 9.924646e-02 1.768976e-01 3.340012e-01 2.817540e-01 3.557891e-01 4.182487e-01 4.510961e-01 4.671586e-01 5.270709e-01 4.357954e-01 4.332294e-01 3.768244e-01 1.115243e-04
<GCONST> 6.694507e+01
<MIXTURE> 106 4.710235e-03
<MEAN> 25
 2.379524e+00 -1.886863e+00 8.941714e+00 -3.521996e+00 -1.122810e+01 -4.234056e+00 -4.032685e+00 -3.476275e-01 -3.892077e+00 -3.122629e+00 2.221184e+00 -1.475886e+00 -2.082051e-02 3.928846e-02 5.146905e-02 -7.023620e-02 -6.849493e-03 6.930549e-02 1.221353e-02 4.750942e-02 2.914762e-02 -1.014534e-02 7.082666e-02 -2.257387e-02 -8.246539e-04
<VARIANCE> 25
 1.283198e+01 2.914182e+01 3.968261e+01 5.210452e+01 3.756715e+01 5.926212e+01 3.899559e+01 4.332505e+01 3.743310e+01 3.955947e+01 4.644795e+01 3.037267e+01 9.924646e-02 1.768976e-01 3.340012e-01 2.817540e-01 3.557891e-01 4.182487e-01 4.510961e-01 4.671586e-01 5.270709e-01 4.357954e-01 4.332294e-01 3.768244e-01 1.115243e-04
<GCONST> 6.694507e+01
<MIXTURE> 107 5.452374e-03
<MEAN> 25
 8.152709e+00 -1.984762e+00 -7.519959e+00 -8.842635e+00 1.916951e+00 3.121624e+00 -7.554805e+00 -4.017518e+00 -1.113474e+00 3.165964e+00 1.010580e+00 -5.024661e+00 -6.040798e-01 -7.857538e-01 7.762943e-01 2.027791e+00 3.030142e-01 -2.179726e+00 -9.348821e-01 7.548257e-01 1.744447e+00 -6.849052e-02 -1.721490e+00 -6.635773e-01 -3.604080e-03
<VARIANCE> 25
 1.075674e+01 1.985075e+01 2.849422e+01 4.515254e+01 3.301237e+01 3.614645e+01 5.834273e+01 3.633321e+01 4.364047e+01 3.874599e+01 4.758989e+01 2.782977e+01 3.258243e-01 9.187563e-01 1.374934e+00 2.864257e+00 2.148142e+00 2.882723e+00 2.394292e+00 2.409857e+00 2.128441e+00 2.939233e+00 1.819288e+00 2.296345e+00 6.835349e-04
<GCONST> 8.755137e+01
<MIXTURE> 108 5.452374e-03
<MEAN> 25
 8.152709e+00 -1.984762e+00 -7.519959e+00 -8.842635e+00 1.916951e+00 3.121624e+00 -7.554805e+00 -4.017518e+00 -1.113474e+00 3.165964e+00 1.010580e+00 -5.024661e+00 -6.040798e-01 -7.857538e-01 7.762943e-01 2.027791e+00 3.030142e-01 -2.179726e+00 -9.348821e-01 7.548257e-01 1.744447e+00 -6.849052e-02 -1.721490e+00 -6.635773e-01 -3.604080e-03
<VARIANCE> 25
 1.075674e+01 1.985075e+01 2.849422e+01 4.515254e+01 3.301237e+01 3.614645e+01 5.834273e+01 3.633321e+01 4.364047e+01 3.874599e+01 4.758989e+01 2.782977e+01 3.258243e-01 9.187563e-01 1.374934e+00 2.864257e+00 2.148142e+00 2.882723e+00 2.394292e+00 2.409857e+00 2.128441e+00 2.939233e+00 1.819288e+00 2.296345e+00 6.835349e-04
<GCONST> 8.755137e+01
<MIXTURE> 109 6.661064e-03
<MEAN> 25
 4.005371e+00 -1.051322e+01 -7.977520e+00 -1.249145e+00 3.219002e+00 3.919767e-01 1.786811e-01 1.576640e+00 -2.435764e+00 -8.243021e+00 -5.059626e+00 -2.262869e-01 3.224632e-02 -6.353725e-02 -7.036751e-02 2.607629e-01 1.860280e-01 1.355690e-01 -1.905818e-01 -8.222467e-02 -1.174471e-01 -1.039667e-01 2.017418e-01 4.775104e-03 -3.242405e-03
<VARIANCE> 25
 8.651209e+00 1.719787e+01 2.076334e+01 3.070562e+01 4.203554e+01 3.746113e+01 4.463839e+01 3.232753e+01 4.363985e+01 3.396583e+01 2.926827e+01 2.767867e+01 2.519595e-01 4.752804e-01 5.478648e-01 6.072305e-01 1.160552e+00 1.040555e+00 1.288509e+00 1.044420e+00 1.208834e+00 9.032342e-01 8.529509e-01 8.517225e-01 1.766443e-04
<GCONST> 7.443152e+01
<MIXTURE> 110 6.661064e-03
<MEAN> 25
 4.005371e+00 -1.051322e+01 -7.977520e+00 -1.249145e+00 3.219002e+00 3.919767e-01 1.786811e-01 1.576640e+00 -2.435764e+00 -8.243021e+00 -5.059626e+00 -2.262869e-01 3.224632e-02 -6.353725e-02 -7.036751e-02 2.607629e-01 1.860280e-01 1.355690e-01 -1.905818e-01 -8.222467e-02 -1.174471e-01 -1.039667e-01 2.017418e-01 4.775104e-03 -3.242405e-03
<VARIANCE> 25
 8.651209e+00 1.719787e+01 2.076334e+01 3.070562e+01 4.203554e+01 3.746113e+01 4.463839e+01 3.232753e+01 4.363985e+01 3.396583e+01 2.926827e+01 2.767867e+01 2.519595e-01 4.752804e-01 5.478648e-01 6.072305e-01 1.160552e+00 1.040555e+00 1.288509e+00 1.044420e+00 1.208834e+00 9.032342e-01 8.529509e-01 8.517225e-01 1.766443e-04
<GCONST> 7.443152e+01
<MIXTURE> 111 4.337247e-03
<MEAN> 25
 -4.473885e+00 -9.063295e-01 -1.721021e+00 1.688070e+00 9.647364e-01 9.644091e-01 3.142903e-01 2.110198e-01 8.899395e-02 -5.414049e-01 -6.300222e-01 1.964555e+00 -2.107539e-02 -3.247489e-02 -7.233648e-02 -7.354105e-02 -3.728380e-02 6.404094e-03 -1.101275e-03 -5.925685e-02 -1.404486e-01 -2.029705e-01 -1.901401e-01 -1.064510e-01 -2.146435e-04
<VARIANCE> 25
 7.001233e+00 4.976976e+00 1.021288e+01 9.407270e+00 1.310906e+01 2.384236e+01 1.466654e+01 1.316663e+01 1.160103e+01 1.191203e+01 1.362880e+01 1.158859e+01 7.917870e-02 1.635702e-01 2.752667e-01 4.205345e-01 5.694606e-01 7.054015e-01 8.005947e-01 8.582656e-01 8.927959e-01 8.559541e-01 8.621328e-01 8.478526e-01 2.231563e-05
<GCONST> 5.597918e+01
<MIXTURE> 112 4.337247e-03
<MEAN> 25
 -4.473885e+00 -9.063295e-01 -1.721021e+00 1.688070e+00 9.647364e-01 9.644091e-01 3.142903e-01 2.110198e-01 8.899395e-02 -5.414049e-01 -6.300222e-01 1.964555e+00 -2.107539e-02 -3.247489e-02 -7.233648e-02 -7.354105e-02 -3.728380e-02 6.404094e-03 -1.101275e-03 -5.925685e-02 -1.404486e-01 -2.029705e-01 -1.901401e-01 -1.064510e-01 -2.146435e-04
<VARIANCE> 25
 7.001233e+00 4.976976e+00 1.021288e+01 9.407270e+00 1.310906e+01 2.384236e+01 1.466654e+01 1.316663e+01 1.160103e+01 1.191203e+01 1.362880e+01 1.158859e+01 7.917870e-02 1.635702e-01 2.752667e-01 4.205345e-01 5.694606e-01 7.054015e-01 8.005947e-01 8.582656e-01 8.927959e-01 8.559541e-01 8.621328e-01 8.478526e-01 2.231563e-05
<GCONST> 5.597918e+01
<MIXTURE> 113 5.938666e-03
<MEAN> 25
 9.876968e+00 1.596966e+00 -8.567182e+00 -1.703661e+01 -1.147911e+00 5.689205e+00 -5.259154e+00 -1.304602e+00 -5.718606e+00 -5.086853e-01 5.088585e-01 -3.157525e-01 3.157159e-03 1.283940e-02 -5.234430e-02 -1.186270e-01 1.006078e-01 1.674653e-01 5.678364e-02 4.270194e-02 -4.445149e-02 -6.291359e-02 1.854182e-01 2.465564e-02 -9.035639e-04
<VARIANCE> 25
 9.231797e+00 1.763347e+01 3.148598e+01 3.360474e+01 5.249598e+01 3.337370e+01 3.915405e+01 3.978783e+01 3.684039e+01 4.568984e+01 3.793791e+01 2.881660e+01 1.225893e-01 3.161857e-01 3.177193e-01 6.215693e-01 6.082169e-01 6.672694e-01 7.670563e-01 8.347449e-01 9.519975e-01 8.985608e-01 7.180479e-01 7.105826e-01 1.368823e-04
<GCONST> 7.130305e+01
<MIXTURE> 114 5.938666e-03
<MEAN> 25
 9.876968e+00 1.596966e+00 -8.567182e+00 -1.703661e+01 -1.147911e+00 5.689205e+00 -5.259154e+00 -1.304602e+00 -5.718606e+00 -5.086853e-01 5.088585e-01 -3.157525e-01 3.157159e-03 1.283940e-02 -5.234430e-02 -1.186270e-01 1.006078e-01 1.674653e-01 5.678364e-02 4.270194e-02 -4.445149e-02 -6.291359e-02 1.854182e-01 2.465564e-02 -9.035639e-04
<VARIANCE> 25
 9.231797e+00 1.763347e+01 3.148598e+01 3.360474e+01 5.249598e+01 3.337370e+01 3.915405e+01 3.978783e+01 3.684039e+01 4.568984e+01 3.793791e+01 2.881660e+01 1.225893e-01 3.161857e-01 3.177193e-01 6.215693e-01 6.082169e-01 6.672694e-01 7.670563e-01 8.347449e-01 9.519975e-01 8.985608e-01 7.180479e-01 7.105826e-01 1.368823e-04
<GCONST> 7.130305e+01
<MIXTURE> 115 2.935202e-03
<MEAN> 25
 -4.031323e+00 -7.520635e-01 -3.108154e+00 3.656889e+00 2.413250e+00 -4.277941e-01 2.235008e+00 4.126243e-01 1.388230e+00 -1.965651e-02 4.046766e-02 2.687824e+00 3.156073e-02 -7.211594e-02 -2.307856e-01 -4.386721e-01 -6.333647e-01 -6.703731e-01 -5.921760e-01 -5.094641e-01 -4.866895e-01 -4.565460e-01 -3.437174e-01 -1.648982e-01 -3.117362e-06
<VARIANCE> 25
 9.267855e+00 9.885102e+00 1.353198e+01 1.270400e+01 1.349021e+01 1.756060e+01 1.708349e+01 2.080730e+01 1.793010e+01 1.721353e+01 1.919489e+01 1.466558e+01 2.038438e-01 3.456299e-01 4.854882e-01 5.616047e-01 6.343313e-01 7.979637e-01 1.008007e+00 1.130872e+00 1.075125e+00 9.946981e-01 1.025530e+00 1.064844e+00 1.000037e-06
<GCONST> 6.016225e+01
<MIXTURE> 116 2.935202e-03
<MEAN> 25
 -4.031323e+00 -7.520635e-01 -3.108154e+00 3.656889e+00 2.413250e+00 -4.277941e-01 2.235008e+00 4.126243e-01 1.388230e+00 -1.965651e-02 4.046766e-02 2.687824e+00 3.156073e-02 -7.211594e-02 -2.307856e-01 -4.386721e-01 -6.333647e-01 -6.703731e-01 -5.921760e-01 -5.094641e-01 -4.866895e-01 -4.565460e-01 -3.437174e-01 -1.648982e-01 -3.117362e-06
<VARIANCE> 25
 9.267855e+00 9.885102e+00 1.353198e+01 1.270400e+01 1.349021e+01 1.756060e+01 1.708349e+01 2.080730e+01 1.793010e+01 1.721353e+01 1.919489e+01 1.466558e+01 2.038438e-01 3.456299e-01 4.854882e-01 5.616047e-01 6.343313e-01 7.979637e-01 1.008007e+00 1.130872e+00 1.075125e+00 9.946981e-01 1.025530e+00 1.064844e+00 1.000037e-06
<GCONST> 6.016225e+01
<MIXTURE> 117 6.506003e-03
<MEAN> 25
 -4.644592e+00 1.117793e+00 1.054499e+00 9.758447e+00 6.260121e+00 6.256477e+00 6.463082e+00 5.044496e+00 6.385674e+00 4.929173e+00 6.367208e+00 2.709929e+00 -7.503008e-02 -2.341336e-01 -3.583474e-01 -4.199596e-01 -3.675186e-01 -3.027199e-01 -2.873273e-01 -3.314594e-01 -3.917833e-01 -3.689738e-01 -2.631080e-01 -1.159785e-01 -9.052962e-06
<VARIANCE> 25
 7.187259e+00 8.753097e+00 9.809425e+00 1.430823e+01 1.561781e+01 1.534934e+01 1.772638e+01 1.796108e+01 1.640261e+01 1.637152e+01 1.674076e+01 1.475332e+01 2.166086e-01 3.075042e-01 4.261350e-01 6.171185e-01 8.536685e-01 1.055364e+00 1.177562e+00 1.232911e+00 1.223976e+00 1.194855e+00 1.167213e+00 1.113683e+00 1.000000e-06
<GCONST> 6.042865e+01
<MIXTURE> 118 6.506003e-03
<MEAN> 25
 -4.644592e+00 1.117793e+00 1.054499e+00 9.758447e+00 6.260121e+00 6.256477e+00 6.463082e+00 5.044496e+00 6.385674e+00 4.929173e+00 6.367208e+00 2.709929e+00 -7.503008e-02 -2.341336e-01 -3.583474e-01 -4.199596e-01 -3.675186e-01 -3.027199e-01 -2.873273e-01 -3.314594e-01 -3.917833e-01 -3.689738e-01 -2.631080e-01 -1.159785e-01 -9.052962e-06
<VARIANCE> 25
 7.187259e+00 8.753097e+00 9.809425e+00 1.430823e+01 1.561781e+01 1.534934e+01 1.772638e+01 1.796108e+01 1.640261e+01 1.637152e+01 1.674076e+01 1.475332e+01 2.166086e-01 3.075042e-01 4.261350e-01 6.171185e-01 8.536685e-01 1.055364e+00 1.177562e+00 1.232911e+00 1.223976e+00 1.194855e+00 1.167213e+00 1.113683e+00 1.000000e-06
<GCONST> 6.042865e+01
<MIXTURE> 119 4.297961e-03
<MEAN> 25
 -4.972731e+00 -7.633956e+00 2.229904e+00 2.017883e+00 2.239484e+00 2.071072e-01 5.273457e+00 5.939819e+00 1.167364e+00 9.667785e-01 6.610299e+00 1.568904e+00 -5.008579e-02 -7.945032e-02 3.740406e-02 -5.700845e-02 -1.261268e-01 -1.799857e-01 -6.853409e-02 -1.413795e-02 -9.179258e-02 -1.119663e-01 -5.533844e-02 -5.792443e-02 1.107872e-03
<VARIANCE> 25
 8.519820e+00 9.812269e+00 1.656611e+01 2.023010e+01 2.286240e+01 2.321198e+01 2.500053e+01 2.647571e+01 2.503476e+01 2.806946e+01 2.044252e+01 2.040822e+01 1.604590e-01 2.825341e-01 4.598450e-01 6.331051e-01 8.034765e-01 1.003753e+00 1.100933e+00 1.277728e+00 1.285657e+00 1.245413e+00 1.192554e+00 1.112757e+00 2.316135e-04
<GCONST> 6.972704e+01
<MIXTURE> 120 4.297961e-03
<MEAN> 25
 -4.972731e+00 -7.633956e+00 2.229904e+00 2.017883e+00 2.239484e+00 2.071072e-01 5.273457e+00 5.939819e+00 1.167364e+00 9.667785e-01 6.610299e+00 1.568904e+00 -5.008579e-02 -7.945032e-02 3.740406e-02 -5.700845e-02 -1.261268e-01 -1.799857e-01 -6.853409e-02 -1.413795e-02 -9.179258e-02 -1.119663e-01 -5.533844e-02 -5.792443e-02 1.107872e-03
<VARIANCE> 25
 8.519820e+00 9.812269e+00 1.656611e+01 2.023010e+01 2.286240e+01 2.321198e+01 2.500053e+01 2.647571e+01 2.503476e+01 2.806946e+01 2.044252e+01 2.040822e+01 1.604590e-01 2.825341e-01 4.598450e-01 6.331051e-01 8.034765e-01 1.003753e+00 1.100933e+00 1.277728e+00 1.285657e+00 1.245413e+00 1.192554e+00 1.112757e+00 2.316135e-04
<GCONST> 6.972704e+01
<MIXTURE> 121 4.567511e-03
<MEAN> 25
 2.102612e-01 -2.516905e+00 5.137698e+00 -1.289059e+01 -1.263879e+01 -1.668726e+00 9.901603e-01 -5.102942e+00 -4.203908e+00 -4.749497e-01 -5.487672e+00 -4.297568e+00 2.361752e-02 1.343222e-01 -4.339745e-02 7.794773e-02 1.597067e-01 7.877788e-02 -7.819100e-02 -1.799477e-01 -2.681131e-01 -2.606014e-01 -1.126926e-01 1.977658e-03 -7.436276e-03
<VARIANCE> 25
 7.723630e+00 1.562364e+01 1.738275e+01 2.042517e+01 2.440071e+01 2.924927e+01 2.952322e+01 2.456642e+01 3.524118e+01 2.842238e+01 1.993435e+01 2.129680e+01 1.550806e-01 6.446722e-01 6.242928e-01 7.050634e-01 7.704011e-01 1.148255e+00 1.117202e+00 1.126719e+00 1.216088e+00 1.196158e+00 9.420622e-01 8.715715e-01 2.108065e-04
<GCONST> 7.142682e+01
<MIXTURE> 122 4.567511e-03
<MEAN> 25
 2.102612e-01 -2.516905e+00 5.137698e+00 -1.289059e+01 -1.263879e+01 -1.668726e+00 9.901603e-01 -5.102942e+00 -4.203908e+00 -4.749497e-01 -5.487672e+00 -4.297568e+00 2.361752e-02 1.343222e-01 -4.339745e-02 7.794773e-02 1.597067e-01 7.877788e-02 -7.819100e-02 -1.799477e-01 -2.681131e-01 -2.606014e-01 -1.126926e-01 1.977658e-03 -7.436276e-03
<VARIANCE> 25
 7.723630e+00 1.562364e+01 1.738275e+01 2.042517e+01 2.440071e+01 2.924927e+01 2.952322e+01 2.456642e+01 3.524118e+01 2.842238e+01 1.993435e+01 2.129680e+01 1.550806e-01 6.446722e-01 6.242928e-01 7.050634e-01 7.704011e-01 1.148255e+00 1.117202e+00 1.126719e+00 1.216088e+00 1.196158e+00 9.420622e-01 8.715715e-01 2.108065e-04
<GCONST> 7.142682e+01
<MIXTURE> 123 4.393044e-03
<MEAN> 25
 -3.679961e+00 1.228346e+00 -1.724283e-01 5.797182e+00 4.329301e+00 3.491115e+00 3.281254e+00 6.985372e-01 3.268667e-01 -5.498292e-01 -2.388281e-01 1.211652e+00 -5.951118e-01 -7.352401e-01 -8.221879e-01 -5.732305e-01 -1.079682e-01 1.511960e-01 2.653676e-01 6.261868e-01 7.030281e-01 8.912184e-01 6.794583e-01 5.686148e-01 -2.717949e-03
<VARIANCE> 25
 1.229200e+01 1.014518e+01 1.505869e+01 1.703691e+01 2.739370e+01 2.527801e+01 1.980737e+01 1.865630e+01 1.739911e+01 1.636718e+01 2.082760e+01 1.911604e+01 4.502991e-01 3.409493e-01 4.813820e-01 6.846249e-01 1.089914e+00 1.204995e+00 1.228855e+00 1.081513e+00 1.131029e+00 1.201951e+00 1.118828e+00 1.106823e+00 9.941987e-05
<GCONST> 6.928909e+01
<MIXTURE> 124 4.069876e-03
<MEAN> 25
 -6.564294e+00 -1.211247e+00 -2.923147e+00 5.106946e+00 4.972167e+00 3.389650e+00 5.390179e+00 2.566273e+00 3.193264e+00 1.279238e+00 1.127340e+00 3.043640e+00 -2.048765e-01 -3.230945e-01 -3.621187e-01 -2.165393e-01 1.279887e-01 5.194744e-01 8.105357e-01 8.601236e-01 6.549045e-01 3.274105e-01 7.217380e-02 -2.476251e-02 4.171600e-05
<VARIANCE> 25
 1.101410e+01 6.983627e+00 1.114193e+01 1.243697e+01 1.210707e+01 1.982576e+01 1.551619e+01 1.706879e+01 1.544063e+01 1.607043e+01 1.920469e+01 1.444021e+01 1.048333e-01 1.681276e-01 2.703145e-01 4.180253e-01 5.929579e-01 7.068264e-01 7.480565e-01 8.140665e-01 9.083976e-01 9.809178e-01 1.008222e+00 9.930678e-01 1.798795e-05
<GCONST> 5.879580e+01
<MIXTURE> 125 4.069876e-03
<MEAN> 25
 -6.564294e+00 -1.211247e+00 -2.923147e+00 5.106946e+00 4.972167e+00 3.389650e+00 5.390179e+00 2.566273e+00 3.193264e+00 1.279238e+00 1.127340e+00 3.043640e+00 -2.048765e-01 -3.230945e-01 -3.621187e-01 -2.165393e-01 1.279887e-01 5.194744e-01 8.105357e-01 8.601236e-01 6.549045e-01 3.274105e-01 7.217380e-02 -2.476251e-02 4.171600e-05
<VARIANCE> 25
 1.101410e+01 6.983627e+00 1.114193e+01 1.243697e+01 1.210707e+01 1.982576e+01 1.551619e+01 1.706879e+01 1.544063e+01 1.607043e+01 1.920469e+01 1.444021e+01 1.048333e-01 1.681276e-01 2.703145e-01 4.180253e-01 5.929579e-01 7.068264e-01 7.480565e-01 8.140665e-01 9.083976e-01 9.809178e-01 1.008222e+00 9.930678e-01 1.798795e-05
<GCONST> 5.879580e+01
<MIXTURE> 126 2.402244e-03
<MEAN> 25
 -3.730564e+00 -6.918164e+00 -5.254486e+00 2.419923e+00 4.270129e+00 -3.256416e+00 1.090104e-01 3.575881e+00 3.363019e+00 -2.695880e+00 -1.480005e+00 3.031290e+00 -8.221762e-03 -1.036717e-02 -3.018424e-02 -1.522390e-01 -3.200059e-01 -3.870980e-01 -2.473445e-01 -1.676611e-01 -1.091778e-01 -1.135454e-01 -1.049105e-01 -2.262828e-02 -1.623012e-03
<VARIANCE> 25
 7.672369e+00 1.252482e+01 1.376518e+01 1.594859e+01 2.442319e+01 2.350412e+01 2.269347e+01 2.815964e+01 3.100457e+01 2.597594e+01 2.182776e+01 1.904694e+01 1.727826e-01 3.510557e-01 4.812293e-01 5.732406e-01 7.470553e-01 9.927281e-01 1.178437e+00 1.267246e+00 1.319557e+00 1.297369e+00 1.206933e+00 1.151209e+00 2.109724e-04
<GCONST> 6.985232e+01
<MIXTURE> 127 2.402244e-03
<MEAN> 25
 -3.730564e+00 -6.918164e+00 -5.254486e+00 2.419923e+00 4.270129e+00 -3.256416e+00 1.090104e-01 3.575881e+00 3.363019e+00 -2.695880e+00 -1.480005e+00 3.031290e+00 -8.221762e-03 -1.036717e-02 -3.018424e-02 -1.522390e-01 -3.200059e-01 -3.870980e-01 -2.473445e-01 -1.676611e-01 -1.091778e-01 -1.135454e-01 -1.049105e-01 -2.262828e-02 -1.623012e-03
<VARIANCE> 25
 7.672369e+00 1.252482e+01 1.376518e+01 1.594859e+01 2.442319e+01 2.350412e+01 2.269347e+01 2.815964e+01 3.100457e+01 2.597594e+01 2.182776e+01 1.904694e+01 1.727826e-01 3.510557e-01 4.812293e-01 5.732406e-01 7.470553e-01 9.927281e-01 1.178437e+00 1.267246e+00 1.319557e+00 1.297369e+00 1.206933e+00 1.151209e+00 2.109724e-04
<GCONST> 6.985232e+01
<MIXTURE> 128 3.790457e-03
<MEAN> 25
 -3.821550e+00 1.642277e+00 -3.197963e-01 6.475722e+00 3.414849e+00 1.805615e+00 3.544335e+00 2.232562e+00 3.900797e+00 3.704066e+00 3.700048e+00 3.567330e+00 -4.209640e-01 -1.952037e-01 8.792120e-02 7.168794e-01 1.195637e+00 1.095452e+00 6.752013e-01 1.466595e-01 -4.397509e-01 -7.118024e-01 -6.827697e-01 -3.559650e-01 -3.469318e-06
<VARIANCE> 25
 1.053660e+01 1.190078e+01 1.470322e+01 1.933647e+01 2.150463e+01 2.087658e+01 2.383674e+01 2.506977e+01 2.601887e+01 2.338994e+01 2.646262e+01 1.788948e+01 9.011832e-01 1.122132e+00 1.341577e+00 1.474983e+00 1.551899e+00 1.898281e+00 2.281996e+00 2.286375e+00 2.101718e+00 2.077661e+00 1.723992e+00 1.774798e+00 1.028178e-06
<GCONST> 7.373002e+01
<TRANSP> 3
 0.000000e+00 1.000000e+00 0.000000e+00
 0.000000e+00 9.999990e-01 9.999998e-07
 0.000000e+00 0.000000e+00 0.000000e+00
<ENDHMM>
