~o
<STREAMINFO> 1 25
<VECSIZE> 25<NULLD><MFCC_E_D_N><DIAGC>
~h "jmodel"
<BEGINHMM>
<NUMSTATES> 3
<STATE> 2
<NUMMIXES> 128
<MIXTURE> 1 5.748963e-03
<MEAN> 25
 -2.574357e+00 3.171604e+00 2.295669e+00 8.752043e+00 4.375363e+00 3.440981e+00 4.071696e+00 3.922810e+00 5.820926e+00 5.258321e+00 5.863303e+00 3.071674e+00 -2.002683e+00 -1.630755e+00 -8.662490e-01 1.071314e+00 1.558608e+00 2.231848e+00 2.151323e+00 2.085159e+00 1.689798e+00 1.270796e+00 1.565980e+00 6.170080e-01 -4.670245e-02
<VARIANCE> 25
 1.009430e+01 1.177860e+01 1.501054e+01 1.873736e+01 2.317119e+01 2.218817e+01 2.194100e+01 2.201203e+01 2.107285e+01 2.250431e+01 2.109681e+01 1.708700e+01 1.791299e+00 2.112099e+00 3.025571e+00 3.225336e+00 3.755362e+00 3.348985e+00 3.319139e+00 3.387713e+00 3.524091e+00 3.719372e+00 3.508876e+00 2.834965e+00 3.143913e-03
<GCONST> 8.850468e+01
<MIXTURE> 2 4.549242e-03
<MEAN> 25
 -4.875351e+00 1.311209e+00 9.941093e-01 9.899975e+00 6.692788e+00 7.424191e+00 7.847251e+00 6.957184e+00 8.372707e+00 6.372691e+00 7.623194e+00 3.073834e+00 -6.199053e-02 4.160699e-02 1.426211e-01 2.259950e-01 2.652229e-01 2.812761e-01 2.955159e-01 3.197534e-01 3.498088e-01 3.087780e-01 1.971000e-01 7.989832e-02 1.529295e-06
<VARIANCE> 25
 6.952564e+00 8.903500e+00 1.065072e+01 1.590958e+01 1.723657e+01 1.556351e+01 1.689749e+01 1.849166e+01 1.658801e+01 1.738543e+01 1.812252e+01 1.434574e+01 1.252387e-01 2.266058e-01 3.365164e-01 4.672595e-01 6.492544e-01 8.148800e-01 9.298534e-01 1.003453e+00 1.051579e+00 1.077847e+00 1.075603e+00 1.014099e+00 1.000772e-06
<GCONST> 5.804580e+01
<MIXTURE> 3 4.549242e-03
<MEAN> 25
 -4.875351e+00 1.311209e+00 9.941093e-01 9.899975e+00 6.692788e+00 7.424191e+00 7.847251e+00 6.957184e+00 8.372707e+00 6.372691e+00 7.623194e+00 3.073834e+00 -6.199053e-02 4.160699e-02 1.426211e-01 2.259950e-01 2.652229e-01 2.812761e-01 2.955159e-01 3.197534e-01 3.498088e-01 3.087780e-01 1.971000e-01 7.989832e-02 1.529295e-06
<VARIANCE> 25
 6.952564e+00 8.903500e+00 1.065072e+01 1.590958e+01 1.723657e+01 1.556351e+01 1.689749e+01 1.849166e+01 1.658801e+01 1.738543e+01 1.812252e+01 1.434574e+01 1.252387e-01 2.266058e-01 3.365164e-01 4.672595e-01 6.492544e-01 8.148800e-01 9.298534e-01 1.003453e+00 1.051579e+00 1.077847e+00 1.075603e+00 1.014099e+00 1.000772e-06
<GCONST> 5.804580e+01
<MIXTURE> 4 1.671429e-02
<MEAN> 25
 2.993168e+00 2.594805e+00 -3.607543e+00 8.638424e-01 3.985649e+00 -1.405870e+00 -2.086953e-02 -2.799792e-01 1.649980e+00 1.838413e+00 -1.891701e+00 -1.473462e-01 -2.677083e+00 1.287623e+00 1.240300e+00 2.854152e+00 1.250609e+00 7.869574e-02 1.951751e+00 8.063230e-01 8.956318e-01 5.589340e-01 5.157134e-01 1.207689e+00 -9.086111e-02
<VARIANCE> 25
 2.027079e+01 2.833685e+01 2.482493e+01 3.730194e+01 4.154460e+01 6.856505e+01 6.379040e+01 5.601769e+01 4.693354e+01 5.867507e+01 4.212643e+01 3.277191e+01 2.210351e+00 4.851665e+00 4.162207e+00 4.682989e+00 4.641601e+00 6.430052e+00 6.441358e+00 5.460979e+00 4.967850e+00 5.473937e+00 7.464023e+00 4.086110e+00 5.658815e-03
<GCONST> 1.042630e+02
<MIXTURE> 5 3.206198e-03
<MEAN> 25
 -3.415799e+00 2.176515e+00 6.087334e-01 9.430630e+00 6.701374e+00 6.313035e+00 7.114355e+00 4.717663e+00 5.493629e+00 3.847585e+00 4.651161e+00 2.600171e+00 -3.242950e-01 7.521896e-01 1.224655e+00 1.033018e+00 3.070274e-01 -1.005818e-01 -8.282809e-02 3.533114e-02 4.582687e-01 6.823290e-01 4.031047e-01 8.662171e-02 -2.525620e-05
<VARIANCE> 25
 1.024602e+01 1.395924e+01 2.347076e+01 2.559970e+01 2.022627e+01 1.942057e+01 2.010182e+01 2.038194e+01 2.140913e+01 2.126571e+01 2.414320e+01 1.639727e+01 1.209262e+00 1.243964e+00 1.356074e+00 1.672494e+00 2.283438e+00 2.374580e+00 2.300794e+00 2.277385e+00 2.313918e+00 2.238686e+00 2.084596e+00 1.874723e+00 1.006297e-06
<GCONST> 7.517174e+01
<MIXTURE> 6 5.475854e-03
<MEAN> 25
 9.645559e+00 -3.510002e-01 -6.661505e+00 -1.103632e+01 -2.257866e+00 6.826239e+00 -5.945748e+00 -5.248353e+00 -3.662004e+00 1.541563e+00 4.512922e+00 -8.171180e-01 5.037552e-01 8.878773e-01 -3.694432e-01 -1.471808e+00 -7.266148e-01 1.306945e+00 1.521206e+00 2.461682e-01 -1.143068e+00 -1.241147e+00 2.508437e-01 1.222591e+00 -6.960294e-03
<VARIANCE> 25
 8.787863e+00 1.671914e+01 2.326063e+01 3.831256e+01 3.629564e+01 3.020024e+01 4.282200e+01 3.705265e+01 3.956577e+01 4.085043e+01 4.136903e+01 3.367984e+01 3.156095e-01 8.347192e-01 9.369949e-01 1.922799e+00 1.830512e+00 1.972299e+00 1.869017e+00 1.990592e+00 2.504134e+00 1.923466e+00 2.343747e+00 1.396339e+00 6.174695e-04
<GCONST> 8.394589e+01
<MIXTURE> 7 5.475854e-03
<MEAN> 25
 9.645559e+00 -3.510002e-01 -6.661505e+00 -1.103632e+01 -2.257866e+00 6.826239e+00 -5.945748e+00 -5.248353e+00 -3.662004e+00 1.541563e+00 4.512922e+00 -8.171180e-01 5.037552e-01 8.878773e-01 -3.694432e-01 -1.471808e+00 -7.266148e-01 1.306945e+00 1.521206e+00 2.461682e-01 -1.143068e+00 -1.241147e+00 2.508437e-01 1.222591e+00 -6.960294e-03
<VARIANCE> 25
 8.787863e+00 1.671914e+01 2.326063e+01 3.831256e+01 3.629564e+01 3.020024e+01 4.282200e+01 3.705265e+01 3.956577e+01 4.085043e+01 4.136903e+01 3.367984e+01 3.156095e-01 8.347192e-01 9.369949e-01 1.922799e+00 1.830512e+00 1.972299e+00 1.869017e+00 1.990592e+00 2.504134e+00 1.923466e+00 2.343747e+00 1.396339e+00 6.174695e-04
<GCONST> 8.394589e+01
<MIXTURE> 8 1.165917e-02
<MEAN> 25
 -4.728878e+00 1.359262e+00 1.267991e+00 9.531764e+00 6.578422e+00 6.237688e+00 6.484861e+00 5.658523e+00 6.651148e+00 5.640808e+00 6.519924e+00 3.145105e+00 -6.344140e-01 -1.420712e+00 -1.066581e+00 -1.727083e+00 -2.389597e-01 -9.336730e-01 -1.759854e-01 -2.775111e-01 -2.510127e-01 -1.688968e-01 -2.064670e-01 9.159884e-02 9.879185e-02
<VARIANCE> 25
 9.485510e+00 9.810344e+00 1.167207e+01 1.615060e+01 1.675107e+01 1.576842e+01 1.811383e+01 1.758063e+01 1.696755e+01 1.733953e+01 1.927489e+01 1.402476e+01 2.770494e+00 2.819887e+00 3.915160e+00 3.758495e+00 3.454273e+00 3.343107e+00 3.114234e+00 3.124097e+00 2.870111e+00 2.663692e+00 2.436609e+00 1.915475e+00 6.656244e-03
<GCONST> 8.637183e+01
<MIXTURE> 9 1.199672e-02
<MEAN> 25
 8.043613e+00 3.659736e+00 -6.049793e+00 -1.104270e+01 -3.295488e+00 5.711958e+00 -3.395333e+00 -1.953797e+00 -3.726162e+00 -2.468528e+00 4.331381e-01 1.256523e+00 1.296802e+00 -7.829840e-02 -6.361330e-01 -2.897521e+00 -2.413534e+00 1.199606e+00 -1.348301e+00 -4.331036e-01 -2.590804e-02 -7.126639e-01 5.481407e-01 5.343974e-01 7.683282e-02
<VARIANCE> 25
 1.153599e+01 1.797725e+01 2.858235e+01 4.334113e+01 5.865622e+01 2.444628e+01 4.029743e+01 4.418766e+01 3.879601e+01 3.314518e+01 3.251938e+01 2.997118e+01 1.709685e+00 1.819552e+00 3.603537e+00 3.645405e+00 4.807934e+00 3.657169e+00 3.830894e+00 5.116305e+00 3.781962e+00 3.060630e+00 3.149282e+00 2.808905e+00 1.761983e-03
<GCONST> 9.503787e+01
<MIXTURE> 10 6.596976e-03
<MEAN> 25
 8.372986e-01 7.565755e+00 5.328967e+00 7.193572e+00 1.631161e+00 -2.148179e+00 -5.074920e-01 -1.703598e+00 8.327205e-01 8.926658e-01 8.523527e-01 6.440805e-01 -1.916658e+00 -6.724282e-01 -4.635283e-01 3.023868e+00 2.478324e+00 2.701588e+00 2.375973e+00 2.254847e+00 1.859234e+00 1.539896e+00 2.314529e+00 5.411077e-01 -1.375203e-01
<VARIANCE> 25
 1.945476e+01 2.125413e+01 2.247320e+01 2.935458e+01 3.840281e+01 3.490038e+01 3.507229e+01 3.374629e+01 2.773406e+01 2.906546e+01 2.685979e+01 2.488955e+01 2.229644e+00 3.403869e+00 5.500688e+00 5.139147e+00 5.547109e+00 4.452586e+00 4.675741e+00 4.894494e+00 4.361536e+00 4.991270e+00 4.476789e+00 3.211958e+00 2.732933e-03
<GCONST> 9.748724e+01
<MIXTURE> 11 1.633820e-02
<MEAN> 25
 7.728297e+00 3.833066e+00 2.430957e+00 5.778848e+00 -2.103999e+00 -2.711021e+00 -1.996929e+00 -7.639551e+00 -2.516692e+00 5.972248e-01 -2.172422e+00 -1.859387e+00 -2.898501e-01 5.587189e-01 1.611343e-01 9.933884e-02 7.660969e-01 8.695235e-02 4.437938e-01 9.024134e-02 -2.537480e-01 -2.888533e-01 -3.278042e-01 2.324890e-01 -1.605321e-02
<VARIANCE> 25
 1.085615e+01 2.515606e+01 2.369454e+01 3.073638e+01 4.467733e+01 3.497252e+01 4.788075e+01 4.477529e+01 4.237693e+01 3.037363e+01 3.195974e+01 2.657146e+01 8.496088e-01 1.082094e+00 1.755820e+00 2.202475e+00 2.121166e+00 2.169295e+00 2.032179e+00 3.024399e+00 2.114279e+00 2.180087e+00 1.833739e+00 1.390826e+00 8.366191e-04
<GCONST> 8.706514e+01
<MIXTURE> 12 5.904134e-03
<MEAN> 25
 9.199028e+00 4.576905e+00 -4.507503e+00 -1.725898e+01 -9.016754e+00 8.803522e+00 -3.640247e+00 -9.700177e-01 -4.128568e-01 -7.143861e+00 1.229897e-01 1.802387e+00 5.714461e-02 1.761705e-01 1.833690e-01 -4.599928e-01 -1.840251e-01 -2.169553e-02 2.240451e-01 3.023702e-01 6.456552e-02 -4.422169e-01 -4.762920e-01 -1.569147e-01 -3.786766e-03
<VARIANCE> 25
 8.626988e+00 1.450986e+01 1.631257e+01 2.587236e+01 3.081265e+01 2.164024e+01 3.523027e+01 3.721540e+01 3.058363e+01 3.331542e+01 2.927213e+01 2.472474e+01 2.117731e-01 6.249813e-01 4.610447e-01 1.174606e+00 1.454342e+00 9.643088e-01 1.051389e+00 1.369985e+00 1.287817e+00 1.073738e+00 1.304169e+00 1.074736e+00 4.407807e-04
<GCONST> 7.501607e+01
<MIXTURE> 13 5.904134e-03
<MEAN> 25
 9.199028e+00 4.576905e+00 -4.507503e+00 -1.725898e+01 -9.016754e+00 8.803522e+00 -3.640247e+00 -9.700177e-01 -4.128568e-01 -7.143861e+00 1.229897e-01 1.802387e+00 5.714461e-02 1.761705e-01 1.833690e-01 -4.599928e-01 -1.840251e-01 -2.169553e-02 2.240451e-01 3.023702e-01 6.456552e-02 -4.422169e-01 -4.762920e-01 -1.569147e-01 -3.786766e-03
<VARIANCE> 25
 8.626988e+00 1.450986e+01 1.631257e+01 2.587236e+01 3.081265e+01 2.164024e+01 3.523027e+01 3.721540e+01 3.058363e+01 3.331542e+01 2.927213e+01 2.472474e+01 2.117731e-01 6.249813e-01 4.610447e-01 1.174606e+00 1.454342e+00 9.643088e-01 1.051389e+00 1.369985e+00 1.287817e+00 1.073738e+00 1.304169e+00 1.074736e+00 4.407807e-04
<GCONST> 7.501607e+01
<MIXTURE> 14 6.488954e-03
<MEAN> 25
 -4.295372e+00 -3.857905e-01 -3.252631e-01 8.918667e+00 7.537548e+00 7.338600e+00 7.868418e+00 7.296587e+00 7.241096e+00 5.229229e+00 6.793826e+00 4.051628e+00 -2.684112e-01 1.927658e-01 3.587367e-01 3.076732e-01 5.568025e-03 5.850760e-02 9.726313e-02 1.759459e-01 2.926090e-01 5.311396e-01 5.052363e-01 8.420520e-02 -9.258378e-03
<VARIANCE> 25
 9.387093e+00 1.381983e+01 1.857235e+01 1.784227e+01 2.089858e+01 1.972893e+01 2.166212e+01 2.069851e+01 1.998106e+01 2.382327e+01 2.200562e+01 1.626774e+01 9.629132e-01 1.636674e+00 1.771224e+00 1.928337e+00 2.235031e+00 2.246993e+00 2.241583e+00 2.233293e+00 2.273371e+00 2.509737e+00 2.187524e+00 1.819736e+00 1.025774e-03
<GCONST> 8.193724e+01
<MIXTURE> 15 2.475190e-03
<MEAN> 25
 -5.372002e+00 -6.747928e-01 -2.204240e-01 7.410540e+00 5.778229e+00 5.669250e+00 6.105711e+00 4.889662e+00 5.144962e+00 4.164212e+00 5.391423e+00 2.456642e+00 -1.200134e-01 -2.936035e-02 7.829463e-02 2.512083e-01 4.847337e-01 7.736194e-01 1.071039e+00 1.188527e+00 1.057747e+00 7.431006e-01 4.109246e-01 1.467976e-01 -8.445550e-05
<VARIANCE> 25
 7.131503e+00 5.619427e+00 8.959141e+00 1.281593e+01 1.422556e+01 1.420886e+01 1.491210e+01 1.540780e+01 1.397511e+01 1.411228e+01 1.591853e+01 1.295200e+01 1.235492e-01 2.037386e-01 3.298234e-01 5.149205e-01 7.010201e-01 8.005151e-01 7.549046e-01 7.935081e-01 8.989094e-01 1.040367e+00 1.067110e+00 1.070494e+00 2.795134e-05
<GCONST> 5.877592e+01
<MIXTURE> 16 2.475190e-03
<MEAN> 25
 -5.372002e+00 -6.747928e-01 -2.204240e-01 7.410540e+00 5.778229e+00 5.669250e+00 6.105711e+00 4.889662e+00 5.144962e+00 4.164212e+00 5.391423e+00 2.456642e+00 -1.200134e-01 -2.936035e-02 7.829463e-02 2.512083e-01 4.847337e-01 7.736194e-01 1.071039e+00 1.188527e+00 1.057747e+00 7.431006e-01 4.109246e-01 1.467976e-01 -8.445550e-05
<VARIANCE> 25
 7.131503e+00 5.619427e+00 8.959141e+00 1.281593e+01 1.422556e+01 1.420886e+01 1.491210e+01 1.540780e+01 1.397511e+01 1.411228e+01 1.591853e+01 1.295200e+01 1.235492e-01 2.037386e-01 3.298234e-01 5.149205e-01 7.010201e-01 8.005151e-01 7.549046e-01 7.935081e-01 8.989094e-01 1.040367e+00 1.067110e+00 1.070494e+00 2.795134e-05
<GCONST> 5.877592e+01
<MIXTURE> 17 9.518312e-03
<MEAN> 25
 3.304821e+00 -1.473683e+00 6.584810e+00 2.215837e+00 -4.902075e+00 -5.716465e+00 -2.604657e+00 -3.654557e-01 -2.203632e+00 -3.698222e+00 -5.239494e-01 5.518192e-01 -7.010165e-01 -1.444155e+00 1.837898e+00 -1.783426e+00 -2.683089e+00 -5.660564e-02 -5.174463e-01 1.253483e+00 -3.755519e-01 -3.545685e-01 1.469501e+00 5.949548e-01 8.118855e-02
<VARIANCE> 25
 1.539780e+01 3.205212e+01 3.069588e+01 3.310417e+01 4.538596e+01 4.211308e+01 3.853332e+01 2.937161e+01 2.989975e+01 2.679133e+01 3.320092e+01 2.443703e+01 1.841537e+00 2.482760e+00 4.793006e+00 3.724033e+00 4.860711e+00 5.210001e+00 5.457360e+00 4.803137e+00 3.367954e+00 3.534088e+00 3.320241e+00 2.508798e+00 2.331734e-03
<GCONST> 9.647942e+01
<MIXTURE> 18 1.221018e-02
<MEAN> 25
 3.787262e+00 3.758774e+00 5.987988e+00 4.876849e+00 -4.055399e+00 -8.303299e+00 -1.637613e+00 -1.394397e+00 -3.297843e+00 -1.726720e+00 -4.900247e-01 1.864315e-01 -7.212405e-01 1.944131e+00 -3.068871e-01 2.077358e+00 3.181256e+00 1.334378e+00 1.166775e+00 -5.073447e-01 6.735874e-01 6.554111e-01 -4.969604e-01 2.677017e-01 -1.166049e-01
<VARIANCE> 25
 1.499952e+01 2.778572e+01 3.510820e+01 2.708287e+01 4.026200e+01 3.180759e+01 4.183018e+01 3.339946e+01 3.568103e+01 3.448274e+01 3.039614e+01 2.907270e+01 2.392818e+00 3.160051e+00 4.201201e+00 3.776165e+00 3.722326e+00 4.686995e+00 5.051368e+00 4.874093e+00 4.012371e+00 3.910954e+00 4.618930e+00 3.893521e+00 3.959991e-03
<GCONST> 9.809426e+01
<MIXTURE> 19 9.912824e-03
<MEAN> 25
 -9.795462e+00 2.540307e+00 -1.232421e+00 1.285892e+00 4.467381e+00 2.277993e+00 4.753298e+00 1.461403e+00 2.277719e+00 1.750441e+00 -1.181905e-01 2.441577e+00 1.820781e+00 1.442665e+00 2.090994e+00 6.568614e-01 -1.143127e+00 -1.201158e+00 -6.945355e-01 -1.498981e+00 -1.307097e+00 -1.057268e+00 -9.501839e-01 -9.513899e-01 3.190781e-04
<VARIANCE> 25
 4.598038e+01 2.499293e+01 5.688289e+01 4.868796e+01 2.706493e+01 3.046109e+01 3.026495e+01 4.588084e+01 2.339741e+01 2.235568e+01 3.031136e+01 2.338852e+01 2.233061e+00 2.403430e+00 1.856955e+00 1.975880e+00 2.726039e+00 2.018107e+00 2.717314e+00 1.883854e+00 2.391268e+00 1.727174e+00 2.506646e+00 1.691983e+00 2.005028e-03
<GCONST> 9.066360e+01
<MIXTURE> 20 6.308331e-03
<MEAN> 25
 -1.410931e+01 7.341256e+00 8.005758e-01 6.170372e+00 4.848733e+00 1.688515e+00 5.190658e+00 8.283856e-01 9.523623e-01 8.205749e-01 2.516716e+00 -2.197089e-01 -3.296762e+00 -8.517792e-01 -1.531452e+00 3.227560e-01 1.512936e+00 2.075533e+00 1.957163e+00 2.058502e+00 2.145018e+00 2.018035e+00 1.674510e+00 9.746335e-01 4.838071e-02
<VARIANCE> 25
 1.996017e+01 2.367505e+01 3.077946e+01 3.677722e+01 3.054290e+01 2.824326e+01 2.967295e+01 3.116187e+01 2.768785e+01 2.791048e+01 2.513102e+01 2.132582e+01 2.080017e+00 2.173014e+00 1.978885e+00 2.522805e+00 2.743842e+00 2.321779e+00 2.329207e+00 2.295552e+00 2.213315e+00 2.661992e+00 2.226712e+00 1.920650e+00 1.973364e-03
<GCONST> 8.930359e+01
<MIXTURE> 21 7.928653e-03
<MEAN> 25
 3.984241e+00 -4.558782e+00 5.806201e+00 -1.529405e+00 -1.059895e+01 -8.719575e+00 -2.614772e+00 4.188623e+00 -2.084896e+00 -3.380124e+00 2.876996e-01 3.363484e-01 -7.179975e-01 1.337911e+00 2.578657e+00 -4.916741e-02 -1.548433e+00 3.314292e-01 5.899881e-01 -1.490452e+00 -1.955072e+00 3.145308e-01 1.330381e+00 2.476324e-01 -1.284444e-02
<VARIANCE> 25
 9.014063e+00 1.890528e+01 2.986450e+01 2.840956e+01 2.854428e+01 3.311395e+01 4.282309e+01 3.929423e+01 4.284921e+01 3.177101e+01 3.430540e+01 2.317029e+01 3.757473e-01 9.510697e-01 1.885076e+00 1.292759e+00 2.209138e+00 2.186698e+00 3.630359e+00 2.511519e+00 2.157727e+00 2.587444e+00 2.017036e+00 2.278162e+00 4.286025e-04
<GCONST> 8.513924e+01
<MIXTURE> 22 8.827789e-03
<MEAN> 25
 -1.787234e+01 7.130125e+00 -4.090481e+00 7.312905e+00 4.692784e+00 2.730703e+00 8.363474e+00 1.739317e+00 5.357006e+00 3.322973e+00 5.594192e+00 1.225365e+00 -2.995247e-01 -2.009848e-01 -1.233035e-01 -1.434735e-01 2.406440e-03 1.157862e-01 1.910611e-01 1.616778e-01 2.496413e-01 2.084521e-01 1.648624e-01 1.945884e-01 8.418783e-03
<VARIANCE> 25
 8.422646e+00 1.683896e+01 1.732375e+01 2.565615e+01 2.340741e+01 2.119190e+01 1.930085e+01 1.860732e+01 1.807416e+01 2.091199e+01 2.006007e+01 1.399560e+01 1.106318e+00 1.379554e+00 1.355692e+00 1.560794e+00 1.395409e+00 1.563428e+00 1.519919e+00 1.531385e+00 1.595533e+00 1.529473e+00 1.378417e+00 1.158533e+00 1.768201e-03
<GCONST> 7.848071e+01
<MIXTURE> 23 6.455497e-03
<MEAN> 25
 7.933421e+00 2.310742e+00 2.196198e+00 3.113550e+00 -4.266996e+00 -3.543967e+00 -4.352455e+00 -7.849360e+00 -2.355294e+00 -3.675151e-01 -3.493015e+00 -1.899352e+00 6.707054e-02 2.593389e-01 -7.231727e-02 -9.826245e-03 8.911078e-03 2.964256e-02 7.800411e-02 1.285647e-02 -7.379597e-02 7.020599e-02 -3.198229e-03 -4.242989e-02 -3.197716e-03
<VARIANCE> 25
 9.095185e+00 1.947523e+01 2.500422e+01 3.772958e+01 3.510474e+01 4.761245e+01 5.207178e+01 5.698751e+01 4.863381e+01 4.310018e+01 4.413524e+01 3.559164e+01 1.120768e-01 3.165249e-01 3.666239e-01 4.481002e-01 5.488676e-01 6.156493e-01 8.556972e-01 7.845935e-01 8.133453e-01 8.056182e-01 7.426014e-01 7.414505e-01 8.371163e-05
<GCONST> 7.136130e+01
<MIXTURE> 24 6.455497e-03
<MEAN> 25
 7.933421e+00 2.310742e+00 2.196198e+00 3.113550e+00 -4.266996e+00 -3.543967e+00 -4.352455e+00 -7.849360e+00 -2.355294e+00 -3.675151e-01 -3.493015e+00 -1.899352e+00 6.707054e-02 2.593389e-01 -7.231727e-02 -9.826245e-03 8.911078e-03 2.964256e-02 7.800411e-02 1.285647e-02 -7.379597e-02 7.020599e-02 -3.198229e-03 -4.242989e-02 -3.197716e-03
<VARIANCE> 25
 9.095185e+00 1.947523e+01 2.500422e+01 3.772958e+01 3.510474e+01 4.761245e+01 5.207178e+01 5.698751e+01 4.863381e+01 4.310018e+01 4.413524e+01 3.559164e+01 1.120768e-01 3.165249e-01 3.666239e-01 4.481002e-01 5.488676e-01 6.156493e-01 8.556972e-01 7.845935e-01 8.133453e-01 8.056182e-01 7.426014e-01 7.414505e-01 8.371163e-05
<GCONST> 7.136130e+01
<MIXTURE> 25 1.118642e-02
<MEAN> 25
 -1.649633e-02 2.346385e+00 1.671196e+01 -6.980107e-01 -1.154270e+01 -1.996332e+00 -4.940300e+00 -2.120297e+00 -6.889822e+00 -4.716894e+00 4.817422e+00 -1.704635e+00 -1.091746e-01 4.435104e-01 1.088595e-01 7.705152e-02 2.415863e-01 1.448579e-01 2.656283e-01 -2.106158e-01 -2.818988e-01 8.160160e-02 -5.153314e-02 -1.043560e-01 -1.628524e-02
<VARIANCE> 25
 9.601703e+00 3.703917e+01 1.947519e+01 2.817343e+01 3.014481e+01 3.910626e+01 2.570595e+01 3.720907e+01 2.670299e+01 4.111169e+01 2.650787e+01 2.597975e+01 5.744768e-01 1.406894e+00 1.381674e+00 1.375982e+00 2.219285e+00 1.974606e+00 1.823458e+00 1.731127e+00 1.451277e+00 1.548651e+00 1.389972e+00 1.224961e+00 1.545706e-03
<GCONST> 8.352612e+01
<MIXTURE> 26 7.727677e-03
<MEAN> 25
 2.050453e+00 -5.519939e+00 -1.032200e+01 -6.145424e-01 7.855612e+00 5.190593e+00 4.203177e+00 5.114770e-01 2.080551e+00 -2.869031e-01 -2.489288e+00 -9.509141e-01 -8.029271e-01 6.490963e-01 2.880488e-01 6.047419e-01 3.306820e-01 4.284809e-01 2.912642e-01 2.469202e-01 2.451571e-01 6.833767e-02 2.869536e-01 4.815274e-01 -4.669986e-02
<VARIANCE> 25
 2.257123e+01 3.787973e+01 2.597708e+01 6.147533e+01 3.528654e+01 4.158971e+01 4.277569e+01 5.708678e+01 3.560910e+01 5.131848e+01 3.749001e+01 4.150976e+01 1.762513e+00 1.812633e+00 1.873916e+00 2.033281e+00 2.456671e+00 2.327973e+00 2.424627e+00 2.714245e+00 2.083387e+00 2.195502e+00 2.113099e+00 1.996453e+00 3.191454e-03
<GCONST> 9.336628e+01
<MIXTURE> 27 7.727677e-03
<MEAN> 25
 2.050453e+00 -5.519939e+00 -1.032200e+01 -6.145424e-01 7.855612e+00 5.190593e+00 4.203177e+00 5.114770e-01 2.080551e+00 -2.869031e-01 -2.489288e+00 -9.509141e-01 -8.029271e-01 6.490963e-01 2.880488e-01 6.047419e-01 3.306820e-01 4.284809e-01 2.912642e-01 2.469202e-01 2.451571e-01 6.833767e-02 2.869536e-01 4.815274e-01 -4.669986e-02
<VARIANCE> 25
 2.257123e+01 3.787973e+01 2.597708e+01 6.147533e+01 3.528654e+01 4.158971e+01 4.277569e+01 5.708678e+01 3.560910e+01 5.131848e+01 3.749001e+01 4.150976e+01 1.762513e+00 1.812633e+00 1.873916e+00 2.033281e+00 2.456671e+00 2.327973e+00 2.424627e+00 2.714245e+00 2.083387e+00 2.195502e+00 2.113099e+00 1.996453e+00 3.191454e-03
<GCONST> 9.336628e+01
<MIXTURE> 28 5.036674e-03
<MEAN> 25
 -5.413162e+00 -2.646457e-02 -1.566958e+00 6.667572e+00 5.299771e+00 3.512571e+00 5.458518e+00 3.078380e+00 3.912649e+00 2.402645e+00 2.568188e+00 3.131434e+00 -1.134801e-01 2.200781e-01 5.339338e-01 7.928908e-01 8.095293e-01 6.894933e-01 5.294909e-01 4.113494e-01 4.490755e-01 4.666199e-01 3.614439e-01 1.715477e-01 1.822069e-05
<VARIANCE> 25
 1.046266e+01 8.401036e+00 1.203326e+01 1.493365e+01 1.497943e+01 1.754908e+01 1.801666e+01 1.906664e+01 1.701428e+01 1.656277e+01 2.085251e+01 1.558629e+01 2.541370e-01 3.339470e-01 4.050665e-01 4.652632e-01 6.300247e-01 8.550927e-01 1.049100e+00 1.167745e+00 1.092695e+00 1.042433e+00 1.034451e+00 1.086163e+00 1.077227e-06
<GCONST> 6.040495e+01
<MIXTURE> 29 5.036674e-03
<MEAN> 25
 -5.413162e+00 -2.646457e-02 -1.566958e+00 6.667572e+00 5.299771e+00 3.512571e+00 5.458518e+00 3.078380e+00 3.912649e+00 2.402645e+00 2.568188e+00 3.131434e+00 -1.134801e-01 2.200781e-01 5.339338e-01 7.928908e-01 8.095293e-01 6.894933e-01 5.294909e-01 4.113494e-01 4.490755e-01 4.666199e-01 3.614439e-01 1.715477e-01 1.822069e-05
<VARIANCE> 25
 1.046266e+01 8.401036e+00 1.203326e+01 1.493365e+01 1.497943e+01 1.754908e+01 1.801666e+01 1.906664e+01 1.701428e+01 1.656277e+01 2.085251e+01 1.558629e+01 2.541370e-01 3.339470e-01 4.050665e-01 4.652632e-01 6.300247e-01 8.550927e-01 1.049100e+00 1.167745e+00 1.092695e+00 1.042433e+00 1.034451e+00 1.086163e+00 1.077227e-06
<GCONST> 6.040495e+01
<MIXTURE> 30 8.917812e-03
<MEAN> 25
 -4.296432e+00 -2.579488e-01 4.837185e-01 9.123909e+00 7.954372e+00 7.359652e+00 7.822342e+00 6.534070e+00 6.427158e+00 4.944274e+00 6.479278e+00 3.272503e+00 -2.134836e-02 3.021622e-02 4.320344e-02 8.987525e-02 8.420755e-02 2.587105e-02 1.881652e-02 1.448537e-02 3.217594e-03 2.956871e-03 7.180551e-02 6.551312e-02 -7.304451e-04
<VARIANCE> 25
 7.476505e+00 9.554795e+00 1.064885e+01 1.336230e+01 1.585675e+01 1.637475e+01 1.976287e+01 2.079342e+01 1.597035e+01 1.785728e+01 2.638048e+01 1.507539e+01 1.120393e-01 1.986616e-01 3.292086e-01 4.764105e-01 6.089661e-01 7.017648e-01 7.469509e-01 8.050142e-01 8.586891e-01 9.693180e-01 8.933355e-01 9.186552e-01 5.350605e-05
<GCONST> 6.115697e+01
<MIXTURE> 31 4.136493e-03
<MEAN> 25
 -2.979553e+00 -5.689258e+00 9.993272e-01 5.311533e+00 2.868537e+00 1.597567e+00 6.497792e+00 4.752470e+00 2.309782e+00 2.584886e+00 5.484062e+00 1.760165e+00 2.202489e-01 4.837457e-01 -3.857509e-01 4.424102e-01 4.043198e-01 4.408123e-01 1.901114e-01 1.491680e-02 3.576374e-01 2.177048e-01 -9.693950e-02 -8.117535e-02 -2.042660e-02
<VARIANCE> 25
 6.107162e+00 1.272108e+01 1.859567e+01 1.645584e+01 2.512722e+01 2.020183e+01 2.436356e+01 3.348761e+01 2.276788e+01 2.957002e+01 2.320379e+01 2.252538e+01 1.927537e-01 4.256450e-01 5.890517e-01 6.873650e-01 1.035693e+00 1.047965e+00 1.064792e+00 1.281050e+00 1.181862e+00 1.338958e+00 1.268134e+00 1.205941e+00 2.248090e-04
<GCONST> 7.119962e+01
<MIXTURE> 32 4.136493e-03
<MEAN> 25
 -2.979553e+00 -5.689258e+00 9.993272e-01 5.311533e+00 2.868537e+00 1.597567e+00 6.497792e+00 4.752470e+00 2.309782e+00 2.584886e+00 5.484062e+00 1.760165e+00 2.202489e-01 4.837457e-01 -3.857509e-01 4.424102e-01 4.043198e-01 4.408123e-01 1.901114e-01 1.491680e-02 3.576374e-01 2.177048e-01 -9.693950e-02 -8.117535e-02 -2.042660e-02
<VARIANCE> 25
 6.107162e+00 1.272108e+01 1.859567e+01 1.645584e+01 2.512722e+01 2.020183e+01 2.436356e+01 3.348761e+01 2.276788e+01 2.957002e+01 2.320379e+01 2.252538e+01 1.927537e-01 4.256450e-01 5.890517e-01 6.873650e-01 1.035693e+00 1.047965e+00 1.064792e+00 1.281050e+00 1.181862e+00 1.338958e+00 1.268134e+00 1.205941e+00 2.248090e-04
<GCONST> 7.119962e+01
<MIXTURE> 33 1.508826e-02
<MEAN> 25
 6.320375e+00 -4.582459e+00 -1.319470e+00 -1.147441e+00 -2.809297e+00 -5.115880e+00 -6.834482e+00 2.041749e+00 3.048651e+00 1.160202e-02 -3.656889e+00 -2.545542e+00 5.887114e-01 -9.035645e-01 -2.669014e+00 -1.963996e+00 1.640557e+00 1.643575e+00 -4.259858e-01 1.490398e-01 1.221369e+00 9.616609e-01 -3.125774e-01 -1.533442e+00 2.864515e-02
<VARIANCE> 25
 8.449360e+00 1.844791e+01 2.909125e+01 3.941904e+01 3.854655e+01 3.873288e+01 3.676690e+01 3.911011e+01 3.736299e+01 3.810658e+01 3.286127e+01 2.827175e+01 1.073343e+00 1.801100e+00 2.078007e+00 1.866557e+00 3.984096e+00 3.044171e+00 3.969310e+00 5.527104e+00 3.551034e+00 4.149580e+00 2.827734e+00 3.004142e+00 1.531784e-03
<GCONST> 9.266228e+01
<MIXTURE> 34 1.588179e-02
<MEAN> 25
 8.402942e+00 -7.394496e-01 -7.583382e-01 2.199611e+00 -1.593348e+00 -2.203792e+00 -5.355273e+00 -3.969033e+00 -1.430933e+00 9.494990e-01 -1.734433e+00 -3.557779e+00 -1.090599e-01 1.285604e+00 9.765270e-01 2.445239e+00 8.359169e-01 -8.639384e-01 1.177078e+00 -1.667869e+00 -2.386817e-01 1.581043e-01 -1.298247e+00 2.569326e-01 -6.254674e-02
<VARIANCE> 25
 7.984459e+00 2.842816e+01 2.336628e+01 4.915621e+01 3.907596e+01 4.290490e+01 4.820818e+01 5.153639e+01 4.517419e+01 3.721080e+01 4.562705e+01 2.710823e+01 1.116258e+00 1.954777e+00 3.479488e+00 4.164853e+00 5.742970e+00 7.249577e+00 5.057485e+00 4.905536e+00 4.451673e+00 5.312756e+00 5.513848e+00 3.645470e+00 9.048505e-04
<GCONST> 9.775826e+01
<MIXTURE> 35 1.467755e-02
<MEAN> 25
 -1.758061e+00 -4.223416e+00 -1.024415e+01 -1.577927e-02 9.023501e+00 7.303173e-01 2.353318e+00 3.641167e+00 1.183826e+00 4.871228e+00 -1.173484e-01 1.242823e+00 4.127721e-01 -8.559856e-01 -1.488387e+00 -1.560194e+00 2.235615e-01 -4.655030e-01 -7.218578e-01 3.405546e-01 -4.077347e-01 1.381361e-01 -2.961412e-01 -3.661934e-01 9.999969e-02
<VARIANCE> 25
 1.783589e+01 3.111961e+01 4.121624e+01 6.149231e+01 4.125838e+01 5.205701e+01 4.881680e+01 5.269687e+01 4.419287e+01 3.376513e+01 3.192123e+01 2.961316e+01 3.144008e+00 3.457252e+00 6.135866e+00 5.017810e+00 4.998530e+00 5.361893e+00 4.385304e+00 5.640977e+00 4.746704e+00 4.021960e+00 4.193820e+00 3.528692e+00 4.873583e-03
<GCONST> 1.024177e+02
<MIXTURE> 36 1.093293e-02
<MEAN> 25
 3.704331e+00 -5.466102e+00 7.943976e+00 5.083795e+00 -9.199810e+00 -1.080013e+01 -7.385211e+00 4.441866e+00 -5.274292e+00 -5.061089e+00 5.181612e+00 2.889002e-01 3.651394e-01 2.045762e-01 -1.392253e+00 -1.952360e-02 8.390504e-01 8.475907e-02 -8.970293e-01 2.234170e-01 7.240498e-01 6.374016e-01 -6.231926e-01 -6.298962e-01 -1.808729e-02
<VARIANCE> 25
 9.692599e+00 1.660675e+01 2.284728e+01 2.660747e+01 2.494899e+01 3.384990e+01 4.451469e+01 2.855788e+01 5.880818e+01 2.675730e+01 3.633113e+01 2.405933e+01 3.687094e-01 6.760198e-01 1.542597e+00 1.199101e+00 1.568170e+00 1.425095e+00 2.557124e+00 2.227179e+00 2.293223e+00 1.685048e+00 1.773068e+00 1.617329e+00 8.455347e-04
<GCONST> 8.255816e+01
<MIXTURE> 37 1.246826e-02
<MEAN> 25
 5.553758e-01 7.755255e+00 1.202127e+01 -5.556114e+00 -8.014533e+00 -1.045420e+00 -5.067406e+00 -8.274556e+00 -3.708262e+00 -9.138241e-01 -3.660185e+00 -1.314325e+00 1.806047e-01 6.472502e-01 -1.351943e+00 3.576709e+00 1.987997e+00 -3.076141e-01 1.102179e+00 4.350577e-01 5.315530e-01 -3.169155e-01 5.277564e-01 -9.570613e-02 -9.484418e-02
<VARIANCE> 25
 1.592474e+01 2.615824e+01 3.114091e+01 5.101088e+01 3.392925e+01 3.203447e+01 4.409326e+01 3.585369e+01 3.849102e+01 3.604300e+01 3.771000e+01 3.101041e+01 2.949553e+00 3.411345e+00 3.009189e+00 4.092781e+00 4.600877e+00 3.770946e+00 4.223975e+00 3.824014e+00 3.446515e+00 3.618243e+00 3.894750e+00 2.796987e+00 3.919509e-03
<GCONST> 9.783079e+01
<MIXTURE> 38 1.154525e-02
<MEAN> 25
 -4.625041e+00 8.821959e+00 3.411313e+00 3.460508e+00 1.734809e+00 -6.271722e+00 -4.967688e-01 -2.605786e+00 -2.298754e+00 -2.005666e+00 -1.865671e+00 -4.927688e-02 -4.317913e+00 1.342075e+00 -4.253903e-01 1.532717e+00 2.564919e+00 1.012670e+00 2.297823e+00 1.011929e+00 8.186029e-01 5.447585e-01 5.438536e-01 5.566602e-01 4.187891e-02
<VARIANCE> 25
 2.863285e+01 2.646372e+01 4.347249e+01 2.976594e+01 4.848495e+01 4.004143e+01 3.387683e+01 3.748335e+01 3.266752e+01 3.702198e+01 2.371410e+01 2.825778e+01 2.335988e+00 3.618145e+00 3.581260e+00 4.618815e+00 3.762389e+00 5.436695e+00 4.881895e+00 4.120327e+00 3.943068e+00 4.477055e+00 5.466266e+00 3.260159e+00 2.137905e-03
<GCONST> 9.862917e+01
<MIXTURE> 39 9.501865e-03
<MEAN> 25
 1.340833e+00 2.600230e+00 1.020824e+01 -9.212980e+00 -1.128602e+01 -9.891880e-01 -2.977664e+00 -6.575694e+00 -4.520558e+00 8.731039e-01 -3.669282e+00 -2.301614e+00 -7.292581e-01 1.522343e+00 1.626033e+00 -1.389903e+00 7.847081e-02 1.220588e+00 -1.200340e+00 -1.253524e+00 4.297583e-01 4.446002e-01 -5.069341e-01 1.243173e-01 1.351047e-03
<VARIANCE> 25
 8.902311e+00 3.010726e+01 3.172365e+01 3.830933e+01 3.723058e+01 4.267741e+01 4.460163e+01 3.345379e+01 3.943308e+01 3.320115e+01 3.637869e+01 2.943815e+01 6.912034e-01 1.546812e+00 1.511713e+00 2.924784e+00 2.417548e+00 2.829677e+00 3.052726e+00 2.746819e+00 2.434442e+00 2.617472e+00 2.125280e+00 2.070313e+00 1.185253e-03
<GCONST> 8.967142e+01
<MIXTURE> 40 1.030800e-02
<MEAN> 25
 -8.994034e+00 2.089415e+00 -1.260750e+00 7.990570e+00 4.571389e+00 5.133803e+00 5.585523e+00 4.149325e+00 4.503145e+00 4.453529e+00 5.102287e+00 1.474334e+00 -3.464676e-02 -2.700480e-01 -5.020442e-02 -1.983389e-01 -5.657054e-02 -1.167455e-01 3.866294e-02 3.649557e-02 3.475769e-02 -1.034216e-02 4.488383e-02 2.964620e-02 1.925695e-03
<VARIANCE> 25
 4.269258e+01 2.055379e+01 2.867885e+01 2.884976e+01 3.135412e+01 1.975733e+01 2.010935e+01 1.885167e+01 1.642129e+01 1.879511e+01 2.150073e+01 1.473518e+01 7.910898e-01 8.295005e-01 8.553427e-01 1.071561e+00 1.108878e+00 1.228252e+00 1.248337e+00 1.258528e+00 1.195474e+00 1.229887e+00 1.169897e+00 1.077009e+00 8.776981e-04
<GCONST> 7.713005e+01
<MIXTURE> 41 6.713375e-03
<MEAN> 25
 1.298581e+00 1.754478e+00 1.047942e+01 -6.936438e+00 -1.045953e+01 -3.868380e+00 -2.470303e+00 -5.029637e+00 -4.649900e+00 2.658686e+00 -1.726193e+00 -9.452179e-01 8.201230e-02 -7.680132e-01 1.703149e+00 -3.550011e+00 -2.475862e+00 -1.142792e-01 -5.132324e-01 -3.510116e-01 -8.280767e-01 1.080521e+00 -1.033422e+00 8.296362e-02 8.652624e-02
<VARIANCE> 25
 1.170669e+01 2.993027e+01 3.253349e+01 4.019808e+01 3.867342e+01 4.011895e+01 3.716942e+01 2.986444e+01 3.301202e+01 2.871519e+01 3.190906e+01 2.714054e+01 3.176428e+00 3.322380e+00 3.830280e+00 3.818131e+00 4.971335e+00 5.862243e+00 4.718068e+00 4.559136e+00 3.965487e+00 4.222992e+00 3.878400e+00 3.215908e+00 2.942660e-03
<GCONST> 9.795258e+01
<MIXTURE> 42 1.106211e-02
<MEAN> 25
 -2.868872e+00 3.638217e+00 5.025384e+00 4.422797e+00 4.389794e-01 -6.214262e+00 9.075000e-01 -3.244310e+00 -1.590936e+00 -5.829285e-01 -2.359736e+00 1.643800e+00 4.048050e+00 -8.847064e-01 1.760014e+00 1.445961e-01 -3.299708e+00 -1.541949e+00 -2.481616e+00 -4.529378e-01 -1.519390e+00 -9.623981e-01 1.430344e+00 -1.362282e+00 1.916858e-02
<VARIANCE> 25
 3.584934e+01 2.140926e+01 4.113544e+01 3.138955e+01 4.098967e+01 3.489753e+01 4.600937e+01 3.101808e+01 3.274973e+01 2.607058e+01 2.250962e+01 1.816648e+01 3.113329e+00 5.175725e+00 5.276608e+00 4.046119e+00 4.440531e+00 5.819873e+00 4.605064e+00 5.192175e+00 6.383942e+00 4.358673e+00 6.733651e+00 3.349749e+00 4.283447e-03
<GCONST> 1.003018e+02
<MIXTURE> 43 7.108249e-03
<MEAN> 25
 3.165848e+00 -6.309396e+00 -2.249796e+00 -5.188100e+00 -7.399474e+00 -3.403897e+00 4.143191e+00 1.310295e+00 -5.063573e+00 -7.094760e+00 -4.324558e+00 -1.250880e+00 2.377003e-01 2.165189e+00 1.913775e+00 -1.332020e-01 -1.430000e+00 -7.949412e-01 -9.698377e-01 -7.796615e-01 8.213688e-01 1.468338e+00 3.422119e-01 2.066540e-02 -4.510596e-02
<VARIANCE> 25
 9.601991e+00 1.968507e+01 2.735480e+01 3.522054e+01 3.840819e+01 3.663771e+01 3.330432e+01 3.980651e+01 3.965561e+01 3.864222e+01 2.653511e+01 2.956186e+01 6.905914e-01 1.248926e+00 1.571383e+00 2.491161e+00 2.376215e+00 2.382560e+00 2.653146e+00 3.026837e+00 2.607484e+00 2.578182e+00 2.332193e+00 1.919377e+00 9.431154e-04
<GCONST> 8.796955e+01
<MIXTURE> 44 7.328289e-03
<MEAN> 25
 -1.575625e+01 1.931574e+00 3.521845e+00 -3.223138e+00 4.008393e+00 1.980780e+00 1.093336e-01 2.620665e+00 1.652557e+00 -4.061281e-01 1.399986e+00 1.918286e+00 -2.194803e-01 5.624040e-02 1.116148e-01 2.285062e-01 -1.870873e-02 1.228005e-01 5.517167e-01 6.576471e-02 2.005306e-01 2.061606e-01 5.414528e-02 1.144608e-01 4.512600e-03
<VARIANCE> 25
 4.064986e+01 2.764870e+01 3.349350e+01 2.970856e+01 3.171228e+01 2.856119e+01 2.411386e+01 3.054818e+01 2.619648e+01 2.750669e+01 2.720699e+01 1.874689e+01 1.300131e+00 1.568786e+00 1.378363e+00 1.364588e+00 2.115136e+00 1.631073e+00 1.525598e+00 1.745636e+00 1.480342e+00 1.503346e+00 1.316522e+00 1.168766e+00 1.356987e-03
<GCONST> 8.429050e+01
<MIXTURE> 45 1.364932e-02
<MEAN> 25
 -1.187534e+01 3.112439e+00 -7.485397e-01 2.955570e+00 5.996934e+00 1.317209e+00 3.233006e+00 1.541804e+00 4.224880e+00 2.986026e+00 2.312785e-01 3.392584e+00 -3.383851e+00 9.904584e-01 2.616672e-01 -4.052718e-01 3.035796e-01 -2.496782e-03 1.883816e-01 5.178269e-01 -9.884365e-02 -4.772497e-01 4.207605e-02 5.243540e-01 1.020680e-01
<VARIANCE> 25
 3.453784e+01 2.501078e+01 2.649929e+01 3.257426e+01 2.187736e+01 4.228552e+01 2.603691e+01 2.348150e+01 2.010122e+01 2.159142e+01 2.720749e+01 1.412114e+01 2.632630e+00 2.749137e+00 2.740239e+00 1.808752e+00 1.950302e+00 2.536443e+00 1.926898e+00 2.679415e+00 1.993299e+00 1.838129e+00 1.599645e+00 2.470482e+00 3.440404e-03
<GCONST> 8.855956e+01
<MIXTURE> 46 9.336259e-03
<MEAN> 25
 -9.685025e+00 2.613813e+00 1.044622e+00 7.141644e+00 6.307498e+00 3.198507e+00 7.146467e+00 4.326413e+00 5.466297e+00 4.829012e+00 4.710926e+00 2.829784e+00 1.100204e+00 -2.691964e-01 1.709159e-02 1.019653e+00 6.156994e-01 8.947948e-01 3.923764e-01 6.294963e-01 4.461997e-01 4.963457e-01 6.153594e-01 4.771653e-01 -1.045524e-01
<VARIANCE> 25
 3.606573e+01 4.418616e+01 3.753010e+01 5.175695e+01 5.166962e+01 3.977515e+01 3.589119e+01 3.474325e+01 3.284713e+01 3.020426e+01 2.915254e+01 1.986012e+01 3.875257e+00 4.018012e+00 3.733752e+00 3.990866e+00 4.019738e+00 3.592243e+00 3.273393e+00 3.089646e+00 2.887827e+00 2.750618e+00 2.229726e+00 1.784064e+00 7.739168e-03
<GCONST> 9.793243e+01
<MIXTURE> 47 7.116147e-03
<MEAN> 25
 7.327839e+00 -7.371927e+00 -7.757248e+00 -6.440773e+00 1.506173e+00 8.469710e-01 -2.393154e+00 1.234820e+00 3.025370e+00 1.651364e-01 -4.235337e+00 -6.710684e+00 -1.865414e-01 -1.252298e+00 -6.955116e-01 -4.231890e-01 6.281878e-01 8.209818e-01 8.772162e-01 2.972594e-01 1.169444e-01 -8.829398e-01 -4.666451e-01 -4.540206e-01 3.003261e-02
<VARIANCE> 25
 1.069066e+01 2.106533e+01 2.054370e+01 3.318353e+01 3.612613e+01 5.267155e+01 4.535224e+01 4.083818e+01 4.332994e+01 4.699496e+01 4.876012e+01 3.348933e+01 5.202348e-01 7.796409e-01 1.129174e+00 1.667267e+00 2.000351e+00 2.204328e+00 2.326622e+00 2.487532e+00 2.189263e+00 2.146762e+00 2.186568e+00 2.010418e+00 5.574800e-04
<GCONST> 8.648656e+01
<MIXTURE> 48 7.116147e-03
<MEAN> 25
 7.327839e+00 -7.371927e+00 -7.757248e+00 -6.440773e+00 1.506173e+00 8.469710e-01 -2.393154e+00 1.234820e+00 3.025370e+00 1.651364e-01 -4.235337e+00 -6.710684e+00 -1.865414e-01 -1.252298e+00 -6.955116e-01 -4.231890e-01 6.281878e-01 8.209818e-01 8.772162e-01 2.972594e-01 1.169444e-01 -8.829398e-01 -4.666451e-01 -4.540206e-01 3.003261e-02
<VARIANCE> 25
 1.069066e+01 2.106533e+01 2.054370e+01 3.318353e+01 3.612613e+01 5.267155e+01 4.535224e+01 4.083818e+01 4.332994e+01 4.699496e+01 4.876012e+01 3.348933e+01 5.202348e-01 7.796409e-01 1.129174e+00 1.667267e+00 2.000351e+00 2.204328e+00 2.326622e+00 2.487532e+00 2.189263e+00 2.146762e+00 2.186568e+00 2.010418e+00 5.574800e-04
<GCONST> 8.648656e+01
<MIXTURE> 49 5.548473e-03
<MEAN> 25
 -4.887908e+00 2.713169e-01 9.990421e-02 8.598176e+00 6.302210e+00 5.475872e+00 6.436513e+00 4.498072e+00 5.078011e+00 3.711860e+00 4.590273e+00 2.612837e+00 3.863787e-01 6.539389e-01 6.581085e-01 3.374688e-01 -2.111593e-01 -6.609573e-01 -9.750651e-01 -1.090112e+00 -9.453276e-01 -7.026017e-01 -4.473237e-01 -2.011486e-01 2.416157e-04
<VARIANCE> 25
 1.028655e+01 9.861253e+00 1.388538e+01 1.585028e+01 1.596296e+01 1.707412e+01 2.233689e+01 1.896447e+01 1.775538e+01 1.731749e+01 2.296194e+01 1.539961e+01 2.823851e-01 2.546178e-01 3.999515e-01 5.987549e-01 8.462474e-01 9.430870e-01 9.926866e-01 1.049602e+00 1.100340e+00 1.188841e+00 1.292554e+00 1.306852e+00 1.606736e-05
<GCONST> 6.472150e+01
<MIXTURE> 50 6.234641e-03
<MEAN> 25
 -4.641756e+00 8.141820e-02 -1.467686e+00 6.237405e+00 4.269129e+00 2.256155e+00 3.705663e+00 1.956666e+00 2.750751e+00 1.411923e+00 2.132524e+00 2.825349e+00 5.673809e-02 1.779634e-01 9.459622e-02 -1.822919e-01 -5.149860e-01 -6.111522e-01 -4.288685e-01 -4.738664e-02 4.401162e-01 7.698924e-01 7.328069e-01 4.352250e-01 -3.042959e-06
<VARIANCE> 25
 1.065092e+01 1.114285e+01 1.435253e+01 1.567549e+01 1.583385e+01 1.860556e+01 1.849853e+01 1.963060e+01 1.868242e+01 1.742845e+01 2.170749e+01 1.525190e+01 1.442271e-01 2.395349e-01 3.773967e-01 5.231184e-01 5.987549e-01 7.359946e-01 9.549710e-01 1.117431e+00 1.056117e+00 9.102519e-01 9.236858e-01 1.008731e+00 1.019470e-06
<GCONST> 5.965917e+01
<MIXTURE> 51 6.234641e-03
<MEAN> 25
 -4.641756e+00 8.141820e-02 -1.467686e+00 6.237405e+00 4.269129e+00 2.256155e+00 3.705663e+00 1.956666e+00 2.750751e+00 1.411923e+00 2.132524e+00 2.825349e+00 5.673809e-02 1.779634e-01 9.459622e-02 -1.822919e-01 -5.149860e-01 -6.111522e-01 -4.288685e-01 -4.738664e-02 4.401162e-01 7.698924e-01 7.328069e-01 4.352250e-01 -3.042959e-06
<VARIANCE> 25
 1.065092e+01 1.114285e+01 1.435253e+01 1.567549e+01 1.583385e+01 1.860556e+01 1.849853e+01 1.963060e+01 1.868242e+01 1.742845e+01 2.170749e+01 1.525190e+01 1.442271e-01 2.395349e-01 3.773967e-01 5.231184e-01 5.987549e-01 7.359946e-01 9.549710e-01 1.117431e+00 1.056117e+00 9.102519e-01 9.236858e-01 1.008731e+00 1.019470e-06
<GCONST> 5.965917e+01
<MIXTURE> 52 6.367945e-03
<MEAN> 25
 9.428471e+00 2.326700e+00 -5.579432e+00 -1.475749e+01 -5.504431e+00 9.213952e+00 -2.971847e+00 -2.466729e+00 -3.541384e+00 -3.252576e+00 1.935626e+00 7.724534e-01 -2.601379e-01 -6.115677e-01 6.133889e-02 1.537780e+00 1.462973e+00 -4.780175e-01 -1.833197e-01 -2.918509e-01 -2.853518e-01 1.413432e+00 6.624706e-01 -6.976497e-01 -1.661465e-02
<VARIANCE> 25
 8.540134e+00 1.884736e+01 2.164178e+01 3.395126e+01 4.108392e+01 2.793764e+01 3.950562e+01 4.565070e+01 3.662435e+01 4.396972e+01 3.982618e+01 2.745123e+01 4.218499e-01 1.572387e+00 1.068610e+00 3.741055e+00 2.065597e+00 3.219465e+00 3.024281e+00 2.842366e+00 2.699125e+00 2.541163e+00 3.102695e+00 2.202246e+00 1.253219e-03
<GCONST> 8.873826e+01
<MIXTURE> 53 6.367945e-03
<MEAN> 25
 9.428471e+00 2.326700e+00 -5.579432e+00 -1.475749e+01 -5.504431e+00 9.213952e+00 -2.971847e+00 -2.466729e+00 -3.541384e+00 -3.252576e+00 1.935626e+00 7.724534e-01 -2.601379e-01 -6.115677e-01 6.133889e-02 1.537780e+00 1.462973e+00 -4.780175e-01 -1.833197e-01 -2.918509e-01 -2.853518e-01 1.413432e+00 6.624706e-01 -6.976497e-01 -1.661465e-02
<VARIANCE> 25
 8.540134e+00 1.884736e+01 2.164178e+01 3.395126e+01 4.108392e+01 2.793764e+01 3.950562e+01 4.565070e+01 3.662435e+01 4.396972e+01 3.982618e+01 2.745123e+01 4.218499e-01 1.572387e+00 1.068610e+00 3.741055e+00 2.065597e+00 3.219465e+00 3.024281e+00 2.842366e+00 2.699125e+00 2.541163e+00 3.102695e+00 2.202246e+00 1.253219e-03
<GCONST> 8.873826e+01
<MIXTURE> 54 7.368620e-03
<MEAN> 25
 -3.633732e+00 4.918315e-02 -6.831663e-01 8.036698e+00 6.484194e+00 4.625346e+00 4.675508e+00 4.600818e+00 4.053058e+00 3.593786e+00 4.457162e+00 2.326016e+00 -2.131196e-03 2.653467e-02 3.419062e-02 4.753800e-02 5.134885e-02 4.705596e-02 3.892693e-02 2.900219e-02 3.083990e-02 2.502197e-02 1.450121e-02 1.721067e-03 -1.208758e-05
<VARIANCE> 25
 9.137253e+00 1.036371e+01 9.295475e+00 1.818485e+01 1.332177e+01 1.353305e+01 1.197184e+01 1.128308e+01 1.134255e+01 1.354939e+01 1.780470e+01 1.253616e+01 4.087381e-02 8.734330e-02 1.541148e-01 2.266575e-01 3.079336e-01 3.969484e-01 4.608747e-01 5.217460e-01 5.420882e-01 5.211689e-01 5.144317e-01 5.165106e-01 1.000280e-06
<GCONST> 4.724992e+01
<MIXTURE> 55 7.368620e-03
<MEAN> 25
 -3.633732e+00 4.918315e-02 -6.831663e-01 8.036698e+00 6.484194e+00 4.625346e+00 4.675508e+00 4.600818e+00 4.053058e+00 3.593786e+00 4.457162e+00 2.326016e+00 -2.131196e-03 2.653467e-02 3.419062e-02 4.753800e-02 5.134885e-02 4.705596e-02 3.892693e-02 2.900219e-02 3.083990e-02 2.502197e-02 1.450121e-02 1.721067e-03 -1.208758e-05
<VARIANCE> 25
 9.137253e+00 1.036371e+01 9.295475e+00 1.818485e+01 1.332177e+01 1.353305e+01 1.197184e+01 1.128308e+01 1.134255e+01 1.354939e+01 1.780470e+01 1.253616e+01 4.087381e-02 8.734330e-02 1.541148e-01 2.266575e-01 3.079336e-01 3.969484e-01 4.608747e-01 5.217460e-01 5.420882e-01 5.211689e-01 5.144317e-01 5.165106e-01 1.000280e-06
<GCONST> 4.724992e+01
<MIXTURE> 56 6.132464e-03
<MEAN> 25
 7.547207e+00 -6.761637e+00 -9.152999e+00 -8.633132e+00 3.975331e+00 3.928339e+00 -2.159341e+00 -1.476158e+00 1.955171e+00 6.610375e-01 -2.488487e+00 -7.132789e+00 -1.136499e-02 2.593483e-02 -8.589949e-02 2.162382e-02 2.590343e-01 6.759981e-02 1.143118e-01 -1.371708e-01 -4.585605e-02 -3.743360e-02 -8.323476e-02 1.805734e-02 -7.071871e-03
<VARIANCE> 25
 9.391973e+00 2.336300e+01 2.000550e+01 4.178592e+01 3.324443e+01 5.097598e+01 6.204295e+01 3.690604e+01 3.889188e+01 3.766285e+01 4.021989e+01 3.119184e+01 2.069430e-01 4.320548e-01 4.526365e-01 7.718942e-01 7.972530e-01 1.114289e+00 9.090257e-01 9.068392e-01 9.080358e-01 9.287196e-01 1.033656e+00 7.848195e-01 2.389321e-04
<GCONST> 7.516532e+01
<MIXTURE> 57 6.132464e-03
<MEAN> 25
 7.547207e+00 -6.761637e+00 -9.152999e+00 -8.633132e+00 3.975331e+00 3.928339e+00 -2.159341e+00 -1.476158e+00 1.955171e+00 6.610375e-01 -2.488487e+00 -7.132789e+00 -1.136499e-02 2.593483e-02 -8.589949e-02 2.162382e-02 2.590343e-01 6.759981e-02 1.143118e-01 -1.371708e-01 -4.585605e-02 -3.743360e-02 -8.323476e-02 1.805734e-02 -7.071871e-03
<VARIANCE> 25
 9.391973e+00 2.336300e+01 2.000550e+01 4.178592e+01 3.324443e+01 5.097598e+01 6.204295e+01 3.690604e+01 3.889188e+01 3.766285e+01 4.021989e+01 3.119184e+01 2.069430e-01 4.320548e-01 4.526365e-01 7.718942e-01 7.972530e-01 1.114289e+00 9.090257e-01 9.068392e-01 9.080358e-01 9.287196e-01 1.033656e+00 7.848195e-01 2.389321e-04
<GCONST> 7.516532e+01
<MIXTURE> 58 6.172147e-03
<MEAN> 25
 2.215735e+00 -3.739579e+00 7.840132e+00 -4.587857e+00 -1.334553e+01 -5.484241e+00 1.572090e+00 1.031674e+00 -2.504923e+00 2.072891e+00 1.172735e+00 -8.134329e-01 -4.356972e-02 -1.473680e-01 -1.041655e-01 -1.758875e-01 -2.001833e-02 2.205991e-01 3.589875e-01 2.817635e-01 -7.254439e-03 7.849192e-02 3.334593e-02 -1.324463e-01 -3.703317e-03
<VARIANCE> 25
 8.427778e+00 1.913566e+01 2.187231e+01 3.063245e+01 2.303557e+01 4.388023e+01 3.242542e+01 3.477292e+01 3.043745e+01 2.977800e+01 2.776137e+01 1.900965e+01 2.893822e-01 7.831098e-01 7.488366e-01 1.022147e+00 9.324896e-01 1.208596e+00 1.141771e+00 1.274053e+00 1.105943e+00 1.056251e+00 1.095049e+00 8.462378e-01 7.543809e-04
<GCONST> 7.619379e+01
<MIXTURE> 59 6.172147e-03
<MEAN> 25
 2.215735e+00 -3.739579e+00 7.840132e+00 -4.587857e+00 -1.334553e+01 -5.484241e+00 1.572090e+00 1.031674e+00 -2.504923e+00 2.072891e+00 1.172735e+00 -8.134329e-01 -4.356972e-02 -1.473680e-01 -1.041655e-01 -1.758875e-01 -2.001833e-02 2.205991e-01 3.589875e-01 2.817635e-01 -7.254439e-03 7.849192e-02 3.334593e-02 -1.324463e-01 -3.703317e-03
<VARIANCE> 25
 8.427778e+00 1.913566e+01 2.187231e+01 3.063245e+01 2.303557e+01 4.388023e+01 3.242542e+01 3.477292e+01 3.043745e+01 2.977800e+01 2.776137e+01 1.900965e+01 2.893822e-01 7.831098e-01 7.488366e-01 1.022147e+00 9.324896e-01 1.208596e+00 1.141771e+00 1.274053e+00 1.105943e+00 1.056251e+00 1.095049e+00 8.462378e-01 7.543809e-04
<GCONST> 7.619379e+01
<MIXTURE> 60 4.479129e-03
<MEAN> 25
 -4.260939e+00 -6.666002e-01 -1.085450e+00 3.703096e+00 1.738122e+00 2.119502e+00 1.644963e+00 1.526310e+00 2.159949e+00 1.268917e+00 2.380752e+00 1.910872e+00 -2.852984e-02 5.645591e-02 1.007015e-01 1.302691e-01 1.300030e-01 1.292526e-01 1.792482e-01 3.233137e-01 5.456446e-01 6.644012e-01 5.555916e-01 3.035675e-01 -3.932692e-04
<VARIANCE> 25
 6.941828e+00 4.524176e+00 1.026977e+01 1.133587e+01 1.361846e+01 1.698748e+01 1.404692e+01 1.187911e+01 1.272017e+01 1.321431e+01 1.595779e+01 1.231700e+01 8.687945e-02 1.681934e-01 2.804155e-01 4.325695e-01 5.871847e-01 7.276780e-01 8.279379e-01 8.994867e-01 9.022138e-01 8.366378e-01 8.390866e-01 8.647712e-01 2.297032e-05
<GCONST> 5.635386e+01
<MIXTURE> 61 4.479129e-03
<MEAN> 25
 -4.260939e+00 -6.666002e-01 -1.085450e+00 3.703096e+00 1.738122e+00 2.119502e+00 1.644963e+00 1.526310e+00 2.159949e+00 1.268917e+00 2.380752e+00 1.910872e+00 -2.852984e-02 5.645591e-02 1.007015e-01 1.302691e-01 1.300030e-01 1.292526e-01 1.792482e-01 3.233137e-01 5.456446e-01 6.644012e-01 5.555916e-01 3.035675e-01 -3.932692e-04
<VARIANCE> 25
 6.941828e+00 4.524176e+00 1.026977e+01 1.133587e+01 1.361846e+01 1.698748e+01 1.404692e+01 1.187911e+01 1.272017e+01 1.321431e+01 1.595779e+01 1.231700e+01 8.687945e-02 1.681934e-01 2.804155e-01 4.325695e-01 5.871847e-01 7.276780e-01 8.279379e-01 8.994867e-01 9.022138e-01 8.366378e-01 8.390866e-01 8.647712e-01 2.297032e-05
<GCONST> 5.635386e+01
<MIXTURE> 62 3.278034e-03
<MEAN> 25
 -5.042577e+00 1.214727e+00 9.940422e-01 8.824450e+00 6.139815e+00 5.033084e+00 5.537549e+00 3.954143e+00 4.990170e+00 3.956484e+00 4.899355e+00 2.899914e+00 -9.962254e-01 -1.156786e+00 -9.557910e-01 -2.801000e-01 4.374366e-01 1.001913e+00 1.377420e+00 1.544378e+00 1.477426e+00 1.246590e+00 1.057935e+00 7.371312e-01 -1.302654e-03
<VARIANCE> 25
 1.006388e+01 9.957047e+00 1.312611e+01 1.659614e+01 1.728793e+01 1.741378e+01 1.971028e+01 1.973222e+01 1.870903e+01 1.874960e+01 2.190630e+01 1.499366e+01 4.042226e-01 4.398615e-01 5.502476e-01 7.742037e-01 1.039884e+00 1.184072e+00 1.247973e+00 1.275929e+00 1.319327e+00 1.354723e+00 1.399515e+00 1.375541e+00 1.642503e-05
<GCONST> 6.757504e+01
<MIXTURE> 63 4.351215e-03
<MEAN> 25
 -3.598148e+00 -2.177069e+00 -4.588353e+00 3.705084e+00 4.010780e+00 -2.258018e-01 3.667424e+00 9.089460e-01 2.422887e+00 -3.933360e-01 -1.748783e+00 1.834470e+00 -8.973757e-02 3.119771e-01 3.540350e-01 5.353845e-01 4.436388e-01 4.513600e-01 3.759509e-01 1.749973e-01 1.978604e-01 1.841850e-01 1.089251e-01 6.643099e-02 -5.124948e-03
<VARIANCE> 25
 9.995188e+00 1.416168e+01 1.578325e+01 2.011486e+01 1.951653e+01 2.479950e+01 2.517974e+01 2.482452e+01 2.207431e+01 2.172034e+01 2.128088e+01 1.864314e+01 2.798934e-01 4.197234e-01 6.279167e-01 6.580780e-01 8.686368e-01 1.124262e+00 1.123980e+00 1.335274e+00 1.256276e+00 1.600592e+00 1.295135e+00 1.164996e+00 1.896252e-04
<GCONST> 7.133229e+01
<MIXTURE> 64 4.351215e-03
<MEAN> 25
 -3.598148e+00 -2.177069e+00 -4.588353e+00 3.705084e+00 4.010780e+00 -2.258018e-01 3.667424e+00 9.089460e-01 2.422887e+00 -3.933360e-01 -1.748783e+00 1.834470e+00 -8.973757e-02 3.119771e-01 3.540350e-01 5.353845e-01 4.436388e-01 4.513600e-01 3.759509e-01 1.749973e-01 1.978604e-01 1.841850e-01 1.089251e-01 6.643099e-02 -5.124948e-03
<VARIANCE> 25
 9.995188e+00 1.416168e+01 1.578325e+01 2.011486e+01 1.951653e+01 2.479950e+01 2.517974e+01 2.482452e+01 2.207431e+01 2.172034e+01 2.128088e+01 1.864314e+01 2.798934e-01 4.197234e-01 6.279167e-01 6.580780e-01 8.686368e-01 1.124262e+00 1.123980e+00 1.335274e+00 1.256276e+00 1.600592e+00 1.295135e+00 1.164996e+00 1.896252e-04
<GCONST> 7.133229e+01
<MIXTURE> 65 1.721197e-02
<MEAN> 25
 8.010730e+00 2.119283e+00 1.745452e+00 8.126656e-01 -5.224704e+00 -4.369939e+00 -5.808982e+00 -7.051121e+00 -3.562537e+00 -2.175401e+00 -5.285695e+00 -1.872952e+00 1.623539e-01 1.505620e-01 2.971355e-02 1.009424e-01 -1.223849e-01 2.473780e-01 -6.068592e-02 -1.324125e-01 1.596610e-01 -3.775540e-02 -9.051544e-02 -1.209028e-01 -4.367772e-03
<VARIANCE> 25
 1.001819e+01 1.906392e+01 2.623099e+01 3.632074e+01 3.820379e+01 5.675365e+01 5.916855e+01 5.940852e+01 5.600061e+01 5.709195e+01 5.724754e+01 5.029159e+01 5.619603e-01 9.497094e-01 1.611284e+00 1.819783e+00 2.051393e+00 2.234110e+00 2.327696e+00 3.040939e+00 2.432950e+00 2.526706e+00 2.436685e+00 2.109938e+00 4.157911e-04
<GCONST> 8.953542e+01
<MIXTURE> 66 1.191532e-02
<MEAN> 25
 6.656107e+00 -3.972603e+00 -5.531317e+00 -4.745502e+00 1.258196e+00 -5.042816e+00 -6.853923e+00 1.187141e+00 7.130173e-01 -2.020319e+00 -6.018581e+00 -3.522679e+00 -6.714465e-02 1.651474e+00 2.180152e+00 2.311908e+00 -1.181578e+00 -1.295280e+00 1.228930e-01 -5.573813e-01 -1.154398e-01 -1.821464e-01 -2.575983e-01 1.045521e+00 -6.354429e-02
<VARIANCE> 25
 8.966976e+00 2.305713e+01 2.696500e+01 3.398485e+01 3.806955e+01 5.259166e+01 5.668281e+01 4.663851e+01 5.326535e+01 6.610962e+01 3.753027e+01 3.606102e+01 1.285714e+00 2.482255e+00 2.466483e+00 2.474040e+00 4.318532e+00 4.337846e+00 4.507010e+00 4.794445e+00 4.207885e+00 4.989736e+00 4.053103e+00 3.243418e+00 1.461781e-03
<GCONST> 9.702259e+01
<MIXTURE> 67 1.559142e-02
<MEAN> 25
 8.286942e+00 2.748464e+00 -4.874837e+00 -8.441211e+00 -1.797044e-01 3.031340e+00 -2.526465e+00 5.707501e-01 -3.288861e+00 -7.191161e-01 -5.830089e-01 -3.097089e+00 -8.831081e-01 1.198715e+00 6.636459e-01 3.201770e+00 1.536383e+00 -1.159562e+00 1.719975e+00 1.076507e-01 4.548086e-01 6.269615e-01 -2.450673e-01 5.368954e-01 -1.154651e-01
<VARIANCE> 25
 1.035006e+01 3.877391e+01 2.781754e+01 4.865327e+01 4.223494e+01 5.094038e+01 5.628601e+01 7.139860e+01 5.579691e+01 5.598036e+01 4.969471e+01 4.864883e+01 1.861368e+00 3.980191e+00 3.031973e+00 4.096545e+00 3.889350e+00 5.000237e+00 4.827619e+00 5.005951e+00 4.859177e+00 4.222400e+00 4.333333e+00 3.839834e+00 2.924990e-03
<GCONST> 1.016352e+02
<MIXTURE> 68 1.485092e-02
<MEAN> 25
 -1.859153e+00 -1.424128e+00 -4.117685e+00 1.498813e+00 5.412714e+00 -3.403560e-01 2.388436e+00 2.444983e+00 1.514912e+00 1.746454e+00 -1.444834e-01 1.051137e+00 2.642737e+00 5.066759e-01 2.939876e-01 -2.603347e+00 -2.833743e+00 -1.366573e+00 -2.470804e+00 -1.816941e+00 -1.374339e+00 -1.532930e+00 -1.633486e+00 -9.829643e-01 9.983840e-02
<VARIANCE> 25
 2.408470e+01 3.494812e+01 5.159204e+01 5.402196e+01 4.575575e+01 4.972815e+01 4.143598e+01 4.900284e+01 3.534553e+01 3.677221e+01 3.360875e+01 2.728635e+01 1.719659e+00 3.541522e+00 5.454065e+00 5.314657e+00 4.947779e+00 5.008336e+00 5.071305e+00 4.622359e+00 4.834485e+00 5.012409e+00 5.559947e+00 3.159975e+00 5.444495e-03
<GCONST> 1.023309e+02
<MIXTURE> 69 1.204884e-02
<MEAN> 25
 4.671675e+00 -4.217138e+00 -3.574215e+00 -3.624622e+00 -3.491400e+00 -7.866732e+00 -1.098031e+00 2.215607e+00 -3.499928e-01 -4.728189e+00 -5.683403e+00 9.540903e-01 1.672260e+00 -2.230685e+00 -1.335807e+00 -2.246274e+00 -5.324309e-01 -3.442837e-01 -4.738280e-01 6.208559e-01 -6.437263e-01 -1.460227e+00 -2.198034e+00 -1.691587e-01 6.250172e-02
<VARIANCE> 25
 8.860552e+00 2.185634e+01 2.681167e+01 2.596990e+01 4.274494e+01 3.566899e+01 4.899472e+01 3.169521e+01 3.970683e+01 3.801585e+01 3.106520e+01 2.461664e+01 3.559002e+00 2.929168e+00 3.353517e+00 3.694798e+00 5.762798e+00 5.013674e+00 7.106886e+00 6.086395e+00 5.905837e+00 5.866935e+00 4.367755e+00 3.704325e+00 2.444752e-03
<GCONST> 9.870232e+01
<MIXTURE> 70 1.329190e-02
<MEAN> 25
 6.814525e+00 -1.979089e+00 -3.781475e+00 -1.961900e+00 4.878832e-01 -8.464020e-01 -8.151143e+00 -3.668388e+00 2.721523e-01 3.687686e+00 1.532432e+00 -4.996535e+00 1.476024e+00 -8.767115e-01 -4.936144e-01 -2.434917e+00 -2.010890e+00 1.081271e+00 -1.874071e+00 -1.369354e-01 4.216496e-01 -3.204596e-02 1.257662e+00 -1.312924e+00 6.276564e-02
<VARIANCE> 25
 9.263855e+00 1.763596e+01 2.215250e+01 4.846981e+01 3.486148e+01 3.624035e+01 4.301614e+01 3.480137e+01 3.799495e+01 2.932792e+01 5.021339e+01 2.168446e+01 3.359362e+00 2.661889e+00 4.005494e+00 4.183344e+00 5.079388e+00 5.104491e+00 6.173128e+00 6.046998e+00 4.827782e+00 4.445642e+00 5.851580e+00 3.533828e+00 2.049901e-03
<GCONST> 9.827363e+01
<MIXTURE> 71 1.406903e-02
<MEAN> 25
 6.423497e+00 4.744939e+00 2.785707e+00 3.180307e+00 -1.861251e+00 -3.669533e+00 -2.265199e+00 -6.835048e+00 -3.866510e+00 -2.934463e+00 -5.233916e+00 -2.421904e+00 -1.621113e+00 -7.302253e-01 4.434781e-01 -2.002727e+00 7.389157e-01 3.492039e-01 -3.295316e-01 1.824776e+00 -7.636008e-02 -7.716919e-01 7.031784e-01 5.363730e-01 3.528033e-02
<VARIANCE> 25
 1.640719e+01 2.139035e+01 2.697868e+01 3.658122e+01 4.008874e+01 3.237856e+01 3.891967e+01 3.478330e+01 3.247171e+01 3.900756e+01 3.269011e+01 2.868244e+01 1.415209e+00 2.483435e+00 5.958271e+00 4.431779e+00 5.265139e+00 4.853284e+00 4.504258e+00 4.728454e+00 3.951802e+00 4.482334e+00 3.365921e+00 2.887190e+00 1.274805e-03
<GCONST> 9.638211e+01
<MIXTURE> 72 8.134747e-03
<MEAN> 25
 3.572037e+00 -4.140129e+00 5.852868e+00 -1.512248e+00 -1.027628e+01 -1.017108e+01 -2.863202e+00 2.240061e+00 -5.892781e+00 -2.591199e+00 -6.926804e-01 5.865117e-01 8.612790e-01 -7.388240e-01 -2.543649e+00 4.609385e-01 2.099773e+00 -6.192495e-01 -1.438923e+00 1.571139e+00 1.698891e+00 -5.777014e-01 -1.295492e+00 3.502006e-01 -7.233318e-03
<VARIANCE> 25
 1.056112e+01 2.036543e+01 3.269336e+01 4.589848e+01 3.057394e+01 3.478907e+01 4.045919e+01 3.509254e+01 5.166657e+01 4.024428e+01 5.353704e+01 2.653928e+01 4.597841e-01 9.882949e-01 1.946773e+00 1.381798e+00 2.065291e+00 2.213972e+00 3.050329e+00 2.651920e+00 2.708574e+00 2.803291e+00 1.972601e+00 2.067590e+00 5.565914e-04
<GCONST> 8.750871e+01
<MIXTURE> 73 1.213625e-02
<MEAN> 25
 -6.033803e+00 -8.736597e-01 -1.011583e+00 4.934194e+00 5.767938e+00 1.728217e+00 5.910874e+00 2.619889e+00 3.996629e+00 3.668968e+00 3.144064e+00 2.825603e+00 8.766579e-01 -1.433676e+00 -3.532802e-01 -2.158594e+00 -1.921291e+00 -1.671495e+00 -8.500789e-01 -4.605737e-01 -1.017915e+00 -9.462211e-01 -7.256473e-01 -1.090823e-01 1.518510e-01
<VARIANCE> 25
 1.259572e+01 1.300357e+01 1.382825e+01 2.034285e+01 3.324963e+01 2.338129e+01 1.959603e+01 2.071034e+01 1.691777e+01 1.744349e+01 2.665250e+01 1.416198e+01 3.542917e+00 3.604068e+00 7.157909e+00 5.300956e+00 7.875750e+00 4.045135e+00 3.738399e+00 3.940275e+00 3.388903e+00 4.107515e+00 3.909238e+00 2.439663e+00 3.913875e-03
<GCONST> 9.264729e+01
<MIXTURE> 74 1.756491e-02
<MEAN> 25
 2.996400e+00 -3.438050e+00 5.746105e+00 4.142405e-01 -8.317805e+00 -7.868284e+00 -2.930682e+00 1.738827e+00 -4.809565e+00 -1.201312e+00 1.658916e+00 -1.575910e+00 4.023538e-01 1.768206e+00 -4.999727e-01 1.201070e+00 1.535280e+00 6.914803e-01 1.021371e+00 -2.011356e+00 7.865311e-01 6.045951e-01 -1.038097e+00 4.717394e-03 -8.468176e-02
<VARIANCE> 25
 1.332949e+01 2.414543e+01 4.015477e+01 3.246201e+01 3.289454e+01 3.470691e+01 7.882891e+01 4.341776e+01 3.812463e+01 3.920075e+01 5.426083e+01 3.024955e+01 1.563756e+00 1.734184e+00 2.824076e+00 2.780457e+00 2.827779e+00 3.195613e+00 5.005663e+00 3.655084e+00 3.648292e+00 3.376450e+00 3.576976e+00 2.806216e+00 1.576731e-03
<GCONST> 9.531647e+01
<MIXTURE> 75 9.711651e-03
<MEAN> 25
 1.816859e+00 -3.652969e+00 1.169966e+01 3.476370e+00 -1.105408e+01 -8.134080e+00 -3.956153e+00 4.775035e-01 -5.158298e+00 -4.150310e+00 4.911633e+00 3.881335e-01 1.571259e+00 -1.942473e+00 7.303237e-01 -9.723751e-02 -2.676730e+00 -8.171014e-01 -2.035033e+00 1.610902e+00 -7.781662e-01 -4.684388e-01 1.945258e+00 -5.168480e-01 5.255322e-02
<VARIANCE> 25
 1.002935e+01 2.204737e+01 2.210072e+01 2.480642e+01 2.084722e+01 3.288220e+01 2.539068e+01 2.839011e+01 3.848980e+01 2.517163e+01 2.682488e+01 1.691982e+01 1.993864e+00 1.465353e+00 3.783957e+00 2.315203e+00 4.134582e+00 3.889589e+00 3.667882e+00 3.283285e+00 4.529220e+00 3.253774e+00 4.086530e+00 2.121739e+00 1.725204e-03
<GCONST> 9.075333e+01
<MIXTURE> 76 1.052359e-02
<MEAN> 25
 -6.376289e+00 -1.154034e+00 -2.928366e+00 4.935439e+00 5.700526e+00 1.413605e+00 4.687116e+00 1.420856e+00 2.618247e+00 1.310998e+00 6.128585e-01 2.164746e+00 -9.787614e-02 -4.213401e-01 -2.419864e-01 -6.900997e-01 -5.027381e-01 -8.143463e-01 -4.411696e-01 -3.565288e-01 -3.411750e-01 -4.287027e-01 -4.035202e-01 -1.047924e-01 1.806142e-02
<VARIANCE> 25
 3.839482e+01 2.544732e+01 2.710282e+01 3.069550e+01 3.601703e+01 3.280077e+01 2.530037e+01 2.873162e+01 2.325189e+01 2.430576e+01 2.628143e+01 2.128255e+01 9.820686e-01 1.428604e+00 1.291370e+00 1.287582e+00 1.352466e+00 1.794943e+00 1.655267e+00 1.687497e+00 1.370952e+00 1.438826e+00 1.565332e+00 1.424203e+00 1.076475e-03
<GCONST> 8.329050e+01
<MIXTURE> 77 1.244626e-02
<MEAN> 25
 -4.658072e-01 8.588533e+00 1.246235e+01 -1.162382e+01 -7.008132e+00 9.596559e-01 -9.281972e+00 -7.238184e+00 -3.376651e+00 -1.994339e-01 -4.657796e+00 -1.486116e+00 6.813755e-02 1.373819e-01 7.366078e-02 2.508211e-01 -2.221730e-02 7.828154e-02 -6.470553e-02 -6.194825e-02 8.253931e-02 -4.483412e-02 2.568651e-02 1.180364e-01 -9.916523e-03
<VARIANCE> 25
 1.044646e+01 2.005341e+01 2.754334e+01 4.158499e+01 3.318811e+01 3.381325e+01 3.670719e+01 3.178134e+01 3.524573e+01 3.324533e+01 3.756535e+01 3.494771e+01 2.988475e-01 7.782089e-01 6.454924e-01 1.086176e+00 1.237769e+00 9.857481e-01 1.223681e+00 1.074220e+00 1.043767e+00 1.065907e+00 9.713933e-01 9.223907e-01 5.400605e-04
<GCONST> 7.779797e+01
<MIXTURE> 78 9.702551e-03
<MEAN> 25
 -1.268879e+01 3.719032e+00 -1.414831e+00 1.807758e+00 7.237026e+00 -1.700842e+00 5.260832e+00 1.596572e+00 2.257204e+00 2.421249e+00 -1.428444e+00 3.132796e+00 2.241377e+00 -3.909573e-01 1.340179e-01 8.664175e-01 1.975558e-01 -2.531098e-01 7.100520e-02 -1.859042e-01 1.196222e-01 2.351836e-01 -3.260432e-01 -4.875519e-01 -6.857529e-02
<VARIANCE> 25
 3.544139e+01 3.200708e+01 2.302126e+01 3.115990e+01 4.071341e+01 3.086456e+01 2.813522e+01 2.611672e+01 2.221245e+01 2.445528e+01 2.354774e+01 2.180193e+01 3.954948e+00 2.333007e+00 2.164237e+00 2.261969e+00 2.052472e+00 2.784488e+00 2.949926e+00 2.508466e+00 1.812260e+00 1.694456e+00 1.793608e+00 1.694305e+00 4.050903e-03
<GCONST> 9.011021e+01
<MIXTURE> 79 1.156824e-02
<MEAN> 25
 2.441432e+00 1.626208e+00 9.109175e+00 -6.640923e+00 -1.198602e+01 -1.743229e+00 -1.910769e+00 -6.298011e+00 -6.543794e+00 2.497168e-01 -3.525347e+00 -3.378133e+00 1.206831e+00 -5.208942e-01 -1.423185e+00 2.353813e+00 3.946747e-01 -1.486272e+00 5.667693e-01 8.948748e-01 -4.185512e-01 -5.228125e-01 3.506024e-01 2.652972e-01 -3.660204e-02
<VARIANCE> 25
 1.419786e+01 2.460829e+01 3.825916e+01 4.987755e+01 3.383961e+01 4.367461e+01 4.299224e+01 3.949252e+01 3.869950e+01 4.020308e+01 4.360231e+01 3.110949e+01 9.522579e-01 2.245928e+00 1.886102e+00 2.069915e+00 2.465131e+00 2.819792e+00 3.270227e+00 3.539970e+00 2.543310e+00 2.746583e+00 2.306383e+00 2.048591e+00 1.227327e-03
<GCONST> 9.195884e+01
<MIXTURE> 80 7.550998e-03
<MEAN> 25
 -1.459601e+01 3.990469e+00 6.896363e-01 2.889738e+00 2.475157e+00 1.405223e+00 6.429996e+00 2.446857e+00 2.726801e+00 2.380458e+00 4.786014e+00 1.215081e+00 4.275018e+00 -2.341094e-02 1.640315e+00 -1.124223e+00 -2.887050e+00 -2.774806e+00 -2.309716e+00 -2.018075e+00 -1.979887e+00 -1.678671e+00 -1.634965e+00 -6.131390e-01 -4.399181e-02
<VARIANCE> 25
 2.089102e+01 1.977507e+01 3.432420e+01 3.468471e+01 3.015998e+01 2.909319e+01 2.837697e+01 2.900575e+01 2.662636e+01 2.867692e+01 2.759211e+01 1.819958e+01 2.371608e+00 2.669531e+00 2.661492e+00 4.125354e+00 3.382355e+00 2.693733e+00 3.051950e+00 3.190945e+00 2.748403e+00 2.697297e+00 2.831491e+00 2.158712e+00 1.516971e-03
<GCONST> 9.144948e+01
<MIXTURE> 81 8.025434e-03
<MEAN> 25
 -1.118287e+00 4.067444e+00 1.017975e+01 -1.480540e+01 -9.081165e+00 -1.422145e+00 -6.767753e+00 -8.426168e+00 -4.151430e+00 -4.166205e-01 -7.575361e+00 -2.246922e+00 1.339332e-01 -5.873097e-01 -2.647276e-03 -5.563592e-01 -4.640284e-01 3.352020e-01 3.199382e-01 1.369216e-01 -1.404486e-01 1.066652e-01 -4.694984e-01 -1.253617e-01 1.151064e-02
<VARIANCE> 25
 1.015458e+01 3.280605e+01 2.645782e+01 2.925741e+01 3.370269e+01 3.052756e+01 4.544611e+01 2.825784e+01 3.799428e+01 3.189321e+01 2.529646e+01 3.105227e+01 7.722181e-01 2.277398e+00 1.545967e+00 2.872872e+00 2.663324e+00 2.126305e+00 3.280903e+00 2.288036e+00 2.355548e+00 2.539191e+00 2.298666e+00 2.078736e+00 1.183454e-03
<GCONST> 8.868608e+01
<MIXTURE> 82 8.213053e-03
<MEAN> 25
 -9.990714e+00 -3.833643e+00 1.627798e+00 -2.896003e+00 3.173847e+00 7.249622e-01 1.983423e+00 8.992435e-01 2.993772e+00 1.765786e+00 1.686656e+00 3.100683e+00 -1.342044e+00 -1.123443e-01 3.207757e-01 -2.567831e+00 -1.109235e+00 -1.258202e+00 -1.012111e+00 -8.440927e-01 -3.238384e-01 -4.993353e-01 -3.107969e-01 -8.300121e-02 1.774030e-01
<VARIANCE> 25
 1.802770e+01 2.510694e+01 3.195357e+01 3.125154e+01 3.310801e+01 3.230203e+01 3.172320e+01 3.268830e+01 3.066232e+01 2.520589e+01 3.070767e+01 1.742743e+01 3.872729e+00 3.128449e+00 3.350799e+00 3.317338e+00 3.630091e+00 3.256856e+00 2.906669e+00 3.063329e+00 2.777490e+00 2.493731e+00 2.435851e+00 1.888734e+00 3.468673e-03
<GCONST> 9.317692e+01
<MIXTURE> 83 1.167529e-02
<MEAN> 25
 -1.993166e+01 5.887518e+00 -6.678601e-01 -8.037907e-01 9.026565e+00 -1.376828e+00 4.495709e+00 3.250639e+00 1.698160e+00 2.926413e+00 -5.613043e-01 2.805331e+00 -2.086973e-01 -6.146394e-02 -2.130226e-01 -4.416398e-01 -1.192669e-01 -2.212341e-01 3.536046e-01 -3.286398e-01 -1.344595e-01 3.217951e-01 8.500802e-02 1.319610e-01 1.302961e-03
<VARIANCE> 25
 1.176510e+01 1.333484e+01 2.575244e+01 2.501824e+01 1.882691e+01 2.662368e+01 1.961449e+01 2.000086e+01 1.594529e+01 1.921488e+01 2.011652e+01 1.484946e+01 1.100052e+00 1.251205e+00 1.118628e+00 9.735736e-01 1.285527e+00 9.888272e-01 1.631185e+00 1.324675e+00 1.012575e+00 1.263935e+00 1.141805e+00 8.643031e-01 9.830919e-04
<GCONST> 7.580796e+01
<MIXTURE> 84 1.066614e-02
<MEAN> 25
 1.251182e+00 8.595724e+00 6.956388e+00 8.258770e+00 3.078008e+00 -1.132267e+00 -1.482294e+00 -4.524244e+00 -4.178068e+00 -2.585773e+00 -2.206750e+00 -1.557603e+00 -1.752026e+00 -1.161738e+00 -1.208186e+00 1.312885e+00 2.334852e+00 1.509893e+00 1.498502e+00 1.228524e+00 1.188009e+00 4.077589e-01 3.715072e-01 5.094742e-01 -7.070927e-02
<VARIANCE> 25
 2.287349e+01 2.259539e+01 2.309763e+01 2.549750e+01 2.993917e+01 2.861730e+01 2.736833e+01 2.581089e+01 2.463870e+01 2.728596e+01 2.408138e+01 2.388118e+01 2.064538e+00 2.470839e+00 3.716883e+00 3.218513e+00 3.349771e+00 3.265715e+00 3.249023e+00 3.404112e+00 3.377085e+00 3.142498e+00 3.526667e+00 2.925007e+00 3.433510e-03
<GCONST> 9.268002e+01
<MIXTURE> 85 7.591393e-03
<MEAN> 25
 -3.109429e+00 7.890870e+00 5.721670e+00 1.286174e+00 -3.492174e+00 -5.322977e+00 -2.974957e+00 -6.114748e+00 -3.542531e+00 -3.182401e+00 -4.803529e-01 -1.901070e+00 3.942968e+00 3.242912e-01 1.756285e+00 -2.091852e+00 -3.415960e+00 -2.582703e+00 -2.886790e+00 -2.341037e+00 -2.248572e+00 -1.265238e+00 -2.300713e+00 -6.158918e-01 9.258075e-03
<VARIANCE> 25
 4.245625e+01 2.342887e+01 3.650003e+01 3.822709e+01 3.973725e+01 4.119983e+01 3.219759e+01 2.802101e+01 2.663853e+01 2.611302e+01 2.622029e+01 2.056892e+01 2.703282e+00 4.327121e+00 4.056651e+00 5.181333e+00 4.408497e+00 3.881624e+00 3.852088e+00 3.990081e+00 3.853952e+00 4.040331e+00 3.955524e+00 3.484314e+00 5.447145e-03
<GCONST> 9.836407e+01
<MIXTURE> 86 1.273941e-02
<MEAN> 25
 -4.750884e+00 -1.223755e+00 -9.698437e-01 6.429946e+00 5.242808e+00 4.591523e+00 5.596457e+00 4.185770e+00 4.599761e+00 4.013312e+00 4.936116e+00 2.599554e+00 -1.716622e-02 -1.135536e-02 -3.697027e-02 -4.376335e-02 -1.076525e-01 -1.965094e-01 -2.600377e-01 -3.151618e-01 -3.509710e-01 -3.640958e-01 -2.328807e-01 -1.081220e-01 -9.928016e-04
<VARIANCE> 25
 8.592676e+00 5.423002e+00 1.030199e+01 1.208387e+01 1.679327e+01 1.436578e+01 1.469568e+01 1.605074e+01 1.278686e+01 1.400317e+01 1.742063e+01 1.265359e+01 1.059868e-01 1.890863e-01 3.160873e-01 4.905453e-01 6.258352e-01 7.077683e-01 7.207587e-01 7.584468e-01 8.044652e-01 9.070179e-01 8.936600e-01 9.216476e-01 5.698562e-05
<GCONST> 5.867103e+01
<MIXTURE> 87 1.100681e-02
<MEAN> 25
 -3.098796e+00 3.992552e+00 2.762377e+00 7.181711e+00 5.864403e+00 1.344970e+00 2.439239e+00 -9.597764e-01 -1.922957e-01 -3.787296e-01 -1.015349e+00 -8.188381e-02 -2.315787e+00 -2.505894e+00 -1.818186e+00 -2.096900e+00 -1.315728e-01 1.672972e-01 4.463055e-01 1.403310e+00 1.433785e+00 1.083198e+00 1.009857e+00 1.152237e+00 1.061745e-01
<VARIANCE> 25
 3.608185e+01 2.916609e+01 2.974900e+01 3.121751e+01 2.777252e+01 3.143954e+01 3.223661e+01 2.510761e+01 2.485849e+01 2.485949e+01 2.299647e+01 2.302584e+01 3.862346e+00 3.076393e+00 4.333138e+00 3.481328e+00 4.408947e+00 4.910002e+00 4.052596e+00 3.654944e+00 3.325246e+00 3.136110e+00 3.097232e+00 2.705041e+00 4.588639e-03
<GCONST> 9.595135e+01
<MIXTURE> 88 1.256585e-02
<MEAN> 25
 -4.111991e+00 -9.214069e-01 -1.329672e+00 5.753156e+00 4.992342e+00 3.156797e+00 5.361940e+00 2.764617e+00 3.462676e+00 2.646937e+00 2.188633e+00 1.949301e+00 3.702069e-02 1.508168e-01 1.435006e-01 4.339918e-01 3.356839e-01 1.602828e-01 -2.320006e-02 -2.553711e-01 -2.460136e-01 -2.753316e-01 -1.920207e-01 -1.861353e-02 -6.815870e-03
<VARIANCE> 25
 1.071091e+01 1.074810e+01 1.553672e+01 1.639952e+01 2.281247e+01 2.017772e+01 2.138813e+01 1.990085e+01 1.624468e+01 1.868021e+01 2.293752e+01 1.889596e+01 1.222301e+00 1.693989e+00 2.030387e+00 2.215046e+00 2.568476e+00 2.532675e+00 2.395858e+00 2.564110e+00 2.200624e+00 2.453643e+00 2.201507e+00 1.907287e+00 1.400443e-03
<GCONST> 8.267525e+01
<MIXTURE> 89 9.333527e-03
<MEAN> 25
 6.060448e+00 -6.799983e+00 -3.551325e+00 -3.131835e+00 -1.609872e+00 -5.568760e+00 -6.168479e+00 4.033534e+00 3.449114e+00 -2.798126e+00 -5.947365e+00 -3.304417e+00 -5.777010e-01 1.610013e-01 1.990311e+00 8.933961e-01 -1.859536e+00 -1.651238e+00 8.806768e-01 1.250063e+00 -7.802356e-01 -1.317954e+00 3.821156e-01 1.539168e+00 -4.750882e-03
<VARIANCE> 25
 9.016317e+00 2.675035e+01 3.088591e+01 3.022787e+01 3.591122e+01 4.149525e+01 6.028432e+01 4.254764e+01 3.895215e+01 4.217777e+01 3.711586e+01 3.229728e+01 3.587010e-01 8.412236e-01 1.471296e+00 1.325826e+00 1.928998e+00 2.128429e+00 2.562305e+00 2.072385e+00 2.247488e+00 2.131380e+00 2.393575e+00 1.461516e+00 3.679595e-04
<GCONST> 8.538447e+01
<MIXTURE> 90 7.114505e-03
<MEAN> 25
 2.448300e+00 -9.723765e+00 -4.755001e+00 -3.976889e+00 -3.382413e+00 -1.813661e+00 3.366518e+00 1.180912e+00 -7.532704e+00 -1.021621e+01 -3.429898e+00 -7.394161e-01 -1.636259e-01 9.090757e-01 1.168738e+00 -8.539906e-01 -1.613011e+00 -2.118915e-01 6.447104e-01 -2.099242e-01 -1.688364e-01 7.370492e-01 1.828832e-01 -5.502468e-01 -1.114843e-02
<VARIANCE> 25
 8.491940e+00 1.778383e+01 1.981219e+01 2.804678e+01 3.686453e+01 3.217421e+01 3.852161e+01 3.640669e+01 3.521337e+01 2.770427e+01 2.700155e+01 2.613627e+01 2.237394e-01 6.127008e-01 7.868087e-01 1.042881e+00 1.470056e+00 1.591581e+00 1.780478e+00 1.654600e+00 1.810266e+00 1.678371e+00 1.495424e+00 1.308654e+00 2.149859e-04
<GCONST> 7.813442e+01
<MIXTURE> 91 7.852945e-03
<MEAN> 25
 6.385921e+00 -7.639176e+00 -8.565995e+00 -5.142404e+00 3.970947e+00 -1.157936e-01 -2.183318e+00 7.281333e-01 7.902276e-01 -2.928453e+00 -4.924514e+00 -5.187185e+00 2.568989e-01 1.002385e+00 1.877602e-01 4.470598e-01 -6.354277e-02 -5.549151e-01 -3.843659e-01 -1.038334e-01 -1.022725e-01 4.577048e-01 -1.208461e-01 2.108352e-01 -3.499101e-02
<VARIANCE> 25
 1.013074e+01 2.269179e+01 2.000888e+01 4.084916e+01 3.521187e+01 5.538099e+01 5.451485e+01 3.963196e+01 5.188897e+01 6.422179e+01 3.828590e+01 4.141985e+01 4.479556e-01 8.857858e-01 1.133813e+00 1.389668e+00 2.217669e+00 2.390906e+00 2.380152e+00 2.390404e+00 2.241904e+00 2.215201e+00 2.013587e+00 1.820279e+00 5.850567e-04
<GCONST> 8.721943e+01
<MIXTURE> 92 7.852945e-03
<MEAN> 25
 6.385921e+00 -7.639176e+00 -8.565995e+00 -5.142404e+00 3.970947e+00 -1.157936e-01 -2.183318e+00 7.281333e-01 7.902276e-01 -2.928453e+00 -4.924514e+00 -5.187185e+00 2.568989e-01 1.002385e+00 1.877602e-01 4.470598e-01 -6.354277e-02 -5.549151e-01 -3.843659e-01 -1.038334e-01 -1.022725e-01 4.577048e-01 -1.208461e-01 2.108352e-01 -3.499101e-02
<VARIANCE> 25
 1.013074e+01 2.269179e+01 2.000888e+01 4.084916e+01 3.521187e+01 5.538099e+01 5.451485e+01 3.963196e+01 5.188897e+01 6.422179e+01 3.828590e+01 4.141985e+01 4.479556e-01 8.857858e-01 1.133813e+00 1.389668e+00 2.217669e+00 2.390906e+00 2.380152e+00 2.390404e+00 2.241904e+00 2.215201e+00 2.013587e+00 1.820279e+00 5.850567e-04
<GCONST> 8.721943e+01
<MIXTURE> 93 6.122769e-03
<MEAN> 25
 -6.824974e+00 -9.614608e-01 -2.402382e+00 5.799063e+00 5.909286e+00 3.922291e+00 6.123502e+00 3.608128e+00 4.118967e+00 2.509426e+00 1.817680e+00 3.705020e+00 -6.161863e-02 -1.543257e-01 -2.573094e-01 -3.316829e-01 -3.338269e-01 -2.844427e-01 -2.177698e-01 -1.740790e-01 -1.666411e-01 -1.506960e-01 -1.044842e-01 -3.576082e-02 -3.518903e-06
<VARIANCE> 25
 9.098967e+00 6.027606e+00 8.184831e+00 1.137508e+01 1.149976e+01 1.598366e+01 1.527559e+01 1.644902e+01 1.476107e+01 1.453997e+01 1.678922e+01 1.345377e+01 8.271771e-02 1.533998e-01 2.637753e-01 3.808105e-01 4.977661e-01 6.422933e-01 7.794255e-01 8.875899e-01 9.165767e-01 8.760604e-01 8.922781e-01 9.181499e-01 1.000717e-06
<GCONST> 5.360694e+01
<MIXTURE> 94 6.122769e-03
<MEAN> 25
 -6.824974e+00 -9.614608e-01 -2.402382e+00 5.799063e+00 5.909286e+00 3.922291e+00 6.123502e+00 3.608128e+00 4.118967e+00 2.509426e+00 1.817680e+00 3.705020e+00 -6.161863e-02 -1.543257e-01 -2.573094e-01 -3.316829e-01 -3.338269e-01 -2.844427e-01 -2.177698e-01 -1.740790e-01 -1.666411e-01 -1.506960e-01 -1.044842e-01 -3.576082e-02 -3.518903e-06
<VARIANCE> 25
 9.098967e+00 6.027606e+00 8.184831e+00 1.137508e+01 1.149976e+01 1.598366e+01 1.527559e+01 1.644902e+01 1.476107e+01 1.453997e+01 1.678922e+01 1.345377e+01 8.271771e-02 1.533998e-01 2.637753e-01 3.808105e-01 4.977661e-01 6.422933e-01 7.794255e-01 8.875899e-01 9.165767e-01 8.760604e-01 8.922781e-01 9.181499e-01 1.000717e-06
<GCONST> 5.360694e+01
<MIXTURE> 95 5.258835e-03
<MEAN> 25
 -4.085074e+00 -7.570044e-01 -2.171826e+00 6.301682e+00 5.081692e+00 2.595217e+00 5.768592e+00 2.145759e-01 1.949352e+00 8.913862e-01 1.519792e-01 1.835213e+00 1.266455e-01 1.477817e-01 -9.654904e-02 -9.779934e-02 -3.186169e-01 -7.877384e-01 -1.190293e+00 -1.407026e+00 -1.184270e+00 -9.423777e-01 -5.177177e-01 -2.226839e-01 -2.305208e-03
<VARIANCE> 25
 1.515093e+01 5.188591e+00 1.076840e+01 1.489215e+01 1.365358e+01 1.480139e+01 1.984871e+01 1.867754e+01 1.328371e+01 1.341491e+01 1.824468e+01 1.424961e+01 2.167065e-01 2.717305e-01 4.761466e-01 5.722557e-01 7.135583e-01 8.585736e-01 1.090473e+00 8.790607e-01 8.900402e-01 9.493090e-01 1.025931e+00 9.777119e-01 4.835422e-05
<GCONST> 6.258957e+01
<MIXTURE> 96 7.034694e-03
<MEAN> 25
 -5.075304e+00 -4.746591e-01 -2.238776e+00 5.203946e+00 3.915652e+00 1.798117e+00 3.577729e+00 1.781165e+00 2.455322e+00 9.641266e-01 1.114653e+00 2.786554e+00 -2.915261e-02 8.690049e-02 2.183470e-01 4.124906e-01 5.329731e-01 4.932778e-01 2.513828e-01 -1.119330e-01 -4.553284e-01 -6.539831e-01 -6.081261e-01 -3.748293e-01 2.509035e-06
<VARIANCE> 25
 1.101611e+01 9.726482e+00 1.281351e+01 1.445274e+01 1.531624e+01 1.941019e+01 1.817311e+01 1.926749e+01 1.790162e+01 1.653600e+01 1.981118e+01 1.484586e+01 1.197341e-01 2.170109e-01 3.186775e-01 4.037459e-01 4.971859e-01 6.635551e-01 8.669419e-01 1.024125e+00 9.612841e-01 8.595747e-01 8.811221e-01 9.434121e-01 1.046470e-06
<GCONST> 5.769559e+01
<MIXTURE> 97 7.034694e-03
<MEAN> 25
 -5.075304e+00 -4.746591e-01 -2.238776e+00 5.203946e+00 3.915652e+00 1.798117e+00 3.577729e+00 1.781165e+00 2.455322e+00 9.641266e-01 1.114653e+00 2.786554e+00 -2.915261e-02 8.690049e-02 2.183470e-01 4.124906e-01 5.329731e-01 4.932778e-01 2.513828e-01 -1.119330e-01 -4.553284e-01 -6.539831e-01 -6.081261e-01 -3.748293e-01 2.509035e-06
<VARIANCE> 25
 1.101611e+01 9.726482e+00 1.281351e+01 1.445274e+01 1.531624e+01 1.941019e+01 1.817311e+01 1.926749e+01 1.790162e+01 1.653600e+01 1.981118e+01 1.484586e+01 1.197341e-01 2.170109e-01 3.186775e-01 4.037459e-01 4.971859e-01 6.635551e-01 8.669419e-01 1.024125e+00 9.612841e-01 8.595747e-01 8.811221e-01 9.434121e-01 1.046470e-06
<GCONST> 5.769559e+01
<MIXTURE> 98 9.917808e-03
<MEAN> 25
 -9.263845e-01 5.128855e-01 -5.288370e-01 5.359424e+00 4.189909e+00 1.702821e+00 3.551171e+00 9.166166e-01 1.337576e+00 1.715205e+00 4.019914e-01 7.252980e-01 -1.650137e+00 -1.247849e+00 -1.100548e+00 1.802492e-01 8.636048e-01 9.572768e-01 1.225855e+00 1.331770e+00 1.500361e+00 1.173227e+00 1.107759e+00 1.033659e+00 -2.966161e-02
<VARIANCE> 25
 1.386294e+01 2.020758e+01 3.039869e+01 3.683980e+01 4.323865e+01 3.792358e+01 3.407934e+01 3.085516e+01 2.729849e+01 2.911803e+01 2.575239e+01 2.135134e+01 1.346915e+00 1.466415e+00 2.131376e+00 2.870071e+00 3.707747e+00 2.551278e+00 2.703442e+00 3.311110e+00 2.554240e+00 2.636210e+00 2.810503e+00 1.987557e+00 2.542681e-03
<GCONST> 9.053471e+01
<MIXTURE> 99 6.696178e-03
<MEAN> 25
 -6.410151e+00 9.680099e+00 6.281195e+00 3.810918e+00 1.287721e+00 -5.589129e+00 -1.543985e+00 -4.396430e+00 -3.303858e+00 -3.507368e+00 -1.880870e+00 4.028243e-01 4.501148e-01 -6.997437e-01 3.092113e-01 -3.874519e-01 -1.117499e+00 -4.460562e-01 -3.470313e-01 -2.372393e-01 -9.013041e-02 -1.668378e-02 2.648347e-01 2.133252e-01 1.102197e-02
<VARIANCE> 25
 3.547307e+01 2.781842e+01 5.111470e+01 3.225779e+01 3.762593e+01 3.550480e+01 2.747232e+01 3.008218e+01 2.700552e+01 2.861230e+01 2.133645e+01 2.959764e+01 2.404514e+00 1.827392e+00 1.382580e+00 1.700763e+00 2.590651e+00 2.146549e+00 1.580162e+00 1.609778e+00 1.502137e+00 1.560007e+00 1.287348e+00 1.272502e+00 1.510499e-03
<GCONST> 8.709619e+01
<MIXTURE> 100 4.498084e-03
<MEAN> 25
 -1.598878e+00 6.344827e+00 1.027700e+01 -7.462759e+00 -1.078206e+01 -5.075294e+00 -4.941668e+00 -9.968847e+00 -4.718240e+00 -8.551691e-01 -2.733300e+00 -2.708267e+00 2.917895e+00 -1.260455e+00 1.299659e+00 -2.185945e+00 -3.419489e+00 -7.841161e-01 -1.218778e+00 -8.197802e-01 -1.475479e+00 3.466953e-01 -1.655620e+00 -2.862392e-01 2.015521e-03
<VARIANCE> 25
 1.362666e+01 2.105913e+01 2.246177e+01 2.642710e+01 2.301848e+01 2.372172e+01 2.911146e+01 2.170685e+01 2.748231e+01 2.265230e+01 2.241141e+01 2.134114e+01 1.799129e+00 3.953767e+00 2.919965e+00 4.286306e+00 4.184435e+00 4.537227e+00 4.015484e+00 4.340374e+00 4.167888e+00 3.896067e+00 3.910382e+00 3.225015e+00 1.674840e-03
<GCONST> 9.256865e+01
<MIXTURE> 101 6.007792e-03
<MEAN> 25
 8.012712e+00 -3.593817e+00 -6.100661e+00 -6.540447e+00 6.497731e-01 -1.194547e+00 -1.044051e+01 -2.006114e+00 1.956516e+00 2.798304e+00 -2.230718e+00 -5.145143e+00 6.423728e-01 6.288522e-01 -1.511925e+00 -1.641473e+00 1.164659e+00 2.326756e+00 2.465766e-01 -1.484849e+00 -9.844278e-01 1.097396e+00 1.336819e+00 -4.595255e-01 -5.609147e-03
<VARIANCE> 25
 9.055511e+00 1.632731e+01 2.965541e+01 4.343798e+01 3.592445e+01 3.451350e+01 3.608422e+01 3.484795e+01 3.882830e+01 4.233907e+01 5.019619e+01 2.327625e+01 3.196295e-01 6.568552e-01 1.194706e+00 1.524207e+00 2.005610e+00 2.011142e+00 2.074628e+00 1.924683e+00 2.405431e+00 2.226694e+00 1.783116e+00 1.990520e+00 3.486043e-04
<GCONST> 8.363308e+01
<MIXTURE> 102 6.007792e-03
<MEAN> 25
 8.012712e+00 -3.593817e+00 -6.100661e+00 -6.540447e+00 6.497731e-01 -1.194547e+00 -1.044051e+01 -2.006114e+00 1.956516e+00 2.798304e+00 -2.230718e+00 -5.145143e+00 6.423728e-01 6.288522e-01 -1.511925e+00 -1.641473e+00 1.164659e+00 2.326756e+00 2.465766e-01 -1.484849e+00 -9.844278e-01 1.097396e+00 1.336819e+00 -4.595255e-01 -5.609147e-03
<VARIANCE> 25
 9.055511e+00 1.632731e+01 2.965541e+01 4.343798e+01 3.592445e+01 3.451350e+01 3.608422e+01 3.484795e+01 3.882830e+01 4.233907e+01 5.019619e+01 2.327625e+01 3.196295e-01 6.568552e-01 1.194706e+00 1.524207e+00 2.005610e+00 2.011142e+00 2.074628e+00 1.924683e+00 2.405431e+00 2.226694e+00 1.783116e+00 1.990520e+00 3.486043e-04
<GCONST> 8.363308e+01
<MIXTURE> 103 5.694618e-03
<MEAN> 25
 3.367025e+00 -9.479543e+00 -6.132475e+00 -3.088497e+00 -1.331375e+00 -1.970861e+00 2.440093e+00 2.516332e+00 -4.611584e+00 -9.255898e+00 -5.061958e+00 3.614291e-01 -1.579453e-01 -1.488309e+00 -9.810177e-01 3.754108e-01 1.214100e+00 1.020541e+00 1.589717e-01 -2.673745e-01 -7.810473e-01 -9.463130e-01 -3.524444e-02 1.203863e-01 2.693638e-02
<VARIANCE> 25
 1.033918e+01 2.032735e+01 2.291576e+01 3.170744e+01 4.805994e+01 3.501303e+01 4.641635e+01 3.670235e+01 4.212679e+01 2.934915e+01 3.006500e+01 2.641135e+01 6.439383e-01 1.252732e+00 1.537634e+00 1.940305e+00 2.927105e+00 2.410574e+00 2.890578e+00 2.577406e+00 2.563138e+00 2.524108e+00 2.097533e+00 2.016415e+00 8.078194e-04
<GCONST> 8.757739e+01
<MIXTURE> 104 5.694618e-03
<MEAN> 25
 3.367025e+00 -9.479543e+00 -6.132475e+00 -3.088497e+00 -1.331375e+00 -1.970861e+00 2.440093e+00 2.516332e+00 -4.611584e+00 -9.255898e+00 -5.061958e+00 3.614291e-01 -1.579453e-01 -1.488309e+00 -9.810177e-01 3.754108e-01 1.214100e+00 1.020541e+00 1.589717e-01 -2.673745e-01 -7.810473e-01 -9.463130e-01 -3.524444e-02 1.203863e-01 2.693638e-02
<VARIANCE> 25
 1.033918e+01 2.032735e+01 2.291576e+01 3.170744e+01 4.805994e+01 3.501303e+01 4.641635e+01 3.670235e+01 4.212679e+01 2.934915e+01 3.006500e+01 2.641135e+01 6.439383e-01 1.252732e+00 1.537634e+00 1.940305e+00 2.927105e+00 2.410574e+00 2.890578e+00 2.577406e+00 2.563138e+00 2.524108e+00 2.097533e+00 2.016415e+00 8.078194e-04
<GCONST> 8.757739e+01
<MIXTURE> 105 4.710235e-03
<MEAN> 25
 1.286903e+00 -3.814917e+00 1.042041e+01 -1.303008e+00 -1.186184e+01 -4.615488e+00 -3.887965e+00 4.704231e-01 -4.177793e+00 -1.939413e+00 3.044183e+00 -1.480305e+00 -6.713943e-03 6.354038e-02 1.165545e-01 -1.571467e-02 -1.317502e-01 -6.618656e-04 -7.391614e-02 1.593054e-01 -1.491281e-01 1.361387e-01 1.564016e-01 -1.207689e-01 -2.948517e-03
<VARIANCE> 25
 1.383327e+01 4.133798e+01 3.799833e+01 4.311430e+01 3.117618e+01 4.423724e+01 3.380447e+01 4.031531e+01 3.268153e+01 3.925530e+01 4.183036e+01 2.542814e+01 9.571111e-02 1.951333e-01 3.061050e-01 2.688269e-01 3.775148e-01 4.857407e-01 3.969643e-01 4.713479e-01 5.089486e-01 3.986076e-01 4.859690e-01 4.205385e-01 8.518263e-05
<GCONST> 6.586607e+01
<MIXTURE> 106 4.710235e-03
<MEAN> 25
 1.286903e+00 -3.814917e+00 1.042041e+01 -1.303008e+00 -1.186184e+01 -4.615488e+00 -3.887965e+00 4.704231e-01 -4.177793e+00 -1.939413e+00 3.044183e+00 -1.480305e+00 -6.713943e-03 6.354038e-02 1.165545e-01 -1.571467e-02 -1.317502e-01 -6.618656e-04 -7.391614e-02 1.593054e-01 -1.491281e-01 1.361387e-01 1.564016e-01 -1.207689e-01 -2.948517e-03
<VARIANCE> 25
 1.383327e+01 4.133798e+01 3.799833e+01 4.311430e+01 3.117618e+01 4.423724e+01 3.380447e+01 4.031531e+01 3.268153e+01 3.925530e+01 4.183036e+01 2.542814e+01 9.571111e-02 1.951333e-01 3.061050e-01 2.688269e-01 3.775148e-01 4.857407e-01 3.969643e-01 4.713479e-01 5.089486e-01 3.986076e-01 4.859690e-01 4.205385e-01 8.518263e-05
<GCONST> 6.586607e+01
<MIXTURE> 107 5.452374e-03
<MEAN> 25
 8.402987e+00 -2.336126e+00 -7.816741e+00 -9.170677e+00 1.795357e+00 2.821119e+00 -8.992204e+00 -4.603509e+00 -8.438870e-01 3.251727e+00 1.222773e+00 -5.159737e+00 -6.310845e-01 -7.027442e-01 8.487767e-01 1.720479e+00 2.290955e-01 -2.041027e+00 -8.706422e-01 7.597094e-01 1.733153e+00 2.665963e-02 -1.714838e+00 -7.263573e-01 -9.965173e-04
<VARIANCE> 25
 1.040154e+01 1.981612e+01 2.862218e+01 4.532497e+01 3.524056e+01 3.764590e+01 5.271895e+01 3.515992e+01 4.422324e+01 4.077872e+01 5.313929e+01 2.952312e+01 3.566937e-01 1.048042e+00 1.415299e+00 2.420672e+00 2.216307e+00 2.750719e+00 2.597451e+00 2.661139e+00 2.247251e+00 2.937373e+00 1.974220e+00 2.368509e+00 7.010145e-04
<GCONST> 8.816932e+01
<MIXTURE> 108 5.452374e-03
<MEAN> 25
 8.402987e+00 -2.336126e+00 -7.816741e+00 -9.170677e+00 1.795357e+00 2.821119e+00 -8.992204e+00 -4.603509e+00 -8.438870e-01 3.251727e+00 1.222773e+00 -5.159737e+00 -6.310845e-01 -7.027442e-01 8.487767e-01 1.720479e+00 2.290955e-01 -2.041027e+00 -8.706422e-01 7.597094e-01 1.733153e+00 2.665963e-02 -1.714838e+00 -7.263573e-01 -9.965173e-04
<VARIANCE> 25
 1.040154e+01 1.981612e+01 2.862218e+01 4.532497e+01 3.524056e+01 3.764590e+01 5.271895e+01 3.515992e+01 4.422324e+01 4.077872e+01 5.313929e+01 2.952312e+01 3.566937e-01 1.048042e+00 1.415299e+00 2.420672e+00 2.216307e+00 2.750719e+00 2.597451e+00 2.661139e+00 2.247251e+00 2.937373e+00 1.974220e+00 2.368509e+00 7.010145e-04
<GCONST> 8.816932e+01
<MIXTURE> 109 6.661064e-03
<MEAN> 25
 4.066447e+00 -1.050638e+01 -8.289780e+00 -1.278874e+00 2.817916e+00 -5.427786e-02 -4.220155e-02 1.426589e+00 -2.565921e+00 -8.312564e+00 -5.379409e+00 5.648750e-02 -3.336401e-02 -1.291728e-01 -3.435704e-02 2.442250e-01 1.936472e-01 1.207124e-01 -1.282429e-01 -1.020776e-01 -3.877732e-02 -1.318153e-01 2.139227e-01 5.522040e-03 -3.523715e-03
<VARIANCE> 25
 9.080860e+00 1.850485e+01 1.995215e+01 3.246054e+01 4.137034e+01 3.664153e+01 4.658526e+01 3.439985e+01 4.590222e+01 3.581567e+01 2.944783e+01 2.807650e+01 1.928823e-01 4.233629e-01 5.367146e-01 6.424176e-01 1.233344e+00 9.914903e-01 1.254665e+00 1.091032e+00 1.113304e+00 9.519857e-01 8.794681e-01 8.938667e-01 1.815707e-04
<GCONST> 7.451883e+01
<MIXTURE> 110 6.661064e-03
<MEAN> 25
 4.066447e+00 -1.050638e+01 -8.289780e+00 -1.278874e+00 2.817916e+00 -5.427786e-02 -4.220155e-02 1.426589e+00 -2.565921e+00 -8.312564e+00 -5.379409e+00 5.648750e-02 -3.336401e-02 -1.291728e-01 -3.435704e-02 2.442250e-01 1.936472e-01 1.207124e-01 -1.282429e-01 -1.020776e-01 -3.877732e-02 -1.318153e-01 2.139227e-01 5.522040e-03 -3.523715e-03
<VARIANCE> 25
 9.080860e+00 1.850485e+01 1.995215e+01 3.246054e+01 4.137034e+01 3.664153e+01 4.658526e+01 3.439985e+01 4.590222e+01 3.581567e+01 2.944783e+01 2.807650e+01 1.928823e-01 4.233629e-01 5.367146e-01 6.424176e-01 1.233344e+00 9.914903e-01 1.254665e+00 1.091032e+00 1.113304e+00 9.519857e-01 8.794681e-01 8.938667e-01 1.815707e-04
<GCONST> 7.451883e+01
<MIXTURE> 111 4.337247e-03
<MEAN> 25
 -4.473033e+00 -9.065262e-01 -1.721730e+00 1.689259e+00 9.658142e-01 9.642104e-01 3.162148e-01 2.098909e-01 8.952205e-02 -5.403891e-01 -6.301358e-01 1.964497e+00 -2.111052e-02 -3.245959e-02 -7.227144e-02 -7.336249e-02 -3.733636e-02 6.299356e-03 -1.156474e-03 -5.932828e-02 -1.404523e-01 -2.032145e-01 -1.902716e-01 -1.066169e-01 -2.168710e-04
<VARIANCE> 25
 7.003920e+00 4.976346e+00 1.021440e+01 9.413635e+00 1.311401e+01 2.383929e+01 1.468375e+01 1.317131e+01 1.160085e+01 1.191638e+01 1.362711e+01 1.158732e+01 7.918137e-02 1.635504e-01 2.752820e-01 4.206969e-01 5.694000e-01 7.053321e-01 8.005401e-01 8.582857e-01 8.926683e-01 8.561922e-01 8.621066e-01 8.478945e-01 2.234049e-05
<GCONST> 5.598354e+01
<MIXTURE> 112 4.337247e-03
<MEAN> 25
 -4.473033e+00 -9.065262e-01 -1.721730e+00 1.689259e+00 9.658142e-01 9.642104e-01 3.162148e-01 2.098909e-01 8.952205e-02 -5.403891e-01 -6.301358e-01 1.964497e+00 -2.111052e-02 -3.245959e-02 -7.227144e-02 -7.336249e-02 -3.733636e-02 6.299356e-03 -1.156474e-03 -5.932828e-02 -1.404523e-01 -2.032145e-01 -1.902716e-01 -1.066169e-01 -2.168710e-04
<VARIANCE> 25
 7.003920e+00 4.976346e+00 1.021440e+01 9.413635e+00 1.311401e+01 2.383929e+01 1.468375e+01 1.317131e+01 1.160085e+01 1.191638e+01 1.362711e+01 1.158732e+01 7.918137e-02 1.635504e-01 2.752820e-01 4.206969e-01 5.694000e-01 7.053321e-01 8.005401e-01 8.582857e-01 8.926683e-01 8.561922e-01 8.621066e-01 8.478945e-01 2.234049e-05
<GCONST> 5.598354e+01
<MIXTURE> 113 5.938666e-03
<MEAN> 25
 9.158076e+00 2.895264e+00 -7.540387e+00 -1.807893e+01 -2.235268e+00 6.433610e+00 -6.523279e+00 -3.187555e-01 -4.072637e+00 -3.545969e+00 -1.823728e-01 1.028242e-01 -2.676999e-02 4.749693e-02 1.301455e-02 -1.132276e-01 -1.203432e-02 1.823542e-01 6.775934e-03 1.503652e-01 -2.358546e-02 -6.967527e-02 1.299767e-01 -1.072168e-01 -1.167679e-03
<VARIANCE> 25
 8.613372e+00 1.596232e+01 2.722096e+01 2.942425e+01 4.711935e+01 2.914633e+01 3.535016e+01 3.526718e+01 3.583593e+01 5.984975e+01 2.973031e+01 2.345681e+01 1.105649e-01 2.755603e-01 2.845212e-01 5.682964e-01 7.171365e-01 6.485752e-01 6.945594e-01 8.902476e-01 8.340604e-01 8.343866e-01 6.721222e-01 7.081807e-01 1.015586e-04
<GCONST> 6.926853e+01
<MIXTURE> 114 5.938666e-03
<MEAN> 25
 9.158076e+00 2.895264e+00 -7.540387e+00 -1.807893e+01 -2.235268e+00 6.433610e+00 -6.523279e+00 -3.187555e-01 -4.072637e+00 -3.545969e+00 -1.823728e-01 1.028242e-01 -2.676999e-02 4.749693e-02 1.301455e-02 -1.132276e-01 -1.203432e-02 1.823542e-01 6.775934e-03 1.503652e-01 -2.358546e-02 -6.967527e-02 1.299767e-01 -1.072168e-01 -1.167679e-03
<VARIANCE> 25
 8.613372e+00 1.596232e+01 2.722096e+01 2.942425e+01 4.711935e+01 2.914633e+01 3.535016e+01 3.526718e+01 3.583593e+01 5.984975e+01 2.973031e+01 2.345681e+01 1.105649e-01 2.755603e-01 2.845212e-01 5.682964e-01 7.171365e-01 6.485752e-01 6.945594e-01 8.902476e-01 8.340604e-01 8.343866e-01 6.721222e-01 7.081807e-01 1.015586e-04
<GCONST> 6.926853e+01
<MIXTURE> 115 2.935202e-03
<MEAN> 25
 -4.014340e+00 -7.577120e-01 -3.115590e+00 3.691733e+00 2.454514e+00 -4.349586e-01 2.239215e+00 3.948738e-01 1.370433e+00 -1.055857e-02 2.871816e-02 2.673060e+00 3.200749e-02 -6.980494e-02 -2.305761e-01 -4.419788e-01 -6.354804e-01 -6.671609e-01 -5.936626e-01 -5.056366e-01 -4.847354e-01 -4.558997e-01 -3.449791e-01 -1.702870e-01 3.759014e-06
<VARIANCE> 25
 9.335542e+00 9.863481e+00 1.350844e+01 1.306203e+01 1.399701e+01 1.752584e+01 1.704004e+01 2.084932e+01 1.798240e+01 1.718969e+01 1.918221e+01 1.469168e+01 2.031956e-01 3.463668e-01 4.840677e-01 5.635047e-01 6.336048e-01 7.991798e-01 1.005882e+00 1.132690e+00 1.073286e+00 9.915692e-01 1.023015e+00 1.071107e+00 1.013863e-06
<GCONST> 6.024197e+01
<MIXTURE> 116 2.935202e-03
<MEAN> 25
 -4.014340e+00 -7.577120e-01 -3.115590e+00 3.691733e+00 2.454514e+00 -4.349586e-01 2.239215e+00 3.948738e-01 1.370433e+00 -1.055857e-02 2.871816e-02 2.673060e+00 3.200749e-02 -6.980494e-02 -2.305761e-01 -4.419788e-01 -6.354804e-01 -6.671609e-01 -5.936626e-01 -5.056366e-01 -4.847354e-01 -4.558997e-01 -3.449791e-01 -1.702870e-01 3.759014e-06
<VARIANCE> 25
 9.335542e+00 9.863481e+00 1.350844e+01 1.306203e+01 1.399701e+01 1.752584e+01 1.704004e+01 2.084932e+01 1.798240e+01 1.718969e+01 1.918221e+01 1.469168e+01 2.031956e-01 3.463668e-01 4.840677e-01 5.635047e-01 6.336048e-01 7.991798e-01 1.005882e+00 1.132690e+00 1.073286e+00 9.915692e-01 1.023015e+00 1.071107e+00 1.013863e-06
<GCONST> 6.024197e+01
<MIXTURE> 117 6.506003e-03
<MEAN> 25
 -4.644358e+00 1.117502e+00 1.054283e+00 9.758613e+00 6.260531e+00 6.256180e+00 6.463187e+00 5.044000e+00 6.385342e+00 4.929060e+00 6.366539e+00 2.709459e+00 -7.502025e-02 -2.341121e-01 -3.582754e-01 -4.198775e-01 -3.675331e-01 -3.027233e-01 -2.872682e-01 -3.313145e-01 -3.917131e-01 -3.690040e-01 -2.631294e-01 -1.160762e-01 -8.872754e-06
<VARIANCE> 25
 7.187775e+00 8.753856e+00 9.809712e+00 1.430788e+01 1.561962e+01 1.535009e+01 1.772580e+01 1.796389e+01 1.640389e+01 1.637066e+01 1.674662e+01 1.475589e+01 2.165962e-01 3.074983e-01 4.262033e-01 6.172903e-01 8.536264e-01 1.055307e+00 1.177594e+00 1.233180e+00 1.223979e+00 1.194800e+00 1.167145e+00 1.113761e+00 1.000442e-06
<GCONST> 6.043058e+01
<MIXTURE> 118 6.506003e-03
<MEAN> 25
 -4.644358e+00 1.117502e+00 1.054283e+00 9.758613e+00 6.260531e+00 6.256180e+00 6.463187e+00 5.044000e+00 6.385342e+00 4.929060e+00 6.366539e+00 2.709459e+00 -7.502025e-02 -2.341121e-01 -3.582754e-01 -4.198775e-01 -3.675331e-01 -3.027233e-01 -2.872682e-01 -3.313145e-01 -3.917131e-01 -3.690040e-01 -2.631294e-01 -1.160762e-01 -8.872754e-06
<VARIANCE> 25
 7.187775e+00 8.753856e+00 9.809712e+00 1.430788e+01 1.561962e+01 1.535009e+01 1.772580e+01 1.796389e+01 1.640389e+01 1.637066e+01 1.674662e+01 1.475589e+01 2.165962e-01 3.074983e-01 4.262033e-01 6.172903e-01 8.536264e-01 1.055307e+00 1.177594e+00 1.233180e+00 1.223979e+00 1.194800e+00 1.167145e+00 1.113761e+00 1.000442e-06
<GCONST> 6.043058e+01
<MIXTURE> 119 4.297961e-03
<MEAN> 25
 -4.896832e+00 -7.620667e+00 2.334119e+00 2.095337e+00 2.129625e+00 2.186630e-01 5.418408e+00 5.784551e+00 1.163640e+00 1.108483e+00 6.538463e+00 1.450078e+00 -4.974956e-02 -6.282341e-02 1.516491e-02 -3.263870e-02 -9.405822e-02 -1.773206e-01 -5.569054e-02 -1.885433e-02 -9.351506e-02 -1.250483e-01 -8.129479e-02 -8.833624e-02 4.370449e-04
<VARIANCE> 25
 8.569674e+00 9.704056e+00 1.679685e+01 2.010342e+01 2.318979e+01 2.277035e+01 2.558119e+01 2.704119e+01 2.455008e+01 2.859478e+01 2.071998e+01 2.079935e+01 1.584523e-01 2.936995e-01 4.729621e-01 6.473020e-01 8.350445e-01 9.984057e-01 1.091401e+00 1.289115e+00 1.278282e+00 1.236215e+00 1.213275e+00 1.138829e+00 2.471886e-04
<GCONST> 7.000203e+01
<MIXTURE> 120 4.297961e-03
<MEAN> 25
 -4.896832e+00 -7.620667e+00 2.334119e+00 2.095337e+00 2.129625e+00 2.186630e-01 5.418408e+00 5.784551e+00 1.163640e+00 1.108483e+00 6.538463e+00 1.450078e+00 -4.974956e-02 -6.282341e-02 1.516491e-02 -3.263870e-02 -9.405822e-02 -1.773206e-01 -5.569054e-02 -1.885433e-02 -9.351506e-02 -1.250483e-01 -8.129479e-02 -8.833624e-02 4.370449e-04
<VARIANCE> 25
 8.569674e+00 9.704056e+00 1.679685e+01 2.010342e+01 2.318979e+01 2.277035e+01 2.558119e+01 2.704119e+01 2.455008e+01 2.859478e+01 2.071998e+01 2.079935e+01 1.584523e-01 2.936995e-01 4.729621e-01 6.473020e-01 8.350445e-01 9.984057e-01 1.091401e+00 1.289115e+00 1.278282e+00 1.236215e+00 1.213275e+00 1.138829e+00 2.471886e-04
<GCONST> 7.000203e+01
<MIXTURE> 121 4.567511e-03
<MEAN> 25
 2.076632e-01 -2.524115e+00 5.152401e+00 -1.289917e+01 -1.264414e+01 -1.664039e+00 1.001577e+00 -5.106815e+00 -4.197488e+00 -4.899269e-01 -5.507459e+00 -4.313501e+00 2.409748e-02 1.324162e-01 -4.176094e-02 7.992046e-02 1.587872e-01 7.846455e-02 -7.925020e-02 -1.837925e-01 -2.688053e-01 -2.577529e-01 -1.150201e-01 7.634088e-04 -7.440332e-03
<VARIANCE> 25
 7.733572e+00 1.560872e+01 1.728328e+01 2.044146e+01 2.442901e+01 2.924854e+01 2.957270e+01 2.457349e+01 3.528728e+01 2.833814e+01 1.974233e+01 2.118116e+01 1.549930e-01 6.433483e-01 6.233302e-01 7.049871e-01 7.705808e-01 1.149869e+00 1.117939e+00 1.121536e+00 1.217383e+00 1.192400e+00 9.423136e-01 8.717132e-01 2.108802e-04
<GCONST> 7.140062e+01
<MIXTURE> 122 4.567511e-03
<MEAN> 25
 2.076632e-01 -2.524115e+00 5.152401e+00 -1.289917e+01 -1.264414e+01 -1.664039e+00 1.001577e+00 -5.106815e+00 -4.197488e+00 -4.899269e-01 -5.507459e+00 -4.313501e+00 2.409748e-02 1.324162e-01 -4.176094e-02 7.992046e-02 1.587872e-01 7.846455e-02 -7.925020e-02 -1.837925e-01 -2.688053e-01 -2.577529e-01 -1.150201e-01 7.634088e-04 -7.440332e-03
<VARIANCE> 25
 7.733572e+00 1.560872e+01 1.728328e+01 2.044146e+01 2.442901e+01 2.924854e+01 2.957270e+01 2.457349e+01 3.528728e+01 2.833814e+01 1.974233e+01 2.118116e+01 1.549930e-01 6.433483e-01 6.233302e-01 7.049871e-01 7.705808e-01 1.149869e+00 1.117939e+00 1.121536e+00 1.217383e+00 1.192400e+00 9.423136e-01 8.717132e-01 2.108802e-04
<GCONST> 7.140062e+01
<MIXTURE> 123 4.393044e-03
<MEAN> 25
 -3.054309e+00 5.624180e-01 -7.334819e-01 6.732912e+00 5.989552e+00 3.112893e+00 4.607321e+00 -3.278130e-01 9.191756e-01 4.134596e-01 -8.143463e-01 -3.850706e-01 -3.832159e-01 -6.019502e-01 -9.782883e-01 -6.822487e-01 -8.430317e-02 9.000712e-02 2.838791e-01 6.791295e-01 7.707061e-01 9.738145e-01 6.502874e-01 7.264392e-01 -2.771186e-03
<VARIANCE> 25
 1.225198e+01 9.347881e+00 1.509178e+01 1.585102e+01 1.967570e+01 2.305559e+01 2.249300e+01 1.894329e+01 1.972174e+01 2.025333e+01 1.990111e+01 2.259473e+01 3.319605e-01 4.066487e-01 4.741789e-01 6.898214e-01 1.083864e+00 9.396465e-01 1.004921e+00 1.080791e+00 1.011218e+00 1.259968e+00 1.022113e+00 1.240140e+00 1.208031e-04
<GCONST> 6.887447e+01
<MIXTURE> 124 4.069876e-03
<MEAN> 25
 -6.269435e+00 -1.242823e+00 -2.916953e+00 5.296051e+00 5.094967e+00 3.378990e+00 5.584299e+00 2.236396e+00 3.274506e+00 1.557384e+00 9.393196e-01 2.779406e+00 -2.030000e-01 -3.103149e-01 -3.884403e-01 -2.250871e-01 1.816966e-01 5.175026e-01 7.986863e-01 8.562889e-01 6.772608e-01 3.653475e-01 6.506417e-02 4.197994e-02 -1.782820e-04
<VARIANCE> 25
 1.246450e+01 6.726433e+00 1.069126e+01 1.271241e+01 1.212481e+01 1.901574e+01 1.571434e+01 1.890478e+01 1.500190e+01 1.719026e+01 1.920236e+01 1.546205e+01 1.010759e-01 1.649143e-01 2.936864e-01 4.196309e-01 6.547413e-01 6.867365e-01 7.220428e-01 7.906718e-01 8.929285e-01 1.018324e+00 9.730389e-01 1.103084e+00 1.896212e-05
<GCONST> 5.922324e+01
<MIXTURE> 125 4.069876e-03
<MEAN> 25
 -6.269435e+00 -1.242823e+00 -2.916953e+00 5.296051e+00 5.094967e+00 3.378990e+00 5.584299e+00 2.236396e+00 3.274506e+00 1.557384e+00 9.393196e-01 2.779406e+00 -2.030000e-01 -3.103149e-01 -3.884403e-01 -2.250871e-01 1.816966e-01 5.175026e-01 7.986863e-01 8.562889e-01 6.772608e-01 3.653475e-01 6.506417e-02 4.197994e-02 -1.782820e-04
<VARIANCE> 25
 1.246450e+01 6.726433e+00 1.069126e+01 1.271241e+01 1.212481e+01 1.901574e+01 1.571434e+01 1.890478e+01 1.500190e+01 1.719026e+01 1.920236e+01 1.546205e+01 1.010759e-01 1.649143e-01 2.936864e-01 4.196309e-01 6.547413e-01 6.867365e-01 7.220428e-01 7.906718e-01 8.929285e-01 1.018324e+00 9.730389e-01 1.103084e+00 1.896212e-05
<GCONST> 5.922324e+01
<MIXTURE> 126 2.402244e-03
<MEAN> 25
 -3.748429e+00 -6.903441e+00 -5.287364e+00 2.408106e+00 4.354572e+00 -3.235794e+00 1.128707e-01 3.491958e+00 3.318286e+00 -2.640321e+00 -1.437243e+00 3.037905e+00 -4.362748e-03 -3.263149e-03 -3.863009e-02 -1.621328e-01 -3.172802e-01 -3.823627e-01 -2.744885e-01 -1.532160e-01 -1.096438e-01 -1.211421e-01 -1.068577e-01 -3.927065e-02 -1.533004e-03
<VARIANCE> 25
 7.571922e+00 1.265879e+01 1.373682e+01 1.598682e+01 2.531103e+01 2.354196e+01 2.286769e+01 2.867195e+01 3.122553e+01 2.642056e+01 2.161691e+01 1.913709e+01 1.712407e-01 3.509338e-01 4.826517e-01 5.718486e-01 7.567641e-01 9.962294e-01 1.116179e+00 1.257024e+00 1.321065e+00 1.306963e+00 1.215499e+00 1.151733e+00 2.101487e-04
<GCONST> 6.988957e+01
<MIXTURE> 127 2.402244e-03
<MEAN> 25
 -3.748429e+00 -6.903441e+00 -5.287364e+00 2.408106e+00 4.354572e+00 -3.235794e+00 1.128707e-01 3.491958e+00 3.318286e+00 -2.640321e+00 -1.437243e+00 3.037905e+00 -4.362748e-03 -3.263149e-03 -3.863009e-02 -1.621328e-01 -3.172802e-01 -3.823627e-01 -2.744885e-01 -1.532160e-01 -1.096438e-01 -1.211421e-01 -1.068577e-01 -3.927065e-02 -1.533004e-03
<VARIANCE> 25
 7.571922e+00 1.265879e+01 1.373682e+01 1.598682e+01 2.531103e+01 2.354196e+01 2.286769e+01 2.867195e+01 3.122553e+01 2.642056e+01 2.161691e+01 1.913709e+01 1.712407e-01 3.509338e-01 4.826517e-01 5.718486e-01 7.567641e-01 9.962294e-01 1.116179e+00 1.257024e+00 1.321065e+00 1.306963e+00 1.215499e+00 1.151733e+00 2.101487e-04
<GCONST> 6.988957e+01
<MIXTURE> 128 3.790457e-03
<MEAN> 25
 -3.932099e+00 1.541906e+00 -3.440033e-01 6.578353e+00 3.630047e+00 1.850725e+00 3.581877e+00 2.366661e+00 3.960467e+00 3.699903e+00 3.759385e+00 3.521823e+00 -3.968641e-01 -1.963920e-01 9.854671e-02 7.274948e-01 1.184124e+00 1.133621e+00 7.190618e-01 1.329010e-01 -4.375271e-01 -7.882488e-01 -7.026641e-01 -3.934751e-01 -3.306100e-05
<VARIANCE> 25
 1.021359e+01 1.172460e+01 1.499207e+01 1.931617e+01 2.009544e+01 2.127818e+01 2.429738e+01 2.466285e+01 2.639313e+01 2.384449e+01 2.688430e+01 1.823783e+01 8.945454e-01 1.145945e+00 1.365266e+00 1.502597e+00 1.581528e+00 1.864103e+00 2.249347e+00 2.325653e+00 2.147613e+00 1.855248e+00 1.742307e+00 1.750091e+00 1.007635e-06
<GCONST> 7.366283e+01
<TRANSP> 3
 0.000000e+00 1.000000e+00 0.000000e+00
 0.000000e+00 9.999990e-01 9.999998e-07
 0.000000e+00 0.000000e+00 0.000000e+00
<ENDHMM>
