~o
<STREAMINFO> 1 25
<VECSIZE> 25<NULLD><MFCC_E_D_N><DIAGC>
~h "jmodel"
<BEGINHMM>
<NUMSTATES> 3
<STATE> 2
<NUMMIXES> 128
<MIXTURE> 1 5.748963e-03
<MEAN> 25
 -2.580729e+00 3.177131e+00 2.304832e+00 8.744084e+00 4.373955e+00 3.446989e+00 4.067681e+00 3.934996e+00 5.825829e+00 5.243778e+00 5.880524e+00 3.073925e+00 -2.002131e+00 -1.634199e+00 -8.672382e-01 1.075536e+00 1.560637e+00 2.231416e+00 2.155378e+00 2.081951e+00 1.693363e+00 1.269227e+00 1.563607e+00 6.121953e-01 -4.690864e-02
<VARIANCE> 25
 1.005907e+01 1.175785e+01 1.498912e+01 1.874076e+01 2.315917e+01 2.212304e+01 2.188263e+01 2.194962e+01 2.099734e+01 2.256598e+01 2.092948e+01 1.708912e+01 1.790871e+00 2.108913e+00 3.029311e+00 3.205452e+00 3.734579e+00 3.352754e+00 3.314117e+00 3.382744e+00 3.516711e+00 3.722273e+00 3.518998e+00 2.830980e+00 3.117170e-03
<GCONST> 8.845805e+01
<MIXTURE> 2 4.549242e-03
<MEAN> 25
 -4.875554e+00 1.311744e+00 9.941468e-01 9.899767e+00 6.692319e+00 7.424566e+00 7.847209e+00 6.958059e+00 8.373151e+00 6.372995e+00 7.624293e+00 3.074587e+00 -6.200354e-02 4.161598e-02 1.425234e-01 2.258591e-01 2.652804e-01 2.813472e-01 2.954197e-01 3.195409e-01 3.497622e-01 3.089345e-01 1.971846e-01 8.005945e-02 1.267903e-06
<VARIANCE> 25
 6.953010e+00 8.901779e+00 1.065362e+01 1.591080e+01 1.723565e+01 1.556326e+01 1.689961e+01 1.848537e+01 1.658731e+01 1.738598e+01 1.811076e+01 1.434052e+01 1.252483e-01 2.266247e-01 3.364695e-01 4.671197e-01 6.492745e-01 8.148938e-01 9.298701e-01 1.003174e+00 1.051649e+00 1.077778e+00 1.075656e+00 1.013921e+00 1.000107e-06
<GCONST> 5.804345e+01
<MIXTURE> 3 4.549242e-03
<MEAN> 25
 -4.875554e+00 1.311744e+00 9.941468e-01 9.899767e+00 6.692319e+00 7.424566e+00 7.847209e+00 6.958059e+00 8.373151e+00 6.372995e+00 7.624293e+00 3.074587e+00 -6.200354e-02 4.161598e-02 1.425234e-01 2.258591e-01 2.652804e-01 2.813472e-01 2.954197e-01 3.195409e-01 3.497622e-01 3.089345e-01 1.971846e-01 8.005945e-02 1.267903e-06
<VARIANCE> 25
 6.953010e+00 8.901779e+00 1.065362e+01 1.591080e+01 1.723565e+01 1.556326e+01 1.689961e+01 1.848537e+01 1.658731e+01 1.738598e+01 1.811076e+01 1.434052e+01 1.252483e-01 2.266247e-01 3.364695e-01 4.671197e-01 6.492745e-01 8.148938e-01 9.298701e-01 1.003174e+00 1.051649e+00 1.077778e+00 1.075656e+00 1.013921e+00 1.000107e-06
<GCONST> 5.804345e+01
<MIXTURE> 4 1.671429e-02
<MEAN> 25
 3.155641e+00 2.222854e+00 -4.282551e+00 4.543834e-01 4.579856e+00 1.452000e+00 -9.823786e-02 -1.013001e+00 1.994222e+00 1.859674e+00 -1.270690e+00 -2.538852e-01 -3.113353e+00 1.247086e+00 1.264393e+00 3.185957e+00 1.197001e+00 1.895147e-01 1.776227e+00 1.148290e+00 1.150985e+00 -1.810909e-02 8.894281e-01 6.106805e-01 -8.961508e-02
<VARIANCE> 25
 2.090607e+01 2.774079e+01 2.807369e+01 3.738703e+01 4.094260e+01 8.181605e+01 6.208847e+01 5.379144e+01 5.062548e+01 5.888366e+01 4.778256e+01 3.237251e+01 3.025326e+00 4.538951e+00 4.812541e+00 4.645951e+00 5.022886e+00 6.043839e+00 6.467571e+00 5.035273e+00 5.377697e+00 7.190808e+00 6.150469e+00 4.387196e+00 6.569672e-03
<GCONST> 1.053886e+02
<MIXTURE> 5 3.206198e-03
<MEAN> 25
 -3.411669e+00 2.180218e+00 5.935987e-01 9.422404e+00 6.700422e+00 6.316890e+00 7.120362e+00 4.720067e+00 5.489494e+00 3.847900e+00 4.653543e+00 2.600522e+00 -3.239784e-01 7.526597e-01 1.223227e+00 1.031796e+00 3.074266e-01 -1.007514e-01 -8.386326e-02 3.370043e-02 4.553648e-01 6.821507e-01 4.037606e-01 8.851026e-02 -2.643602e-05
<VARIANCE> 25
 1.026311e+01 1.392771e+01 2.369456e+01 2.562328e+01 2.020641e+01 1.940848e+01 2.014131e+01 2.034776e+01 2.142976e+01 2.125908e+01 2.409260e+01 1.637214e+01 1.209076e+00 1.243090e+00 1.357674e+00 1.672132e+00 2.282254e+00 2.374095e+00 2.298912e+00 2.272744e+00 2.320478e+00 2.238795e+00 2.083525e+00 1.872092e+00 1.001907e-06
<GCONST> 7.517037e+01
<MIXTURE> 6 5.475854e-03
<MEAN> 25
 9.371740e+00 -1.051692e+00 -7.072960e+00 -1.036698e+01 -3.423203e+00 6.681900e+00 -5.515513e+00 -5.005681e+00 -3.778335e+00 2.295108e+00 4.252652e+00 -8.434106e-01 4.404480e-01 8.850740e-01 -3.358597e-01 -1.646651e+00 -6.768752e-01 1.459358e+00 1.468495e+00 6.978960e-02 -1.089734e+00 -1.198026e+00 1.652326e-01 1.235063e+00 -5.655483e-03
<VARIANCE> 25
 8.134945e+00 1.705633e+01 2.302946e+01 3.671497e+01 4.000072e+01 2.761279e+01 3.879350e+01 3.280342e+01 3.620402e+01 3.522359e+01 3.710611e+01 2.569069e+01 2.839502e-01 7.436002e-01 9.220922e-01 1.872506e+00 1.424612e+00 1.885525e+00 1.807693e+00 1.990265e+00 2.222266e+00 1.797070e+00 2.094532e+00 1.246344e+00 5.424593e-04
<GCONST> 8.187056e+01
<MIXTURE> 7 5.475854e-03
<MEAN> 25
 9.371740e+00 -1.051692e+00 -7.072960e+00 -1.036698e+01 -3.423203e+00 6.681900e+00 -5.515513e+00 -5.005681e+00 -3.778335e+00 2.295108e+00 4.252652e+00 -8.434106e-01 4.404480e-01 8.850740e-01 -3.358597e-01 -1.646651e+00 -6.768752e-01 1.459358e+00 1.468495e+00 6.978960e-02 -1.089734e+00 -1.198026e+00 1.652326e-01 1.235063e+00 -5.655483e-03
<VARIANCE> 25
 8.134945e+00 1.705633e+01 2.302946e+01 3.671497e+01 4.000072e+01 2.761279e+01 3.879350e+01 3.280342e+01 3.620402e+01 3.522359e+01 3.710611e+01 2.569069e+01 2.839502e-01 7.436002e-01 9.220922e-01 1.872506e+00 1.424612e+00 1.885525e+00 1.807693e+00 1.990265e+00 2.222266e+00 1.797070e+00 2.094532e+00 1.246344e+00 5.424593e-04
<GCONST> 8.187056e+01
<MIXTURE> 8 1.165917e-02
<MEAN> 25
 -4.726967e+00 1.363321e+00 1.290330e+00 9.561287e+00 6.579892e+00 6.253109e+00 6.480014e+00 5.685326e+00 6.654493e+00 5.629851e+00 6.568354e+00 3.148659e+00 -6.290788e-01 -1.425545e+00 -1.067975e+00 -1.730406e+00 -2.316889e-01 -9.465510e-01 -1.799884e-01 -2.895133e-01 -2.531036e-01 -1.743822e-01 -2.129735e-01 8.152085e-02 9.888647e-02
<VARIANCE> 25
 9.353345e+00 9.842834e+00 1.161553e+01 1.605520e+01 1.666262e+01 1.570419e+01 1.811931e+01 1.752154e+01 1.707159e+01 1.737723e+01 1.891194e+01 1.402184e+01 2.756569e+00 2.813887e+00 3.927668e+00 3.760853e+00 3.454858e+00 3.316495e+00 3.138144e+00 3.079030e+00 2.870530e+00 2.654731e+00 2.433934e+00 1.901011e+00 6.678976e-03
<GCONST> 8.630041e+01
<MIXTURE> 9 1.199672e-02
<MEAN> 25
 8.905043e+00 2.886253e+00 -5.381262e+00 -1.011092e+01 -2.201483e+00 5.143578e+00 -2.129217e+00 -2.389415e+00 -5.211805e+00 -5.242571e-01 5.133467e-01 2.587071e-01 1.356531e+00 -2.278479e-01 -2.858610e-01 -2.845365e+00 -1.926089e+00 1.336755e+00 -8.986383e-01 -2.118468e-01 2.743814e-02 -3.024881e-01 6.279003e-01 3.441938e-02 6.940845e-02
<VARIANCE> 25
 1.156345e+01 2.014205e+01 3.297979e+01 4.969747e+01 4.457982e+01 3.049791e+01 3.763908e+01 4.526125e+01 3.816244e+01 3.964754e+01 3.135789e+01 2.429417e+01 1.866496e+00 2.246643e+00 4.293626e+00 4.446975e+00 4.913153e+00 4.970538e+00 3.736565e+00 5.260350e+00 4.725782e+00 4.029497e+00 3.590337e+00 2.644503e+00 2.018992e-03
<GCONST> 9.696137e+01
<MIXTURE> 10 6.596976e-03
<MEAN> 25
 8.196894e-01 7.630032e+00 5.373771e+00 7.140100e+00 1.595526e+00 -2.114438e+00 -5.205463e-01 -1.680930e+00 8.677965e-01 8.544353e-01 8.414016e-01 6.542394e-01 -1.923222e+00 -6.720251e-01 -4.608620e-01 3.026103e+00 2.463363e+00 2.707648e+00 2.372651e+00 2.275755e+00 1.861030e+00 1.545671e+00 2.334610e+00 5.241976e-01 -1.380685e-01
<VARIANCE> 25
 1.952830e+01 2.069015e+01 2.229339e+01 2.912288e+01 3.835895e+01 3.491508e+01 3.512001e+01 3.383849e+01 2.764875e+01 2.906515e+01 2.694713e+01 2.500468e+01 2.236570e+00 3.425471e+00 5.536305e+00 5.169834e+00 5.550048e+00 4.474220e+00 4.697565e+00 4.845045e+00 4.385333e+00 5.017542e+00 4.440092e+00 3.188690e+00 2.700503e-03
<GCONST> 9.746126e+01
<MIXTURE> 11 1.633820e-02
<MEAN> 25
 7.952066e+00 4.485259e+00 2.418144e+00 5.093359e+00 -2.566908e+00 -1.595981e+00 -1.205993e+00 -6.309483e+00 -3.780033e+00 -3.611955e-02 -2.417810e+00 -1.951150e+00 -3.116991e-01 5.143881e-01 5.417547e-02 3.590468e-01 5.161926e-01 -2.006394e-01 2.399086e-01 -2.676354e-01 -7.842717e-02 5.716471e-02 -1.465643e-01 1.952374e-01 -1.996279e-02
<VARIANCE> 25
 9.910694e+00 2.253639e+01 3.169618e+01 2.901503e+01 4.091954e+01 3.837859e+01 5.960087e+01 4.087057e+01 4.034883e+01 3.310989e+01 3.406208e+01 2.740147e+01 9.251875e-01 1.153930e+00 1.702047e+00 2.154251e+00 2.091027e+00 2.177461e+00 2.034282e+00 2.689884e+00 2.098583e+00 1.904602e+00 1.711526e+00 1.468226e+00 9.535476e-04
<GCONST> 8.730484e+01
<MIXTURE> 12 5.904134e-03
<MEAN> 25
 1.030841e+01 2.610898e+00 -4.475664e+00 -1.514463e+01 -9.319315e+00 9.085755e+00 -1.190924e+00 -2.280680e+00 -2.132610e+00 -3.401764e+00 1.103496e+00 1.290846e+00 1.136911e-01 3.375794e-01 2.485701e-01 -4.018331e-01 -2.301678e-01 1.117814e-01 2.336147e-01 3.440115e-01 1.406455e-01 -5.040344e-01 -3.771612e-01 1.824860e-02 -5.367863e-03
<VARIANCE> 25
 7.801838e+00 2.094197e+01 2.177854e+01 2.997491e+01 3.590992e+01 2.614957e+01 3.364092e+01 4.006395e+01 3.782502e+01 3.811223e+01 3.157687e+01 2.393586e+01 2.119043e-01 6.488638e-01 7.062738e-01 1.164504e+00 1.238304e+00 9.258275e-01 1.033830e+00 1.289817e+00 1.106349e+00 1.081157e+00 1.052013e+00 7.935132e-01 5.190662e-04
<GCONST> 7.615659e+01
<MIXTURE> 13 5.904134e-03
<MEAN> 25
 1.030841e+01 2.610898e+00 -4.475664e+00 -1.514463e+01 -9.319315e+00 9.085755e+00 -1.190924e+00 -2.280680e+00 -2.132610e+00 -3.401764e+00 1.103496e+00 1.290846e+00 1.136911e-01 3.375794e-01 2.485701e-01 -4.018331e-01 -2.301678e-01 1.117814e-01 2.336147e-01 3.440115e-01 1.406455e-01 -5.040344e-01 -3.771612e-01 1.824860e-02 -5.367863e-03
<VARIANCE> 25
 7.801838e+00 2.094197e+01 2.177854e+01 2.997491e+01 3.590992e+01 2.614957e+01 3.364092e+01 4.006395e+01 3.782502e+01 3.811223e+01 3.157687e+01 2.393586e+01 2.119043e-01 6.488638e-01 7.062738e-01 1.164504e+00 1.238304e+00 9.258275e-01 1.033830e+00 1.289817e+00 1.106349e+00 1.081157e+00 1.052013e+00 7.935132e-01 5.190662e-04
<GCONST> 7.615659e+01
<MIXTURE> 14 6.488954e-03
<MEAN> 25
 -4.294868e+00 -3.764106e-01 -3.701303e-01 8.897182e+00 7.526634e+00 7.361963e+00 7.871408e+00 7.305277e+00 7.246331e+00 5.227719e+00 6.827069e+00 4.068352e+00 -2.725077e-01 1.928185e-01 3.577951e-01 3.124227e-01 1.034694e-02 6.185348e-02 9.762553e-02 1.734172e-01 2.883128e-01 5.342187e-01 4.996878e-01 7.247762e-02 -9.350475e-03
<VARIANCE> 25
 9.349074e+00 1.378718e+01 1.920754e+01 1.779670e+01 2.081277e+01 1.955011e+01 2.168619e+01 2.061655e+01 2.004764e+01 2.382702e+01 2.156632e+01 1.609552e+01 9.579041e-01 1.632305e+00 1.778184e+00 1.926166e+00 2.236666e+00 2.250348e+00 2.246410e+00 2.232283e+00 2.290743e+00 2.506172e+00 2.195260e+00 1.805189e+00 1.024569e-03
<GCONST> 8.191784e+01
<MIXTURE> 15 2.475190e-03
<MEAN> 25
 -5.421863e+00 -6.436673e-01 -2.002064e-01 7.364923e+00 5.719364e+00 5.699525e+00 6.061358e+00 4.979931e+00 5.163198e+00 4.152264e+00 5.500352e+00 2.536496e+00 -1.213996e-01 -2.957691e-02 7.464065e-02 2.436644e-01 4.897281e-01 7.867789e-01 1.072730e+00 1.182029e+00 1.059191e+00 7.558935e-01 4.192029e-01 1.531586e-01 -8.817160e-05
<VARIANCE> 25
 6.992803e+00 5.607013e+00 9.055364e+00 1.283196e+01 1.407377e+01 1.430043e+01 1.491891e+01 1.489384e+01 1.409949e+01 1.418931e+01 1.510250e+01 1.252534e+01 1.248154e-01 2.065858e-01 3.200149e-01 5.029401e-01 6.997939e-01 7.940368e-01 7.634020e-01 7.913811e-01 9.086386e-01 1.023957e+00 1.072111e+00 1.040814e+00 2.803563e-05
<GCONST> 5.859982e+01
<MIXTURE> 16 2.475190e-03
<MEAN> 25
 -5.421863e+00 -6.436673e-01 -2.002064e-01 7.364923e+00 5.719364e+00 5.699525e+00 6.061358e+00 4.979931e+00 5.163198e+00 4.152264e+00 5.500352e+00 2.536496e+00 -1.213996e-01 -2.957691e-02 7.464065e-02 2.436644e-01 4.897281e-01 7.867789e-01 1.072730e+00 1.182029e+00 1.059191e+00 7.558935e-01 4.192029e-01 1.531586e-01 -8.817160e-05
<VARIANCE> 25
 6.992803e+00 5.607013e+00 9.055364e+00 1.283196e+01 1.407377e+01 1.430043e+01 1.491891e+01 1.489384e+01 1.409949e+01 1.418931e+01 1.510250e+01 1.252534e+01 1.248154e-01 2.065858e-01 3.200149e-01 5.029401e-01 6.997939e-01 7.940368e-01 7.634020e-01 7.913811e-01 9.086386e-01 1.023957e+00 1.072111e+00 1.040814e+00 2.803563e-05
<GCONST> 5.859982e+01
<MIXTURE> 17 9.518312e-03
<MEAN> 25
 3.469228e+00 -1.699895e+00 7.141150e+00 1.680251e+00 -2.918915e+00 -5.756988e+00 -3.381644e+00 1.408249e+00 -2.081721e+00 -3.446032e+00 -4.808349e-01 -7.159660e-01 -8.799182e-01 -7.706916e-01 2.289288e+00 -2.387758e+00 -2.259953e+00 3.682014e-02 -9.274706e-01 5.710389e-01 -3.241968e-01 -3.996010e-01 1.156060e+00 7.984145e-01 8.408578e-02
<VARIANCE> 25
 1.242773e+01 2.297825e+01 3.216724e+01 3.323621e+01 4.327774e+01 3.583757e+01 3.612370e+01 3.582483e+01 2.685821e+01 2.201716e+01 2.366807e+01 2.473731e+01 1.597819e+00 2.136501e+00 3.972780e+00 2.632405e+00 3.531339e+00 4.678839e+00 5.941965e+00 3.218733e+00 4.224289e+00 3.034582e+00 2.192068e+00 2.656518e+00 1.552884e-03
<GCONST> 9.301913e+01
<MIXTURE> 18 1.221018e-02
<MEAN> 25
 3.562246e+00 4.190913e+00 7.060935e+00 4.277163e+00 -4.570298e+00 -8.132593e+00 -1.985041e+00 -6.895853e-01 -3.026385e+00 -3.117471e+00 -5.685085e-01 6.729955e-01 -8.521671e-01 2.286902e+00 -4.634096e-01 2.025536e+00 3.130453e+00 1.400579e+00 8.881307e-01 -3.071715e-01 6.470657e-01 4.169472e-01 -1.852973e-01 -1.343022e-01 -1.189128e-01
<VARIANCE> 25
 1.671888e+01 2.563138e+01 3.217053e+01 2.662423e+01 3.883660e+01 3.382027e+01 3.644421e+01 3.626145e+01 3.980820e+01 3.765874e+01 3.129274e+01 2.884281e+01 2.554457e+00 3.246791e+00 5.132482e+00 3.781501e+00 3.824754e+00 4.458254e+00 4.409065e+00 4.448917e+00 4.219412e+00 4.199957e+00 4.391790e+00 3.406358e+00 4.065559e-03
<GCONST> 9.821375e+01
<MIXTURE> 19 9.912824e-03
<MEAN> 25
 -9.718725e+00 2.018140e+00 -9.228235e-01 1.914963e+00 5.005715e+00 1.526639e+00 3.711137e+00 1.140522e+00 2.138406e+00 1.182283e+00 4.373462e-01 1.101101e+00 2.022895e+00 1.579060e+00 2.243810e+00 7.286616e-01 -8.067456e-01 -1.075890e+00 -1.242626e+00 -1.355092e+00 -1.588383e+00 -9.892228e-01 -7.407599e-01 -7.193717e-01 6.684610e-04
<VARIANCE> 25
 5.725573e+01 2.756056e+01 5.527209e+01 5.101882e+01 3.985894e+01 2.989568e+01 3.104246e+01 2.614727e+01 2.744818e+01 2.972742e+01 2.884815e+01 2.332250e+01 2.371386e+00 2.128242e+00 2.790559e+00 2.040787e+00 2.770304e+00 2.184048e+00 2.570700e+00 2.270526e+00 2.070829e+00 2.316359e+00 2.020117e+00 1.643017e+00 2.640542e-03
<GCONST> 9.200685e+01
<MIXTURE> 20 6.308331e-03
<MEAN> 25
 -1.416530e+01 7.426665e+00 8.558376e-01 6.121143e+00 4.848306e+00 1.595537e+00 5.192224e+00 8.449655e-01 9.547499e-01 7.525543e-01 2.574107e+00 -2.704449e-01 -3.288338e+00 -8.540357e-01 -1.562015e+00 3.267865e-01 1.547625e+00 2.059554e+00 1.985357e+00 2.032788e+00 2.137482e+00 2.034341e+00 1.665174e+00 9.446742e-01 4.734389e-02
<VARIANCE> 25
 1.965507e+01 2.333048e+01 3.079370e+01 3.708994e+01 3.065628e+01 2.802598e+01 2.985268e+01 3.129468e+01 2.796015e+01 2.835756e+01 2.506886e+01 2.095994e+01 2.085237e+00 2.199856e+00 1.910721e+00 2.533488e+00 2.702765e+00 2.302647e+00 2.304240e+00 2.392390e+00 2.230963e+00 2.641090e+00 2.286222e+00 1.856861e+00 1.876240e-03
<GCONST> 8.922796e+01
<MIXTURE> 21 7.928653e-03
<MEAN> 25
 3.193918e+00 -5.595424e+00 7.794623e+00 -2.981697e+00 -9.241519e+00 -7.959713e+00 -3.771466e+00 6.332705e+00 -7.598585e-01 -2.302324e+00 -9.481438e-01 2.128462e+00 -7.269254e-01 1.263875e+00 2.412852e+00 4.209699e-02 -1.123116e+00 5.591441e-02 1.502157e-01 -1.530101e+00 -2.224673e+00 -4.693193e-01 1.516317e+00 4.052212e-01 -1.165093e-02
<VARIANCE> 25
 7.945294e+00 1.722321e+01 3.135008e+01 2.511255e+01 2.441740e+01 2.669223e+01 3.406533e+01 3.879982e+01 4.410805e+01 3.426438e+01 2.847857e+01 2.378412e+01 2.995643e-01 7.714886e-01 1.631935e+00 1.028970e+00 1.950471e+00 1.848441e+00 3.031177e+00 2.067703e+00 2.040625e+00 3.534105e+00 1.664629e+00 2.181814e+00 3.728168e-04
<GCONST> 8.258195e+01
<MIXTURE> 22 8.827789e-03
<MEAN> 25
 -1.808129e+01 6.705054e+00 -3.282634e+00 6.737828e+00 4.371969e+00 3.379439e+00 8.492278e+00 1.041117e+00 5.918906e+00 2.415036e+00 4.396963e+00 1.500473e+00 -3.435138e-01 -1.516987e-01 -2.010451e-02 -1.399832e-01 -6.671875e-03 7.739415e-02 2.130455e-01 3.457586e-01 2.680234e-01 1.873395e-01 1.874291e-01 2.305192e-01 8.445713e-03
<VARIANCE> 25
 7.347774e+00 1.520954e+01 1.789531e+01 2.629676e+01 2.223605e+01 2.183340e+01 1.691673e+01 1.925027e+01 1.879621e+01 2.150223e+01 2.614773e+01 1.335067e+01 9.672844e-01 1.173918e+00 1.350331e+00 1.429275e+00 1.393196e+00 1.549197e+00 1.651439e+00 1.483547e+00 1.520421e+00 1.583853e+00 1.193342e+00 1.286037e+00 1.523325e-03
<GCONST> 7.791570e+01
<MIXTURE> 23 6.455497e-03
<MEAN> 25
 7.921183e+00 2.411575e+00 3.024085e+00 2.434051e+00 -4.896719e+00 -3.138793e+00 -4.211740e+00 -6.439095e+00 -3.475129e+00 -1.001304e+00 -4.038826e+00 -2.113259e+00 3.436507e-02 1.717409e-01 5.953409e-03 5.596325e-02 3.692972e-03 4.801688e-02 1.346651e-02 -4.561880e-02 1.177857e-02 4.255745e-02 1.267698e-03 4.303057e-02 -4.286951e-03
<VARIANCE> 25
 1.046158e+01 2.235292e+01 2.523287e+01 4.114082e+01 3.901468e+01 5.392937e+01 5.947798e+01 5.516412e+01 4.808092e+01 4.697675e+01 4.897581e+01 4.005605e+01 1.170957e-01 2.953100e-01 3.777148e-01 4.908004e-01 5.959391e-01 7.078816e-01 7.752274e-01 8.823863e-01 8.766263e-01 8.873166e-01 8.145155e-01 7.557852e-01 8.847561e-05
<GCONST> 7.303661e+01
<MIXTURE> 24 6.455497e-03
<MEAN> 25
 7.921183e+00 2.411575e+00 3.024085e+00 2.434051e+00 -4.896719e+00 -3.138793e+00 -4.211740e+00 -6.439095e+00 -3.475129e+00 -1.001304e+00 -4.038826e+00 -2.113259e+00 3.436507e-02 1.717409e-01 5.953409e-03 5.596325e-02 3.692972e-03 4.801688e-02 1.346651e-02 -4.561880e-02 1.177857e-02 4.255745e-02 1.267698e-03 4.303057e-02 -4.286951e-03
<VARIANCE> 25
 1.046158e+01 2.235292e+01 2.523287e+01 4.114082e+01 3.901468e+01 5.392937e+01 5.947798e+01 5.516412e+01 4.808092e+01 4.697675e+01 4.897581e+01 4.005605e+01 1.170957e-01 2.953100e-01 3.777148e-01 4.908004e-01 5.959391e-01 7.078816e-01 7.752274e-01 8.823863e-01 8.766263e-01 8.873166e-01 8.145155e-01 7.557852e-01 8.847561e-05
<GCONST> 7.303661e+01
<MIXTURE> 25 1.118642e-02
<MEAN> 25
 3.007196e-02 9.945354e-01 1.654767e+01 -2.052108e+00 -7.850698e+00 -1.564939e+00 -5.079794e+00 -2.956167e-01 -7.306957e+00 -6.839494e+00 2.758013e+00 1.799067e-01 -1.335697e-02 4.022474e-01 -2.174665e-01 9.654358e-02 1.639434e-01 3.129951e-01 5.121554e-02 -5.429602e-01 -2.733420e-01 -1.696181e-01 1.340706e-01 -2.478720e-01 -2.051480e-02
<VARIANCE> 25
 5.697011e+00 1.738556e+01 1.519604e+01 1.851989e+01 3.117788e+01 2.658507e+01 1.740268e+01 3.491599e+01 2.208463e+01 2.706365e+01 1.655868e+01 2.035648e+01 4.021091e-01 8.714957e-01 1.855566e+00 9.106811e-01 1.968359e+00 2.434467e+00 1.327289e+00 2.304227e+00 1.764590e+00 1.993218e+00 9.731022e-01 9.164195e-01 1.085565e-03
<GCONST> 7.800373e+01
<MIXTURE> 26 7.727677e-03
<MEAN> 25
 2.452551e+00 -4.834707e+00 -1.062325e+01 2.519312e-01 8.009618e+00 4.992994e+00 5.124341e+00 -6.769654e-01 1.595325e+00 -7.542229e-01 -2.997889e+00 -1.195132e+00 -5.941042e-01 5.471345e-01 1.767586e-01 7.033537e-01 3.265261e-01 1.212022e-01 2.360423e-01 2.033040e-01 3.215692e-01 1.671162e-01 2.708982e-01 3.501013e-01 -4.745455e-02
<VARIANCE> 25
 2.433173e+01 3.987665e+01 2.326045e+01 5.590416e+01 3.418866e+01 3.806627e+01 4.551640e+01 3.946951e+01 3.632516e+01 4.630189e+01 3.421375e+01 4.025077e+01 1.550033e+00 1.691252e+00 2.722512e+00 1.790111e+00 2.225787e+00 2.301821e+00 2.447820e+00 2.524489e+00 2.196165e+00 2.275653e+00 1.935470e+00 1.741979e+00 3.003803e-03
<GCONST> 9.233427e+01
<MIXTURE> 27 7.727677e-03
<MEAN> 25
 2.452551e+00 -4.834707e+00 -1.062325e+01 2.519312e-01 8.009618e+00 4.992994e+00 5.124341e+00 -6.769654e-01 1.595325e+00 -7.542229e-01 -2.997889e+00 -1.195132e+00 -5.941042e-01 5.471345e-01 1.767586e-01 7.033537e-01 3.265261e-01 1.212022e-01 2.360423e-01 2.033040e-01 3.215692e-01 1.671162e-01 2.708982e-01 3.501013e-01 -4.745455e-02
<VARIANCE> 25
 2.433173e+01 3.987665e+01 2.326045e+01 5.590416e+01 3.418866e+01 3.806627e+01 4.551640e+01 3.946951e+01 3.632516e+01 4.630189e+01 3.421375e+01 4.025077e+01 1.550033e+00 1.691252e+00 2.722512e+00 1.790111e+00 2.225787e+00 2.301821e+00 2.447820e+00 2.524489e+00 2.196165e+00 2.275653e+00 1.935470e+00 1.741979e+00 3.003803e-03
<GCONST> 9.233427e+01
<MIXTURE> 28 5.036674e-03
<MEAN> 25
 -5.429257e+00 2.175058e-02 -1.608348e+00 6.609576e+00 5.246978e+00 3.515285e+00 5.436556e+00 3.125633e+00 3.904242e+00 2.388402e+00 2.611333e+00 3.194300e+00 -1.147634e-01 2.230731e-01 5.266135e-01 7.844549e-01 8.198109e-01 7.013801e-01 5.262417e-01 3.942151e-01 4.415889e-01 4.802200e-01 3.699526e-01 1.890792e-01 -1.340861e-05
<VARIANCE> 25
 1.055031e+01 8.360044e+00 1.258165e+01 1.481309e+01 1.472669e+01 1.770432e+01 1.811390e+01 1.896498e+01 1.724344e+01 1.670507e+01 2.081818e+01 1.517506e+01 2.558726e-01 3.357486e-01 4.069593e-01 4.628472e-01 6.214995e-01 8.464541e-01 1.060019e+00 1.144325e+00 1.105336e+00 1.029964e+00 1.034736e+00 1.063818e+00 1.001872e-06
<GCONST> 6.031464e+01
<MIXTURE> 29 5.036674e-03
<MEAN> 25
 -5.429257e+00 2.175058e-02 -1.608348e+00 6.609576e+00 5.246978e+00 3.515285e+00 5.436556e+00 3.125633e+00 3.904242e+00 2.388402e+00 2.611333e+00 3.194300e+00 -1.147634e-01 2.230731e-01 5.266135e-01 7.844549e-01 8.198109e-01 7.013801e-01 5.262417e-01 3.942151e-01 4.415889e-01 4.802200e-01 3.699526e-01 1.890792e-01 -1.340861e-05
<VARIANCE> 25
 1.055031e+01 8.360044e+00 1.258165e+01 1.481309e+01 1.472669e+01 1.770432e+01 1.811390e+01 1.896498e+01 1.724344e+01 1.670507e+01 2.081818e+01 1.517506e+01 2.558726e-01 3.357486e-01 4.069593e-01 4.628472e-01 6.214995e-01 8.464541e-01 1.060019e+00 1.144325e+00 1.105336e+00 1.029964e+00 1.034736e+00 1.063818e+00 1.001872e-06
<GCONST> 6.031464e+01
<MIXTURE> 30 8.917812e-03
<MEAN> 25
 -4.369445e+00 -1.504811e-01 3.889331e-01 9.058464e+00 7.821551e+00 7.394286e+00 7.730659e+00 6.829113e+00 6.480194e+00 4.928674e+00 6.896427e+00 3.374048e+00 -2.438013e-02 2.877198e-02 4.947751e-02 9.214099e-02 8.399355e-02 3.476379e-02 5.149656e-03 -2.007275e-02 1.359409e-02 6.447595e-02 5.485442e-02 2.321232e-02 -5.627220e-04
<VARIANCE> 25
 7.528241e+00 9.779634e+00 1.340694e+01 1.351948e+01 1.552649e+01 1.680131e+01 1.975039e+01 1.795188e+01 1.617247e+01 1.804201e+01 2.147632e+01 1.482488e+01 9.606092e-02 1.959737e-01 3.259149e-01 4.744819e-01 6.093503e-01 7.240885e-01 7.624281e-01 8.101458e-01 8.729829e-01 9.509955e-01 9.090031e-01 8.521057e-01 5.094553e-05
<GCONST> 6.085444e+01
<MIXTURE> 31 4.136493e-03
<MEAN> 25
 -3.268755e+00 -5.611883e+00 1.087245e-02 4.860102e+00 3.731879e+00 1.707959e+00 5.313979e+00 6.613350e+00 2.754960e+00 1.243003e+00 6.462803e+00 3.070367e+00 2.495885e-01 4.642623e-01 -2.246105e-01 3.142000e-01 1.276338e-01 4.284579e-01 2.027808e-01 1.209026e-02 3.732957e-01 3.790965e-01 9.487294e-02 1.099318e-01 -1.836910e-02
<VARIANCE> 25
 7.211404e+00 1.554288e+01 1.833615e+01 1.796609e+01 2.518190e+01 2.364234e+01 2.408076e+01 2.519169e+01 2.578359e+01 2.795415e+01 2.048938e+01 1.901514e+01 1.919073e-01 5.022855e-01 6.107135e-01 7.637421e-01 9.752529e-01 1.094097e+00 1.230595e+00 1.389928e+00 1.356419e+00 1.315002e+00 1.245276e+00 1.121838e+00 2.543072e-04
<GCONST> 7.194179e+01
<MIXTURE> 32 4.136493e-03
<MEAN> 25
 -3.268755e+00 -5.611883e+00 1.087245e-02 4.860102e+00 3.731879e+00 1.707959e+00 5.313979e+00 6.613350e+00 2.754960e+00 1.243003e+00 6.462803e+00 3.070367e+00 2.495885e-01 4.642623e-01 -2.246105e-01 3.142000e-01 1.276338e-01 4.284579e-01 2.027808e-01 1.209026e-02 3.732957e-01 3.790965e-01 9.487294e-02 1.099318e-01 -1.836910e-02
<VARIANCE> 25
 7.211404e+00 1.554288e+01 1.833615e+01 1.796609e+01 2.518190e+01 2.364234e+01 2.408076e+01 2.519169e+01 2.578359e+01 2.795415e+01 2.048938e+01 1.901514e+01 1.919073e-01 5.022855e-01 6.107135e-01 7.637421e-01 9.752529e-01 1.094097e+00 1.230595e+00 1.389928e+00 1.356419e+00 1.315002e+00 1.245276e+00 1.121838e+00 2.543072e-04
<GCONST> 7.194179e+01
<MIXTURE> 33 1.508826e-02
<MEAN> 25
 6.421115e+00 -4.431188e+00 -2.020933e+00 -2.470530e+00 -2.467710e+00 -5.008510e+00 -8.046206e+00 1.723285e+00 3.232090e+00 2.670506e-01 -4.576041e+00 -2.691061e+00 7.036790e-01 -1.206305e+00 -2.324167e+00 -1.897901e+00 1.344384e+00 1.353636e+00 -7.024694e-01 6.780711e-01 9.292514e-01 7.557502e-01 -4.543551e-01 -1.359906e+00 3.506149e-02
<VARIANCE> 25
 9.128379e+00 2.046069e+01 2.610214e+01 4.303296e+01 4.284179e+01 4.392271e+01 4.237550e+01 4.368834e+01 4.667955e+01 4.455082e+01 3.102516e+01 2.612195e+01 1.056413e+00 1.964340e+00 2.328707e+00 1.992760e+00 3.989272e+00 3.138871e+00 3.852334e+00 5.695197e+00 3.502557e+00 4.149705e+00 3.277230e+00 2.317467e+00 1.430127e-03
<GCONST> 9.363656e+01
<MIXTURE> 34 1.588179e-02
<MEAN> 25
 8.918271e+00 1.108788e-01 -5.640534e-02 1.111738e+00 -2.894902e+00 -1.261564e+00 -5.811207e+00 -4.616894e+00 -1.959488e+00 6.928090e-02 -2.511206e+00 -3.575226e+00 -9.455979e-03 1.343898e+00 1.384326e+00 2.397689e+00 3.354880e-02 -1.788879e-01 8.615861e-01 -1.610923e+00 -8.370104e-01 2.687971e-01 -5.473437e-01 2.267878e-01 -6.242445e-02
<VARIANCE> 25
 7.666740e+00 3.029780e+01 3.000117e+01 4.894981e+01 4.188625e+01 5.015645e+01 5.778671e+01 5.521270e+01 5.209968e+01 4.231382e+01 4.772578e+01 3.099226e+01 1.237026e+00 1.929644e+00 4.379623e+00 3.929492e+00 5.759253e+00 5.678847e+00 5.532508e+00 6.021516e+00 5.170655e+00 4.846338e+00 4.885437e+00 3.775662e+00 1.124633e-03
<GCONST> 9.945728e+01
<MIXTURE> 35 1.467755e-02
<MEAN> 25
 -2.159527e+00 -2.833373e+00 -1.257549e+01 2.337747e+00 1.165405e+01 -1.547220e+00 2.221753e+00 2.219875e+00 1.750736e+00 4.620547e+00 -9.897774e-01 -1.332044e-01 -4.655677e-03 -1.140866e+00 -9.292161e-01 -6.736103e-01 7.288918e-01 -8.844928e-01 -1.171692e+00 1.296164e-01 7.951961e-03 5.999077e-01 -5.521700e-01 -7.201564e-01 9.382158e-02
<VARIANCE> 25
 1.719671e+01 2.995089e+01 5.172757e+01 4.971183e+01 4.185194e+01 5.800757e+01 4.058318e+01 3.474775e+01 3.771809e+01 3.234677e+01 2.903191e+01 2.896583e+01 4.049841e+00 2.827121e+00 8.201463e+00 4.942608e+00 5.020968e+00 5.436512e+00 4.085432e+00 4.556347e+00 3.747414e+00 3.810553e+00 2.784412e+00 2.908565e+00 4.269499e-03
<GCONST> 1.005959e+02
<MIXTURE> 36 1.093293e-02
<MEAN> 25
 4.875618e+00 -4.238787e+00 7.008576e+00 4.165466e+00 -1.182243e+01 -7.620923e+00 -6.187645e+00 3.619739e+00 -4.052274e+00 -4.353610e+00 4.144296e+00 9.531712e-01 3.410015e-01 -5.351431e-02 -1.096775e+00 1.317171e-01 8.404316e-01 -1.813547e-03 -6.896207e-01 3.778508e-01 7.503991e-01 5.216455e-01 -7.157564e-01 -2.584467e-01 -1.118104e-02
<VARIANCE> 25
 7.383412e+00 1.367311e+01 1.933186e+01 2.673402e+01 3.182845e+01 2.576077e+01 3.809571e+01 2.916425e+01 3.944565e+01 2.848997e+01 2.812042e+01 2.250179e+01 3.333998e-01 6.494889e-01 1.404732e+00 1.185005e+00 1.361165e+00 1.255396e+00 1.753786e+00 1.770592e+00 2.025897e+00 2.019588e+00 1.451536e+00 1.448385e+00 6.920398e-04
<GCONST> 7.953070e+01
<MIXTURE> 37 1.246826e-02
<MEAN> 25
 6.031541e-01 7.494040e+00 1.193511e+01 -5.501977e+00 -7.889680e+00 -8.331568e-01 -5.155811e+00 -8.263178e+00 -3.649331e+00 -9.955952e-01 -3.471517e+00 -1.273166e+00 1.487081e-01 6.503819e-01 -1.394477e+00 3.527616e+00 1.991822e+00 -3.002945e-01 1.100060e+00 4.283989e-01 4.941746e-01 -3.192991e-01 5.354933e-01 -1.317391e-01 -9.351320e-02
<VARIANCE> 25
 1.574934e+01 2.742409e+01 3.117219e+01 5.031747e+01 3.364202e+01 3.298482e+01 4.327503e+01 3.526814e+01 3.814155e+01 3.955851e+01 3.776044e+01 3.016120e+01 3.011545e+00 3.339736e+00 2.996354e+00 4.148597e+00 4.792243e+00 3.666520e+00 4.093573e+00 3.761405e+00 3.545553e+00 3.532960e+00 3.794681e+00 2.737331e+00 3.887251e-03
<GCONST> 9.781963e+01
<MIXTURE> 38 1.154525e-02
<MEAN> 25
 -5.318155e+00 8.485978e+00 3.077520e+00 3.008624e+00 1.784248e+00 -4.358458e+00 -7.612160e-01 -2.376180e+00 -6.988911e-01 -3.717755e+00 -5.662606e-01 -6.248699e-02 -4.551099e+00 1.524258e+00 -6.930768e-01 1.507501e+00 2.480813e+00 1.116570e+00 2.460722e+00 5.204943e-01 1.006112e+00 2.598901e-01 3.812235e-01 2.736039e-01 4.274784e-02
<VARIANCE> 25
 2.801258e+01 2.469725e+01 4.365038e+01 2.567238e+01 4.422173e+01 3.844867e+01 3.074745e+01 3.434668e+01 3.944780e+01 2.909224e+01 2.304140e+01 2.575879e+01 2.215126e+00 3.628998e+00 3.957388e+00 4.411044e+00 3.982569e+00 4.754594e+00 4.344287e+00 5.210044e+00 3.604510e+00 5.717151e+00 4.852969e+00 2.720783e+00 1.831925e-03
<GCONST> 9.764850e+01
<MIXTURE> 39 9.501865e-03
<MEAN> 25
 1.276494e+00 2.325105e+00 1.060483e+01 -8.740642e+00 -1.021741e+01 -5.737997e-01 -4.014797e+00 -5.977874e+00 -3.734220e+00 7.950943e-01 -3.318737e+00 -2.720846e+00 -7.344449e-01 1.416079e+00 1.628040e+00 -1.367749e+00 -1.970931e-01 1.319066e+00 -1.092968e+00 -1.398188e+00 5.499277e-01 6.215928e-01 -5.301359e-01 1.372966e-01 7.231946e-03
<VARIANCE> 25
 8.151589e+00 2.784648e+01 3.003417e+01 3.648103e+01 4.335832e+01 4.029979e+01 4.963944e+01 3.355495e+01 4.124139e+01 3.053683e+01 3.421534e+01 2.860997e+01 6.318719e-01 1.493934e+00 1.401057e+00 2.707165e+00 2.827743e+00 2.644727e+00 2.901564e+00 2.701941e+00 2.396038e+00 2.666332e+00 1.929073e+00 1.873866e+00 1.382349e-03
<GCONST> 8.918192e+01
<MIXTURE> 40 1.030800e-02
<MEAN> 25
 -7.904895e+00 2.094013e+00 -2.761323e+00 7.946299e+00 4.654309e+00 4.956842e+00 6.514818e+00 3.862891e+00 4.570866e+00 4.547167e+00 4.769182e+00 1.090963e+00 -1.034332e-01 -2.133058e-01 -1.187603e-01 -2.168225e-01 -3.837530e-02 -1.745451e-02 -1.997688e-02 5.785857e-03 -4.219937e-02 -7.161028e-02 -6.361644e-03 -9.864691e-03 2.220410e-03
<VARIANCE> 25
 5.181693e+01 1.734472e+01 3.931689e+01 2.298369e+01 2.600662e+01 1.889510e+01 2.274978e+01 1.744264e+01 1.667559e+01 1.873828e+01 1.996284e+01 1.432855e+01 6.228552e-01 6.220587e-01 8.352970e-01 9.892292e-01 9.947601e-01 1.372281e+00 1.218641e+00 1.229531e+00 1.178472e+00 1.421485e+00 1.069471e+00 9.691910e-01 7.273003e-04
<GCONST> 7.603797e+01
<MIXTURE> 41 6.713375e-03
<MEAN> 25
 1.336189e+00 1.721858e+00 1.044086e+01 -6.882429e+00 -1.019777e+01 -3.693879e+00 -2.655856e+00 -4.956536e+00 -4.543084e+00 2.587046e+00 -1.657094e+00 -1.028933e+00 7.106140e-02 -7.456586e-01 1.697547e+00 -3.535404e+00 -2.480726e+00 -3.302366e-02 -5.081462e-01 -3.765621e-01 -7.698232e-01 1.090883e+00 -1.010645e+00 9.798463e-02 8.560840e-02
<VARIANCE> 25
 1.157160e+01 2.905975e+01 3.295731e+01 3.937281e+01 4.058527e+01 4.032023e+01 3.791792e+01 2.983032e+01 3.327023e+01 2.868593e+01 3.150365e+01 2.707827e+01 3.123322e+00 3.262229e+00 3.765023e+00 3.800099e+00 4.807797e+00 6.014403e+00 4.653867e+00 4.499217e+00 4.096833e+00 4.137743e+00 3.812593e+00 3.160698e+00 2.888930e-03
<GCONST> 9.783492e+01
<MIXTURE> 42 1.106211e-02
<MEAN> 25
 -1.263437e+00 4.905814e+00 2.666963e+00 3.575721e+00 2.053308e+00 -6.119542e+00 -1.256071e+00 -2.588264e+00 -1.264961e+00 -6.445917e-01 -2.639950e+00 8.763831e-01 3.812365e+00 -2.755209e-01 2.015045e+00 -4.682183e-01 -3.085318e+00 -4.985043e-01 -1.989530e+00 -8.659701e-01 -9.555214e-01 -7.948868e-01 5.997393e-01 -5.069604e-01 6.375477e-03
<VARIANCE> 25
 3.348672e+01 1.901593e+01 4.995533e+01 2.254133e+01 4.486782e+01 3.261251e+01 3.048997e+01 2.435260e+01 3.405822e+01 2.349032e+01 1.842895e+01 1.664317e+01 3.316582e+00 4.482922e+00 6.522806e+00 5.470986e+00 4.987572e+00 7.534090e+00 4.747588e+00 4.440444e+00 4.623414e+00 4.829616e+00 3.461806e+00 3.762567e+00 3.933229e-03
<GCONST> 9.882213e+01
<MIXTURE> 43 7.108249e-03
<MEAN> 25
 3.166135e+00 -6.307845e+00 -2.249741e+00 -5.188673e+00 -7.397772e+00 -3.403718e+00 4.140284e+00 1.311105e+00 -5.064568e+00 -7.096321e+00 -4.323435e+00 -1.249265e+00 2.378089e-01 2.165005e+00 1.913545e+00 -1.332476e-01 -1.430322e+00 -7.948515e-01 -9.696515e-01 -7.797043e-01 8.217717e-01 1.468820e+00 3.426071e-01 2.079089e-02 -4.510584e-02
<VARIANCE> 25
 9.600739e+00 1.969504e+01 2.736703e+01 3.520923e+01 3.843808e+01 3.663691e+01 3.329295e+01 3.981141e+01 3.964675e+01 3.863124e+01 2.654820e+01 2.955217e+01 6.905818e-01 1.249253e+00 1.572830e+00 2.491088e+00 2.375306e+00 2.382545e+00 2.653749e+00 3.026945e+00 2.607088e+00 2.577426e+00 2.331070e+00 1.919259e+00 9.431147e-04
<GCONST> 8.797028e+01
<MIXTURE> 44 7.328289e-03
<MEAN> 25
 -1.583881e+01 2.097739e+00 3.316668e+00 -3.179020e+00 4.043831e+00 1.922467e+00 8.653221e-01 2.184411e+00 2.328390e+00 -1.128245e+00 1.872806e+00 1.762248e+00 -2.379401e-01 4.249301e-02 1.474297e-01 2.738960e-01 1.828768e-02 3.193352e-01 6.513026e-01 1.981743e-01 1.371956e-01 9.328725e-02 3.873874e-02 1.042172e-01 4.567767e-03
<VARIANCE> 25
 4.203289e+01 2.645505e+01 3.204357e+01 2.774169e+01 3.149768e+01 2.881483e+01 2.749198e+01 2.993431e+01 2.943588e+01 2.547738e+01 2.805237e+01 1.843107e+01 1.215300e+00 1.401592e+00 1.477406e+00 1.213781e+00 2.301736e+00 1.642875e+00 1.674513e+00 1.573849e+00 1.727403e+00 1.753993e+00 1.295820e+00 1.317208e+00 1.225531e-03
<GCONST> 8.449726e+01
<MIXTURE> 45 1.364932e-02
<MEAN> 25
 -1.316811e+01 4.128205e+00 -1.237250e+00 2.377465e+00 5.403914e+00 3.362207e-01 5.201283e+00 1.446321e+00 4.524870e+00 5.404523e-01 1.134993e+00 2.303613e+00 -3.053575e+00 4.757636e-01 -1.356611e-01 -4.434837e-01 1.481867e-01 -3.497737e-02 9.064040e-01 2.498894e-02 -3.796587e-02 -1.221872e-01 -7.859125e-02 2.975575e-01 1.053928e-01
<VARIANCE> 25
 2.904026e+01 2.613196e+01 2.674042e+01 2.850550e+01 2.652768e+01 3.152418e+01 2.418113e+01 2.706297e+01 2.353727e+01 2.628841e+01 2.881082e+01 1.753903e+01 2.273532e+00 2.587689e+00 2.877072e+00 2.742395e+00 2.639388e+00 2.278963e+00 2.572147e+00 1.915877e+00 1.762158e+00 2.208862e+00 2.050021e+00 1.660894e+00 3.747181e-03
<GCONST> 8.930497e+01
<MIXTURE> 46 9.336259e-03
<MEAN> 25
 -9.336861e+00 2.752924e+00 7.332082e-01 7.576290e+00 5.907454e+00 2.769367e+00 6.718831e+00 3.840317e+00 6.140735e+00 4.403603e+00 4.877575e+00 2.794480e+00 1.080717e+00 -3.128424e-01 8.062153e-02 8.869328e-01 5.102674e-01 1.091019e+00 2.850732e-01 6.444196e-01 5.182539e-01 5.032972e-01 6.670171e-01 5.384116e-01 -9.943681e-02
<VARIANCE> 25
 3.390655e+01 4.497701e+01 4.066179e+01 4.825292e+01 4.861401e+01 4.513391e+01 3.771583e+01 4.137276e+01 3.543086e+01 3.089126e+01 2.759160e+01 1.963198e+01 3.739387e+00 4.098561e+00 3.771148e+00 4.279875e+00 4.172833e+00 4.024478e+00 3.471874e+00 2.985117e+00 2.959081e+00 2.796081e+00 2.246926e+00 1.708831e+00 8.181075e-03
<GCONST> 9.852014e+01
<MIXTURE> 47 7.116147e-03
<MEAN> 25
 7.096331e+00 -7.523769e+00 -7.061927e+00 -6.924165e+00 1.291897e+00 1.024230e+00 -3.231979e+00 1.518825e+00 4.343800e+00 1.404394e+00 -4.608729e+00 -6.429852e+00 -1.243130e-01 -1.333008e+00 -6.135607e-01 -3.503712e-01 4.573067e-01 6.556594e-01 8.978373e-01 6.638958e-01 1.316131e-01 -7.935891e-01 -6.932308e-01 -4.396904e-01 2.936449e-02
<VARIANCE> 25
 9.881592e+00 1.912116e+01 2.169551e+01 3.104432e+01 3.254890e+01 4.713012e+01 4.532563e+01 3.822256e+01 5.092757e+01 5.278184e+01 4.515404e+01 3.048767e+01 4.975213e-01 7.372147e-01 1.083516e+00 1.535664e+00 1.951797e+00 2.154984e+00 2.168285e+00 3.137015e+00 1.974774e+00 2.030799e+00 2.301337e+00 1.826972e+00 4.950023e-04
<GCONST> 8.569183e+01
<MIXTURE> 48 7.116147e-03
<MEAN> 25
 7.096331e+00 -7.523769e+00 -7.061927e+00 -6.924165e+00 1.291897e+00 1.024230e+00 -3.231979e+00 1.518825e+00 4.343800e+00 1.404394e+00 -4.608729e+00 -6.429852e+00 -1.243130e-01 -1.333008e+00 -6.135607e-01 -3.503712e-01 4.573067e-01 6.556594e-01 8.978373e-01 6.638958e-01 1.316131e-01 -7.935891e-01 -6.932308e-01 -4.396904e-01 2.936449e-02
<VARIANCE> 25
 9.881592e+00 1.912116e+01 2.169551e+01 3.104432e+01 3.254890e+01 4.713012e+01 4.532563e+01 3.822256e+01 5.092757e+01 5.278184e+01 4.515404e+01 3.048767e+01 4.975213e-01 7.372147e-01 1.083516e+00 1.535664e+00 1.951797e+00 2.154984e+00 2.168285e+00 3.137015e+00 1.974774e+00 2.030799e+00 2.301337e+00 1.826972e+00 4.950023e-04
<GCONST> 8.569183e+01
<MIXTURE> 49 5.548473e-03
<MEAN> 25
 -4.969886e+00 3.692896e-01 -8.173931e-02 8.395709e+00 6.221043e+00 5.622318e+00 6.204834e+00 4.456689e+00 4.959758e+00 3.741558e+00 4.854204e+00 2.769601e+00 3.610241e-01 6.514372e-01 6.883731e-01 3.523518e-01 -1.866486e-01 -6.609117e-01 -9.960608e-01 -1.104003e+00 -9.664817e-01 -6.827547e-01 -4.868090e-01 -2.644649e-01 -1.152904e-05
<VARIANCE> 25
 1.013541e+01 9.871166e+00 1.728876e+01 1.585880e+01 1.588586e+01 1.699838e+01 2.004980e+01 1.921595e+01 1.820572e+01 1.771093e+01 2.062381e+01 1.447846e+01 2.787638e-01 2.626294e-01 3.633997e-01 6.009056e-01 8.610378e-01 9.769905e-01 9.838679e-01 1.053924e+00 1.141969e+00 1.219118e+00 1.265053e+00 1.197448e+00 1.421365e-05
<GCONST> 6.450616e+01
<MIXTURE> 50 6.234641e-03
<MEAN> 25
 -4.302212e+00 2.278728e-01 -1.923182e+00 6.229162e+00 4.452286e+00 2.304659e+00 4.298833e+00 2.138579e+00 2.605668e+00 1.508853e+00 2.013340e+00 2.485116e+00 4.634973e-02 1.613866e-01 6.435054e-02 -1.507494e-01 -5.140523e-01 -6.261015e-01 -4.168322e-01 -5.380337e-02 4.633982e-01 8.116840e-01 7.768818e-01 4.252957e-01 5.163307e-05
<VARIANCE> 25
 1.230288e+01 1.090596e+01 1.749305e+01 1.467683e+01 1.547496e+01 1.782199e+01 2.375497e+01 1.892561e+01 1.812743e+01 1.678451e+01 2.092496e+01 1.669924e+01 1.400957e-01 2.341186e-01 3.765368e-01 5.056465e-01 5.703632e-01 6.999928e-01 9.109069e-01 1.062407e+00 1.051811e+00 9.098207e-01 9.038005e-01 9.465168e-01 1.050134e-06
<GCONST> 5.970264e+01
<MIXTURE> 51 6.234641e-03
<MEAN> 25
 -4.302212e+00 2.278728e-01 -1.923182e+00 6.229162e+00 4.452286e+00 2.304659e+00 4.298833e+00 2.138579e+00 2.605668e+00 1.508853e+00 2.013340e+00 2.485116e+00 4.634973e-02 1.613866e-01 6.435054e-02 -1.507494e-01 -5.140523e-01 -6.261015e-01 -4.168322e-01 -5.380337e-02 4.633982e-01 8.116840e-01 7.768818e-01 4.252957e-01 5.163307e-05
<VARIANCE> 25
 1.230288e+01 1.090596e+01 1.749305e+01 1.467683e+01 1.547496e+01 1.782199e+01 2.375497e+01 1.892561e+01 1.812743e+01 1.678451e+01 2.092496e+01 1.669924e+01 1.400957e-01 2.341186e-01 3.765368e-01 5.056465e-01 5.703632e-01 6.999928e-01 9.109069e-01 1.062407e+00 1.051811e+00 9.098207e-01 9.038005e-01 9.465168e-01 1.050134e-06
<GCONST> 5.970264e+01
<MIXTURE> 52 6.367945e-03
<MEAN> 25
 9.869329e+00 1.480099e+00 -5.486543e+00 -1.344723e+01 -4.636681e+00 8.852791e+00 -2.880325e+00 -3.441963e+00 -4.405961e+00 -1.558173e+00 2.788972e+00 8.746641e-01 -3.695439e-01 -2.983465e-01 -2.029504e-01 1.270640e+00 1.527550e+00 -4.277504e-01 -3.836362e-01 -6.190577e-01 7.246627e-02 1.194107e+00 5.035184e-01 -5.906364e-01 -1.794274e-02
<VARIANCE> 25
 7.949914e+00 1.915532e+01 2.651340e+01 3.964054e+01 4.014293e+01 2.653082e+01 4.612014e+01 4.294636e+01 3.851511e+01 4.084042e+01 3.436785e+01 2.473005e+01 4.535395e-01 1.382703e+00 1.215495e+00 2.514118e+00 2.189112e+00 1.899673e+00 3.479591e+00 2.347811e+00 2.592212e+00 2.479541e+00 2.210905e+00 1.899497e+00 1.415584e-03
<GCONST> 8.750937e+01
<MIXTURE> 53 6.367945e-03
<MEAN> 25
 9.869329e+00 1.480099e+00 -5.486543e+00 -1.344723e+01 -4.636681e+00 8.852791e+00 -2.880325e+00 -3.441963e+00 -4.405961e+00 -1.558173e+00 2.788972e+00 8.746641e-01 -3.695439e-01 -2.983465e-01 -2.029504e-01 1.270640e+00 1.527550e+00 -4.277504e-01 -3.836362e-01 -6.190577e-01 7.246627e-02 1.194107e+00 5.035184e-01 -5.906364e-01 -1.794274e-02
<VARIANCE> 25
 7.949914e+00 1.915532e+01 2.651340e+01 3.964054e+01 4.014293e+01 2.653082e+01 4.612014e+01 4.294636e+01 3.851511e+01 4.084042e+01 3.436785e+01 2.473005e+01 4.535395e-01 1.382703e+00 1.215495e+00 2.514118e+00 2.189112e+00 1.899673e+00 3.479591e+00 2.347811e+00 2.592212e+00 2.479541e+00 2.210905e+00 1.899497e+00 1.415584e-03
<GCONST> 8.750937e+01
<MIXTURE> 54 7.368620e-03
<MEAN> 25
 -3.610221e+00 6.038983e-02 -7.313290e-01 8.034113e+00 6.498757e+00 4.615211e+00 4.718572e+00 4.601560e+00 4.046443e+00 3.603548e+00 4.448063e+00 2.304651e+00 -2.462207e-03 2.608792e-02 3.379849e-02 4.810774e-02 5.097358e-02 4.370172e-02 3.731280e-02 2.569387e-02 3.147582e-02 2.957299e-02 1.434985e-02 -3.317093e-04 1.335492e-06
<VARIANCE> 25
 9.229912e+00 1.034899e+01 9.804614e+00 1.811199e+01 1.331725e+01 1.350615e+01 1.236165e+01 1.123958e+01 1.131465e+01 1.352320e+01 1.775675e+01 1.259467e+01 4.075134e-02 8.714961e-02 1.535677e-01 2.257693e-01 3.068644e-01 3.980136e-01 4.598363e-01 5.224534e-01 5.412179e-01 5.253156e-01 5.135929e-01 5.155636e-01 1.044518e-06
<GCONST> 4.736304e+01
<MIXTURE> 55 7.368620e-03
<MEAN> 25
 -3.610221e+00 6.038983e-02 -7.313290e-01 8.034113e+00 6.498757e+00 4.615211e+00 4.718572e+00 4.601560e+00 4.046443e+00 3.603548e+00 4.448063e+00 2.304651e+00 -2.462207e-03 2.608792e-02 3.379849e-02 4.810774e-02 5.097358e-02 4.370172e-02 3.731280e-02 2.569387e-02 3.147582e-02 2.957299e-02 1.434985e-02 -3.317093e-04 1.335492e-06
<VARIANCE> 25
 9.229912e+00 1.034899e+01 9.804614e+00 1.811199e+01 1.331725e+01 1.350615e+01 1.236165e+01 1.123958e+01 1.131465e+01 1.352320e+01 1.775675e+01 1.259467e+01 4.075134e-02 8.714961e-02 1.535677e-01 2.257693e-01 3.068644e-01 3.980136e-01 4.598363e-01 5.224534e-01 5.412179e-01 5.253156e-01 5.135929e-01 5.155636e-01 1.044518e-06
<GCONST> 4.736304e+01
<MIXTURE> 56 6.132464e-03
<MEAN> 25
 7.368619e+00 -6.386631e+00 -9.226480e+00 -8.103449e+00 4.142900e+00 3.744034e+00 -1.622229e+00 -1.361761e+00 1.854900e+00 8.790529e-01 -2.421193e+00 -7.024954e+00 -1.340966e-02 1.123563e-02 -1.010085e-01 1.629042e-02 2.626319e-01 8.931694e-02 1.032530e-01 -1.341331e-01 -4.182438e-02 -3.507758e-02 -9.311991e-02 2.811556e-02 -7.114371e-03
<VARIANCE> 25
 9.944152e+00 2.591081e+01 1.952297e+01 4.722660e+01 3.307010e+01 5.038527e+01 6.695789e+01 3.592290e+01 3.805421e+01 3.820044e+01 3.906411e+01 3.049591e+01 2.029110e-01 4.235958e-01 4.492489e-01 7.565851e-01 7.687732e-01 1.109228e+00 9.023582e-01 8.907573e-01 8.878469e-01 9.237962e-01 1.002179e+00 7.618727e-01 2.344877e-04
<GCONST> 7.515662e+01
<MIXTURE> 57 6.132464e-03
<MEAN> 25
 7.368619e+00 -6.386631e+00 -9.226480e+00 -8.103449e+00 4.142900e+00 3.744034e+00 -1.622229e+00 -1.361761e+00 1.854900e+00 8.790529e-01 -2.421193e+00 -7.024954e+00 -1.340966e-02 1.123563e-02 -1.010085e-01 1.629042e-02 2.626319e-01 8.931694e-02 1.032530e-01 -1.341331e-01 -4.182438e-02 -3.507758e-02 -9.311991e-02 2.811556e-02 -7.114371e-03
<VARIANCE> 25
 9.944152e+00 2.591081e+01 1.952297e+01 4.722660e+01 3.307010e+01 5.038527e+01 6.695789e+01 3.592290e+01 3.805421e+01 3.820044e+01 3.906411e+01 3.049591e+01 2.029110e-01 4.235958e-01 4.492489e-01 7.565851e-01 7.687732e-01 1.109228e+00 9.023582e-01 8.907573e-01 8.878469e-01 9.237962e-01 1.002179e+00 7.618727e-01 2.344877e-04
<GCONST> 7.515662e+01
<MIXTURE> 58 6.172147e-03
<MEAN> 25
 2.697721e+00 -3.183095e+00 7.622884e+00 -4.593030e+00 -1.368117e+01 -5.447482e+00 1.406960e+00 7.665562e-01 -3.288274e+00 1.566810e+00 1.340683e+00 -8.075536e-01 -7.484994e-03 -1.528236e-01 -9.929021e-02 -2.762968e-02 -2.650817e-02 1.325384e-01 3.418190e-01 3.246664e-01 3.966738e-02 -8.050364e-02 -4.940580e-02 -3.254869e-02 -1.888077e-03
<VARIANCE> 25
 7.089509e+00 1.388840e+01 1.951821e+01 3.048752e+01 2.349953e+01 4.312458e+01 3.074836e+01 3.368246e+01 3.766615e+01 3.038894e+01 2.871041e+01 1.903308e+01 2.879281e-01 7.483429e-01 7.070903e-01 1.143535e+00 8.525169e-01 1.278709e+00 1.093568e+00 1.380415e+00 1.073136e+00 1.074084e+00 8.711860e-01 9.738779e-01 6.781146e-04
<GCONST> 7.556763e+01
<MIXTURE> 59 6.172147e-03
<MEAN> 25
 2.697721e+00 -3.183095e+00 7.622884e+00 -4.593030e+00 -1.368117e+01 -5.447482e+00 1.406960e+00 7.665562e-01 -3.288274e+00 1.566810e+00 1.340683e+00 -8.075536e-01 -7.484994e-03 -1.528236e-01 -9.929021e-02 -2.762968e-02 -2.650817e-02 1.325384e-01 3.418190e-01 3.246664e-01 3.966738e-02 -8.050364e-02 -4.940580e-02 -3.254869e-02 -1.888077e-03
<VARIANCE> 25
 7.089509e+00 1.388840e+01 1.951821e+01 3.048752e+01 2.349953e+01 4.312458e+01 3.074836e+01 3.368246e+01 3.766615e+01 3.038894e+01 2.871041e+01 1.903308e+01 2.879281e-01 7.483429e-01 7.070903e-01 1.143535e+00 8.525169e-01 1.278709e+00 1.093568e+00 1.380415e+00 1.073136e+00 1.074084e+00 8.711860e-01 9.738779e-01 6.781146e-04
<GCONST> 7.556763e+01
<MIXTURE> 60 4.479129e-03
<MEAN> 25
 -4.138018e+00 -6.072144e-01 -1.218165e+00 3.689836e+00 1.785477e+00 2.027180e+00 1.693382e+00 1.450000e+00 2.135790e+00 1.289063e+00 2.365852e+00 1.831581e+00 -3.228297e-02 5.583209e-02 9.829652e-02 1.308840e-01 1.097170e-01 1.294961e-01 1.978144e-01 3.118531e-01 5.584449e-01 6.980463e-01 5.567955e-01 2.907037e-01 -4.914718e-04
<VARIANCE> 25
 7.605742e+00 4.610432e+00 1.101348e+01 1.136466e+01 1.365632e+01 1.711255e+01 1.432394e+01 1.245922e+01 1.253089e+01 1.308984e+01 1.569131e+01 1.242784e+01 8.695980e-02 1.657157e-01 2.768888e-01 4.283564e-01 6.020562e-01 7.210110e-01 8.705625e-01 8.916947e-01 8.970488e-01 8.800729e-01 8.300470e-01 8.557851e-01 2.347004e-05
<GCONST> 5.664758e+01
<MIXTURE> 61 4.479129e-03
<MEAN> 25
 -4.138018e+00 -6.072144e-01 -1.218165e+00 3.689836e+00 1.785477e+00 2.027180e+00 1.693382e+00 1.450000e+00 2.135790e+00 1.289063e+00 2.365852e+00 1.831581e+00 -3.228297e-02 5.583209e-02 9.829652e-02 1.308840e-01 1.097170e-01 1.294961e-01 1.978144e-01 3.118531e-01 5.584449e-01 6.980463e-01 5.567955e-01 2.907037e-01 -4.914718e-04
<VARIANCE> 25
 7.605742e+00 4.610432e+00 1.101348e+01 1.136466e+01 1.365632e+01 1.711255e+01 1.432394e+01 1.245922e+01 1.253089e+01 1.308984e+01 1.569131e+01 1.242784e+01 8.695980e-02 1.657157e-01 2.768888e-01 4.283564e-01 6.020562e-01 7.210110e-01 8.705625e-01 8.916947e-01 8.970488e-01 8.800729e-01 8.300470e-01 8.557851e-01 2.347004e-05
<GCONST> 5.664758e+01
<MIXTURE> 62 3.278034e-03
<MEAN> 25
 -5.077804e+00 1.248286e+00 1.022719e+00 8.808738e+00 6.128106e+00 5.040523e+00 5.497858e+00 4.025325e+00 4.975474e+00 3.911119e+00 4.959064e+00 2.941067e+00 -1.003304e+00 -1.165563e+00 -9.507757e-01 -2.765160e-01 4.275391e-01 1.004781e+00 1.386487e+00 1.553197e+00 1.477594e+00 1.242012e+00 1.062673e+00 7.237719e-01 -1.286956e-03
<VARIANCE> 25
 9.937640e+00 9.972864e+00 1.311724e+01 1.675480e+01 1.738073e+01 1.753827e+01 1.966202e+01 1.912577e+01 1.887422e+01 1.871007e+01 2.153963e+01 1.481437e+01 4.010081e-01 4.318522e-01 5.562588e-01 7.778898e-01 1.033539e+00 1.190376e+00 1.251287e+00 1.277222e+00 1.327415e+00 1.362257e+00 1.406314e+00 1.370795e+00 1.652406e-05
<GCONST> 6.754059e+01
<MIXTURE> 63 4.351215e-03
<MEAN> 25
 -3.500822e+00 -1.914296e+00 -5.372248e+00 3.207909e+00 3.947682e+00 -1.071848e-01 3.755933e+00 1.387148e+00 2.050631e+00 -6.292862e-01 -1.228944e+00 1.840396e+00 -8.960901e-02 3.017569e-01 3.957520e-01 5.013125e-01 3.260272e-01 3.641584e-01 4.304217e-01 1.799983e-01 2.016059e-01 3.398772e-01 2.387570e-01 9.625707e-02 -4.027713e-03
<VARIANCE> 25
 1.097613e+01 1.508853e+01 1.833277e+01 1.656515e+01 1.917505e+01 2.526678e+01 2.979865e+01 2.397391e+01 2.441908e+01 2.108984e+01 1.923486e+01 1.793241e+01 2.533023e-01 4.096919e-01 6.355827e-01 6.531940e-01 9.105580e-01 1.107388e+00 1.300713e+00 1.285189e+00 1.408608e+00 1.579983e+00 1.287918e+00 1.133413e+00 1.684804e-04
<GCONST> 7.148169e+01
<MIXTURE> 64 4.351215e-03
<MEAN> 25
 -3.500822e+00 -1.914296e+00 -5.372248e+00 3.207909e+00 3.947682e+00 -1.071848e-01 3.755933e+00 1.387148e+00 2.050631e+00 -6.292862e-01 -1.228944e+00 1.840396e+00 -8.960901e-02 3.017569e-01 3.957520e-01 5.013125e-01 3.260272e-01 3.641584e-01 4.304217e-01 1.799983e-01 2.016059e-01 3.398772e-01 2.387570e-01 9.625707e-02 -4.027713e-03
<VARIANCE> 25
 1.097613e+01 1.508853e+01 1.833277e+01 1.656515e+01 1.917505e+01 2.526678e+01 2.979865e+01 2.397391e+01 2.441908e+01 2.108984e+01 1.923486e+01 1.793241e+01 2.533023e-01 4.096919e-01 6.355827e-01 6.531940e-01 9.105580e-01 1.107388e+00 1.300713e+00 1.285189e+00 1.408608e+00 1.579983e+00 1.287918e+00 1.133413e+00 1.684804e-04
<GCONST> 7.148169e+01
<MIXTURE> 65 1.721197e-02
<MEAN> 25
 7.962015e+00 2.079236e+00 1.953762e+00 6.175366e-01 -5.317607e+00 -4.182980e+00 -5.770754e+00 -6.753886e+00 -3.812267e+00 -2.296751e+00 -5.347457e+00 -1.854815e+00 1.818139e-01 1.189675e-01 -1.162705e-02 1.501808e-01 -2.092940e-01 2.622710e-01 -8.955929e-02 -2.030441e-01 1.974918e-01 4.344182e-02 -3.552401e-02 -1.421611e-01 -4.780717e-03
<VARIANCE> 25
 1.023462e+01 1.901416e+01 2.660901e+01 3.637722e+01 3.932269e+01 5.914439e+01 5.860886e+01 5.860044e+01 5.528907e+01 5.774446e+01 5.763998e+01 5.074902e+01 5.572495e-01 9.420492e-01 1.634845e+00 1.844662e+00 2.062555e+00 2.214029e+00 2.329077e+00 3.004409e+00 2.502558e+00 2.511259e+00 2.391212e+00 2.109489e+00 4.337039e-04
<GCONST> 8.967312e+01
<MIXTURE> 66 1.191532e-02
<MEAN> 25
 6.681981e+00 -4.090623e+00 -5.623456e+00 -4.828032e+00 1.278425e+00 -5.087107e+00 -6.917140e+00 1.192095e+00 6.829157e-01 -2.051265e+00 -6.136534e+00 -3.473508e+00 -4.548117e-02 1.666935e+00 2.238414e+00 2.317575e+00 -1.249866e+00 -1.253225e+00 5.672830e-02 -5.471541e-01 -1.440825e-01 -1.939268e-01 -2.018333e-01 1.044380e+00 -6.378936e-02
<VARIANCE> 25
 8.930881e+00 2.236520e+01 2.705971e+01 3.306807e+01 3.850940e+01 5.344595e+01 5.607255e+01 4.539891e+01 5.410482e+01 6.675135e+01 3.701140e+01 3.642950e+01 1.283333e+00 2.444835e+00 2.359368e+00 2.469921e+00 4.200957e+00 4.306395e+00 4.370286e+00 4.843700e+00 4.248429e+00 4.992837e+00 3.898352e+00 3.260962e+00 1.469209e-03
<GCONST> 9.683881e+01
<MIXTURE> 67 1.559142e-02
<MEAN> 25
 8.971839e+00 1.975635e+00 -5.844606e+00 -7.857076e+00 4.147367e-01 4.230384e+00 -2.548648e+00 -2.849130e+00 -3.614701e+00 1.194779e+00 3.758113e-01 -1.370657e+00 -1.133394e+00 1.796970e+00 4.659044e-01 3.128739e+00 1.843907e+00 -6.082280e-01 1.598405e+00 9.668547e-02 4.209369e-01 2.113110e-01 -3.198259e-01 3.547671e-01 -1.172152e-01
<VARIANCE> 25
 9.967519e+00 3.235439e+01 2.868483e+01 5.002701e+01 4.235501e+01 5.011694e+01 7.497893e+01 5.020342e+01 5.670724e+01 5.625115e+01 4.743164e+01 3.888464e+01 2.510038e+00 2.825433e+00 4.133652e+00 3.926641e+00 4.482389e+00 3.751261e+00 4.373914e+00 4.196555e+00 4.752792e+00 3.906972e+00 4.258846e+00 3.368208e+00 3.082491e-03
<GCONST> 1.007542e+02
<MIXTURE> 68 1.485092e-02
<MEAN> 25
 -1.988397e+00 -1.886398e+00 -4.814092e+00 2.241601e+00 6.516184e+00 -9.675032e-01 2.141888e+00 1.459736e+00 2.237910e+00 2.460959e+00 1.004033e-01 9.993981e-01 2.655472e+00 4.881368e-01 6.403506e-01 -2.401667e+00 -2.331775e+00 -1.438466e+00 -2.334109e+00 -1.688967e+00 -1.583411e+00 -1.450279e+00 -1.730321e+00 -8.144650e-01 9.387638e-02
<VARIANCE> 25
 2.362356e+01 3.141972e+01 6.083891e+01 5.301746e+01 5.512162e+01 5.124072e+01 4.178368e+01 3.961248e+01 3.988669e+01 4.632343e+01 3.393155e+01 2.883452e+01 1.826030e+00 3.741001e+00 7.921872e+00 5.665626e+00 4.306178e+00 5.766756e+00 5.540697e+00 4.583843e+00 4.542624e+00 5.001478e+00 4.867703e+00 3.434053e+00 6.236744e-03
<GCONST> 1.034355e+02
<MIXTURE> 69 1.204884e-02
<MEAN> 25
 4.671325e+00 -4.217697e+00 -3.573023e+00 -3.635411e+00 -3.485427e+00 -7.843371e+00 -1.109683e+00 2.193790e+00 -3.142138e-01 -4.711657e+00 -5.679573e+00 9.516692e-01 1.671689e+00 -2.236252e+00 -1.333157e+00 -2.243462e+00 -5.250158e-01 -3.506278e-01 -4.763826e-01 6.242478e-01 -6.385803e-01 -1.450770e+00 -2.201710e+00 -1.764120e-01 6.251495e-02
<VARIANCE> 25
 8.840965e+00 2.184402e+01 2.681614e+01 2.595564e+01 4.270240e+01 3.592266e+01 4.914280e+01 3.164859e+01 4.022233e+01 3.812417e+01 3.102851e+01 2.454775e+01 3.572029e+00 2.920814e+00 3.347705e+00 3.707612e+00 5.784016e+00 5.021983e+00 7.098564e+00 6.082308e+00 5.903657e+00 5.879359e+00 4.345072e+00 3.702208e+00 2.438905e-03
<GCONST> 9.871812e+01
<MIXTURE> 70 1.329190e-02
<MEAN> 25
 6.340462e+00 -1.609000e+00 -3.262589e+00 -4.115716e+00 -3.381788e-02 1.264701e-01 -7.476775e+00 -4.488655e+00 3.189612e+00 3.523053e+00 -1.914522e-02 -3.906043e+00 1.942656e+00 -1.667424e+00 -2.511151e-01 -2.708883e+00 -1.511160e+00 1.478667e+00 -1.422670e+00 3.502083e-01 3.216290e-01 4.867078e-01 2.844978e-01 -1.285494e+00 5.802053e-02
<VARIANCE> 25
 1.280432e+01 2.017516e+01 2.384863e+01 4.189800e+01 2.837317e+01 3.698343e+01 4.114813e+01 3.616102e+01 7.410086e+01 2.804224e+01 3.603736e+01 2.405866e+01 2.812362e+00 3.595713e+00 4.713243e+00 4.830104e+00 4.527245e+00 5.913500e+00 5.542456e+00 6.621802e+00 4.919544e+00 4.958193e+00 5.350561e+00 3.701145e+00 1.983561e-03
<GCONST> 9.935979e+01
<MIXTURE> 71 1.406903e-02
<MEAN> 25
 6.363234e+00 5.142918e+00 4.151288e+00 3.094177e+00 -3.374034e+00 -3.383253e+00 -3.318193e+00 -6.557021e+00 -4.574958e+00 -2.503224e+00 -5.242047e+00 -3.227343e+00 -1.580631e+00 -6.904336e-01 -2.422252e-01 -1.763862e+00 1.137570e+00 -1.817706e-01 3.476385e-02 1.535785e+00 3.126932e-01 -1.721803e-01 6.777518e-01 1.822002e-01 4.107421e-02
<VARIANCE> 25
 1.892276e+01 2.603245e+01 2.573441e+01 4.453050e+01 4.094286e+01 4.042425e+01 4.355751e+01 4.217469e+01 3.939678e+01 4.374211e+01 3.613085e+01 3.422419e+01 1.771228e+00 3.017259e+00 5.372329e+00 4.873438e+00 4.748713e+00 4.816228e+00 4.851131e+00 5.395750e+00 4.301776e+00 4.059013e+00 3.622455e+00 3.313719e+00 1.416327e-03
<GCONST> 9.881151e+01
<MIXTURE> 72 8.134747e-03
<MEAN> 25
 3.925715e+00 -4.112647e+00 5.344562e+00 -9.951501e-01 -1.110546e+01 -9.401191e+00 -3.206175e+00 2.504024e+00 -5.248819e+00 -2.152979e+00 -1.061678e+00 1.075436e+00 8.664243e-01 -8.063132e-01 -2.525021e+00 4.448847e-01 2.013646e+00 -5.633558e-01 -1.435446e+00 1.468077e+00 1.982296e+00 -2.811722e-01 -1.479300e+00 2.302346e-01 -5.100304e-03
<VARIANCE> 25
 9.632160e+00 1.846147e+01 2.947235e+01 4.821217e+01 3.176828e+01 3.040985e+01 4.084598e+01 3.494688e+01 3.975134e+01 3.723050e+01 3.978992e+01 2.689553e+01 4.100509e-01 9.112535e-01 1.838402e+00 1.342773e+00 2.045173e+00 2.146808e+00 2.849566e+00 2.488745e+00 2.584780e+00 3.372196e+00 2.129331e+00 2.150010e+00 4.874152e-04
<GCONST> 8.621672e+01
<MIXTURE> 73 1.213625e-02
<MEAN> 25
 -5.551149e+00 -7.457447e-01 -1.323525e+00 5.026261e+00 4.382331e+00 2.350124e+00 5.525475e+00 3.400552e+00 4.289395e+00 3.407236e+00 4.173414e+00 2.926849e+00 8.018628e-01 -1.030075e+00 -8.612294e-01 -2.618293e+00 -1.261981e+00 -1.767358e+00 -9.508290e-01 -5.033326e-01 -9.151205e-01 -7.034435e-01 -1.081262e+00 -2.716332e-01 1.540786e-01
<VARIANCE> 25
 1.324278e+01 1.339479e+01 1.503512e+01 2.320966e+01 2.449491e+01 2.445405e+01 2.016370e+01 1.996537e+01 1.804661e+01 1.886518e+01 2.314558e+01 1.610382e+01 3.992258e+00 3.051943e+00 6.411971e+00 4.681105e+00 6.073117e+00 4.523457e+00 4.424827e+00 4.197421e+00 3.850078e+00 4.180004e+00 3.536521e+00 2.646570e+00 4.291217e-03
<GCONST> 9.282480e+01
<MIXTURE> 74 1.756491e-02
<MEAN> 25
 3.792473e+00 -1.983793e+00 6.614376e+00 -1.651883e+00 -7.971984e+00 -7.760980e+00 -3.259605e+00 1.674513e+00 -3.906226e+00 -3.995934e+00 -1.155263e+00 1.037670e+00 2.724125e-02 2.233178e+00 -4.526214e-01 1.762258e+00 1.393441e+00 2.840005e-01 2.241080e-01 -1.317665e+00 2.717843e-01 -1.576256e-01 3.070628e-02 -3.123217e-01 -7.608312e-02
<VARIANCE> 25
 1.216865e+01 2.038188e+01 4.125974e+01 3.509522e+01 3.532624e+01 3.983076e+01 4.483767e+01 4.603313e+01 4.280910e+01 4.541729e+01 3.563613e+01 3.322554e+01 2.221252e+00 2.362266e+00 4.288894e+00 2.261914e+00 3.736352e+00 3.350679e+00 4.450304e+00 3.988884e+00 3.639869e+00 4.317928e+00 3.510986e+00 2.834923e+00 1.498411e-03
<GCONST> 9.615235e+01
<MIXTURE> 75 9.711651e-03
<MEAN> 25
 2.656459e+00 -1.328494e+00 1.106959e+01 1.559129e+00 -1.190017e+01 -6.907969e+00 -4.498750e+00 -9.945146e-01 -4.838609e+00 -4.101435e+00 3.484047e+00 -2.903217e-01 1.669324e+00 -1.680880e+00 1.388289e-01 -1.551614e-01 -2.411183e+00 -5.813893e-01 -1.213237e+00 9.902085e-01 -4.130536e-01 -3.604765e-01 1.194475e+00 -5.514767e-01 3.540380e-02
<VARIANCE> 25
 1.037751e+01 1.653300e+01 2.799729e+01 2.610292e+01 2.616573e+01 3.706757e+01 2.955888e+01 3.338658e+01 3.411878e+01 3.198868e+01 1.987569e+01 2.242629e+01 2.282674e+00 1.831642e+00 4.018797e+00 2.411301e+00 3.618225e+00 4.154280e+00 4.552251e+00 3.362202e+00 4.544824e+00 3.123265e+00 3.044466e+00 2.517513e+00 1.540517e-03
<GCONST> 9.190665e+01
<MIXTURE> 76 1.052359e-02
<MEAN> 25
 -6.375695e+00 -7.343737e-01 -3.476819e+00 4.086481e+00 4.602716e+00 1.801093e+00 4.727027e+00 1.469618e+00 2.764248e+00 8.556224e-01 1.194425e+00 2.219286e+00 -1.282082e-01 -4.826686e-01 -3.564979e-01 -7.665155e-01 -5.101885e-01 -8.451026e-01 -6.107628e-01 -2.555673e-01 -3.171435e-01 -4.320178e-01 -2.488648e-01 -1.832128e-01 1.641476e-02
<VARIANCE> 25
 4.621494e+01 3.032685e+01 3.244373e+01 2.462687e+01 2.974217e+01 3.287926e+01 2.782354e+01 2.935557e+01 2.921388e+01 2.430299e+01 2.720943e+01 1.843760e+01 1.012445e+00 1.019477e+00 1.331457e+00 1.175430e+00 1.382918e+00 1.682429e+00 1.559732e+00 1.743918e+00 1.685395e+00 1.574763e+00 1.428743e+00 1.229532e+00 1.245377e-03
<GCONST> 8.342545e+01
<MIXTURE> 77 1.244626e-02
<MEAN> 25
 -4.699429e-01 8.465536e+00 1.250036e+01 -1.151191e+01 -6.950488e+00 9.325210e-01 -9.272058e+00 -7.199520e+00 -3.288971e+00 -1.868324e-01 -4.654307e+00 -1.455097e+00 6.777716e-02 1.358835e-01 6.677536e-02 2.535805e-01 -5.556790e-02 8.960348e-02 -4.276394e-02 -1.024434e-01 6.789165e-02 -2.763798e-02 2.559845e-02 1.172991e-01 -9.646856e-03
<VARIANCE> 25
 1.030926e+01 2.077573e+01 2.728048e+01 4.178350e+01 3.292760e+01 3.344580e+01 3.621581e+01 3.183784e+01 3.597087e+01 3.310724e+01 3.718022e+01 3.453572e+01 2.947783e-01 7.676023e-01 6.420380e-01 1.072599e+00 1.319105e+00 9.879440e-01 1.251746e+00 1.189475e+00 1.052989e+00 1.088311e+00 9.583399e-01 9.103700e-01 5.411694e-04
<GCONST> 7.792891e+01
<MIXTURE> 78 9.702551e-03
<MEAN> 25
 -1.141981e+01 3.271929e+00 -1.821510e+00 3.034600e+00 4.553852e+00 -2.317101e+00 2.984637e+00 1.038093e+00 3.869186e+00 -2.129805e-02 -1.641901e+00 2.110041e+00 2.229165e+00 8.527810e-02 -2.221559e-03 4.668829e-01 3.518435e-01 -4.301605e-01 -5.751510e-01 -3.274313e-01 8.166909e-02 4.619651e-01 -3.337495e-01 -3.610208e-01 -5.229982e-02
<VARIANCE> 25
 3.990330e+01 3.203768e+01 2.581660e+01 2.724934e+01 3.367781e+01 3.758050e+01 2.887183e+01 3.510307e+01 2.969429e+01 2.826237e+01 2.553453e+01 1.646664e+01 4.138595e+00 2.319114e+00 2.502724e+00 2.397628e+00 2.747689e+00 4.389588e+00 3.279096e+00 3.048494e+00 3.116799e+00 2.652263e+00 2.074473e+00 1.675503e+00 3.815748e-03
<GCONST> 9.312971e+01
<MIXTURE> 79 1.156824e-02
<MEAN> 25
 2.473928e+00 6.717200e-01 9.724808e+00 -5.131934e+00 -1.204189e+01 -7.201582e-01 -2.464036e+00 -6.804578e+00 -6.908282e+00 7.137950e-01 -1.146904e+00 -3.893937e+00 1.131760e+00 -5.765404e-01 -1.275025e+00 2.037833e+00 -2.894098e-01 -1.416846e+00 8.446101e-01 9.758057e-01 -1.134208e+00 -4.878605e-01 7.848511e-01 2.773409e-01 -2.910836e-02
<VARIANCE> 25
 1.136074e+01 2.051315e+01 2.993291e+01 4.341197e+01 2.903642e+01 3.791736e+01 3.503064e+01 3.161448e+01 3.711042e+01 3.279842e+01 4.821976e+01 2.545617e+01 7.587638e-01 1.749243e+00 1.552219e+00 1.817159e+00 3.285265e+00 2.537536e+00 2.764052e+00 3.354595e+00 3.764714e+00 2.178647e+00 2.398826e+00 1.858760e+00 1.128316e-03
<GCONST> 8.927863e+01
<MIXTURE> 80 7.550998e-03
<MEAN> 25
 -1.463141e+01 3.987803e+00 6.726102e-01 2.879400e+00 2.465408e+00 1.420014e+00 6.346821e+00 2.506705e+00 2.767345e+00 2.308623e+00 4.761907e+00 1.181129e+00 4.275651e+00 -4.898685e-03 1.623504e+00 -1.120425e+00 -2.845959e+00 -2.770085e+00 -2.326255e+00 -2.010938e+00 -1.990426e+00 -1.661892e+00 -1.630703e+00 -5.975873e-01 -4.453563e-02
<VARIANCE> 25
 2.089334e+01 1.969585e+01 3.417526e+01 3.445646e+01 2.998687e+01 2.897450e+01 2.834410e+01 2.835633e+01 2.686059e+01 2.905215e+01 2.756636e+01 1.795329e+01 2.351987e+00 2.656794e+00 2.673864e+00 4.109799e+00 3.577884e+00 2.688990e+00 3.002298e+00 3.197449e+00 2.767851e+00 2.747796e+00 2.804945e+00 2.131685e+00 1.510584e-03
<GCONST> 9.143539e+01
<MIXTURE> 81 8.025434e-03
<MEAN> 25
 -1.094118e+00 3.801562e+00 1.050886e+01 -1.385621e+01 -8.612006e+00 -1.252241e+00 -7.007734e+00 -8.384408e+00 -3.300016e+00 -1.147370e-01 -7.356377e+00 -2.149166e+00 1.359198e-01 -5.498731e-01 -5.292326e-02 -4.557284e-01 -6.837840e-01 3.918283e-01 4.651692e-01 -1.504066e-01 -2.658556e-01 2.152735e-01 -4.010507e-01 -1.087640e-01 1.177406e-02
<VARIANCE> 25
 9.326392e+00 3.076729e+01 2.532159e+01 3.583028e+01 3.324441e+01 2.855141e+01 4.222570e+01 2.628852e+01 4.228874e+01 3.015679e+01 2.445905e+01 2.887309e+01 7.148510e-01 2.106664e+00 1.447261e+00 2.736528e+00 2.924210e+00 1.984173e+00 3.224927e+00 2.946734e+00 2.410307e+00 2.460003e+00 2.228809e+00 1.917370e+00 1.092940e-03
<GCONST> 8.820435e+01
<MIXTURE> 82 8.213053e-03
<MEAN> 25
 -9.966324e+00 -3.900033e+00 1.639971e+00 -2.970137e+00 3.113964e+00 6.713026e-01 1.995122e+00 9.367327e-01 2.978116e+00 1.727230e+00 1.740646e+00 3.084101e+00 -1.314604e+00 -1.248843e-01 2.903163e-01 -2.603626e+00 -1.105310e+00 -1.265092e+00 -1.012874e+00 -8.699284e-01 -3.166203e-01 -4.781829e-01 -3.168243e-01 -9.464058e-02 1.783966e-01
<VARIANCE> 25
 1.802893e+01 2.496449e+01 3.238113e+01 3.089002e+01 3.301859e+01 3.229135e+01 3.178005e+01 3.298876e+01 3.086437e+01 2.513333e+01 3.079128e+01 1.751040e+01 3.755745e+00 3.048746e+00 3.317916e+00 3.270318e+00 3.561656e+00 3.287437e+00 2.946188e+00 3.015803e+00 2.794603e+00 2.491103e+00 2.449246e+00 1.866457e+00 3.435098e-03
<GCONST> 9.308855e+01
<MIXTURE> 83 1.167529e-02
<MEAN> 25
 -2.028809e+01 5.975418e+00 -1.814921e-01 -1.642184e+00 8.516275e+00 -9.235385e-01 6.356371e+00 2.033597e+00 3.147430e+00 -3.655345e-01 1.672927e+00 2.821910e+00 -2.526674e-01 -1.870554e-01 -5.263752e-02 -3.484160e-01 1.117920e-02 2.212811e-01 2.161789e-01 2.090436e-01 -3.122184e-01 -1.903058e-01 1.108762e-01 -2.383931e-01 4.720852e-03
<VARIANCE> 25
 6.262802e+00 1.185969e+01 2.063945e+01 1.904050e+01 2.180504e+01 2.283602e+01 1.957328e+01 1.948657e+01 2.096741e+01 2.421781e+01 2.036824e+01 1.125565e+01 1.008457e+00 8.757938e-01 8.425489e-01 8.714831e-01 1.463966e+00 1.355699e+00 1.436696e+00 1.102479e+00 1.554081e+00 2.029072e+00 1.400590e+00 9.057069e-01 8.490360e-04
<GCONST> 7.507494e+01
<MIXTURE> 84 1.066614e-02
<MEAN> 25
 1.119756e+00 8.774180e+00 7.112875e+00 7.590522e+00 3.109073e+00 -9.082336e-01 -1.584383e+00 -4.201609e+00 -4.230318e+00 -3.021034e+00 -2.208246e+00 -1.640316e+00 -1.718003e+00 -1.114408e+00 -1.272143e+00 1.262311e+00 2.283499e+00 1.423280e+00 1.431209e+00 1.251426e+00 1.159762e+00 4.673143e-01 4.304921e-01 3.976457e-01 -7.131554e-02
<VARIANCE> 25
 2.275183e+01 1.920905e+01 2.140039e+01 2.718841e+01 3.051229e+01 2.739716e+01 2.699613e+01 2.774798e+01 2.502290e+01 2.545054e+01 2.405870e+01 2.380822e+01 2.143853e+00 2.568300e+00 3.809656e+00 3.195469e+00 3.230577e+00 3.421209e+00 3.178775e+00 3.342422e+00 3.373969e+00 3.251326e+00 3.473965e+00 2.722202e+00 3.403896e-03
<GCONST> 9.247766e+01
<MIXTURE> 85 7.591393e-03
<MEAN> 25
 -3.109305e+00 7.888307e+00 5.678607e+00 1.303538e+00 -3.426553e+00 -5.316589e+00 -2.976949e+00 -6.116016e+00 -3.536634e+00 -3.154479e+00 -4.879895e-01 -1.888652e+00 3.936037e+00 3.296369e-01 1.753275e+00 -2.086236e+00 -3.399215e+00 -2.577512e+00 -2.869963e+00 -2.342247e+00 -2.237477e+00 -1.248704e+00 -2.288868e+00 -6.089261e-01 9.027452e-03
<VARIANCE> 25
 4.234208e+01 2.332537e+01 3.663298e+01 3.804712e+01 4.026148e+01 4.097422e+01 3.197511e+01 2.773373e+01 2.656916e+01 2.611750e+01 2.614187e+01 2.050584e+01 2.699834e+00 4.306191e+00 4.079566e+00 5.166636e+00 4.467240e+00 3.915463e+00 3.878098e+00 3.968230e+00 3.862323e+00 4.090917e+00 3.953403e+00 3.478791e+00 5.423534e-03
<GCONST> 9.836567e+01
<MIXTURE> 86 1.273941e-02
<MEAN> 25
 -4.495440e+00 -9.978701e-01 -1.623061e+00 6.465732e+00 5.369699e+00 4.382974e+00 5.934768e+00 4.499817e+00 4.642734e+00 4.130533e+00 4.956934e+00 2.275293e+00 -8.344590e-03 -1.144750e-02 -7.350025e-02 -4.786285e-02 -8.505288e-02 -1.899960e-01 -2.909287e-01 -3.742312e-01 -3.512826e-01 -2.580908e-01 -2.300810e-01 -1.247616e-01 -8.806040e-04
<VARIANCE> 25
 9.876174e+00 5.790637e+00 1.679668e+01 1.174087e+01 1.607287e+01 1.514664e+01 1.712097e+01 1.226244e+01 1.258241e+01 1.367603e+01 1.499597e+01 1.384923e+01 9.558725e-02 1.809588e-01 3.279879e-01 4.680016e-01 6.089393e-01 7.376928e-01 7.192793e-01 7.304282e-01 8.320113e-01 9.946852e-01 8.700115e-01 8.490840e-01 5.400509e-05
<GCONST> 5.890958e+01
<MIXTURE> 87 1.100681e-02
<MEAN> 25
 -3.269168e+00 4.622288e+00 3.288560e+00 6.935215e+00 5.556303e+00 8.288742e-01 1.639570e+00 -1.058321e+00 -4.075945e-01 -8.569055e-01 -8.300047e-01 3.185601e-02 -2.092621e+00 -2.741142e+00 -2.065752e+00 -2.202128e+00 -8.461226e-03 -1.924451e-01 5.740144e-01 1.278266e+00 1.406512e+00 1.042266e+00 9.102398e-01 9.682618e-01 1.025746e-01
<VARIANCE> 25
 3.772193e+01 2.932386e+01 3.011035e+01 3.349696e+01 2.819753e+01 3.171258e+01 2.836942e+01 2.774645e+01 2.774811e+01 2.468930e+01 2.457109e+01 2.290627e+01 4.035402e+00 2.813652e+00 3.988419e+00 3.709862e+00 4.837217e+00 4.604585e+00 4.181678e+00 3.957367e+00 3.460802e+00 3.337168e+00 3.381813e+00 2.739889e+00 5.034493e-03
<GCONST> 9.661395e+01
<MIXTURE> 88 1.256585e-02
<MEAN> 25
 -3.857658e+00 -7.477635e-01 -1.632726e+00 5.163189e+00 4.852414e+00 3.375667e+00 4.833238e+00 3.168509e+00 3.297810e+00 1.967833e+00 2.965922e+00 2.249639e+00 3.152528e-02 1.193092e-01 -3.221874e-03 4.591886e-01 2.783652e-01 2.483429e-01 1.425245e-01 -2.606276e-01 -1.534303e-01 -1.178129e-01 -1.615046e-01 -2.882886e-02 -8.577248e-03
<VARIANCE> 25
 1.066295e+01 9.388022e+00 1.775242e+01 1.558803e+01 1.873043e+01 1.900987e+01 2.039728e+01 1.817751e+01 1.708074e+01 1.934762e+01 2.046919e+01 1.540117e+01 1.224485e+00 1.598521e+00 2.601570e+00 2.129221e+00 2.616016e+00 2.533708e+00 2.788188e+00 2.442563e+00 2.492484e+00 2.587137e+00 2.122633e+00 1.838714e+00 1.403168e-03
<GCONST> 8.237052e+01
<MIXTURE> 89 9.333527e-03
<MEAN> 25
 5.618327e+00 -8.247769e+00 -1.825686e+00 -4.593013e+00 -2.469442e+00 -4.803499e+00 -5.585152e+00 6.588426e+00 7.032432e+00 2.214347e-01 -7.465146e+00 -2.606026e+00 -5.589754e-01 1.193410e-01 1.973563e+00 8.119119e-01 -1.671057e+00 -1.698872e+00 8.249890e-01 1.372394e+00 -9.490625e-01 -1.235030e+00 4.715183e-01 1.622027e+00 -2.770368e-03
<VARIANCE> 25
 6.946018e+00 2.274711e+01 2.914950e+01 2.570247e+01 2.819625e+01 3.391898e+01 4.389067e+01 4.291046e+01 5.184245e+01 4.727592e+01 2.983470e+01 2.533012e+01 2.679797e-01 7.295583e-01 1.114717e+00 9.934405e-01 1.484473e+00 1.645639e+00 2.213189e+00 1.832028e+00 2.213721e+00 1.553348e+00 2.042908e+00 1.156143e+00 2.804459e-04
<GCONST> 8.114275e+01
<MIXTURE> 90 7.114505e-03
<MEAN> 25
 2.448373e+00 -9.720314e+00 -4.754653e+00 -3.976828e+00 -3.382143e+00 -1.812557e+00 3.365817e+00 1.180809e+00 -7.531355e+00 -1.021357e+01 -3.428782e+00 -7.388587e-01 -1.635912e-01 9.088461e-01 1.168587e+00 -8.536195e-01 -1.612785e+00 -2.116604e-01 6.449134e-01 -2.098825e-01 -1.685829e-01 7.372200e-01 1.828897e-01 -5.500100e-01 -1.114518e-02
<VARIANCE> 25
 8.491234e+00 1.781585e+01 1.984606e+01 2.803078e+01 3.685824e+01 3.217168e+01 3.852769e+01 3.641186e+01 3.521401e+01 2.772174e+01 2.699921e+01 2.613369e+01 2.237344e-01 6.127000e-01 7.866038e-01 1.043018e+00 1.469799e+00 1.591565e+00 1.780378e+00 1.654218e+00 1.810612e+00 1.679219e+00 1.495075e+00 1.308250e+00 2.149734e-04
<GCONST> 7.813725e+01
<MIXTURE> 91 7.852945e-03
<MEAN> 25
 6.406036e+00 -7.466193e+00 -8.585217e+00 -5.034749e+00 3.992850e+00 -6.026023e-02 -2.006358e+00 6.764842e-01 7.044264e-01 -2.923228e+00 -4.890625e+00 -5.118740e+00 2.506685e-01 9.966248e-01 1.769150e-01 4.600314e-01 -5.820243e-02 -5.721334e-01 -3.800188e-01 -1.138154e-01 -9.145334e-02 4.637585e-01 -1.188783e-01 2.133647e-01 -3.507723e-02
<VARIANCE> 25
 1.016172e+01 2.457302e+01 1.978760e+01 4.126260e+01 3.487603e+01 5.501111e+01 5.629513e+01 3.942496e+01 5.168843e+01 6.342489e+01 3.810579e+01 4.122520e+01 4.512568e-01 8.805974e-01 1.137220e+00 1.388405e+00 2.204347e+00 2.365057e+00 2.366941e+00 2.377944e+00 2.237452e+00 2.203474e+00 1.990059e+00 1.797577e+00 5.856908e-04
<GCONST> 8.723125e+01
<MIXTURE> 92 7.852945e-03
<MEAN> 25
 6.406036e+00 -7.466193e+00 -8.585217e+00 -5.034749e+00 3.992850e+00 -6.026023e-02 -2.006358e+00 6.764842e-01 7.044264e-01 -2.923228e+00 -4.890625e+00 -5.118740e+00 2.506685e-01 9.966248e-01 1.769150e-01 4.600314e-01 -5.820243e-02 -5.721334e-01 -3.800188e-01 -1.138154e-01 -9.145334e-02 4.637585e-01 -1.188783e-01 2.133647e-01 -3.507723e-02
<VARIANCE> 25
 1.016172e+01 2.457302e+01 1.978760e+01 4.126260e+01 3.487603e+01 5.501111e+01 5.629513e+01 3.942496e+01 5.168843e+01 6.342489e+01 3.810579e+01 4.122520e+01 4.512568e-01 8.805974e-01 1.137220e+00 1.388405e+00 2.204347e+00 2.365057e+00 2.366941e+00 2.377944e+00 2.237452e+00 2.203474e+00 1.990059e+00 1.797577e+00 5.856908e-04
<GCONST> 8.723125e+01
<MIXTURE> 93 6.122769e-03
<MEAN> 25
 -6.813196e+00 -9.566001e-01 -2.415701e+00 5.798256e+00 5.913136e+00 3.923644e+00 6.135851e+00 3.608858e+00 4.113390e+00 2.510932e+00 1.815830e+00 3.696046e+00 -6.154365e-02 -1.539286e-01 -2.574059e-01 -3.307241e-01 -3.335901e-01 -2.851671e-01 -2.176849e-01 -1.741045e-01 -1.668660e-01 -1.496439e-01 -1.032472e-01 -3.535106e-02 -1.986659e-06
<VARIANCE> 25
 9.190192e+00 6.034389e+00 8.300826e+00 1.135673e+01 1.149267e+01 1.596925e+01 1.535994e+01 1.642640e+01 1.476526e+01 1.452445e+01 1.676969e+01 1.349875e+01 8.269635e-02 1.535637e-01 2.634375e-01 3.806909e-01 4.973290e-01 6.417915e-01 7.784156e-01 8.862530e-01 9.188072e-01 8.780737e-01 8.933190e-01 9.168788e-01 1.002678e-06
<GCONST> 5.363572e+01
<MIXTURE> 94 6.122769e-03
<MEAN> 25
 -6.813196e+00 -9.566001e-01 -2.415701e+00 5.798256e+00 5.913136e+00 3.923644e+00 6.135851e+00 3.608858e+00 4.113390e+00 2.510932e+00 1.815830e+00 3.696046e+00 -6.154365e-02 -1.539286e-01 -2.574059e-01 -3.307241e-01 -3.335901e-01 -2.851671e-01 -2.176849e-01 -1.741045e-01 -1.668660e-01 -1.496439e-01 -1.032472e-01 -3.535106e-02 -1.986659e-06
<VARIANCE> 25
 9.190192e+00 6.034389e+00 8.300826e+00 1.135673e+01 1.149267e+01 1.596925e+01 1.535994e+01 1.642640e+01 1.476526e+01 1.452445e+01 1.676969e+01 1.349875e+01 8.269635e-02 1.535637e-01 2.634375e-01 3.806909e-01 4.973290e-01 6.417915e-01 7.784156e-01 8.862530e-01 9.188072e-01 8.780737e-01 8.933190e-01 9.168788e-01 1.002678e-06
<GCONST> 5.363572e+01
<MIXTURE> 95 5.258835e-03
<MEAN> 25
 -5.134101e+00 -6.141981e-01 -2.840721e+00 5.058066e+00 4.734766e+00 2.704657e+00 4.629388e+00 1.351077e+00 1.579490e+00 5.034420e-01 7.319998e-01 1.946282e+00 1.753468e-01 2.151336e-01 4.968229e-02 -7.262773e-02 -3.143504e-01 -7.407181e-01 -1.053249e+00 -1.181341e+00 -1.359831e+00 -1.030231e+00 -7.334471e-01 -3.233288e-01 -1.536992e-05
<VARIANCE> 25
 1.319231e+01 5.990659e+00 1.712927e+01 1.191320e+01 1.474713e+01 1.730129e+01 1.851579e+01 1.648281e+01 1.906990e+01 1.703633e+01 2.022523e+01 1.646607e+01 2.000586e-01 3.128476e-01 4.256656e-01 5.737361e-01 7.569469e-01 8.389054e-01 8.418432e-01 9.232688e-01 9.950179e-01 1.036403e+00 1.167784e+00 1.026145e+00 3.952305e-05
<GCONST> 6.367570e+01
<MIXTURE> 96 7.034694e-03
<MEAN> 25
 -4.517080e+00 -2.156945e-01 -3.152060e+00 5.161825e+00 4.453812e+00 2.085262e+00 4.369224e+00 1.731251e+00 2.127208e+00 1.025244e+00 8.330168e-01 2.439732e+00 -2.209758e-02 1.192342e-01 1.946974e-01 4.172380e-01 5.226737e-01 4.368446e-01 2.973654e-01 -6.200567e-02 -5.457620e-01 -6.887046e-01 -6.152798e-01 -3.507709e-01 -5.260677e-05
<VARIANCE> 25
 1.307914e+01 9.472067e+00 1.945082e+01 1.316430e+01 1.686180e+01 1.909385e+01 2.281834e+01 1.782023e+01 1.767678e+01 1.556963e+01 1.982583e+01 1.522291e+01 1.143208e-01 2.142379e-01 2.922621e-01 3.658796e-01 4.577283e-01 6.803620e-01 8.819873e-01 9.744620e-01 9.848333e-01 8.300440e-01 8.525731e-01 8.836731e-01 1.075471e-06
<GCONST> 5.793087e+01
<MIXTURE> 97 7.034694e-03
<MEAN> 25
 -4.517080e+00 -2.156945e-01 -3.152060e+00 5.161825e+00 4.453812e+00 2.085262e+00 4.369224e+00 1.731251e+00 2.127208e+00 1.025244e+00 8.330168e-01 2.439732e+00 -2.209758e-02 1.192342e-01 1.946974e-01 4.172380e-01 5.226737e-01 4.368446e-01 2.973654e-01 -6.200567e-02 -5.457620e-01 -6.887046e-01 -6.152798e-01 -3.507709e-01 -5.260677e-05
<VARIANCE> 25
 1.307914e+01 9.472067e+00 1.945082e+01 1.316430e+01 1.686180e+01 1.909385e+01 2.281834e+01 1.782023e+01 1.767678e+01 1.556963e+01 1.982583e+01 1.522291e+01 1.143208e-01 2.142379e-01 2.922621e-01 3.658796e-01 4.577283e-01 6.803620e-01 8.819873e-01 9.744620e-01 9.848333e-01 8.300440e-01 8.525731e-01 8.836731e-01 1.075471e-06
<GCONST> 5.793087e+01
<MIXTURE> 98 9.917808e-03
<MEAN> 25
 -1.056273e+00 1.227360e+00 -5.360879e-01 3.622912e+00 4.659253e+00 2.200787e+00 3.181782e+00 1.756436e+00 8.738338e-01 -1.653175e-01 6.418507e-01 4.403720e-01 -1.472628e+00 -1.201086e+00 -1.434358e+00 2.446531e-01 8.290889e-01 5.994148e-01 1.226467e+00 1.100591e+00 1.679492e+00 1.306345e+00 1.062278e+00 7.102686e-01 -3.665334e-02
<VARIANCE> 25
 1.348208e+01 1.723321e+01 3.452137e+01 3.006225e+01 3.797357e+01 3.084354e+01 3.350031e+01 2.860009e+01 2.680717e+01 3.203635e+01 2.418686e+01 2.034639e+01 1.575296e+00 1.574752e+00 2.551288e+00 1.988941e+00 2.839904e+00 2.792488e+00 2.673817e+00 2.799565e+00 2.142271e+00 2.711782e+00 2.558678e+00 1.902052e+00 1.966669e-03
<GCONST> 8.895189e+01
<MIXTURE> 99 6.696178e-03
<MEAN> 25
 -6.372318e+00 1.061141e+01 2.968455e+00 3.851885e+00 3.302788e+00 -7.293787e+00 -1.008317e+00 -5.768055e+00 -2.661106e-01 -1.842987e+00 -2.498189e+00 1.437706e-01 4.663394e-01 -5.197800e-01 -2.983299e-02 -1.424771e-01 -1.061114e+00 -4.608260e-01 -2.813439e-01 -3.701364e-01 3.718441e-01 -1.994378e-01 5.943494e-01 1.313899e-01 7.822960e-03
<VARIANCE> 25
 2.602659e+01 1.922945e+01 6.266698e+01 2.481662e+01 3.928663e+01 3.674369e+01 2.228138e+01 2.674066e+01 4.457861e+01 2.841083e+01 2.030242e+01 2.293816e+01 1.841497e+00 1.621074e+00 1.505269e+00 1.584515e+00 2.638762e+00 2.882637e+00 1.238377e+00 1.469835e+00 1.871276e+00 1.646138e+00 1.741784e+00 1.009201e+00 1.163606e-03
<GCONST> 8.598796e+01
<MIXTURE> 100 4.498084e-03
<MEAN> 25
 -1.582074e+00 6.291098e+00 1.030094e+01 -7.415712e+00 -1.075175e+01 -4.990438e+00 -4.976399e+00 -9.988917e+00 -4.666759e+00 -8.262405e-01 -2.690755e+00 -2.733056e+00 2.900587e+00 -1.256636e+00 1.280767e+00 -2.158867e+00 -3.417639e+00 -7.737246e-01 -1.186475e+00 -8.272443e-01 -1.498327e+00 3.475410e-01 -1.618886e+00 -2.906691e-01 1.952516e-03
<VARIANCE> 25
 1.354664e+01 2.121878e+01 2.234419e+01 2.646080e+01 2.294454e+01 2.436399e+01 2.902478e+01 2.158457e+01 2.762819e+01 2.255927e+01 2.245684e+01 2.124163e+01 1.818994e+00 3.922199e+00 2.936615e+00 4.335033e+00 4.149474e+00 4.512430e+00 4.102577e+00 4.320574e+00 4.196945e+00 3.863846e+00 4.036755e+00 3.200475e+00 1.661330e-03
<GCONST> 9.261739e+01
<MIXTURE> 101 6.007792e-03
<MEAN> 25
 8.039905e+00 -4.017664e+00 -6.325750e+00 -5.768908e+00 -3.837252e-01 -1.393413e+00 -1.056736e+01 -1.508476e+00 1.274797e+00 3.232818e+00 -1.978581e+00 -4.770539e+00 6.343991e-01 6.612498e-01 -1.560763e+00 -1.786607e+00 9.763483e-01 2.298942e+00 4.491197e-01 -1.598912e+00 -1.117704e+00 1.075008e+00 1.337143e+00 -4.422718e-01 -5.264162e-03
<VARIANCE> 25
 8.264661e+00 1.685165e+01 2.707389e+01 4.723547e+01 4.292237e+01 3.217935e+01 3.398406e+01 3.509178e+01 3.585130e+01 4.146146e+01 4.736452e+01 2.263510e+01 2.794683e-01 6.066797e-01 1.140192e+00 1.599550e+00 1.576756e+00 1.915101e+00 2.348501e+00 1.923446e+00 2.218282e+00 2.130634e+00 1.626575e+00 1.799382e+00 3.095929e-04
<GCONST> 8.261930e+01
<MIXTURE> 102 6.007792e-03
<MEAN> 25
 8.039905e+00 -4.017664e+00 -6.325750e+00 -5.768908e+00 -3.837252e-01 -1.393413e+00 -1.056736e+01 -1.508476e+00 1.274797e+00 3.232818e+00 -1.978581e+00 -4.770539e+00 6.343991e-01 6.612498e-01 -1.560763e+00 -1.786607e+00 9.763483e-01 2.298942e+00 4.491197e-01 -1.598912e+00 -1.117704e+00 1.075008e+00 1.337143e+00 -4.422718e-01 -5.264162e-03
<VARIANCE> 25
 8.264661e+00 1.685165e+01 2.707389e+01 4.723547e+01 4.292237e+01 3.217935e+01 3.398406e+01 3.509178e+01 3.585130e+01 4.146146e+01 4.736452e+01 2.263510e+01 2.794683e-01 6.066797e-01 1.140192e+00 1.599550e+00 1.576756e+00 1.915101e+00 2.348501e+00 1.923446e+00 2.218282e+00 2.130634e+00 1.626575e+00 1.799382e+00 3.095929e-04
<GCONST> 8.261930e+01
<MIXTURE> 103 5.694618e-03
<MEAN> 25
 3.366752e+00 -9.478149e+00 -6.134945e+00 -3.088320e+00 -1.329813e+00 -1.970092e+00 2.441116e+00 2.515759e+00 -4.612723e+00 -9.257286e+00 -5.062581e+00 3.613973e-01 -1.577460e-01 -1.488362e+00 -9.803414e-01 3.757493e-01 1.213899e+00 1.020200e+00 1.587284e-01 -2.673134e-01 -7.812172e-01 -9.466926e-01 -3.534949e-02 1.200537e-01 2.694180e-02
<VARIANCE> 25
 1.033766e+01 2.034461e+01 2.291117e+01 3.169289e+01 4.807148e+01 3.500973e+01 4.641024e+01 3.668749e+01 4.211635e+01 2.932141e+01 3.005836e+01 2.640669e+01 6.437169e-01 1.252471e+00 1.539796e+00 1.939982e+00 2.926342e+00 2.410364e+00 2.890469e+00 2.576626e+00 2.563153e+00 2.523913e+00 2.097167e+00 2.016557e+00 8.073470e-04
<GCONST> 8.757468e+01
<MIXTURE> 104 5.694618e-03
<MEAN> 25
 3.366752e+00 -9.478149e+00 -6.134945e+00 -3.088320e+00 -1.329813e+00 -1.970092e+00 2.441116e+00 2.515759e+00 -4.612723e+00 -9.257286e+00 -5.062581e+00 3.613973e-01 -1.577460e-01 -1.488362e+00 -9.803414e-01 3.757493e-01 1.213899e+00 1.020200e+00 1.587284e-01 -2.673134e-01 -7.812172e-01 -9.466926e-01 -3.534949e-02 1.200537e-01 2.694180e-02
<VARIANCE> 25
 1.033766e+01 2.034461e+01 2.291117e+01 3.169289e+01 4.807148e+01 3.500973e+01 4.641024e+01 3.668749e+01 4.211635e+01 2.932141e+01 3.005836e+01 2.640669e+01 6.437169e-01 1.252471e+00 1.539796e+00 1.939982e+00 2.926342e+00 2.410364e+00 2.890469e+00 2.576626e+00 2.563153e+00 2.523913e+00 2.097167e+00 2.016557e+00 8.073470e-04
<GCONST> 8.757468e+01
<MIXTURE> 105 4.710235e-03
<MEAN> 25
 2.631630e+00 -2.299551e+00 9.838772e+00 -4.242247e-01 -1.161847e+01 -5.216837e+00 -4.313272e+00 -2.086933e-01 -6.369899e+00 -3.439445e+00 3.534415e+00 -1.731365e-01 -1.646682e-02 1.694627e-02 2.243515e-02 6.523000e-02 -3.185670e-02 2.848174e-02 -6.482544e-02 5.005963e-02 3.143103e-02 -3.314018e-02 1.426705e-02 1.057887e-01 -1.605811e-03
<VARIANCE> 25
 1.084995e+01 2.078313e+01 3.552137e+01 4.781331e+01 3.675713e+01 3.706840e+01 2.918664e+01 3.141885e+01 3.807690e+01 2.998647e+01 4.234407e+01 2.248836e+01 6.867998e-02 1.361854e-01 2.566600e-01 2.557857e-01 3.572333e-01 3.768815e-01 4.244691e-01 5.247602e-01 5.067137e-01 6.333460e-01 3.674405e-01 3.525163e-01 9.193415e-05
<GCONST> 6.336286e+01
<MIXTURE> 106 4.710235e-03
<MEAN> 25
 2.631630e+00 -2.299551e+00 9.838772e+00 -4.242247e-01 -1.161847e+01 -5.216837e+00 -4.313272e+00 -2.086933e-01 -6.369899e+00 -3.439445e+00 3.534415e+00 -1.731365e-01 -1.646682e-02 1.694627e-02 2.243515e-02 6.523000e-02 -3.185670e-02 2.848174e-02 -6.482544e-02 5.005963e-02 3.143103e-02 -3.314018e-02 1.426705e-02 1.057887e-01 -1.605811e-03
<VARIANCE> 25
 1.084995e+01 2.078313e+01 3.552137e+01 4.781331e+01 3.675713e+01 3.706840e+01 2.918664e+01 3.141885e+01 3.807690e+01 2.998647e+01 4.234407e+01 2.248836e+01 6.867998e-02 1.361854e-01 2.566600e-01 2.557857e-01 3.572333e-01 3.768815e-01 4.244691e-01 5.247602e-01 5.067137e-01 6.333460e-01 3.674405e-01 3.525163e-01 9.193415e-05
<GCONST> 6.336286e+01
<MIXTURE> 107 5.452374e-03
<MEAN> 25
 8.635687e+00 -2.301345e+00 -8.040954e+00 -9.534876e+00 1.969288e+00 2.953213e+00 -8.605430e+00 -4.550097e+00 -8.759694e-01 3.392399e+00 8.450363e-01 -5.054299e+00 -6.107330e-01 -7.688774e-01 8.304521e-01 1.765576e+00 2.253935e-01 -2.008446e+00 -9.189128e-01 8.497822e-01 1.765355e+00 4.711301e-02 -1.655818e+00 -8.172458e-01 -1.855871e-03
<VARIANCE> 25
 9.230772e+00 2.056344e+01 2.834294e+01 4.300595e+01 3.568034e+01 3.836794e+01 5.161115e+01 3.625315e+01 4.597491e+01 4.167707e+01 5.129716e+01 3.041331e+01 3.573117e-01 9.673865e-01 1.467305e+00 2.424148e+00 2.282845e+00 2.820337e+00 2.611318e+00 2.543617e+00 2.293488e+00 3.022297e+00 1.943990e+00 2.202700e+00 7.049688e-04
<GCONST> 8.806084e+01
<MIXTURE> 108 5.452374e-03
<MEAN> 25
 8.635687e+00 -2.301345e+00 -8.040954e+00 -9.534876e+00 1.969288e+00 2.953213e+00 -8.605430e+00 -4.550097e+00 -8.759694e-01 3.392399e+00 8.450363e-01 -5.054299e+00 -6.107330e-01 -7.688774e-01 8.304521e-01 1.765576e+00 2.253935e-01 -2.008446e+00 -9.189128e-01 8.497822e-01 1.765355e+00 4.711301e-02 -1.655818e+00 -8.172458e-01 -1.855871e-03
<VARIANCE> 25
 9.230772e+00 2.056344e+01 2.834294e+01 4.300595e+01 3.568034e+01 3.836794e+01 5.161115e+01 3.625315e+01 4.597491e+01 4.167707e+01 5.129716e+01 3.041331e+01 3.573117e-01 9.673865e-01 1.467305e+00 2.424148e+00 2.282845e+00 2.820337e+00 2.611318e+00 2.543617e+00 2.293488e+00 3.022297e+00 1.943990e+00 2.202700e+00 7.049688e-04
<GCONST> 8.806084e+01
<MIXTURE> 109 6.661064e-03
<MEAN> 25
 3.943118e+00 -1.000063e+01 -8.451806e+00 -9.823495e-01 3.128801e+00 1.693298e-01 6.287361e-01 1.478535e+00 -2.795642e+00 -8.194220e+00 -5.324833e+00 -1.192183e-01 -2.431156e-02 -1.343024e-01 -9.563423e-04 2.832604e-01 1.982490e-01 1.071562e-01 -9.050831e-02 -5.920761e-02 -3.252137e-02 -1.350449e-01 1.917261e-01 -7.561512e-03 -3.239555e-03
<VARIANCE> 25
 9.087277e+00 2.368950e+01 1.958012e+01 3.301414e+01 4.193143e+01 3.625648e+01 5.487092e+01 3.290584e+01 4.550928e+01 3.472069e+01 2.847269e+01 2.765656e+01 1.867579e-01 4.062241e-01 5.423765e-01 6.337572e-01 1.178117e+00 9.612663e-01 1.245644e+00 1.094573e+00 1.084618e+00 9.322225e-01 8.693611e-01 8.597325e-01 1.758994e-04
<GCONST> 7.451170e+01
<MIXTURE> 110 6.661064e-03
<MEAN> 25
 3.943118e+00 -1.000063e+01 -8.451806e+00 -9.823495e-01 3.128801e+00 1.693298e-01 6.287361e-01 1.478535e+00 -2.795642e+00 -8.194220e+00 -5.324833e+00 -1.192183e-01 -2.431156e-02 -1.343024e-01 -9.563423e-04 2.832604e-01 1.982490e-01 1.071562e-01 -9.050831e-02 -5.920761e-02 -3.252137e-02 -1.350449e-01 1.917261e-01 -7.561512e-03 -3.239555e-03
<VARIANCE> 25
 9.087277e+00 2.368950e+01 1.958012e+01 3.301414e+01 4.193143e+01 3.625648e+01 5.487092e+01 3.290584e+01 4.550928e+01 3.472069e+01 2.847269e+01 2.765656e+01 1.867579e-01 4.062241e-01 5.423765e-01 6.337572e-01 1.178117e+00 9.612663e-01 1.245644e+00 1.094573e+00 1.084618e+00 9.322225e-01 8.693611e-01 8.597325e-01 1.758994e-04
<GCONST> 7.451170e+01
<MIXTURE> 111 4.337247e-03
<MEAN> 25
 -4.464537e+00 -9.022112e-01 -1.728672e+00 1.687414e+00 9.671552e-01 9.599197e-01 3.163583e-01 2.030065e-01 8.952122e-02 -5.389925e-01 -6.265801e-01 1.958932e+00 -2.151792e-02 -3.245660e-02 -7.203564e-02 -7.281806e-02 -3.889167e-02 7.044006e-03 1.563443e-03 -5.941501e-02 -1.385017e-01 -1.992059e-01 -1.895161e-01 -1.069881e-01 -2.251934e-04
<VARIANCE> 25
 7.056331e+00 4.982867e+00 1.024374e+01 9.400431e+00 1.310008e+01 2.382663e+01 1.465951e+01 1.320413e+01 1.158644e+01 1.190374e+01 1.362079e+01 1.159685e+01 7.924335e-02 1.633722e-01 2.750039e-01 4.204201e-01 5.708200e-01 7.049056e-01 8.056921e-01 8.572062e-01 8.947585e-01 8.657582e-01 8.613318e-01 8.469851e-01 2.237191e-05
<GCONST> 5.600901e+01
<MIXTURE> 112 4.337247e-03
<MEAN> 25
 -4.464537e+00 -9.022112e-01 -1.728672e+00 1.687414e+00 9.671552e-01 9.599197e-01 3.163583e-01 2.030065e-01 8.952122e-02 -5.389925e-01 -6.265801e-01 1.958932e+00 -2.151792e-02 -3.245660e-02 -7.203564e-02 -7.281806e-02 -3.889167e-02 7.044006e-03 1.563443e-03 -5.941501e-02 -1.385017e-01 -1.992059e-01 -1.895161e-01 -1.069881e-01 -2.251934e-04
<VARIANCE> 25
 7.056331e+00 4.982867e+00 1.024374e+01 9.400431e+00 1.310008e+01 2.382663e+01 1.465951e+01 1.320413e+01 1.158644e+01 1.190374e+01 1.362079e+01 1.159685e+01 7.924335e-02 1.633722e-01 2.750039e-01 4.204201e-01 5.708200e-01 7.049056e-01 8.056921e-01 8.572062e-01 8.947585e-01 8.657582e-01 8.613318e-01 8.469851e-01 2.237191e-05
<GCONST> 5.600901e+01
<MIXTURE> 113 5.938666e-03
<MEAN> 25
 9.735515e+00 1.400829e+00 -7.797783e+00 -1.653319e+01 -2.066487e+00 6.427231e+00 -5.126951e+00 -2.026979e+00 -5.164171e+00 -7.007051e-02 6.129327e-02 1.619041e-01 1.644205e-02 -2.950086e-02 -4.331450e-03 -1.468724e-01 1.411583e-01 1.299337e-01 -5.319687e-02 -7.484255e-02 -5.686025e-02 -1.494918e-01 1.791527e-01 -2.628413e-02 -7.023743e-04
<VARIANCE> 25
 8.218012e+00 1.542244e+01 3.356647e+01 3.172326e+01 5.345568e+01 3.376889e+01 3.553682e+01 3.808758e+01 3.628271e+01 4.340753e+01 3.230934e+01 2.580451e+01 1.101030e-01 3.614610e-01 3.075090e-01 6.741008e-01 6.321810e-01 5.872798e-01 8.369334e-01 9.144286e-01 8.909625e-01 8.959879e-01 6.923802e-01 6.623795e-01 1.386846e-04
<GCONST> 7.061238e+01
<MIXTURE> 114 5.938666e-03
<MEAN> 25
 9.735515e+00 1.400829e+00 -7.797783e+00 -1.653319e+01 -2.066487e+00 6.427231e+00 -5.126951e+00 -2.026979e+00 -5.164171e+00 -7.007051e-02 6.129327e-02 1.619041e-01 1.644205e-02 -2.950086e-02 -4.331450e-03 -1.468724e-01 1.411583e-01 1.299337e-01 -5.319687e-02 -7.484255e-02 -5.686025e-02 -1.494918e-01 1.791527e-01 -2.628413e-02 -7.023743e-04
<VARIANCE> 25
 8.218012e+00 1.542244e+01 3.356647e+01 3.172326e+01 5.345568e+01 3.376889e+01 3.553682e+01 3.808758e+01 3.628271e+01 4.340753e+01 3.230934e+01 2.580451e+01 1.101030e-01 3.614610e-01 3.075090e-01 6.741008e-01 6.321810e-01 5.872798e-01 8.369334e-01 9.144286e-01 8.909625e-01 8.959879e-01 6.923802e-01 6.623795e-01 1.386846e-04
<GCONST> 7.061238e+01
<MIXTURE> 115 2.935202e-03
<MEAN> 25
 -4.000279e+00 -7.434554e-01 -3.159090e+00 3.667818e+00 2.455996e+00 -4.032062e-01 2.280762e+00 4.034165e-01 1.355946e+00 -3.087313e-02 2.456117e-02 2.649942e+00 3.417677e-02 -6.636823e-02 -2.303693e-01 -4.355054e-01 -6.282773e-01 -6.720788e-01 -5.932209e-01 -5.066298e-01 -4.980905e-01 -4.621691e-01 -3.482472e-01 -1.648425e-01 9.297381e-06
<VARIANCE> 25
 9.370257e+00 9.838922e+00 1.389113e+01 1.266392e+01 1.369949e+01 1.762970e+01 1.737208e+01 2.071635e+01 1.805104e+01 1.724028e+01 1.916694e+01 1.481851e+01 2.036833e-01 3.490936e-01 4.826752e-01 5.600507e-01 6.347023e-01 7.940977e-01 1.004608e+00 1.125910e+00 1.090764e+00 9.943761e-01 1.029231e+00 1.060878e+00 1.022587e-06
<GCONST> 6.026535e+01
<MIXTURE> 116 2.935202e-03
<MEAN> 25
 -4.000279e+00 -7.434554e-01 -3.159090e+00 3.667818e+00 2.455996e+00 -4.032062e-01 2.280762e+00 4.034165e-01 1.355946e+00 -3.087313e-02 2.456117e-02 2.649942e+00 3.417677e-02 -6.636823e-02 -2.303693e-01 -4.355054e-01 -6.282773e-01 -6.720788e-01 -5.932209e-01 -5.066298e-01 -4.980905e-01 -4.621691e-01 -3.482472e-01 -1.648425e-01 9.297381e-06
<VARIANCE> 25
 9.370257e+00 9.838922e+00 1.389113e+01 1.266392e+01 1.369949e+01 1.762970e+01 1.737208e+01 2.071635e+01 1.805104e+01 1.724028e+01 1.916694e+01 1.481851e+01 2.036833e-01 3.490936e-01 4.826752e-01 5.600507e-01 6.347023e-01 7.940977e-01 1.004608e+00 1.125910e+00 1.090764e+00 9.943761e-01 1.029231e+00 1.060878e+00 1.022587e-06
<GCONST> 6.026535e+01
<MIXTURE> 117 6.506003e-03
<MEAN> 25
 -4.644410e+00 1.117817e+00 1.054106e+00 9.758320e+00 6.260210e+00 6.256443e+00 6.463315e+00 5.044444e+00 6.385500e+00 4.929150e+00 6.367045e+00 2.709762e+00 -7.502525e-02 -2.341192e-01 -3.583425e-01 -4.199390e-01 -3.675117e-01 -3.027335e-01 -2.873264e-01 -3.314535e-01 -3.917919e-01 -3.689528e-01 -2.630835e-01 -1.159691e-01 -9.000872e-06
<VARIANCE> 25
 7.188198e+00 8.752882e+00 9.814497e+00 1.430848e+01 1.561763e+01 1.534918e+01 1.772774e+01 1.796077e+01 1.640322e+01 1.637110e+01 1.674122e+01 1.475387e+01 2.166050e-01 3.075086e-01 4.261250e-01 6.171151e-01 8.536490e-01 1.055340e+00 1.177528e+00 1.232882e+00 1.224017e+00 1.194880e+00 1.167214e+00 1.113661e+00 1.000094e-06
<GCONST> 6.042941e+01
<MIXTURE> 118 6.506003e-03
<MEAN> 25
 -4.644410e+00 1.117817e+00 1.054106e+00 9.758320e+00 6.260210e+00 6.256443e+00 6.463315e+00 5.044444e+00 6.385500e+00 4.929150e+00 6.367045e+00 2.709762e+00 -7.502525e-02 -2.341192e-01 -3.583425e-01 -4.199390e-01 -3.675117e-01 -3.027335e-01 -2.873264e-01 -3.314535e-01 -3.917919e-01 -3.689528e-01 -2.630835e-01 -1.159691e-01 -9.000872e-06
<VARIANCE> 25
 7.188198e+00 8.752882e+00 9.814497e+00 1.430848e+01 1.561763e+01 1.534918e+01 1.772774e+01 1.796077e+01 1.640322e+01 1.637110e+01 1.674122e+01 1.475387e+01 2.166050e-01 3.075086e-01 4.261250e-01 6.171151e-01 8.536490e-01 1.055340e+00 1.177528e+00 1.232882e+00 1.224017e+00 1.194880e+00 1.167214e+00 1.113661e+00 1.000094e-06
<GCONST> 6.042941e+01
<MIXTURE> 119 4.297961e-03
<MEAN> 25
 -4.970680e+00 -7.623313e+00 2.243194e+00 2.010292e+00 2.240136e+00 2.113326e-01 5.271598e+00 5.943092e+00 1.165616e+00 9.601743e-01 6.604200e+00 1.563937e+00 -5.071924e-02 -8.037011e-02 3.638451e-02 -5.644946e-02 -1.243046e-01 -1.757902e-01 -6.633960e-02 -1.221289e-02 -9.165003e-02 -1.129443e-01 -5.674659e-02 -5.874474e-02 1.092923e-03
<VARIANCE> 25
 8.499879e+00 9.867393e+00 1.664400e+01 2.016963e+01 2.283286e+01 2.317918e+01 2.500567e+01 2.644869e+01 2.501904e+01 2.806758e+01 2.041661e+01 2.044659e+01 1.604444e-01 2.840965e-01 4.604708e-01 6.320738e-01 8.074872e-01 1.011076e+00 1.104566e+00 1.277313e+00 1.285325e+00 1.244308e+00 1.192197e+00 1.110541e+00 2.316605e-04
<GCONST> 6.974552e+01
<MIXTURE> 120 4.297961e-03
<MEAN> 25
 -4.970680e+00 -7.623313e+00 2.243194e+00 2.010292e+00 2.240136e+00 2.113326e-01 5.271598e+00 5.943092e+00 1.165616e+00 9.601743e-01 6.604200e+00 1.563937e+00 -5.071924e-02 -8.037011e-02 3.638451e-02 -5.644946e-02 -1.243046e-01 -1.757902e-01 -6.633960e-02 -1.221289e-02 -9.165003e-02 -1.129443e-01 -5.674659e-02 -5.874474e-02 1.092923e-03
<VARIANCE> 25
 8.499879e+00 9.867393e+00 1.664400e+01 2.016963e+01 2.283286e+01 2.317918e+01 2.500567e+01 2.644869e+01 2.501904e+01 2.806758e+01 2.041661e+01 2.044659e+01 1.604444e-01 2.840965e-01 4.604708e-01 6.320738e-01 8.074872e-01 1.011076e+00 1.104566e+00 1.277313e+00 1.285325e+00 1.244308e+00 1.192197e+00 1.110541e+00 2.316605e-04
<GCONST> 6.974552e+01
<MIXTURE> 121 4.567511e-03
<MEAN> 25
 2.186031e-01 -2.520627e+00 5.149391e+00 -1.290161e+01 -1.263840e+01 -1.644321e+00 9.907382e-01 -5.105977e+00 -4.191506e+00 -4.857909e-01 -5.502756e+00 -4.300190e+00 2.424611e-02 1.310264e-01 -4.041938e-02 7.814308e-02 1.589708e-01 7.805304e-02 -8.107560e-02 -1.853153e-01 -2.678602e-01 -2.595536e-01 -1.135966e-01 -1.312529e-04 -7.406348e-03
<VARIANCE> 25
 7.801073e+00 1.558738e+01 1.729358e+01 2.033890e+01 2.441495e+01 2.948253e+01 2.953025e+01 2.460265e+01 3.527279e+01 2.834379e+01 1.973025e+01 2.124332e+01 1.547513e-01 6.435367e-01 6.227766e-01 7.052178e-01 7.698399e-01 1.148283e+00 1.117992e+00 1.121710e+00 1.216529e+00 1.193248e+00 9.410352e-01 8.710775e-01 2.111087e-04
<GCONST> 7.140781e+01
<MIXTURE> 122 4.567511e-03
<MEAN> 25
 2.186031e-01 -2.520627e+00 5.149391e+00 -1.290161e+01 -1.263840e+01 -1.644321e+00 9.907382e-01 -5.105977e+00 -4.191506e+00 -4.857909e-01 -5.502756e+00 -4.300190e+00 2.424611e-02 1.310264e-01 -4.041938e-02 7.814308e-02 1.589708e-01 7.805304e-02 -8.107560e-02 -1.853153e-01 -2.678602e-01 -2.595536e-01 -1.135966e-01 -1.312529e-04 -7.406348e-03
<VARIANCE> 25
 7.801073e+00 1.558738e+01 1.729358e+01 2.033890e+01 2.441495e+01 2.948253e+01 2.953025e+01 2.460265e+01 3.527279e+01 2.834379e+01 1.973025e+01 2.124332e+01 1.547513e-01 6.435367e-01 6.227766e-01 7.052178e-01 7.698399e-01 1.148283e+00 1.117992e+00 1.121710e+00 1.216529e+00 1.193248e+00 9.410352e-01 8.710775e-01 2.111087e-04
<GCONST> 7.140781e+01
<MIXTURE> 123 4.393044e-03
<MEAN> 25
 -3.305525e+00 1.354289e+00 -5.374205e-01 6.014011e+00 5.570611e+00 2.970362e+00 4.078568e+00 7.185302e-01 3.081241e-01 -1.968776e-01 -5.494321e-02 1.727534e-01 -4.753132e-01 -6.964706e-01 -7.169245e-01 -5.441191e-01 -1.786638e-01 1.052440e-01 5.037794e-01 7.438619e-01 8.573213e-01 8.273019e-01 5.592889e-01 3.980593e-01 -3.470706e-03
<VARIANCE> 25
 1.276489e+01 1.002626e+01 2.009586e+01 1.630335e+01 2.018113e+01 2.477213e+01 2.315107e+01 1.798237e+01 1.633138e+01 1.623431e+01 2.045288e+01 1.837774e+01 3.759293e-01 3.776244e-01 5.578575e-01 6.438492e-01 9.366718e-01 1.159421e+00 1.405537e+00 1.183745e+00 1.028138e+00 1.142312e+00 1.309538e+00 1.066105e+00 9.422842e-05
<GCONST> 6.918624e+01
<MIXTURE> 124 4.069876e-03
<MEAN> 25
 -6.226727e+00 -1.033024e+00 -3.209135e+00 5.156515e+00 5.125404e+00 3.172457e+00 5.636981e+00 2.606087e+00 3.101639e+00 1.440812e+00 1.064012e+00 2.778976e+00 -1.969131e-01 -3.095931e-01 -3.655487e-01 -2.206984e-01 1.226229e-01 5.001302e-01 7.758788e-01 8.323019e-01 6.576526e-01 3.612875e-01 9.943543e-02 -2.310296e-02 1.068867e-05
<VARIANCE> 25
 1.357007e+01 7.449907e+00 1.280451e+01 1.207792e+01 1.226693e+01 2.036243e+01 1.645869e+01 1.670751e+01 1.512354e+01 1.637400e+01 1.877270e+01 1.562429e+01 1.040229e-01 1.713655e-01 2.634130e-01 4.095072e-01 5.775402e-01 7.096466e-01 7.748763e-01 8.180763e-01 8.890802e-01 1.011615e+00 1.033001e+00 9.574246e-01 1.854818e-05
<GCONST> 5.932072e+01
<MIXTURE> 125 4.069876e-03
<MEAN> 25
 -6.226727e+00 -1.033024e+00 -3.209135e+00 5.156515e+00 5.125404e+00 3.172457e+00 5.636981e+00 2.606087e+00 3.101639e+00 1.440812e+00 1.064012e+00 2.778976e+00 -1.969131e-01 -3.095931e-01 -3.655487e-01 -2.206984e-01 1.226229e-01 5.001302e-01 7.758788e-01 8.323019e-01 6.576526e-01 3.612875e-01 9.943543e-02 -2.310296e-02 1.068867e-05
<VARIANCE> 25
 1.357007e+01 7.449907e+00 1.280451e+01 1.207792e+01 1.226693e+01 2.036243e+01 1.645869e+01 1.670751e+01 1.512354e+01 1.637400e+01 1.877270e+01 1.562429e+01 1.040229e-01 1.713655e-01 2.634130e-01 4.095072e-01 5.775402e-01 7.096466e-01 7.748763e-01 8.180763e-01 8.890802e-01 1.011615e+00 1.033001e+00 9.574246e-01 1.854818e-05
<GCONST> 5.932072e+01
<MIXTURE> 126 2.402244e-03
<MEAN> 25
 -3.777258e+00 -6.918667e+00 -5.293912e+00 2.333724e+00 4.287735e+00 -3.236974e+00 9.363313e-02 3.549630e+00 3.334694e+00 -2.682632e+00 -1.429454e+00 3.039911e+00 -1.854749e-03 -6.168467e-03 -3.655246e-02 -1.582244e-01 -3.178065e-01 -3.899651e-01 -2.750537e-01 -1.585370e-01 -1.130339e-01 -1.130896e-01 -9.769037e-02 -3.087499e-02 -1.477651e-03
<VARIANCE> 25
 7.478753e+00 1.275853e+01 1.385762e+01 1.518179e+01 2.467017e+01 2.367087e+01 2.295874e+01 2.836947e+01 3.126341e+01 2.632580e+01 2.173012e+01 1.925236e+01 1.704292e-01 3.515718e-01 4.826819e-01 5.660236e-01 7.525430e-01 9.945109e-01 1.121791e+00 1.261053e+00 1.330542e+00 1.315241e+00 1.213535e+00 1.144702e+00 2.104026e-04
<GCONST> 6.981889e+01
<MIXTURE> 127 2.402244e-03
<MEAN> 25
 -3.777258e+00 -6.918667e+00 -5.293912e+00 2.333724e+00 4.287735e+00 -3.236974e+00 9.363313e-02 3.549630e+00 3.334694e+00 -2.682632e+00 -1.429454e+00 3.039911e+00 -1.854749e-03 -6.168467e-03 -3.655246e-02 -1.582244e-01 -3.178065e-01 -3.899651e-01 -2.750537e-01 -1.585370e-01 -1.130339e-01 -1.130896e-01 -9.769037e-02 -3.087499e-02 -1.477651e-03
<VARIANCE> 25
 7.478753e+00 1.275853e+01 1.385762e+01 1.518179e+01 2.467017e+01 2.367087e+01 2.295874e+01 2.836947e+01 3.126341e+01 2.632580e+01 2.173012e+01 1.925236e+01 1.704292e-01 3.515718e-01 4.826819e-01 5.660236e-01 7.525430e-01 9.945109e-01 1.121791e+00 1.261053e+00 1.330542e+00 1.315241e+00 1.213535e+00 1.144702e+00 2.104026e-04
<GCONST> 6.981889e+01
<MIXTURE> 128 3.790457e-03
<MEAN> 25
 -3.930441e+00 1.542444e+00 -3.443198e-01 6.574208e+00 3.623255e+00 1.858734e+00 3.580764e+00 2.371069e+00 3.962090e+00 3.700291e+00 3.768590e+00 3.523458e+00 -3.958672e-01 -1.970225e-01 9.843951e-02 7.266746e-01 1.184412e+00 1.135395e+00 7.178152e-01 1.311627e-01 -4.393202e-01 -7.882536e-01 -7.022912e-01 -3.937166e-01 -3.674261e-05
<VARIANCE> 25
 1.021756e+01 1.169851e+01 1.504051e+01 1.931120e+01 2.005494e+01 2.118400e+01 2.432435e+01 2.466938e+01 2.641106e+01 2.386812e+01 2.681089e+01 1.821181e+01 8.922830e-01 1.146219e+00 1.365511e+00 1.502220e+00 1.580452e+00 1.862682e+00 2.248655e+00 2.324808e+00 2.147723e+00 1.857006e+00 1.744149e+00 1.747942e+00 1.001432e-06
<GCONST> 7.364657e+01
<TRANSP> 3
 0.000000e+00 1.000000e+00 0.000000e+00
 0.000000e+00 9.999990e-01 9.999998e-07
 0.000000e+00 0.000000e+00 0.000000e+00
<ENDHMM>
