~o
<STREAMINFO> 1 25
<VECSIZE> 25<NULLD><MFCC_E_D_N><DIAGC>
~h "jmodel"
<BEGINHMM>
<NUMSTATES> 3
<STATE> 2
<NUMMIXES> 128
<MIXTURE> 1 5.748963e-03
<MEAN> 25
 -2.583281e+00 3.181366e+00 2.310947e+00 8.754027e+00 4.372290e+00 3.448530e+00 4.063434e+00 3.933653e+00 5.831099e+00 5.252919e+00 5.883512e+00 3.079673e+00 -2.004316e+00 -1.634663e+00 -8.640994e-01 1.075778e+00 1.560475e+00 2.231824e+00 2.154340e+00 2.085158e+00 1.693211e+00 1.269374e+00 1.567286e+00 6.134627e-01 -4.691706e-02
<VARIANCE> 25
 1.006789e+01 1.175847e+01 1.494768e+01 1.868450e+01 2.318691e+01 2.215327e+01 2.189278e+01 2.198704e+01 2.100300e+01 2.253596e+01 2.095229e+01 1.708490e+01 1.789787e+00 2.111720e+00 3.025680e+00 3.210030e+00 3.739525e+00 3.358752e+00 3.318784e+00 3.379739e+00 3.521925e+00 3.727710e+00 3.513424e+00 2.834222e+00 3.122058e-03
<GCONST> 8.846636e+01
<MIXTURE> 2 4.549242e-03
<MEAN> 25
 -4.875703e+00 1.311890e+00 9.943540e-01 9.899577e+00 6.692323e+00 7.424248e+00 7.847009e+00 6.957523e+00 8.372828e+00 6.372911e+00 7.624159e+00 3.074624e+00 -6.201125e-02 4.160509e-02 1.425213e-01 2.258527e-01 2.651947e-01 2.812952e-01 2.954508e-01 3.195290e-01 3.497095e-01 3.088629e-01 1.971650e-01 8.004794e-02 1.155491e-06
<VARIANCE> 25
 6.953051e+00 8.902799e+00 1.065067e+01 1.591120e+01 1.723545e+01 1.556638e+01 1.689813e+01 1.849234e+01 1.658897e+01 1.738577e+01 1.811025e+01 1.433959e+01 1.252477e-01 2.266327e-01 3.364539e-01 4.671002e-01 6.493966e-01 8.149223e-01 9.298441e-01 1.003130e+00 1.051665e+00 1.077882e+00 1.075627e+00 1.013926e+00 1.000165e-06
<GCONST> 5.804404e+01
<MIXTURE> 3 4.549242e-03
<MEAN> 25
 -4.875703e+00 1.311890e+00 9.943540e-01 9.899577e+00 6.692323e+00 7.424248e+00 7.847009e+00 6.957523e+00 8.372828e+00 6.372911e+00 7.624159e+00 3.074624e+00 -6.201125e-02 4.160509e-02 1.425213e-01 2.258527e-01 2.651947e-01 2.812952e-01 2.954508e-01 3.195290e-01 3.497095e-01 3.088629e-01 1.971650e-01 8.004794e-02 1.155491e-06
<VARIANCE> 25
 6.953051e+00 8.902799e+00 1.065067e+01 1.591120e+01 1.723545e+01 1.556638e+01 1.689813e+01 1.849234e+01 1.658897e+01 1.738577e+01 1.811025e+01 1.433959e+01 1.252477e-01 2.266327e-01 3.364539e-01 4.671002e-01 6.493966e-01 8.149223e-01 9.298441e-01 1.003130e+00 1.051665e+00 1.077882e+00 1.075627e+00 1.013926e+00 1.000165e-06
<GCONST> 5.804404e+01
<MIXTURE> 4 1.671429e-02
<MEAN> 25
 3.435386e+00 2.524147e+00 -3.754211e+00 9.200785e-01 4.293970e+00 -1.700233e-01 1.403791e-01 -4.732054e-03 1.517042e+00 1.312177e+00 -1.874013e+00 9.160820e-02 -2.751054e+00 1.196471e+00 1.749410e+00 3.074771e+00 9.140866e-01 4.652404e-01 1.510248e+00 1.058676e+00 9.544399e-01 4.094981e-01 1.212458e+00 8.994197e-01 -1.021489e-01
<VARIANCE> 25
 2.091755e+01 2.927040e+01 2.902351e+01 3.973044e+01 4.526092e+01 6.952113e+01 6.553860e+01 5.317065e+01 5.519040e+01 6.150696e+01 4.920255e+01 3.582287e+01 2.386506e+00 5.054870e+00 3.759423e+00 4.904204e+00 4.967033e+00 6.183589e+00 6.089269e+00 5.551062e+00 5.918557e+00 6.412928e+00 6.105056e+00 4.410543e+00 6.324267e-03
<GCONST> 1.054449e+02
<MIXTURE> 5 3.206198e-03
<MEAN> 25
 -3.417213e+00 2.181404e+00 6.104581e-01 9.428503e+00 6.697190e+00 6.315783e+00 7.112370e+00 4.722860e+00 5.495636e+00 3.848044e+00 4.658542e+00 2.606454e+00 -3.246481e-01 7.528169e-01 1.224769e+00 1.032610e+00 3.075654e-01 -1.002423e-01 -8.373522e-02 3.356967e-02 4.579540e-01 6.836869e-01 4.038783e-01 8.804079e-02 -2.772318e-05
<VARIANCE> 25
 1.025135e+01 1.394316e+01 2.348506e+01 2.561738e+01 2.022070e+01 1.942566e+01 2.011245e+01 2.036437e+01 2.141981e+01 2.128337e+01 2.409645e+01 1.635973e+01 1.210014e+00 1.244419e+00 1.357125e+00 1.673468e+00 2.284837e+00 2.376277e+00 2.301482e+00 2.275284e+00 2.315531e+00 2.238271e+00 2.085530e+00 1.873903e+00 1.000204e-06
<GCONST> 7.516663e+01
<MIXTURE> 6 5.475854e-03
<MEAN> 25
 9.329259e+00 -6.695297e-01 -5.624053e+00 -1.122781e+01 -2.331122e+00 7.088387e+00 -6.374869e+00 -5.404135e+00 -2.684182e+00 2.191790e+00 4.715483e+00 -9.229048e-01 5.114295e-01 6.991649e-01 -3.687349e-01 -1.600577e+00 -7.915181e-01 1.371847e+00 1.515521e+00 2.980552e-01 -1.118412e+00 -1.081018e+00 2.341450e-01 1.057967e+00 -5.267501e-03
<VARIANCE> 25
 9.336630e+00 1.613675e+01 3.121679e+01 3.614285e+01 3.401133e+01 2.920488e+01 4.253141e+01 3.452795e+01 4.487027e+01 3.699794e+01 3.812048e+01 2.685119e+01 2.939299e-01 1.106062e+00 8.589151e-01 1.996580e+00 1.663794e+00 1.856579e+00 1.758523e+00 1.881814e+00 2.281244e+00 1.978252e+00 2.114362e+00 1.616510e+00 6.135741e-04
<GCONST> 8.360920e+01
<MIXTURE> 7 5.475854e-03
<MEAN> 25
 9.329259e+00 -6.695297e-01 -5.624053e+00 -1.122781e+01 -2.331122e+00 7.088387e+00 -6.374869e+00 -5.404135e+00 -2.684182e+00 2.191790e+00 4.715483e+00 -9.229048e-01 5.114295e-01 6.991649e-01 -3.687349e-01 -1.600577e+00 -7.915181e-01 1.371847e+00 1.515521e+00 2.980552e-01 -1.118412e+00 -1.081018e+00 2.341450e-01 1.057967e+00 -5.267501e-03
<VARIANCE> 25
 9.336630e+00 1.613675e+01 3.121679e+01 3.614285e+01 3.401133e+01 2.920488e+01 4.253141e+01 3.452795e+01 4.487027e+01 3.699794e+01 3.812048e+01 2.685119e+01 2.939299e-01 1.106062e+00 8.589151e-01 1.996580e+00 1.663794e+00 1.856579e+00 1.758523e+00 1.881814e+00 2.281244e+00 1.978252e+00 2.114362e+00 1.616510e+00 6.135741e-04
<GCONST> 8.360920e+01
<MIXTURE> 8 1.165917e-02
<MEAN> 25
 -4.726201e+00 1.363876e+00 1.289907e+00 9.555533e+00 6.576456e+00 6.253549e+00 6.481065e+00 5.683469e+00 6.657824e+00 5.633971e+00 6.567022e+00 3.150735e+00 -6.299601e-01 -1.425571e+00 -1.070807e+00 -1.730452e+00 -2.309659e-01 -9.459471e-01 -1.777893e-01 -2.885947e-01 -2.535924e-01 -1.747132e-01 -2.124342e-01 8.260684e-02 9.883451e-02
<VARIANCE> 25
 9.362642e+00 9.842793e+00 1.161584e+01 1.606974e+01 1.663416e+01 1.570539e+01 1.811999e+01 1.754210e+01 1.703806e+01 1.737340e+01 1.893173e+01 1.400136e+01 2.756173e+00 2.813626e+00 3.904878e+00 3.760567e+00 3.453915e+00 3.314330e+00 3.126938e+00 3.080509e+00 2.871149e+00 2.655208e+00 2.435231e+00 1.904431e+00 6.683486e-03
<GCONST> 8.629254e+01
<MIXTURE> 9 1.199672e-02
<MEAN> 25
 8.140583e+00 3.431764e+00 -5.750565e+00 -1.082961e+01 -3.097251e+00 5.334579e+00 -1.865278e+00 -1.090986e+00 -6.326814e+00 -1.301101e+00 1.008693e+00 -6.434945e-01 1.312260e+00 -2.627776e-01 1.949826e-02 -2.494515e+00 -2.252504e+00 1.412470e+00 -2.071159e+00 -7.234830e-03 -6.295586e-01 -3.893306e-01 1.432837e+00 -3.683287e-01 7.771396e-02
<VARIANCE> 25
 1.376638e+01 1.741089e+01 3.246869e+01 4.264937e+01 5.271495e+01 2.921210e+01 4.982309e+01 4.818686e+01 3.972509e+01 3.422719e+01 3.927303e+01 2.399496e+01 1.709726e+00 2.066993e+00 4.559812e+00 4.057584e+00 5.017383e+00 4.343990e+00 7.080559e+00 4.861535e+00 4.826164e+00 4.327561e+00 5.122704e+00 2.437512e+00 1.808158e-03
<GCONST> 9.789494e+01
<MIXTURE> 10 6.596976e-03
<MEAN> 25
 8.232360e-01 7.627778e+00 5.373938e+00 7.139171e+00 1.585334e+00 -2.119052e+00 -5.235541e-01 -1.693295e+00 8.610862e-01 8.569977e-01 8.358917e-01 6.693802e-01 -1.921050e+00 -6.734941e-01 -4.592734e-01 3.021518e+00 2.457105e+00 2.712873e+00 2.371514e+00 2.275779e+00 1.863337e+00 1.545221e+00 2.331564e+00 5.227329e-01 -1.380152e-01
<VARIANCE> 25
 1.951535e+01 2.068239e+01 2.228077e+01 2.907914e+01 3.826228e+01 3.491515e+01 3.511165e+01 3.383754e+01 2.768707e+01 2.901094e+01 2.692528e+01 2.507030e+01 2.241545e+00 3.421947e+00 5.528524e+00 5.190856e+00 5.574607e+00 4.468679e+00 4.697196e+00 4.840571e+00 4.384164e+00 5.013636e+00 4.448352e+00 3.189409e+00 2.704059e-03
<GCONST> 9.746508e+01
<MIXTURE> 11 1.633820e-02
<MEAN> 25
 7.088094e+00 3.839113e+00 2.470541e+00 4.409897e+00 -2.437231e+00 -1.579315e+00 -1.525710e+00 -6.553281e+00 -3.002585e+00 5.107035e-01 -2.377278e+00 -1.390011e+00 -2.109494e-01 4.980224e-01 -1.362882e-01 3.260365e-01 7.447184e-01 -1.658279e-01 4.014247e-01 -7.605277e-02 -1.289691e-01 -3.636554e-02 -1.611369e-01 2.248765e-01 -1.972139e-02
<VARIANCE> 25
 1.037667e+01 2.095286e+01 2.061415e+01 2.844938e+01 3.546103e+01 3.391257e+01 4.383708e+01 3.658973e+01 3.697089e+01 3.152980e+01 3.129059e+01 2.746386e+01 9.046903e-01 1.057896e+00 2.189010e+00 1.811596e+00 2.267704e+00 2.105406e+00 1.959972e+00 2.453948e+00 2.119007e+00 1.781986e+00 1.596322e+00 1.606753e+00 1.007358e-03
<GCONST> 8.583044e+01
<MIXTURE> 12 5.904134e-03
<MEAN> 25
 1.027556e+01 2.565352e+00 -3.495646e+00 -1.606207e+01 -8.817607e+00 9.360001e+00 -1.912635e+00 -2.217473e+00 -5.523005e-01 -3.918288e+00 2.072311e+00 3.082522e-01 6.251717e-02 1.281616e-01 6.264944e-02 -4.039616e-01 -3.301759e-01 2.062692e-01 3.218698e-01 5.413593e-01 2.069965e-01 -3.999202e-01 -3.638521e-01 -9.183553e-02 -5.194867e-03
<VARIANCE> 25
 9.403059e+00 2.779617e+01 2.708172e+01 3.104903e+01 3.779990e+01 3.113547e+01 4.418121e+01 4.416802e+01 4.817111e+01 4.044712e+01 3.489153e+01 2.699940e+01 2.384578e-01 8.547111e-01 6.131381e-01 1.100010e+00 1.306933e+00 1.168570e+00 1.044852e+00 1.330549e+00 1.196618e+00 1.126103e+00 1.107887e+00 1.022877e+00 5.612560e-04
<GCONST> 7.902359e+01
<MIXTURE> 13 5.904134e-03
<MEAN> 25
 1.027556e+01 2.565352e+00 -3.495646e+00 -1.606207e+01 -8.817607e+00 9.360001e+00 -1.912635e+00 -2.217473e+00 -5.523005e-01 -3.918288e+00 2.072311e+00 3.082522e-01 6.251717e-02 1.281616e-01 6.264944e-02 -4.039616e-01 -3.301759e-01 2.062692e-01 3.218698e-01 5.413593e-01 2.069965e-01 -3.999202e-01 -3.638521e-01 -9.183553e-02 -5.194867e-03
<VARIANCE> 25
 9.403059e+00 2.779617e+01 2.708172e+01 3.104903e+01 3.779990e+01 3.113547e+01 4.418121e+01 4.416802e+01 4.817111e+01 4.044712e+01 3.489153e+01 2.699940e+01 2.384578e-01 8.547111e-01 6.131381e-01 1.100010e+00 1.306933e+00 1.168570e+00 1.044852e+00 1.330549e+00 1.196618e+00 1.126103e+00 1.107887e+00 1.022877e+00 5.612560e-04
<GCONST> 7.902359e+01
<MIXTURE> 14 6.488954e-03
<MEAN> 25
 -4.305641e+00 -3.738931e-01 -3.163153e-01 8.897528e+00 7.513441e+00 7.368574e+00 7.833413e+00 7.313092e+00 7.245019e+00 5.228082e+00 6.846570e+00 4.092979e+00 -2.747817e-01 1.925646e-01 3.641172e-01 3.093154e-01 7.386004e-03 5.750070e-02 9.745008e-02 1.785386e-01 2.942091e-01 5.384082e-01 5.068079e-01 7.858684e-02 -9.313768e-03
<VARIANCE> 25
 9.359195e+00 1.384652e+01 1.860775e+01 1.788796e+01 2.088427e+01 1.962549e+01 2.145435e+01 2.072530e+01 2.008360e+01 2.389617e+01 2.153823e+01 1.600271e+01 9.614563e-01 1.639567e+00 1.771267e+00 1.932642e+00 2.242758e+00 2.260259e+00 2.254287e+00 2.238494e+00 2.284925e+00 2.508967e+00 2.194982e+00 1.817530e+00 1.028579e-03
<GCONST> 8.192616e+01
<MIXTURE> 15 2.475190e-03
<MEAN> 25
 -5.370525e+00 -6.413666e-01 -2.076145e-01 7.319434e+00 5.713578e+00 5.627742e+00 6.068607e+00 4.973430e+00 5.131287e+00 4.139842e+00 5.478369e+00 2.552616e+00 -1.186724e-01 -2.289753e-02 7.609960e-02 2.424258e-01 4.833770e-01 7.866151e-01 1.082349e+00 1.185209e+00 1.046658e+00 7.564791e-01 4.125603e-01 1.497977e-01 -1.302589e-04
<VARIANCE> 25
 7.223082e+00 5.554255e+00 8.954242e+00 1.293074e+01 1.398070e+01 1.475783e+01 1.479516e+01 1.477625e+01 1.409756e+01 1.411382e+01 1.509914e+01 1.241467e+01 1.247268e-01 2.085501e-01 3.173853e-01 4.987528e-01 6.975351e-01 7.942328e-01 7.719031e-01 7.863985e-01 9.177973e-01 1.020479e+00 1.071400e+00 1.035818e+00 2.853170e-05
<GCONST> 5.862588e+01
<MIXTURE> 16 2.475190e-03
<MEAN> 25
 -5.370525e+00 -6.413666e-01 -2.076145e-01 7.319434e+00 5.713578e+00 5.627742e+00 6.068607e+00 4.973430e+00 5.131287e+00 4.139842e+00 5.478369e+00 2.552616e+00 -1.186724e-01 -2.289753e-02 7.609960e-02 2.424258e-01 4.833770e-01 7.866151e-01 1.082349e+00 1.185209e+00 1.046658e+00 7.564791e-01 4.125603e-01 1.497977e-01 -1.302589e-04
<VARIANCE> 25
 7.223082e+00 5.554255e+00 8.954242e+00 1.293074e+01 1.398070e+01 1.475783e+01 1.479516e+01 1.477625e+01 1.409756e+01 1.411382e+01 1.509914e+01 1.241467e+01 1.247268e-01 2.085501e-01 3.173853e-01 4.987528e-01 6.975351e-01 7.942328e-01 7.719031e-01 7.863985e-01 9.177973e-01 1.020479e+00 1.071400e+00 1.035818e+00 2.853170e-05
<GCONST> 5.862588e+01
<MIXTURE> 17 9.518312e-03
<MEAN> 25
 3.632157e+00 -7.513254e-01 6.079041e+00 2.347054e+00 -6.017751e+00 -6.514763e+00 -3.438853e+00 -1.108341e-01 -2.950484e+00 -3.140370e+00 1.209028e-01 6.527802e-02 -7.709953e-01 -1.228192e+00 1.273409e+00 -1.980812e+00 -2.351769e+00 -8.876250e-03 1.567005e-01 8.704197e-01 -3.006160e-01 -2.333265e-01 1.082576e+00 3.944181e-01 7.849133e-02
<VARIANCE> 25
 1.573629e+01 3.065455e+01 2.974184e+01 3.743105e+01 4.523705e+01 4.787360e+01 5.223352e+01 3.319400e+01 3.484467e+01 2.631556e+01 2.720178e+01 2.835253e+01 1.864188e+00 2.540391e+00 3.814175e+00 3.285679e+00 3.921772e+00 5.913711e+00 4.782306e+00 4.584351e+00 4.126949e+00 4.002720e+00 3.187622e+00 2.626220e+00 2.404937e-03
<GCONST> 9.696232e+01
<MIXTURE> 18 1.221018e-02
<MEAN> 25
 3.395231e+00 4.135743e+00 7.058923e+00 4.455750e+00 -4.035988e+00 -8.694911e+00 -1.927249e+00 -2.497966e+00 -4.247998e+00 -2.847266e+00 -4.930677e-01 1.668722e+00 -4.929609e-01 2.034791e+00 -5.144466e-01 1.600782e+00 2.987113e+00 1.370332e+00 1.187866e+00 -5.113765e-01 9.686586e-01 7.876422e-01 -5.642883e-01 6.550035e-02 -1.189152e-01
<VARIANCE> 25
 1.650068e+01 2.232914e+01 2.869905e+01 2.245992e+01 3.762987e+01 3.021191e+01 3.438515e+01 4.016662e+01 3.788999e+01 3.078642e+01 2.788061e+01 3.356348e+01 2.637432e+00 2.708486e+00 4.386019e+00 4.132549e+00 3.612105e+00 4.694393e+00 4.623016e+00 4.268764e+00 4.534679e+00 4.078405e+00 4.136008e+00 3.243526e+00 3.591038e-03
<GCONST> 9.705573e+01
<MIXTURE> 19 9.912824e-03
<MEAN> 25
 -1.015108e+01 1.896568e+00 2.612402e-01 1.112033e+00 3.993821e+00 1.545738e+00 3.442767e+00 1.086076e+00 2.081057e+00 1.168653e+00 1.080615e+00 2.034424e+00 2.083257e+00 1.736951e+00 2.152315e+00 7.511650e-01 -1.038448e+00 -1.027482e+00 -1.049487e+00 -1.403735e+00 -1.481668e+00 -1.136232e+00 -8.358529e-01 -7.985043e-01 1.313993e-03
<VARIANCE> 25
 5.329523e+01 3.056445e+01 4.830588e+01 5.340029e+01 3.363084e+01 3.302980e+01 3.110698e+01 2.988865e+01 2.841177e+01 2.699852e+01 3.014203e+01 1.972722e+01 2.399743e+00 2.230750e+00 2.207606e+00 2.327854e+00 2.600690e+00 2.233113e+00 2.463213e+00 2.403873e+00 2.139428e+00 2.046184e+00 2.232797e+00 1.781613e+00 2.391110e-03
<GCONST> 9.174982e+01
<MIXTURE> 20 6.308331e-03
<MEAN> 25
 -1.410942e+01 7.476964e+00 7.659703e-01 6.259525e+00 4.730225e+00 1.512069e+00 5.142984e+00 7.224316e-01 8.732598e-01 7.316394e-01 2.583359e+00 -2.051349e-01 -3.266359e+00 -8.447688e-01 -1.565669e+00 3.394817e-01 1.504527e+00 2.050244e+00 1.950709e+00 2.037635e+00 2.128888e+00 2.001986e+00 1.654570e+00 9.175283e-01 4.733443e-02
<VARIANCE> 25
 1.959635e+01 2.325562e+01 3.076807e+01 3.713638e+01 3.098849e+01 2.823323e+01 2.963433e+01 3.183451e+01 2.766534e+01 2.799318e+01 2.488363e+01 2.122322e+01 2.100032e+00 2.170031e+00 1.875973e+00 2.505352e+00 2.725724e+00 2.281074e+00 2.312962e+00 2.296957e+00 2.211867e+00 2.692656e+00 2.250943e+00 1.874612e+00 1.862833e-03
<GCONST> 8.915514e+01
<MIXTURE> 21 7.928653e-03
<MEAN> 25
 3.033026e+00 -4.982318e+00 5.999183e+00 -3.723780e-01 -1.121767e+01 -8.281751e+00 -6.756739e+00 4.618132e+00 -3.900905e+00 -3.258063e+00 1.712953e+00 -3.555951e-01 -6.893919e-01 1.225980e+00 2.615470e+00 -8.334486e-02 -1.393543e+00 2.784579e-01 7.174410e-01 -1.144388e+00 -2.247784e+00 -6.261665e-01 1.068397e+00 6.990137e-01 -1.178846e-02
<VARIANCE> 25
 1.031152e+01 1.614299e+01 2.700041e+01 2.673577e+01 2.478307e+01 3.431264e+01 8.510622e+01 3.333062e+01 4.736087e+01 2.685430e+01 3.639949e+01 2.119530e+01 3.500306e-01 9.757130e-01 1.906523e+00 1.155793e+00 1.976874e+00 2.032011e+00 3.043687e+00 2.755326e+00 2.179058e+00 5.599377e+00 2.720361e+00 2.790920e+00 3.620933e-04
<GCONST> 8.597411e+01
<MIXTURE> 22 8.827789e-03
<MEAN> 25
 -1.726419e+01 7.320331e+00 -4.385251e+00 7.265030e+00 4.012625e+00 2.003884e+00 8.097387e+00 1.185087e+00 5.139352e+00 2.666884e+00 5.194847e+00 1.616687e+00 -2.909709e-01 -8.531401e-02 -1.557878e-01 -2.344488e-01 1.104311e-01 1.902900e-02 2.400309e-01 1.923383e-01 3.408730e-01 2.186591e-01 5.212491e-02 2.855433e-01 6.729081e-03
<VARIANCE> 25
 1.030339e+01 1.596002e+01 1.650016e+01 2.322611e+01 2.291708e+01 2.284534e+01 1.842607e+01 1.908523e+01 1.667361e+01 2.194234e+01 1.953983e+01 1.388906e+01 9.889539e-01 1.349547e+00 1.299241e+00 1.645814e+00 1.471573e+00 1.552181e+00 1.542715e+00 1.372632e+00 1.507935e+00 1.430912e+00 1.331077e+00 1.134030e+00 1.610885e-03
<GCONST> 7.800204e+01
<MIXTURE> 23 6.455497e-03
<MEAN> 25
 7.640009e+00 2.378011e+00 2.681355e+00 2.507083e+00 -4.456495e+00 -3.200867e+00 -4.058402e+00 -6.272978e+00 -3.358798e+00 -9.510849e-01 -4.307044e+00 -2.233169e+00 2.814507e-02 1.706810e-01 -1.412116e-02 6.160138e-02 4.158098e-02 6.736474e-02 2.153189e-02 -7.123819e-02 -4.549846e-02 2.448525e-02 -2.011159e-02 4.262221e-02 -4.051177e-03
<VARIANCE> 25
 1.140428e+01 2.165543e+01 2.558248e+01 3.889701e+01 4.079793e+01 5.447203e+01 6.577814e+01 5.385970e+01 4.603285e+01 4.518203e+01 4.686950e+01 3.859290e+01 1.193246e-01 2.857660e-01 4.066431e-01 4.690101e-01 6.161803e-01 6.912952e-01 7.477153e-01 8.641832e-01 9.417419e-01 8.662394e-01 8.522300e-01 8.220464e-01 8.694657e-05
<GCONST> 7.314323e+01
<MIXTURE> 24 6.455497e-03
<MEAN> 25
 7.640009e+00 2.378011e+00 2.681355e+00 2.507083e+00 -4.456495e+00 -3.200867e+00 -4.058402e+00 -6.272978e+00 -3.358798e+00 -9.510849e-01 -4.307044e+00 -2.233169e+00 2.814507e-02 1.706810e-01 -1.412116e-02 6.160138e-02 4.158098e-02 6.736474e-02 2.153189e-02 -7.123819e-02 -4.549846e-02 2.448525e-02 -2.011159e-02 4.262221e-02 -4.051177e-03
<VARIANCE> 25
 1.140428e+01 2.165543e+01 2.558248e+01 3.889701e+01 4.079793e+01 5.447203e+01 6.577814e+01 5.385970e+01 4.603285e+01 4.518203e+01 4.686950e+01 3.859290e+01 1.193246e-01 2.857660e-01 4.066431e-01 4.690101e-01 6.161803e-01 6.912952e-01 7.477153e-01 8.641832e-01 9.417419e-01 8.662394e-01 8.522300e-01 8.220464e-01 8.694657e-05
<GCONST> 7.314323e+01
<MIXTURE> 25 1.118642e-02
<MEAN> 25
 2.971435e-01 3.447428e+00 1.674581e+01 -1.037228e+00 -1.133067e+01 -1.728659e+00 -4.976867e+00 -2.957807e+00 -6.910326e+00 -5.420341e+00 4.096996e+00 -1.608248e+00 -1.326053e-01 4.348766e-01 1.612523e-01 1.490351e-01 2.138743e-01 1.178171e-01 1.982173e-01 -1.692586e-01 -2.398420e-01 7.716665e-02 -6.817795e-02 -1.123269e-01 -1.301553e-02
<VARIANCE> 25
 8.811997e+00 2.233100e+01 2.109141e+01 2.854602e+01 3.155883e+01 4.112073e+01 2.752095e+01 2.994645e+01 2.841287e+01 3.658431e+01 2.094859e+01 2.781591e+01 5.944939e-01 1.443797e+00 1.412688e+00 1.377593e+00 2.277560e+00 2.042924e+00 1.742797e+00 1.626799e+00 1.542501e+00 1.643618e+00 1.346686e+00 1.296216e+00 1.277087e-03
<GCONST> 8.274313e+01
<MIXTURE> 26 7.727677e-03
<MEAN> 25
 2.207095e+00 -5.981562e+00 -9.355230e+00 -1.341884e+00 7.410861e+00 6.161123e+00 3.748854e+00 -2.191740e-01 2.761816e+00 -8.018841e-01 -2.819937e+00 -1.441954e+00 -6.211187e-01 6.496564e-01 2.646628e-01 7.638276e-01 2.864106e-01 1.557626e-01 3.523430e-01 3.752192e-01 2.336979e-01 9.112482e-02 3.892649e-01 3.963872e-01 -5.094373e-02
<VARIANCE> 25
 2.284298e+01 3.347073e+01 3.347743e+01 6.331149e+01 3.988122e+01 4.721001e+01 4.729731e+01 4.088344e+01 4.037077e+01 5.088616e+01 3.758096e+01 4.491258e+01 1.532366e+00 1.804502e+00 1.858960e+00 1.998670e+00 2.373411e+00 2.405970e+00 2.555466e+00 2.580256e+00 2.257651e+00 2.219857e+00 2.153659e+00 1.887943e+00 3.085606e-03
<GCONST> 9.360319e+01
<MIXTURE> 27 7.727677e-03
<MEAN> 25
 2.207095e+00 -5.981562e+00 -9.355230e+00 -1.341884e+00 7.410861e+00 6.161123e+00 3.748854e+00 -2.191740e-01 2.761816e+00 -8.018841e-01 -2.819937e+00 -1.441954e+00 -6.211187e-01 6.496564e-01 2.646628e-01 7.638276e-01 2.864106e-01 1.557626e-01 3.523430e-01 3.752192e-01 2.336979e-01 9.112482e-02 3.892649e-01 3.963872e-01 -5.094373e-02
<VARIANCE> 25
 2.284298e+01 3.347073e+01 3.347743e+01 6.331149e+01 3.988122e+01 4.721001e+01 4.729731e+01 4.088344e+01 4.037077e+01 5.088616e+01 3.758096e+01 4.491258e+01 1.532366e+00 1.804502e+00 1.858960e+00 1.998670e+00 2.373411e+00 2.405970e+00 2.555466e+00 2.580256e+00 2.257651e+00 2.219857e+00 2.153659e+00 1.887943e+00 3.085606e-03
<GCONST> 9.360319e+01
<MIXTURE> 28 5.036674e-03
<MEAN> 25
 -5.443289e+00 1.203074e-02 -1.568276e+00 6.609849e+00 5.233958e+00 3.511157e+00 5.417519e+00 3.128718e+00 3.919957e+00 2.391166e+00 2.634441e+00 3.216266e+00 -1.155183e-01 2.231338e-01 5.281705e-01 7.837664e-01 8.201537e-01 7.014390e-01 5.236015e-01 3.915049e-01 4.447941e-01 4.832681e-01 3.712062e-01 1.903569e-01 -1.063746e-05
<VARIANCE> 25
 1.046225e+01 8.340275e+00 1.215090e+01 1.484728e+01 1.469641e+01 1.774074e+01 1.801353e+01 1.899022e+01 1.716402e+01 1.671875e+01 2.063400e+01 1.500153e+01 2.564599e-01 3.361157e-01 4.066899e-01 4.643934e-01 6.241825e-01 8.491029e-01 1.056235e+00 1.143556e+00 1.101270e+00 1.029892e+00 1.036491e+00 1.066592e+00 1.005911e-06
<GCONST> 6.025673e+01
<MIXTURE> 29 5.036674e-03
<MEAN> 25
 -5.443289e+00 1.203074e-02 -1.568276e+00 6.609849e+00 5.233958e+00 3.511157e+00 5.417519e+00 3.128718e+00 3.919957e+00 2.391166e+00 2.634441e+00 3.216266e+00 -1.155183e-01 2.231338e-01 5.281705e-01 7.837664e-01 8.201537e-01 7.014390e-01 5.236015e-01 3.915049e-01 4.447941e-01 4.832681e-01 3.712062e-01 1.903569e-01 -1.063746e-05
<VARIANCE> 25
 1.046225e+01 8.340275e+00 1.215090e+01 1.484728e+01 1.469641e+01 1.774074e+01 1.801353e+01 1.899022e+01 1.716402e+01 1.671875e+01 2.063400e+01 1.500153e+01 2.564599e-01 3.361157e-01 4.066899e-01 4.643934e-01 6.241825e-01 8.491029e-01 1.056235e+00 1.143556e+00 1.101270e+00 1.029892e+00 1.036491e+00 1.066592e+00 1.005911e-06
<GCONST> 6.025673e+01
<MIXTURE> 30 8.917812e-03
<MEAN> 25
 -4.424438e+00 -1.802775e-01 6.187422e-01 8.933064e+00 7.722571e+00 7.334846e+00 7.638069e+00 6.896167e+00 6.433989e+00 4.813226e+00 6.809808e+00 3.489024e+00 -2.408606e-02 3.973466e-02 6.358191e-02 9.577201e-02 7.058933e-02 2.568878e-02 1.762442e-02 1.308920e-02 9.464344e-03 4.123154e-02 6.988694e-02 3.681751e-02 -4.457233e-04
<VARIANCE> 25
 7.075974e+00 9.676480e+00 1.029628e+01 1.436411e+01 1.556212e+01 1.723200e+01 1.884245e+01 1.792834e+01 1.648580e+01 1.834668e+01 2.246742e+01 1.417065e+01 9.835178e-02 2.005965e-01 3.247717e-01 4.744340e-01 6.203349e-01 7.226253e-01 7.702264e-01 8.131822e-01 8.660637e-01 9.242969e-01 9.102978e-01 8.641463e-01 5.304270e-05
<GCONST> 6.068604e+01
<MIXTURE> 31 4.136493e-03
<MEAN> 25
 -2.907184e+00 -4.793894e+00 5.663199e-02 4.573485e+00 3.993514e+00 1.136307e+00 5.822585e+00 6.354301e+00 1.917217e+00 1.039001e+00 5.776980e+00 3.170842e+00 3.007904e-01 4.370391e-01 -2.618208e-01 2.857924e-01 1.927395e-01 5.113257e-01 2.417351e-01 3.820472e-02 4.893554e-01 4.084645e-01 1.728892e-02 5.623956e-02 -1.745769e-02
<VARIANCE> 25
 7.656137e+00 1.705820e+01 1.575417e+01 1.637154e+01 2.377294e+01 2.260687e+01 2.268380e+01 2.324637e+01 2.944941e+01 2.495721e+01 2.132853e+01 1.671839e+01 1.832375e-01 4.562482e-01 6.114996e-01 6.893489e-01 9.349701e-01 1.207700e+00 1.222177e+00 1.308583e+00 1.434239e+00 1.166648e+00 1.255455e+00 1.051545e+00 2.276738e-04
<GCONST> 7.105315e+01
<MIXTURE> 32 4.136493e-03
<MEAN> 25
 -2.907184e+00 -4.793894e+00 5.663199e-02 4.573485e+00 3.993514e+00 1.136307e+00 5.822585e+00 6.354301e+00 1.917217e+00 1.039001e+00 5.776980e+00 3.170842e+00 3.007904e-01 4.370391e-01 -2.618208e-01 2.857924e-01 1.927395e-01 5.113257e-01 2.417351e-01 3.820472e-02 4.893554e-01 4.084645e-01 1.728892e-02 5.623956e-02 -1.745769e-02
<VARIANCE> 25
 7.656137e+00 1.705820e+01 1.575417e+01 1.637154e+01 2.377294e+01 2.260687e+01 2.268380e+01 2.324637e+01 2.944941e+01 2.495721e+01 2.132853e+01 1.671839e+01 1.832375e-01 4.562482e-01 6.114996e-01 6.893489e-01 9.349701e-01 1.207700e+00 1.222177e+00 1.308583e+00 1.434239e+00 1.166648e+00 1.255455e+00 1.051545e+00 2.276738e-04
<GCONST> 7.105315e+01
<MIXTURE> 33 1.508826e-02
<MEAN> 25
 6.364716e+00 -3.968914e+00 -1.985723e+00 -2.510454e+00 -2.302937e+00 -5.811646e+00 -7.911832e+00 1.705224e+00 2.337097e+00 -5.356570e-01 -4.607119e+00 -3.009222e+00 6.658397e-01 -1.161560e+00 -2.387663e+00 -1.847078e+00 1.370376e+00 1.408334e+00 -8.562728e-01 6.180892e-01 1.012111e+00 6.103975e-01 -3.218146e-01 -1.360109e+00 3.659360e-02
<VARIANCE> 25
 1.035997e+01 2.037315e+01 2.860400e+01 3.538426e+01 4.133062e+01 4.590855e+01 5.060272e+01 4.538200e+01 3.902199e+01 4.206890e+01 3.403321e+01 2.808625e+01 1.109002e+00 1.848892e+00 2.151749e+00 2.129240e+00 4.222165e+00 3.343367e+00 4.539500e+00 5.388533e+00 3.627014e+00 4.231671e+00 3.220247e+00 2.528927e+00 1.447244e-03
<GCONST> 9.414700e+01
<MIXTURE> 34 1.588179e-02
<MEAN> 25
 8.668762e+00 -1.889410e-02 9.716795e-02 8.241348e-01 -2.575982e+00 -6.222090e-01 -5.671327e+00 -4.532326e+00 -1.303832e+00 9.967759e-02 -2.462339e+00 -3.789446e+00 1.005105e-02 1.374515e+00 1.236309e+00 2.388128e+00 2.019755e-02 -3.118351e-01 9.826188e-01 -1.515162e+00 -8.694390e-01 3.012583e-01 -6.697123e-01 2.501803e-01 -6.272905e-02
<VARIANCE> 25
 8.030437e+00 2.956658e+01 2.816064e+01 5.045832e+01 4.228133e+01 5.909771e+01 5.625931e+01 5.303525e+01 5.262321e+01 4.041287e+01 4.537342e+01 2.976738e+01 1.204698e+00 1.857960e+00 4.597226e+00 3.845223e+00 5.334681e+00 5.946974e+00 5.574259e+00 5.995805e+00 4.829479e+00 4.650574e+00 4.871642e+00 3.606494e+00 1.082678e-03
<GCONST> 9.916489e+01
<MIXTURE> 35 1.467755e-02
<MEAN> 25
 -2.137908e+00 -5.058738e+00 -9.908941e+00 1.394822e-01 9.536913e+00 6.504253e-01 1.898355e+00 2.667046e+00 1.407242e+00 4.538723e+00 -5.106832e-02 2.017869e+00 5.146325e-01 -1.097125e+00 -1.345474e+00 -1.381076e+00 3.167835e-01 -8.151961e-01 -7.569319e-01 -1.021994e-01 -2.032631e-01 1.099838e-01 -5.827529e-01 -4.849913e-01 1.074304e-01
<VARIANCE> 25
 1.965703e+01 2.981252e+01 4.352989e+01 6.216455e+01 4.161011e+01 5.753393e+01 5.202469e+01 4.392150e+01 4.913027e+01 3.761674e+01 3.583914e+01 3.112956e+01 3.485277e+00 3.480991e+00 6.790776e+00 5.573217e+00 5.349520e+00 5.539613e+00 5.053029e+00 4.673239e+00 4.999051e+00 4.533545e+00 4.166101e+00 3.698918e+00 5.180465e-03
<GCONST> 1.035506e+02
<MIXTURE> 36 1.093293e-02
<MEAN> 25
 4.068991e+00 -4.187933e+00 6.364563e+00 2.682627e+00 -1.145146e+01 -8.887834e+00 -9.983448e+00 3.818854e+00 -2.582141e+00 -4.595802e+00 3.530464e+00 -1.314674e+00 2.200223e-01 1.137646e-01 -6.714048e-01 1.720632e-02 8.170924e-01 1.398956e-01 -2.849835e-01 7.446202e-02 5.653856e-01 4.244489e-01 -3.064861e-01 -2.220351e-01 -1.227924e-02
<VARIANCE> 25
 1.048324e+01 1.587390e+01 1.987720e+01 2.188148e+01 3.743019e+01 3.094237e+01 7.963405e+01 3.361824e+01 3.773327e+01 2.696153e+01 3.751280e+01 2.475945e+01 5.334189e-01 7.041493e-01 1.893063e+00 1.028189e+00 1.656437e+00 1.415642e+00 3.033082e+00 1.576241e+00 2.240339e+00 1.584320e+00 1.388919e+00 1.512400e+00 7.158567e-04
<GCONST> 8.271317e+01
<MIXTURE> 37 1.246826e-02
<MEAN> 25
 5.587102e-01 7.733879e+00 1.199712e+01 -5.519495e+00 -7.986015e+00 -1.052277e+00 -5.063202e+00 -8.328271e+00 -3.707685e+00 -9.166672e-01 -3.646831e+00 -1.262895e+00 1.862204e-01 6.464741e-01 -1.358943e+00 3.564681e+00 1.991552e+00 -2.982894e-01 1.092683e+00 4.330478e-01 5.318442e-01 -3.187295e-01 5.277897e-01 -1.002654e-01 -9.478745e-02
<VARIANCE> 25
 1.591442e+01 2.610452e+01 3.140207e+01 5.095338e+01 3.412403e+01 3.207582e+01 4.383115e+01 3.491632e+01 3.849457e+01 3.581066e+01 3.762132e+01 3.095742e+01 2.946873e+00 3.400786e+00 3.008157e+00 4.130209e+00 4.603415e+00 3.748527e+00 4.195352e+00 3.806699e+00 3.444685e+00 3.611673e+00 3.865096e+00 2.784962e+00 3.912530e-03
<GCONST> 9.777135e+01
<MIXTURE> 38 1.154525e-02
<MEAN> 25
 -4.133182e+00 8.113883e+00 3.681142e+00 3.520750e+00 6.995326e-01 -5.804265e+00 -3.144030e-01 -3.404309e+00 -2.754188e+00 -3.451739e+00 -1.190110e+00 3.286775e-01 -4.605427e+00 1.426749e+00 -6.044217e-01 1.565561e+00 2.207966e+00 1.005586e+00 2.009254e+00 6.347324e-01 6.433557e-01 5.912936e-01 9.354314e-01 4.851490e-01 4.838414e-02
<VARIANCE> 25
 3.396993e+01 2.790954e+01 3.566284e+01 2.772568e+01 4.024512e+01 3.145893e+01 3.096293e+01 3.607617e+01 2.894935e+01 3.007378e+01 2.095984e+01 2.655250e+01 2.041547e+00 3.470477e+00 3.562762e+00 4.294130e+00 4.072859e+00 4.732241e+00 4.098510e+00 4.327565e+00 3.750344e+00 4.118329e+00 3.648875e+00 2.929062e+00 1.776078e-03
<GCONST> 9.624407e+01
<MIXTURE> 39 9.501865e-03
<MEAN> 25
 1.340934e+00 2.594876e+00 1.019776e+01 -9.213448e+00 -1.127191e+01 -9.702613e-01 -2.963077e+00 -6.571706e+00 -4.505785e+00 8.654642e-01 -3.679480e+00 -2.295747e+00 -7.278269e-01 1.518971e+00 1.621613e+00 -1.388690e+00 7.693147e-02 1.223994e+00 -1.195985e+00 -1.248423e+00 4.293160e-01 4.436198e-01 -5.055323e-01 1.239088e-01 1.249918e-03
<VARIANCE> 25
 8.929784e+00 3.009531e+01 3.170428e+01 3.829374e+01 3.727667e+01 4.287115e+01 4.437073e+01 3.342263e+01 3.963845e+01 3.316196e+01 3.613423e+01 2.945118e+01 6.913163e-01 1.552118e+00 1.517527e+00 2.922188e+00 2.422400e+00 2.825572e+00 3.053648e+00 2.750923e+00 2.436523e+00 2.618600e+00 2.118456e+00 2.072873e+00 1.185435e-03
<GCONST> 8.967880e+01
<MIXTURE> 40 1.030800e-02
<MEAN> 25
 -8.687675e+00 2.432334e+00 -1.255486e+00 7.807431e+00 3.669404e+00 4.940652e+00 5.511048e+00 3.479295e+00 4.490542e+00 4.160924e+00 5.076367e+00 1.298659e+00 -6.469607e-02 -2.299513e-01 -5.543858e-02 -3.150359e-01 -1.510455e-01 -1.532629e-01 8.429371e-02 1.305945e-01 -2.140491e-02 3.579544e-02 1.124708e-02 4.407937e-02 1.537675e-03
<VARIANCE> 25
 4.356964e+01 1.950004e+01 2.707299e+01 2.587130e+01 2.466560e+01 1.986409e+01 1.813808e+01 2.294874e+01 1.642605e+01 1.893912e+01 1.987569e+01 1.569925e+01 7.197204e-01 7.076997e-01 8.265989e-01 1.120462e+00 1.133809e+00 1.179246e+00 1.258510e+00 1.263553e+00 1.320834e+00 1.339944e+00 1.146040e+00 1.112693e+00 8.426821e-04
<GCONST> 7.669023e+01
<MIXTURE> 41 6.713375e-03
<MEAN> 25
 1.317138e+00 1.784595e+00 1.044768e+01 -6.949284e+00 -1.043440e+01 -3.830573e+00 -2.515534e+00 -5.049214e+00 -4.639069e+00 2.657784e+00 -1.726968e+00 -9.268847e-01 8.172093e-02 -7.640507e-01 1.688729e+00 -3.554432e+00 -2.461747e+00 -9.541903e-02 -5.034972e-01 -3.499092e-01 -8.198785e-01 1.087517e+00 -1.038411e+00 8.024659e-02 8.591370e-02
<VARIANCE> 25
 1.167322e+01 2.955199e+01 3.266309e+01 4.000647e+01 3.886329e+01 4.024918e+01 3.732217e+01 2.976705e+01 3.326375e+01 2.870051e+01 3.187390e+01 2.729744e+01 3.169464e+00 3.300277e+00 3.825889e+00 3.791989e+00 4.884793e+00 5.928778e+00 4.715094e+00 4.550703e+00 3.987074e+00 4.203161e+00 3.836954e+00 3.213898e+00 2.957471e-03
<GCONST> 9.792565e+01
<MIXTURE> 42 1.106211e-02
<MEAN> 25
 -3.082525e+00 4.675830e+00 3.912292e+00 4.146749e+00 7.926545e-01 -8.331228e+00 -1.936366e+00 -1.990061e+00 -4.881421e-01 -1.997752e+00 -2.724766e+00 2.523490e+00 3.854641e+00 -7.935659e-01 1.800392e+00 -2.446699e-01 -2.854651e+00 -6.536765e-01 -3.286443e+00 -1.017505e+00 -4.021831e-01 -5.078656e-01 7.340230e-01 -1.459791e+00 2.058331e-02
<VARIANCE> 25
 3.350360e+01 2.144723e+01 3.869610e+01 2.568622e+01 3.967612e+01 4.574430e+01 3.557203e+01 2.271958e+01 3.374667e+01 2.338714e+01 1.607634e+01 1.963210e+01 3.523507e+00 4.431465e+00 5.162293e+00 4.446217e+00 4.330115e+00 7.486905e+00 6.559453e+00 4.162334e+00 4.171891e+00 4.578842e+00 3.647313e+00 3.217614e+00 4.363517e-03
<GCONST> 9.869537e+01
<MIXTURE> 43 7.108249e-03
<MEAN> 25
 3.165573e+00 -6.294084e+00 -2.257773e+00 -5.180415e+00 -7.380453e+00 -3.395341e+00 4.146115e+00 1.303593e+00 -5.052163e+00 -7.071111e+00 -4.316588e+00 -1.248519e+00 2.364338e-01 2.161678e+00 1.909468e+00 -1.351078e-01 -1.430223e+00 -7.950163e-01 -9.694398e-01 -7.791482e-01 8.234005e-01 1.470638e+00 3.426664e-01 2.055700e-02 -4.504775e-02
<VARIANCE> 25
 9.583168e+00 1.976608e+01 2.733082e+01 3.520656e+01 3.852837e+01 3.664378e+01 3.325055e+01 3.976258e+01 3.967515e+01 3.889761e+01 2.652458e+01 2.951104e+01 6.902350e-01 1.253160e+00 1.578270e+00 2.489266e+00 2.374341e+00 2.380591e+00 2.654206e+00 3.024522e+00 2.604863e+00 2.575350e+00 2.328815e+00 1.916542e+00 9.433155e-04
<GCONST> 8.797565e+01
<MIXTURE> 44 7.328289e-03
<MEAN> 25
 -1.512695e+01 1.762855e+00 3.287924e+00 -3.035829e+00 3.250640e+00 1.935968e+00 1.930301e-01 2.177668e+00 1.565844e+00 -8.409569e-01 1.673296e+00 2.008461e+00 -1.509136e-01 2.212089e-02 1.439337e-01 2.751251e-01 -8.091519e-02 1.631266e-01 4.685412e-01 1.255901e-01 2.709265e-01 1.466209e-01 2.882534e-02 1.104683e-01 3.889766e-03
<VARIANCE> 25
 4.235800e+01 2.878759e+01 3.656443e+01 3.142880e+01 2.894248e+01 3.082473e+01 2.564731e+01 3.255806e+01 2.711849e+01 2.666931e+01 2.693654e+01 1.954941e+01 1.201641e+00 1.547784e+00 1.381287e+00 1.351933e+00 2.164657e+00 1.682250e+00 1.504975e+00 1.630159e+00 1.591905e+00 1.482191e+00 1.353635e+00 1.265417e+00 1.274422e-03
<GCONST> 8.463738e+01
<MIXTURE> 45 1.364932e-02
<MEAN> 25
 -1.149260e+01 3.929386e+00 -1.396915e+00 3.525178e+00 4.884074e+00 -6.901987e-01 4.969392e+00 2.047052e+00 2.427825e+00 1.790399e+00 2.154280e+00 3.025245e+00 -2.944744e+00 4.765287e-01 -5.023811e-01 -3.111428e-01 1.171262e-01 -6.666660e-02 3.284027e-01 2.808628e-01 -4.461039e-03 -2.146836e-01 1.896510e-01 1.146287e-01 1.138009e-01
<VARIANCE> 25
 3.835612e+01 2.910903e+01 2.749813e+01 3.520180e+01 3.135685e+01 2.934038e+01 2.957101e+01 2.880745e+01 2.587764e+01 2.232348e+01 2.782190e+01 1.520209e+01 2.297942e+00 2.949425e+00 2.714096e+00 2.761004e+00 2.219210e+00 2.728304e+00 2.305342e+00 2.382673e+00 1.930813e+00 2.132854e+00 1.741953e+00 1.570641e+00 3.844912e-03
<GCONST> 9.011106e+01
<MIXTURE> 46 9.336259e-03
<MEAN> 25
 -9.444604e+00 2.326684e+00 1.174209e+00 7.549290e+00 5.926834e+00 3.314291e+00 7.049127e+00 4.441138e+00 5.696794e+00 4.665195e+00 5.014756e+00 2.907351e+00 1.062443e+00 -2.406291e-01 4.014766e-02 9.925513e-01 5.997741e-01 9.357702e-01 3.853445e-01 6.785549e-01 4.785249e-01 5.064412e-01 6.359888e-01 5.199043e-01 -1.053027e-01
<VARIANCE> 25
 3.421301e+01 4.373838e+01 3.847147e+01 4.981776e+01 5.061428e+01 4.084247e+01 3.699563e+01 3.572953e+01 3.306111e+01 3.095440e+01 2.822249e+01 2.027059e+01 3.898089e+00 4.124786e+00 3.866230e+00 4.139156e+00 4.164873e+00 3.692235e+00 3.376554e+00 3.106859e+00 2.977576e+00 2.856469e+00 2.301866e+00 1.782406e+00 7.941100e-03
<GCONST> 9.826729e+01
<MIXTURE> 47 7.116147e-03
<MEAN> 25
 7.301339e+00 -7.401424e+00 -7.368258e+00 -6.769679e+00 1.234612e+00 1.357999e+00 -2.609558e+00 1.153618e+00 3.249625e+00 3.078963e-01 -4.052951e+00 -6.628187e+00 -1.826700e-01 -1.250448e+00 -6.561208e-01 -4.080223e-01 6.358746e-01 8.131180e-01 8.516797e-01 3.264842e-01 1.346391e-01 -8.665733e-01 -5.017135e-01 -4.815698e-01 2.910448e-02
<VARIANCE> 25
 1.039314e+01 2.063677e+01 2.436303e+01 3.522329e+01 3.759125e+01 5.904618e+01 4.551537e+01 3.991202e+01 4.379645e+01 4.640531e+01 4.879593e+01 3.286851e+01 5.059210e-01 7.514170e-01 1.132377e+00 1.641760e+00 1.996243e+00 2.153969e+00 2.268537e+00 2.433528e+00 2.138216e+00 2.133496e+00 2.188222e+00 1.970179e+00 5.661138e-04
<GCONST> 8.659908e+01
<MIXTURE> 48 7.116147e-03
<MEAN> 25
 7.301339e+00 -7.401424e+00 -7.368258e+00 -6.769679e+00 1.234612e+00 1.357999e+00 -2.609558e+00 1.153618e+00 3.249625e+00 3.078963e-01 -4.052951e+00 -6.628187e+00 -1.826700e-01 -1.250448e+00 -6.561208e-01 -4.080223e-01 6.358746e-01 8.131180e-01 8.516797e-01 3.264842e-01 1.346391e-01 -8.665733e-01 -5.017135e-01 -4.815698e-01 2.910448e-02
<VARIANCE> 25
 1.039314e+01 2.063677e+01 2.436303e+01 3.522329e+01 3.759125e+01 5.904618e+01 4.551537e+01 3.991202e+01 4.379645e+01 4.640531e+01 4.879593e+01 3.286851e+01 5.059210e-01 7.514170e-01 1.132377e+00 1.641760e+00 1.996243e+00 2.153969e+00 2.268537e+00 2.433528e+00 2.138216e+00 2.133496e+00 2.188222e+00 1.970179e+00 5.661138e-04
<GCONST> 8.659908e+01
<MIXTURE> 49 5.548473e-03
<MEAN> 25
 -4.746609e+00 4.505393e-01 -2.224990e-02 8.021596e+00 6.172514e+00 5.506515e+00 6.241793e+00 4.309735e+00 4.834596e+00 3.846465e+00 4.710707e+00 2.815031e+00 3.644999e-01 6.459459e-01 6.823843e-01 3.695754e-01 -1.772146e-01 -6.348227e-01 -9.579151e-01 -1.121939e+00 -1.001345e+00 -7.114083e-01 -5.194795e-01 -2.317121e-01 -2.397582e-04
<VARIANCE> 25
 1.160966e+01 9.758166e+00 1.447721e+01 1.849974e+01 1.524621e+01 1.712318e+01 1.896749e+01 2.000539e+01 1.789239e+01 1.811889e+01 2.043690e+01 1.381712e+01 2.673850e-01 2.553655e-01 3.515587e-01 5.890321e-01 8.457271e-01 9.629531e-01 1.012349e+00 1.007590e+00 1.185756e+00 1.233275e+00 1.242094e+00 1.231094e+00 1.544724e-05
<GCONST> 6.447770e+01
<MIXTURE> 50 6.234641e-03
<MEAN> 25
 -4.418062e+00 7.472537e-02 -1.346514e+00 6.026886e+00 4.338013e+00 1.993706e+00 3.862350e+00 2.052171e+00 2.691854e+00 1.322682e+00 2.230534e+00 2.851348e+00 2.790722e-02 1.770802e-01 1.036866e-01 -1.670254e-01 -5.390806e-01 -6.270469e-01 -3.384870e-01 -3.729385e-02 4.371452e-01 7.873318e-01 7.538149e-01 4.634782e-01 3.408121e-05
<VARIANCE> 25
 1.093182e+01 1.056009e+01 1.375814e+01 1.500062e+01 1.518940e+01 1.930087e+01 1.794026e+01 1.876652e+01 1.762634e+01 1.733921e+01 2.091038e+01 1.455257e+01 1.545742e-01 2.289272e-01 3.662152e-01 5.057163e-01 5.780256e-01 7.088388e-01 1.048469e+00 1.060208e+00 1.013326e+00 8.769003e-01 9.107245e-01 9.681751e-01 1.163916e-06
<GCONST> 5.924376e+01
<MIXTURE> 51 6.234641e-03
<MEAN> 25
 -4.418062e+00 7.472537e-02 -1.346514e+00 6.026886e+00 4.338013e+00 1.993706e+00 3.862350e+00 2.052171e+00 2.691854e+00 1.322682e+00 2.230534e+00 2.851348e+00 2.790722e-02 1.770802e-01 1.036866e-01 -1.670254e-01 -5.390806e-01 -6.270469e-01 -3.384870e-01 -3.729385e-02 4.371452e-01 7.873318e-01 7.538149e-01 4.634782e-01 3.408121e-05
<VARIANCE> 25
 1.093182e+01 1.056009e+01 1.375814e+01 1.500062e+01 1.518940e+01 1.930087e+01 1.794026e+01 1.876652e+01 1.762634e+01 1.733921e+01 2.091038e+01 1.455257e+01 1.545742e-01 2.289272e-01 3.662152e-01 5.057163e-01 5.780256e-01 7.088388e-01 1.048469e+00 1.060208e+00 1.013326e+00 8.769003e-01 9.107245e-01 9.681751e-01 1.163916e-06
<GCONST> 5.924376e+01
<MIXTURE> 52 6.367945e-03
<MEAN> 25
 9.509416e+00 1.696638e+00 -5.905653e+00 -1.420698e+01 -5.031681e+00 9.486798e+00 -3.871647e+00 -2.395316e+00 -4.695312e+00 -1.275587e+00 4.155247e+00 1.213684e-01 -3.794316e-01 -6.760036e-01 -1.217135e-01 1.222723e+00 1.264614e+00 -4.240670e-01 -8.472413e-01 -7.415209e-01 1.070469e-01 1.499198e+00 4.241845e-01 -6.417478e-01 -9.349841e-03
<VARIANCE> 25
 1.125002e+01 2.015057e+01 2.446388e+01 3.489675e+01 4.725269e+01 3.473269e+01 5.301013e+01 4.849579e+01 4.573934e+01 4.801583e+01 4.319341e+01 2.993574e+01 4.077914e-01 1.764284e+00 1.233284e+00 2.695632e+00 2.198196e+00 2.375770e+00 3.363050e+00 2.759073e+00 2.753122e+00 3.162747e+00 2.425837e+00 2.142261e+00 1.631469e-03
<GCONST> 9.038118e+01
<MIXTURE> 53 6.367945e-03
<MEAN> 25
 9.509416e+00 1.696638e+00 -5.905653e+00 -1.420698e+01 -5.031681e+00 9.486798e+00 -3.871647e+00 -2.395316e+00 -4.695312e+00 -1.275587e+00 4.155247e+00 1.213684e-01 -3.794316e-01 -6.760036e-01 -1.217135e-01 1.222723e+00 1.264614e+00 -4.240670e-01 -8.472413e-01 -7.415209e-01 1.070469e-01 1.499198e+00 4.241845e-01 -6.417478e-01 -9.349841e-03
<VARIANCE> 25
 1.125002e+01 2.015057e+01 2.446388e+01 3.489675e+01 4.725269e+01 3.473269e+01 5.301013e+01 4.849579e+01 4.573934e+01 4.801583e+01 4.319341e+01 2.993574e+01 4.077914e-01 1.764284e+00 1.233284e+00 2.695632e+00 2.198196e+00 2.375770e+00 3.363050e+00 2.759073e+00 2.753122e+00 3.162747e+00 2.425837e+00 2.142261e+00 1.631469e-03
<GCONST> 9.038118e+01
<MIXTURE> 54 7.368620e-03
<MEAN> 25
 -3.595007e+00 4.090585e-02 -6.479391e-01 7.972618e+00 6.434671e+00 4.471605e+00 4.724092e+00 4.611447e+00 4.026992e+00 3.591010e+00 4.420758e+00 2.361742e+00 -4.287819e-03 3.171855e-02 3.057187e-02 4.651579e-02 4.260838e-02 3.983404e-02 4.832496e-02 2.937842e-02 3.074843e-02 3.066140e-02 1.815081e-02 3.570980e-03 -3.649888e-05
<VARIANCE> 25
 9.109765e+00 1.022000e+01 9.247963e+00 1.820108e+01 1.333437e+01 1.501753e+01 1.195805e+01 1.118809e+01 1.122443e+01 1.339757e+01 1.799281e+01 1.250001e+01 4.072810e-02 8.887773e-02 1.533837e-01 2.237663e-01 3.175728e-01 4.041451e-01 4.607999e-01 5.151744e-01 5.351909e-01 5.191524e-01 5.084617e-01 5.098158e-01 1.030436e-06
<GCONST> 4.733053e+01
<MIXTURE> 55 7.368620e-03
<MEAN> 25
 -3.595007e+00 4.090585e-02 -6.479391e-01 7.972618e+00 6.434671e+00 4.471605e+00 4.724092e+00 4.611447e+00 4.026992e+00 3.591010e+00 4.420758e+00 2.361742e+00 -4.287819e-03 3.171855e-02 3.057187e-02 4.651579e-02 4.260838e-02 3.983404e-02 4.832496e-02 2.937842e-02 3.074843e-02 3.066140e-02 1.815081e-02 3.570980e-03 -3.649888e-05
<VARIANCE> 25
 9.109765e+00 1.022000e+01 9.247963e+00 1.820108e+01 1.333437e+01 1.501753e+01 1.195805e+01 1.118809e+01 1.122443e+01 1.339757e+01 1.799281e+01 1.250001e+01 4.072810e-02 8.887773e-02 1.533837e-01 2.237663e-01 3.175728e-01 4.041451e-01 4.607999e-01 5.151744e-01 5.351909e-01 5.191524e-01 5.084617e-01 5.098158e-01 1.030436e-06
<GCONST> 4.733053e+01
<MIXTURE> 56 6.132464e-03
<MEAN> 25
 7.178026e+00 -7.157778e+00 -6.524940e+00 -9.520649e+00 2.800506e+00 6.327277e+00 -3.028616e+00 -1.090324e+00 3.557862e+00 6.546286e-01 -2.644912e+00 -7.245606e+00 -1.871320e-02 2.658133e-02 -9.771550e-02 7.227519e-02 3.019032e-01 8.038653e-02 1.857711e-01 -1.797757e-01 -2.585216e-02 -1.937684e-01 -9.415098e-02 -6.509487e-02 -1.049980e-02
<VARIANCE> 25
 8.331089e+00 2.388397e+01 4.163347e+01 4.383053e+01 3.441651e+01 6.624335e+01 5.835489e+01 3.189085e+01 4.354188e+01 3.171477e+01 3.504230e+01 2.613239e+01 1.866235e-01 4.200567e-01 4.270201e-01 6.390007e-01 7.496933e-01 1.091587e+00 8.064405e-01 8.318163e-01 8.397150e-01 1.059775e+00 1.203901e+00 7.831585e-01 3.041515e-04
<GCONST> 7.534232e+01
<MIXTURE> 57 6.132464e-03
<MEAN> 25
 7.178026e+00 -7.157778e+00 -6.524940e+00 -9.520649e+00 2.800506e+00 6.327277e+00 -3.028616e+00 -1.090324e+00 3.557862e+00 6.546286e-01 -2.644912e+00 -7.245606e+00 -1.871320e-02 2.658133e-02 -9.771550e-02 7.227519e-02 3.019032e-01 8.038653e-02 1.857711e-01 -1.797757e-01 -2.585216e-02 -1.937684e-01 -9.415098e-02 -6.509487e-02 -1.049980e-02
<VARIANCE> 25
 8.331089e+00 2.388397e+01 4.163347e+01 4.383053e+01 3.441651e+01 6.624335e+01 5.835489e+01 3.189085e+01 4.354188e+01 3.171477e+01 3.504230e+01 2.613239e+01 1.866235e-01 4.200567e-01 4.270201e-01 6.390007e-01 7.496933e-01 1.091587e+00 8.064405e-01 8.318163e-01 8.397150e-01 1.059775e+00 1.203901e+00 7.831585e-01 3.041515e-04
<GCONST> 7.534232e+01
<MIXTURE> 58 6.172147e-03
<MEAN> 25
 2.502711e+00 -3.086323e+00 7.432377e+00 -5.227448e+00 -1.326584e+01 -4.803404e+00 1.492416e+00 4.273578e-01 -2.170661e+00 1.768665e+00 6.838766e-01 -4.621523e-01 -9.481497e-03 -1.598683e-01 -1.521751e-01 -1.707120e-01 -1.534809e-02 2.976792e-01 4.076337e-01 1.905914e-01 8.508570e-02 4.131235e-02 -2.969313e-02 -1.972999e-01 -4.483098e-03
<VARIANCE> 25
 7.420749e+00 1.432056e+01 1.941403e+01 2.735402e+01 2.291748e+01 5.282251e+01 3.192788e+01 3.484759e+01 3.206144e+01 2.952352e+01 2.230523e+01 2.236366e+01 3.047379e-01 7.801497e-01 8.132036e-01 9.617920e-01 9.409530e-01 1.233558e+00 1.093072e+00 1.282086e+00 1.095835e+00 1.017310e+00 8.963522e-01 8.701140e-01 7.214147e-04
<GCONST> 7.549621e+01
<MIXTURE> 59 6.172147e-03
<MEAN> 25
 2.502711e+00 -3.086323e+00 7.432377e+00 -5.227448e+00 -1.326584e+01 -4.803404e+00 1.492416e+00 4.273578e-01 -2.170661e+00 1.768665e+00 6.838766e-01 -4.621523e-01 -9.481497e-03 -1.598683e-01 -1.521751e-01 -1.707120e-01 -1.534809e-02 2.976792e-01 4.076337e-01 1.905914e-01 8.508570e-02 4.131235e-02 -2.969313e-02 -1.972999e-01 -4.483098e-03
<VARIANCE> 25
 7.420749e+00 1.432056e+01 1.941403e+01 2.735402e+01 2.291748e+01 5.282251e+01 3.192788e+01 3.484759e+01 3.206144e+01 2.952352e+01 2.230523e+01 2.236366e+01 3.047379e-01 7.801497e-01 8.132036e-01 9.617920e-01 9.409530e-01 1.233558e+00 1.093072e+00 1.282086e+00 1.095835e+00 1.017310e+00 8.963522e-01 8.701140e-01 7.214147e-04
<GCONST> 7.549621e+01
<MIXTURE> 60 4.479129e-03
<MEAN> 25
 -3.556187e+00 -5.994182e-01 -1.119675e+00 3.550321e+00 2.416620e+00 1.424840e+00 2.369405e+00 1.923755e+00 1.815185e+00 9.714043e-01 1.995398e+00 1.820339e+00 -3.268458e-02 8.883665e-02 1.375062e-01 9.857251e-02 9.021268e-02 1.447284e-01 2.598214e-01 3.249106e-01 4.950954e-01 6.548923e-01 6.265319e-01 2.779166e-01 -2.936530e-04
<VARIANCE> 25
 8.350684e+00 3.974733e+00 9.477294e+00 9.825502e+00 1.531011e+01 1.738500e+01 1.494927e+01 1.106510e+01 1.236819e+01 1.316164e+01 1.607744e+01 1.166553e+01 9.829761e-02 1.593784e-01 2.605677e-01 3.927118e-01 5.820967e-01 7.402285e-01 8.770189e-01 8.418847e-01 8.497236e-01 8.475192e-01 9.831897e-01 8.074516e-01 2.675702e-05
<GCONST> 5.633330e+01
<MIXTURE> 61 4.479129e-03
<MEAN> 25
 -3.556187e+00 -5.994182e-01 -1.119675e+00 3.550321e+00 2.416620e+00 1.424840e+00 2.369405e+00 1.923755e+00 1.815185e+00 9.714043e-01 1.995398e+00 1.820339e+00 -3.268458e-02 8.883665e-02 1.375062e-01 9.857251e-02 9.021268e-02 1.447284e-01 2.598214e-01 3.249106e-01 4.950954e-01 6.548923e-01 6.265319e-01 2.779166e-01 -2.936530e-04
<VARIANCE> 25
 8.350684e+00 3.974733e+00 9.477294e+00 9.825502e+00 1.531011e+01 1.738500e+01 1.494927e+01 1.106510e+01 1.236819e+01 1.316164e+01 1.607744e+01 1.166553e+01 9.829761e-02 1.593784e-01 2.605677e-01 3.927118e-01 5.820967e-01 7.402285e-01 8.770189e-01 8.418847e-01 8.497236e-01 8.475192e-01 9.831897e-01 8.074516e-01 2.675702e-05
<GCONST> 5.633330e+01
<MIXTURE> 62 3.278034e-03
<MEAN> 25
 -5.090697e+00 1.241104e+00 1.026181e+00 8.818336e+00 6.131065e+00 5.050349e+00 5.499639e+00 4.033818e+00 4.985748e+00 3.917508e+00 4.966373e+00 2.951104e+00 -1.003276e+00 -1.166635e+00 -9.531801e-01 -2.767726e-01 4.275227e-01 1.005106e+00 1.384671e+00 1.552191e+00 1.478730e+00 1.243466e+00 1.067123e+00 7.261025e-01 -1.264863e-03
<VARIANCE> 25
 9.874230e+00 9.958609e+00 1.311526e+01 1.673485e+01 1.741382e+01 1.752609e+01 1.970052e+01 1.911189e+01 1.886185e+01 1.872933e+01 2.156074e+01 1.479520e+01 4.017574e-01 4.321015e-01 5.542345e-01 7.793402e-01 1.035072e+00 1.192284e+00 1.252313e+00 1.279040e+00 1.329633e+00 1.363792e+00 1.400123e+00 1.371292e+00 1.632395e-05
<GCONST> 6.752647e+01
<MIXTURE> 63 4.351215e-03
<MEAN> 25
 -2.688186e+00 -8.907403e-01 -3.691689e+00 2.229939e+00 3.501989e+00 -1.039012e+00 4.734605e+00 1.422390e+00 1.186532e+00 -7.636262e-02 -1.836374e+00 2.308476e+00 1.532960e-02 3.948683e-01 3.130092e-01 3.994130e-01 4.183969e-01 3.430824e-01 6.137697e-01 1.457553e-01 2.028709e-01 2.768553e-01 6.530754e-02 1.642901e-01 -3.569301e-03
<VARIANCE> 25
 1.192430e+01 1.344338e+01 1.580029e+01 1.169404e+01 1.603073e+01 2.204598e+01 1.910192e+01 2.058179e+01 2.357110e+01 2.129462e+01 1.650209e+01 1.648413e+01 2.291119e-01 3.662328e-01 5.119939e-01 5.744293e-01 9.390441e-01 1.383400e+00 1.291917e+00 1.441963e+00 1.482957e+00 1.337187e+00 1.588675e+00 1.688503e+00 1.807882e-04
<GCONST> 7.014440e+01
<MIXTURE> 64 4.351215e-03
<MEAN> 25
 -2.688186e+00 -8.907403e-01 -3.691689e+00 2.229939e+00 3.501989e+00 -1.039012e+00 4.734605e+00 1.422390e+00 1.186532e+00 -7.636262e-02 -1.836374e+00 2.308476e+00 1.532960e-02 3.948683e-01 3.130092e-01 3.994130e-01 4.183969e-01 3.430824e-01 6.137697e-01 1.457553e-01 2.028709e-01 2.768553e-01 6.530754e-02 1.642901e-01 -3.569301e-03
<VARIANCE> 25
 1.192430e+01 1.344338e+01 1.580029e+01 1.169404e+01 1.603073e+01 2.204598e+01 1.910192e+01 2.058179e+01 2.357110e+01 2.129462e+01 1.650209e+01 1.648413e+01 2.291119e-01 3.662328e-01 5.119939e-01 5.744293e-01 9.390441e-01 1.383400e+00 1.291917e+00 1.441963e+00 1.482957e+00 1.337187e+00 1.588675e+00 1.688503e+00 1.807882e-04
<GCONST> 7.014440e+01
<MIXTURE> 65 1.721197e-02
<MEAN> 25
 7.414472e+00 1.805847e+00 1.952162e+00 6.259949e-01 -5.220342e+00 -4.158489e+00 -5.882997e+00 -6.516953e+00 -3.595952e+00 -2.089352e+00 -5.140502e+00 -1.688263e+00 1.653750e-01 4.432416e-02 -4.326140e-02 6.432886e-02 -3.107640e-01 4.317840e-01 1.343371e-02 -6.971947e-02 2.028271e-01 7.615728e-02 6.340133e-02 -1.856660e-01 -6.081881e-03
<VARIANCE> 25
 1.154303e+01 1.876523e+01 2.453773e+01 3.372758e+01 3.705859e+01 6.289245e+01 6.614162e+01 5.469439e+01 5.139690e+01 5.319519e+01 5.229319e+01 4.928920e+01 5.102527e-01 9.396777e-01 1.525966e+00 1.720804e+00 2.204605e+00 2.668781e+00 2.233592e+00 2.794097e+00 2.784945e+00 2.385677e+00 2.390017e+00 2.051698e+00 4.302385e-04
<GCONST> 8.932530e+01
<MIXTURE> 66 1.191532e-02
<MEAN> 25
 6.643755e+00 -4.097507e+00 -5.537682e+00 -4.863342e+00 1.266832e+00 -4.852199e+00 -6.886301e+00 1.166610e+00 7.569878e-01 -2.016535e+00 -6.053932e+00 -3.515858e+00 -4.980639e-02 1.665377e+00 2.203488e+00 2.314885e+00 -1.232707e+00 -1.268781e+00 8.369261e-02 -5.315397e-01 -1.516052e-01 -1.937643e-01 -2.180765e-01 1.039277e+00 -6.368617e-02
<VARIANCE> 25
 8.958061e+00 2.228929e+01 2.740106e+01 3.363875e+01 3.834216e+01 5.784307e+01 5.648433e+01 4.507472e+01 5.408385e+01 6.613557e+01 3.736799e+01 3.612314e+01 1.277224e+00 2.422776e+00 2.471994e+00 2.453384e+00 4.183327e+00 4.294516e+00 4.404955e+00 4.812485e+00 4.203432e+00 4.988387e+00 3.892435e+00 3.231664e+00 1.461887e-03
<GCONST> 9.692788e+01
<MIXTURE> 67 1.559142e-02
<MEAN> 25
 8.577080e+00 1.447217e+00 -5.310273e+00 -8.526441e+00 9.798923e-01 4.351870e+00 -3.260877e+00 -2.329118e+00 -2.827429e+00 6.586050e-01 -1.491894e-01 -2.143457e+00 -9.966317e-01 1.850317e+00 8.270891e-01 2.974933e+00 1.275032e+00 -6.929900e-01 1.446327e+00 1.258352e-01 9.760312e-02 3.074935e-01 -4.311813e-01 6.046387e-01 -1.249970e-01
<VARIANCE> 25
 1.212248e+01 4.016890e+01 3.324666e+01 5.594683e+01 4.561913e+01 6.583741e+01 5.923079e+01 4.863337e+01 6.773730e+01 5.233809e+01 5.102301e+01 4.483287e+01 2.077554e+00 3.172683e+00 3.523558e+00 4.291655e+00 4.318441e+00 4.546156e+00 4.555534e+00 4.639996e+00 5.027328e+00 4.407053e+00 4.984166e+00 3.428343e+00 3.022576e-03
<GCONST> 1.023102e+02
<MIXTURE> 68 1.485092e-02
<MEAN> 25
 -1.839598e+00 -2.004903e+00 -4.718699e+00 5.669433e-01 5.203104e+00 -6.258804e-01 2.793623e+00 1.961157e+00 1.633977e+00 1.826928e+00 2.207745e-01 2.011454e+00 2.667685e+00 4.985045e-01 1.360622e-01 -2.623184e+00 -2.527518e+00 -1.441527e+00 -2.482470e+00 -1.674415e+00 -1.736228e+00 -1.458440e+00 -1.613662e+00 -1.066637e+00 1.025767e-01
<VARIANCE> 25
 2.515632e+01 3.106521e+01 6.094485e+01 5.669104e+01 4.353881e+01 5.279307e+01 4.868679e+01 3.987557e+01 3.941375e+01 4.148400e+01 3.578287e+01 2.517127e+01 1.868789e+00 3.515584e+00 5.714501e+00 5.545265e+00 4.530636e+00 5.588223e+00 5.683025e+00 4.794703e+00 4.784043e+00 4.924653e+00 6.374105e+00 3.201390e+00 5.718202e-03
<GCONST> 1.031557e+02
<MIXTURE> 69 1.204884e-02
<MEAN> 25
 4.665658e+00 -4.206562e+00 -3.557883e+00 -3.606677e+00 -3.489250e+00 -7.876339e+00 -1.085340e+00 2.197404e+00 -3.559723e-01 -4.707042e+00 -5.673353e+00 9.658654e-01 1.666055e+00 -2.234300e+00 -1.331407e+00 -2.233256e+00 -5.312876e-01 -3.507001e-01 -4.750741e-01 6.261749e-01 -6.403649e-01 -1.460312e+00 -2.196634e+00 -1.699003e-01 6.259175e-02
<VARIANCE> 25
 8.849962e+00 2.189141e+01 2.672493e+01 2.600173e+01 4.270348e+01 3.556683e+01 4.928141e+01 3.156744e+01 3.965691e+01 3.809457e+01 3.103541e+01 2.458329e+01 3.583459e+00 2.912163e+00 3.337574e+00 3.729327e+00 5.751540e+00 5.012351e+00 7.104564e+00 6.089130e+00 5.898568e+00 5.854428e+00 4.353501e+00 3.701705e+00 2.445851e-03
<GCONST> 9.869373e+01
<MIXTURE> 70 1.329190e-02
<MEAN> 25
 6.640990e+00 -1.376833e+00 -1.999268e+00 -3.788755e+00 -5.559412e-01 5.241832e-01 -9.021957e+00 -4.862545e+00 1.810248e+00 3.039959e+00 1.097697e+00 -4.020443e+00 2.052314e+00 -1.426315e+00 -4.143938e-01 -2.590887e+00 -1.770927e+00 1.887724e+00 -1.494750e+00 -9.943105e-02 8.900315e-02 3.342834e-01 1.122660e+00 -1.345197e+00 5.517000e-02
<VARIANCE> 25
 1.058680e+01 1.992815e+01 3.555884e+01 4.026718e+01 3.076323e+01 4.082706e+01 5.082964e+01 4.073492e+01 5.130002e+01 2.819230e+01 4.262979e+01 2.490178e+01 3.088043e+00 2.993275e+00 4.494224e+00 4.646412e+00 4.454512e+00 6.978463e+00 7.063058e+00 6.136513e+00 5.199703e+00 4.944259e+00 5.617370e+00 3.705160e+00 2.150740e-03
<GCONST> 1.001900e+02
<MIXTURE> 71 1.406903e-02
<MEAN> 25
 6.210608e+00 4.955187e+00 4.006640e+00 3.137574e+00 -3.134459e+00 -3.482129e+00 -2.942998e+00 -6.446570e+00 -4.526639e+00 -2.318976e+00 -5.034530e+00 -2.821807e+00 -1.621923e+00 -7.191366e-01 -2.720473e-01 -1.572917e+00 1.068150e+00 -2.000130e-01 1.053514e-01 1.557869e+00 2.749208e-01 -2.475423e-01 6.085092e-01 2.695216e-01 4.078991e-02
<VARIANCE> 25
 1.862712e+01 2.458331e+01 2.390049e+01 4.202603e+01 3.938301e+01 3.818290e+01 4.514992e+01 3.918555e+01 3.660000e+01 4.421811e+01 3.460762e+01 3.484407e+01 1.817544e+00 2.960160e+00 5.036405e+00 5.102875e+00 4.588777e+00 4.742794e+00 4.751268e+00 5.465170e+00 4.107088e+00 3.969254e+00 3.439782e+00 3.242693e+00 1.519918e-03
<GCONST> 9.824424e+01
<MIXTURE> 72 8.134747e-03
<MEAN> 25
 3.788881e+00 -3.657456e+00 5.412066e+00 -2.450587e+00 -1.034860e+01 -9.561150e+00 -2.459877e+00 1.867784e+00 -4.919129e+00 -2.184934e+00 -1.871880e+00 6.225126e-01 9.309312e-01 -7.787338e-01 -2.577432e+00 4.618678e-01 2.139357e+00 -6.532741e-01 -1.309308e+00 1.515356e+00 1.806476e+00 -5.926762e-01 -1.283999e+00 3.951447e-01 -6.414709e-03
<VARIANCE> 25
 1.073091e+01 1.947231e+01 3.293630e+01 3.819893e+01 3.266514e+01 3.395514e+01 4.137778e+01 3.662576e+01 4.351778e+01 4.117790e+01 3.859692e+01 2.840424e+01 4.300142e-01 1.029442e+00 2.011025e+00 1.462243e+00 2.176838e+00 2.342819e+00 3.070099e+00 2.733522e+00 2.600185e+00 2.946261e+00 2.018802e+00 2.131730e+00 5.546001e-04
<GCONST> 8.727058e+01
<MIXTURE> 73 1.213625e-02
<MEAN> 25
 -5.719083e+00 -9.044995e-01 -1.272251e+00 4.937487e+00 4.229712e+00 1.642935e+00 5.583709e+00 3.942224e+00 4.267005e+00 3.285244e+00 3.958751e+00 3.422014e+00 6.390214e-01 -1.022099e+00 -8.050632e-01 -2.442182e+00 -1.295232e+00 -1.855957e+00 -1.085273e+00 -4.278136e-01 -9.004867e-01 -8.293753e-01 -1.047993e+00 -2.542649e-01 1.542244e-01
<VARIANCE> 25
 1.293691e+01 1.330064e+01 1.450154e+01 2.156009e+01 2.228652e+01 3.263749e+01 1.968670e+01 2.452075e+01 1.737493e+01 1.857154e+01 2.341390e+01 1.795478e+01 4.340683e+00 2.944553e+00 6.032036e+00 5.213417e+00 5.884767e+00 4.548997e+00 4.775188e+00 4.187818e+00 3.711271e+00 4.328231e+00 3.423143e+00 2.566268e+00 4.110809e-03
<GCONST> 9.316127e+01
<MIXTURE> 74 1.756491e-02
<MEAN> 25
 3.188242e+00 -1.867677e+00 6.390600e+00 1.735859e-01 -9.028560e+00 -7.979281e+00 -6.477968e+00 1.358408e+00 -5.080315e+00 -4.761865e+00 5.707445e-01 3.234506e-01 6.408225e-01 1.973188e+00 -1.099888e-01 9.363807e-01 1.846617e+00 1.109630e-01 1.382325e+00 -1.996651e+00 4.199567e-01 2.067737e-01 -8.726597e-01 4.253494e-01 -7.889188e-02
<VARIANCE> 25
 1.383550e+01 1.583676e+01 2.815241e+01 2.569984e+01 2.607723e+01 3.298328e+01 5.131603e+01 3.620407e+01 5.497102e+01 3.392589e+01 3.185072e+01 2.567215e+01 1.954268e+00 1.422650e+00 2.705769e+00 2.206005e+00 2.962315e+00 4.156123e+00 5.778406e+00 3.798416e+00 3.413901e+00 3.048706e+00 2.868260e+00 2.734576e+00 1.293987e-03
<GCONST> 9.260291e+01
<MIXTURE> 75 9.711651e-03
<MEAN> 25
 2.263201e+00 -1.855365e+00 9.551447e+00 1.979122e+00 -1.204914e+01 -9.388656e+00 -7.249467e+00 1.848456e-01 -4.559747e+00 -4.808913e+00 3.044791e+00 -6.400900e-01 1.614012e+00 -1.644266e+00 2.450046e-01 -4.005966e-01 -2.515570e+00 -2.638718e-02 -1.751217e+00 1.013618e+00 -2.100455e-01 -3.339279e-01 1.215354e+00 -8.447418e-01 3.690451e-02
<VARIANCE> 25
 9.650158e+00 1.609626e+01 3.174623e+01 2.296204e+01 2.274087e+01 3.756376e+01 4.891294e+01 2.642322e+01 3.170098e+01 2.543570e+01 1.732800e+01 2.075340e+01 2.450550e+00 1.559681e+00 3.635273e+00 2.375264e+00 3.198505e+00 4.631435e+00 5.566682e+00 3.202470e+00 3.879440e+00 2.986949e+00 3.593038e+00 2.976738e+00 1.342775e-03
<GCONST> 9.135575e+01
<MIXTURE> 76 1.052359e-02
<MEAN> 25
 -5.188982e+00 4.383239e-01 -3.277013e+00 3.526695e+00 4.068552e+00 1.278458e+00 5.643780e+00 7.239234e-01 1.665395e+00 1.315305e+00 1.696066e-01 1.647484e+00 -7.087514e-02 -4.824448e-01 -4.926855e-01 -8.542191e-01 -5.644705e-01 -8.269176e-01 -4.555615e-01 -4.251715e-02 -2.519788e-01 -2.261959e-01 -2.535558e-01 -1.671914e-01 1.502490e-02
<VARIANCE> 25
 3.785461e+01 2.316837e+01 2.444322e+01 2.360554e+01 2.358264e+01 2.391284e+01 2.382980e+01 3.006845e+01 1.886578e+01 2.583664e+01 2.329893e+01 1.665388e+01 8.594763e-01 8.869330e-01 1.069903e+00 1.506618e+00 1.243688e+00 1.428134e+00 1.455230e+00 1.788288e+00 1.957672e+00 1.938730e+00 1.292858e+00 1.484451e+00 1.336109e-03
<GCONST> 8.124541e+01
<MIXTURE> 77 1.244626e-02
<MEAN> 25
 -4.624465e-01 8.569026e+00 1.245242e+01 -1.161709e+01 -7.004607e+00 9.735666e-01 -9.272177e+00 -7.234680e+00 -3.364791e+00 -1.958352e-01 -4.648264e+00 -1.483817e+00 6.805050e-02 1.369336e-01 7.242820e-02 2.496979e-01 -2.267486e-02 8.011550e-02 -6.355309e-02 -6.162616e-02 8.283576e-02 -4.515846e-02 2.603936e-02 1.170164e-01 -9.931630e-03
<VARIANCE> 25
 1.045914e+01 2.025838e+01 2.756117e+01 4.159562e+01 3.319344e+01 3.395153e+01 3.676979e+01 3.174941e+01 3.531612e+01 3.320972e+01 3.758496e+01 3.495993e+01 2.988909e-01 7.785631e-01 6.460887e-01 1.088121e+00 1.242660e+00 9.874927e-01 1.222754e+00 1.073129e+00 1.043937e+00 1.065656e+00 9.712491e-01 9.250740e-01 5.405348e-04
<GCONST> 7.782777e+01
<MIXTURE> 78 9.702551e-03
<MEAN> 25
 -1.126406e+01 2.800243e+00 -2.370816e+00 2.939510e+00 4.367183e+00 -3.013544e+00 3.803499e+00 1.244641e+00 2.845681e+00 2.411891e-01 -7.703363e-01 3.129048e+00 2.234426e+00 -3.074079e-01 3.796676e-01 4.567270e-01 1.592802e-01 -9.958842e-02 -6.104969e-01 -6.992246e-03 4.259103e-01 1.703514e-01 -3.888754e-01 -3.728190e-01 -5.291552e-02
<VARIANCE> 25
 3.595120e+01 3.966310e+01 3.062788e+01 2.954805e+01 3.378214e+01 3.806008e+01 3.045000e+01 3.386504e+01 2.485296e+01 2.407041e+01 2.339630e+01 1.972133e+01 4.320988e+00 2.477530e+00 3.012998e+00 2.720868e+00 2.774427e+00 3.121619e+00 3.935586e+00 2.604275e+00 2.258098e+00 2.029377e+00 1.877995e+00 1.956341e+00 4.229368e-03
<GCONST> 9.296171e+01
<MIXTURE> 79 1.156824e-02
<MEAN> 25
 2.071965e+00 1.671497e+00 8.476396e+00 -6.233718e+00 -1.127022e+01 -1.691465e+00 -1.595366e+00 -6.537532e+00 -6.332071e+00 5.296030e-01 -3.323728e+00 -3.359719e+00 1.146873e+00 -6.035196e-01 -1.392615e+00 2.252096e+00 3.775527e-01 -1.542149e+00 4.076225e-01 1.032282e+00 -5.467175e-01 -5.058253e-01 2.702113e-01 2.119985e-01 -3.464547e-02
<VARIANCE> 25
 1.534113e+01 2.262752e+01 4.104530e+01 4.789124e+01 3.843853e+01 4.127066e+01 4.121725e+01 3.424854e+01 3.704984e+01 3.754665e+01 4.117726e+01 2.941176e+01 9.424226e-01 2.250668e+00 1.852462e+00 2.059407e+00 2.390316e+00 2.746522e+00 3.198055e+00 3.697923e+00 2.567749e+00 2.558700e+00 2.259959e+00 1.965089e+00 1.212587e-03
<GCONST> 9.144044e+01
<MIXTURE> 80 7.550998e-03
<MEAN> 25
 -1.460711e+01 3.983917e+00 6.886976e-01 2.868058e+00 2.450068e+00 1.409905e+00 6.396851e+00 2.492626e+00 2.717999e+00 2.373650e+00 4.851217e+00 1.185822e+00 4.285247e+00 -1.639538e-02 1.637189e+00 -1.135400e+00 -2.888958e+00 -2.776867e+00 -2.322649e+00 -2.020579e+00 -1.974020e+00 -1.685337e+00 -1.650328e+00 -6.028745e-01 -4.423193e-02
<VARIANCE> 25
 2.094938e+01 1.984318e+01 3.443335e+01 3.470699e+01 3.017172e+01 2.920354e+01 2.827782e+01 2.859241e+01 2.674682e+01 2.881498e+01 2.685229e+01 1.810593e+01 2.359715e+00 2.665640e+00 2.673959e+00 4.118516e+00 3.393893e+00 2.705538e+00 3.025452e+00 3.205102e+00 2.751028e+00 2.700922e+00 2.781876e+00 2.145091e+00 1.511718e-03
<GCONST> 9.139767e+01
<MIXTURE> 81 8.025434e-03
<MEAN> 25
 -1.098076e+00 4.036325e+00 1.013490e+01 -1.473412e+01 -9.043295e+00 -1.374426e+00 -6.743749e+00 -8.415555e+00 -4.115033e+00 -4.015249e-01 -7.520808e+00 -2.228791e+00 1.354566e-01 -5.912068e-01 -7.382041e-03 -5.601012e-01 -4.731646e-01 3.436541e-01 3.218320e-01 1.443301e-01 -1.385456e-01 1.089618e-01 -4.663255e-01 -1.309185e-01 1.138274e-02
<VARIANCE> 25
 1.024416e+01 3.274890e+01 2.657746e+01 2.999142e+01 3.369313e+01 3.077672e+01 4.554086e+01 2.807312e+01 3.806258e+01 3.179299e+01 2.562839e+01 3.096972e+01 7.679952e-01 2.265679e+00 1.539483e+00 2.868848e+00 2.664590e+00 2.153570e+00 3.266418e+00 2.286690e+00 2.360692e+00 2.529981e+00 2.288457e+00 2.079651e+00 1.180941e-03
<GCONST> 8.871919e+01
<MIXTURE> 82 8.213053e-03
<MEAN> 25
 -9.898499e+00 -3.902881e+00 1.543338e+00 -2.604714e+00 3.171741e+00 1.140316e-01 2.171360e+00 1.530653e+00 2.983815e+00 1.663056e+00 1.597065e+00 3.455858e+00 -1.359646e+00 -1.512565e-01 3.625170e-01 -2.430440e+00 -1.150341e+00 -1.383226e+00 -1.182763e+00 -7.979501e-01 -3.263448e-01 -6.027315e-01 -3.001705e-01 -8.540867e-02 1.770932e-01
<VARIANCE> 25
 1.745424e+01 2.394598e+01 3.120036e+01 3.247144e+01 3.171534e+01 3.762726e+01 3.115461e+01 3.931377e+01 2.960956e+01 2.415129e+01 2.993551e+01 1.976941e+01 3.642240e+00 2.935133e+00 3.290490e+00 3.780169e+00 3.456864e+00 3.448034e+00 3.443033e+00 3.004535e+00 2.677819e+00 2.718890e+00 2.351042e+00 1.790478e+00 3.323896e-03
<GCONST> 9.347453e+01
<MIXTURE> 83 1.167529e-02
<MEAN> 25
 -1.992019e+01 5.559501e+00 -1.865906e+00 -3.126081e-01 7.714215e+00 -1.288904e+00 5.463200e+00 2.929315e+00 1.211592e+00 2.138338e+00 6.991605e-01 2.887279e+00 -2.372025e-02 -4.322333e-01 -3.350667e-04 -3.678830e-01 -4.763757e-01 -1.424914e-01 -1.317681e-01 -9.546532e-02 -2.556922e-02 -4.258438e-02 -4.590184e-02 -2.832220e-02 4.162526e-03
<VARIANCE> 25
 9.610795e+00 1.657744e+01 2.865744e+01 2.276470e+01 2.185421e+01 2.406551e+01 2.176868e+01 2.395718e+01 2.018768e+01 2.246198e+01 2.295946e+01 1.438974e+01 1.049266e+00 9.677923e-01 1.234655e+00 1.066452e+00 1.399910e+00 1.294926e+00 1.280284e+00 1.369524e+00 1.347818e+00 1.312726e+00 1.221136e+00 1.068724e+00 8.871793e-04
<GCONST> 7.719379e+01
<MIXTURE> 84 1.066614e-02
<MEAN> 25
 1.431363e+00 8.539042e+00 7.076898e+00 7.722568e+00 2.653535e+00 -1.110630e+00 -1.643366e+00 -4.612799e+00 -4.147888e+00 -3.043483e+00 -2.373908e+00 -1.221577e+00 -1.784576e+00 -1.083248e+00 -1.251613e+00 1.228118e+00 2.189935e+00 1.464727e+00 1.500555e+00 1.161681e+00 1.183651e+00 3.947388e-01 3.446662e-01 4.653669e-01 -6.916692e-02
<VARIANCE> 25
 2.344694e+01 2.044870e+01 2.098749e+01 2.399983e+01 2.797221e+01 2.781447e+01 2.644599e+01 2.545731e+01 2.431786e+01 2.470413e+01 2.225345e+01 2.567819e+01 2.309379e+00 2.562063e+00 3.664184e+00 3.232308e+00 3.356661e+00 3.579654e+00 3.181560e+00 3.511892e+00 3.416597e+00 3.140894e+00 3.455053e+00 2.826120e+00 3.488434e-03
<GCONST> 9.239966e+01
<MIXTURE> 85 7.591393e-03
<MEAN> 25
 -3.115777e+00 7.847233e+00 5.726168e+00 1.324396e+00 -3.517231e+00 -5.424325e+00 -3.006797e+00 -6.072041e+00 -3.549480e+00 -3.210867e+00 -4.856444e-01 -1.866895e+00 3.936111e+00 3.185424e-01 1.751121e+00 -2.086448e+00 -3.420551e+00 -2.572640e+00 -2.912814e+00 -2.338608e+00 -2.233146e+00 -1.262326e+00 -2.288316e+00 -6.385301e-01 9.614492e-03
<VARIANCE> 25
 4.225679e+01 2.361902e+01 3.626862e+01 3.824260e+01 3.970720e+01 4.260163e+01 3.211871e+01 2.813817e+01 2.649990e+01 2.608987e+01 2.608022e+01 2.063456e+01 2.701880e+00 4.306622e+00 4.039295e+00 5.157479e+00 4.389525e+00 3.881597e+00 3.947895e+00 3.967131e+00 3.867931e+00 4.017942e+00 3.952717e+00 3.550744e+00 5.443433e-03
<GCONST> 9.840350e+01
<MIXTURE> 86 1.273941e-02
<MEAN> 25
 -4.055994e+00 -7.315927e-01 -7.034354e-01 5.453172e+00 4.976741e+00 3.167626e+00 6.335408e+00 4.840912e+00 4.058774e+00 3.268696e+00 4.098224e+00 2.550301e+00 2.347455e-02 1.956710e-02 -2.660213e-02 -4.760995e-02 -1.676451e-01 -3.231986e-01 -3.022018e-01 -2.365446e-01 -3.666373e-01 -3.297422e-01 -2.262428e-01 -8.896277e-02 -1.414899e-03
<VARIANCE> 25
 8.344016e+00 5.366311e+00 8.894796e+00 1.094912e+01 1.306782e+01 1.604449e+01 1.222538e+01 1.272407e+01 1.335927e+01 1.488235e+01 1.565750e+01 1.268713e+01 1.180828e-01 2.054367e-01 3.163533e-01 4.867481e-01 5.882328e-01 6.495908e-01 7.412092e-01 6.885251e-01 8.688612e-01 7.338956e-01 8.956895e-01 8.935251e-01 7.054827e-05
<GCONST> 5.784727e+01
<MIXTURE> 87 1.100681e-02
<MEAN> 25
 -2.983319e+00 4.557456e+00 2.830896e+00 6.698991e+00 5.487439e+00 7.054793e-01 2.361944e+00 -9.474388e-01 -7.744642e-01 -9.135407e-01 -1.476218e+00 3.140434e-02 -2.088089e+00 -2.623391e+00 -1.970371e+00 -2.103804e+00 -6.183835e-02 -2.262410e-01 5.613921e-01 1.383233e+00 1.277420e+00 9.125491e-01 8.865191e-01 9.993092e-01 1.028407e-01
<VARIANCE> 25
 3.595339e+01 2.710593e+01 3.052944e+01 3.171210e+01 2.737243e+01 3.135572e+01 3.105986e+01 2.525791e+01 2.408337e+01 2.397855e+01 2.949346e+01 2.256060e+01 3.743461e+00 2.764911e+00 3.889764e+00 3.868126e+00 4.381005e+00 4.168179e+00 3.968027e+00 3.708703e+00 3.395408e+00 3.495806e+00 3.137713e+00 2.510509e+00 4.647254e-03
<GCONST> 9.579166e+01
<MIXTURE> 88 1.256585e-02
<MEAN> 25
 -3.532252e+00 -2.032584e-01 -1.711880e+00 4.359850e+00 4.377769e+00 2.606669e+00 5.317205e+00 2.092604e+00 2.677622e+00 2.349759e+00 1.487653e+00 2.248766e+00 3.673938e-02 5.977937e-02 8.751419e-02 2.186299e-01 2.851370e-01 -3.511360e-02 1.346221e-01 1.769357e-01 -1.216685e-01 -2.113063e-01 -1.462010e-01 2.208694e-01 -5.524778e-03
<VARIANCE> 25
 1.072940e+01 9.150307e+00 1.269827e+01 1.534686e+01 1.614226e+01 1.802070e+01 1.589261e+01 2.080645e+01 1.706878e+01 1.565031e+01 2.233011e+01 1.544970e+01 1.203440e+00 1.449601e+00 1.653017e+00 1.965206e+00 2.265975e+00 2.920017e+00 2.375258e+00 2.898499e+00 2.570652e+00 2.431122e+00 1.965291e+00 2.579962e+00 1.312616e-03
<GCONST> 8.108518e+01
<MIXTURE> 89 9.333527e-03
<MEAN> 25
 5.487170e+00 -6.880311e+00 -2.976875e+00 -2.107881e+00 -2.417744e+00 -5.590069e+00 -8.037102e+00 4.140365e+00 2.797943e+00 -1.889777e+00 -4.300220e+00 -3.840250e+00 -6.667912e-01 1.406474e-01 2.107416e+00 1.031377e+00 -1.776058e+00 -1.771491e+00 7.769198e-01 1.356380e+00 -8.964710e-01 -1.642942e+00 3.485825e-01 1.593256e+00 -4.280076e-03
<VARIANCE> 25
 9.972223e+00 2.445383e+01 2.932659e+01 3.390227e+01 3.767061e+01 4.405005e+01 7.953535e+01 3.774276e+01 3.790942e+01 4.410212e+01 5.484722e+01 3.040533e+01 4.366971e-01 7.467173e-01 1.849490e+00 1.451831e+00 1.731236e+00 2.366206e+00 2.386678e+00 1.988618e+00 2.194346e+00 3.149751e+00 2.351248e+00 1.437534e+00 3.256079e-04
<GCONST> 8.656346e+01
<MIXTURE> 90 7.114505e-03
<MEAN> 25
 2.453769e+00 -9.296844e+00 -4.603387e+00 -3.546152e+00 -2.987321e+00 -1.867661e+00 3.553022e+00 1.072864e+00 -7.538616e+00 -9.985627e+00 -3.098499e+00 -5.787327e-01 -1.558580e-01 8.854852e-01 1.141569e+00 -8.856576e-01 -1.585961e+00 -1.424259e-01 7.455355e-01 -1.344152e-01 -1.695983e-01 7.975824e-01 2.936386e-01 -5.016056e-01 -1.142723e-02
<VARIANCE> 25
 8.105218e+00 2.058681e+01 1.939476e+01 3.046633e+01 3.827770e+01 3.078066e+01 3.747387e+01 3.499756e+01 3.366011e+01 2.756429e+01 2.799514e+01 2.546474e+01 2.149796e-01 5.958616e-01 7.670463e-01 1.017021e+00 1.419638e+00 1.619331e+00 1.912686e+00 1.697055e+00 1.732931e+00 1.675447e+00 1.682934e+00 1.298435e+00 2.071905e-04
<GCONST> 7.817079e+01
<MIXTURE> 91 7.852945e-03
<MEAN> 25
 5.793165e+00 -6.902251e+00 -6.565024e+00 -5.831330e+00 3.462867e+00 2.663275e+00 -1.772977e+00 8.526388e-01 2.177819e+00 -2.472221e+00 -4.259702e+00 -5.528082e+00 1.483251e-01 9.864390e-01 -3.750082e-04 5.945160e-01 6.338829e-02 -6.970101e-01 -7.166444e-02 -3.446819e-02 -2.119688e-01 4.452009e-01 -7.723589e-02 2.476047e-01 -3.647399e-02
<VARIANCE> 25
 9.904981e+00 2.381819e+01 3.227716e+01 4.210036e+01 3.295860e+01 7.709985e+01 5.504293e+01 3.365346e+01 5.232098e+01 5.395570e+01 3.426579e+01 3.521297e+01 4.482687e-01 7.810622e-01 1.069485e+00 1.381285e+00 2.209440e+00 2.422387e+00 2.584529e+00 2.032030e+00 2.100086e+00 1.993870e+00 2.045024e+00 1.546933e+00 5.475266e-04
<GCONST> 8.678098e+01
<MIXTURE> 92 7.852945e-03
<MEAN> 25
 5.793165e+00 -6.902251e+00 -6.565024e+00 -5.831330e+00 3.462867e+00 2.663275e+00 -1.772977e+00 8.526388e-01 2.177819e+00 -2.472221e+00 -4.259702e+00 -5.528082e+00 1.483251e-01 9.864390e-01 -3.750082e-04 5.945160e-01 6.338829e-02 -6.970101e-01 -7.166444e-02 -3.446819e-02 -2.119688e-01 4.452009e-01 -7.723589e-02 2.476047e-01 -3.647399e-02
<VARIANCE> 25
 9.904981e+00 2.381819e+01 3.227716e+01 4.210036e+01 3.295860e+01 7.709985e+01 5.504293e+01 3.365346e+01 5.232098e+01 5.395570e+01 3.426579e+01 3.521297e+01 4.482687e-01 7.810622e-01 1.069485e+00 1.381285e+00 2.209440e+00 2.422387e+00 2.584529e+00 2.032030e+00 2.100086e+00 1.993870e+00 2.045024e+00 1.546933e+00 5.475266e-04
<GCONST> 8.678098e+01
<MIXTURE> 93 6.122769e-03
<MEAN> 25
 -6.757891e+00 -9.133316e-01 -2.289222e+00 5.712872e+00 5.825588e+00 3.789292e+00 6.163195e+00 3.570495e+00 4.049545e+00 2.489753e+00 1.665834e+00 3.661868e+00 -6.610408e-02 -1.628233e-01 -2.639219e-01 -3.520393e-01 -3.347074e-01 -2.805270e-01 -1.958009e-01 -1.734170e-01 -2.096258e-01 -1.458864e-01 -9.312679e-02 -2.764409e-02 -3.081764e-06
<VARIANCE> 25
 9.152267e+00 6.169262e+00 8.397931e+00 1.143506e+01 1.168363e+01 1.635461e+01 1.491841e+01 1.657265e+01 1.451720e+01 1.427791e+01 1.750690e+01 1.318406e+01 8.173877e-02 1.543326e-01 2.593606e-01 3.984861e-01 4.942909e-01 6.304851e-01 7.769562e-01 8.632309e-01 9.718133e-01 8.713774e-01 8.776649e-01 9.020792e-01 1.012170e-06
<GCONST> 5.367281e+01
<MIXTURE> 94 6.122769e-03
<MEAN> 25
 -6.757891e+00 -9.133316e-01 -2.289222e+00 5.712872e+00 5.825588e+00 3.789292e+00 6.163195e+00 3.570495e+00 4.049545e+00 2.489753e+00 1.665834e+00 3.661868e+00 -6.610408e-02 -1.628233e-01 -2.639219e-01 -3.520393e-01 -3.347074e-01 -2.805270e-01 -1.958009e-01 -1.734170e-01 -2.096258e-01 -1.458864e-01 -9.312679e-02 -2.764409e-02 -3.081764e-06
<VARIANCE> 25
 9.152267e+00 6.169262e+00 8.397931e+00 1.143506e+01 1.168363e+01 1.635461e+01 1.491841e+01 1.657265e+01 1.451720e+01 1.427791e+01 1.750690e+01 1.318406e+01 8.173877e-02 1.543326e-01 2.593606e-01 3.984861e-01 4.942909e-01 6.304851e-01 7.769562e-01 8.632309e-01 9.718133e-01 8.713774e-01 8.776649e-01 9.020792e-01 1.012170e-06
<GCONST> 5.367281e+01
<MIXTURE> 95 5.258835e-03
<MEAN> 25
 -3.158344e+00 2.410417e-01 -1.990206e+00 3.830303e+00 4.560412e+00 1.438290e+00 5.840260e+00 1.026881e+00 1.220394e+00 3.812405e-01 -1.381459e-01 2.130246e+00 1.422317e-01 8.406232e-02 -4.491223e-02 2.097227e-01 -1.428684e-01 -5.252979e-01 -1.058458e+00 -1.274371e+00 -1.209628e+00 -9.808621e-01 -1.012955e+00 -5.724719e-01 -1.637258e-03
<VARIANCE> 25
 1.527297e+01 5.588348e+00 1.066317e+01 1.062660e+01 9.447764e+00 1.656276e+01 1.589939e+01 1.853691e+01 1.336899e+01 1.422140e+01 1.750715e+01 1.262507e+01 2.241983e-01 2.074413e-01 4.334562e-01 6.167759e-01 6.635912e-01 6.855509e-01 6.803557e-01 7.469553e-01 1.024285e+00 9.820246e-01 1.477639e+00 1.055015e+00 4.606691e-05
<GCONST> 6.112140e+01
<MIXTURE> 96 7.034694e-03
<MEAN> 25
 -4.947420e+00 -4.358560e-01 -2.198771e+00 5.133875e+00 3.940185e+00 1.637331e+00 3.570708e+00 1.761891e+00 2.406406e+00 8.970914e-01 9.288157e-01 2.786894e+00 -1.998597e-02 7.987344e-02 1.978248e-01 3.987485e-01 5.340875e-01 4.942381e-01 2.326013e-01 -1.240772e-01 -4.734512e-01 -6.524128e-01 -5.944095e-01 -3.569721e-01 -3.882005e-05
<VARIANCE> 25
 1.156715e+01 9.532606e+00 1.271684e+01 1.407996e+01 1.481325e+01 2.007366e+01 1.782789e+01 1.897202e+01 1.769184e+01 1.640050e+01 2.091719e+01 1.422410e+01 1.228805e-01 2.164403e-01 3.222546e-01 3.982551e-01 4.942008e-01 6.583185e-01 8.717016e-01 9.756599e-01 9.561529e-01 8.501130e-01 8.814865e-01 9.259342e-01 1.122339e-06
<GCONST> 5.764677e+01
<MIXTURE> 97 7.034694e-03
<MEAN> 25
 -4.947420e+00 -4.358560e-01 -2.198771e+00 5.133875e+00 3.940185e+00 1.637331e+00 3.570708e+00 1.761891e+00 2.406406e+00 8.970914e-01 9.288157e-01 2.786894e+00 -1.998597e-02 7.987344e-02 1.978248e-01 3.987485e-01 5.340875e-01 4.942381e-01 2.326013e-01 -1.240772e-01 -4.734512e-01 -6.524128e-01 -5.944095e-01 -3.569721e-01 -3.882005e-05
<VARIANCE> 25
 1.156715e+01 9.532606e+00 1.271684e+01 1.407996e+01 1.481325e+01 2.007366e+01 1.782789e+01 1.897202e+01 1.769184e+01 1.640050e+01 2.091719e+01 1.422410e+01 1.228805e-01 2.164403e-01 3.222546e-01 3.982551e-01 4.942008e-01 6.583185e-01 8.717016e-01 9.756599e-01 9.561529e-01 8.501130e-01 8.814865e-01 9.259342e-01 1.122339e-06
<GCONST> 5.764677e+01
<MIXTURE> 98 9.917808e-03
<MEAN> 25
 -1.093868e+00 1.041366e+00 -4.209613e-01 4.248565e+00 3.584481e+00 2.412316e+00 3.385763e+00 1.107232e+00 1.281282e+00 9.467235e-01 4.083195e-01 1.115890e+00 -1.649234e+00 -1.366819e+00 -9.545919e-01 8.275738e-02 5.151216e-01 6.816196e-01 1.214653e+00 1.469174e+00 1.559175e+00 1.070110e+00 1.243782e+00 9.522910e-01 -3.039711e-02
<VARIANCE> 25
 1.437085e+01 1.827356e+01 2.966102e+01 3.030564e+01 3.975156e+01 3.456702e+01 3.139280e+01 2.906565e+01 2.718597e+01 2.899627e+01 2.644395e+01 2.349038e+01 1.451540e+00 1.549447e+00 2.185730e+00 2.370572e+00 2.843794e+00 3.341669e+00 2.724783e+00 2.642141e+00 2.666267e+00 3.034298e+00 2.661127e+00 2.114341e+00 2.465874e-03
<GCONST> 8.995606e+01
<MIXTURE> 99 6.696178e-03
<MEAN> 25
 -7.066925e+00 9.842596e+00 4.724626e+00 4.381649e+00 1.067323e+00 -4.906469e+00 -4.467045e-01 -4.708835e+00 -2.825652e+00 -3.502894e+00 -1.478329e+00 3.202516e-01 5.309315e-01 -5.628993e-01 1.364051e-01 -3.755684e-01 -9.753179e-01 -4.239972e-01 -2.801282e-01 -6.069279e-02 1.420997e-01 -7.967743e-02 1.268750e-01 6.538553e-02 5.017227e-03
<VARIANCE> 25
 3.153856e+01 2.303231e+01 5.528180e+01 3.098585e+01 3.108821e+01 3.393562e+01 2.903769e+01 2.514673e+01 2.509332e+01 2.534511e+01 1.757698e+01 2.606763e+01 2.003661e+00 1.921952e+00 1.431529e+00 1.492302e+00 2.604135e+00 2.081559e+00 1.490587e+00 1.584000e+00 1.628491e+00 1.703395e+00 1.149253e+00 1.215954e+00 1.565338e-03
<GCONST> 8.567009e+01
<MIXTURE> 100 4.498084e-03
<MEAN> 25
 -1.598913e+00 6.344051e+00 1.027457e+01 -7.461058e+00 -1.077957e+01 -5.074368e+00 -4.940442e+00 -9.968053e+00 -4.718119e+00 -8.543591e-01 -2.732919e+00 -2.707987e+00 2.917230e+00 -1.260634e+00 1.299258e+00 -2.185364e+00 -3.418891e+00 -7.839861e-01 -1.218746e+00 -8.188253e-01 -1.475303e+00 3.467367e-01 -1.655322e+00 -2.863796e-01 2.011998e-03
<VARIANCE> 25
 1.362520e+01 2.105615e+01 2.247979e+01 2.643153e+01 2.303651e+01 2.371957e+01 2.911461e+01 2.170393e+01 2.747860e+01 2.265013e+01 2.240646e+01 2.134710e+01 1.800503e+00 3.952928e+00 2.919889e+00 4.287143e+00 4.185104e+00 4.539783e+00 4.014787e+00 4.343194e+00 4.168348e+00 3.895263e+00 3.910003e+00 3.224284e+00 1.674548e-03
<GCONST> 9.257118e+01
<MIXTURE> 101 6.007792e-03
<MEAN> 25
 8.090349e+00 -3.486240e+00 -6.296869e+00 -6.871068e+00 8.393309e-01 -1.246289e+00 -1.058986e+01 -2.064369e+00 1.629061e+00 2.717371e+00 -2.377311e+00 -5.133591e+00 6.734242e-01 6.486495e-01 -1.455926e+00 -1.611421e+00 1.028365e+00 2.317292e+00 1.983426e-01 -1.457419e+00 -1.063784e+00 1.035652e+00 1.371391e+00 -4.150351e-01 -4.782444e-03
<VARIANCE> 25
 9.279132e+00 1.669746e+01 2.995790e+01 4.278923e+01 3.622374e+01 3.596908e+01 3.706179e+01 3.619965e+01 3.784880e+01 4.393574e+01 5.177763e+01 2.426555e+01 2.934843e-01 6.726146e-01 1.172116e+00 1.553716e+00 1.697868e+00 2.096058e+00 2.084898e+00 1.995728e+00 2.346949e+00 2.215187e+00 1.786585e+00 1.934679e+00 3.459851e-04
<GCONST> 8.366409e+01
<MIXTURE> 102 6.007792e-03
<MEAN> 25
 8.090349e+00 -3.486240e+00 -6.296869e+00 -6.871068e+00 8.393309e-01 -1.246289e+00 -1.058986e+01 -2.064369e+00 1.629061e+00 2.717371e+00 -2.377311e+00 -5.133591e+00 6.734242e-01 6.486495e-01 -1.455926e+00 -1.611421e+00 1.028365e+00 2.317292e+00 1.983426e-01 -1.457419e+00 -1.063784e+00 1.035652e+00 1.371391e+00 -4.150351e-01 -4.782444e-03
<VARIANCE> 25
 9.279132e+00 1.669746e+01 2.995790e+01 4.278923e+01 3.622374e+01 3.596908e+01 3.706179e+01 3.619965e+01 3.784880e+01 4.393574e+01 5.177763e+01 2.426555e+01 2.934843e-01 6.726146e-01 1.172116e+00 1.553716e+00 1.697868e+00 2.096058e+00 2.084898e+00 1.995728e+00 2.346949e+00 2.215187e+00 1.786585e+00 1.934679e+00 3.459851e-04
<GCONST> 8.366409e+01
<MIXTURE> 103 5.694618e-03
<MEAN> 25
 3.365853e+00 -9.470685e+00 -6.131418e+00 -3.083906e+00 -1.326087e+00 -1.969174e+00 2.445540e+00 2.516429e+00 -4.612204e+00 -9.251605e+00 -5.062445e+00 3.623537e-01 -1.576538e-01 -1.487577e+00 -9.810528e-01 3.748761e-01 1.212750e+00 1.019335e+00 1.589483e-01 -2.667312e-01 -7.804395e-01 -9.456468e-01 -3.549773e-02 1.200508e-01 2.693015e-02
<VARIANCE> 25
 1.033701e+01 2.041717e+01 2.289333e+01 3.170984e+01 4.806846e+01 3.499520e+01 4.643174e+01 3.667973e+01 4.208999e+01 2.935294e+01 3.005792e+01 2.639738e+01 6.434941e-01 1.252778e+00 1.536971e+00 1.940235e+00 2.926392e+00 2.411415e+00 2.888997e+00 2.578130e+00 2.563197e+00 2.523994e+00 2.097047e+00 2.016721e+00 8.077777e-04
<GCONST> 8.757713e+01
<MIXTURE> 104 5.694618e-03
<MEAN> 25
 3.365853e+00 -9.470685e+00 -6.131418e+00 -3.083906e+00 -1.326087e+00 -1.969174e+00 2.445540e+00 2.516429e+00 -4.612204e+00 -9.251605e+00 -5.062445e+00 3.623537e-01 -1.576538e-01 -1.487577e+00 -9.810528e-01 3.748761e-01 1.212750e+00 1.019335e+00 1.589483e-01 -2.667312e-01 -7.804395e-01 -9.456468e-01 -3.549773e-02 1.200508e-01 2.693015e-02
<VARIANCE> 25
 1.033701e+01 2.041717e+01 2.289333e+01 3.170984e+01 4.806846e+01 3.499520e+01 4.643174e+01 3.667973e+01 4.208999e+01 2.935294e+01 3.005792e+01 2.639738e+01 6.434941e-01 1.252778e+00 1.536971e+00 1.940235e+00 2.926392e+00 2.411415e+00 2.888997e+00 2.578130e+00 2.563197e+00 2.523994e+00 2.097047e+00 2.016721e+00 8.077777e-04
<GCONST> 8.757713e+01
<MIXTURE> 105 4.710235e-03
<MEAN> 25
 2.201789e+00 -1.554121e+00 9.092070e+00 -2.623938e+00 -1.154706e+01 -5.251383e+00 -4.550260e+00 -7.228486e-01 -3.722805e+00 -3.147828e+00 1.373299e+00 -1.253733e+00 1.330608e-02 3.511290e-02 2.314210e-02 -4.902885e-02 1.419520e-02 5.097279e-02 -2.456285e-02 4.802264e-02 -7.996307e-02 3.629000e-02 4.164190e-02 -2.781846e-02 -2.119851e-03
<VARIANCE> 25
 1.310380e+01 2.821786e+01 4.123544e+01 4.436629e+01 3.727317e+01 5.570077e+01 4.761100e+01 4.262766e+01 3.946643e+01 4.129702e+01 4.212523e+01 3.064646e+01 8.291469e-02 1.842181e-01 3.683953e-01 2.856569e-01 3.702935e-01 4.214139e-01 4.704754e-01 4.825510e-01 5.781935e-01 4.379385e-01 4.209292e-01 3.905850e-01 8.802657e-05
<GCONST> 6.689459e+01
<MIXTURE> 106 4.710235e-03
<MEAN> 25
 2.201789e+00 -1.554121e+00 9.092070e+00 -2.623938e+00 -1.154706e+01 -5.251383e+00 -4.550260e+00 -7.228486e-01 -3.722805e+00 -3.147828e+00 1.373299e+00 -1.253733e+00 1.330608e-02 3.511290e-02 2.314210e-02 -4.902885e-02 1.419520e-02 5.097279e-02 -2.456285e-02 4.802264e-02 -7.996307e-02 3.629000e-02 4.164190e-02 -2.781846e-02 -2.119851e-03
<VARIANCE> 25
 1.310380e+01 2.821786e+01 4.123544e+01 4.436629e+01 3.727317e+01 5.570077e+01 4.761100e+01 4.262766e+01 3.946643e+01 4.129702e+01 4.212523e+01 3.064646e+01 8.291469e-02 1.842181e-01 3.683953e-01 2.856569e-01 3.702935e-01 4.214139e-01 4.704754e-01 4.825510e-01 5.781935e-01 4.379385e-01 4.209292e-01 3.905850e-01 8.802657e-05
<GCONST> 6.689459e+01
<MIXTURE> 107 5.452374e-03
<MEAN> 25
 8.110165e+00 -3.200083e+00 -6.896277e+00 -9.506382e+00 4.398645e-01 4.363039e+00 -9.691562e+00 -4.001598e+00 -8.256023e-01 4.467497e+00 1.856598e+00 -5.440876e+00 -6.247227e-01 -9.108982e-01 9.279733e-01 1.980615e+00 3.856085e-01 -2.173818e+00 -9.555401e-01 8.633495e-01 1.668151e+00 -2.850956e-02 -1.630141e+00 -7.987310e-01 -1.051846e-03
<VARIANCE> 25
 9.383951e+00 2.164441e+01 3.314063e+01 4.387159e+01 4.267869e+01 4.704513e+01 5.395444e+01 3.248969e+01 5.492374e+01 4.318709e+01 5.214736e+01 2.763617e+01 3.315579e-01 1.008158e+00 1.392275e+00 3.086433e+00 2.185232e+00 3.756062e+00 2.360564e+00 2.334248e+00 2.063956e+00 2.960821e+00 1.790983e+00 1.958629e+00 6.114572e-04
<GCONST> 8.850050e+01
<MIXTURE> 108 5.452374e-03
<MEAN> 25
 8.110165e+00 -3.200083e+00 -6.896277e+00 -9.506382e+00 4.398645e-01 4.363039e+00 -9.691562e+00 -4.001598e+00 -8.256023e-01 4.467497e+00 1.856598e+00 -5.440876e+00 -6.247227e-01 -9.108982e-01 9.279733e-01 1.980615e+00 3.856085e-01 -2.173818e+00 -9.555401e-01 8.633495e-01 1.668151e+00 -2.850956e-02 -1.630141e+00 -7.987310e-01 -1.051846e-03
<VARIANCE> 25
 9.383951e+00 2.164441e+01 3.314063e+01 4.387159e+01 4.267869e+01 4.704513e+01 5.395444e+01 3.248969e+01 5.492374e+01 4.318709e+01 5.214736e+01 2.763617e+01 3.315579e-01 1.008158e+00 1.392275e+00 3.086433e+00 2.185232e+00 3.756062e+00 2.360564e+00 2.334248e+00 2.063956e+00 2.960821e+00 1.790983e+00 1.958629e+00 6.114572e-04
<GCONST> 8.850050e+01
<MIXTURE> 109 6.661064e-03
<MEAN> 25
 4.046474e+00 -1.021270e+01 -8.208518e+00 -1.183714e+00 2.876621e+00 -3.807700e-02 1.695971e-01 1.474999e+00 -2.600317e+00 -8.197320e+00 -5.392569e+00 -2.114078e-03 -2.976541e-02 -1.248140e-01 -5.656583e-02 2.437779e-01 1.910003e-01 1.220046e-01 -1.190533e-01 -1.212968e-01 -3.663663e-02 -1.193058e-01 1.917708e-01 -1.156928e-02 -3.485151e-03
<VARIANCE> 25
 8.881170e+00 2.153117e+01 1.986290e+01 3.188259e+01 4.031720e+01 3.618715e+01 4.802784e+01 3.423201e+01 4.497388e+01 3.539317e+01 2.906959e+01 2.776956e+01 1.911818e-01 4.158692e-01 5.579872e-01 6.236776e-01 1.209913e+00 9.847732e-01 1.244257e+00 1.091712e+00 1.121910e+00 9.470096e-01 9.028713e-01 8.950249e-01 1.794639e-04
<GCONST> 7.452394e+01
<MIXTURE> 110 6.661064e-03
<MEAN> 25
 4.046474e+00 -1.021270e+01 -8.208518e+00 -1.183714e+00 2.876621e+00 -3.807700e-02 1.695971e-01 1.474999e+00 -2.600317e+00 -8.197320e+00 -5.392569e+00 -2.114078e-03 -2.976541e-02 -1.248140e-01 -5.656583e-02 2.437779e-01 1.910003e-01 1.220046e-01 -1.190533e-01 -1.212968e-01 -3.663663e-02 -1.193058e-01 1.917708e-01 -1.156928e-02 -3.485151e-03
<VARIANCE> 25
 8.881170e+00 2.153117e+01 1.986290e+01 3.188259e+01 4.031720e+01 3.618715e+01 4.802784e+01 3.423201e+01 4.497388e+01 3.539317e+01 2.906959e+01 2.776956e+01 1.911818e-01 4.158692e-01 5.579872e-01 6.236776e-01 1.209913e+00 9.847732e-01 1.244257e+00 1.091712e+00 1.121910e+00 9.470096e-01 9.028713e-01 8.950249e-01 1.794639e-04
<GCONST> 7.452394e+01
<MIXTURE> 111 4.337247e-03
<MEAN> 25
 -4.038416e+00 -6.614910e-01 -1.552900e+00 1.871686e+00 1.455109e+00 3.949706e-01 1.174727e+00 2.415528e-01 -1.602218e-01 -5.968310e-01 -1.060848e+00 1.566227e+00 -1.525634e-02 -4.396928e-02 -6.770659e-02 -1.388573e-01 2.481546e-02 3.351101e-02 -7.740361e-03 -9.652282e-02 -2.485308e-01 -3.060504e-01 -1.895340e-01 1.067843e-03 -3.662576e-04
<VARIANCE> 25
 7.967464e+00 4.784905e+00 9.651831e+00 9.065812e+00 1.356138e+01 2.256672e+01 1.662284e+01 1.479069e+01 1.107290e+01 1.084208e+01 1.430452e+01 1.258756e+01 8.971967e-02 1.691735e-01 2.795741e-01 5.299371e-01 5.745919e-01 6.400473e-01 7.370775e-01 7.754775e-01 9.420661e-01 8.939328e-01 1.000817e+00 9.839175e-01 2.812644e-05
<GCONST> 5.694611e+01
<MIXTURE> 112 4.337247e-03
<MEAN> 25
 -4.038416e+00 -6.614910e-01 -1.552900e+00 1.871686e+00 1.455109e+00 3.949706e-01 1.174727e+00 2.415528e-01 -1.602218e-01 -5.968310e-01 -1.060848e+00 1.566227e+00 -1.525634e-02 -4.396928e-02 -6.770659e-02 -1.388573e-01 2.481546e-02 3.351101e-02 -7.740361e-03 -9.652282e-02 -2.485308e-01 -3.060504e-01 -1.895340e-01 1.067843e-03 -3.662576e-04
<VARIANCE> 25
 7.967464e+00 4.784905e+00 9.651831e+00 9.065812e+00 1.356138e+01 2.256672e+01 1.662284e+01 1.479069e+01 1.107290e+01 1.084208e+01 1.430452e+01 1.258756e+01 8.971967e-02 1.691735e-01 2.795741e-01 5.299371e-01 5.745919e-01 6.400473e-01 7.370775e-01 7.754775e-01 9.420661e-01 8.939328e-01 1.000817e+00 9.839175e-01 2.812644e-05
<GCONST> 5.694611e+01
<MIXTURE> 113 5.938666e-03
<MEAN> 25
 9.957472e+00 1.691521e+00 -8.689526e+00 -1.704719e+01 -1.099684e+00 5.729365e+00 -5.307992e+00 -1.478805e+00 -5.594810e+00 -4.654601e-01 3.386881e-01 -2.219602e-01 4.048837e-03 4.845795e-03 -5.792775e-02 -1.156582e-01 1.062435e-01 1.598569e-01 6.165616e-02 4.565751e-02 -4.997784e-02 -5.121579e-02 1.766398e-01 2.679364e-02 -1.356639e-03
<VARIANCE> 25
 8.870195e+00 1.686737e+01 3.064625e+01 3.399372e+01 5.299115e+01 3.434928e+01 3.957718e+01 3.891634e+01 3.854757e+01 4.622762e+01 3.630170e+01 2.834196e+01 1.215568e-01 3.299851e-01 3.146919e-01 6.291157e-01 6.244524e-01 6.613756e-01 7.721120e-01 8.533929e-01 9.599587e-01 9.036288e-01 7.219234e-01 7.193881e-01 1.244896e-04
<GCONST> 7.124591e+01
<MIXTURE> 114 5.938666e-03
<MEAN> 25
 9.957472e+00 1.691521e+00 -8.689526e+00 -1.704719e+01 -1.099684e+00 5.729365e+00 -5.307992e+00 -1.478805e+00 -5.594810e+00 -4.654601e-01 3.386881e-01 -2.219602e-01 4.048837e-03 4.845795e-03 -5.792775e-02 -1.156582e-01 1.062435e-01 1.598569e-01 6.165616e-02 4.565751e-02 -4.997784e-02 -5.121579e-02 1.766398e-01 2.679364e-02 -1.356639e-03
<VARIANCE> 25
 8.870195e+00 1.686737e+01 3.064625e+01 3.399372e+01 5.299115e+01 3.434928e+01 3.957718e+01 3.891634e+01 3.854757e+01 4.622762e+01 3.630170e+01 2.834196e+01 1.215568e-01 3.299851e-01 3.146919e-01 6.291157e-01 6.244524e-01 6.613756e-01 7.721120e-01 8.533929e-01 9.599587e-01 9.036288e-01 7.219234e-01 7.193881e-01 1.244896e-04
<GCONST> 7.124591e+01
<MIXTURE> 115 2.935202e-03
<MEAN> 25
 -3.542764e+00 -6.701826e-01 -3.057069e+00 3.508740e+00 2.798278e+00 -8.573408e-01 2.429508e+00 3.718342e-01 1.194948e+00 -7.801205e-02 -3.078307e-01 2.761890e+00 5.975764e-02 -5.921799e-02 -2.823081e-01 -3.799074e-01 -5.908054e-01 -6.649396e-01 -5.875250e-01 -4.544721e-01 -5.252908e-01 -5.071291e-01 -4.244404e-01 -1.859283e-01 -1.196578e-04
<VARIANCE> 25
 1.019034e+01 8.867352e+00 1.297255e+01 1.155924e+01 1.326407e+01 1.759087e+01 1.601157e+01 1.878467e+01 1.665880e+01 1.572830e+01 1.869506e+01 1.339041e+01 2.185989e-01 3.280796e-01 4.554890e-01 6.048310e-01 5.890169e-01 7.244768e-01 1.036059e+00 1.058186e+00 1.132753e+00 9.638068e-01 1.046850e+00 1.007980e+00 1.108145e-06
<GCONST> 5.945592e+01
<MIXTURE> 116 2.935202e-03
<MEAN> 25
 -3.542764e+00 -6.701826e-01 -3.057069e+00 3.508740e+00 2.798278e+00 -8.573408e-01 2.429508e+00 3.718342e-01 1.194948e+00 -7.801205e-02 -3.078307e-01 2.761890e+00 5.975764e-02 -5.921799e-02 -2.823081e-01 -3.799074e-01 -5.908054e-01 -6.649396e-01 -5.875250e-01 -4.544721e-01 -5.252908e-01 -5.071291e-01 -4.244404e-01 -1.859283e-01 -1.196578e-04
<VARIANCE> 25
 1.019034e+01 8.867352e+00 1.297255e+01 1.155924e+01 1.326407e+01 1.759087e+01 1.601157e+01 1.878467e+01 1.665880e+01 1.572830e+01 1.869506e+01 1.339041e+01 2.185989e-01 3.280796e-01 4.554890e-01 6.048310e-01 5.890169e-01 7.244768e-01 1.036059e+00 1.058186e+00 1.132753e+00 9.638068e-01 1.046850e+00 1.007980e+00 1.108145e-06
<GCONST> 5.945592e+01
<MIXTURE> 117 6.506003e-03
<MEAN> 25
 -4.794013e+00 1.326175e+00 1.061267e+00 9.704400e+00 6.376231e+00 6.208593e+00 6.450991e+00 4.631677e+00 6.196588e+00 4.978607e+00 6.248923e+00 2.629423e+00 -7.408553e-02 -2.466747e-01 -3.491870e-01 -4.040412e-01 -4.064068e-01 -3.174883e-01 -2.699351e-01 -3.300392e-01 -4.129835e-01 -4.160872e-01 -2.737465e-01 -1.409108e-01 -7.340614e-05
<VARIANCE> 25
 7.638772e+00 9.786955e+00 9.502793e+00 1.395214e+01 1.554046e+01 1.494849e+01 1.717448e+01 2.251546e+01 1.695542e+01 1.593686e+01 1.663926e+01 1.448548e+01 2.098675e-01 3.026416e-01 4.153122e-01 6.055390e-01 8.723344e-01 1.028804e+00 1.149810e+00 1.194310e+00 1.199196e+00 1.224676e+00 1.134322e+00 1.097631e+00 1.093385e-06
<GCONST> 6.058767e+01
<MIXTURE> 118 6.506003e-03
<MEAN> 25
 -4.794013e+00 1.326175e+00 1.061267e+00 9.704400e+00 6.376231e+00 6.208593e+00 6.450991e+00 4.631677e+00 6.196588e+00 4.978607e+00 6.248923e+00 2.629423e+00 -7.408553e-02 -2.466747e-01 -3.491870e-01 -4.040412e-01 -4.064068e-01 -3.174883e-01 -2.699351e-01 -3.300392e-01 -4.129835e-01 -4.160872e-01 -2.737465e-01 -1.409108e-01 -7.340614e-05
<VARIANCE> 25
 7.638772e+00 9.786955e+00 9.502793e+00 1.395214e+01 1.554046e+01 1.494849e+01 1.717448e+01 2.251546e+01 1.695542e+01 1.593686e+01 1.663926e+01 1.448548e+01 2.098675e-01 3.026416e-01 4.153122e-01 6.055390e-01 8.723344e-01 1.028804e+00 1.149810e+00 1.194310e+00 1.199196e+00 1.224676e+00 1.134322e+00 1.097631e+00 1.093385e-06
<GCONST> 6.058767e+01
<MIXTURE> 119 4.297961e-03
<MEAN> 25
 -4.940725e+00 -7.508122e+00 2.179198e+00 1.996838e+00 2.276672e+00 1.403052e-01 5.354805e+00 5.922982e+00 1.108745e+00 9.271902e-01 6.451941e+00 1.609043e+00 -4.657154e-02 -7.672556e-02 4.087061e-02 -5.028037e-02 -1.105406e-01 -1.824490e-01 -7.044344e-02 -2.343752e-02 -1.189915e-01 -1.204290e-01 -3.592122e-02 -4.671019e-02 1.005666e-03
<VARIANCE> 25
 8.417066e+00 1.035105e+01 1.634735e+01 1.981370e+01 2.252961e+01 2.302629e+01 2.480699e+01 2.597149e+01 2.481671e+01 2.757505e+01 2.116335e+01 2.007858e+01 1.602091e-01 2.780673e-01 4.577468e-01 6.239891e-01 8.191934e-01 1.004460e+00 1.093110e+00 1.269299e+00 1.360616e+00 1.227783e+00 1.200304e+00 1.111669e+00 2.288025e-04
<GCONST> 6.968187e+01
<MIXTURE> 120 4.297961e-03
<MEAN> 25
 -4.940725e+00 -7.508122e+00 2.179198e+00 1.996838e+00 2.276672e+00 1.403052e-01 5.354805e+00 5.922982e+00 1.108745e+00 9.271902e-01 6.451941e+00 1.609043e+00 -4.657154e-02 -7.672556e-02 4.087061e-02 -5.028037e-02 -1.105406e-01 -1.824490e-01 -7.044344e-02 -2.343752e-02 -1.189915e-01 -1.204290e-01 -3.592122e-02 -4.671019e-02 1.005666e-03
<VARIANCE> 25
 8.417066e+00 1.035105e+01 1.634735e+01 1.981370e+01 2.252961e+01 2.302629e+01 2.480699e+01 2.597149e+01 2.481671e+01 2.757505e+01 2.116335e+01 2.007858e+01 1.602091e-01 2.780673e-01 4.577468e-01 6.239891e-01 8.191934e-01 1.004460e+00 1.093110e+00 1.269299e+00 1.360616e+00 1.227783e+00 1.200304e+00 1.111669e+00 2.288025e-04
<GCONST> 6.968187e+01
<MIXTURE> 121 4.567511e-03
<MEAN> 25
 2.132400e-01 -2.528728e+00 5.151683e+00 -1.290057e+01 -1.263334e+01 -1.640033e+00 9.925947e-01 -5.102540e+00 -4.176184e+00 -4.906547e-01 -5.502279e+00 -4.313131e+00 2.309463e-02 1.327854e-01 -4.175535e-02 7.978175e-02 1.596417e-01 7.903536e-02 -7.865296e-02 -1.826059e-01 -2.689489e-01 -2.585676e-01 -1.153119e-01 8.600825e-04 -7.475063e-03
<VARIANCE> 25
 7.764914e+00 1.561977e+01 1.725643e+01 2.039592e+01 2.447929e+01 2.959927e+01 2.954672e+01 2.456676e+01 3.557460e+01 2.829811e+01 1.974920e+01 2.117357e+01 1.560582e-01 6.440146e-01 6.225960e-01 7.047729e-01 7.719248e-01 1.149150e+00 1.116648e+00 1.120069e+00 1.218021e+00 1.192783e+00 9.415275e-01 8.736303e-01 2.124796e-04
<GCONST> 7.143593e+01
<MIXTURE> 122 4.567511e-03
<MEAN> 25
 2.132400e-01 -2.528728e+00 5.151683e+00 -1.290057e+01 -1.263334e+01 -1.640033e+00 9.925947e-01 -5.102540e+00 -4.176184e+00 -4.906547e-01 -5.502279e+00 -4.313131e+00 2.309463e-02 1.327854e-01 -4.175535e-02 7.978175e-02 1.596417e-01 7.903536e-02 -7.865296e-02 -1.826059e-01 -2.689489e-01 -2.585676e-01 -1.153119e-01 8.600825e-04 -7.475063e-03
<VARIANCE> 25
 7.764914e+00 1.561977e+01 1.725643e+01 2.039592e+01 2.447929e+01 2.959927e+01 2.954672e+01 2.456676e+01 3.557460e+01 2.829811e+01 1.974920e+01 2.117357e+01 1.560582e-01 6.440146e-01 6.225960e-01 7.047729e-01 7.719248e-01 1.149150e+00 1.116648e+00 1.120069e+00 1.218021e+00 1.192783e+00 9.415275e-01 8.736303e-01 2.124796e-04
<GCONST> 7.143593e+01
<MIXTURE> 123 4.393044e-03
<MEAN> 25
 -3.459202e+00 1.066903e+00 -1.567171e-01 5.410913e+00 5.048110e+00 2.049373e+00 4.071727e+00 7.762297e-01 2.697972e-01 -6.372334e-01 -4.495001e-01 4.717705e-01 -3.808042e-01 -6.770501e-01 -8.166414e-01 -6.615319e-01 -2.804628e-01 4.940199e-02 3.612747e-01 5.286453e-01 6.585885e-01 6.871909e-01 6.189210e-01 4.890655e-01 -3.778037e-03
<VARIANCE> 25
 1.315724e+01 9.037479e+00 1.480863e+01 1.580860e+01 1.946687e+01 2.903725e+01 1.906959e+01 1.898547e+01 1.843604e+01 1.627068e+01 1.990268e+01 1.790156e+01 3.769838e-01 3.639213e-01 4.873471e-01 6.875432e-01 8.844664e-01 1.329510e+00 1.141648e+00 1.123353e+00 1.234535e+00 1.219344e+00 1.297297e+00 1.119079e+00 1.256984e-04
<GCONST> 6.912073e+01
<MIXTURE> 124 4.069876e-03
<MEAN> 25
 -6.300882e+00 -1.146591e+00 -2.820333e+00 4.980389e+00 5.014833e+00 3.092812e+00 5.495946e+00 2.608458e+00 3.072932e+00 1.122472e+00 9.234397e-01 2.968023e+00 -1.932767e-01 -3.118987e-01 -3.770109e-01 -2.225359e-01 1.372868e-01 5.015579e-01 7.958767e-01 8.404277e-01 6.364057e-01 3.073332e-01 5.170291e-02 -1.504221e-02 1.844975e-05
<VARIANCE> 25
 1.238675e+01 6.791452e+00 1.120976e+01 1.207339e+01 1.211707e+01 2.020591e+01 1.524391e+01 1.660768e+01 1.515565e+01 1.591738e+01 1.983124e+01 1.381853e+01 1.095484e-01 1.704403e-01 2.903326e-01 4.329389e-01 5.879948e-01 7.131734e-01 7.422988e-01 7.858104e-01 9.126994e-01 9.500764e-01 1.056264e+00 9.589661e-01 1.894180e-05
<GCONST> 5.895408e+01
<MIXTURE> 125 4.069876e-03
<MEAN> 25
 -6.300882e+00 -1.146591e+00 -2.820333e+00 4.980389e+00 5.014833e+00 3.092812e+00 5.495946e+00 2.608458e+00 3.072932e+00 1.122472e+00 9.234397e-01 2.968023e+00 -1.932767e-01 -3.118987e-01 -3.770109e-01 -2.225359e-01 1.372868e-01 5.015579e-01 7.958767e-01 8.404277e-01 6.364057e-01 3.073332e-01 5.170291e-02 -1.504221e-02 1.844975e-05
<VARIANCE> 25
 1.238675e+01 6.791452e+00 1.120976e+01 1.207339e+01 1.211707e+01 2.020591e+01 1.524391e+01 1.660768e+01 1.515565e+01 1.591738e+01 1.983124e+01 1.381853e+01 1.095484e-01 1.704403e-01 2.903326e-01 4.329389e-01 5.879948e-01 7.131734e-01 7.422988e-01 7.858104e-01 9.126994e-01 9.500764e-01 1.056264e+00 9.589661e-01 1.894180e-05
<GCONST> 5.895408e+01
<MIXTURE> 126 2.402244e-03
<MEAN> 25
 -3.686306e+00 -6.665146e+00 -5.129190e+00 2.350856e+00 4.318433e+00 -3.419151e+00 2.517209e-01 3.505519e+00 2.988254e+00 -2.649411e+00 -1.372070e+00 3.003271e+00 7.746630e-03 2.420605e-03 -3.514697e-02 -1.506546e-01 -2.996572e-01 -3.752830e-01 -2.919531e-01 -1.852679e-01 -1.336242e-01 -1.084949e-01 -9.372555e-02 -3.960844e-02 -1.831013e-03
<VARIANCE> 25
 7.647737e+00 1.372853e+01 1.418612e+01 1.460345e+01 2.393567e+01 2.431538e+01 2.308448e+01 2.759726e+01 3.373114e+01 2.531167e+01 2.141776e+01 1.863842e+01 1.738458e-01 3.479030e-01 4.809649e-01 5.576003e-01 7.464294e-01 9.778328e-01 1.126670e+00 1.283603e+00 1.430161e+00 1.288221e+00 1.203707e+00 1.131425e+00 2.098683e-04
<GCONST> 6.988029e+01
<MIXTURE> 127 2.402244e-03
<MEAN> 25
 -3.686306e+00 -6.665146e+00 -5.129190e+00 2.350856e+00 4.318433e+00 -3.419151e+00 2.517209e-01 3.505519e+00 2.988254e+00 -2.649411e+00 -1.372070e+00 3.003271e+00 7.746630e-03 2.420605e-03 -3.514697e-02 -1.506546e-01 -2.996572e-01 -3.752830e-01 -2.919531e-01 -1.852679e-01 -1.336242e-01 -1.084949e-01 -9.372555e-02 -3.960844e-02 -1.831013e-03
<VARIANCE> 25
 7.647737e+00 1.372853e+01 1.418612e+01 1.460345e+01 2.393567e+01 2.431538e+01 2.308448e+01 2.759726e+01 3.373114e+01 2.531167e+01 2.141776e+01 1.863842e+01 1.738458e-01 3.479030e-01 4.809649e-01 5.576003e-01 7.464294e-01 9.778328e-01 1.126670e+00 1.283603e+00 1.430161e+00 1.288221e+00 1.203707e+00 1.131425e+00 2.098683e-04
<GCONST> 6.988029e+01
<MIXTURE> 128 3.790457e-03
<MEAN> 25
 -3.928704e+00 1.556759e+00 -3.401347e-01 6.518266e+00 3.593469e+00 1.831766e+00 3.576197e+00 2.302829e+00 3.906782e+00 3.694695e+00 3.735160e+00 3.458595e+00 -3.912540e-01 -2.096795e-01 9.438916e-02 7.282032e-01 1.173325e+00 1.106840e+00 6.998735e-01 1.524799e-01 -4.529682e-01 -7.851231e-01 -7.072291e-01 -3.962580e-01 -4.642066e-05
<VARIANCE> 25
 1.016136e+01 1.164371e+01 1.487160e+01 1.959437e+01 2.006372e+01 2.111734e+01 2.413877e+01 2.513530e+01 2.662547e+01 2.373260e+01 2.676250e+01 1.866723e+01 8.887244e-01 1.162224e+00 1.357684e+00 1.492230e+00 1.584869e+00 1.959658e+00 2.272998e+00 2.393365e+00 2.156603e+00 1.847250e+00 1.736753e+00 1.735630e+00 1.005203e-06
<GCONST> 7.375536e+01
<TRANSP> 3
 0.000000e+00 1.000000e+00 0.000000e+00
 0.000000e+00 9.999990e-01 9.999998e-07
 0.000000e+00 0.000000e+00 0.000000e+00
<ENDHMM>
