~o
<STREAMINFO> 1 25
<VECSIZE> 25<NULLD><MFCC_E_D_N><DIAGC>
~h "jmodel"
<BEGINHMM>
<NUMSTATES> 3
<STATE> 2
<NUMMIXES> 128
<MIXTURE> 1 5.748963e-03
<MEAN> 25
 -2.582742e+00 3.181140e+00 2.310386e+00 8.753077e+00 4.370592e+00 3.453052e+00 4.062799e+00 3.932151e+00 5.831589e+00 5.250438e+00 5.882603e+00 3.078519e+00 -2.004948e+00 -1.634293e+00 -8.641827e-01 1.075301e+00 1.560321e+00 2.231554e+00 2.153629e+00 2.083945e+00 1.693854e+00 1.269646e+00 1.565957e+00 6.131138e-01 -4.686890e-02
<VARIANCE> 25
 1.006882e+01 1.175490e+01 1.494563e+01 1.869320e+01 2.320012e+01 2.217000e+01 2.188590e+01 2.200605e+01 2.102419e+01 2.255376e+01 2.094569e+01 1.708111e+01 1.789891e+00 2.111066e+00 3.026519e+00 3.209784e+00 3.738029e+00 3.357747e+00 3.319419e+00 3.380875e+00 3.521201e+00 3.726379e+00 3.518579e+00 2.835740e+00 3.127747e-03
<GCONST> 8.847264e+01
<MIXTURE> 2 4.549242e-03
<MEAN> 25
 -4.874406e+00 1.311829e+00 9.928922e-01 9.897668e+00 6.692804e+00 7.424281e+00 7.846916e+00 6.957576e+00 8.371752e+00 6.372828e+00 7.623019e+00 3.073740e+00 -6.194294e-02 4.164289e-02 1.424157e-01 2.258415e-01 2.652130e-01 2.812881e-01 2.953646e-01 3.196505e-01 3.499752e-01 3.088330e-01 1.972988e-01 7.987269e-02 1.204514e-06
<VARIANCE> 25
 6.959751e+00 8.900331e+00 1.065967e+01 1.593019e+01 1.723383e+01 1.556092e+01 1.689572e+01 1.848347e+01 1.659547e+01 1.738311e+01 1.811680e+01 1.434265e+01 1.252471e-01 2.265994e-01 3.365116e-01 4.671016e-01 6.493401e-01 8.147934e-01 9.298349e-01 1.003137e+00 1.051948e+00 1.077652e+00 1.075610e+00 1.014102e+00 1.000201e-06
<GCONST> 5.804653e+01
<MIXTURE> 3 4.549242e-03
<MEAN> 25
 -4.874406e+00 1.311829e+00 9.928922e-01 9.897668e+00 6.692804e+00 7.424281e+00 7.846916e+00 6.957576e+00 8.371752e+00 6.372828e+00 7.623019e+00 3.073740e+00 -6.194294e-02 4.164289e-02 1.424157e-01 2.258415e-01 2.652130e-01 2.812881e-01 2.953646e-01 3.196505e-01 3.499752e-01 3.088330e-01 1.972988e-01 7.987269e-02 1.204514e-06
<VARIANCE> 25
 6.959751e+00 8.900331e+00 1.065967e+01 1.593019e+01 1.723383e+01 1.556092e+01 1.689572e+01 1.848347e+01 1.659547e+01 1.738311e+01 1.811680e+01 1.434265e+01 1.252471e-01 2.265994e-01 3.365116e-01 4.671016e-01 6.493401e-01 8.147934e-01 9.298349e-01 1.003137e+00 1.051948e+00 1.077652e+00 1.075610e+00 1.014102e+00 1.000201e-06
<GCONST> 5.804653e+01
<MIXTURE> 4 1.671429e-02
<MEAN> 25
 3.330622e+00 2.662676e+00 -3.967710e+00 6.717094e-01 4.530774e+00 5.839807e-03 5.225192e-01 2.384344e-01 1.314667e+00 1.937712e+00 -1.388126e+00 3.729393e-02 -2.687833e+00 1.128341e+00 1.819286e+00 3.051127e+00 5.472603e-01 6.860224e-01 1.340229e+00 6.398964e-01 1.063915e+00 9.921833e-02 1.089162e+00 8.628761e-01 -9.164033e-02
<VARIANCE> 25
 1.981482e+01 2.731966e+01 2.768700e+01 3.792802e+01 4.334045e+01 6.491805e+01 6.224434e+01 5.229951e+01 5.182029e+01 6.545863e+01 4.848389e+01 3.340863e+01 2.239366e+00 4.744703e+00 3.477706e+00 4.645256e+00 6.174788e+00 6.038538e+00 5.950392e+00 6.945109e+00 5.588760e+00 7.121130e+00 5.894233e+00 4.145963e+00 7.229135e-03
<GCONST> 1.051830e+02
<MIXTURE> 5 3.206198e-03
<MEAN> 25
 -3.408287e+00 2.180850e+00 5.992954e-01 9.412025e+00 6.701240e+00 6.314820e+00 7.113374e+00 4.723740e+00 5.488310e+00 3.850281e+00 4.652518e+00 2.601218e+00 -3.239352e-01 7.521036e-01 1.222480e+00 1.031447e+00 3.068870e-01 -1.007569e-01 -8.466813e-02 3.442437e-02 4.593947e-01 6.836849e-01 4.048363e-01 8.666742e-02 -2.713174e-05
<VARIANCE> 25
 1.028519e+01 1.392258e+01 2.353445e+01 2.576066e+01 2.020283e+01 1.940137e+01 2.008825e+01 2.033522e+01 2.143365e+01 2.125505e+01 2.409125e+01 1.636420e+01 1.208631e+00 1.242923e+00 1.358922e+00 1.672292e+00 2.282478e+00 2.373853e+00 2.299285e+00 2.273716e+00 2.314544e+00 2.237095e+00 2.083483e+00 1.873584e+00 1.004895e-06
<GCONST> 7.516791e+01
<MIXTURE> 6 5.475854e-03
<MEAN> 25
 9.588075e+00 -3.659599e-01 -6.637042e+00 -1.087299e+01 -1.927116e+00 6.725447e+00 -5.644272e+00 -5.248456e+00 -3.746402e+00 1.941764e+00 4.577406e+00 -1.290043e+00 4.817322e-01 8.951660e-01 -3.630557e-01 -1.450274e+00 -6.207380e-01 1.292416e+00 1.546375e+00 2.380453e-01 -1.223133e+00 -1.239961e+00 3.229964e-01 1.205872e+00 -8.358296e-03
<VARIANCE> 25
 9.610713e+00 1.697047e+01 2.378139e+01 4.029592e+01 3.836656e+01 3.017364e+01 4.733338e+01 3.766415e+01 4.064093e+01 3.960038e+01 4.172110e+01 2.809459e+01 3.080859e-01 8.438286e-01 9.397176e-01 1.969805e+00 1.604816e+00 2.021314e+00 1.906174e+00 2.036461e+00 2.370353e+00 1.981135e+00 2.210813e+00 1.448760e+00 5.800389e-04
<GCONST> 8.395670e+01
<MIXTURE> 7 5.475854e-03
<MEAN> 25
 9.588075e+00 -3.659599e-01 -6.637042e+00 -1.087299e+01 -1.927116e+00 6.725447e+00 -5.644272e+00 -5.248456e+00 -3.746402e+00 1.941764e+00 4.577406e+00 -1.290043e+00 4.817322e-01 8.951660e-01 -3.630557e-01 -1.450274e+00 -6.207380e-01 1.292416e+00 1.546375e+00 2.380453e-01 -1.223133e+00 -1.239961e+00 3.229964e-01 1.205872e+00 -8.358296e-03
<VARIANCE> 25
 9.610713e+00 1.697047e+01 2.378139e+01 4.029592e+01 3.836656e+01 3.017364e+01 4.733338e+01 3.766415e+01 4.064093e+01 3.960038e+01 4.172110e+01 2.809459e+01 3.080859e-01 8.438286e-01 9.397176e-01 1.969805e+00 1.604816e+00 2.021314e+00 1.906174e+00 2.036461e+00 2.370353e+00 1.981135e+00 2.210813e+00 1.448760e+00 5.800389e-04
<GCONST> 8.395670e+01
<MIXTURE> 8 1.165917e-02
<MEAN> 25
 -4.727284e+00 1.368016e+00 1.289153e+00 9.526821e+00 6.562134e+00 6.275151e+00 6.468001e+00 5.658023e+00 6.666448e+00 5.611567e+00 6.536729e+00 3.147237e+00 -6.392541e-01 -1.422058e+00 -1.063898e+00 -1.730876e+00 -2.256399e-01 -9.426903e-01 -1.788770e-01 -2.800321e-01 -2.459103e-01 -1.710640e-01 -2.214167e-01 8.514373e-02 9.887432e-02
<VARIANCE> 25
 9.314050e+00 9.815056e+00 1.157000e+01 1.644540e+01 1.677739e+01 1.577106e+01 1.809392e+01 1.776562e+01 1.705791e+01 1.750777e+01 1.915444e+01 1.399434e+01 2.768775e+00 2.807331e+00 3.906706e+00 3.748434e+00 3.452261e+00 3.310663e+00 3.116988e+00 3.101536e+00 2.875355e+00 2.651972e+00 2.442377e+00 1.899948e+00 6.656244e-03
<GCONST> 8.634602e+01
<MIXTURE> 9 1.199672e-02
<MEAN> 25
 9.262740e+00 3.397847e+00 -6.208792e+00 -1.062769e+01 -2.155926e+00 4.961612e+00 -2.158293e+00 -2.275781e+00 -5.376093e+00 -1.197159e+00 5.882732e-01 -1.164706e-02 1.426466e+00 -1.267282e-01 -4.789876e-01 -2.679027e+00 -1.655278e+00 8.606246e-01 -9.702490e-01 -2.452727e-01 -1.691852e-01 -5.888156e-01 6.095917e-01 -1.493384e-01 7.313668e-02
<VARIANCE> 25
 1.241345e+01 2.128322e+01 3.338614e+01 5.359873e+01 5.046619e+01 3.219085e+01 4.337612e+01 5.213302e+01 4.192006e+01 4.217498e+01 3.598457e+01 2.678515e+01 2.119614e+00 2.437562e+00 4.581574e+00 4.978217e+00 5.003815e+00 4.097825e+00 4.214397e+00 6.080730e+00 5.033347e+00 4.104580e+00 4.000308e+00 2.792425e+00 2.209496e-03
<GCONST> 9.883862e+01
<MIXTURE> 10 6.596976e-03
<MEAN> 25
 8.210781e-01 7.634125e+00 5.376025e+00 7.148872e+00 1.587080e+00 -2.115261e+00 -5.182313e-01 -1.685353e+00 8.738683e-01 8.596592e-01 8.392577e-01 6.573794e-01 -1.924889e+00 -6.733146e-01 -4.586291e-01 3.028073e+00 2.463305e+00 2.710453e+00 2.373877e+00 2.277879e+00 1.861644e+00 1.545144e+00 2.335751e+00 5.248672e-01 -1.381412e-01
<VARIANCE> 25
 1.954145e+01 2.068682e+01 2.230405e+01 2.906079e+01 3.831498e+01 3.494004e+01 3.514493e+01 3.384034e+01 2.761934e+01 2.905096e+01 2.696016e+01 2.501380e+01 2.235011e+00 3.426089e+00 5.535452e+00 5.170004e+00 5.552211e+00 4.469387e+00 4.699707e+00 4.843443e+00 4.388518e+00 5.020940e+00 4.442594e+00 3.191012e+00 2.696964e-03
<GCONST> 9.745993e+01
<MIXTURE> 11 1.633820e-02
<MEAN> 25
 7.652820e+00 4.248569e+00 3.275431e+00 4.994775e+00 -2.860790e+00 -1.825568e+00 -1.902609e+00 -6.255804e+00 -3.820399e+00 3.881558e-01 -2.394788e+00 -2.261973e+00 -2.684331e-01 5.471293e-01 1.571795e-01 2.559636e-01 4.889054e-01 -7.864217e-02 2.799816e-01 -1.258007e-01 -2.259605e-01 -8.462036e-02 -1.775041e-01 1.664981e-01 -1.674400e-02
<VARIANCE> 25
 1.080508e+01 2.323637e+01 2.192112e+01 3.074079e+01 4.187798e+01 3.893644e+01 5.107711e+01 4.317329e+01 4.334308e+01 3.688476e+01 3.501338e+01 2.825966e+01 9.012217e-01 1.181651e+00 1.690734e+00 2.112778e+00 2.037997e+00 2.102833e+00 2.117275e+00 2.788008e+00 2.120199e+00 2.088136e+00 1.818138e+00 1.567182e+00 9.570662e-04
<GCONST> 8.750509e+01
<MIXTURE> 12 5.904134e-03
<MEAN> 25
 1.076215e+01 3.743511e+00 -4.503180e+00 -1.598714e+01 -8.688420e+00 8.641026e+00 -8.928498e-01 -1.920601e+00 -1.723861e+00 -4.880639e+00 1.774112e+00 7.164885e-01 6.787816e-02 2.936879e-01 7.950218e-02 -3.683796e-01 -3.104858e-01 2.928555e-02 3.051673e-01 4.475129e-01 1.411975e-01 -3.843152e-01 -3.854227e-01 5.383833e-02 -6.299247e-03
<VARIANCE> 25
 8.901676e+00 2.099183e+01 2.334851e+01 3.510110e+01 4.216674e+01 3.095480e+01 4.181214e+01 4.896441e+01 4.404624e+01 3.744410e+01 3.798352e+01 2.891442e+01 2.469133e-01 6.881542e-01 6.859785e-01 1.169663e+00 1.186237e+00 1.054051e+00 1.171027e+00 1.387132e+00 1.240347e+00 1.222538e+00 1.221292e+00 9.564834e-01 5.784545e-04
<GCONST> 7.892656e+01
<MIXTURE> 13 5.904134e-03
<MEAN> 25
 1.076215e+01 3.743511e+00 -4.503180e+00 -1.598714e+01 -8.688420e+00 8.641026e+00 -8.928498e-01 -1.920601e+00 -1.723861e+00 -4.880639e+00 1.774112e+00 7.164885e-01 6.787816e-02 2.936879e-01 7.950218e-02 -3.683796e-01 -3.104858e-01 2.928555e-02 3.051673e-01 4.475129e-01 1.411975e-01 -3.843152e-01 -3.854227e-01 5.383833e-02 -6.299247e-03
<VARIANCE> 25
 8.901676e+00 2.099183e+01 2.334851e+01 3.510110e+01 4.216674e+01 3.095480e+01 4.181214e+01 4.896441e+01 4.404624e+01 3.744410e+01 3.798352e+01 2.891442e+01 2.469133e-01 6.881542e-01 6.859785e-01 1.169663e+00 1.186237e+00 1.054051e+00 1.171027e+00 1.387132e+00 1.240347e+00 1.222538e+00 1.221292e+00 9.564834e-01 5.784545e-04
<GCONST> 7.892656e+01
<MIXTURE> 14 6.488954e-03
<MEAN> 25
 -4.274147e+00 -3.558629e-01 -3.404774e-01 8.848763e+00 7.522519e+00 7.361154e+00 7.821313e+00 7.312863e+00 7.212365e+00 5.233526e+00 6.830077e+00 4.081534e+00 -2.740058e-01 1.931874e-01 3.611395e-01 3.104024e-01 5.928814e-03 5.720242e-02 9.704716e-02 1.719341e-01 2.964739e-01 5.410118e-01 5.091533e-01 7.163183e-02 -9.281412e-03
<VARIANCE> 25
 9.538034e+00 1.385648e+01 1.866558e+01 1.834251e+01 2.080885e+01 1.952466e+01 2.143723e+01 2.055085e+01 2.021976e+01 2.377745e+01 2.148649e+01 1.603635e+01 9.571022e-01 1.631704e+00 1.784079e+00 1.927848e+00 2.237312e+00 2.254240e+00 2.253022e+00 2.241050e+00 2.273144e+00 2.517772e+00 2.186587e+00 1.823507e+00 1.024855e-03
<GCONST> 8.194247e+01
<MIXTURE> 15 2.475190e-03
<MEAN> 25
 -5.305770e+00 -6.146855e-01 -2.465710e-01 7.272246e+00 5.773844e+00 5.678194e+00 6.053256e+00 4.943044e+00 5.128332e+00 4.206070e+00 5.452990e+00 2.571035e+00 -1.214747e-01 -2.340328e-02 8.382940e-02 2.466572e-01 4.949959e-01 7.852878e-01 1.063382e+00 1.174520e+00 1.050742e+00 7.461867e-01 4.162226e-01 1.593445e-01 -1.398033e-05
<VARIANCE> 25
 7.707015e+00 5.594006e+00 9.132318e+00 1.323606e+01 1.412532e+01 1.412173e+01 1.485407e+01 1.510317e+01 1.413847e+01 1.414620e+01 1.527494e+01 1.243644e+01 1.232903e-01 2.064280e-01 3.255741e-01 4.995109e-01 6.999741e-01 7.833576e-01 7.567722e-01 7.842844e-01 9.167865e-01 1.014576e+00 1.056033e+00 1.042263e+00 2.792697e-05
<GCONST> 5.868729e+01
<MIXTURE> 16 2.475190e-03
<MEAN> 25
 -5.305770e+00 -6.146855e-01 -2.465710e-01 7.272246e+00 5.773844e+00 5.678194e+00 6.053256e+00 4.943044e+00 5.128332e+00 4.206070e+00 5.452990e+00 2.571035e+00 -1.214747e-01 -2.340328e-02 8.382940e-02 2.466572e-01 4.949959e-01 7.852878e-01 1.063382e+00 1.174520e+00 1.050742e+00 7.461867e-01 4.162226e-01 1.593445e-01 -1.398033e-05
<VARIANCE> 25
 7.707015e+00 5.594006e+00 9.132318e+00 1.323606e+01 1.412532e+01 1.412173e+01 1.485407e+01 1.510317e+01 1.413847e+01 1.414620e+01 1.527494e+01 1.243644e+01 1.232903e-01 2.064280e-01 3.255741e-01 4.995109e-01 6.999741e-01 7.833576e-01 7.567722e-01 7.842844e-01 9.167865e-01 1.014576e+00 1.056033e+00 1.042263e+00 2.792697e-05
<GCONST> 5.868729e+01
<MIXTURE> 17 9.518312e-03
<MEAN> 25
 2.947369e+00 -1.680335e+00 6.655231e+00 2.699758e+00 -6.591331e+00 -6.140941e+00 -3.974302e+00 -3.779646e-01 -1.316364e+00 -4.052234e+00 3.165288e-01 -4.955927e-01 -7.677573e-01 -1.097824e+00 1.158769e+00 -2.028223e+00 -2.281144e+00 -5.314394e-02 2.794012e-01 8.100955e-01 -3.903080e-03 -5.344429e-02 1.133950e+00 4.498555e-01 7.357883e-02
<VARIANCE> 25
 1.820397e+01 3.287080e+01 2.673673e+01 3.495232e+01 4.182891e+01 4.458355e+01 4.232228e+01 3.028038e+01 4.310003e+01 2.635046e+01 2.619039e+01 2.627321e+01 1.603609e+00 2.430380e+00 3.582203e+00 2.955947e+00 3.578824e+00 4.768621e+00 4.356540e+00 4.300393e+00 4.216752e+00 3.936102e+00 2.937075e+00 2.438597e+00 2.252189e-03
<GCONST> 9.560672e+01
<MIXTURE> 18 1.221018e-02
<MEAN> 25
 2.931649e+00 3.741689e+00 6.504194e+00 4.273771e+00 -5.568501e+00 -8.296183e+00 -2.036227e+00 -1.163152e+00 -4.410611e+00 -2.840367e+00 3.756607e-01 1.330594e+00 -6.379358e-01 2.183933e+00 -5.232824e-01 1.542323e+00 3.161947e+00 1.327444e+00 9.255731e-01 -7.678399e-02 3.547141e-01 6.702970e-01 -5.180223e-01 1.171213e-02 -1.184160e-01
<VARIANCE> 25
 2.149115e+01 2.487876e+01 3.232540e+01 2.508696e+01 3.801506e+01 2.922925e+01 3.296303e+01 2.991465e+01 4.565504e+01 3.464573e+01 3.657013e+01 3.129392e+01 2.519577e+00 3.358310e+00 4.522537e+00 4.402170e+00 3.436970e+00 4.429092e+00 3.987876e+00 4.575411e+00 4.776537e+00 3.678529e+00 4.236026e+00 3.211323e+00 3.728043e-03
<GCONST> 9.788069e+01
<MIXTURE> 19 9.912824e-03
<MEAN> 25
 -1.004156e+01 1.901733e+00 1.116615e-01 7.842058e-01 3.822745e+00 1.863519e+00 3.175348e+00 8.365286e-01 2.143597e+00 1.421078e+00 8.336055e-01 2.535781e+00 1.867544e+00 1.667511e+00 2.200950e+00 6.464638e-01 -1.211159e+00 -9.640419e-01 -9.981838e-01 -1.408408e+00 -1.497398e+00 -1.394359e+00 -7.843758e-01 -7.129406e-01 7.667598e-03
<VARIANCE> 25
 5.087582e+01 2.775208e+01 4.461198e+01 4.983372e+01 3.315444e+01 3.131011e+01 2.936199e+01 2.893818e+01 2.648692e+01 2.602889e+01 2.863917e+01 2.295259e+01 2.682946e+00 2.101146e+00 2.051785e+00 2.312765e+00 2.693437e+00 2.143691e+00 2.290290e+00 2.307468e+00 1.998444e+00 2.616015e+00 2.140610e+00 1.736239e+00 2.678340e-03
<GCONST> 9.136937e+01
<MIXTURE> 20 6.308331e-03
<MEAN> 25
 -1.417592e+01 7.413488e+00 8.444152e-01 6.149644e+00 4.839570e+00 1.637394e+00 5.205524e+00 8.499531e-01 9.218225e-01 7.981228e-01 2.565574e+00 -2.998802e-01 -3.285659e+00 -8.660516e-01 -1.564422e+00 3.319580e-01 1.541004e+00 2.062335e+00 1.978236e+00 2.055485e+00 2.144833e+00 2.039381e+00 1.682130e+00 9.450237e-01 4.733154e-02
<VARIANCE> 25
 1.971525e+01 2.345567e+01 3.094364e+01 3.717542e+01 3.086159e+01 2.792402e+01 2.993978e+01 3.147893e+01 2.798755e+01 2.820328e+01 2.516792e+01 2.092085e+01 2.091926e+00 2.182450e+00 1.910748e+00 2.540563e+00 2.701464e+00 2.313111e+00 2.310540e+00 2.319950e+00 2.235596e+00 2.652727e+00 2.250393e+00 1.866800e+00 1.886396e-03
<GCONST> 8.922842e+01
<MIXTURE> 21 7.928653e-03
<MEAN> 25
 3.764726e+00 -4.623711e+00 5.924482e+00 -1.170082e+00 -1.047608e+01 -8.525488e+00 -3.160048e+00 3.850362e+00 -1.285023e+00 -3.702289e+00 1.481661e-01 1.943227e-01 -7.300903e-01 1.256591e+00 2.459011e+00 -8.306255e-02 -1.591469e+00 3.206905e-01 6.150603e-01 -1.392008e+00 -1.830139e+00 2.745830e-01 1.416728e+00 2.905208e-01 -9.896033e-03
<VARIANCE> 25
 9.206820e+00 1.770264e+01 2.811578e+01 2.863510e+01 2.711086e+01 3.165630e+01 4.428989e+01 3.828511e+01 4.890927e+01 3.083889e+01 3.201947e+01 2.217545e+01 3.600022e-01 9.897712e-01 1.967583e+00 1.277204e+00 2.106357e+00 2.052025e+00 3.418852e+00 2.490824e+00 2.247845e+00 2.480747e+00 2.021982e+00 2.181090e+00 5.234198e-04
<GCONST> 8.494887e+01
<MIXTURE> 22 8.827789e-03
<MEAN> 25
 -1.791760e+01 7.155562e+00 -4.131294e+00 7.385894e+00 4.599125e+00 2.750665e+00 8.394580e+00 1.751722e+00 5.377551e+00 3.301209e+00 5.710002e+00 1.188356e+00 -3.093441e-01 -2.071106e-01 -1.248079e-01 -1.493136e-01 -6.419904e-03 1.365740e-01 1.810026e-01 1.781058e-01 2.479389e-01 2.066841e-01 1.736706e-01 1.932196e-01 8.839262e-03
<VARIANCE> 25
 8.125858e+00 1.681469e+01 1.737088e+01 2.521259e+01 2.289546e+01 2.097305e+01 1.945403e+01 1.871629e+01 1.813212e+01 2.085231e+01 1.928617e+01 1.379215e+01 1.090074e+00 1.356684e+00 1.363747e+00 1.570887e+00 1.408672e+00 1.526113e+00 1.507944e+00 1.532459e+00 1.613764e+00 1.544158e+00 1.358112e+00 1.168231e+00 1.744807e-03
<GCONST> 7.831631e+01
<MIXTURE> 23 6.455497e-03
<MEAN> 25
 7.677433e+00 2.504773e+00 2.563372e+00 2.230455e+00 -4.187622e+00 -2.836835e+00 -3.709722e+00 -6.051560e+00 -3.379939e+00 -5.638378e-01 -3.940010e+00 -2.021247e+00 2.253184e-02 1.678118e-01 2.955260e-03 5.429259e-02 -1.283086e-02 2.643106e-02 8.411636e-03 -7.178696e-02 1.441940e-02 3.845285e-02 -1.870393e-02 1.513428e-02 -4.426887e-03
<VARIANCE> 25
 1.087636e+01 2.104113e+01 2.650642e+01 3.900523e+01 4.277568e+01 5.254177e+01 6.053514e+01 5.538258e+01 4.566277e+01 4.802319e+01 4.662853e+01 3.863044e+01 1.197031e-01 2.805144e-01 3.658667e-01 4.917983e-01 6.096998e-01 7.173449e-01 7.648653e-01 8.716057e-01 8.642020e-01 8.745710e-01 8.108488e-01 7.678233e-01 8.756769e-05
<GCONST> 7.290691e+01
<MIXTURE> 24 6.455497e-03
<MEAN> 25
 7.677433e+00 2.504773e+00 2.563372e+00 2.230455e+00 -4.187622e+00 -2.836835e+00 -3.709722e+00 -6.051560e+00 -3.379939e+00 -5.638378e-01 -3.940010e+00 -2.021247e+00 2.253184e-02 1.678118e-01 2.955260e-03 5.429259e-02 -1.283086e-02 2.643106e-02 8.411636e-03 -7.178696e-02 1.441940e-02 3.845285e-02 -1.870393e-02 1.513428e-02 -4.426887e-03
<VARIANCE> 25
 1.087636e+01 2.104113e+01 2.650642e+01 3.900523e+01 4.277568e+01 5.254177e+01 6.053514e+01 5.538258e+01 4.566277e+01 4.802319e+01 4.662853e+01 3.863044e+01 1.197031e-01 2.805144e-01 3.658667e-01 4.917983e-01 6.096998e-01 7.173449e-01 7.648653e-01 8.716057e-01 8.642020e-01 8.745710e-01 8.108488e-01 7.678233e-01 8.756769e-05
<GCONST> 7.290691e+01
<MIXTURE> 25 1.118642e-02
<MEAN> 25
 -9.960032e-01 3.907557e-01 1.454202e+01 1.909866e+00 -1.343648e+01 -3.581860e+00 -6.661468e+00 -3.690631e+00 -6.132141e+00 -8.480903e+00 5.044129e+00 -1.945360e+00 2.250201e-02 8.548855e-03 -1.331312e-01 5.733097e-01 4.622260e-01 -3.744568e-01 -8.940986e-03 -8.679939e-02 -2.669695e-01 1.716883e-01 2.981631e-01 1.953476e-02 -4.043269e-03
<VARIANCE> 25
 7.819162e+00 1.905663e+01 1.608157e+01 2.617062e+01 2.539022e+01 2.780817e+01 2.407827e+01 1.837863e+01 2.192962e+01 2.656075e+01 1.586702e+01 2.281616e+01 4.053217e-01 1.263606e+00 9.821791e-01 1.297762e+00 1.808733e+00 2.227458e+00 2.792612e+00 1.373034e+00 1.684100e+00 1.226066e+00 1.163722e+00 1.108516e+00 1.281354e-03
<GCONST> 7.853530e+01
<MIXTURE> 26 7.727677e-03
<MEAN> 25
 2.205204e+00 -5.891487e+00 -1.009604e+01 -7.382039e-01 8.034829e+00 5.475025e+00 4.290951e+00 -1.960051e-01 1.974083e+00 -5.890836e-01 -2.736900e+00 -1.075674e+00 -6.124753e-01 6.030902e-01 3.595302e-01 6.592509e-01 1.362544e-01 2.313357e-01 2.759804e-01 3.079017e-01 2.912735e-01 3.923406e-02 3.820725e-01 4.365985e-01 -4.943199e-02
<VARIANCE> 25
 2.368600e+01 3.653442e+01 2.571382e+01 5.888652e+01 3.720881e+01 4.027539e+01 4.452844e+01 4.228794e+01 3.946041e+01 5.435649e+01 3.849067e+01 4.453450e+01 1.626616e+00 1.874036e+00 1.899307e+00 1.931982e+00 2.264218e+00 2.282745e+00 2.482789e+00 2.777259e+00 2.308143e+00 2.429709e+00 2.097961e+00 1.940262e+00 3.302290e-03
<GCONST> 9.340612e+01
<MIXTURE> 27 7.727677e-03
<MEAN> 25
 2.205204e+00 -5.891487e+00 -1.009604e+01 -7.382039e-01 8.034829e+00 5.475025e+00 4.290951e+00 -1.960051e-01 1.974083e+00 -5.890836e-01 -2.736900e+00 -1.075674e+00 -6.124753e-01 6.030902e-01 3.595302e-01 6.592509e-01 1.362544e-01 2.313357e-01 2.759804e-01 3.079017e-01 2.912735e-01 3.923406e-02 3.820725e-01 4.365985e-01 -4.943199e-02
<VARIANCE> 25
 2.368600e+01 3.653442e+01 2.571382e+01 5.888652e+01 3.720881e+01 4.027539e+01 4.452844e+01 4.228794e+01 3.946041e+01 5.435649e+01 3.849067e+01 4.453450e+01 1.626616e+00 1.874036e+00 1.899307e+00 1.931982e+00 2.264218e+00 2.282745e+00 2.482789e+00 2.777259e+00 2.308143e+00 2.429709e+00 2.097961e+00 1.940262e+00 3.302290e-03
<GCONST> 9.340612e+01
<MIXTURE> 28 5.036674e-03
<MEAN> 25
 -5.298432e+00 7.282463e-02 -1.721653e+00 6.345197e+00 5.322242e+00 3.477526e+00 5.417214e+00 3.100852e+00 3.712573e+00 2.484686e+00 2.490169e+00 3.181127e+00 -1.118887e-01 2.265349e-01 5.040352e-01 7.659515e-01 8.267891e-01 6.977407e-01 5.219514e-01 4.166012e-01 4.927777e-01 4.595887e-01 3.817717e-01 1.496137e-01 -1.768661e-05
<VARIANCE> 25
 1.202052e+01 8.426610e+00 1.226103e+01 1.604650e+01 1.483248e+01 1.783068e+01 1.753250e+01 1.836563e+01 1.776625e+01 1.638691e+01 2.066375e+01 1.467497e+01 2.492617e-01 3.247476e-01 4.284529e-01 4.641080e-01 6.137041e-01 8.282309e-01 1.023790e+00 1.141671e+00 1.172876e+00 1.011858e+00 1.004328e+00 1.099828e+00 1.029991e-06
<GCONST> 6.042233e+01
<MIXTURE> 29 5.036674e-03
<MEAN> 25
 -5.298432e+00 7.282463e-02 -1.721653e+00 6.345197e+00 5.322242e+00 3.477526e+00 5.417214e+00 3.100852e+00 3.712573e+00 2.484686e+00 2.490169e+00 3.181127e+00 -1.118887e-01 2.265349e-01 5.040352e-01 7.659515e-01 8.267891e-01 6.977407e-01 5.219514e-01 4.166012e-01 4.927777e-01 4.595887e-01 3.817717e-01 1.496137e-01 -1.768661e-05
<VARIANCE> 25
 1.202052e+01 8.426610e+00 1.226103e+01 1.604650e+01 1.483248e+01 1.783068e+01 1.753250e+01 1.836563e+01 1.776625e+01 1.638691e+01 2.066375e+01 1.467497e+01 2.492617e-01 3.247476e-01 4.284529e-01 4.641080e-01 6.137041e-01 8.282309e-01 1.023790e+00 1.141671e+00 1.172876e+00 1.011858e+00 1.004328e+00 1.099828e+00 1.029991e-06
<GCONST> 6.042233e+01
<MIXTURE> 30 8.917812e-03
<MEAN> 25
 -4.182260e+00 -9.839600e-02 3.723230e-01 8.631340e+00 7.793293e+00 7.350178e+00 7.568449e+00 6.742891e+00 6.403753e+00 5.080681e+00 6.814424e+00 3.505120e+00 -2.727873e-02 3.572566e-02 8.501930e-02 1.037349e-01 9.098427e-02 5.677209e-02 2.532977e-02 -3.472305e-03 2.815307e-02 6.758462e-02 6.114234e-02 7.108700e-02 -3.826463e-04
<VARIANCE> 25
 8.455604e+00 9.632373e+00 1.159553e+01 1.685750e+01 1.514832e+01 1.613828e+01 1.860518e+01 1.816659e+01 1.617983e+01 1.825599e+01 2.190487e+01 1.440585e+01 9.434247e-02 1.935505e-01 3.289439e-01 4.700471e-01 6.109259e-01 6.989679e-01 7.440698e-01 7.989431e-01 8.474100e-01 9.027169e-01 8.756101e-01 8.708262e-01 5.040078e-05
<GCONST> 6.071158e+01
<MIXTURE> 31 4.136493e-03
<MEAN> 25
 -3.222101e+00 -5.571595e+00 -1.142163e-02 4.789629e+00 3.736395e+00 1.716158e+00 5.247907e+00 6.606576e+00 2.658777e+00 1.296373e+00 6.440537e+00 3.120503e+00 2.559527e-01 4.698063e-01 -2.158531e-01 3.082597e-01 1.256483e-01 4.138643e-01 1.952168e-01 1.057720e-02 3.722335e-01 3.847806e-01 1.152539e-01 9.984231e-02 -1.821386e-02
<VARIANCE> 25
 7.494487e+00 1.595389e+01 1.764602e+01 1.825272e+01 2.517412e+01 2.359785e+01 2.352848e+01 2.515406e+01 2.599186e+01 2.792750e+01 2.065710e+01 1.862072e+01 1.910812e-01 4.898505e-01 6.042657e-01 7.633367e-01 9.599944e-01 1.091443e+00 1.222046e+00 1.378375e+00 1.341950e+00 1.318862e+00 1.241445e+00 1.154402e+00 2.567802e-04
<GCONST> 7.190462e+01
<MIXTURE> 32 4.136493e-03
<MEAN> 25
 -3.222101e+00 -5.571595e+00 -1.142163e-02 4.789629e+00 3.736395e+00 1.716158e+00 5.247907e+00 6.606576e+00 2.658777e+00 1.296373e+00 6.440537e+00 3.120503e+00 2.559527e-01 4.698063e-01 -2.158531e-01 3.082597e-01 1.256483e-01 4.138643e-01 1.952168e-01 1.057720e-02 3.722335e-01 3.847806e-01 1.152539e-01 9.984231e-02 -1.821386e-02
<VARIANCE> 25
 7.494487e+00 1.595389e+01 1.764602e+01 1.825272e+01 2.517412e+01 2.359785e+01 2.352848e+01 2.515406e+01 2.599186e+01 2.792750e+01 2.065710e+01 1.862072e+01 1.910812e-01 4.898505e-01 6.042657e-01 7.633367e-01 9.599944e-01 1.091443e+00 1.222046e+00 1.378375e+00 1.341950e+00 1.318862e+00 1.241445e+00 1.154402e+00 2.567802e-04
<GCONST> 7.190462e+01
<MIXTURE> 33 1.508826e-02
<MEAN> 25
 6.020065e+00 -4.675560e+00 -2.049036e+00 -3.100338e+00 -2.657242e+00 -6.094415e+00 -8.234285e+00 1.399225e+00 3.817894e+00 -2.185832e-01 -4.132933e+00 -3.346681e+00 6.716716e-01 -1.181434e+00 -2.252519e+00 -1.848797e+00 1.371127e+00 1.319663e+00 -7.248324e-01 5.723575e-01 1.043887e+00 5.119461e-01 -2.487796e-01 -1.347113e+00 3.673253e-02
<VARIANCE> 25
 1.263874e+01 2.394095e+01 2.706272e+01 3.551609e+01 4.261953e+01 4.282067e+01 4.922522e+01 4.426289e+01 6.124489e+01 4.098933e+01 3.582851e+01 2.732975e+01 1.079682e+00 1.875193e+00 2.420186e+00 2.057682e+00 4.031030e+00 3.292307e+00 4.159647e+00 5.259409e+00 3.608752e+00 4.109473e+00 3.314149e+00 2.401938e+00 1.452439e-03
<GCONST> 9.465671e+01
<MIXTURE> 34 1.588179e-02
<MEAN> 25
 8.763533e+00 -2.642921e-01 2.114252e-01 1.018141e+00 -2.967595e+00 -1.710475e+00 -6.330091e+00 -4.627765e+00 -1.148520e+00 9.581514e-02 -2.849977e+00 -3.901478e+00 1.743610e-02 1.334272e+00 1.459124e+00 2.346908e+00 2.115203e-02 -1.032863e-01 7.673131e-01 -1.605185e+00 -1.011879e+00 1.945785e-01 -5.904058e-01 2.685223e-01 -6.259194e-02
<VARIANCE> 25
 8.091935e+00 3.246368e+01 2.857088e+01 4.914890e+01 4.093579e+01 4.870735e+01 5.395273e+01 5.483392e+01 6.268803e+01 4.184887e+01 4.772960e+01 3.148642e+01 1.252469e+00 1.917074e+00 4.121661e+00 3.972602e+00 5.539194e+00 5.692375e+00 5.330853e+00 5.980715e+00 5.340287e+00 4.916091e+00 4.880241e+00 3.754995e+00 1.116467e-03
<GCONST> 9.950587e+01
<MIXTURE> 35 1.467755e-02
<MEAN> 25
 -2.087197e+00 -5.087517e+00 -9.901082e+00 1.654713e-01 9.658822e+00 8.393725e-01 1.673062e+00 2.556280e+00 1.461330e+00 4.675736e+00 1.064720e-01 1.831734e+00 5.056484e-01 -1.095970e+00 -1.365019e+00 -1.325856e+00 3.448229e-01 -7.445065e-01 -6.825677e-01 -1.844912e-01 -1.206264e-01 1.077022e-01 -6.507432e-01 -4.812510e-01 1.066807e-01
<VARIANCE> 25
 1.962267e+01 3.032777e+01 4.308543e+01 6.156504e+01 4.181755e+01 5.686053e+01 5.050125e+01 4.306899e+01 4.992316e+01 3.874041e+01 3.625011e+01 3.062485e+01 3.506366e+00 3.540359e+00 6.878407e+00 5.715542e+00 5.406950e+00 5.669952e+00 4.841152e+00 4.934269e+00 5.054391e+00 4.673301e+00 4.018339e+00 3.748253e+00 5.268853e-03
<GCONST> 1.036722e+02
<MIXTURE> 36 1.093293e-02
<MEAN> 25
 3.224558e+00 -3.920094e+00 7.327128e+00 2.817282e+00 -9.876217e+00 -7.184345e+00 -6.070049e+00 9.641541e-01 -2.925894e+00 -6.126168e+00 4.401778e+00 -1.412982e-01 3.305159e-01 8.743780e-02 -8.100102e-01 -3.374090e-01 8.111494e-01 3.038475e-01 -4.499912e-02 9.057091e-02 4.690765e-01 6.813847e-01 -4.408198e-01 -2.426302e-01 -2.071114e-02
<VARIANCE> 25
 1.485240e+01 1.805492e+01 1.609283e+01 2.522660e+01 3.037745e+01 2.837078e+01 4.308525e+01 3.254176e+01 5.097857e+01 2.896947e+01 2.192917e+01 2.172380e+01 4.038914e-01 7.023098e-01 1.031626e+00 1.394525e+00 1.469562e+00 1.439978e+00 2.047392e+00 1.503994e+00 2.057299e+00 1.333860e+00 1.160867e+00 1.279128e+00 9.861856e-04
<GCONST> 8.047455e+01
<MIXTURE> 37 1.246826e-02
<MEAN> 25
 5.412385e-01 7.754062e+00 1.204941e+01 -5.535968e+00 -8.040784e+00 -1.065336e+00 -5.077615e+00 -8.311925e+00 -3.723918e+00 -9.207086e-01 -3.648082e+00 -1.283404e+00 1.827635e-01 6.494899e-01 -1.354549e+00 3.574785e+00 1.990353e+00 -2.989716e-01 1.092538e+00 4.377377e-01 5.255815e-01 -3.193455e-01 5.342911e-01 -9.666464e-02 -9.493235e-02
<VARIANCE> 25
 1.594010e+01 2.613980e+01 3.084199e+01 5.109685e+01 3.392152e+01 3.202837e+01 4.389983e+01 3.505568e+01 3.872809e+01 3.601892e+01 3.794423e+01 3.089978e+01 2.953160e+00 3.419960e+00 3.014708e+00 4.123351e+00 4.613332e+00 3.753607e+00 4.203010e+00 3.811603e+00 3.451671e+00 3.621653e+00 3.870010e+00 2.792090e+00 3.924054e-03
<GCONST> 9.780222e+01
<MIXTURE> 38 1.154525e-02
<MEAN> 25
 -4.623960e+00 8.537224e+00 3.788272e+00 2.739254e+00 2.373645e-01 -5.409795e+00 -5.740227e-01 -2.690539e+00 -3.172729e+00 -2.663187e+00 -1.344314e+00 2.368169e-01 -4.280952e+00 1.339633e+00 -5.630338e-01 1.267847e+00 2.608779e+00 1.334839e+00 1.966476e+00 8.622684e-01 8.279018e-01 6.984625e-01 5.978423e-01 2.696724e-01 4.292597e-02
<VARIANCE> 25
 3.302800e+01 2.789917e+01 3.949449e+01 3.054447e+01 4.579202e+01 3.466107e+01 3.196255e+01 3.692638e+01 3.266328e+01 3.117156e+01 2.253852e+01 3.165657e+01 2.488193e+00 3.900639e+00 3.902793e+00 4.726876e+00 3.838480e+00 4.500099e+00 4.250165e+00 4.191712e+00 4.495996e+00 4.436922e+00 4.883067e+00 3.118336e+00 2.135409e-03
<GCONST> 9.829140e+01
<MIXTURE> 39 9.501865e-03
<MEAN> 25
 1.324294e+00 2.600488e+00 1.017332e+01 -9.161236e+00 -1.124819e+01 -9.452668e-01 -2.933810e+00 -6.580817e+00 -4.511879e+00 8.262568e-01 -3.646135e+00 -2.275083e+00 -7.336490e-01 1.514345e+00 1.625176e+00 -1.383926e+00 6.861322e-02 1.226336e+00 -1.194181e+00 -1.251723e+00 4.354430e-01 4.346219e-01 -5.105661e-01 1.324549e-01 1.516087e-03
<VARIANCE> 25
 8.927944e+00 3.019245e+01 3.189369e+01 3.873989e+01 3.757895e+01 4.306977e+01 4.459629e+01 3.345299e+01 3.940324e+01 3.343209e+01 3.629208e+01 2.945542e+01 6.943126e-01 1.554151e+00 1.509171e+00 2.927145e+00 2.427341e+00 2.816160e+00 3.045632e+00 2.742069e+00 2.432493e+00 2.647309e+00 2.119163e+00 2.076868e+00 1.188824e-03
<GCONST> 8.973372e+01
<MIXTURE> 40 1.030800e-02
<MEAN> 25
 -6.447093e+00 2.437577e+00 -2.100732e+00 6.064607e+00 4.697837e+00 5.030954e+00 5.420922e+00 3.959949e+00 3.376264e+00 4.705746e+00 4.575326e+00 1.443772e+00 -4.764686e-02 -1.403431e-01 -7.603905e-02 -2.772845e-01 -1.748611e-01 -1.892175e-01 2.632746e-02 7.735872e-02 7.995867e-02 7.993537e-02 6.938937e-02 -5.748975e-03 3.599905e-03
<VARIANCE> 25
 5.332679e+01 1.636892e+01 2.570975e+01 3.305593e+01 2.280754e+01 1.716573e+01 1.713600e+01 1.611213e+01 1.926978e+01 1.633740e+01 1.910563e+01 1.334426e+01 6.918437e-01 6.321240e-01 8.816315e-01 1.068438e+00 1.013914e+00 1.218760e+00 1.186798e+00 1.287831e+00 1.104972e+00 1.287646e+00 1.061798e+00 1.122963e+00 6.755082e-04
<GCONST> 7.532520e+01
<MIXTURE> 41 6.713375e-03
<MEAN> 25
 1.305588e+00 1.780452e+00 1.047638e+01 -6.958943e+00 -1.047402e+01 -3.856434e+00 -2.487808e+00 -5.042062e+00 -4.650804e+00 2.657340e+00 -1.741285e+00 -9.526572e-01 7.766584e-02 -7.605607e-01 1.696452e+00 -3.558470e+00 -2.460841e+00 -1.128491e-01 -5.062624e-01 -3.564017e-01 -8.257291e-01 1.086832e+00 -1.045419e+00 8.374666e-02 8.626232e-02
<VARIANCE> 25
 1.170599e+01 2.970849e+01 3.259317e+01 4.005698e+01 3.867902e+01 4.016850e+01 3.714993e+01 2.987559e+01 3.314409e+01 2.882431e+01 3.187368e+01 2.719055e+01 3.177488e+00 3.311165e+00 3.824885e+00 3.796472e+00 4.903503e+00 5.873141e+00 4.714893e+00 4.557940e+00 3.979454e+00 4.221137e+00 3.833168e+00 3.224900e+00 2.932120e-03
<GCONST> 9.792073e+01
<MIXTURE> 42 1.106211e-02
<MEAN> 25
 -3.695708e+00 4.733459e+00 4.094818e+00 1.705268e+00 8.479289e-02 -4.866605e+00 -8.489277e-01 -2.389534e+00 -1.579322e+00 -2.120425e+00 -2.729961e+00 2.236892e+00 3.708347e+00 -8.685297e-01 1.759273e+00 2.570646e-01 -3.463022e+00 -1.145979e+00 -2.545453e+00 -8.663763e-01 -4.952038e-01 -1.281571e+00 6.869357e-01 -1.600278e+00 2.409673e-02
<VARIANCE> 25
 3.516857e+01 1.671262e+01 4.626484e+01 2.166863e+01 3.406248e+01 5.284848e+01 2.956902e+01 2.345551e+01 2.380671e+01 2.582122e+01 1.988913e+01 1.846571e+01 3.142470e+00 5.488769e+00 5.996287e+00 3.718183e+00 4.876417e+00 4.547401e+00 4.503861e+00 4.011531e+00 8.430822e+00 5.910603e+00 3.819226e+00 3.671832e+00 3.990347e-03
<GCONST> 9.856888e+01
<MIXTURE> 43 7.108249e-03
<MEAN> 25
 3.165754e+00 -6.309253e+00 -2.250314e+00 -5.188994e+00 -7.400215e+00 -3.404420e+00 4.140121e+00 1.310816e+00 -5.062900e+00 -7.094963e+00 -4.323405e+00 -1.249949e+00 2.376798e-01 2.165134e+00 1.913884e+00 -1.336225e-01 -1.430127e+00 -7.948566e-01 -9.698147e-01 -7.791416e-01 8.215020e-01 1.468710e+00 3.423454e-01 2.118577e-02 -4.510457e-02
<VARIANCE> 25
 9.606261e+00 1.969296e+01 2.735216e+01 3.520642e+01 3.841650e+01 3.663581e+01 3.330185e+01 3.980593e+01 3.967830e+01 3.864139e+01 2.655250e+01 2.955650e+01 6.906493e-01 1.249151e+00 1.570899e+00 2.491129e+00 2.375681e+00 2.382690e+00 2.653133e+00 3.027076e+00 2.607096e+00 2.577395e+00 2.331552e+00 1.920580e+00 9.433111e-04
<GCONST> 8.797096e+01
<MIXTURE> 44 7.328289e-03
<MEAN> 25
 -1.494355e+01 2.071539e+00 2.924551e+00 -3.038122e+00 2.939045e+00 1.230956e+00 -1.168016e-01 2.048132e+00 1.170594e+00 -6.103100e-01 1.120565e+00 2.358976e+00 -2.304083e-01 8.506278e-02 1.511342e-01 2.784200e-01 6.423667e-02 1.825336e-01 5.033233e-01 2.066701e-01 2.952580e-01 1.050731e-01 1.544924e-02 1.732615e-02 4.633356e-03
<VARIANCE> 25
 4.052066e+01 2.750662e+01 3.491601e+01 2.770024e+01 2.873980e+01 3.535611e+01 2.341750e+01 3.226464e+01 2.682010e+01 2.532110e+01 2.864824e+01 1.908056e+01 1.219470e+00 1.487198e+00 1.314250e+00 1.221622e+00 2.289594e+00 1.517173e+00 1.447857e+00 1.741139e+00 1.523858e+00 1.389525e+00 1.384038e+00 1.315700e+00 1.198040e-03
<GCONST> 8.407444e+01
<MIXTURE> 45 1.364932e-02
<MEAN> 25
 -1.167285e+01 3.014131e+00 -1.089081e+00 2.165953e+00 5.399432e+00 1.513907e+00 4.549736e+00 2.489808e+00 3.833733e+00 2.029046e+00 1.139236e+00 2.958561e+00 -2.966786e+00 5.642647e-01 -3.579690e-01 -6.607102e-01 2.911057e-01 6.656569e-02 3.441416e-01 1.576055e-01 2.039660e-01 -9.523152e-03 -1.922131e-01 3.506136e-01 1.142476e-01
<VARIANCE> 25
 3.275476e+01 2.733216e+01 2.601864e+01 3.496989e+01 3.034617e+01 3.659552e+01 2.532808e+01 2.538999e+01 2.430249e+01 2.139832e+01 3.109391e+01 1.524866e+01 2.089839e+00 2.733416e+00 2.571437e+00 2.391610e+00 2.329424e+00 2.541835e+00 2.030111e+00 2.741246e+00 2.260501e+00 1.928271e+00 2.523906e+00 1.870633e+00 3.617913e-03
<GCONST> 8.990810e+01
<MIXTURE> 46 9.336259e-03
<MEAN> 25
 -9.437170e+00 2.274274e+00 1.210312e+00 7.538229e+00 5.868973e+00 3.336055e+00 7.033264e+00 4.477088e+00 5.727285e+00 4.662416e+00 5.043262e+00 2.919342e+00 1.047857e+00 -2.326068e-01 3.744402e-02 9.914864e-01 6.025652e-01 9.364246e-01 3.851216e-01 6.706709e-01 4.712705e-01 5.110525e-01 6.288072e-01 5.372992e-01 -1.051341e-01
<VARIANCE> 25
 3.424672e+01 4.410128e+01 3.848879e+01 5.003009e+01 5.201176e+01 4.092148e+01 3.723833e+01 3.544164e+01 3.321127e+01 3.108951e+01 2.820152e+01 2.018437e+01 3.931298e+00 4.146693e+00 3.881364e+00 4.142800e+00 4.161720e+00 3.697011e+00 3.367734e+00 3.108649e+00 2.982469e+00 2.874874e+00 2.329812e+00 1.826030e+00 7.994664e-03
<GCONST> 9.838082e+01
<MIXTURE> 47 7.116147e-03
<MEAN> 25
 6.958800e+00 -7.608499e+00 -7.414370e+00 -6.568758e+00 9.571911e-01 2.694297e-01 -3.131999e+00 1.032340e+00 3.948398e+00 2.373720e-01 -3.989231e+00 -6.805112e+00 -1.418584e-01 -1.215182e+00 -6.760139e-01 -4.328150e-01 6.202991e-01 8.098499e-01 8.647605e-01 2.903329e-01 1.390338e-01 -8.713099e-01 -4.924369e-01 -5.096764e-01 2.842710e-02
<VARIANCE> 25
 1.236162e+01 2.151752e+01 2.147501e+01 3.161781e+01 3.981544e+01 5.562667e+01 5.376331e+01 3.916017e+01 5.640342e+01 4.462726e+01 4.737817e+01 3.208394e+01 5.260847e-01 7.753938e-01 1.078060e+00 1.633912e+00 1.878603e+00 2.103572e+00 2.252163e+00 2.368016e+00 2.109093e+00 2.058013e+00 2.194518e+00 1.956510e+00 5.930624e-04
<GCONST> 8.677605e+01
<MIXTURE> 48 7.116147e-03
<MEAN> 25
 6.958800e+00 -7.608499e+00 -7.414370e+00 -6.568758e+00 9.571911e-01 2.694297e-01 -3.131999e+00 1.032340e+00 3.948398e+00 2.373720e-01 -3.989231e+00 -6.805112e+00 -1.418584e-01 -1.215182e+00 -6.760139e-01 -4.328150e-01 6.202991e-01 8.098499e-01 8.647605e-01 2.903329e-01 1.390338e-01 -8.713099e-01 -4.924369e-01 -5.096764e-01 2.842710e-02
<VARIANCE> 25
 1.236162e+01 2.151752e+01 2.147501e+01 3.161781e+01 3.981544e+01 5.562667e+01 5.376331e+01 3.916017e+01 5.640342e+01 4.462726e+01 4.737817e+01 3.208394e+01 5.260847e-01 7.753938e-01 1.078060e+00 1.633912e+00 1.878603e+00 2.103572e+00 2.252163e+00 2.368016e+00 2.109093e+00 2.058013e+00 2.194518e+00 1.956510e+00 5.930624e-04
<GCONST> 8.677605e+01
<MIXTURE> 49 5.548473e-03
<MEAN> 25
 -4.179263e+00 5.872067e-01 -3.703085e-01 7.463037e+00 6.459672e+00 5.678039e+00 6.278479e+00 4.437620e+00 4.487117e+00 3.911564e+00 4.217095e+00 2.876376e+00 3.503917e-01 6.262119e-01 6.501561e-01 4.237525e-01 -1.665993e-01 -6.729704e-01 -1.066831e+00 -1.130609e+00 -9.965875e-01 -6.530124e-01 -5.918111e-01 -2.081819e-01 4.156249e-06
<VARIANCE> 25
 1.362335e+01 9.313249e+00 1.470756e+01 2.033014e+01 1.554524e+01 1.587938e+01 1.903752e+01 1.748049e+01 1.860570e+01 1.678096e+01 2.191076e+01 1.304869e+01 2.510391e-01 2.406936e-01 3.499464e-01 5.924190e-01 8.130106e-01 9.400360e-01 9.585326e-01 9.934533e-01 1.089439e+00 1.150960e+00 1.334523e+00 1.153634e+00 1.477494e-05
<GCONST> 6.404378e+01
<MIXTURE> 50 6.234641e-03
<MEAN> 25
 -3.315028e+00 4.169474e-01 -2.240676e+00 4.819798e+00 5.063073e+00 2.692235e+00 4.181483e+00 2.109845e+00 2.075371e+00 2.313117e+00 1.905470e+00 2.371033e+00 6.806440e-02 1.417264e-01 4.586429e-02 -1.367304e-01 -5.779074e-01 -5.740007e-01 -3.957021e-01 9.079149e-03 5.164504e-01 8.174386e-01 7.383967e-01 3.449443e-01 6.681620e-06
<VARIANCE> 25
 1.472872e+01 9.428008e+00 1.400445e+01 1.938019e+01 1.504334e+01 1.732086e+01 1.650213e+01 1.741487e+01 1.774225e+01 1.726225e+01 1.941495e+01 1.366526e+01 1.260595e-01 2.091006e-01 3.921626e-01 5.634744e-01 5.831803e-01 7.092859e-01 8.481944e-01 1.119876e+00 1.117714e+00 8.691117e-01 8.432162e-01 9.756746e-01 1.217047e-06
<GCONST> 5.908998e+01
<MIXTURE> 51 6.234641e-03
<MEAN> 25
 -3.315028e+00 4.169474e-01 -2.240676e+00 4.819798e+00 5.063073e+00 2.692235e+00 4.181483e+00 2.109845e+00 2.075371e+00 2.313117e+00 1.905470e+00 2.371033e+00 6.806440e-02 1.417264e-01 4.586429e-02 -1.367304e-01 -5.779074e-01 -5.740007e-01 -3.957021e-01 9.079149e-03 5.164504e-01 8.174386e-01 7.383967e-01 3.449443e-01 6.681620e-06
<VARIANCE> 25
 1.472872e+01 9.428008e+00 1.400445e+01 1.938019e+01 1.504334e+01 1.732086e+01 1.650213e+01 1.741487e+01 1.774225e+01 1.726225e+01 1.941495e+01 1.366526e+01 1.260595e-01 2.091006e-01 3.921626e-01 5.634744e-01 5.831803e-01 7.092859e-01 8.481944e-01 1.119876e+00 1.117714e+00 8.691117e-01 8.432162e-01 9.756746e-01 1.217047e-06
<GCONST> 5.908998e+01
<MIXTURE> 52 6.367945e-03
<MEAN> 25
 1.011861e+01 2.050129e+00 -6.197987e+00 -1.427603e+01 -4.211730e+00 8.536071e+00 -2.742095e+00 -3.056815e+00 -4.406903e+00 -2.124961e+00 3.351322e+00 7.461790e-01 -3.849390e-01 -4.798742e-01 -6.977733e-02 1.139435e+00 1.338179e+00 -4.732245e-01 -6.029079e-01 -6.593584e-01 4.360954e-02 1.246496e+00 3.873046e-01 -5.459754e-01 -1.380366e-02
<VARIANCE> 25
 9.312257e+00 2.047170e+01 2.531600e+01 3.867287e+01 4.581593e+01 3.069792e+01 4.663110e+01 4.892577e+01 4.303204e+01 4.607434e+01 3.993178e+01 2.998571e+01 4.500152e-01 1.479721e+00 1.310114e+00 2.757169e+00 2.330079e+00 2.198570e+00 2.984058e+00 2.798668e+00 3.004448e+00 2.665942e+00 2.518847e+00 2.276319e+00 1.545078e-03
<GCONST> 8.973354e+01
<MIXTURE> 53 6.367945e-03
<MEAN> 25
 1.011861e+01 2.050129e+00 -6.197987e+00 -1.427603e+01 -4.211730e+00 8.536071e+00 -2.742095e+00 -3.056815e+00 -4.406903e+00 -2.124961e+00 3.351322e+00 7.461790e-01 -3.849390e-01 -4.798742e-01 -6.977733e-02 1.139435e+00 1.338179e+00 -4.732245e-01 -6.029079e-01 -6.593584e-01 4.360954e-02 1.246496e+00 3.873046e-01 -5.459754e-01 -1.380366e-02
<VARIANCE> 25
 9.312257e+00 2.047170e+01 2.531600e+01 3.867287e+01 4.581593e+01 3.069792e+01 4.663110e+01 4.892577e+01 4.303204e+01 4.607434e+01 3.993178e+01 2.998571e+01 4.500152e-01 1.479721e+00 1.310114e+00 2.757169e+00 2.330079e+00 2.198570e+00 2.984058e+00 2.798668e+00 3.004448e+00 2.665942e+00 2.518847e+00 2.276319e+00 1.545078e-03
<GCONST> 8.973354e+01
<MIXTURE> 54 7.368620e-03
<MEAN> 25
 -2.982171e+00 2.439965e-01 -1.344628e+00 6.959782e+00 6.667364e+00 4.488052e+00 4.782491e+00 4.382780e+00 3.511468e+00 4.126809e+00 3.806450e+00 2.069374e+00 -1.762414e-03 1.672115e-02 3.692570e-02 8.155613e-02 3.304625e-02 -2.035471e-02 4.609055e-02 -1.049709e-03 9.262065e-02 2.890456e-02 8.989963e-03 -1.211583e-02 -4.728931e-06
<VARIANCE> 25
 1.088333e+01 9.514238e+00 1.096415e+01 2.346819e+01 1.232963e+01 1.227027e+01 1.071481e+01 1.130284e+01 1.249158e+01 1.409656e+01 1.918477e+01 1.171276e+01 4.082523e-02 8.384904e-02 1.621113e-01 2.471452e-01 3.051538e-01 4.351310e-01 4.485427e-01 5.357260e-01 5.916388e-01 4.955072e-01 5.049924e-01 5.105157e-01 1.389551e-06
<GCONST> 4.813038e+01
<MIXTURE> 55 7.368620e-03
<MEAN> 25
 -2.982171e+00 2.439965e-01 -1.344628e+00 6.959782e+00 6.667364e+00 4.488052e+00 4.782491e+00 4.382780e+00 3.511468e+00 4.126809e+00 3.806450e+00 2.069374e+00 -1.762414e-03 1.672115e-02 3.692570e-02 8.155613e-02 3.304625e-02 -2.035471e-02 4.609055e-02 -1.049709e-03 9.262065e-02 2.890456e-02 8.989963e-03 -1.211583e-02 -4.728931e-06
<VARIANCE> 25
 1.088333e+01 9.514238e+00 1.096415e+01 2.346819e+01 1.232963e+01 1.227027e+01 1.071481e+01 1.130284e+01 1.249158e+01 1.409656e+01 1.918477e+01 1.171276e+01 4.082523e-02 8.384904e-02 1.621113e-01 2.471452e-01 3.051538e-01 4.351310e-01 4.485427e-01 5.357260e-01 5.916388e-01 4.955072e-01 5.049924e-01 5.105157e-01 1.389551e-06
<GCONST> 4.813038e+01
<MIXTURE> 56 6.132464e-03
<MEAN> 25
 6.679963e+00 -5.490036e+00 -8.375022e+00 -7.662307e+00 3.896200e+00 3.476015e+00 -1.370459e+00 -1.192450e+00 2.155427e+00 1.459689e+00 -2.511301e+00 -6.595713e+00 -2.089434e-02 1.287236e-02 -1.191364e-01 7.647859e-02 2.548015e-01 4.864599e-02 1.184197e-01 -1.203289e-01 3.030615e-02 -4.456125e-02 -1.430923e-01 -7.072090e-02 -6.985352e-03
<VARIANCE> 25
 1.007653e+01 3.251051e+01 1.910646e+01 3.848156e+01 3.432171e+01 4.755825e+01 6.777478e+01 3.122751e+01 4.861145e+01 3.478062e+01 3.357713e+01 3.122817e+01 2.043461e-01 3.836401e-01 3.991777e-01 7.266444e-01 7.674430e-01 1.051621e+00 9.556540e-01 9.156505e-01 8.949155e-01 9.523782e-01 1.028847e+00 8.033794e-01 2.150946e-04
<GCONST> 7.485599e+01
<MIXTURE> 57 6.132464e-03
<MEAN> 25
 6.679963e+00 -5.490036e+00 -8.375022e+00 -7.662307e+00 3.896200e+00 3.476015e+00 -1.370459e+00 -1.192450e+00 2.155427e+00 1.459689e+00 -2.511301e+00 -6.595713e+00 -2.089434e-02 1.287236e-02 -1.191364e-01 7.647859e-02 2.548015e-01 4.864599e-02 1.184197e-01 -1.203289e-01 3.030615e-02 -4.456125e-02 -1.430923e-01 -7.072090e-02 -6.985352e-03
<VARIANCE> 25
 1.007653e+01 3.251051e+01 1.910646e+01 3.848156e+01 3.432171e+01 4.755825e+01 6.777478e+01 3.122751e+01 4.861145e+01 3.478062e+01 3.357713e+01 3.122817e+01 2.043461e-01 3.836401e-01 3.991777e-01 7.266444e-01 7.674430e-01 1.051621e+00 9.556540e-01 9.156505e-01 8.949155e-01 9.523782e-01 1.028847e+00 8.033794e-01 2.150946e-04
<GCONST> 7.485599e+01
<MIXTURE> 58 6.172147e-03
<MEAN> 25
 2.294764e+00 -3.462819e+00 7.500391e+00 -4.740425e+00 -1.323470e+01 -5.509899e+00 8.286721e-01 6.989336e-01 -1.568988e+00 9.825356e-01 9.288154e-01 -9.735649e-01 -3.953918e-02 -1.327137e-01 -3.234658e-02 -3.094790e-01 -9.776776e-02 2.193475e-01 4.168005e-01 2.248793e-01 5.667403e-02 8.404570e-02 3.669864e-02 -1.204522e-01 -2.359550e-03
<VARIANCE> 25
 8.141904e+00 1.576122e+01 1.867730e+01 2.723865e+01 2.211087e+01 4.231606e+01 3.613145e+01 3.189053e+01 4.020269e+01 3.461830e+01 2.238460e+01 1.870470e+01 2.865692e-01 7.417538e-01 7.288315e-01 1.134244e+00 9.091274e-01 1.105880e+00 1.085631e+00 1.207491e+00 1.014789e+00 1.031724e+00 1.139793e+00 8.965025e-01 6.986554e-04
<GCONST> 7.553799e+01
<MIXTURE> 59 6.172147e-03
<MEAN> 25
 2.294764e+00 -3.462819e+00 7.500391e+00 -4.740425e+00 -1.323470e+01 -5.509899e+00 8.286721e-01 6.989336e-01 -1.568988e+00 9.825356e-01 9.288154e-01 -9.735649e-01 -3.953918e-02 -1.327137e-01 -3.234658e-02 -3.094790e-01 -9.776776e-02 2.193475e-01 4.168005e-01 2.248793e-01 5.667403e-02 8.404570e-02 3.669864e-02 -1.204522e-01 -2.359550e-03
<VARIANCE> 25
 8.141904e+00 1.576122e+01 1.867730e+01 2.723865e+01 2.211087e+01 4.231606e+01 3.613145e+01 3.189053e+01 4.020269e+01 3.461830e+01 2.238460e+01 1.870470e+01 2.865692e-01 7.417538e-01 7.288315e-01 1.134244e+00 9.091274e-01 1.105880e+00 1.085631e+00 1.207491e+00 1.014789e+00 1.031724e+00 1.139793e+00 8.965025e-01 6.986554e-04
<GCONST> 7.553799e+01
<MIXTURE> 60 4.479129e-03
<MEAN> 25
 -3.332364e+00 -2.482464e-01 -1.521366e+00 3.145166e+00 2.537457e+00 2.280371e+00 2.088359e+00 1.662077e+00 1.660016e+00 1.856420e+00 1.898935e+00 1.769081e+00 -2.892163e-02 6.106280e-02 9.470902e-02 1.515183e-01 1.604999e-01 1.158720e-01 1.766356e-01 2.803453e-01 4.860949e-01 6.575025e-01 4.890545e-01 2.523556e-01 -1.804865e-04
<VARIANCE> 25
 1.063408e+01 5.216109e+00 1.125267e+01 1.178062e+01 1.569789e+01 1.594569e+01 1.433427e+01 1.153178e+01 1.382857e+01 1.443413e+01 1.615883e+01 1.161353e+01 8.759940e-02 1.583653e-01 2.848819e-01 4.341252e-01 5.895278e-01 7.031139e-01 7.909064e-01 8.681350e-01 9.483561e-01 7.972872e-01 7.952782e-01 8.834345e-01 2.511466e-05
<GCONST> 5.716204e+01
<MIXTURE> 61 4.479129e-03
<MEAN> 25
 -3.332364e+00 -2.482464e-01 -1.521366e+00 3.145166e+00 2.537457e+00 2.280371e+00 2.088359e+00 1.662077e+00 1.660016e+00 1.856420e+00 1.898935e+00 1.769081e+00 -2.892163e-02 6.106280e-02 9.470902e-02 1.515183e-01 1.604999e-01 1.158720e-01 1.766356e-01 2.803453e-01 4.860949e-01 6.575025e-01 4.890545e-01 2.523556e-01 -1.804865e-04
<VARIANCE> 25
 1.063408e+01 5.216109e+00 1.125267e+01 1.178062e+01 1.569789e+01 1.594569e+01 1.433427e+01 1.153178e+01 1.382857e+01 1.443413e+01 1.615883e+01 1.161353e+01 8.759940e-02 1.583653e-01 2.848819e-01 4.341252e-01 5.895278e-01 7.031139e-01 7.909064e-01 8.681350e-01 9.483561e-01 7.972872e-01 7.952782e-01 8.834345e-01 2.511466e-05
<GCONST> 5.716204e+01
<MIXTURE> 62 3.278034e-03
<MEAN> 25
 -5.047193e+00 1.269523e+00 1.001058e+00 8.741876e+00 6.134328e+00 5.012663e+00 5.497044e+00 4.084241e+00 4.901839e+00 3.953363e+00 4.896979e+00 2.973837e+00 -1.000016e+00 -1.157696e+00 -9.468541e-01 -2.858515e-01 4.303795e-01 1.007980e+00 1.381893e+00 1.546318e+00 1.480660e+00 1.236959e+00 1.054721e+00 7.336465e-01 -1.284156e-03
<VARIANCE> 25
 9.996650e+00 9.956303e+00 1.307222e+01 1.721950e+01 1.726729e+01 1.755384e+01 1.952429e+01 1.927764e+01 1.945694e+01 1.870212e+01 2.188731e+01 1.474933e+01 3.995379e-01 4.368980e-01 5.542009e-01 7.813509e-01 1.028097e+00 1.182686e+00 1.242257e+00 1.271665e+00 1.322352e+00 1.356196e+00 1.404967e+00 1.367255e+00 1.623237e-05
<GCONST> 6.756124e+01
<MIXTURE> 63 4.351215e-03
<MEAN> 25
 -2.024833e+00 -7.102686e-01 -4.606984e+00 1.582727e+00 4.455012e+00 8.473639e-01 3.595238e+00 1.609467e+00 1.008653e+00 1.011449e+00 -1.581311e+00 1.795087e+00 -9.576805e-02 2.310253e-01 3.862289e-01 4.641996e-01 4.546977e-01 4.068769e-01 3.723368e-01 1.156756e-01 -3.180609e-02 1.127464e-01 1.325455e-01 1.679397e-01 -1.690235e-03
<VARIANCE> 25
 1.235812e+01 1.349701e+01 1.348778e+01 1.343172e+01 1.539433e+01 2.205282e+01 1.885304e+01 1.874707e+01 2.184062e+01 2.017784e+01 1.588919e+01 1.474314e+01 2.650025e-01 3.638478e-01 5.718388e-01 5.835947e-01 7.604590e-01 9.455243e-01 1.113994e+00 1.168779e+00 1.377881e+00 1.324304e+00 1.036545e+00 1.106533e+00 1.642344e-04
<GCONST> 6.802496e+01
<MIXTURE> 64 4.351215e-03
<MEAN> 25
 -2.024833e+00 -7.102686e-01 -4.606984e+00 1.582727e+00 4.455012e+00 8.473639e-01 3.595238e+00 1.609467e+00 1.008653e+00 1.011449e+00 -1.581311e+00 1.795087e+00 -9.576805e-02 2.310253e-01 3.862289e-01 4.641996e-01 4.546977e-01 4.068769e-01 3.723368e-01 1.156756e-01 -3.180609e-02 1.127464e-01 1.325455e-01 1.679397e-01 -1.690235e-03
<VARIANCE> 25
 1.235812e+01 1.349701e+01 1.348778e+01 1.343172e+01 1.539433e+01 2.205282e+01 1.885304e+01 1.874707e+01 2.184062e+01 2.017784e+01 1.588919e+01 1.474314e+01 2.650025e-01 3.638478e-01 5.718388e-01 5.835947e-01 7.604590e-01 9.455243e-01 1.113994e+00 1.168779e+00 1.377881e+00 1.324304e+00 1.036545e+00 1.106533e+00 1.642344e-04
<GCONST> 6.802496e+01
<MIXTURE> 65 1.721197e-02
<MEAN> 25
 7.934032e+00 2.067429e+00 1.903837e+00 6.319016e-01 -5.243698e+00 -4.234740e+00 -5.694585e+00 -6.680320e+00 -3.828275e+00 -2.216331e+00 -5.421574e+00 -1.921513e+00 1.708930e-01 1.274800e-01 1.310905e-02 1.326452e-01 -1.726353e-01 2.550585e-01 -1.084703e-01 -1.707082e-01 1.711330e-01 1.194581e-02 -5.264122e-02 -1.495829e-01 -4.639709e-03
<VARIANCE> 25
 1.024060e+01 1.935925e+01 2.606820e+01 3.579615e+01 3.968910e+01 5.837585e+01 6.026780e+01 5.881433e+01 5.625145e+01 5.868716e+01 5.651395e+01 5.064191e+01 5.543870e-01 9.405246e-01 1.604290e+00 1.794054e+00 2.003219e+00 2.187545e+00 2.288724e+00 2.974501e+00 2.444491e+00 2.500513e+00 2.395740e+00 2.118446e+00 4.268430e-04
<GCONST> 8.953468e+01
<MIXTURE> 66 1.191532e-02
<MEAN> 25
 6.390333e+00 -4.561706e+00 -4.932752e+00 -4.840022e+00 7.019485e-01 -5.243224e+00 -7.347681e+00 9.320876e-01 2.308845e+00 -1.932142e+00 -6.283559e+00 -4.070865e+00 4.686437e-02 1.604692e+00 2.130189e+00 2.200911e+00 -9.732517e-01 -1.019992e+00 7.318930e-02 -5.662755e-01 -4.738252e-01 -2.847552e-01 -3.263957e-01 1.030697e+00 -6.375167e-02
<VARIANCE> 25
 8.805250e+00 2.213388e+01 2.843010e+01 2.983422e+01 3.787634e+01 4.859636e+01 5.233209e+01 4.194780e+01 7.232166e+01 6.054024e+01 3.406208e+01 3.573082e+01 1.239388e+00 2.233168e+00 2.215274e+00 2.338249e+00 4.444769e+00 4.321949e+00 3.941581e+00 4.383708e+00 4.788857e+00 4.607922e+00 3.648684e+00 2.934368e+00 1.348798e-03
<GCONST> 9.598714e+01
<MIXTURE> 67 1.559142e-02
<MEAN> 25
 8.983340e+00 2.034424e+00 -5.977560e+00 -8.272506e+00 9.044611e-01 3.082092e+00 -3.323558e+00 -2.241203e+00 -3.771238e+00 7.805217e-01 -5.497170e-02 -1.734134e+00 -1.073816e+00 1.831541e+00 1.062714e+00 3.072529e+00 1.391898e+00 -5.091742e-01 1.302496e+00 1.195452e-01 1.565240e-01 2.501986e-01 -2.767324e-01 6.251979e-01 -1.299510e-01
<VARIANCE> 25
 1.147429e+01 3.886018e+01 3.078685e+01 5.584624e+01 4.915489e+01 5.406397e+01 6.211797e+01 5.279634e+01 6.482468e+01 5.712257e+01 5.577467e+01 4.737106e+01 2.179786e+00 3.465089e+00 3.290060e+00 4.517780e+00 4.525272e+00 4.553817e+00 4.705864e+00 5.071988e+00 5.477562e+00 4.781255e+00 5.133505e+00 3.745131e+00 3.047142e-03
<GCONST> 1.029207e+02
<MIXTURE> 68 1.485092e-02
<MEAN> 25
 -2.200390e+00 -2.182035e+00 -3.996660e+00 1.212495e+00 5.247252e+00 -5.073956e-01 2.192968e+00 1.834994e+00 2.019671e+00 1.580119e+00 3.743903e-01 1.905379e+00 2.730974e+00 5.272363e-01 1.010094e-01 -2.500431e+00 -2.498199e+00 -1.586257e+00 -2.360390e+00 -1.782905e+00 -1.676674e+00 -1.544380e+00 -1.890292e+00 -1.052210e+00 1.032855e-01
<VARIANCE> 25
 2.723755e+01 3.212754e+01 5.818888e+01 5.158478e+01 4.583761e+01 5.527728e+01 4.460641e+01 4.150345e+01 3.967686e+01 4.361507e+01 3.733059e+01 2.536513e+01 1.903739e+00 3.695433e+00 6.164587e+00 6.074830e+00 4.918446e+00 5.524478e+00 5.667795e+00 4.888480e+00 4.967406e+00 5.338665e+00 5.372913e+00 3.361120e+00 6.017920e-03
<GCONST> 1.036549e+02
<MIXTURE> 69 1.204884e-02
<MEAN> 25
 4.560436e+00 -4.310490e+00 -3.520504e+00 -3.584476e+00 -3.605451e+00 -7.889712e+00 -1.373464e+00 2.154002e+00 -3.321363e-02 -4.650132e+00 -5.683546e+00 8.349017e-01 1.698746e+00 -2.302796e+00 -1.294295e+00 -2.237362e+00 -5.962926e-01 -3.476693e-01 -5.731052e-01 6.248959e-01 -4.745500e-01 -1.406335e+00 -2.125091e+00 -2.543815e-01 6.354807e-02
<VARIANCE> 25
 9.250324e+00 2.170186e+01 2.627103e+01 2.567358e+01 4.235770e+01 3.490123e+01 5.108570e+01 3.106297e+01 4.345632e+01 3.748644e+01 3.062268e+01 2.477835e+01 3.495801e+00 3.062141e+00 3.350412e+00 3.622996e+00 5.850589e+00 4.902126e+00 7.407661e+00 5.955475e+00 7.055736e+00 5.868513e+00 4.542147e+00 3.938431e+00 2.437356e-03
<GCONST> 9.905943e+01
<MIXTURE> 70 1.329190e-02
<MEAN> 25
 6.264860e+00 -3.075811e+00 -3.516597e+00 -3.621930e+00 -1.750353e+00 -1.904590e+00 -8.719382e+00 -3.477067e+00 2.811905e+00 2.557507e+00 -5.713293e-01 -5.014887e+00 1.974240e+00 -1.664840e+00 -5.674999e-01 -2.170772e+00 -1.735185e+00 9.768444e-01 -1.817676e+00 1.139319e-02 1.150722e+00 9.974255e-02 8.491367e-01 -1.696751e+00 6.553296e-02
<VARIANCE> 25
 1.670970e+01 2.621368e+01 2.500907e+01 4.219809e+01 4.165919e+01 4.651566e+01 5.062101e+01 3.931533e+01 6.836939e+01 2.936265e+01 4.162189e+01 2.390692e+01 3.088217e+00 4.286155e+00 4.404374e+00 4.306264e+00 4.841255e+00 5.738500e+00 7.067262e+00 6.616153e+00 9.073502e+00 4.743962e+00 5.226143e+00 4.221001e+00 2.420350e-03
<GCONST> 1.021907e+02
<MIXTURE> 71 1.406903e-02
<MEAN> 25
 6.180676e+00 5.115992e+00 4.162127e+00 3.078041e+00 -3.332019e+00 -3.078364e+00 -3.136945e+00 -6.575168e+00 -4.776164e+00 -2.701118e+00 -4.873056e+00 -3.067996e+00 -1.632855e+00 -6.846517e-01 -2.340249e-01 -1.697248e+00 1.085244e+00 -3.838756e-02 6.538926e-02 1.461338e+00 4.254674e-01 -1.877336e-01 5.470008e-01 2.516716e-01 4.112189e-02
<VARIANCE> 25
 1.935793e+01 2.493089e+01 2.345338e+01 4.313165e+01 3.944448e+01 4.358080e+01 4.313718e+01 4.111993e+01 3.866888e+01 4.298550e+01 3.768726e+01 3.407388e+01 1.775245e+00 2.914517e+00 5.214393e+00 4.818387e+00 4.800774e+00 4.771430e+00 4.671299e+00 5.365788e+00 4.443104e+00 4.172169e+00 3.907809e+00 3.244307e+00 1.365378e-03
<GCONST> 9.863332e+01
<MIXTURE> 72 8.134747e-03
<MEAN> 25
 3.777364e+00 -3.700445e+00 5.460504e+00 -2.464516e+00 -1.041130e+01 -9.622742e+00 -2.487003e+00 1.905370e+00 -4.910232e+00 -2.211476e+00 -1.869424e+00 6.023183e-01 9.315268e-01 -7.855682e-01 -2.572134e+00 4.608862e-01 2.133507e+00 -6.529058e-01 -1.311626e+00 1.521051e+00 1.811357e+00 -5.959331e-01 -1.287426e+00 4.001195e-01 -6.118377e-03
<VARIANCE> 25
 1.084504e+01 1.956132e+01 3.284689e+01 3.848374e+01 3.229241e+01 3.331071e+01 4.143788e+01 3.623322e+01 4.430157e+01 4.144449e+01 3.881358e+01 2.854084e+01 4.322459e-01 1.024093e+00 2.025574e+00 1.470952e+00 2.184428e+00 2.356183e+00 3.065619e+00 2.732807e+00 2.604089e+00 2.955706e+00 2.025325e+00 2.130588e+00 5.400784e-04
<GCONST> 8.728658e+01
<MIXTURE> 73 1.213625e-02
<MEAN> 25
 -5.742243e+00 -6.987788e-01 -1.262160e+00 4.706439e+00 4.243292e+00 2.503500e+00 5.455447e+00 3.361616e+00 4.388705e+00 3.366507e+00 4.029277e+00 3.096218e+00 7.579317e-01 -1.003295e+00 -8.456897e-01 -2.595060e+00 -1.289564e+00 -1.735241e+00 -9.117382e-01 -4.795355e-01 -9.412257e-01 -7.474832e-01 -1.071337e+00 -2.658555e-01 1.531710e-01
<VARIANCE> 25
 1.320433e+01 1.333860e+01 1.489314e+01 2.376137e+01 2.304047e+01 2.505940e+01 2.007186e+01 2.000747e+01 1.748389e+01 1.919850e+01 2.417323e+01 1.559173e+01 4.070551e+00 3.037868e+00 6.187954e+00 4.702869e+00 6.275135e+00 4.474077e+00 4.217804e+00 4.267150e+00 3.929312e+00 4.344648e+00 3.586841e+00 2.622982e+00 4.279402e-03
<GCONST> 9.282504e+01
<MIXTURE> 74 1.756491e-02
<MEAN> 25
 2.703997e+00 -2.681520e+00 5.832517e+00 -7.499434e-01 -9.770281e+00 -7.651001e+00 -3.188496e+00 6.615608e-01 -3.109148e+00 -3.295689e+00 -7.108306e-02 1.107907e+00 1.632239e-01 2.224559e+00 -4.384611e-01 1.129582e+00 1.459633e+00 1.396210e-01 3.099284e-01 -1.002126e+00 -2.941150e-01 5.768902e-01 -5.966948e-01 4.793199e-01 -7.750332e-02
<VARIANCE> 25
 2.029499e+01 2.404797e+01 3.203448e+01 3.374759e+01 3.367427e+01 3.283232e+01 4.168100e+01 3.823010e+01 6.548998e+01 3.972366e+01 4.604875e+01 3.141908e+01 1.917195e+00 2.442971e+00 3.911730e+00 2.936682e+00 3.307019e+00 3.723971e+00 4.309949e+00 4.149598e+00 4.228783e+00 3.686554e+00 3.311755e+00 4.427080e+00 1.460318e-03
<GCONST> 9.692870e+01
<MIXTURE> 75 9.711651e-03
<MEAN> 25
 5.653121e-01 -1.514553e+00 1.165024e+01 1.657666e+00 -1.294944e+01 -4.848979e+00 -4.934290e+00 -1.374877e+00 -3.971263e+00 -7.641902e+00 3.076767e+00 -4.247345e-01 1.451994e+00 -1.660853e+00 6.168443e-01 -1.923298e-02 -2.820829e+00 -9.904161e-01 -1.536113e+00 6.743196e-01 -1.346769e-01 -5.782920e-01 1.259957e+00 -1.155555e+00 4.167309e-02
<VARIANCE> 25
 1.292183e+01 1.591402e+01 2.238433e+01 2.154437e+01 2.279816e+01 3.567078e+01 2.775423e+01 2.200340e+01 2.934991e+01 3.454793e+01 1.632915e+01 2.071179e+01 2.024324e+00 1.363540e+00 4.033027e+00 2.494973e+00 4.398900e+00 3.731454e+00 4.157664e+00 2.982309e+00 3.779228e+00 3.742784e+00 2.241988e+00 3.278446e+00 1.286633e-03
<GCONST> 8.994068e+01
<MIXTURE> 76 1.052359e-02
<MEAN> 25
 -3.929824e+00 7.445735e-02 -3.382712e+00 1.993200e+00 5.082033e+00 2.387089e+00 4.693402e+00 2.090721e+00 1.510558e+00 2.316433e+00 9.595768e-01 2.247398e+00 -7.032185e-02 -3.398214e-01 -1.018535e-01 -7.536659e-01 -6.645183e-01 -6.937295e-01 -6.204290e-01 -1.458591e-01 -2.205113e-01 -4.222167e-01 -2.704134e-01 5.452177e-03 1.617948e-02
<VARIANCE> 25
 3.909089e+01 2.282455e+01 2.174512e+01 2.523628e+01 2.354195e+01 2.505802e+01 2.290311e+01 2.281924e+01 2.141091e+01 2.352017e+01 2.184703e+01 1.957165e+01 9.275727e-01 8.896186e-01 1.393130e+00 1.077192e+00 1.118263e+00 1.593311e+00 1.404121e+00 1.713353e+00 1.504974e+00 1.487691e+00 1.305563e+00 1.311458e+00 9.702633e-04
<GCONST> 8.004212e+01
<MIXTURE> 77 1.244626e-02
<MEAN> 25
 -4.665270e-01 8.582799e+00 1.246106e+01 -1.161337e+01 -7.007452e+00 9.577627e-01 -9.277391e+00 -7.235555e+00 -3.377886e+00 -2.020590e-01 -4.652860e+00 -1.485785e+00 6.813819e-02 1.372664e-01 7.331015e-02 2.510867e-01 -2.184342e-02 7.791423e-02 -6.555609e-02 -6.221242e-02 8.256846e-02 -4.454939e-02 2.620040e-02 1.176074e-01 -9.909293e-03
<VARIANCE> 25
 1.044357e+01 2.010282e+01 2.752108e+01 4.166437e+01 3.323167e+01 3.380741e+01 3.672906e+01 3.177795e+01 3.524455e+01 3.325041e+01 3.759688e+01 3.494129e+01 2.987527e-01 7.779415e-01 6.454299e-01 1.086619e+00 1.237668e+00 9.860938e-01 1.224004e+00 1.073635e+00 1.043236e+00 1.065966e+00 9.721545e-01 9.229017e-01 5.402536e-04
<GCONST> 7.780450e+01
<MIXTURE> 78 9.702551e-03
<MEAN> 25
 -1.162270e+01 1.444398e+00 -1.638525e+00 2.044564e+00 4.245570e+00 -2.568686e+00 3.582005e+00 2.379450e+00 2.265525e+00 6.988359e-01 -4.980212e-01 3.390538e+00 2.351980e+00 -3.317170e-01 1.655626e-01 5.612659e-01 -3.682117e-02 2.529630e-02 -3.645303e-01 -1.668653e-01 2.571070e-01 1.035271e-01 -3.970103e-01 -5.167542e-01 -5.916148e-02
<VARIANCE> 25
 3.927573e+01 3.319272e+01 3.123462e+01 3.168057e+01 3.889273e+01 3.794649e+01 3.503630e+01 3.370688e+01 2.940987e+01 2.666470e+01 2.614064e+01 2.127479e+01 4.924545e+00 2.790664e+00 2.769744e+00 2.927804e+00 2.847136e+00 3.354503e+00 3.326192e+00 2.909318e+00 2.354739e+00 2.301514e+00 2.206195e+00 2.219934e+00 4.626284e-03
<GCONST> 9.451646e+01
<MIXTURE> 79 1.156824e-02
<MEAN> 25
 2.358256e+00 1.534232e+00 9.222468e+00 -6.493402e+00 -1.213571e+01 -1.845857e+00 -1.953147e+00 -6.457566e+00 -6.561925e+00 1.863272e-01 -3.434543e+00 -3.310003e+00 1.210971e+00 -5.242761e-01 -1.420421e+00 2.347357e+00 3.815092e-01 -1.474624e+00 5.233907e-01 8.847330e-01 -4.280545e-01 -5.227493e-01 3.684683e-01 2.668990e-01 -3.590378e-02
<VARIANCE> 25
 1.446733e+01 2.405565e+01 3.750055e+01 5.047204e+01 3.325399e+01 4.317225e+01 4.265653e+01 3.643560e+01 3.875555e+01 4.101310e+01 4.422244e+01 3.057651e+01 9.454105e-01 2.244745e+00 1.890698e+00 2.079301e+00 2.461938e+00 2.813854e+00 3.222696e+00 3.506322e+00 2.514611e+00 2.747590e+00 2.307125e+00 2.036622e+00 1.254031e-03
<GCONST> 9.182417e+01
<MIXTURE> 80 7.550998e-03
<MEAN> 25
 -1.460798e+01 3.983654e+00 6.887460e-01 2.864866e+00 2.449455e+00 1.409110e+00 6.395719e+00 2.495721e+00 2.718243e+00 2.372092e+00 4.851052e+00 1.188774e+00 4.285748e+00 -1.649740e-02 1.637898e+00 -1.135091e+00 -2.889467e+00 -2.776989e+00 -2.323292e+00 -2.021463e+00 -1.974619e+00 -1.685318e+00 -1.650285e+00 -6.030115e-01 -4.421296e-02
<VARIANCE> 25
 2.094596e+01 1.984409e+01 3.443590e+01 3.470313e+01 3.017359e+01 2.922265e+01 2.828815e+01 2.855662e+01 2.675108e+01 2.881171e+01 2.686212e+01 1.811769e+01 2.358108e+00 2.666927e+00 2.673568e+00 4.119696e+00 3.395264e+00 2.705939e+00 3.024658e+00 3.203336e+00 2.750630e+00 2.701871e+00 2.783549e+00 2.145849e+00 1.514143e-03
<GCONST> 9.140084e+01
<MIXTURE> 81 8.025434e-03
<MEAN> 25
 -1.118750e+00 4.061222e+00 1.017806e+01 -1.480025e+01 -9.082052e+00 -1.425440e+00 -6.770618e+00 -8.423988e+00 -4.144925e+00 -4.174174e-01 -7.571095e+00 -2.248880e+00 1.340461e-01 -5.872472e-01 -2.759991e-03 -5.565149e-01 -4.638089e-01 3.350581e-01 3.198696e-01 1.370046e-01 -1.401141e-01 1.067229e-01 -4.693563e-01 -1.255801e-01 1.150903e-02
<VARIANCE> 25
 1.015106e+01 3.288522e+01 2.645901e+01 2.931232e+01 3.369719e+01 3.053528e+01 4.546362e+01 2.826007e+01 3.811354e+01 3.189505e+01 2.533171e+01 3.104817e+01 7.721308e-01 2.276531e+00 1.545408e+00 2.872699e+00 2.662964e+00 2.126081e+00 3.280119e+00 2.287265e+00 2.355214e+00 2.538941e+00 2.298977e+00 2.078841e+00 1.183118e-03
<GCONST> 8.869300e+01
<MIXTURE> 82 8.213053e-03
<MEAN> 25
 -1.006343e+01 -3.385989e+00 1.438201e+00 -3.036423e+00 3.130929e+00 1.410521e+00 2.063262e+00 7.551854e-01 3.294035e+00 1.805321e+00 1.105843e+00 3.529114e+00 -1.283208e+00 -7.418346e-02 5.073116e-01 -2.482592e+00 -1.142491e+00 -1.231557e+00 -9.932449e-01 -7.480930e-01 -4.754147e-01 -6.653977e-01 -3.366728e-01 5.295177e-03 1.687820e-01
<VARIANCE> 25
 1.658296e+01 2.454466e+01 2.939214e+01 2.853215e+01 3.056710e+01 3.349346e+01 2.887268e+01 3.059527e+01 2.896013e+01 2.286474e+01 3.102944e+01 1.784393e+01 3.518340e+00 2.789400e+00 3.446922e+00 3.075712e+00 3.374685e+00 3.146993e+00 2.669520e+00 3.019104e+00 3.166608e+00 2.805022e+00 2.352020e+00 1.824432e+00 3.784144e-03
<GCONST> 9.237279e+01
<MIXTURE> 83 1.167529e-02
<MEAN> 25
 -1.948415e+01 5.739547e+00 -1.930761e+00 -4.936454e-01 7.188768e+00 -2.047672e+00 5.125383e+00 3.295379e+00 1.305811e+00 2.268228e+00 4.383406e-01 3.141386e+00 -1.178656e-02 -3.827308e-01 7.238963e-02 -3.529457e-01 -3.793301e-01 -1.546920e-01 -9.329277e-02 -9.162463e-02 -8.794649e-02 -9.022746e-02 9.477703e-02 6.594482e-02 2.454389e-03
<VARIANCE> 25
 1.132799e+01 1.574957e+01 2.660449e+01 2.073564e+01 2.379014e+01 2.955029e+01 2.139634e+01 2.261774e+01 1.926878e+01 2.078754e+01 2.233024e+01 1.418571e+01 9.925084e-01 9.109169e-01 1.190181e+00 9.814964e-01 1.402458e+00 1.200489e+00 1.210386e+00 1.392480e+00 1.288795e+00 1.231200e+00 1.320437e+00 1.122876e+00 8.673249e-04
<GCONST> 7.683533e+01
<MIXTURE> 84 1.066614e-02
<MEAN> 25
 1.283496e+00 8.787348e+00 7.114745e+00 7.750492e+00 2.698192e+00 -9.635162e-01 -1.469934e+00 -4.323403e+00 -4.350122e+00 -3.000940e+00 -2.193555e+00 -1.607765e+00 -1.850614e+00 -1.163213e+00 -1.217505e+00 1.231261e+00 2.261048e+00 1.529086e+00 1.430420e+00 1.284740e+00 1.263350e+00 4.523219e-01 2.913764e-01 4.659376e-01 -6.801953e-02
<VARIANCE> 25
 2.311313e+01 1.914025e+01 2.136612e+01 2.481700e+01 2.868465e+01 2.780178e+01 2.716377e+01 2.654774e+01 2.592167e+01 2.462766e+01 2.411465e+01 2.386857e+01 2.148437e+00 2.468618e+00 3.744894e+00 3.278995e+00 3.211465e+00 3.276948e+00 3.192353e+00 3.307703e+00 3.611585e+00 3.250090e+00 3.889176e+00 2.755420e+00 3.781206e-03
<GCONST> 9.253296e+01
<MIXTURE> 85 7.591393e-03
<MEAN> 25
 -3.144921e+00 7.798741e+00 5.834988e+00 1.233359e+00 -3.538783e+00 -5.119530e+00 -2.970780e+00 -6.074359e+00 -3.537381e+00 -3.304885e+00 -4.760406e-01 -1.759616e+00 3.914562e+00 3.005372e-01 1.805928e+00 -2.024818e+00 -3.473797e+00 -2.565402e+00 -2.895934e+00 -2.317908e+00 -2.260467e+00 -1.327697e+00 -2.207908e+00 -6.534135e-01 1.042084e-02
<VARIANCE> 25
 4.183282e+01 2.351442e+01 3.684914e+01 3.753788e+01 3.958414e+01 4.249975e+01 3.153112e+01 2.749451e+01 2.613127e+01 2.640192e+01 2.624307e+01 2.120201e+01 2.687747e+00 4.276258e+00 4.111636e+00 5.274711e+00 4.522671e+00 3.821563e+00 3.835365e+00 3.931193e+00 3.817828e+00 4.164932e+00 4.288106e+00 3.498560e+00 5.411698e-03
<GCONST> 9.845823e+01
<MIXTURE> 86 1.273941e-02
<MEAN> 25
 -3.513638e+00 -2.749147e-01 -1.841521e+00 4.695677e+00 5.679208e+00 4.476527e+00 5.550892e+00 4.240492e+00 3.949411e+00 5.020130e+00 4.410562e+00 2.152826e+00 2.334490e-02 -8.304430e-03 3.232605e-02 -1.004830e-02 -7.643981e-02 -1.497465e-01 -2.491619e-01 -3.994040e-01 -2.810934e-01 -2.346735e-01 -2.326489e-01 -3.068421e-02 -1.098619e-03
<VARIANCE> 25
 1.281991e+01 6.782400e+00 1.075745e+01 1.615310e+01 1.383344e+01 1.202563e+01 1.154108e+01 1.140750e+01 1.473438e+01 1.589143e+01 1.569939e+01 1.425450e+01 9.951513e-02 1.614134e-01 3.027114e-01 4.470257e-01 5.651558e-01 6.563516e-01 6.881612e-01 6.879779e-01 7.538674e-01 8.643249e-01 7.382936e-01 8.572441e-01 5.474312e-05
<GCONST> 5.786150e+01
<MIXTURE> 87 1.100681e-02
<MEAN> 25
 -2.979512e+00 4.120316e+00 3.290868e+00 6.560382e+00 5.033900e+00 1.629811e+00 1.521303e+00 -1.337346e+00 -5.929446e-01 -6.869321e-01 -4.342492e-01 2.672982e-01 -2.389288e+00 -2.497044e+00 -1.977154e+00 -2.086963e+00 7.270625e-02 3.724768e-02 5.481278e-01 1.186897e+00 1.701888e+00 1.113233e+00 4.787216e-01 1.150891e+00 1.033211e-01
<VARIANCE> 25
 3.503152e+01 2.734437e+01 2.508239e+01 3.329160e+01 2.878668e+01 3.417768e+01 2.581679e+01 2.601520e+01 3.148384e+01 2.412863e+01 2.327413e+01 2.154048e+01 3.841667e+00 2.944035e+00 3.892167e+00 3.364315e+00 4.365190e+00 4.210470e+00 3.719373e+00 3.626245e+00 3.908562e+00 3.341556e+00 4.411221e+00 2.593909e+00 4.394096e-03
<GCONST> 9.588078e+01
<MIXTURE> 88 1.256585e-02
<MEAN> 25
 -3.159527e+00 -1.480053e-01 -1.858137e+00 4.001695e+00 5.160177e+00 3.624717e+00 4.478835e+00 3.385972e+00 2.999305e+00 3.095284e+00 2.145633e+00 2.451278e+00 -9.844040e-03 1.568723e-01 2.243876e-01 3.792874e-01 1.433197e-01 1.988106e-01 -8.231323e-02 -2.954856e-01 -2.628109e-01 -3.107349e-01 6.471055e-02 -6.529065e-02 -4.492407e-03
<VARIANCE> 25
 1.189889e+01 9.754756e+00 1.330992e+01 1.935155e+01 1.915912e+01 1.717922e+01 1.928528e+01 1.628029e+01 1.582709e+01 1.769199e+01 1.976968e+01 1.687952e+01 1.177341e+00 1.376990e+00 2.180331e+00 1.989374e+00 2.339683e+00 2.286671e+00 2.376255e+00 2.432085e+00 2.188730e+00 2.492939e+00 2.086108e+00 2.270303e+00 1.228546e-03
<GCONST> 8.117518e+01
<MIXTURE> 89 9.333527e-03
<MEAN> 25
 5.425663e+00 -6.600050e+00 -1.481936e+00 -2.149945e+00 -1.789035e+00 -5.364583e+00 -7.200574e+00 2.732562e+00 4.613806e+00 -3.322166e+00 -6.355196e+00 -3.882666e+00 -6.376448e-01 2.243901e-01 1.857693e+00 1.103174e+00 -1.631981e+00 -1.316588e+00 6.945922e-01 1.088662e+00 -5.656731e-01 -1.164355e+00 6.555884e-01 1.469826e+00 1.873441e-03
<VARIANCE> 25
 7.681379e+00 2.251351e+01 3.566309e+01 2.581275e+01 2.788098e+01 3.153690e+01 5.349446e+01 3.453359e+01 3.674774e+01 3.675554e+01 2.849084e+01 2.462076e+01 3.115125e-01 6.357836e-01 1.162104e+00 1.206223e+00 1.759207e+00 1.846712e+00 1.989974e+00 1.670315e+00 2.170964e+00 1.628304e+00 2.218281e+00 1.088582e+00 5.058563e-04
<GCONST> 8.163995e+01
<MIXTURE> 90 7.114505e-03
<MEAN> 25
 2.444615e+00 -9.723492e+00 -4.747365e+00 -3.975143e+00 -3.388907e+00 -1.814985e+00 3.359730e+00 1.181769e+00 -7.523862e+00 -1.021401e+01 -3.424281e+00 -7.417223e-01 -1.638223e-01 9.084117e-01 1.168121e+00 -8.548018e-01 -1.612556e+00 -2.117380e-01 6.447200e-01 -2.091173e-01 -1.684492e-01 7.374967e-01 1.826904e-01 -5.485939e-01 -1.114076e-02
<VARIANCE> 25
 8.514403e+00 1.778665e+01 1.989293e+01 2.801718e+01 3.687936e+01 3.215770e+01 3.857172e+01 3.638368e+01 3.531534e+01 2.769803e+01 2.704075e+01 2.613044e+01 2.236431e-01 6.129993e-01 7.870247e-01 1.043876e+00 1.469542e+00 1.590730e+00 1.779290e+00 1.654732e+00 1.809664e+00 1.678066e+00 1.496039e+00 1.311779e+00 2.150377e-04
<GCONST> 7.814702e+01
<MIXTURE> 91 7.852945e-03
<MEAN> 25
 5.892655e+00 -7.820991e+00 -7.614044e+00 -5.247647e+00 2.819469e+00 -7.570289e-01 -3.321296e+00 5.119019e-01 2.594061e+00 -2.629734e+00 -5.080077e+00 -5.810859e+00 2.999616e-01 9.900126e-01 2.742403e-01 5.331533e-01 5.351479e-02 -4.248942e-01 -2.609828e-01 -1.099699e-01 -2.917959e-01 3.265349e-01 -2.411521e-01 2.610747e-01 -3.568052e-02
<VARIANCE> 25
 1.058370e+01 2.253872e+01 2.342943e+01 3.596622e+01 4.167356e+01 5.281899e+01 6.082895e+01 3.527891e+01 7.405990e+01 5.757157e+01 3.525451e+01 3.980130e+01 4.130146e-01 7.906410e-01 1.088001e+00 1.286168e+00 2.051633e+00 2.212897e+00 2.241490e+00 2.155631e+00 2.488888e+00 2.102558e+00 1.895506e+00 1.659935e+00 5.679700e-04
<GCONST> 8.676334e+01
<MIXTURE> 92 7.852945e-03
<MEAN> 25
 5.892655e+00 -7.820991e+00 -7.614044e+00 -5.247647e+00 2.819469e+00 -7.570289e-01 -3.321296e+00 5.119019e-01 2.594061e+00 -2.629734e+00 -5.080077e+00 -5.810859e+00 2.999616e-01 9.900126e-01 2.742403e-01 5.331533e-01 5.351479e-02 -4.248942e-01 -2.609828e-01 -1.099699e-01 -2.917959e-01 3.265349e-01 -2.411521e-01 2.610747e-01 -3.568052e-02
<VARIANCE> 25
 1.058370e+01 2.253872e+01 2.342943e+01 3.596622e+01 4.167356e+01 5.281899e+01 6.082895e+01 3.527891e+01 7.405990e+01 5.757157e+01 3.525451e+01 3.980130e+01 4.130146e-01 7.906410e-01 1.088001e+00 1.286168e+00 2.051633e+00 2.212897e+00 2.241490e+00 2.155631e+00 2.488888e+00 2.102558e+00 1.895506e+00 1.659935e+00 5.679700e-04
<GCONST> 8.676334e+01
<MIXTURE> 93 6.122769e-03
<MEAN> 25
 -6.603594e+00 -8.558933e-01 -2.493158e+00 5.571815e+00 5.992758e+00 3.927071e+00 6.119839e+00 3.559251e+00 3.927303e+00 2.695614e+00 1.801903e+00 3.567850e+00 -5.033666e-02 -1.537983e-01 -2.675346e-01 -3.280827e-01 -3.180871e-01 -2.870196e-01 -1.936657e-01 -1.712409e-01 -1.587639e-01 -1.424141e-01 -1.051147e-01 -5.230133e-02 2.492837e-05
<VARIANCE> 25
 1.032460e+01 6.103029e+00 8.136853e+00 1.228617e+01 1.130282e+01 1.546784e+01 1.477084e+01 1.610625e+01 1.525708e+01 1.496190e+01 1.643240e+01 1.349173e+01 8.455262e-02 1.502917e-01 2.629479e-01 3.804643e-01 5.023818e-01 6.357331e-01 7.959180e-01 8.824626e-01 9.130167e-01 8.615440e-01 8.798528e-01 9.057682e-01 1.057656e-06
<GCONST> 5.377382e+01
<MIXTURE> 94 6.122769e-03
<MEAN> 25
 -6.603594e+00 -8.558933e-01 -2.493158e+00 5.571815e+00 5.992758e+00 3.927071e+00 6.119839e+00 3.559251e+00 3.927303e+00 2.695614e+00 1.801903e+00 3.567850e+00 -5.033666e-02 -1.537983e-01 -2.675346e-01 -3.280827e-01 -3.180871e-01 -2.870196e-01 -1.936657e-01 -1.712409e-01 -1.587639e-01 -1.424141e-01 -1.051147e-01 -5.230133e-02 2.492837e-05
<VARIANCE> 25
 1.032460e+01 6.103029e+00 8.136853e+00 1.228617e+01 1.130282e+01 1.546784e+01 1.477084e+01 1.610625e+01 1.525708e+01 1.496190e+01 1.643240e+01 1.349173e+01 8.455262e-02 1.502917e-01 2.629479e-01 3.804643e-01 5.023818e-01 6.357331e-01 7.959180e-01 8.824626e-01 9.130167e-01 8.615440e-01 8.798528e-01 9.057682e-01 1.057656e-06
<GCONST> 5.377382e+01
<MIXTURE> 95 5.258835e-03
<MEAN> 25
 -2.779313e+00 4.512693e-01 -2.885696e+00 3.282099e+00 5.401330e+00 3.205629e+00 4.305625e+00 1.405431e+00 1.180083e+00 2.243015e+00 -7.928528e-02 2.070498e+00 2.128525e-01 2.141633e-01 1.053145e-01 7.515156e-02 -4.406912e-01 -7.833086e-01 -1.000465e+00 -1.063784e+00 -1.143145e+00 -9.327595e-01 -6.120801e-01 -1.682252e-01 -4.841150e-05
<VARIANCE> 25
 1.720251e+01 6.104724e+00 9.707165e+00 1.327168e+01 1.187497e+01 1.407715e+01 1.414175e+01 1.359053e+01 1.617222e+01 1.513396e+01 1.724068e+01 1.227191e+01 1.615770e-01 2.314310e-01 3.685420e-01 5.229837e-01 6.613566e-01 9.860307e-01 7.646975e-01 8.616849e-01 8.442814e-01 9.537415e-01 9.336334e-01 9.943933e-01 4.929709e-05
<GCONST> 6.070597e+01
<MIXTURE> 96 7.034694e-03
<MEAN> 25
 -4.621142e+00 -1.874227e-02 -2.617876e+00 4.640836e+00 4.090868e+00 1.636517e+00 3.649788e+00 1.824824e+00 2.202119e+00 1.441341e+00 6.175623e-01 2.673430e+00 -3.288452e-02 1.029572e-01 2.261789e-01 3.279088e-01 5.530016e-01 4.460981e-01 2.969429e-01 -6.250662e-02 -4.275099e-01 -6.541207e-01 -5.429585e-01 -3.769986e-01 -3.097242e-05
<VARIANCE> 25
 1.670050e+01 1.027308e+01 1.265784e+01 1.513259e+01 1.482941e+01 1.918624e+01 1.691442e+01 1.766291e+01 1.704485e+01 1.719060e+01 2.086331e+01 1.345887e+01 1.144373e-01 2.015912e-01 3.344979e-01 4.281916e-01 4.824464e-01 6.801658e-01 8.213477e-01 1.035590e+00 9.828522e-01 8.174405e-01 8.557882e-01 9.217373e-01 1.097897e-06
<GCONST> 5.784840e+01
<MIXTURE> 97 7.034694e-03
<MEAN> 25
 -4.621142e+00 -1.874227e-02 -2.617876e+00 4.640836e+00 4.090868e+00 1.636517e+00 3.649788e+00 1.824824e+00 2.202119e+00 1.441341e+00 6.175623e-01 2.673430e+00 -3.288452e-02 1.029572e-01 2.261789e-01 3.279088e-01 5.530016e-01 4.460981e-01 2.969429e-01 -6.250662e-02 -4.275099e-01 -6.541207e-01 -5.429585e-01 -3.769986e-01 -3.097242e-05
<VARIANCE> 25
 1.670050e+01 1.027308e+01 1.265784e+01 1.513259e+01 1.482941e+01 1.918624e+01 1.691442e+01 1.766291e+01 1.704485e+01 1.719060e+01 2.086331e+01 1.345887e+01 1.144373e-01 2.015912e-01 3.344979e-01 4.281916e-01 4.824464e-01 6.801658e-01 8.213477e-01 1.035590e+00 9.828522e-01 8.174405e-01 8.557882e-01 9.217373e-01 1.097897e-06
<GCONST> 5.784840e+01
<MIXTURE> 98 9.917808e-03
<MEAN> 25
 -1.446848e+00 1.054935e+00 -1.917051e-01 4.577292e+00 3.492294e+00 3.029855e+00 3.267766e+00 1.383021e+00 1.729516e+00 7.187459e-01 7.642766e-01 9.335918e-01 -1.833131e+00 -1.437551e+00 -9.368984e-01 1.160252e-01 6.032535e-01 8.225893e-01 1.187057e+00 1.376510e+00 1.711959e+00 1.074670e+00 1.156213e+00 9.650141e-01 -2.970241e-02
<VARIANCE> 25
 1.420166e+01 1.929303e+01 3.055149e+01 3.246146e+01 4.285456e+01 3.854183e+01 3.116068e+01 3.094900e+01 3.064861e+01 3.074487e+01 2.545958e+01 2.296988e+01 1.418053e+00 1.471728e+00 2.483436e+00 2.373105e+00 2.812698e+00 2.839577e+00 2.850984e+00 2.776543e+00 2.549428e+00 3.086025e+00 3.182956e+00 2.155489e+00 2.799734e-03
<GCONST> 9.072672e+01
<MIXTURE> 99 6.696178e-03
<MEAN> 25
 -6.826978e+00 9.851828e+00 6.270810e+00 3.142671e+00 8.885772e-01 -5.292601e+00 -1.430352e+00 -3.866900e+00 -3.488114e+00 -3.644020e+00 -1.664829e+00 1.078273e+00 5.851177e-01 -6.997001e-01 3.176434e-01 -3.466584e-01 -1.048805e+00 -4.924774e-01 -3.586449e-01 -3.966484e-01 -1.037154e-01 -1.294685e-01 2.012867e-01 1.349576e-01 7.906776e-03
<VARIANCE> 25
 3.515260e+01 2.352931e+01 4.632274e+01 3.042644e+01 3.387014e+01 3.528783e+01 2.681512e+01 2.994628e+01 2.478858e+01 2.627433e+01 1.942521e+01 3.180979e+01 2.203426e+00 1.849247e+00 1.353160e+00 1.624195e+00 2.657726e+00 2.034767e+00 1.566806e+00 1.894908e+00 1.578073e+00 1.550297e+00 1.285921e+00 1.302307e+00 1.596277e-03
<GCONST> 8.653407e+01
<MIXTURE> 100 4.498084e-03
<MEAN> 25
 -1.599600e+00 6.343104e+00 1.027786e+01 -7.460902e+00 -1.078236e+01 -5.071924e+00 -4.940037e+00 -9.967086e+00 -4.718837e+00 -8.602457e-01 -2.732373e+00 -2.706423e+00 2.917507e+00 -1.260522e+00 1.300422e+00 -2.184803e+00 -3.420142e+00 -7.844950e-01 -1.218865e+00 -8.194723e-01 -1.475391e+00 3.452213e-01 -1.654499e+00 -2.876309e-01 2.032349e-03
<VARIANCE> 25
 1.362381e+01 2.106111e+01 2.245723e+01 2.642842e+01 2.301361e+01 2.374698e+01 2.911123e+01 2.170900e+01 2.747513e+01 2.272338e+01 2.240833e+01 2.134418e+01 1.799034e+00 3.952481e+00 2.920755e+00 4.288671e+00 4.184502e+00 4.536121e+00 4.015007e+00 4.339374e+00 4.166914e+00 3.901195e+00 3.912824e+00 3.230290e+00 1.675195e-03
<GCONST> 9.257561e+01
<MIXTURE> 101 6.007792e-03
<MEAN> 25
 8.067535e+00 -3.523425e+00 -6.283716e+00 -6.873464e+00 8.129051e-01 -1.296500e+00 -1.061700e+01 -2.065483e+00 1.683468e+00 2.711554e+00 -2.375090e+00 -5.151034e+00 6.749363e-01 6.472684e-01 -1.453017e+00 -1.606520e+00 1.033385e+00 2.313298e+00 2.009293e-01 -1.454767e+00 -1.060954e+00 1.028669e+00 1.361321e+00 -4.205676e-01 -4.835045e-03
<VARIANCE> 25
 9.432975e+00 1.698448e+01 2.993075e+01 4.263744e+01 3.640272e+01 3.606122e+01 3.718010e+01 3.609651e+01 3.869171e+01 4.381983e+01 5.161580e+01 2.415543e+01 2.932107e-01 6.703824e-01 1.171756e+00 1.550125e+00 1.681727e+00 2.095334e+00 2.082586e+00 1.992841e+00 2.344268e+00 2.224755e+00 1.815811e+00 1.934045e+00 3.441942e-04
<GCONST> 8.370718e+01
<MIXTURE> 102 6.007792e-03
<MEAN> 25
 8.067535e+00 -3.523425e+00 -6.283716e+00 -6.873464e+00 8.129051e-01 -1.296500e+00 -1.061700e+01 -2.065483e+00 1.683468e+00 2.711554e+00 -2.375090e+00 -5.151034e+00 6.749363e-01 6.472684e-01 -1.453017e+00 -1.606520e+00 1.033385e+00 2.313298e+00 2.009293e-01 -1.454767e+00 -1.060954e+00 1.028669e+00 1.361321e+00 -4.205676e-01 -4.835045e-03
<VARIANCE> 25
 9.432975e+00 1.698448e+01 2.993075e+01 4.263744e+01 3.640272e+01 3.606122e+01 3.718010e+01 3.609651e+01 3.869171e+01 4.381983e+01 5.161580e+01 2.415543e+01 2.932107e-01 6.703824e-01 1.171756e+00 1.550125e+00 1.681727e+00 2.095334e+00 2.082586e+00 1.992841e+00 2.344268e+00 2.224755e+00 1.815811e+00 1.934045e+00 3.441942e-04
<GCONST> 8.370718e+01
<MIXTURE> 103 5.694618e-03
<MEAN> 25
 3.366747e+00 -9.476530e+00 -6.132443e+00 -3.090616e+00 -1.330753e+00 -1.969750e+00 2.440143e+00 2.516156e+00 -4.611349e+00 -9.254582e+00 -5.061424e+00 3.615079e-01 -1.578139e-01 -1.488396e+00 -9.802167e-01 3.753383e-01 1.213522e+00 1.020307e+00 1.588205e-01 -2.667101e-01 -7.806554e-01 -9.465341e-01 -3.529664e-02 1.205232e-01 2.693753e-02
<VARIANCE> 25
 1.033596e+01 2.036697e+01 2.290212e+01 3.167418e+01 4.805565e+01 3.501353e+01 4.642193e+01 3.667960e+01 4.213649e+01 2.935561e+01 3.006405e+01 2.640322e+01 6.438038e-01 1.251897e+00 1.538806e+00 1.939661e+00 2.926360e+00 2.409762e+00 2.890465e+00 2.577156e+00 2.563444e+00 2.523287e+00 2.097341e+00 2.016406e+00 8.073009e-04
<GCONST> 8.757479e+01
<MIXTURE> 104 5.694618e-03
<MEAN> 25
 3.366747e+00 -9.476530e+00 -6.132443e+00 -3.090616e+00 -1.330753e+00 -1.969750e+00 2.440143e+00 2.516156e+00 -4.611349e+00 -9.254582e+00 -5.061424e+00 3.615079e-01 -1.578139e-01 -1.488396e+00 -9.802167e-01 3.753383e-01 1.213522e+00 1.020307e+00 1.588205e-01 -2.667101e-01 -7.806554e-01 -9.465341e-01 -3.529664e-02 1.205232e-01 2.693753e-02
<VARIANCE> 25
 1.033596e+01 2.036697e+01 2.290212e+01 3.167418e+01 4.805565e+01 3.501353e+01 4.642193e+01 3.667960e+01 4.213649e+01 2.935561e+01 3.006405e+01 2.640322e+01 6.438038e-01 1.251897e+00 1.538806e+00 1.939661e+00 2.926360e+00 2.409762e+00 2.890465e+00 2.577156e+00 2.563444e+00 2.523287e+00 2.097341e+00 2.016406e+00 8.073009e-04
<GCONST> 8.757479e+01
<MIXTURE> 105 4.710235e-03
<MEAN> 25
 1.287180e+00 -2.409433e+00 9.445805e+00 -8.102536e-01 -1.303865e+01 -6.216510e+00 -6.329892e+00 -2.172654e+00 -3.378911e+00 -5.846290e+00 3.136525e+00 -4.882543e-01 1.378938e-02 -4.391865e-02 -4.169626e-02 3.378308e-02 5.460671e-02 -1.092173e-01 3.293891e-03 -9.350030e-02 -1.412618e-01 3.838397e-02 1.291448e-01 1.339196e-01 -2.339171e-03
<VARIANCE> 25
 1.235624e+01 2.370870e+01 3.161822e+01 4.367657e+01 3.737988e+01 4.501517e+01 4.373378e+01 3.876277e+01 3.263964e+01 4.955013e+01 3.824319e+01 2.535193e+01 7.105931e-02 2.084560e-01 3.403838e-01 2.913993e-01 3.109572e-01 5.602297e-01 4.482044e-01 4.891476e-01 8.870486e-01 3.987012e-01 4.023065e-01 3.874446e-01 7.659867e-05
<GCONST> 6.582338e+01
<MIXTURE> 106 4.710235e-03
<MEAN> 25
 1.287180e+00 -2.409433e+00 9.445805e+00 -8.102536e-01 -1.303865e+01 -6.216510e+00 -6.329892e+00 -2.172654e+00 -3.378911e+00 -5.846290e+00 3.136525e+00 -4.882543e-01 1.378938e-02 -4.391865e-02 -4.169626e-02 3.378308e-02 5.460671e-02 -1.092173e-01 3.293891e-03 -9.350030e-02 -1.412618e-01 3.838397e-02 1.291448e-01 1.339196e-01 -2.339171e-03
<VARIANCE> 25
 1.235624e+01 2.370870e+01 3.161822e+01 4.367657e+01 3.737988e+01 4.501517e+01 4.373378e+01 3.876277e+01 3.263964e+01 4.955013e+01 3.824319e+01 2.535193e+01 7.105931e-02 2.084560e-01 3.403838e-01 2.913993e-01 3.109572e-01 5.602297e-01 4.482044e-01 4.891476e-01 8.870486e-01 3.987012e-01 4.023065e-01 3.874446e-01 7.659867e-05
<GCONST> 6.582338e+01
<MIXTURE> 107 5.452374e-03
<MEAN> 25
 8.597013e+00 -2.269365e+00 -8.027544e+00 -9.523472e+00 1.980412e+00 2.948519e+00 -8.529877e+00 -4.509176e+00 -8.826562e-01 3.383820e+00 8.544837e-01 -5.060401e+00 -6.105571e-01 -7.686858e-01 8.406745e-01 1.763287e+00 2.251447e-01 -1.996736e+00 -9.249337e-01 8.521602e-01 1.760425e+00 4.244628e-02 -1.657776e+00 -8.083389e-01 -1.682057e-03
<VARIANCE> 25
 9.451478e+00 2.055410e+01 2.817428e+01 4.272411e+01 3.555819e+01 3.822500e+01 5.251766e+01 3.630737e+01 4.548685e+01 4.149275e+01 5.102971e+01 3.018377e+01 3.534391e-01 9.623302e-01 1.457458e+00 2.412131e+00 2.271898e+00 2.840957e+00 2.597998e+00 2.528266e+00 2.289004e+00 3.013832e+00 1.933231e+00 2.215535e+00 7.001025e-04
<GCONST> 8.800734e+01
<MIXTURE> 108 5.452374e-03
<MEAN> 25
 8.597013e+00 -2.269365e+00 -8.027544e+00 -9.523472e+00 1.980412e+00 2.948519e+00 -8.529877e+00 -4.509176e+00 -8.826562e-01 3.383820e+00 8.544837e-01 -5.060401e+00 -6.105571e-01 -7.686858e-01 8.406745e-01 1.763287e+00 2.251447e-01 -1.996736e+00 -9.249337e-01 8.521602e-01 1.760425e+00 4.244628e-02 -1.657776e+00 -8.083389e-01 -1.682057e-03
<VARIANCE> 25
 9.451478e+00 2.055410e+01 2.817428e+01 4.272411e+01 3.555819e+01 3.822500e+01 5.251766e+01 3.630737e+01 4.548685e+01 4.149275e+01 5.102971e+01 3.018377e+01 3.534391e-01 9.623302e-01 1.457458e+00 2.412131e+00 2.271898e+00 2.840957e+00 2.597998e+00 2.528266e+00 2.289004e+00 3.013832e+00 1.933231e+00 2.215535e+00 7.001025e-04
<GCONST> 8.800734e+01
<MIXTURE> 109 6.661064e-03
<MEAN> 25
 4.052100e+00 -1.029241e+01 -8.219350e+00 -1.379136e+00 2.812612e+00 3.536395e-03 -1.404154e-02 1.454432e+00 -2.523435e+00 -8.131055e+00 -5.344816e+00 -5.730463e-03 -3.264408e-02 -1.304690e-01 -2.949821e-02 2.519885e-01 1.978696e-01 1.238616e-01 -1.206434e-01 -1.011590e-01 -3.974111e-02 -1.281154e-01 2.148939e-01 1.979040e-02 -3.472522e-03
<VARIANCE> 25
 8.930980e+00 2.087449e+01 1.999995e+01 3.081382e+01 4.048756e+01 3.633312e+01 4.692864e+01 3.371439e+01 4.612650e+01 3.720997e+01 2.914067e+01 2.800108e+01 1.942663e-01 4.180557e-01 5.373216e-01 6.340375e-01 1.211733e+00 9.874578e-01 1.244713e+00 1.086041e+00 1.115068e+00 9.578048e-01 8.688942e-01 8.869672e-01 1.805885e-04
<GCONST> 7.449074e+01
<MIXTURE> 110 6.661064e-03
<MEAN> 25
 4.052100e+00 -1.029241e+01 -8.219350e+00 -1.379136e+00 2.812612e+00 3.536395e-03 -1.404154e-02 1.454432e+00 -2.523435e+00 -8.131055e+00 -5.344816e+00 -5.730463e-03 -3.264408e-02 -1.304690e-01 -2.949821e-02 2.519885e-01 1.978696e-01 1.238616e-01 -1.206434e-01 -1.011590e-01 -3.974111e-02 -1.281154e-01 2.148939e-01 1.979040e-02 -3.472522e-03
<VARIANCE> 25
 8.930980e+00 2.087449e+01 1.999995e+01 3.081382e+01 4.048756e+01 3.633312e+01 4.692864e+01 3.371439e+01 4.612650e+01 3.720997e+01 2.914067e+01 2.800108e+01 1.942663e-01 4.180557e-01 5.373216e-01 6.340375e-01 1.211733e+00 9.874578e-01 1.244713e+00 1.086041e+00 1.115068e+00 9.578048e-01 8.688942e-01 8.869672e-01 1.805885e-04
<GCONST> 7.449074e+01
<MIXTURE> 111 4.337247e-03
<MEAN> 25
 -3.006968e+00 -5.867001e-02 -2.232203e+00 1.159875e+00 2.047841e+00 1.247511e+00 1.277524e+00 5.626742e-01 -3.149103e-01 2.930425e-01 -9.719763e-01 1.636034e+00 -2.020824e-02 -3.797678e-02 -4.261834e-02 -9.034310e-02 -2.543247e-02 7.368915e-02 -4.265074e-02 -1.235958e-01 -1.995760e-01 -1.650662e-01 -1.746856e-01 -1.567070e-01 -3.278713e-04
<VARIANCE> 25
 1.199029e+01 6.471395e+00 9.831912e+00 8.823695e+00 1.440989e+01 2.146356e+01 1.502466e+01 1.212247e+01 1.132790e+01 1.304785e+01 1.267157e+01 1.057179e+01 8.608618e-02 1.443156e-01 2.420537e-01 4.305758e-01 5.028379e-01 6.905277e-01 7.457676e-01 7.766070e-01 9.024050e-01 7.974540e-01 7.885608e-01 9.310865e-01 2.603428e-05
<GCONST> 5.614656e+01
<MIXTURE> 112 4.337247e-03
<MEAN> 25
 -3.006968e+00 -5.867001e-02 -2.232203e+00 1.159875e+00 2.047841e+00 1.247511e+00 1.277524e+00 5.626742e-01 -3.149103e-01 2.930425e-01 -9.719763e-01 1.636034e+00 -2.020824e-02 -3.797678e-02 -4.261834e-02 -9.034310e-02 -2.543247e-02 7.368915e-02 -4.265074e-02 -1.235958e-01 -1.995760e-01 -1.650662e-01 -1.746856e-01 -1.567070e-01 -3.278713e-04
<VARIANCE> 25
 1.199029e+01 6.471395e+00 9.831912e+00 8.823695e+00 1.440989e+01 2.146356e+01 1.502466e+01 1.212247e+01 1.132790e+01 1.304785e+01 1.267157e+01 1.057179e+01 8.608618e-02 1.443156e-01 2.420537e-01 4.305758e-01 5.028379e-01 6.905277e-01 7.457676e-01 7.766070e-01 9.024050e-01 7.974540e-01 7.885608e-01 9.310865e-01 2.603428e-05
<GCONST> 5.614656e+01
<MIXTURE> 113 5.938666e-03
<MEAN> 25
 9.777444e+00 1.826709e+00 -8.767452e+00 -1.662761e+01 -7.706631e-01 5.569290e+00 -4.890603e+00 -1.427286e+00 -5.634780e+00 -2.592531e-01 2.607600e-01 -1.589352e-01 -6.297446e-03 -1.897902e-03 -6.220220e-02 -1.051147e-01 1.195065e-01 1.530627e-01 7.611588e-02 -6.886937e-04 -7.549920e-02 -5.876253e-02 1.614185e-01 3.365009e-02 -1.470458e-03
<VARIANCE> 25
 9.675838e+00 1.599091e+01 2.882355e+01 3.797372e+01 5.287080e+01 3.311293e+01 4.258055e+01 3.815482e+01 3.627533e+01 4.642514e+01 3.516816e+01 2.759135e+01 1.253264e-01 3.197582e-01 3.064604e-01 6.175700e-01 6.151850e-01 6.400408e-01 7.721933e-01 8.649631e-01 9.569469e-01 8.923481e-01 7.134148e-01 7.001419e-01 1.215444e-04
<GCONST> 7.106952e+01
<MIXTURE> 114 5.938666e-03
<MEAN> 25
 9.777444e+00 1.826709e+00 -8.767452e+00 -1.662761e+01 -7.706631e-01 5.569290e+00 -4.890603e+00 -1.427286e+00 -5.634780e+00 -2.592531e-01 2.607600e-01 -1.589352e-01 -6.297446e-03 -1.897902e-03 -6.220220e-02 -1.051147e-01 1.195065e-01 1.530627e-01 7.611588e-02 -6.886937e-04 -7.549920e-02 -5.876253e-02 1.614185e-01 3.365009e-02 -1.470458e-03
<VARIANCE> 25
 9.675838e+00 1.599091e+01 2.882355e+01 3.797372e+01 5.287080e+01 3.311293e+01 4.258055e+01 3.815482e+01 3.627533e+01 4.642514e+01 3.516816e+01 2.759135e+01 1.253264e-01 3.197582e-01 3.064604e-01 6.175700e-01 6.151850e-01 6.400408e-01 7.721933e-01 8.649631e-01 9.569469e-01 8.923481e-01 7.134148e-01 7.001419e-01 1.215444e-04
<GCONST> 7.106952e+01
<MIXTURE> 115 2.935202e-03
<MEAN> 25
 -3.708342e+00 -5.981595e-01 -3.213943e+00 3.499391e+00 2.588766e+00 -3.583384e-01 2.302531e+00 4.378815e-01 1.293015e+00 2.790522e-01 -5.536285e-02 2.605732e+00 3.429485e-02 -5.857817e-02 -2.304124e-01 -4.402024e-01 -6.078308e-01 -6.712701e-01 -5.567120e-01 -4.918140e-01 -4.873104e-01 -4.552450e-01 -3.439755e-01 -1.972440e-01 7.425611e-06
<VARIANCE> 25
 1.105861e+01 9.970039e+00 1.318549e+01 1.279053e+01 1.367883e+01 1.710987e+01 1.658657e+01 2.012430e+01 1.752495e+01 1.852342e+01 1.924677e+01 1.433378e+01 1.973691e-01 3.369423e-01 4.724928e-01 5.620064e-01 6.449553e-01 8.006508e-01 1.006233e+00 1.103925e+00 1.071180e+00 9.868440e-01 9.947537e-01 1.077967e+00 1.095953e-06
<GCONST> 6.025533e+01
<MIXTURE> 116 2.935202e-03
<MEAN> 25
 -3.708342e+00 -5.981595e-01 -3.213943e+00 3.499391e+00 2.588766e+00 -3.583384e-01 2.302531e+00 4.378815e-01 1.293015e+00 2.790522e-01 -5.536285e-02 2.605732e+00 3.429485e-02 -5.857817e-02 -2.304124e-01 -4.402024e-01 -6.078308e-01 -6.712701e-01 -5.567120e-01 -4.918140e-01 -4.873104e-01 -4.552450e-01 -3.439755e-01 -1.972440e-01 7.425611e-06
<VARIANCE> 25
 1.105861e+01 9.970039e+00 1.318549e+01 1.279053e+01 1.367883e+01 1.710987e+01 1.658657e+01 2.012430e+01 1.752495e+01 1.852342e+01 1.924677e+01 1.433378e+01 1.973691e-01 3.369423e-01 4.724928e-01 5.620064e-01 6.449553e-01 8.006508e-01 1.006233e+00 1.103925e+00 1.071180e+00 9.868440e-01 9.947537e-01 1.077967e+00 1.095953e-06
<GCONST> 6.025533e+01
<MIXTURE> 117 6.506003e-03
<MEAN> 25
 -4.640610e+00 1.119063e+00 1.047860e+00 9.746314e+00 6.262942e+00 6.254235e+00 6.463345e+00 5.042000e+00 6.376542e+00 4.931926e+00 6.362022e+00 2.706748e+00 -7.451218e-02 -2.339879e-01 -3.587038e-01 -4.198346e-01 -3.669043e-01 -3.027346e-01 -2.864676e-01 -3.314354e-01 -3.914594e-01 -3.684499e-01 -2.630691e-01 -1.164993e-01 -7.428714e-06
<VARIANCE> 25
 7.203476e+00 8.744094e+00 9.834841e+00 1.441303e+01 1.560775e+01 1.533804e+01 1.770754e+01 1.794877e+01 1.645436e+01 1.635968e+01 1.674639e+01 1.474592e+01 2.165993e-01 3.072553e-01 4.258468e-01 6.168184e-01 8.535560e-01 1.054540e+00 1.178263e+00 1.232651e+00 1.223217e+00 1.194111e+00 1.166319e+00 1.112895e+00 1.002295e-06
<GCONST> 6.043593e+01
<MIXTURE> 118 6.506003e-03
<MEAN> 25
 -4.640610e+00 1.119063e+00 1.047860e+00 9.746314e+00 6.262942e+00 6.254235e+00 6.463345e+00 5.042000e+00 6.376542e+00 4.931926e+00 6.362022e+00 2.706748e+00 -7.451218e-02 -2.339879e-01 -3.587038e-01 -4.198346e-01 -3.669043e-01 -3.027346e-01 -2.864676e-01 -3.314354e-01 -3.914594e-01 -3.684499e-01 -2.630691e-01 -1.164993e-01 -7.428714e-06
<VARIANCE> 25
 7.203476e+00 8.744094e+00 9.834841e+00 1.441303e+01 1.560775e+01 1.533804e+01 1.770754e+01 1.794877e+01 1.645436e+01 1.635968e+01 1.674639e+01 1.474592e+01 2.165993e-01 3.072553e-01 4.258468e-01 6.168184e-01 8.535560e-01 1.054540e+00 1.178263e+00 1.232651e+00 1.223217e+00 1.194111e+00 1.166319e+00 1.112895e+00 1.002295e-06
<GCONST> 6.043593e+01
<MIXTURE> 119 4.297961e-03
<MEAN> 25
 -4.971814e+00 -7.653509e+00 2.261055e+00 2.000067e+00 2.134557e+00 1.845671e-01 5.195122e+00 5.918361e+00 1.195023e+00 9.217197e-01 6.611510e+00 1.523587e+00 -5.226492e-02 -7.898877e-02 3.644098e-02 -7.398368e-02 -1.302436e-01 -1.774230e-01 -6.566176e-02 -6.332788e-03 -8.710638e-02 -9.790562e-02 -6.234662e-02 -4.236871e-02 1.057822e-03
<VARIANCE> 25
 8.477104e+00 9.912661e+00 1.663983e+01 2.007285e+01 2.448040e+01 2.314617e+01 2.575206e+01 2.635831e+01 2.500148e+01 2.827855e+01 2.033377e+01 2.059097e+01 1.602039e-01 2.805026e-01 4.569356e-01 6.729459e-01 8.014787e-01 9.978501e-01 1.093940e+00 1.278062e+00 1.282256e+00 1.265961e+00 1.193227e+00 1.143013e+00 2.304708e-04
<GCONST> 6.989673e+01
<MIXTURE> 120 4.297961e-03
<MEAN> 25
 -4.971814e+00 -7.653509e+00 2.261055e+00 2.000067e+00 2.134557e+00 1.845671e-01 5.195122e+00 5.918361e+00 1.195023e+00 9.217197e-01 6.611510e+00 1.523587e+00 -5.226492e-02 -7.898877e-02 3.644098e-02 -7.398368e-02 -1.302436e-01 -1.774230e-01 -6.566176e-02 -6.332788e-03 -8.710638e-02 -9.790562e-02 -6.234662e-02 -4.236871e-02 1.057822e-03
<VARIANCE> 25
 8.477104e+00 9.912661e+00 1.663983e+01 2.007285e+01 2.448040e+01 2.314617e+01 2.575206e+01 2.635831e+01 2.500148e+01 2.827855e+01 2.033377e+01 2.059097e+01 1.602039e-01 2.805026e-01 4.569356e-01 6.729459e-01 8.014787e-01 9.978501e-01 1.093940e+00 1.278062e+00 1.282256e+00 1.265961e+00 1.193227e+00 1.143013e+00 2.304708e-04
<GCONST> 6.989673e+01
<MIXTURE> 121 4.567511e-03
<MEAN> 25
 2.077895e-01 -2.525852e+00 5.152406e+00 -1.290143e+01 -1.264584e+01 -1.666457e+00 9.957238e-01 -5.106879e+00 -4.195147e+00 -4.905729e-01 -5.506825e+00 -4.314315e+00 2.417428e-02 1.324051e-01 -4.151967e-02 7.959416e-02 1.585581e-01 7.858441e-02 -7.916385e-02 -1.830668e-01 -2.684460e-01 -2.576508e-01 -1.147181e-01 7.781144e-04 -7.436163e-03
<VARIANCE> 25
 7.732489e+00 1.562069e+01 1.728019e+01 2.037072e+01 2.441046e+01 2.925234e+01 2.958039e+01 2.457545e+01 3.537832e+01 2.833667e+01 1.975314e+01 2.118472e+01 1.550273e-01 6.430086e-01 6.230186e-01 7.050279e-01 7.705681e-01 1.149830e+00 1.118271e+00 1.120813e+00 1.217268e+00 1.192564e+00 9.420522e-01 8.720437e-01 2.108670e-04
<GCONST> 7.139949e+01
<MIXTURE> 122 4.567511e-03
<MEAN> 25
 2.077895e-01 -2.525852e+00 5.152406e+00 -1.290143e+01 -1.264584e+01 -1.666457e+00 9.957238e-01 -5.106879e+00 -4.195147e+00 -4.905729e-01 -5.506825e+00 -4.314315e+00 2.417428e-02 1.324051e-01 -4.151967e-02 7.959416e-02 1.585581e-01 7.858441e-02 -7.916385e-02 -1.830668e-01 -2.684460e-01 -2.576508e-01 -1.147181e-01 7.781144e-04 -7.436163e-03
<VARIANCE> 25
 7.732489e+00 1.562069e+01 1.728019e+01 2.037072e+01 2.441046e+01 2.925234e+01 2.958039e+01 2.457545e+01 3.537832e+01 2.833667e+01 1.975314e+01 2.118472e+01 1.550273e-01 6.430086e-01 6.230186e-01 7.050279e-01 7.705681e-01 1.149830e+00 1.118271e+00 1.120813e+00 1.217268e+00 1.192564e+00 9.420522e-01 8.720437e-01 2.108670e-04
<GCONST> 7.139949e+01
<MIXTURE> 123 4.393044e-03
<MEAN> 25
 -1.640205e+00 1.467319e+00 -1.684773e+00 3.636106e+00 6.616417e+00 3.980887e+00 4.326169e+00 8.957377e-01 -1.209121e+00 8.042139e-01 -9.954297e-01 1.729478e-01 -2.626618e-01 -5.674141e-01 -7.458649e-01 -6.429675e-01 -2.066995e-01 1.990139e-01 4.587113e-01 7.217113e-01 7.247187e-01 6.179441e-01 6.132929e-01 3.882840e-01 -1.894659e-03
<VARIANCE> 25
 1.253069e+01 6.772657e+00 1.369461e+01 1.766633e+01 1.648199e+01 1.826230e+01 1.639799e+01 1.380619e+01 1.605411e+01 1.609661e+01 1.700423e+01 1.472857e+01 5.542498e-01 3.322837e-01 4.073406e-01 6.375149e-01 7.393587e-01 9.002106e-01 1.007801e+00 9.635335e-01 1.105578e+00 9.735211e-01 9.108041e-01 1.152833e+00 8.054350e-05
<GCONST> 6.530282e+01
<MIXTURE> 124 4.069876e-03
<MEAN> 25
 -4.487113e+00 -2.344339e-01 -3.249109e+00 3.706718e+00 5.658885e+00 3.499388e+00 5.648011e+00 2.735614e+00 1.681122e+00 2.053992e+00 1.916937e-01 2.439204e+00 -2.038158e-01 -3.140132e-01 -3.927422e-01 -3.392587e-01 2.093679e-01 5.511952e-01 7.886571e-01 8.905914e-01 6.410987e-01 3.379779e-01 1.313743e-01 -4.075778e-02 -2.081787e-04
<VARIANCE> 25
 1.914879e+01 7.958152e+00 9.918305e+00 1.532308e+01 1.139202e+01 1.709090e+01 1.308119e+01 1.564172e+01 1.837622e+01 1.639512e+01 1.969988e+01 1.454878e+01 1.013042e-01 1.573632e-01 2.416100e-01 4.587248e-01 5.810944e-01 6.743851e-01 7.189757e-01 7.658556e-01 9.857833e-01 8.643693e-01 8.654015e-01 1.014737e+00 1.778811e-05
<GCONST> 5.885681e+01
<MIXTURE> 125 4.069876e-03
<MEAN> 25
 -4.487113e+00 -2.344339e-01 -3.249109e+00 3.706718e+00 5.658885e+00 3.499388e+00 5.648011e+00 2.735614e+00 1.681122e+00 2.053992e+00 1.916937e-01 2.439204e+00 -2.038158e-01 -3.140132e-01 -3.927422e-01 -3.392587e-01 2.093679e-01 5.511952e-01 7.886571e-01 8.905914e-01 6.410987e-01 3.379779e-01 1.313743e-01 -4.075778e-02 -2.081787e-04
<VARIANCE> 25
 1.914879e+01 7.958152e+00 9.918305e+00 1.532308e+01 1.139202e+01 1.709090e+01 1.308119e+01 1.564172e+01 1.837622e+01 1.639512e+01 1.969988e+01 1.454878e+01 1.013042e-01 1.573632e-01 2.416100e-01 4.587248e-01 5.810944e-01 6.743851e-01 7.189757e-01 7.658556e-01 9.857833e-01 8.643693e-01 8.654015e-01 1.014737e+00 1.778811e-05
<GCONST> 5.885681e+01
<MIXTURE> 126 2.402244e-03
<MEAN> 25
 -3.743092e+00 -6.867307e+00 -5.279410e+00 2.296690e+00 4.292324e+00 -3.201764e+00 1.028461e-01 3.545324e+00 3.304040e+00 -2.647192e+00 -1.433104e+00 3.032762e+00 -1.623312e-03 -6.395970e-03 -3.554893e-02 -1.567903e-01 -3.178228e-01 -3.876835e-01 -2.724487e-01 -1.579031e-01 -1.135531e-01 -1.157702e-01 -9.835009e-02 -2.892612e-02 -1.457151e-03
<VARIANCE> 25
 7.665080e+00 1.318473e+01 1.376567e+01 1.510412e+01 2.455525e+01 2.375977e+01 2.278731e+01 2.829305e+01 3.128640e+01 2.643647e+01 2.164767e+01 1.916384e+01 1.711906e-01 3.504900e-01 4.822622e-01 5.663984e-01 7.517949e-01 9.950700e-01 1.118413e+00 1.258665e+00 1.325188e+00 1.309623e+00 1.209584e+00 1.147617e+00 2.101720e-04
<GCONST> 6.983566e+01
<MIXTURE> 127 2.402244e-03
<MEAN> 25
 -3.743092e+00 -6.867307e+00 -5.279410e+00 2.296690e+00 4.292324e+00 -3.201764e+00 1.028461e-01 3.545324e+00 3.304040e+00 -2.647192e+00 -1.433104e+00 3.032762e+00 -1.623312e-03 -6.395970e-03 -3.554893e-02 -1.567903e-01 -3.178228e-01 -3.876835e-01 -2.724487e-01 -1.579031e-01 -1.135531e-01 -1.157702e-01 -9.835009e-02 -2.892612e-02 -1.457151e-03
<VARIANCE> 25
 7.665080e+00 1.318473e+01 1.376567e+01 1.510412e+01 2.455525e+01 2.375977e+01 2.278731e+01 2.829305e+01 3.128640e+01 2.643647e+01 2.164767e+01 1.916384e+01 1.711906e-01 3.504900e-01 4.822622e-01 5.663984e-01 7.517949e-01 9.950700e-01 1.118413e+00 1.258665e+00 1.325188e+00 1.309623e+00 1.209584e+00 1.147617e+00 2.101720e-04
<GCONST> 6.983566e+01
<MIXTURE> 128 3.790457e-03
<MEAN> 25
 -3.926696e+00 1.543990e+00 -3.485100e-01 6.561093e+00 3.625875e+00 1.858928e+00 3.581013e+00 2.369761e+00 3.952481e+00 3.703802e+00 3.760574e+00 3.521842e+00 -3.952330e-01 -1.965654e-01 9.811721e-02 7.248463e-01 1.183533e+00 1.134503e+00 7.173136e-01 1.325799e-01 -4.367138e-01 -7.866656e-01 -7.003866e-01 -3.944174e-01 -3.675314e-05
<VARIANCE> 25
 1.028297e+01 1.168838e+01 1.500270e+01 1.937657e+01 2.003950e+01 2.117446e+01 2.427473e+01 2.463479e+01 2.643135e+01 2.384779e+01 2.682198e+01 1.818632e+01 8.912041e-01 1.144782e+00 1.364363e+00 1.502300e+00 1.579391e+00 1.860818e+00 2.245697e+00 2.324004e+00 2.150232e+00 1.856038e+00 1.743773e+00 1.746983e+00 1.002388e-06
<GCONST> 7.364147e+01
<TRANSP> 3
 0.000000e+00 1.000000e+00 0.000000e+00
 0.000000e+00 9.999990e-01 9.999998e-07
 0.000000e+00 0.000000e+00 0.000000e+00
<ENDHMM>
