~o
<STREAMINFO> 1 25
<VECSIZE> 25<NULLD><MFCC_E_D_N><DIAGC>
~h "jmodel"
<BEGINHMM>
<NUMSTATES> 3
<STATE> 2
<NUMMIXES> 128
<MIXTURE> 1 5.748963e-03
<MEAN> 25
 -2.578194e+00 3.180627e+00 2.309411e+00 8.752571e+00 4.370495e+00 3.440153e+00 4.060719e+00 3.934766e+00 5.820833e+00 5.254573e+00 5.875119e+00 3.073937e+00 -2.001153e+00 -1.631551e+00 -8.627920e-01 1.073891e+00 1.560030e+00 2.229967e+00 2.149919e+00 2.084179e+00 1.693058e+00 1.270537e+00 1.565989e+00 6.130135e-01 -4.691730e-02
<VARIANCE> 25
 1.006877e+01 1.174294e+01 1.495191e+01 1.870796e+01 2.316539e+01 2.218949e+01 2.187551e+01 2.196905e+01 2.106350e+01 2.257381e+01 2.097556e+01 1.711003e+01 1.793293e+00 2.117283e+00 3.023570e+00 3.208760e+00 3.734755e+00 3.356042e+00 3.329761e+00 3.376749e+00 3.517823e+00 3.722193e+00 3.513247e+00 2.831464e+00 3.117162e-03
<GCONST> 8.847147e+01
<MIXTURE> 2 4.549242e-03
<MEAN> 25
 -4.870573e+00 1.312651e+00 9.924178e-01 9.894182e+00 6.691865e+00 7.418866e+00 7.841364e+00 6.957689e+00 8.371101e+00 6.378901e+00 7.618423e+00 3.067990e+00 -6.157227e-02 4.186132e-02 1.422814e-01 2.264425e-01 2.663351e-01 2.802774e-01 2.951452e-01 3.200776e-01 3.495862e-01 3.078843e-01 1.972024e-01 7.938153e-02 2.519727e-06
<VARIANCE> 25
 6.980040e+00 8.896038e+00 1.064770e+01 1.593894e+01 1.722254e+01 1.559362e+01 1.692757e+01 1.847137e+01 1.657970e+01 1.741676e+01 1.814178e+01 1.438623e+01 1.253885e-01 2.265254e-01 3.362870e-01 4.671974e-01 6.501646e-01 8.157610e-01 9.292551e-01 1.002740e+00 1.050877e+00 1.078290e+00 1.074818e+00 1.013738e+00 1.001347e-06
<GCONST> 5.805785e+01
<MIXTURE> 3 4.549242e-03
<MEAN> 25
 -4.870573e+00 1.312651e+00 9.924178e-01 9.894182e+00 6.691865e+00 7.418866e+00 7.841364e+00 6.957689e+00 8.371101e+00 6.378901e+00 7.618423e+00 3.067990e+00 -6.157227e-02 4.186132e-02 1.422814e-01 2.264425e-01 2.663351e-01 2.802774e-01 2.951452e-01 3.200776e-01 3.495862e-01 3.078843e-01 1.972024e-01 7.938153e-02 2.519727e-06
<VARIANCE> 25
 6.980040e+00 8.896038e+00 1.064770e+01 1.593894e+01 1.722254e+01 1.559362e+01 1.692757e+01 1.847137e+01 1.657970e+01 1.741676e+01 1.814178e+01 1.438623e+01 1.253885e-01 2.265254e-01 3.362870e-01 4.671974e-01 6.501646e-01 8.157610e-01 9.292551e-01 1.002740e+00 1.050877e+00 1.078290e+00 1.074818e+00 1.013738e+00 1.001347e-06
<GCONST> 5.805785e+01
<MIXTURE> 4 1.671429e-02
<MEAN> 25
 3.217709e+00 2.515185e+00 -3.931901e+00 6.795859e-01 4.267509e+00 1.643538e-02 4.438148e-01 -4.466721e-02 1.204663e+00 1.219068e+00 -1.855885e+00 3.507584e-02 -2.619520e+00 1.169265e+00 1.708536e+00 3.019765e+00 8.807806e-01 4.113927e-01 1.521818e+00 9.062343e-01 9.253248e-01 4.268624e-01 1.170711e+00 8.739704e-01 -9.944376e-02
<VARIANCE> 25
 2.070479e+01 2.810670e+01 2.830989e+01 4.135475e+01 4.380213e+01 6.788128e+01 6.489109e+01 5.307757e+01 5.888700e+01 6.159953e+01 4.748484e+01 3.465152e+01 2.522637e+00 4.834539e+00 3.673515e+00 4.797942e+00 4.811392e+00 5.986978e+00 5.819536e+00 5.721744e+00 5.916556e+00 6.155713e+00 5.972595e+00 4.225659e+00 6.018938e-03
<GCONST> 1.050698e+02
<MIXTURE> 5 3.206198e-03
<MEAN> 25
 -3.412196e+00 2.181030e+00 6.038184e-01 9.411223e+00 6.689316e+00 6.307323e+00 7.109985e+00 4.714310e+00 5.499776e+00 3.843965e+00 4.647195e+00 2.598300e+00 -3.230976e-01 7.525588e-01 1.223897e+00 1.032513e+00 3.060864e-01 -1.031758e-01 -8.392542e-02 3.215475e-02 4.587010e-01 6.831737e-01 4.026689e-01 8.777504e-02 -2.782657e-05
<VARIANCE> 25
 1.025018e+01 1.392661e+01 2.347272e+01 2.574395e+01 2.024015e+01 1.943251e+01 2.012148e+01 2.047453e+01 2.158080e+01 2.143775e+01 2.412667e+01 1.638224e+01 1.209130e+00 1.242179e+00 1.355854e+00 1.670582e+00 2.286184e+00 2.378388e+00 2.297457e+00 2.275318e+00 2.312336e+00 2.237625e+00 2.082821e+00 1.871067e+00 1.003574e-06
<GCONST> 7.518768e+01
<MIXTURE> 6 5.475854e-03
<MEAN> 25
 9.157461e+00 -3.011528e-01 -5.885713e+00 -1.050682e+01 -2.650260e+00 5.896411e+00 -5.871367e+00 -5.688256e+00 -2.836545e+00 2.658460e+00 4.771049e+00 -1.276712e+00 5.147088e-01 6.940993e-01 -4.419275e-01 -1.466173e+00 -7.004765e-01 1.326353e+00 1.567387e+00 2.089760e-01 -1.104176e+00 -1.160308e+00 3.024682e-01 1.234381e+00 -5.281588e-03
<VARIANCE> 25
 9.588047e+00 1.508510e+01 2.478850e+01 3.651347e+01 3.382288e+01 3.144409e+01 3.938354e+01 3.443884e+01 3.928816e+01 3.873236e+01 3.697616e+01 2.622459e+01 3.074024e-01 1.022474e+00 8.778101e-01 1.770529e+00 1.479074e+00 1.779675e+00 1.684074e+00 1.890242e+00 2.187324e+00 1.759863e+00 2.006830e+00 1.416082e+00 5.648027e-04
<GCONST> 8.243835e+01
<MIXTURE> 7 5.475854e-03
<MEAN> 25
 9.157461e+00 -3.011528e-01 -5.885713e+00 -1.050682e+01 -2.650260e+00 5.896411e+00 -5.871367e+00 -5.688256e+00 -2.836545e+00 2.658460e+00 4.771049e+00 -1.276712e+00 5.147088e-01 6.940993e-01 -4.419275e-01 -1.466173e+00 -7.004765e-01 1.326353e+00 1.567387e+00 2.089760e-01 -1.104176e+00 -1.160308e+00 3.024682e-01 1.234381e+00 -5.281588e-03
<VARIANCE> 25
 9.588047e+00 1.508510e+01 2.478850e+01 3.651347e+01 3.382288e+01 3.144409e+01 3.938354e+01 3.443884e+01 3.928816e+01 3.873236e+01 3.697616e+01 2.622459e+01 3.074024e-01 1.022474e+00 8.778101e-01 1.770529e+00 1.479074e+00 1.779675e+00 1.684074e+00 1.890242e+00 2.187324e+00 1.759863e+00 2.006830e+00 1.416082e+00 5.648027e-04
<GCONST> 8.243835e+01
<MIXTURE> 8 1.165917e-02
<MEAN> 25
 -4.706839e+00 1.366211e+00 1.281392e+00 9.567043e+00 6.572937e+00 6.225224e+00 6.460153e+00 5.699441e+00 6.642628e+00 5.640881e+00 6.538508e+00 3.149456e+00 -6.254219e-01 -1.425380e+00 -1.070027e+00 -1.721938e+00 -2.325058e-01 -9.514865e-01 -1.835595e-01 -2.865597e-01 -2.510267e-01 -1.740841e-01 -2.095480e-01 8.597136e-02 9.869518e-02
<VARIANCE> 25
 9.457264e+00 9.828025e+00 1.160398e+01 1.605317e+01 1.661699e+01 1.590485e+01 1.833916e+01 1.749585e+01 1.706187e+01 1.735427e+01 1.917430e+01 1.405926e+01 2.752693e+00 2.809232e+00 3.893240e+00 3.777956e+00 3.445652e+00 3.316252e+00 3.130767e+00 3.072545e+00 2.865478e+00 2.651027e+00 2.431143e+00 1.916996e+00 6.671721e-03
<GCONST> 8.633235e+01
<MIXTURE> 9 1.199672e-02
<MEAN> 25
 7.518437e+00 2.980106e+00 -4.500742e+00 -1.238210e+01 -3.580354e+00 4.904128e+00 -1.803282e+00 -9.835125e-01 -3.048808e+00 -1.534931e+00 1.016560e+00 7.155464e-01 1.477857e+00 -4.402567e-01 -1.395078e-01 -3.139463e+00 -1.806612e+00 1.175699e+00 -1.084977e+00 -3.503783e-01 3.690785e-01 -1.080382e+00 8.724286e-01 -3.591533e-02 7.972866e-02
<VARIANCE> 25
 1.801709e+01 1.696948e+01 3.255853e+01 5.118866e+01 4.246181e+01 2.520594e+01 3.428531e+01 6.100493e+01 4.333471e+01 3.418056e+01 2.821379e+01 2.151252e+01 1.753762e+00 2.280911e+00 4.096403e+00 4.937958e+00 4.639897e+00 3.303133e+00 3.664123e+00 7.251286e+00 4.737607e+00 3.609149e+00 3.440272e+00 2.282108e+00 2.214266e-03
<GCONST> 9.660818e+01
<MIXTURE> 10 6.596976e-03
<MEAN> 25
 8.131645e-01 7.625944e+00 5.357976e+00 7.169620e+00 1.590773e+00 -2.137163e+00 -5.025843e-01 -1.646842e+00 8.632305e-01 8.424592e-01 8.303079e-01 6.765025e-01 -1.918929e+00 -6.644298e-01 -4.604780e-01 3.015529e+00 2.462031e+00 2.711220e+00 2.377227e+00 2.270862e+00 1.852815e+00 1.545747e+00 2.326458e+00 5.202311e-01 -1.379995e-01
<VARIANCE> 25
 1.950669e+01 2.067624e+01 2.239594e+01 2.914527e+01 3.821478e+01 3.506811e+01 3.518203e+01 3.428497e+01 2.758073e+01 2.912682e+01 2.690995e+01 2.511543e+01 2.239616e+00 3.444539e+00 5.522145e+00 5.205699e+00 5.536680e+00 4.459321e+00 4.697944e+00 4.848244e+00 4.402602e+00 5.006806e+00 4.461803e+00 3.190714e+00 2.696125e-03
<GCONST> 9.749495e+01
<MIXTURE> 11 1.633820e-02
<MEAN> 25
 6.495865e+00 3.450144e+00 2.985242e+00 5.878257e+00 -2.088199e+00 -3.394408e+00 -1.436669e+00 -5.853930e+00 -2.023794e+00 -2.877544e-01 -1.535380e+00 -2.346909e+00 -1.735058e-01 5.447120e-01 2.002055e-01 3.402790e-01 5.928321e-01 -1.807702e-01 3.900053e-01 -2.242707e-01 -4.578899e-01 8.787546e-02 -2.168475e-01 1.802648e-01 -1.889932e-02
<VARIANCE> 25
 1.421617e+01 2.402687e+01 1.899062e+01 4.167830e+01 4.068215e+01 4.996441e+01 4.400113e+01 5.609636e+01 5.267047e+01 3.748840e+01 3.813660e+01 2.563263e+01 8.433109e-01 1.086713e+00 1.543883e+00 2.055968e+00 1.883898e+00 2.042588e+00 2.219179e+00 2.613166e+00 2.934066e+00 2.243265e+00 1.841705e+00 1.501271e+00 8.841926e-04
<GCONST> 8.839946e+01
<MIXTURE> 12 5.904134e-03
<MEAN> 25
 1.048589e+01 3.467316e+00 -4.450384e+00 -1.562757e+01 -8.616367e+00 8.410209e+00 -8.745125e-01 -2.104790e+00 -1.509641e+00 -4.268316e+00 1.936369e+00 5.497533e-01 5.161444e-02 2.847969e-01 4.014583e-02 -3.955308e-01 -2.506143e-01 6.697269e-02 3.670589e-01 5.220827e-01 1.131286e-01 -3.674805e-01 -4.246541e-01 -2.121146e-02 -6.408546e-03
<VARIANCE> 25
 9.648622e+00 2.134449e+01 2.215548e+01 3.543282e+01 4.004911e+01 3.052139e+01 3.961555e+01 4.745304e+01 4.248832e+01 4.112397e+01 3.666151e+01 2.791682e+01 2.420398e-01 6.940353e-01 6.844777e-01 1.125229e+00 1.235126e+00 1.035287e+00 1.201636e+00 1.431418e+00 1.195879e+00 1.174368e+00 1.241669e+00 1.008663e+00 5.654069e-04
<GCONST> 7.881446e+01
<MIXTURE> 13 5.904134e-03
<MEAN> 25
 1.048589e+01 3.467316e+00 -4.450384e+00 -1.562757e+01 -8.616367e+00 8.410209e+00 -8.745125e-01 -2.104790e+00 -1.509641e+00 -4.268316e+00 1.936369e+00 5.497533e-01 5.161444e-02 2.847969e-01 4.014583e-02 -3.955308e-01 -2.506143e-01 6.697269e-02 3.670589e-01 5.220827e-01 1.131286e-01 -3.674805e-01 -4.246541e-01 -2.121146e-02 -6.408546e-03
<VARIANCE> 25
 9.648622e+00 2.134449e+01 2.215548e+01 3.543282e+01 4.004911e+01 3.052139e+01 3.961555e+01 4.745304e+01 4.248832e+01 4.112397e+01 3.666151e+01 2.791682e+01 2.420398e-01 6.940353e-01 6.844777e-01 1.125229e+00 1.235126e+00 1.035287e+00 1.201636e+00 1.431418e+00 1.195879e+00 1.174368e+00 1.241669e+00 1.008663e+00 5.654069e-04
<GCONST> 7.881446e+01
<MIXTURE> 14 6.488954e-03
<MEAN> 25
 -4.281848e+00 -3.379183e-01 -3.221158e-01 8.903037e+00 7.531444e+00 7.330247e+00 7.849692e+00 7.336807e+00 7.200894e+00 5.253078e+00 6.805189e+00 4.049452e+00 -2.710887e-01 1.919648e-01 3.577434e-01 3.023296e-01 -1.523813e-03 4.965926e-02 9.257410e-02 1.867452e-01 3.039257e-01 5.291834e-01 5.041900e-01 6.582716e-02 -9.287751e-03
<VARIANCE> 25
 9.383842e+00 1.395855e+01 1.849967e+01 1.775993e+01 2.078674e+01 1.975716e+01 2.158026e+01 2.056904e+01 2.029516e+01 2.387704e+01 2.170063e+01 1.622689e+01 9.567140e-01 1.628832e+00 1.767776e+00 1.938388e+00 2.249351e+00 2.258795e+00 2.241965e+00 2.234856e+00 2.281720e+00 2.508631e+00 2.182192e+00 1.816142e+00 1.023780e-03
<GCONST> 8.192707e+01
<MIXTURE> 15 2.475190e-03
<MEAN> 25
 -5.253048e+00 -5.615993e-01 -2.522402e-01 7.321569e+00 5.793434e+00 5.599933e+00 5.936695e+00 4.871484e+00 5.099126e+00 4.316070e+00 5.427995e+00 2.430077e+00 -1.136549e-01 -1.919192e-02 7.305701e-02 2.626373e-01 5.280068e-01 7.750559e-01 1.026842e+00 1.222166e+00 1.085033e+00 7.622036e-01 4.190036e-01 1.437583e-01 -2.895434e-04
<VARIANCE> 25
 7.895866e+00 5.719155e+00 8.899833e+00 1.256914e+01 1.392150e+01 1.431896e+01 1.513106e+01 1.496298e+01 1.392115e+01 1.480017e+01 1.492523e+01 1.263955e+01 1.237218e-01 2.046456e-01 3.118513e-01 5.040448e-01 7.389309e-01 7.787467e-01 8.212186e-01 8.317646e-01 9.107047e-01 9.998145e-01 1.044080e+00 1.018297e+00 2.885270e-05
<GCONST> 5.881357e+01
<MIXTURE> 16 2.475190e-03
<MEAN> 25
 -5.253048e+00 -5.615993e-01 -2.522402e-01 7.321569e+00 5.793434e+00 5.599933e+00 5.936695e+00 4.871484e+00 5.099126e+00 4.316070e+00 5.427995e+00 2.430077e+00 -1.136549e-01 -1.919192e-02 7.305701e-02 2.626373e-01 5.280068e-01 7.750559e-01 1.026842e+00 1.222166e+00 1.085033e+00 7.622036e-01 4.190036e-01 1.437583e-01 -2.895434e-04
<VARIANCE> 25
 7.895866e+00 5.719155e+00 8.899833e+00 1.256914e+01 1.392150e+01 1.431896e+01 1.513106e+01 1.496298e+01 1.392115e+01 1.480017e+01 1.492523e+01 1.263955e+01 1.237218e-01 2.046456e-01 3.118513e-01 5.040448e-01 7.389309e-01 7.787467e-01 8.212186e-01 8.317646e-01 9.107047e-01 9.998145e-01 1.044080e+00 1.018297e+00 2.885270e-05
<GCONST> 5.881357e+01
<MIXTURE> 17 9.518312e-03
<MEAN> 25
 2.448391e+00 -2.281427e+00 5.815825e+00 7.766228e+00 -3.481943e+00 -7.997298e+00 -4.548159e+00 9.911699e-01 -5.164342e-02 -4.532650e+00 8.993095e-02 1.919379e+00 -9.590387e-01 -1.058084e+00 1.593739e+00 -1.420080e+00 -2.203485e+00 1.458437e-01 -9.259308e-01 -1.501226e-01 4.108747e-02 -8.275238e-01 5.115695e-01 9.382223e-01 6.800210e-02
<VARIANCE> 25
 1.406025e+01 1.995375e+01 3.106129e+01 4.302139e+01 4.122227e+01 5.341415e+01 3.524245e+01 3.976464e+01 3.388301e+01 3.124932e+01 2.412976e+01 2.731355e+01 1.406386e+00 1.824888e+00 2.547820e+00 2.727337e+00 3.384886e+00 1.032330e+01 4.189854e+00 3.753942e+00 2.731449e+00 4.252736e+00 2.554487e+00 1.801519e+00 1.501087e-03
<GCONST> 9.384698e+01
<MIXTURE> 18 1.221018e-02
<MEAN> 25
 2.700622e+00 3.705878e+00 6.025600e+00 7.303917e+00 -3.354061e+00 -8.858589e+00 -1.427891e+00 1.552000e+00 -3.230403e+00 -3.859532e+00 -1.232330e+00 2.056850e+00 -5.598736e-01 2.290238e+00 -6.006137e-01 1.304847e+00 2.809857e+00 1.771140e+00 1.609179e+00 1.765441e-01 2.615733e-01 6.731322e-01 -5.291624e-01 -3.134570e-01 -1.150991e-01
<VARIANCE> 25
 1.545193e+01 2.424471e+01 3.005649e+01 3.542939e+01 3.446106e+01 4.365631e+01 3.403392e+01 4.523434e+01 3.047699e+01 3.696373e+01 2.582069e+01 3.320235e+01 2.007378e+00 2.567659e+00 4.107198e+00 4.195170e+00 3.379728e+00 4.053059e+00 5.425661e+00 4.066013e+00 3.743163e+00 3.433757e+00 4.152508e+00 2.938303e+00 3.314231e-03
<GCONST> 9.682275e+01
<MIXTURE> 19 9.912824e-03
<MEAN> 25
 -9.188504e+00 1.613389e+00 -2.547594e-01 5.673435e-01 4.417794e+00 1.611843e+00 3.288899e+00 1.379446e+00 1.932649e+00 1.366585e+00 1.027516e+00 1.734501e+00 1.967305e+00 1.725980e+00 1.938060e+00 9.301050e-01 -1.093283e+00 -1.087558e+00 -8.064263e-01 -1.570343e+00 -1.589991e+00 -1.136054e+00 -9.598227e-01 -7.880296e-01 -1.484771e-03
<VARIANCE> 25
 5.640243e+01 2.813072e+01 4.684396e+01 5.325885e+01 3.726499e+01 3.203467e+01 2.899421e+01 3.403662e+01 3.566797e+01 2.755684e+01 2.795654e+01 1.884234e+01 2.310910e+00 2.093501e+00 2.472886e+00 2.516449e+00 2.382190e+00 2.126492e+00 3.116706e+00 2.488214e+00 2.134980e+00 2.020278e+00 2.348278e+00 1.618586e+00 2.310005e-03
<GCONST> 9.207692e+01
<MIXTURE> 20 6.308331e-03
<MEAN> 25
 -1.418119e+01 7.416143e+00 8.451601e-01 6.152141e+00 4.843513e+00 1.637085e+00 5.209384e+00 8.537383e-01 9.221366e-01 7.988247e-01 2.568544e+00 -3.024009e-01 -3.285931e+00 -8.668773e-01 -1.565151e+00 3.325913e-01 1.541040e+00 2.063080e+00 1.979209e+00 2.056191e+00 2.144565e+00 2.040208e+00 1.684739e+00 9.453194e-01 4.732069e-02
<VARIANCE> 25
 1.966698e+01 2.345536e+01 3.096041e+01 3.717688e+01 3.084965e+01 2.789026e+01 2.993329e+01 3.147486e+01 2.796551e+01 2.821387e+01 2.515946e+01 2.091762e+01 2.092023e+00 2.182230e+00 1.909931e+00 2.541348e+00 2.702726e+00 2.313277e+00 2.310184e+00 2.319999e+00 2.235456e+00 2.652285e+00 2.241424e+00 1.865630e+00 1.886414e-03
<GCONST> 8.921909e+01
<MIXTURE> 21 7.928653e-03
<MEAN> 25
 3.953131e+00 -4.486363e+00 5.706809e+00 -1.461977e+00 -1.048566e+01 -8.749876e+00 -2.613444e+00 3.999883e+00 -1.917680e+00 -3.450735e+00 2.271032e-01 3.516552e-01 -7.086068e-01 1.333010e+00 2.574530e+00 -3.723818e-02 -1.533769e+00 3.120947e-01 5.816268e-01 -1.507856e+00 -1.958026e+00 3.138347e-01 1.313278e+00 2.435451e-01 -1.276274e-02
<VARIANCE> 25
 9.046765e+00 1.882444e+01 2.980896e+01 2.939733e+01 2.918793e+01 3.324616e+01 4.269881e+01 4.253610e+01 4.475840e+01 3.138498e+01 3.380366e+01 2.325041e+01 3.865604e-01 9.463005e-01 1.850935e+00 1.281677e+00 2.229398e+00 2.221104e+00 3.620227e+00 2.504130e+00 2.205105e+00 2.624690e+00 2.007764e+00 2.262332e+00 4.254549e-04
<GCONST> 8.532613e+01
<MIXTURE> 22 8.827789e-03
<MEAN> 25
 -1.792080e+01 7.154794e+00 -4.131402e+00 7.392381e+00 4.602464e+00 2.760955e+00 8.399906e+00 1.748517e+00 5.379206e+00 3.301031e+00 5.716387e+00 1.185233e+00 -3.095908e-01 -2.075728e-01 -1.255613e-01 -1.492853e-01 -7.223006e-03 1.369693e-01 1.807265e-01 1.778971e-01 2.485039e-01 2.073011e-01 1.726504e-01 1.924513e-01 8.859316e-03
<VARIANCE> 25
 8.117663e+00 1.682519e+01 1.738343e+01 2.517256e+01 2.289657e+01 2.083730e+01 1.943132e+01 1.871082e+01 1.814037e+01 2.086642e+01 1.924175e+01 1.378756e+01 1.090766e+00 1.357368e+00 1.363953e+00 1.572043e+00 1.408812e+00 1.526951e+00 1.509002e+00 1.532959e+00 1.614271e+00 1.544747e+00 1.357409e+00 1.167995e+00 1.745775e-03
<GCONST> 7.830988e+01
<MIXTURE> 23 6.455497e-03
<MEAN> 25
 7.528851e+00 1.989171e+00 2.911284e+00 3.671321e+00 -3.831191e+00 -4.263292e+00 -3.420642e+00 -5.904112e+00 -2.772855e+00 -1.681320e+00 -3.340462e+00 -2.131270e+00 4.785760e-02 1.825946e-01 7.419209e-03 4.049946e-02 -4.980283e-02 9.155326e-02 5.147284e-02 -2.850850e-02 -3.274559e-02 -1.321963e-01 -1.487232e-01 1.268504e-01 -4.501978e-03
<VARIANCE> 25
 1.130407e+01 2.247152e+01 2.276151e+01 5.573953e+01 4.680211e+01 6.400307e+01 6.112614e+01 5.430293e+01 4.860709e+01 4.934900e+01 5.080248e+01 3.683758e+01 1.107653e-01 2.702962e-01 3.729912e-01 4.896646e-01 6.168878e-01 6.965930e-01 8.418851e-01 8.263261e-01 8.387485e-01 1.171948e+00 9.796799e-01 8.310464e-01 8.339690e-05
<GCONST> 7.402864e+01
<MIXTURE> 24 6.455497e-03
<MEAN> 25
 7.528851e+00 1.989171e+00 2.911284e+00 3.671321e+00 -3.831191e+00 -4.263292e+00 -3.420642e+00 -5.904112e+00 -2.772855e+00 -1.681320e+00 -3.340462e+00 -2.131270e+00 4.785760e-02 1.825946e-01 7.419209e-03 4.049946e-02 -4.980283e-02 9.155326e-02 5.147284e-02 -2.850850e-02 -3.274559e-02 -1.321963e-01 -1.487232e-01 1.268504e-01 -4.501978e-03
<VARIANCE> 25
 1.130407e+01 2.247152e+01 2.276151e+01 5.573953e+01 4.680211e+01 6.400307e+01 6.112614e+01 5.430293e+01 4.860709e+01 4.934900e+01 5.080248e+01 3.683758e+01 1.107653e-01 2.702962e-01 3.729912e-01 4.896646e-01 6.168878e-01 6.965930e-01 8.418851e-01 8.263261e-01 8.387485e-01 1.171948e+00 9.796799e-01 8.310464e-01 8.339690e-05
<GCONST> 7.402864e+01
<MIXTURE> 25 1.118642e-02
<MEAN> 25
 -8.084058e-01 2.165143e+00 1.604779e+01 1.011169e+00 -1.149489e+01 -7.645528e-01 -6.446360e+00 -2.748169e+00 -5.128540e+00 -6.227089e+00 2.775697e+00 -1.164566e-01 -1.069479e-01 4.000771e-01 4.991966e-02 1.129529e-01 2.014530e-01 1.238614e-01 1.620894e-01 5.636821e-02 -4.030192e-01 3.979965e-02 -3.386209e-02 -1.498310e-01 -1.203327e-02
<VARIANCE> 25
 1.178514e+01 2.370014e+01 1.881114e+01 3.862080e+01 2.639692e+01 3.760925e+01 3.255251e+01 2.461710e+01 3.745844e+01 3.663640e+01 2.589769e+01 3.308843e+01 5.965523e-01 1.250312e+00 1.211957e+00 1.367834e+00 2.114977e+00 1.984609e+00 1.833416e+00 1.758993e+00 1.404498e+00 1.979199e+00 1.396894e+00 1.498642e+00 1.212464e-03
<GCONST> 8.359563e+01
<MIXTURE> 26 7.727677e-03
<MEAN> 25
 1.353791e+00 -4.602246e+00 -9.207770e+00 -4.261793e+00 5.766873e+00 6.738993e+00 3.436665e+00 4.268908e-01 2.057957e+00 -1.063078e+00 -2.046392e+00 -1.083468e+00 -5.414381e-01 7.817539e-01 9.664363e-02 1.093235e+00 3.233936e-01 1.055798e-01 5.617785e-01 1.427661e-01 1.320960e-01 1.307627e-02 2.113148e-01 2.452131e-01 -4.798438e-02
<VARIANCE> 25
 1.844681e+01 3.216110e+01 2.515721e+01 7.806090e+01 3.680452e+01 4.357286e+01 4.170343e+01 4.033577e+01 4.781539e+01 6.068162e+01 3.120219e+01 3.469960e+01 1.150977e+00 1.785157e+00 2.219321e+00 1.871532e+00 1.860525e+00 2.384758e+00 2.150560e+00 3.559500e+00 2.737267e+00 2.150000e+00 2.088568e+00 1.765732e+00 2.379459e-03
<GCONST> 9.238927e+01
<MIXTURE> 27 7.727677e-03
<MEAN> 25
 1.353791e+00 -4.602246e+00 -9.207770e+00 -4.261793e+00 5.766873e+00 6.738993e+00 3.436665e+00 4.268908e-01 2.057957e+00 -1.063078e+00 -2.046392e+00 -1.083468e+00 -5.414381e-01 7.817539e-01 9.664363e-02 1.093235e+00 3.233936e-01 1.055798e-01 5.617785e-01 1.427661e-01 1.320960e-01 1.307627e-02 2.113148e-01 2.452131e-01 -4.798438e-02
<VARIANCE> 25
 1.844681e+01 3.216110e+01 2.515721e+01 7.806090e+01 3.680452e+01 4.357286e+01 4.170343e+01 4.033577e+01 4.781539e+01 6.068162e+01 3.120219e+01 3.469960e+01 1.150977e+00 1.785157e+00 2.219321e+00 1.871532e+00 1.860525e+00 2.384758e+00 2.150560e+00 3.559500e+00 2.737267e+00 2.150000e+00 2.088568e+00 1.765732e+00 2.379459e-03
<GCONST> 9.238927e+01
<MIXTURE> 28 5.036674e-03
<MEAN> 25
 -5.379441e+00 3.810037e-02 -1.568717e+00 6.576239e+00 5.242336e+00 3.482394e+00 5.367961e+00 3.163735e+00 3.936739e+00 2.509767e+00 2.610367e+00 3.132311e+00 -1.091611e-01 2.244774e-01 5.215901e-01 7.864628e-01 8.298776e-01 6.849186e-01 5.173078e-01 3.979399e-01 4.413938e-01 4.671244e-01 3.693039e-01 1.798249e-01 4.541847e-06
<VARIANCE> 25
 1.082574e+01 8.335695e+00 1.203632e+01 1.484450e+01 1.456939e+01 1.767326e+01 1.809342e+01 1.892933e+01 1.707945e+01 1.786516e+01 2.047426e+01 1.560119e+01 2.574930e-01 3.332675e-01 4.076545e-01 4.602911e-01 6.214927e-01 8.710795e-01 1.049232e+00 1.136681e+00 1.092716e+00 1.041834e+00 1.026728e+00 1.065520e+00 1.018412e-06
<GCONST> 6.036536e+01
<MIXTURE> 29 5.036674e-03
<MEAN> 25
 -5.379441e+00 3.810037e-02 -1.568717e+00 6.576239e+00 5.242336e+00 3.482394e+00 5.367961e+00 3.163735e+00 3.936739e+00 2.509767e+00 2.610367e+00 3.132311e+00 -1.091611e-01 2.244774e-01 5.215901e-01 7.864628e-01 8.298776e-01 6.849186e-01 5.173078e-01 3.979399e-01 4.413938e-01 4.671244e-01 3.693039e-01 1.798249e-01 4.541847e-06
<VARIANCE> 25
 1.082574e+01 8.335695e+00 1.203632e+01 1.484450e+01 1.456939e+01 1.767326e+01 1.809342e+01 1.892933e+01 1.707945e+01 1.786516e+01 2.047426e+01 1.560119e+01 2.574930e-01 3.332675e-01 4.076545e-01 4.602911e-01 6.214927e-01 8.710795e-01 1.049232e+00 1.136681e+00 1.092716e+00 1.041834e+00 1.026728e+00 1.065520e+00 1.018412e-06
<GCONST> 6.036536e+01
<MIXTURE> 30 8.917812e-03
<MEAN> 25
 -4.335070e+00 2.912637e-02 5.699341e-01 9.072238e+00 7.861902e+00 7.284098e+00 7.787080e+00 7.020363e+00 6.312585e+00 4.988527e+00 6.653116e+00 3.307753e+00 -2.259890e-02 2.919830e-02 2.778807e-02 3.381625e-02 1.096573e-02 -5.259757e-03 3.951015e-03 4.976537e-02 8.258305e-02 6.962029e-03 6.184234e-02 -2.950019e-02 -7.423142e-04
<VARIANCE> 25
 7.230789e+00 1.059914e+01 1.013787e+01 1.325957e+01 1.529340e+01 1.693000e+01 1.949062e+01 1.794947e+01 1.684648e+01 1.787795e+01 2.327962e+01 1.464749e+01 9.371962e-02 1.918498e-01 3.318577e-01 5.390096e-01 7.231011e-01 7.511279e-01 7.434003e-01 8.431573e-01 9.388365e-01 9.473311e-01 8.832406e-01 9.225516e-01 4.977022e-05
<GCONST> 6.109345e+01
<MIXTURE> 31 4.136493e-03
<MEAN> 25
 -3.046000e+00 -5.191548e+00 -7.582604e-03 5.168609e+00 3.848989e+00 1.167665e+00 5.065706e+00 6.592535e+00 2.472171e+00 1.191625e+00 6.257365e+00 2.905809e+00 2.279919e-01 4.597241e-01 -1.888352e-01 2.977805e-01 1.099611e-01 3.767822e-01 1.956873e-01 5.919638e-02 4.177400e-01 4.210954e-01 7.882536e-02 8.086087e-02 -1.875829e-02
<VARIANCE> 25
 7.531720e+00 1.762024e+01 1.675159e+01 1.923661e+01 2.417412e+01 2.874193e+01 2.380364e+01 2.451362e+01 2.935018e+01 2.845712e+01 2.122771e+01 1.880255e+01 1.884273e-01 4.802040e-01 6.169486e-01 7.950446e-01 9.671219e-01 1.091367e+00 1.256282e+00 1.409201e+00 1.346756e+00 1.339007e+00 1.195711e+00 1.097158e+00 2.455423e-04
<GCONST> 7.229942e+01
<MIXTURE> 32 4.136493e-03
<MEAN> 25
 -3.046000e+00 -5.191548e+00 -7.582604e-03 5.168609e+00 3.848989e+00 1.167665e+00 5.065706e+00 6.592535e+00 2.472171e+00 1.191625e+00 6.257365e+00 2.905809e+00 2.279919e-01 4.597241e-01 -1.888352e-01 2.977805e-01 1.099611e-01 3.767822e-01 1.956873e-01 5.919638e-02 4.177400e-01 4.210954e-01 7.882536e-02 8.086087e-02 -1.875829e-02
<VARIANCE> 25
 7.531720e+00 1.762024e+01 1.675159e+01 1.923661e+01 2.417412e+01 2.874193e+01 2.380364e+01 2.451362e+01 2.935018e+01 2.845712e+01 2.122771e+01 1.880255e+01 1.884273e-01 4.802040e-01 6.169486e-01 7.950446e-01 9.671219e-01 1.091367e+00 1.256282e+00 1.409201e+00 1.346756e+00 1.339007e+00 1.195711e+00 1.097158e+00 2.455423e-04
<GCONST> 7.229942e+01
<MIXTURE> 33 1.508826e-02
<MEAN> 25
 5.802783e+00 -3.709528e+00 -2.093178e+00 -3.945699e+00 -2.192257e+00 -5.180628e+00 -7.261487e+00 8.719662e-01 3.009662e+00 -3.689112e-01 -3.905560e+00 -2.726949e+00 6.106530e-01 -1.199837e+00 -2.304584e+00 -1.800337e+00 1.244431e+00 1.382167e+00 -7.169904e-01 8.491951e-01 1.159519e+00 2.984449e-01 -2.045728e-01 -1.405237e+00 3.762884e-02
<VARIANCE> 25
 1.355459e+01 1.980179e+01 2.694237e+01 5.446066e+01 3.750216e+01 4.478512e+01 3.967867e+01 5.351015e+01 4.085089e+01 4.315812e+01 3.598180e+01 2.772066e+01 1.082135e+00 1.834155e+00 2.206708e+00 2.162226e+00 4.330117e+00 3.220054e+00 3.971401e+00 5.799483e+00 3.697715e+00 4.646666e+00 3.275224e+00 2.919524e+00 1.387474e-03
<GCONST> 9.483900e+01
<MIXTURE> 34 1.588179e-02
<MEAN> 25
 8.621913e+00 2.074238e-02 8.561336e-02 1.098006e+00 -2.781716e+00 -1.526211e+00 -5.808645e+00 -4.715157e+00 -1.757117e+00 1.419845e-01 -2.553560e+00 -3.696560e+00 -6.294267e-03 1.343735e+00 1.400250e+00 2.371476e+00 1.004575e-02 -1.531138e-01 8.259073e-01 -1.577289e+00 -9.704092e-01 2.990224e-01 -5.626548e-01 2.513331e-01 -6.187477e-02
<VARIANCE> 25
 9.559025e+00 3.023963e+01 2.880836e+01 5.104890e+01 4.227056e+01 5.041280e+01 5.579277e+01 5.718116e+01 5.330484e+01 4.232033e+01 4.753340e+01 3.156890e+01 1.224722e+00 1.919348e+00 4.286726e+00 3.956207e+00 5.538034e+00 5.668199e+00 5.375650e+00 6.184729e+00 5.189816e+00 4.891387e+00 4.854151e+00 3.737567e+00 1.136455e-03
<GCONST> 9.966270e+01
<MIXTURE> 35 1.467755e-02
<MEAN> 25
 -1.730109e+00 -4.308509e+00 -8.552052e+00 2.251785e-01 9.565504e+00 7.862666e-01 1.009008e+00 3.825690e+00 7.321194e-01 5.180119e+00 5.815743e-01 1.720631e+00 4.711703e-01 -1.221921e+00 -1.138664e+00 -1.096519e+00 3.208264e-01 -9.464589e-01 -1.084094e+00 1.008916e-01 -8.094107e-02 -6.379553e-02 -3.071789e-01 -2.271188e-01 9.374790e-02
<VARIANCE> 25
 1.877287e+01 2.753543e+01 4.097636e+01 8.098391e+01 3.930729e+01 6.079183e+01 4.434854e+01 5.004997e+01 4.441153e+01 3.417857e+01 3.657548e+01 2.857018e+01 2.861120e+00 2.987000e+00 5.673025e+00 5.323368e+00 4.740334e+00 4.896569e+00 4.581289e+00 4.299612e+00 4.342094e+00 4.054552e+00 3.781301e+00 3.616430e+00 4.974579e-03
<GCONST> 1.019217e+02
<MIXTURE> 36 1.093293e-02
<MEAN> 25
 3.510692e+00 -3.500623e+00 7.028462e+00 6.267209e+00 -8.059113e+00 -8.738744e+00 -5.843081e+00 3.047202e+00 -1.118711e+00 -4.716147e+00 3.585579e+00 -1.747078e-01 3.772414e-01 3.312668e-01 -7.376684e-01 1.285648e-01 1.153775e+00 -1.318377e-01 1.418150e-01 2.970383e-01 3.279424e-01 2.879853e-01 -5.699257e-01 -1.714098e-01 -2.371079e-02
<VARIANCE> 25
 1.219217e+01 1.247370e+01 2.053415e+01 4.290516e+01 4.518932e+01 4.148821e+01 3.826990e+01 2.664147e+01 4.282853e+01 2.541779e+01 2.676735e+01 2.431756e+01 3.888849e-01 6.743591e-01 1.355047e+00 1.132991e+00 1.792594e+00 1.503022e+00 2.313680e+00 2.072838e+00 1.860862e+00 1.559442e+00 1.640429e+00 1.273888e+00 7.616087e-04
<GCONST> 8.195831e+01
<MIXTURE> 37 1.246826e-02
<MEAN> 25
 4.200200e-01 7.333020e+00 1.197359e+01 -5.184804e+00 -8.140764e+00 -7.333331e-01 -5.180268e+00 -8.139266e+00 -3.618544e+00 -9.316761e-01 -3.608466e+00 -1.103917e+00 1.982141e-01 6.336576e-01 -1.331829e+00 3.508684e+00 1.954887e+00 -2.936329e-01 1.132366e+00 4.552311e-01 3.863526e-01 -2.514200e-01 5.669877e-01 -1.570771e-01 -9.302983e-02
<VARIANCE> 25
 1.653424e+01 2.938455e+01 3.082031e+01 5.683057e+01 3.446308e+01 3.350511e+01 4.454266e+01 3.457870e+01 3.813208e+01 3.484490e+01 3.693375e+01 3.082596e+01 2.850564e+00 3.296711e+00 2.924105e+00 4.054128e+00 4.544095e+00 3.630528e+00 4.078746e+00 3.704326e+00 3.770267e+00 3.601766e+00 3.850334e+00 2.837927e+00 3.856360e-03
<GCONST> 9.789523e+01
<MIXTURE> 38 1.154525e-02
<MEAN> 25
 -4.461801e+00 8.961671e+00 4.579881e+00 3.215204e+00 8.431147e-01 -5.209921e+00 -5.874021e-01 -2.734622e+00 -2.870622e+00 -3.084191e+00 -1.483768e+00 -5.295963e-01 -4.513399e+00 1.249465e+00 -3.123002e-01 1.453598e+00 2.557053e+00 1.383981e+00 2.046605e+00 9.528440e-01 7.845389e-01 6.347722e-01 1.001719e+00 3.283394e-01 4.849445e-02
<VARIANCE> 25
 3.138432e+01 2.954414e+01 3.908589e+01 3.305912e+01 4.873704e+01 3.556066e+01 3.644815e+01 4.177132e+01 3.492989e+01 3.256168e+01 2.425175e+01 2.870308e+01 2.357738e+00 3.933882e+00 3.898682e+00 5.153830e+00 4.249728e+00 5.034543e+00 4.781166e+00 4.631492e+00 4.441557e+00 4.932820e+00 4.381501e+00 3.257826e+00 2.048752e-03
<GCONST> 9.925425e+01
<MIXTURE> 39 9.501865e-03
<MEAN> 25
 1.286985e+00 2.531580e+00 1.018821e+01 -9.035558e+00 -1.125204e+01 -9.329400e-01 -3.036672e+00 -6.615959e+00 -4.355730e+00 7.458620e-01 -3.651224e+00 -2.198954e+00 -7.350481e-01 1.506430e+00 1.612203e+00 -1.388286e+00 7.966556e-02 1.232968e+00 -1.216317e+00 -1.230188e+00 4.012399e-01 4.362312e-01 -5.154147e-01 1.459232e-01 1.776829e-03
<VARIANCE> 25
 9.101260e+00 3.019726e+01 3.182830e+01 4.105623e+01 3.692892e+01 4.289754e+01 4.474698e+01 3.377021e+01 4.115282e+01 3.436808e+01 3.584918e+01 2.988513e+01 6.959589e-01 1.550271e+00 1.506887e+00 2.900487e+00 2.406144e+00 2.847978e+00 3.052685e+00 2.796482e+00 2.496879e+00 2.644253e+00 2.117512e+00 2.090232e+00 1.196334e-03
<GCONST> 8.992427e+01
<MIXTURE> 40 1.030800e-02
<MEAN> 25
 -8.383073e+00 2.272089e+00 -1.212555e+00 8.012403e+00 4.190998e+00 5.052172e+00 5.282262e+00 4.370707e+00 4.297119e+00 4.828403e+00 5.351640e+00 1.158082e+00 -4.848562e-02 -2.028919e-01 -8.418170e-02 -1.499443e-01 -1.268125e-01 -2.785049e-01 1.385285e-02 1.384732e-01 1.428726e-02 -6.967524e-02 4.754567e-02 -5.451883e-02 3.738033e-03
<VARIANCE> 25
 4.739610e+01 1.926468e+01 2.731700e+01 2.652456e+01 2.681227e+01 1.956111e+01 1.981126e+01 1.792741e+01 1.827336e+01 2.199240e+01 1.903366e+01 1.714844e+01 7.394349e-01 6.888418e-01 8.465193e-01 1.202561e+00 1.120259e+00 1.468940e+00 1.229409e+00 1.236678e+00 1.267028e+00 1.265260e+00 1.084628e+00 1.065638e+00 8.395003e-04
<GCONST> 7.706290e+01
<MIXTURE> 41 6.713375e-03
<MEAN> 25
 1.200949e+00 1.796906e+00 1.014318e+01 -7.043369e+00 -1.028011e+01 -3.707805e+00 -2.564186e+00 -5.201098e+00 -4.414848e+00 2.671415e+00 -1.642441e+00 -7.788471e-01 1.268093e-01 -8.170636e-01 1.674488e+00 -3.605298e+00 -2.430211e+00 -4.171913e-02 -6.031063e-01 -3.754009e-01 -7.206739e-01 1.006424e+00 -9.821385e-01 5.231955e-02 8.629058e-02
<VARIANCE> 25
 1.171488e+01 2.909812e+01 3.554895e+01 4.219130e+01 3.907801e+01 4.003702e+01 3.646097e+01 2.999512e+01 3.416250e+01 2.837248e+01 3.141608e+01 2.751344e+01 3.254773e+00 3.330368e+00 3.731122e+00 3.842396e+00 4.804642e+00 5.879382e+00 4.892570e+00 4.588952e+00 4.236732e+00 4.324936e+00 3.858624e+00 3.196761e+00 2.853507e-03
<GCONST> 9.814262e+01
<MIXTURE> 42 1.106211e-02
<MEAN> 25
 -2.616007e+00 5.160569e+00 3.136897e+00 3.419992e+00 1.099957e+00 -6.275023e+00 -6.874651e-01 -2.025004e+00 -1.883328e+00 -3.706928e-01 -2.345877e+00 1.302070e+00 3.832072e+00 -5.935131e-01 1.556499e+00 -1.278609e-02 -2.725235e+00 -9.429232e-01 -2.640180e+00 -1.168884e+00 -2.953726e-02 -1.396873e-01 6.406631e-01 -1.188759e+00 1.954262e-02
<VARIANCE> 25
 3.478956e+01 1.968233e+01 4.616282e+01 2.346891e+01 3.508270e+01 3.221193e+01 3.504316e+01 2.918581e+01 2.759082e+01 2.719847e+01 1.632582e+01 1.590827e+01 3.392042e+00 4.099427e+00 4.992466e+00 4.536323e+00 3.966828e+00 5.077689e+00 4.686942e+00 5.105285e+00 5.930645e+00 5.664711e+00 3.420287e+00 3.251479e+00 4.176755e-03
<GCONST> 9.797957e+01
<MIXTURE> 43 7.108249e-03
<MEAN> 25
 2.992708e+00 -6.074859e+00 -2.342687e+00 -5.144058e+00 -7.246390e+00 -3.314632e+00 4.024158e+00 8.933668e-01 -4.384172e+00 -7.074818e+00 -4.262290e+00 -1.223910e+00 2.426160e-01 2.109513e+00 1.895289e+00 -7.853219e-02 -1.405173e+00 -8.423628e-01 -9.345206e-01 -8.394419e-01 8.001794e-01 1.456725e+00 3.144773e-01 1.469325e-02 -4.412047e-02
<VARIANCE> 25
 1.010411e+01 2.049519e+01 2.691837e+01 3.461736e+01 3.790522e+01 3.660704e+01 3.273480e+01 4.368699e+01 5.206781e+01 3.834816e+01 2.575547e+01 2.864198e+01 6.735017e-01 1.299437e+00 1.545062e+00 2.504044e+00 2.330550e+00 2.394162e+00 2.662320e+00 3.095959e+00 2.732429e+00 2.503867e+00 2.287133e+00 1.867983e+00 9.433716e-04
<GCONST> 8.827804e+01
<MIXTURE> 44 7.328289e-03
<MEAN> 25
 -1.519625e+01 1.567294e+00 3.496350e+00 -3.287396e+00 3.356126e+00 2.108232e+00 2.640238e-02 2.424430e+00 1.441199e+00 -7.305843e-01 1.804812e+00 1.963674e+00 -1.731426e-01 7.049154e-04 1.596178e-01 3.072645e-01 -1.151301e-01 1.711490e-01 4.610686e-01 1.107105e-01 2.550880e-01 1.418919e-01 5.459477e-02 9.544472e-02 4.095038e-03
<VARIANCE> 25
 4.395112e+01 2.781688e+01 3.527024e+01 3.064703e+01 2.981752e+01 3.003178e+01 2.544669e+01 3.189051e+01 2.905132e+01 2.805016e+01 2.700970e+01 1.936480e+01 1.233004e+00 1.531977e+00 1.398303e+00 1.345019e+00 2.143938e+00 1.688335e+00 1.518873e+00 1.650424e+00 1.581317e+00 1.495784e+00 1.360454e+00 1.216395e+00 1.293424e-03
<GCONST> 8.468739e+01
<MIXTURE> 45 1.364932e-02
<MEAN> 25
 -1.112278e+01 3.906261e+00 -2.032364e+00 1.992861e+00 4.739913e+00 2.645840e-02 5.607859e+00 3.172321e+00 2.004704e+00 2.478477e+00 2.451542e+00 3.016944e+00 -2.911669e+00 7.110872e-01 -4.698572e-01 -4.536331e-01 1.047229e-01 -1.794639e-01 2.583779e-01 -1.698608e-01 1.552119e-01 -2.095834e-01 9.504313e-02 2.084878e-01 1.158182e-01
<VARIANCE> 25
 3.972102e+01 2.665455e+01 2.907304e+01 3.329175e+01 3.079244e+01 2.593244e+01 3.125740e+01 2.283620e+01 2.932248e+01 2.001705e+01 2.364269e+01 1.462288e+01 2.207472e+00 2.670639e+00 2.411776e+00 2.657142e+00 2.198052e+00 2.527850e+00 2.412380e+00 2.586381e+00 2.161881e+00 1.927063e+00 1.769685e+00 1.435766e+00 3.680409e-03
<GCONST> 8.919317e+01
<MIXTURE> 46 9.336259e-03
<MEAN> 25
 -9.203667e+00 2.436318e+00 1.063725e+00 7.729478e+00 5.908392e+00 2.943720e+00 7.071017e+00 4.736928e+00 5.444817e+00 4.440828e+00 4.813109e+00 3.058657e+00 1.026004e+00 -1.896159e-01 2.036729e-02 9.343718e-01 6.462936e-01 9.879847e-01 4.521950e-01 6.343728e-01 4.192717e-01 5.440378e-01 6.189553e-01 4.802199e-01 -1.045318e-01
<VARIANCE> 25
 3.504372e+01 4.314252e+01 3.797158e+01 5.036235e+01 4.935552e+01 4.487643e+01 3.631817e+01 3.633361e+01 3.427469e+01 3.257076e+01 2.904168e+01 2.070173e+01 3.816458e+00 4.153646e+00 3.778134e+00 4.156752e+00 4.117871e+00 3.766410e+00 3.579357e+00 3.085930e+00 2.991391e+00 2.843575e+00 2.277817e+00 1.814560e+00 7.798019e-03
<GCONST> 9.849565e+01
<MIXTURE> 47 7.116147e-03
<MEAN> 25
 6.170110e+00 -6.950654e+00 -6.458576e+00 -8.485474e+00 8.175407e-02 2.370227e+00 -1.648958e+00 1.353704e-01 2.743220e+00 9.026729e-01 -3.325005e+00 -6.050525e+00 -2.449171e-01 -1.395915e+00 -5.440874e-01 -4.541519e-01 5.335889e-01 8.754919e-01 8.026329e-01 3.918256e-01 2.104842e-01 -8.721215e-01 -6.160433e-01 -3.839544e-01 2.905660e-02
<VARIANCE> 25
 1.264553e+01 2.228235e+01 1.992668e+01 3.987146e+01 3.252497e+01 5.327584e+01 4.063014e+01 3.867351e+01 3.919390e+01 4.113465e+01 4.111436e+01 3.007741e+01 4.344073e-01 9.176413e-01 1.110298e+00 1.507879e+00 1.773911e+00 1.911191e+00 2.040043e+00 2.630557e+00 1.984763e+00 1.874134e+00 1.903166e+00 1.883480e+00 5.063901e-04
<GCONST> 8.508717e+01
<MIXTURE> 48 7.116147e-03
<MEAN> 25
 6.170110e+00 -6.950654e+00 -6.458576e+00 -8.485474e+00 8.175407e-02 2.370227e+00 -1.648958e+00 1.353704e-01 2.743220e+00 9.026729e-01 -3.325005e+00 -6.050525e+00 -2.449171e-01 -1.395915e+00 -5.440874e-01 -4.541519e-01 5.335889e-01 8.754919e-01 8.026329e-01 3.918256e-01 2.104842e-01 -8.721215e-01 -6.160433e-01 -3.839544e-01 2.905660e-02
<VARIANCE> 25
 1.264553e+01 2.228235e+01 1.992668e+01 3.987146e+01 3.252497e+01 5.327584e+01 4.063014e+01 3.867351e+01 3.919390e+01 4.113465e+01 4.111436e+01 3.007741e+01 4.344073e-01 9.176413e-01 1.110298e+00 1.507879e+00 1.773911e+00 1.911191e+00 2.040043e+00 2.630557e+00 1.984763e+00 1.874134e+00 1.903166e+00 1.883480e+00 5.063901e-04
<GCONST> 8.508717e+01
<MIXTURE> 49 5.548473e-03
<MEAN> 25
 -4.590881e+00 1.084095e+00 -4.991122e-02 7.664608e+00 6.062318e+00 5.309433e+00 6.943944e+00 4.448796e+00 3.435269e+00 3.821642e+00 4.240156e+00 2.300714e+00 3.505316e-01 6.343744e-01 7.509630e-01 4.201551e-01 -3.004757e-01 -7.721750e-01 -9.695177e-01 -1.106020e+00 -7.967444e-01 -6.161492e-01 -5.414819e-01 -2.274375e-01 -5.977636e-04
<VARIANCE> 25
 1.001048e+01 1.230962e+01 1.291738e+01 1.811167e+01 1.405388e+01 1.570512e+01 2.215528e+01 1.834390e+01 3.239511e+01 1.596770e+01 2.125204e+01 1.466616e+01 2.520162e-01 2.379961e-01 3.363107e-01 5.689945e-01 9.674392e-01 9.866309e-01 9.853225e-01 9.447103e-01 1.168400e+00 1.112195e+00 1.142609e+00 1.078775e+00 1.526299e-05
<GCONST> 6.440633e+01
<MIXTURE> 50 6.234641e-03
<MEAN> 25
 -4.617547e+00 1.250897e-01 -1.494567e+00 6.067902e+00 4.156836e+00 2.247161e+00 3.747921e+00 1.849888e+00 2.915503e+00 1.306363e+00 2.070721e+00 2.777028e+00 6.410966e-02 1.824028e-01 1.074488e-01 -1.604305e-01 -5.234770e-01 -6.424577e-01 -4.264302e-01 -7.428110e-02 4.530489e-01 7.822677e-01 7.193770e-01 4.443195e-01 -1.989784e-05
<VARIANCE> 25
 1.047057e+01 1.114698e+01 1.422618e+01 1.623690e+01 1.555919e+01 1.838160e+01 1.841349e+01 2.067025e+01 2.167000e+01 1.885102e+01 2.164199e+01 1.526631e+01 1.459489e-01 2.397401e-01 3.908518e-01 5.324678e-01 6.089315e-01 7.791796e-01 9.444280e-01 1.153369e+00 1.061362e+00 9.185941e-01 9.203188e-01 9.729182e-01 1.016874e-06
<GCONST> 6.004255e+01
<MIXTURE> 51 6.234641e-03
<MEAN> 25
 -4.617547e+00 1.250897e-01 -1.494567e+00 6.067902e+00 4.156836e+00 2.247161e+00 3.747921e+00 1.849888e+00 2.915503e+00 1.306363e+00 2.070721e+00 2.777028e+00 6.410966e-02 1.824028e-01 1.074488e-01 -1.604305e-01 -5.234770e-01 -6.424577e-01 -4.264302e-01 -7.428110e-02 4.530489e-01 7.822677e-01 7.193770e-01 4.443195e-01 -1.989784e-05
<VARIANCE> 25
 1.047057e+01 1.114698e+01 1.422618e+01 1.623690e+01 1.555919e+01 1.838160e+01 1.841349e+01 2.067025e+01 2.167000e+01 1.885102e+01 2.164199e+01 1.526631e+01 1.459489e-01 2.397401e-01 3.908518e-01 5.324678e-01 6.089315e-01 7.791796e-01 9.444280e-01 1.153369e+00 1.061362e+00 9.185941e-01 9.203188e-01 9.729182e-01 1.016874e-06
<GCONST> 6.004255e+01
<MIXTURE> 52 6.367945e-03
<MEAN> 25
 8.881128e+00 1.962416e+00 -5.084861e+00 -1.404577e+01 -4.218029e+00 8.392138e+00 -1.748499e+00 -2.793628e+00 -4.205648e+00 -1.977830e+00 3.579733e+00 1.079272e+00 -3.861804e-01 -3.713119e-01 -1.829422e-01 1.173048e+00 1.324399e+00 -4.238876e-01 -3.678963e-01 -7.490401e-01 -2.182110e-01 1.224094e+00 2.539317e-01 -4.427373e-01 -1.669542e-02
<VARIANCE> 25
 1.349899e+01 1.839443e+01 2.999201e+01 3.426482e+01 4.065723e+01 2.678479e+01 4.489265e+01 4.429245e+01 4.074366e+01 4.335776e+01 3.434017e+01 2.619193e+01 3.764116e-01 1.464388e+00 1.315510e+00 2.402004e+00 2.270802e+00 2.214557e+00 2.752485e+00 3.814916e+00 3.039931e+00 2.332174e+00 2.269857e+00 1.961939e+00 1.532240e-03
<GCONST> 8.875606e+01
<MIXTURE> 53 6.367945e-03
<MEAN> 25
 8.881128e+00 1.962416e+00 -5.084861e+00 -1.404577e+01 -4.218029e+00 8.392138e+00 -1.748499e+00 -2.793628e+00 -4.205648e+00 -1.977830e+00 3.579733e+00 1.079272e+00 -3.861804e-01 -3.713119e-01 -1.829422e-01 1.173048e+00 1.324399e+00 -4.238876e-01 -3.678963e-01 -7.490401e-01 -2.182110e-01 1.224094e+00 2.539317e-01 -4.427373e-01 -1.669542e-02
<VARIANCE> 25
 1.349899e+01 1.839443e+01 2.999201e+01 3.426482e+01 4.065723e+01 2.678479e+01 4.489265e+01 4.429245e+01 4.074366e+01 4.335776e+01 3.434017e+01 2.619193e+01 3.764116e-01 1.464388e+00 1.315510e+00 2.402004e+00 2.270802e+00 2.214557e+00 2.752485e+00 3.814916e+00 3.039931e+00 2.332174e+00 2.269857e+00 1.961939e+00 1.532240e-03
<GCONST> 8.875606e+01
<MIXTURE> 54 7.368620e-03
<MEAN> 25
 -3.615687e+00 5.855467e-02 -6.857805e-01 8.018548e+00 6.483358e+00 4.608582e+00 4.661145e+00 4.606512e+00 4.056649e+00 3.629557e+00 4.441888e+00 2.298911e+00 -4.752057e-04 2.761505e-02 3.328762e-02 5.055107e-02 5.665703e-02 4.309576e-02 3.849781e-02 3.235821e-02 3.125575e-02 2.163643e-02 1.520052e-02 -8.691347e-04 -6.950240e-06
<VARIANCE> 25
 9.199319e+00 1.035330e+01 9.265143e+00 1.821668e+01 1.327590e+01 1.356782e+01 1.198720e+01 1.125808e+01 1.133167e+01 1.386430e+01 1.780861e+01 1.270165e+01 4.153959e-02 8.739715e-02 1.538620e-01 2.287009e-01 3.149562e-01 4.000989e-01 4.592730e-01 5.230889e-01 5.402982e-01 5.230071e-01 5.128010e-01 5.167813e-01 1.006943e-06
<GCONST> 4.734556e+01
<MIXTURE> 55 7.368620e-03
<MEAN> 25
 -3.615687e+00 5.855467e-02 -6.857805e-01 8.018548e+00 6.483358e+00 4.608582e+00 4.661145e+00 4.606512e+00 4.056649e+00 3.629557e+00 4.441888e+00 2.298911e+00 -4.752057e-04 2.761505e-02 3.328762e-02 5.055107e-02 5.665703e-02 4.309576e-02 3.849781e-02 3.235821e-02 3.125575e-02 2.163643e-02 1.520052e-02 -8.691347e-04 -6.950240e-06
<VARIANCE> 25
 9.199319e+00 1.035330e+01 9.265143e+00 1.821668e+01 1.327590e+01 1.356782e+01 1.198720e+01 1.125808e+01 1.133167e+01 1.386430e+01 1.780861e+01 1.270165e+01 4.153959e-02 8.739715e-02 1.538620e-01 2.287009e-01 3.149562e-01 4.000989e-01 4.592730e-01 5.230889e-01 5.402982e-01 5.230071e-01 5.128010e-01 5.167813e-01 1.006943e-06
<GCONST> 4.734556e+01
<MIXTURE> 56 6.132464e-03
<MEAN> 25
 6.926700e+00 -6.563437e+00 -8.252592e+00 -9.524479e+00 3.061853e+00 4.820644e+00 -1.327984e+00 -1.400813e+00 1.588436e+00 1.314158e+00 -2.509948e+00 -6.842294e+00 -2.161848e-02 -4.716080e-02 -3.779758e-02 -4.199750e-03 3.020745e-01 2.256396e-01 1.193983e-01 -1.058972e-01 -4.725236e-02 1.745653e-02 -7.011050e-03 6.033485e-02 -5.986284e-03
<VARIANCE> 25
 1.070134e+01 2.231500e+01 2.249808e+01 4.081753e+01 3.530849e+01 5.135876e+01 5.892984e+01 3.406157e+01 3.687286e+01 3.564499e+01 3.604006e+01 2.879447e+01 1.847437e-01 4.707482e-01 4.808528e-01 7.632198e-01 7.418398e-01 1.235581e+00 8.237476e-01 8.949584e-01 1.016630e+00 8.727196e-01 1.035001e+00 7.652053e-01 2.527878e-04
<GCONST> 7.500608e+01
<MIXTURE> 57 6.132464e-03
<MEAN> 25
 6.926700e+00 -6.563437e+00 -8.252592e+00 -9.524479e+00 3.061853e+00 4.820644e+00 -1.327984e+00 -1.400813e+00 1.588436e+00 1.314158e+00 -2.509948e+00 -6.842294e+00 -2.161848e-02 -4.716080e-02 -3.779758e-02 -4.199750e-03 3.020745e-01 2.256396e-01 1.193983e-01 -1.058972e-01 -4.725236e-02 1.745653e-02 -7.011050e-03 6.033485e-02 -5.986284e-03
<VARIANCE> 25
 1.070134e+01 2.231500e+01 2.249808e+01 4.081753e+01 3.530849e+01 5.135876e+01 5.892984e+01 3.406157e+01 3.687286e+01 3.564499e+01 3.604006e+01 2.879447e+01 1.847437e-01 4.707482e-01 4.808528e-01 7.632198e-01 7.418398e-01 1.235581e+00 8.237476e-01 8.949584e-01 1.016630e+00 8.727196e-01 1.035001e+00 7.652053e-01 2.527878e-04
<GCONST> 7.500608e+01
<MIXTURE> 58 6.172147e-03
<MEAN> 25
 2.676205e+00 -3.159359e+00 6.930361e+00 -5.541296e+00 -1.320679e+01 -4.997293e+00 1.606055e+00 4.425786e-01 -2.222093e+00 2.042734e+00 7.205745e-01 -8.506073e-01 -3.285945e-02 -1.700283e-01 -9.340524e-02 -1.992158e-01 -8.327459e-03 2.494526e-01 3.716805e-01 2.391874e-01 2.019654e-02 2.618027e-02 -9.343688e-02 -1.519891e-01 -2.439853e-03
<VARIANCE> 25
 7.416503e+00 1.503246e+01 2.308669e+01 2.764666e+01 2.429510e+01 5.280382e+01 3.177461e+01 3.684943e+01 3.261723e+01 3.068646e+01 2.319642e+01 1.954964e+01 2.975272e-01 8.340622e-01 7.427806e-01 1.016412e+00 8.721550e-01 1.185793e+00 1.172020e+00 1.284547e+00 1.034599e+00 1.030806e+00 8.863143e-01 8.862377e-01 7.109069e-04
<GCONST> 7.570950e+01
<MIXTURE> 59 6.172147e-03
<MEAN> 25
 2.676205e+00 -3.159359e+00 6.930361e+00 -5.541296e+00 -1.320679e+01 -4.997293e+00 1.606055e+00 4.425786e-01 -2.222093e+00 2.042734e+00 7.205745e-01 -8.506073e-01 -3.285945e-02 -1.700283e-01 -9.340524e-02 -1.992158e-01 -8.327459e-03 2.494526e-01 3.716805e-01 2.391874e-01 2.019654e-02 2.618027e-02 -9.343688e-02 -1.519891e-01 -2.439853e-03
<VARIANCE> 25
 7.416503e+00 1.503246e+01 2.308669e+01 2.764666e+01 2.429510e+01 5.280382e+01 3.177461e+01 3.684943e+01 3.261723e+01 3.068646e+01 2.319642e+01 1.954964e+01 2.975272e-01 8.340622e-01 7.427806e-01 1.016412e+00 8.721550e-01 1.185793e+00 1.172020e+00 1.284547e+00 1.034599e+00 1.030806e+00 8.863143e-01 8.862377e-01 7.109069e-04
<GCONST> 7.570950e+01
<MIXTURE> 60 4.479129e-03
<MEAN> 25
 -4.176975e+00 -6.094319e-01 -1.102496e+00 3.724397e+00 1.842157e+00 2.111476e+00 1.636868e+00 1.523178e+00 2.155309e+00 1.410654e+00 2.385464e+00 1.853916e+00 -2.517958e-02 6.136166e-02 9.954748e-02 1.435912e-01 1.577751e-01 1.306156e-01 1.649510e-01 3.591457e-01 5.680668e-01 6.685112e-01 5.528296e-01 2.942282e-01 -5.106576e-04
<VARIANCE> 25
 7.285294e+00 4.640077e+00 1.013379e+01 1.117827e+01 1.408582e+01 1.675968e+01 1.384151e+01 1.169729e+01 1.268399e+01 1.431020e+01 1.569623e+01 1.233216e+01 8.630596e-02 1.671470e-01 2.754544e-01 4.362503e-01 6.307247e-01 7.201074e-01 8.278230e-01 9.699515e-01 9.227759e-01 8.259709e-01 8.267178e-01 8.540258e-01 2.353406e-05
<GCONST> 5.657246e+01
<MIXTURE> 61 4.479129e-03
<MEAN> 25
 -4.176975e+00 -6.094319e-01 -1.102496e+00 3.724397e+00 1.842157e+00 2.111476e+00 1.636868e+00 1.523178e+00 2.155309e+00 1.410654e+00 2.385464e+00 1.853916e+00 -2.517958e-02 6.136166e-02 9.954748e-02 1.435912e-01 1.577751e-01 1.306156e-01 1.649510e-01 3.591457e-01 5.680668e-01 6.685112e-01 5.528296e-01 2.942282e-01 -5.106576e-04
<VARIANCE> 25
 7.285294e+00 4.640077e+00 1.013379e+01 1.117827e+01 1.408582e+01 1.675968e+01 1.384151e+01 1.169729e+01 1.268399e+01 1.431020e+01 1.569623e+01 1.233216e+01 8.630596e-02 1.671470e-01 2.754544e-01 4.362503e-01 6.307247e-01 7.201074e-01 8.278230e-01 9.699515e-01 9.227759e-01 8.259709e-01 8.267178e-01 8.540258e-01 2.353406e-05
<GCONST> 5.657246e+01
<MIXTURE> 62 3.278034e-03
<MEAN> 25
 -5.087872e+00 1.243368e+00 1.024666e+00 8.817593e+00 6.133062e+00 5.047901e+00 5.499838e+00 4.033444e+00 4.982222e+00 3.921229e+00 4.963664e+00 2.947871e+00 -1.002647e+00 -1.165906e+00 -9.529369e-01 -2.766742e-01 4.276050e-01 1.004291e+00 1.383500e+00 1.552500e+00 1.478853e+00 1.242857e+00 1.066569e+00 7.252731e-01 -1.267522e-03
<VARIANCE> 25
 9.883144e+00 9.961523e+00 1.311170e+01 1.672730e+01 1.741047e+01 1.753086e+01 1.970758e+01 1.911641e+01 1.888788e+01 1.873341e+01 2.156361e+01 1.480344e+01 4.022015e-01 4.328067e-01 5.540634e-01 7.795334e-01 1.036126e+00 1.192927e+00 1.253836e+00 1.278623e+00 1.329069e+00 1.364137e+00 1.399829e+00 1.371974e+00 1.632994e-05
<GCONST> 6.753549e+01
<MIXTURE> 63 4.351215e-03
<MEAN> 25
 -3.698109e+00 -9.978686e-01 -4.239274e+00 2.803981e+00 4.120449e+00 1.950953e-01 4.027428e+00 1.054675e+00 5.595231e-01 -6.988811e-01 -1.023004e+00 1.935584e+00 -9.344842e-02 3.267079e-01 5.246184e-01 5.925532e-01 3.053859e-01 1.545149e-01 3.209596e-01 1.382195e-01 4.112350e-01 3.488564e-01 2.052131e-01 3.254810e-02 -5.191410e-03
<VARIANCE> 25
 7.823710e+00 1.862955e+01 1.415982e+01 1.561758e+01 1.945678e+01 2.553616e+01 2.442079e+01 2.489933e+01 5.571622e+01 2.562191e+01 1.822792e+01 1.430307e+01 2.275151e-01 3.610549e-01 5.818852e-01 6.713505e-01 1.011484e+00 1.526011e+00 1.328666e+00 1.347892e+00 1.630327e+00 1.291766e+00 1.143706e+00 1.058270e+00 1.769116e-04
<GCONST> 7.164678e+01
<MIXTURE> 64 4.351215e-03
<MEAN> 25
 -3.698109e+00 -9.978686e-01 -4.239274e+00 2.803981e+00 4.120449e+00 1.950953e-01 4.027428e+00 1.054675e+00 5.595231e-01 -6.988811e-01 -1.023004e+00 1.935584e+00 -9.344842e-02 3.267079e-01 5.246184e-01 5.925532e-01 3.053859e-01 1.545149e-01 3.209596e-01 1.382195e-01 4.112350e-01 3.488564e-01 2.052131e-01 3.254810e-02 -5.191410e-03
<VARIANCE> 25
 7.823710e+00 1.862955e+01 1.415982e+01 1.561758e+01 1.945678e+01 2.553616e+01 2.442079e+01 2.489933e+01 5.571622e+01 2.562191e+01 1.822792e+01 1.430307e+01 2.275151e-01 3.610549e-01 5.818852e-01 6.713505e-01 1.011484e+00 1.526011e+00 1.328666e+00 1.347892e+00 1.630327e+00 1.291766e+00 1.143706e+00 1.058270e+00 1.769116e-04
<GCONST> 7.164678e+01
<MIXTURE> 65 1.721197e-02
<MEAN> 25
 6.532932e+00 1.715808e+00 1.499849e+00 1.242116e+00 -4.759016e+00 -5.192603e+00 -4.732785e+00 -7.629834e+00 -9.449856e-01 -2.810911e+00 -4.442594e+00 -1.797713e+00 2.223597e-01 1.881727e-01 2.089311e-01 1.111385e-01 -1.981729e-01 3.687831e-02 -1.546215e-01 -4.911728e-01 -2.857702e-01 1.855496e-01 -2.990044e-02 -6.023370e-02 -5.163119e-03
<VARIANCE> 25
 1.583835e+01 1.719221e+01 2.223666e+01 4.534922e+01 3.721934e+01 5.530033e+01 5.432467e+01 6.700281e+01 7.738335e+01 5.566508e+01 5.310696e+01 4.299377e+01 5.227784e-01 8.417878e-01 1.534309e+00 1.737159e+00 2.103656e+00 2.448494e+00 2.206836e+00 3.346102e+00 3.576361e+00 2.668050e+00 2.055298e+00 1.920120e+00 3.874327e-04
<GCONST> 8.997130e+01
<MIXTURE> 66 1.191532e-02
<MEAN> 25
 5.678061e+00 -3.508586e+00 -6.066212e+00 -5.204128e+00 1.457723e+00 -3.836571e+00 -5.822518e+00 8.342093e-01 6.170417e-01 -2.363835e+00 -5.675405e+00 -3.275137e+00 -4.120090e-02 1.536072e+00 2.104034e+00 2.424644e+00 -1.139240e+00 -1.279974e+00 3.210273e-01 -8.934680e-01 -1.569904e-01 -1.568639e-01 -3.699834e-01 9.060397e-01 -6.104969e-02
<VARIANCE> 25
 1.389927e+01 2.181048e+01 2.717904e+01 3.143114e+01 3.677264e+01 5.837094e+01 5.808997e+01 4.570415e+01 5.719872e+01 6.609074e+01 3.496561e+01 3.332905e+01 1.137952e+00 2.373602e+00 2.315147e+00 2.288636e+00 3.835809e+00 3.840513e+00 4.322271e+00 5.327521e+00 4.481377e+00 4.470577e+00 3.718834e+00 2.981736e+00 1.353793e-03
<GCONST> 9.655177e+01
<MIXTURE> 67 1.559142e-02
<MEAN> 25
 8.035009e+00 2.119377e+00 -5.376149e+00 -8.442609e+00 1.194616e+00 4.110550e+00 -1.846941e+00 -1.696085e+00 -4.502147e+00 9.351901e-01 -4.937530e-02 -1.279701e+00 -9.375778e-01 1.791656e+00 7.157148e-01 2.974644e+00 1.334987e+00 -6.133184e-01 1.387227e+00 2.577179e-01 -8.685218e-02 4.002133e-01 -2.876065e-01 5.159132e-01 -1.209240e-01
<VARIANCE> 25
 1.411850e+01 3.356488e+01 2.977460e+01 4.840344e+01 4.320417e+01 5.198420e+01 6.254962e+01 4.804828e+01 6.075233e+01 4.952101e+01 5.057130e+01 4.651916e+01 1.925630e+00 2.951753e+00 3.661098e+00 3.960974e+00 4.084590e+00 4.085709e+00 4.060537e+00 5.096344e+00 5.149931e+00 4.224302e+00 4.397388e+00 3.233600e+00 2.936647e-03
<GCONST> 1.010390e+02
<MIXTURE> 68 1.485092e-02
<MEAN> 25
 -2.066363e+00 -1.624463e+00 -4.092679e+00 8.929173e-01 4.946380e+00 -7.271293e-01 2.054479e+00 1.666100e+00 1.573199e+00 1.878953e+00 3.916339e-01 1.912424e+00 2.671598e+00 3.810165e-01 9.504961e-02 -2.629260e+00 -2.393756e+00 -1.389466e+00 -2.370056e+00 -1.795404e+00 -1.338080e+00 -1.468841e+00 -1.759145e+00 -9.621773e-01 1.024997e-01
<VARIANCE> 25
 2.560831e+01 3.551353e+01 5.380016e+01 5.578061e+01 4.667360e+01 5.249614e+01 4.233105e+01 4.375561e+01 4.135727e+01 4.051373e+01 3.442017e+01 2.476426e+01 1.883129e+00 3.880215e+00 5.522819e+00 6.484350e+00 4.339383e+00 5.784569e+00 5.760170e+00 5.063190e+00 5.880339e+00 4.888587e+00 5.225937e+00 3.364627e+00 5.955420e-03
<GCONST> 1.035315e+02
<MIXTURE> 69 1.204884e-02
<MEAN> 25
 4.654335e+00 -4.205291e+00 -3.557910e+00 -3.599324e+00 -3.478629e+00 -7.855857e+00 -1.125400e+00 2.227501e+00 -3.397259e-01 -4.697598e+00 -5.658468e+00 9.576337e-01 1.671620e+00 -2.232902e+00 -1.328717e+00 -2.236430e+00 -5.335368e-01 -3.521033e-01 -4.781427e-01 6.180010e-01 -6.301436e-01 -1.466117e+00 -2.186264e+00 -1.647442e-01 6.261390e-02
<VARIANCE> 25
 8.896461e+00 2.182557e+01 2.664811e+01 2.727041e+01 4.271849e+01 3.573492e+01 4.888295e+01 3.175981e+01 3.966964e+01 3.808913e+01 3.111315e+01 2.458678e+01 3.541981e+00 2.910190e+00 3.340026e+00 3.730515e+00 5.746332e+00 5.036511e+00 7.085307e+00 6.072578e+00 5.915272e+00 5.845933e+00 4.383730e+00 3.705186e+00 2.441226e-03
<GCONST> 9.874109e+01
<MIXTURE> 70 1.329190e-02
<MEAN> 25
 5.251211e+00 -1.424971e+00 -2.657836e+00 -3.545815e+00 -8.987652e-01 -1.922132e+00 -7.965455e+00 -5.310655e+00 2.552810e+00 3.977932e+00 6.455578e-01 -4.508494e+00 1.760908e+00 -1.467497e+00 -4.766965e-01 -2.157161e+00 -1.643135e+00 1.028254e+00 -1.467269e+00 -2.251821e-02 9.985049e-01 -1.309728e-01 1.022265e+00 -1.676262e+00 5.830772e-02
<VARIANCE> 25
 1.662861e+01 1.816046e+01 2.402131e+01 6.285940e+01 2.966652e+01 3.768350e+01 3.793725e+01 4.644894e+01 4.330271e+01 2.765495e+01 3.412527e+01 2.297846e+01 2.923030e+00 2.532594e+00 3.745309e+00 4.861420e+00 3.750385e+00 4.973634e+00 5.557716e+00 5.683479e+00 5.595773e+00 4.802159e+00 4.374359e+00 4.270319e+00 1.852280e-03
<GCONST> 9.843294e+01
<MIXTURE> 71 1.406903e-02
<MEAN> 25
 4.966787e+00 4.780642e+00 3.756760e+00 2.319144e+00 -2.771334e+00 -4.223372e+00 -3.189285e+00 -8.702673e+00 -3.602684e+00 -1.398595e+00 -4.667958e+00 -1.938667e+00 -1.417992e+00 -7.359994e-01 -1.221561e-01 -1.847914e+00 1.204893e+00 -1.258371e-01 -4.667518e-01 1.604773e+00 -6.484127e-04 3.313425e-01 6.917312e-01 3.073665e-01 4.022348e-02
<VARIANCE> 25
 2.302086e+01 2.210233e+01 2.141392e+01 4.358254e+01 3.736334e+01 3.619824e+01 3.761072e+01 6.037058e+01 4.046566e+01 4.229183e+01 3.129851e+01 3.570055e+01 1.523944e+00 2.613837e+00 4.369967e+00 4.173800e+00 4.123218e+00 3.953595e+00 4.922117e+00 4.518522e+00 5.286844e+00 4.704570e+00 3.007149e+00 3.116944e+00 1.296657e-03
<GCONST> 9.740151e+01
<MIXTURE> 72 8.134747e-03
<MEAN> 25
 3.720954e+00 -3.621038e+00 5.379004e+00 -2.509716e+00 -1.029800e+01 -9.413711e+00 -2.471242e+00 1.975498e+00 -4.819413e+00 -2.229008e+00 -1.842086e+00 6.276052e-01 9.216140e-01 -7.753062e-01 -2.565298e+00 4.537122e-01 2.123682e+00 -6.338387e-01 -1.296757e+00 1.555229e+00 1.802383e+00 -6.032146e-01 -1.275972e+00 4.112331e-01 -6.085603e-03
<VARIANCE> 25
 1.085718e+01 1.945432e+01 3.327429e+01 4.376637e+01 3.278935e+01 3.541692e+01 4.040985e+01 3.606130e+01 4.445310e+01 4.088863e+01 3.877362e+01 2.820137e+01 4.338291e-01 1.025651e+00 2.000476e+00 1.460287e+00 2.172681e+00 2.415483e+00 3.063928e+00 2.780787e+00 2.570256e+00 3.001828e+00 2.018188e+00 2.116073e+00 5.526530e-04
<GCONST> 8.748421e+01
<MIXTURE> 73 1.213625e-02
<MEAN> 25
 -5.366742e+00 -5.367928e-01 -1.406374e+00 4.764389e+00 4.184735e+00 2.155202e+00 5.469956e+00 3.632602e+00 4.023336e+00 3.498314e+00 3.973174e+00 2.886344e+00 8.836296e-01 -1.021737e+00 -8.483599e-01 -2.731063e+00 -1.354337e+00 -1.559856e+00 -9.323452e-01 -4.066087e-01 -7.186229e-01 -7.451711e-01 -9.757844e-01 -1.861098e-01 1.539080e-01
<VARIANCE> 25
 1.373149e+01 1.402128e+01 1.469444e+01 2.262784e+01 2.233171e+01 2.425934e+01 1.980560e+01 1.966850e+01 1.939112e+01 1.823063e+01 2.338275e+01 1.543676e+01 4.002506e+00 2.951240e+00 5.868491e+00 4.769736e+00 6.054968e+00 5.167787e+00 4.117576e+00 4.269957e+00 4.522588e+00 4.085064e+00 3.682739e+00 2.726549e+00 4.135781e-03
<GCONST> 9.287659e+01
<MIXTURE> 74 1.756491e-02
<MEAN> 25
 3.464919e+00 -2.000847e+00 5.113633e+00 7.192714e-01 -7.210266e+00 -9.092515e+00 -2.975868e+00 5.378066e-01 -2.955098e+00 -3.285400e+00 -1.410702e+00 3.579584e-01 3.254760e-01 1.994653e+00 -1.787225e-01 1.568414e+00 1.200269e+00 4.890424e-01 4.934654e-01 -7.011631e-01 -2.248994e-01 2.565285e-01 -3.367717e-01 -1.066714e-01 -7.469220e-02
<VARIANCE> 25
 1.297917e+01 1.945560e+01 3.387060e+01 6.116704e+01 3.823251e+01 5.342033e+01 4.624493e+01 5.044102e+01 4.747298e+01 4.751528e+01 3.769207e+01 4.540182e+01 1.710649e+00 1.788491e+00 3.492634e+00 2.424204e+00 3.389309e+00 3.457299e+00 5.059089e+00 5.064800e+00 4.149630e+00 3.613831e+00 3.305970e+00 2.662826e+00 1.536759e-03
<GCONST> 9.702127e+01
<MIXTURE> 75 9.711651e-03
<MEAN> 25
 2.583819e+00 -1.265538e+00 1.098485e+01 1.860355e+00 -1.177271e+01 -7.558531e+00 -4.671694e+00 -5.187051e-01 -4.406079e+00 -4.565110e+00 3.222193e+00 1.515685e-01 1.731688e+00 -1.746616e+00 1.999589e-01 -2.685885e-01 -2.374783e+00 -5.048792e-01 -1.446297e+00 9.576598e-01 -1.574793e-01 -3.521335e-01 1.092529e+00 -6.300113e-01 3.825752e-02
<VARIANCE> 25
 1.146345e+01 1.765086e+01 3.057312e+01 2.899482e+01 2.728913e+01 3.353165e+01 3.156750e+01 3.095069e+01 3.434026e+01 3.229130e+01 2.041521e+01 2.179162e+01 2.400565e+00 1.908070e+00 4.241073e+00 2.509887e+00 3.923432e+00 4.396838e+00 4.182907e+00 3.483210e+00 3.921346e+00 3.356014e+00 3.113432e+00 2.516286e+00 1.556495e-03
<GCONST> 9.244058e+01
<MIXTURE> 76 1.052359e-02
<MEAN> 25
 -4.965976e+00 -6.072925e-01 -2.779569e+00 3.713893e+00 5.343330e+00 1.248950e+00 3.846491e+00 3.032269e+00 1.270508e+00 1.448339e+00 1.603445e+00 1.277100e+00 -1.711639e-02 -5.716798e-01 -3.384902e-01 -4.947219e-01 -5.857067e-01 -1.102185e+00 -7.583317e-01 -2.739672e-01 -4.101588e-01 -5.370209e-01 -1.955530e-01 -9.951732e-02 1.804373e-02
<VARIANCE> 25
 3.663568e+01 2.594371e+01 2.463246e+01 4.405308e+01 3.077102e+01 3.531382e+01 2.785419e+01 2.543861e+01 2.992028e+01 2.748576e+01 2.641619e+01 2.203101e+01 9.462886e-01 1.026033e+00 1.267117e+00 1.618857e+00 1.356254e+00 1.638219e+00 1.562613e+00 1.481725e+00 1.548373e+00 1.761136e+00 1.492017e+00 1.273400e+00 1.198744e-03
<GCONST> 8.367143e+01
<MIXTURE> 77 1.244626e-02
<MEAN> 25
 -9.369314e-01 7.721178e+00 1.251668e+01 -1.012004e+01 -7.473468e+00 1.213117e+00 -9.805028e+00 -6.853402e+00 -2.700858e+00 -8.151879e-01 -4.807827e+00 -6.837127e-01 6.990321e-02 8.201860e-02 4.087086e-02 2.498564e-01 -1.456476e-01 1.224818e-01 -1.178184e-02 -1.195115e-01 1.964436e-02 1.044464e-01 4.979482e-03 6.124859e-02 -1.039067e-02
<VARIANCE> 25
 1.216748e+01 2.695674e+01 2.565626e+01 6.379151e+01 3.342464e+01 3.204418e+01 3.717839e+01 3.110697e+01 3.789113e+01 3.535857e+01 3.515725e+01 3.983213e+01 2.798057e-01 7.624428e-01 6.139580e-01 1.026894e+00 1.343110e+00 9.451120e-01 1.187273e+00 1.062219e+00 1.023438e+00 1.258981e+00 9.107604e-01 9.530869e-01 5.114503e-04
<GCONST> 7.861274e+01
<MIXTURE> 78 9.702551e-03
<MEAN> 25
 -1.041757e+01 1.786656e+00 -1.448688e+00 3.518146e+00 4.429045e+00 -2.967821e+00 4.303882e+00 3.387327e+00 1.752754e+00 -1.428218e-02 -9.744915e-01 3.254810e+00 2.167701e+00 -2.572797e-01 2.279896e-01 4.332212e-01 1.142273e-01 1.644612e-01 -1.905922e-01 -2.489784e-01 1.218825e-01 3.115011e-01 -3.075339e-01 -5.241790e-01 -6.002147e-02
<VARIANCE> 25
 4.553152e+01 3.227672e+01 3.045360e+01 4.162637e+01 3.571370e+01 3.764088e+01 3.483535e+01 3.474254e+01 3.179684e+01 3.081261e+01 2.677584e+01 1.940786e+01 4.720458e+00 2.481144e+00 2.663657e+00 3.004118e+00 2.795221e+00 3.643124e+00 3.607196e+00 2.783362e+00 2.342777e+00 2.408879e+00 2.111368e+00 2.012250e+00 4.397283e-03
<GCONST> 9.474526e+01
<MIXTURE> 79 1.156824e-02
<MEAN> 25
 8.546098e-01 -1.561905e-01 9.050275e+00 -2.846435e+00 -1.124742e+01 -6.841105e-01 -3.579768e+00 -5.843749e+00 -4.894835e+00 1.549415e-03 -2.263371e+00 -2.820706e+00 1.134819e+00 -2.673184e-01 -1.195624e+00 2.186574e+00 6.145914e-01 -1.268399e+00 1.042869e+00 1.035338e+00 -1.083360e+00 -2.310384e-01 7.065295e-01 -1.421989e-01 -3.761724e-02
<VARIANCE> 25
 1.656954e+01 2.289567e+01 3.592159e+01 8.480370e+01 3.609448e+01 4.303662e+01 4.125478e+01 2.977875e+01 4.036406e+01 2.982972e+01 3.825072e+01 3.130582e+01 7.295738e-01 1.768691e+00 1.553102e+00 1.662708e+00 2.073828e+00 2.482556e+00 2.711627e+00 2.773072e+00 2.591630e+00 2.312455e+00 2.801709e+00 2.148535e+00 9.105369e-04
<GCONST> 8.999425e+01
<MIXTURE> 80 7.550998e-03
<MEAN> 25
 -1.460846e+01 3.983062e+00 6.886477e-01 2.865987e+00 2.449512e+00 1.410160e+00 6.396974e+00 2.496796e+00 2.719359e+00 2.373409e+00 4.852621e+00 1.187009e+00 4.286275e+00 -1.604059e-02 1.637932e+00 -1.135493e+00 -2.889421e+00 -2.777514e+00 -2.323265e+00 -2.021514e+00 -1.974904e+00 -1.685063e+00 -1.650785e+00 -6.027916e-01 -4.423034e-02
<VARIANCE> 25
 2.095072e+01 1.984665e+01 3.444469e+01 3.470704e+01 3.018069e+01 2.920876e+01 2.828599e+01 2.855436e+01 2.674795e+01 2.881087e+01 2.685553e+01 1.810653e+01 2.357304e+00 2.666173e+00 2.673065e+00 4.119933e+00 3.394124e+00 2.705141e+00 3.025389e+00 3.204058e+00 2.749732e+00 2.702257e+00 2.782246e+00 2.145753e+00 1.512259e-03
<GCONST> 9.139733e+01
<MIXTURE> 81 8.025434e-03
<MEAN> 25
 -1.181872e+00 3.832197e+00 9.785895e+00 -1.465148e+01 -8.791574e+00 -1.532620e+00 -6.798686e+00 -8.531766e+00 -3.866698e+00 -3.108786e-01 -7.294675e+00 -2.190275e+00 1.274284e-01 -6.204216e-01 -1.802443e-02 -5.646815e-01 -4.472550e-01 3.415750e-01 2.872765e-01 2.088004e-01 -1.061716e-01 7.562831e-02 -4.302614e-01 -1.823379e-01 1.230171e-02
<VARIANCE> 25
 1.004343e+01 3.334526e+01 2.963729e+01 3.074326e+01 3.556694e+01 3.065240e+01 4.416920e+01 2.811226e+01 4.068649e+01 3.184503e+01 2.674092e+01 3.242031e+01 7.547882e-01 2.233737e+00 1.509048e+00 2.911947e+00 2.585984e+00 2.059434e+00 3.326203e+00 2.422310e+00 2.448103e+00 2.572838e+00 2.269203e+00 2.152557e+00 1.198627e-03
<GCONST> 8.908714e+01
<MIXTURE> 82 8.213053e-03
<MEAN> 25
 -9.959339e+00 -3.047520e+00 1.196582e+00 -2.837709e+00 2.895282e+00 3.093473e-01 2.195241e+00 8.630662e-01 2.428122e+00 1.795153e+00 1.570712e+00 3.221569e+00 -1.234288e+00 -1.715430e-01 3.226835e-01 -2.660926e+00 -1.150389e+00 -1.170348e+00 -1.158164e+00 -1.030400e+00 -1.390727e-01 -4.601638e-01 -2.821135e-01 -9.632945e-02 1.766192e-01
<VARIANCE> 25
 1.720004e+01 3.579291e+01 3.384777e+01 2.967706e+01 3.211729e+01 3.268882e+01 3.227495e+01 3.221624e+01 3.433786e+01 2.388684e+01 2.972489e+01 1.692538e+01 3.701514e+00 2.966806e+00 3.162613e+00 3.197696e+00 3.419235e+00 3.249929e+00 3.143936e+00 3.408012e+00 3.144004e+00 2.360758e+00 2.346868e+00 1.785341e+00 3.314101e-03
<GCONST> 9.333271e+01
<MIXTURE> 83 1.167529e-02
<MEAN> 25
 -2.004081e+01 5.504238e+00 -1.789702e+00 -4.051103e-01 7.829639e+00 -1.234488e+00 5.460100e+00 3.044532e+00 1.192393e+00 2.190908e+00 7.244872e-01 2.881716e+00 -2.631321e-02 -4.501706e-01 4.872012e-03 -3.655977e-01 -4.974648e-01 -1.258521e-01 -1.343577e-01 -9.942717e-02 -4.144356e-02 -3.920248e-02 -3.058213e-02 -3.465528e-02 4.403248e-03
<VARIANCE> 25
 8.819281e+00 1.645402e+01 2.851271e+01 2.248555e+01 2.127508e+01 2.407955e+01 2.202746e+01 2.336420e+01 2.042958e+01 2.221887e+01 2.319599e+01 1.448780e+01 1.060910e+00 9.362046e-01 1.240790e+00 1.065688e+00 1.359398e+00 1.291389e+00 1.283447e+00 1.388157e+00 1.349015e+00 1.310737e+00 1.220778e+00 1.071650e+00 8.923843e-04
<GCONST> 7.703519e+01
<MIXTURE> 84 1.066614e-02
<MEAN> 25
 1.108987e+00 8.664127e+00 7.212202e+00 8.258942e+00 2.736622e+00 -9.234540e-01 -1.355193e+00 -3.950130e+00 -4.105758e+00 -2.927050e+00 -2.488757e+00 -1.414104e+00 -1.687080e+00 -1.075134e+00 -1.185919e+00 1.181268e+00 2.256654e+00 1.476163e+00 1.460210e+00 1.250189e+00 1.110202e+00 4.013481e-01 2.786572e-01 3.405046e-01 -7.104851e-02
<VARIANCE> 25
 2.250146e+01 2.010265e+01 2.085534e+01 2.460228e+01 2.837840e+01 2.755350e+01 2.782808e+01 3.086277e+01 2.440556e+01 2.433052e+01 2.274590e+01 2.427823e+01 2.194695e+00 2.711417e+00 3.699423e+00 3.371748e+00 3.143284e+00 3.251158e+00 3.215208e+00 3.311346e+00 3.395552e+00 3.134900e+00 3.930693e+00 2.841232e+00 3.378330e-03
<GCONST> 9.250405e+01
<MIXTURE> 85 7.591393e-03
<MEAN> 25
 -3.133564e+00 7.907028e+00 5.681449e+00 1.277426e+00 -3.485535e+00 -5.327671e+00 -2.957420e+00 -6.110799e+00 -3.550414e+00 -3.165034e+00 -4.855474e-01 -1.874617e+00 3.931594e+00 3.180132e-01 1.754102e+00 -2.098492e+00 -3.409427e+00 -2.571797e+00 -2.890223e+00 -2.348789e+00 -2.229988e+00 -1.259097e+00 -2.291808e+00 -6.154712e-01 9.704133e-03
<VARIANCE> 25
 4.248514e+01 2.344379e+01 3.682886e+01 3.815158e+01 3.962846e+01 4.105909e+01 3.219716e+01 2.789314e+01 2.672098e+01 2.613589e+01 2.613809e+01 2.065644e+01 2.731990e+00 4.323145e+00 4.044010e+00 5.184178e+00 4.398958e+00 3.901889e+00 3.845402e+00 3.986242e+00 3.936597e+00 4.035138e+00 3.957714e+00 3.472968e+00 5.495829e-03
<GCONST> 9.840022e+01
<MIXTURE> 86 1.273941e-02
<MEAN> 25
 -4.912390e+00 -1.149672e+00 -8.015926e-01 6.329894e+00 5.048913e+00 4.622405e+00 5.328980e+00 4.616098e+00 4.629899e+00 3.982493e+00 5.263156e+00 2.637478e+00 -4.318148e-03 -6.541673e-03 -4.210275e-02 -6.667399e-02 -1.168873e-01 -1.942164e-01 -2.663212e-01 -3.157616e-01 -3.395006e-01 -3.237746e-01 -2.273238e-01 -1.173109e-01 -5.907353e-04
<VARIANCE> 25
 8.131973e+00 5.878012e+00 9.870647e+00 1.227585e+01 1.581238e+01 1.445140e+01 1.379392e+01 1.312064e+01 1.331917e+01 1.464035e+01 1.463810e+01 1.305739e+01 1.001121e-01 1.915344e-01 3.174701e-01 4.925508e-01 6.583700e-01 7.370597e-01 7.357384e-01 7.785709e-01 8.427446e-01 8.836348e-01 9.029539e-01 9.050240e-01 5.348503e-05
<GCONST> 5.834439e+01
<MIXTURE> 87 1.100681e-02
<MEAN> 25
 -2.974566e+00 4.316147e+00 3.068992e+00 7.109400e+00 5.442700e+00 4.141451e-01 1.469751e+00 -5.968748e-02 -1.175893e+00 -3.521263e-01 -1.107378e+00 1.959622e-01 -1.792011e+00 -2.632678e+00 -1.880635e+00 -2.068315e+00 -1.839531e-01 -2.374408e-01 2.725230e-01 1.237523e+00 1.422622e+00 9.735440e-01 9.711363e-01 1.132855e+00 1.002084e-01
<VARIANCE> 25
 3.538954e+01 2.695985e+01 2.707385e+01 3.285376e+01 2.599193e+01 3.054889e+01 2.706496e+01 3.291497e+01 2.864432e+01 2.448742e+01 2.371257e+01 2.187793e+01 4.390553e+00 2.607749e+00 3.992386e+00 4.018445e+00 4.664500e+00 4.263619e+00 4.513864e+00 3.578305e+00 3.247011e+00 3.269397e+00 3.023672e+00 2.716972e+00 4.730482e-03
<GCONST> 9.597219e+01
<MIXTURE> 88 1.256585e-02
<MEAN> 25
 -3.715365e+00 -4.534630e-01 -1.371796e+00 5.655382e+00 4.846094e+00 2.947774e+00 4.440223e+00 3.418073e+00 3.077827e+00 2.660589e+00 2.691221e+00 2.120056e+00 7.203229e-02 1.495939e-01 1.422677e-01 4.769661e-01 2.703434e-01 7.626218e-03 -1.147271e-01 -1.307386e-01 -2.550031e-01 -2.592787e-01 -6.772423e-02 -1.337016e-02 -5.286314e-03
<VARIANCE> 25
 1.165878e+01 1.082352e+01 1.512008e+01 1.623992e+01 1.968147e+01 2.188738e+01 1.936034e+01 1.823612e+01 2.003078e+01 2.070055e+01 2.093798e+01 1.765104e+01 1.245996e+00 1.612469e+00 2.064602e+00 2.331854e+00 2.478619e+00 2.879365e+00 2.589802e+00 2.429810e+00 2.376107e+00 2.677069e+00 2.243718e+00 1.984761e+00 1.506067e-03
<GCONST> 8.307975e+01
<MIXTURE> 89 9.333527e-03
<MEAN> 25
 5.548240e+00 -6.703407e+00 -3.018942e+00 -1.584158e+00 -1.135518e+00 -6.592561e+00 -6.253435e+00 3.920377e+00 3.771921e+00 -2.931046e+00 -4.837651e+00 -2.827596e+00 -6.010618e-01 9.433915e-02 1.952337e+00 8.492299e-01 -1.694656e+00 -1.616158e+00 8.447908e-01 1.082199e+00 -5.386089e-01 -1.448024e+00 4.501562e-01 1.424109e+00 -3.352994e-03
<VARIANCE> 25
 1.090981e+01 2.412483e+01 3.133766e+01 4.998856e+01 3.443823e+01 4.710567e+01 5.462100e+01 4.104309e+01 3.789847e+01 3.912897e+01 4.624483e+01 3.635560e+01 3.514933e-01 8.225560e-01 1.341254e+00 1.255697e+00 1.984247e+00 1.959897e+00 2.383349e+00 2.162160e+00 2.719937e+00 2.120957e+00 2.128864e+00 1.428845e+00 3.670439e-04
<GCONST> 8.594516e+01
<MIXTURE> 90 7.114505e-03
<MEAN> 25
 2.439916e+00 -9.706468e+00 -4.753593e+00 -3.971381e+00 -3.376314e+00 -1.809543e+00 3.368284e+00 1.166000e+00 -7.496590e+00 -1.021659e+01 -3.426087e+00 -7.381833e-01 -1.630300e-01 9.077251e-01 1.169716e+00 -8.501974e-01 -1.612185e+00 -2.144420e-01 6.438314e-01 -2.115923e-01 -1.642484e-01 7.371925e-01 1.826452e-01 -5.484927e-01 -1.113951e-02
<VARIANCE> 25
 8.523559e+00 1.791098e+01 1.978532e+01 2.811471e+01 3.681744e+01 3.222007e+01 3.847345e+01 3.650579e+01 3.590780e+01 2.768023e+01 2.696849e+01 2.609657e+01 2.236829e-01 6.128663e-01 7.861797e-01 1.049877e+00 1.469369e+00 1.596163e+00 1.780123e+00 1.654559e+00 1.822506e+00 1.676751e+00 1.493136e+00 1.307760e+00 2.148510e-04
<GCONST> 7.817489e+01
<MIXTURE> 91 7.852945e-03
<MEAN> 25
 5.316228e+00 -6.673974e+00 -7.671032e+00 -6.296793e+00 2.891019e+00 1.677855e+00 -1.092551e+00 3.209692e-01 8.555300e-01 -1.756646e+00 -4.317971e+00 -4.931883e+00 2.064212e-01 1.205104e+00 8.227712e-02 6.095915e-01 1.505609e-01 -5.422519e-01 -1.679703e-01 6.345753e-02 -3.505222e-01 4.275114e-01 -1.974676e-01 1.282785e-01 -3.842949e-02
<VARIANCE> 25
 1.205098e+01 2.324173e+01 2.025047e+01 4.879805e+01 3.552149e+01 6.613118e+01 4.810302e+01 3.926289e+01 4.823656e+01 6.224487e+01 3.328775e+01 3.529594e+01 3.878393e-01 1.003392e+00 1.087364e+00 1.385539e+00 1.954762e+00 2.374605e+00 2.235890e+00 2.648671e+00 2.260293e+00 2.047006e+00 1.717494e+00 1.638939e+00 5.676770e-04
<GCONST> 8.673212e+01
<MIXTURE> 92 7.852945e-03
<MEAN> 25
 5.316228e+00 -6.673974e+00 -7.671032e+00 -6.296793e+00 2.891019e+00 1.677855e+00 -1.092551e+00 3.209692e-01 8.555300e-01 -1.756646e+00 -4.317971e+00 -4.931883e+00 2.064212e-01 1.205104e+00 8.227712e-02 6.095915e-01 1.505609e-01 -5.422519e-01 -1.679703e-01 6.345753e-02 -3.505222e-01 4.275114e-01 -1.974676e-01 1.282785e-01 -3.842949e-02
<VARIANCE> 25
 1.205098e+01 2.324173e+01 2.025047e+01 4.879805e+01 3.552149e+01 6.613118e+01 4.810302e+01 3.926289e+01 4.823656e+01 6.224487e+01 3.328775e+01 3.529594e+01 3.878393e-01 1.003392e+00 1.087364e+00 1.385539e+00 1.954762e+00 2.374605e+00 2.235890e+00 2.648671e+00 2.260293e+00 2.047006e+00 1.717494e+00 1.638939e+00 5.676770e-04
<GCONST> 8.673212e+01
<MIXTURE> 93 6.122769e-03
<MEAN> 25
 -6.819829e+00 -9.538170e-01 -2.403980e+00 5.795646e+00 5.909754e+00 3.916604e+00 6.124953e+00 3.609088e+00 4.104705e+00 2.511018e+00 1.813845e+00 3.702821e+00 -6.161992e-02 -1.542504e-01 -2.575029e-01 -3.326913e-01 -3.336766e-01 -2.820386e-01 -2.157053e-01 -1.730351e-01 -1.675957e-01 -1.525618e-01 -1.056718e-01 -3.402992e-02 -4.250157e-06
<VARIANCE> 25
 9.113015e+00 6.065780e+00 8.181453e+00 1.136149e+01 1.148069e+01 1.600147e+01 1.526389e+01 1.642883e+01 1.493323e+01 1.453560e+01 1.678408e+01 1.345301e+01 8.265070e-02 1.532175e-01 2.634787e-01 3.812259e-01 4.974203e-01 6.471530e-01 7.823834e-01 8.875353e-01 9.163045e-01 8.782330e-01 8.927532e-01 9.189367e-01 1.000045e-06
<GCONST> 5.363301e+01
<MIXTURE> 94 6.122769e-03
<MEAN> 25
 -6.819829e+00 -9.538170e-01 -2.403980e+00 5.795646e+00 5.909754e+00 3.916604e+00 6.124953e+00 3.609088e+00 4.104705e+00 2.511018e+00 1.813845e+00 3.702821e+00 -6.161992e-02 -1.542504e-01 -2.575029e-01 -3.326913e-01 -3.336766e-01 -2.820386e-01 -2.157053e-01 -1.730351e-01 -1.675957e-01 -1.525618e-01 -1.056718e-01 -3.402992e-02 -4.250157e-06
<VARIANCE> 25
 9.113015e+00 6.065780e+00 8.181453e+00 1.136149e+01 1.148069e+01 1.600147e+01 1.526389e+01 1.642883e+01 1.493323e+01 1.453560e+01 1.678408e+01 1.345301e+01 8.265070e-02 1.532175e-01 2.634787e-01 3.812259e-01 4.974203e-01 6.471530e-01 7.823834e-01 8.875353e-01 9.163045e-01 8.782330e-01 8.927532e-01 9.189367e-01 1.000045e-06
<GCONST> 5.363301e+01
<MIXTURE> 95 5.258835e-03
<MEAN> 25
 -5.658457e+00 -4.626184e-01 -1.990587e+00 4.827668e+00 4.295362e+00 2.788742e+00 4.454508e+00 1.651759e+00 1.823331e+00 9.766617e-01 1.101104e+00 2.452206e+00 1.400313e-01 1.482742e-01 1.096383e-01 -4.568795e-02 -3.677786e-01 -7.664770e-01 -1.076483e+00 -1.274856e+00 -1.215172e+00 -9.458936e-01 -6.484563e-01 -2.936200e-01 -3.999079e-04
<VARIANCE> 25
 1.057620e+01 8.185112e+00 1.184776e+01 1.265096e+01 1.371075e+01 1.775934e+01 1.947284e+01 1.661241e+01 1.902927e+01 1.529222e+01 1.954460e+01 1.441900e+01 2.039601e-01 2.857191e-01 4.596913e-01 6.542847e-01 8.095299e-01 9.358636e-01 9.101374e-01 9.014580e-01 9.989153e-01 1.101008e+00 1.128188e+00 1.083634e+00 4.233997e-05
<GCONST> 6.371338e+01
<MIXTURE> 96 7.034694e-03
<MEAN> 25
 -4.790711e+00 -5.841237e-02 -2.288982e+00 5.035961e+00 4.092688e+00 1.610755e+00 3.720883e+00 1.991561e+00 1.853707e+00 1.296473e+00 9.151350e-01 2.582787e+00 -2.198255e-02 8.884752e-02 1.847178e-01 3.397870e-01 5.281336e-01 5.411761e-01 2.931450e-01 -6.901725e-02 -4.811432e-01 -6.986252e-01 -6.193630e-01 -2.995544e-01 3.573412e-05
<VARIANCE> 25
 1.146450e+01 1.099175e+01 1.215915e+01 1.347178e+01 1.450281e+01 1.890430e+01 1.797073e+01 1.860259e+01 2.425952e+01 1.890395e+01 1.908932e+01 1.528391e+01 1.173398e-01 2.044313e-01 3.153394e-01 4.850005e-01 5.232835e-01 7.624992e-01 8.764673e-01 9.860972e-01 9.109889e-01 8.607199e-01 8.514596e-01 9.914155e-01 1.171698e-06
<GCONST> 5.836964e+01
<MIXTURE> 97 7.034694e-03
<MEAN> 25
 -4.790711e+00 -5.841237e-02 -2.288982e+00 5.035961e+00 4.092688e+00 1.610755e+00 3.720883e+00 1.991561e+00 1.853707e+00 1.296473e+00 9.151350e-01 2.582787e+00 -2.198255e-02 8.884752e-02 1.847178e-01 3.397870e-01 5.281336e-01 5.411761e-01 2.931450e-01 -6.901725e-02 -4.811432e-01 -6.986252e-01 -6.193630e-01 -2.995544e-01 3.573412e-05
<VARIANCE> 25
 1.146450e+01 1.099175e+01 1.215915e+01 1.347178e+01 1.450281e+01 1.890430e+01 1.797073e+01 1.860259e+01 2.425952e+01 1.890395e+01 1.908932e+01 1.528391e+01 1.173398e-01 2.044313e-01 3.153394e-01 4.850005e-01 5.232835e-01 7.624992e-01 8.764673e-01 9.860972e-01 9.109889e-01 8.607199e-01 8.514596e-01 9.914155e-01 1.171698e-06
<GCONST> 5.836964e+01
<MIXTURE> 98 9.917808e-03
<MEAN> 25
 -8.587979e-01 1.679983e+00 -6.901255e-01 3.761936e+00 3.916698e+00 2.248545e+00 4.673060e+00 2.280551e+00 -4.278945e-01 2.131562e+00 3.263941e-01 7.991441e-01 -1.556479e+00 -1.251535e+00 -7.938426e-01 1.890149e-01 8.272079e-01 3.514786e-01 6.665732e-01 1.355836e+00 1.321844e+00 1.221775e+00 1.495180e+00 1.042292e+00 -2.797369e-02
<VARIANCE> 25
 1.134560e+01 1.593750e+01 2.771437e+01 4.046968e+01 3.419357e+01 3.794150e+01 3.906079e+01 2.547163e+01 3.151359e+01 2.917470e+01 2.154005e+01 2.068974e+01 1.465527e+00 1.443790e+00 1.958505e+00 2.178728e+00 2.683912e+00 2.901368e+00 3.373139e+00 2.170946e+00 2.404604e+00 2.758502e+00 2.598258e+00 1.881768e+00 2.052457e-03
<GCONST> 8.869525e+01
<MIXTURE> 99 6.696178e-03
<MEAN> 25
 -5.822127e+00 9.413359e+00 6.316848e+00 4.166387e+00 1.505384e+00 -5.332731e+00 -8.388069e-01 -3.295272e+00 -3.986379e+00 -3.884622e+00 -1.700459e+00 7.875648e-01 5.446440e-01 -7.618831e-01 3.279192e-01 -4.105919e-01 -9.507737e-01 -4.206947e-01 -4.304759e-01 -3.289878e-01 -1.486344e-01 6.109868e-02 3.200479e-01 7.882278e-02 6.472816e-03
<VARIANCE> 25
 3.554070e+01 2.630370e+01 4.481525e+01 3.369651e+01 3.730827e+01 3.450636e+01 3.457481e+01 3.456614e+01 2.902337e+01 2.775708e+01 1.931230e+01 2.859484e+01 2.002525e+00 1.779745e+00 1.335443e+00 1.784434e+00 2.832974e+00 2.208080e+00 1.668724e+00 1.608348e+00 1.496284e+00 1.672891e+00 1.309454e+00 1.287848e+00 1.651193e-03
<GCONST> 8.735301e+01
<MIXTURE> 100 4.498084e-03
<MEAN> 25
 -1.598625e+00 6.343189e+00 1.027127e+01 -7.463490e+00 -1.077938e+01 -5.073052e+00 -4.940929e+00 -9.969715e+00 -4.712976e+00 -8.538097e-01 -2.731668e+00 -2.705888e+00 2.917478e+00 -1.260770e+00 1.299605e+00 -2.186840e+00 -3.418435e+00 -7.832663e-01 -1.219545e+00 -8.203350e-01 -1.474231e+00 3.462377e-01 -1.654291e+00 -2.865887e-01 2.045252e-03
<VARIANCE> 25
 1.362064e+01 2.105689e+01 2.251864e+01 2.644472e+01 2.302358e+01 2.373144e+01 2.910470e+01 2.170797e+01 2.753781e+01 2.265728e+01 2.241125e+01 2.135142e+01 1.799124e+00 3.953450e+00 2.918713e+00 4.290097e+00 4.185297e+00 4.537807e+00 4.016612e+00 4.340691e+00 4.173524e+00 3.896505e+00 3.912307e+00 3.224143e+00 1.677115e-03
<GCONST> 9.257857e+01
<MIXTURE> 101 6.007792e-03
<MEAN> 25
 7.894011e+00 -3.295762e+00 -5.938392e+00 -6.677254e+00 6.125695e-01 -1.281057e+00 -1.053004e+01 -2.329060e+00 1.746817e+00 3.015900e+00 -1.984072e+00 -5.200492e+00 7.054768e-01 6.097189e-01 -1.412925e+00 -1.654782e+00 9.393297e-01 2.249811e+00 2.419922e-01 -1.424010e+00 -1.056490e+00 9.827200e-01 1.372130e+00 -3.342955e-01 -3.665374e-03
<VARIANCE> 25
 9.704084e+00 1.669901e+01 3.126713e+01 4.178717e+01 3.573958e+01 3.427921e+01 3.568887e+01 3.602163e+01 3.643982e+01 4.382673e+01 5.282822e+01 2.333964e+01 3.014947e-01 6.734245e-01 1.162871e+00 1.522980e+00 1.783168e+00 2.094630e+00 2.046319e+00 1.930951e+00 2.243795e+00 2.173791e+00 1.715401e+00 1.984897e+00 3.558380e-04
<GCONST> 8.351068e+01
<MIXTURE> 102 6.007792e-03
<MEAN> 25
 7.894011e+00 -3.295762e+00 -5.938392e+00 -6.677254e+00 6.125695e-01 -1.281057e+00 -1.053004e+01 -2.329060e+00 1.746817e+00 3.015900e+00 -1.984072e+00 -5.200492e+00 7.054768e-01 6.097189e-01 -1.412925e+00 -1.654782e+00 9.393297e-01 2.249811e+00 2.419922e-01 -1.424010e+00 -1.056490e+00 9.827200e-01 1.372130e+00 -3.342955e-01 -3.665374e-03
<VARIANCE> 25
 9.704084e+00 1.669901e+01 3.126713e+01 4.178717e+01 3.573958e+01 3.427921e+01 3.568887e+01 3.602163e+01 3.643982e+01 4.382673e+01 5.282822e+01 2.333964e+01 3.014947e-01 6.734245e-01 1.162871e+00 1.522980e+00 1.783168e+00 2.094630e+00 2.046319e+00 1.930951e+00 2.243795e+00 2.173791e+00 1.715401e+00 1.984897e+00 3.558380e-04
<GCONST> 8.351068e+01
<MIXTURE> 103 5.694618e-03
<MEAN> 25
 3.325466e+00 -9.383302e+00 -6.148983e+00 -3.306521e+00 -1.363465e+00 -1.832370e+00 2.370529e+00 2.546427e+00 -4.445010e+00 -9.229444e+00 -4.977120e+00 3.787762e-01 -1.622943e-01 -1.474986e+00 -9.931824e-01 3.829131e-01 1.215674e+00 1.025529e+00 1.555565e-01 -2.387928e-01 -7.687460e-01 -9.553757e-01 -3.581670e-02 1.122046e-01 2.658999e-02
<VARIANCE> 25
 1.038209e+01 2.094162e+01 2.282151e+01 3.532716e+01 4.757133e+01 3.621839e+01 4.630191e+01 3.652892e+01 4.390890e+01 2.936419e+01 3.026643e+01 2.629356e+01 6.378831e-01 1.263901e+00 1.548054e+00 1.940007e+00 2.904678e+00 2.395540e+00 2.858377e+00 2.658950e+00 2.557000e+00 2.507812e+00 2.078473e+00 2.003294e+00 8.124970e-04
<GCONST> 8.776913e+01
<MIXTURE> 104 5.694618e-03
<MEAN> 25
 3.325466e+00 -9.383302e+00 -6.148983e+00 -3.306521e+00 -1.363465e+00 -1.832370e+00 2.370529e+00 2.546427e+00 -4.445010e+00 -9.229444e+00 -4.977120e+00 3.787762e-01 -1.622943e-01 -1.474986e+00 -9.931824e-01 3.829131e-01 1.215674e+00 1.025529e+00 1.555565e-01 -2.387928e-01 -7.687460e-01 -9.553757e-01 -3.581670e-02 1.122046e-01 2.658999e-02
<VARIANCE> 25
 1.038209e+01 2.094162e+01 2.282151e+01 3.532716e+01 4.757133e+01 3.621839e+01 4.630191e+01 3.652892e+01 4.390890e+01 2.936419e+01 3.026643e+01 2.629356e+01 6.378831e-01 1.263901e+00 1.548054e+00 1.940007e+00 2.904678e+00 2.395540e+00 2.858377e+00 2.658950e+00 2.557000e+00 2.507812e+00 2.078473e+00 2.003294e+00 8.124970e-04
<GCONST> 8.776913e+01
<MIXTURE> 105 4.710235e-03
<MEAN> 25
 5.087311e-01 -1.565590e+00 1.015366e+01 -4.656245e-01 -1.107564e+01 -3.198881e+00 -6.509898e+00 -6.541486e-01 -2.295198e+00 -4.944770e+00 4.137011e-01 5.568738e-01 -3.265239e-02 3.568009e-02 8.634643e-02 -1.766172e-02 -9.645800e-02 5.596852e-04 -9.400022e-02 6.901392e-02 -3.894264e-02 2.439815e-01 -7.719553e-02 -3.121621e-02 -1.285472e-03
<VARIANCE> 25
 2.054547e+01 2.295892e+01 3.694482e+01 5.339557e+01 3.144720e+01 5.379083e+01 5.148718e+01 3.522720e+01 3.943725e+01 4.580743e+01 3.802034e+01 3.485056e+01 8.259656e-02 2.120387e-01 3.417213e-01 2.703329e-01 4.690726e-01 4.121581e-01 4.803705e-01 5.880657e-01 4.900076e-01 5.824356e-01 3.845967e-01 4.006519e-01 8.147262e-05
<GCONST> 6.744191e+01
<MIXTURE> 106 4.710235e-03
<MEAN> 25
 5.087311e-01 -1.565590e+00 1.015366e+01 -4.656245e-01 -1.107564e+01 -3.198881e+00 -6.509898e+00 -6.541486e-01 -2.295198e+00 -4.944770e+00 4.137011e-01 5.568738e-01 -3.265239e-02 3.568009e-02 8.634643e-02 -1.766172e-02 -9.645800e-02 5.596852e-04 -9.400022e-02 6.901392e-02 -3.894264e-02 2.439815e-01 -7.719553e-02 -3.121621e-02 -1.285472e-03
<VARIANCE> 25
 2.054547e+01 2.295892e+01 3.694482e+01 5.339557e+01 3.144720e+01 5.379083e+01 5.148718e+01 3.522720e+01 3.943725e+01 4.580743e+01 3.802034e+01 3.485056e+01 8.259656e-02 2.120387e-01 3.417213e-01 2.703329e-01 4.690726e-01 4.121581e-01 4.803705e-01 5.880657e-01 4.900076e-01 5.824356e-01 3.845967e-01 4.006519e-01 8.147262e-05
<GCONST> 6.744191e+01
<MIXTURE> 107 5.452374e-03
<MEAN> 25
 8.557443e+00 -2.275109e+00 -8.002581e+00 -9.566578e+00 1.903637e+00 2.995765e+00 -8.499452e+00 -4.521043e+00 -8.888044e-01 3.391333e+00 8.524417e-01 -5.022994e+00 -6.099740e-01 -7.681507e-01 8.300786e-01 1.755817e+00 2.229724e-01 -1.998020e+00 -9.056258e-01 8.333723e-01 1.754825e+00 4.853038e-02 -1.652276e+00 -8.142267e-01 -1.965204e-03
<VARIANCE> 25
 9.747375e+00 2.058333e+01 2.826827e+01 4.268475e+01 3.563926e+01 3.836404e+01 5.212571e+01 3.604457e+01 4.557168e+01 4.195031e+01 5.084075e+01 3.031442e+01 3.530553e-01 9.668173e-01 1.459466e+00 2.434690e+00 2.266458e+00 2.826099e+00 2.623424e+00 2.584041e+00 2.294810e+00 3.000856e+00 1.932879e+00 2.187613e+00 7.118806e-04
<GCONST> 8.808681e+01
<MIXTURE> 108 5.452374e-03
<MEAN> 25
 8.557443e+00 -2.275109e+00 -8.002581e+00 -9.566578e+00 1.903637e+00 2.995765e+00 -8.499452e+00 -4.521043e+00 -8.888044e-01 3.391333e+00 8.524417e-01 -5.022994e+00 -6.099740e-01 -7.681507e-01 8.300786e-01 1.755817e+00 2.229724e-01 -1.998020e+00 -9.056258e-01 8.333723e-01 1.754825e+00 4.853038e-02 -1.652276e+00 -8.142267e-01 -1.965204e-03
<VARIANCE> 25
 9.747375e+00 2.058333e+01 2.826827e+01 4.268475e+01 3.563926e+01 3.836404e+01 5.212571e+01 3.604457e+01 4.557168e+01 4.195031e+01 5.084075e+01 3.031442e+01 3.530553e-01 9.668173e-01 1.459466e+00 2.434690e+00 2.266458e+00 2.826099e+00 2.623424e+00 2.584041e+00 2.294810e+00 3.000856e+00 1.932879e+00 2.187613e+00 7.118806e-04
<GCONST> 8.808681e+01
<MIXTURE> 109 6.661064e-03
<MEAN> 25
 4.065886e+00 -1.051536e+01 -8.263300e+00 -1.336432e+00 2.750999e+00 -8.245748e-02 -5.898688e-02 1.442860e+00 -2.521547e+00 -8.352288e+00 -5.338970e+00 3.950794e-02 -3.322540e-02 -1.319866e-01 -2.958066e-02 2.507520e-01 1.956973e-01 1.191127e-01 -1.218720e-01 -1.048465e-01 -4.152472e-02 -1.359835e-01 2.167743e-01 1.479552e-02 -3.523424e-03
<VARIANCE> 25
 9.109201e+00 1.837981e+01 2.023061e+01 3.260111e+01 4.074262e+01 3.759209e+01 4.657796e+01 3.441055e+01 4.636692e+01 3.546337e+01 2.987852e+01 2.820243e+01 1.927679e-01 4.219943e-01 5.411482e-01 6.390830e-01 1.230966e+00 9.980565e-01 1.263206e+00 1.095564e+00 1.121228e+00 9.600606e-01 8.795902e-01 8.877437e-01 1.818653e-04
<GCONST> 7.458821e+01
<MIXTURE> 110 6.661064e-03
<MEAN> 25
 4.065886e+00 -1.051536e+01 -8.263300e+00 -1.336432e+00 2.750999e+00 -8.245748e-02 -5.898688e-02 1.442860e+00 -2.521547e+00 -8.352288e+00 -5.338970e+00 3.950794e-02 -3.322540e-02 -1.319866e-01 -2.958066e-02 2.507520e-01 1.956973e-01 1.191127e-01 -1.218720e-01 -1.048465e-01 -4.152472e-02 -1.359835e-01 2.167743e-01 1.479552e-02 -3.523424e-03
<VARIANCE> 25
 9.109201e+00 1.837981e+01 2.023061e+01 3.260111e+01 4.074262e+01 3.759209e+01 4.657796e+01 3.441055e+01 4.636692e+01 3.546337e+01 2.987852e+01 2.820243e+01 1.927679e-01 4.219943e-01 5.411482e-01 6.390830e-01 1.230966e+00 9.980565e-01 1.263206e+00 1.095564e+00 1.121228e+00 9.600606e-01 8.795902e-01 8.877437e-01 1.818653e-04
<GCONST> 7.458821e+01
<MIXTURE> 111 4.337247e-03
<MEAN> 25
 -4.469037e+00 -8.913075e-01 -1.721195e+00 1.693915e+00 9.784511e-01 9.562634e-01 3.289556e-01 2.146149e-01 6.742616e-02 -5.314287e-01 -6.334918e-01 1.956411e+00 -2.103706e-02 -3.222880e-02 -7.286090e-02 -7.477507e-02 -3.770896e-02 8.489110e-03 1.022142e-04 -5.780188e-02 -1.413913e-01 -2.048620e-01 -1.913346e-01 -1.043062e-01 -2.183572e-04
<VARIANCE> 25
 6.997705e+00 5.070464e+00 1.019459e+01 9.407898e+00 1.316968e+01 2.385118e+01 1.474096e+01 1.315402e+01 1.179474e+01 1.194696e+01 1.360941e+01 1.160801e+01 7.905428e-02 1.633227e-01 2.755147e-01 4.211049e-01 5.697176e-01 7.093230e-01 8.018484e-01 8.584107e-01 8.924049e-01 8.582665e-01 8.612281e-01 8.497829e-01 2.230731e-05
<GCONST> 5.603440e+01
<MIXTURE> 112 4.337247e-03
<MEAN> 25
 -4.469037e+00 -8.913075e-01 -1.721195e+00 1.693915e+00 9.784511e-01 9.562634e-01 3.289556e-01 2.146149e-01 6.742616e-02 -5.314287e-01 -6.334918e-01 1.956411e+00 -2.103706e-02 -3.222880e-02 -7.286090e-02 -7.477507e-02 -3.770896e-02 8.489110e-03 1.022142e-04 -5.780188e-02 -1.413913e-01 -2.048620e-01 -1.913346e-01 -1.043062e-01 -2.183572e-04
<VARIANCE> 25
 6.997705e+00 5.070464e+00 1.019459e+01 9.407898e+00 1.316968e+01 2.385118e+01 1.474096e+01 1.315402e+01 1.179474e+01 1.194696e+01 1.360941e+01 1.160801e+01 7.905428e-02 1.633227e-01 2.755147e-01 4.211049e-01 5.697176e-01 7.093230e-01 8.018484e-01 8.584107e-01 8.924049e-01 8.582665e-01 8.612281e-01 8.497829e-01 2.230731e-05
<GCONST> 5.603440e+01
<MIXTURE> 113 5.938666e-03
<MEAN> 25
 9.754108e+00 1.616088e+00 -8.594567e+00 -1.690210e+01 -1.228534e+00 5.714945e+00 -5.013759e+00 -1.532814e+00 -5.482498e+00 -2.582902e-01 2.662703e-01 -3.221770e-01 1.849861e-04 5.189357e-03 -5.111007e-02 -1.224289e-01 1.165152e-01 1.750132e-01 7.897758e-02 4.954239e-02 -8.166606e-02 -4.939412e-02 1.818513e-01 1.390621e-02 -1.742620e-03
<VARIANCE> 25
 9.925119e+00 1.644077e+01 2.953558e+01 3.388434e+01 5.226483e+01 3.313547e+01 4.040486e+01 3.875949e+01 3.757012e+01 4.619048e+01 3.629642e+01 2.800045e+01 1.196099e-01 3.203557e-01 3.294750e-01 6.213530e-01 6.051985e-01 6.589521e-01 7.699616e-01 8.407764e-01 9.564153e-01 8.782969e-01 7.172767e-01 7.107751e-01 1.275081e-04
<GCONST> 7.112904e+01
<MIXTURE> 114 5.938666e-03
<MEAN> 25
 9.754108e+00 1.616088e+00 -8.594567e+00 -1.690210e+01 -1.228534e+00 5.714945e+00 -5.013759e+00 -1.532814e+00 -5.482498e+00 -2.582902e-01 2.662703e-01 -3.221770e-01 1.849861e-04 5.189357e-03 -5.111007e-02 -1.224289e-01 1.165152e-01 1.750132e-01 7.897758e-02 4.954239e-02 -8.166606e-02 -4.939412e-02 1.818513e-01 1.390621e-02 -1.742620e-03
<VARIANCE> 25
 9.925119e+00 1.644077e+01 2.953558e+01 3.388434e+01 5.226483e+01 3.313547e+01 4.040486e+01 3.875949e+01 3.757012e+01 4.619048e+01 3.629642e+01 2.800045e+01 1.196099e-01 3.203557e-01 3.294750e-01 6.213530e-01 6.051985e-01 6.589521e-01 7.699616e-01 8.407764e-01 9.564153e-01 8.782969e-01 7.172767e-01 7.107751e-01 1.275081e-04
<GCONST> 7.112904e+01
<MIXTURE> 115 2.935202e-03
<MEAN> 25
 -3.997678e+00 -3.591163e-01 -3.011778e+00 3.384623e+00 2.384158e+00 -5.810395e-01 2.536098e+00 5.287610e-01 8.473192e-01 8.148418e-02 -1.493122e-01 2.237301e+00 3.342186e-02 -8.631670e-02 -2.203190e-01 -4.777881e-01 -6.856996e-01 -6.641262e-01 -6.430389e-01 -5.132492e-01 -5.305504e-01 -4.538903e-01 -3.204141e-01 -9.176300e-02 2.521769e-05
<VARIANCE> 25
 8.751490e+00 1.162561e+01 1.290447e+01 1.359985e+01 1.317171e+01 1.700093e+01 1.742257e+01 2.009529e+01 2.248697e+01 1.677556e+01 1.859346e+01 1.701812e+01 1.922336e-01 3.332083e-01 4.670029e-01 5.625116e-01 6.529357e-01 8.257999e-01 1.104223e+00 1.107448e+00 1.062417e+00 9.742261e-01 9.878677e-01 1.082828e+00 1.028402e-06
<GCONST> 6.050957e+01
<MIXTURE> 116 2.935202e-03
<MEAN> 25
 -3.997678e+00 -3.591163e-01 -3.011778e+00 3.384623e+00 2.384158e+00 -5.810395e-01 2.536098e+00 5.287610e-01 8.473192e-01 8.148418e-02 -1.493122e-01 2.237301e+00 3.342186e-02 -8.631670e-02 -2.203190e-01 -4.777881e-01 -6.856996e-01 -6.641262e-01 -6.430389e-01 -5.132492e-01 -5.305504e-01 -4.538903e-01 -3.204141e-01 -9.176300e-02 2.521769e-05
<VARIANCE> 25
 8.751490e+00 1.162561e+01 1.290447e+01 1.359985e+01 1.317171e+01 1.700093e+01 1.742257e+01 2.009529e+01 2.248697e+01 1.677556e+01 1.859346e+01 1.701812e+01 1.922336e-01 3.332083e-01 4.670029e-01 5.625116e-01 6.529357e-01 8.257999e-01 1.104223e+00 1.107448e+00 1.062417e+00 9.742261e-01 9.878677e-01 1.082828e+00 1.028402e-06
<GCONST> 6.050957e+01
<MIXTURE> 117 6.506003e-03
<MEAN> 25
 -4.640154e+00 1.119328e+00 1.052298e+00 9.753189e+00 6.260261e+00 6.251298e+00 6.459400e+00 5.045113e+00 6.383060e+00 4.934935e+00 6.361960e+00 2.704230e+00 -7.466010e-02 -2.337262e-01 -3.582460e-01 -4.191501e-01 -3.662582e-01 -3.030228e-01 -2.869836e-01 -3.304271e-01 -3.914525e-01 -3.695280e-01 -2.628896e-01 -1.162593e-01 -8.173603e-06
<VARIANCE> 25
 7.208084e+00 8.750323e+00 9.808641e+00 1.433313e+01 1.560595e+01 1.537268e+01 1.773614e+01 1.795019e+01 1.642157e+01 1.641136e+01 1.676281e+01 1.478775e+01 2.166440e-01 3.074917e-01 4.258529e-01 6.179696e-01 8.555375e-01 1.055467e+00 1.177037e+00 1.233307e+00 1.223296e+00 1.194433e+00 1.166546e+00 1.113362e+00 1.001591e-06
<GCONST> 6.044365e+01
<MIXTURE> 118 6.506003e-03
<MEAN> 25
 -4.640154e+00 1.119328e+00 1.052298e+00 9.753189e+00 6.260261e+00 6.251298e+00 6.459400e+00 5.045113e+00 6.383060e+00 4.934935e+00 6.361960e+00 2.704230e+00 -7.466010e-02 -2.337262e-01 -3.582460e-01 -4.191501e-01 -3.662582e-01 -3.030228e-01 -2.869836e-01 -3.304271e-01 -3.914525e-01 -3.695280e-01 -2.628896e-01 -1.162593e-01 -8.173603e-06
<VARIANCE> 25
 7.208084e+00 8.750323e+00 9.808641e+00 1.433313e+01 1.560595e+01 1.537268e+01 1.773614e+01 1.795019e+01 1.642157e+01 1.641136e+01 1.676281e+01 1.478775e+01 2.166440e-01 3.074917e-01 4.258529e-01 6.179696e-01 8.555375e-01 1.055467e+00 1.177037e+00 1.233307e+00 1.223296e+00 1.194433e+00 1.166546e+00 1.113362e+00 1.001591e-06
<GCONST> 6.044365e+01
<MIXTURE> 119 4.297961e-03
<MEAN> 25
 -4.955076e+00 -7.615548e+00 2.219522e+00 2.035984e+00 2.256668e+00 1.797751e-01 5.253167e+00 5.937485e+00 1.176462e+00 9.577137e-01 6.615335e+00 1.558890e+00 -5.050546e-02 -7.837700e-02 3.830822e-02 -5.582567e-02 -1.244183e-01 -1.834283e-01 -6.588451e-02 -1.699793e-02 -9.059196e-02 -1.156414e-01 -5.683298e-02 -5.911690e-02 1.068094e-03
<VARIANCE> 25
 8.598781e+00 9.905397e+00 1.655883e+01 2.063726e+01 2.293301e+01 2.362366e+01 2.510045e+01 2.642650e+01 2.521504e+01 2.810629e+01 2.038677e+01 2.038560e+01 1.608087e-01 2.820711e-01 4.623103e-01 6.332168e-01 8.040110e-01 1.006492e+00 1.110087e+00 1.279159e+00 1.286371e+00 1.251303e+00 1.191979e+00 1.109306e+00 2.316294e-04
<GCONST> 6.981323e+01
<MIXTURE> 120 4.297961e-03
<MEAN> 25
 -4.955076e+00 -7.615548e+00 2.219522e+00 2.035984e+00 2.256668e+00 1.797751e-01 5.253167e+00 5.937485e+00 1.176462e+00 9.577137e-01 6.615335e+00 1.558890e+00 -5.050546e-02 -7.837700e-02 3.830822e-02 -5.582567e-02 -1.244183e-01 -1.834283e-01 -6.588451e-02 -1.699793e-02 -9.059196e-02 -1.156414e-01 -5.683298e-02 -5.911690e-02 1.068094e-03
<VARIANCE> 25
 8.598781e+00 9.905397e+00 1.655883e+01 2.063726e+01 2.293301e+01 2.362366e+01 2.510045e+01 2.642650e+01 2.521504e+01 2.810629e+01 2.038677e+01 2.038560e+01 1.608087e-01 2.820711e-01 4.623103e-01 6.332168e-01 8.040110e-01 1.006492e+00 1.110087e+00 1.279159e+00 1.286371e+00 1.251303e+00 1.191979e+00 1.109306e+00 2.316294e-04
<GCONST> 6.981323e+01
<MIXTURE> 121 4.567511e-03
<MEAN> 25
 2.922577e-01 -2.701310e+00 4.427738e+00 -1.299577e+01 -1.194078e+01 -1.123064e+00 1.010688e+00 -5.122372e+00 -3.734110e+00 -9.482979e-02 -5.254638e+00 -4.471809e+00 2.329929e-02 9.394465e-02 -7.537515e-03 1.007099e-01 1.772147e-01 1.366670e-01 -2.589834e-02 -1.419162e-01 -3.416938e-01 -2.233908e-01 -6.852131e-02 -2.353423e-02 -7.624510e-03
<VARIANCE> 25
 7.539209e+00 1.569307e+01 2.107071e+01 1.974308e+01 2.757736e+01 3.348510e+01 2.937458e+01 2.454440e+01 3.714734e+01 2.771168e+01 1.941109e+01 2.075316e+01 1.488098e-01 6.770842e-01 6.108678e-01 7.314183e-01 7.208145e-01 1.148267e+00 1.101122e+00 1.140108e+00 1.230666e+00 1.145718e+00 9.306561e-01 8.712072e-01 2.210939e-04
<GCONST> 7.174951e+01
<MIXTURE> 122 4.567511e-03
<MEAN> 25
 2.922577e-01 -2.701310e+00 4.427738e+00 -1.299577e+01 -1.194078e+01 -1.123064e+00 1.010688e+00 -5.122372e+00 -3.734110e+00 -9.482979e-02 -5.254638e+00 -4.471809e+00 2.329929e-02 9.394465e-02 -7.537515e-03 1.007099e-01 1.772147e-01 1.366670e-01 -2.589834e-02 -1.419162e-01 -3.416938e-01 -2.233908e-01 -6.852131e-02 -2.353423e-02 -7.624510e-03
<VARIANCE> 25
 7.539209e+00 1.569307e+01 2.107071e+01 1.974308e+01 2.757736e+01 3.348510e+01 2.937458e+01 2.454440e+01 3.714734e+01 2.771168e+01 1.941109e+01 2.075316e+01 1.488098e-01 6.770842e-01 6.108678e-01 7.314183e-01 7.208145e-01 1.148267e+00 1.101122e+00 1.140108e+00 1.230666e+00 1.145718e+00 9.306561e-01 8.712072e-01 2.210939e-04
<GCONST> 7.174951e+01
<MIXTURE> 123 4.393044e-03
<MEAN> 25
 -3.261118e+00 2.254110e+00 1.007289e-01 6.519098e+00 6.238056e+00 1.802308e+00 3.772132e+00 1.860363e+00 -2.284059e+00 4.232199e-01 -1.185332e+00 -2.543070e-01 -3.116684e-01 -5.683204e-01 -9.031160e-01 -5.452068e-01 -1.637812e-01 -1.315842e-01 6.393602e-02 7.865231e-01 8.696892e-01 8.435975e-01 4.010186e-01 2.647806e-01 -4.297432e-03
<VARIANCE> 25
 8.563859e+00 1.016183e+01 1.400825e+01 1.487846e+01 1.932286e+01 2.589475e+01 1.741089e+01 2.246715e+01 2.680106e+01 2.190089e+01 2.413808e+01 1.814271e+01 3.081563e-01 3.439499e-01 5.024359e-01 5.793486e-01 9.863858e-01 1.052977e+00 1.134207e+00 8.699055e-01 1.139573e+00 1.250229e+00 1.009176e+00 1.316292e+00 1.160617e-04
<GCONST> 6.851665e+01
<MIXTURE> 124 4.069876e-03
<MEAN> 25
 -6.513679e+00 -1.135809e+00 -2.916814e+00 5.109111e+00 5.010401e+00 3.341332e+00 5.412295e+00 2.570068e+00 3.072385e+00 1.324423e+00 1.098616e+00 3.002123e+00 -2.026360e-01 -3.197620e-01 -3.641035e-01 -2.236094e-01 1.229812e-01 5.222112e-01 8.103682e-01 8.625868e-01 6.495042e-01 3.130584e-01 6.397448e-02 -1.985090e-02 2.460020e-05
<VARIANCE> 25
 1.112847e+01 7.415439e+00 1.106750e+01 1.235339e+01 1.213335e+01 1.994810e+01 1.549178e+01 1.703842e+01 1.677382e+01 1.615840e+01 1.911279e+01 1.453062e+01 1.042236e-01 1.675944e-01 2.695393e-01 4.218893e-01 5.963711e-01 7.168282e-01 7.475722e-01 8.076056e-01 9.200773e-01 1.001531e+00 1.006842e+00 1.000665e+00 1.789987e-05
<GCONST> 5.899079e+01
<MIXTURE> 125 4.069876e-03
<MEAN> 25
 -6.513679e+00 -1.135809e+00 -2.916814e+00 5.109111e+00 5.010401e+00 3.341332e+00 5.412295e+00 2.570068e+00 3.072385e+00 1.324423e+00 1.098616e+00 3.002123e+00 -2.026360e-01 -3.197620e-01 -3.641035e-01 -2.236094e-01 1.229812e-01 5.222112e-01 8.103682e-01 8.625868e-01 6.495042e-01 3.130584e-01 6.397448e-02 -1.985090e-02 2.460020e-05
<VARIANCE> 25
 1.112847e+01 7.415439e+00 1.106750e+01 1.235339e+01 1.213335e+01 1.994810e+01 1.549178e+01 1.703842e+01 1.677382e+01 1.615840e+01 1.911279e+01 1.453062e+01 1.042236e-01 1.675944e-01 2.695393e-01 4.218893e-01 5.963711e-01 7.168282e-01 7.475722e-01 8.076056e-01 9.200773e-01 1.001531e+00 1.006842e+00 1.000665e+00 1.789987e-05
<GCONST> 5.899079e+01
<MIXTURE> 126 2.402244e-03
<MEAN> 25
 -3.757448e+00 -6.854910e+00 -5.255607e+00 2.332068e+00 4.252901e+00 -3.235495e+00 1.122169e-01 3.494197e+00 3.401250e+00 -2.728534e+00 -1.406520e+00 3.024896e+00 -1.552839e-03 -2.970136e-03 -2.646854e-02 -1.497288e-01 -3.232304e-01 -4.043112e-01 -2.707865e-01 -1.667529e-01 -9.593374e-02 -1.025623e-01 -9.810525e-02 -3.095445e-02 -1.572149e-03
<VARIANCE> 25
 7.459424e+00 1.310134e+01 1.377930e+01 1.548824e+01 2.464167e+01 2.386684e+01 2.279275e+01 2.914846e+01 3.247994e+01 2.631091e+01 2.184061e+01 1.909720e+01 1.718092e-01 3.511932e-01 4.935615e-01 5.743406e-01 7.578343e-01 1.021253e+00 1.125877e+00 1.273631e+00 1.348557e+00 1.335665e+00 1.201450e+00 1.136054e+00 2.101432e-04
<GCONST> 7.001964e+01
<MIXTURE> 127 2.402244e-03
<MEAN> 25
 -3.757448e+00 -6.854910e+00 -5.255607e+00 2.332068e+00 4.252901e+00 -3.235495e+00 1.122169e-01 3.494197e+00 3.401250e+00 -2.728534e+00 -1.406520e+00 3.024896e+00 -1.552839e-03 -2.970136e-03 -2.646854e-02 -1.497288e-01 -3.232304e-01 -4.043112e-01 -2.707865e-01 -1.667529e-01 -9.593374e-02 -1.025623e-01 -9.810525e-02 -3.095445e-02 -1.572149e-03
<VARIANCE> 25
 7.459424e+00 1.310134e+01 1.377930e+01 1.548824e+01 2.464167e+01 2.386684e+01 2.279275e+01 2.914846e+01 3.247994e+01 2.631091e+01 2.184061e+01 1.909720e+01 1.718092e-01 3.511932e-01 4.935615e-01 5.743406e-01 7.578343e-01 1.021253e+00 1.125877e+00 1.273631e+00 1.348557e+00 1.335665e+00 1.201450e+00 1.136054e+00 2.101432e-04
<GCONST> 7.001964e+01
<MIXTURE> 128 3.790457e-03
<MEAN> 25
 -3.827268e+00 1.663649e+00 -4.633352e-01 6.454141e+00 3.751158e+00 1.749724e+00 3.681418e+00 2.442649e+00 3.582028e+00 3.772416e+00 3.557365e+00 3.389006e+00 -3.783121e-01 -1.880259e-01 8.257332e-02 6.676204e-01 1.140090e+00 1.139709e+00 7.383397e-01 1.597302e-01 -4.502511e-01 -8.208593e-01 -7.104864e-01 -3.440572e-01 -3.308888e-05
<VARIANCE> 25
 1.016005e+01 1.163995e+01 1.488142e+01 1.892631e+01 1.965955e+01 2.081938e+01 2.397596e+01 2.399737e+01 3.019770e+01 2.389434e+01 2.683068e+01 1.851177e+01 8.668362e-01 1.104475e+00 1.320087e+00 1.559348e+00 1.591431e+00 1.854918e+00 2.192800e+00 2.254312e+00 2.075487e+00 1.815030e+00 1.692508e+00 1.767400e+00 1.012465e-06
<GCONST> 7.349712e+01
<TRANSP> 3
 0.000000e+00 1.000000e+00 0.000000e+00
 0.000000e+00 9.999990e-01 9.999998e-07
 0.000000e+00 0.000000e+00 0.000000e+00
<ENDHMM>
