~o
<STREAMINFO> 1 25
<VECSIZE> 25<NULLD><MFCC_E_D_N><DIAGC>
~h "jmodel"
<BEGINHMM>
<NUMSTATES> 3
<STATE> 2
<NUMMIXES> 128
<MIXTURE> 1 5.748963e-03
<MEAN> 25
 -2.582211e+00 3.180036e+00 2.311326e+00 8.753901e+00 4.371789e+00 3.447551e+00 4.062125e+00 3.939202e+00 5.829648e+00 5.253267e+00 5.884943e+00 3.079760e+00 -2.004251e+00 -1.633904e+00 -8.643852e-01 1.075588e+00 1.560848e+00 2.231942e+00 2.154292e+00 2.084508e+00 1.693070e+00 1.269539e+00 1.566793e+00 6.137621e-01 -4.692411e-02
<VARIANCE> 25
 1.006843e+01 1.176361e+01 1.494171e+01 1.867904e+01 2.318415e+01 2.215322e+01 2.188885e+01 2.199755e+01 2.100763e+01 2.253227e+01 2.094437e+01 1.707898e+01 1.788917e+00 2.113600e+00 3.025711e+00 3.209788e+00 3.738045e+00 3.356426e+00 3.318124e+00 3.380988e+00 3.521384e+00 3.726173e+00 3.514488e+00 2.833589e+00 3.120812e-03
<GCONST> 8.846420e+01
<MIXTURE> 2 4.549242e-03
<MEAN> 25
 -4.866991e+00 1.325263e+00 9.787765e-01 9.880846e+00 6.688372e+00 7.417708e+00 7.856905e+00 6.954329e+00 8.346036e+00 6.381688e+00 7.619307e+00 3.079066e+00 -6.018928e-02 4.203530e-02 1.441651e-01 2.268758e-01 2.658021e-01 2.806445e-01 2.964594e-01 3.211837e-01 3.491842e-01 3.070187e-01 1.967614e-01 8.038458e-02 4.310340e-08
<VARIANCE> 25
 6.962284e+00 8.952807e+00 1.072219e+01 1.600005e+01 1.721532e+01 1.553992e+01 1.689643e+01 1.844468e+01 1.683440e+01 1.737461e+01 1.810168e+01 1.430979e+01 1.267063e-01 2.264488e-01 3.375531e-01 4.673032e-01 6.488938e-01 8.146474e-01 9.278523e-01 1.003571e+00 1.050069e+00 1.079437e+00 1.073448e+00 1.013333e+00 1.002257e-06
<GCONST> 5.808020e+01
<MIXTURE> 3 4.549242e-03
<MEAN> 25
 -4.866991e+00 1.325263e+00 9.787765e-01 9.880846e+00 6.688372e+00 7.417708e+00 7.856905e+00 6.954329e+00 8.346036e+00 6.381688e+00 7.619307e+00 3.079066e+00 -6.018928e-02 4.203530e-02 1.441651e-01 2.268758e-01 2.658021e-01 2.806445e-01 2.964594e-01 3.211837e-01 3.491842e-01 3.070187e-01 1.967614e-01 8.038458e-02 4.310340e-08
<VARIANCE> 25
 6.962284e+00 8.952807e+00 1.072219e+01 1.600005e+01 1.721532e+01 1.553992e+01 1.689643e+01 1.844468e+01 1.683440e+01 1.737461e+01 1.810168e+01 1.430979e+01 1.267063e-01 2.264488e-01 3.375531e-01 4.673032e-01 6.488938e-01 8.146474e-01 9.278523e-01 1.003571e+00 1.050069e+00 1.079437e+00 1.073448e+00 1.013333e+00 1.002257e-06
<GCONST> 5.808020e+01
<MIXTURE> 4 1.671429e-02
<MEAN> 25
 3.416917e+00 2.602841e+00 -3.794214e+00 9.485047e-01 4.337878e+00 -1.993994e-01 1.131253e-01 1.359151e-02 1.448918e+00 1.347249e+00 -1.895361e+00 9.808201e-02 -2.750266e+00 1.215459e+00 1.759390e+00 3.071622e+00 9.115049e-01 4.838482e-01 1.502186e+00 1.023069e+00 9.645719e-01 4.224470e-01 1.207929e+00 9.034650e-01 -1.026988e-01
<VARIANCE> 25
 2.105648e+01 2.976441e+01 2.903131e+01 3.982940e+01 4.527553e+01 6.892449e+01 6.528214e+01 5.337017e+01 5.509771e+01 6.201700e+01 4.937689e+01 3.563206e+01 2.371835e+00 5.007768e+00 3.733968e+00 4.926824e+00 4.986063e+00 6.128587e+00 6.101800e+00 5.570154e+00 5.926871e+00 6.408183e+00 6.154262e+00 4.434474e+00 6.216889e-03
<GCONST> 1.054470e+02
<MIXTURE> 5 3.206198e-03
<MEAN> 25
 -3.316055e+00 2.392234e+00 4.697943e-01 9.175024e+00 6.777355e+00 6.306825e+00 7.216130e+00 4.719123e+00 5.131782e+00 3.980520e+00 4.477768e+00 2.622983e+00 -3.148929e-01 7.387769e-01 1.178541e+00 9.831689e-01 2.859935e-01 -1.035194e-01 -8.387129e-02 5.101801e-02 4.547298e-01 6.475806e-01 3.826398e-01 4.861514e-02 -3.126984e-05
<VARIANCE> 25
 1.013369e+01 1.457425e+01 2.312630e+01 2.617317e+01 1.966142e+01 1.870810e+01 1.981900e+01 1.964779e+01 2.405276e+01 2.120520e+01 2.450433e+01 1.608861e+01 1.188803e+00 1.227327e+00 1.367321e+00 1.680393e+00 2.221650e+00 2.339968e+00 2.308431e+00 2.237867e+00 2.289901e+00 2.219769e+00 2.052815e+00 1.869614e+00 9.859677e-07
<GCONST> 7.507280e+01
<MIXTURE> 6 5.475854e-03
<MEAN> 25
 9.420094e+00 -5.858546e-01 -6.552342e+00 -1.087960e+01 -2.542188e+00 6.606394e+00 -5.794438e+00 -5.499382e+00 -3.187864e+00 1.995823e+00 5.157197e+00 -1.761754e+00 4.599375e-01 8.374053e-01 -3.488697e-01 -1.479191e+00 -6.119248e-01 1.337175e+00 1.508833e+00 2.647732e-01 -1.091851e+00 -1.152978e+00 3.148829e-01 1.132192e+00 -7.155373e-03
<VARIANCE> 25
 9.674745e+00 1.657462e+01 2.284345e+01 3.796086e+01 3.765246e+01 2.987520e+01 4.226911e+01 3.659462e+01 4.217341e+01 3.789867e+01 4.434946e+01 3.105610e+01 3.191339e-01 8.643960e-01 8.918191e-01 1.919140e+00 1.533597e+00 1.916529e+00 1.853067e+00 1.946123e+00 2.546326e+00 1.953193e+00 2.142885e+00 1.495329e+00 5.848259e-04
<GCONST> 8.369827e+01
<MIXTURE> 7 5.475854e-03
<MEAN> 25
 9.420094e+00 -5.858546e-01 -6.552342e+00 -1.087960e+01 -2.542188e+00 6.606394e+00 -5.794438e+00 -5.499382e+00 -3.187864e+00 1.995823e+00 5.157197e+00 -1.761754e+00 4.599375e-01 8.374053e-01 -3.488697e-01 -1.479191e+00 -6.119248e-01 1.337175e+00 1.508833e+00 2.647732e-01 -1.091851e+00 -1.152978e+00 3.148829e-01 1.132192e+00 -7.155373e-03
<VARIANCE> 25
 9.674745e+00 1.657462e+01 2.284345e+01 3.796086e+01 3.765246e+01 2.987520e+01 4.226911e+01 3.659462e+01 4.217341e+01 3.789867e+01 4.434946e+01 3.105610e+01 3.191339e-01 8.643960e-01 8.918191e-01 1.919140e+00 1.533597e+00 1.916529e+00 1.853067e+00 1.946123e+00 2.546326e+00 1.953193e+00 2.142885e+00 1.495329e+00 5.848259e-04
<GCONST> 8.369827e+01
<MIXTURE> 8 1.165917e-02
<MEAN> 25
 -4.722090e+00 1.365539e+00 1.291673e+00 9.552167e+00 6.572680e+00 6.244501e+00 6.475342e+00 5.698165e+00 6.650233e+00 5.626975e+00 6.562975e+00 3.155506e+00 -6.309238e-01 -1.424259e+00 -1.073405e+00 -1.727165e+00 -2.290853e-01 -9.447385e-01 -1.782100e-01 -2.921271e-01 -2.546182e-01 -1.750070e-01 -2.157652e-01 8.238313e-02 9.880181e-02
<VARIANCE> 25
 9.376868e+00 9.843538e+00 1.160165e+01 1.607631e+01 1.662367e+01 1.578631e+01 1.814631e+01 1.757934e+01 1.708894e+01 1.740444e+01 1.894126e+01 1.398786e+01 2.755615e+00 2.813903e+00 3.908979e+00 3.769305e+00 3.455103e+00 3.312411e+00 3.126073e+00 3.082478e+00 2.870514e+00 2.654269e+00 2.438089e+00 1.900702e+00 6.679987e-03
<GCONST> 8.630721e+01
<MIXTURE> 9 1.199672e-02
<MEAN> 25
 9.297315e+00 3.393862e+00 -6.207261e+00 -1.066729e+01 -2.211102e+00 4.963403e+00 -2.210195e+00 -2.306324e+00 -5.392648e+00 -1.255119e+00 5.722134e-01 -1.112413e-02 1.440556e+00 -1.288901e-01 -4.899211e-01 -2.703787e+00 -1.646951e+00 8.544705e-01 -9.734743e-01 -2.306136e-01 -1.793918e-01 -5.777056e-01 6.157338e-01 -1.534974e-01 7.332234e-02
<VARIANCE> 25
 1.223902e+01 2.140890e+01 3.354640e+01 5.359966e+01 5.016657e+01 3.233645e+01 4.320057e+01 5.214901e+01 4.207511e+01 4.158384e+01 3.613499e+01 2.691783e+01 2.089418e+00 2.451039e+00 4.575511e+00 4.877339e+00 5.009307e+00 4.095093e+00 4.238172e+00 6.039760e+00 5.038424e+00 4.079505e+00 4.019226e+00 2.810584e+00 2.213092e-03
<GCONST> 9.880505e+01
<MIXTURE> 10 6.596976e-03
<MEAN> 25
 8.267645e-01 7.611756e+00 5.373882e+00 7.141200e+00 1.574712e+00 -2.122913e+00 -5.269706e-01 -1.664705e+00 8.601975e-01 8.397323e-01 8.353981e-01 6.557942e-01 -1.920316e+00 -6.679381e-01 -4.634888e-01 3.017713e+00 2.455505e+00 2.708500e+00 2.378182e+00 2.270131e+00 1.860546e+00 1.549241e+00 2.331060e+00 5.230009e-01 -1.380102e-01
<VARIANCE> 25
 1.950323e+01 2.081756e+01 2.226368e+01 2.903582e+01 3.826628e+01 3.491386e+01 3.510888e+01 3.390410e+01 2.760918e+01 2.912317e+01 2.689008e+01 2.495250e+01 2.237584e+00 3.428017e+00 5.528984e+00 5.194289e+00 5.560524e+00 4.465885e+00 4.698122e+00 4.853823e+00 4.378426e+00 5.013799e+00 4.446111e+00 3.184966e+00 2.696087e-03
<GCONST> 9.746008e+01
<MIXTURE> 11 1.633820e-02
<MEAN> 25
 6.686108e+00 3.801281e+00 2.614773e+00 6.457202e+00 -1.695356e+00 -2.888722e+00 -1.754887e+00 -5.938229e+00 -2.773157e+00 2.198113e-01 -2.975412e+00 -1.949139e+00 -2.127529e-01 5.733917e-01 3.988083e-02 9.260108e-02 5.179308e-01 3.299669e-02 2.670647e-01 -3.577984e-01 -2.596330e-02 3.273029e-01 -2.638221e-01 8.236560e-02 -1.561346e-02
<VARIANCE> 25
 1.170705e+01 2.524275e+01 1.954223e+01 2.945073e+01 3.676161e+01 3.531902e+01 4.053970e+01 4.704162e+01 3.577612e+01 2.954318e+01 3.065829e+01 2.571074e+01 8.035567e-01 1.113587e+00 1.649030e+00 2.109846e+00 1.981866e+00 1.748701e+00 2.693321e+00 2.940617e+00 1.864884e+00 1.959033e+00 1.693484e+00 1.630911e+00 8.837976e-04
<GCONST> 8.607437e+01
<MIXTURE> 12 5.904134e-03
<MEAN> 25
 1.055022e+01 3.468161e+00 -4.469891e+00 -1.592737e+01 -8.448664e+00 8.850058e+00 -7.081657e-01 -2.038270e+00 -1.480626e+00 -4.665952e+00 1.827496e+00 5.421337e-01 6.102939e-02 2.912249e-01 7.917282e-02 -3.556589e-01 -2.854988e-01 4.202515e-02 3.059941e-01 4.593658e-01 1.275475e-01 -3.756617e-01 -4.040601e-01 4.580147e-02 -6.831222e-03
<VARIANCE> 25
 9.972427e+00 2.262536e+01 2.275732e+01 3.444651e+01 4.323497e+01 3.203370e+01 4.186274e+01 4.829312e+01 4.499281e+01 3.780712e+01 3.794625e+01 2.942566e+01 2.473162e-01 6.780535e-01 6.760228e-01 1.184049e+00 1.182168e+00 1.052761e+00 1.163706e+00 1.362191e+00 1.238857e+00 1.201483e+00 1.231583e+00 9.462330e-01 5.895625e-04
<GCONST> 7.911819e+01
<MIXTURE> 13 5.904134e-03
<MEAN> 25
 1.055022e+01 3.468161e+00 -4.469891e+00 -1.592737e+01 -8.448664e+00 8.850058e+00 -7.081657e-01 -2.038270e+00 -1.480626e+00 -4.665952e+00 1.827496e+00 5.421337e-01 6.102939e-02 2.912249e-01 7.917282e-02 -3.556589e-01 -2.854988e-01 4.202515e-02 3.059941e-01 4.593658e-01 1.275475e-01 -3.756617e-01 -4.040601e-01 4.580147e-02 -6.831222e-03
<VARIANCE> 25
 9.972427e+00 2.262536e+01 2.275732e+01 3.444651e+01 4.323497e+01 3.203370e+01 4.186274e+01 4.829312e+01 4.499281e+01 3.780712e+01 3.794625e+01 2.942566e+01 2.473162e-01 6.780535e-01 6.760228e-01 1.184049e+00 1.182168e+00 1.052761e+00 1.163706e+00 1.362191e+00 1.238857e+00 1.201483e+00 1.231583e+00 9.462330e-01 5.895625e-04
<GCONST> 7.911819e+01
<MIXTURE> 14 6.488954e-03
<MEAN> 25
 -4.221782e+00 -2.373476e-01 -3.869400e-01 8.783811e+00 7.555340e+00 7.377068e+00 7.920088e+00 7.279906e+00 6.953371e+00 5.374741e+00 6.753550e+00 4.049422e+00 -2.660886e-01 2.023916e-01 3.723695e-01 3.223508e-01 2.172228e-02 4.336089e-02 7.286657e-02 1.603806e-01 2.910363e-01 5.395817e-01 4.853417e-01 7.340990e-02 -9.072667e-03
<VARIANCE> 25
 9.499737e+00 1.448365e+01 1.847749e+01 1.816046e+01 2.056278e+01 1.927412e+01 2.156481e+01 2.035580e+01 2.341718e+01 2.456775e+01 2.154106e+01 1.587401e+01 9.490342e-01 1.610492e+00 1.740321e+00 1.903753e+00 2.217817e+00 2.233932e+00 2.296329e+00 2.239619e+00 2.238901e+00 2.473381e+00 2.178129e+00 1.785555e+00 1.016711e-03
<GCONST> 8.198186e+01
<MIXTURE> 15 2.475190e-03
<MEAN> 25
 -5.409151e+00 -6.145354e-01 -2.145717e-01 7.350856e+00 5.744421e+00 5.704945e+00 6.075209e+00 4.989769e+00 5.107015e+00 4.150298e+00 5.485707e+00 2.565524e+00 -1.200194e-01 -3.116996e-02 7.790583e-02 2.473194e-01 4.901706e-01 7.867846e-01 1.073254e+00 1.182151e+00 1.056372e+00 7.578950e-01 4.166654e-01 1.515839e-01 -1.216552e-04
<VARIANCE> 25
 7.004636e+00 5.780864e+00 9.034784e+00 1.282575e+01 1.417043e+01 1.423764e+01 1.490993e+01 1.486804e+01 1.479325e+01 1.414332e+01 1.510353e+01 1.261629e+01 1.246601e-01 2.065027e-01 3.208977e-01 5.049548e-01 6.971564e-01 7.903837e-01 7.602317e-01 7.891411e-01 9.071287e-01 1.023423e+00 1.068999e+00 1.038830e+00 2.831812e-05
<GCONST> 5.867424e+01
<MIXTURE> 16 2.475190e-03
<MEAN> 25
 -5.409151e+00 -6.145354e-01 -2.145717e-01 7.350856e+00 5.744421e+00 5.704945e+00 6.075209e+00 4.989769e+00 5.107015e+00 4.150298e+00 5.485707e+00 2.565524e+00 -1.200194e-01 -3.116996e-02 7.790583e-02 2.473194e-01 4.901706e-01 7.867846e-01 1.073254e+00 1.182151e+00 1.056372e+00 7.578950e-01 4.166654e-01 1.515839e-01 -1.216552e-04
<VARIANCE> 25
 7.004636e+00 5.780864e+00 9.034784e+00 1.282575e+01 1.417043e+01 1.423764e+01 1.490993e+01 1.486804e+01 1.479325e+01 1.414332e+01 1.510353e+01 1.261629e+01 1.246601e-01 2.065027e-01 3.208977e-01 5.049548e-01 6.971564e-01 7.903837e-01 7.602317e-01 7.891411e-01 9.071287e-01 1.023423e+00 1.068999e+00 1.038830e+00 2.831812e-05
<GCONST> 5.867424e+01
<MIXTURE> 17 9.518312e-03
<MEAN> 25
 2.981014e+00 -1.113021e+00 5.565466e+00 3.498027e+00 -4.469253e+00 -6.262141e+00 -5.149753e+00 -7.137062e-01 -1.139365e+00 -2.337998e+00 -5.465844e-02 7.867535e-01 -6.895780e-01 -1.535188e+00 1.043148e+00 -2.025123e+00 -2.263756e+00 -4.607716e-01 -2.598676e-01 7.294417e-01 2.305743e-01 -6.442149e-01 8.519666e-01 3.469252e-01 8.160154e-02
<VARIANCE> 25
 1.357416e+01 2.496604e+01 2.483372e+01 4.258495e+01 3.910888e+01 3.689859e+01 3.917958e+01 2.607373e+01 3.054128e+01 2.785425e+01 2.091458e+01 2.275965e+01 1.383269e+00 2.209693e+00 3.071089e+00 3.461693e+00 3.017999e+00 4.439802e+00 4.607184e+00 4.395684e+00 3.356676e+00 3.536618e+00 2.869430e+00 2.236917e+00 1.660236e-03
<GCONST> 9.286850e+01
<MIXTURE> 18 1.221018e-02
<MEAN> 25
 3.625871e+00 3.806694e+00 6.780114e+00 5.408046e+00 -4.017238e+00 -7.253442e+00 -1.683590e+00 -1.161995e-02 -3.068643e+00 -2.796673e+00 -1.121984e+00 1.078613e+00 -5.181939e-01 2.190600e+00 -7.130207e-01 1.544230e+00 2.750846e+00 1.486870e+00 1.034198e+00 -8.642470e-02 4.147021e-01 8.389566e-01 -4.985252e-01 -1.522360e-01 -1.141166e-01
<VARIANCE> 25
 1.382336e+01 2.387639e+01 2.874103e+01 2.618539e+01 3.436965e+01 3.273271e+01 3.288600e+01 3.273576e+01 3.217323e+01 3.003205e+01 2.628194e+01 2.625745e+01 2.309930e+00 2.662390e+00 4.590072e+00 4.074296e+00 3.803299e+00 3.978014e+00 4.153226e+00 3.907116e+00 3.862400e+00 3.859830e+00 4.004616e+00 2.997770e+00 3.602116e-03
<GCONST> 9.559639e+01
<MIXTURE> 19 9.912824e-03
<MEAN> 25
 -9.275001e+00 3.910379e+00 -6.619902e-01 1.334500e+00 3.897003e+00 1.178514e+00 4.087962e+00 1.070798e+00 1.592328e-01 1.953663e+00 -6.099222e-01 2.107303e+00 1.842837e+00 1.452785e+00 2.117590e+00 7.179815e-01 -1.155354e+00 -1.350450e+00 -1.284510e+00 -1.286608e+00 -1.264968e+00 -1.076124e+00 -1.099571e+00 -6.262655e-01 2.797335e-03
<VARIANCE> 25
 5.642109e+01 3.706878e+01 4.121639e+01 4.243085e+01 2.933140e+01 2.775927e+01 2.711630e+01 2.416251e+01 3.138985e+01 2.412720e+01 3.316681e+01 2.193066e+01 2.322320e+00 2.191917e+00 2.331248e+00 1.834747e+00 2.123765e+00 2.026555e+00 2.370919e+00 2.074645e+00 1.801794e+00 1.770601e+00 2.077638e+00 1.473965e+00 2.102613e-03
<GCONST> 8.971365e+01
<MIXTURE> 20 6.308331e-03
<MEAN> 25
 -1.416957e+01 7.417361e+00 8.413925e-01 6.134762e+00 4.825129e+00 1.628639e+00 5.210618e+00 8.650672e-01 9.164518e-01 8.029737e-01 2.541627e+00 -2.874331e-01 -3.287180e+00 -8.623531e-01 -1.569666e+00 3.358854e-01 1.542052e+00 2.055762e+00 1.972983e+00 2.050413e+00 2.141111e+00 2.041220e+00 1.679832e+00 9.477662e-01 4.733852e-02
<VARIANCE> 25
 1.968352e+01 2.340544e+01 3.091532e+01 3.723756e+01 3.096097e+01 2.785968e+01 2.986367e+01 3.147236e+01 2.791620e+01 2.817253e+01 2.540679e+01 2.097677e+01 2.088048e+00 2.186198e+00 1.916994e+00 2.539906e+00 2.699113e+00 2.330601e+00 2.323069e+00 2.332076e+00 2.235548e+00 2.649344e+00 2.249453e+00 1.863820e+00 1.883132e-03
<GCONST> 8.924716e+01
<MIXTURE> 21 7.928653e-03
<MEAN> 25
 1.679733e+00 -5.027579e+00 6.142714e+00 -1.544196e+00 -1.150443e+01 -7.867896e+00 -2.241380e+00 2.806573e+00 -1.093934e-02 -3.904348e+00 -4.158515e-02 1.578836e-01 -8.054988e-01 1.382868e+00 2.731518e+00 2.440600e-01 -1.380876e+00 3.963017e-01 3.381186e-01 -1.532105e+00 -2.088779e+00 -8.650180e-02 1.359158e+00 8.534577e-01 -7.828854e-03
<VARIANCE> 25
 1.675838e+01 1.474051e+01 2.690343e+01 2.129982e+01 2.237431e+01 2.573378e+01 3.128743e+01 3.405633e+01 4.394988e+01 2.339407e+01 2.581646e+01 1.871135e+01 3.134594e-01 8.589689e-01 1.556616e+00 1.171202e+00 1.716751e+00 1.593839e+00 2.888967e+00 1.894085e+00 1.673344e+00 2.264996e+00 1.687245e+00 2.766940e+00 3.591364e-04
<GCONST> 8.118607e+01
<MIXTURE> 22 8.827789e-03
<MEAN> 25
 -1.791207e+01 7.154934e+00 -4.134778e+00 7.376340e+00 4.593497e+00 2.746565e+00 8.373511e+00 1.743992e+00 5.357758e+00 3.296080e+00 5.684080e+00 1.210193e+00 -3.115245e-01 -2.001593e-01 -1.253829e-01 -1.478140e-01 -7.450963e-03 1.362748e-01 1.795415e-01 1.735874e-01 2.441390e-01 2.065355e-01 1.694610e-01 1.920304e-01 8.938225e-03
<VARIANCE> 25
 8.112625e+00 1.676768e+01 1.732603e+01 2.515846e+01 2.284423e+01 2.082702e+01 1.955907e+01 1.865164e+01 1.820770e+01 2.080639e+01 1.947161e+01 1.391640e+01 1.089144e+00 1.368498e+00 1.362096e+00 1.567587e+00 1.405420e+00 1.521893e+00 1.504436e+00 1.533841e+00 1.614015e+00 1.539512e+00 1.358485e+00 1.164819e+00 1.742337e-03
<GCONST> 7.831141e+01
<MIXTURE> 23 6.455497e-03
<MEAN> 25
 6.810043e+00 1.529682e+00 2.099665e+00 4.182155e+00 -3.408172e+00 -3.997184e+00 -3.068851e+00 -7.291959e+00 -2.567124e+00 -4.841115e-01 -3.290263e+00 -2.839657e+00 3.456024e-02 1.605976e-01 2.425370e-02 4.398397e-03 2.567402e-02 6.720550e-02 -1.745230e-01 -1.200842e-01 2.026929e-02 1.764900e-01 1.167373e-01 -6.205439e-02 -3.796107e-03
<VARIANCE> 25
 1.154565e+01 2.136090e+01 2.167383e+01 4.408319e+01 3.691898e+01 4.497563e+01 5.285396e+01 4.841822e+01 4.067037e+01 3.943138e+01 4.324012e+01 3.376600e+01 1.062840e-01 2.542569e-01 3.602218e-01 4.103736e-01 5.566061e-01 6.104968e-01 9.443101e-01 7.934102e-01 7.851943e-01 8.340282e-01 7.237575e-01 6.718192e-01 8.251380e-05
<GCONST> 7.080773e+01
<MIXTURE> 24 6.455497e-03
<MEAN> 25
 6.810043e+00 1.529682e+00 2.099665e+00 4.182155e+00 -3.408172e+00 -3.997184e+00 -3.068851e+00 -7.291959e+00 -2.567124e+00 -4.841115e-01 -3.290263e+00 -2.839657e+00 3.456024e-02 1.605976e-01 2.425370e-02 4.398397e-03 2.567402e-02 6.720550e-02 -1.745230e-01 -1.200842e-01 2.026929e-02 1.764900e-01 1.167373e-01 -6.205439e-02 -3.796107e-03
<VARIANCE> 25
 1.154565e+01 2.136090e+01 2.167383e+01 4.408319e+01 3.691898e+01 4.497563e+01 5.285396e+01 4.841822e+01 4.067037e+01 3.943138e+01 4.324012e+01 3.376600e+01 1.062840e-01 2.542569e-01 3.602218e-01 4.103736e-01 5.566061e-01 6.104968e-01 9.443101e-01 7.934102e-01 7.851943e-01 8.340282e-01 7.237575e-01 6.718192e-01 8.251380e-05
<GCONST> 7.080773e+01
<MIXTURE> 25 1.118642e-02
<MEAN> 25
 -1.260505e+00 3.172143e+00 1.660428e+01 -1.241689e+00 -1.196657e+01 -2.192891e+00 -5.164062e+00 -3.224818e+00 -5.762761e+00 -6.829512e+00 4.317398e+00 9.199002e-01 -9.697955e-02 7.919067e-01 8.790349e-02 -1.163485e-01 4.355425e-01 4.394618e-01 1.597729e-01 5.121847e-02 -4.615687e-01 -3.672093e-01 -5.562552e-02 1.880640e-01 -1.669261e-02
<VARIANCE> 25
 1.629991e+01 1.935410e+01 1.759819e+01 2.546107e+01 2.820056e+01 3.482207e+01 2.256279e+01 2.480981e+01 2.813067e+01 3.931097e+01 1.777851e+01 4.747371e+01 6.223177e-01 1.788618e+00 1.386736e+00 1.414105e+00 2.176632e+00 2.237657e+00 1.780594e+00 1.637256e+00 1.471029e+00 2.251000e+00 1.279851e+00 1.990577e+00 1.284823e-03
<GCONST> 8.367873e+01
<MIXTURE> 26 7.727677e-03
<MEAN> 25
 2.183699e+00 -4.686027e+00 -9.539465e+00 -2.553532e+00 7.465419e+00 6.916011e+00 4.827623e+00 4.546412e-01 1.252825e+00 8.062229e-01 -2.632986e+00 -1.227797e+00 -5.580478e-01 6.899928e-01 2.550301e-01 8.281989e-01 1.922130e-01 -1.071035e-02 3.455504e-01 2.468919e-01 8.690007e-02 1.614517e-01 2.742191e-01 3.884185e-01 -4.867797e-02
<VARIANCE> 25
 2.019244e+01 3.913758e+01 2.331266e+01 6.953857e+01 3.281176e+01 4.638231e+01 4.377786e+01 4.090751e+01 3.692483e+01 5.568298e+01 3.355442e+01 3.783747e+01 1.391974e+00 1.635340e+00 1.714407e+00 1.870328e+00 2.077119e+00 2.170252e+00 2.454341e+00 2.696694e+00 2.240688e+00 2.330971e+00 2.059707e+00 1.718313e+00 2.679008e-03
<GCONST> 9.198151e+01
<MIXTURE> 27 7.727677e-03
<MEAN> 25
 2.183699e+00 -4.686027e+00 -9.539465e+00 -2.553532e+00 7.465419e+00 6.916011e+00 4.827623e+00 4.546412e-01 1.252825e+00 8.062229e-01 -2.632986e+00 -1.227797e+00 -5.580478e-01 6.899928e-01 2.550301e-01 8.281989e-01 1.922130e-01 -1.071035e-02 3.455504e-01 2.468919e-01 8.690007e-02 1.614517e-01 2.742191e-01 3.884185e-01 -4.867797e-02
<VARIANCE> 25
 2.019244e+01 3.913758e+01 2.331266e+01 6.953857e+01 3.281176e+01 4.638231e+01 4.377786e+01 4.090751e+01 3.692483e+01 5.568298e+01 3.355442e+01 3.783747e+01 1.391974e+00 1.635340e+00 1.714407e+00 1.870328e+00 2.077119e+00 2.170252e+00 2.454341e+00 2.696694e+00 2.240688e+00 2.330971e+00 2.059707e+00 1.718313e+00 2.679008e-03
<GCONST> 9.198151e+01
<MIXTURE> 28 5.036674e-03
<MEAN> 25
 -5.069004e+00 6.035335e-01 -1.943320e+00 6.148470e+00 5.268744e+00 3.707159e+00 6.032127e+00 3.298535e+00 3.112757e+00 2.843313e+00 2.719815e+00 3.410393e+00 -6.832100e-02 2.090558e-01 5.597032e-01 8.144011e-01 7.941507e-01 6.691801e-01 5.634468e-01 4.694423e-01 4.144910e-01 4.608896e-01 3.704987e-01 1.982854e-01 4.626057e-05
<VARIANCE> 25
 1.068139e+01 1.054460e+01 1.221940e+01 1.560395e+01 1.373942e+01 1.641510e+01 1.956169e+01 1.762157e+01 2.236799e+01 1.756862e+01 2.033252e+01 1.411517e+01 2.615493e-01 3.157117e-01 3.901868e-01 4.455000e-01 5.822423e-01 7.762432e-01 1.005348e+00 1.122555e+00 1.010717e+00 1.099807e+00 9.484459e-01 1.083113e+00 1.206075e-06
<GCONST> 6.040358e+01
<MIXTURE> 29 5.036674e-03
<MEAN> 25
 -5.069004e+00 6.035335e-01 -1.943320e+00 6.148470e+00 5.268744e+00 3.707159e+00 6.032127e+00 3.298535e+00 3.112757e+00 2.843313e+00 2.719815e+00 3.410393e+00 -6.832100e-02 2.090558e-01 5.597032e-01 8.144011e-01 7.941507e-01 6.691801e-01 5.634468e-01 4.694423e-01 4.144910e-01 4.608896e-01 3.704987e-01 1.982854e-01 4.626057e-05
<VARIANCE> 25
 1.068139e+01 1.054460e+01 1.221940e+01 1.560395e+01 1.373942e+01 1.641510e+01 1.956169e+01 1.762157e+01 2.236799e+01 1.756862e+01 2.033252e+01 1.411517e+01 2.615493e-01 3.157117e-01 3.901868e-01 4.455000e-01 5.822423e-01 7.762432e-01 1.005348e+00 1.122555e+00 1.010717e+00 1.099807e+00 9.484459e-01 1.083113e+00 1.206075e-06
<GCONST> 6.040358e+01
<MIXTURE> 30 8.917812e-03
<MEAN> 25
 -4.252396e+00 4.474721e-01 4.275802e-01 8.727936e+00 7.993745e+00 7.308720e+00 7.750440e+00 6.866786e+00 5.683294e+00 4.869331e+00 6.332695e+00 3.467083e+00 -3.548950e-04 4.086182e-02 6.480218e-02 9.209496e-02 1.231683e-01 3.669083e-02 1.878386e-02 1.520087e-02 2.073650e-02 5.442712e-02 4.782736e-02 2.762844e-02 -6.055936e-04
<VARIANCE> 25
 7.274847e+00 1.414418e+01 1.031825e+01 1.430358e+01 1.545662e+01 1.604705e+01 1.819113e+01 1.724942e+01 2.379455e+01 1.791568e+01 2.529812e+01 1.455107e+01 9.934410e-02 1.941276e-01 3.103950e-01 4.696725e-01 6.244218e-01 7.355623e-01 7.541246e-01 8.140337e-01 8.237951e-01 9.734860e-01 8.826477e-01 8.282515e-01 5.080495e-05
<GCONST> 6.123935e+01
<MIXTURE> 31 4.136493e-03
<MEAN> 25
 -2.987045e+00 -5.268600e+00 -7.092006e-03 4.820867e+00 3.714994e+00 1.552030e+00 5.118187e+00 6.883727e+00 2.407203e+00 1.499577e+00 6.470296e+00 3.088392e+00 2.175748e-01 5.030118e-01 -2.101721e-01 2.676371e-01 1.953239e-01 4.375714e-01 2.549691e-01 8.368378e-02 3.994129e-01 4.253658e-01 8.891841e-02 1.827801e-01 -1.967506e-02
<VARIANCE> 25
 8.132654e+00 1.719453e+01 1.656706e+01 1.712072e+01 2.469610e+01 2.386845e+01 2.333086e+01 2.481797e+01 2.611442e+01 2.790041e+01 1.968960e+01 1.812548e+01 2.021913e-01 4.930252e-01 5.763243e-01 7.773303e-01 9.898303e-01 1.026758e+00 1.233429e+00 1.416005e+00 1.278923e+00 1.300789e+00 1.180104e+00 1.178146e+00 2.862028e-04
<GCONST> 7.188904e+01
<MIXTURE> 32 4.136493e-03
<MEAN> 25
 -2.987045e+00 -5.268600e+00 -7.092006e-03 4.820867e+00 3.714994e+00 1.552030e+00 5.118187e+00 6.883727e+00 2.407203e+00 1.499577e+00 6.470296e+00 3.088392e+00 2.175748e-01 5.030118e-01 -2.101721e-01 2.676371e-01 1.953239e-01 4.375714e-01 2.549691e-01 8.368378e-02 3.994129e-01 4.253658e-01 8.891841e-02 1.827801e-01 -1.967506e-02
<VARIANCE> 25
 8.132654e+00 1.719453e+01 1.656706e+01 1.712072e+01 2.469610e+01 2.386845e+01 2.333086e+01 2.481797e+01 2.611442e+01 2.790041e+01 1.968960e+01 1.812548e+01 2.021913e-01 4.930252e-01 5.763243e-01 7.773303e-01 9.898303e-01 1.026758e+00 1.233429e+00 1.416005e+00 1.278923e+00 1.300789e+00 1.180104e+00 1.178146e+00 2.862028e-04
<GCONST> 7.188904e+01
<MIXTURE> 33 1.508826e-02
<MEAN> 25
 6.207901e+00 -4.150742e+00 -1.970643e+00 -2.473151e+00 -2.072065e+00 -5.813624e+00 -7.408751e+00 1.512011e+00 2.488262e+00 -5.130112e-01 -4.407691e+00 -2.835596e+00 5.911672e-01 -1.204338e+00 -2.321463e+00 -1.873329e+00 1.294019e+00 1.310834e+00 -6.225333e-01 6.715578e-01 1.044793e+00 4.395370e-01 -3.223178e-01 -1.342270e+00 3.868422e-02
<VARIANCE> 25
 1.142802e+01 2.022312e+01 2.838299e+01 3.627969e+01 3.836215e+01 4.225929e+01 4.081154e+01 4.500913e+01 3.844250e+01 4.277493e+01 3.568191e+01 2.808019e+01 1.152822e+00 1.853229e+00 2.297924e+00 2.107521e+00 4.389434e+00 3.445241e+00 4.314880e+00 5.314332e+00 3.577161e+00 4.374518e+00 3.186381e+00 2.478854e+00 1.422193e-03
<GCONST> 9.399525e+01
<MIXTURE> 34 1.588179e-02
<MEAN> 25
 8.821121e+00 1.125675e-02 1.029791e-01 1.336602e+00 -2.851345e+00 -1.630838e+00 -6.126667e+00 -4.610830e+00 -1.819615e+00 1.039730e-01 -2.634316e+00 -3.652021e+00 -1.247870e-02 1.338886e+00 1.448866e+00 2.375145e+00 -3.710687e-02 -1.388570e-01 8.245460e-01 -1.653622e+00 -8.917068e-01 2.769496e-01 -5.572056e-01 2.378229e-01 -6.221662e-02
<VARIANCE> 25
 8.342338e+00 3.074242e+01 2.936491e+01 5.051722e+01 4.252561e+01 4.977019e+01 5.475896e+01 5.714088e+01 5.199660e+01 4.290125e+01 4.775259e+01 3.133992e+01 1.249518e+00 1.967447e+00 4.268920e+00 4.049107e+00 5.577000e+00 5.776004e+00 5.526689e+00 6.105448e+00 5.160021e+00 4.940667e+00 4.966691e+00 3.839535e+00 1.154564e-03
<GCONST> 9.968601e+01
<MIXTURE> 35 1.467755e-02
<MEAN> 25
 -2.478798e+00 -4.450602e+00 -1.021537e+01 1.589316e+00 9.051944e+00 -2.399698e-01 1.261042e+00 2.369859e+00 2.179066e-02 3.940391e+00 -3.045977e-01 2.804162e+00 1.533588e-01 -9.069897e-01 -1.828305e+00 -9.180758e-01 5.985039e-01 -7.810419e-01 -6.090166e-01 -1.063975e+00 -3.472090e-01 4.459353e-01 -6.145792e-01 -2.507236e-01 1.006498e-01
<VARIANCE> 25
 1.908503e+01 2.637640e+01 4.424439e+01 5.813632e+01 3.637862e+01 5.106810e+01 4.325516e+01 4.323453e+01 5.005066e+01 3.476308e+01 3.164826e+01 3.031151e+01 3.651650e+00 3.191631e+00 6.861408e+00 5.522493e+00 4.620882e+00 4.572698e+00 4.117908e+00 7.226874e+00 4.333812e+00 4.142553e+00 3.703400e+00 3.372301e+00 4.520406e-03
<GCONST> 1.019573e+02
<MIXTURE> 36 1.093293e-02
<MEAN> 25
 3.541531e+00 -6.142884e+00 6.964711e+00 3.192567e+00 -7.538269e+00 -9.063024e+00 -9.208737e+00 5.878564e+00 -3.608305e-01 -6.122550e+00 2.913631e+00 -3.111962e-01 2.533461e-01 2.917084e-01 -1.056142e+00 3.315695e-01 1.101483e+00 -1.320287e-01 9.177133e-02 6.906014e-01 -1.551411e-01 4.585673e-01 -3.143246e-01 -1.693060e-01 -1.577257e-02
<VARIANCE> 25
 6.118681e+00 1.965937e+01 2.747900e+01 1.875900e+01 2.547795e+01 1.681648e+01 4.173888e+01 4.407053e+01 2.282056e+01 2.059224e+01 1.982368e+01 1.704253e+01 3.297746e-01 7.430522e-01 1.121279e+00 1.420345e+00 1.239110e+00 1.241105e+00 1.803767e+00 1.703884e+00 1.536972e+00 1.259426e+00 1.518069e+00 1.372868e+00 8.355551e-04
<GCONST> 7.745411e+01
<MIXTURE> 37 1.246826e-02
<MEAN> 25
 -4.542007e-01 7.403522e+00 1.205908e+01 -5.222169e+00 -8.103023e+00 6.258791e-02 -4.085172e+00 -6.498273e+00 -3.999016e+00 -3.523009e+00 -2.513521e+00 5.201557e-01 5.320439e-01 5.360023e-01 -1.405643e+00 2.871839e+00 1.990999e+00 9.787235e-02 1.368111e+00 6.883692e-01 3.567416e-01 6.065729e-02 6.318520e-02 -6.431751e-01 -9.960914e-02
<VARIANCE> 25
 1.749640e+01 2.158176e+01 2.491649e+01 4.096989e+01 2.813440e+01 3.111016e+01 3.999565e+01 3.877238e+01 3.131756e+01 5.021399e+01 3.434807e+01 3.748229e+01 2.939803e+00 2.884495e+00 2.444833e+00 4.842771e+00 3.747874e+00 3.925052e+00 3.602700e+00 3.222713e+00 2.978430e+00 3.640148e+00 3.820192e+00 3.283445e+00 3.273447e-03
<GCONST> 9.639137e+01
<MIXTURE> 38 1.154525e-02
<MEAN> 25
 -4.666564e+00 9.121936e+00 3.968028e+00 2.874962e+00 5.873309e-01 -4.777562e+00 1.754444e-01 -1.592000e+00 -2.853787e+00 -2.528133e+00 -2.670119e+00 3.292153e-01 -4.323207e+00 1.185591e+00 -6.165681e-01 1.450662e+00 2.274017e+00 9.978214e-01 1.748450e+00 9.125786e-01 7.315751e-01 7.937721e-01 5.329803e-01 6.112183e-01 4.793213e-02
<VARIANCE> 25
 2.822486e+01 2.735976e+01 3.554058e+01 3.236282e+01 4.855782e+01 3.169168e+01 3.443148e+01 4.410297e+01 2.958541e+01 2.938790e+01 2.763193e+01 2.924008e+01 2.215178e+00 3.443884e+00 4.414456e+00 4.340057e+00 4.396585e+00 4.932646e+00 4.541286e+00 4.237377e+00 3.822772e+00 4.902377e+00 4.773984e+00 3.138633e+00 1.808627e-03
<GCONST> 9.811162e+01
<MIXTURE> 39 9.501865e-03
<MEAN> 25
 1.020126e+00 2.482717e+00 1.045778e+01 -8.871608e+00 -1.147177e+01 -1.174492e+00 -3.064431e+00 -6.545205e+00 -4.328919e+00 6.112585e-01 -3.397419e+00 -1.964938e+00 -7.397231e-01 1.564522e+00 1.622112e+00 -1.389403e+00 7.319248e-02 1.200771e+00 -1.213246e+00 -1.222725e+00 3.713617e-01 3.320684e-01 -4.383201e-01 2.511567e-01 1.443405e-03
<VARIANCE> 25
 1.139355e+01 2.949505e+01 3.230262e+01 4.020798e+01 3.686836e+01 4.217567e+01 4.321135e+01 3.234603e+01 3.912319e+01 3.390897e+01 3.715314e+01 3.149746e+01 6.714655e-01 1.543965e+00 1.466214e+00 2.828670e+00 2.335579e+00 2.739261e+00 2.954784e+00 2.680628e+00 2.446141e+00 2.875172e+00 2.174314e+00 2.442414e+00 1.144995e-03
<GCONST> 9.001252e+01
<MIXTURE> 40 1.030800e-02
<MEAN> 25
 -8.012693e+00 2.923798e+00 -1.465767e+00 7.456844e+00 4.640699e+00 5.600998e+00 5.988574e+00 4.270094e+00 3.005499e+00 5.106683e+00 4.961458e+00 1.658261e+00 -7.283944e-02 -1.295858e-01 4.339681e-02 -8.425340e-02 -7.382897e-02 -2.296150e-01 7.326204e-03 8.787347e-03 8.267636e-04 -9.650981e-03 3.422875e-04 5.454987e-02 3.243068e-03
<VARIANCE> 25
 4.481175e+01 2.122815e+01 2.617742e+01 2.643865e+01 2.582053e+01 1.684812e+01 1.973830e+01 1.615738e+01 2.754107e+01 2.134096e+01 2.016214e+01 1.325321e+01 6.949267e-01 7.112073e-01 7.900532e-01 1.081631e+00 1.066196e+00 1.190378e+00 1.380265e+00 1.305721e+00 1.104196e+00 1.231939e+00 1.182323e+00 9.990743e-01 7.633439e-04
<GCONST> 7.641107e+01
<MIXTURE> 41 6.713375e-03
<MEAN> 25
 1.285093e+00 1.704023e+00 1.036226e+01 -6.919842e+00 -1.035680e+01 -3.885632e+00 -2.559310e+00 -4.966646e+00 -4.519618e+00 2.722701e+00 -1.733193e+00 -9.182052e-01 6.068309e-02 -7.767926e-01 1.679485e+00 -3.564888e+00 -2.458028e+00 -1.088360e-01 -5.038568e-01 -3.154705e-01 -7.975028e-01 1.052836e+00 -1.046225e+00 7.819231e-02 8.609688e-02
<VARIANCE> 25
 1.160540e+01 2.978127e+01 3.320771e+01 3.978588e+01 3.924136e+01 3.966078e+01 3.700439e+01 2.993690e+01 3.392886e+01 2.877125e+01 3.145194e+01 2.694176e+01 3.155458e+00 3.296015e+00 3.794266e+00 3.761966e+00 4.839161e+00 5.794778e+00 4.659040e+00 4.630287e+00 3.985124e+00 4.250865e+00 3.786013e+00 3.198542e+00 2.895276e-03
<GCONST> 9.784901e+01
<MIXTURE> 42 1.106211e-02
<MEAN> 25
 -2.498904e+00 5.132648e+00 4.148369e+00 4.173696e+00 3.424466e-01 -7.053786e+00 -1.296727e+00 -1.657598e+00 -2.350872e+00 -6.429590e-01 -3.237349e+00 2.649854e+00 3.482540e+00 -9.517417e-01 2.115869e+00 4.549295e-02 -2.791280e+00 -1.206382e+00 -2.579260e+00 -9.243575e-01 3.146502e-02 -1.109626e+00 1.051950e+00 -1.177458e+00 1.726251e-02
<VARIANCE> 25
 2.945940e+01 1.800445e+01 5.367196e+01 2.215977e+01 3.821685e+01 3.013175e+01 3.666026e+01 2.297537e+01 2.259418e+01 2.455286e+01 2.435561e+01 1.657371e+01 3.429783e+00 4.548241e+00 4.987960e+00 3.862822e+00 3.453710e+00 4.370992e+00 3.819938e+00 3.907763e+00 4.759706e+00 3.786741e+00 4.643512e+00 3.289872e+00 3.411210e-03
<GCONST> 9.646642e+01
<MIXTURE> 43 7.108249e-03
<MEAN> 25
 3.163050e+00 -6.298660e+00 -2.254197e+00 -5.172222e+00 -7.380594e+00 -3.401857e+00 4.137075e+00 1.308549e+00 -5.058445e+00 -7.082857e+00 -4.317323e+00 -1.251340e+00 2.377559e-01 2.162198e+00 1.909240e+00 -1.317700e-01 -1.428470e+00 -7.921817e-01 -9.619371e-01 -7.822080e-01 8.202770e-01 1.468157e+00 3.430477e-01 2.130086e-02 -4.509305e-02
<VARIANCE> 25
 9.589170e+00 1.969955e+01 2.732894e+01 3.555344e+01 3.853406e+01 3.676522e+01 3.325276e+01 3.987579e+01 3.965268e+01 3.862233e+01 2.651056e+01 2.949706e+01 6.895018e-01 1.251448e+00 1.579266e+00 2.490101e+00 2.373057e+00 2.380951e+00 2.675104e+00 3.026590e+00 2.603877e+00 2.573728e+00 2.329259e+00 1.920183e+00 9.423144e-04
<GCONST> 8.798703e+01
<MIXTURE> 44 7.328289e-03
<MEAN> 25
 -1.530181e+01 1.645968e+00 3.453544e+00 -3.176644e+00 3.361315e+00 2.024871e+00 9.604441e-03 2.446331e+00 1.458140e+00 -7.007958e-01 1.686831e+00 2.040827e+00 -1.708006e-01 1.698960e-02 1.689892e-01 2.995894e-01 -1.231704e-01 1.848953e-01 4.631607e-01 1.019526e-01 2.297877e-01 1.308867e-01 4.541590e-02 9.564349e-02 4.670191e-03
<VARIANCE> 25
 4.196762e+01 2.841999e+01 3.530694e+01 3.062468e+01 2.929988e+01 3.017345e+01 2.492665e+01 3.152914e+01 2.796637e+01 2.735665e+01 2.807828e+01 1.966954e+01 1.210545e+00 1.561180e+00 1.389623e+00 1.324135e+00 2.141334e+00 1.635417e+00 1.496972e+00 1.643884e+00 1.571350e+00 1.491990e+00 1.369572e+00 1.210341e+00 1.278830e-03
<GCONST> 8.451800e+01
<MIXTURE> 45 1.364932e-02
<MEAN> 25
 -1.181919e+01 4.726523e+00 -1.660257e+00 2.843035e+00 5.144086e+00 -3.394183e-01 4.373179e+00 2.841691e+00 2.394345e+00 2.127892e+00 6.635180e-01 3.514533e+00 -2.926818e+00 6.476874e-01 -8.516509e-01 -1.329818e-01 3.907005e-01 -1.637141e-01 1.807633e-01 -1.919088e-01 -4.470507e-02 7.944994e-02 2.037383e-01 4.971159e-01 1.087668e-01
<VARIANCE> 25
 3.238348e+01 3.126469e+01 2.520057e+01 2.933848e+01 2.824703e+01 2.507995e+01 2.513357e+01 2.271014e+01 2.240109e+01 2.037741e+01 3.266576e+01 1.576757e+01 2.042129e+00 2.482684e+00 3.144096e+00 2.609183e+00 2.452884e+00 2.164255e+00 2.195657e+00 2.463328e+00 1.781093e+00 2.087807e+00 2.159147e+00 1.895074e+00 3.562822e-03
<GCONST> 8.892107e+01
<MIXTURE> 46 9.336259e-03
<MEAN> 25
 -9.441934e+00 2.316842e+00 1.190784e+00 7.558440e+00 5.945019e+00 3.340835e+00 7.070653e+00 4.497949e+00 5.685092e+00 4.700546e+00 5.029146e+00 2.924896e+00 1.058042e+00 -2.384899e-01 4.048493e-02 1.001968e+00 6.040079e-01 9.398155e-01 3.862473e-01 6.722662e-01 4.720286e-01 5.080636e-01 6.377200e-01 5.235738e-01 -1.054830e-01
<VARIANCE> 25
 3.439359e+01 4.378809e+01 3.852676e+01 4.996040e+01 5.076771e+01 4.081408e+01 3.705312e+01 3.532769e+01 3.334520e+01 3.100088e+01 2.827387e+01 2.020644e+01 3.909129e+00 4.138773e+00 3.879043e+00 4.132271e+00 4.168714e+00 3.695906e+00 3.382539e+00 3.115733e+00 2.977941e+00 2.864280e+00 2.311838e+00 1.782021e+00 7.958022e-03
<GCONST> 9.830274e+01
<MIXTURE> 47 7.116147e-03
<MEAN> 25
 6.121421e+00 -6.702430e+00 -6.840172e+00 -6.942173e+00 -3.770432e-01 1.395218e+00 -2.234201e+00 -6.101279e-01 4.391643e+00 3.758190e-02 -1.354885e+00 -7.160477e+00 -2.753550e-01 -1.106526e+00 -5.446739e-01 -5.627388e-01 4.443780e-01 8.991980e-01 1.089400e+00 1.970006e-01 4.401393e-01 -9.563348e-01 -5.785030e-01 -4.506668e-01 2.852308e-02
<VARIANCE> 25
 1.326676e+01 1.868913e+01 1.947565e+01 3.097498e+01 3.923906e+01 5.331736e+01 4.305379e+01 4.469102e+01 4.196918e+01 3.775835e+01 7.015611e+01 2.845778e+01 4.572014e-01 7.224393e-01 9.607084e-01 1.454282e+00 1.941658e+00 1.882786e+00 2.083869e+00 2.024663e+00 2.183903e+00 1.915877e+00 1.915766e+00 1.831782e+00 4.973999e-04
<GCONST> 8.508110e+01
<MIXTURE> 48 7.116147e-03
<MEAN> 25
 6.121421e+00 -6.702430e+00 -6.840172e+00 -6.942173e+00 -3.770432e-01 1.395218e+00 -2.234201e+00 -6.101279e-01 4.391643e+00 3.758190e-02 -1.354885e+00 -7.160477e+00 -2.753550e-01 -1.106526e+00 -5.446739e-01 -5.627388e-01 4.443780e-01 8.991980e-01 1.089400e+00 1.970006e-01 4.401393e-01 -9.563348e-01 -5.785030e-01 -4.506668e-01 2.852308e-02
<VARIANCE> 25
 1.326676e+01 1.868913e+01 1.947565e+01 3.097498e+01 3.923906e+01 5.331736e+01 4.305379e+01 4.469102e+01 4.196918e+01 3.775835e+01 7.015611e+01 2.845778e+01 4.572014e-01 7.224393e-01 9.607084e-01 1.454282e+00 1.941658e+00 1.882786e+00 2.083869e+00 2.024663e+00 2.183903e+00 1.915877e+00 1.915766e+00 1.831782e+00 4.973999e-04
<GCONST> 8.508110e+01
<MIXTURE> 49 5.548473e-03
<MEAN> 25
 -4.819397e+00 7.595224e-01 5.825905e-03 8.220654e+00 6.336183e+00 5.698415e+00 6.383862e+00 4.488126e+00 4.447022e+00 4.161846e+00 4.710836e+00 2.802194e+00 3.673207e-01 6.424795e-01 7.014605e-01 3.795015e-01 -1.456242e-01 -6.926975e-01 -1.034819e+00 -1.123138e+00 -9.196581e-01 -6.364142e-01 -4.640941e-01 -2.541305e-01 5.242286e-04
<VARIANCE> 25
 1.027066e+01 1.223639e+01 1.398780e+01 1.592266e+01 1.564676e+01 1.653526e+01 2.033301e+01 1.848471e+01 2.305493e+01 2.074319e+01 2.052909e+01 1.372126e+01 2.696180e-01 2.582517e-01 3.457219e-01 6.021730e-01 8.858899e-01 9.462886e-01 1.026635e+00 1.018071e+00 1.103879e+00 1.224424e+00 1.228330e+00 1.162359e+00 2.048966e-05
<GCONST> 6.497813e+01
<MIXTURE> 50 6.234641e-03
<MEAN> 25
 -4.441844e+00 6.568346e-01 -1.571992e+00 6.056652e+00 4.608368e+00 2.430181e+00 3.919687e+00 2.121542e+00 2.114530e+00 1.704442e+00 1.885401e+00 2.678098e+00 4.492068e-02 1.900490e-01 1.114130e-01 -1.669180e-01 -4.861183e-01 -5.909582e-01 -4.402860e-01 -4.379586e-02 4.545710e-01 7.415500e-01 7.010751e-01 3.584994e-01 -2.739297e-05
<VARIANCE> 25
 1.038953e+01 1.419127e+01 1.363889e+01 1.478288e+01 1.612277e+01 1.777193e+01 1.879261e+01 1.906539e+01 2.321337e+01 1.779023e+01 2.187280e+01 1.485266e+01 1.595072e-01 2.702508e-01 3.611607e-01 4.937484e-01 5.682947e-01 7.195646e-01 9.851440e-01 1.050478e+00 1.040624e+00 9.847541e-01 8.761894e-01 1.104453e+00 1.068322e-06
<GCONST> 6.010677e+01
<MIXTURE> 51 6.234641e-03
<MEAN> 25
 -4.441844e+00 6.568346e-01 -1.571992e+00 6.056652e+00 4.608368e+00 2.430181e+00 3.919687e+00 2.121542e+00 2.114530e+00 1.704442e+00 1.885401e+00 2.678098e+00 4.492068e-02 1.900490e-01 1.114130e-01 -1.669180e-01 -4.861183e-01 -5.909582e-01 -4.402860e-01 -4.379586e-02 4.545710e-01 7.415500e-01 7.010751e-01 3.584994e-01 -2.739297e-05
<VARIANCE> 25
 1.038953e+01 1.419127e+01 1.363889e+01 1.478288e+01 1.612277e+01 1.777193e+01 1.879261e+01 1.906539e+01 2.321337e+01 1.779023e+01 2.187280e+01 1.485266e+01 1.595072e-01 2.702508e-01 3.611607e-01 4.937484e-01 5.682947e-01 7.195646e-01 9.851440e-01 1.050478e+00 1.040624e+00 9.847541e-01 8.761894e-01 1.104453e+00 1.068322e-06
<GCONST> 6.010677e+01
<MIXTURE> 52 6.367945e-03
<MEAN> 25
 9.847013e+00 1.803658e+00 -6.139891e+00 -1.426647e+01 -3.924481e+00 8.887424e+00 -2.355980e+00 -2.966629e+00 -4.148628e+00 -1.901401e+00 3.156437e+00 6.651933e-01 -3.760392e-01 -4.228466e-01 -9.465134e-02 1.128847e+00 1.337298e+00 -4.683382e-01 -6.023629e-01 -5.700801e-01 -5.274909e-03 1.213246e+00 3.890427e-01 -5.282326e-01 -1.511118e-02
<VARIANCE> 25
 1.040667e+01 2.156282e+01 2.443657e+01 3.757690e+01 4.569737e+01 3.194133e+01 4.746771e+01 4.755204e+01 4.296409e+01 4.569825e+01 3.915017e+01 2.884085e+01 4.594324e-01 1.483807e+00 1.284163e+00 2.698530e+00 2.245854e+00 2.119406e+00 2.930356e+00 2.906839e+00 2.980065e+00 2.622378e+00 2.422265e+00 2.183520e+00 1.511521e-03
<GCONST> 8.959135e+01
<MIXTURE> 53 6.367945e-03
<MEAN> 25
 9.847013e+00 1.803658e+00 -6.139891e+00 -1.426647e+01 -3.924481e+00 8.887424e+00 -2.355980e+00 -2.966629e+00 -4.148628e+00 -1.901401e+00 3.156437e+00 6.651933e-01 -3.760392e-01 -4.228466e-01 -9.465134e-02 1.128847e+00 1.337298e+00 -4.683382e-01 -6.023629e-01 -5.700801e-01 -5.274909e-03 1.213246e+00 3.890427e-01 -5.282326e-01 -1.511118e-02
<VARIANCE> 25
 1.040667e+01 2.156282e+01 2.443657e+01 3.757690e+01 4.569737e+01 3.194133e+01 4.746771e+01 4.755204e+01 4.296409e+01 4.569825e+01 3.915017e+01 2.884085e+01 4.594324e-01 1.483807e+00 1.284163e+00 2.698530e+00 2.245854e+00 2.119406e+00 2.930356e+00 2.906839e+00 2.980065e+00 2.622378e+00 2.422265e+00 2.183520e+00 1.511521e-03
<GCONST> 8.959135e+01
<MIXTURE> 54 7.368620e-03
<MEAN> 25
 -3.584811e+00 2.023002e-01 -7.004775e-01 8.001291e+00 6.575962e+00 4.578933e+00 4.656904e+00 4.546069e+00 3.834593e+00 3.634673e+00 4.348991e+00 2.318811e+00 -1.311451e-04 2.340169e-02 3.288159e-02 4.402057e-02 5.304468e-02 4.213597e-02 4.107590e-02 3.143741e-02 3.714233e-02 9.077243e-03 1.239191e-02 1.522347e-02 -4.068658e-05
<VARIANCE> 25
 9.103224e+00 1.135732e+01 9.141701e+00 1.794201e+01 1.352410e+01 1.350651e+01 1.229518e+01 1.165544e+01 1.365911e+01 1.348609e+01 1.811691e+01 1.245765e+01 4.091613e-02 8.777821e-02 1.512894e-01 2.231646e-01 3.095779e-01 3.989370e-01 4.528748e-01 5.153884e-01 5.360082e-01 5.449219e-01 5.094852e-01 5.285317e-01 1.100892e-06
<GCONST> 4.766712e+01
<MIXTURE> 55 7.368620e-03
<MEAN> 25
 -3.584811e+00 2.023002e-01 -7.004775e-01 8.001291e+00 6.575962e+00 4.578933e+00 4.656904e+00 4.546069e+00 3.834593e+00 3.634673e+00 4.348991e+00 2.318811e+00 -1.311451e-04 2.340169e-02 3.288159e-02 4.402057e-02 5.304468e-02 4.213597e-02 4.107590e-02 3.143741e-02 3.714233e-02 9.077243e-03 1.239191e-02 1.522347e-02 -4.068658e-05
<VARIANCE> 25
 9.103224e+00 1.135732e+01 9.141701e+00 1.794201e+01 1.352410e+01 1.350651e+01 1.229518e+01 1.165544e+01 1.365911e+01 1.348609e+01 1.811691e+01 1.245765e+01 4.091613e-02 8.777821e-02 1.512894e-01 2.231646e-01 3.095779e-01 3.989370e-01 4.528748e-01 5.153884e-01 5.360082e-01 5.449219e-01 5.094852e-01 5.285317e-01 1.100892e-06
<GCONST> 4.766712e+01
<MIXTURE> 56 6.132464e-03
<MEAN> 25
 5.600437e+00 -6.205263e+00 -7.042422e+00 -1.134353e+01 2.342218e+00 8.120468e+00 1.476809e+00 -3.537827e+00 4.077645e+00 5.713499e-01 -7.032089e-01 -6.241433e+00 8.283250e-03 -2.985443e-02 5.076044e-02 -9.198938e-02 3.907980e-01 2.027332e-01 1.934068e-01 1.068750e-01 -2.022481e-01 5.555412e-02 -4.218750e-01 1.590930e-01 -7.832485e-03
<VARIANCE> 25
 1.010246e+01 1.986958e+01 1.822743e+01 4.138044e+01 3.136928e+01 5.251293e+01 5.287246e+01 3.826243e+01 4.202951e+01 2.840525e+01 3.184454e+01 2.404129e+01 1.890580e-01 4.145613e-01 3.760359e-01 8.843920e-01 7.242762e-01 9.278772e-01 7.960224e-01 7.618399e-01 6.836278e-01 7.907533e-01 1.056898e+00 8.755992e-01 3.263508e-04
<GCONST> 7.335455e+01
<MIXTURE> 57 6.132464e-03
<MEAN> 25
 5.600437e+00 -6.205263e+00 -7.042422e+00 -1.134353e+01 2.342218e+00 8.120468e+00 1.476809e+00 -3.537827e+00 4.077645e+00 5.713499e-01 -7.032089e-01 -6.241433e+00 8.283250e-03 -2.985443e-02 5.076044e-02 -9.198938e-02 3.907980e-01 2.027332e-01 1.934068e-01 1.068750e-01 -2.022481e-01 5.555412e-02 -4.218750e-01 1.590930e-01 -7.832485e-03
<VARIANCE> 25
 1.010246e+01 1.986958e+01 1.822743e+01 4.138044e+01 3.136928e+01 5.251293e+01 5.287246e+01 3.826243e+01 4.202951e+01 2.840525e+01 3.184454e+01 2.404129e+01 1.890580e-01 4.145613e-01 3.760359e-01 8.843920e-01 7.242762e-01 9.278772e-01 7.960224e-01 7.618399e-01 6.836278e-01 7.907533e-01 1.056898e+00 8.755992e-01 3.263508e-04
<GCONST> 7.335455e+01
<MIXTURE> 58 6.172147e-03
<MEAN> 25
 2.439678e+00 -3.233163e+00 7.017653e+00 -5.167884e+00 -1.317190e+01 -5.629172e+00 1.371543e+00 8.010195e-01 -1.929693e+00 1.625740e+00 6.263968e-01 -9.932453e-01 -4.314574e-02 -1.285709e-01 -6.171721e-02 -1.535812e-01 -7.844276e-02 2.450453e-01 4.154946e-01 2.275809e-01 3.643120e-02 -2.869663e-02 -8.443139e-02 -1.344166e-01 -2.262334e-03
<VARIANCE> 25
 7.671150e+00 1.522560e+01 2.197572e+01 2.658016e+01 2.426410e+01 4.462831e+01 3.329940e+01 3.431275e+01 3.609113e+01 3.089259e+01 2.354063e+01 2.057172e+01 3.014244e-01 7.803354e-01 7.471882e-01 1.005852e+00 9.910384e-01 1.205597e+00 1.159655e+00 1.257352e+00 1.053991e+00 1.105158e+00 8.825856e-01 8.708112e-01 7.138725e-04
<GCONST> 7.577188e+01
<MIXTURE> 59 6.172147e-03
<MEAN> 25
 2.439678e+00 -3.233163e+00 7.017653e+00 -5.167884e+00 -1.317190e+01 -5.629172e+00 1.371543e+00 8.010195e-01 -1.929693e+00 1.625740e+00 6.263968e-01 -9.932453e-01 -4.314574e-02 -1.285709e-01 -6.171721e-02 -1.535812e-01 -7.844276e-02 2.450453e-01 4.154946e-01 2.275809e-01 3.643120e-02 -2.869663e-02 -8.443139e-02 -1.344166e-01 -2.262334e-03
<VARIANCE> 25
 7.671150e+00 1.522560e+01 2.197572e+01 2.658016e+01 2.426410e+01 4.462831e+01 3.329940e+01 3.431275e+01 3.609113e+01 3.089259e+01 2.354063e+01 2.057172e+01 3.014244e-01 7.803354e-01 7.471882e-01 1.005852e+00 9.910384e-01 1.205597e+00 1.159655e+00 1.257352e+00 1.053991e+00 1.105158e+00 8.825856e-01 8.708112e-01 7.138725e-04
<GCONST> 7.577188e+01
<MIXTURE> 60 4.479129e-03
<MEAN> 25
 -4.248792e+00 -6.344864e-01 -1.117830e+00 3.674001e+00 1.753322e+00 2.124346e+00 1.658113e+00 1.516186e+00 2.097359e+00 1.295446e+00 2.385208e+00 1.906355e+00 -2.943221e-02 5.461520e-02 1.004836e-01 1.313156e-01 1.320644e-01 1.312254e-01 1.767559e-01 3.212188e-01 5.434969e-01 6.672242e-01 5.614381e-01 3.055905e-01 -3.636013e-04
<VARIANCE> 25
 6.962920e+00 4.690541e+00 1.045327e+01 1.139200e+01 1.362276e+01 1.694524e+01 1.403661e+01 1.187621e+01 1.339146e+01 1.334625e+01 1.588257e+01 1.226674e+01 8.690862e-02 1.683232e-01 2.784718e-01 4.312043e-01 5.852940e-01 7.257785e-01 8.278791e-01 8.952644e-01 8.996881e-01 8.369564e-01 8.422428e-01 8.674589e-01 2.302421e-05
<GCONST> 5.645222e+01
<MIXTURE> 61 4.479129e-03
<MEAN> 25
 -4.248792e+00 -6.344864e-01 -1.117830e+00 3.674001e+00 1.753322e+00 2.124346e+00 1.658113e+00 1.516186e+00 2.097359e+00 1.295446e+00 2.385208e+00 1.906355e+00 -2.943221e-02 5.461520e-02 1.004836e-01 1.313156e-01 1.320644e-01 1.312254e-01 1.767559e-01 3.212188e-01 5.434969e-01 6.672242e-01 5.614381e-01 3.055905e-01 -3.636013e-04
<VARIANCE> 25
 6.962920e+00 4.690541e+00 1.045327e+01 1.139200e+01 1.362276e+01 1.694524e+01 1.403661e+01 1.187621e+01 1.339146e+01 1.334625e+01 1.588257e+01 1.226674e+01 8.690862e-02 1.683232e-01 2.784718e-01 4.312043e-01 5.852940e-01 7.257785e-01 8.278791e-01 8.952644e-01 8.996881e-01 8.369564e-01 8.422428e-01 8.674589e-01 2.302421e-05
<GCONST> 5.645222e+01
<MIXTURE> 62 3.278034e-03
<MEAN> 25
 -5.089318e+00 1.243132e+00 1.024536e+00 8.817057e+00 6.132344e+00 5.051095e+00 5.502068e+00 4.033831e+00 4.982006e+00 3.918916e+00 4.964717e+00 2.952234e+00 -1.003027e+00 -1.166307e+00 -9.529667e-01 -2.767618e-01 4.274257e-01 1.005052e+00 1.384524e+00 1.552138e+00 1.478519e+00 1.242816e+00 1.066480e+00 7.256106e-01 -1.264773e-03
<VARIANCE> 25
 9.877340e+00 9.965159e+00 1.311908e+01 1.673505e+01 1.741371e+01 1.751873e+01 1.971268e+01 1.910819e+01 1.889914e+01 1.872475e+01 2.156281e+01 1.479641e+01 4.018362e-01 4.323497e-01 5.542729e-01 7.793697e-01 1.034812e+00 1.191867e+00 1.252057e+00 1.278685e+00 1.329401e+00 1.365323e+00 1.400849e+00 1.371562e+00 1.632897e-05
<GCONST> 6.753140e+01
<MIXTURE> 63 4.351215e-03
<MEAN> 25
 -3.646417e+00 -8.754199e-01 -4.904314e+00 2.652599e+00 4.070827e+00 1.901157e-01 3.478332e+00 1.636704e+00 2.722960e-01 2.383725e-01 -1.161628e+00 2.305834e+00 -7.934398e-02 2.939545e-01 3.948821e-01 5.482692e-01 3.680714e-01 3.394648e-01 4.840597e-01 2.014505e-01 1.911497e-01 2.822323e-01 3.270751e-01 2.328306e-01 -4.449806e-03
<VARIANCE> 25
 8.396869e+00 2.118327e+01 1.430715e+01 1.598788e+01 1.773542e+01 2.677486e+01 2.481873e+01 2.467343e+01 3.613396e+01 2.565325e+01 1.824150e+01 1.574906e+01 2.608960e-01 4.008632e-01 5.587671e-01 6.370075e-01 8.984115e-01 1.009375e+00 1.259665e+00 1.504183e+00 1.197939e+00 1.441874e+00 1.348836e+00 1.308594e+00 1.818491e-04
<GCONST> 7.138625e+01
<MIXTURE> 64 4.351215e-03
<MEAN> 25
 -3.646417e+00 -8.754199e-01 -4.904314e+00 2.652599e+00 4.070827e+00 1.901157e-01 3.478332e+00 1.636704e+00 2.722960e-01 2.383725e-01 -1.161628e+00 2.305834e+00 -7.934398e-02 2.939545e-01 3.948821e-01 5.482692e-01 3.680714e-01 3.394648e-01 4.840597e-01 2.014505e-01 1.911497e-01 2.822323e-01 3.270751e-01 2.328306e-01 -4.449806e-03
<VARIANCE> 25
 8.396869e+00 2.118327e+01 1.430715e+01 1.598788e+01 1.773542e+01 2.677486e+01 2.481873e+01 2.467343e+01 3.613396e+01 2.565325e+01 1.824150e+01 1.574906e+01 2.608960e-01 4.008632e-01 5.587671e-01 6.370075e-01 8.984115e-01 1.009375e+00 1.259665e+00 1.504183e+00 1.197939e+00 1.441874e+00 1.348836e+00 1.308594e+00 1.818491e-04
<GCONST> 7.138625e+01
<MIXTURE> 65 1.721197e-02
<MEAN> 25
 7.288974e+00 1.558830e+00 1.395831e+00 1.545492e+00 -4.633323e+00 -4.548575e+00 -5.245276e+00 -7.058580e+00 -3.084867e+00 -2.142968e+00 -4.542898e+00 -2.339220e+00 1.852597e-01 1.215093e-01 4.595583e-02 2.450308e-02 -2.294203e-01 3.487932e-01 3.130273e-02 -3.009495e-01 2.719514e-01 1.771406e-01 -3.353113e-02 -2.302835e-01 -4.345175e-03
<VARIANCE> 25
 1.179862e+01 1.934296e+01 2.451323e+01 4.201728e+01 4.000886e+01 5.277039e+01 5.663475e+01 5.442006e+01 5.268709e+01 5.207030e+01 6.171521e+01 4.711526e+01 5.290191e-01 8.559839e-01 1.476064e+00 1.768012e+00 1.855731e+00 2.034048e+00 2.609397e+00 3.070699e+00 2.240092e+00 2.373560e+00 2.153735e+00 2.124749e+00 4.068128e-04
<GCONST> 8.885597e+01
<MIXTURE> 66 1.191532e-02
<MEAN> 25
 6.652327e+00 -4.077218e+00 -5.621630e+00 -4.786444e+00 1.293340e+00 -5.087645e+00 -6.902151e+00 1.195432e+00 6.669740e-01 -2.040039e+00 -6.115302e+00 -3.462510e+00 -4.508011e-02 1.663323e+00 2.227771e+00 2.315678e+00 -1.241271e+00 -1.248015e+00 6.559226e-02 -5.540037e-01 -1.506104e-01 -1.879493e-01 -2.040054e-01 1.042200e+00 -6.368785e-02
<VARIANCE> 25
 9.059804e+00 2.234877e+01 2.695785e+01 3.368004e+01 3.839658e+01 5.366123e+01 5.612420e+01 4.526810e+01 5.394451e+01 6.661418e+01 3.695501e+01 3.631638e+01 1.278331e+00 2.438259e+00 2.374899e+00 2.461185e+00 4.204537e+00 4.296335e+00 4.375869e+00 4.835255e+00 4.240550e+00 4.987214e+00 3.885860e+00 3.250048e+00 1.465052e-03
<GCONST> 9.683851e+01
<MIXTURE> 67 1.559142e-02
<MEAN> 25
 8.935055e+00 2.036215e+00 -5.991948e+00 -8.295322e+00 9.224827e-01 3.156626e+00 -3.243583e+00 -2.209358e+00 -3.780719e+00 8.170677e-01 -5.537282e-02 -1.735218e+00 -1.064897e+00 1.829276e+00 1.053398e+00 3.066384e+00 1.381784e+00 -5.096557e-01 1.305235e+00 1.137875e-01 1.554546e-01 2.577446e-01 -2.747780e-01 6.240674e-01 -1.293400e-01
<VARIANCE> 25
 1.172529e+01 3.866424e+01 3.064138e+01 5.566727e+01 4.888400e+01 5.447635e+01 6.260600e+01 5.260752e+01 6.447299e+01 5.710729e+01 5.540773e+01 4.704902e+01 2.175755e+00 3.443969e+00 3.283395e+00 4.492824e+00 4.512650e+00 4.522843e+00 4.681695e+00 5.051843e+00 5.450012e+00 4.761649e+00 5.103446e+00 3.721660e+00 3.077805e-03
<GCONST> 1.028709e+02
<MIXTURE> 68 1.485092e-02
<MEAN> 25
 -2.058350e+00 -2.089544e+00 -4.348932e+00 1.469855e+00 5.437321e+00 -8.609383e-01 2.095325e+00 1.570343e+00 1.827407e+00 1.882285e+00 4.253996e-01 2.001500e+00 2.753208e+00 5.456712e-01 1.030097e-01 -2.552433e+00 -2.422169e+00 -1.586137e+00 -2.389856e+00 -1.799877e+00 -1.540785e+00 -1.475070e+00 -1.820101e+00 -1.110479e+00 1.010516e-01
<VARIANCE> 25
 2.540120e+01 3.273985e+01 5.931450e+01 5.241276e+01 4.637117e+01 5.467246e+01 4.424776e+01 4.327300e+01 4.029116e+01 4.340914e+01 3.646334e+01 2.588153e+01 1.848328e+00 3.641193e+00 6.077588e+00 5.748601e+00 4.594854e+00 5.445439e+00 5.664956e+00 4.842775e+00 5.230578e+00 5.113389e+00 5.861288e+00 3.459372e+00 6.099357e-03
<GCONST> 1.036123e+02
<MIXTURE> 69 1.204884e-02
<MEAN> 25
 4.394083e+00 -4.303358e+00 -3.260159e+00 -3.615145e+00 -3.456647e+00 -7.819525e+00 -1.513917e+00 2.116526e+00 -3.262064e-02 -4.236530e+00 -5.450191e+00 9.318688e-01 1.529929e+00 -2.222599e+00 -1.274118e+00 -2.274051e+00 -6.023329e-01 -3.360234e-01 -4.111462e-01 6.681757e-01 -5.289380e-01 -1.465009e+00 -2.130198e+00 -2.170162e-01 6.304821e-02
<VARIANCE> 25
 9.589737e+00 2.090042e+01 2.675412e+01 2.581080e+01 4.050724e+01 3.390258e+01 4.874871e+01 3.031620e+01 3.912712e+01 4.110137e+01 3.027372e+01 2.360449e+01 3.700954e+00 2.762393e+00 3.284896e+00 3.658417e+00 5.583615e+00 4.739748e+00 6.816037e+00 5.926772e+00 5.803579e+00 5.572862e+00 4.204957e+00 3.567681e+00 2.319780e-03
<GCONST> 9.816670e+01
<MIXTURE> 70 1.329190e-02
<MEAN> 25
 6.783491e+00 -1.892952e+00 -3.740240e+00 -2.702503e+00 -7.797708e-01 -1.874109e+00 -8.236523e+00 -4.634511e+00 5.346875e-01 2.091534e+00 1.556907e+00 -4.644750e+00 1.820102e+00 -1.221228e+00 -2.985870e-01 -2.243503e+00 -1.875676e+00 1.098785e+00 -1.473892e+00 -3.571955e-02 6.651999e-01 -3.544019e-01 1.053944e+00 -1.823335e+00 5.659472e-02
<VARIANCE> 25
 1.071260e+01 1.979348e+01 2.421686e+01 4.410329e+01 3.148541e+01 4.421261e+01 4.407421e+01 3.928330e+01 4.180048e+01 3.163248e+01 5.180503e+01 2.599845e+01 3.219821e+00 2.789353e+00 5.396323e+00 4.255907e+00 5.111887e+00 5.472437e+00 6.089437e+00 6.486062e+00 5.645065e+00 5.229208e+00 5.932272e+00 4.795297e+00 2.191942e-03
<GCONST> 1.003119e+02
<MIXTURE> 71 1.406903e-02
<MEAN> 25
 5.942754e+00 5.050691e+00 3.585323e+00 3.741425e+00 -2.266455e+00 -3.767791e+00 -3.326577e+00 -6.731679e+00 -3.925735e+00 -1.291391e+00 -4.351921e+00 -3.033013e+00 -1.511164e+00 -5.392154e-01 -1.262534e-01 -1.803996e+00 8.141549e-01 -1.786464e-01 -2.732314e-01 1.502259e+00 4.384072e-01 -1.699385e-01 4.623296e-01 4.948378e-01 4.287453e-02
<VARIANCE> 25
 1.727595e+01 2.778348e+01 2.272174e+01 4.141796e+01 4.134711e+01 3.524701e+01 3.751971e+01 3.979346e+01 3.745927e+01 4.484712e+01 3.578402e+01 3.020806e+01 1.546153e+00 3.104533e+00 4.610694e+00 5.342777e+00 4.496577e+00 4.203024e+00 4.682175e+00 5.412529e+00 3.750594e+00 3.902226e+00 3.604922e+00 3.316115e+00 1.392386e-03
<GCONST> 9.750497e+01
<MIXTURE> 72 8.134747e-03
<MEAN> 25
 3.779979e+00 -3.715001e+00 5.477238e+00 -2.430232e+00 -1.037962e+01 -9.622762e+00 -2.505668e+00 1.938584e+00 -4.899401e+00 -2.232829e+00 -1.865485e+00 6.195905e-01 9.290584e-01 -7.843073e-01 -2.570012e+00 4.604804e-01 2.128778e+00 -6.529190e-01 -1.303648e+00 1.526704e+00 1.803299e+00 -5.946791e-01 -1.282881e+00 3.958613e-01 -6.060637e-03
<VARIANCE> 25
 1.075428e+01 1.958342e+01 3.292332e+01 3.846591e+01 3.229780e+01 3.319940e+01 4.143925e+01 3.624045e+01 4.379615e+01 4.132293e+01 3.873205e+01 2.839694e+01 4.332201e-01 1.026282e+00 2.021133e+00 1.473425e+00 2.186606e+00 2.348472e+00 3.080699e+00 2.719385e+00 2.614647e+00 2.948471e+00 2.029806e+00 2.129790e+00 5.424769e-04
<GCONST> 8.726609e+01
<MIXTURE> 73 1.213625e-02
<MEAN> 25
 -5.562883e+00 -7.762421e-01 -1.303697e+00 4.911246e+00 4.231678e+00 2.266995e+00 5.425955e+00 3.523671e+00 4.310084e+00 3.387740e+00 4.244278e+00 3.031610e+00 7.678747e-01 -1.032154e+00 -9.837307e-01 -2.603298e+00 -1.229732e+00 -1.733292e+00 -8.912687e-01 -5.423659e-01 -9.287264e-01 -6.833953e-01 -1.115917e+00 -2.652166e-01 1.541271e-01
<VARIANCE> 25
 1.325462e+01 1.329931e+01 1.505969e+01 2.242309e+01 2.310690e+01 2.504915e+01 2.104980e+01 2.035771e+01 1.793663e+01 1.913678e+01 2.265497e+01 1.542604e+01 4.123875e+00 3.060427e+00 6.066344e+00 4.849380e+00 6.194730e+00 4.547474e+00 4.273066e+00 4.356903e+00 3.869861e+00 4.229552e+00 3.520430e+00 2.675346e+00 4.312899e-03
<GCONST> 9.282846e+01
<MIXTURE> 74 1.756491e-02
<MEAN> 25
 3.951540e+00 -2.080751e+00 5.290826e+00 1.359649e+00 -6.067040e+00 -8.139890e+00 -4.259557e+00 3.284183e+00 -3.924566e+00 -3.757138e+00 -1.306919e+00 3.490975e-01 2.619175e-01 1.914745e+00 -4.776914e-01 1.122131e+00 9.361299e-01 6.667497e-01 9.770446e-01 -1.232637e+00 5.473152e-02 6.228617e-01 -3.580710e-01 -9.679376e-02 -8.362812e-02
<VARIANCE> 25
 9.211534e+00 1.906023e+01 3.243655e+01 4.137645e+01 4.198035e+01 3.652432e+01 5.176172e+01 5.285895e+01 3.619530e+01 3.407141e+01 2.965386e+01 2.706260e+01 1.534268e+00 1.646591e+00 3.399409e+00 2.677793e+00 3.411642e+00 3.275114e+00 5.394680e+00 3.915946e+00 3.366474e+00 3.422580e+00 3.050796e+00 2.399393e+00 1.498826e-03
<GCONST> 9.390276e+01
<MIXTURE> 75 9.711651e-03
<MEAN> 25
 1.502540e+00 -2.598407e+00 1.175479e+01 2.421520e+00 -1.054283e+01 -7.936937e+00 -8.052354e+00 -5.240980e-01 -1.999881e+00 -5.185275e+00 2.114449e+00 5.837216e-01 1.630865e+00 -2.065416e+00 7.106271e-01 -3.267737e-01 -1.850855e+00 -5.614231e-02 -1.239539e+00 1.007042e+00 2.606300e-01 -7.152569e-01 1.362241e+00 -5.836253e-01 3.658268e-02
<VARIANCE> 25
 1.009974e+01 1.945523e+01 2.531510e+01 2.184370e+01 2.147665e+01 2.505644e+01 4.553410e+01 2.172254e+01 2.903827e+01 2.234671e+01 1.667309e+01 1.495962e+01 1.612885e+00 1.562833e+00 3.484079e+00 1.720150e+00 2.943725e+00 3.286684e+00 3.336129e+00 2.758300e+00 3.051554e+00 2.419284e+00 2.261946e+00 1.701618e+00 1.081712e-03
<GCONST> 8.644407e+01
<MIXTURE> 76 1.052359e-02
<MEAN> 25
 -5.218703e+00 4.093132e-01 -3.086977e+00 3.900820e+00 5.056255e+00 1.660693e+00 4.831203e+00 2.650082e+00 2.958153e-01 1.824234e+00 8.723038e-02 2.559993e+00 -4.404712e-02 -4.753457e-01 -2.522960e-01 -5.409908e-01 -4.558081e-01 -9.183332e-01 -8.619065e-01 -6.253462e-01 -6.007593e-01 -4.473118e-01 -1.498611e-01 -1.656469e-01 1.995377e-02
<VARIANCE> 25
 3.466092e+01 3.155937e+01 2.836950e+01 2.342813e+01 2.563690e+01 2.884872e+01 2.765741e+01 2.766368e+01 3.030680e+01 2.460780e+01 3.010735e+01 1.754358e+01 1.043553e+00 1.081802e+00 1.384140e+00 1.285162e+00 1.354216e+00 1.481568e+00 1.840518e+00 1.875612e+00 1.433262e+00 1.326095e+00 1.669600e+00 1.083696e+00 1.057100e-03
<GCONST> 8.258912e+01
<MIXTURE> 77 1.244626e-02
<MEAN> 25
 -4.693354e-01 8.568481e+00 1.244288e+01 -1.157840e+01 -6.996686e+00 9.387553e-01 -9.281199e+00 -7.223920e+00 -3.367148e+00 -1.970956e-01 -4.661959e+00 -1.477099e+00 6.899568e-02 1.346833e-01 7.547019e-02 2.483650e-01 -2.240088e-02 7.751198e-02 -6.839531e-02 -6.150632e-02 8.301682e-02 -4.550799e-02 2.846319e-02 1.162781e-01 -9.825828e-03
<VARIANCE> 25
 1.044455e+01 2.022337e+01 2.763288e+01 4.214037e+01 3.321210e+01 3.388411e+01 3.674053e+01 3.179371e+01 3.519114e+01 3.319761e+01 3.752010e+01 3.490328e+01 2.988417e-01 7.793612e-01 6.487826e-01 1.086076e+00 1.237189e+00 9.834620e-01 1.225683e+00 1.074619e+00 1.041557e+00 1.064791e+00 9.721906e-01 9.212406e-01 5.416130e-04
<GCONST> 7.782633e+01
<MIXTURE> 78 9.702551e-03
<MEAN> 25
 -1.134109e+01 1.452547e+00 -1.714905e+00 2.449102e+00 4.376818e+00 -2.358849e+00 3.714640e+00 2.588651e+00 2.287644e+00 7.805100e-01 -7.807853e-01 3.177286e+00 2.317984e+00 -2.689219e-01 2.517466e-01 5.986413e-01 -6.443603e-02 -3.312393e-02 -2.976736e-01 -1.376099e-01 1.862833e-01 1.417741e-01 -4.250439e-01 -4.435298e-01 -5.921986e-02
<VARIANCE> 25
 4.270338e+01 3.575772e+01 3.234268e+01 3.286504e+01 3.858915e+01 3.660054e+01 3.515375e+01 3.258834e+01 2.884740e+01 2.719355e+01 2.865304e+01 2.002461e+01 4.934000e+00 2.497838e+00 3.027520e+00 2.945605e+00 2.829899e+00 3.478415e+00 3.466982e+00 2.908475e+00 2.274073e+00 2.301834e+00 2.276062e+00 2.072152e+00 4.678098e-03
<GCONST> 9.469952e+01
<MIXTURE> 79 1.156824e-02
<MEAN> 25
 2.403147e+00 1.588610e+00 9.198144e+00 -6.586312e+00 -1.202569e+01 -1.752739e+00 -1.886227e+00 -6.417340e+00 -6.553153e+00 2.181388e-01 -3.478371e+00 -3.234879e+00 1.214545e+00 -5.227097e-01 -1.440318e+00 2.334409e+00 3.835885e-01 -1.466627e+00 5.491617e-01 8.972741e-01 -4.245762e-01 -5.098994e-01 3.295814e-01 2.582346e-01 -3.695931e-02
<VARIANCE> 25
 1.418701e+01 2.399333e+01 3.759276e+01 4.949895e+01 3.341628e+01 4.371093e+01 4.263445e+01 3.685364e+01 3.872269e+01 4.069906e+01 4.371085e+01 3.085805e+01 9.438889e-01 2.246467e+00 1.883909e+00 2.113489e+00 2.454860e+00 2.808009e+00 3.191833e+00 3.512574e+00 2.514079e+00 2.835983e+00 2.390551e+00 2.066092e+00 1.264158e-03
<GCONST> 9.189059e+01
<MIXTURE> 80 7.550998e-03
<MEAN> 25
 -1.458998e+01 4.151784e+00 6.485017e-01 2.843196e+00 2.407814e+00 1.370682e+00 6.365225e+00 2.478825e+00 2.616289e+00 2.391002e+00 4.614295e+00 1.275659e+00 4.256891e+00 -2.897841e-02 1.676786e+00 -1.107493e+00 -2.875355e+00 -2.773737e+00 -2.333225e+00 -1.986929e+00 -1.945834e+00 -1.665646e+00 -1.657117e+00 -5.951465e-01 -4.376232e-02
<VARIANCE> 25
 2.068200e+01 2.130369e+01 3.413420e+01 3.419997e+01 2.982084e+01 2.886603e+01 2.790800e+01 2.815648e+01 2.698830e+01 2.840660e+01 3.008409e+01 1.832688e+01 2.376700e+00 2.639239e+00 2.729281e+00 4.105622e+00 3.353631e+00 2.663777e+00 2.989701e+00 3.227892e+00 2.759776e+00 2.685764e+00 2.741973e+00 2.115648e+00 1.502209e-03
<GCONST> 9.144627e+01
<MIXTURE> 81 8.025434e-03
<MEAN> 25
 -1.122830e+00 4.023071e+00 1.014851e+01 -1.475979e+01 -9.065234e+00 -1.446179e+00 -6.778041e+00 -8.395515e+00 -4.114477e+00 -4.089614e-01 -7.555973e+00 -2.242027e+00 1.320156e-01 -5.917705e-01 -1.328422e-03 -5.604561e-01 -4.695109e-01 3.339299e-01 3.217528e-01 1.396891e-01 -1.333240e-01 9.742320e-02 -4.670879e-01 -1.311188e-01 1.170913e-02
<VARIANCE> 25
 1.012573e+01 3.314237e+01 2.662428e+01 2.968142e+01 3.363738e+01 3.052602e+01 4.531184e+01 2.835606e+01 3.816865e+01 3.185459e+01 2.528766e+01 3.097980e+01 7.713041e-01 2.276726e+00 1.542374e+00 2.865849e+00 2.662170e+00 2.118915e+00 3.273501e+00 2.280292e+00 2.359899e+00 2.550026e+00 2.292529e+00 2.080482e+00 1.192592e-03
<GCONST> 8.870944e+01
<MIXTURE> 82 8.213053e-03
<MEAN> 25
 -9.903636e+00 -3.907872e+00 1.641307e+00 -2.984858e+00 3.081156e+00 6.316442e-01 1.933845e+00 9.406429e-01 2.991359e+00 1.768511e+00 1.724189e+00 3.075302e+00 -1.313593e+00 -1.377145e-01 2.897578e-01 -2.612773e+00 -1.113229e+00 -1.256443e+00 -1.007926e+00 -8.484092e-01 -3.058729e-01 -4.846126e-01 -3.224132e-01 -9.826858e-02 1.777998e-01
<VARIANCE> 25
 1.850820e+01 2.480135e+01 3.218237e+01 3.074790e+01 3.299182e+01 3.232902e+01 3.216079e+01 3.278560e+01 3.070719e+01 2.522177e+01 3.065182e+01 1.742704e+01 3.731614e+00 3.056010e+00 3.296988e+00 3.265507e+00 3.550118e+00 3.278138e+00 2.931795e+00 3.077669e+00 2.795810e+00 2.482988e+00 2.440343e+00 1.857580e+00 3.473009e-03
<GCONST> 9.308987e+01
<MIXTURE> 83 1.167529e-02
<MEAN> 25
 -1.970630e+01 5.639104e+00 -2.061693e+00 -1.801181e-01 7.334199e+00 -1.281800e+00 5.106928e+00 2.826145e+00 1.024242e+00 2.204612e+00 3.743096e-01 3.311101e+00 -6.673885e-02 -2.647355e-01 3.585871e-02 -3.287246e-01 -4.914802e-01 -1.222147e-01 -1.322824e-01 -1.544515e-01 -1.192473e-01 -3.522135e-02 -1.181619e-01 -4.178187e-02 5.877716e-03
<VARIANCE> 25
 9.374125e+00 1.552271e+01 2.713552e+01 2.131917e+01 2.234758e+01 2.224663e+01 2.172990e+01 2.209089e+01 1.920144e+01 2.050809e+01 2.276279e+01 1.539275e+01 1.012193e+00 1.252555e+00 1.180552e+00 9.982194e-01 1.266605e+00 1.208140e+00 1.193774e+00 1.316337e+00 1.311691e+00 1.209854e+00 1.217571e+00 9.894331e-01 8.512758e-04
<GCONST> 7.636341e+01
<MIXTURE> 84 1.066614e-02
<MEAN> 25
 1.133997e+00 8.836175e+00 7.239050e+00 7.666136e+00 2.629590e+00 -8.172303e-01 -1.301577e+00 -4.172276e+00 -4.085571e+00 -3.090699e+00 -2.437129e+00 -1.423644e+00 -1.771541e+00 -1.105260e+00 -1.266698e+00 1.245308e+00 2.196917e+00 1.382924e+00 1.444233e+00 1.283680e+00 1.145790e+00 5.220070e-01 2.853995e-01 4.108984e-01 -7.045710e-02
<VARIANCE> 25
 2.286521e+01 1.878372e+01 2.143726e+01 2.640740e+01 2.949301e+01 2.791624e+01 2.808667e+01 2.757113e+01 2.428712e+01 2.578845e+01 2.294301e+01 2.462840e+01 2.098714e+00 2.609921e+00 3.841761e+00 3.216807e+00 3.246761e+00 3.638605e+00 3.187004e+00 3.300949e+00 3.364349e+00 3.545685e+00 3.819504e+00 2.771080e+00 3.509431e-03
<GCONST> 9.271407e+01
<MIXTURE> 85 7.591393e-03
<MEAN> 25
 -3.122777e+00 7.896130e+00 5.718796e+00 1.295052e+00 -3.487888e+00 -5.328999e+00 -2.977198e+00 -6.099417e+00 -3.542985e+00 -3.169564e+00 -5.067801e-01 -1.874943e+00 3.936730e+00 3.192818e-01 1.761726e+00 -2.082042e+00 -3.408682e+00 -2.582581e+00 -2.887938e+00 -2.334464e+00 -2.240015e+00 -1.263343e+00 -2.299018e+00 -6.140119e-01 9.207395e-03
<VARIANCE> 25
 4.247660e+01 2.341826e+01 3.645548e+01 3.813197e+01 3.969419e+01 4.113274e+01 3.223338e+01 2.796522e+01 2.657281e+01 2.612170e+01 2.642896e+01 2.073783e+01 2.713674e+00 4.331139e+00 4.061775e+00 5.194338e+00 4.405969e+00 3.869402e+00 3.842979e+00 3.991036e+00 3.863299e+00 4.029028e+00 3.941307e+00 3.479072e+00 5.431517e-03
<GCONST> 9.836506e+01
<MIXTURE> 86 1.273941e-02
<MEAN> 25
 -4.961026e+00 -1.180338e+00 -8.094645e-01 6.320549e+00 5.033160e+00 4.679901e+00 5.340979e+00 4.575696e+00 4.619298e+00 3.938446e+00 5.311309e+00 2.700188e+00 -4.828240e-03 -6.967418e-03 -3.700354e-02 -6.378863e-02 -1.169529e-01 -1.848109e-01 -2.653240e-01 -3.333610e-01 -3.509749e-01 -3.122547e-01 -2.303784e-01 -1.095106e-01 -5.147485e-04
<VARIANCE> 25
 7.905488e+00 5.825633e+00 9.992241e+00 1.232623e+01 1.587633e+01 1.429386e+01 1.361303e+01 1.301619e+01 1.357671e+01 1.434436e+01 1.446060e+01 1.274252e+01 1.006555e-01 1.932226e-01 3.178490e-01 4.831557e-01 6.348423e-01 7.329879e-01 7.432444e-01 7.639782e-01 8.289641e-01 9.040380e-01 9.086089e-01 9.052067e-01 5.366294e-05
<GCONST> 5.821906e+01
<MIXTURE> 87 1.100681e-02
<MEAN> 25
 -3.116692e+00 4.592608e+00 3.282168e+00 6.958480e+00 5.496420e+00 5.474185e-01 1.382607e+00 -8.840813e-01 -5.822570e-01 -6.906520e-01 -9.337469e-01 2.013253e-01 -2.121576e+00 -2.684990e+00 -1.995319e+00 -2.141720e+00 -8.669204e-02 -1.886626e-01 5.125473e-01 1.270978e+00 1.338606e+00 9.640075e-01 8.416132e-01 1.039760e+00 1.021717e-01
<VARIANCE> 25
 3.704520e+01 3.014907e+01 2.746696e+01 3.229772e+01 2.743980e+01 3.214801e+01 2.863654e+01 2.744513e+01 2.506103e+01 2.455401e+01 2.493149e+01 2.295904e+01 3.709439e+00 2.792618e+00 4.105008e+00 4.091286e+00 4.663957e+00 4.102629e+00 4.224216e+00 4.166521e+00 3.455375e+00 3.380932e+00 3.599981e+00 2.648391e+00 4.804308e-03
<GCONST> 9.632751e+01
<MIXTURE> 88 1.256585e-02
<MEAN> 25
 -3.685975e+00 -2.995283e-01 -1.453576e+00 5.235215e+00 4.859524e+00 3.087713e+00 4.650380e+00 3.957523e+00 2.751294e+00 2.568251e+00 2.447396e+00 2.784014e+00 -8.219153e-02 1.665543e-01 6.876620e-02 4.761242e-01 3.033295e-01 1.020711e-01 -4.984521e-02 -3.527856e-01 -3.541305e-01 -2.870592e-01 -2.609569e-01 4.539474e-02 -4.725693e-03
<VARIANCE> 25
 1.081562e+01 1.148473e+01 1.472738e+01 1.540804e+01 1.869069e+01 2.230176e+01 1.980871e+01 2.457365e+01 2.051052e+01 2.035759e+01 2.168340e+01 1.411697e+01 1.357314e+00 1.544427e+00 2.462784e+00 2.069165e+00 2.461149e+00 2.433495e+00 2.620582e+00 2.575629e+00 2.288617e+00 2.455613e+00 2.439163e+00 1.879173e+00 1.417058e-03
<GCONST> 8.293000e+01
<MIXTURE> 89 9.333527e-03
<MEAN> 25
 5.323007e+00 -6.951845e+00 -3.197064e+00 -3.327179e+00 -2.312007e+00 -5.703161e+00 -5.780226e+00 3.933563e+00 4.146828e+00 -2.799786e+00 -5.670944e+00 -3.357522e+00 -5.627087e-01 1.529422e-01 1.886150e+00 8.918372e-01 -1.906954e+00 -1.510761e+00 8.977661e-01 1.189231e+00 -7.137258e-01 -1.332427e+00 3.573829e-01 1.450168e+00 -3.446936e-03
<VARIANCE> 25
 1.351299e+01 2.450924e+01 2.955581e+01 2.777706e+01 3.792743e+01 3.813425e+01 5.547380e+01 3.867527e+01 3.991114e+01 3.872478e+01 3.390811e+01 2.961722e+01 3.230079e-01 7.702602e-01 1.475271e+00 1.204011e+00 1.766073e+00 2.116766e+00 2.364120e+00 1.940542e+00 2.179826e+00 1.950163e+00 2.146223e+00 1.419331e+00 3.588791e-04
<GCONST> 8.431709e+01
<MIXTURE> 90 7.114505e-03
<MEAN> 25
 2.433183e+00 -9.678016e+00 -4.721248e+00 -3.890983e+00 -3.367911e+00 -1.861420e+00 3.346128e+00 1.121511e+00 -7.422653e+00 -1.014821e+01 -3.418764e+00 -7.679084e-01 -1.598562e-01 9.017639e-01 1.167280e+00 -8.433870e-01 -1.611633e+00 -2.057832e-01 6.546918e-01 -2.226326e-01 -1.634602e-01 7.339221e-01 1.793356e-01 -5.525480e-01 -1.111607e-02
<VARIANCE> 25
 8.501541e+00 1.789285e+01 1.976879e+01 2.925686e+01 3.699205e+01 3.227840e+01 3.832207e+01 3.677229e+01 3.640787e+01 2.792991e+01 2.683298e+01 2.599175e+01 2.265116e-01 6.126863e-01 7.815419e-01 1.047669e+00 1.461237e+00 1.583061e+00 1.782342e+00 1.677973e+00 1.803128e+00 1.679644e+00 1.484612e+00 1.310623e+00 2.147039e-04
<GCONST> 7.822646e+01
<MIXTURE> 91 7.852945e-03
<MEAN> 25
 5.586549e+00 -6.548335e+00 -7.595676e+00 -6.807221e+00 3.823879e+00 2.889425e+00 -6.519160e-01 6.207602e-01 7.352517e-01 -1.640659e+00 -4.187779e+00 -4.475275e+00 2.108033e-01 9.864426e-01 -1.528260e-02 5.849088e-01 6.812797e-02 -5.143669e-01 -2.499223e-01 9.190606e-03 -3.838012e-01 5.592471e-01 -3.706616e-02 2.287470e-01 -3.678198e-02
<VARIANCE> 25
 9.967527e+00 2.388154e+01 1.913743e+01 5.596699e+01 3.040320e+01 8.329433e+01 5.444287e+01 3.723159e+01 4.540165e+01 5.794516e+01 3.208400e+01 3.471065e+01 4.501575e-01 7.467323e-01 1.097917e+00 1.354503e+00 1.946437e+00 1.950609e+00 2.450868e+00 2.501142e+00 2.090843e+00 1.926513e+00 1.734292e+00 1.542945e+00 4.823043e-04
<GCONST> 8.593207e+01
<MIXTURE> 92 7.852945e-03
<MEAN> 25
 5.586549e+00 -6.548335e+00 -7.595676e+00 -6.807221e+00 3.823879e+00 2.889425e+00 -6.519160e-01 6.207602e-01 7.352517e-01 -1.640659e+00 -4.187779e+00 -4.475275e+00 2.108033e-01 9.864426e-01 -1.528260e-02 5.849088e-01 6.812797e-02 -5.143669e-01 -2.499223e-01 9.190606e-03 -3.838012e-01 5.592471e-01 -3.706616e-02 2.287470e-01 -3.678198e-02
<VARIANCE> 25
 9.967527e+00 2.388154e+01 1.913743e+01 5.596699e+01 3.040320e+01 8.329433e+01 5.444287e+01 3.723159e+01 4.540165e+01 5.794516e+01 3.208400e+01 3.471065e+01 4.501575e-01 7.467323e-01 1.097917e+00 1.354503e+00 1.946437e+00 1.950609e+00 2.450868e+00 2.501142e+00 2.090843e+00 1.926513e+00 1.734292e+00 1.542945e+00 4.823043e-04
<GCONST> 8.593207e+01
<MIXTURE> 93 6.122769e-03
<MEAN> 25
 -6.807181e+00 -9.402179e-01 -2.403934e+00 5.797951e+00 5.919444e+00 3.924473e+00 6.133934e+00 3.603503e+00 4.088594e+00 2.523689e+00 1.813147e+00 3.708220e+00 -6.206021e-02 -1.543972e-01 -2.577484e-01 -3.320746e-01 -3.334580e-01 -2.824706e-01 -2.150377e-01 -1.712632e-01 -1.637680e-01 -1.529151e-01 -1.060249e-01 -3.623415e-02 9.463556e-07
<VARIANCE> 25
 9.187625e+00 6.161970e+00 8.166180e+00 1.134054e+01 1.150815e+01 1.595362e+01 1.538297e+01 1.642255e+01 1.506428e+01 1.457332e+01 1.675121e+01 1.342033e+01 8.269571e-02 1.530343e-01 2.633076e-01 3.803713e-01 4.964733e-01 6.423554e-01 7.806058e-01 8.893151e-01 9.174382e-01 8.814553e-01 8.913463e-01 9.184754e-01 1.008050e-06
<GCONST> 5.366454e+01
<MIXTURE> 94 6.122769e-03
<MEAN> 25
 -6.807181e+00 -9.402179e-01 -2.403934e+00 5.797951e+00 5.919444e+00 3.924473e+00 6.133934e+00 3.603503e+00 4.088594e+00 2.523689e+00 1.813147e+00 3.708220e+00 -6.206021e-02 -1.543972e-01 -2.577484e-01 -3.320746e-01 -3.334580e-01 -2.824706e-01 -2.150377e-01 -1.712632e-01 -1.637680e-01 -1.529151e-01 -1.060249e-01 -3.623415e-02 9.463556e-07
<VARIANCE> 25
 9.187625e+00 6.161970e+00 8.166180e+00 1.134054e+01 1.150815e+01 1.595362e+01 1.538297e+01 1.642255e+01 1.506428e+01 1.457332e+01 1.675121e+01 1.342033e+01 8.269571e-02 1.530343e-01 2.633076e-01 3.803713e-01 4.964733e-01 6.423554e-01 7.806058e-01 8.893151e-01 9.174382e-01 8.814553e-01 8.913463e-01 9.184754e-01 1.008050e-06
<GCONST> 5.366454e+01
<MIXTURE> 95 5.258835e-03
<MEAN> 25
 -5.572690e+00 -3.313795e-01 -2.064182e+00 4.857532e+00 4.381384e+00 2.810835e+00 4.478977e+00 2.024239e+00 1.664759e+00 9.581885e-01 9.167578e-01 2.544157e+00 1.270210e-01 1.411647e-01 4.197492e-02 -1.368604e-01 -3.673697e-01 -6.961069e-01 -1.107634e+00 -1.327246e+00 -1.296708e+00 -9.914597e-01 -6.755641e-01 -3.364185e-01 -2.200781e-04
<VARIANCE> 25
 1.099648e+01 9.350883e+00 1.176744e+01 1.223245e+01 1.381739e+01 1.751369e+01 1.886711e+01 1.887396e+01 2.073937e+01 1.519210e+01 2.064314e+01 1.373016e+01 2.077337e-01 2.815866e-01 4.779828e-01 6.830760e-01 7.695864e-01 8.667333e-01 9.304763e-01 9.292706e-01 9.612247e-01 1.032571e+00 1.132994e+00 1.091038e+00 4.118059e-05
<GCONST> 6.391177e+01
<MIXTURE> 96 7.034694e-03
<MEAN> 25
 -4.927935e+00 -1.680883e-01 -2.237872e+00 5.181407e+00 4.128008e+00 1.814530e+00 3.619460e+00 1.840001e+00 2.068377e+00 1.135640e+00 1.098265e+00 2.867829e+00 -2.408197e-02 8.352689e-02 2.090349e-01 3.929823e-01 5.296588e-01 4.889631e-01 2.490568e-01 -1.039169e-01 -4.346755e-01 -6.523257e-01 -5.944801e-01 -3.345115e-01 -3.761256e-05
<VARIANCE> 25
 1.129410e+01 1.139233e+01 1.249525e+01 1.393967e+01 1.634706e+01 1.898984e+01 1.885870e+01 1.949453e+01 2.115601e+01 1.705030e+01 1.929706e+01 1.415339e+01 1.197846e-01 2.168529e-01 3.096073e-01 3.968181e-01 4.949422e-01 6.450376e-01 8.460829e-01 9.832885e-01 9.491732e-01 8.954924e-01 8.640063e-01 9.761499e-01 1.120327e-06
<GCONST> 5.799947e+01
<MIXTURE> 97 7.034694e-03
<MEAN> 25
 -4.927935e+00 -1.680883e-01 -2.237872e+00 5.181407e+00 4.128008e+00 1.814530e+00 3.619460e+00 1.840001e+00 2.068377e+00 1.135640e+00 1.098265e+00 2.867829e+00 -2.408197e-02 8.352689e-02 2.090349e-01 3.929823e-01 5.296588e-01 4.889631e-01 2.490568e-01 -1.039169e-01 -4.346755e-01 -6.523257e-01 -5.944801e-01 -3.345115e-01 -3.761256e-05
<VARIANCE> 25
 1.129410e+01 1.139233e+01 1.249525e+01 1.393967e+01 1.634706e+01 1.898984e+01 1.885870e+01 1.949453e+01 2.115601e+01 1.705030e+01 1.929706e+01 1.415339e+01 1.197846e-01 2.168529e-01 3.096073e-01 3.968181e-01 4.949422e-01 6.450376e-01 8.460829e-01 9.832885e-01 9.491732e-01 8.954924e-01 8.640063e-01 9.761499e-01 1.120327e-06
<GCONST> 5.799947e+01
<MIXTURE> 98 9.917808e-03
<MEAN> 25
 -1.285201e+00 1.067684e+00 2.743801e-01 4.264762e+00 3.257999e+00 2.471304e+00 3.201594e+00 1.965720e+00 1.259602e+00 4.133810e-01 5.943845e-01 9.936604e-01 -1.792472e+00 -1.344033e+00 -1.138318e+00 1.553341e-01 6.596340e-01 6.514584e-01 1.265333e+00 1.384903e+00 1.631207e+00 1.306750e+00 1.131479e+00 9.557703e-01 -3.570836e-02
<VARIANCE> 25
 1.391009e+01 1.926433e+01 3.355891e+01 3.264727e+01 4.286594e+01 3.609718e+01 3.105160e+01 2.906287e+01 2.720331e+01 3.325578e+01 2.555865e+01 2.221251e+01 1.340471e+00 1.677693e+00 2.493967e+00 2.322477e+00 2.704395e+00 3.171062e+00 2.768576e+00 2.712204e+00 2.487176e+00 3.299720e+00 3.385564e+00 2.040281e+00 2.275031e-03
<GCONST> 9.051929e+01
<MIXTURE> 99 6.696178e-03
<MEAN> 25
 -6.119879e+00 1.009734e+01 5.515145e+00 4.578349e+00 1.244005e+00 -5.457747e+00 -9.984972e-01 -2.273400e+00 -3.906284e+00 -1.944998e+00 -3.762937e+00 1.971863e+00 3.896289e-01 -7.981085e-01 6.885023e-01 -2.115510e-01 -1.079975e+00 -5.821431e-01 -4.063341e-01 -1.344480e-01 -2.076602e-01 -1.489195e-01 3.389452e-01 1.563586e-01 1.512471e-02
<VARIANCE> 25
 2.936687e+01 2.388597e+01 4.080405e+01 2.661611e+01 3.030369e+01 2.707442e+01 2.879940e+01 3.165404e+01 2.250823e+01 2.926424e+01 2.865161e+01 2.846801e+01 1.946717e+00 1.587123e+00 1.523797e+00 1.442500e+00 2.024079e+00 1.668439e+00 1.488179e+00 1.613715e+00 1.322766e+00 1.383781e+00 1.523906e+00 1.229163e+00 1.293514e-03
<GCONST> 8.480021e+01
<MIXTURE> 100 4.498084e-03
<MEAN> 25
 -1.599743e+00 6.344264e+00 1.027690e+01 -7.460798e+00 -1.078150e+01 -5.076123e+00 -4.942468e+00 -9.967323e+00 -4.717594e+00 -8.553288e-01 -2.734089e+00 -2.706585e+00 2.917665e+00 -1.260504e+00 1.299999e+00 -2.185508e+00 -3.419101e+00 -7.842700e-01 -1.219112e+00 -8.195917e-01 -1.475159e+00 3.464589e-01 -1.655371e+00 -2.861105e-01 2.015539e-03
<VARIANCE> 25
 1.362900e+01 2.105942e+01 2.245988e+01 2.644525e+01 2.301888e+01 2.372209e+01 2.911133e+01 2.171769e+01 2.748039e+01 2.264952e+01 2.241608e+01 2.135470e+01 1.799399e+00 3.953706e+00 2.920390e+00 4.286895e+00 4.184639e+00 4.536872e+00 4.015676e+00 4.339860e+00 4.167845e+00 3.895826e+00 3.910297e+00 3.224904e+00 1.674574e-03
<GCONST> 9.257065e+01
<MIXTURE> 101 6.007792e-03
<MEAN> 25
 7.573687e+00 -3.369798e+00 -6.087718e+00 -6.535735e+00 1.880795e-02 -1.071159e+00 -1.002184e+01 -2.861200e+00 1.986101e+00 2.495261e+00 -9.552761e-01 -5.550894e+00 6.850196e-01 5.864835e-01 -1.343719e+00 -1.579028e+00 8.666579e-01 2.236850e+00 2.499546e-01 -1.341752e+00 -9.479353e-01 1.118079e+00 1.330953e+00 -4.060292e-01 -3.224161e-03
<VARIANCE> 25
 1.073731e+01 1.520817e+01 2.736220e+01 3.968950e+01 3.851736e+01 3.288128e+01 3.619822e+01 3.823774e+01 3.548534e+01 4.068173e+01 6.418375e+01 2.332084e+01 2.796523e-01 6.458181e-01 1.166589e+00 1.429195e+00 1.759463e+00 1.953316e+00 1.935425e+00 1.960425e+00 2.256660e+00 2.111970e+00 1.646125e+00 1.754106e+00 3.336353e-04
<GCONST> 8.297977e+01
<MIXTURE> 102 6.007792e-03
<MEAN> 25
 7.573687e+00 -3.369798e+00 -6.087718e+00 -6.535735e+00 1.880795e-02 -1.071159e+00 -1.002184e+01 -2.861200e+00 1.986101e+00 2.495261e+00 -9.552761e-01 -5.550894e+00 6.850196e-01 5.864835e-01 -1.343719e+00 -1.579028e+00 8.666579e-01 2.236850e+00 2.499546e-01 -1.341752e+00 -9.479353e-01 1.118079e+00 1.330953e+00 -4.060292e-01 -3.224161e-03
<VARIANCE> 25
 1.073731e+01 1.520817e+01 2.736220e+01 3.968950e+01 3.851736e+01 3.288128e+01 3.619822e+01 3.823774e+01 3.548534e+01 4.068173e+01 6.418375e+01 2.332084e+01 2.796523e-01 6.458181e-01 1.166589e+00 1.429195e+00 1.759463e+00 1.953316e+00 1.935425e+00 1.960425e+00 2.256660e+00 2.111970e+00 1.646125e+00 1.754106e+00 3.336353e-04
<GCONST> 8.297977e+01
<MIXTURE> 103 5.694618e-03
<MEAN> 25
 3.341877e+00 -9.452807e+00 -6.079866e+00 -3.058949e+00 -1.340782e+00 -2.014858e+00 2.372404e+00 2.507678e+00 -4.534386e+00 -9.210920e+00 -5.034582e+00 3.526438e-01 -1.590513e-01 -1.481417e+00 -9.808966e-01 3.725746e-01 1.201427e+00 1.010351e+00 1.678097e-01 -2.631929e-01 -7.717642e-01 -9.485213e-01 -3.745941e-02 1.127986e-01 2.691939e-02
<VARIANCE> 25
 1.035248e+01 2.034161e+01 2.311722e+01 3.179450e+01 4.777588e+01 3.504367e+01 4.670123e+01 3.654296e+01 4.267417e+01 2.949079e+01 2.995229e+01 2.631201e+01 6.409740e-01 1.253887e+00 1.530827e+00 1.936374e+00 2.940838e+00 2.406332e+00 2.884813e+00 2.567482e+00 2.573391e+00 2.527557e+00 2.086836e+00 2.019886e+00 8.079093e-04
<GCONST> 8.758678e+01
<MIXTURE> 104 5.694618e-03
<MEAN> 25
 3.341877e+00 -9.452807e+00 -6.079866e+00 -3.058949e+00 -1.340782e+00 -2.014858e+00 2.372404e+00 2.507678e+00 -4.534386e+00 -9.210920e+00 -5.034582e+00 3.526438e-01 -1.590513e-01 -1.481417e+00 -9.808966e-01 3.725746e-01 1.201427e+00 1.010351e+00 1.678097e-01 -2.631929e-01 -7.717642e-01 -9.485213e-01 -3.745941e-02 1.127986e-01 2.691939e-02
<VARIANCE> 25
 1.035248e+01 2.034161e+01 2.311722e+01 3.179450e+01 4.777588e+01 3.504367e+01 4.670123e+01 3.654296e+01 4.267417e+01 2.949079e+01 2.995229e+01 2.631201e+01 6.409740e-01 1.253887e+00 1.530827e+00 1.936374e+00 2.940838e+00 2.406332e+00 2.884813e+00 2.567482e+00 2.573391e+00 2.527557e+00 2.086836e+00 2.019886e+00 8.079093e-04
<GCONST> 8.758678e+01
<MIXTURE> 105 4.710235e-03
<MEAN> 25
 2.187398e+00 -1.644248e+00 8.641605e+00 -2.275009e+00 -1.108906e+01 -5.183775e+00 -4.276959e+00 -9.453872e-01 -3.275577e+00 -3.358786e+00 1.489112e+00 -1.386169e+00 -4.709062e-03 5.334971e-02 1.464106e-02 -4.913028e-02 2.173494e-02 6.733944e-02 -4.768782e-03 3.597560e-02 -4.947907e-02 2.899405e-02 4.760367e-02 -5.921049e-02 -1.890605e-03
<VARIANCE> 25
 1.264853e+01 2.747241e+01 4.432383e+01 4.640466e+01 4.033089e+01 5.184477e+01 4.004262e+01 4.354186e+01 4.267451e+01 4.119869e+01 4.167084e+01 3.036287e+01 8.447532e-02 1.880578e-01 3.549497e-01 2.825724e-01 3.766039e-01 4.463375e-01 5.236897e-01 4.840711e-01 5.011686e-01 4.446145e-01 4.159247e-01 4.008572e-01 8.801274e-05
<GCONST> 6.692233e+01
<MIXTURE> 106 4.710235e-03
<MEAN> 25
 2.187398e+00 -1.644248e+00 8.641605e+00 -2.275009e+00 -1.108906e+01 -5.183775e+00 -4.276959e+00 -9.453872e-01 -3.275577e+00 -3.358786e+00 1.489112e+00 -1.386169e+00 -4.709062e-03 5.334971e-02 1.464106e-02 -4.913028e-02 2.173494e-02 6.733944e-02 -4.768782e-03 3.597560e-02 -4.947907e-02 2.899405e-02 4.760367e-02 -5.921049e-02 -1.890605e-03
<VARIANCE> 25
 1.264853e+01 2.747241e+01 4.432383e+01 4.640466e+01 4.033089e+01 5.184477e+01 4.004262e+01 4.354186e+01 4.267451e+01 4.119869e+01 4.167084e+01 3.036287e+01 8.447532e-02 1.880578e-01 3.549497e-01 2.825724e-01 3.766039e-01 4.463375e-01 5.236897e-01 4.840711e-01 5.011686e-01 4.446145e-01 4.159247e-01 4.008572e-01 8.801274e-05
<GCONST> 6.692233e+01
<MIXTURE> 107 5.452374e-03
<MEAN> 25
 8.612218e+00 -2.302499e+00 -8.025833e+00 -9.555075e+00 1.953420e+00 2.996171e+00 -8.576789e+00 -4.541780e+00 -8.666403e-01 3.390473e+00 8.753623e-01 -5.072292e+00 -6.096784e-01 -7.634809e-01 8.340122e-01 1.764595e+00 2.259376e-01 -2.002712e+00 -9.114534e-01 8.463339e-01 1.761174e+00 4.475196e-02 -1.655164e+00 -8.195160e-01 -1.826210e-03
<VARIANCE> 25
 9.364201e+00 2.049582e+01 2.827217e+01 4.268861e+01 3.579511e+01 3.885552e+01 5.204482e+01 3.626532e+01 4.576141e+01 4.169099e+01 5.144753e+01 3.030466e+01 3.544613e-01 9.704196e-01 1.457277e+00 2.425215e+00 2.279967e+00 2.841259e+00 2.628498e+00 2.534453e+00 2.304126e+00 3.023895e+00 1.941532e+00 2.200342e+00 7.027395e-04
<GCONST> 8.807898e+01
<MIXTURE> 108 5.452374e-03
<MEAN> 25
 8.612218e+00 -2.302499e+00 -8.025833e+00 -9.555075e+00 1.953420e+00 2.996171e+00 -8.576789e+00 -4.541780e+00 -8.666403e-01 3.390473e+00 8.753623e-01 -5.072292e+00 -6.096784e-01 -7.634809e-01 8.340122e-01 1.764595e+00 2.259376e-01 -2.002712e+00 -9.114534e-01 8.463339e-01 1.761174e+00 4.475196e-02 -1.655164e+00 -8.195160e-01 -1.826210e-03
<VARIANCE> 25
 9.364201e+00 2.049582e+01 2.827217e+01 4.268861e+01 3.579511e+01 3.885552e+01 5.204482e+01 3.626532e+01 4.576141e+01 4.169099e+01 5.144753e+01 3.030466e+01 3.544613e-01 9.704196e-01 1.457277e+00 2.425215e+00 2.279967e+00 2.841259e+00 2.628498e+00 2.534453e+00 2.304126e+00 3.023895e+00 1.941532e+00 2.200342e+00 7.027395e-04
<GCONST> 8.807898e+01
<MIXTURE> 109 6.661064e-03
<MEAN> 25
 3.914506e+00 -1.027159e+01 -7.886578e+00 -1.022058e+00 2.520115e+00 -5.488421e-01 -4.369146e-01 1.432377e+00 -2.090398e+00 -8.368096e+00 -5.181386e+00 -7.171950e-02 -4.774382e-02 -9.557850e-02 -8.017097e-02 2.541946e-01 2.183710e-01 1.008303e-01 -1.246860e-01 -8.607913e-02 -5.352425e-02 -1.360764e-01 2.242167e-01 -2.730891e-02 -3.259914e-03
<VARIANCE> 25
 9.091516e+00 1.864412e+01 2.188360e+01 3.223780e+01 3.992589e+01 3.954412e+01 4.668429e+01 3.271365e+01 4.771895e+01 3.411092e+01 2.878709e+01 2.704142e+01 1.874879e-01 4.254739e-01 5.564322e-01 6.044954e-01 1.209331e+00 9.516309e-01 1.211529e+00 1.047985e+00 1.152319e+00 9.749727e-01 8.466214e-01 9.036301e-01 1.794787e-04
<GCONST> 7.437076e+01
<MIXTURE> 110 6.661064e-03
<MEAN> 25
 3.914506e+00 -1.027159e+01 -7.886578e+00 -1.022058e+00 2.520115e+00 -5.488421e-01 -4.369146e-01 1.432377e+00 -2.090398e+00 -8.368096e+00 -5.181386e+00 -7.171950e-02 -4.774382e-02 -9.557850e-02 -8.017097e-02 2.541946e-01 2.183710e-01 1.008303e-01 -1.246860e-01 -8.607913e-02 -5.352425e-02 -1.360764e-01 2.242167e-01 -2.730891e-02 -3.259914e-03
<VARIANCE> 25
 9.091516e+00 1.864412e+01 2.188360e+01 3.223780e+01 3.992589e+01 3.954412e+01 4.668429e+01 3.271365e+01 4.771895e+01 3.411092e+01 2.878709e+01 2.704142e+01 1.874879e-01 4.254739e-01 5.564322e-01 6.044954e-01 1.209331e+00 9.516309e-01 1.211529e+00 1.047985e+00 1.152319e+00 9.749727e-01 8.466214e-01 9.036301e-01 1.794787e-04
<GCONST> 7.437076e+01
<MIXTURE> 111 4.337247e-03
<MEAN> 25
 -4.469522e+00 -9.009601e-01 -1.726895e+00 1.686593e+00 9.673449e-01 9.613292e-01 3.153912e-01 2.097855e-01 8.181334e-02 -5.382333e-01 -6.289991e-01 1.961841e+00 -2.142886e-02 -3.249232e-02 -7.250518e-02 -7.343046e-02 -3.635403e-02 7.035564e-03 -9.279202e-04 -5.908640e-02 -1.394248e-01 -2.026027e-01 -1.883790e-01 -1.051348e-01 -2.055798e-04
<VARIANCE> 25
 7.012511e+00 5.035734e+00 1.024488e+01 9.421018e+00 1.311091e+01 2.385512e+01 1.468025e+01 1.315565e+01 1.168778e+01 1.196030e+01 1.361475e+01 1.158153e+01 7.918986e-02 1.635449e-01 2.753339e-01 4.200971e-01 5.694364e-01 7.052054e-01 7.997902e-01 8.572499e-01 8.924871e-01 8.558224e-01 8.639918e-01 8.511729e-01 2.235826e-05
<GCONST> 5.601189e+01
<MIXTURE> 112 4.337247e-03
<MEAN> 25
 -4.469522e+00 -9.009601e-01 -1.726895e+00 1.686593e+00 9.673449e-01 9.613292e-01 3.153912e-01 2.097855e-01 8.181334e-02 -5.382333e-01 -6.289991e-01 1.961841e+00 -2.142886e-02 -3.249232e-02 -7.250518e-02 -7.343046e-02 -3.635403e-02 7.035564e-03 -9.279202e-04 -5.908640e-02 -1.394248e-01 -2.026027e-01 -1.883790e-01 -1.051348e-01 -2.055798e-04
<VARIANCE> 25
 7.012511e+00 5.035734e+00 1.024488e+01 9.421018e+00 1.311091e+01 2.385512e+01 1.468025e+01 1.315565e+01 1.168778e+01 1.196030e+01 1.361475e+01 1.158153e+01 7.918986e-02 1.635449e-01 2.753339e-01 4.200971e-01 5.694364e-01 7.052054e-01 7.997902e-01 8.572499e-01 8.924871e-01 8.558224e-01 8.639918e-01 8.511729e-01 2.235826e-05
<GCONST> 5.601189e+01
<MIXTURE> 113 5.938666e-03
<MEAN> 25
 9.891155e+00 1.746506e+00 -8.782295e+00 -1.693078e+01 -9.560058e-01 5.668799e+00 -5.201302e+00 -1.428014e+00 -5.682236e+00 -4.008105e-01 3.167132e-01 -2.474593e-01 1.517972e-03 1.357230e-02 -5.919601e-02 -1.125924e-01 1.019075e-01 1.516210e-01 5.594759e-02 3.735666e-02 -5.233048e-02 -4.105963e-02 1.800574e-01 3.313823e-02 -1.433575e-03
<VARIANCE> 25
 9.521618e+00 1.632662e+01 2.945681e+01 3.526511e+01 5.346696e+01 3.363455e+01 4.007429e+01 3.944958e+01 3.731192e+01 4.681910e+01 3.635550e+01 2.847320e+01 1.223011e-01 3.183536e-01 3.136418e-01 6.350413e-01 6.099954e-01 6.552735e-01 7.770079e-01 8.381570e-01 9.547991e-01 9.123399e-01 7.270417e-01 7.083560e-01 1.248378e-04
<GCONST> 7.121204e+01
<MIXTURE> 114 5.938666e-03
<MEAN> 25
 9.891155e+00 1.746506e+00 -8.782295e+00 -1.693078e+01 -9.560058e-01 5.668799e+00 -5.201302e+00 -1.428014e+00 -5.682236e+00 -4.008105e-01 3.167132e-01 -2.474593e-01 1.517972e-03 1.357230e-02 -5.919601e-02 -1.125924e-01 1.019075e-01 1.516210e-01 5.594759e-02 3.735666e-02 -5.233048e-02 -4.105963e-02 1.800574e-01 3.313823e-02 -1.433575e-03
<VARIANCE> 25
 9.521618e+00 1.632662e+01 2.945681e+01 3.526511e+01 5.346696e+01 3.363455e+01 4.007429e+01 3.944958e+01 3.731192e+01 4.681910e+01 3.635550e+01 2.847320e+01 1.223011e-01 3.183536e-01 3.136418e-01 6.350413e-01 6.099954e-01 6.552735e-01 7.770079e-01 8.381570e-01 9.547991e-01 9.123399e-01 7.270417e-01 7.083560e-01 1.248378e-04
<GCONST> 7.121204e+01
<MIXTURE> 115 2.935202e-03
<MEAN> 25
 -3.970790e+00 -6.537974e-01 -3.111602e+00 3.642717e+00 2.530988e+00 -3.548977e-01 2.278352e+00 4.241769e-01 1.251087e+00 4.703952e-02 -8.857284e-03 2.660562e+00 2.665735e-02 -7.957835e-02 -2.361394e-01 -4.333105e-01 -6.154068e-01 -6.719609e-01 -6.152651e-01 -5.059575e-01 -4.909911e-01 -4.567986e-01 -3.291183e-01 -1.601914e-01 -7.819609e-06
<VARIANCE> 25
 9.395399e+00 1.041372e+01 1.336802e+01 1.270802e+01 1.423758e+01 1.780842e+01 1.721137e+01 2.068545e+01 1.897684e+01 1.734793e+01 1.918342e+01 1.452235e+01 2.032560e-01 3.512111e-01 4.850625e-01 5.584879e-01 6.554492e-01 7.913971e-01 1.070528e+00 1.121349e+00 1.082184e+00 9.873991e-01 1.037358e+00 1.061807e+00 1.001112e-06
<GCONST> 6.043154e+01
<MIXTURE> 116 2.935202e-03
<MEAN> 25
 -3.970790e+00 -6.537974e-01 -3.111602e+00 3.642717e+00 2.530988e+00 -3.548977e-01 2.278352e+00 4.241769e-01 1.251087e+00 4.703952e-02 -8.857284e-03 2.660562e+00 2.665735e-02 -7.957835e-02 -2.361394e-01 -4.333105e-01 -6.154068e-01 -6.719609e-01 -6.152651e-01 -5.059575e-01 -4.909911e-01 -4.567986e-01 -3.291183e-01 -1.601914e-01 -7.819609e-06
<VARIANCE> 25
 9.395399e+00 1.041372e+01 1.336802e+01 1.270802e+01 1.423758e+01 1.780842e+01 1.721137e+01 2.068545e+01 1.897684e+01 1.734793e+01 1.918342e+01 1.452235e+01 2.032560e-01 3.512111e-01 4.850625e-01 5.584879e-01 6.554492e-01 7.913971e-01 1.070528e+00 1.121349e+00 1.082184e+00 9.873991e-01 1.037358e+00 1.061807e+00 1.001112e-06
<GCONST> 6.043154e+01
<MIXTURE> 117 6.506003e-03
<MEAN> 25
 -4.557549e+00 1.323210e+00 1.004143e+00 9.602387e+00 6.325015e+00 6.239953e+00 6.510670e+00 5.029806e+00 6.222606e+00 5.054719e+00 6.285741e+00 2.733760e+00 -5.270925e-02 -2.356697e-01 -3.444382e-01 -4.077356e-01 -3.732001e-01 -3.282984e-01 -2.647220e-01 -3.367575e-01 -4.003215e-01 -3.506490e-01 -2.508934e-01 -1.173607e-01 3.194283e-06
<VARIANCE> 25
 7.311773e+00 1.023008e+01 9.691406e+00 1.491988e+01 1.540533e+01 1.499714e+01 1.749426e+01 1.754879e+01 1.715290e+01 1.661282e+01 1.663564e+01 1.443667e+01 2.384698e-01 3.033741e-01 4.255271e-01 6.114472e-01 8.347671e-01 1.075667e+00 1.171100e+00 1.220947e+00 1.213828e+00 1.193016e+00 1.152899e+00 1.092317e+00 9.884603e-07
<GCONST> 6.058976e+01
<MIXTURE> 118 6.506003e-03
<MEAN> 25
 -4.557549e+00 1.323210e+00 1.004143e+00 9.602387e+00 6.325015e+00 6.239953e+00 6.510670e+00 5.029806e+00 6.222606e+00 5.054719e+00 6.285741e+00 2.733760e+00 -5.270925e-02 -2.356697e-01 -3.444382e-01 -4.077356e-01 -3.732001e-01 -3.282984e-01 -2.647220e-01 -3.367575e-01 -4.003215e-01 -3.506490e-01 -2.508934e-01 -1.173607e-01 3.194283e-06
<VARIANCE> 25
 7.311773e+00 1.023008e+01 9.691406e+00 1.491988e+01 1.540533e+01 1.499714e+01 1.749426e+01 1.754879e+01 1.715290e+01 1.661282e+01 1.663564e+01 1.443667e+01 2.384698e-01 3.033741e-01 4.255271e-01 6.114472e-01 8.347671e-01 1.075667e+00 1.171100e+00 1.220947e+00 1.213828e+00 1.193016e+00 1.152899e+00 1.092317e+00 9.884603e-07
<GCONST> 6.058976e+01
<MIXTURE> 119 4.297961e-03
<MEAN> 25
 -4.956733e+00 -7.637057e+00 2.219537e+00 1.976914e+00 2.185374e+00 1.657233e-01 5.227457e+00 5.913588e+00 1.223822e+00 9.478114e-01 6.568758e+00 1.534169e+00 -5.222385e-02 -7.900102e-02 3.793054e-02 -5.326197e-02 -1.375437e-01 -1.795257e-01 -6.051226e-02 -8.662674e-03 -8.592602e-02 -1.214910e-01 -5.484701e-02 -5.702435e-02 1.208318e-03
<VARIANCE> 25
 8.517828e+00 9.773073e+00 1.649308e+01 2.036727e+01 2.324882e+01 2.336926e+01 2.524043e+01 2.644886e+01 2.548884e+01 2.799581e+01 2.063062e+01 2.051743e+01 1.603904e-01 2.811218e-01 4.584118e-01 6.320251e-01 8.242925e-01 9.981526e-01 1.106738e+00 1.275426e+00 1.285797e+00 1.254821e+00 1.185596e+00 1.107826e+00 2.322141e-04
<GCONST> 6.980014e+01
<MIXTURE> 120 4.297961e-03
<MEAN> 25
 -4.956733e+00 -7.637057e+00 2.219537e+00 1.976914e+00 2.185374e+00 1.657233e-01 5.227457e+00 5.913588e+00 1.223822e+00 9.478114e-01 6.568758e+00 1.534169e+00 -5.222385e-02 -7.900102e-02 3.793054e-02 -5.326197e-02 -1.375437e-01 -1.795257e-01 -6.051226e-02 -8.662674e-03 -8.592602e-02 -1.214910e-01 -5.484701e-02 -5.702435e-02 1.208318e-03
<VARIANCE> 25
 8.517828e+00 9.773073e+00 1.649308e+01 2.036727e+01 2.324882e+01 2.336926e+01 2.524043e+01 2.644886e+01 2.548884e+01 2.799581e+01 2.063062e+01 2.051743e+01 1.603904e-01 2.811218e-01 4.584118e-01 6.320251e-01 8.242925e-01 9.981526e-01 1.106738e+00 1.275426e+00 1.285797e+00 1.254821e+00 1.185596e+00 1.107826e+00 2.322141e-04
<GCONST> 6.980014e+01
<MIXTURE> 121 4.567511e-03
<MEAN> 25
 1.976909e-01 -2.551315e+00 5.124353e+00 -1.287190e+01 -1.262725e+01 -1.671551e+00 9.904017e-01 -5.081646e+00 -4.119135e+00 -5.013022e-01 -5.483878e+00 -4.315254e+00 2.209436e-02 1.317072e-01 -3.667415e-02 8.174423e-02 1.492457e-01 7.870466e-02 -7.423013e-02 -1.811713e-01 -2.684878e-01 -2.617989e-01 -1.162216e-01 4.408265e-03 -7.346337e-03
<VARIANCE> 25
 7.723919e+00 1.566970e+01 1.735707e+01 2.055179e+01 2.440404e+01 2.944733e+01 2.946901e+01 2.470877e+01 3.631054e+01 2.821771e+01 1.980017e+01 2.108885e+01 1.553053e-01 6.406281e-01 6.257726e-01 7.046524e-01 7.933353e-01 1.144889e+00 1.118152e+00 1.117220e+00 1.214192e+00 1.192502e+00 9.394117e-01 8.701140e-01 2.113508e-04
<GCONST> 7.146062e+01
<MIXTURE> 122 4.567511e-03
<MEAN> 25
 1.976909e-01 -2.551315e+00 5.124353e+00 -1.287190e+01 -1.262725e+01 -1.671551e+00 9.904017e-01 -5.081646e+00 -4.119135e+00 -5.013022e-01 -5.483878e+00 -4.315254e+00 2.209436e-02 1.317072e-01 -3.667415e-02 8.174423e-02 1.492457e-01 7.870466e-02 -7.423013e-02 -1.811713e-01 -2.684878e-01 -2.617989e-01 -1.162216e-01 4.408265e-03 -7.346337e-03
<VARIANCE> 25
 7.723919e+00 1.566970e+01 1.735707e+01 2.055179e+01 2.440404e+01 2.944733e+01 2.946901e+01 2.470877e+01 3.631054e+01 2.821771e+01 1.980017e+01 2.108885e+01 1.553053e-01 6.406281e-01 6.257726e-01 7.046524e-01 7.933353e-01 1.144889e+00 1.118152e+00 1.117220e+00 1.214192e+00 1.192502e+00 9.394117e-01 8.701140e-01 2.113508e-04
<GCONST> 7.146062e+01
<MIXTURE> 123 4.393044e-03
<MEAN> 25
 -3.811926e+00 1.867935e+00 -7.355278e-01 5.342377e+00 5.802900e+00 3.828870e+00 3.738782e+00 5.294523e-01 -9.270117e-01 1.699641e-01 -2.484335e-01 8.286262e-01 -4.527076e-01 -7.103563e-01 -8.501924e-01 -6.469515e-01 -3.144958e-01 7.396593e-02 2.511453e-01 3.793583e-01 6.797008e-01 7.644194e-01 7.771367e-01 4.673311e-01 -2.868553e-03
<VARIANCE> 25
 1.011505e+01 1.322796e+01 1.697756e+01 1.854412e+01 2.013663e+01 2.408044e+01 2.018251e+01 1.770868e+01 2.453658e+01 1.807940e+01 2.036398e+01 1.778550e+01 3.283951e-01 3.350243e-01 4.951671e-01 7.757295e-01 9.987767e-01 1.092788e+00 1.212225e+00 1.539976e+00 1.087239e+00 1.060803e+00 1.077901e+00 1.083799e+00 8.758966e-05
<GCONST> 6.914838e+01
<MIXTURE> 124 4.069876e-03
<MEAN> 25
 -6.268879e+00 -8.567936e-01 -2.963480e+00 5.091549e+00 5.170920e+00 3.498588e+00 5.748770e+00 2.577735e+00 2.790828e+00 1.569994e+00 1.062810e+00 3.144880e+00 -2.089005e-01 -3.120511e-01 -3.684639e-01 -2.357540e-01 1.126673e-01 5.244871e-01 8.154486e-01 8.761014e-01 6.697504e-01 2.667896e-01 3.355964e-02 -5.078994e-02 1.426081e-04
<VARIANCE> 25
 1.220716e+01 9.095385e+00 1.070709e+01 1.197571e+01 1.238234e+01 1.914593e+01 1.752262e+01 1.635827e+01 1.801403e+01 1.701549e+01 1.844242e+01 1.411750e+01 1.020940e-01 1.632085e-01 2.627451e-01 4.189054e-01 5.740976e-01 6.771781e-01 7.200434e-01 7.943283e-01 8.758969e-01 1.089530e+00 1.012511e+00 9.771224e-01 1.748990e-05
<GCONST> 5.910832e+01
<MIXTURE> 125 4.069876e-03
<MEAN> 25
 -6.268879e+00 -8.567936e-01 -2.963480e+00 5.091549e+00 5.170920e+00 3.498588e+00 5.748770e+00 2.577735e+00 2.790828e+00 1.569994e+00 1.062810e+00 3.144880e+00 -2.089005e-01 -3.120511e-01 -3.684639e-01 -2.357540e-01 1.126673e-01 5.244871e-01 8.154486e-01 8.761014e-01 6.697504e-01 2.667896e-01 3.355964e-02 -5.078994e-02 1.426081e-04
<VARIANCE> 25
 1.220716e+01 9.095385e+00 1.070709e+01 1.197571e+01 1.238234e+01 1.914593e+01 1.752262e+01 1.635827e+01 1.801403e+01 1.701549e+01 1.844242e+01 1.411750e+01 1.020940e-01 1.632085e-01 2.627451e-01 4.189054e-01 5.740976e-01 6.771781e-01 7.200434e-01 7.943283e-01 8.758969e-01 1.089530e+00 1.012511e+00 9.771224e-01 1.748990e-05
<GCONST> 5.910832e+01
<MIXTURE> 126 2.402244e-03
<MEAN> 25
 -3.535192e+00 -6.902623e+00 -4.995141e+00 2.376348e+00 3.858727e+00 -3.578286e+00 -2.895926e-01 3.413182e+00 3.560692e+00 -2.983858e+00 -1.435505e+00 2.728379e+00 -2.089840e-02 1.891555e-02 -7.532676e-02 -1.265289e-01 -2.956883e-01 -3.819716e-01 -2.473162e-01 -1.262740e-01 -1.018639e-01 -1.457859e-01 -8.040824e-02 -6.553330e-02 -1.065674e-03
<VARIANCE> 25
 8.129867e+00 1.203731e+01 1.435681e+01 1.556261e+01 2.638929e+01 2.418347e+01 2.370244e+01 2.710981e+01 3.067045e+01 2.657699e+01 2.056788e+01 1.986418e+01 1.677295e-01 3.489418e-01 5.016705e-01 5.543844e-01 8.198205e-01 9.429271e-01 1.105126e+00 1.214572e+00 1.344145e+00 1.327164e+00 1.160388e+00 1.147492e+00 2.088738e-04
<GCONST> 6.988998e+01
<MIXTURE> 127 2.402244e-03
<MEAN> 25
 -3.535192e+00 -6.902623e+00 -4.995141e+00 2.376348e+00 3.858727e+00 -3.578286e+00 -2.895926e-01 3.413182e+00 3.560692e+00 -2.983858e+00 -1.435505e+00 2.728379e+00 -2.089840e-02 1.891555e-02 -7.532676e-02 -1.265289e-01 -2.956883e-01 -3.819716e-01 -2.473162e-01 -1.262740e-01 -1.018639e-01 -1.457859e-01 -8.040824e-02 -6.553330e-02 -1.065674e-03
<VARIANCE> 25
 8.129867e+00 1.203731e+01 1.435681e+01 1.556261e+01 2.638929e+01 2.418347e+01 2.370244e+01 2.710981e+01 3.067045e+01 2.657699e+01 2.056788e+01 1.986418e+01 1.677295e-01 3.489418e-01 5.016705e-01 5.543844e-01 8.198205e-01 9.429271e-01 1.105126e+00 1.214572e+00 1.344145e+00 1.327164e+00 1.160388e+00 1.147492e+00 2.088738e-04
<GCONST> 6.988998e+01
<MIXTURE> 128 3.790457e-03
<MEAN> 25
 -3.581329e+00 1.931753e+00 -5.964310e-01 6.286582e+00 4.052728e+00 2.315861e+00 4.317622e+00 2.511127e+00 3.157499e+00 4.036939e+00 3.461607e+00 3.686438e+00 -4.181479e-01 -1.138852e-01 5.120935e-02 5.986781e-01 1.048241e+00 1.113793e+00 7.096682e-01 2.466241e-01 -3.012341e-01 -8.234116e-01 -7.346301e-01 -4.916940e-01 -3.125898e-05
<VARIANCE> 25
 1.052541e+01 1.215725e+01 1.435217e+01 1.858349e+01 2.018388e+01 2.140532e+01 2.786565e+01 2.286940e+01 3.046888e+01 2.310518e+01 2.579325e+01 1.719918e+01 8.267092e-01 1.154756e+00 1.277961e+00 1.549706e+00 1.656683e+00 1.763805e+00 2.247026e+00 2.290293e+00 2.234730e+00 1.742636e+00 1.681587e+00 1.737222e+00 9.313775e-07
<GCONST> 7.345471e+01
<TRANSP> 3
 0.000000e+00 1.000000e+00 0.000000e+00
 0.000000e+00 9.999990e-01 9.999998e-07
 0.000000e+00 0.000000e+00 0.000000e+00
<ENDHMM>
